7.080246e-02
-1.585454e-01
2.298779e-02
-1.180753e-01
-4.091339e-01
-9.069372e-02
8.739349e-02
-9.019361e-02
1.869586e-01
7.944106e-02
-1.934141e-01
8.028782e-03
-1.982836e-01
-5.172281e-01
-1.665083e-01
1.106354e-02
-1.994353e-01
8.784395e-02
9.602862e-02
-1.037401e-01
1.132857e-01
-8.909049e-02
-3.198815e-01
-6.044418e-03
5.186461e-02
-5.809138e-02
2.324608e-01
-1.733878e-01
-4.666003e-01
-1.196241e-01
-1.328725e-01
-8.511620e-01
-3.422281e-01
1.151582e-01
5.189244e-02
6.071961e-02
2.950072e-01
1.402937e-01
3.396897e-01
1.707929e-01
-3.846482e-01
1.445742e-01
2.154587e-02
4.946961e-02
2.006044e-01
1.960116e-01
1.019710e-01
1.853944e-01
1.468064e-01
-2.825939e-01
3.615217e-02
-1.432472e-01
-1.526778e-01
-5.234787e-02
5.183902e-01
-8.187311e-02
-4.306151e-01
2.998869e-01
-9.090139e-01
-6.737204e-01
5.787645e-01
6.067821e-01
-1.407119e-01
1.836548e-01
3.738304e-01
4.000505e-01
-3.760295e-01
-6.302930e-01
4.937513e-02
2.353766e-02
5.569604e-01
4.525296e-02
2.880571e-02
3.938181e-01
3.804505e-01
-5.306985e-01
-3.940142e-01
3.792387e-01
-2.321276e-01
-7.144918e-03
-1.875273e-02
-3.872186e-01
-4.097754e-01
5.609402e-01
-5.703416e-02
1.043623e+00
-9.420499e-01
-6.767252e-02
1.008371e-01
1.992431e-01
-2.095207e-02
5.467303e-03
2.689025e-01
-8.099767e-02
9.101481e-01
-1.483790e+00
-1.258871e-01
-9.259197e-02
-7.782006e-02
8.902776e-02
-1.745303e-01
2.813443e-01
-1.772624e-01
6.157256e-01
-3.653433e-01
-6.167297e-02
1.698271e-01
1.919274e-01
1.801555e-01
-1.246654e-01
-8.355046e-02
3.030020e-01
5.721408e-01
4.386648e-02
6.444147e-01
3.704193e-01
1.372897e-02
-3.450602e-01
-5.428761e-01
7.442018e-02
-6.968393e-01
-4.945428e-01
-1.585869e-01
-1.339852e-01
-7.226225e-01
-4.647867e-01
7.759129e-02
1.793685e-01
4.899738e-01
-2.472391e-01
4.128451e-01
7.609235e-01
-7.709443e-02
-1.124955e-01
3.325572e-01
-1.045693e-02
-5.504360e-01
-1.047470e-01
-3.952643e-01
-9.469950e-01
-5.301310e-01
-2.944943e-02
-3.070738e-01
1.309617e-01
-8.474863e-02
-1.693930e-01
-2.190537e-01
2.488373e-02
1.018631e-02
-2.627585e-01
-6.185791e-02
-1.777611e-01
-2.145275e-01
1.746853e-01
6.335177e-01
2.789627e-01
5.814832e-01
1.328656e+00
6.673549e-01
1.002854e-01
5.053402e-01
1.638523e-01
-2.076381e-01
-5.333007e-01
-2.090809e-01
-4.268028e-01
-4.209266e-02
-7.343877e-02
-1.150714e-01
-1.103412e-01
9.039956e-02
2.301310e-01
8.765424e-01
4.222345e-01
4.940324e-01
1.733350e+00
8.241606e-01
1.381596e-01
7.004724e-01
3.685423e-01
2.731176e-02
-2.567542e-01
-1.340447e-01
-2.925632e-01
-8.218530e-01
-7.912651e-01
5.417682e-03
-8.745438e-01
-5.723966e-01
3.604938e-02
8.042322e-02
8.542303e-02
-1.221823e-02
1.088193e-01
9.463239e-02
-2.000115e-01
-2.106991e-01
-9.666084e-02
1.286227e-01
3.816207e-01
4.168734e-01
-3.409491e-02
2.311001e-01
3.093639e-01
-1.031590e-01
-1.297509e-01
-1.825863e-02
4.455316e-02
4.127624e-01
4.995763e-01
-2.088151e-01
1.370643e-01
2.600069e-01
-2.313148e-01
-2.570270e-01
-1.359298e-01
-1.812059e-01
-6.082270e-01
-2.138171e-01
3.009253e-02
-5.502264e-01
1.491408e-01
3.993711e-01
4.237976e-01
3.556922e-01
-8.211797e-02
-5.888856e-01
-7.393847e-02
2.037213e-01
-4.293467e-01
4.636756e-01
3.597707e-01
3.532403e-01
5.201235e-01
2.413911e-02
-4.626862e-01
-1.586258e-01
1.026617e-01
-5.128576e-01
1.292390e-01
1.665495e-01
-1.057733e-02
1.952505e-01
-1.442039e-01
-5.164604e-01
-3.001563e-02
7.473016e-01
-2.308744e-01
-3.627900e-01
3.168994e-01
4.426080e-02
1.539689e-01
1.985977e-01
-4.396202e-01
-2.399587e-01
1.140594e+00
-3.206838e-01
-5.924289e-01
2.584761e-01
-3.242600e-01
-2.102966e-02
3.671575e-01
-1.767433e-01
-8.737089e-02
1.177130e+00
-8.412750e-02
-5.033830e-01
3.547311e-01
-2.584989e-01
-1.849926e-01
2.565591e-01
3.097342e-01
5.249367e-02
5.052193e-01
5.315677e-01
-1.608817e-01
-1.470385e-02
-8.719921e-02
-5.371639e-01
3.917044e-01
4.498452e-01
-8.969528e-02
3.334633e-01
2.873480e-01
-4.880363e-01
-2.046584e-01
-3.381593e-01
-7.246639e-01
2.492486e-01
3.046915e-01
-3.715552e-02
1.966518e-01
2.319968e-01
-2.799037e-01
-1.977936e-01
-2.437477e-01
-5.344213e-01
8.207803e-02
1.896193e-01
2.392939e-02
1.250467e-02
-2.978325e-02
-1.430192e-01
-4.871743e-02
-2.601276e-01
-5.964307e-02
1.853143e-01
1.738618e-01
4.387750e-02
1.287213e-01
5.429630e-03
-8.280596e-02
1.625574e-01
-4.001146e-03
1.739925e-01
-1.335015e-01
-3.226638e-01
-3.481974e-01
-2.175206e-01
-4.572723e-01
-4.807559e-01
-5.561487e-02
-1.920803e-01
8.814247e-03
-1.683589e-01
1.127547e+00
1.367672e-01
1.274906e-01
2.166511e+00
1.113023e+00
-1.276550e-01
3.625835e-01
-2.930447e-01
-3.364121e-01
-7.582526e-01
-6.103413e-01
-6.777311e-01
-6.356159e-01
-1.947705e-01
1.143469e-01
-3.305105e-01
-1.010099e-01
6.115846e-01
-6.011395e-02
-2.329233e-01
-4.654888e-02
-5.441688e-01
-4.032087e-01
3.522513e-01
1.828956e-01
2.358590e-01
9.349271e-02
8.090481e-02
2.529531e-01
-1.164019e-01
-2.760042e-01
1.561041e-01
1.450950e-01
-1.306467e-01
1.016547e-01
2.758214e-02
-3.623585e-02
2.648251e-01
-2.146890e-01
-3.902269e-01
7.867686e-02
5.488516e-02
-1.554574e-01
5.273354e-02
-6.488966e-02
-2.268279e-01
-3.511890e-02
-1.685203e-01
-4.568374e-01
-2.429488e-01
1.686172e-01
-8.671732e-02
-9.913323e-02
7.451289e-02
4.131054e-01
1.975245e-01
-1.732805e-01
8.940908e-02
-1.044238e-01
-2.303334e-01
-2.288703e-01
-1.164658e-01
3.693276e-03
3.728921e-01
3.136745e-02
-2.288229e-01
3.503532e-02
-3.073886e-01
-2.531893e-01
-2.865726e-01
-2.933015e-01
1.738549e-01
4.402948e-01
1.746410e-01
-2.462344e-02
2.074632e-01
-8.801982e-02
-2.226049e-02
-1.210549e-02
-9.313617e-02
6.000238e-02
2.433754e-01
2.783025e-01
3.044965e-02
-3.593687e-02
7.734587e-02
9.935480e-02
-1.321302e-01
-1.110329e-02
3.723122e-03
-2.221104e-01
-3.998138e-02
-2.438402e-01
-8.397933e-01
-5.178316e-01
1.348646e-01
-4.727639e-01
-2.273064e-01
7.131886e-02
8.003605e-02
2.523419e-01
-9.354471e-02
-3.595985e-01
-1.604213e-01
1.438441e-01
-1.710311e-01
-6.149913e-02
