-4.807040e-02
-2.694946e-02
-3.448273e-02
-2.103480e-02
-3.094383e-02
-3.923143e-02
-6.688242e-02
-4.688516e-02
-7.603622e-02
1.383271e-02
3.552256e-03
5.691080e-02
2.275282e-02
4.355464e-02
5.503005e-02
-1.511761e-02
2.379689e-02
1.863311e-02
-5.254827e-02
2.882456e-02
9.935796e-02
-5.255393e-03
5.038781e-02
8.834592e-02
4.547656e-04
8.415558e-03
4.438099e-02
-3.329311e-02
5.425500e-02
7.582676e-02
-1.206268e-02
5.536384e-02
4.116028e-02
-9.341022e-02
-3.594627e-02
-1.343456e-02
-4.609784e-02
-5.006224e-02
-1.046331e-03
-2.978499e-02
-7.103765e-02
2.086711e-02
1.299330e-02
4.611189e-02
4.704416e-02
-4.754083e-03
-5.185356e-03
7.682415e-02
-2.919288e-02
1.382697e-02
2.228841e-02
-6.713361e-03
-6.845699e-02
-6.079257e-02
7.430798e-02
3.757522e-02
1.135885e-01
4.779461e-02
3.353414e-02
1.170174e-01
-1.221497e-02
7.486509e-03
3.791646e-02
-1.449232e-01
-2.106533e-02
4.789044e-02
-1.059427e-01
-3.264797e-02
7.320657e-03
1.924479e-02
5.519846e-02
3.434904e-02
-1.990986e-02
-3.944944e-02
-1.099289e-02
-7.914592e-02
-8.048474e-02
1.858983e-02
-1.454724e-01
-1.240855e-01
1.235312e-02
7.292221e-02
-2.785899e-02
-6.589236e-02
1.826566e-02
-3.184867e-02
-5.089283e-02
2.211095e-02
-4.696039e-02
-8.316188e-02
-9.490485e-02
-2.995554e-02
-1.002761e-01
-6.489467e-02
8.623473e-04
-1.317106e-01
-6.721218e-02
-3.050852e-02
-1.111259e-01
-1.241266e-01
-1.156476e-02
4.785583e-02
-1.110042e-01
-5.006240e-02
-1.474314e-02
-7.586277e-02
5.022057e-03
4.535459e-02
1.604032e-02
9.242843e-03
1.222977e-01
7.344169e-02
4.644932e-02
1.072081e-01
1.052729e-01
6.196845e-02
3.861851e-02
-7.530439e-02
-6.335807e-02
-3.718547e-02
-8.200555e-02
-6.721812e-02
-6.286898e-02
-2.780024e-02
-7.452838e-02
-8.034102e-02
-3.265189e-02
7.975289e-02
5.962041e-02
-2.251580e-02
-1.764803e-03
3.258067e-02
3.484344e-02
-3.849573e-02
-4.070798e-02
-1.059316e-03
4.688639e-02
-5.164041e-02
3.961147e-02
9.515273e-02
7.761586e-02
5.775599e-02
1.283045e-01
9.792622e-02
-9.432283e-02
-1.286065e-01
2.479422e-02
1.418458e-02
-1.145756e-01
2.425043e-02
5.228244e-02
-3.319562e-02
5.927832e-02
-8.756997e-02
-4.321841e-02
-8.215024e-03
-2.475297e-02
-5.044083e-02
-3.608621e-02
8.409711e-02
1.244342e-02
-3.683627e-02
4.293715e-02
-5.007248e-03
1.179955e-01
7.625993e-02
3.969682e-02
1.523589e-01
4.861467e-02
-2.315001e-03
6.190495e-02
-2.817171e-02
-3.983490e-02
-2.451424e-02
1.223665e-02
-6.631655e-02
-1.487273e-02
-4.276628e-02
-9.436700e-02
-7.172637e-02
-2.373819e-02
2.714021e-02
-1.017318e-01
2.958548e-02
4.085503e-02
-1.105734e-02
3.622094e-02
1.586354e-02
6.254531e-02
-4.686712e-02
5.751684e-02
4.062945e-03
-3.553018e-02
1.611150e-02
4.996728e-02
-2.299304e-02
-2.683290e-02
-2.300857e-02
5.256465e-02
6.116755e-02
-1.700772e-02
1.176150e-02
1.114429e-01
-1.270632e-01
-7.010988e-02
4.567364e-02
-2.606289e-02
8.529449e-02
1.972851e-02
-5.983952e-02
4.830585e-02
1.049723e-02
-1.598074e-01
6.928943e-03
-2.348612e-02
-1.386551e-01
2.981366e-02
4.099834e-03
1.902782e-02
8.183039e-02
1.119424e-01
1.050909e-01
2.394795e-02
1.043240e-01
1.013256e-01
-2.723404e-02
-1.449318e-02
-8.949650e-02
-2.372957e-02
5.422438e-02
-5.273310e-03
1.352888e-02
1.632903e-02
-7.564688e-02
9.797914e-02
3.233514e-02
3.074472e-02
-1.832857e-02
1.195795e-01
1.510558e-01
-1.565333e-02
6.941409e-02
2.059931e-01
-3.864500e-02
1.223053e-02
1.303348e-02
-1.316649e-02
6.452353e-02
5.374201e-02
-8.257252e-02
1.103242e-02
1.061100e-02
-3.538620e-02
-6.474719e-02
-4.019980e-02
-3.046137e-02
-9.961937e-02
-1.175998e-01
6.353372e-03
-5.810051e-02
-1.226799e-01
-1.057985e-01
-4.621188e-02
-6.982694e-03
-9.841768e-02
-1.340025e-01
-2.605704e-02
-1.087901e-02
-2.855287e-02
-1.798675e-02
4.529871e-02
1.518351e-01
1.676072e-02
8.669823e-02
5.367051e-02
4.654002e-02
-2.867398e-02
-6.782195e-02
-5.048012e-02
-1.892142e-02
-7.535647e-02
-4.691903e-02
-3.036080e-02
-6.742115e-02
6.295583e-03
-8.909149e-03
-2.217393e-02
8.646080e-03
-1.091809e-01
1.776269e-02
-4.402040e-02
1.368749e-02
9.848929e-02
9.172694e-02
3.519656e-03
4.652391e-02
3.689568e-02
8.938125e-02
4.860028e-02
-1.935149e-03
8.824103e-02
-2.876833e-02
-6.000887e-02
1.435243e-02
-2.356089e-02
-3.877592e-03
3.417457e-03
2.579503e-02
3.666259e-02
-1.307007e-02
3.665064e-02
1.128610e-01
1.213396e-02
3.357191e-02
3.967079e-02
2.572339e-01
2.458060e-01
1.593302e-01
3.225834e-01
3.088808e-01
1.846738e-01
6.605604e-02
-5.190004e-03
8.828897e-03
-5.236274e-02
-1.222414e-01
-9.343413e-02
-1.103276e-01
-1.255526e-01
-1.337421e-01
-4.095614e-02
-7.137509e-02
1.498589e-02
1.796569e-02
-4.106067e-02
-1.722671e-02
-4.844611e-02
-2.609875e-02
-8.877607e-02
-2.469875e-02
-5.201229e-02
-2.279526e-02
2.252051e-02
2.406617e-02
-5.788597e-02
1.026996e-01
8.818474e-02
-4.056462e-02
5.618003e-02
6.644516e-02
3.392759e-02
2.613905e-02
8.327371e-03
9.716440e-03
-3.769016e-03
-5.271918e-02
-2.505857e-02
-2.242071e-02
-5.689719e-02
-4.283274e-02
1.232908e-01
4.136185e-02
2.581110e-02
7.844771e-02
-1.698278e-02
-5.048586e-02
5.055323e-02
-2.156307e-02
-6.307545e-03
2.613966e-02
2.845739e-03
-6.079056e-02
-8.190995e-02
-6.147703e-02
-4.216512e-02
-5.937061e-02
-8.837464e-03
3.444395e-02
2.627177e-02
-1.445250e-02
7.207083e-03
-1.033663e-02
1.301524e-02
1.591498e-03
-2.314666e-02
-2.709985e-02
4.465200e-03
3.772807e-02
2.731960e-02
9.168202e-02
-6.077807e-04
-1.628267e-02
1.000651e-01
-6.445548e-02
-5.947246e-02
2.093587e-02
9.573316e-03
1.013200e-01
1.009446e-01
3.443515e-02
7.541779e-02
1.373007e-01
3.058011e-03
3.008058e-02
4.832694e-02
1.524270e-02
-3.420308e-03
-2.653575e-02
7.224534e-02
9.160458e-03
-5.665913e-03
4.837136e-02
1.579210e-02
9.184341e-02
-5.200825e-02
1.282801e-02
7.318605e-02
-3.760801e-02
-4.163458e-03
3.298506e-02
-8.875168e-02
-4.275514e-02
-1.626019e-03
5.117747e-02
4.705910e-02
3.678756e-03
-9.148126e-03
-4.546660e-02
-6.360308e-02
-1.095325e-01
-9.884549e-02
-1.028809e-01
-9.032010e-02
-3.817612e-02
2.113671e-02
-4.793614e-02
-4.925045e-02
-4.223886e-03
2.067121e-03
-5.225497e-02
-1.178895e-02
-7.361270e-02
-9.860668e-02
-8.955567e-03
-1.009888e-01
-1.245869e-01
-9.279368e-03
-4.960600e-02
-2.250193e-02
-1.579710e-02
-6.872155e-02
-8.225139e-02
-6.236277e-02
-6.743068e-02
-7.269291e-02
-8.337282e-02
-7.247552e-02
-3.256040e-02
-5.468020e-02
6.693906e-02
7.416707e-02
8.443010e-02
-6.015043e-02
1.131144e-03
4.585802e-02
-7.400370e-02
-1.123960e-01
-2.995910e-02
1.008068e-02
-4.383593e-02
-4.430727e-02
-4.339885e-02
3.912832e-02
1.986525e-03
-5.014008e-02
-3.696661e-03
-2.592005e-02
5.803817e-02
4.274434e-02
4.904479e-02
2.064562e-02
2.374011e-02
3.333769e-02
1.668683e-02
1.118706e-03
-4.436781e-02
2.467284e-02
5.151420e-02
-1.094950e-02
-5.252992e-02
-4.017729e-02
6.348768e-02
-1.079475e-02
1.789678e-02
-2.223720e-02
8.778569e-03
9.148769e-03
9.888057e-03
-1.834341e-02
-4.094673e-02
-1.221479e-02
-6.875700e-02
-8.295499e-02
-7.728673e-02
2.146031e-03
4.631410e-02
1.589666e-01
2.248109e-02
1.181213e-02
1.826424e-02
-9.279209e-02
-6.161533e-02
-3.106711e-02
-8.328391e-03
-5.932473e-02
9.466068e-03
-1.108671e-01
-1.294657e-01
-1.003778e-01
-6.095586e-02
-9.323549e-02
-5.058131e-03
8.037642e-02
7.211661e-02
-8.727006e-03
4.851830e-02
-2.250664e-02
-8.048500e-03
-5.612541e-02
-1.034043e-01
-3.939057e-02
1.394570e-02
-7.946052e-03
-2.275360e-02
2.469799e-02
-1.262846e-02
-1.625146e-03
2.109897e-02
1.552356e-02
8.010342e-03
-2.712625e-02
-9.751340e-03
-1.467465e-02
-9.851756e-02
-1.524257e-01
-1.204771e-01
-4.049622e-02
-5.102826e-02
-1.055142e-02
6.684859e-02
2.187459e-02
9.866758e-03
1.300193e-01
-1.314360e-03
-5.805961e-03
-1.098479e-02
-9.745476e-02
-8.664083e-02
-9.969701e-02
-5.847659e-02
-4.942533e-02
-4.919732e-03
-3.778230e-02
-1.050136e-01
1.789829e-02
-4.461097e-02
-1.111559e-01
2.960597e-02
1.831497e-02
2.676356e-02
1.186098e-02
-2.491123e-02
2.508130e-02
4.248829e-02
1.107057e-01
4.272175e-02
-6.214381e-02
-8.168586e-02
9.817123e-03
2.607691e-02
-9.881117e-02
-2.083383e-02
5.615386e-02
-2.763136e-02
-8.872364e-02
-7.601584e-02
-1.074373e-01
2.010584e-02
-5.838070e-02
-1.146877e-01
-8.444700e-02
-5.741739e-02
-2.576612e-02
-1.598395e-02
-3.389759e-02
-1.606840e-02
-1.632100e-02
-1.077329e-02
-8.160729e-03
9.055800e-02
-2.597808e-02
2.849466e-02
1.476930e-01
-7.881925e-04
-1.259708e-01
1.790653e-02
-9.283306e-03
-9.426181e-02
-4.882733e-02
-4.309774e-02
-2.600728e-02
5.935565e-02
2.376094e-02
-9.339480e-02
-1.062644e-01
-3.495387e-02
-5.775591e-02
-3.014872e-02
-1.902899e-02
-9.146975e-03
1.063753e-02
3.886248e-02
1.329876e-01
8.781573e-02
4.875222e-03
-7.957211e-04
1.403367e-02
-2.221768e-02
-4.792114e-02
-1.030863e-01
1.687393e-01
9.209061e-02
9.569534e-02
8.660266e-02
3.433412e-02
1.694752e-02
7.591825e-02
3.272145e-02
-7.528377e-02
2.067287e-02
-5.975245e-02
-1.296647e-02
-2.056877e-02
-9.006111e-02
5.098992e-03
-6.697581e-03
-6.020796e-02
-1.949469e-02
-2.191156e-03
-9.260040e-03
-4.102085e-02
-3.734828e-02
3.204743e-02
-5.657415e-03
5.753465e-03
1.072661e-01
2.050294e-02
8.758570e-04
-6.477366e-02
-8.046924e-02
5.310277e-02
-1.081900e-02
1.130697e-02
3.817748e-02
8.377297e-02
7.985761e-02
-2.903008e-02
-2.187143e-02
-7.628579e-02
-2.694382e-02
-8.903623e-03
-8.004346e-02
-5.505897e-02
2.030144e-02
-4.879163e-02
8.937144e-02
6.051086e-02
1.448664e-02
1.148475e-02
-3.390183e-02
-6.185351e-02
5.913675e-02
-2.742550e-02
-1.315180e-02
-6.313515e-02
-6.599431e-02
-1.543745e-02
-4.181455e-02
-6.475064e-02
-2.234064e-02
-6.269435e-02
-6.410977e-02
-5.977941e-02
-1.389804e-02
-6.502323e-02
-4.240078e-02
-6.601922e-02
-1.138631e-01
-4.754562e-02
-8.385170e-02
-8.996548e-02
-1.376542e-02
5.659046e-02
2.036057e-01
5.157975e-02
-2.358848e-02
7.775481e-02
-4.675144e-02
-3.415681e-03
8.103339e-02
1.305847e-01
-6.248049e-02
-7.371678e-02
-5.273493e-02
-6.073627e-02
-6.513774e-02
-1.546839e-02
1.113850e-01
8.218495e-02
5.944113e-02
-3.936468e-02
1.198617e-02
-1.205635e-01
-3.167827e-02
-5.671449e-03
-9.939656e-02
4.677988e-02
-2.918369e-02
5.506527e-04
-1.291108e-01
-3.837650e-02
-1.753753e-02
-4.039411e-02
-1.317433e-02
5.664754e-03
5.710499e-02
-2.232230e-02
4.777933e-02
-5.634720e-02
-1.176567e-02
4.420712e-02
-2.147439e-02
-2.116543e-02
2.650819e-02
3.468952e-03
-2.795192e-03
4.099298e-02
4.254683e-02
2.539383e-02
-9.813666e-02
-1.637393e-02
-1.166745e-02
-2.957571e-02
-8.259056e-02
-4.413273e-02
-1.231083e-01
-4.117228e-02
-1.321015e-02
-3.681243e-02
-7.494624e-02
-7.081696e-02
-5.194699e-02
-7.301988e-02
-2.035101e-02
-6.292211e-02
-2.805284e-02
-3.894861e-02
-7.721641e-02
3.613275e-02
-7.508839e-03
1.851392e-03
-1.497731e-02
1.273086e-02
3.819763e-02
-3.630957e-02
-2.302765e-02
-6.148101e-02
-1.157188e-01
-3.553778e-02
-8.848176e-04
-2.691681e-02
-6.133387e-02
-8.365001e-03
-4.252127e-02
-5.619452e-02
2.683256e-02
-9.865237e-02
-3.859582e-02
1.192975e-01
-1.018444e-01
7.066283e-03
1.169092e-01
6.822469e-02
1.414958e-01
1.384609e-01
8.665415e-03
1.468702e-01
5.624130e-02
7.279607e-02
2.141923e-01
1.327998e-01
-1.281112e-01
-9.027050e-02
4.717197e-02
-7.631404e-02
-2.909481e-02
1.496514e-01
-6.552640e-02
-5.674364e-03
1.881444e-01
-4.246391e-02
2.084767e-02
8.733364e-02
-1.138100e-01
-1.921693e-02
8.650117e-02
-9.570808e-02
1.352882e-03
6.629150e-02
-3.925372e-02
-5.020397e-02
-9.236588e-02
-1.092549e-01
-1.028126e-01
-8.747114e-02
-4.817180e-02
-5.354060e-02
4.703044e-02
-2.662848e-02
6.532232e-03
6.964282e-02
-9.631842e-02
-7.208440e-02
1.017464e-02
-1.121497e-01
-1.024206e-01
-4.880162e-02
3.209650e-02
-1.675656e-02
2.165787e-03
-8.740512e-02
-2.009856e-02
-2.519348e-02
3.519576e-02
9.475370e-03
-3.887331e-02
-8.014920e-02
-2.544058e-02
-6.891985e-03
-8.982012e-02
-8.774116e-03
-5.682924e-03
-8.211499e-02
-4.005832e-03
1.971148e-02
5.176856e-02
4.129710e-02
5.281529e-02
1.560309e-01
8.009527e-02
1.400209e-01
1.442323e-01
1.353365e-01
1.015246e-01
-1.377202e-02
-1.015238e-01
-8.213300e-02
1.917227e-02
-3.248723e-02
-3.352578e-02
-3.423039e-03
-4.357162e-02
-5.597287e-03
-5.275393e-02
-1.052360e-01
-1.018214e-01
-7.579925e-02
-8.483461e-02
-5.161244e-02
-4.555335e-02
-1.158672e-01
-6.941429e-02
3.475537e-02
2.609364e-02
-4.836177e-02
-2.717452e-02
-5.150446e-02
-3.757383e-02
-5.776661e-02
-5.683481e-02
-1.030882e-02
-3.872415e-02
-8.866005e-02
-1.027769e-01
-9.434668e-02
-7.825910e-02
2.401022e-02
-6.392823e-02
-3.928633e-02
2.848847e-02
5.872839e-04
-5.348700e-02
-4.420822e-02
-5.177801e-03
-3.114294e-02
-3.358750e-02
-3.527658e-02
2.617664e-02
-4.478452e-02
-4.001468e-02
2.956537e-03
-4.728322e-02
5.362974e-02
-4.035608e-02
-5.387916e-02
2.281029e-02
2.679377e-02
-5.272149e-02
-6.504793e-02
-6.635279e-02
-3.242179e-03
-7.871369e-02
-7.090525e-02
-3.390354e-03
-4.105996e-02
-3.538090e-02
5.220858e-02
1.346698e-02
-8.508693e-02
-1.230255e-01
1.888038e-02
-4.523898e-02
-4.975247e-02
2.891213e-02
1.173389e-02
1.301020e-02
-9.636978e-02
-8.457428e-02
-8.180207e-02
-9.000221e-02
-1.456182e-01
-4.666148e-02
-4.922903e-02
-1.035355e-01
-1.272364e-02
3.184801e-02
5.822807e-03
1.926058e-02
-5.965260e-03
1.907540e-02
7.125486e-02
-3.632595e-02
3.414644e-02
8.225730e-02
8.936833e-02
-2.465095e-02
-8.703805e-02
-4.946237e-03
-1.105549e-01
-8.354862e-02
-3.151161e-02
-7.062364e-02
3.622935e-03
-3.229859e-02
-2.294565e-02
8.059105e-03
8.522012e-03
-3.304430e-02
-3.150342e-02
2.813283e-02
-1.911012e-02
-1.985919e-02
-1.975867e-03
-3.437309e-02
-8.614597e-03
-6.728514e-02
-2.352868e-02
-2.273261e-02
-9.113221e-02
-2.428616e-04
-1.542329e-02
-2.108707e-02
-5.072866e-02
-7.208874e-02
3.566944e-02
2.126838e-04
-3.107289e-02
-5.764773e-03
2.066406e-02
-1.267215e-02
-3.530350e-02
5.031726e-03
-1.222167e-02
-3.907915e-02
-8.374076e-02
-7.172398e-02
-1.179735e-01
-1.061543e-01
-7.864664e-02
-1.730195e-01
-1.506775e-01
-3.797051e-02
-1.422935e-01
-7.614227e-03
8.012436e-02
-7.996066e-02
3.410517e-02
1.589480e-01
-3.989543e-02
-4.937203e-02
-1.304245e-03
2.196836e-02
-1.497616e-02
8.543923e-02
-1.305451e-02
6.437887e-02
1.671335e-01
4.149920e-02
1.915659e-02
8.515921e-02
3.375099e-02
-2.269661e-02
2.478201e-02
1.559934e-02
-5.978025e-02
4.105252e-02
-1.091236e-01
-1.181112e-01
-4.054367e-02
-4.142821e-02
-7.508237e-02
-4.582608e-02
-7.592060e-03
-3.969518e-02
-2.018536e-02
4.606377e-03
-1.004711e-01
-9.254149e-02
5.577595e-02
1.280652e-02
-1.327222e-02
4.732882e-02
1.310509e-02
2.022260e-02
-2.912996e-02
2.379017e-02
-3.994229e-02
-3.532866e-02
-5.056556e-02
-5.077118e-03
-5.805704e-02
-2.226321e-02
3.102696e-02
2.960730e-02
-6.258370e-02
-5.140031e-02
-1.128469e-01
-8.571733e-02
-3.237631e-02
-5.759363e-02
8.232942e-03
-1.558457e-02
-7.840929e-02
-1.022109e-02
-1.144995e-01
-6.060756e-02
3.008984e-03
-1.216377e-01
-2.246655e-02
2.604595e-03
-7.025606e-02
-1.760347e-02
-9.988714e-03
2.729532e-02
-4.602511e-02
-4.735363e-02
-1.207687e-04
-4.680449e-02
-3.839937e-02
-1.972494e-02
4.733706e-02
-5.133820e-03
3.221210e-02
2.734712e-02
1.932828e-02
2.862680e-02
-6.331448e-02
1.781105e-02
-1.948545e-02
-2.390194e-02
-1.448012e-02
-8.309232e-02
-2.886875e-02
-1.019466e-02
3.733242e-02
-7.230848e-02
1.294902e-02
6.384013e-02
-1.234106e-02
-3.692420e-02
-2.910335e-02
-7.523428e-03
-3.297147e-02
6.833592e-03
9.859964e-02
1.048147e-01
5.119687e-02
-8.227259e-02
-1.259802e-02
-6.457980e-02
-3.468759e-02
2.385777e-02
-5.184222e-02
-1.014097e-02
4.615318e-02
4.336011e-03
-3.363381e-02
-2.478883e-02
4.539551e-04
8.746956e-03
3.745094e-02
1.172121e-02
4.818478e-03
-1.652314e-02
-3.154098e-02
-7.600325e-02
-1.093358e-01
-2.839212e-02
-4.093283e-02
-3.267629e-02
-5.574455e-02
1.851729e-02
1.117479e-02
-6.045607e-02
-1.774554e-02
-3.841228e-02
-2.968252e-02
-4.173085e-02
-7.624587e-02
-3.239186e-03
-2.171476e-02
1.379691e-02
7.641724e-02
-2.445412e-02
5.503435e-02
2.670246e-02
-9.915810e-03
-5.648359e-03
4.453727e-03
6.827820e-02
-7.007396e-04
-3.282222e-02
-8.104458e-02
-1.018393e-01
-1.413238e-02
2.326882e-03
-6.568137e-02
4.798473e-02
-9.937232e-03
-1.222380e-02
2.908437e-02
2.705069e-02
8.656254e-02
7.303313e-03
3.802070e-02
-4.435009e-02
-1.237263e-01
-1.887727e-02
-6.539057e-02
-1.328233e-01
-1.054513e-01
-6.817589e-02
-6.772144e-03
-3.098084e-02
-1.290860e-03
2.546643e-02
-6.065267e-02
-5.570390e-02
-7.178447e-02
2.018070e-02
4.724615e-02
1.488264e-02
-1.592897e-02
-6.215563e-02
-7.055058e-02
-1.836662e-02
-1.010569e-01
-6.179073e-02
-1.381578e-01
-1.189858e-01
-6.716870e-02
-6.324517e-02
-5.925032e-02
-6.088867e-02
-2.222046e-02
2.958833e-02
-7.519439e-03
-8.645858e-02
-4.626031e-02
-5.008459e-02
-4.718361e-02
4.035853e-02
-1.947175e-02
1.331250e-02
-4.159045e-02
1.945702e-02
-8.621994e-02
-5.355382e-02
-3.131288e-02
-8.953058e-02
-4.757055e-02
-2.869320e-02
-1.550918e-02
6.360161e-02
-9.780750e-03
-7.056069e-02
-1.288364e-01
-1.426193e-01
2.274663e-02
-5.827490e-02
-1.036204e-01
7.959592e-02
4.293934e-02
-1.810107e-02
-7.127975e-02
-5.871459e-02
-2.437497e-02
6.058608e-02
4.818775e-02
5.841654e-02
8.866753e-02
8.277816e-02
1.350129e-01
-4.060593e-02
-8.996662e-02
-8.401564e-02
-7.389976e-02
-1.493437e-01
-1.194829e-01
-4.239333e-02
-7.802443e-02
-7.133061e-02
-6.521185e-02
5.779832e-02
-3.261726e-02
-1.035969e-02
7.981148e-02
2.857709e-02
2.030363e-03
9.485843e-02
8.268815e-02
-6.138905e-02
-6.872571e-02
-5.096953e-02
1.263879e-02
-1.505475e-02
-2.923802e-02
-9.606530e-02
-1.021840e-01
1.459508e-02
-1.320447e-02
9.875614e-03
5.509710e-02
-4.075859e-02
-1.028576e-02
-9.133056e-03
3.422753e-02
9.316079e-02
9.115669e-02
-1.128683e-01
-1.326299e-01
-1.107499e-01
-1.752393e-02
-3.100105e-02
1.409527e-02
3.154260e-02
7.027942e-02
1.233747e-01
-8.822647e-02
-5.239334e-02
-1.546994e-02
-8.080428e-03
-5.198439e-02
-3.148409e-02
-9.048606e-03
-1.463026e-02
-2.539367e-02
-2.240477e-02
-2.484978e-02
9.967481e-02
-1.755774e-02
2.172301e-02
5.133303e-02
-8.811234e-03
9.627325e-03
5.320754e-02
3.253005e-02
-8.629175e-02
-6.136961e-02
2.616348e-03
-9.750645e-02
-4.334045e-02
6.555673e-03
-4.955783e-02
6.125338e-03
-1.010255e-01
-9.324548e-02
-8.006039e-04
-1.177575e-01
-1.175163e-01
-6.210801e-02
-6.321491e-02
-7.059973e-02
-1.836540e-02
-4.574313e-02
-5.031160e-03
-1.785611e-03
-2.947344e-02
-1.816282e-02
1.063475e-02
-5.787947e-02
-3.957802e-02
-1.127898e-02
-1.828649e-03
-7.687680e-02
-5.448614e-02
5.407247e-02
5.441671e-03
-8.285176e-02
5.566278e-02
5.514700e-02
2.386926e-02
4.935395e-02
-5.900171e-02
3.397195e-02
1.094084e-01
1.040655e-01
8.740484e-02
1.177313e-02
2.065241e-02
-5.274436e-02
4.595611e-02
3.438940e-02
4.617245e-02
1.431867e-02
1.296774e-02
1.588378e-02
-7.184645e-02
-6.629663e-02
-1.731830e-02
-2.634084e-02
5.139723e-03
-1.617579e-02
-4.261970e-02
-7.781236e-02
-6.896264e-02
-1.861496e-02
-1.580031e-02
-6.807862e-02
-5.856954e-02
-1.812125e-03
-2.022326e-02
-4.588864e-02
-7.344754e-03
-1.350440e-03
-9.018026e-02
-7.961540e-03
1.022143e-02
7.011595e-02
1.054351e-01
4.352040e-02
5.420115e-02
3.029365e-02
4.434263e-02
4.335305e-03
3.902496e-02
1.945629e-02
-3.897595e-02
-1.409122e-01
-9.299927e-02
-3.066353e-02
-7.574133e-02
-9.317699e-02
-1.863409e-02
-5.019664e-02
-5.917230e-02
-7.781212e-02
-7.455385e-02
-2.489747e-02
-1.131662e-01
-8.709485e-02
-7.938367e-02
-5.235142e-02
-8.111924e-02
-1.044480e-01
-1.171786e-02
-6.007333e-02
-8.419777e-03
4.675716e-02
-5.812759e-03
7.367023e-03
1.908988e-02
4.984773e-02
5.693975e-02
4.989232e-03
4.390897e-02
1.075435e-02
-5.725653e-02
-4.948857e-02
-5.592394e-02
-1.363636e-01
-9.580859e-02
-1.199653e-01
-4.232683e-02
-7.802099e-02
-7.186892e-02
-5.126332e-02
-9.232419e-02
-9.205151e-02
-1.015596e-01
-7.504491e-02
-3.243250e-02
2.241494e-03
-3.563790e-02
-1.567248e-02
2.522697e-02
6.242003e-02
1.565952e-02
9.395727e-02
9.880299e-02
3.034370e-02
-2.930148e-02
-7.698797e-02
-7.412433e-02
8.158630e-03
-2.772883e-02
-3.424166e-02
-3.903640e-02
-7.198992e-02
-3.752276e-02
4.852587e-03
-1.077447e-01
2.617614e-02
1.360649e-03
-1.553449e-01
-4.223339e-02
-1.078021e-01
-2.381207e-01
-1.111656e-01
-5.256056e-02
-5.137025e-02
-1.058573e-03
2.454954e-02
1.126122e-01
6.477412e-02
9.111452e-02
1.147057e-01
1.053117e-01
-4.732138e-02
-3.542507e-02
-1.921233e-02
1.488724e-02
-5.899734e-02
-2.057629e-02
-1.069056e-02
-5.105615e-02
-9.300992e-02
-3.021469e-02
-1.995876e-03
2.177413e-02
-6.300143e-02
-4.507923e-02
7.448709e-02
4.645515e-03
4.027314e-02
4.496991e-02
-1.102972e-02
7.578424e-02
-7.150115e-02
1.040112e-01
2.206662e-01
4.476385e-02
-1.058873e-02
1.870349e-01
1.199035e-02
-1.564244e-02
-2.358328e-02
2.817128e-02
-7.892903e-02
-1.312558e-02
-1.519766e-02
-4.294278e-02
-7.196816e-02
3.560704e-02
-6.836474e-02
-1.075817e-01
-6.195519e-02
-9.844584e-02
-9.350818e-02
-4.768175e-02
-1.190106e-01
-5.639523e-02
-1.535685e-02
-2.211663e-02
5.653015e-03
-4.109196e-03
-2.145698e-02
-3.790431e-02
-1.841942e-02
-4.415152e-02
-6.738963e-02
-8.276971e-02
4.905086e-02
1.719616e-02
2.185435e-02
3.775189e-02
4.414654e-02
2.793328e-02
1.934754e-02
-2.151081e-02
1.545449e-03
-3.884738e-02
1.385147e-02
5.259833e-02
-3.295948e-02
-4.718088e-02
-2.477745e-02
-7.718253e-02
-4.571238e-02
-5.842875e-03
8.572086e-02
1.536776e-01
2.740331e-02
-1.931417e-02
1.779015e-03
1.757945e-02
-1.306588e-01
-9.568777e-02
4.071840e-02
-5.695865e-02
-1.088168e-01
-2.354213e-01
9.560851e-03
-1.417029e-01
-1.251250e-01
1.212245e-03
-7.353413e-02
-1.018448e-01
7.896324e-02
5.774299e-02
8.439720e-02
1.190764e-01
1.933219e-02
1.099259e-02
1.492383e-01
7.550669e-02
1.904642e-02
2.745897e-02
4.968575e-02
2.753658e-02
4.323572e-02
3.509414e-02
-2.212403e-02
-2.354828e-02
-6.294668e-02
-1.007506e-01
2.435981e-02
6.399605e-02
-4.539419e-02
-1.621479e-01
-1.510271e-01
-8.481937e-03
-3.819884e-03
-5.692970e-02
6.429373e-02
-6.152859e-03
-1.066742e-01
-5.689770e-02
4.637403e-02
-9.140694e-02
-1.135111e-01
9.246333e-02
-2.682848e-02
6.681397e-03
-6.252012e-02
2.610224e-02
-1.007986e-01
-3.544961e-02
8.596620e-02
-7.470705e-02
1.452657e-02
3.935147e-02
-1.180171e-01
5.515048e-02
9.340700e-02
3.003621e-02
2.482156e-02
4.430198e-02
1.006315e-01
4.623220e-04
-9.886910e-02
5.951774e-02
-8.091222e-02
-1.521751e-02
-1.040135e-02
-9.673120e-02
2.430994e-02
3.661867e-02
-8.906741e-02
1.104967e-02
8.936058e-02
-8.865569e-02
-3.219420e-02
-1.075608e-01
-1.279957e-01
-1.136552e-01
-1.960127e-01
-1.075637e-01
-1.064699e-01
-2.511716e-01
-2.528568e-03
9.332633e-04
1.992271e-02
1.103505e-02
-5.771068e-02
4.200951e-02
-1.971918e-02
-5.544007e-02
-1.249241e-02
4.281216e-02
8.211134e-02
-1.072759e-02
4.153651e-02
9.050759e-02
2.721082e-02
-1.282817e-02
7.892334e-02
1.164375e-01
-1.275029e-02
-2.274865e-02
-4.624841e-02
-5.520143e-02
-7.963209e-03
-2.312971e-02
-5.048221e-02
-5.352616e-03
-2.024955e-02
-1.406458e-01
-1.046750e-01
-4.613709e-02
-1.763140e-01
-1.316659e-01
-6.779075e-02
-1.098003e-01
-8.742136e-02
-8.419123e-03
7.065288e-03
7.466212e-02
8.254109e-02
5.102957e-02
1.296506e-01
6.422330e-02
1.084282e-01
1.763501e-01
1.747220e-01
-1.055738e-01
-6.735068e-02
-4.106306e-02
-9.049442e-02
-9.940365e-02
-1.334581e-01
-6.306437e-02
-5.484585e-02
-1.192694e-01
-4.575511e-02
-1.162475e-02
-4.272806e-02
-6.809230e-02
-3.695206e-02
1.452236e-02
-2.196174e-02
2.064310e-02
4.453049e-03
1.742494e-02
1.065625e-01
8.416667e-02
4.622452e-02
1.316226e-01
7.922971e-02
7.841317e-02
9.935908e-02
9.760962e-02
-9.805521e-02
-6.706274e-02
-3.613951e-02
-5.201647e-02
-5.005390e-02
-4.860993e-02
-6.618523e-02
-1.250935e-01
-8.616568e-02
-7.299439e-02
-2.383896e-03
2.119976e-03
-5.682494e-03
-1.493798e-02
8.244625e-02
7.170561e-02
-2.839631e-02
2.666832e-02
4.245770e-02
-7.159759e-03
-3.169581e-02
4.982564e-02
-4.563385e-02
7.406288e-02
1.027281e-01
3.711978e-02
5.757591e-02
2.704136e-02
-3.106644e-02
-8.148669e-02
-1.164026e-02
-4.281709e-02
9.090471e-03
-1.186485e-02
-2.120922e-02
-6.015385e-03
1.019005e-01
-5.822910e-02
1.090820e-01
2.447873e-01
1.117980e-01
1.984988e-01
2.369504e-01
1.281452e-01
6.217283e-02
-5.658094e-02
-3.929069e-02
-2.972399e-02
6.525166e-02
-2.763837e-02
-2.841915e-02
4.814762e-02
6.371700e-02
5.442037e-02
1.563442e-02
4.269963e-02
3.084431e-02
4.006224e-03
8.674369e-04
1.002122e-02
2.996548e-02
-7.365390e-03
-4.496556e-02
-9.746471e-02
7.343571e-03
-3.542317e-02
-6.569028e-02
-4.304638e-03
-4.863980e-02
-7.644199e-02
3.738650e-02
1.992192e-02
-5.599958e-02
1.334252e-01
8.951573e-03
3.315797e-02
1.530319e-01
1.666187e-03
4.906186e-02
1.199717e-01
-3.652931e-02
2.066747e-02
3.480789e-02
2.447743e-02
5.693180e-02
6.626902e-02
-2.031968e-02
5.546068e-02
-2.100696e-02
7.548503e-03
1.027278e-02
-3.080974e-03
6.683882e-03
-2.064979e-02
3.332300e-02
6.327937e-02
6.989779e-02
7.538604e-02
3.862840e-02
-1.217343e-02
7.061956e-02
-8.297534e-02
5.452602e-02
4.972339e-02
-9.705551e-02
3.544654e-02
-1.599975e-03
-1.058334e-01
-2.391479e-03
-9.691352e-02
1.931962e-02
2.271297e-04
4.835208e-02
6.382786e-02
3.873910e-02
1.549435e-02
-1.892266e-02
-1.453569e-01
-9.796469e-02
4.253967e-03
-9.958040e-02
-1.420913e-02
7.559790e-03
-9.477048e-02
-8.867954e-03
4.745565e-02
7.124655e-02
1.185515e-01
-4.493286e-02
3.994682e-02
1.239076e-01
4.456640e-02
2.263525e-02
3.911544e-02
3.628859e-02
-2.648773e-02
2.026607e-02
9.410568e-02
5.975606e-02
2.392440e-02
6.220166e-02
4.682955e-02
3.496959e-02
4.431931e-02
-1.047409e-02
1.085147e-01
-2.548660e-02
-5.896992e-02
7.945994e-02
1.954251e-02
-1.026500e-01
2.240259e-03
5.453742e-02
-1.078600e-01
-5.053901e-02
-6.602109e-03
-1.042653e-01
-4.462998e-02
2.730505e-02
-1.153243e-01
-4.383001e-02
-1.040847e-02
8.243269e-02
7.385185e-02
-8.111001e-02
1.757880e-02
3.819066e-02
4.527685e-02
-7.138982e-02
-2.041305e-02
1.261697e-02
-6.384608e-02
-7.237367e-02
-2.891274e-02
1.636015e-02
2.485485e-03
-2.456959e-04
7.612126e-02
1.571383e-02
1.047300e-01
-1.814327e-03
7.106077e-02
1.735724e-02
2.340696e-03
3.387459e-02
-2.491508e-02
-5.644596e-02
-7.580949e-02
-8.660317e-02
-1.232212e-02
1.207107e-01
1.101953e-01
-2.929482e-02
9.756587e-02
2.969371e-02
-2.918512e-02
2.770848e-03
-8.034273e-02
-4.505678e-02
1.809080e-02
-5.439984e-02
-1.977112e-02
1.545161e-02
-6.578302e-02
3.269918e-02
-2.433128e-02
-3.675807e-02
7.772697e-02
-6.829743e-03
-1.227248e-01
5.962978e-02
-1.106777e-02
-8.771381e-02
8.242243e-03
-7.506129e-03
-4.327537e-02
-2.494739e-02
-1.378968e-02
1.803134e-02
1.299850e-02
1.302341e-02
-5.838033e-03
5.551636e-02
-6.007928e-03
-3.125667e-02
6.985020e-02
6.669945e-02
5.962824e-02
4.680575e-02
3.171499e-02
9.430169e-03
-2.884066e-02
-3.883849e-02
-8.318216e-02
7.733026e-02
2.707082e-02
-9.612041e-03
7.474697e-02
5.342196e-02
2.912080e-03
-4.255017e-02
-5.990893e-02
-3.500380e-02
-1.195644e-01
-9.763873e-02
7.597514e-02
-1.085639e-01
-8.427294e-02
6.508110e-02
-9.376489e-02
-3.516796e-02
1.345879e-01
3.247841e-02
3.040422e-02
-3.314642e-02
4.367205e-02
3.812354e-02
-5.570681e-02
-2.517290e-03
4.684717e-03
-3.394061e-02
-1.863564e-01
-8.306865e-02
9.886167e-03
-1.259015e-01
-5.406020e-02
5.769673e-02
-1.641951e-01
-1.001116e-02
1.339752e-01
-2.659531e-02
-6.080643e-02
-1.884727e-01
-1.383476e-02
-3.692264e-02
-5.559686e-02
1.051874e-02
3.777976e-02
5.484572e-02
-5.591425e-02
6.716955e-03
-1.784217e-02
-9.115640e-02
-2.965909e-03
-5.542066e-02
1.632701e-02
2.278162e-03
1.539212e-04
-6.115587e-02
5.439243e-02
1.128897e-01
-7.378987e-02
-1.126050e-02
8.173898e-02
-5.600749e-02
-2.044125e-02
7.586935e-02
-2.525744e-02
-1.250042e-01
8.989269e-02
2.979116e-02
2.783468e-02
1.460079e-01
3.719087e-02
7.031710e-02
1.608144e-01
-5.875842e-02
8.201042e-02
2.834329e-02
9.715865e-02
2.690093e-02
-5.098338e-02
7.177739e-02
-3.922440e-03
-1.142711e-01
1.725709e-01
1.720305e-01
-5.539659e-02
1.836108e-01
4.623243e-02
-1.137033e-01
8.756147e-02
-6.345470e-02
-1.239775e-01
1.125153e-01
1.422344e-01
2.872699e-02
1.585706e-01
1.909682e-01
1.114685e-01
6.659656e-02
7.377419e-02
4.069398e-02
-7.642273e-02
-1.544814e-02
4.557308e-02
1.405887e-02
-2.150901e-02
-2.120737e-03
-8.518551e-02
-8.651860e-02
-2.635451e-02
1.294293e-01
6.392010e-02
4.553501e-02
1.097045e-01
5.085870e-02
3.836608e-03
4.638622e-02
3.522799e-03
-5.456460e-02
-8.401799e-03
1.192831e-02
-4.484144e-02
-6.957284e-02
8.648054e-03
-4.658678e-02
9.413795e-03
-2.047498e-02
4.004924e-02
-1.932292e-02
1.122075e-01
-4.517689e-02
-7.057279e-02
5.782026e-02
-6.513353e-02
-8.007362e-02
-8.497983e-03
-6.604860e-02
-7.181793e-02
-5.492312e-02
-7.203836e-03
-5.528002e-02
-3.213899e-02
-6.309027e-02
-9.320285e-02
-6.753337e-02
-2.743866e-02
-1.923123e-02
6.665209e-02
1.315555e-01
-7.314938e-02
4.627927e-02
4.147862e-02
-8.783992e-02
-6.986122e-03
6.535808e-02
3.519746e-02
8.163523e-02
-5.164883e-02
3.242901e-02
1.013449e-01
-3.194523e-03
-2.235273e-02
2.109978e-02
-9.226823e-02
-3.088546e-02
-3.203824e-02
3.815838e-02
-7.828061e-02
-6.614853e-02
-2.840935e-02
3.236851e-02
1.434977e-02
5.315256e-02
8.432359e-02
2.556844e-02
8.374261e-02
6.125965e-02
-4.080837e-02
1.741926e-02
8.761534e-02
-3.189525e-03
5.008570e-02
4.945157e-02
6.253390e-03
2.737818e-02
8.523823e-02
-5.736615e-02
4.742280e-02
1.118226e-02
-2.171475e-02
2.943848e-02
4.011915e-02
4.148804e-02
8.679014e-02
4.500341e-02
3.875269e-02
9.241286e-02
5.309905e-02
3.529514e-02
5.384658e-02
5.556526e-02
1.017732e-01
1.396373e-02
1.042747e-01
1.262089e-01
6.519574e-02
6.928861e-02
1.093917e-01
-9.505987e-04
1.335634e-02
-8.730064e-02
-5.265751e-02
-2.023967e-02
-1.006944e-01
-2.129051e-02
1.438333e-02
-3.945973e-02
3.919993e-02
-3.662282e-02
-9.027958e-02
-4.619461e-02
-7.151943e-02
-1.462816e-01
-1.489610e-01
2.175515e-02
-3.396833e-02
-8.152246e-02
5.720386e-02
-5.161766e-02
-3.401886e-02
7.920998e-02
-6.670389e-02
-8.525290e-02
8.426500e-02
-1.955497e-02
-2.495993e-02
-2.930575e-02
8.157013e-02
1.080608e-01
-3.080450e-02
1.851971e-02
9.112221e-02
-4.326178e-02
-2.515620e-03
8.726262e-02
9.089430e-03
4.893336e-02
-3.868860e-02
4.867462e-03
1.286101e-01
5.651519e-02
4.559691e-02
1.288483e-01
9.944893e-02
-9.158301e-02
-6.716040e-02
-9.793616e-02
2.732182e-02
-1.091725e-02
-1.135531e-02
6.005027e-03
3.527477e-02
2.031705e-03
-1.079619e-02
-5.930465e-03
-4.212445e-02
-2.215352e-02
-9.708818e-02
-1.139413e-01
-4.997832e-02
6.552954e-03
-9.322304e-02
-5.602095e-02
-1.032654e-01
-9.334341e-02
-9.293818e-02
-1.158494e-01
-7.026154e-02
-9.384888e-02
-8.056960e-02
-3.683926e-02
-9.042948e-02
-7.293376e-02
-1.031700e-01
-1.144174e-01
-2.643618e-02
7.352694e-03
-8.254122e-02
2.805573e-02
1.462994e-02
5.265782e-02
2.758917e-02
-3.611725e-02
-5.164071e-02
-5.340994e-02
-6.103396e-02
-3.670845e-02
3.262530e-03
6.614966e-02
-7.017897e-02
-1.786960e-01
-3.582558e-02
-6.790765e-02
-1.667691e-01
-6.024240e-02
-6.599852e-02
-2.049645e-01
-6.846517e-02
-1.113950e-01
-9.369697e-03
-4.820737e-02
-1.674962e-01
-9.416690e-02
-6.534100e-02
-7.450486e-02
-1.497268e-01
-7.564727e-02
-1.626157e-03
-3.267801e-02
-6.414407e-02
3.256691e-02
-5.700960e-02
3.422795e-02
6.637095e-03
3.695268e-02
5.398112e-02
9.235183e-02
4.786602e-02
-2.128258e-02
6.490726e-02
1.479357e-01
-3.577076e-02
1.702171e-01
2.461831e-01
2.616217e-02
-5.584640e-02
-2.804647e-02
-6.775587e-02
-5.015165e-02
-6.909747e-02
-1.283039e-01
5.168429e-02
7.311305e-02
1.999812e-02
3.482258e-02
6.051640e-03
7.477099e-03
4.240318e-02
-4.658262e-02
-5.307940e-02
1.375529e-02
-9.819665e-02
-1.241705e-01
-4.413352e-02
-6.169016e-02
-9.048770e-02
5.076220e-02
6.342544e-03
1.406329e-02
-6.346217e-03
6.458285e-02
-5.186801e-04
-8.472016e-02
-9.543718e-02
-8.386754e-02
-1.256724e-01
-8.334992e-02
-6.284505e-02
-9.355756e-02
-6.560731e-02
-5.562187e-02
6.885701e-03
8.811739e-02
-2.055507e-03
1.665118e-02
6.263728e-02
1.010831e-01
1.125395e-01
8.939130e-02
5.534711e-02
-3.402359e-02
-2.461923e-01
-1.526592e-01
1.578325e-02
-1.394684e-01
-5.213140e-02
2.966808e-02
-1.297860e-01
-5.884713e-02
8.597688e-02
5.902789e-02
-5.667842e-03
3.140111e-02
5.237033e-02
3.575024e-02
-5.171487e-02
-4.104209e-02
-2.839689e-02
-7.498189e-02
-2.928664e-02
-1.380393e-02
-1.236727e-02
-1.044140e-02
-2.355508e-02
-4.543516e-02
-2.559347e-02
-1.775797e-02
3.460388e-02
9.723367e-02
9.343736e-02
4.351072e-03
4.222811e-02
3.836878e-02
1.009243e-01
8.856526e-02
1.453837e-02
8.261845e-02
-5.677650e-03
1.806922e-02
1.281352e-01
-3.074075e-02
6.756692e-02
1.229745e-01
-4.749416e-02
3.333899e-03
-5.383915e-02
-5.681832e-02
-8.893538e-02
-1.098108e-01
-9.166827e-02
-8.881882e-02
-1.802434e-01
-1.173631e-01
-1.261893e-01
-1.760770e-03
-2.747819e-02
-1.686345e-02
-7.450797e-03
2.359959e-02
5.746910e-02
-2.024137e-02
6.247079e-03
2.457789e-02
-1.249781e-01
-7.946412e-02
1.825066e-02
-6.326474e-02
-2.963418e-02
2.555766e-02
-5.301172e-02
-5.384483e-02
2.317169e-03
6.355947e-02
3.164237e-02
1.693604e-02
5.331210e-02
9.323373e-02
8.824399e-02
3.819967e-02
1.146894e-02
7.823879e-02
1.124181e-01
-6.545588e-03
1.303584e-01
3.101263e-02
-6.391878e-02
2.020672e-02
-3.732737e-03
-7.962445e-02
-1.100737e-01
-1.124197e-01
-1.532833e-02
-4.170205e-02
-1.253927e-01
-1.078028e-01
-1.565071e-01
1.934566e-02
-3.981987e-03
2.041012e-02
1.220421e-02
9.271969e-02
5.346940e-02
1.503947e-02
1.581391e-01
9.743994e-02
5.253922e-02
1.031648e-01
5.102297e-02
-1.779525e-02
-4.149857e-03
2.011407e-02
-6.363453e-02
-6.989608e-02
-1.993604e-02
-5.709119e-02
-1.224868e-01
-9.949970e-02
-9.173859e-02
-2.722689e-02
3.084890e-02
-2.619472e-02
9.265253e-02
8.128994e-02
-1.388542e-02
1.186290e-01
8.712465e-02
-3.433724e-02
2.969411e-02
2.835827e-02
-1.031483e-01
-6.680778e-02
-3.071255e-02
-1.044482e-01
-1.638829e-01
-1.210638e-01
-1.011149e-02
-1.240355e-02
-6.057670e-02
3.574808e-03
3.995471e-02
5.722958e-02
1.325957e-03
1.052843e-01
9.914604e-02
-1.214983e-01
-3.934996e-02
6.911498e-02
-1.288524e-01
-3.628210e-02
6.726937e-02
-7.750860e-02
-4.713890e-02
7.075229e-02
4.758056e-02
-3.791948e-03
-2.311594e-02
5.882935e-03
-5.475794e-02
-4.185883e-03
-3.953063e-02
-4.724135e-02
3.406391e-02
2.675590e-02
2.787155e-02
3.716755e-02
4.674419e-02
-2.172029e-02
-6.627925e-03
8.552372e-02
-4.471613e-02
-2.599393e-02
-6.147449e-02
5.966780e-02
4.740218e-02
1.580258e-02
5.965333e-03
-3.866679e-04
1.931446e-02
-1.562094e-01
-3.136155e-02
-1.253573e-02
-4.414241e-03
-9.081216e-03
-2.722890e-02
-4.483658e-02
9.210968e-03
-9.046025e-03
2.815805e-02
-1.709927e-02
-7.221518e-03
5.595901e-03
-1.969594e-02
-1.204418e-02
-2.685648e-02
-1.263542e-01
-1.454463e-02
6.732279e-02
-8.363564e-02
4.041667e-04
3.147754e-02
-1.032279e-01
-1.315082e-04
1.406763e-02
-2.002356e-01
3.028766e-02
-5.134678e-02
-2.233570e-01
9.991050e-02
9.783261e-02
1.252062e-01
5.016289e-02
7.364975e-03
1.272395e-02
-4.726055e-03
-5.177675e-02
-5.379342e-02
2.098275e-01
7.836657e-02
1.205810e-01
1.210100e-01
1.918945e-03
1.208683e-01
8.575165e-02
1.214325e-01
1.461314e-01
-5.723109e-02
1.704394e-03
4.295126e-02
-5.825799e-02
-3.303326e-02
1.014030e-02
-7.865723e-02
-1.355828e-01
-3.076033e-02
3.766744e-02
1.235535e-01
1.584534e-01
1.098760e-02
2.183971e-01
2.130362e-01
-1.887168e-02
5.409223e-02
1.731191e-01
5.604002e-02
-5.252916e-02
2.891805e-02
2.384027e-02
-5.386666e-02
3.509757e-02
-1.090162e-02
-4.630607e-02
2.346122e-02
1.707083e-01
1.118124e-01
1.712037e-02
7.033987e-03
-1.044438e-02
-1.212814e-01
4.559788e-02
-8.945031e-03
-7.886977e-02
-4.299811e-02
3.345706e-04
5.492229e-02
-8.004165e-02
1.332931e-02
2.890082e-02
-6.120442e-02
-3.710539e-02
8.761193e-02
-6.219641e-02
-1.175006e-01
-8.521814e-02
-1.087828e-01
-9.103398e-02
-1.102921e-01
-6.025469e-02
2.805779e-02
4.296830e-02
5.745251e-02
-9.300993e-04
-1.145027e-01
1.005389e-01
5.004251e-02
-5.051370e-02
3.475496e-02
-2.827842e-02
-5.485906e-02
-4.239650e-02
1.298767e-01
5.650212e-02
8.884698e-02
9.144471e-03
1.572121e-02
6.191525e-02
-1.082167e-02
-5.332685e-03
-1.004234e-02
4.174367e-02
1.513705e-01
-6.216025e-02
-6.736006e-02
-4.791079e-02
-1.543353e-02
-6.053445e-03
-1.713019e-02
4.872214e-02
6.466203e-02
4.749453e-02
1.215296e-01
1.033244e-01
4.274139e-02
-3.668416e-02
4.145835e-02
2.134452e-02
4.449666e-02
4.553924e-02
-2.137847e-02
7.375803e-02
6.576652e-02
-6.035583e-02
1.210354e-01
1.067464e-01
-7.394645e-02
-8.432628e-02
-7.948665e-02
7.869520e-03
-2.028540e-02
-5.966220e-02
1.130961e-02
-7.586317e-03
-3.386119e-02
-1.875205e-02
-9.431003e-02
4.466629e-02
1.035919e-02
1.555747e-01
2.506447e-01
3.645615e-02
9.840875e-02
1.412953e-01
-4.348686e-02
-2.367278e-02
1.197782e-01
5.096912e-02
-2.966822e-02
4.132643e-02
-5.572205e-02
-2.083608e-01
-4.006923e-02
-7.601121e-02
-5.858093e-02
-3.867127e-02
5.663483e-02
-2.124384e-02
-5.683477e-02
-1.183128e-02
1.877547e-02
-8.244500e-02
-4.177132e-02
-1.053516e-01
-7.544238e-02
1.391981e-01
1.900551e-02
-6.181097e-02
4.681056e-02
2.696632e-01
-4.858577e-02
-3.129818e-02
6.322227e-02
-1.765478e-02
-2.050371e-02
6.057563e-02
-1.661393e-02
-6.391114e-02
1.272342e-01
-3.064734e-02
-5.537820e-02
3.708555e-03
4.726510e-02
3.055165e-02
1.214821e-01
1.075796e-01
-5.225352e-02
1.289965e-01
1.331086e-01
-7.750580e-02
-3.971737e-02
-6.795193e-02
-7.051330e-02
-6.874912e-02
-3.094679e-02
-3.526298e-02
-1.106699e-01
-2.569714e-02
8.208368e-02
-5.085721e-02
-4.262738e-02
2.587141e-02
-9.381779e-02
-2.302743e-02
-1.544621e-02
-3.733607e-02
6.922455e-02
-3.564885e-02
-2.744779e-02
1.667374e-02
4.714595e-02
-3.954098e-02
-9.051149e-02
-7.389348e-02
-2.239916e-02
-9.898107e-02
-7.704947e-02
1.715804e-01
-7.281541e-02
-4.280974e-02
2.559505e-01
8.484236e-02
1.079542e-01
3.099264e-01
3.792202e-01
1.960474e-01
6.081911e-02
-1.897885e-01
1.355482e-02
4.983518e-02
-1.927471e-01
-7.862671e-02
-2.178551e-02
-1.696799e-01
-7.874630e-02
8.836309e-02
-3.733598e-02
-1.081180e-01
1.699980e-01
-5.320058e-02
-9.303708e-02
1.662769e-01
-3.945289e-02
-1.290870e-01
3.315544e-02
-6.210394e-02
-8.048972e-02
8.925602e-02
9.518798e-02
1.005493e-02
7.617448e-02
5.068880e-02
8.038907e-02
-8.872959e-02
8.889536e-03
1.790755e-02
2.160945e-02
5.937586e-02
1.100252e-01
9.786665e-03
7.541230e-02
2.775157e-02
-1.360649e-02
-2.545675e-02
7.474284e-03
2.476264e-01
2.371675e-01
-1.277235e-02
2.679497e-01
-6.571653e-02
1.528630e-01
-4.388113e-02
-8.923580e-02
5.230992e-03
-2.870406e-02
1.736836e-01
-2.136060e-02
1.421968e-01
1.926644e-01
-5.189646e-02
-1.748254e-02
-1.521588e-02
-3.530925e-02
-1.724602e-01
-9.088975e-02
-1.043247e-01
-3.648589e-02
9.043780e-02
-3.255858e-02
1.958326e-02
6.701205e-02
6.492146e-02
1.070056e-01
-6.095171e-03
1.109249e-02
6.349322e-02
1.016685e-03
-1.238384e-01
-1.566459e-02
-5.465109e-03
-5.763589e-03
-2.891968e-02
-6.047234e-02
-8.932734e-02
-5.914104e-02
-1.119808e-01
-2.108069e-01
-1.400769e-03
3.733580e-03
-1.127931e-01
-2.534578e-02
-1.252116e-02
-6.343649e-02
1.634948e-01
2.038663e-01
3.122479e-02
-2.989504e-02
-1.118800e-01
6.821498e-02
-1.403261e-01
-1.313647e-01
1.030427e-01
-1.919770e-02
1.026723e-03
1.081564e-01
-3.497818e-02
4.401295e-02
-4.984730e-02
3.967766e-02
6.832574e-02
1.364550e-01
3.122303e-02
2.024943e-01
2.985279e-01
-7.686077e-02
-2.378686e-02
3.052010e-02
-9.830404e-02
-1.897075e-01
-6.678518e-03
-4.165995e-02
-1.634002e-01
-5.127032e-02
5.882720e-02
-8.095006e-02
-1.153052e-01
6.263248e-02
7.907651e-03
-1.209291e-01
-1.921588e-02
-4.306433e-02
-1.327469e-01
-9.142536e-02
-7.642069e-02
5.813635e-04
-9.966665e-04
-1.002005e-01
-2.667712e-02
2.970760e-02
1.332810e-02
6.944842e-02
1.319880e-02
-5.865997e-02
-1.301754e-03
5.186938e-02
8.273495e-03
-3.200110e-02
1.052423e-01
1.488998e-01
7.219188e-03
-5.845567e-02
-7.361372e-02
-1.072574e-01
-4.648275e-02
-3.028459e-02
-8.497164e-02
-3.304982e-02
3.789935e-02
7.114859e-03
-2.412626e-02
-4.562444e-02
-4.972735e-02
2.339594e-02
1.801112e-02
-5.730191e-02
1.160275e-02
-3.100458e-02
-7.186728e-02
4.659876e-03
-9.949677e-02
-7.994212e-02
-5.532659e-02
-1.983176e-02
-9.467889e-03
-7.192294e-02
-1.956412e-02
3.377203e-02
5.611216e-02
6.947119e-02
3.764915e-02
2.687933e-02
3.258673e-02
2.592535e-02
-2.326379e-02
3.952217e-02
2.950306e-02
-4.418299e-02
-9.819327e-02
-9.607573e-02
-5.981145e-02
-6.969442e-02
-7.758150e-02
-6.455069e-02
-6.956869e-02
8.223385e-03
-5.250084e-02
3.688398e-02
-3.230937e-02
-2.720814e-02
2.101417e-02
-7.097299e-02
5.247610e-03
9.544706e-02
-8.992581e-03
2.774684e-02
3.441039e-02
1.641128e-02
7.751007e-02
8.261926e-02
-9.241438e-03
2.793241e-02
-4.681963e-02
1.826182e-02
3.335326e-02
-7.744080e-03
-2.142916e-02
-3.539577e-02
-4.020985e-02
-1.513704e-02
5.840860e-02
2.238743e-03
-3.469988e-02
-6.992640e-02
-8.260942e-02
-5.039271e-02
-4.068983e-02
-2.651250e-02
-5.757517e-02
-8.417722e-03
4.048581e-02
-3.211587e-02
3.843865e-02
2.766902e-02
-6.172140e-02
2.303015e-02
1.072073e-02
-1.775047e-02
8.024095e-02
2.858493e-02
6.109582e-02
-2.888909e-02
-1.445637e-02
-1.443012e-02
-9.545860e-02
-9.315550e-02
-4.603547e-02
-5.076814e-02
-7.070208e-03
5.609533e-02
-4.478364e-02
-1.249383e-01
-8.059058e-02
-3.847455e-02
-1.576808e-01
-9.468518e-02
6.523727e-02
-6.291387e-02
-5.953846e-02
9.356335e-02
2.127208e-02
-2.835562e-02
1.576743e-01
1.233304e-01
6.647895e-02
1.972671e-01
1.627668e-01
9.755286e-02
4.977909e-02
6.034813e-02
2.965706e-03
-1.048261e-03
1.183185e-02
4.427778e-02
-5.222385e-02
-7.069136e-02
2.530901e-02
-6.197925e-02
-3.059025e-02
-2.093793e-02
-7.500796e-02
-2.876747e-02
-1.581317e-02
-4.737206e-02
-3.993277e-02
-4.462047e-02
2.132664e-02
-5.907844e-02
5.181290e-02
1.695178e-02
-3.123695e-02
4.535587e-03
-2.282830e-02
9.766187e-04
-2.917084e-02
-2.022580e-02
-1.304354e-01
-5.967601e-02
-1.767773e-02
-7.674243e-02
-5.006311e-02
1.805612e-02
-2.259604e-02
1.285263e-02
-1.899834e-01
-1.271916e-01
1.778885e-02
-3.372933e-02
-1.576935e-02
5.131256e-02
1.073645e-02
-2.190545e-02
5.008385e-02
5.737985e-02
-2.127052e-02
-5.879138e-02
-7.636381e-02
-1.057430e-01
-5.660681e-02
-7.675890e-02
-9.690495e-02
-3.192972e-02
-1.076506e-01
-9.461821e-02
-6.143839e-02
-1.090117e-01
-1.367482e-01
-5.535524e-02
-2.897188e-03
-1.060022e-01
-2.203540e-02
-2.495101e-02
3.945150e-02
6.934150e-02
-3.058779e-02
-4.612910e-02
5.091311e-02
-4.539939e-02
-1.860493e-02
1.152172e-02
4.224304e-02
-1.828367e-02
8.101301e-02
1.132673e-01
1.528955e-01
1.562210e-01
1.829561e-01
1.763646e-01
1.763819e-01
-7.755509e-02
7.665940e-02
1.829018e-01
1.426890e-01
2.454382e-01
2.346339e-01
8.977173e-02
1.980529e-01
1.031015e-01
4.117178e-02
5.452608e-02
3.434329e-02
-1.076751e-01
6.727876e-03
-7.330651e-02
-9.596074e-02
-9.067022e-02
-8.281111e-02
5.356017e-02
7.098946e-02
2.338882e-02
-6.329709e-02
-4.741025e-02
-5.577748e-02
-1.127627e-01
-9.740467e-02
-1.071175e-01
1.541475e-01
7.350746e-03
-1.315731e-02
5.126902e-02
-5.325417e-02
-2.237114e-02
-1.408274e-01
-8.961521e-02
2.956695e-02
-4.739692e-02
3.200212e-02
3.295763e-02
-1.519743e-02
1.924768e-02
-2.623627e-02
-4.776759e-02
-6.366707e-04
-4.682845e-02
3.282329e-02
-2.889442e-02
-2.407829e-02
1.346103e-02
-1.893409e-02
-1.159993e-01
-5.672866e-03
-6.548829e-02
-4.869395e-02
-2.038667e-02
-2.758479e-02
-2.708104e-02
-5.760698e-02
-9.801940e-02
-6.424691e-02
-6.450515e-02
-7.890073e-02
-8.509485e-02
5.266334e-02
-3.358657e-02
-3.379856e-03
-1.298455e-02
-4.473227e-02
-1.774728e-02
-1.391616e-03
-1.948341e-02
1.844569e-02
-7.681344e-02
-8.531577e-02
-7.189663e-02
1.181588e-02
-1.007612e-02
2.392567e-02
8.916378e-02
4.007038e-02
9.660866e-03
8.327474e-02
8.216187e-02
1.693288e-01
1.410906e-01
1.635601e-01
1.331068e-01
1.002082e-01
1.654367e-01
1.170232e-01
1.384358e-02
-2.852825e-02
-1.198573e-01
-4.509889e-02
-7.505415e-02
-1.023519e-01
-6.553837e-02
-4.422514e-02
-2.183254e-02
-2.133138e-02
-5.625211e-02
5.029433e-02
-5.377422e-03
5.398105e-02
-8.961787e-03
1.041919e-02
1.993422e-02
-4.275031e-02
4.299837e-02
8.576296e-02
5.722403e-02
3.601322e-02
1.016517e-02
-3.413380e-02
-3.281429e-02
3.223453e-02
3.444087e-02
-1.415537e-01
3.303054e-02
-3.461671e-03
-1.204808e-02
5.109327e-02
5.014878e-02
7.140467e-02
7.267668e-02
5.211241e-02
9.490101e-02
1.518272e-01
1.127760e-01
1.293667e-01
4.960324e-03
-4.526238e-02
-9.743789e-02
-1.025872e-01
-5.495788e-02
1.010811e-01
1.202927e-01
1.102468e-01
-5.159193e-02
-8.476949e-02
-1.015982e-01
-4.069654e-02
-1.258864e-01
-5.684441e-02
5.818222e-02
-5.764667e-02
-3.099373e-02
5.132161e-02
5.046552e-02
1.050081e-01
1.904359e-02
7.112082e-02
-2.594526e-02
-6.041486e-03
-1.431627e-02
-3.375891e-02
1.551508e-02
-2.587836e-02
-1.911990e-02
-3.607381e-02
1.016568e-02
-4.036876e-02
3.650463e-02
6.880955e-02
9.196598e-02
-2.144190e-02
-3.483525e-02
-5.312552e-02
-3.964528e-02
-6.603643e-02
-4.194132e-02
8.439027e-02
6.371402e-02
1.300067e-02
2.795972e-02
2.834544e-02
-5.808956e-02
1.379144e-01
1.683621e-02
-2.178586e-02
-4.327310e-02
1.175906e-02
1.757978e-02
-4.971139e-02
-1.581176e-02
-1.054125e-01
-8.767168e-02
-6.142271e-02
-3.859096e-02
-3.676453e-02
1.491394e-02
2.628899e-02
-1.440524e-01
-1.610455e-01
-1.933827e-01
-1.262204e-01
-1.562234e-01
-1.213880e-01
-9.063923e-02
-5.813731e-02
-5.256231e-02
1.389351e-02
-2.861640e-03
-4.138387e-02
1.911379e-02
1.270914e-02
6.585930e-02
-5.908637e-02
-7.323725e-02
-9.622373e-02
-1.122514e-01
-1.093737e-01
-9.473995e-02
-9.876124e-02
-7.876551e-02
-1.601547e-02
6.072092e-02
4.388803e-02
-2.485704e-02
4.961797e-02
-7.652690e-02
-1.103548e-01
-9.452106e-02
-1.173123e-01
-1.314217e-01
8.062875e-02
-2.483579e-02
-1.052282e-01
5.507383e-02
-1.013144e-01
-7.072426e-02
-4.209903e-02
-4.409461e-02
-2.695038e-02
-4.706748e-02
-1.894504e-02
-1.030612e-02
-1.018175e-01
-6.119237e-02
1.097836e-01
-8.767307e-02
-1.074045e-02
8.046345e-02
-1.040509e-01
4.419927e-02
9.889530e-02
-9.787215e-02
7.971918e-02
-4.016753e-02
-4.144116e-03
-8.559357e-02
-1.933710e-02
4.387724e-02
-4.480416e-02
-1.360806e-01
-2.749267e-02
-9.953727e-02
-2.251740e-01
-6.550115e-02
-8.279118e-02
-9.533463e-02
-6.245290e-02
-2.163785e-02
-9.976105e-02
-8.935795e-02
2.923307e-02
-1.132725e-01
-8.757937e-02
2.568093e-03
-5.204692e-02
5.957967e-03
-1.992957e-02
-7.629921e-02
4.058602e-02
-3.207882e-02
-1.138751e-01
-6.235858e-02
-3.341890e-02
-1.457080e-01
2.753214e-02
-1.617380e-01
4.167986e-02
8.944345e-02
-4.150087e-02
7.049818e-02
4.503009e-02
1.128381e-01
-2.520735e-02
6.017684e-02
-1.428231e-02
1.716268e-02
5.753898e-02
1.539204e-02
9.678516e-02
5.263806e-02
-1.086560e-02
7.101367e-02
4.780988e-03
-1.345748e-02
-3.894011e-02
-1.931284e-02
-9.477359e-02
-5.414901e-02
-6.896847e-02
-9.463890e-02
-3.570076e-02
5.913591e-02
-1.877285e-03
-3.251666e-02
-1.138557e-01
-1.538175e-01
-5.568285e-02
-7.236079e-02
-1.651351e-02
4.670437e-02
5.606219e-02
3.300584e-02
6.484242e-03
-1.039366e-02
-1.883605e-02
-6.370597e-02
9.713484e-02
8.705936e-03
-4.681708e-02
4.236128e-05
-1.180074e-01
-1.077076e-01
-1.858424e-01
-2.508600e-01
-1.422766e-01
-3.905627e-02
-7.885890e-02
-1.483743e-02
7.528857e-03
-1.618236e-02
-4.079417e-02
4.772171e-02
-4.195473e-02
-3.499639e-02
-3.303314e-02
-8.010703e-02
-7.239809e-02
8.621614e-02
5.831620e-02
4.364085e-02
-4.672402e-02
-5.593337e-02
-1.049283e-01
-9.802343e-02
-4.749439e-02
-1.114297e-02
-8.694104e-02
-2.945255e-02
-9.284983e-02
5.531075e-02
4.619220e-02
2.545661e-02
1.084091e-02
5.427909e-02
-6.305100e-02
-2.411524e-02
-1.181710e-01
-9.099695e-02
7.018304e-03
-1.073746e-01
-1.876222e-01
5.378565e-02
3.305340e-03
-3.863317e-02
1.034929e-01
1.484175e-01
9.674823e-02
2.418776e-01
4.822209e-02
1.361966e-01
1.078834e-01
8.153041e-02
9.096581e-02
4.926271e-02
-1.806280e-02
1.219320e-01
-1.460723e-02
8.101596e-03
-5.065555e-02
2.779712e-02
2.351811e-02
6.551510e-02
1.227934e-02
-1.617163e-01
-4.335274e-02
6.535040e-03
-1.664201e-01
-1.181766e-01
-2.203547e-01
-2.311024e-01
-1.561007e-01
-1.428453e-01
-9.271073e-02
4.738003e-02
2.022475e-02
2.857059e-02
5.213434e-02
8.459778e-02
6.278914e-02
5.197625e-02
-4.002362e-02
-9.277706e-02
-1.300187e-01
-9.831244e-02
-6.421460e-02
-1.158026e-01
-6.498733e-02
5.007330e-02
-9.401055e-02
-5.107231e-02
-8.916114e-02
-9.784733e-02
1.045814e-01
4.774632e-02
-1.199185e-01
2.662189e-02
-2.254276e-02
-2.377865e-02
4.005738e-02
3.692074e-02
7.620012e-03
2.691943e-02
-1.791488e-02
-2.234636e-02
-8.573644e-03
-4.872702e-02
-1.377515e-02
2.203061e-02
9.511539e-02
1.268204e-02
-1.183766e-01
7.351658e-02
2.273746e-01
-2.276878e-02
4.587526e-02
3.413272e-02
-1.117204e-01
-2.097317e-01
-1.735060e-01
-2.462890e-01
-1.272094e-01
-1.528169e-01
-8.031801e-02
-9.990665e-02
-3.666393e-02
4.521845e-02
3.766071e-02
3.665899e-02
8.690038e-02
1.327854e-03
5.944949e-02
1.420290e-02
-6.706806e-02
-4.182162e-02
2.047207e-02
2.636262e-02
5.988324e-02
1.117411e-01
2.221514e-01
6.931363e-02
1.966538e-01
1.969980e-01
-1.583868e-02
-1.581367e-01
-1.035625e-01
-5.680552e-02
-1.719827e-01
-2.069932e-01
-1.078790e-01
-2.078712e-01
-1.940980e-01
-8.246685e-02
-9.225964e-02
-4.444102e-03
-7.437390e-02
-9.849478e-02
-4.433774e-02
-6.987080e-02
-1.279493e-01
5.483655e-02
4.069192e-02
3.192743e-02
-4.385185e-02
-4.605285e-02
-4.708361e-02
-3.750363e-02
4.811250e-02
-5.611410e-02
-5.549353e-02
1.003148e-01
-4.512922e-02
8.890784e-03
-2.079085e-02
-1.118945e-01
-5.918511e-02
-7.482505e-02
-1.502414e-01
-9.487941e-02
-1.561056e-01
-9.403416e-02
-1.103555e-01
-1.459070e-01
-5.289833e-02
-1.224090e-01
-1.056367e-01
7.110714e-02
1.651808e-02
-9.161367e-03
-1.644579e-02
2.009098e-02
4.812029e-02
5.013483e-02
7.242762e-02
8.956357e-02
1.529031e-02
-9.642156e-02
-7.298627e-02
-1.790989e-02
-1.322878e-01
3.541794e-02
1.176767e-01
-1.543580e-01
1.691679e-02
1.244210e-01
-9.565041e-02
-7.270969e-02
1.333301e-01
1.023103e-01
-4.539427e-02
6.412457e-02
1.840728e-02
-1.203016e-02
9.263705e-03
-8.906788e-02
-7.270795e-02
-5.069799e-02
1.559985e-01
1.735203e-01
-8.906157e-02
-2.364090e-02
4.216323e-02
-1.212838e-02
-6.719849e-02
-5.172557e-02
5.933702e-02
1.566152e-01
1.829003e-01
-3.128932e-04
-1.199451e-02
9.491351e-02
-1.187017e-01
-6.873173e-02
-2.065018e-02
3.053691e-02
1.693583e-02
6.080977e-02
3.225384e-02
9.425631e-02
1.731351e-01
8.053788e-02
1.030102e-01
1.332871e-01
1.980981e-02
-2.615836e-02
1.187460e-01
3.613489e-01
4.420194e-01
2.826906e-01
1.783546e-02
1.458060e-01
5.283850e-02
-1.004471e-01
1.085411e-01
-2.960169e-02
2.559857e-03
7.150231e-02
4.455063e-02
-3.160886e-02
9.336407e-02
1.503900e-02
3.147313e-02
7.761543e-03
-9.803801e-03
6.175037e-02
-3.304054e-02
2.541848e-02
4.669468e-02
6.787703e-02
8.062096e-02
1.369495e-02
1.619575e-02
-1.585130e-02
-7.450248e-02
-2.745576e-02
-8.261017e-02
-9.878554e-02
3.410194e-02
-3.729535e-02
-4.579517e-02
1.098888e-01
-1.436109e-02
-2.483615e-02
1.234097e-01
4.920587e-02
-1.820141e-02
7.942255e-03
-9.185141e-02
3.990480e-02
-1.011239e-01
7.105837e-03
-3.614848e-02
-2.274034e-01
1.930938e-02
-8.478314e-02
-1.681150e-01
-2.833991e-02
2.565658e-02
1.303955e-01
5.966945e-02
-4.170175e-02
5.471025e-02
3.451653e-03
-1.405997e-01
-1.783456e-01
-1.315901e-01
-1.775551e-02
-3.072537e-02
5.535776e-02
-5.418838e-02
-8.177724e-02
-4.817639e-02
-8.631776e-02
-8.761108e-02
-8.813068e-02
-1.084507e-01
-7.535262e-02
-6.033501e-02
-8.813493e-02
-5.979739e-02
-5.167314e-02
-7.069512e-02
-2.547900e-02
-2.536416e-02
1.555268e-02
-1.161687e-01
5.708173e-03
7.029741e-02
3.855152e-02
1.852447e-03
4.766480e-02
-3.351314e-02
7.042285e-02
-1.651308e-01
-1.523631e-01
7.851247e-02
6.317819e-02
1.082723e-01
9.484124e-02
-8.101648e-03
-1.656781e-02
5.287419e-02
1.990354e-02
-1.431026e-02
-5.328596e-02
-4.694791e-02
-4.662073e-02
-8.246721e-03
-4.640359e-02
-4.452938e-02
3.160544e-02
-9.130197e-02
1.485197e-02
-9.051105e-02
-8.151411e-02
1.365297e-02
-1.019519e-01
-2.151280e-02
8.360032e-02
-5.463170e-02
1.174018e-01
1.623990e-01
1.252161e-01
-3.756161e-04
2.555041e-02
1.046260e-01
-4.491523e-03
-7.370362e-02
1.139222e-02
4.210136e-02
2.799287e-02
-1.615092e-03
1.659740e-02
-4.177030e-03
-1.426192e-02
1.156988e-02
2.385477e-02
-2.151178e-02
2.292952e-02
6.722509e-03
-5.219784e-04
1.440090e-02
5.957308e-03
-4.057084e-02
-1.981159e-02
-8.524285e-03
-7.582081e-02
3.155171e-02
-9.032330e-02
6.896978e-03
2.071867e-02
-1.275536e-01
-6.947116e-02
4.287709e-02
-2.784097e-02
2.491901e-02
-2.276375e-02
4.874428e-02
-2.499236e-02
-8.853433e-02
-3.894158e-02
-1.392909e-02
2.029774e-03
1.087573e-01
5.975466e-02
-1.365376e-02
-9.789629e-04
5.554963e-02
-1.241114e-02
-1.465968e-02
3.118819e-02
6.344793e-02
6.558264e-02
5.997306e-02
6.927687e-02
-9.729362e-02
-9.441738e-03
2.682100e-02
-1.489510e-01
-1.194342e-01
9.977836e-02
-8.731693e-02
-4.645384e-02
1.069863e-02
-1.435524e-01
-1.677057e-02
7.216024e-02
-7.574560e-02
3.654569e-02
8.899248e-02
-3.206170e-02
1.216807e-01
1.506451e-02
4.521261e-02
3.199916e-02
-1.627775e-02
-4.560373e-02
2.375425e-03
-4.276329e-02
-1.811430e-02
-1.951566e-02
2.610694e-02
1.122722e-01
-1.732174e-02
-7.674412e-02
7.327878e-02
-2.048465e-01
-4.164413e-02
6.231783e-02
-1.163360e-01
-4.344292e-03
-6.393447e-02
-1.024089e-02
3.696859e-02
-6.266904e-02
-5.993674e-02
1.095318e-01
2.058245e-02
-2.352370e-02
-7.428302e-03
3.529597e-02
8.053056e-02
-2.281105e-02
4.210301e-02
5.333532e-02
-8.407409e-02
-8.185354e-02
-7.802218e-02
1.916624e-02
3.733499e-03
-2.242455e-02
3.287973e-02
2.002690e-02
-6.175070e-02
-3.856410e-02
-3.038388e-02
-5.582883e-02
1.202313e-01
7.635430e-02
1.149391e-01
7.588180e-02
4.692692e-02
6.052957e-02
2.503845e-02
-1.242952e-02
3.449871e-02
-4.993961e-02
-2.072513e-02
1.526221e-02
-8.209497e-02
-1.405013e-02
1.776226e-02
-4.626675e-02
8.255626e-03
-3.473853e-02
1.596348e-02
-2.372171e-02
9.146981e-03
-9.974384e-03
-5.603071e-02
1.770423e-02
3.090156e-02
-5.322663e-04
1.086292e-01
1.619191e-01
1.521174e-01
1.295632e-01
1.033216e-01
6.606484e-02
2.889829e-02
8.912666e-02
-2.390520e-03
-2.666357e-04
1.645504e-02
-7.028763e-02
1.035867e-02
2.567165e-02
-7.412772e-02
-5.555237e-02
5.905468e-02
-2.516891e-02
-9.904888e-02
-4.209119e-03
-4.683987e-02
-5.600895e-02
-2.476419e-02
8.453174e-03
1.102963e-02
2.738263e-02
2.132168e-02
7.552084e-02
2.771575e-05
3.010086e-02
2.829865e-03
-5.710359e-03
2.007905e-02
3.441714e-02
-6.030015e-02
-3.299501e-02
-1.025821e-02
-4.277726e-02
-8.805487e-02
-8.572705e-03
9.024699e-03
2.197885e-02
1.926758e-02
4.251409e-02
2.877631e-02
-1.791134e-02
-1.887261e-02
-4.393886e-02
-1.715494e-02
-2.098511e-03
9.257686e-04
2.067684e-02
2.057481e-03
6.368829e-02
-2.872500e-02
-3.529466e-02
4.723423e-02
4.223746e-02
-6.320820e-02
-3.671606e-02
-5.858847e-02
-6.333685e-02
-1.064736e-02
-5.088076e-02
1.052403e-01
1.210228e-01
7.288375e-02
8.159200e-02
8.227542e-02
8.894764e-02
3.526828e-02
9.727928e-03
7.324526e-02
-1.046657e-01
-1.379904e-01
-6.039586e-02
-5.528905e-02
-1.046269e-01
-8.822376e-02
7.627145e-03
-2.523067e-02
-6.729067e-02
5.744892e-02
7.067215e-02
-4.834093e-02
1.565500e-02
4.520559e-02
-6.501623e-02
-7.729466e-02
-1.935223e-02
-1.672066e-02
-4.602300e-02
-8.843563e-02
-1.994457e-02
-3.933361e-02
-6.192563e-02
-5.018223e-02
7.149851e-02
-4.158922e-02
-8.059771e-02
8.860676e-03
-1.062982e-01
2.175855e-03
-3.010194e-02
-8.916547e-02
-4.365370e-02
4.873683e-02
1.687714e-02
2.522568e-02
-2.899064e-03
-7.490948e-03
5.212352e-02
2.885434e-02
-2.045931e-02
-1.307888e-02
2.898797e-02
2.578048e-02
-1.092689e-02
2.210118e-02
-5.103966e-03
2.805138e-02
-6.821639e-02
2.876421e-02
2.007222e-03
-7.193562e-02
-1.725108e-02
2.044968e-02
1.072681e-01
2.009766e-02
9.835563e-03
5.048086e-02
-1.205994e-01
-7.060605e-02
3.338640e-04
-6.409410e-02
-5.189186e-02
-1.240625e-01
8.902083e-02
-6.444122e-04
4.514067e-03
5.771037e-02
-1.323981e-01
-3.934326e-02
-8.738708e-02
-2.660079e-01
-1.064131e-01
1.020941e-01
1.736742e-01
-4.563834e-02
4.134058e-02
9.670359e-02
1.044667e-02
-3.484922e-03
-3.979315e-03
1.817231e-02
2.720775e-02
3.045813e-02
-2.431018e-02
2.926175e-02
2.848288e-02
3.364266e-02
5.496080e-02
3.790430e-02
-1.377202e-01
-1.313634e-01
-3.859778e-03
-7.316971e-03
-2.638704e-02
-2.455681e-02
1.008183e-01
2.731463e-02
-1.116705e-02
1.443632e-02
-4.475458e-02
7.917467e-03
6.967725e-02
-4.831759e-02
-4.824118e-02
2.979720e-02
-9.073383e-02
-1.073069e-01
4.954740e-02
-8.830297e-02
-5.915230e-02
-5.237433e-02
-1.507345e-01
-9.629630e-02
-2.264759e-02
-4.674594e-03
-3.322428e-02
9.318621e-02
1.316414e-01
7.620974e-03
6.714135e-02
1.126770e-01
3.450313e-02
1.231146e-01
7.501617e-02
3.890268e-02
8.718427e-02
-4.053440e-02
-6.706246e-02
3.806566e-02
-1.703884e-01
-1.857649e-01
-1.938961e-02
-1.811450e-01
-1.899767e-01
-4.262733e-02
-4.602361e-02
-1.826585e-02
1.719985e-02
-4.451504e-02
-8.712110e-02
-4.515227e-02
-1.709713e-01
-1.425159e-01
-1.424814e-02
3.694368e-02
3.901385e-02
-3.720372e-02
-2.733671e-02
-6.904574e-02
-5.181790e-03
-5.221041e-02
-5.660353e-02
-1.518764e-01
-2.002887e-02
-1.040080e-01
-2.571654e-02
6.558865e-02
-8.779021e-02
-1.538543e-01
-2.363069e-02
-1.781586e-01
-2.244115e-02
-7.967521e-02
-9.544942e-02
-4.541867e-02
-1.893943e-02
-8.057062e-03
-7.931160e-02
1.118481e-03
6.195810e-02
-5.753680e-03
-7.019936e-03
2.547678e-02
-1.460574e-01
-1.144279e-01
-1.113932e-02
3.605579e-02
4.702790e-02
9.828857e-02
-6.933220e-02
-9.978235e-02
-1.189440e-01
5.031841e-02
-1.209082e-02
-4.384399e-02
-1.299181e-03
-8.780557e-02
-1.254827e-01
2.979117e-02
-7.142963e-02
1.212603e-01
2.790727e-02
-5.383653e-02
-1.163113e-02
-1.069180e-01
-1.216861e-01
-6.546485e-02
8.924465e-03
-2.906908e-04
5.406857e-02
-2.892943e-02
-8.301819e-02
-7.262089e-03
6.593309e-02
-8.476135e-03
5.487551e-02
8.813280e-02
-6.887644e-02
-1.935188e-01
3.242912e-02
-1.047419e-01
-8.110412e-02
1.327923e-02
-5.437478e-02
-9.133852e-02
-3.234455e-02
-1.478109e-02
1.949451e-03
-1.324290e-02
-4.767809e-02
-1.164818e-01
-4.498612e-03
1.335654e-03
-7.314422e-02
-3.337359e-02
5.324357e-03
-2.982547e-02
3.814118e-02
-8.546665e-03
-1.201697e-02
1.327098e-01
3.551402e-02
1.492001e-02
1.365086e-02
-1.191178e-02
4.533970e-02
8.655031e-03
5.834987e-02
7.380547e-02
-4.196366e-02
-3.702747e-02
5.463862e-03
2.487648e-02
-1.877184e-02
9.827932e-02
2.486612e-02
7.822448e-02
1.256779e-02
5.713527e-02
2.079582e-02
9.319082e-03
-1.644414e-02
2.260460e-03
4.408189e-02
-1.046770e-01
-7.847416e-02
1.099431e-02
-1.232485e-01
-9.063432e-02
5.569752e-02
6.709050e-02
6.521603e-02
-1.732287e-02
7.238078e-02
8.851416e-02
-4.537562e-02
-6.786691e-02
5.724242e-02
-5.704419e-02
-1.108753e-01
-3.105716e-02
-1.375634e-01
-6.999480e-02
5.886979e-02
-8.011505e-02
-5.399793e-02
9.418605e-02
-6.008082e-02
-6.483907e-02
-5.386729e-02
5.095841e-02
5.718509e-02
6.623664e-02
7.355121e-02
-9.100096e-02
-9.211284e-02
-1.251054e-01
-1.015312e-02
-9.492282e-02
-2.451294e-02
-1.219097e-03
-1.203522e-01
-4.952825e-02
1.597066e-01
8.921656e-02
1.210552e-01
4.254088e-02
1.214451e-02
1.677361e-01
-1.683377e-04
3.352060e-02
1.989060e-01
-7.749098e-02
-1.031133e-01
1.347233e-02
-5.358660e-02
-1.133728e-01
-9.987497e-02
-2.516000e-02
-1.618263e-01
-1.411367e-01
8.414732e-03
-1.399027e-01
-1.229886e-01
-9.766791e-02
-1.165207e-01
-8.385324e-02
-3.651072e-02
1.379914e-02
4.036322e-02
-5.829348e-02
-2.785841e-02
-1.701387e-02
1.827735e-02
-4.231758e-02
-2.748745e-02
3.313030e-02
-4.929931e-02
-3.680198e-02
1.257957e-01
4.363024e-02
6.268658e-02
4.251904e-02
-5.006143e-02
8.873929e-02
-1.205525e-01
-1.829576e-01
-3.331665e-02
-5.519421e-02
-1.440819e-01
-5.889832e-02
-4.617525e-02
-8.892554e-02
-3.507028e-02
-5.041793e-02
-3.473536e-02
1.023196e-02
-1.138536e-01
3.704578e-02
3.999534e-02
-1.339458e-01
-1.138348e-01
-6.831016e-02
-1.200156e-02
-8.452761e-02
-3.004467e-02
-4.779920e-03
-8.182315e-02
-3.989385e-02
-1.386362e-01
-1.084571e-01
7.142218e-03
-1.145084e-01
-1.219262e-01
-1.304420e-02
-1.312247e-02
-4.711847e-02
-1.935373e-02
-5.376511e-02
5.389023e-03
5.059801e-02
-1.307109e-01
-3.119313e-02
4.239588e-02
-4.834273e-02
-8.735584e-02
-2.517344e-02
-1.146046e-01
-1.091554e-01
-2.367676e-02
1.585432e-02
-3.887074e-02
-5.579942e-02
1.893684e-02
-4.967630e-03
-6.545333e-02
-5.142092e-02
-1.472199e-01
-1.012323e-01
-2.422814e-02
-2.335211e-02
2.760957e-02
-2.255990e-02
-9.055737e-02
-4.916504e-02
1.809915e-01
2.013280e-01
7.825053e-02
3.146988e-02
2.623459e-02
-1.032489e-02
2.657336e-02
6.904962e-02
5.157339e-02
8.770385e-02
1.276769e-02
3.435523e-02
1.164713e-01
2.093928e-02
8.871001e-02
-3.489101e-02
-2.703973e-02
5.838644e-03
-4.092222e-02
-1.311238e-01
-1.229272e-01
-5.013037e-02
-1.517755e-01
-9.888180e-02
5.149738e-02
-5.136465e-02
3.910196e-03
-8.186068e-03
9.187910e-02
4.623230e-02
-1.151256e-01
-1.983305e-02
-5.434579e-02
-1.229193e-01
-9.342964e-02
-8.282221e-02
2.293270e-02
1.370685e-02
-3.005595e-02
-5.574281e-03
2.071355e-02
3.824412e-03
-1.139289e-01
-1.022457e-01
-7.828406e-02
-1.634225e-01
-7.273514e-02
-5.273126e-02
-1.491436e-01
-4.387570e-02
-1.308669e-01
-1.051181e-01
-4.072572e-02
7.115664e-04
6.685198e-02
-4.965122e-02
-5.575234e-02
-2.612592e-02
-1.144242e-01
-1.003293e-01
-2.630458e-02
-1.019922e-01
-7.306959e-02
-1.059300e-01
-1.777847e-01
-1.313930e-01
-6.927088e-02
-6.112520e-02
-6.460339e-02
-5.152533e-02
-1.275962e-02
1.175516e-02
-1.018720e-01
-1.334562e-01
-9.773610e-02
-7.534585e-02
-7.700769e-02
-1.286971e-02
-6.176240e-02
-8.231867e-02
-1.160516e-03
9.205429e-02
1.222087e-01
1.100155e-02
-4.522857e-02
-2.859572e-02
8.292802e-03
-8.015050e-02
-1.424166e-01
-4.121990e-02
6.733806e-02
-3.127236e-02
-5.639185e-02
1.320143e-02
-5.062326e-02
-1.064412e-01
-2.009591e-02
-3.810526e-02
-4.412326e-02
6.746665e-02
3.921434e-02
-8.358227e-03
-1.576310e-02
6.260085e-03
3.950091e-02
1.021030e-02
-2.022642e-02
-1.712825e-03
1.034954e-02
7.492723e-03
-2.092155e-02
-2.724966e-02
-2.345482e-02
3.079804e-03
-2.433506e-02
-3.508061e-02
-4.306871e-02
-5.253198e-02
-5.430098e-02
-2.942462e-02
1.365441e-03
-6.361503e-02
-9.271790e-02
2.639040e-02
1.732067e-02
-4.568970e-02
2.961720e-02
3.036646e-02
5.405281e-02
-1.001003e-01
6.403498e-02
-1.067817e-02
-3.261365e-02
-6.736172e-03
5.591565e-02
2.140432e-02
-1.388280e-02
-4.877781e-02
-3.944367e-03
4.211112e-02
7.471494e-03
-5.319804e-02
1.068697e-02
-2.765335e-02
-6.282047e-02
-9.917247e-02
-8.723062e-02
4.615716e-02
1.484066e-02
-9.283039e-03
5.678434e-02
6.026002e-02
-3.058055e-02
-3.233915e-03
-3.669797e-02
4.619604e-02
-4.166150e-02
7.694047e-03
3.219394e-02
-1.373672e-02
-7.089566e-02
8.501480e-04
-5.171617e-02
5.223719e-03
-2.794738e-02
2.093828e-03
5.218316e-02
3.344974e-02
-7.359200e-02
-6.812004e-02
-7.876174e-02
8.068959e-02
9.521393e-02
1.474304e-01
7.355151e-02
-4.976078e-02
3.409800e-02
-6.572962e-03
-2.556765e-02
5.251541e-02
-4.666382e-02
-6.865855e-02
2.138321e-02
-2.666662e-02
-2.527509e-02
6.274842e-02
2.531890e-02
3.019442e-02
1.760342e-03
-6.064294e-02
-1.315383e-01
-8.853431e-02
4.865921e-02
1.693677e-03
-4.861851e-03
6.854876e-02
1.182349e-01
-9.948904e-02
-7.119647e-02
-1.824448e-01
-1.358601e-01
-8.155350e-02
-8.616632e-02
-4.562848e-02
-4.253524e-03
1.814265e-02
8.332580e-02
-3.044430e-02
3.130685e-03
6.920695e-03
5.022197e-02
5.759754e-02
3.399052e-02
-1.394481e-01
-1.301125e-01
-2.116537e-01
3.608513e-03
-1.859171e-02
-7.910428e-02
-6.137747e-02
-4.578827e-02
-1.366405e-02
4.333929e-02
3.434533e-02
7.719506e-03
1.017044e-01
7.380845e-02
1.435736e-01
1.130232e-01
1.042035e-01
1.111703e-01
6.095707e-02
1.020642e-01
-3.157703e-03
3.776016e-02
5.695569e-02
-8.867572e-02
1.511323e-01
1.129801e-01
1.120632e-01
6.323583e-02
1.449561e-01
7.021646e-02
3.999603e-02
1.658770e-02
-5.177373e-02
5.087110e-03
2.048277e-02
-1.815999e-02
-4.926463e-03
3.196466e-02
-7.908091e-02
5.822045e-02
1.245909e-01
6.095795e-02
1.538152e-03
4.420975e-02
1.128969e-01
-1.006775e-01
-1.366986e-01
-9.715992e-03
-8.011980e-02
-6.541639e-02
3.136458e-02
-8.080851e-02
-4.533199e-02
-1.487614e-02
5.560723e-02
5.297010e-02
1.424797e-02
8.682521e-02
-5.086383e-02
2.331084e-02
8.049573e-02
-1.323199e-02
5.502880e-03
2.480156e-02
-3.866439e-02
-3.651639e-02
-8.863202e-02
3.149915e-02
-4.497335e-02
-1.000923e-01
-6.064622e-02
-4.341677e-02
-1.052942e-02
-3.508781e-02
-3.872474e-02
-3.634795e-02
-1.820683e-02
-2.964819e-02
-4.132536e-02
-1.780546e-01
-1.226409e-01
-1.249903e-01
-2.429616e-01
-1.840952e-01
5.104065e-02
6.331088e-02
1.597795e-02
1.704226e-01
1.415551e-01
4.431312e-02
8.191483e-02
7.209383e-02
-2.295251e-02
-2.168054e-02
-3.359711e-02
2.982941e-02
-1.125129e-02
1.168335e-02
1.815157e-02
1.401898e-02
7.513723e-03
-5.026608e-02
4.276936e-02
-1.865730e-02
1.116111e-01
-9.369657e-02
-3.152672e-02
1.729444e-01
-2.449768e-01
-1.982368e-01
2.009867e-02
-4.342115e-02
-4.090431e-02
-6.608204e-02
4.511835e-02
2.220761e-02
2.085801e-02
2.506041e-03
-2.564397e-02
-7.311055e-02
2.372812e-02
-3.425461e-02
3.711225e-03
1.080931e-01
-5.766857e-02
4.504396e-02
9.779039e-02
5.634737e-02
8.350609e-02
-7.457475e-02
-9.639005e-02
-2.070958e-03
-1.015105e-01
-7.724524e-02
-6.245359e-02
-9.296969e-02
-1.305563e-01
-1.280763e-01
-2.353713e-03
8.904555e-02
7.118657e-02
4.666416e-02
6.251956e-02
-1.244260e-03
-6.812628e-02
-6.197623e-02
-1.275351e-01
-6.089513e-02
-4.367733e-02
4.927485e-02
-3.309188e-02
-7.479866e-02
-5.340894e-03
-1.448716e-03
-5.679749e-02
1.279577e-02
6.233834e-02
4.852179e-02
-4.356899e-02
-8.415864e-02
-2.604160e-02
6.756118e-03
-5.906899e-02
-6.395799e-02
-1.494965e-02
-4.175947e-02
-6.539833e-02
4.676069e-02
-3.584811e-02
-1.032824e-02
1.915221e-01
1.950299e-02
7.035570e-02
2.711218e-01
-1.410780e-01
-9.911072e-02
-1.058612e-01
-1.434087e-01
-6.314036e-02
-8.054564e-02
-7.011353e-02
-1.031386e-01
-1.126878e-01
-1.231420e-01
-9.642730e-02
-4.425175e-02
1.065664e-02
-2.209773e-02
3.887574e-02
6.031608e-02
3.432553e-02
1.057142e-02
-7.200406e-02
-7.506296e-02
-1.808297e-02
-2.862013e-02
-1.566432e-02
-1.504901e-02
8.723382e-03
7.307512e-02
-5.859731e-02
-1.920330e-02
2.656275e-02
5.217144e-02
-1.792390e-01
-1.891306e-01
-6.281503e-02
-1.600995e-01
-1.252588e-01
-7.575009e-02
-7.464068e-02
-7.267001e-02
-1.102334e-01
-4.240166e-02
-9.527312e-02
-1.107460e-02
8.773050e-02
7.246413e-02
5.632260e-02
3.492151e-02
-3.465253e-02
2.286546e-02
-4.707480e-02
-2.389605e-02
-2.541773e-02
7.784495e-02
8.738476e-04
3.311831e-02
-4.545032e-03
-3.670252e-02
-7.669440e-02
-4.034168e-02
-5.334786e-02
-6.797311e-02
3.344665e-02
-7.190780e-02
-9.737346e-02
1.997729e-03
-3.014083e-02
-2.443941e-02
1.424991e-02
-6.619027e-02
-9.776058e-02
4.474997e-02
-5.809283e-02
-8.538877e-02
-1.295747e-02
-5.993945e-02
-7.883133e-02
3.276526e-03
-3.959414e-02
-1.592851e-01
5.814149e-02
-1.815624e-02
6.041246e-02
-8.880082e-02
-9.230927e-02
1.646017e-01
-1.457441e-01
-1.176537e-01
1.358068e-01
-2.425094e-02
-3.530718e-02
1.364005e-01
-8.365881e-02
-9.093788e-02
-7.532888e-02
-3.125130e-02
-2.192660e-02
1.672895e-02
4.568687e-02
1.178107e-02
4.888353e-04
3.074197e-02
1.876559e-02
5.650531e-02
2.949018e-02
1.908384e-02
3.113662e-02
-9.700547e-03
2.378924e-03
4.891998e-02
-6.435590e-02
-2.204571e-03
-6.301921e-03
-7.932194e-02
-1.080488e-02
-7.018958e-02
-1.443583e-01
-1.574739e-01
-1.268713e-01
-9.227972e-03
-5.612890e-02
-1.394340e-02
-7.079127e-02
-2.457962e-01
-1.313401e-01
-7.681620e-02
-1.802504e-01
-1.390229e-01
-2.628759e-02
-9.711727e-02
-9.198743e-02
6.810059e-02
1.370584e-01
-1.216231e-02
8.146653e-02
-8.788502e-03
-7.055986e-02
-9.659504e-02
2.641078e-02
1.663281e-01
-5.725814e-02
7.024416e-02
1.428213e-01
-7.021827e-02
-5.243442e-03
3.892312e-02
-4.544616e-02
-1.516420e-02
-3.301350e-02
-6.101283e-02
-5.789099e-02
-1.024941e-02
-8.967965e-02
-1.109648e-01
-7.116703e-02
1.945750e-01
4.558190e-02
-5.185282e-03
1.136165e-01
2.026397e-01
1.570589e-01
-3.076896e-02
-3.025843e-02
1.030672e-01
-2.005065e-02
2.109246e-02
7.583532e-02
2.704994e-02
9.374637e-02
5.246648e-02
5.438818e-02
1.336574e-01
2.219750e-02
5.595428e-02
6.219484e-02
-4.760331e-02
-6.226043e-03
1.661486e-01
-7.467563e-02
-2.816169e-02
2.957627e-02
-5.189594e-02
-1.621059e-01
2.963359e-02
9.011600e-02
-6.756124e-02
-5.093906e-02
-2.238823e-02
2.773588e-02
-4.453137e-02
-1.157831e-01
-9.040580e-02
-3.934784e-02
-7.741856e-02
-6.132491e-02
8.121812e-02
3.334756e-02
1.741936e-02
8.299667e-02
-3.627463e-02
-7.431429e-02
-1.036125e-02
3.003996e-02
2.228541e-02
-2.273976e-02
-1.896868e-02
5.168970e-02
3.297140e-02
1.592880e-03
1.141674e-02
2.661991e-04
-3.227447e-02
3.290426e-02
-3.984611e-02
-1.478914e-01
3.312214e-02
-4.014414e-03
-1.444121e-01
-4.411170e-02
-6.670167e-02
-1.485108e-01
-4.543758e-02
9.561041e-02
7.134549e-02
-4.809346e-02
-5.018482e-02
1.482160e-02
-1.025420e-01
-5.812758e-02
1.177429e-01
-3.866202e-02
-6.327967e-04
8.525059e-02
3.360732e-02
-1.654947e-02
-1.001165e-01
-3.448258e-02
-3.212084e-03
-2.748856e-02
-4.039815e-02
-1.717064e-01
-1.167241e-01
-1.186845e-01
-2.290709e-01
-2.047689e-01
-3.742667e-02
6.873938e-02
1.261256e-02
-1.207276e-01
4.155105e-02
1.962036e-02
1.051571e-02
8.168095e-02
3.355391e-02
-1.504615e-02
-4.198869e-02
-6.477859e-03
-6.477457e-04
-5.697679e-02
-7.140728e-02
-7.979272e-02
-1.134080e-01
-1.354819e-01
-4.906790e-02
-8.096348e-02
2.596929e-02
-7.289171e-02
-1.657362e-01
-9.528113e-02
1.181073e-02
-1.046541e-01
-1.825844e-01
2.995189e-02
5.629682e-02
-6.145529e-02
-1.405259e-01
1.912382e-02
-6.857482e-02
-4.335770e-02
-2.697521e-02
-1.589901e-02
3.015443e-02
-4.347409e-03
1.445128e-01
1.388084e-01
-1.198345e-01
-4.357813e-02
8.653603e-02
1.088671e-02
-1.143170e-01
6.179170e-02
-3.115600e-02
-2.836129e-02
2.845220e-02
-5.314249e-02
-1.010774e-01
7.142778e-02
1.876533e-03
5.744286e-03
-5.187180e-02
-7.115524e-04
1.556390e-01
7.241101e-03
-3.047764e-02
3.971357e-02
4.323539e-02
-2.238640e-02
-7.387868e-02
6.967708e-02
6.776507e-03
-5.191424e-04
1.360695e-01
-6.142212e-02
-1.272695e-02
7.757634e-02
-5.017196e-03
2.805225e-02
-7.207488e-02
2.072483e-02
-7.969003e-02
5.525904e-02
-2.078808e-02
-3.452053e-02
1.653660e-02
-6.656419e-02
1.286010e-02
1.355044e-01
1.846058e-02
-1.624540e-02
-3.413787e-02
2.640959e-02
-6.348945e-03
-3.431924e-02
-9.797855e-02
-5.104443e-02
-1.928850e-02
8.710315e-02
6.147730e-02
3.583276e-03
1.836990e-01
4.545740e-02
6.134992e-02
1.502489e-01
-1.476850e-02
1.594240e-01
8.128902e-02
6.161321e-02
1.601824e-01
1.513073e-01
8.600798e-02
8.761636e-03
-5.563155e-04
-3.768723e-02
-4.043558e-02
-1.520988e-02
1.727838e-02
-9.706821e-02
-9.845224e-02
-4.351037e-02
-1.609841e-02
-4.897047e-02
2.412411e-02
-5.416504e-02
3.242390e-02
-6.210645e-02
-1.309988e-01
-1.327497e-02
5.760082e-02
-9.914130e-02
-3.523391e-02
-4.829714e-02
-1.564992e-01
-6.672260e-02
-1.952148e-02
-9.354395e-02
-2.044546e-01
-2.229293e-01
1.606561e-01
-1.484180e-02
-1.635943e-01
3.412882e-02
-2.383004e-02
-7.424987e-02
-2.390224e-02
6.173001e-02
-3.923580e-02
1.778820e-02
-8.426114e-03
1.449662e-01
-7.638001e-02
-2.919424e-02
3.453041e-03
1.708184e-02
-8.702586e-02
-2.975560e-02
1.050697e-01
4.029133e-02
-8.191527e-02
-1.144518e-01
-7.992357e-02
-1.222539e-01
-6.137610e-02
-5.439098e-02
-9.511957e-02
-5.820404e-02
2.170743e-02
6.514170e-03
1.331491e-01
1.063940e-01
-1.591972e-02
7.470471e-02
6.507540e-02
-4.714495e-02
3.231858e-02
4.561405e-02
9.746199e-03
2.712949e-02
6.131209e-02
-6.775339e-02
-2.387726e-02
-2.637221e-02
-9.900675e-02
-3.531853e-02
3.604981e-02
-8.545071e-02
-1.139357e-01
-2.566872e-02
2.974643e-03
-6.093796e-02
-2.305942e-02
4.280157e-02
-3.903146e-03
-9.949609e-04
1.705674e-02
9.436059e-02
-5.838212e-02
1.156489e-02
6.367926e-02
-3.591691e-02
6.920681e-02
1.036699e-03
-4.798035e-02
-6.358309e-02
3.049984e-02
1.037360e-01
9.915382e-02
-4.794469e-02
1.965887e-02
6.604401e-02
-1.428932e-01
-1.767459e-01
-3.904887e-02
-3.721169e-03
-7.767018e-02
-5.947391e-02
4.518513e-02
-3.318637e-02
8.770751e-03
3.819665e-02
-2.206579e-02
4.319183e-02
4.086838e-02
-1.072024e-02
-2.301669e-03
-6.768370e-02
-9.613367e-02
-6.667099e-02
7.380545e-02
-6.724867e-03
-4.369042e-02
9.426181e-02
7.714365e-03
-1.123563e-01
6.806774e-02
1.749215e-02
-1.398980e-01
1.026602e-02
-3.546374e-02
-1.390371e-01
9.482665e-02
-1.195154e-02
-1.659846e-02
3.239552e-02
4.089256e-02
4.778145e-02
1.339543e-03
6.422168e-02
3.065709e-03
-1.036951e-01
-7.836223e-02
-1.429857e-01
-1.469283e-01
-1.054346e-01
-1.218598e-02
-1.695917e-02
-2.093317e-02
1.727423e-02
-4.314771e-02
-1.402498e-01
-1.124998e-01
2.415614e-02
-9.038751e-02
-9.581845e-02
-3.474648e-02
-1.218172e-01
-1.606275e-01
-6.924762e-02
-1.026400e-01
-1.446449e-01
-3.998215e-02
-1.384220e-01
-4.190104e-02
9.623884e-02
-6.208673e-03
-6.114016e-03
1.412549e-02
-8.404810e-03
4.141595e-02
-2.827185e-02
-6.463508e-02
1.932721e-03
2.923535e-03
-1.253363e-01
-1.110719e-01
8.977278e-02
-2.478881e-02
2.261774e-01
2.255343e-02
-2.573465e-01
1.046565e-01
2.644246e-01
5.249555e-02
2.725353e-01
5.615799e-02
3.670239e-02
-4.649426e-02
-3.227770e-02
-4.606285e-02
-1.053043e-01
-7.873214e-02
-9.092639e-02
-1.094838e-01
4.071169e-02
-5.736669e-02
-1.419036e-01
6.436931e-02
-5.514213e-02
-5.125634e-02
-7.100649e-02
-1.726143e-01
-1.717152e-01
4.079643e-02
-9.801695e-02
-1.033641e-01
-4.384015e-02
-1.573983e-01
-1.752147e-01
-3.837264e-02
-5.902630e-02
-3.818448e-02
-7.421113e-03
-5.045246e-02
-6.633941e-02
-3.906658e-02
-2.117428e-03
-3.660785e-02
-5.674933e-02
2.172866e-02
-4.662358e-02
-5.400703e-02
-3.420461e-02
-3.698936e-02
-8.761711e-02
-6.393410e-02
-9.074737e-02
-2.299279e-02
-8.394005e-02
-1.421229e-01
1.094435e-01
-4.961464e-02
-8.934330e-02
1.514683e-02
-6.840298e-02
3.410836e-03
-1.208438e-01
-1.422563e-01
6.675063e-02
1.051554e-01
-7.608401e-02
-3.251274e-02
1.311428e-01
-1.609640e-02
-8.763196e-02
-3.511431e-02
-5.557011e-02
-5.449384e-02
-5.340679e-02
-7.458188e-02
-1.446807e-01
-2.408170e-02
-6.857184e-02
-9.589527e-02
-1.079840e-02
1.079821e-02
-7.541523e-03
-7.663693e-02
4.599351e-02
2.330683e-02
1.735309e-02
4.570391e-02
-5.556783e-03
-5.426045e-02
5.444046e-02
3.510705e-03
2.275434e-01
2.055183e-01
6.455547e-02
1.445181e-01
2.005419e-01
4.088135e-02
2.489690e-02
9.220550e-02
7.932664e-02
-3.948231e-02
1.660064e-02
8.732601e-02
-4.981313e-03
2.944280e-02
1.697703e-02
7.950556e-02
-8.524968e-03
-8.148251e-02
-9.276312e-02
3.734046e-02
-1.636190e-02
-8.234625e-02
2.366796e-02
2.164179e-02
2.397399e-02
-1.670285e-02
-6.311178e-04
-7.673158e-02
-1.151896e-01
-8.214246e-02
-1.300353e-01
-1.628234e-01
-1.384284e-01
-1.114577e-01
-1.581632e-01
-1.301903e-01
6.782331e-02
-1.678900e-02
6.388047e-02
-8.652672e-03
-1.416737e-01
-2.617556e-02
9.558021e-02
2.370456e-02
1.012388e-01
-4.841324e-02
-5.614675e-02
-7.030562e-02
4.408214e-02
-4.754825e-02
2.946652e-02
-1.506634e-02
-9.344009e-02
-3.785170e-03
-3.727707e-02
-6.140359e-02
5.372393e-02
-1.174511e-02
-3.658784e-02
1.066033e-01
-4.244190e-02
-1.634794e-01
3.329478e-03
-9.314173e-02
-1.605254e-01
-2.039603e-01
-3.649037e-02
-1.209741e-01
-1.465373e-01
-2.024799e-02
-3.938235e-02
-8.914264e-02
1.233097e-01
1.560849e-01
1.549645e-01
4.866403e-02
8.685971e-02
-6.630100e-03
8.519168e-02
8.236440e-02
6.566285e-02
8.453309e-02
-6.477582e-02
-1.636198e-01
6.355169e-02
-7.343614e-02
-8.771201e-02
6.801390e-03
-6.673330e-02
-7.658519e-02
-2.927996e-02
-4.250546e-02
-3.180698e-03
3.017608e-02
1.236015e-01
5.359345e-02
8.669464e-02
1.334074e-01
6.810913e-02
-5.349296e-02
-7.290659e-02
-4.520038e-02
1.694736e-02
-6.469569e-02
-1.594909e-02
6.646684e-03
-1.259543e-02
1.003371e-01
-4.054987e-02
1.183180e-01
-3.157711e-02
-2.409542e-02
3.611107e-02
-3.949774e-02
-1.482549e-02
-3.867257e-02
-1.203491e-01
4.893541e-02
8.066826e-03
9.092221e-02
6.356047e-02
-3.860955e-03
9.364315e-02
1.706865e-02
-5.576887e-02
-1.231468e-01
-1.862790e-02
-3.563470e-02
-9.044584e-03
1.967905e-02
5.519756e-02
7.147788e-02
8.255207e-03
-3.496939e-02
-6.323843e-02
-3.398613e-02
8.159024e-02
1.189940e-01
3.259914e-02
5.290211e-02
9.017960e-02
3.708230e-02
-3.035143e-02
6.736710e-02
1.444610e-01
1.986896e-01
6.830680e-02
1.008377e-01
4.946586e-02
-6.794650e-02
-5.070808e-02
-3.532040e-02
-1.029986e-01
-3.687124e-02
1.117615e-01
1.441705e-01
1.177900e-01
2.138072e-01
1.624383e-01
7.894558e-02
2.828090e-02
1.418843e-02
-5.831363e-02
-3.851677e-02
3.355666e-02
-1.045662e-01
-4.351500e-02
-1.729058e-02
-1.043376e-01
-8.620071e-02
7.168746e-02
5.393432e-02
-9.214085e-02
-5.145638e-02
-2.650253e-02
-1.247265e-01
-1.281151e-01
-2.864155e-02
-3.958979e-02
-1.137810e-01
-1.363386e-01
-1.912587e-01
-9.750902e-02
-7.655731e-02
-1.104813e-01
-1.277646e-02
3.899121e-03
-9.011837e-02
-4.754660e-02
-4.512412e-02
-9.184112e-05
8.691418e-02
-8.105609e-02
1.795225e-02
1.443917e-01
-6.763139e-02
6.963427e-02
1.489790e-01
4.290352e-02
2.918783e-02
-5.569519e-02
5.665936e-02
6.494115e-02
-7.448360e-03
-2.737381e-02
8.924929e-02
-2.497483e-02
1.866547e-02
-1.297985e-02
-2.766629e-02
4.653774e-02
-5.015816e-02
9.466806e-03
-3.561525e-02
-8.295031e-03
-2.317287e-02
1.102006e-01
-4.864525e-03
-3.090595e-02
5.092775e-02
-1.075209e-02
-7.422583e-02
9.486079e-02
-3.993046e-02
-1.384028e-02
3.291062e-02
5.337191e-02
2.016349e-02
8.365797e-02
2.433751e-03
-6.259129e-02
2.494607e-02
-5.676974e-03
-4.669831e-02
-1.727998e-01
9.323404e-03
1.833763e-02
-5.641839e-02
1.670720e-01
-1.627089e-02
4.222092e-02
6.109884e-02
1.248813e-01
8.519843e-02
1.692235e-02
2.482031e-02
7.044882e-02
6.714557e-02
1.079685e-01
6.555138e-03
2.275790e-02
9.147880e-02
-8.128680e-02
-1.214151e-01
-3.076131e-02
-1.567361e-02
1.774318e-01
4.168967e-02
1.803392e-01
3.048588e-01
6.453248e-03
-5.783259e-02
-9.312911e-02
-6.448462e-02
-1.188077e-01
-4.039432e-02
-1.290402e-01
2.534119e-02
6.925040e-02
-8.418875e-02
8.859171e-02
-7.652640e-02
-9.025102e-03
2.369885e-02
-2.109105e-02
1.244738e-01
-1.084162e-02
6.155306e-02
1.453761e-01
-1.845420e-02
-4.050354e-02
2.977191e-02
-9.879153e-03
-6.116500e-02
1.032344e-01
9.585576e-02
5.872724e-02
7.234787e-02
-1.037179e-02
5.680192e-02
5.200525e-04
-3.973722e-03
-1.129913e-01
-5.344105e-02
1.763342e-02
-1.444787e-02
-1.187112e-01
-2.471714e-03
-1.628419e-02
1.026165e-01
1.261645e-01
-9.264091e-02
2.684547e-01
1.548548e-01
2.441499e-01
2.296338e-01
5.031527e-02
3.903524e-02
5.284791e-02
-2.855996e-03
6.921018e-02
7.642148e-02
6.431943e-02
1.082671e-01
1.495759e-01
9.791356e-02
3.256453e-02
6.408463e-02
4.944238e-02
-2.863139e-03
4.763440e-02
-9.234419e-02
-1.159566e-01
4.273164e-03
-9.280939e-02
-7.154998e-02
-9.425060e-02
-6.159343e-02
-1.164240e-01
-1.575433e-01
-1.027956e-01
-6.031808e-02
-1.953911e-01
5.767316e-02
3.204339e-02
-3.101191e-02
9.407249e-03
-5.259375e-02
1.160418e-01
-1.096609e-01
7.535049e-02
2.126327e-01
-1.140187e-02
7.577988e-03
1.922670e-02
7.922782e-02
1.990500e-02
-1.096355e-01
2.370024e-02
1.883969e-02
5.937248e-02
-9.011405e-03
-3.136134e-02
6.410601e-02
-4.889560e-02
2.655722e-02
5.333879e-02
-1.181970e-02
4.911784e-02
1.893742e-01
2.090961e-02
1.249895e-02
8.908044e-02
4.325063e-02
4.669034e-03
5.367147e-02
-9.889971e-02
-7.653655e-02
-5.998527e-02
-1.036963e-01
-3.687269e-02
-4.605748e-02
-5.033420e-02
-6.188592e-02
-1.411159e-01
1.411830e-02
-5.332530e-03
-6.905916e-02
-7.820333e-02
7.658926e-02
1.335976e-01
-3.019863e-02
3.259682e-02
2.070061e-01
-1.196414e-02
2.091262e-02
7.153815e-02
1.240812e-01
1.221730e-01
8.886148e-02
1.725213e-02
8.280304e-03
-8.645216e-02
6.809065e-03
2.493093e-02
-4.184883e-02
-8.129931e-02
-7.644632e-02
-6.496402e-02
-5.440717e-02
-3.273666e-03
-7.734913e-02
3.608339e-02
8.050967e-02
1.273077e-02
4.284920e-02
-7.082446e-02
-5.300050e-02
2.852050e-01
2.641797e-01
9.094235e-02
3.413370e-02
2.965568e-02
3.891131e-02
3.436659e-03
5.779452e-02
2.258706e-02
-7.880878e-02
-4.557606e-02
-7.430741e-02
-1.515468e-01
-1.222771e-01
-9.944174e-02
1.431053e-01
-1.386283e-02
-9.146187e-02
1.745415e-01
3.690304e-02
-2.906135e-02
2.587631e-02
-6.776269e-02
-5.593831e-02
4.745832e-03
1.629922e-01
9.766863e-02
-9.803429e-02
-5.845807e-02
-1.580369e-01
-4.031809e-02
-5.084627e-02
-1.069394e-01
4.220587e-02
8.106985e-02
7.572763e-02
-9.613610e-02
-8.887159e-02
-7.200426e-02
2.174357e-02
-3.508372e-02
-1.288065e-01
-2.436145e-02
-3.700453e-02
-2.387033e-02
4.406925e-02
2.895122e-03
-2.445728e-02
8.758526e-02
8.212309e-02
-3.774176e-02
2.566181e-02
-1.208428e-02
-2.604260e-02
-8.322292e-02
-1.684261e-01
-1.694485e-01
-5.662382e-02
-1.537933e-01
-1.326262e-01
3.029467e-02
6.390826e-02
3.033976e-02
2.424129e-01
9.767233e-02
4.154463e-02
2.729744e-02
-1.456233e-01
-1.141668e-02
-3.789871e-02
5.067441e-02
-4.110229e-02
-2.894682e-02
2.496403e-03
-7.335459e-02
5.370425e-04
2.431221e-02
5.512266e-03
3.671620e-02
6.308204e-03
8.772131e-02
5.580813e-02
1.902953e-02
6.818828e-03
1.742952e-01
1.530640e-01
3.598319e-03
-1.657862e-01
-1.929760e-03
7.947777e-02
-5.923880e-02
-3.463917e-02
2.891764e-03
6.480034e-02
-4.400888e-02
-2.369902e-02
6.556395e-02
4.466165e-03
-9.142241e-03
4.990926e-02
-1.352406e-02
9.694960e-03
8.900281e-02
9.073488e-02
1.281530e-01
3.174227e-02
5.719602e-03
3.686637e-02
-6.740938e-03
-3.816831e-02
-5.595548e-03
-5.351343e-03
-2.348179e-02
-6.253090e-03
1.411914e-02
-1.057933e-01
-1.075574e-01
-9.666078e-02
-2.344303e-01
-1.561003e-01
-9.824279e-02
-7.172219e-02
-1.772152e-02
7.877345e-02
2.793836e-02
-1.101131e-02
-6.355168e-02
-7.990262e-02
-3.508675e-02
-1.692439e-01
-1.233443e-01
-4.832251e-02
-8.364144e-02
7.377721e-02
7.511195e-02
-1.285539e-01
-6.299664e-02
-8.821820e-02
-6.238218e-02
-1.462024e-01
-1.009003e-01
4.368803e-02
-7.742664e-03
-1.373564e-02
-4.074446e-02
-1.129650e-01
-4.437516e-02
-3.187678e-03
-3.007079e-02
6.800553e-04
-2.288257e-02
8.407402e-02
2.147123e-02
-7.372964e-02
-6.934116e-03
8.981361e-03
-1.370604e-01
-7.896988e-02
-1.002997e-01
-6.992474e-02
-1.350909e-01
-9.810602e-02
-1.317719e-01
-8.856478e-02
-6.750254e-02
-5.986147e-02
1.543394e-02
1.648709e-02
8.812724e-02
-1.580205e-02
-2.091617e-02
-9.981213e-02
-1.179304e-01
-3.154107e-02
4.685696e-03
-5.782547e-03
-2.788068e-03
1.407574e-01
2.098376e-01
5.515935e-02
8.754950e-02
1.427054e-01
1.268764e-01
-3.685593e-02
-7.704193e-02
1.582164e-02
2.865165e-02
6.651464e-02
-5.754769e-02
1.210858e-02
3.325842e-02
-3.435178e-02
-3.450131e-02
-2.805978e-02
-1.461838e-01
-2.114299e-02
5.484238e-02
-1.346288e-02
-6.848854e-02
2.892843e-02
-1.211982e-01
-1.117883e-01
-4.526284e-02
-1.496047e-01
2.375901e-02
7.564910e-02
4.232417e-02
1.308894e-01
1.861168e-01
7.027938e-02
-1.619689e-02
-4.216949e-02
-7.359644e-02
4.668484e-02
6.775482e-02
4.862762e-02
-2.293378e-02
-1.033903e-01
-5.568682e-02
9.576596e-02
-2.209797e-03
2.034695e-02
2.925193e-02
-2.237442e-02
-5.092813e-02
2.173789e-02
-1.307050e-01
-1.145906e-01
1.604649e-01
5.897287e-02
9.320250e-02
-1.161323e-02
-3.347834e-02
-7.673450e-02
-8.289454e-03
-5.598826e-02
-1.006016e-01
-5.899240e-02
-7.781544e-02
-7.795636e-02
3.864083e-02
5.547636e-02
-3.686171e-02
-3.816826e-02
-2.405802e-02
-6.405880e-02
-1.197854e-01
-6.757651e-02
-8.023297e-02
2.268556e-02
1.225474e-01
2.023663e-01
6.813497e-02
8.225617e-02
1.246363e-01
-2.974303e-02
-1.194422e-02
-6.724333e-02
3.728615e-01
1.071349e-01
1.238356e-01
9.373686e-02
8.255401e-02
6.722502e-02
1.625085e-01
1.855306e-01
1.632809e-01
5.600608e-02
6.668692e-02
4.655272e-02
-5.087570e-02
-2.763361e-02
2.795627e-03
5.400479e-03
2.248657e-02
7.154093e-02
-1.367870e-02
-7.079233e-02
-4.448987e-02
6.942059e-02
1.164969e-02
-4.752856e-02
4.009568e-02
-3.406268e-03
-5.803698e-02
-8.933182e-02
-2.945866e-02
-6.527182e-03
-7.953823e-02
-7.821375e-02
-8.054181e-02
-2.456795e-02
2.103297e-02
-1.960347e-02
2.603954e-02
2.921736e-02
1.932480e-02
-2.773983e-02
3.437507e-02
5.579845e-02
-7.493594e-02
-1.241443e-02
-1.445859e-02
2.194302e-02
-4.739215e-02
-4.300373e-02
4.977788e-03
-1.454891e-01
-1.935381e-01
8.694313e-02
8.653486e-02
7.510403e-03
-9.595311e-02
-8.048871e-02
-9.159495e-02
-5.071189e-02
3.492574e-02
-5.984490e-02
-4.859414e-02
6.318058e-02
-3.642740e-02
9.173189e-04
-1.100665e-01
-1.541724e-01
1.083319e-02
-3.109946e-02
-2.087887e-02
-6.183409e-02
-7.858282e-02
-1.013870e-01
-4.412984e-03
-2.586924e-02
3.751202e-03
-1.881490e-02
-3.203164e-02
-5.027329e-02
-5.498779e-02
-3.373415e-03
4.928543e-02
-3.481282e-02
2.526537e-02
-5.005826e-02
-2.159138e-02
9.011237e-02
-7.511072e-03
-7.007629e-02
6.852490e-03
-7.735657e-02
-8.172292e-02
-1.216245e-01
-5.770931e-03
-1.810694e-02
-7.164536e-02
-5.766638e-03
-5.246079e-02
-9.183558e-02
9.016765e-03
-7.863858e-02
-1.426065e-01
-7.369119e-02
-4.735030e-02
-9.459219e-02
-1.713930e-02
3.611834e-02
-3.282387e-02
-1.117440e-02
-3.750408e-02
2.842439e-02
-2.030482e-02
-8.010826e-02
-5.606759e-02
-9.738915e-02
-4.466428e-02
-6.369288e-02
-4.359480e-02
-5.005715e-02
9.171915e-03
-7.112350e-02
8.954953e-03
7.816628e-02
-5.111253e-02
-8.658446e-02
2.698475e-03
-1.185037e-01
-1.951601e-02
-3.348142e-02
-1.363792e-03
1.101773e-02
6.480139e-02
8.512664e-02
-6.528825e-02
-1.570306e-02
-2.070866e-02
-6.131895e-02
2.920127e-02
-1.385970e-02
-6.949184e-02
1.235718e-01
6.422813e-02
-9.457130e-03
1.238225e-01
1.504195e-02
1.724023e-02
3.245400e-02
3.599051e-02
7.968275e-03
2.158870e-03
-2.030536e-02
-6.875379e-02
-7.469257e-02
-5.414949e-02
-3.708306e-02
8.066948e-03
-1.076977e-02
-9.560595e-02
-3.444568e-02
3.980356e-02
-7.401628e-02
-5.378773e-02
8.605562e-03
3.039384e-02
-2.104241e-02
1.359424e-02
-3.615538e-02
-1.051815e-01
4.165581e-02
-1.397926e-01
-1.159639e-01
5.047558e-02
-6.250154e-02
2.278679e-02
-2.507650e-02
3.222879e-02
5.260290e-02
-6.994357e-02
6.781563e-02
6.091638e-02
-1.148912e-01
6.139768e-03
1.053271e-01
1.513129e-01
-1.369197e-02
6.488543e-02
9.483171e-02
-1.814523e-03
2.324966e-03
-1.983078e-02
-2.887271e-02
-9.158922e-03
-5.825520e-03
-3.432616e-03
-1.726485e-02
-3.799624e-02
-2.903438e-02
2.491621e-02
4.942019e-02
9.436051e-03
-4.144105e-02
-1.518673e-02
-9.480610e-03
2.484508e-02
-2.025321e-02
3.071264e-02
4.797328e-02
-4.525917e-02
4.771952e-02
6.606115e-02
3.194476e-02
-3.988583e-02
5.466285e-02
1.344856e-02
-6.042863e-02
3.344277e-02
3.730449e-03
1.505117e-02
-7.133408e-04
-8.434045e-02
-1.705584e-02
2.513861e-02
-1.012010e-01
-6.407407e-02
1.139699e-02
-4.837250e-02
8.359006e-02
5.758003e-03
-2.787522e-02
5.311670e-02
-1.936762e-02
-2.265161e-02
-1.758716e-02
-3.701407e-02
-8.571643e-03
-6.466654e-02
-4.165772e-02
-9.260247e-02
-8.821914e-02
-4.158343e-02
-1.414139e-01
-1.360201e-01
-1.502197e-01
-1.128703e-01
-6.723717e-02
-3.328634e-02
4.932294e-02
-7.160261e-02
-6.830125e-02
3.225088e-02
-4.446888e-02
-4.145603e-02
1.967541e-02
2.364796e-02
1.811258e-02
-2.184272e-02
-7.714064e-02
4.132817e-02
5.643320e-02
-1.052731e-01
-1.682519e-02
5.470696e-02
1.901497e-03
-1.800456e-02
8.681942e-03
-6.642620e-02
-2.605725e-02
-5.772491e-03
-2.336274e-02
-1.441480e-02
-2.994138e-02
-2.995857e-03
-4.977005e-02
-4.599691e-03
-2.787865e-02
-9.630040e-02
-6.812011e-02
-4.814982e-03
-2.053868e-02
2.402914e-02
-1.500257e-03
1.082098e-02
3.439192e-02
-9.218633e-03
1.470017e-02
3.809571e-02
1.692648e-02
3.365013e-02
6.404707e-02
4.645310e-02
4.285505e-02
2.340136e-02
1.275130e-02
2.794160e-02
-1.211839e-02
-2.632242e-02
-8.313625e-02
-5.446990e-02
3.424584e-02
2.784194e-03
2.729450e-03
1.146311e-01
-1.135026e-02
-3.742356e-02
4.972941e-02
-6.268734e-02
-5.278908e-02
1.063805e-02
-1.077841e-01
-1.334520e-01
4.877811e-02
-4.152449e-04
3.208986e-02
-2.879233e-02
-2.769423e-02
3.839888e-02
-8.519647e-02
-5.597507e-02
1.390741e-02
-6.148017e-02
-7.964215e-02
-6.792315e-02
-8.275053e-02
-9.797230e-02
-5.393896e-02
3.460515e-02
-5.144274e-02
-9.239155e-02
1.468104e-02
1.313456e-02
-4.200302e-02
-6.182649e-02
-1.226867e-02
-1.196111e-01
9.172262e-02
7.388198e-02
4.796006e-02
4.944161e-02
-3.343710e-02
-9.242030e-02
-7.161009e-02
-3.208563e-03
-4.374574e-02
-9.496453e-02
-7.905426e-02
-1.492570e-01
2.945417e-02
1.097415e-01
2.817716e-02
8.242614e-03
5.674161e-02
3.830969e-02
-2.447184e-02
-9.210302e-03
-1.032144e-01
1.266637e-01
8.780829e-02
8.387304e-02
-2.916966e-02
1.157876e-02
1.806780e-02
1.569418e-02
3.262710e-02
-3.428343e-02
2.603961e-02
4.669301e-02
-1.193555e-02
-2.075545e-03
1.144436e-01
1.023380e-01
-1.518918e-01
-1.323478e-01
-2.088017e-01
-5.352868e-04
1.099634e-01
-2.833104e-03
-9.889857e-02
5.659917e-02
-5.384482e-02
8.337848e-03
2.614457e-02
-9.706129e-02
-6.518150e-02
-4.915184e-02
2.640143e-02
-1.526713e-01
-9.821687e-03
-7.261511e-02
-8.743124e-02
-1.929699e-01
-2.834393e-02
7.613109e-03
-4.867067e-02
5.619166e-02
2.803046e-02
-5.384264e-02
-9.228839e-03
2.032821e-01
6.672400e-02
1.355147e-01
1.763004e-01
-4.322500e-02
5.763746e-02
2.337252e-01
4.891278e-02
2.213544e-01
-3.065484e-03
-4.317768e-02
1.100605e-02
8.497185e-02
-3.258513e-02
1.142557e-02
2.796616e-03
-1.115890e-01
-6.009082e-02
5.916156e-02
2.831339e-02
-1.252983e-02
1.311326e-01
1.158002e-01
8.901528e-02
-2.999349e-02
4.779530e-02
-1.745989e-02
-1.771052e-02
-4.413747e-02
-7.368880e-02
-1.816361e-02
-6.346693e-02
-1.251996e-01
-8.507644e-02
-8.471143e-02
-1.518303e-01
-1.245556e-02
1.003419e-01
-5.183878e-02
4.649527e-02
8.170792e-02
5.591065e-02
-2.519083e-02
-6.187470e-02
-4.221833e-04
9.898312e-03
-1.800596e-01
-5.068771e-02
4.398380e-02
-1.424439e-01
1.198567e-02
5.455163e-02
-6.737574e-02
4.376629e-03
-1.338135e-01
-6.155560e-02
8.928722e-02
-1.096692e-01
-2.819954e-02
6.891762e-02
-1.847363e-01
-1.725644e-01
4.701521e-03
-1.243600e-01
-9.331492e-02
-1.191582e-01
-1.801022e-01
-1.218822e-01
-3.054965e-02
-1.295747e-01
-1.025783e-01
-1.003959e-01
-1.024448e-01
-3.456609e-02
1.157057e-01
-8.020234e-02
2.879522e-03
1.462199e-01
2.548480e-02
1.273839e-02
8.196068e-02
2.338422e-02
8.776845e-02
6.871199e-02
-1.033951e-02
3.955932e-02
5.070015e-02
-9.076924e-02
-5.939601e-02
4.810037e-02
1.959218e-05
-2.377581e-03
3.099700e-02
-4.969328e-03
-1.348002e-01
-9.058067e-03
3.742004e-02
8.341411e-03
-1.670647e-02
6.790309e-02
3.162770e-02
-4.226103e-02
-4.797496e-02
3.626144e-02
-3.091099e-02
4.703655e-02
9.352437e-02
1.286660e-02
8.180033e-02
9.198762e-03
-9.693596e-02
6.908295e-02
1.088614e-04
-4.270947e-02
1.550420e-01
6.713881e-02
3.048572e-02
5.678099e-02
-7.872701e-02
-1.072798e-01
4.107707e-02
-5.846699e-02
-9.985796e-02
1.522814e-02
-4.032616e-02
-4.464114e-02
-6.729131e-02
4.060058e-02
-6.823754e-02
-9.478704e-02
6.161086e-02
-7.506351e-02
-7.083346e-02
2.130956e-03
4.281616e-02
2.327032e-02
-5.550119e-02
-1.130718e-01
9.703176e-02
-1.851291e-02
-5.517448e-02
4.464350e-02
-2.849894e-02
-6.976882e-02
-1.067075e-01
6.735454e-02
-4.934543e-02
-3.886410e-02
7.643215e-02
-9.820246e-02
-3.034853e-02
1.786240e-02
-8.553853e-02
3.324391e-02
-8.116351e-02
-4.536517e-02
6.485585e-02
-3.271907e-02
-3.958893e-02
5.897800e-02
-3.886518e-02
-3.816385e-02
-7.850668e-02
-5.269629e-02
-4.629611e-02
2.921568e-03
-2.980688e-02
-3.476951e-02
-7.500374e-02
-6.542916e-02
-4.582880e-02
1.414060e-02
-2.293283e-02
-9.019852e-02
-8.552221e-02
-1.690062e-01
-2.632848e-01
1.194424e-03
1.876631e-01
5.519132e-02
-5.438328e-02
-1.397435e-01
1.841620e-03
1.843181e-01
1.815542e-01
2.762996e-01
-5.747119e-02
-8.542146e-02
-7.959859e-03
-1.421729e-01
-2.288249e-02
-5.692653e-02
-1.717875e-01
-6.417320e-02
-1.374747e-01
-1.074842e-01
-1.487612e-01
-2.208834e-01
-1.250564e-01
-1.121947e-01
1.231892e-02
-1.493283e-01
-7.564308e-02
-4.865841e-02
-1.524196e-02
6.332159e-02
-2.262823e-03
2.885878e-02
-7.470517e-02
-6.254818e-02
1.470331e-01
1.410940e-01
-4.138706e-02
-7.767443e-02
-7.595860e-02
-5.410567e-02
-9.444384e-02
-1.696631e-01
-1.925114e-01
3.395901e-02
-8.838856e-02
-8.359846e-02
-1.159281e-03
-1.026551e-01
-8.030497e-02
1.149624e-03
-1.075503e-01
-2.720988e-03
6.347569e-02
-2.624739e-03
-3.769516e-02
1.736297e-01
1.517531e-01
1.382922e-01
-7.745164e-02
-1.154372e-01
-8.652058e-02
-1.435778e-01
-1.290787e-01
-1.252050e-01
-1.026923e-01
-4.598697e-02
-5.897764e-02
-5.495801e-02
-5.289849e-02
-6.870335e-02
-2.833083e-02
-5.696176e-02
3.134502e-02
-9.686749e-02
-9.925025e-02
-7.399029e-02
1.019248e-01
-8.132539e-03
-1.037045e-01
8.644788e-02
-4.825765e-02
-6.483303e-02
1.843507e-01
2.875149e-02
1.893680e-02
-4.440783e-02
-7.988810e-02
-6.866346e-02
-1.742854e-02
1.437411e-03
-1.937633e-02
-1.668170e-02
-3.468468e-02
-9.066562e-02
3.132030e-02
-8.447745e-02
9.771144e-02
1.493995e-01
-1.085637e-02
8.960710e-02
4.499059e-02
-4.295145e-02
6.387561e-02
1.177304e-01
1.989691e-01
1.308154e-01
3.949337e-02
6.339205e-02
7.190173e-02
-8.940703e-02
-5.226310e-02
-2.466157e-02
9.661648e-03
-1.857231e-03
7.383944e-02
4.909229e-02
-1.624250e-02
8.555363e-02
-6.655522e-02
-3.538978e-02
1.392311e-01
4.019307e-02
8.410530e-02
8.514029e-02
-3.137627e-02
1.081487e-02
6.132681e-02
-4.002754e-02
-8.239439e-03
1.292969e-01
-2.836650e-02
6.772576e-03
-5.089554e-02
-6.137773e-02
-1.026886e-01
-9.246360e-02
-2.887312e-02
-5.111597e-02
-6.653342e-02
-2.741126e-02
-5.316626e-02
-4.030496e-02
-4.649752e-02
-5.448684e-02
-6.876802e-02
-7.455927e-02
-5.385150e-02
-4.793733e-02
-1.441398e-02
-6.706430e-02
-4.593031e-02
7.493751e-02
5.957533e-02
-2.878090e-02
-1.253875e-02
-5.501666e-02
-9.221611e-02
-6.716734e-02
-1.324179e-01
-1.210026e-01
-5.843870e-02
-5.078867e-02
-2.697079e-02
6.123593e-02
7.360662e-02
7.793077e-02
5.512834e-02
-8.636300e-02
-1.405161e-02
4.631526e-02
-4.844334e-02
7.734432e-02
4.474916e-02
-2.562092e-02
2.293253e-02
1.839364e-02
8.893378e-02
7.419466e-02
-5.097210e-02
-3.003377e-02
7.489636e-02
-1.081707e-01
-9.576081e-02
4.393901e-02
2.611152e-03
-2.242960e-02
2.253287e-02
2.651544e-02
-1.011508e-01
-6.506831e-02
2.059984e-02
-6.382641e-02
-1.094492e-01
2.554012e-02
3.491754e-02
1.116492e-01
3.996540e-02
2.291347e-02
8.826945e-02
1.592161e-02
-1.236651e-01
-6.982630e-02
-1.049815e-01
-1.186718e-01
-6.649839e-02
-1.563247e-01
-1.013533e-01
1.730562e-02
1.991254e-03
5.862153e-02
6.091400e-02
2.105004e-03
-9.266547e-02
-2.005817e-01
1.486005e-02
-1.196895e-01
-2.740519e-02
7.796613e-03
1.360291e-03
-9.148518e-02
8.654974e-02
3.556276e-02
-7.096662e-02
8.098198e-02
2.237988e-02
-7.566389e-02
8.033389e-02
9.972233e-02
-5.258547e-02
-9.055819e-02
-6.846131e-02
-6.328199e-02
-2.754081e-02
-5.863735e-02
-1.090372e-01
5.914398e-02
-6.857060e-03
-8.134250e-02
3.742529e-02
4.187047e-02
3.550036e-02
6.075054e-02
1.373968e-01
1.708406e-02
-1.472058e-01
-1.069858e-01
-1.310365e-01
-6.330644e-02
-1.054254e-01
-5.732777e-02
-8.112004e-02
-9.864815e-02
-1.408067e-02
-4.154355e-03
-1.681754e-03
4.864187e-02
-2.832726e-02
-5.193374e-02
-1.646783e-02
-1.149814e-03
1.690820e-02
1.695359e-02
-3.144631e-02
-5.749437e-02
-3.664080e-03
-1.148089e-01
-9.437394e-03
-6.274860e-02
-5.353834e-02
-6.763902e-02
-4.397865e-02
8.798236e-03
-1.078409e-01
-7.165582e-02
8.016280e-02
9.181157e-02
3.978320e-02
-1.047241e-02
2.844052e-02
9.558639e-03
-9.449653e-02
-6.137493e-02
-4.460677e-02
1.028322e-01
-4.577582e-02
3.260852e-02
2.025360e-01
8.765534e-02
1.154405e-01
5.243175e-02
8.227979e-02
1.945042e-01
1.013944e-01
7.354216e-02
-2.076459e-02
8.137373e-02
5.399242e-02
-2.242131e-02
1.528374e-01
1.410003e-01
9.120447e-03
-8.193044e-02
-4.621657e-02
8.923301e-02
-4.701839e-02
1.524473e-02
1.033633e-01
-4.009049e-02
5.674835e-02
6.636700e-02
4.677086e-02
-4.235845e-02
-5.577084e-02
2.598860e-02
-1.523489e-02
-1.112301e-02
1.891661e-02
7.250942e-02
3.306783e-02
-2.120761e-02
-2.236203e-02
2.450521e-02
-5.861181e-02
-3.581353e-02
-2.399483e-02
-2.785979e-02
-5.312337e-02
-7.220849e-02
5.039376e-02
2.123754e-02
-5.415780e-02
5.169599e-02
3.342530e-03
-6.262396e-03
4.574910e-03
-2.434444e-02
-5.228829e-02
5.863788e-02
1.939519e-02
-1.219003e-02
-3.958781e-02
-3.186513e-02
-9.684210e-02
-5.346669e-02
-3.561732e-02
-7.371060e-02
1.519139e-02
-4.956019e-02
1.143874e-01
2.189052e-02
-2.004523e-02
1.159203e-01
2.197952e-02
3.371177e-02
8.090623e-02
-7.415586e-03
3.071991e-02
-3.210697e-02
-4.748799e-03
1.676213e-02
3.401827e-02
-2.967228e-02
-7.691950e-02
-1.983260e-02
-5.294038e-03
-5.533468e-04
1.147211e-02
1.803457e-02
-1.267194e-02
4.172209e-03
4.655747e-02
4.886122e-02
7.321780e-02
-1.989198e-02
2.682050e-02
3.212300e-02
-9.270729e-02
-2.599650e-02
-1.070400e-04
-5.603662e-02
-3.142596e-02
-3.093919e-02
1.176304e-01
9.657262e-02
9.213124e-02
-2.363311e-02
9.563222e-03
8.639450e-02
-3.570757e-02
6.808437e-02
7.248486e-02
1.079354e-02
4.896803e-03
4.928446e-02
-2.943978e-02
5.177856e-03
-4.787286e-03
4.091953e-03
1.168335e-02
-4.377149e-02
2.873759e-03
4.294680e-02
-3.734927e-02
-7.499446e-02
2.404741e-02
-3.827478e-02
-4.333890e-03
2.997810e-02
1.578834e-03
2.523209e-03
-8.336405e-02
-1.058346e-01
-3.789542e-02
-5.874945e-02
-3.626351e-02
-8.495969e-02
-2.674039e-02
-5.487581e-02
-6.089173e-02
2.419194e-02
2.642587e-02
-1.122869e-01
4.269714e-04
-4.627736e-03
-8.000743e-04
5.272231e-02
6.760514e-03
-7.479178e-03
9.889475e-03
-4.447668e-02
3.194111e-02
3.498137e-02
-4.925136e-02
7.565963e-02
3.093312e-02
-9.499493e-02
1.744451e-02
-3.780347e-02
-2.422024e-02
3.727249e-02
-6.116874e-02
3.504118e-02
1.022286e-01
5.044291e-02
-2.385340e-03
5.200990e-04
-1.731424e-03
-2.960248e-02
6.433106e-03
-2.240284e-02
4.775152e-02
3.237902e-02
-5.749693e-04
4.746752e-02
-1.875940e-01
-2.777049e-02
1.611222e-02
2.491728e-02
5.539791e-02
2.076398e-01
8.469327e-02
2.058202e-01
3.755780e-01
-9.412566e-02
-9.156153e-02
-4.604110e-02
-1.073047e-01
-6.505933e-02
1.625008e-01
-9.624463e-02
1.069805e-01
1.776971e-01
-1.085893e-02
-6.935418e-02
1.914344e-02
-3.830618e-02
-7.628062e-02
-5.214514e-03
-2.500362e-02
-4.154610e-02
-6.924700e-02
7.793315e-03
1.276107e-02
3.586370e-02
2.371908e-02
-1.672623e-02
6.386007e-02
3.128317e-02
5.130950e-02
2.817799e-02
7.511031e-03
9.257869e-03
-3.477525e-02
3.300211e-02
1.806667e-02
2.410547e-03
9.825060e-02
9.181152e-02
-2.686654e-02
7.018790e-04
-1.843155e-02
-1.192463e-02
-9.260174e-02
-8.139637e-02
-6.476177e-02
-1.259110e-02
-3.234949e-03
-7.665985e-02
7.657287e-02
3.942488e-02
-3.508115e-02
2.670527e-03
-2.061203e-02
-1.401674e-01
-4.969776e-02
-2.478744e-02
-8.348534e-02
2.235660e-01
1.028405e-01
-4.079637e-02
1.565073e-01
-3.474997e-02
-1.531835e-01
6.733124e-02
-1.521208e-01
-2.319763e-01
7.221822e-02
4.299971e-02
7.951815e-02
-3.222121e-02
2.056316e-02
-3.174841e-02
7.346702e-02
1.975940e-02
-6.560026e-02
-3.211236e-02
2.377225e-02
-7.730811e-02
3.825366e-02
8.713640e-02
-5.150940e-02
4.815490e-02
-7.539455e-03
-9.438819e-02
1.279720e-01
6.638452e-02
9.775952e-03
9.592059e-02
3.742119e-03
2.553317e-02
3.259680e-02
-3.018570e-02
-2.503190e-02
-6.630143e-03
4.215578e-02
-2.042208e-02
4.172007e-02
-5.985010e-03
-4.889082e-02
-8.260120e-03
-3.885015e-02
-6.906412e-02
4.684101e-02
3.743126e-02
2.306726e-02
2.294891e-02
-8.410503e-02
-6.093132e-02
-5.364147e-03
-1.084867e-01
-1.002311e-01
-9.262177e-02
-2.970665e-02
6.856047e-02
-1.917997e-02
4.412549e-02
3.162434e-02
2.641098e-02
4.156238e-02
5.166582e-02
-2.877225e-02
-3.497590e-02
3.985724e-02
-7.518021e-03
-2.456972e-02
-1.383713e-03
3.518347e-02
-2.196004e-02
1.985506e-02
-2.562417e-03
-6.019484e-02
-1.545977e-02
-2.846114e-02
-5.191782e-02
9.682694e-02
-4.371270e-02
4.580654e-02
2.074918e-01
-4.127297e-02
-5.232157e-03
-4.016340e-02
-2.841804e-02
-3.186934e-02
5.940704e-02
1.125276e-02
1.469236e-03
1.314209e-01
-2.799961e-02
-8.951539e-02
-5.302991e-02
8.934499e-02
8.049173e-02
7.604489e-02
2.819443e-02
-4.085805e-02
1.538023e-02
-2.783311e-02
1.925106e-02
3.019185e-02
5.328966e-02
6.497759e-02
7.621656e-02
1.914518e-02
1.805892e-02
1.697792e-02
1.282316e-01
1.422939e-01
6.451841e-02
1.295932e-01
6.613351e-02
9.598000e-02
3.856435e-02
6.557092e-03
4.986470e-02
7.056727e-02
-2.497826e-02
7.167111e-02
1.933009e-02
-6.982747e-02
3.346629e-02
-1.150174e-02
-1.781331e-02
1.099946e-01
-6.849220e-02
-7.043435e-02
-5.229354e-02
-7.081690e-02
-5.895354e-02
-1.034264e-01
1.012550e-01
9.959128e-02
6.483665e-02
7.933354e-03
-2.014355e-02
-3.477810e-02
3.520211e-02
2.415093e-02
4.291345e-02
1.350776e-02
3.343758e-02
5.432880e-02
-2.618902e-02
-2.827553e-02
5.919816e-02
-4.783949e-02
-3.569397e-03
5.369020e-02
-9.655339e-02
-5.540426e-02
1.359989e-02
5.059445e-02
4.965110e-02
1.690479e-03
1.166623e-01
8.472045e-02
1.403015e-01
9.844203e-02
1.296251e-02
6.213705e-02
5.144114e-02
8.696000e-02
6.669434e-02
-5.354664e-02
-5.156522e-02
-9.210838e-03
-1.257953e-01
-1.301294e-01
-9.371261e-02
-5.080627e-02
-4.399278e-02
-5.068947e-03
-2.672195e-03
-1.579664e-02
4.036985e-02
2.395919e-03
3.134460e-03
3.518865e-02
8.549034e-02
8.456538e-02
8.186552e-02
3.258396e-02
3.273514e-02
6.945816e-02
-3.431810e-02
-2.944821e-02
2.591857e-02
-3.445546e-02
-8.387181e-02
-6.788524e-02
2.445446e-02
-1.747353e-02
-2.031097e-02
5.017244e-02
-1.757047e-02
-7.551613e-02
-5.615989e-02
-1.064941e-01
-9.076696e-02
-1.088985e-01
-1.190053e-01
-5.570102e-02
-1.179658e-01
-1.195783e-01
-1.153688e-01
-7.295252e-02
1.922029e-02
2.763450e-02
-9.465689e-02
-5.171198e-02
-3.583780e-02
-7.685884e-02
-5.136476e-02
-9.170346e-02
-9.568040e-03
1.366715e-02
-3.891242e-02
1.741193e-02
5.284038e-02
-5.089582e-02
7.376624e-03
6.973629e-02
-1.872482e-02
-6.667427e-03
6.409326e-02
7.615178e-03
1.106263e-01
6.223086e-02
2.903331e-04
8.010877e-02
1.001560e-02
1.741476e-02
-3.427869e-02
-4.622699e-02
-3.855602e-02
-3.257827e-02
-1.726443e-03
4.446734e-02
-8.085694e-02
7.572113e-02
1.296237e-01
-3.389971e-02
-2.493379e-02
4.998572e-03
-3.062912e-02
4.004315e-02
7.495013e-02
-5.395989e-02
