-1.222134e-01
-8.908798e-02
-4.725617e-02
-5.724245e-02
-2.346726e-02
-1.157730e-03
-9.506903e-02
-5.634275e-02
-3.069685e-02
-1.039825e-03
-5.816093e-02
-9.978589e-02
5.534001e-02
-8.573050e-03
-2.442534e-02
9.230937e-02
5.172282e-02
5.549642e-02
2.440668e-02
3.366168e-02
6.300458e-02
5.876325e-02
5.383087e-02
5.262274e-02
-2.141274e-03
-1.682422e-02
-1.748474e-02
-5.353570e-02
-2.017681e-02
2.384846e-02
-7.426658e-02
-2.058089e-02
-1.578413e-02
-7.428910e-02
-2.721281e-03
-3.485503e-02
-1.320154e-03
4.768712e-02
-7.733691e-02
-2.322672e-02
3.468535e-02
-1.025697e-01
-1.296347e-03
3.991252e-02
-1.053414e-01
1.076384e-01
1.039518e-02
4.709718e-03
-8.990401e-02
-1.262144e-01
-5.106184e-02
-3.469670e-02
-4.621652e-02
1.538897e-02
1.267170e-02
4.158463e-02
6.794279e-02
1.975605e-02
3.882295e-02
5.376337e-02
-6.219390e-02
-4.515541e-02
-3.824960e-02
-1.712475e-02
1.941075e-03
3.233170e-02
-1.020489e-02
-5.577414e-03
4.569927e-02
-1.610422e-02
2.574417e-02
5.739267e-02
7.569747e-02
2.552390e-02
1.029624e-01
-2.767482e-02
-8.496667e-02
8.251854e-02
6.344142e-02
-3.229260e-02
1.649090e-01
-4.643296e-02
1.520124e-02
-5.603367e-02
4.041069e-02
4.494704e-02
-3.083882e-02
-2.673054e-02
-1.870980e-02
-8.211585e-02
5.645081e-02
2.188888e-01
7.716683e-02
2.288409e-01
3.476723e-01
2.065174e-01
7.027388e-02
2.250801e-01
1.282287e-01
-6.468032e-02
1.342724e-02
4.165744e-02
-8.374725e-02
-1.331358e-02
-1.753547e-02
-1.303156e-01
-4.707894e-02
-4.577585e-02
1.353646e-02
1.219093e-02
1.968616e-02
6.324592e-03
-4.919434e-02
-5.865924e-02
-9.506950e-03
-8.882383e-02
-1.350136e-01
-4.960439e-02
2.621382e-02
5.686603e-02
5.254143e-03
-1.896306e-02
8.034258e-02
1.951437e-02
2.815623e-02
5.999449e-02
3.166051e-02
3.258051e-02
7.431187e-02
-1.866055e-02
-1.178070e-02
2.691083e-02
-1.449894e-02
2.685015e-03
3.528518e-02
-1.765157e-02
1.083965e-01
1.081260e-01
1.204489e-02
1.330262e-01
1.353654e-01
1.255540e-03
1.432656e-01
1.826434e-01
1.031642e-02
5.779988e-02
6.028905e-02
-1.220441e-02
4.416863e-02
4.230219e-02
-1.394340e-01
-9.095474e-02
-8.320112e-02
-1.703430e-01
-2.080001e-01
-5.680646e-02
1.007734e-02
-8.062569e-02
-1.537315e-01
6.392536e-02
-7.304963e-02
-2.575201e-01
-1.952413e-02
5.002949e-02
-8.743434e-02
-4.499026e-03
1.899189e-01
1.260301e-01
-1.129218e-01
5.707385e-03
6.018243e-02
1.277306e-01
2.538189e-01
1.533643e-01
-3.662989e-02
6.827243e-02
7.043143e-02
-1.431964e-01
-6.983125e-02
8.038016e-04
-8.740625e-02
-1.300668e-01
-1.856983e-01
3.460130e-02
3.498483e-02
-1.828032e-01
1.530387e-01
1.967404e-01
-8.853442e-02
-1.177045e-01
1.538539e-01
2.712222e-01
-1.902517e-02
-1.300653e-01
1.430382e-01
-2.965646e-02
-1.456021e-01
-1.799031e-01
-4.059345e-03
-3.267848e-02
2.423785e-03
-2.609762e-03
-4.602974e-02
-2.686433e-02
-7.201651e-02
-1.356463e-01
-1.170174e-01
-3.005647e-02
-1.240599e-01
-1.201880e-01
7.990371e-02
-6.311808e-02
-6.835643e-02
1.944457e-02
3.130332e-02
5.900315e-02
-1.045964e-01
3.491620e-02
6.617485e-02
4.840244e-02
-1.102911e-01
3.526687e-02
2.927244e-01
-4.126703e-02
-1.966488e-02
-4.323821e-02
-7.747844e-03
2.085611e-01
1.697273e-01
-1.382059e-01
-7.651366e-02
1.105531e-01
4.432289e-02
-1.770932e-01
-3.245946e-01
-1.405986e-01
-3.165645e-01
-9.871678e-02
2.795647e-01
4.985325e-02
-2.007392e-01
2.284309e-01
7.939649e-02
5.402142e-02
4.511357e-02
-5.233494e-03
-1.928274e-02
9.483441e-02
1.588385e-02
-1.316031e-02
4.493314e-02
4.666086e-02
4.969721e-02
3.025603e-02
-5.483570e-02
3.035842e-02
6.658893e-02
3.864978e-02
-1.028864e-01
-3.195366e-02
3.029740e-02
-4.749643e-02
1.587425e-01
1.253525e-01
-1.234970e-01
-1.403863e-01
-3.544772e-02
-1.504653e-01
-1.974650e-01
-5.233911e-02
6.114788e-02
7.399846e-02
6.227435e-02
-5.508177e-02
-4.365673e-02
2.631955e-02
-5.255836e-02
-1.052403e-01
-3.187602e-02
-1.357751e-01
-1.715447e-01
-1.022589e-01
-2.483847e-02
-7.624234e-02
2.887959e-02
8.950861e-02
1.547795e-02
1.221921e-01
6.174003e-03
-1.763294e-02
-7.634480e-03
7.857158e-02
4.609511e-02
3.761627e-03
9.146057e-02
1.747430e-02
-3.501172e-02
-8.412551e-02
-1.338109e-01
1.074846e-01
1.166814e-01
-2.289691e-01
-4.610566e-02
1.169230e-01
-6.667558e-03
1.954067e-02
1.256997e-01
6.432563e-03
-9.609858e-02
3.206934e-02
6.371327e-02
-1.275046e-02
-4.979850e-02
-6.831381e-02
5.613252e-02
2.241102e-01
9.661681e-02
-3.380416e-02
2.620016e-01
2.001930e-01
9.241090e-02
1.471847e-02
2.283624e-02
-5.351556e-02
-4.872623e-02
4.957639e-02
-4.779926e-04
-2.687511e-01
-2.032012e-03
-8.311196e-02
6.655765e-02
4.879748e-02
6.078372e-02
7.163665e-02
4.390688e-01
3.088132e-01
-4.120521e-01
-5.218052e-01
-6.515295e-02
-2.921207e-02
2.429077e-01
6.925301e-02
-5.849538e-02
-9.262152e-02
-4.737670e-02
4.404021e-03
-9.736741e-02
-1.173864e-01
-2.498061e-02
-8.064964e-02
-9.292144e-02
3.921699e-02
-1.829861e-01
-7.484261e-02
-8.290409e-02
-1.532682e-01
-4.865018e-02
1.683533e-01
1.484327e-01
-1.563388e-02
2.662900e-01
7.002959e-02
1.757807e-01
-9.072987e-02
-4.809454e-01
1.122028e-01
1.080239e-01
1.232143e-01
1.251146e-01
-2.268473e-01
-1.106193e-01
1.380055e-01
2.594530e-01
-2.502195e-01
1.126353e-01
-9.606630e-02
-9.247635e-02
-5.226594e-02
1.428059e-01
-2.368766e-02
-1.446421e-01
2.278720e-01
2.760443e-01
-6.866407e-02
6.050133e-02
-1.789400e-02
8.392753e-02
-2.771389e-02
1.819846e-01
4.039479e-02
2.094907e-02
2.811874e-01
1.544239e-01
-1.540131e-02
-3.012592e-02
2.955516e-02
-7.486282e-02
1.535652e-02
5.546192e-02
-2.005179e-02
-6.481465e-02
3.320908e-03
1.169262e-01
-3.764217e-02
-6.830165e-02
1.553608e-01
8.000468e-02
-4.785231e-02
-1.179844e-01
-3.404098e-01
-1.460871e-01
9.105703e-02
4.650131e-01
6.632558e-02
1.021452e-01
1.253254e-01
7.949740e-02
-9.158808e-02
5.594074e-02
1.230149e-02
-7.262004e-02
4.054659e-02
-5.702287e-02
-3.845349e-02
7.577965e-02
1.532388e-02
-6.545905e-02
3.415499e-02
6.447189e-02
2.859472e-02
-1.718661e-02
3.808365e-02
-1.462424e-01
-1.627587e-01
-6.588501e-02
-3.231169e-02
-9.892487e-03
5.551989e-02
3.094871e-02
-1.101608e-01
-5.398301e-02
-1.929913e-02
-3.759101e-01
-2.420601e-01
-5.099809e-02
1.915939e-01
-1.248646e-02
6.772767e-03
8.636332e-02
1.121422e-01
-1.042192e-01
1.772215e-01
2.913074e-01
7.420045e-02
1.855656e-01
3.054956e-01
6.629284e-02
1.775952e-01
1.185730e-02
6.871495e-02
1.604976e-01
5.217541e-02
-9.235069e-03
1.110005e-01
8.772989e-02
-1.008872e-01
7.857929e-02
2.448604e-02
-1.540825e-01
5.099345e-03
-1.681292e-01
4.356950e-02
-2.764670e-01
5.948972e-02
-8.840859e-02
-4.292834e-02
3.315257e-02
-1.039749e-02
-2.481823e-01
5.642332e-01
4.597820e-02
2.402525e-02
-5.159796e-01
-1.122718e-01
6.076741e-02
3.770257e-01
-1.329153e-01
-1.094031e-01
-8.994912e-02
-9.995911e-02
-7.255445e-02
-8.270971e-02
-1.239789e-03
-4.159512e-03
-7.867131e-02
1.326149e-02
-1.200045e-02
-3.246557e-02
-1.398293e-01
-1.529621e-01
-1.146704e-01
-5.337998e-02
-6.998919e-03
1.331101e-01
-3.972179e-02
-1.481089e-01
3.310533e-01
2.852632e-02
-1.511496e-01
-1.948193e-01
-1.358728e-01
-4.108100e-02
1.394359e-01
1.168403e-01
-2.629614e-01
3.581710e-01
-1.463975e-02
4.062724e-01
-2.361112e-01
4.923681e-03
-3.460369e-02
1.519042e-02
-7.351854e-02
-1.713858e-02
-4.173055e-01
-9.817334e-02
-1.665954e-01
3.198831e-01
1.872677e-01
2.664890e-02
-7.889783e-02
-7.157540e-02
-5.004968e-02
8.513366e-02
-2.195475e-01
-2.273190e-01
6.770823e-02
-1.669702e-01
4.054566e-02
2.314959e-01
-1.894629e-02
4.937879e-02
-2.402216e-02
-6.100932e-02
1.135574e-02
-1.037038e-02
3.787681e-02
-1.084700e-01
1.260077e-01
1.075399e-01
-6.267957e-02
1.914445e-01
-6.545309e-02
-8.646452e-02
-6.297114e-01
-2.047557e-02
-2.062050e-01
1.292261e-01
2.486604e-02
6.385228e-03
1.260236e-02
7.104169e-02
-7.249644e-02
-5.813159e-02
-3.533725e-04
-4.785094e-02
-5.797449e-02
8.522176e-02
6.301944e-02
-1.471546e-02
7.330395e-02
-4.742773e-02
-1.100611e-01
8.170277e-02
8.370728e-02
-1.507693e-01
-1.695033e-01
-1.603617e-01
-1.618458e-01
-5.702891e-02
-7.074313e-02
-7.407677e-02
6.939898e-02
2.848250e-02
1.553593e-02
-1.060077e-01
-1.274650e-01
-6.947622e-02
-1.997456e-02
-2.451330e-02
3.519854e-02
1.035761e-01
9.300067e-02
5.527664e-03
9.503696e-02
1.689544e-01
4.976242e-02
9.268091e-02
1.206225e-01
1.027324e-01
9.755718e-03
-1.126383e-01
-1.624989e-01
-5.367890e-02
4.006957e-02
-9.681886e-02
3.220744e-02
3.088721e-02
-1.165939e-01
8.000291e-02
2.809138e-02
-1.064944e-01
7.939073e-02
-3.068466e-02
-2.683690e-01
2.624448e-01
9.629165e-02
-1.458430e-01
1.389716e-01
1.123188e-01
2.602430e-02
-1.293657e-02
-4.208486e-02
6.021512e-02
-5.155886e-02
1.387419e-01
-3.158604e-02
-3.769914e-02
-6.473681e-04
-1.421186e-01
-4.063983e-03
1.118338e-02
1.668601e-02
4.047196e-03
1.081273e-02
4.515631e-02
1.542182e-02
1.696465e-02
4.850858e-02
-5.145938e-02
4.070304e-02
3.147503e-02
-2.354982e-02
6.952457e-02
-1.990465e-02
-9.482566e-02
-3.653923e-02
-7.079907e-02
2.073834e-03
1.064459e-01
1.077619e-01
-5.422916e-02
2.078892e-01
1.671575e-01
4.756238e-03
8.664563e-02
-8.393422e-02
-6.516674e-02
-3.271839e-01
-1.708880e-01
-8.051447e-02
-1.710703e-01
-2.272927e-01
-8.122281e-02
3.218585e-02
-1.286130e-01
7.141006e-02
7.614607e-02
-1.026654e-01
1.856188e-01
7.069245e-02
-6.989996e-02
4.034125e-02
-3.256480e-02
-1.317302e-01
7.627581e-02
-2.586116e-03
-2.460194e-01
1.166909e-01
7.782038e-02
-1.119291e-01
2.221893e-02
4.808247e-02
-7.761084e-02
9.151258e-02
1.689451e-01
1.861617e-01
-7.422244e-02
1.134652e-01
2.102687e-01
-3.076076e-01
-6.951227e-02
1.355365e-01
-1.930623e-01
-1.003959e-01
1.334236e-01
-1.436049e-01
-1.174145e-02
-9.326892e-02
1.461211e-01
-2.155773e-02
-1.724552e-01
-1.270810e-01
-3.310846e-02
-7.436229e-02
-5.516217e-02
-3.762934e-02
-1.194297e-01
8.830719e-03
-8.035763e-02
-1.119188e-01
-4.958731e-02
-1.163499e-01
-1.788033e-01
-4.306292e-02
-7.949810e-02
-1.721577e-01
-4.520337e-02
-6.809722e-02
-1.160027e-01
-3.437909e-02
-7.533665e-02
-1.055522e-01
-9.807076e-02
-8.851493e-02
-8.836842e-02
-1.186877e-01
-5.138873e-02
-3.714585e-02
-8.593952e-02
2.518648e-02
-1.833565e-03
-1.200095e-01
1.725935e-02
-4.154912e-02
-1.073573e-01
-7.446197e-02
-1.080853e-01
2.857724e-01
3.611795e-01
-2.528593e-03
1.990617e-01
3.215455e-01
1.186762e-01
-3.944208e-01
-3.899458e-01
-3.311200e-01
2.373676e-02
1.996586e-01
4.937287e-02
5.294585e-03
1.123046e-01
-5.094454e-03
-1.636589e-02
-1.771122e-02
-4.007788e-02
-2.389677e-02
-2.838230e-01
-2.234188e-01
2.190127e-02
-1.942855e-01
-2.442741e-01
1.081084e-01
1.986298e-01
-1.068116e-01
-2.246809e-01
-1.123700e-01
6.919232e-02
-1.886886e-01
-6.920647e-02
4.103882e-02
7.314389e-02
3.542576e-02
-1.007962e-01
-2.036171e-01
-1.063672e-01
-9.692835e-02
-2.262456e-01
-1.242300e-01
-1.224216e-01
-1.475345e-01
-2.959185e-02
-4.035886e-03
-2.373724e-02
-1.884941e-01
-1.211259e-01
-1.165538e-02
-1.445861e-01
1.117744e-02
2.213059e-03
1.376024e-02
1.942920e-01
-1.228691e-01
-1.391865e-01
-2.079378e-01
-8.658097e-02
1.057159e-03
-9.266485e-02
-8.911488e-02
3.725741e-03
4.571860e-02
1.441704e-01
-9.827345e-02
-3.352355e-01
4.831825e-01
-5.566276e-02
-5.838179e-01
2.324741e-01
-1.008212e-01
-4.273240e-01
5.890763e-04
-7.960803e-02
4.098458e-03
-8.009376e-03
-1.125648e-01
-3.714319e-02
1.233974e-01
6.127053e-02
5.499217e-03
-1.645932e-01
8.848881e-03
1.435469e-01
-3.672725e-02
8.531372e-02
5.642849e-02
3.652222e-02
1.648446e-01
1.780679e-02
-3.467127e-02
2.425911e-01
1.704923e-01
9.275127e-02
7.262478e-02
-9.063038e-02
-1.786220e-01
-3.098755e-01
-3.042240e-01
-9.893367e-02
2.435607e-01
9.905986e-02
-1.653611e-01
1.451236e-01
2.800160e-01
-3.173451e-01
-2.486453e-01
1.217857e-01
-4.354858e-02
-5.983095e-02
6.159218e-02
-9.707903e-02
-1.467318e-01
-6.130310e-03
-7.875176e-02
-1.210358e-01
-2.205852e-03
-6.714534e-02
-2.331439e-01
-2.177445e-01
-3.267803e-02
-1.891756e-01
-1.911856e-01
1.868041e-01
1.181817e-01
4.264915e-02
1.079696e-01
6.294553e-02
2.062658e-02
3.178403e-03
-1.626033e-02
-3.557522e-02
-6.574643e-04
-2.753144e-02
-7.339576e-03
1.865916e-01
6.323998e-02
8.208595e-02
6.342030e-02
2.848151e-02
1.924301e-02
4.026498e-02
-1.334727e-02
-1.711425e-02
-1.561435e-01
-2.611941e-01
-1.190373e-01
4.210637e-02
-7.093898e-02
6.782400e-02
1.253682e-01
1.730676e-01
2.222710e-01
-1.277922e-01
-9.426278e-02
-2.851337e-02
-1.444581e-01
-7.645959e-02
6.065755e-02
-1.279755e-01
-4.471774e-02
7.899397e-02
-5.400734e-02
6.654400e-02
2.101400e-01
-6.383878e-02
1.766921e-02
3.271063e-01
-4.596438e-02
2.734558e-02
9.593269e-02
6.002516e-02
6.234564e-02
2.302587e-02
1.525281e-02
2.799747e-02
-1.065949e-01
3.694188e-02
4.872544e-03
6.805313e-02
-8.776190e-02
-5.465183e-02
-6.018419e-02
-2.063931e-01
-1.613452e-01
-1.948884e-01
-2.281252e-01
-2.387219e-01
-2.627086e-01
-1.146291e-01
-1.030754e-01
-1.454718e-01
-7.128609e-02
4.555047e-02
-1.143969e-02
1.357042e-01
1.290867e-01
1.325614e-03
-4.870609e-03
2.034838e-02
2.549537e-02
-7.835259e-02
-7.274935e-02
-9.289160e-02
-2.303097e-01
-1.245804e-01
-9.602159e-03
-1.180422e-01
-1.199978e-01
4.937811e-03
-3.707827e-01
-3.647805e-02
-5.046414e-04
-4.867210e-01
-1.419876e-01
8.167440e-02
-7.091089e-02
-1.381081e-01
-3.081104e-02
-1.030050e-01
-3.259455e-01
-1.505001e-01
4.131160e-02
-9.748016e-02
-4.521611e-02
7.570411e-02
3.490674e-02
-6.130479e-03
1.701583e-01
2.640935e-02
7.183748e-02
1.339545e-01
3.114877e-02
1.354508e-02
-1.591576e-01
-3.103688e-01
-4.393731e-01
5.040950e-02
-1.508804e-01
-3.258052e-01
4.129696e-02
1.020310e-01
-2.998763e-02
-3.168556e-02
-1.245059e-02
1.481030e-02
-2.094664e-01
-1.901446e-01
-2.194860e-01
-2.608247e-01
-2.936610e-01
-1.313062e-01
-1.064504e-01
-1.665999e-01
-1.691146e-01
-1.089811e-01
-1.190381e-01
-1.423537e-01
-3.439531e-02
-6.447924e-02
-6.844120e-02
-7.130212e-02
-9.719668e-02
-3.508284e-02
-3.788722e-03
-2.144629e-02
-2.405552e-02
4.108464e-02
7.078891e-03
-1.828671e-02
-5.533656e-02
-9.973574e-02
-4.287935e-02
-8.239265e-02
-7.914587e-02
1.021419e-02
-6.307124e-02
-8.918463e-02
1.465213e-02
-9.100106e-02
1.346603e-01
5.448339e-02
-1.713708e-01
8.768057e-03
1.342283e-02
-8.791063e-02
-1.138168e-01
-1.616329e-01
-6.579452e-02
5.908583e-03
-3.721294e-02
-1.481198e-01
-5.260953e-02
-3.706961e-02
-1.030789e-01
-6.160690e-02
2.769040e-03
-2.020681e-03
-6.156728e-03
-1.087976e-01
1.600783e-01
1.350209e-01
5.733154e-02
1.307193e-01
1.208702e-01
7.610419e-02
3.693336e-02
-2.142999e-02
-1.233403e-01
5.288677e-02
1.069997e-01
8.403194e-02
-1.530619e-01
-1.199539e-02
4.027751e-02
-3.613717e-02
1.957922e-01
7.372001e-02
-5.875755e-03
7.111769e-02
-1.766799e-03
3.451892e-02
-2.038565e-02
-5.789745e-02
-1.736587e-02
2.327015e-02
9.127463e-02
-2.587784e-02
2.301018e-02
8.953611e-02
-4.848128e-02
-3.930631e-02
3.785555e-02
-9.493392e-03
1.410172e-01
1.395697e-01
-9.790144e-02
-8.847695e-04
6.791075e-02
-1.950083e-01
-2.084161e-01
-1.771393e-01
-1.661779e-01
3.804414e-01
2.657599e-01
-2.792530e-01
2.710059e-01
2.960900e-01
-2.972136e-01
-1.699449e-01
-4.202200e-02
-8.433527e-02
5.629813e-02
-1.553997e-01
-3.124919e-02
1.135820e-01
-5.592338e-02
-3.340204e-03
1.335690e-01
2.049350e-02
-2.664454e-02
-4.345944e-02
6.076428e-02
2.545771e-02
-4.521229e-02
-1.859982e-02
4.791940e-02
5.302498e-02
1.990611e-02
1.913983e-01
9.556919e-02
-8.257007e-02
2.465362e-01
1.950376e-01
3.638195e-02
1.180868e-01
1.596813e-01
3.112423e-02
-9.128716e-02
-8.050084e-02
-1.178216e-01
1.813551e-02
2.570475e-02
-5.295710e-02
7.518362e-02
9.127901e-02
-9.666200e-03
-1.257324e-01
2.211173e-01
4.133114e-01
-7.429177e-02
-7.740422e-02
1.576841e-02
-2.484038e-02
-1.670109e-01
-1.368293e-01
5.299434e-02
4.409792e-02
-6.553872e-02
1.082369e-01
1.379951e-01
3.726665e-02
3.505029e-02
4.823997e-02
5.471836e-02
6.508539e-02
2.632541e-02
1.718867e-02
6.761225e-02
1.145114e-01
1.492124e-01
-3.643893e-02
3.218126e-02
9.719829e-02
-5.587244e-02
-5.704305e-02
-1.433317e-01
-1.180232e-02
-1.358349e-02
-1.271742e-01
4.825786e-02
7.454232e-02
-4.307055e-02
2.415513e-01
4.080845e-02
-2.805938e-02
1.002232e-01
-2.685535e-01
-1.367323e-01
3.273748e-03
-9.668719e-02
3.112985e-02
4.287092e-02
-4.574013e-02
1.280311e-01
-5.682816e-02
-1.518472e-01
-6.291968e-02
1.521336e-01
-2.632627e-02
-1.434947e-02
4.076065e-02
6.093327e-02
1.499554e-01
-1.058500e-02
2.481808e-02
3.768754e-02
1.013943e-01
9.706219e-02
7.260176e-02
-4.000599e-02
1.523890e-01
2.648748e-02
-1.649699e-01
2.583866e-01
-1.224401e-01
-5.592946e-02
3.833449e-02
-6.525075e-02
1.569324e-01
-4.217934e-02
-1.809899e-01
2.415310e-01
-4.069822e-02
4.016263e-01
1.269733e-01
3.121121e-02
1.743378e-02
-1.987173e-02
-6.448393e-02
-1.450693e-01
3.650812e-02
-3.477629e-02
-8.588520e-02
5.774283e-02
1.597656e-02
-1.070789e-02
-1.182858e-01
-8.482741e-02
2.127175e-02
-6.744453e-02
3.444888e-02
1.109379e-01
-3.765512e-02
-4.832388e-02
-3.065543e-02
2.537594e-02
-1.329045e-01
-8.402573e-02
-7.282110e-03
-2.840568e-01
4.408269e-01
-1.086850e-01
-7.596019e-02
7.706907e-02
2.572174e-02
2.376417e-02
-3.811022e-02
2.965725e-02
-2.603980e-01
1.899939e-01
-9.715839e-02
-9.443336e-02
1.738077e-01
-1.226896e-01
9.796840e-03
-1.553680e-01
-2.250190e-01
-1.306539e-01
-4.012040e-01
-1.695970e-01
-7.109130e-02
-2.291626e-01
6.772043e-03
2.171160e-01
1.518914e-01
1.079157e-01
2.694097e-01
1.476078e-01
7.416733e-02
8.614199e-02
1.123259e-01
-5.908713e-02
-3.110864e-02
4.058854e-02
-1.532381e-01
4.268596e-02
1.389661e-01
-5.584921e-02
1.351317e-01
1.727522e-01
-7.522362e-03
-2.344226e-01
-5.694777e-02
-4.630905e-02
-1.539461e-01
2.730305e-01
-5.854077e-02
7.643358e-03
-1.832063e-01
-2.350505e-01
-1.631886e-01
-5.036286e-02
-2.042337e-01
-7.091758e-02
-1.011639e-01
-2.044187e-02
7.214692e-02
-4.204945e-02
-6.196171e-02
3.111615e-02
-6.605827e-03
3.128247e-02
2.577015e-02
1.567776e-02
4.053862e-02
-5.213854e-02
-2.192666e-02
-8.694167e-02
-3.070654e-02
-1.832569e-02
-9.254212e-02
-4.606128e-02
-7.505956e-02
-1.810833e-02
3.314332e-02
-5.750834e-02
-1.014575e-02
-1.345909e-01
-3.370538e-02
1.518519e-01
1.139913e-01
9.252504e-02
8.482434e-02
-7.719755e-03
1.415043e-02
-6.425247e-02
-4.542789e-02
-1.364050e-02
1.691119e-02
-7.434578e-02
2.250453e-02
-6.553806e-02
-7.935898e-02
8.790283e-02
-9.269340e-02
5.013473e-03
-2.217255e-02
-7.604695e-02
-1.448853e-02
-1.638660e-02
1.309247e-02
7.359964e-02
2.707734e-02
1.563532e-01
7.394804e-02
-6.780856e-02
7.232789e-02
6.628659e-02
1.043063e-02
-2.489880e-02
-3.237423e-02
-4.986391e-02
-2.185448e-01
-4.210131e-01
-1.980348e-01
4.570325e-01
8.623402e-02
-1.131102e-01
1.373105e-01
-9.146771e-02
-1.116417e-02
-7.674246e-02
-8.104135e-02
-5.855491e-02
-1.347150e-02
-3.956173e-02
-2.870040e-02
7.761656e-02
3.691584e-02
-9.261553e-03
8.039773e-02
4.890592e-02
1.153036e-02
7.855869e-02
4.861946e-02
-1.567298e-02
-4.328686e-02
-9.344369e-03
4.173024e-04
-1.021168e-01
-2.330716e-01
4.515812e-02
4.714100e-01
-3.632829e-02
-2.071489e-01
1.917091e-01
-1.265155e-01
-2.293692e-02
6.663126e-02
-5.547790e-02
-5.697120e-02
7.704174e-02
1.130994e-01
-3.190672e-02
5.024191e-02
1.537152e-02
2.327478e-03
1.913948e-02
9.793065e-02
1.213532e-01
-1.861766e-01
5.256305e-02
1.783097e-01
-8.392798e-02
1.565970e-02
1.024831e-01
-1.020023e-01
-6.978919e-02
4.599571e-02
-1.538126e-01
-1.485322e-01
-2.763533e-02
2.801148e-03
-2.290977e-02
-1.417376e-01
5.444119e-02
3.922248e-02
-5.093291e-02
2.763310e-02
6.601447e-02
1.037403e-02
-1.161361e-01
3.017072e-02
2.092136e-02
-5.464868e-02
-1.847626e-01
-1.772395e-01
3.032212e-01
5.421452e-03
-1.831607e-01
-3.638585e-02
-1.057155e-01
1.197186e-01
-6.977861e-02
-5.282312e-02
-1.417186e-02
-1.424188e-02
-6.071708e-02
-3.283292e-02
5.928928e-02
2.769431e-02
-1.951654e-02
-1.107277e-01
-7.522990e-04
3.526087e-02
-3.906142e-02
4.122571e-02
9.487639e-02
-1.010954e-03
9.863447e-02
7.024777e-02
-1.082250e-01
-8.860208e-02
-5.508922e-02
-9.924048e-02
-6.354254e-02
-3.272187e-02
-6.419804e-02
-3.354384e-02
-2.663257e-02
-9.929320e-02
-5.339034e-02
8.289989e-03
-7.387418e-02
1.416780e-02
2.422383e-02
-5.565921e-03
5.517784e-02
3.705546e-02
4.044558e-02
8.473955e-03
9.447269e-02
1.006472e-02
-1.426187e-02
1.144049e-02
-2.060615e-02
-7.399770e-03
-2.055412e-02
-2.942248e-02
-5.956868e-02
-2.658051e-03
6.402491e-02
-4.973155e-03
-6.280902e-04
1.498020e-01
8.829003e-02
3.833882e-02
-2.852419e-02
6.317186e-03
2.919666e-02
1.131592e-01
5.930788e-02
4.975005e-02
-3.372585e-03
-6.839874e-02
-8.493703e-02
8.326080e-02
1.643116e-01
4.175605e-02
1.361401e-01
2.670206e-01
7.287361e-02
3.052521e-02
2.101154e-02
-5.239141e-03
9.546211e-03
1.084503e-02
5.850261e-03
-1.669777e-02
-2.407968e-02
-5.734795e-02
-6.979770e-02
-6.832156e-02
-1.020689e-01
1.378709e-02
5.477871e-02
-2.313294e-02
-1.824295e-02
-8.029739e-03
-1.147947e-01
-1.241127e-01
-1.299745e-01
-1.784325e-01
1.187022e-01
2.074981e-01
-4.228383e-02
8.878463e-02
2.096624e-01
-2.489194e-01
-2.574420e-04
-9.888251e-02
-2.826256e-01
-2.819169e-02
8.160802e-04
-1.048599e-01
-1.059525e-01
6.984228e-02
-1.581073e-02
-3.151469e-02
6.627743e-02
5.163931e-02
-9.015781e-02
-1.641507e-01
-1.040666e-01
-1.097159e-01
-1.419957e-01
-2.694651e-02
3.941031e-04
-3.280967e-02
1.622549e-01
-4.496188e-02
-1.214527e-01
-4.539604e-02
-8.086780e-02
-1.508370e-01
-2.827402e-02
-3.112441e-02
-2.844366e-02
8.246265e-02
1.327976e-01
9.343559e-02
3.500919e-02
5.342137e-02
1.840915e-03
1.070001e-01
-1.559107e-02
-3.269742e-03
1.352691e-01
1.398230e-01
1.684547e-01
-4.788477e-02
2.869304e-02
7.539476e-02
-1.074088e-01
-4.219945e-02
-2.989964e-02
-1.588137e-01
-4.261222e-02
-5.729550e-02
-8.508036e-02
1.973402e-02
-2.570436e-02
-9.506511e-02
-3.237945e-03
-2.096228e-02
-8.605091e-02
-5.430815e-02
-2.892578e-02
-9.940807e-02
-9.632336e-02
-5.086635e-02
-1.247224e-01
-9.564580e-02
-4.054507e-02
-1.129203e-01
2.836195e-01
2.332704e-01
1.130472e-01
2.044613e-01
1.734960e-01
4.685928e-02
6.066282e-02
-1.936657e-04
-1.005185e-01
-8.420264e-02
1.046871e-01
1.018353e-01
9.119535e-02
1.298878e-01
1.140140e-01
4.362864e-02
-6.406034e-02
-9.679453e-02
-1.070375e-01
-1.084043e-01
-2.232133e-02
8.259982e-02
1.370691e-01
9.720916e-02
2.405708e-02
5.300703e-02
3.853890e-02
-1.406259e-01
-1.591241e-01
-8.021720e-02
-1.284025e-01
-1.622159e-01
-2.197857e-02
-1.276700e-01
-1.181077e-01
5.291563e-02
9.149653e-02
8.335655e-02
1.234232e-01
-3.508983e-02
-6.432553e-02
-4.625060e-02
-8.665802e-02
4.022170e-02
-1.401581e-01
1.291050e-01
4.154456e-01
1.502247e-01
2.403230e-02
5.549259e-03
-2.194645e-01
-1.617125e-01
-2.873402e-01
-6.642252e-02
2.337920e-01
2.175511e-01
1.299048e-01
1.798313e-01
1.322244e-01
4.833259e-03
2.236165e-02
-3.404307e-02
-1.024977e-01
1.042791e-01
1.462923e-01
6.430148e-02
6.225396e-02
6.269696e-02
5.003129e-02
1.085411e-01
1.140620e-01
2.203246e-01
6.548048e-02
2.195553e-01
5.917916e-02
1.103381e-01
4.229553e-02
-2.525958e-01
1.420099e-02
-2.019402e-01
5.456270e-02
-4.999378e-02
1.017827e-01
1.331591e-01
-3.124575e-02
1.297606e-01
1.158086e-01
9.919319e-02
-3.296502e-02
-3.018470e-02
-1.221620e-01
-1.737137e-01
2.033356e-02
-1.924892e-02
1.580497e-01
1.131922e-01
-2.875663e-02
2.122395e-01
6.297753e-02
-7.233180e-02
-1.364421e-01
-5.624052e-02
-2.181890e-01
-1.030569e-01
7.082600e-02
-7.441093e-02
1.466232e-01
2.380900e-01
4.629083e-02
-3.810049e-02
-3.384044e-02
-2.102517e-02
2.058132e-02
4.927989e-02
-9.452373e-02
1.988553e-02
1.171770e-02
1.055073e-01
1.357358e-01
-2.037787e-02
7.691109e-02
-8.825784e-02
-2.366465e-01
-1.127209e-01
-2.461310e-01
6.637074e-02
-1.135168e-02
-2.662551e-02
-7.121372e-02
7.124577e-02
1.505276e-02
2.853546e-02
6.542922e-02
6.297264e-02
1.206009e-01
-1.592572e-01
-8.402748e-02
-9.432115e-02
-2.702202e-02
4.339362e-02
5.679914e-02
1.127350e-01
1.286004e-01
1.343060e-01
-1.050814e-01
-2.811648e-02
-9.179357e-02
-2.831664e-02
3.012410e-02
-6.319799e-02
-2.061345e-02
-1.686990e-04
-4.054893e-02
-9.246368e-02
4.515289e-03
-4.612553e-03
-1.220943e-02
-3.721720e-03
-1.640680e-03
-8.233222e-02
2.407438e-02
-5.290580e-02
3.282651e-02
-2.262374e-01
-1.707993e-01
1.243353e-01
-8.272648e-02
-2.351893e-01
-4.404758e-02
8.174565e-02
-6.999136e-02
2.591177e-03
-4.868505e-02
-6.732450e-02
1.260124e-01
8.884805e-02
-2.425539e-02
1.478250e-01
1.208115e-01
-1.083702e-02
2.389679e-01
4.608902e-01
3.809206e-02
2.098409e-01
1.454061e-01
-9.251485e-02
-3.119224e-01
-5.353574e-01
-4.915789e-01
1.892440e-01
1.717596e-01
-1.557567e-01
1.268748e-01
9.727386e-02
-8.078154e-02
-8.444750e-02
-2.014707e-01
-1.947415e-01
1.331488e-01
1.096245e-01
1.024025e-01
7.307174e-02
-4.556882e-02
-3.457763e-02
6.439403e-02
-9.082749e-02
-7.376591e-02
-1.324697e-01
1.028804e-01
3.982909e-02
-5.795479e-02
-3.091531e-02
-1.618930e-01
-2.041380e-01
-2.902111e-01
-3.986477e-01
-8.877859e-02
-1.689389e-01
-2.142087e-03
-1.141501e-02
-8.964650e-02
6.081279e-02
3.850960e-02
-4.276979e-02
-7.282483e-02
-2.243117e-01
1.523370e-02
-7.022834e-03
-4.046006e-01
7.475293e-02
3.328682e-01
-1.482311e-01
1.970859e-01
8.848876e-02
6.142609e-02
-8.616441e-02
-1.365585e-02
1.143985e-01
-1.321536e-01
-1.021829e-01
1.569781e-01
-8.635242e-03
1.926019e-02
1.796427e-02
-1.998895e-02
-1.367084e-02
1.920979e-02
7.389337e-02
1.465284e-01
-2.446057e-02
-1.479550e-03
8.160681e-02
-2.664368e-01
-2.089183e-01
1.884278e-01
-4.062592e-01
-5.061910e-02
4.505130e-01
-3.260414e-01
1.387714e-02
1.705487e-01
7.199996e-03
-3.951482e-01
-3.600285e-01
1.943135e-01
-3.729936e-02
-2.296209e-01
3.852292e-01
4.581050e-01
-1.087042e-02
-5.606854e-02
-8.312175e-03
-2.924957e-01
-2.530373e-03
4.264804e-03
-2.475039e-01
-8.992531e-02
-1.850200e-01
-2.927264e-01
6.802519e-02
2.618713e-01
1.844540e-01
-2.667192e-02
5.511510e-02
3.229773e-02
-2.373000e-01
-2.335422e-01
-2.072600e-01
2.379206e-02
-2.680503e-02
-6.602565e-02
7.255801e-02
2.357219e-02
-1.443179e-02
8.286897e-02
2.241385e-02
-6.070317e-03
1.334993e-01
-3.552296e-02
-1.489351e-01
1.519537e-01
-6.625254e-02
-1.849919e-01
9.652124e-02
-6.979022e-02
-1.553588e-01
-1.830661e-01
-3.749735e-01
-2.598066e-01
-1.379570e-01
-2.186596e-01
1.643020e-02
-6.063628e-03
1.899262e-01
5.141164e-01
-4.062267e-02
-6.664722e-02
5.802745e-02
-5.342743e-02
-1.209014e-01
-3.896606e-02
-1.617598e-01
-1.647144e-01
-9.699877e-02
-1.786067e-01
-2.557172e-01
-1.118171e-01
-1.542874e-01
-2.768666e-01
-8.737125e-02
-6.064639e-02
-1.768145e-01
-2.028470e-02
1.552704e-01
-8.298288e-02
-2.790053e-02
1.518267e-01
5.792360e-02
-2.079663e-02
9.541874e-02
3.118070e-02
3.697503e-02
5.963818e-02
4.074458e-02
1.527486e-02
3.430416e-02
6.966946e-02
6.807511e-02
7.550510e-02
1.141641e-01
7.864971e-02
-1.910962e-02
-2.867375e-02
-1.143027e-01
-3.502208e-02
-7.743797e-02
-1.061529e-01
8.019034e-03
-5.142473e-02
-7.080974e-02
-9.975967e-03
2.201427e-02
3.975070e-02
1.370270e-02
6.997441e-02
3.638021e-02
-6.143117e-03
5.503550e-02
1.308487e-01
-7.056974e-02
-5.730825e-02
4.199466e-02
-1.797541e-01
-5.170785e-02
1.489369e-01
-1.726224e-01
-9.396878e-02
5.741526e-02
-3.761267e-02
-2.043664e-01
-2.877357e-01
-8.239000e-02
-1.630696e-01
-1.731388e-01
-5.895234e-02
-1.272088e-01
-7.005977e-02
5.182978e-02
1.042457e-01
9.356256e-02
6.891504e-02
4.861196e-02
-5.179846e-02
6.929742e-02
-4.089489e-02
-5.710758e-02
1.588442e-01
4.480544e-02
-2.360534e-01
3.599525e-01
2.750801e-01
-1.753869e-01
3.365742e-01
3.357081e-01
9.548531e-03
-6.042781e-02
3.098546e-02
1.308169e-01
-8.577139e-03
8.896337e-02
1.185007e-01
1.105551e-02
-1.395410e-02
-3.910459e-02
-2.662877e-02
-6.404210e-02
-2.065921e-02
-1.072890e-01
-1.393366e-01
-8.842921e-02
-1.434878e-01
-1.801215e-01
-1.384498e-01
-1.331414e-01
-4.983137e-02
2.174010e-03
-1.524589e-01
-1.014158e-01
-5.561261e-02
-1.388934e-01
-1.000393e-01
-8.412118e-02
7.729466e-02
2.181733e-02
5.846145e-02
7.355753e-02
-3.059876e-04
2.912835e-02
4.318929e-02
-4.899767e-02
9.338008e-03
1.206191e-02
-4.796467e-02
1.544441e-02
-2.161908e-01
2.353544e-01
8.488787e-02
-1.327910e-01
7.892832e-02
-8.991410e-02
-3.966405e-02
-4.709718e-02
6.171720e-02
1.325623e-01
1.308778e-02
1.230880e-01
3.399787e-02
-1.952603e-02
-4.838137e-02
2.981589e-02
-6.260725e-02
-6.388456e-02
6.495156e-02
2.326336e-02
8.885344e-02
3.275326e-02
3.156440e-02
1.001055e-01
9.146823e-03
3.753978e-02
8.288133e-02
1.775564e-01
-3.092245e-01
2.087305e-01
1.745932e-02
-1.100114e-01
1.686648e-02
-4.273723e-02
-2.006752e-01
-6.126284e-02
-1.123403e-01
6.189981e-01
-2.432091e-01
-2.727884e-01
6.576850e-03
3.915704e-02
1.096034e-01
1.087509e-01
2.333871e-02
1.041657e-01
1.132052e-01
3.169549e-03
-4.194807e-02
-3.324959e-02
-8.400027e-02
-2.557829e-02
1.164625e-01
-7.671291e-02
-5.754343e-02
5.986119e-02
-7.869871e-02
-5.064712e-02
1.095262e-02
-4.041253e-02
-2.874690e-02
-8.566730e-02
-2.194207e-01
-3.434274e-02
5.892989e-01
-4.613498e-01
-4.853370e-02
1.780771e-01
-2.493258e-01
1.357940e-01
-8.718449e-03
-6.433207e-02
-3.093804e-01
4.275346e-01
-1.635574e-01
-1.322582e-01
9.073487e-02
1.902910e-02
-8.959889e-02
-5.098210e-02
-6.027165e-02
1.083347e-01
-1.667130e-01
2.078888e-01
-9.215545e-03
-7.171089e-03
7.849777e-02
1.221522e-01
-1.218426e-01
9.145839e-02
1.360755e-01
-1.977831e-01
8.110513e-02
-4.860114e-03
8.695906e-04
1.242233e-01
-9.452576e-02
1.026694e-01
-1.024685e-02
7.067901e-02
7.475901e-02
-1.104048e-03
-8.187199e-02
-1.025203e-01
-8.629903e-02
-2.098560e-01
9.170316e-02
-1.891784e-01
-8.868508e-02
3.615088e-01
-1.569472e-01
1.590843e-01
-8.868334e-02
1.892758e-01
2.173599e-01
4.397578e-02
-5.820078e-02
2.455707e-01
6.927131e-02
-6.924585e-02
1.155464e-01
-1.369837e-02
-7.096754e-02
1.182144e-01
-1.114547e-01
-4.823385e-02
1.163056e-01
-5.201164e-02
-5.701073e-02
4.326194e-02
1.269508e-02
-5.628691e-02
-6.908034e-03
-3.394222e-02
-5.501360e-02
-1.580240e-01
-2.226900e-01
-2.488851e-01
-2.478399e-01
-3.346067e-01
-3.378147e-01
-1.468323e-01
-8.563599e-02
-1.028376e-01
1.443794e-01
9.228154e-02
-1.149059e-01
2.845874e-01
2.758828e-01
5.978001e-02
-8.677184e-02
-5.602719e-02
-1.668504e-01
6.915979e-02
4.548068e-02
-1.592658e-01
1.633444e-01
8.605096e-02
-7.685607e-02
-4.940630e-03
1.094240e-01
5.198403e-02
-9.445691e-02
3.324818e-02
9.552469e-03
-2.267911e-01
-1.012955e-01
9.817965e-03
1.169049e-02
1.237840e-01
-4.693823e-02
8.373456e-02
2.310240e-01
2.722194e-02
-7.546893e-02
-1.097979e-02
-1.431281e-01
1.345977e-01
2.538107e-01
1.369731e-01
-3.458264e-03
-1.112205e-01
-4.516760e-02
-1.655834e-01
-1.145816e-01
-1.073248e-01
1.542918e-01
1.243031e-01
1.289295e-01
2.186796e-02
-5.897132e-02
-7.059142e-02
-2.394984e-02
-1.269689e-01
-1.374596e-01
-7.537433e-02
-1.358561e-01
-3.060914e-02
-4.550241e-02
-1.476273e-01
-7.010766e-02
5.539102e-02
-1.854782e-02
4.683160e-02
-6.440890e-02
-4.480885e-02
3.061788e-02
-4.150452e-02
-2.056004e-01
-1.574491e-02
-1.090723e-01
-1.556633e-01
-8.182152e-02
-2.846649e-02
3.544545e-02
-6.443354e-03
-7.464435e-02
-1.220298e-02
-1.217078e-03
-1.229909e-01
-6.962335e-03
3.023052e-02
-3.219676e-02
-5.614619e-02
1.984483e-03
4.232774e-02
2.420973e-01
2.489982e-01
-1.010481e-01
1.478982e-01
1.812610e-01
-2.062968e-01
-2.324080e-02
1.389865e-01
-2.930001e-01
5.637605e-02
3.257330e-01
-3.124933e-01
3.854813e-02
3.414401e-01
-8.414686e-02
-2.450087e-02
1.362941e-01
-2.494617e-01
-1.541903e-01
9.401531e-02
-1.701037e-01
-1.079636e-01
9.244579e-02
-1.153377e-01
-2.221106e-01
-2.769481e-01
8.373273e-02
-9.852149e-02
-1.606323e-01
1.824919e-01
2.178337e-01
7.146630e-02
6.346619e-03
7.075069e-02
1.222515e-01
-9.438540e-02
-4.013783e-02
7.779153e-02
-2.208434e-01
-1.730616e-01
-2.491942e-02
-1.629580e-01
-1.285799e-01
-9.777280e-02
-9.866582e-02
3.716678e-02
1.539788e-01
-9.512550e-02
-3.067375e-02
1.210217e-01
