2.335578e-02
1.651607e-01
1.281596e-03
-8.729330e-02
-7.138236e-03
-1.010050e-01
3.495324e-02
6.230458e-02
-1.664855e-02
6.427203e-02
1.551031e-01
2.888345e-01
-4.164120e-02
1.655337e-02
5.835798e-02
-2.819454e-01
-2.632428e-01
-1.220264e-01
-2.012545e-03
8.126483e-04
-4.971705e-02
1.114836e-01
1.602627e-01
1.373743e-01
9.091634e-02
1.359181e-01
1.026013e-01
5.390333e-02
-9.528235e-02
-3.502376e-02
5.743108e-02
-3.142631e-02
7.459642e-02
-3.520919e-02
-4.589082e-02
4.703012e-02
8.466958e-02
7.236311e-02
4.067674e-02
1.164616e-01
-5.511655e-02
2.460990e-02
2.940674e-01
1.111232e-01
9.320532e-02
1.408670e-01
1.274519e-01
-6.395496e-02
1.528533e-01
1.970728e-01
-9.443712e-04
1.353785e-01
1.316408e-01
-1.888125e-02
1.201531e-01
9.730386e-02
-1.125917e-01
9.000583e-02
9.337954e-02
-2.161307e-02
2.956971e-02
1.267983e-02
-5.438081e-02
-6.150423e-02
6.283580e-02
2.821232e-01
1.375864e-01
3.080158e-01
3.596318e-01
1.187296e-01
3.090928e-01
2.854521e-01
7.231909e-02
-2.678423e-02
1.931184e-03
7.028333e-03
-5.930424e-02
5.436345e-03
-1.790164e-01
-1.207773e-01
-1.153480e-02
-1.284851e-02
9.925979e-02
1.986099e-01
2.238286e-02
1.163346e-01
1.142741e-01
6.414735e-02
4.682443e-02
-5.189253e-03
-5.259169e-02
-7.550731e-02
-1.223258e-01
9.521993e-02
5.234604e-02
4.051726e-02
2.893953e-01
2.484971e-01
1.605502e-01
-1.343476e-01
-1.780036e-02
4.883055e-02
1.049258e-01
2.659183e-01
3.252650e-01
2.723864e-01
4.247332e-01
2.701450e-01
-2.906634e-02
-8.819868e-02
-2.903953e-01
3.743241e-02
-3.813761e-02
-1.775268e-01
9.168091e-02
7.347121e-02
-9.799957e-02
-1.084315e-02
-6.985105e-02
1.010365e-02
-4.873220e-03
-1.558360e-01
-2.578881e-02
4.393209e-02
-4.705003e-02
-1.422861e-02
3.837965e-03
-2.216691e-02
-4.900412e-02
1.305739e-01
4.672266e-02
6.094439e-02
1.216173e-01
6.227387e-02
-1.051485e-02
-2.815874e-02
-2.705703e-01
-9.696029e-02
-2.090284e-01
-3.777398e-01
-1.582357e-01
-9.654241e-02
-6.677766e-02
1.091134e-03
4.263037e-02
-2.047032e-02
-4.069383e-02
-6.173821e-02
-5.890076e-02
-1.534339e-01
-1.044724e-01
-1.678372e-01
-1.635070e-01
6.136375e-02
1.067522e-01
1.427492e-01
-2.849433e-02
-3.043860e-02
1.098601e-01
-1.319994e-01
-1.724725e-01
-8.675326e-02
-1.394322e-01
-1.722399e-01
-1.076815e-01
-1.035374e-01
-1.678023e-01
-2.115541e-01
-6.993619e-02
-2.322550e-01
-2.791962e-01
6.176911e-02
1.143519e-01
-8.148699e-03
1.586273e-01
2.601134e-01
8.625421e-03
5.658731e-02
1.759027e-01
2.520064e-02
-2.053159e-01
-1.424772e-01
-2.008303e-01
-1.611805e-01
-3.494141e-02
-1.626686e-01
-1.947252e-02
-1.797507e-01
-5.772078e-02
-5.147368e-02
-2.599699e-01
-2.545074e-01
1.365520e-02
-2.660814e-01
-2.758653e-01
-3.987690e-02
-1.552966e-01
-3.037602e-01
-1.271857e-01
-6.316630e-02
-5.974827e-02
-1.592986e-01
-9.072424e-02
-1.427736e-01
-7.445825e-02
-1.663631e-01
-1.178379e-01
9.744214e-02
3.117620e-02
-7.032020e-02
1.082547e-01
-2.031404e-01
-3.657389e-02
2.419911e-02
-1.011996e-01
-7.175160e-02
-1.378176e-01
-1.630070e-01
-4.028434e-02
-6.083274e-02
-1.285909e-01
-8.637267e-02
-1.060722e-01
-2.541284e-01
-2.132823e-01
-2.119525e-01
-2.098755e-01
-4.012094e-02
-2.049375e-01
-2.685660e-02
2.640093e-04
-7.690555e-02
5.203116e-02
6.094026e-02
2.538950e-02
-1.162749e-01
-5.730396e-02
2.037138e-02
-1.154503e-01
-1.410227e-01
1.019323e-01
-3.761240e-02
-2.034057e-02
-7.772993e-02
-2.321587e-01
-2.008886e-01
-2.378677e-01
-2.002268e-01
-2.448777e-01
-2.005192e-01
-2.617324e-01
-2.415396e-01
-3.686864e-02
2.907290e-02
-8.352621e-02
-8.211878e-02
-1.166327e-03
-1.059640e-01
-2.326271e-01
-1.867443e-01
-1.197801e-01
2.628055e-02
1.059563e-01
2.784083e-02
5.933881e-03
1.122662e-01
3.711266e-02
4.503324e-02
3.896538e-02
2.124289e-02
-1.857206e-01
-2.027416e-01
-1.932327e-01
-8.383661e-02
-1.688395e-01
-1.877020e-01
1.708624e-02
-5.627092e-02
-1.258781e-01
1.138295e-01
1.093078e-01
-1.493751e-02
8.572580e-02
9.871016e-02
1.011502e-01
1.251999e-01
2.473999e-01
8.421202e-02
-6.369751e-03
-3.451907e-03
7.177228e-02
5.648006e-02
1.136411e-02
1.899128e-01
1.901005e-01
2.114369e-01
2.549347e-01
-1.239202e-01
-7.322522e-02
-9.443998e-02
-1.945441e-01
-9.559662e-02
-1.885807e-01
-1.819303e-01
-1.719584e-01
-2.964466e-02
-2.118669e-01
-1.620571e-01
-7.126728e-02
-8.160448e-02
-3.361800e-03
2.030589e-02
-1.062234e-01
-7.826549e-02
-4.311283e-02
-9.509791e-02
-7.491194e-02
1.938448e-02
2.193403e-03
1.125721e-01
3.014974e-01
2.408116e-01
2.607923e-01
1.818223e-01
-2.627665e-01
-2.296010e-01
-8.712479e-02
-7.584680e-02
-1.068687e-01
-7.789022e-02
2.095795e-02
2.685014e-02
4.835472e-02
2.164225e-01
3.332056e-02
-2.362524e-02
2.927583e-02
-6.811935e-02
-1.269313e-01
-1.870575e-01
-2.626075e-01
-1.545463e-01
1.036046e-01
4.287631e-02
-7.906923e-02
7.424321e-03
-1.813281e-01
-1.670521e-01
-5.298261e-02
-1.567599e-01
-9.320578e-02
8.022521e-03
9.771870e-02
1.026830e-01
6.934743e-02
1.528567e-01
5.305287e-03
-1.133675e-01
-1.228099e-01
-1.400493e-01
-1.150418e-01
-1.069249e-02
-9.357829e-03
6.727864e-02
3.952797e-02
1.629110e-04
7.778482e-02
3.781443e-02
-8.079719e-03
3.158617e-02
5.782710e-02
5.340253e-02
4.279922e-02
9.907251e-02
3.094458e-01
1.190476e-01
2.690971e-01
3.385972e-01
2.123240e-01
7.149680e-02
1.418765e-02
1.285630e-01
6.234811e-02
-1.959532e-02
3.296116e-02
-6.487966e-02
-9.089362e-02
-9.397705e-02
-2.346151e-02
-9.672040e-02
1.176804e-01
1.114384e-01
1.356260e-02
3.127411e-02
-1.935294e-02
-5.066979e-02
1.909192e-01
9.321148e-02
4.890876e-02
2.266028e-01
-2.622610e-02
-2.540050e-02
2.245684e-01
6.764805e-02
-1.106070e-02
-1.408801e-01
-1.549606e-01
-2.666511e-02
-1.423947e-01
-1.056626e-01
5.022050e-02
-5.767826e-02
3.301009e-02
2.022167e-02
1.120225e-02
2.174304e-02
-6.250514e-02
-2.923086e-02
-5.014746e-02
-1.212221e-01
-9.826817e-02
-1.216095e-01
-1.980234e-01
7.651927e-02
8.395380e-02
5.528880e-04
6.022580e-02
1.474962e-03
-1.919644e-01
-4.726531e-02
-4.222609e-02
-1.114296e-01
1.472421e-01
6.864281e-02
6.095848e-02
-1.625774e-02
-7.224682e-02
-2.261857e-02
-6.103808e-02
-2.658018e-01
-3.075562e-01
1.294964e-01
1.801486e-01
7.202164e-02
-1.271283e-01
1.166429e-01
8.030892e-02
-2.508368e-01
-8.886654e-02
2.108994e-02
9.599726e-03
8.260932e-02
1.001901e-01
-1.374330e-01
1.443528e-02
7.629786e-02
-1.532973e-01
-1.100351e-01
-1.088918e-01
4.314350e-02
2.144626e-01
2.113608e-01
-2.692062e-01
-1.956782e-01
2.272657e-01
-2.691057e-01
-1.536877e-01
-6.558014e-02
-5.205618e-02
1.289047e-01
1.162921e-02
-6.174771e-02
8.430877e-02
1.874877e-01
-9.752036e-02
-1.298593e-01
6.647920e-03
1.491199e-01
2.207906e-02
-2.421849e-01
1.177844e-01
1.083947e-01
1.462776e-01
-2.315100e-02
1.380622e-01
5.278162e-02
6.100646e-02
5.326260e-02
3.340021e-03
9.287860e-02
1.703795e-01
1.357594e-01
-2.253182e-02
4.368490e-02
1.234187e-01
-2.258961e-01
-2.382533e-01
-9.924013e-02
3.981037e-02
-1.359004e-01
-2.133712e-01
4.731983e-01
4.662847e-01
7.264058e-02
-2.444898e-01
-1.759568e-01
1.229740e-01
-1.142308e-01
-1.487150e-01
-1.006204e-01
1.313072e-01
1.921695e-01
-1.960914e-03
-8.207275e-03
2.764227e-04
5.194878e-02
3.485135e-02
9.451912e-02
-4.270782e-02
-9.822583e-02
-9.766158e-02
-5.599023e-02
-1.819287e-02
-3.699952e-02
-1.853999e-01
1.314011e-01
6.987069e-02
-3.980944e-02
7.801747e-03
4.691654e-02
-1.067912e-01
1.087329e-01
7.166284e-02
6.597366e-02
-3.930055e-02
-1.352075e-01
-1.535645e-02
6.544369e-03
-4.940741e-02
-2.232062e-02
-4.756482e-02
-8.698425e-02
-1.964718e-01
1.241015e-01
6.911620e-02
-4.942334e-02
2.035516e-01
2.815981e-01
1.069444e-01
7.218760e-02
-9.203370e-02
-1.356751e-01
2.038148e-01
8.738671e-02
-8.375549e-02
1.638645e-01
2.585211e-01
8.060785e-02
7.379655e-02
8.264269e-02
5.378734e-02
8.544774e-03
5.569730e-03
-1.465806e-02
1.423553e-01
3.921372e-02
-9.352789e-03
-1.431864e-01
-1.442596e-01
-1.478943e-01
1.192725e-01
1.269313e-04
-1.830285e-01
2.634177e-01
2.268447e-01
3.987127e-02
1.303366e-01
3.062138e-02
4.973989e-02
2.517464e-01
6.238417e-02
8.071562e-02
2.543505e-01
2.383947e-01
7.537447e-02
8.099872e-02
1.879666e-01
1.326715e-01
9.230722e-02
1.065300e-01
1.500780e-01
1.163702e-01
1.795960e-01
1.283914e-01
3.270700e-02
8.308017e-02
2.049435e-01
-4.149813e-02
-2.173195e-02
1.875763e-01
-8.263546e-02
-1.426383e-02
7.039634e-02
1.911001e-01
2.012333e-01
1.677345e-01
3.715811e-02
-4.578701e-02
7.684362e-02
-3.478944e-02
-3.551376e-02
-8.309171e-02
-7.102646e-02
6.423166e-02
1.403258e-01
-7.986743e-02
2.693625e-02
2.194611e-01
-1.176864e-01
-1.639155e-01
3.280991e-02
1.247973e-01
2.711808e-01
1.459656e-01
1.077016e-01
1.329796e-01
8.710003e-02
2.431593e-02
9.278119e-02
5.934409e-03
5.949765e-02
2.965642e-02
1.555498e-01
-6.057476e-02
-1.381380e-01
-5.286427e-03
-2.088983e-02
-1.930940e-02
-1.256022e-02
-7.493835e-05
3.387638e-02
-8.404916e-02
6.358399e-02
4.982473e-02
2.321146e-02
-7.957581e-02
-3.722087e-02
2.742813e-02
-2.367491e-01
-1.065938e-01
-1.596210e-02
-1.520331e-01
-9.198937e-02
-5.173400e-02
-7.875305e-02
-4.093035e-02
-3.422869e-02
-1.764738e-01
-2.181733e-01
-1.240611e-01
-8.231678e-02
-1.482708e-01
-1.645399e-01
3.875590e-02
-7.075821e-02
-1.340943e-01
1.397168e-01
1.200123e-01
1.064680e-02
1.867678e-01
7.086877e-02
3.808949e-02
1.062223e-01
5.208629e-02
-9.567893e-03
6.471271e-02
-6.829033e-02
2.007478e-02
-3.376857e-02
-1.102888e-01
-2.970196e-02
-4.139886e-02
-1.160886e-01
-9.857026e-02
1.219515e-01
2.039817e-01
7.997939e-02
6.879891e-02
1.451046e-01
1.746056e-01
-6.404451e-02
8.748221e-02
1.041625e-01
-5.282336e-02
-4.989252e-02
-3.175507e-02
-1.120463e-01
-6.376469e-02
-5.955537e-02
-1.451991e-01
-1.410601e-01
-1.932261e-01
-9.161954e-02
-2.774291e-02
2.899354e-02
-7.091296e-02
-8.326271e-02
-9.163554e-02
-8.938088e-02
-1.151465e-01
-1.788042e-01
6.851140e-02
1.702482e-01
7.358865e-03
2.062239e-01
1.269075e-01
1.388690e-01
4.271232e-02
1.772057e-02
1.799062e-01
-1.611891e-01
-2.147125e-01
-1.778924e-01
-1.480419e-01
-1.361395e-01
-4.522383e-02
-7.635096e-02
5.625211e-02
9.454825e-02
1.728736e-01
1.362358e-01
1.108269e-01
2.353636e-02
1.263815e-01
1.722283e-02
3.325020e-03
-2.469935e-02
1.486248e-03
5.951248e-02
7.802557e-02
1.177545e-01
5.303192e-02
4.491155e-02
9.924092e-02
-4.483763e-02
-2.841084e-03
6.740598e-03
-1.513261e-01
-2.015610e-01
-1.054425e-01
-2.432310e-01
-3.072822e-01
-2.809840e-01
-1.122105e-01
-2.046070e-01
-1.743099e-01
5.923855e-02
1.626156e-01
4.631365e-02
6.281827e-02
-1.073037e-01
-3.399571e-02
-9.974787e-02
-1.001998e-01
-3.221997e-01
1.553010e-01
1.419508e-01
1.010932e-01
1.411237e-01
1.291294e-01
6.540156e-02
-3.933463e-02
-1.328849e-01
-2.077558e-01
3.827000e-02
-6.625468e-02
-1.017750e-01
3.230454e-02
-5.029113e-02
-2.570130e-02
9.456760e-02
1.608259e-01
1.328688e-01
6.702217e-02
1.041131e-01
1.831457e-02
6.242470e-02
4.432927e-03
-2.521487e-03
6.863683e-02
-3.331051e-02
1.904163e-02
-1.139378e-01
-1.298872e-01
-1.737259e-01
-8.885727e-02
-7.826726e-02
-8.443110e-02
1.034997e-01
2.291285e-01
1.622274e-01
-6.020016e-02
8.599148e-02
1.883130e-01
-4.191591e-02
2.494171e-02
1.069928e-01
-1.940964e-02
-1.677138e-02
6.871927e-02
-6.441256e-03
2.609904e-03
-1.244585e-02
4.976154e-02
-6.039955e-03
-4.098180e-02
-3.867800e-02
-9.778052e-03
-7.237747e-02
-6.388815e-02
-1.770467e-02
7.379295e-02
-1.561453e-01
-1.662732e-01
3.180234e-02
-3.189398e-02
1.152988e-01
1.331401e-01
2.528009e-02
-3.917983e-02
5.125906e-02
9.293813e-02
5.779178e-02
1.974811e-01
3.612022e-01
4.256283e-01
3.927777e-01
-1.285561e-01
-5.516247e-02
1.063498e-02
2.531147e-02
9.447764e-02
2.248860e-01
1.886157e-01
3.420885e-01
4.170081e-01
4.042877e-02
1.737723e-02
-5.362801e-02
1.145030e-01
2.521298e-02
-4.043926e-02
1.113944e-01
1.210486e-02
-1.010010e-01
4.363602e-02
7.996105e-02
4.547198e-02
-5.426664e-02
4.363038e-02
4.574173e-02
-5.475773e-02
-1.994259e-02
-1.626679e-02
-6.792123e-02
-1.060442e-01
-1.807687e-01
-3.052704e-01
-1.650888e-01
-2.990195e-01
-2.996816e-01
-3.183232e-01
-1.943317e-01
-7.203066e-02
-2.162891e-02
9.258158e-02
-1.749257e-01
-3.006884e-02
1.765595e-02
-2.093787e-01
-1.677076e-01
-1.107983e-01
1.862866e-01
-4.909881e-02
-1.810790e-01
6.731666e-02
-1.124839e-01
-3.056928e-01
-4.392708e-02
-2.250399e-01
-3.381147e-01
-8.998846e-02
-2.186000e-01
-2.205550e-01
-1.061288e-01
-1.774931e-01
-2.927705e-01
1.177028e-01
-2.770532e-02
-1.147290e-02
-6.027536e-02
-1.413596e-01
-1.273242e-02
-4.051116e-02
-1.230205e-02
-9.121408e-02
1.024611e-01
-4.980192e-02
-7.017978e-02
9.235951e-02
3.914319e-02
1.182992e-01
6.477094e-02
-1.059164e-01
6.901655e-02
6.120618e-02
-1.155890e-01
-6.517997e-02
6.775586e-02
8.290602e-02
8.211517e-02
-5.817730e-03
5.908822e-02
-1.151561e-02
9.450287e-02
-2.524287e-03
-3.190912e-02
-6.453764e-02
-1.267120e-01
-2.476713e-02
4.487845e-02
-9.532540e-02
1.539587e-01
-5.313557e-02
6.295351e-02
1.853684e-01
-2.172738e-02
-1.972701e-01
-2.347355e-01
2.586219e-02
-1.265130e-01
-1.251727e-01
-1.847615e-01
-2.094887e-01
-1.237302e-01
1.539363e-02
-8.042844e-02
-1.454308e-01
-7.599390e-02
-1.051515e-01
-4.054478e-02
-1.958059e-01
-1.031692e-01
1.074757e-01
-1.991968e-02
4.572004e-02
2.806246e-02
-1.038597e-01
-2.047906e-02
-3.691403e-02
-1.354389e-01
-1.387215e-01
-8.074545e-02
1.119643e-01
4.839811e-03
-1.373625e-01
5.945523e-02
-1.651274e-02
-1.213994e-01
8.088845e-02
3.248644e-02
-2.602231e-02
-1.733427e-01
-6.978196e-02
-1.276933e-02
1.908337e-02
1.646891e-01
1.141957e-01
1.872475e-01
1.256633e-01
3.853446e-02
-3.977511e-03
-1.099975e-01
-1.287882e-01
-7.167446e-02
-3.263123e-02
-2.481078e-01
-4.244756e-02
-5.082462e-02
-9.629583e-02
3.145880e-02
2.936098e-02
8.097203e-02
5.338902e-02
1.387504e-02
8.672174e-03
-5.236673e-03
-2.690119e-02
-9.742028e-02
-5.862558e-02
9.252273e-02
9.416914e-02
1.041546e-01
2.351204e-01
1.108106e-01
4.121792e-02
-1.809330e-03
-2.584408e-02
-9.828591e-02
-1.358148e-01
-1.739964e-01
1.416569e-01
2.578034e-02
9.460684e-03
2.157959e-01
8.376134e-02
-3.319132e-02
-2.243567e-02
3.050579e-03
-6.464821e-02
3.237493e-02
9.748194e-02
-2.697722e-02
5.748083e-02
6.037684e-02
-3.816353e-02
-2.414750e-01
-1.559569e-01
-1.616385e-01
-4.957903e-02
2.180680e-03
-9.903140e-02
2.265192e-02
-6.331713e-02
-1.928390e-01
2.402292e-02
-9.949219e-02
-4.835581e-02
8.300332e-02
-1.973573e-01
-1.230367e-01
1.589490e-02
9.961318e-02
-9.491669e-02
1.282540e-01
1.712303e-01
8.155584e-02
-5.517912e-02
5.069179e-02
-2.808130e-03
-1.812633e-02
-2.356264e-02
-8.968680e-02
-2.000650e-01
1.191774e-01
1.068434e-01
-2.061037e-01
-4.690024e-02
1.469911e-01
-4.439003e-02
-1.503506e-01
-4.031959e-02
7.790437e-02
2.260151e-01
2.107179e-01
-1.199048e-01
1.474730e-01
2.424528e-01
-9.184062e-02
-4.589428e-03
1.652429e-01
2.282775e-01
-9.089188e-02
-2.339578e-01
2.842242e-01
2.211948e-01
1.250896e-01
-1.732621e-01
1.866731e-01
3.487251e-01
1.890104e-01
9.895934e-02
-7.427797e-03
1.530899e-02
2.103108e-01
1.481311e-01
-2.116547e-01
-7.456544e-02
7.774628e-02
-6.007147e-02
-1.152325e-01
-1.276706e-01
-1.668007e-01
3.229254e-02
-1.488797e-01
-1.019174e-01
-1.012168e-01
-8.452801e-02
-5.587701e-02
1.522610e-02
1.093913e-02
3.334543e-02
2.632220e-02
9.553418e-02
1.240367e-01
-1.872968e-01
-1.597963e-01
-7.786918e-02
-1.403701e-01
-8.195393e-02
-5.399062e-03
-6.493868e-02
-9.067233e-02
-7.533775e-02
-6.722624e-02
-1.398439e-01
7.164451e-02
1.890114e-01
1.039260e-01
5.854991e-02
2.308615e-01
2.976520e-01
-2.419107e-01
1.254672e-02
1.664259e-01
5.911871e-02
1.725073e-01
1.202057e-01
2.357581e-02
2.972414e-01
2.810380e-01
-2.247939e-01
-5.927941e-02
8.595832e-02
-6.089982e-03
1.287636e-01
8.165510e-02
-4.226170e-02
1.205974e-01
1.122506e-01
-9.563160e-02
-4.373826e-02
-6.945509e-02
4.415865e-02
-3.186395e-02
-1.995573e-01
2.818667e-01
3.215583e-01
-2.698165e-02
-6.698260e-02
2.031433e-01
9.129097e-02
7.822834e-02
-3.074299e-02
-5.954352e-02
7.226665e-02
-4.559391e-02
-3.504208e-02
-3.028083e-02
1.074569e-02
6.233755e-02
5.966473e-02
-2.218471e-01
-7.512244e-02
-1.392426e-01
-3.424692e-02
5.636671e-02
-3.063559e-02
7.729624e-02
4.948778e-02
5.959709e-02
-3.300523e-03
-5.536091e-02
-8.949445e-02
-1.238040e-01
-1.589542e-02
-1.101881e-01
-1.196517e-02
9.368802e-02
-3.170525e-01
-2.921295e-01
1.787910e-01
-3.273115e-01
4.689083e-01
2.639514e-01
7.608432e-02
2.998815e-01
-9.270473e-02
3.189006e-01
-1.624199e-01
-1.409432e-01
-1.147956e-01
-1.874299e-01
2.764327e-01
-1.649299e-01
2.111758e-01
-3.376703e-02
4.784373e-02
-4.593911e-02
3.649243e-02
-2.269628e-02
-1.115947e-01
4.660553e-03
-1.741503e-01
-5.070606e-02
4.768687e-02
2.141295e-02
7.005612e-02
-8.833981e-02
1.124194e-01
-2.360256e-03
-2.541453e-01
6.930839e-03
-1.506082e-01
-1.202051e-02
-8.323798e-02
3.343329e-03
-2.394524e-02
-2.519191e-02
7.569148e-02
5.105916e-03
1.958558e-01
-4.846429e-02
-5.321122e-02
1.365729e-01
-1.365022e-01
-9.389538e-02
-3.087032e-03
-1.425749e-01
-1.268779e-02
-4.870194e-02
-8.062598e-02
3.971564e-02
1.664300e-01
2.350868e-01
1.209690e-02
1.515688e-01
-1.137118e-01
-3.537741e-03
-4.660829e-02
-1.779851e-01
-3.057299e-03
-6.214543e-02
-3.320374e-02
8.483300e-02
-7.844198e-02
-5.139667e-02
1.963468e-02
-1.228863e-01
-1.368982e-01
-6.128426e-02
1.757178e-01
1.297832e-01
4.775980e-03
7.200281e-02
-1.090563e-01
-1.534010e-01
-1.413696e-01
-2.039271e-01
-6.705449e-02
-5.171091e-02
9.227012e-03
4.408520e-02
8.042130e-02
5.817081e-02
7.088634e-03
-7.249510e-02
-1.065573e-01
9.043691e-02
-1.006595e-01
-2.886137e-02
1.309571e-03
1.267495e-02
1.228775e-01
4.478119e-02
8.619367e-02
1.147314e-01
-6.740304e-02
-3.164356e-02
7.801380e-03
5.242991e-02
-2.524927e-02
5.574922e-02
7.100215e-02
-3.154527e-02
7.809062e-02
-1.786182e-03
3.108411e-01
3.169582e-01
-1.563469e-01
4.008435e-01
-4.582541e-01
7.688819e-02
-9.982960e-02
1.753750e-02
1.523647e-01
-1.563411e-02
-3.345619e-03
3.254367e-02
1.176282e-03
8.163210e-02
3.319640e-02
4.276111e-02
8.572503e-02
1.377831e-02
-3.375284e-02
-2.449786e-02
8.849642e-02
-3.460703e-03
-9.239029e-02
1.390480e-01
-5.924328e-02
-7.100347e-02
1.886029e-02
1.326254e-01
-4.682764e-02
-2.376938e-02
1.347083e-01
-1.157158e-01
-5.568644e-02
6.754769e-02
-9.842370e-02
-7.754662e-02
-2.083235e-01
1.906814e-01
-3.713089e-03
-2.409204e-01
3.032352e-01
-1.393237e-01
-1.318743e-01
1.276828e-01
-1.787010e-01
9.142591e-02
-2.949613e-01
6.464732e-02
2.834878e-01
-6.055220e-01
3.495577e-01
3.725080e-01
-4.488753e-01
2.877196e-01
8.915069e-03
-9.057037e-02
-6.797051e-02
9.241650e-02
-4.154243e-02
3.490127e-02
6.516662e-02
-6.158403e-02
-2.413822e-02
-1.384609e-01
9.915422e-02
-1.088186e-01
-1.304201e-01
2.399777e-01
-1.161342e-01
-1.181755e-01
4.108504e-02
-1.216337e-01
9.257834e-02
-1.450197e-01
-1.600568e-02
9.580616e-02
-9.423298e-02
3.616117e-02
-5.134028e-02
-6.037383e-02
-7.223729e-02
-4.767042e-02
-9.403820e-02
3.014846e-02
4.897847e-02
-2.162407e-02
3.132837e-02
-1.041713e-02
-1.125392e-01
-7.074322e-02
-4.531593e-02
-3.133659e-02
-1.016757e-01
-5.078761e-02
7.266498e-02
-5.311282e-03
-1.670312e-01
-6.749685e-02
-1.410655e-02
1.387730e-01
-1.789749e-01
1.565198e-01
1.456462e-01
-2.437052e-01
1.401208e-01
9.702949e-02
-1.953025e-01
1.147545e-01
3.193335e-02
1.466402e-01
-1.966399e-02
-4.845260e-02
1.649779e-01
4.263452e-03
-1.727216e-01
1.320910e-02
-6.920904e-02
1.373635e-01
-1.261217e-01
-1.413570e-02
1.135083e-01
-1.027926e-01
1.255650e-01
8.523449e-02
-1.448265e-01
8.266346e-02
3.876394e-02
-9.074391e-02
1.354795e-01
7.375593e-02
-2.894397e-01
1.410795e-01
9.632579e-02
-1.169902e-01
1.502576e-01
-1.052255e-01
7.365096e-02
-6.815395e-03
-1.296075e-01
5.154683e-02
-3.019502e-02
-8.889108e-02
4.401007e-02
-1.355082e-02
-2.677756e-01
2.974920e-01
-2.030387e-01
-3.909771e-01
5.712493e-01
-2.034507e-01
-2.342898e-01
2.301481e-01
-1.789675e-01
-1.246323e-01
9.056416e-02
8.073650e-02
-2.315093e-02
1.416516e-01
2.615878e-01
3.864987e-02
2.091193e-01
3.374671e-01
-5.178498e-02
-4.173330e-02
1.280311e-01
1.149062e-02
-5.407340e-02
1.835839e-01
-2.167045e-02
4.546802e-02
1.399853e-01
7.398036e-02
1.248166e-01
1.389568e-01
-6.839854e-03
3.709514e-02
5.830722e-02
-1.073362e-01
-7.070346e-02
-1.540967e-03
-4.008974e-02
2.304026e-03
-4.971808e-02
-7.268675e-02
-2.615234e-02
-9.926598e-02
4.275950e-02
1.242992e-01
1.300240e-02
-1.362027e-01
-1.709164e-01
-1.755290e-01
-8.577717e-02
-2.065952e-01
-2.128489e-01
4.857856e-02
-5.761108e-03
-1.330135e-01
-3.669806e-02
-4.181191e-02
3.160346e-02
6.813084e-02
-1.929271e-02
-3.873423e-02
8.820265e-02
-1.402124e-02
4.218874e-03
-8.260079e-02
-1.737626e-02
7.159404e-02
-7.100841e-02
-4.616426e-02
1.486810e-01
-1.342722e-01
-8.291873e-02
6.204699e-02
-7.582832e-02
-1.035541e-01
-7.619456e-02
-1.722934e-01
-9.155615e-02
-1.886004e-01
-1.978193e-01
-2.056716e-01
-2.465722e-01
1.042554e-01
-1.673777e-02
-1.202043e-01
4.948274e-02
-3.652907e-02
-7.035565e-02
5.181440e-02
4.415349e-02
2.133169e-03
-2.630280e-01
-2.672811e-01
-2.035262e-01
-2.078854e-01
-1.755293e-01
-2.076419e-01
-1.725667e-01
-2.091058e-01
-1.377075e-01
1.198998e-01
9.971032e-02
6.037759e-02
1.032171e-01
9.803773e-02
1.202516e-01
1.690731e-01
1.371030e-01
9.603415e-02
-1.582130e-01
-1.131435e-01
-1.374520e-01
-1.640461e-01
-1.581630e-01
-1.646031e-01
-6.998140e-02
-1.304633e-01
-6.954660e-02
-1.276658e-01
-1.176388e-03
3.824845e-03
-1.187600e-01
-5.307325e-02
-1.519439e-02
-4.196624e-02
-2.560259e-02
-1.499617e-02
9.743894e-02
1.578834e-01
1.156080e-01
7.783050e-02
4.240058e-02
2.227699e-01
1.169527e-01
1.969498e-01
3.321102e-01
-2.169067e-02
-6.524646e-02
-9.893264e-02
-9.319019e-02
-9.100626e-02
-9.516866e-02
2.630552e-03
-1.249091e-02
-4.252417e-02
1.333085e-01
7.904907e-02
2.830721e-02
1.479358e-01
8.474074e-02
8.499260e-02
6.171480e-02
1.935539e-02
3.954934e-02
-6.388459e-03
-8.097138e-02
-1.526106e-01
1.722222e-01
1.116041e-01
8.029202e-02
1.056171e-01
1.965087e-01
1.177822e-01
-2.002872e-02
-6.276096e-02
-7.312810e-02
5.538045e-02
-7.582164e-03
-1.457569e-01
1.864064e-01
1.104749e-01
-1.023278e-01
1.586556e-01
-2.474864e-02
-1.367393e-01
1.855029e-01
1.170179e-01
1.660235e-02
9.215738e-03
1.295690e-01
1.489970e-01
2.800516e-01
5.385729e-02
-3.240222e-02
7.811742e-02
-1.338018e-01
1.122890e-01
-2.218914e-02
4.557334e-02
-8.303110e-04
1.236494e-02
4.611187e-02
-1.703422e-02
1.925828e-01
1.623847e-01
1.171247e-01
1.296336e-01
1.950297e-01
2.333712e-01
5.959060e-02
3.109146e-01
2.888391e-01
-1.534185e-01
3.301306e-02
1.788682e-01
-1.483288e-01
-2.486649e-01
-7.773147e-02
2.034344e-01
-2.461077e-02
-2.175603e-01
3.080652e-01
1.604997e-01
-7.391518e-02
2.339016e-01
2.380281e-01
-1.817743e-02
-1.415543e-01
-5.353794e-02
9.110315e-02
-1.902156e-01
4.320196e-02
-6.481308e-02
5.429716e-02
-4.526858e-02
-7.787427e-02
-2.483179e-02
-4.788242e-03
-5.483103e-03
-3.268569e-02
3.026929e-02
8.522718e-02
-1.148085e-01
-6.786436e-02
1.174227e-01
-2.003249e-01
-2.438218e-01
-1.943236e-01
-7.563787e-02
-9.150208e-02
-2.299364e-01
8.494931e-03
-8.286696e-03
-4.159157e-02
-1.875179e-01
-4.830339e-02
3.242771e-02
-1.386127e-01
-8.553184e-02
8.772738e-02
-2.569615e-02
-1.415819e-01
-1.250458e-02
-1.802785e-01
-1.972935e-01
-8.467473e-02
-1.480003e-01
-2.701894e-01
-1.473334e-01
1.362942e-02
1.550657e-02
8.904050e-03
5.272407e-02
4.915083e-02
-6.853472e-02
8.054031e-02
7.166750e-02
5.983222e-02
9.031135e-02
9.862941e-02
6.663231e-02
2.782454e-02
-5.299440e-02
-1.188028e-01
1.960979e-01
7.919753e-02
-7.056234e-03
9.554654e-02
6.304201e-02
-2.381911e-02
2.738941e-02
1.064328e-01
1.707173e-01
-1.000970e-02
1.363400e-01
3.284869e-01
-1.253169e-01
3.243831e-02
2.474572e-01
-5.446758e-02
6.057799e-02
1.280941e-01
-3.882903e-04
-5.391164e-02
4.299256e-02
-2.917685e-02
-4.177833e-02
-3.439369e-02
-1.812319e-01
-2.661786e-01
-1.434649e-01
3.761948e-02
-2.033572e-02
8.029566e-02
3.643612e-01
3.884291e-01
3.834694e-01
-2.100936e-03
-9.345453e-03
1.565420e-02
-7.089289e-02
-3.976265e-02
-1.482612e-01
-6.684323e-02
-2.276794e-01
-3.095860e-01
1.028414e-01
1.688387e-01
8.899938e-02
-1.078258e-02
6.927110e-02
-5.307729e-03
-6.509641e-02
-5.415894e-02
-7.877295e-02
-1.259109e-01
-1.296545e-01
-1.725599e-02
5.172653e-02
1.654515e-03
5.145336e-02
1.740629e-01
2.936968e-01
1.332787e-01
8.714133e-02
1.128253e-01
1.435140e-01
8.639722e-02
1.585728e-02
1.166150e-01
-5.369044e-03
6.846693e-02
8.525232e-02
1.792810e-01
1.496571e-01
1.922150e-01
4.290583e-02
1.900322e-02
-1.369155e-01
-2.937905e-02
-1.334487e-01
-1.990344e-01
-2.337821e-01
-2.404329e-01
-1.911841e-01
-6.184385e-02
-2.325455e-02
6.741850e-02
1.888695e-01
2.704245e-01
3.115581e-01
2.783934e-01
3.514362e-01
3.016836e-01
-3.932484e-02
1.562235e-01
3.007300e-02
-2.291499e-01
-2.557098e-01
-2.103253e-01
8.687472e-02
1.261055e-01
1.106140e-01
8.296508e-03
4.801377e-02
1.164839e-01
-1.129981e-01
-6.985485e-02
-1.572557e-02
-8.550707e-02
-6.825592e-02
-6.665254e-02
1.444370e-02
1.131740e-01
1.157296e-01
3.693961e-02
9.124269e-02
1.671701e-01
1.384047e-02
4.667532e-02
5.581211e-02
-4.342100e-02
-3.327993e-02
-1.598683e-01
-2.063604e-02
-5.381734e-02
-9.989557e-02
-1.335427e-02
-8.590212e-02
-5.431540e-02
-1.164495e-01
-1.037533e-01
-7.311267e-03
1.479405e-01
2.387463e-01
2.684622e-01
-1.172837e-01
-9.800568e-02
-7.814620e-03
-2.506603e-03
-5.419138e-02
1.698962e-02
1.337614e-01
1.185582e-01
1.111492e-01
-1.650397e-01
-1.715158e-01
-4.503350e-02
-9.197831e-02
-8.447097e-02
3.388235e-02
9.415536e-02
1.839417e-01
1.871248e-01
6.079831e-02
9.266999e-02
4.284998e-02
-3.028033e-02
-2.828922e-02
-7.832127e-02
-6.593209e-02
-8.486632e-02
-1.567538e-01
1.076526e-01
1.394091e-01
5.246121e-02
-1.325531e-01
-5.851796e-02
-7.089883e-02
-2.078086e-01
-1.093063e-01
-1.536061e-02
-7.817377e-02
-1.607800e-01
-6.763560e-02
-1.535240e-02
4.155924e-02
1.586439e-01
6.666692e-02
8.418607e-02
1.082895e-01
-2.459074e-01
-2.180261e-01
-1.337339e-01
-2.478639e-01
-2.161833e-02
1.340059e-02
-8.925933e-02
4.098111e-02
2.541303e-01
2.563737e-02
1.268706e-02
1.870203e-01
8.298912e-03
4.665453e-04
1.631294e-01
-2.090432e-03
5.024002e-02
1.046731e-01
1.560894e-01
1.846581e-01
2.669998e-02
1.130668e-01
-2.700542e-02
-2.607099e-01
-6.092073e-02
-7.534859e-02
-2.478156e-01
7.227637e-02
2.778910e-01
1.384460e-01
1.978932e-01
2.842127e-01
-4.808293e-02
-1.050172e-02
-1.598000e-01
-2.954026e-01
-2.718602e-03
4.759285e-02
2.545815e-01
1.360813e-02
1.046165e-01
2.196908e-01
1.235198e-01
2.284367e-01
9.057978e-02
-2.025568e-01
-1.813439e-01
-5.909540e-02
-1.441150e-01
-2.282056e-02
1.868324e-01
2.359121e-02
2.817238e-01
2.763570e-01
2.320636e-01
9.073798e-02
-9.413740e-03
4.744416e-02
-6.689894e-02
-1.063875e-01
-1.861738e-02
-2.854218e-01
-1.744378e-01
2.515426e-02
1.033776e-01
5.189075e-02
1.672524e-01
1.418365e-01
1.334767e-02
1.952791e-01
6.480103e-02
-2.414807e-02
-3.078190e-02
3.233703e-02
8.412629e-02
-7.722215e-02
-1.027867e-01
1.149213e-01
-1.634044e-02
1.318452e-01
1.022996e-01
2.042804e-02
7.523663e-03
-2.169871e-02
-1.733584e-01
-3.019463e-01
-2.814729e-01
-1.677139e-01
-2.294512e-01
-3.017180e-01
7.834312e-02
8.814205e-02
2.428963e-02
1.194348e-02
-2.106190e-02
1.138209e-01
-2.545500e-02
1.366216e-01
1.875257e-01
-1.488283e-01
-1.900167e-01
-5.785367e-02
-7.268481e-02
-7.770409e-03
1.211484e-01
-9.695644e-02
8.374231e-03
1.702421e-01
-2.545138e-02
-2.357428e-02
4.359482e-03
4.586450e-02
3.177619e-02
2.392594e-02
4.440367e-02
4.087484e-02
-9.302774e-02
1.889156e-01
1.557784e-01
7.689404e-02
1.266014e-01
-6.446584e-02
-5.093140e-02
-6.885366e-02
-2.039748e-01
-1.454049e-01
-7.505934e-02
8.373525e-03
8.808491e-02
-5.134388e-02
7.224844e-02
2.826161e-02
-5.975809e-02
9.861500e-03
-1.690221e-02
8.783852e-02
1.219104e-01
1.636575e-01
8.851802e-02
4.197092e-03
7.706262e-02
-2.767652e-02
-1.443563e-01
-5.287049e-02
1.647786e-01
9.930744e-02
8.640152e-02
1.543147e-01
5.912714e-02
1.019132e-01
7.793806e-02
1.051419e-01
1.209382e-01
-2.730051e-02
-1.485997e-01
-2.405883e-01
-4.006459e-02
-9.748231e-02
-1.001583e-01
-1.661447e-02
-1.955692e-02
-1.245886e-03
-1.484364e-01
-4.186673e-02
6.436487e-02
-1.041460e-01
2.848474e-02
8.705249e-02
-4.770327e-02
7.078917e-02
6.893346e-02
-9.318116e-02
-4.335523e-02
3.296855e-02
-1.262441e-01
3.344837e-04
2.357179e-01
-4.880286e-02
3.104766e-01
2.185304e-01
-8.409778e-02
-1.924804e-01
-1.673780e-01
2.220934e-02
5.004999e-02
1.128173e-01
-8.386348e-03
1.150710e-01
2.019854e-01
-7.936781e-02
-2.119040e-01
-1.025743e-01
-1.348981e-01
-1.868822e-01
-1.260136e-01
-1.180365e-01
-2.330841e-01
-1.267526e-01
-2.189535e-02
-3.329109e-02
-4.694749e-02
3.564519e-02
1.523626e-02
-1.022363e-01
1.263110e-01
-6.009454e-02
-9.903269e-02
-5.802258e-02
7.386325e-02
6.144260e-02
1.484845e-01
1.160563e-01
4.187948e-02
1.370362e-01
8.683998e-02
-6.001101e-02
1.723938e-01
2.275586e-01
1.632382e-01
2.066112e-01
5.657694e-02
1.646142e-01
-5.761100e-02
-8.839840e-02
-8.647611e-02
-5.635656e-02
-6.766067e-02
8.926430e-02
-1.514048e-01
-1.150261e-01
4.158480e-02
-1.894958e-01
-3.380774e-02
4.902988e-02
5.735667e-02
1.064576e-01
1.415419e-01
1.259472e-01
1.223933e-01
1.733255e-01
1.166939e-01
1.315229e-01
8.244949e-02
-2.248866e-01
-2.534246e-01
-1.909579e-01
-1.954675e-01
-2.847498e-01
-1.838236e-01
-6.361104e-02
-1.263559e-01
-1.109980e-01
1.686230e-01
2.872121e-01
2.183375e-01
2.119343e-01
1.745126e-01
1.521409e-01
4.701633e-02
4.855630e-02
-3.813923e-02
-9.002478e-02
-3.478594e-02
1.805846e-02
-8.745279e-02
-9.300201e-02
-7.465225e-03
-6.431042e-02
-3.231914e-02
-2.920187e-02
-1.363178e-01
1.192880e-01
-9.530003e-02
1.034554e-01
1.026835e-01
1.544645e-01
1.542742e-01
1.885996e-01
2.636802e-01
6.427966e-02
7.764326e-02
4.417377e-02
2.000487e-01
2.047044e-01
3.133952e-01
1.140893e-01
1.721029e-01
2.357922e-01
-5.289253e-02
-3.065848e-02
-7.736376e-02
-9.168234e-02
-1.586680e-02
-5.193796e-02
-1.290617e-01
-2.660033e-02
-3.342061e-02
-7.744090e-02
-7.659935e-02
-5.610355e-02
-9.788737e-03
-1.908933e-02
-4.731743e-03
-1.413821e-01
-1.173674e-01
-9.172443e-02
1.124999e-01
4.725881e-02
4.031563e-02
2.500158e-01
9.227857e-02
1.696868e-01
2.147013e-01
3.216285e-01
3.506366e-01
5.515749e-02
4.740209e-02
-3.159221e-02
1.504549e-01
1.415459e-01
1.243140e-01
-2.701905e-02
2.705677e-02
1.017187e-01
-1.139503e-01
-1.783869e-01
-1.156690e-01
9.912382e-02
6.544220e-02
-4.212633e-03
2.583678e-01
1.483954e-01
8.848581e-02
1.027989e-01
2.799400e-02
3.200268e-02
8.928246e-02
7.741235e-02
1.936958e-01
-4.889434e-03
4.008964e-02
9.086295e-02
-1.506697e-01
-1.843265e-01
-1.354369e-01
-4.436283e-02
-4.568180e-02
-1.229140e-01
2.512048e-02
6.075973e-02
1.993768e-02
-5.549126e-02
8.910473e-03
3.009169e-02
-3.774977e-02
4.170443e-02
9.319861e-02
-9.625468e-02
-5.087977e-02
4.428190e-02
1.265504e-01
1.678839e-01
8.760457e-02
1.330507e-01
1.461128e-01
8.493955e-02
1.765391e-01
7.023896e-02
1.101646e-01
-8.488075e-02
-1.285203e-01
-1.309788e-01
-2.899403e-02
-5.341492e-02
-1.467296e-02
-7.424758e-04
-6.689676e-02
-2.908682e-02
4.991203e-02
2.892729e-02
-7.195333e-03
8.432633e-02
1.947031e-02
1.066942e-01
1.038950e-01
1.429544e-01
1.435899e-01
7.586481e-02
3.002999e-02
2.441984e-02
1.944897e-01
1.069622e-01
1.638062e-01
1.969951e-01
2.365361e-01
2.488606e-01
-1.012125e-01
-6.263883e-02
2.758467e-02
-1.051717e-01
-7.087785e-02
1.047079e-01
-1.950716e-01
-1.409419e-01
1.085542e-02
-4.769405e-02
-3.606803e-02
1.238801e-02
-9.377807e-02
-8.545388e-02
-8.916394e-03
-1.843309e-02
1.304209e-02
4.501656e-02
-1.949326e-01
-1.507211e-01
8.302499e-03
-7.305176e-02
-4.768407e-02
-1.647852e-03
9.841330e-02
1.970763e-01
7.605581e-02
8.217787e-02
-8.572267e-03
-3.296388e-02
1.814616e-01
1.214463e-01
-2.265491e-03
-3.104283e-02
-9.759188e-02
-6.524392e-04
1.142469e-01
1.212723e-01
-2.172471e-01
5.057091e-02
-3.987438e-03
-9.402891e-02
-2.053513e-01
-3.332420e-02
8.235309e-02
6.587094e-02
1.714383e-01
-1.488069e-02
1.311740e-01
2.168233e-02
-1.423351e-01
5.919859e-02
-8.582565e-02
-2.598682e-02
1.654307e-01
-1.911063e-01
-2.542208e-01
-2.296182e-01
-3.383387e-01
2.471272e-01
-2.421192e-01
1.034381e-01
1.648239e-01
-5.780872e-02
2.151657e-01
-1.470434e-01
2.724300e-01
-1.225283e-01
-2.864871e-01
-1.026757e-01
-2.272640e-01
3.166758e-01
-7.118045e-02
1.956360e-02
-6.509960e-02
8.696811e-02
2.748815e-02
-5.644027e-02
-8.220246e-02
-1.182414e-01
-3.317027e-02
-9.712590e-02
-7.449612e-02
8.653226e-02
5.189327e-02
2.282364e-01
-4.382037e-02
9.787737e-02
2.798626e-02
-1.409440e-01
-1.150592e-02
4.399772e-04
-1.095604e-02
-1.656521e-01
-6.707303e-02
8.286439e-02
6.874383e-02
1.427189e-01
5.970423e-02
7.629360e-02
2.014867e-02
-5.252383e-02
1.784879e-01
-1.796665e-03
-5.588621e-02
3.939616e-02
-4.638037e-02
-1.790700e-02
-1.160898e-01
7.906780e-02
1.013283e-01
2.631873e-02
6.758431e-02
7.655159e-03
-9.441211e-03
2.390438e-02
-1.076934e-01
1.495436e-02
-1.121588e-01
-2.657044e-02
-1.098078e-01
-3.164745e-02
2.000313e-02
-1.201684e-01
-4.938883e-02
4.479561e-02
1.475252e-02
1.788448e-02
3.296291e-02
1.906706e-01
1.120388e-01
-1.105817e-01
2.043565e-02
-1.382872e-01
-1.428320e-01
-1.100227e-01
2.441457e-02
3.752026e-02
2.843219e-02
1.931900e-01
6.963427e-03
9.168229e-02
-6.951392e-02
-9.432528e-02
-7.245594e-02
-6.745245e-02
-8.351711e-02
-9.846897e-02
-1.977111e-02
2.888197e-02
-1.294878e-01
2.404564e-02
8.178246e-02
1.665766e-02
-1.112161e-01
2.016138e-02
-5.713228e-02
-1.168621e-01
6.094081e-02
-8.540140e-02
3.175825e-02
5.865933e-02
-2.634899e-01
2.972561e-01
3.250351e-01
2.238339e-01
4.612201e-01
-2.785321e-01
2.143807e-01
-1.191752e-01
-1.544060e-02
9.912410e-02
-2.750482e-02
-7.349575e-02
5.354799e-02
-1.151294e-01
-8.226246e-02
2.447335e-02
-2.960669e-03
3.800680e-02
7.126063e-02
-9.352005e-02
-1.665968e-02
1.017818e-02
2.532199e-02
6.722307e-02
3.199201e-02
-6.397665e-03
1.425438e-01
2.521675e-01
1.780788e-01
-3.607975e-02
1.713924e-01
5.554390e-02
-1.764106e-01
-1.889135e-01
-2.574629e-01
-2.596293e-01
2.156498e-01
2.360308e-01
1.953575e-01
2.438689e-01
2.709808e-01
2.070807e-01
1.987494e-01
9.982721e-02
9.666166e-02
1.520228e-02
-9.165596e-03
1.258515e-01
-7.530009e-02
2.447476e-03
9.138064e-03
5.346897e-03
4.625303e-02
-7.148747e-02
-6.355991e-02
-2.137325e-01
-1.742269e-01
-2.436679e-01
-3.110305e-01
-1.275274e-01
-9.550790e-02
-6.251812e-02
8.033221e-02
-2.544879e-02
-1.181357e-01
-2.243648e-01
-1.089355e-01
-2.078161e-01
-1.363259e-01
-1.960284e-01
-1.741234e-01
7.194763e-02
1.263682e-01
1.005031e-01
3.310377e-02
2.203354e-02
-9.037101e-02
-1.984319e-01
-2.143332e-01
-3.513873e-01
-1.595542e-01
-1.849159e-01
-2.554293e-01
-4.390831e-01
-2.051015e-01
-1.811717e-01
-1.848972e-01
1.513258e-02
1.331613e-01
1.794049e-01
-5.046038e-02
9.433088e-02
1.825212e-01
-1.956931e-02
-1.900658e-01
1.451297e-01
6.417102e-02
-2.755099e-02
-4.868345e-02
9.622769e-02
2.552028e-03
1.029602e-01
8.406781e-02
3.578128e-02
4.982589e-02
9.498593e-02
1.127873e-01
6.588145e-02
7.960950e-02
8.587775e-02
-2.125306e-02
5.419278e-02
-5.415639e-02
-1.252500e-01
-5.275311e-02
-1.464892e-01
-9.679586e-02
-8.719191e-02
-2.333867e-01
-1.522398e-01
-2.092773e-01
-2.342680e-01
-6.272394e-02
-2.749395e-01
-1.067983e-01
1.200027e-01
-7.382689e-02
-1.633447e-01
-1.711978e-02
-8.722918e-02
-6.644765e-02
1.647457e-01
-8.593176e-03
4.269822e-02
2.309079e-02
-1.348815e-01
-9.946370e-02
-7.091292e-02
-5.129029e-02
3.478462e-02
1.355942e-01
9.743095e-02
1.489567e-01
1.580326e-01
-1.026477e-01
-1.241960e-01
-3.537732e-02
-1.592287e-01
-7.144146e-02
8.285007e-03
3.956351e-02
1.255586e-01
8.140907e-02
3.242439e-02
4.128047e-02
-2.712711e-02
-4.450426e-02
5.461416e-02
-9.250589e-02
-1.953987e-01
-8.684112e-02
-1.574868e-01
-1.930480e-03
-6.340616e-02
-2.836918e-02
3.619149e-03
-7.224239e-02
-2.090632e-01
-4.190284e-02
-2.131661e-01
-2.686922e-01
-8.787211e-02
-4.139875e-03
4.139666e-02
-1.278679e-01
-2.831663e-02
5.110689e-02
-1.099138e-01
-7.065290e-02
1.385553e-03
3.618922e-02
1.676749e-01
9.130169e-02
3.103284e-02
2.395705e-01
1.090011e-01
2.036280e-02
2.345970e-01
5.938806e-02
-1.854705e-01
-3.333011e-01
-2.549099e-01
6.388841e-02
1.707551e-02
-7.008081e-02
3.143719e-01
3.870169e-01
2.316572e-01
-1.849255e-01
-9.944872e-02
1.991912e-02
-3.747828e-02
-1.144252e-01
-4.891880e-02
4.985137e-02
-3.876613e-02
-8.356521e-02
-1.264221e-01
-8.654928e-02
4.770963e-02
-1.078395e-01
5.946385e-02
-1.109109e-01
-1.402480e-01
-1.201660e-01
-6.506784e-02
5.987490e-02
1.303620e-01
2.151080e-01
-1.224461e-01
-4.963881e-03
3.061788e-01
-1.544520e-01
3.560305e-02
1.745251e-01
1.818503e-01
1.924507e-01
-8.206154e-02
1.351358e-01
2.677382e-01
1.559914e-01
-3.776852e-02
6.063233e-02
9.429405e-02
4.759348e-02
-5.602026e-02
-3.400906e-02
-7.671967e-02
3.261575e-02
-1.602829e-01
-1.424028e-02
-1.098985e-01
1.472426e-02
6.219007e-02
1.551385e-01
1.897240e-01
1.264279e-01
1.057230e-01
1.089719e-01
6.142373e-02
6.430451e-02
2.537942e-02
1.099634e-02
1.394830e-02
-4.807418e-02
-6.790664e-02
1.176854e-02
-2.496339e-02
2.106971e-02
6.234505e-02
-3.152730e-02
-1.434656e-01
3.215048e-02
1.625057e-01
-1.532813e-01
-2.428631e-02
4.910626e-02
-1.111064e-01
-1.211161e-01
-1.190536e-01
-1.011688e-01
8.154848e-03
1.235383e-02
-2.699586e-01
-1.110688e-01
-6.935836e-02
-2.489473e-01
-2.455837e-01
-1.791315e-01
1.579788e-01
1.143526e-01
-7.442716e-02
2.494008e-01
1.739480e-01
-4.859133e-02
2.032116e-01
1.722125e-01
-5.128281e-02
4.708070e-02
1.516203e-01
5.278814e-02
1.346213e-01
2.583322e-01
2.566555e-01
1.451887e-02
2.712280e-02
-1.693873e-02
-7.850431e-03
6.555404e-02
7.176670e-02
-8.404232e-02
-3.908431e-04
-7.352704e-03
-9.995816e-02
-4.998207e-02
2.797472e-02
-1.025168e-01
3.257604e-01
3.270803e-01
8.111221e-02
2.083358e-01
2.898072e-01
1.694527e-01
3.589701e-01
3.051739e-01
-4.453548e-02
-6.147508e-02
-9.908052e-02
-8.285666e-02
-2.278370e-02
-1.241411e-01
8.552082e-02
4.757817e-02
1.782486e-02
2.739272e-02
-2.213828e-01
-2.758546e-01
-9.900421e-03
-2.495287e-01
-2.106061e-01
-5.086381e-02
-3.272829e-01
-8.185411e-02
4.113064e-02
-1.452625e-01
-1.616629e-01
-6.480361e-02
-2.976431e-01
-1.652446e-01
-1.068265e-01
-1.477209e-01
-6.447587e-02
5.846175e-02
-6.533252e-02
-2.911143e-01
1.050827e-01
-5.288536e-02
-3.034713e-01
1.110632e-01
-8.080406e-02
-2.240023e-01
9.748562e-02
1.239628e-01
6.009395e-02
1.421531e-01
8.315080e-02
8.946706e-02
1.254589e-01
1.549683e-01
1.453990e-01
-8.401174e-02
-1.903371e-01
-8.590983e-02
4.395729e-03
-7.163159e-02
4.577677e-02
5.151332e-02
6.362645e-02
1.125942e-01
4.623293e-02
1.442142e-01
1.048945e-01
1.582095e-01
1.495309e-01
1.287943e-01
2.096895e-01
2.739418e-01
1.338923e-01
6.676453e-02
1.166049e-01
1.991313e-01
1.326166e-01
5.600136e-02
2.804061e-01
7.277942e-02
7.555783e-02
1.127034e-01
-9.679692e-02
-3.251980e-01
-2.412419e-01
-1.850367e-01
-2.556961e-01
-1.618731e-01
-9.369577e-02
-1.441755e-01
5.364915e-02
-1.797370e-01
-1.861943e-01
-9.539329e-02
-2.023443e-01
-9.867387e-02
-8.229388e-02
-2.281689e-01
-9.744309e-02
-1.531411e-02
-7.340802e-02
-2.676067e-01
-3.122855e-01
-1.627198e-01
-3.126993e-01
-2.036965e-01
-1.548299e-01
-2.721914e-01
-8.726214e-03
-1.291964e-02
-7.699187e-02
-6.538709e-02
-2.222015e-01
-1.291136e-01
-7.627397e-03
-3.121843e-01
-1.424324e-01
9.427427e-02
-1.235637e-01
-2.470070e-01
-1.304219e-01
-1.372223e-01
-2.025561e-01
-8.495767e-02
-7.255241e-02
-7.659137e-02
7.556294e-02
-6.839224e-02
-3.562075e-02
3.684458e-02
1.899868e-02
8.099522e-02
3.589836e-02
4.724357e-02
-2.470937e-02
-1.195181e-02
3.446890e-02
4.777806e-02
1.754453e-01
1.490007e-01
1.117162e-01
2.431306e-01
-6.682607e-02
-1.775519e-01
-1.261126e-01
-2.920286e-02
-9.186024e-02
-6.863960e-02
-7.554989e-02
6.003435e-02
-7.539777e-03
-1.284605e-01
-1.145797e-01
-1.518337e-02
2.512099e-01
3.601064e-01
3.229778e-01
1.056096e-02
1.274079e-01
8.836547e-02
-3.789105e-01
-3.411374e-01
-3.396695e-01
8.285204e-02
1.197299e-01
4.437070e-02
6.609084e-02
1.106379e-01
2.864599e-01
-7.083758e-02
-5.200850e-02
4.631631e-02
3.865885e-02
4.422002e-02
-1.514587e-02
1.744214e-01
2.076881e-01
1.403384e-01
1.263898e-01
2.390819e-01
1.446937e-01
-9.932254e-02
-3.223377e-01
-2.036730e-01
9.815855e-02
-1.169653e-01
-8.065173e-02
8.290430e-02
1.253632e-02
9.979232e-03
-1.024469e-01
-4.864383e-02
9.223977e-02
-5.531912e-03
4.769834e-02
2.028989e-01
8.060902e-04
4.335701e-02
1.294490e-01
-1.648938e-02
-4.479825e-02
-6.530075e-02
-7.300874e-03
-6.898823e-02
-1.045966e-01
6.288809e-03
-6.187817e-02
-6.901355e-02
1.590477e-01
3.012795e-01
2.522646e-01
-3.833868e-02
1.965698e-02
1.165854e-02
-3.712175e-01
-5.100616e-01
-5.073670e-01
-2.396331e-01
-1.584903e-01
-1.257385e-01
-9.226278e-02
-6.340277e-02
-1.402170e-01
4.057654e-02
2.484536e-02
-6.499175e-02
-5.785413e-02
-4.763122e-02
-4.393156e-02
8.130676e-02
5.378912e-02
1.011875e-01
1.947901e-02
2.989952e-02
7.019702e-02
-1.665925e-02
7.300711e-02
1.555815e-01
5.520218e-02
1.014270e-01
1.739152e-01
6.957877e-02
5.122837e-02
1.671952e-02
-1.913317e-01
-1.700108e-01
-2.114580e-01
-2.469658e-01
-3.766353e-01
-2.479443e-01
-1.959035e-01
-2.381810e-01
-1.429388e-01
-1.891583e-01
-1.844494e-01
-1.066885e-01
-1.737017e-01
-2.553299e-01
-1.802072e-01
3.519035e-02
-1.302602e-01
-1.519576e-01
4.942290e-02
5.600185e-02
6.053812e-02
-1.128578e-01
-7.806682e-02
-2.406869e-02
-8.050504e-02
-6.745839e-02
-1.329179e-01
7.231344e-02
-3.091351e-02
-1.780915e-01
4.309581e-03
5.562980e-02
3.061360e-02
1.009590e-01
1.462228e-01
1.144691e-01
8.942880e-02
-1.324040e-02
-1.379102e-01
5.790740e-02
-7.795225e-02
-1.439981e-01
1.070129e-01
4.905039e-03
-1.114289e-01
-1.025051e-01
-8.732448e-02
1.128740e-02
-8.262966e-02
-4.732184e-02
5.756349e-02
2.414057e-03
6.496552e-02
1.542132e-01
-5.382035e-02
-8.352274e-02
-4.883611e-02
-4.574502e-02
-4.458525e-02
9.259827e-03
7.711539e-03
5.817869e-02
9.946789e-02
-5.435407e-02
1.088686e-01
8.985306e-02
4.362004e-02
1.430972e-01
6.286488e-02
-1.022066e-01
4.115901e-02
4.806298e-03
-2.239778e-01
-1.490358e-01
-9.682263e-02
-7.249257e-02
-9.833449e-02
-1.016025e-01
9.960371e-02
7.924633e-02
-2.054822e-02
-1.818241e-01
-5.961251e-02
6.288703e-02
-2.440915e-02
8.129787e-02
1.457385e-01
-4.256126e-03
5.792332e-02
9.898537e-02
1.466891e-02
5.483961e-02
6.663542e-02
3.119397e-02
2.782575e-02
6.628764e-02
7.575896e-02
8.498996e-02
9.988081e-02
5.125909e-02
8.999962e-02
1.285387e-01
3.469429e-02
1.031108e-01
1.987713e-01
3.957898e-02
8.252915e-02
1.391383e-01
-6.811466e-02
1.211617e-02
-5.997941e-02
1.034545e-01
2.183534e-01
1.397949e-01
6.049745e-02
1.099990e-01
7.287578e-02
1.518658e-01
1.518901e-01
1.402837e-01
7.010320e-02
3.909787e-02
-1.208195e-02
-3.697374e-02
-7.156613e-02
-8.995144e-02
1.629557e-01
1.554053e-01
1.053506e-01
3.687656e-02
-8.063451e-02
-3.101063e-02
-5.220246e-02
-8.822151e-02
-8.720104e-02
-1.170706e-02
1.216493e-02
2.546521e-02
6.709988e-02
5.993103e-02
8.756576e-02
6.964532e-02
1.395855e-01
7.706866e-02
1.212169e-01
1.575659e-01
1.172894e-01
6.354652e-02
1.246352e-01
1.580919e-01
-1.040185e-01
-6.022480e-02
-8.850243e-02
1.575580e-01
6.387656e-02
-1.739511e-02
4.199207e-02
-3.674670e-02
-7.037889e-02
-5.386019e-02
-8.938484e-02
-1.389676e-01
1.838492e-01
2.100879e-01
1.292629e-01
2.640306e-01
2.799715e-01
1.638979e-01
4.949985e-02
3.354103e-02
-6.040008e-02
-1.287476e-01
-2.796191e-02
-3.638803e-02
-1.274148e-01
-1.149883e-01
-4.275469e-02
-2.352834e-02
-4.738688e-02
-8.260787e-02
-2.891147e-01
-7.873332e-02
2.340418e-01
-2.381997e-01
-6.566175e-03
2.276088e-01
-5.914016e-02
1.711908e-01
2.183004e-01
-7.584585e-02
-2.232878e-02
2.871151e-02
-1.475414e-01
-2.221678e-03
1.046008e-01
-1.166295e-01
1.038802e-02
1.184300e-01
1.398181e-03
5.155228e-02
9.380054e-02
5.793164e-03
-2.099825e-03
-7.515941e-03
5.092898e-02
1.875269e-02
3.230123e-04
-1.882880e-01
-4.209473e-02
-3.125151e-02
-2.719478e-02
1.075660e-01
1.030970e-01
8.997908e-02
1.630053e-01
3.636658e-02
-9.248982e-02
2.289018e-02
-2.523294e-02
5.110462e-02
2.207774e-02
-5.058799e-02
1.030530e-01
1.241350e-01
9.393410e-02
-4.251172e-03
-9.936030e-02
-5.655982e-02
-3.425650e-03
-5.901648e-02
-1.358895e-01
1.129094e-02
-7.155914e-03
-4.966223e-02
-1.501568e-01
8.117174e-02
2.169534e-01
-9.921128e-02
-5.438774e-02
1.926386e-01
3.363562e-03
1.513944e-01
1.801640e-01
1.632808e-01
-6.488684e-02
-2.167387e-01
6.218960e-02
-8.680058e-02
-2.117939e-01
-6.235282e-02
-2.112085e-01
-2.351966e-01
-7.390696e-03
1.066945e-01
-1.301554e-02
-1.168039e-01
1.747604e-02
-3.313718e-02
-1.398333e-01
7.413843e-02
5.154892e-02
-1.625880e-02
1.049640e-01
1.625392e-01
7.023612e-02
1.193488e-01
2.045326e-01
3.929798e-02
1.503996e-01
2.572990e-01
-8.915973e-02
-5.859128e-02
4.890700e-02
5.941741e-03
-4.148454e-02
2.979913e-02
1.175041e-01
1.225553e-01
1.065287e-01
-1.812417e-01
-7.262744e-02
3.985534e-02
-1.038077e-01
1.164760e-01
3.394587e-01
6.058482e-02
3.001414e-01
4.803451e-01
-2.612564e-01
-1.656869e-01
-1.190539e-01
-1.882416e-01
-8.850570e-02
-6.559045e-02
-7.648716e-02
-2.516216e-02
-1.124168e-01
4.525114e-03
1.149203e-01
1.016906e-01
1.015159e-01
9.324393e-02
1.444625e-01
1.544110e-01
1.580360e-01
1.178314e-01
-3.789456e-02
-7.606713e-03
-7.328542e-02
-9.061296e-03
-1.967738e-02
-4.747963e-02
6.611583e-02
7.786670e-02
1.871914e-02
1.616803e-01
3.048230e-02
-6.253767e-02
-9.574685e-02
-1.496016e-01
-1.529057e-01
-6.557328e-02
-8.869759e-02
-8.482229e-02
-8.731323e-03
4.989312e-02
-1.858980e-01
4.287635e-02
3.818067e-03
-1.588502e-01
1.714608e-02
-7.846288e-02
-1.131390e-01
1.011910e-01
2.540028e-01
3.045626e-02
1.033608e-01
1.549565e-01
-2.381342e-01
2.507533e-02
-1.756072e-01
-1.908068e-01
-7.167669e-02
8.151621e-02
5.024518e-02
-3.178615e-02
6.403571e-02
-1.167603e-01
-4.129793e-02
6.564164e-03
-1.555555e-01
8.975188e-02
2.369857e-01
-1.195519e-01
1.265447e-01
-8.790938e-03
-1.936439e-01
-1.471747e-02
-2.512690e-03
7.184137e-02
-1.902929e-01
-1.690571e-01
8.682062e-02
-1.885429e-01
2.850745e-01
1.835228e-02
-1.932107e-02
-5.405969e-02
-8.395490e-02
-7.496472e-02
4.568692e-02
1.075684e-01
-4.717573e-02
2.236554e-02
5.832398e-02
-2.992010e-02
-7.240415e-03
9.033735e-03
1.056049e-01
-4.940516e-02
-2.608993e-01
-2.479088e-02
-7.706077e-02
-1.631242e-01
1.800184e-02
-5.059724e-02
3.367602e-03
-1.290012e-01
-2.577254e-02
1.522696e-02
-3.724878e-02
-3.511993e-02
-6.259487e-02
-2.320636e-02
-5.237078e-02
-9.564316e-02
-1.600893e-01
-1.054661e-02
3.906052e-02
5.230129e-02
1.720583e-01
1.451306e-01
1.070805e-01
1.699889e-01
1.412047e-01
-1.410047e-02
-7.355736e-02
1.162138e-01
2.816419e-02
-3.866987e-02
2.116152e-01
-5.364042e-02
1.049591e-01
9.938014e-02
-3.903326e-02
-8.523035e-02
-3.036790e-02
-9.587041e-02
-1.010493e-01
-3.075463e-02
-1.070514e-01
-1.765470e-01
-1.017834e-02
-6.141359e-03
1.358868e-01
2.036989e-02
4.417538e-02
2.148495e-02
7.749548e-02
4.924254e-02
8.884678e-02
-5.966056e-02
-3.306774e-02
-1.243089e-01
-2.047710e-01
-5.525543e-02
1.264163e-02
-1.059316e-01
-4.912684e-02
3.513964e-02
-7.781454e-03
8.052211e-02
2.412120e-02
-1.128299e-01
9.229036e-02
2.342653e-02
-5.488903e-02
-4.701393e-02
-6.191264e-02
1.968510e-02
-4.566747e-02
-7.098841e-03
-1.204529e-01
-1.308368e-02
-6.329340e-02
-5.649928e-02
-2.602834e-02
-3.211895e-02
-1.046004e-03
-9.810819e-02
-2.304581e-01
3.226165e-01
-1.035661e-01
1.258020e-01
4.290733e-01
2.369501e-02
4.422331e-01
1.266376e-02
1.014839e-01
-4.944658e-03
-1.159561e-01
8.188146e-02
4.008870e-02
-3.169788e-02
3.269463e-02
4.911735e-03
7.578722e-02
-7.111278e-02
-2.373984e-01
-4.338548e-01
7.056162e-02
2.062134e-02
-1.864223e-01
1.615330e-01
1.279535e-01
7.698043e-02
-1.111397e-01
4.073138e-02
1.011687e-01
-1.625163e-01
3.101344e-02
8.568159e-02
-1.473152e-01
-2.981313e-02
1.135445e-01
1.057886e-03
-6.332739e-02
-7.151854e-02
1.579685e-02
1.287636e-01
1.129107e-01
-1.164116e-01
-1.143280e-02
1.011612e-01
-1.209765e-01
1.244578e-01
1.552224e-01
-8.774117e-02
3.289575e-02
1.148868e-01
-1.321677e-01
-1.176831e-01
-4.626905e-02
-1.986193e-01
-2.281285e-01
-3.887671e-02
-2.073284e-01
-9.992372e-02
-5.582860e-02
-2.129824e-01
-2.331595e-01
-1.035475e-01
8.347506e-02
-5.504361e-02
-4.704406e-02
9.940451e-03
1.730641e-02
-1.195105e-02
2.328335e-03
-2.855826e-03
3.683498e-02
1.946666e-01
3.073041e-01
2.251437e-01
1.895843e-01
2.013216e-01
2.383254e-01
9.295835e-02
1.408104e-01
5.550986e-02
6.746922e-02
2.413845e-02
-2.049347e-01
1.541786e-01
5.840051e-02
-1.668687e-01
2.645065e-01
1.195744e-01
-1.426448e-01
1.868206e-02
8.260143e-04
-1.097762e-01
1.272738e-01
6.202232e-02
2.151581e-02
9.947466e-03
-1.035592e-01
-8.190420e-02
-3.734842e-02
9.726984e-02
1.366788e-01
4.650180e-02
1.439221e-01
1.701420e-01
-2.465256e-03
1.765326e-01
1.641879e-01
1.499023e-01
1.743298e-01
1.399955e-01
2.181442e-01
3.357646e-01
2.704517e-01
-1.375703e-02
5.732971e-02
1.945629e-02
1.227848e-02
5.287037e-02
1.692128e-01
-1.768869e-01
-1.715092e-01
-1.075409e-02
-2.245346e-01
-2.147017e-01
-1.786670e-01
-1.934005e-01
-7.278004e-02
7.861220e-04
-3.075743e-01
-1.607664e-01
-1.891095e-02
-2.467488e-01
-3.171820e-02
2.382088e-02
-1.427321e-01
2.161851e-02
1.479799e-01
-1.503195e-01
-9.492601e-03
8.840048e-02
-2.420661e-01
-1.534624e-01
-8.235813e-02
-2.402837e-02
7.583091e-02
4.632672e-02
-1.385971e-02
1.272544e-02
-4.400968e-02
-2.296627e-02
-2.549725e-01
-2.897715e-01
-8.732107e-04
1.983994e-02
-1.517532e-01
1.689631e-02
-6.138729e-02
-1.946579e-01
1.721500e-01
6.765503e-02
-1.063410e-01
-1.753149e-01
-8.688000e-02
-4.595160e-02
-1.041997e-01
-3.415830e-02
-5.421426e-03
-5.221460e-02
1.721028e-02
7.673470e-02
1.256804e-01
6.110200e-02
-3.382716e-02
1.548467e-01
1.124372e-01
4.299577e-02
8.604951e-02
3.039905e-03
1.750526e-02
-1.774802e-01
-6.077562e-03
3.406984e-02
-1.861065e-01
-1.162035e-01
-6.765533e-02
6.008929e-02
3.855653e-02
-5.648121e-02
-1.283820e-01
-2.073234e-02
-7.828069e-02
-1.162388e-01
-2.697754e-01
-1.231773e-01
2.297350e-02
-1.166204e-01
-2.361864e-01
-1.571686e-01
-1.419679e-02
1.837080e-01
-2.409904e-01
-1.344410e-01
7.445404e-03
-2.519650e-01
-2.007376e-01
-6.991844e-02
-5.326469e-03
-2.430832e-02
2.059571e-02
5.137777e-02
1.042634e-02
2.775217e-02
1.027217e-01
5.209895e-03
-4.750323e-03
-1.302131e-01
-3.805926e-02
-1.670911e-02
6.940976e-02
1.659784e-01
1.135381e-01
-9.205065e-02
1.129027e-01
7.027575e-02
1.023091e-01
1.340009e-01
-7.196155e-02
2.461272e-01
2.730078e-01
1.424418e-01
3.136044e-01
3.884140e-01
2.766466e-01
1.129832e-01
-5.618908e-02
-1.262442e-01
-8.394963e-02
-1.156734e-01
-1.992341e-01
-1.301707e-01
-1.974663e-01
-1.299948e-01
3.784705e-02
1.970809e-02
1.247372e-03
2.741916e-02
-6.773832e-03
2.554656e-02
1.255305e-02
3.112438e-02
-4.774413e-02
-1.817291e-01
-1.568801e-01
-1.767575e-01
-1.192786e-01
1.935606e-03
-6.013669e-02
-2.854813e-02
4.017291e-02
-6.969871e-03
6.375707e-02
1.916953e-01
1.892578e-01
6.784133e-02
1.661129e-01
1.842370e-01
-6.715453e-02
3.915001e-02
1.437480e-02
1.999916e-01
8.489072e-02
-7.659847e-02
1.452489e-01
3.608616e-02
-1.679934e-02
1.745965e-02
-1.745259e-02
-1.122338e-01
1.180932e-01
-1.188229e-02
-8.827386e-02
1.028019e-01
-3.610567e-02
-1.411729e-01
3.378905e-02
-6.597354e-02
-1.431287e-01
-2.394881e-02
2.287028e-02
6.381847e-02
-6.378352e-02
3.287949e-03
3.979950e-02
-1.249229e-01
-1.765385e-01
-1.013932e-01
8.448802e-02
-4.006352e-02
1.037104e-01
1.047194e-01
-1.305372e-01
1.066560e-01
1.271273e-01
-1.377719e-01
5.533154e-02
-9.180277e-02
4.075934e-02
-1.249436e-02
-6.863978e-02
4.084724e-02
1.991374e-02
-4.861291e-02
-1.169817e-02
-1.349509e-02
1.567644e-02
2.918787e-02
-4.816476e-02
-2.429389e-02
6.771686e-03
-6.862411e-02
8.005925e-03
-1.068196e-02
-8.114058e-02
9.075212e-02
-2.650673e-01
1.563050e-01
1.988573e-01
-2.692087e-01
1.430012e-01
1.550296e-01
-3.081934e-01
7.955275e-02
-1.628512e-01
2.304773e-01
-2.290522e-01
-3.063335e-01
4.429496e-01
-2.379479e-01
-1.855413e-01
3.151701e-01
-8.604393e-02
-2.780020e-02
3.511366e-02
-8.492451e-02
4.464125e-02
1.655877e-01
-1.360904e-02
1.266973e-02
2.937104e-02
-1.797493e-01
-3.924042e-02
-1.938401e-01
1.446308e-01
-1.550969e-02
-1.824034e-01
9.699688e-02
4.104262e-02
-2.160639e-01
1.041400e-01
-6.241922e-02
6.571240e-02
-1.530275e-01
-2.577931e-02
7.270519e-02
-6.592095e-02
-7.939121e-02
1.392049e-02
-1.041150e-01
-1.057229e-01
-3.210933e-02
5.680325e-02
-7.303507e-02
1.038297e-02
7.462729e-02
-1.086432e-01
-6.021760e-02
-1.567527e-02
-2.410831e-02
-3.357561e-02
-3.422682e-02
-6.824335e-02
2.609641e-02
-4.801356e-02
-6.126769e-02
-7.285647e-02
-4.142488e-03
-1.565657e-01
1.823492e-01
-1.284842e-01
-1.548526e-01
1.961728e-01
-5.692444e-02
-1.403527e-01
4.941441e-02
-1.264422e-01
2.137227e-01
-4.559687e-02
1.334893e-01
1.080939e-01
-1.213564e-01
7.171329e-02
1.208892e-01
-1.269196e-01
1.799156e-02
-9.460904e-02
6.910283e-02
4.633829e-03
-6.433668e-02
8.615927e-02
-6.105449e-02
-5.890029e-02
8.897990e-02
-3.250840e-02
-9.066229e-02
1.955129e-01
-1.429575e-01
-1.064495e-01
2.366888e-01
-1.345057e-01
-7.951908e-02
1.911667e-01
3.416669e-02
-7.234614e-02
-1.658556e-01
3.311695e-03
4.799565e-02
-7.740283e-02
1.122117e-01
2.332573e-02
-1.576397e-02
8.075785e-02
1.171674e-01
-4.003553e-01
2.395210e-01
1.594983e-01
-4.152172e-01
2.746687e-01
5.489410e-02
-2.571894e-01
9.980405e-02
-2.895008e-01
-2.145759e-01
-2.052278e-02
-1.417103e-01
-4.040575e-02
-5.550766e-02
2.520299e-02
2.883890e-02
2.938672e-02
3.450722e-02
-2.399632e-01
-3.745481e-01
2.958182e-01
6.739419e-02
-2.857040e-01
3.000137e-01
1.499350e-01
-1.642413e-01
-1.511981e-01
2.102605e-02
1.421914e-01
-1.871983e-01
-6.834461e-02
6.863957e-02
-2.137021e-01
-3.387202e-01
-1.560721e-01
-2.828995e-01
-1.124436e-01
1.253418e-01
-8.201109e-02
7.655068e-02
2.611896e-01
-4.817874e-02
1.446208e-01
1.520725e-01
-8.837090e-02
2.701256e-03
9.855446e-03
-1.045959e-01
-3.699789e-02
8.785609e-02
-2.765257e-01
-1.752998e-01
-4.804185e-02
-7.921468e-02
-2.030370e-01
-1.417483e-01
2.314785e-01
-6.148338e-02
-2.312411e-01
2.872408e-01
1.426145e-02
-2.434337e-01
6.213511e-02
-7.785102e-02
-1.327963e-01
6.974366e-02
-1.774199e-02
-1.357294e-01
1.188801e-01
6.079109e-03
-8.864823e-02
-1.903295e-01
-9.799446e-02
1.485907e-01
-1.807957e-01
-1.601448e-01
1.763652e-02
-3.577079e-02
-1.498936e-01
-1.122586e-01
1.012871e-01
-1.227508e-01
-1.747697e-01
6.510685e-02
-1.243917e-01
-1.017967e-01
3.202785e-03
-1.172402e-01
-5.130527e-02
-2.338625e-04
-8.148337e-03
-6.133025e-02
-3.975845e-02
5.161239e-02
-5.798193e-02
4.901497e-02
-5.129332e-02
-4.503731e-02
5.840413e-02
2.408047e-01
2.093446e-01
1.523359e-01
3.048965e-01
2.478095e-01
5.070323e-02
1.732355e-01
1.271667e-01
6.205390e-02
-6.173111e-02
1.250405e-03
-1.457940e-01
-9.303646e-02
-4.828832e-02
-7.961163e-02
-1.315540e-01
-6.979334e-02
3.065233e-03
5.983758e-02
1.521627e-01
-2.876094e-02
8.081507e-03
1.199872e-01
8.446664e-02
9.867320e-02
8.537288e-02
-1.438265e-01
-1.015028e-01
2.986173e-02
-2.520215e-01
-2.006964e-01
-1.189530e-01
-1.651331e-01
-2.717860e-01
-1.490098e-01
-9.353087e-02
4.558542e-02
3.155112e-02
-1.203024e-01
3.086259e-02
-3.544609e-03
-1.347432e-01
-1.418616e-04
-6.764352e-02
2.241455e-03
2.171252e-01
1.565709e-01
-9.495617e-02
1.310537e-01
1.430827e-01
-1.822803e-01
-1.324430e-01
6.307934e-02
1.291549e-01
3.484952e-02
-5.100162e-02
1.889361e-01
1.643028e-01
4.756705e-03
2.248890e-01
2.931167e-01
2.529344e-01
1.861331e-02
2.703358e-02
1.011553e-01
7.528898e-02
1.131500e-02
1.684182e-01
9.334157e-02
7.849748e-02
9.225707e-02
1.073557e-01
-4.871187e-03
4.284880e-02
4.217742e-02
-1.044634e-02
-3.830320e-02
-8.259841e-02
-1.319626e-01
-1.816859e-01
-2.414485e-02
-7.059521e-02
-2.350735e-02
-4.424674e-02
-6.402253e-02
2.190176e-01
1.769792e-02
7.790877e-02
2.207453e-01
-1.497595e-01
-1.235541e-01
4.618844e-02
-1.365260e-01
-1.438682e-01
4.702943e-03
-1.702770e-01
-1.837538e-01
2.682111e-03
-3.971837e-02
1.940748e-02
6.789532e-02
4.694247e-02
6.247940e-02
6.262913e-02
-1.701059e-02
-2.371280e-02
-3.236553e-02
-6.633113e-02
-1.321901e-01
-1.790358e-01
5.828553e-02
-8.612697e-03
-1.740300e-01
1.222254e-01
1.251258e-01
2.283451e-02
1.073418e-01
3.829787e-01
5.011164e-01
-3.171485e-02
5.703896e-02
5.457124e-01
-1.245125e-01
-1.019277e-01
1.984394e-01
-1.045711e-01
-7.866528e-02
-3.920637e-02
-8.763292e-02
-1.537007e-01
-2.057077e-02
-9.158099e-03
-1.007560e-01
-5.308760e-02
-6.117370e-02
-1.419429e-01
-1.909997e-01
2.739594e-02
-5.576181e-03
-2.814564e-01
5.302498e-02
-4.511357e-02
-1.910988e-01
-1.450216e-02
-6.341287e-02
-1.017104e-01
-1.457399e-03
-4.513202e-02
-1.063886e-01
2.114734e-02
7.288721e-02
-3.064118e-02
1.824776e-02
5.851022e-02
4.437719e-02
7.507847e-02
8.842136e-02
1.114541e-01
6.175935e-02
3.912854e-02
4.715997e-02
-8.866807e-02
-6.410006e-02
-5.858719e-02
-6.437542e-02
-1.298988e-01
-8.849379e-02
-3.610788e-02
-1.011360e-01
-1.477297e-01
-5.473214e-02
-8.454090e-02
1.196134e-01
-5.724275e-02
-6.773353e-02
-5.137083e-02
9.022293e-02
-7.463062e-02
-9.360501e-02
-1.572681e-02
6.719060e-02
1.558873e-01
-7.612287e-03
9.720884e-02
1.308924e-01
-1.316523e-01
2.824447e-02
1.068173e-01
-9.343500e-02
2.050039e-01
1.422261e-01
-1.409736e-01
5.849152e-02
2.194961e-01
-1.275727e-01
-1.952220e-01
-5.007901e-02
1.286781e-01
-5.633229e-02
-1.443094e-01
1.400215e-01
-6.244917e-03
-1.554549e-02
1.161196e-02
-7.208646e-02
-5.823516e-02
-2.898812e-01
-3.238502e-01
-3.535476e-01
-2.260316e-01
-1.570268e-01
-2.969390e-01
-1.269377e-01
-1.164072e-01
-1.205923e-01
-1.343390e-01
-7.110041e-02
-9.432918e-02
-1.120493e-01
-3.165316e-02
-6.830490e-02
-1.136557e-01
-4.664641e-02
-2.058961e-02
1.382193e-01
1.688261e-01
1.361845e-01
-1.474424e-01
-2.383480e-01
-1.966126e-01
-1.656097e-01
-2.210496e-01
-3.206650e-01
7.779364e-02
1.552270e-01
1.068694e-01
1.009614e-01
8.207685e-02
9.232025e-02
-9.979486e-02
-9.901215e-02
-8.661114e-02
-5.940294e-02
4.307682e-02
6.743189e-02
-1.182545e-01
-7.915491e-02
-4.089727e-03
-7.804043e-02
-1.199890e-01
-5.601517e-02
1.378566e-01
3.957627e-02
1.547177e-02
7.601460e-02
6.111803e-02
9.806888e-02
1.745667e-02
2.193166e-02
9.166148e-02
-2.631703e-01
-1.084953e-01
-1.471770e-01
-8.869940e-02
1.020467e-01
-1.695509e-01
-1.170579e-01
5.158642e-03
-1.073328e-01
-7.976609e-02
-9.130674e-02
-1.593933e-01
-1.487906e-02
-2.519818e-03
-1.949139e-01
1.717863e-02
2.380551e-02
-5.563126e-02
-8.978221e-02
-1.114779e-01
-1.587315e-01
3.826737e-02
-7.935969e-03
-1.227298e-01
-5.514152e-02
-1.230118e-01
-1.662775e-01
9.563147e-02
1.175250e-01
7.086936e-02
1.103222e-01
5.241955e-02
6.906442e-02
-3.058483e-02
4.026344e-02
8.273955e-03
-9.271137e-02
-8.238474e-02
-4.349303e-02
-9.221372e-02
-1.651205e-01
-4.140070e-02
-5.457291e-03
7.806658e-02
3.874486e-02
-3.420199e-02
-4.552745e-02
-1.021596e-01
-1.650209e-03
-1.534083e-02
-2.432198e-02
-6.628443e-02
-9.041520e-02
-4.150531e-02
-6.303309e-02
-1.904201e-01
-1.698482e-01
9.993859e-02
-8.497188e-03
-1.040822e-02
2.125791e-02
5.606564e-02
1.045415e-01
4.814559e-02
8.185459e-02
1.919005e-02
4.689788e-02
5.281436e-02
4.854567e-02
-6.084269e-02
-7.304492e-02
-5.094652e-02
-1.199347e-01
-1.291604e-01
-1.932961e-02
-1.610740e-02
-1.736171e-01
-1.494216e-01
-1.274758e-01
-1.211489e-01
-1.154541e-01
1.612850e-01
2.022052e-01
7.332938e-02
3.185786e-03
2.965824e-02
1.364255e-03
-5.981757e-02
-5.511640e-02
-2.665620e-02
2.874325e-02
-4.923873e-02
5.215426e-02
-1.327237e-01
-6.873760e-02
-1.033817e-01
-1.938127e-01
-2.592514e-01
-1.012605e-01
-7.942133e-02
1.655389e-02
-2.264339e-02
2.195495e-03
7.883801e-02
-2.239665e-03
-2.366609e-02
-1.259548e-02
-5.213406e-02
-1.925000e-01
-1.919852e-01
3.740542e-02
-2.653497e-01
-2.372982e-01
-1.426318e-02
-1.033256e-01
2.009482e-02
1.060452e-01
-2.825448e-02
-1.309333e-02
-3.811986e-03
-1.489687e-01
-2.769795e-01
-1.945008e-01
1.451217e-02
-3.418538e-02
-1.231101e-01
-1.057854e-01
2.329449e-02
5.019531e-02
-1.695997e-01
1.150142e-01
1.406226e-01
-9.868775e-02
1.087250e-01
9.657508e-02
2.616176e-01
2.419679e-01
1.998512e-01
8.815388e-03
1.488848e-01
1.056022e-01
-1.082431e-01
-5.555855e-02
-1.318400e-01
-8.009284e-02
-2.406826e-01
-6.752509e-04
3.031839e-01
2.415588e-01
4.056797e-01
1.750083e-01
3.099555e-01
4.278305e-01
-6.217885e-02
-2.281826e-01
-1.352208e-01
-1.904109e-02
-8.349351e-02
5.084712e-02
-8.882091e-02
-4.803577e-02
6.756852e-02
6.641466e-02
5.385457e-02
-1.308219e-02
-9.711060e-02
-4.406536e-02
-1.214815e-01
-2.770537e-01
-2.647658e-01
-1.004756e-01
-6.842959e-03
-3.192663e-02
-5.503847e-02
-2.869413e-03
-1.390351e-02
-9.861263e-02
8.297240e-02
1.208347e-01
-3.481888e-02
-1.791537e-02
1.641536e-01
1.176845e-01
1.225018e-01
1.311282e-01
1.328029e-01
6.217834e-02
1.298638e-01
6.026260e-02
-2.393745e-02
8.323159e-02
1.506810e-01
8.477686e-02
1.425527e-01
1.240138e-01
-1.401818e-01
-1.311343e-01
-2.216736e-01
2.270069e-01
1.240995e-01
5.748117e-02
3.076702e-02
-3.196268e-02
2.658969e-02
-1.180745e-01
-1.581540e-01
-1.623898e-02
1.556364e-02
-1.321157e-03
-1.253755e-02
1.480888e-01
1.186613e-01
4.614809e-02
2.599446e-01
1.862999e-01
9.003003e-02
-1.321557e-01
-8.276559e-02
-2.672896e-02
1.912434e-01
1.628131e-01
9.162245e-02
2.041645e-01
9.158340e-02
-4.618163e-02
2.822119e-02
-6.531797e-02
-1.341334e-01
1.836752e-02
-1.219262e-01
-2.320691e-01
3.072346e-02
-1.076343e-01
-2.222285e-01
-4.868715e-02
8.343898e-02
9.979054e-02
-1.521293e-02
5.382554e-02
9.073342e-02
6.985189e-03
1.014749e-01
9.888286e-02
-1.189405e-01
-1.863770e-01
-2.624217e-01
5.724020e-03
-6.611983e-02
-2.304935e-01
-8.745996e-03
-1.208696e-01
-2.920935e-01
7.013451e-02
6.482139e-02
1.461030e-03
1.197757e-01
1.082266e-01
1.216373e-01
1.057092e-01
9.974598e-02
1.349210e-01
8.480030e-02
1.151378e-01
-3.367781e-02
1.227131e-01
1.648610e-01
1.169923e-01
2.639333e-02
1.857111e-01
2.360837e-01
-2.570569e-01
-2.001678e-01
-1.141642e-01
-1.317732e-01
-1.648724e-01
-1.446393e-01
-5.872869e-02
-1.383686e-01
-2.403564e-01
-7.484588e-02
-2.970809e-02
-2.521996e-02
-2.845928e-02
-2.756369e-02
-3.184104e-02
-2.474209e-03
3.650782e-02
-1.405035e-02
8.039761e-02
2.023896e-01
1.468235e-01
1.979566e-01
2.246896e-01
2.017203e-01
2.283289e-01
3.189192e-01
1.957577e-01
-1.480757e-01
-5.063453e-02
1.174927e-01
-1.179910e-01
-4.236732e-02
1.916849e-01
-2.045870e-01
-2.497362e-02
1.611889e-01
2.515351e-01
5.859597e-02
-1.337049e-01
1.534105e-01
9.808388e-02
1.986803e-02
-4.611519e-02
3.162694e-02
-2.586487e-02
-5.134728e-04
-5.758811e-02
-3.257921e-02
9.329950e-02
-2.091221e-02
-8.969527e-02
1.511125e-01
-1.250136e-02
-1.296650e-01
-8.171666e-02
-8.712770e-02
-2.105933e-01
-8.145777e-02
-1.028636e-01
-2.125861e-01
3.583660e-02
-3.617143e-02
-1.055627e-01
3.914909e-02
-9.851059e-03
3.430672e-02
-2.082048e-03
-1.018055e-02
-4.821733e-02
9.731155e-02
1.448494e-01
1.135306e-01
2.275877e-02
3.713734e-02
2.444439e-02
7.674476e-03
8.397689e-02
4.195160e-02
-3.965364e-03
4.523358e-02
-2.828981e-02
-7.401256e-02
-4.849060e-02
2.802205e-02
-5.173848e-02
-5.669655e-02
4.140146e-02
5.078255e-02
-2.001260e-02
2.308252e-02
-1.279732e-01
-1.108080e-01
2.482211e-02
-2.423811e-01
-1.192992e-01
-9.524486e-02
-6.816874e-02
-8.797818e-02
-1.090202e-01
