-1.575630e-02
-3.051766e-02
-6.176082e-03
-3.121758e-02
-1.188455e-02
-7.001094e-03
-2.154283e-02
-6.131063e-03
-6.294507e-02
8.613028e-02
9.988962e-02
5.218440e-02
1.376686e-01
9.601213e-02
1.793508e-03
1.273735e-01
9.395447e-02
6.423797e-02
-1.450322e-01
-2.394469e-02
-7.793695e-02
7.473202e-02
2.176517e-01
-9.649325e-03
-3.912504e-02
-1.007025e-01
-1.438708e-01
-2.969854e-02
4.548280e-02
-2.686504e-02
1.597052e-02
3.085707e-02
-1.259071e-03
6.428613e-02
3.399993e-02
5.943247e-03
-2.201618e-01
-1.681012e-01
1.521184e-01
-7.893827e-02
1.607777e-01
1.430866e-01
-2.530155e-02
-2.911814e-02
-1.988027e-03
-2.733503e-02
-6.862736e-02
-2.579241e-02
-8.333051e-02
-1.003421e-01
-4.957768e-02
-1.235356e-01
-1.496436e-01
-1.339731e-01
1.282931e-01
5.938488e-02
-1.474771e-02
-2.146025e-02
-2.948391e-02
8.971644e-02
-4.549433e-02
8.404867e-02
3.441319e-02
-8.342274e-03
-4.216582e-02
-3.879646e-01
3.391220e-02
-1.785160e-01
1.718615e-01
-5.115506e-02
7.451388e-02
-1.476144e-01
5.279734e-03
2.457350e-01
-5.215849e-02
1.356703e-01
-1.131822e-01
-8.243872e-02
-6.777702e-02
-1.037944e-01
1.194142e-01
-1.371358e-01
-1.271968e-01
-1.298411e-01
-3.214341e-02
2.285923e-02
-9.920574e-02
-4.129615e-02
-2.009218e-02
-1.016119e-01
-2.390413e-02
7.480938e-02
8.760667e-02
-2.798920e-02
-6.010737e-02
4.742288e-03
-2.937568e-03
-1.396461e-01
-6.850526e-02
4.235432e-02
1.760915e-03
-7.702716e-02
1.623044e-01
4.208057e-02
-7.624637e-02
1.427425e-01
1.982604e-02
-5.604539e-02
-1.100285e-02
2.178141e-02
-2.651276e-02
5.736377e-02
5.480805e-02
-8.576609e-03
6.922651e-02
1.064221e-02
-1.219579e-02
-4.268650e-02
3.086256e-01
-1.257178e-01
-1.144393e-01
-4.809021e-01
-2.005371e-01
-1.576282e-01
2.182783e-01
1.460338e-01
2.551026e-02
-1.933420e-02
-1.730947e-02
-2.568678e-02
-2.963632e-02
6.432238e-02
4.458332e-02
9.238703e-02
4.860214e-02
-1.111557e-01
-7.642219e-02
-6.939009e-02
-3.436752e-02
4.703823e-02
3.513142e-02
-7.286083e-03
3.279569e-02
3.577075e-03
-1.199416e-01
6.456576e-02
1.375210e-01
-1.049343e-01
3.106327e-02
1.637057e-01
-1.863978e-01
-1.807300e-01
-7.136955e-02
1.621303e-01
2.653094e-01
1.209995e-01
9.243876e-02
1.355098e-01
1.091234e-01
-9.009284e-02
-8.307636e-02
-5.436963e-02
-8.491180e-02
-7.182112e-02
-2.636464e-02
-9.358871e-02
-2.560261e-02
3.063893e-02
-2.152778e-02
4.044355e-02
6.715978e-03
5.449415e-03
2.323093e-02
3.696311e-02
-1.314874e-02
-5.301537e-04
5.219859e-02
1.206027e-02
2.705348e-02
4.468094e-02
-2.394208e-02
-2.379240e-02
1.742088e-03
5.470331e-02
1.607201e-01
1.471646e-01
4.149631e-02
1.438006e-01
1.239822e-01
-7.371296e-02
-1.695658e-01
-1.465545e-01
-6.331196e-02
-1.354944e-01
-9.685738e-02
1.948145e-02
-3.503749e-02
-4.744821e-02
-6.064004e-02
-1.771840e-01
-1.063143e-01
3.510969e-02
-1.183611e-01
-1.418336e-01
1.586726e-01
1.135960e-01
3.281317e-02
2.951497e-02
2.764781e-03
3.903555e-03
-5.476405e-03
5.340670e-02
1.836224e-02
7.053147e-04
-1.560031e-02
9.080420e-03
2.364282e-02
-1.899273e-02
-3.754031e-02
2.991334e-02
-4.505443e-02
2.108592e-02
3.891726e-03
-1.534765e-02
1.239769e-02
6.739055e-03
7.192761e-02
-1.045550e-01
-3.837769e-02
-8.954262e-02
-1.579451e-01
-1.427394e-01
-2.769652e-01
-2.593328e-01
3.534634e-02
1.805351e-02
8.750049e-03
-4.733252e-02
-2.616340e-02
-6.214460e-03
-2.930906e-02
-3.038128e-02
5.168603e-02
-2.758034e-02
-7.663327e-02
-1.017154e-01
-5.832223e-02
-1.084219e-01
-1.463255e-01
-4.036568e-02
-6.547952e-02
-1.082446e-01
-2.657831e-02
-2.653875e-02
-7.097699e-02
1.524931e-01
2.486814e-01
1.065496e-01
1.702886e-01
3.591818e-01
2.635316e-01
8.889728e-03
7.530832e-02
6.107414e-03
-9.341892e-02
1.814407e-02
3.040397e-02
-3.386347e-03
1.086534e-02
5.358663e-03
4.812770e-02
-1.668206e-03
2.301689e-02
1.719778e-02
-1.075202e-02
1.659270e-02
-6.387106e-03
-6.642132e-02
-4.200651e-02
-1.996166e-01
-1.687950e-01
-2.013317e-01
-1.139438e-01
-3.992512e-02
-1.113402e-01
-2.698253e-02
9.116445e-02
-1.960075e-02
-6.728933e-02
-4.760253e-02
-4.568738e-02
2.169897e-02
1.269312e-02
-1.571391e-02
5.799181e-02
6.610130e-02
2.201026e-02
-1.644983e-01
-1.172471e-01
-1.044977e-01
-5.063895e-03
-1.695991e-02
-5.718029e-02
1.732946e-01
1.362880e-01
2.833080e-03
1.132765e-01
9.218229e-02
2.111888e-02
9.727922e-02
1.553241e-01
1.243672e-01
6.488124e-02
1.441738e-01
1.305652e-01
4.340120e-02
1.978921e-03
3.272490e-02
3.361399e-02
-9.346993e-03
1.534650e-02
7.826111e-02
3.166365e-02
5.104921e-02
2.935999e-02
3.330239e-02
2.251076e-03
-7.060800e-02
-5.664438e-02
-4.726615e-02
-6.484552e-02
-2.516222e-02
-2.530561e-02
-4.798511e-02
-8.074889e-02
-6.502832e-02
5.154211e-02
3.467324e-02
4.616821e-02
5.215967e-02
1.571364e-02
5.473396e-02
1.308029e-01
8.497568e-02
-1.387165e-03
1.648345e-01
1.972823e-01
1.046098e-01
-8.711124e-02
-2.671544e-02
2.025662e-02
-1.084510e-03
-6.044000e-03
4.257851e-02
-8.355366e-02
-1.210128e-01
-7.428374e-02
8.092228e-02
-4.552202e-02
-8.535318e-02
3.840508e-02
-4.462874e-02
9.719482e-03
-9.455496e-03
-8.872164e-02
-1.035429e-02
-6.606127e-02
-1.083481e-01
-4.018309e-02
-2.493735e-01
-2.749279e-01
-2.532780e-01
1.502424e-02
-2.045540e-02
-1.003544e-01
3.913442e-01
3.711320e-01
1.702422e-01
-3.989215e-02
-7.632741e-02
-1.626870e-02
-3.051250e-02
-8.464857e-02
-4.692088e-02
6.942365e-02
-3.872106e-02
-7.375291e-02
3.352830e-02
4.961110e-02
1.106135e-01
-2.898832e-02
-2.308398e-02
4.886120e-02
-2.989303e-02
-2.268820e-02
6.802548e-03
5.107132e-02
8.251296e-02
3.027615e-02
-1.711699e-01
-1.333968e-01
-9.036300e-02
-8.901200e-02
-9.621564e-02
-6.775204e-02
-8.912224e-02
-5.731970e-02
5.080882e-02
2.581655e-02
5.616096e-02
5.339710e-02
-2.032446e-03
1.613926e-01
1.524894e-01
-4.533473e-02
7.650263e-03
-6.836147e-03
-1.072507e-01
-4.271742e-02
-3.005686e-02
-3.741105e-02
-1.637324e-02
-3.331670e-02
-6.045914e-02
-5.164368e-02
-5.016344e-02
-5.908367e-02
-5.703400e-02
-6.132839e-02
-9.304421e-02
-8.815635e-02
-8.254004e-02
2.368760e-01
1.586822e-01
2.292331e-02
1.292837e-01
1.334463e-01
2.083093e-02
1.488260e-01
1.172471e-01
1.786970e-02
-1.085539e-02
-5.411052e-02
6.525348e-03
-6.133828e-02
-2.484214e-02
1.571297e-02
4.065466e-02
6.029576e-02
5.248164e-02
-2.253826e-02
1.065309e-01
-8.461153e-02
-3.198434e-02
-4.114843e-02
-1.659996e-02
5.038404e-02
-9.973638e-02
6.751565e-02
-1.956082e-03
-5.626118e-03
-1.226733e-01
9.202361e-02
-5.271098e-03
-9.908819e-02
8.340718e-02
-3.651414e-03
-2.944028e-02
-1.459044e-01
5.994548e-02
8.433412e-02
-2.229069e-01
1.977342e-01
-4.572977e-02
-1.311439e-01
8.422002e-02
5.739011e-02
1.074525e-02
-4.721498e-02
-1.528285e-01
7.885463e-02
3.143737e-02
-5.830284e-02
1.118492e-02
-4.907689e-02
-1.376753e-01
-9.221801e-02
-5.322007e-02
1.143654e-01
-8.977219e-02
-2.404864e-02
1.716852e-01
-1.011609e-01
1.347324e-01
1.923316e-01
-5.839958e-02
-3.485301e-01
3.075095e-02
-1.502811e-02
-5.824167e-01
4.699267e-01
-1.884696e-01
-1.091288e-01
-1.351954e-01
3.332818e-01
-2.118785e-01
-3.284077e-01
6.593584e-01
-3.982923e-01
-3.479636e-01
7.231767e-02
-3.794553e-03
-3.187908e-01
-3.911053e-02
-7.633921e-03
6.825414e-02
-4.668549e-02
2.371320e-02
1.354422e-01
-3.794800e-02
-4.745593e-03
1.628667e-01
2.605960e-01
2.377921e-01
-1.167998e-01
2.798458e-01
2.718780e-01
-4.881348e-02
1.064419e-01
1.806155e-01
-4.369121e-02
7.424275e-02
1.446239e-02
-2.512751e-02
8.477222e-02
-3.065689e-02
-4.897749e-02
7.901151e-02
-2.652062e-02
-7.379974e-02
3.337505e-02
1.077914e-02
-8.805119e-02
1.315006e-01
1.688788e-02
-8.182555e-02
1.573772e-01
-4.848767e-02
-9.139675e-02
-6.467343e-02
-3.886466e-02
-2.041798e-03
2.651162e-01
-3.116908e-01
-3.571880e-02
-1.548961e-01
8.013689e-02
-9.156910e-02
2.439027e-01
1.506148e-01
5.451717e-02
2.080401e-01
1.481926e-01
-1.441264e-03
2.207260e-01
2.005254e-01
4.123411e-02
-1.803289e-02
-5.607227e-02
5.122147e-02
-4.556408e-02
-7.277351e-02
3.267231e-02
-1.610870e-02
-7.118835e-02
4.031092e-02
7.055588e-02
5.144286e-02
6.430002e-02
4.412466e-02
1.289199e-01
1.900479e-01
-3.906440e-02
7.569171e-04
6.595675e-02
8.322346e-02
7.316052e-02
-2.813720e-02
4.063995e-02
7.303035e-02
1.979220e-02
-1.834282e-01
-1.366748e-01
-1.616444e-01
-1.930224e-01
-1.919415e-01
-9.948301e-02
-5.059028e-01
-6.431074e-01
-5.295090e-01
-3.178007e-01
-3.556620e-01
-3.279208e-01
-1.794811e-02
-1.098539e-02
3.326071e-02
-8.599960e-03
2.679691e-02
2.709219e-02
6.633163e-02
8.081206e-03
1.993579e-02
2.341265e-01
2.678950e-01
1.467007e-02
6.218374e-02
5.711960e-02
6.725430e-02
-8.387307e-02
-4.379188e-02
1.177691e-01
-9.394976e-02
-3.993831e-02
-6.863737e-02
1.145862e-02
5.289100e-02
-5.187758e-02
-8.621448e-03
-2.810403e-02
9.223504e-05
-5.181335e-02
-3.079388e-02
6.511898e-02
9.617108e-02
3.621933e-02
4.211904e-02
1.430648e-01
5.908304e-02
5.028711e-02
-3.199624e-02
-3.160051e-02
3.610641e-01
2.440637e-02
-5.696046e-02
-1.747730e-01
-1.014423e-01
5.452969e-02
-1.159346e-01
9.175831e-02
-1.809366e-01
1.429600e-02
-3.759890e-02
1.042553e-01
-5.266419e-03
1.316531e-02
1.518559e-01
3.358474e-02
7.066511e-02
2.465521e-01
1.819294e-01
-1.539941e-01
-1.626804e-01
-9.749278e-02
-1.438489e-01
-2.220799e-01
-1.468768e-01
-5.790779e-03
-1.313556e-01
-1.758684e-01
-1.033146e-01
-1.407688e-01
-1.676273e-02
-2.091750e-01
-8.773027e-02
7.647404e-02
1.955541e-01
1.514336e-01
1.425542e-01
4.991965e-02
1.913777e-02
9.525828e-02
5.884720e-02
4.040334e-02
1.281301e-01
-1.361054e-01
-7.880571e-02
2.002279e-02
4.711338e-02
7.131987e-02
7.744179e-02
5.096971e-02
8.663202e-02
4.929714e-02
-1.219442e-01
-2.865006e-01
-1.576745e-01
-1.450040e-01
1.792551e-02
-2.184052e-01
-1.089145e-01
-1.482546e-01
-1.284515e-01
1.597431e-02
1.106824e-01
-1.027204e-01
9.101524e-02
1.890282e-01
-2.450570e-02
-4.866990e-02
-5.537724e-02
-1.200900e-01
-8.322015e-02
-2.308207e-02
-6.118018e-02
-1.201943e-01
-1.101100e-01
-1.214191e-01
1.164571e-02
-1.164596e-02
1.567215e-02
3.819062e-02
1.719375e-02
2.372868e-02
3.242768e-03
-1.331065e-02
-1.664105e-02
-8.074367e-03
-4.037534e-02
-5.751124e-02
9.490098e-02
-4.333116e-02
-3.653836e-02
8.595336e-03
-5.381350e-02
-3.853919e-02
-2.419644e-02
-4.333540e-02
-1.252827e-02
1.289760e-02
-1.891345e-02
4.742538e-02
4.589502e-02
-1.453355e-02
-5.155853e-02
1.342672e-01
1.083371e-01
2.202575e-03
3.550316e-02
5.958416e-02
5.023970e-02
2.544969e-02
4.502618e-02
-5.281880e-04
7.791104e-03
4.136185e-02
-9.018522e-03
2.823454e-02
5.958322e-02
1.622553e-01
-6.801327e-02
-6.231366e-02
3.771207e-02
8.905912e-02
-2.329900e-02
-3.017927e-02
-6.034734e-02
-3.023165e-02
-5.563371e-02
-4.145381e-02
-1.397827e-02
-5.321208e-02
-6.593551e-02
-3.167733e-03
-3.767113e-02
-2.845723e-02
-3.808014e-03
7.516944e-02
2.271453e-02
3.434355e-02
6.395469e-02
4.063221e-02
2.326733e-02
5.114518e-02
-2.485572e-01
3.329616e-02
-3.743445e-02
-1.925502e-01
-2.362502e-01
-1.823835e-01
-9.688194e-02
2.077748e-01
-7.197028e-02
-1.251082e-01
1.733359e-01
-8.335377e-02
-1.549900e-01
1.739299e-01
-3.973033e-02
-1.445784e-01
2.827943e-02
-3.869596e-02
1.227052e-01
-2.048790e-02
3.581657e-02
2.307497e-02
-8.648890e-02
-4.284718e-03
-3.804103e-02
1.527396e-02
6.519096e-02
-9.269361e-02
5.017640e-02
5.013368e-02
-1.477689e-01
1.228585e-02
9.453886e-03
-5.387491e-02
4.515362e-02
2.018956e-02
8.873925e-02
8.844516e-02
4.226155e-03
4.664662e-02
2.732944e-02
-3.740130e-02
-2.578358e-02
-4.450892e-02
-1.110732e-01
5.590288e-02
-2.092934e-02
1.822343e-02
2.479286e-02
-6.689874e-03
5.022387e-04
2.814932e-02
2.096619e-02
6.005738e-02
-6.348589e-02
-6.965065e-02
-5.962435e-02
1.186740e-01
3.351302e-02
-2.594303e-02
-1.410724e-01
-1.378534e-01
-3.529212e-02
3.218259e-02
4.404145e-02
1.479481e-01
3.156044e-02
3.812962e-02
1.452065e-01
-8.028048e-02
-6.276473e-02
1.161144e-01
2.957343e-03
1.659323e-04
4.045767e-03
1.367509e-02
6.725057e-03
1.009219e-02
5.660810e-02
2.542579e-02
-1.660177e-02
-3.202664e-02
-4.829779e-02
-3.287232e-02
-5.755058e-02
-7.790578e-02
-3.337425e-02
-4.466493e-02
-3.493371e-02
-4.216110e-03
-9.064810e-02
2.500781e-02
1.673565e-01
-7.533041e-02
1.424050e-02
1.316456e-01
-1.216929e-01
-1.815575e-02
5.295775e-02
-1.582463e-02
-1.859095e-01
-1.030313e-01
-2.016060e-01
-3.462194e-01
-2.884327e-01
-2.916666e-01
-3.624817e-01
-1.325851e-01
-6.366586e-02
-1.047104e-01
-4.281956e-02
-3.934796e-02
-2.361847e-02
5.568755e-02
-3.648503e-02
4.114819e-02
1.073644e-01
9.089691e-02
5.135917e-02
-1.220763e-01
3.279039e-02
-6.814319e-02
-1.980842e-01
-3.002514e-02
-5.597761e-02
-1.316936e-01
-1.151317e-01
-1.370070e-01
-9.545752e-02
-1.051337e-01
-1.549304e-02
4.448215e-02
-4.550610e-02
-5.585096e-03
6.196437e-03
-2.043394e-01
-1.259209e-03
4.000920e-02
-1.061862e-01
8.170075e-02
1.279736e-01
8.217165e-02
8.658122e-02
2.549458e-02
-6.447846e-02
1.593349e-01
1.608626e-01
2.644550e-01
2.757567e-01
1.666147e-01
1.283189e-01
2.500193e-01
1.224515e-02
-1.595545e-01
-1.534509e-01
-1.206943e-01
-2.734878e-01
-1.080690e-01
7.390033e-04
-1.442231e-01
1.744450e-01
1.759029e-01
1.572752e-01
-5.277721e-02
-1.377744e-01
4.290106e-02
-1.431465e-01
-1.250708e-01
-4.607125e-02
-6.053506e-02
8.011230e-02
-8.224620e-02
-6.655321e-02
-9.722041e-02
-1.113649e-01
-5.585575e-02
-9.474095e-02
-1.052011e-01
-3.768990e-02
-6.756645e-02
9.850332e-03
1.913195e-02
4.509051e-02
-8.983529e-02
-7.099382e-02
-7.398596e-02
-5.520215e-02
6.579603e-03
3.522762e-02
-1.299425e-01
-1.704449e-01
-1.286459e-01
-5.051051e-02
-2.983791e-02
8.130623e-03
1.320937e-01
1.945412e-01
1.998848e-01
-9.733927e-02
-7.599491e-02
-2.504912e-01
-1.962630e-01
-4.942191e-02
3.374591e-02
-1.298961e-01
-1.791744e-02
2.950181e-03
2.270121e-02
4.274976e-02
9.685437e-03
-1.190894e-01
-1.287071e-01
-4.988504e-02
-1.036784e-01
-1.519529e-01
-1.287894e-01
-5.164500e-02
-2.284368e-02
3.036720e-02
-4.163974e-02
-4.895679e-02
-2.668860e-02
4.624511e-02
4.993285e-02
8.706208e-02
9.325106e-02
1.652860e-01
9.367407e-02
1.294777e-02
6.459412e-02
8.287116e-02
1.926471e-02
-2.920122e-02
1.032775e-02
-3.169295e-02
-7.108182e-02
-8.804411e-02
-7.759302e-02
-1.149974e-01
-1.134702e-01
-6.737310e-02
-6.664087e-02
-5.234598e-02
-2.893009e-02
-9.873047e-02
1.567196e-01
-3.780731e-02
-2.644077e-01
-1.309742e-01
3.193794e-01
-5.291149e-02
-3.640019e-01
-5.653681e-03
-1.772458e-03
-5.655353e-02
3.535917e-03
1.071642e-02
5.221623e-03
-5.041606e-02
-4.105410e-02
-8.966660e-03
-1.074345e-01
1.660324e-01
5.013511e-02
-2.208153e-01
2.521505e-02
2.510421e-01
-1.605839e-01
-1.210394e-01
1.410457e-01
8.243105e-02
4.136594e-03
-1.533695e-01
9.216218e-02
1.241985e-01
-3.721546e-02
-6.191909e-03
3.251780e-02
2.432988e-02
-1.024457e-02
-9.821394e-03
1.162503e-02
1.901465e-02
-3.301689e-02
-3.710955e-02
8.709960e-02
7.266864e-03
-7.419034e-02
2.337593e-02
-1.576287e-01
6.398893e-02
2.627662e-01
-1.061242e-01
-3.014599e-01
8.651493e-02
2.226943e-01
-3.518191e-02
2.721978e-01
-1.298796e-02
-3.063015e-01
2.521738e-02
3.376899e-01
-1.296519e-01
-3.198361e-01
1.378532e-01
1.095675e-01
-8.366514e-02
-3.168401e-02
8.739565e-02
-3.575063e-02
-1.285207e-01
1.087444e-01
9.489729e-02
-3.654605e-02
2.340816e-02
8.226769e-02
1.753485e-01
-8.451714e-02
-5.034579e-02
1.673970e-01
1.028178e-01
-1.485573e-01
-2.577026e-02
5.159344e-02
9.808497e-02
5.048007e-02
2.535548e-02
7.222054e-02
4.948627e-02
3.472720e-02
6.517116e-02
7.543156e-03
-1.973074e-02
3.910116e-02
3.640244e-02
6.448381e-02
4.674478e-02
9.242756e-02
6.349144e-02
9.763055e-03
6.601613e-02
1.176135e-01
4.458351e-02
-1.627346e-01
-2.223510e-01
1.395464e-01
2.142279e-01
-3.577154e-01
-2.110420e-01
1.991077e-01
-1.860635e-02
6.694451e-02
1.426682e-01
-4.715550e-02
7.392038e-02
2.043107e-01
1.399817e-01
-6.297367e-02
-3.638345e-02
1.227003e-01
-5.118065e-02
-1.097670e-01
-1.004401e-01
-1.313550e-02
-8.702088e-02
-5.333848e-02
7.229298e-02
-2.914074e-02
-1.533973e-02
5.955495e-02
-1.563492e-02
-4.975116e-02
1.164064e-01
3.526903e-02
-9.416613e-03
1.651918e-01
6.294530e-02
-1.833945e-02
1.018624e-01
-9.837139e-02
-1.604787e-01
1.490404e-01
-6.594823e-02
-1.396191e-01
1.628536e-01
1.211712e-03
-3.554906e-02
-5.323504e-02
-4.248805e-02
1.277940e-01
-1.626909e-01
-1.344174e-01
-4.770727e-02
-1.058837e-01
-1.547021e-01
-2.652794e-01
8.795270e-03
-4.241704e-02
-3.797793e-02
2.062337e-02
1.309253e-02
9.456296e-03
3.635291e-02
1.393106e-02
2.844291e-02
-1.263292e-01
4.113741e-02
4.593716e-02
-4.761970e-02
1.620850e-01
2.909017e-01
-1.013357e-01
-6.407864e-03
-1.384257e-02
-1.185678e-02
1.106266e-03
-1.032069e-02
6.297431e-02
1.205145e-01
8.686674e-02
-6.784233e-02
4.497702e-02
4.215764e-02
6.599105e-03
6.854916e-02
-9.988005e-02
-6.187763e-02
1.685475e-01
8.020642e-02
-1.311366e-01
1.286196e-01
1.151852e-01
-1.552624e-01
-6.459101e-02
-6.083521e-02
-3.284169e-01
-2.397332e-01
-2.061893e-01
-1.216360e-01
-2.072432e-01
-2.750575e-01
9.971464e-02
1.358864e-02
-7.896301e-02
2.360078e-01
1.749522e-01
8.417100e-02
1.383877e-01
7.402280e-02
4.844724e-02
-1.241957e-01
-1.612812e-01
3.351744e-02
-1.521025e-02
-8.198090e-02
1.297485e-01
-3.961440e-02
-9.908324e-02
7.781011e-02
2.346506e-01
3.359920e-01
1.290235e-01
2.125915e-01
4.006966e-01
2.548782e-01
5.974779e-02
2.785795e-01
1.959016e-01
1.951205e-01
1.680944e-01
1.768050e-01
2.142840e-01
1.750619e-01
1.992864e-01
1.885173e-01
1.088129e-01
9.748438e-02
-1.031896e-02
9.442192e-03
4.937597e-02
-1.459303e-02
-3.578738e-02
3.367663e-02
7.848589e-02
-3.265810e-02
-3.317289e-02
2.095256e-03
6.000335e-02
3.153141e-02
7.303850e-02
1.195361e-01
-6.102022e-02
-4.243875e-02
3.735112e-03
-4.588176e-02
1.343519e-01
2.921719e-02
-1.722619e-02
2.409947e-01
1.477368e-01
1.802072e-01
1.746507e-01
1.356714e-01
2.251922e-01
-5.978717e-02
-7.315004e-02
-6.248212e-03
-1.119243e-01
-5.881116e-02
1.001629e-01
-8.766144e-02
-3.169687e-02
1.102259e-01
-1.743150e-02
-6.860854e-03
-3.351158e-02
5.034490e-02
1.673041e-02
-4.807863e-02
9.485704e-03
-1.045769e-02
-8.537372e-02
1.595474e-02
-1.815875e-02
-5.921507e-02
-2.826172e-02
-5.938317e-02
-2.241447e-02
-9.588226e-02
-6.326063e-02
4.393185e-02
-5.065728e-02
2.935703e-03
-3.074692e-02
-1.114659e-01
-6.333141e-03
1.380077e-01
-1.474400e-01
1.745092e-02
9.935293e-02
-4.496490e-02
1.571632e-02
7.811967e-03
2.272965e-02
4.478592e-02
7.340818e-03
6.042014e-02
1.513573e-02
-1.597165e-02
1.097482e-01
2.544922e-01
1.150430e-01
1.912395e-01
1.342423e-01
-8.090020e-02
1.851442e-01
-4.147656e-02
-1.951273e-01
-6.232613e-02
-3.508975e-04
6.016259e-02
4.847883e-04
3.619023e-02
4.512947e-02
6.602114e-02
3.061745e-02
-1.362047e-02
-2.098399e-01
-1.260673e-01
1.576279e-01
-1.342511e-01
5.200437e-02
2.269432e-01
1.067903e-02
9.621671e-02
8.557994e-04
1.757101e-01
2.195520e-02
-4.347543e-02
7.138444e-02
-8.326028e-02
-6.126036e-02
-1.667475e-01
-1.586607e-01
-1.342078e-01
-4.885674e-02
-6.785847e-02
-1.597024e-01
1.900257e-02
1.828787e-04
-2.388107e-02
6.200772e-02
-9.667277e-04
-9.707256e-02
1.859920e-01
-1.348730e-01
-2.314205e-01
-1.245830e-01
-2.888114e-01
-1.098578e-01
-3.227653e-01
-2.064906e-01
1.567077e-01
-1.310831e-01
-9.993894e-02
-1.097037e-01
-1.248626e-01
-1.187510e-01
-4.183671e-02
-5.151209e-02
-2.170832e-02
6.644447e-03
8.432414e-03
2.566580e-02
1.650663e-02
8.343019e-02
8.565370e-02
8.671661e-02
1.137167e-01
1.585192e-01
1.771109e-01
1.345766e-01
1.354557e-01
7.837586e-02
2.208153e-01
8.585367e-02
-4.540776e-02
2.405327e-01
1.764244e-02
-9.309927e-02
7.125656e-03
-3.691551e-02
-9.791265e-02
1.297019e-01
1.022212e-01
2.594790e-01
-4.792150e-02
4.208422e-02
-2.932548e-02
-3.549084e-02
-1.426974e-02
8.223649e-02
2.714603e-02
-8.846355e-03
2.410831e-02
4.263703e-02
-3.481331e-02
1.745781e-02
-8.698534e-02
-9.665341e-03
1.211650e-02
1.309028e-02
1.180061e-01
7.897869e-02
3.390333e-03
7.895903e-02
-1.290074e-02
6.820618e-02
-1.195325e-02
6.425542e-02
2.648357e-02
1.927165e-03
2.467252e-02
-1.669315e-02
-5.180084e-03
-2.959705e-02
-2.009986e-01
-6.326511e-02
8.790738e-03
-1.903374e-01
1.337414e-04
1.268195e-01
-1.337917e-01
8.368029e-02
6.429593e-02
-1.006788e-01
1.323838e-01
-1.038256e-01
5.233446e-02
8.404372e-02
-3.240798e-02
1.517240e-02
1.386092e-02
-2.539511e-02
-5.419068e-02
2.007622e-03
-9.422693e-02
-5.016884e-03
-2.540220e-02
-2.499616e-02
3.224535e-02
-9.060958e-02
7.534067e-02
1.363467e-01
-4.254770e-02
1.034979e-02
1.409896e-02
-8.960991e-02
-1.365431e-02
-1.074848e-01
-6.991322e-02
8.521266e-02
-1.229722e-01
-1.019258e-01
-1.707394e-02
-1.045157e-01
-1.180095e-01
-3.855333e-02
-1.421026e-01
-4.420419e-02
1.628777e-02
2.791461e-01
8.213124e-02
-9.935743e-02
3.009341e-01
-4.397685e-02
-2.397991e-01
1.601013e-01
-1.876108e-01
-3.136096e-01
-1.052253e-01
4.023080e-02
-2.436641e-01
2.371414e-01
-2.167612e-01
1.630835e-01
1.545186e-02
-1.065932e-01
2.574819e-01
-8.735392e-02
1.280860e-01
-1.560455e-01
2.531288e-01
-1.709170e-01
6.475069e-02
1.007112e-01
-1.548799e-01
2.787470e-01
-2.234634e-01
-4.752691e-02
1.686880e-01
-2.826344e-01
1.206959e-01
1.834030e-01
-2.037927e-01
1.169892e-01
-9.354464e-03
-1.389433e-01
-8.225843e-02
-1.582030e-01
-3.645686e-03
-2.400708e-02
-1.598342e-01
3.363520e-02
-5.368462e-02
-1.710698e-01
-1.341829e-02
-2.719911e-02
-4.369547e-02
1.173793e-01
3.618839e-02
4.473306e-02
1.583922e-01
6.408635e-02
7.312074e-02
-1.872816e-01
-6.362193e-02
-1.597808e-01
-1.738205e-01
-9.018315e-03
5.378887e-03
-1.252194e-01
7.072315e-02
8.743794e-02
-2.448243e-02
1.228967e-01
6.836960e-02
1.967210e-01
-1.325092e-02
8.514903e-02
1.560134e-01
-1.348452e-01
1.882951e-01
1.074034e-01
2.383531e-02
1.909723e-01
1.092935e-01
-5.833737e-03
7.516853e-02
6.353755e-02
1.022679e-02
5.807491e-02
8.478971e-02
1.214757e-02
-9.187605e-02
1.265876e-01
-5.197887e-03
-1.013253e-01
6.430542e-02
-1.028398e-01
-8.907376e-02
-6.773933e-03
-4.586910e-02
-4.568608e-02
5.913094e-02
-1.000261e-03
-4.385519e-02
1.047201e-01
5.910604e-02
-3.701828e-03
-5.838585e-02
-9.265945e-02
-1.183509e-01
5.811809e-02
-5.745063e-02
-1.213921e-01
1.260174e-01
7.647783e-03
-6.561690e-02
2.428371e-02
5.930167e-02
4.702810e-02
5.075808e-02
7.109752e-02
3.890354e-02
-2.589623e-02
-2.304709e-02
-5.118531e-02
6.076783e-02
2.993550e-02
7.231729e-03
5.174486e-02
4.101018e-02
2.700293e-02
7.203808e-02
7.615595e-02
3.241384e-02
-5.613208e-02
-2.097160e-02
6.096143e-02
-3.562531e-02
-7.301962e-02
-4.744420e-02
-8.383105e-02
-1.605600e-01
-1.810533e-01
-2.677154e-02
-6.092744e-02
-1.110497e-01
1.055956e-01
6.960541e-02
-2.443164e-02
1.175880e-01
1.417960e-01
7.748356e-02
2.374002e-01
1.994451e-01
-2.810338e-02
4.357498e-02
2.625614e-01
2.257415e-01
-2.578183e-01
3.202174e-02
2.067899e-01
-9.481499e-02
-5.638346e-02
4.407391e-02
-7.543861e-02
-4.619216e-02
-9.026471e-03
3.976940e-02
-4.554547e-02
-2.763202e-02
1.963942e-02
4.842752e-02
1.262077e-01
9.928118e-02
7.394081e-02
1.311046e-01
-1.494776e-02
-4.744073e-02
-6.326167e-02
-5.741791e-02
-1.123014e-01
-3.428512e-02
1.120178e-01
-5.710731e-02
-1.314585e-01
1.484248e-01
5.045506e-03
-1.116395e-01
1.084425e-02
1.993006e-02
6.937890e-02
1.668921e-03
1.022174e-02
6.050525e-02
-2.203173e-02
3.873589e-03
6.311187e-02
8.173006e-02
4.596910e-02
1.569776e-02
8.030742e-02
7.560824e-02
8.263899e-02
2.585160e-02
2.778554e-02
6.365698e-02
-7.790758e-02
-1.318178e-02
5.913727e-02
-9.588336e-02
-1.127814e-01
-7.198164e-02
-2.364357e-03
-1.318838e-01
-1.415761e-01
-3.430806e-02
-1.512325e-01
-9.028006e-02
1.161119e-01
2.136694e-02
-3.739617e-02
6.674097e-02
3.390167e-02
-2.530860e-02
1.455809e-03
-2.721186e-03
4.778383e-03
8.822265e-02
8.868115e-02
9.012219e-02
4.490053e-02
7.466013e-02
2.439610e-02
-5.525636e-02
-7.864350e-03
-2.712768e-02
-5.013021e-02
4.478544e-02
5.699502e-02
-1.202034e-01
-4.235637e-02
-2.112969e-02
1.499813e-03
1.283481e-03
5.224646e-04
3.449727e-04
-1.015812e-03
2.295788e-04
-7.965603e-05
-1.513313e-03
-6.273803e-04
1.903579e-03
6.698946e-04
3.233800e-04
-3.313506e-03
-2.418250e-03
5.021990e-03
9.195494e-04
8.755709e-04
7.797688e-04
-4.058087e-03
4.177482e-03
4.215059e-04
-3.798532e-03
-5.940285e-03
3.733343e-03
3.711386e-03
4.377981e-04
2.721783e-03
3.625804e-03
6.379375e-04
5.109833e-04
-1.479791e-04
-8.626292e-04
-2.688423e-05
1.068605e-03
2.321770e-05
2.131681e-03
-2.764780e-04
9.956238e-04
4.898423e-04
-1.681774e-03
-1.624027e-04
1.389305e-03
9.003509e-04
2.407589e-03
9.225390e-04
1.227675e-04
-9.953845e-04
-1.187095e-04
3.725058e-03
1.230281e-03
-7.522367e-04
-5.294408e-04
9.658713e-04
-1.553816e-03
-3.435625e-03
1.196967e-03
1.928692e-03
2.059748e-04
-3.845441e-04
-1.502833e-03
2.883548e-03
-1.876168e-03
5.270481e-04
-1.828485e-03
-2.925780e-04
6.163032e-04
-7.471087e-04
4.612407e-04
7.317751e-04
2.926686e-03
-1.202478e-03
-1.019869e-03
9.738170e-04
2.330273e-03
-1.189246e-03
-3.078325e-04
5.018925e-04
-5.824679e-04
1.192424e-04
-1.633212e-03
1.142841e-03
5.552053e-04
9.717136e-04
1.386723e-04
-1.917142e-03
-1.383000e-03
5.919622e-04
-7.634265e-04
1.204815e-03
-6.606848e-04
9.123618e-04
2.740053e-03
-4.378525e-04
1.108832e-03
-4.360306e-04
-1.783431e-03
2.730829e-03
4.210758e-03
3.022263e-04
-5.527307e-04
3.222692e-04
-3.290417e-03
6.853770e-04
1.242651e-03
-1.192789e-03
-1.620660e-03
-2.545101e-03
-3.190824e-04
2.988538e-03
-4.119452e-04
-2.493462e-03
-3.830318e-03
7.747074e-04
1.967800e-03
-4.014287e-03
-1.378824e-03
-1.026559e-03
-1.971863e-03
1.088544e-03
1.303091e-03
-2.475048e-03
-1.262240e-03
-1.452134e-03
-1.644353e-03
-1.503287e-03
1.493009e-04
2.568379e-03
2.732601e-03
1.391921e-03
1.606971e-03
-1.239659e-04
-2.135632e-03
8.286965e-04
-1.527563e-03
1.389197e-03
6.087241e-04
3.675818e-04
2.279091e-04
1.420363e-03
-1.103287e-03
4.585409e-03
-3.952037e-03
-2.661106e-04
-9.263300e-04
-2.379288e-02
-3.536448e-02
-3.973524e-03
1.006700e-01
2.562777e-02
-7.590515e-02
2.249374e-01
1.448253e-01
1.077117e-02
-1.575594e-02
-3.637934e-02
7.766684e-03
-4.074731e-02
-6.434824e-02
-6.310738e-02
-2.385176e-02
4.746817e-03
-7.450216e-03
-7.006568e-03
9.251473e-03
-5.770098e-02
1.132465e-01
1.291593e-01
-1.723344e-01
1.144833e-01
3.336143e-01
1.331825e-01
-5.396589e-03
4.394705e-02
2.202609e-02
2.152758e-02
-1.643635e-02
-1.365186e-02
6.020312e-02
-9.314462e-02
-7.809190e-02
-1.021012e-01
-3.534762e-02
1.441447e-01
-1.238457e-01
-2.331798e-01
-1.190294e-01
8.913982e-02
7.945199e-03
-6.245088e-02
-1.764637e-01
1.671429e-02
4.409532e-02
-1.121892e-01
-4.275879e-02
3.619737e-02
-1.238352e-01
-1.267174e-01
-9.125032e-02
9.259329e-02
-8.003718e-02
-2.928685e-02
1.952422e-01
-4.503771e-02
-8.040646e-02
1.556605e-01
-8.476728e-03
-8.382644e-02
2.668542e-01
5.482018e-03
-3.343445e-01
1.578082e-01
2.957345e-01
-2.958368e-02
-9.542399e-02
1.002033e-01
1.989735e-01
-3.133081e-01
2.504870e-01
7.205607e-02
-4.300359e-01
4.033204e-02
2.680749e-01
-2.008047e-01
-1.788556e-01
7.669801e-02
-1.711425e-02
-4.398340e-02
-9.933293e-03
5.657962e-02
-8.463474e-03
-1.224004e-01
1.061591e-01
1.458551e-01
-4.872273e-02
-6.774984e-02
1.247386e-01
1.054282e-01
-1.032388e-01
1.737501e-03
2.855590e-02
-1.053974e-02
5.354229e-03
-1.544390e-01
-3.952821e-02
2.970155e-02
5.923010e-02
-2.849676e-02
3.965964e-03
4.986648e-02
5.819853e-02
1.830711e-02
7.794540e-03
6.511112e-02
1.670573e-01
1.036666e-01
-6.659557e-02
1.189660e-01
1.498828e-01
-1.429474e-01
-8.719586e-03
1.280895e-01
9.085257e-02
1.957592e-01
-1.713661e-01
-2.902495e-01
2.739558e-02
2.321331e-01
-1.967398e-01
-1.718364e-01
-1.166922e-02
-1.268935e-01
1.598154e-02
1.588201e-01
-1.070287e-01
-1.140375e-01
7.246617e-02
6.629456e-03
-1.511874e-01
-1.148410e-01
-1.790317e-03
-6.402320e-02
3.184303e-02
3.369983e-02
-1.116168e-01
-7.859834e-02
1.659871e-02
-1.089320e-01
-8.675600e-02
-1.392442e-01
-1.510746e-01
-5.061445e-02
-5.004888e-02
-7.010791e-02
3.221845e-02
5.552513e-02
3.144035e-02
1.312983e-01
-1.022266e-01
-2.274684e-01
-1.960320e-01
-2.729934e-02
-1.040725e-01
-1.223378e-02
8.058081e-02
1.515449e-01
2.971376e-01
1.518400e-01
-8.042677e-03
-3.507491e-02
8.289049e-02
2.318147e-02
2.997006e-02
1.164130e-01
1.267693e-01
-6.066785e-03
1.120770e-01
8.243855e-02
3.848377e-02
3.437030e-02
-6.441499e-03
1.711819e-02
6.571541e-02
1.798784e-02
3.180124e-02
-2.434810e-01
-5.180535e-01
-2.315941e-01
-2.151705e-01
-4.603629e-01
-4.450291e-02
1.371327e-01
8.642390e-03
2.961769e-01
1.573684e-03
-5.857109e-02
-7.619262e-02
-4.511543e-02
-5.506799e-02
-6.254380e-02
6.597867e-02
7.822759e-02
5.147242e-02
-1.801113e-01
-1.189539e-01
-4.423245e-02
-1.152299e-01
-9.992629e-02
4.088038e-02
-1.741981e-02
-4.388617e-02
5.578439e-02
-1.202653e-01
1.271568e-01
2.272079e-01
-2.512243e-02
6.667425e-03
4.042319e-02
-3.410983e-02
-2.575880e-02
-2.410780e-02
1.161643e-01
1.516227e-01
3.689486e-02
-5.828867e-02
-2.994902e-02
-1.326418e-02
3.238982e-02
-7.368073e-03
6.780537e-02
3.005120e-02
1.539755e-01
1.823221e-01
-8.735184e-02
-3.485499e-03
9.809218e-02
-1.998834e-01
-1.423122e-01
5.446391e-03
8.395933e-02
7.337570e-02
1.308063e-01
-8.971795e-02
-3.592638e-02
3.717744e-02
-1.719756e-01
-8.975578e-02
-4.249534e-02
3.849296e-01
2.816806e-01
-2.113106e-01
3.423678e-01
2.810518e-01
-1.908774e-01
-2.492513e-01
-2.396276e-01
-4.130739e-01
6.071838e-02
-9.820174e-02
-8.316916e-02
-1.653613e-01
-2.527304e-01
-2.217619e-01
-1.915602e-01
-1.802125e-01
-1.785711e-01
1.670953e-01
1.519587e-02
-1.040436e-01
8.518577e-02
-1.829351e-01
-1.957816e-01
-1.811871e-03
-2.340755e-01
-1.499937e-01
-8.975625e-02
-8.402655e-02
-8.127657e-02
-1.562581e-03
-4.383732e-02
-3.516939e-02
2.820458e-02
1.156475e-01
1.627245e-01
1.125075e-01
3.073125e-01
-2.833252e-02
-1.151702e-01
-7.310001e-03
-2.311613e-01
-4.679859e-01
-4.285257e-01
-4.646219e-01
-4.896805e-02
-1.121227e-02
4.270826e-04
-5.591219e-02
-3.314011e-02
4.971965e-03
1.871957e-02
4.278533e-02
7.412396e-02
-2.137585e-01
-5.080402e-02
2.247608e-01
-1.763482e-01
9.045023e-03
1.566094e-01
-1.091460e-01
3.392676e-02
6.755179e-02
8.072337e-02
2.297391e-02
2.844293e-02
4.655029e-02
-5.040327e-02
-2.079471e-02
1.288756e-02
-1.176384e-01
-3.314062e-02
3.007084e-02
2.330020e-02
3.343932e-02
9.469213e-03
2.514518e-02
7.219716e-02
-4.693921e-02
3.483882e-02
9.770750e-02
-1.134125e-01
-1.934745e-01
3.657859e-03
-1.709959e-01
-1.761711e-01
1.285894e-01
-1.663004e-01
-1.206011e-01
7.703517e-02
-3.722799e-02
1.754672e-02
-1.525408e-03
2.594836e-02
5.372128e-02
-1.384951e-02
3.076542e-02
5.011915e-02
-2.613390e-02
4.151108e-01
1.928727e-01
-2.732036e-01
4.748691e-01
1.179275e-01
-2.823775e-01
3.959904e-01
2.729127e-02
-1.764684e-01
1.833444e-02
-1.607282e-02
-1.030375e-01
1.347804e-02
-5.388801e-02
-4.553688e-02
3.108425e-02
-2.566068e-02
-5.998862e-02
9.758879e-03
5.304060e-02
2.974417e-02
6.370731e-02
9.323253e-02
1.161978e-01
2.409196e-02
1.646081e-02
-5.959368e-02
-1.326890e-01
-3.142063e-02
2.341504e-01
-3.149486e-02
1.037551e-01
1.990244e-01
1.978011e-02
1.040744e-01
5.106861e-02
-1.953691e-02
2.579422e-02
1.315784e-01
1.198928e-02
6.170911e-02
1.136430e-01
-3.457327e-02
-3.082206e-02
-3.115969e-02
1.515151e-02
-2.285164e-02
5.719456e-02
3.845301e-02
-4.927630e-03
1.002321e-01
-6.773171e-02
-8.707844e-02
3.101232e-02
-1.580386e-01
5.441524e-02
1.075606e-01
-1.229583e-01
1.311152e-01
2.139240e-01
-1.097522e-01
2.017696e-01
1.890712e-01
-9.144610e-02
4.513882e-03
8.073313e-02
-2.719346e-02
3.732082e-02
1.617808e-02
-7.885882e-02
-2.089746e-02
-1.010793e-02
1.860906e-02
-9.593920e-02
3.365267e-02
5.830492e-02
-4.928005e-02
5.608103e-02
3.845855e-02
9.335208e-03
8.391911e-02
6.121828e-02
-1.046110e-01
-1.737072e-01
3.841998e-02
-9.522904e-02
-7.376693e-02
-3.623414e-02
-7.709677e-02
-1.252765e-02
