-2.264596e-02
-1.642203e-02
-2.390653e-02
-4.548052e-02
-3.447468e-02
-4.729218e-03
-1.091074e-02
4.125312e-02
9.267525e-02
1.955336e-02
-9.437922e-03
-3.151673e-02
1.250729e-03
-2.859605e-02
-6.922373e-02
-4.951604e-02
-1.000678e-01
-1.125209e-01
-7.692657e-02
-1.003541e-01
-9.236135e-02
-9.353784e-02
-7.135946e-02
-5.155390e-02
-1.863121e-02
6.054920e-02
7.028013e-02
4.633991e-02
2.055440e-02
7.622445e-02
-5.667385e-02
-3.834264e-02
-2.287162e-02
-6.744154e-02
-4.428151e-02
-3.280414e-02
-1.579514e-01
-1.324703e-01
-8.327175e-02
-1.772741e-01
-1.466571e-01
-1.467099e-01
-2.487715e-01
-2.046946e-01
-1.723107e-01
-2.923335e-02
3.512295e-02
1.815339e-01
-4.724775e-03
-1.239937e-04
1.656093e-01
1.162925e-01
1.273208e-01
1.793618e-01
1.174623e-01
8.727951e-02
4.598566e-02
7.930777e-02
2.482173e-02
-5.338737e-02
-1.398841e-02
-9.033980e-02
-1.490805e-01
8.405273e-02
-1.376901e-02
8.203431e-03
7.795352e-02
-2.246098e-02
-8.181296e-02
-3.712007e-02
-8.043873e-02
-6.087596e-02
-5.887559e-02
-3.732559e-02
-8.477786e-02
-9.697955e-02
-2.967231e-03
-1.026154e-01
-4.669971e-02
-9.076515e-02
-5.365082e-02
-1.304204e-01
-2.097363e-01
-2.211610e-01
-7.875374e-02
-1.058176e-01
-6.230859e-02
7.809753e-03
-1.924311e-02
-3.763960e-03
4.261775e-02
-1.687489e-02
7.605339e-02
6.706769e-02
-2.230675e-02
5.468791e-02
3.047574e-03
-6.996050e-02
-2.484409e-02
-4.024225e-02
-8.510549e-02
-1.320999e-01
-1.088967e-01
-8.829896e-02
-1.258994e-01
-9.124941e-02
-6.955038e-02
-5.945938e-02
-2.933623e-02
5.830747e-03
1.683553e-02
-3.263855e-02
1.739471e-02
5.961864e-02
7.314319e-02
1.647583e-01
1.948374e-01
-2.045519e-02
-1.315387e-02
4.017540e-02
1.765526e-02
3.025519e-02
5.870242e-02
1.441081e-02
-7.310719e-03
1.001042e-02
-1.031876e-01
-6.759254e-02
-3.952072e-02
-3.997128e-04
8.269498e-03
6.555888e-02
3.012347e-02
3.518192e-02
8.801892e-02
1.446177e-02
1.249009e-02
9.895233e-02
-6.651033e-02
-9.508041e-02
-5.517824e-02
-1.187361e-01
-1.631383e-01
-1.637454e-01
1.545262e-01
4.968662e-02
-5.220386e-02
6.678119e-02
-8.380256e-02
-1.847500e-01
1.281081e-01
-5.385975e-02
-1.329289e-01
-1.195067e-01
-1.321076e-01
-1.486241e-01
-1.147919e-01
-1.100276e-01
-1.598379e-01
-1.932158e-01
-1.761372e-01
-1.855692e-01
-1.143327e-01
-1.038785e-01
-7.652341e-02
-5.207502e-02
-5.062630e-02
-2.282388e-01
-1.333991e-01
-1.711662e-01
-2.680649e-01
-1.005047e-01
-4.612878e-02
4.988981e-02
-8.277633e-02
1.425996e-02
1.329399e-01
-1.481636e-01
-1.847228e-02
3.195249e-02
-1.427277e-01
-1.469459e-01
-6.510711e-02
-8.357660e-02
-4.457616e-02
5.577944e-02
-3.692964e-02
9.918231e-03
1.122620e-01
1.223171e-01
1.215685e-02
-4.802922e-02
8.025625e-02
-2.096602e-02
-1.743125e-01
4.565388e-02
-9.905832e-02
-2.104334e-01
-4.762396e-02
-8.259620e-02
-1.342276e-01
4.964526e-02
6.299566e-03
-5.636884e-02
5.208830e-02
-4.865472e-03
-5.726761e-02
6.297851e-02
1.229252e-01
2.164734e-01
7.999797e-02
1.786135e-01
2.295041e-01
1.353841e-01
1.199545e-01
9.006289e-02
4.876270e-02
1.922979e-02
1.454661e-02
1.397315e-03
4.789243e-02
4.529435e-03
-4.834349e-02
-1.395012e-02
-2.159357e-02
6.509393e-03
-1.187936e-03
-9.397601e-02
-5.075327e-02
-1.832870e-02
-6.930205e-02
3.002710e-02
4.030902e-02
3.056984e-02
-1.520949e-01
-5.520982e-02
-6.455252e-02
-8.110504e-02
-1.963458e-03
-2.335435e-02
-4.173225e-02
-3.746081e-02
-4.744931e-02
2.389834e-02
-9.793501e-02
-2.010577e-01
2.480250e-02
-6.972774e-02
-2.183214e-01
-1.350016e-02
-5.775668e-02
-1.608438e-01
-5.416102e-02
-3.230736e-02
-6.386230e-02
-2.922712e-02
1.712319e-02
-2.095975e-02
-5.762194e-03
2.474989e-02
3.962738e-03
2.494098e-02
-3.851243e-02
-8.154596e-04
-4.536740e-02
-1.121158e-01
-1.867153e-01
-6.412940e-02
-2.267560e-01
-2.134959e-01
1.241713e-01
-1.390850e-02
-2.093281e-01
8.845430e-02
-3.030325e-02
-2.999048e-01
5.536128e-02
-1.143795e-01
-3.405928e-01
1.228027e-01
-1.546024e-02
-1.563382e-01
1.727087e-01
4.446086e-02
-1.829592e-01
6.855137e-02
-6.814098e-02
-2.417756e-01
-8.060315e-02
-1.154407e-01
-2.038536e-01
5.563131e-02
-8.902223e-03
-6.744373e-02
1.192296e-01
1.306340e-01
6.758807e-02
-3.078445e-02
-4.339820e-02
-9.429397e-02
2.359681e-02
-6.159767e-02
-9.812670e-02
1.018272e-01
1.116528e-01
9.284132e-03
-1.311016e-02
2.616657e-02
-3.057777e-02
-1.942629e-03
9.305402e-02
1.469625e-01
-1.118628e-02
-4.472673e-02
1.168842e-01
3.086416e-03
4.921444e-02
1.226860e-01
-5.397123e-02
8.259208e-03
1.683034e-01
-1.672038e-02
6.822564e-02
1.137050e-01
-1.596426e-01
-8.642859e-02
8.509273e-02
-1.712791e-01
-1.528152e-01
-8.448803e-02
-8.591746e-02
-9.213908e-02
-7.850979e-02
5.041539e-02
1.002921e-01
1.718433e-01
-6.729940e-02
-5.208146e-02
8.459845e-02
-1.042443e-01
-1.077681e-01
-7.898020e-02
8.735679e-02
2.648157e-01
4.384759e-01
-7.444217e-02
4.669325e-02
3.774860e-01
-2.242831e-01
-2.300924e-01
-4.650563e-02
8.302635e-02
9.541477e-02
-1.776841e-02
1.261420e-01
2.597590e-02
6.435817e-02
3.942487e-02
1.043835e-01
4.907723e-02
-2.834808e-02
8.889865e-02
1.444896e-01
-8.544337e-02
-7.111014e-02
1.294520e-01
-1.023796e-01
-7.615988e-02
-3.924654e-02
-2.190240e-02
-1.478399e-01
-2.718889e-01
9.127605e-02
9.224933e-02
1.963439e-02
8.799051e-02
2.243797e-01
4.008057e-01
3.021363e-03
-1.096084e-01
-3.643578e-02
4.191808e-03
-1.795369e-02
-8.916228e-02
-1.338308e-02
-1.017122e-01
-8.290996e-02
3.349768e-02
-8.762082e-02
-1.796846e-01
1.469494e-01
6.528518e-02
-4.854316e-02
2.091426e-01
1.319607e-01
5.355716e-02
-2.397262e-02
-1.184042e-01
-6.986681e-02
2.306108e-02
-3.143847e-02
-7.602385e-02
9.525170e-02
4.478261e-02
-3.862435e-02
1.354291e-02
8.280491e-02
6.839880e-02
8.027613e-03
-2.132874e-01
8.904930e-02
-7.696741e-02
-2.985639e-02
2.625694e-02
-1.110330e-02
-4.121817e-02
5.445452e-02
7.639480e-02
-8.441085e-02
3.404746e-03
9.803129e-02
-8.885396e-02
-9.471446e-02
-1.202164e-01
-2.248304e-03
1.329665e-01
-1.411751e-01
-7.196420e-02
6.020079e-02
-2.147397e-01
-9.626012e-02
7.077123e-03
2.946202e-02
3.561326e-02
1.135132e-01
-3.106495e-02
-7.565436e-02
-1.237640e-02
-4.704731e-02
-9.707882e-02
-1.017330e-01
9.685245e-02
1.722189e-01
1.476396e-01
1.335255e-01
1.386477e-01
1.579649e-01
1.862206e-01
1.845850e-01
1.652452e-01
-8.444019e-02
-3.081638e-01
-2.560027e-01
-1.429318e-01
-2.577108e-01
-3.189317e-01
-9.829197e-02
-3.515452e-01
-3.532177e-01
1.053410e-01
8.353809e-02
3.393737e-02
6.627971e-02
4.144443e-02
8.167318e-02
1.500291e-01
1.265828e-01
1.690820e-01
2.747886e-02
5.744270e-03
5.241060e-02
6.086981e-03
3.896366e-02
1.113137e-01
-5.342450e-02
-2.651409e-03
1.568126e-02
-1.900370e-01
-2.334268e-01
-1.765654e-01
-1.371667e-01
-1.604413e-01
-2.761635e-01
-7.291090e-02
-1.631432e-01
-1.986410e-01
-4.868852e-03
1.609197e-01
2.732191e-01
-9.573076e-03
9.894965e-02
2.450914e-01
-3.334032e-02
6.318247e-02
1.855293e-01
1.321968e-01
7.485256e-03
-4.660660e-02
5.492887e-02
-1.071675e-01
-1.314937e-01
8.666182e-02
-4.674128e-02
-6.834269e-02
8.135007e-02
2.116561e-02
-6.258612e-02
1.366937e-01
1.279683e-02
-4.570841e-02
7.440348e-02
6.702079e-02
4.483571e-02
4.395667e-02
-4.016999e-02
-9.052911e-02
-3.493597e-02
-1.912224e-02
-6.994823e-02
-7.629640e-02
-7.104620e-02
-9.610397e-02
1.394057e-01
8.319218e-02
6.874060e-03
1.260342e-01
1.271815e-01
6.923246e-02
-5.712809e-04
3.859989e-02
7.411856e-02
-7.640107e-02
2.329383e-02
7.652257e-02
-2.032979e-02
7.553405e-02
9.108949e-02
-3.479021e-02
5.800293e-02
-2.268898e-03
-5.441947e-02
-7.731568e-02
-7.161464e-02
-4.346514e-02
-2.163392e-02
-4.203363e-02
1.706359e-02
-3.360516e-02
-7.069480e-02
-8.751643e-03
-9.569360e-02
-4.455100e-02
-5.517219e-02
-8.061999e-02
-2.206790e-01
-2.439225e-02
-1.470059e-01
-1.239756e-01
-7.162680e-02
-5.801774e-02
6.687055e-03
-6.768804e-02
-1.499414e-02
-3.919794e-02
-1.030545e-01
-1.016138e-01
-9.880455e-02
1.324132e-02
-1.601644e-01
-1.890191e-01
5.831551e-02
-2.166812e-02
-1.221117e-01
7.026895e-02
-2.183798e-02
-6.991657e-02
-8.597345e-02
-9.603094e-02
-4.919074e-02
-9.647688e-02
-5.879719e-02
-4.457460e-02
-7.658911e-02
-6.548315e-02
-4.930481e-02
7.477753e-02
1.005783e-01
4.958272e-02
1.398289e-02
7.222482e-02
2.037641e-02
-2.191440e-02
8.246287e-03
-1.367637e-03
-1.044607e-01
-6.074790e-02
9.097984e-02
-2.501043e-02
3.573038e-02
1.067653e-01
5.039386e-02
2.004799e-02
2.178195e-02
-7.164796e-02
1.348238e-01
2.776573e-02
-4.836506e-02
2.083640e-01
1.320175e-01
-9.363978e-02
1.368738e-01
1.195434e-01
-8.853631e-02
3.858979e-02
1.315308e-01
-8.096997e-02
6.999198e-02
2.454136e-01
-7.229438e-02
1.004071e-01
2.540156e-01
-8.799629e-02
-1.331033e-01
-1.032237e-01
-7.979696e-02
-5.928551e-02
-6.670952e-02
-1.144964e-02
2.398171e-02
4.538077e-02
-5.659400e-03
5.109996e-02
4.305785e-02
-1.310184e-02
2.280124e-02
-2.172231e-02
-3.399254e-02
-3.109128e-02
-1.725562e-03
1.781846e-01
1.126480e-01
1.051938e-01
1.816210e-01
1.660244e-03
1.591891e-01
1.984048e-01
1.531368e-01
1.173902e-01
-3.392014e-02
4.317308e-02
2.406824e-02
-6.910090e-02
1.400327e-01
-6.081688e-02
-1.023395e-01
-8.680072e-02
-1.047257e-01
9.979283e-02
9.804745e-02
2.157847e-01
9.475984e-02
5.096431e-02
1.739888e-01
9.764748e-02
4.922782e-02
5.311635e-02
-1.397719e-01
-6.963112e-02
-2.663832e-02
-6.789510e-02
-1.611120e-02
-3.673511e-03
-6.590541e-02
-1.024232e-02
9.352072e-02
1.758098e-01
8.429302e-02
-7.488246e-03
9.399185e-02
-1.978050e-02
-9.288486e-02
2.376872e-02
-8.452458e-02
-1.487067e-01
-7.944541e-02
-1.131155e-01
-2.571884e-02
-2.100986e-02
-1.028483e-01
-4.920426e-02
1.759837e-02
-6.651104e-02
-8.842355e-02
-1.877668e-02
-3.485603e-02
-9.592967e-02
3.560293e-02
1.916428e-01
-1.927791e-02
4.321601e-02
1.045455e-01
2.605575e-02
-6.637838e-02
-1.048203e-01
-1.412458e-01
2.454042e-02
1.941534e-02
-5.167513e-02
1.482895e-01
1.610393e-01
1.015602e-01
1.284577e-02
2.651861e-02
-1.640937e-02
6.996181e-02
3.654523e-02
6.983500e-02
6.240122e-02
6.505107e-02
6.020273e-02
8.328378e-02
1.362175e-01
1.494433e-01
2.767787e-02
4.502029e-02
1.198846e-01
-5.141561e-02
-1.308829e-02
1.874598e-02
2.593662e-02
6.017640e-02
3.470498e-02
-3.708325e-02
-6.661059e-03
-9.995294e-03
-2.446663e-02
-2.142986e-02
-5.063391e-02
1.104892e-02
-3.580453e-02
1.647220e-02
-5.104477e-02
-3.785600e-02
-2.164474e-02
8.541210e-03
5.546353e-02
7.572420e-02
1.081853e-01
5.953425e-02
-1.759742e-03
4.356521e-02
3.585216e-02
-3.738997e-02
5.597202e-02
1.435805e-02
-4.887017e-02
-8.292622e-03
8.986685e-02
8.752131e-02
3.869010e-03
1.195197e-01
8.489174e-02
2.106972e-02
1.052890e-01
7.119874e-02
-1.072277e-01
-5.575902e-02
-3.338806e-02
-1.207294e-01
-4.849853e-02
-2.259505e-02
-4.992664e-02
9.040043e-04
1.371920e-02
-8.355451e-02
-1.699561e-02
2.072318e-02
-1.573424e-01
-7.018651e-02
1.324424e-03
-1.142790e-01
-6.009964e-02
9.874591e-03
6.413131e-02
6.318276e-02
-6.358957e-02
3.536176e-02
3.758798e-02
-8.563916e-02
9.334523e-02
5.655246e-02
3.842675e-02
-1.200552e-02
-4.729220e-02
-4.441124e-02
2.908508e-02
1.883030e-02
-1.997535e-02
2.780476e-02
1.793557e-02
-4.566524e-03
1.320550e-01
2.694933e-02
-4.307034e-02
1.071626e-01
-2.307700e-02
-7.274675e-02
6.388177e-02
-1.064911e-02
-3.152247e-02
2.933773e-02
2.079286e-02
1.175985e-02
2.822171e-02
2.062921e-02
4.568740e-02
1.421868e-02
3.535306e-02
1.049611e-01
-6.650519e-02
-1.316780e-01
-1.673642e-02
-1.015669e-01
-1.622040e-01
-6.144702e-02
-1.014567e-01
-1.326737e-01
-5.489933e-02
-1.255409e-02
-3.442600e-02
-2.139396e-02
7.902423e-02
1.380778e-01
8.888272e-02
1.181723e-01
1.763621e-01
1.386947e-01
3.788364e-02
6.461825e-02
4.680368e-02
-5.497939e-02
-3.339268e-02
-8.840560e-02
4.173148e-02
-1.193203e-02
-4.520440e-02
-1.210173e-01
-7.645049e-02
-3.981450e-03
-1.105842e-01
-5.739469e-02
9.888919e-04
-9.233237e-02
-7.224990e-02
4.677440e-03
-7.759777e-02
-9.183123e-02
-4.141250e-02
-9.329898e-03
-5.653336e-02
-2.525354e-02
2.604138e-02
-2.907304e-02
-4.000324e-02
1.397200e-01
3.623561e-03
-1.317595e-01
1.050112e-01
2.693087e-02
-1.010017e-01
6.564465e-02
2.467747e-02
-9.641214e-02
-3.353695e-02
-1.225286e-01
-1.518444e-01
-5.082193e-02
-5.498408e-02
-9.324765e-02
-4.681814e-02
8.284403e-02
5.032690e-02
-1.334877e-01
-5.938946e-02
1.302866e-01
-2.235608e-01
-7.011046e-02
2.055209e-01
-1.374831e-01
9.562441e-03
9.769611e-02
-6.803990e-02
2.234240e-02
1.170244e-01
3.758709e-02
2.051930e-02
1.113188e-01
1.816113e-01
1.549792e-01
6.338275e-02
-4.729148e-03
6.318016e-02
9.549315e-02
-7.612789e-03
-3.309614e-03
5.831463e-02
-5.931046e-02
-6.113691e-02
3.311955e-02
-2.089705e-01
-8.373217e-02
1.484112e-01
-8.177626e-02
-7.857396e-03
1.684124e-01
-3.301530e-02
4.988768e-03
7.982524e-02
-1.571067e-01
-1.895356e-01
-1.360085e-02
-2.159699e-01
-1.277432e-01
4.166541e-02
-1.806296e-01
-7.291858e-02
8.060160e-03
-5.200772e-02
-1.101877e-01
3.979386e-03
-1.148926e-02
1.531781e-03
2.732696e-02
-4.252636e-02
-6.456463e-02
2.084693e-02
-5.187516e-02
-4.031671e-02
1.356379e-01
-4.761399e-02
-9.719899e-02
1.022190e-01
-6.230295e-04
9.360152e-02
-6.455093e-03
2.394544e-01
-5.381101e-02
-2.630793e-01
1.082916e-01
-6.061706e-02
-1.865506e-01
-9.573842e-02
-1.680190e-01
-8.334792e-02
4.672604e-02
1.085637e-01
1.124713e-01
8.201891e-02
-2.955728e-02
-5.565656e-02
5.175431e-02
-9.395523e-02
-1.709275e-01
3.731195e-02
3.823468e-02
-4.718243e-02
-4.397994e-02
6.902062e-02
7.633341e-03
-4.840875e-02
7.379346e-02
7.677136e-02
-8.249165e-02
-5.413191e-02
4.020829e-02
6.217439e-02
5.944565e-02
1.832615e-02
1.888334e-01
1.824145e-02
-1.143572e-01
-1.207430e-01
-7.406271e-03
7.463463e-02
-1.376744e-01
9.530966e-02
1.935522e-01
-2.671934e-03
6.176853e-02
8.608536e-02
1.574134e-01
-2.170128e-02
-2.235197e-02
6.323720e-02
-2.672728e-02
-7.453195e-02
-3.798389e-02
-1.817557e-01
-1.633024e-01
-7.224178e-02
-5.932679e-02
5.172549e-02
-1.535803e-02
-1.518556e-02
1.076094e-02
2.557372e-02
1.167146e-02
6.851689e-03
-2.045622e-01
-1.836364e-01
-1.991462e-01
-1.935901e-01
-1.218366e-01
-1.965504e-01
-1.633244e-01
-1.407160e-01
-1.569349e-01
4.707220e-02
5.455569e-02
1.066198e-01
5.947454e-02
-2.413820e-02
-6.594311e-02
4.495997e-02
-3.109015e-02
-1.346048e-01
6.166256e-02
1.336404e-02
-2.749095e-02
8.165664e-02
3.080053e-02
5.479822e-02
-1.327928e-02
5.378237e-02
9.258658e-02
6.747344e-02
-7.583690e-02
-7.480295e-02
5.248284e-02
-8.274033e-02
-2.060804e-02
-2.932489e-02
-8.256375e-02
-9.291307e-02
-6.618851e-02
-3.253295e-02
1.068198e-02
1.982372e-02
2.434567e-02
1.099395e-01
5.587313e-02
4.909169e-02
1.277061e-01
-8.317038e-02
-2.045384e-01
-1.931479e-01
-5.243034e-02
-7.710119e-02
-8.083662e-02
9.808757e-02
7.279800e-02
3.510243e-02
-1.659324e-01
-2.174944e-01
-1.611268e-01
-1.723652e-01
-1.668179e-01
-2.172420e-01
-1.752658e-01
-2.143784e-01
-2.275756e-01
8.914615e-02
8.601438e-02
-6.115466e-03
9.928961e-02
1.789037e-01
2.611382e-02
2.769755e-02
7.350988e-02
-1.404453e-02
7.519447e-02
1.954490e-01
2.069408e-01
4.752143e-02
-1.774120e-02
1.997644e-01
5.212184e-02
8.079541e-02
1.550427e-01
7.669984e-02
2.498206e-02
5.530483e-02
-1.174559e-02
-4.378704e-02
-2.415279e-02
-1.537740e-01
-1.773133e-01
-1.715926e-01
5.123778e-02
2.466930e-02
-5.489260e-02
-4.797965e-02
2.326507e-02
1.283128e-02
-1.787783e-01
-1.385366e-01
-3.751035e-02
-6.264127e-04
-2.382440e-03
3.367032e-02
-4.481361e-02
-1.819699e-02
-2.182134e-02
-6.380536e-02
-3.963659e-02
-3.748797e-02
-1.572650e-01
-2.165447e-01
-1.240039e-01
-1.372901e-01
-1.974880e-01
-1.835514e-01
-1.060178e-01
-1.595887e-01
-2.146002e-01
-1.189423e-03
2.130759e-02
-5.905633e-03
4.470332e-02
-2.906954e-02
4.058937e-02
2.562179e-02
1.068723e-01
1.160966e-01
6.662042e-02
1.109223e-01
9.277274e-02
4.853345e-02
8.290976e-02
5.950595e-02
-3.875822e-02
-4.080382e-02
1.436510e-02
-1.416100e-01
-1.414964e-01
-1.631061e-01
-9.969063e-02
-1.163577e-01
-1.422341e-01
-2.871125e-02
-5.299142e-02
-6.016953e-02
7.676768e-02
8.412572e-02
7.841436e-02
1.431273e-01
1.475161e-01
1.733187e-01
1.482717e-01
2.048327e-01
2.198019e-01
1.450829e-01
7.971602e-02
1.400578e-02
2.066466e-01
4.406808e-02
1.031714e-01
2.447875e-01
2.698496e-01
2.373377e-01
1.587000e-02
-6.407597e-02
-1.009217e-01
-1.478625e-02
-2.679362e-03
-3.753003e-02
-9.920526e-02
-1.373369e-01
-8.624464e-02
-1.328339e-01
8.229064e-02
1.540293e-01
-1.927530e-01
7.757188e-04
-1.445039e-02
-1.253333e-01
-6.080604e-02
-4.708753e-02
-5.643828e-02
6.031301e-03
2.325568e-03
-2.597028e-02
8.547007e-02
6.142735e-02
4.473291e-02
1.625749e-01
1.107548e-01
-9.853946e-02
-7.271297e-02
-8.008143e-03
2.289325e-03
-1.020181e-02
2.679270e-02
1.231989e-02
4.326701e-03
6.736067e-02
3.283399e-02
1.016002e-01
1.053568e-01
2.253016e-02
3.613031e-02
1.319143e-01
8.482236e-02
1.434011e-01
2.135227e-01
-2.698107e-02
-4.067011e-02
-3.622728e-02
-4.988331e-02
-4.998868e-02
2.627042e-02
5.452758e-03
5.900825e-03
4.952662e-02
-5.406291e-02
-6.901355e-02
-3.059753e-02
3.789051e-04
-3.398407e-02
-1.570485e-02
9.300881e-02
4.800562e-02
3.583268e-02
-4.072962e-02
5.043568e-03
-2.421467e-02
1.057904e-02
5.297731e-02
-1.444493e-02
-9.720375e-03
7.621372e-02
7.452400e-02
-1.182126e-01
2.210878e-02
6.350698e-02
-1.351005e-01
1.551081e-03
-3.276920e-03
-1.553275e-01
-8.682970e-02
-4.285118e-02
2.510300e-02
9.768350e-02
4.228380e-02
3.031078e-02
5.882100e-02
-7.020376e-03
3.941194e-02
7.414940e-02
-9.529130e-03
1.058078e-01
8.186223e-02
8.727040e-02
6.387813e-02
2.977699e-02
6.101532e-02
7.126023e-02
7.044207e-02
8.575478e-02
4.749689e-02
-3.715826e-03
-6.991968e-02
1.983128e-01
7.779659e-02
6.037699e-02
1.066562e-01
1.963607e-01
9.116920e-02
-7.115357e-02
-1.119819e-01
-1.985550e-01
-1.630378e-02
-7.944255e-02
-1.672593e-01
4.185350e-02
2.075839e-02
-4.288474e-02
-1.254549e-01
-1.507336e-01
-1.565385e-01
-7.009714e-02
-1.090100e-01
-1.270153e-01
5.472037e-02
6.569027e-02
4.821444e-02
-2.789347e-02
-1.144351e-02
3.451972e-03
-9.994796e-03
-4.759503e-02
3.294250e-02
5.226189e-02
4.754206e-02
5.617130e-02
6.340761e-02
-1.307175e-02
7.624652e-03
1.128959e-01
-8.826117e-02
-9.671570e-02
-3.946699e-02
-1.484487e-01
-1.211349e-01
-8.873513e-03
9.628990e-02
8.157468e-02
5.644005e-02
1.131897e-01
1.253124e-01
9.067050e-02
1.856616e-01
-1.657546e-02
2.074401e-01
1.835135e-01
9.951090e-02
-8.339223e-02
-6.498164e-02
-1.134057e-01
-2.707440e-01
-1.971106e-01
-1.437666e-01
-2.236688e-02
-2.814248e-02
5.440594e-02
-1.025515e-01
-9.345182e-02
6.484304e-02
-1.475164e-01
-9.532352e-02
5.069000e-03
1.264710e-01
1.413885e-01
4.651542e-02
7.529555e-03
-6.447057e-02
-9.208608e-02
-5.244580e-02
-1.272858e-01
-1.647023e-01
-2.858288e-03
4.193716e-02
1.286701e-01
-3.557490e-02
-4.023075e-02
-1.085377e-02
-2.163069e-02
-6.035200e-02
-6.954859e-02
-7.350103e-02
-8.517678e-02
-5.940014e-02
-9.082922e-02
-7.881659e-02
-1.215145e-01
-1.471353e-01
-8.312257e-02
-3.926729e-03
2.330252e-01
2.269586e-01
2.007295e-01
8.617814e-02
7.375256e-02
-6.140944e-03
-1.379675e-01
-8.845685e-02
-1.366736e-01
-1.082015e-01
-1.294464e-01
2.724572e-02
-2.887432e-02
9.502561e-03
1.222116e-01
8.897858e-02
1.513614e-01
7.976581e-02
-1.440446e-01
-1.677176e-01
-7.079420e-02
-2.749763e-01
-1.805579e-01
3.777846e-02
-1.483492e-01
-4.258794e-03
1.334705e-01
-1.139461e-01
-5.991258e-02
5.570030e-02
-9.687184e-02
7.119650e-03
4.402000e-02
1.384206e-02
6.290387e-02
2.077255e-02
-1.006304e-02
-6.607916e-03
5.219593e-02
-3.712526e-02
-5.103838e-02
-9.439392e-02
-5.109918e-03
-1.862444e-02
-4.380804e-02
1.039483e-01
1.175253e-01
4.212615e-02
2.033991e-01
9.484005e-03
-1.569991e-01
-1.173489e-01
-1.888391e-01
-2.191484e-01
-2.408993e-01
-1.810744e-01
-4.332339e-02
-1.337577e-01
-4.447611e-02
7.357771e-02
1.004592e-02
8.971752e-02
1.035572e-01
-1.217868e-01
-6.900009e-02
-6.735769e-02
-3.526025e-02
-2.365769e-02
6.467534e-03
-2.742078e-02
-1.005923e-01
-8.704280e-02
-6.653180e-02
-8.960827e-02
-8.161423e-02
-8.112296e-02
-9.848067e-02
-1.337052e-01
-4.567155e-02
-5.203737e-02
-1.247002e-01
-2.597102e-02
-3.928543e-02
-3.679658e-02
5.369242e-02
1.898147e-02
2.167571e-03
2.974970e-02
-3.265887e-02
-7.886438e-02
-1.771657e-03
1.191052e-01
2.454411e-01
-1.186531e-01
-6.033795e-02
-2.846304e-02
-1.765094e-01
-1.832018e-01
-2.499155e-01
8.142925e-02
1.054557e-01
7.934975e-02
-4.499412e-02
2.139066e-02
9.029316e-03
-1.538430e-01
-1.041886e-01
-4.817654e-02
8.319873e-02
7.693756e-02
1.428180e-01
-4.985225e-03
4.524064e-02
1.156653e-01
-1.061485e-01
-1.135519e-01
-1.951948e-02
-1.259495e-01
-3.920054e-02
-2.304446e-02
-9.447392e-02
-6.628248e-02
-2.465004e-02
4.759865e-02
1.521847e-01
1.941420e-01
-5.744589e-02
-3.378878e-02
-1.093596e-01
-2.737464e-03
6.201079e-02
-1.147643e-02
-7.636162e-02
-6.836942e-02
-8.390451e-02
3.589282e-02
1.575926e-01
1.952105e-01
-7.404522e-02
-2.560893e-02
2.221611e-02
-1.539014e-01
-1.179089e-01
-1.915679e-01
-4.500085e-02
-2.096883e-02
-8.645222e-02
-4.848602e-02
2.122206e-02
-8.381744e-02
-7.942817e-02
-8.928011e-02
-4.102757e-02
5.903295e-02
9.206992e-02
2.017443e-01
-5.407771e-02
-6.937913e-02
4.653266e-02
-1.611042e-01
-1.480744e-01
-1.054268e-01
1.601586e-02
-1.104002e-01
-1.964896e-01
8.251758e-02
2.781474e-02
-1.257654e-01
3.138871e-02
3.731243e-02
-2.562201e-02
-1.633538e-02
-4.373822e-02
-4.731916e-02
4.433022e-03
-5.856590e-03
-7.964569e-03
2.997990e-03
1.357656e-02
2.134113e-02
-7.650355e-02
-4.954161e-02
4.470843e-03
-5.183510e-02
-7.545300e-02
-5.931444e-02
3.366172e-02
2.673120e-02
-8.613989e-04
1.305533e-02
-1.842104e-02
1.056956e-02
4.514656e-02
-1.003754e-01
-2.055767e-02
4.266239e-02
5.744383e-02
1.239512e-01
-1.127688e-01
-1.548927e-01
-1.907109e-01
1.242852e-01
1.786794e-02
1.530768e-02
2.563815e-01
3.038481e-01
3.010443e-01
1.009741e-01
1.146745e-01
2.321788e-02
1.814185e-02
7.317226e-02
7.961260e-02
-1.305408e-01
-6.228714e-02
-3.386866e-02
7.988348e-02
1.423251e-01
1.455471e-01
1.035108e-01
6.375707e-02
5.904840e-02
6.938637e-02
5.572686e-02
5.177335e-02
-3.551317e-02
-6.608103e-02
-1.305939e-01
-3.025933e-02
-8.801921e-02
-1.453607e-01
1.146797e-02
-8.882428e-02
-1.346309e-01
5.314133e-02
3.157540e-02
1.856325e-02
2.433720e-02
3.281554e-02
1.216724e-01
2.738241e-02
1.498652e-01
1.992983e-01
-1.958043e-01
-1.581296e-01
-1.184406e-01
-2.690055e-01
-8.589980e-02
1.167980e-02
-1.801268e-01
-5.217994e-02
9.844106e-02
3.881170e-03
-3.982352e-02
-1.089936e-01
-4.067687e-02
-1.054166e-02
-4.362983e-02
-5.600113e-02
-1.419511e-02
-2.947815e-02
6.234580e-02
2.894086e-04
-1.275840e-03
9.311328e-02
-4.741916e-03
1.948979e-02
7.273635e-02
-1.287992e-02
9.363099e-03
-2.317321e-02
-4.227010e-02
-7.819977e-02
-7.437705e-03
-5.616974e-02
-8.819044e-02
-2.669578e-02
-7.421130e-02
-6.950375e-02
-1.021284e-01
-2.033830e-01
-1.848791e-01
-1.024885e-01
-1.294442e-01
-1.195021e-01
-2.679918e-02
-1.150992e-01
-2.401651e-02
-2.734193e-02
-1.021342e-01
-1.054320e-01
-7.516071e-02
-1.475921e-02
-9.231141e-02
-9.316231e-02
-4.895381e-02
-4.848139e-02
3.580818e-02
6.107434e-02
8.087492e-02
4.153073e-02
6.376173e-02
8.118529e-02
6.531551e-02
6.725915e-02
8.902441e-02
1.144460e-01
1.873156e-01
1.661281e-01
9.288020e-02
1.314836e-01
2.893270e-01
-8.597227e-03
1.569958e-01
1.568258e-01
-1.670796e-01
-6.860460e-02
-8.305832e-03
-3.253097e-02
2.236523e-02
8.612122e-02
-1.755390e-03
4.702552e-02
8.700753e-02
-8.896337e-02
-3.643209e-02
1.319368e-02
-3.280975e-02
-2.911157e-02
9.395039e-03
1.043424e-01
3.147976e-02
1.481578e-02
-6.402667e-02
-1.736183e-01
-2.081226e-01
-2.175291e-02
-5.029723e-02
-2.461638e-01
2.177370e-02
-1.337966e-01
-1.446852e-01
7.868487e-02
6.347148e-02
3.179828e-02
1.418697e-01
2.192797e-02
-2.437752e-02
6.702777e-02
-4.528246e-02
-7.690812e-02
-9.072533e-02
-9.743561e-02
-1.071058e-01
-4.065059e-02
-6.368650e-02
-6.458883e-02
-3.407680e-02
-3.632215e-02
-4.199095e-02
-3.279153e-02
3.470188e-02
1.475454e-01
-8.334348e-02
-8.477654e-02
3.776206e-02
1.672886e-02
4.053571e-02
9.047630e-02
-2.925830e-01
-2.304569e-01
-2.250860e-01
-1.830475e-01
-1.117488e-01
-1.322626e-01
-1.633345e-01
-1.658538e-01
-1.208318e-01
1.436772e-03
-1.106424e-01
-1.720127e-01
-5.819406e-03
6.263671e-03
-1.449365e-01
-1.654865e-01
-2.232648e-01
-2.197023e-01
1.070547e-01
3.014097e-02
-1.225905e-01
6.025687e-02
6.873994e-02
-1.258862e-01
5.230835e-03
-5.965270e-02
-2.322519e-01
7.318023e-02
1.009684e-01
6.683785e-02
7.569659e-02
9.411857e-02
6.469951e-02
4.977990e-02
5.466675e-02
8.067498e-03
2.791477e-02
6.002687e-02
9.335914e-02
1.583440e-02
7.611573e-02
1.018036e-01
-2.297831e-03
2.524671e-02
6.638006e-02
-1.117981e-02
-1.857841e-02
3.875101e-02
-3.648348e-02
-2.933452e-02
8.948542e-03
-5.480139e-02
-1.366816e-02
-2.418263e-02
1.253433e-01
9.010264e-02
4.996278e-02
8.747526e-02
1.473506e-01
1.601543e-01
9.557387e-02
1.062813e-01
9.334013e-02
-1.488554e-03
6.903486e-03
8.216073e-02
-8.454999e-03
2.963491e-02
6.276634e-02
-3.389919e-02
-4.890897e-02
4.040910e-02
-4.679795e-02
-3.172101e-03
4.367411e-02
1.580737e-02
5.756357e-02
1.041720e-01
-4.445597e-02
5.402529e-02
1.019194e-01
-7.709496e-02
-1.439837e-01
-2.125829e-01
-1.091991e-01
-9.436953e-02
-1.460089e-01
-1.596114e-01
-1.677947e-01
-1.403622e-01
-4.147399e-02
1.774378e-02
1.311210e-01
-6.570403e-02
-4.299955e-02
7.059622e-02
-3.724009e-03
3.298853e-02
1.174610e-01
-1.200803e-02
4.981898e-03
9.512645e-02
-1.209212e-02
4.431694e-03
1.047324e-01
3.517289e-02
1.820083e-02
9.562419e-02
-8.266329e-02
-1.092670e-01
-1.763314e-01
-1.594454e-01
-5.851318e-03
-2.352508e-01
-2.334335e-01
-2.624609e-01
-2.889735e-01
-1.347634e-02
1.349363e-01
2.091266e-01
-5.775591e-02
2.333875e-02
1.309585e-01
-1.434109e-02
9.510273e-02
1.558923e-01
-2.126373e-02
-7.033297e-02
-5.582180e-02
-9.017859e-03
-5.166933e-02
-6.774576e-02
-1.370089e-02
-7.894997e-02
-1.263807e-01
1.295890e-01
1.677631e-01
1.163457e-01
3.766968e-02
3.636788e-03
-2.055527e-02
-1.014141e-01
-2.033075e-01
-2.071288e-01
1.294174e-01
4.608832e-02
-3.009251e-02
-2.671097e-02
-6.259739e-02
-1.642445e-01
-5.087152e-02
-1.106581e-01
-1.285771e-01
-2.359732e-01
-1.993973e-01
-1.683162e-01
-8.275742e-02
3.267903e-02
1.714541e-01
1.651120e-01
2.369779e-01
1.368136e-01
-2.126682e-01
-2.418447e-01
-1.829608e-01
-5.721522e-02
6.137350e-03
1.401167e-01
2.279277e-01
3.293629e-01
3.485528e-01
-1.692378e-01
-9.365265e-02
5.284616e-02
-1.917235e-01
-2.167162e-02
1.770073e-01
-1.396448e-02
1.604380e-01
2.981749e-01
-3.077076e-02
-2.613376e-02
3.841250e-02
1.072650e-01
5.912141e-02
7.377503e-02
1.710067e-01
6.950843e-02
3.342434e-02
1.130475e-01
1.515717e-01
1.513168e-01
1.749318e-02
2.056516e-02
-3.910279e-02
4.472085e-02
-2.615412e-02
-3.803274e-02
-7.426496e-02
-1.460524e-01
-7.488234e-02
-6.912249e-02
-6.264284e-02
9.346385e-02
-9.933903e-02
9.309199e-02
5.256728e-02
-9.795198e-02
-1.305789e-01
-5.412260e-02
-5.612271e-02
6.961592e-02
4.219297e-02
-5.715987e-03
3.394718e-03
-2.059117e-02
-5.078568e-02
-1.290186e-01
-3.844967e-02
-1.169460e-01
-7.139964e-02
1.357581e-01
2.414171e-03
9.226868e-02
2.568183e-01
4.552118e-02
-3.590961e-03
3.645385e-02
-7.001925e-02
-5.864339e-02
1.049549e-01
-1.097713e-01
9.059597e-03
9.245960e-02
1.438215e-01
1.517554e-01
6.516813e-02
1.177755e-01
3.402519e-02
-8.902557e-02
1.013502e-01
-5.142085e-02
-9.511324e-02
-1.186871e-04
1.130000e-01
1.685183e-01
8.526209e-02
6.894464e-02
4.168946e-02
9.772252e-02
2.133926e-02
-8.914925e-02
-2.795517e-02
-1.355238e-01
-9.691694e-03
5.023845e-03
8.900731e-02
-2.594038e-02
2.747829e-02
-6.992275e-02
-3.766123e-02
1.754784e-01
1.393252e-01
1.487458e-01
6.120057e-02
-3.532159e-02
-3.673568e-02
-1.997320e-02
-1.956985e-01
-1.265366e-01
-3.616704e-02
1.428684e-02
-1.696947e-02
-1.436347e-02
-3.660429e-02
-9.986243e-02
7.073612e-02
1.572111e-02
-7.235218e-02
-1.123350e-01
-7.382123e-02
-7.765336e-02
-4.742368e-02
1.865673e-02
-4.449710e-02
-7.138330e-03
2.407848e-02
1.298264e-02
1.158135e-01
2.885226e-02
1.712312e-02
1.131472e-01
-3.510931e-03
-5.616388e-02
8.015060e-03
-7.473372e-02
-1.142670e-01
6.779884e-02
5.015067e-02
1.607436e-02
1.132026e-01
1.219540e-01
1.779919e-01
4.009321e-02
1.183362e-01
1.699487e-01
1.552834e-01
1.312952e-01
1.358108e-01
8.931511e-02
7.862423e-02
1.136674e-01
-1.678757e-02
3.419534e-02
1.535609e-02
-2.301785e-02
-1.632606e-01
-2.834790e-01
7.214873e-02
-5.773624e-02
-1.980014e-01
8.885303e-02
5.985545e-02
-7.127944e-02
-8.060630e-02
-6.792320e-02
-4.544192e-02
-5.199654e-02
-7.100010e-03
-2.420739e-02
7.908072e-02
8.200975e-02
-3.084775e-04
3.535907e-02
1.221593e-01
5.877643e-02
-8.913278e-03
5.142962e-03
-1.045855e-02
-5.905596e-02
-3.653626e-02
-3.425900e-02
9.433613e-02
5.275136e-02
-2.230587e-02
1.280348e-01
3.298539e-02
8.310166e-02
-3.711778e-02
6.388450e-03
8.356098e-02
7.274329e-02
8.206893e-03
-1.348602e-02
7.619987e-02
-3.836451e-02
-7.604284e-02
1.647493e-01
8.346012e-02
-4.382330e-02
2.249996e-02
-3.304165e-02
-5.959056e-02
7.105414e-02
1.590782e-02
-5.360552e-03
4.209869e-02
2.150711e-02
-5.181030e-02
-1.612364e-01
-1.145027e-01
-5.918329e-03
-1.622114e-01
-8.575754e-02
9.124006e-02
-7.920152e-02
-1.586473e-02
1.732581e-01
4.091862e-02
1.425801e-01
2.489984e-01
-9.249132e-02
1.296495e-02
1.492445e-01
-1.705615e-01
-1.007910e-01
6.990651e-02
-5.770092e-02
3.580689e-03
9.161165e-02
-8.363553e-02
-5.300011e-02
-2.775026e-02
-1.571957e-01
-1.307420e-01
-8.693810e-02
7.201317e-02
1.628269e-02
-3.282464e-03
1.703721e-01
-4.519860e-03
-2.453700e-02
1.250343e-01
1.001344e-01
-1.586821e-02
-7.014434e-02
-2.302576e-02
4.820587e-02
-8.534457e-02
1.933913e-02
7.465644e-03
-3.265215e-02
2.264986e-02
4.271445e-02
-1.854343e-01
-1.652141e-01
-1.799900e-01
-1.221436e-01
-1.138949e-01
-1.449136e-01
-1.019334e-02
-5.100671e-02
-1.332175e-01
3.615483e-02
9.174031e-02
1.556759e-01
2.607068e-03
3.003063e-02
1.772561e-01
-7.090858e-02
4.380137e-03
1.091542e-01
2.213394e-02
4.260193e-02
3.433931e-02
8.254713e-02
-3.846912e-02
9.998281e-02
1.022696e-01
1.426097e-01
1.559007e-01
1.103679e-01
-2.771227e-03
2.675466e-03
5.157609e-02
-1.273878e-02
-7.986276e-02
-7.465693e-02
-1.002977e-01
-1.525214e-01
-4.911246e-02
-1.569127e-01
-2.237148e-01
1.172036e-02
-8.157293e-02
-3.233510e-01
1.255720e-01
4.080816e-02
-2.386865e-01
-1.058204e-01
-3.235757e-02
3.535854e-02
-8.270655e-02
-1.081680e-02
1.333083e-02
-5.026605e-02
-3.537064e-02
-5.998217e-02
-2.617624e-02
-2.900434e-02
-5.767743e-02
1.422238e-02
2.304070e-02
4.244213e-02
1.542499e-02
-1.146351e-02
-2.272019e-02
-7.578965e-02
1.699385e-02
-4.786500e-02
-2.142468e-02
5.950525e-02
1.111777e-01
-2.826249e-02
9.284913e-02
1.666471e-01
-1.165889e-02
-1.409418e-01
-8.203898e-02
4.688208e-02
9.662106e-03
-8.256824e-02
1.198108e-01
1.287978e-01
8.157034e-03
4.611259e-02
-5.118540e-02
-4.939956e-02
5.530762e-02
-3.715337e-02
-9.468008e-02
6.722863e-02
-3.083471e-02
-1.015738e-01
-1.024691e-01
-2.907010e-02
-6.060234e-02
5.838272e-02
6.034514e-02
-2.569860e-02
8.878941e-02
9.634447e-02
-1.358325e-02
-1.638747e-01
-8.258141e-02
-7.094463e-02
-1.839400e-01
-3.619979e-02
-7.417248e-02
-1.297223e-01
-9.024363e-02
-1.132738e-01
4.360056e-02
1.286145e-01
8.689672e-02
5.006441e-02
1.355485e-01
1.683417e-01
-2.991350e-02
9.875572e-02
2.015832e-01
2.089631e-02
-5.580856e-03
8.854033e-03
8.478642e-02
3.343144e-02
5.130778e-02
8.160610e-02
8.062144e-02
1.464763e-01
-2.459697e-02
5.536081e-02
1.937926e-02
8.395017e-02
-6.226538e-02
2.120827e-02
-4.087451e-02
1.543080e-01
3.389895e-02
-3.267017e-02
2.035449e-01
2.426340e-01
-7.209203e-02
4.993716e-02
2.297650e-01
-1.284757e-01
-1.542049e-02
1.654702e-01
1.829790e-02
2.269893e-02
-1.640906e-02
2.876144e-02
1.645761e-02
2.745180e-02
-1.351894e-02
-5.137838e-02
-6.874331e-03
-8.027697e-02
-3.296455e-02
-5.082478e-02
-3.604192e-02
-3.484061e-02
-3.640789e-02
-3.745683e-02
-7.366472e-03
-3.946740e-02
-7.850874e-02
-7.038609e-03
2.157393e-02
-4.416955e-02
1.317374e-02
4.016725e-02
2.950905e-02
6.735937e-02
6.229451e-02
1.262532e-01
1.384456e-01
1.141561e-01
1.271867e-01
1.230224e-04
5.467928e-02
1.148135e-01
3.398428e-02
2.418871e-03
-6.678634e-02
-9.233781e-02
-1.649896e-02
-2.412308e-02
-1.756003e-02
1.874488e-02
-4.030203e-02
-6.861486e-02
1.920882e-03
-2.287682e-01
-2.141074e-01
-2.204744e-01
-2.579482e-01
-1.511002e-01
-2.079868e-01
-2.690422e-01
-2.316600e-01
-2.298282e-01
3.717961e-02
3.547924e-02
6.079093e-02
5.835120e-02
-4.046346e-03
3.543499e-02
4.518831e-02
-6.866527e-03
1.960125e-02
-9.527243e-02
5.845104e-03
-1.805860e-02
-7.273069e-02
-4.850550e-02
-4.492907e-02
-4.039606e-02
-4.004601e-02
-6.040479e-02
3.700694e-02
6.998943e-04
1.223418e-01
1.951666e-02
-5.070169e-02
3.534251e-02
3.600615e-02
-5.256743e-02
-2.307937e-02
-7.629918e-02
-1.267079e-01
-1.161344e-01
-8.151810e-02
-5.145717e-03
-1.547885e-01
1.543507e-02
-1.090064e-01
-5.195938e-02
-3.927322e-02
-7.199309e-03
-3.672712e-02
-5.739805e-02
-3.962577e-02
-4.317158e-02
-6.878445e-02
-8.666494e-02
-6.208415e-02
7.847361e-02
8.882732e-02
-2.163679e-02
9.706005e-02
5.874752e-02
-3.944780e-03
-8.900318e-03
2.143101e-02
-1.047202e-02
9.415734e-02
7.558973e-02
7.769414e-02
1.810156e-01
1.757658e-01
2.010288e-01
1.966281e-01
2.282419e-01
2.239827e-01
-4.738402e-02
-3.761400e-02
-8.182110e-03
-6.048728e-02
-6.370277e-02
-5.464844e-02
-4.619594e-02
-3.415853e-02
-5.159287e-02
-2.924850e-02
4.242506e-02
1.882408e-01
7.909628e-02
2.319320e-02
8.876706e-02
1.076118e-01
6.914122e-02
1.328786e-01
-6.933804e-02
-5.623046e-03
-9.114236e-02
-3.292192e-02
-5.344208e-02
-8.407231e-02
-6.388357e-02
-3.905024e-02
-7.235146e-02
4.659501e-02
5.839676e-03
-4.116867e-02
3.629372e-02
1.980477e-02
2.386575e-02
-9.638061e-03
1.900262e-02
5.593224e-02
-1.904156e-02
1.158732e-02
8.302558e-02
1.461741e-02
8.996785e-02
1.589998e-01
6.810070e-03
9.162305e-02
1.415474e-01
-1.452268e-01
-1.420552e-01
-1.895647e-02
-1.165506e-01
-1.203605e-01
-1.726527e-02
3.006283e-02
-6.713399e-02
-6.947308e-02
4.078458e-02
1.174585e-01
4.568386e-02
-1.865704e-02
9.380915e-02
1.207578e-01
-3.793959e-02
1.601638e-01
1.040980e-01
7.733669e-02
-9.269845e-02
-2.108559e-01
1.618515e-01
-3.869372e-03
-8.457346e-02
1.591347e-01
-1.290091e-02
-8.753011e-02
8.574925e-02
2.227384e-02
-2.568634e-02
9.317897e-02
-2.779164e-02
-7.176412e-02
5.881083e-02
-8.697397e-02
-1.178384e-01
-1.794139e-01
1.135090e-02
1.482258e-01
-9.981295e-02
6.692758e-02
2.113086e-01
-1.261500e-01
7.985952e-02
2.491853e-01
5.138380e-02
5.042310e-03
4.703963e-02
3.056575e-02
1.279665e-02
9.511604e-03
4.574883e-02
-4.215219e-02
-4.023523e-02
-1.199490e-01
-9.649696e-02
-3.174116e-02
1.656675e-02
6.162195e-02
1.375208e-01
4.803390e-02
4.028413e-02
1.274219e-02
-3.179669e-03
3.437502e-02
1.493652e-01
-9.408019e-02
-4.171130e-02
1.952616e-01
-5.665052e-02
1.178496e-01
1.904763e-01
1.076054e-02
-6.182583e-02
3.790656e-03
1.996718e-02
1.721443e-03
8.988810e-02
6.823254e-03
-2.297140e-03
3.831849e-02
1.927930e-01
4.641857e-02
-1.536576e-01
1.367230e-01
-7.993910e-02
-1.680889e-01
9.263413e-02
1.293801e-02
-4.869100e-02
4.941317e-02
-2.473967e-02
-3.702027e-02
-5.629247e-02
-3.222330e-02
-1.107663e-01
-2.154136e-02
7.873580e-03
-7.631077e-02
-1.355620e-01
-1.838522e-02
1.031665e-01
-5.238341e-02
-5.917236e-03
8.294737e-02
-3.559753e-02
-7.098357e-02
2.047652e-02
-1.272566e-01
-7.528054e-02
-1.428778e-03
-6.578923e-02
1.532685e-01
1.081981e-01
3.762017e-02
6.225746e-02
6.280293e-02
-2.292097e-02
1.023331e-01
3.339108e-01
-1.028251e-01
6.362064e-02
2.467461e-01
-2.539715e-01
-1.059573e-01
6.744236e-02
-8.599193e-02
5.555517e-03
1.311033e-01
-7.881261e-02
2.347047e-02
1.327234e-01
-5.390419e-02
1.470688e-02
1.092798e-01
-1.418109e-01
-1.404124e-01
-1.290177e-01
-6.135841e-02
-6.255145e-02
-6.510469e-02
1.247625e-01
1.045738e-01
8.248864e-02
3.890188e-02
1.142336e-04
1.812615e-02
1.253786e-01
-7.520193e-02
-6.253291e-02
2.131864e-01
-1.294687e-02
-1.633278e-01
-1.168142e-01
-1.320392e-01
-1.595374e-01
2.545627e-02
-2.784335e-02
3.825640e-02
1.625507e-01
2.453693e-01
2.129114e-01
2.037473e-01
1.879274e-01
1.915412e-01
8.938693e-02
8.682504e-02
1.128354e-01
-1.476530e-01
-7.538588e-02
-6.158995e-02
2.626434e-02
6.278487e-02
6.049399e-02
-5.978326e-02
-3.696943e-02
5.326900e-02
-1.585856e-01
-7.669552e-02
2.392133e-02
7.762999e-02
4.266812e-02
-1.521626e-02
1.152447e-01
6.230393e-02
3.000946e-02
6.509882e-02
9.189453e-02
3.104937e-02
-1.003671e-01
-1.036254e-02
1.367597e-02
-9.174950e-02
-2.896747e-02
-3.509853e-02
-4.531256e-02
-3.738922e-02
-1.074643e-01
4.577462e-02
-3.453133e-02
2.476719e-02
-1.120209e-03
2.310084e-02
-2.014023e-02
2.936248e-02
-3.564275e-02
-3.194993e-02
1.871841e-02
1.852256e-01
2.043955e-01
1.585815e-01
1.140333e-01
2.027815e-01
-5.267396e-02
5.891405e-02
5.220194e-03
-1.248263e-01
-9.100938e-02
-7.491022e-02
-9.915990e-02
-1.028127e-01
-5.758334e-02
7.508362e-02
7.508251e-02
6.927376e-02
8.219322e-02
7.605270e-02
8.715291e-02
-1.028682e-01
1.577469e-02
1.586682e-02
-2.512819e-01
-9.059242e-02
4.151284e-02
-8.060067e-02
-6.530234e-02
-3.877049e-02
-1.252089e-01
-1.046752e-01
-1.358951e-01
-7.398465e-02
-1.156840e-01
-1.581869e-01
1.713552e-02
-4.474396e-02
7.679327e-02
-2.924156e-02
-3.922004e-02
-7.832742e-02
-2.155394e-02
-8.961387e-02
-9.355636e-02
-1.813841e-01
-1.204204e-01
-4.173063e-02
1.670019e-01
1.476888e-02
2.689386e-02
1.755351e-01
1.772724e-01
1.545034e-02
-6.304795e-02
-1.893065e-02
-3.989206e-02
-7.082295e-02
3.077394e-03
-8.319166e-02
7.631393e-02
1.322244e-01
9.481752e-02
-5.466852e-02
2.256800e-02
4.011056e-02
-6.200740e-02
-2.437205e-02
-1.760088e-02
1.566020e-02
3.657654e-02
2.114579e-02
-6.732634e-02
-1.291283e-01
-9.266850e-02
-8.590532e-03
-6.484106e-02
-4.222822e-02
6.910264e-02
3.392528e-02
8.731192e-03
-2.940718e-02
6.858804e-04
1.909659e-02
-1.839371e-03
1.329320e-02
4.357392e-02
2.969655e-02
2.836326e-02
9.578626e-02
2.375656e-01
2.818140e-01
2.371445e-01
-2.478140e-02
9.418503e-02
1.441560e-01
-3.099581e-01
-3.389167e-01
-1.826952e-01
6.843737e-02
5.002423e-02
-1.139164e-01
8.923554e-02
1.763925e-01
2.234508e-02
5.720535e-02
1.557229e-01
6.498209e-02
2.109457e-02
3.525636e-02
-1.152886e-01
1.125811e-01
1.497958e-01
1.032802e-02
8.654391e-02
1.541906e-01
4.881578e-02
5.278043e-02
6.948598e-02
5.743036e-02
4.460733e-02
4.698327e-02
5.952601e-02
-4.731113e-02
-4.983611e-03
5.473402e-02
-1.254952e-01
-9.655712e-02
-8.699793e-02
2.380033e-02
2.444917e-02
5.263055e-02
5.653890e-02
4.558903e-02
3.912345e-02
4.290088e-03
2.031643e-01
8.334661e-02
-1.195537e-02
7.833669e-02
2.280768e-01
-8.859838e-02
-4.454340e-02
3.392855e-02
-5.990503e-02
-1.254245e-01
-9.696002e-02
-9.118190e-02
-8.372080e-03
-9.276368e-02
2.348320e-02
-1.918350e-02
-1.190855e-01
-6.734819e-02
-5.608028e-02
-7.714439e-02
2.606769e-02
8.803463e-02
1.089243e-01
-4.008962e-02
8.505152e-02
1.339968e-01
-5.818901e-02
-7.961491e-02
-1.060470e-01
3.232964e-03
-1.507086e-03
-7.629970e-02
2.008266e-02
3.655967e-02
-1.376017e-02
-8.135580e-02
-1.007859e-02
4.810134e-02
-9.488356e-03
2.702913e-02
8.601155e-02
5.105333e-02
5.086333e-02
7.593579e-02
4.190655e-02
1.816137e-01
2.288869e-01
-4.812247e-02
2.502801e-02
1.330473e-01
-4.633789e-02
-3.544216e-02
3.453017e-02
3.245652e-03
3.566686e-02
-4.785999e-02
-2.941100e-02
4.787103e-02
2.610762e-02
-1.438937e-01
-6.398918e-02
-6.481009e-02
-8.609772e-02
-1.069140e-01
-7.351825e-02
-4.090557e-02
-9.466393e-02
-8.463574e-02
8.885300e-03
-5.545548e-02
-1.627494e-04
1.652190e-02
-6.294229e-03
-4.298644e-02
6.502499e-02
5.454492e-02
6.327967e-02
-2.066761e-02
-2.285184e-02
1.164017e-02
9.466226e-02
9.737901e-02
1.078856e-01
-2.034389e-02
-2.404506e-03
2.641284e-02
-1.143116e-01
-1.682460e-01
-1.265267e-01
-4.794953e-02
-3.771395e-02
-2.893806e-02
-4.922724e-02
-6.603921e-02
5.781392e-02
-6.899183e-02
2.992758e-02
6.820651e-02
1.682049e-02
4.253887e-03
-8.535141e-02
2.174026e-02
-4.436358e-02
-2.109059e-02
1.680048e-01
1.827159e-01
8.136125e-02
-9.980356e-02
-1.657997e-01
-1.632387e-01
-6.040719e-03
-7.695683e-04
-3.001807e-02
1.621159e-01
2.416115e-01
1.807929e-01
-7.415772e-03
-2.358032e-02
-4.209176e-02
4.324013e-02
2.028155e-02
-4.981746e-03
4.361789e-02
-1.407075e-02
-8.107044e-03
2.456845e-02
-7.841666e-03
-3.484944e-02
1.317432e-02
-2.915983e-02
-3.367181e-02
2.842639e-02
3.614131e-02
-3.879087e-02
2.109285e-02
-4.653482e-03
-1.704661e-02
-5.613936e-02
-5.315095e-02
7.921632e-04
2.632553e-02
3.819663e-02
1.150469e-01
2.805212e-02
8.678020e-03
-3.688363e-02
-2.969526e-02
-4.911482e-02
-1.365113e-01
1.475126e-01
1.940252e-01
3.496519e-02
-1.583700e-02
-9.489315e-02
-7.976601e-02
1.249778e-02
-1.167592e-01
7.028351e-02
2.359808e-02
1.592853e-01
2.311481e-01
7.161655e-02
1.432977e-01
1.246651e-01
-4.842670e-02
6.499012e-03
-4.937447e-02
-2.763713e-02
-5.082718e-02
-1.167537e-01
1.944006e-02
-1.905238e-02
-1.583791e-02
-3.062170e-02
1.953610e-02
-9.785105e-02
-5.149584e-02
-1.015493e-01
-1.650425e-01
3.742702e-02
7.811122e-02
6.875237e-02
4.812751e-02
5.121487e-02
7.717343e-02
-7.692405e-02
-9.269512e-02
-2.872204e-02
1.238844e-02
4.407961e-02
1.052409e-01
3.820445e-03
-3.027054e-02
3.092496e-02
-1.433544e-02
1.180822e-02
7.450739e-02
-1.803163e-01
-1.689059e-01
-1.257601e-01
-5.599053e-02
-1.751007e-01
-8.511499e-02
1.052091e-01
3.105443e-01
2.683536e-01
1.381348e-01
2.104882e-01
2.587242e-01
1.382232e-02
-3.859091e-03
7.873350e-02
-3.791138e-02
-5.641944e-02
1.645623e-02
-3.823625e-02
-6.243585e-02
-7.402472e-02
-5.486881e-02
-6.506804e-02
-7.796881e-02
6.501381e-02
4.697144e-02
1.649456e-02
-8.455790e-02
-7.469646e-02
-9.682916e-02
-2.120193e-01
-1.924320e-01
-2.518121e-01
-2.175981e-01
-2.396140e-01
-2.770328e-01
-1.873216e-02
7.307443e-02
1.236177e-01
1.645933e-02
8.175027e-02
3.021065e-02
6.536213e-02
3.051972e-02
-5.909333e-02
1.337522e-01
-2.794237e-03
-6.734433e-02
5.266618e-02
-3.945729e-02
-2.012936e-01
-6.337672e-02
-1.561307e-01
-1.286584e-01
-5.768407e-03
-1.177316e-01
-8.210455e-02
-6.026786e-02
-1.717777e-01
-5.394131e-02
-6.424846e-02
-1.432009e-01
-2.129286e-02
-3.261851e-02
-4.391998e-02
2.879882e-02
2.408279e-02
7.260845e-03
5.105884e-02
3.553768e-02
7.038676e-02
6.963681e-02
2.161880e-02
-7.042450e-02
-9.606277e-02
-9.325209e-02
-1.242766e-01
-2.347087e-01
-1.005288e-01
-1.891211e-01
-2.025157e-01
-9.063199e-02
-1.197703e-01
-5.918378e-02
-3.757882e-02
-7.940920e-02
-5.151138e-02
-4.814794e-02
-9.252607e-02
-7.124849e-02
7.416286e-03
4.141723e-02
-2.736312e-02
6.175412e-03
-3.335418e-02
4.073858e-02
-6.807662e-04
7.520059e-02
8.390401e-02
2.574869e-02
-8.680712e-03
1.638555e-02
-4.030174e-02
-7.265966e-02
-3.641612e-02
-1.016832e-01
-7.134724e-02
-7.066020e-02
1.089988e-01
-3.543251e-02
-9.727320e-02
4.638322e-02
-3.239913e-02
-1.389626e-01
-2.328857e-02
-8.371717e-02
-1.771960e-01
1.057605e-01
-3.694264e-02
-6.377348e-02
1.810555e-01
2.734183e-02
9.050049e-02
1.232683e-01
8.740146e-02
1.334996e-01
-1.661651e-02
3.837902e-02
8.167481e-02
1.239891e-02
4.729748e-02
5.258788e-02
8.230082e-02
1.276981e-01
9.476542e-02
5.633847e-03
-2.796456e-02
-8.264276e-02
-6.242039e-02
-6.094311e-02
-9.862766e-02
-1.269585e-01
-9.709753e-02
-1.277426e-01
7.438989e-02
4.162920e-02
1.055058e-01
4.761847e-02
-5.342167e-02
2.759647e-02
3.091632e-02
-8.550381e-02
-2.089123e-02
1.112153e-02
-1.906514e-02
-1.374869e-01
-4.009172e-02
-4.668564e-02
-1.934359e-01
-1.686005e-02
-8.818036e-02
-2.124056e-01
-2.105403e-01
-2.309719e-01
-1.225499e-01
-2.108981e-01
-2.342957e-01
-2.175652e-01
-2.248770e-01
-2.871681e-01
-2.593218e-01
5.064800e-02
8.172846e-02
9.326939e-02
8.866566e-03
-3.014039e-03
1.273265e-02
-5.012698e-02
-4.708716e-02
-4.994924e-02
8.347511e-02
6.867985e-02
3.140673e-02
-3.054600e-02
4.371056e-03
5.230600e-02
-2.566025e-02
1.302451e-02
7.942276e-02
5.475703e-02
1.238883e-01
1.049545e-01
1.261211e-01
1.195384e-01
1.585281e-01
1.277203e-01
1.116163e-01
5.659227e-02
-1.079740e-01
-1.085059e-01
-1.045808e-01
-4.947319e-02
6.451881e-03
-7.717237e-02
6.924170e-02
1.262900e-01
7.104332e-02
-1.249845e-02
6.618414e-03
3.324025e-04
3.456907e-02
6.319807e-02
2.920615e-02
1.149767e-01
1.214338e-01
8.383340e-02
-7.196455e-02
-6.800245e-02
-7.862784e-02
-3.952569e-02
-2.502500e-02
1.095425e-02
2.486994e-02
7.875168e-02
5.296217e-02
9.259674e-02
1.191310e-01
1.087599e-01
6.153313e-02
9.938186e-02
1.473708e-01
-1.095731e-01
-7.349156e-02
4.454372e-02
1.741163e-02
-4.459194e-02
-8.705921e-02
-2.182923e-02
-8.241218e-02
-3.768996e-02
4.770730e-02
1.015931e-01
5.282308e-02
-2.899203e-02
-7.121020e-02
-1.034004e-01
-6.087090e-02
-1.085571e-01
-4.279454e-02
4.187849e-02
8.205912e-02
3.004764e-02
-6.913848e-02
-7.884695e-02
-5.593414e-02
4.975964e-02
1.327970e-02
4.068727e-02
2.068927e-01
1.997573e-01
1.880762e-01
1.243858e-04
4.842013e-03
-4.170252e-02
3.143327e-02
3.106036e-02
-9.891687e-02
9.968906e-02
1.380604e-02
-1.152283e-01
1.060792e-01
8.243417e-02
4.241334e-02
-6.390558e-06
-4.212038e-02
-3.929393e-02
-1.656114e-01
-2.312085e-01
-2.076665e-01
-5.499516e-02
9.281161e-03
-4.338113e-02
-6.766826e-02
-5.645420e-02
-4.602654e-02
-7.442852e-02
-8.936071e-03
-9.280773e-03
1.560094e-02
-3.350022e-02
-3.546152e-02
-2.325477e-02
-1.465482e-02
1.982161e-03
1.601592e-02
1.647038e-01
1.226716e-01
8.066459e-02
3.621327e-02
6.951734e-03
8.878366e-02
1.140063e-02
1.738376e-02
9.603043e-02
6.614865e-02
1.445911e-02
-6.411319e-02
-6.149232e-02
-9.085043e-02
-1.475367e-02
-9.072813e-03
4.422939e-02
1.188450e-01
1.659568e-01
1.887724e-01
-5.822153e-03
-7.622645e-05
-2.901875e-02
-1.035786e-01
-1.063717e-01
-1.464653e-01
-1.393523e-01
-1.646387e-01
-1.874119e-01
3.971910e-02
3.245414e-03
9.276007e-05
7.290695e-02
2.007854e-02
-5.403890e-03
4.580746e-02
-1.800830e-02
-3.815955e-02
7.070500e-02
1.146777e-02
4.002606e-02
5.873742e-03
-1.654366e-02
7.323823e-02
5.176011e-02
6.451625e-02
5.978812e-02
-1.255611e-01
-1.282999e-01
-4.878851e-02
-2.291048e-01
-1.252365e-01
-9.113006e-02
-2.426279e-01
-1.559138e-01
-8.212945e-02
6.326373e-02
2.467050e-02
6.691106e-02
-1.465478e-02
-2.679805e-02
2.558910e-02
-3.841960e-02
-4.901602e-02
-4.571415e-02
1.696175e-02
5.815675e-03
5.084670e-02
2.160887e-02
-3.134732e-02
1.735741e-02
1.474640e-01
1.149448e-01
8.304005e-02
1.265269e-01
1.226829e-02
9.470804e-03
1.468090e-01
4.275117e-02
1.531802e-02
1.501117e-01
3.906852e-02
2.276299e-02
-3.436669e-03
-1.839499e-02
1.727444e-02
-7.249069e-03
-1.052684e-03
-2.834704e-02
8.465984e-02
2.107527e-02
4.379538e-02
5.185988e-02
4.383650e-02
5.251392e-02
-2.767363e-02
-1.291773e-02
3.917258e-02
-2.897605e-02
-4.158291e-02
-7.533290e-03
-1.629387e-01
-1.529810e-01
-2.271894e-01
-1.379523e-01
-1.185251e-01
-1.634122e-01
-2.526029e-02
-3.572528e-02
-7.273076e-02
3.783320e-02
-2.811688e-03
5.327000e-02
-3.070026e-02
-2.905784e-02
9.782685e-02
-1.810801e-02
8.501220e-03
9.617224e-02
5.604278e-02
2.348413e-02
-6.347832e-02
5.097094e-03
-2.859890e-02
-1.285706e-01
-4.392353e-02
-1.231751e-01
-1.829266e-01
-1.409891e-01
-1.217327e-01
-9.742686e-02
-8.508085e-02
-8.893730e-02
-1.708869e-01
-2.415673e-02
-8.505207e-02
-1.514338e-01
-1.510887e-02
4.440615e-02
1.660459e-01
-1.688087e-02
-3.398192e-02
-7.900704e-02
6.044812e-02
1.781097e-02
-2.942255e-02
1.189018e-01
2.014290e-02
-1.274407e-01
5.050196e-02
-7.810304e-02
-1.869164e-01
5.720790e-02
-6.118183e-02
-1.141890e-01
-1.420586e-01
-1.410457e-01
-4.081432e-02
-9.458921e-02
-8.170868e-02
4.924841e-03
1.336636e-02
3.837975e-02
1.260789e-01
-1.094219e-01
-1.432548e-01
-1.451182e-01
-1.109063e-01
-1.414224e-01
-1.467565e-01
-1.366271e-01
-1.302400e-01
-1.171694e-01
1.118214e-01
6.435452e-02
2.136843e-02
8.469284e-02
3.132464e-02
6.105328e-02
9.387922e-02
5.354579e-02
7.449397e-02
1.199314e-01
1.010469e-01
1.056718e-01
4.654631e-02
5.396883e-02
7.328634e-02
2.181153e-02
3.607738e-03
1.523866e-02
-9.420663e-02
-9.686750e-02
-8.781807e-02
-1.231822e-01
-8.271924e-02
-9.088411e-02
-1.120572e-01
-9.743703e-02
-6.364305e-02
4.737491e-03
3.532698e-02
1.807997e-02
3.060689e-02
1.609370e-02
5.938411e-03
-1.253355e-02
-1.448703e-02
-5.390769e-02
-5.891699e-02
-9.876334e-02
-7.697479e-02
-4.305391e-02
-6.329003e-02
-7.820924e-03
-3.906995e-02
-6.995494e-02
1.139143e-02
-1.919677e-02
-2.377446e-02
-3.988657e-02
2.605467e-02
2.175276e-02
-2.182036e-02
-1.537485e-02
3.098525e-03
-5.887397e-02
-6.177253e-02
-9.284690e-02
-1.376421e-01
-7.525600e-02
-1.262735e-01
-1.046193e-01
-1.009685e-02
-3.215118e-02
-1.511226e-02
5.269502e-03
-9.234657e-03
-3.763455e-02
-1.330574e-02
-1.914653e-02
-1.546356e-02
-1.300652e-03
-2.324159e-02
6.173559e-03
1.204165e-02
-2.140759e-02
-1.602580e-03
-4.534486e-02
-3.467125e-02
-1.090612e-02
7.957561e-02
8.092234e-02
1.078779e-01
-1.243804e-01
-4.256181e-02
3.024192e-02
-6.426529e-02
-1.922953e-02
3.800678e-02
-2.334754e-03
6.477132e-03
1.726261e-02
1.240933e-01
1.071643e-01
8.021336e-02
5.882750e-02
3.923666e-02
-3.581765e-02
4.083075e-02
-1.249384e-02
-1.227159e-01
7.771406e-02
2.522393e-02
8.173366e-03
3.404004e-02
-3.048241e-02
-1.797646e-02
2.413790e-03
-9.401531e-02
-6.062936e-02
-1.044910e-01
-1.441467e-01
-1.430888e-01
-2.110554e-01
-1.982149e-01
-2.213558e-01
-2.194165e-01
-2.137537e-01
-1.026042e-01
-3.022839e-02
-4.565708e-02
-3.690185e-02
-3.158411e-02
-3.160783e-02
-2.907259e-02
-2.362736e-02
3.947586e-03
1.989362e-02
-3.422628e-02
-6.823030e-02
-5.774833e-02
7.747035e-03
-2.754244e-02
-3.299169e-02
1.041791e-01
6.892646e-02
2.535371e-02
9.993524e-02
1.225042e-02
-4.941521e-02
2.164612e-03
-4.413164e-02
-7.449190e-02
5.276201e-02
1.959131e-02
-2.558859e-02
-1.618601e-01
6.011515e-03
2.008058e-01
-6.241596e-02
-1.921694e-02
1.925188e-01
1.409431e-02
8.716684e-02
1.467120e-01
1.219567e-01
2.236900e-01
9.185807e-02
-1.456969e-02
2.056332e-02
-1.201737e-02
-3.145775e-02
2.769614e-02
9.894115e-02
1.192578e-01
9.638456e-02
1.208890e-02
1.207934e-01
3.175290e-02
-6.487233e-02
9.132149e-02
8.926021e-03
-1.288698e-01
-6.695758e-02
-6.648326e-02
-3.028810e-02
-8.059266e-02
-1.148136e-01
-1.158159e-01
1.600735e-02
-1.366028e-02
-3.439184e-02
-1.061186e-01
-3.199777e-02
1.759490e-02
-1.923442e-01
-2.081589e-01
-1.845331e-01
-2.022558e-01
-2.556490e-01
-2.298373e-01
-3.448271e-02
-1.070763e-01
-6.325393e-02
6.264395e-02
-3.145579e-02
-1.224418e-03
8.417888e-02
2.541774e-02
-1.606474e-02
-7.300504e-02
3.746787e-02
4.966087e-02
-1.327171e-01
-6.930836e-02
-5.550903e-02
-6.596661e-02
3.609515e-02
3.994465e-02
-4.119977e-02
6.784991e-02
3.642186e-02
-1.210817e-01
-8.729314e-03
-1.911756e-03
-1.113729e-01
-5.695489e-02
-9.367535e-02
3.866131e-02
-5.962510e-02
-9.103780e-02
-2.657568e-02
-5.615757e-02
-7.128578e-02
-4.141898e-02
-1.770389e-02
-1.389795e-02
2.011332e-01
-4.317836e-02
-1.534494e-01
2.016520e-01
-3.322729e-02
-2.037748e-01
1.055611e-01
6.356452e-03
-6.086875e-02
-2.726999e-02
-7.453508e-02
-8.693760e-02
7.088430e-02
9.283894e-02
4.051943e-02
1.343169e-01
1.856541e-01
1.432553e-01
-3.098862e-02
9.334075e-02
6.210567e-02
-3.413066e-02
-4.872378e-03
3.934756e-02
-5.977856e-02
-7.550993e-03
2.773423e-02
-2.182430e-01
-6.071566e-02
2.171072e-01
-2.100044e-01
-2.532619e-02
1.342414e-01
-1.859370e-01
-2.117778e-01
-7.857399e-02
-9.204382e-02
-1.300958e-01
-5.453374e-02
-1.150705e-01
-8.843271e-02
-1.813089e-02
-1.336630e-01
-1.105398e-01
-1.121788e-02
1.763895e-01
1.282410e-01
7.955647e-02
1.031396e-01
1.585709e-02
-3.609365e-02
-6.535953e-02
-1.822855e-01
-2.152286e-01
-1.112007e-01
-9.963713e-02
-7.391155e-02
1.723201e-03
2.299355e-02
4.480784e-02
-1.065173e-02
-4.354492e-03
-3.180464e-03
-3.829499e-02
-7.831192e-02
-7.165974e-02
-3.287508e-02
-6.424550e-02
-1.291887e-01
-6.789972e-02
-1.463898e-01
-1.884904e-01
-1.044400e-02
1.710399e-02
-1.291512e-01
7.510346e-02
7.044186e-02
-6.595846e-02
2.973188e-02
8.982269e-02
-5.919465e-02
-8.795191e-02
-9.140476e-02
-9.982620e-02
4.949132e-02
-5.869292e-03
7.126437e-02
1.051056e-01
4.267240e-02
8.228563e-02
-1.981743e-02
-6.561012e-02
-1.587202e-01
4.052167e-02
1.136732e-02
-5.525204e-02
1.061227e-01
6.171753e-02
7.038476e-03
1.732565e-01
2.291166e-01
1.667551e-01
7.819413e-02
1.004823e-01
8.507630e-02
-5.157636e-02
1.454816e-02
-1.585911e-03
-1.388865e-01
-7.909937e-02
-2.790556e-02
-1.854187e-01
-8.892564e-02
-2.770082e-02
-4.921276e-02
4.296000e-02
8.865295e-02
-2.092501e-02
4.351052e-02
3.053652e-02
1.288862e-02
1.045792e-01
1.744307e-02
4.908691e-02
8.689640e-02
-5.040813e-02
3.122597e-02
1.774876e-01
1.263989e-01
7.526171e-02
-3.027369e-02
2.184069e-01
-1.771102e-03
1.226969e-01
7.770589e-02
2.346937e-02
-1.175555e-02
6.203835e-03
5.066568e-02
-7.494105e-03
-2.544385e-02
-1.101931e-01
-1.966553e-01
-1.462508e-01
-1.025077e-01
-1.364824e-01
-1.905918e-01
-7.606205e-02
-3.462727e-02
-8.321212e-02
-3.051790e-02
2.769193e-02
1.023005e-01
-1.644470e-01
-1.562098e-01
-6.880108e-02
-1.137069e-01
-4.976700e-02
-1.909372e-02
-1.480069e-01
-1.180001e-01
-6.951319e-02
-7.097060e-02
5.901332e-03
7.889464e-02
-2.977914e-02
-8.669813e-03
5.586132e-02
-4.988339e-03
1.704129e-02
5.480019e-02
4.029125e-02
3.734225e-02
-5.593365e-02
5.710991e-02
1.083950e-01
-9.416233e-03
-1.713832e-02
-6.013878e-02
-1.555941e-01
7.021602e-02
8.882143e-02
4.065675e-02
-1.088253e-02
5.778685e-02
1.175520e-02
-1.340939e-01
-5.254712e-02
-2.193704e-02
1.193195e-01
1.528004e-01
1.163087e-01
-1.755949e-02
2.058724e-02
2.839447e-03
-1.005906e-01
-4.378417e-02
-2.844752e-02
-1.516538e-01
-9.871673e-02
6.119914e-02
-1.494877e-01
-1.072188e-01
1.359747e-01
-2.726619e-02
1.117741e-01
2.880850e-01
-1.348554e-01
-8.353229e-02
-2.859768e-02
-1.005415e-01
-4.732222e-02
-5.341124e-02
-3.334695e-02
-7.769813e-02
-9.994670e-02
-1.585065e-01
-5.060970e-02
2.178113e-02
5.211666e-02
1.265322e-01
1.169692e-01
9.167212e-04
5.495932e-02
-1.857535e-02
2.981395e-01
2.288532e-01
-8.916629e-02
2.151520e-01
1.059910e-01
-2.013343e-01
-8.912764e-03
-1.005759e-01
-2.574250e-01
1.234295e-01
8.502608e-02
-4.329769e-02
7.694831e-02
1.558841e-02
-1.371285e-01
-3.193838e-02
-1.492472e-01
-1.770404e-01
-1.119792e-01
-1.812853e-02
1.818795e-02
-1.127099e-01
2.118711e-02
6.641607e-02
-9.528483e-03
1.384831e-01
8.678174e-02
3.006337e-03
3.408985e-03
-1.354662e-02
-6.495984e-02
-1.324092e-02
1.885481e-02
-9.196220e-02
3.862293e-02
5.240615e-02
-4.834648e-03
1.651125e-02
4.565312e-02
1.208803e-01
4.480997e-02
-1.939435e-02
1.646475e-02
-5.713421e-02
-4.427073e-02
6.346148e-02
-3.711484e-02
-1.421776e-01
-2.997423e-02
-2.444370e-02
-1.206320e-01
-8.497326e-02
-9.410624e-02
-7.631514e-02
-8.267818e-02
3.990913e-02
8.919808e-02
1.990185e-02
3.053025e-02
1.020150e-01
3.901693e-02
8.245156e-02
8.321059e-02
-8.596011e-02
-4.690154e-02
2.072244e-02
-1.093412e-01
-6.636985e-02
7.026044e-02
-6.360909e-02
-1.729493e-02
7.420243e-02
-1.179102e-01
5.276872e-04
1.359572e-01
-1.311337e-01
1.709674e-02
1.409449e-01
-6.261987e-02
5.375634e-02
1.536671e-01
2.705549e-02
2.520828e-02
7.696716e-02
-3.352846e-02
-1.316572e-02
8.382476e-03
-1.939660e-01
-1.028315e-01
-4.140171e-02
3.256435e-02
1.656115e-02
-1.886041e-02
-4.183366e-02
1.005893e-01
-8.563008e-02
-7.204136e-02
-5.796740e-02
-1.769211e-01
-3.866518e-01
-2.205651e-01
6.741307e-02
-3.226059e-01
-8.170260e-02
2.205055e-01
-4.382564e-02
2.229345e-01
4.673150e-01
-9.171532e-02
7.982075e-02
1.447108e-01
-4.847241e-02
1.098751e-01
1.775920e-01
-6.636939e-03
7.156205e-02
9.127451e-02
-1.198588e-01
-9.066915e-02
-1.208011e-01
-1.164818e-01
-9.859633e-02
-1.310670e-01
-1.042244e-01
-7.857991e-02
-1.257699e-01
3.232262e-02
5.768433e-02
2.997419e-02
1.346118e-01
2.878002e-02
-9.516939e-03
2.174512e-01
8.238547e-02
-5.008862e-02
1.029818e-01
-8.752840e-03
-1.346178e-03
-6.034474e-02
-1.499386e-01
-5.984667e-02
-1.014195e-01
-1.382096e-01
5.464889e-03
-6.765307e-02
-9.420004e-02
-8.898787e-02
-1.407307e-01
-9.881923e-02
-3.071803e-02
-1.383419e-01
-1.156270e-01
1.573908e-02
7.127217e-03
-5.713318e-02
-2.513205e-02
-3.581845e-02
-7.241230e-02
1.410012e-03
-8.585720e-02
-1.200466e-01
-2.357595e-02
-3.128001e-02
-1.269878e-01
-1.203704e-01
-5.380510e-02
-1.094136e-01
-8.646680e-02
-8.133542e-02
-9.761664e-02
-7.199800e-02
1.296841e-02
4.542589e-02
1.978408e-04
1.678601e-02
7.232026e-03
-8.059870e-02
1.485164e-02
-2.184081e-02
-1.461663e-01
-4.780791e-02
-1.065863e-01
-5.768895e-02
-2.052376e-01
-3.065345e-01
-2.172616e-01
-1.825667e-01
-2.986437e-01
-2.424493e-01
-1.385212e-02
-2.368842e-02
-4.638404e-02
-4.211072e-02
-1.647475e-02
-4.295347e-02
-4.991405e-02
-4.038966e-02
-1.605647e-02
-6.691568e-02
-5.198407e-02
-5.227804e-02
-1.286911e-01
-1.025258e-01
-1.054674e-01
-2.241434e-02
-2.768488e-02
-2.063091e-02
1.505762e-01
9.014641e-02
3.691297e-02
9.681282e-03
3.416863e-02
6.409596e-02
-1.453190e-01
-4.431909e-02
8.493913e-02
-1.574437e-01
-1.063896e-01
-1.203535e-01
-1.208579e-01
-6.574710e-02
-1.068889e-01
-7.631257e-02
-4.616931e-02
-9.821917e-02
-1.173120e-01
-1.451507e-01
-9.852057e-02
-5.484009e-02
-8.863675e-02
-6.291518e-02
8.096240e-02
-2.063326e-03
-6.545421e-02
-1.275288e-01
-1.934614e-01
-2.370599e-01
-5.026982e-02
-1.090692e-01
-1.944664e-01
-1.789843e-02
-5.700241e-02
-1.294189e-01
9.993958e-02
1.001345e-01
2.937184e-02
4.977510e-02
3.392722e-02
-3.874559e-02
-1.523328e-02
-2.914863e-02
-8.581074e-02
-1.841716e-02
-6.280455e-02
-3.625249e-02
-1.398240e-01
-1.227211e-01
-8.050355e-02
-1.973323e-01
-1.888460e-01
-7.435517e-02
7.940059e-02
5.853162e-02
6.238161e-02
6.315444e-02
1.022888e-02
-1.952974e-02
5.931835e-02
-3.409561e-03
-3.463503e-02
-7.788627e-02
1.081258e-01
2.103556e-01
-1.694339e-01
-2.778441e-02
1.422602e-01
-1.269293e-01
-6.043589e-02
8.298798e-03
9.591161e-02
-6.454274e-02
-3.070585e-01
2.709564e-01
5.079406e-02
-2.873679e-01
2.750306e-01
5.739356e-02
-1.919235e-01
-6.073898e-02
-4.500830e-02
-5.238506e-02
3.527802e-02
-4.999035e-02
3.550980e-03
5.731362e-02
-1.049954e-02
-1.442452e-02
-5.183633e-02
-3.504588e-02
2.834933e-02
-7.313534e-02
-2.190514e-02
6.701605e-03
-5.789401e-02
-9.551437e-03
-2.075033e-02
2.133745e-01
-4.377550e-02
-2.629840e-01
2.434146e-01
-1.360441e-02
-2.812929e-01
1.395359e-01
-7.368800e-02
-3.089989e-01
3.514732e-02
3.618944e-02
-1.314513e-02
-2.295121e-02
1.781275e-02
2.456009e-02
-4.049772e-02
-1.737560e-02
-3.130078e-02
5.171490e-02
4.576915e-02
-1.142771e-01
8.464231e-02
1.882986e-02
7.975384e-03
3.376929e-03
1.886997e-01
-5.484619e-02
2.853389e-01
1.010728e-01
-8.811413e-02
2.631732e-01
-2.875099e-01
-8.657282e-02
8.189437e-02
2.750442e-02
-1.165040e-01
5.800175e-02
9.141264e-03
-1.431571e-01
1.044261e-01
6.512152e-02
-9.698505e-02
5.039174e-03
1.067873e-02
-9.925712e-02
-1.390890e-01
-1.417580e-01
-6.784497e-02
-7.250070e-02
-1.726940e-02
2.387511e-03
-6.632886e-02
-2.412384e-02
-5.178211e-04
-1.969681e-02
-9.424696e-03
7.180881e-03
-1.791177e-03
-2.589479e-03
6.752354e-03
3.370954e-02
-4.373203e-03
1.615374e-02
9.242455e-02
2.610339e-02
-7.500421e-02
1.872686e-02
5.663834e-02
-4.475173e-02
-7.688116e-02
-1.950196e-02
-5.133390e-02
-2.018911e-03
-2.744441e-02
-1.629654e-01
1.579890e-01
1.242867e-02
-1.717453e-01
2.258091e-01
1.154823e-01
-1.877818e-01
7.274166e-02
-7.451501e-02
-1.231925e-01
5.450181e-02
-4.299907e-03
-1.807223e-01
-4.139113e-02
-1.924902e-01
-2.540731e-01
1.431814e-01
-7.747585e-02
-2.994222e-01
2.193324e-01
2.851991e-03
-2.240284e-01
2.263201e-01
2.020466e-02
-1.835192e-01
-9.857265e-02
-9.882749e-02
-1.174493e-01
-2.828202e-02
-6.668254e-03
-7.977858e-03
4.193670e-02
5.914143e-02
3.501246e-02
8.393625e-03
5.382260e-02
-6.131208e-02
-1.575763e-02
-3.452438e-02
-7.057034e-02
-2.961048e-02
-2.341317e-02
-4.614203e-02
1.077651e-01
1.112797e-01
1.274766e-01
9.362498e-02
9.601434e-02
2.766722e-01
-1.544141e-01
-9.459518e-02
4.076128e-02
-1.200033e-02
7.394260e-02
5.277363e-02
-1.235664e-01
-3.822161e-02
-5.235646e-02
-7.397176e-02
-6.615083e-02
-1.259409e-01
-3.042552e-04
-1.162061e-02
-3.005714e-02
-5.340445e-03
-5.219432e-02
-6.148982e-02
2.659926e-02
-2.393634e-03
-3.943244e-02
-6.905656e-02
-2.541178e-02
1.460461e-02
-5.147883e-02
-6.298774e-03
8.195083e-03
-3.194418e-02
2.630383e-02
2.098740e-02
-7.464454e-02
-1.083261e-01
-1.026820e-01
2.544556e-02
-4.240905e-02
-1.072222e-01
1.510562e-01
1.314495e-01
7.878562e-02
-5.396594e-02
-2.567980e-02
-2.138626e-03
3.587403e-02
4.422605e-02
9.495010e-02
-6.000273e-02
-1.539039e-02
4.836994e-02
-1.175029e-02
-5.197155e-02
6.537964e-02
1.284728e-02
-7.261821e-03
4.374491e-02
4.307771e-02
5.565576e-02
1.639184e-02
5.520215e-02
3.066400e-02
-5.268906e-03
1.126499e-01
8.422275e-02
8.040126e-02
8.106271e-02
6.429994e-02
8.583878e-02
-1.072501e-01
-1.199028e-01
-6.420176e-02
-7.062200e-02
-7.692935e-02
-1.352013e-01
5.876831e-02
2.525297e-03
-5.586477e-02
-1.865309e-03
-4.252364e-02
-8.880413e-02
9.315186e-02
6.299657e-02
6.178131e-03
1.008717e-01
9.225762e-02
5.706451e-02
9.861344e-02
1.126134e-01
4.116886e-02
3.971135e-02
1.739102e-02
-1.640746e-02
-8.359922e-02
-9.102633e-02
-9.933250e-02
4.969319e-02
1.365657e-01
1.490306e-01
-1.009655e-01
-8.485064e-02
6.012090e-02
-2.180963e-01
-1.766275e-01
-1.822392e-01
-7.148417e-02
-1.250962e-01
-1.362436e-01
2.454784e-02
-7.369397e-02
-1.072357e-01
1.244688e-01
1.907837e-02
-6.409577e-02
-1.211325e-01
-1.517030e-01
-1.762591e-01
9.556004e-03
-2.762640e-02
-3.890700e-02
1.001790e-01
8.648416e-02
8.174377e-02
9.139992e-02
1.885397e-02
-3.724243e-02
1.555938e-01
7.133196e-02
3.911287e-02
1.145239e-01
1.027313e-01
4.990589e-02
-6.163209e-03
8.893795e-02
1.804711e-01
-1.066315e-02
1.977625e-02
9.422795e-02
7.707421e-03
-8.390195e-03
-7.728505e-03
-5.668176e-02
-2.154475e-01
-1.359528e-01
-1.205856e-01
-1.840051e-01
-8.657658e-02
-1.986309e-01
-2.555641e-01
-1.119316e-01
-1.009399e-02
3.202121e-02
1.032906e-01
-3.121533e-02
1.709584e-02
7.666344e-02
-5.705162e-02
-6.030681e-02
-1.341367e-02
2.664547e-02
-2.909741e-02
-8.384800e-03
5.576764e-02
7.205666e-03
2.952736e-02
3.610932e-02
3.275969e-02
3.817939e-02
-1.255680e-03
1.127491e-03
4.172022e-02
6.765614e-03
-4.184424e-03
4.543182e-02
9.860200e-03
6.375384e-03
4.233515e-02
-7.734032e-02
-2.743739e-02
2.662749e-02
-5.639736e-02
-4.027002e-02
1.579148e-03
-2.033543e-03
1.129136e-02
6.828381e-02
-8.247155e-02
-5.197724e-02
-2.969764e-03
-1.313097e-01
-6.768291e-02
1.728838e-02
-8.824528e-02
-1.132243e-01
-6.913778e-02
9.172825e-02
3.454666e-02
1.806156e-02
1.376946e-01
5.178704e-04
1.052893e-01
1.763112e-01
6.736958e-02
1.365085e-01
5.385993e-02
3.094994e-02
-4.379946e-02
4.552858e-02
5.289451e-02
-2.706673e-02
1.037573e-02
-1.441181e-02
-8.883704e-02
1.114982e-01
-7.361721e-02
-2.049105e-01
1.441967e-01
1.093364e-02
-1.009453e-01
4.664766e-02
-1.944423e-03
-1.356089e-02
-3.373257e-02
-1.763791e-02
-6.257901e-02
1.813156e-02
6.885187e-02
3.885781e-02
1.761975e-02
8.694191e-02
7.157863e-02
3.686588e-02
1.483156e-02
4.930712e-03
2.098511e-04
-4.380257e-02
-5.949778e-02
-3.608313e-02
-9.930391e-02
-1.269798e-01
-1.154622e-01
8.559759e-03
1.337849e-01
-1.687099e-01
-6.094161e-03
1.320079e-01
-1.922984e-01
-1.636068e-01
-3.723686e-02
-8.364258e-03
-9.716809e-02
-1.259474e-01
7.156564e-02
-3.668579e-02
-7.754982e-02
1.109774e-01
4.637164e-02
-1.399447e-02
-1.454669e-02
-6.706043e-04
4.989510e-02
-2.379395e-02
-3.503692e-02
1.239168e-03
1.625618e-02
8.940533e-03
8.617528e-02
