-1.663409e-01
-1.669163e-01
-1.715299e-01
-1.007148e-01
-7.193524e-02
-6.221277e-02
-4.968719e-02
-1.561724e-02
-7.507543e-02
3.679493e-02
-1.793490e-02
-5.651362e-02
-3.194105e-02
-6.803791e-02
-2.675454e-02
-1.318215e-02
1.638674e-02
6.856378e-02
8.774880e-02
-2.510985e-02
2.595433e-02
9.566566e-02
1.493556e-02
-7.889622e-02
5.835482e-02
1.208095e-01
8.546676e-02
2.842692e-02
4.852251e-02
1.423154e-02
-7.153845e-02
8.982736e-03
4.417048e-02
-1.369895e-01
-7.253680e-02
-6.690411e-02
1.305012e-01
1.369010e-01
8.205836e-02
1.563966e-01
1.380198e-01
1.001278e-01
1.017274e-01
1.220136e-01
8.119677e-02
1.100548e-03
3.451957e-03
1.260122e-04
2.184234e-03
-2.281407e-03
-6.568113e-04
-2.232832e-03
-4.765283e-04
-5.193851e-04
1.003544e-01
1.651119e-01
1.647625e-01
9.850195e-02
3.888264e-02
5.727689e-02
3.781501e-02
-6.065039e-02
-5.601664e-04
-9.255462e-02
1.420138e-03
3.346112e-02
2.275514e-02
-1.342678e-02
7.023225e-02
-5.582003e-02
-8.996505e-03
6.174387e-02
1.211103e-01
4.184256e-02
1.756906e-01
-7.756506e-02
-1.380421e-01
-5.237966e-02
-2.778939e-02
-7.488395e-02
-7.783974e-02
-3.126403e-02
-1.177191e-01
8.430053e-02
2.937853e-02
-1.260964e-01
-1.100115e-02
3.471928e-02
-4.251501e-02
-1.664911e-02
-3.492892e-02
-3.365487e-02
1.716271e-02
2.820686e-04
2.064799e-02
1.126162e-02
8.885746e-02
9.832430e-02
6.551822e-02
-5.378372e-03
1.419577e-02
-1.362672e-02
8.164806e-02
-1.560603e-02
5.834692e-02
7.627144e-02
5.833777e-02
2.335317e-02
-7.347758e-02
-1.662882e-02
1.208329e-02
1.182901e-01
3.856545e-02
-7.811157e-03
1.094517e-01
6.153320e-02
-8.419566e-03
9.731738e-02
1.131051e-01
5.245616e-02
-6.640178e-02
8.411779e-02
-3.885003e-02
-1.262613e-01
-1.620863e-01
-1.363995e-01
3.139843e-02
-7.264116e-02
-1.041092e-01
-4.867370e-02
-1.661970e-01
-1.755227e-01
-9.289608e-02
-1.969125e-01
-1.734735e-01
-6.446990e-02
-1.018464e-01
-7.999263e-02
-4.492082e-02
-2.306195e-02
2.118954e-02
-1.781183e-02
-4.415210e-02
-3.419929e-02
1.135433e-01
2.351079e-02
-7.889030e-02
2.054847e-01
1.496281e-01
1.558003e-01
7.426018e-02
1.029813e-01
9.788226e-02
-9.925258e-02
-4.155513e-03
5.563655e-02
-5.963188e-03
1.519491e-01
6.832446e-02
5.915367e-02
-5.201355e-02
-1.999789e-02
-7.719561e-02
-1.078539e-01
-6.188385e-02
1.195692e-01
7.066479e-02
6.981060e-02
-2.384958e-02
7.023409e-02
7.418326e-02
7.935262e-02
2.296408e-02
4.712560e-02
6.769284e-02
-1.621871e-02
6.135914e-02
3.364652e-03
-4.636221e-02
-1.223817e-01
4.690435e-03
-1.458394e-02
4.459587e-02
-2.392933e-02
-6.133231e-02
-3.788883e-02
1.433871e-02
-3.307370e-02
-7.025918e-02
-7.542483e-04
-1.504490e-03
7.512473e-04
1.316961e-04
-3.896575e-03
8.080644e-04
5.318783e-05
-1.231074e-03
1.648261e-03
-2.473197e-01
-1.175552e-01
1.372718e-02
-1.786057e-01
-3.279673e-01
-1.068004e-01
-9.496824e-02
-1.992750e-01
-6.784192e-02
1.329265e-03
-3.075571e-02
-9.663691e-03
-1.663348e-02
-6.202456e-02
-5.898997e-02
-3.159165e-02
-7.489957e-02
3.205481e-02
-1.704465e-01
-2.369440e-01
-1.932662e-01
-1.764657e-01
-3.218580e-01
-2.885640e-01
-9.810653e-02
-2.604294e-01
-1.960988e-01
1.973381e-02
-2.788629e-02
2.075247e-02
1.083954e-01
1.592441e-01
1.006501e-01
4.407565e-02
1.195503e-01
1.754040e-01
-6.154109e-02
5.335236e-02
5.628562e-02
-4.935608e-03
-2.753225e-02
-6.636805e-02
2.590260e-02
-6.813156e-03
-2.003354e-03
-2.593713e-02
-2.657942e-02
1.542226e-02
-9.249607e-02
-1.758604e-01
-1.297090e-01
-1.304236e-02
-3.324087e-02
-5.320990e-02
-1.137373e-01
1.904881e-02
3.947136e-02
-3.440843e-02
-3.356063e-02
-5.398459e-02
-3.231477e-02
4.105316e-02
8.869150e-02
3.166771e-02
1.817487e-02
7.786188e-02
1.578851e-01
1.866172e-01
8.006147e-02
1.368286e-01
1.971881e-01
9.617388e-02
-1.402208e-01
-9.699734e-02
-4.491995e-02
-2.382088e-01
-2.602488e-01
-1.564612e-01
-1.336033e-01
-1.637085e-01
-2.317607e-01
-7.075261e-02
-5.800304e-02
-8.452693e-02
-1.256566e-02
-8.015028e-02
-1.541192e-01
-9.244061e-02
-1.159803e-01
-6.061228e-02
6.991722e-02
1.508670e-01
-2.259562e-02
6.264139e-02
4.383640e-02
-4.031840e-02
6.199031e-02
1.026638e-01
6.081356e-02
-8.151730e-02
-3.039329e-01
-1.089342e-01
-1.447254e-01
-1.306204e-01
9.927461e-02
-4.358422e-02
4.489500e-02
1.023378e-01
-3.781824e-02
-2.508745e-01
-1.318096e-01
-9.264617e-02
-5.242862e-02
-8.119085e-02
-2.309866e-02
-1.112882e-01
-7.649900e-02
-1.688567e-01
-1.899478e-01
-1.864344e-01
-1.671904e-01
-7.970286e-02
-2.919626e-02
-1.302371e-01
-3.666885e-02
9.505437e-02
-2.077987e-02
8.705583e-03
-3.611316e-02
-9.006421e-02
-8.657122e-02
-4.441442e-02
1.301176e-02
3.199281e-03
-5.057811e-03
3.025589e-03
2.756878e-03
-2.587796e-04
-1.818546e-03
3.077117e-04
1.175528e-03
1.630715e-04
1.773769e-03
3.114915e-03
4.722312e-02
1.078633e-01
5.152149e-02
8.034240e-05
6.993433e-02
2.702591e-02
-5.101068e-02
-8.526308e-02
9.358452e-02
7.106837e-02
6.269739e-04
8.192301e-02
5.114844e-02
3.569711e-02
-8.313365e-02
-1.512964e-01
-1.113450e-01
-1.063073e-01
-1.188910e-01
-1.868419e-01
1.337111e-02
-2.567421e-01
7.232940e-02
-1.659583e-01
-4.171194e-02
3.391289e-02
-5.291663e-02
-6.869555e-03
-1.388572e-01
2.517321e-02
-6.280153e-02
-6.285387e-02
5.345370e-02
-1.202484e-01
-6.058516e-02
-3.774218e-02
-1.756372e-01
-1.203474e-01
3.428795e-02
7.576106e-03
6.581929e-02
8.313706e-02
4.967743e-02
9.211607e-02
1.808675e-02
9.162832e-03
8.553709e-02
-1.273190e-02
3.937340e-02
-7.200808e-02
-1.506946e-01
-3.607931e-02
-9.004268e-02
2.569534e-02
4.602524e-02
9.710492e-03
1.957531e-02
1.528849e-01
3.741856e-02
-1.387709e-01
7.719015e-02
8.527280e-04
-1.057095e-01
-4.328004e-02
1.612237e-02
-1.026268e-01
1.047395e-01
3.653678e-03
-2.194765e-03
1.485487e-02
-8.753899e-02
-1.787409e-02
-6.307486e-02
-1.302806e-01
1.028825e-01
-2.153351e-01
-4.689098e-02
-5.929931e-02
4.611116e-02
1.642599e-01
-1.740399e-01
-2.483497e-02
1.429861e-01
7.179336e-02
4.034675e-02
1.230202e-01
4.021665e-03
4.330030e-02
-6.556077e-03
1.585288e-02
1.609409e-01
9.622151e-02
6.973884e-02
1.141280e-01
1.158790e-01
1.163185e-01
1.356419e-01
1.044671e-01
9.051909e-02
5.826908e-02
-1.641887e-02
4.058488e-02
-4.762259e-02
2.523550e-02
2.643187e-03
-1.259047e-01
-1.005110e-01
1.096611e-02
6.792601e-02
5.100476e-02
1.037245e-01
4.016102e-02
-2.628279e-02
-5.288533e-02
-8.817242e-03
-6.784776e-02
-9.245413e-03
-2.238703e-02
2.114266e-02
-1.101719e-02
-1.467000e-01
3.856358e-02
1.071075e-01
-1.727293e-01
7.193638e-02
9.907375e-02
2.972758e-02
2.958256e-02
2.649784e-02
4.374446e-03
5.429288e-02
5.455138e-02
1.190756e-01
1.223415e-01
6.550772e-02
7.678061e-04
1.819698e-03
7.077672e-04
-9.984510e-04
-2.776157e-04
2.478541e-03
2.141909e-03
1.262368e-03
-1.709370e-03
-1.500882e-01
-9.304257e-02
4.428595e-02
-1.135006e-01
-1.542092e-01
-1.548998e-02
-4.217198e-02
-6.982695e-02
-8.372068e-02
4.714611e-02
4.632578e-02
5.206178e-02
3.524086e-02
3.657942e-02
9.893568e-03
-4.081418e-02
1.575781e-02
2.284626e-02
-5.751509e-02
-5.580855e-02
-3.084110e-03
-3.633268e-01
-4.305999e-01
-3.517297e-01
-3.518993e-01
-4.603731e-01
-3.191620e-01
-3.079680e-02
5.199731e-02
9.494745e-02
-2.503236e-02
-6.258047e-02
-1.383782e-01
-2.883980e-02
-1.541961e-01
-1.590900e-01
1.099124e-02
-4.836487e-02
-2.505129e-02
1.442441e-01
1.537905e-02
-5.050041e-02
1.171167e-01
2.958643e-02
-3.604210e-02
2.192186e-02
6.576284e-02
-9.430186e-03
5.661601e-02
6.197643e-02
3.367824e-02
4.906569e-02
5.274519e-02
1.052513e-02
-8.320583e-02
1.388984e-02
8.812097e-02
-1.882561e-02
5.785091e-03
-1.196269e-02
-6.266474e-02
5.283610e-03
-1.540665e-02
-5.134264e-02
-3.932589e-02
-9.194838e-02
-2.005892e-01
-1.702366e-01
-5.817461e-02
-1.976475e-01
-1.281055e-01
-5.029436e-02
9.781016e-02
-3.407025e-03
-1.168324e-01
-4.282652e-02
-2.469929e-01
-3.183531e-01
-9.872361e-02
-2.991789e-01
-2.292124e-01
-7.004960e-03
3.068972e-03
-1.435911e-01
-2.517660e-02
-3.302346e-02
-3.958492e-02
-1.803391e-02
-2.576975e-02
7.183307e-02
1.443003e-02
2.386243e-02
6.570246e-03
-6.892213e-03
2.078194e-02
-2.311217e-02
-1.654985e-02
-7.059578e-02
-9.198038e-02
-1.093157e-03
-5.265011e-02
-1.158559e-01
5.586334e-02
1.139974e-02
-7.548133e-02
6.225645e-02
8.694991e-02
2.116031e-02
2.303870e-02
-2.439447e-02
-7.590907e-02
2.529822e-02
3.138258e-02
-3.159852e-02
-3.203287e-02
-5.231650e-02
-7.488345e-02
-3.495557e-03
3.291918e-02
-7.151406e-02
1.965602e-02
-1.524458e-02
-1.023855e-01
1.419154e-02
-4.106848e-02
-1.213302e-01
6.476067e-02
7.030556e-02
1.078365e-01
-2.457517e-03
1.503581e-02
3.517651e-02
-4.961757e-02
-4.911558e-02
-1.825314e-02
-9.822948e-04
-3.876163e-03
-5.675638e-04
-1.870274e-03
-2.309917e-03
3.547635e-03
-7.724472e-04
-8.619246e-05
8.479340e-04
-1.245273e-01
-1.574417e-01
-2.094527e-02
-7.992203e-02
-5.583243e-02
2.283778e-02
-9.476646e-02
1.305436e-02
4.948486e-02
7.720041e-02
5.495243e-02
2.477724e-02
5.278335e-02
3.834446e-02
-3.792628e-02
5.285193e-02
5.534884e-02
-4.050748e-02
5.905921e-02
-4.190620e-03
-8.596703e-02
1.184175e-01
-2.992002e-03
-4.125999e-02
1.739179e-01
4.948937e-03
-5.083288e-02
5.944863e-02
4.639355e-02
7.178722e-02
8.980772e-02
8.971319e-02
7.679319e-02
1.058686e-01
4.196745e-02
4.884636e-02
-2.724734e-02
9.742448e-03
1.226944e-02
2.101636e-02
8.031165e-02
6.389377e-02
1.890462e-02
1.112796e-03
7.296078e-02
-5.585683e-02
-9.746145e-03
8.286801e-03
2.088172e-02
-3.598256e-02
-4.107555e-02
3.770115e-02
6.245274e-02
1.510353e-03
4.047781e-02
8.266344e-03
-1.429014e-03
5.296456e-02
5.963356e-02
2.938051e-02
-1.135411e-02
2.202495e-02
7.435013e-02
1.031040e-01
7.634694e-02
-4.762539e-02
9.889089e-02
2.515967e-02
-2.358063e-02
7.987796e-02
3.082159e-02
-3.521928e-02
-3.778590e-02
6.699819e-02
-2.527198e-02
1.097454e-01
7.466783e-02
-7.982528e-02
8.079026e-02
4.857508e-02
-3.811640e-02
-7.327344e-02
-2.874894e-02
-1.868439e-02
-3.067275e-02
-9.896336e-03
1.671980e-02
4.346322e-02
5.738719e-02
4.985830e-02
3.681875e-02
1.388650e-02
4.488555e-02
-1.871973e-02
-7.321253e-02
-4.894346e-02
-2.375085e-02
-3.028360e-02
-7.710578e-02
-2.520017e-02
2.380904e-02
-1.048306e-02
-3.842787e-02
-2.104321e-02
-6.056402e-02
-6.640010e-02
-7.398994e-02
-4.063432e-02
-4.392519e-02
2.806736e-02
7.083881e-02
2.550212e-02
5.425707e-02
9.977214e-02
-4.300547e-02
-9.149072e-02
6.626552e-03
2.573523e-03
8.039702e-02
4.262222e-02
2.284828e-02
6.194942e-02
2.595887e-02
-2.880393e-02
-4.407176e-03
4.206939e-03
5.964968e-02
4.047426e-02
-1.009609e-03
1.864423e-02
2.329594e-02
-5.311168e-03
5.716608e-03
3.620453e-02
4.685305e-02
5.428992e-04
1.138344e-03
-2.175578e-03
-1.458912e-04
-1.776343e-04
-2.364512e-04
1.897603e-03
2.416827e-03
2.276350e-04
3.826290e-03
-8.310255e-02
-3.564881e-02
-1.739654e-03
2.528862e-02
5.483447e-02
4.206329e-02
6.454763e-02
4.247265e-02
-7.748944e-02
-1.041910e-02
1.793933e-02
-3.611968e-02
6.096668e-03
2.241058e-02
-3.469440e-02
-2.133079e-02
4.233891e-02
-1.382811e-02
3.172316e-02
-1.139650e-01
2.831892e-02
5.128063e-02
-3.550226e-02
6.885916e-02
1.008156e-01
4.781106e-02
-1.212623e-02
6.712054e-02
-4.861162e-02
-4.337903e-02
7.079749e-02
4.752862e-02
2.561451e-02
7.136331e-02
5.462226e-02
-4.549884e-02
2.857679e-02
-3.550420e-02
-7.510722e-02
-3.936692e-02
-8.503653e-03
-8.685158e-02
-2.676438e-02
-1.865496e-02
3.838400e-02
2.709991e-02
8.347896e-02
2.413637e-02
1.987395e-02
3.145417e-02
-3.538965e-02
1.232364e-04
2.702378e-03
1.053760e-02
3.989040e-02
5.690705e-04
-3.207498e-03
2.207242e-02
5.188109e-02
7.954014e-03
2.276821e-02
7.393166e-02
-7.518386e-03
8.488258e-02
4.812141e-02
2.288047e-02
8.262758e-02
4.868627e-02
-4.888938e-04
4.491622e-02
-1.431621e-02
-2.952843e-02
2.826806e-02
-3.668382e-03
-2.213064e-02
5.514758e-03
-1.900936e-02
-8.415441e-02
-7.764794e-02
5.582402e-02
4.718301e-02
1.268572e-02
-7.111054e-03
2.602518e-02
-2.744131e-02
-3.920420e-02
-2.212565e-02
1.431639e-02
-4.949215e-03
-3.290082e-02
-3.688580e-02
-5.478856e-02
1.749080e-02
2.354769e-02
1.817039e-02
-4.028000e-02
-7.145693e-02
-2.270083e-02
1.828586e-02
4.400465e-02
3.058827e-02
-2.582145e-02
9.383797e-03
7.908638e-02
-2.582061e-02
1.320303e-02
8.169363e-02
-1.974801e-02
2.761260e-02
2.694824e-02
-4.018630e-02
-3.504909e-02
2.497111e-02
-3.911564e-02
-7.809103e-02
1.606544e-02
-6.976590e-02
-3.127887e-02
-1.964754e-02
-7.785923e-02
-5.377155e-02
3.942158e-02
-9.100416e-02
-7.016200e-02
2.910595e-02
-1.167466e-02
-2.235851e-02
-1.728415e-02
-5.550762e-02
-4.465806e-02
-5.114402e-02
-5.090873e-04
4.315022e-03
1.654212e-02
2.693170e-03
2.029008e-03
-2.356324e-03
2.635015e-03
-1.169924e-03
1.181051e-03
4.822477e-04
-1.540016e-03
-1.609537e-03
-4.025879e-02
-6.297602e-02
-9.774416e-02
-5.303857e-02
4.293215e-02
-8.657674e-03
1.770595e-02
7.432385e-02
2.737990e-02
6.416017e-03
-9.384759e-03
4.077901e-02
-4.550080e-02
-4.585723e-02
5.387754e-04
-4.409255e-02
-1.653969e-02
-1.343310e-02
-7.195507e-02
4.740443e-02
3.157543e-02
-1.074808e-01
6.019802e-03
6.993368e-02
-6.671151e-02
-5.636854e-03
6.737815e-02
-7.224178e-02
5.362476e-02
-2.699693e-02
-4.408857e-02
1.956976e-03
1.291534e-02
2.147892e-02
-1.249637e-02
-9.548089e-02
8.288014e-03
4.711035e-02
4.526747e-02
-2.021554e-02
1.070539e-02
2.289036e-02
-6.069292e-04
3.386260e-02
2.168445e-02
-1.977904e-03
-1.644362e-02
-1.840877e-02
4.831946e-03
-8.337712e-03
-5.694218e-03
2.058837e-02
1.608901e-02
1.411798e-02
-4.286172e-04
1.103075e-02
-2.720493e-02
-6.547781e-02
2.112503e-02
-2.893076e-02
-3.656822e-02
2.975498e-02
-3.114887e-02
4.506984e-02
-3.949362e-02
6.713100e-02
5.109765e-02
-3.462547e-02
4.429301e-02
4.274628e-02
-2.445240e-02
7.359321e-03
6.446421e-02
6.594586e-02
-2.468927e-02
7.900414e-02
-3.482819e-02
-4.576989e-02
-5.262621e-02
-4.752312e-02
4.908770e-02
-2.689357e-02
-7.429869e-03
-1.045811e-02
-3.191538e-02
2.753928e-02
1.771809e-02
-2.183477e-02
-2.016029e-04
-4.609318e-02
7.654300e-02
-3.666839e-02
-6.758677e-02
-6.530912e-02
1.190138e-01
8.344209e-02
-5.994533e-02
1.089657e-01
7.216841e-03
-2.110869e-01
2.785961e-01
4.499337e-02
2.831656e-01
7.858438e-02
-2.553137e-02
1.615160e-01
-6.467919e-03
-2.274379e-01
-3.154323e-01
-1.847695e-01
4.464841e-02
2.501965e-01
-1.556115e-01
-1.484178e-01
-2.580582e-02
1.051911e-01
-2.186843e-02
3.688414e-02
-5.426696e-02
-3.614774e-02
2.118591e-01
1.440565e-01
6.965759e-02
3.336469e-02
7.116815e-02
-1.611932e-01
6.592476e-02
7.219784e-02
7.604773e-02
-1.322909e-02
-9.850383e-02
-9.546626e-02
8.924620e-02
-6.175546e-03
-3.061410e-02
-4.431291e-04
7.755100e-04
-1.314772e-03
1.080316e-03
-1.213275e-03
-1.068518e-03
1.704460e-05
-6.360495e-04
-3.761709e-04
6.288061e-02
-3.019363e-02
-4.665851e-02
8.831608e-02
4.546769e-02
-1.325063e-01
-1.237841e-01
3.653167e-02
-4.113689e-02
-1.657185e-01
2.348764e-01
-1.090365e-01
1.331322e-01
-1.224180e-01
3.738484e-02
1.346362e-02
5.919747e-02
-4.714681e-03
-1.343215e-01
-5.752266e-03
-6.481847e-02
1.409514e-01
-5.645078e-03
3.505928e-02
-1.014802e-01
1.482701e-01
-6.988428e-02
-4.496700e-02
-7.399325e-03
6.337138e-02
2.568249e-02
1.125000e-01
6.254151e-03
-1.531366e-01
-8.132432e-03
-7.124681e-03
1.228096e-01
8.604656e-02
-1.186725e-02
3.580851e-01
-8.113211e-02
-3.522498e-01
1.621871e-01
7.220899e-02
-3.155602e-03
2.981961e-01
-4.927747e-02
-1.546060e-01
-2.228544e-01
-6.021624e-02
-2.788619e-02
8.464961e-02
3.785126e-02
-3.293254e-02
-1.341970e-01
6.936160e-02
4.526639e-02
-9.359453e-02
-3.923515e-01
3.264622e-02
1.871938e-01
6.907657e-02
2.618928e-02
-6.585986e-03
-4.218515e-02
-1.051122e-01
-1.637160e-01
1.292745e-01
1.627759e-01
-1.543760e-02
2.911611e-02
1.451882e-02
-1.872349e-01
-1.773936e-01
-3.322027e-02
-1.738294e-01
1.475215e-01
2.003763e-01
-1.277882e-01
-1.349669e-01
2.047142e-01
3.189449e-01
8.934353e-02
-2.048188e-02
5.467195e-02
-7.507420e-02
6.342531e-02
-1.002594e-01
-1.485876e-01
-6.569572e-02
4.773775e-02
7.460520e-02
4.886458e-02
-1.180021e-02
-1.114604e-02
-9.693441e-02
-1.580494e-01
-1.246313e-01
-1.625787e-01
1.096661e-01
1.616501e-01
-1.705555e-01
9.121396e-02
-1.363073e-01
-2.082716e-01
6.299717e-03
-1.305284e-01
-2.799189e-02
2.951622e-02
4.305218e-02
1.968415e-02
8.631623e-03
6.659936e-03
2.312456e-02
3.796113e-02
-5.987213e-02
-5.713596e-02
1.118567e-01
1.290421e-01
1.392383e-01
8.770806e-02
2.240904e-02
6.462993e-02
-1.802724e-02
-1.764469e-01
-1.212802e-01
9.469296e-02
2.669685e-02
-3.828092e-02
8.402196e-03
-6.877094e-02
-7.753357e-02
-4.670072e-02
-2.724054e-02
-1.464930e-02
7.666988e-04
-1.906681e-03
9.989553e-05
1.074283e-03
-3.548801e-04
2.693722e-03
-2.915380e-04
-9.072369e-04
1.037489e-03
1.636461e-01
-7.293811e-02
-2.888496e-01
-9.907859e-03
2.724290e-01
-1.124350e-01
4.467836e-02
2.989618e-01
1.289838e-01
-6.927130e-02
-1.178253e-02
-7.556432e-02
-2.228737e-02
-1.573591e-01
-3.564672e-02
-8.541373e-02
-1.157684e-01
-1.221246e-01
-1.064392e-01
-6.476218e-02
-1.263953e-01
-6.042284e-02
1.942713e-02
7.749007e-02
-5.520014e-02
7.866615e-02
-5.807921e-02
-1.744512e-01
1.410043e-01
-4.863912e-02
-1.612589e-01
3.284615e-01
1.664719e-01
4.336600e-05
6.129810e-02
1.947882e-01
-3.100808e-02
-2.158838e-02
1.787712e-03
-5.685833e-02
-1.126304e-01
1.018908e-01
1.672422e-02
7.426085e-02
2.222480e-01
-7.945978e-03
-4.289438e-03
-6.930301e-02
6.489886e-02
1.016068e-01
-6.298479e-02
1.147351e-01
9.498224e-02
1.454647e-02
-4.377113e-02
-4.523769e-02
4.458367e-02
1.435742e-02
-1.257033e-01
1.317520e-01
-1.390497e-02
-6.188402e-02
7.622277e-02
-2.280291e-02
6.146611e-03
2.145100e-01
-2.301635e-01
-3.240381e-02
1.356716e-01
-1.004430e-01
2.838900e-02
1.698707e-02
-1.871456e-02
1.078636e-01
-1.136136e-01
1.767863e-01
1.060482e-01
-4.861065e-03
-1.211032e-01
-7.581253e-02
9.281044e-02
1.687509e-01
-1.152465e-01
1.207677e-02
4.369035e-02
2.277148e-02
1.064802e-01
3.864149e-02
1.465803e-01
1.324473e-01
3.707151e-02
1.948702e-02
8.655105e-03
-2.827758e-02
4.892608e-02
5.372086e-02
-4.216817e-02
3.055720e-02
6.829320e-02
-1.165125e-01
-6.838746e-02
-8.125643e-03
-2.896589e-02
2.318654e-04
-2.520965e-02
2.730174e-02
6.497430e-02
-1.181150e-02
-8.875252e-02
-6.420226e-02
-6.989983e-02
5.785069e-03
3.203386e-02
-6.586460e-02
1.654629e-02
2.831060e-02
-6.831532e-03
-3.071557e-02
-3.152194e-02
4.489566e-02
-1.585497e-02
-3.257809e-03
2.574779e-02
-3.049361e-02
-5.961130e-02
-1.496352e-02
3.677053e-02
4.241567e-02
4.496862e-02
2.616234e-02
1.738159e-02
4.661366e-02
-2.619231e-02
-3.530809e-02
-1.911493e-02
1.046827e-03
-1.738447e-05
1.350851e-03
-3.171343e-04
3.154803e-04
-8.486435e-04
5.895809e-04
2.056846e-03
-5.504874e-04
-1.266227e-02
7.171100e-02
1.531883e-01
5.503491e-02
5.791526e-02
2.432692e-02
-6.261555e-03
-1.192501e-02
-5.327591e-02
-1.959374e-02
3.117880e-02
6.707017e-03
3.086557e-02
1.084492e-02
-1.027812e-02
6.798369e-03
-1.385448e-02
1.340081e-02
1.130750e-01
-6.070133e-02
8.283295e-02
7.360617e-02
-1.331042e-01
3.364027e-02
1.139558e-01
-8.460317e-02
1.048498e-01
-7.935284e-02
-8.842178e-02
7.302103e-03
-9.885468e-03
-2.479535e-02
-4.996310e-02
-1.810574e-03
-5.028366e-02
-5.688616e-02
-1.774524e-02
-1.597436e-02
-6.453583e-02
4.313618e-02
4.984791e-03
-9.398711e-02
2.890556e-02
1.726531e-02
-1.055189e-01
1.029482e-02
7.549649e-02
-2.919408e-03
-1.778344e-02
1.005993e-02
-2.530351e-02
-8.120206e-03
5.460034e-02
9.341189e-03
-3.544852e-02
4.688131e-02
6.324545e-02
7.341494e-03
-2.683967e-03
-3.082960e-02
1.480111e-02
1.483211e-02
-1.123683e-02
1.670223e-02
-3.361207e-02
-3.060380e-02
1.912806e-02
3.860465e-02
2.460312e-02
8.288080e-03
5.255035e-02
1.034577e-02
-4.102737e-03
-9.418578e-02
-7.338739e-02
-6.935073e-03
-2.653088e-03
-8.736708e-02
9.803828e-02
-2.767007e-02
-4.275420e-03
2.206071e-02
2.249405e-02
4.106157e-03
4.514204e-02
9.356229e-03
1.953268e-02
2.095238e-02
-3.490844e-02
-3.837521e-03
-1.297148e-01
-7.153694e-02
-2.495711e-02
-7.416447e-02
-7.524842e-02
-4.792822e-02
-7.741538e-02
-6.025024e-02
-2.851819e-02
4.627586e-02
-1.377974e-02
-3.807339e-02
-1.145498e-02
-9.796876e-02
-3.009491e-02
6.437905e-02
1.487574e-02
-1.251478e-02
3.168789e-02
5.821043e-02
-6.826358e-02
-1.354178e-02
2.424736e-03
5.618541e-03
1.558716e-02
1.570278e-01
1.432055e-01
-7.629531e-03
-1.453486e-02
2.525242e-02
7.421589e-03
-9.725174e-02
-1.667505e-02
-2.029329e-02
-6.344514e-02
6.901778e-02
7.949064e-02
1.701543e-02
7.694618e-02
8.596504e-03
-2.567696e-02
-8.759719e-04
-4.365102e-02
-1.371293e-03
1.522771e-01
-7.584459e-04
-4.767628e-04
-2.814510e-03
-4.712752e-04
-1.581131e-03
1.862312e-03
-1.619013e-03
-1.407488e-03
-1.024832e-03
1.344272e-01
1.347336e-01
9.111064e-02
1.045144e-01
7.489154e-02
1.303248e-02
1.603281e-01
8.249726e-02
3.407289e-02
-3.884848e-03
-2.863611e-02
-1.814239e-02
6.842044e-02
2.220827e-02
3.923921e-02
2.636523e-02
3.872611e-02
-1.619833e-02
-1.237276e-01
-2.053795e-01
-1.403580e-01
-2.512664e-01
-2.816587e-01
-1.811664e-01
-2.905236e-01
-2.643070e-01
-1.391468e-01
-1.021774e-01
-2.354115e-01
-2.516384e-01
-2.064010e-01
-3.873654e-01
-2.896371e-01
-1.531814e-01
-2.328289e-01
-2.177149e-01
3.848103e-02
-1.485733e-02
4.531403e-03
-3.987622e-02
1.197485e-02
3.004869e-02
6.210565e-02
1.375727e-02
2.834007e-02
-1.210106e-01
-1.034178e-01
-3.935526e-02
-1.082227e-02
-1.312120e-02
-6.056993e-02
-3.178148e-02
-2.627749e-02
-1.227947e-02
-1.366537e-03
2.250117e-02
-5.730528e-02
4.810010e-02
4.436738e-02
4.542964e-02
9.707097e-02
1.221578e-01
4.485803e-02
1.316345e-02
-3.400062e-02
-1.743549e-02
-2.733697e-02
-1.290553e-01
4.029389e-03
8.007701e-02
-6.867418e-02
-2.890389e-03
-3.489029e-02
8.448274e-02
4.533513e-02
-9.194741e-02
1.106450e-01
8.469799e-02
9.176076e-02
1.051576e-01
1.541247e-01
-5.824451e-03
6.590709e-02
-2.559424e-02
2.505351e-02
8.442272e-02
3.718473e-02
3.211880e-02
9.953652e-02
1.064767e-02
-8.006105e-03
2.827172e-02
1.956651e-02
-1.429765e-02
2.000797e-02
1.186017e-03
-1.649264e-02
-3.211706e-02
-3.688822e-02
3.662229e-02
3.092619e-02
-3.931835e-02
2.917490e-02
7.039298e-03
-2.943824e-02
3.782234e-02
-6.441228e-04
-4.882907e-02
-2.588835e-02
-3.141800e-02
-1.914526e-02
-5.009299e-02
1.764608e-02
1.151899e-02
-1.207351e-02
3.614292e-03
6.649347e-03
8.542874e-02
5.681840e-02
-5.629352e-02
1.219044e-01
7.917816e-02
-3.998899e-02
1.077354e-01
6.655343e-02
-2.344619e-02
-1.012466e-02
-5.704898e-03
-5.736346e-03
4.548368e-03
-4.959023e-03
-1.103691e-02
7.456692e-03
6.811464e-03
8.184865e-04
-9.868554e-04
1.289887e-03
-2.633522e-03
-5.084431e-04
5.729515e-04
2.096028e-03
2.681719e-03
1.362123e-03
9.707966e-04
-1.571099e-05
1.949056e-02
1.191141e-01
2.438083e-02
4.465684e-02
9.805716e-02
1.317590e-02
-1.292925e-02
3.173821e-02
3.366192e-03
1.504449e-02
-2.669477e-02
-2.391097e-03
1.226445e-02
1.069144e-03
2.641197e-03
3.130943e-02
3.444593e-02
4.959127e-02
-7.969207e-02
-9.798485e-02
8.471003e-02
-7.650298e-02
-9.395020e-02
8.151226e-02
-7.349843e-02
-1.179462e-01
4.750094e-02
6.872091e-02
2.777173e-02
4.459425e-02
4.348728e-02
4.255353e-02
2.038600e-02
-6.056548e-02
2.405083e-02
2.627921e-02
-9.802809e-03
-8.428646e-03
3.269513e-02
-6.181413e-03
-1.530176e-02
2.952222e-02
-6.459676e-03
-3.283365e-02
-2.857294e-03
5.136289e-03
2.349880e-03
-4.633737e-03
8.906981e-03
4.544644e-03
-2.447380e-02
2.508737e-02
1.172424e-02
1.234161e-02
-4.351093e-02
-2.302371e-02
-1.099779e-02
-3.468849e-02
-2.570372e-02
2.954908e-02
-2.610295e-02
3.309401e-03
-9.430928e-03
-1.160160e-02
-1.123988e-01
9.062749e-03
4.694301e-02
-1.298221e-01
4.874884e-02
6.307893e-02
-1.817997e-02
-4.726948e-02
2.226513e-02
-2.438656e-02
-4.359835e-03
2.856366e-02
1.095051e-02
1.660529e-02
4.674024e-02
1.169056e-02
5.188261e-02
-1.298510e-02
-7.248445e-03
5.777119e-02
-3.983445e-02
-3.984672e-02
3.546182e-02
6.104791e-03
1.241037e-02
5.504709e-02
4.466645e-02
-8.370970e-02
-5.609758e-02
3.865650e-02
5.040181e-03
-4.931640e-02
-5.944130e-03
1.305482e-02
2.524720e-02
1.806076e-04
3.900816e-02
-5.723644e-02
-1.379709e-01
-1.168328e-01
-6.392567e-02
-1.216956e-01
-1.439678e-01
9.674429e-03
2.729177e-02
3.411436e-02
-5.474505e-02
-6.194422e-02
-3.391373e-02
-9.093339e-02
-7.058236e-02
-5.951695e-02
1.740862e-02
4.534388e-02
6.088494e-02
-1.772954e-02
8.187396e-02
1.221680e-01
2.751535e-03
1.142686e-01
8.933520e-02
-4.672918e-02
1.805493e-03
-2.668011e-02
6.741099e-02
6.707200e-02
2.728954e-02
2.194185e-02
3.592870e-02
4.009578e-02
-7.259572e-04
-4.660599e-04
-6.010100e-04
1.235153e-03
1.314083e-03
-1.116525e-03
1.439434e-03
3.010492e-03
-6.044579e-04
2.416713e-02
-6.902102e-02
-2.846729e-02
6.383334e-02
-7.961720e-02
-1.454870e-01
-2.109621e-02
-1.008348e-01
-9.457493e-02
-3.962068e-02
-2.948215e-03
3.711414e-02
-1.251218e-02
5.036135e-02
8.242334e-02
-8.323574e-02
-5.976256e-02
-3.905564e-02
-2.956020e-02
-1.105331e-01
-1.364042e-02
1.788771e-02
2.127881e-02
3.252072e-02
1.391568e-01
1.773949e-01
2.120048e-01
5.202865e-02
-3.287684e-02
-4.767446e-02
-6.732433e-02
3.622601e-02
6.084589e-02
-1.893146e-01
2.696576e-02
2.097233e-01
-1.682809e-02
-9.031425e-03
-1.293810e-04
1.560980e-02
-3.596960e-02
-5.949239e-03
3.632043e-02
4.137454e-02
5.173666e-02
3.893701e-02
7.502761e-02
3.668277e-02
-3.379668e-03
1.979344e-02
1.143833e-02
-3.683371e-02
-7.890344e-02
-1.168947e-01
-1.808118e-02
-4.516635e-02
-1.885555e-02
-4.974531e-02
-1.072183e-02
-1.930037e-02
-4.888380e-02
2.556335e-02
2.453137e-02
-8.908471e-02
-9.899824e-03
2.511348e-02
-1.093677e-02
1.323177e-01
1.017860e-01
5.917976e-02
2.062367e-01
1.558355e-01
-1.000514e-02
-1.064687e-01
-1.318007e-01
3.648760e-02
-1.794722e-02
8.631827e-03
1.539263e-01
1.624781e-01
1.156645e-01
1.498701e-02
-6.513613e-03
5.050241e-02
6.306940e-02
7.003026e-02
1.092948e-01
-3.133421e-02
4.114585e-04
1.160438e-02
-2.638123e-03
-1.610554e-01
-2.694652e-02
9.998202e-03
2.468019e-01
3.560913e-02
8.426865e-02
1.744588e-02
5.918632e-02
-1.365403e-01
3.945449e-01
3.138572e-02
1.680579e-01
-1.027873e-01
9.592675e-02
1.329089e-02
-2.076723e-01
-2.703799e-02
-3.306630e-02
3.950239e-01
1.529278e-01
-6.623735e-02
-4.723063e-01
-9.303878e-02
2.117799e-01
9.294158e-02
-2.553657e-02
-1.159416e-01
-8.072762e-02
3.997041e-02
1.363683e-02
-5.052683e-02
8.978118e-02
-2.788129e-02
2.208524e-03
-5.022290e-03
-1.435098e-01
-1.054758e-01
-2.091323e-01
-5.442531e-02
-6.330033e-03
-3.681216e-02
5.166020e-02
-2.220000e-02
-4.372331e-02
1.238341e-03
4.015798e-03
1.001448e-04
2.827383e-03
-4.976751e-03
-3.946875e-03
-1.932983e-03
1.342825e-03
-3.556781e-03
-2.332511e-02
-4.691681e-03
8.566646e-02
-5.158776e-02
2.748382e-02
-6.425104e-02
-4.281027e-02
-3.447537e-02
-2.691576e-02
-2.476943e-01
-4.009090e-02
-3.796110e-01
8.991007e-02
2.670269e-03
2.979929e-01
2.257260e-01
1.060420e-01
-8.259795e-03
4.758725e-02
-5.125714e-02
-4.836405e-02
6.046339e-02
-1.021676e-01
5.061983e-02
-4.927398e-02
1.423443e-01
-6.422441e-02
-1.685915e-02
1.727760e-01
1.887921e-02
-8.429936e-02
-6.692147e-02
-4.070570e-02
6.012783e-02
-5.661393e-02
5.287474e-02
9.286951e-02
1.590593e-01
1.048470e-01
-1.360394e-01
-2.916657e-01
-2.185388e-01
1.342387e-01
4.945616e-02
-8.232458e-02
6.685966e-02
-2.508456e-01
-1.416478e-01
-1.878829e-02
4.018813e-01
2.159279e-01
1.727136e-02
-7.566320e-02
-1.339994e-01
-3.968477e-02
1.106516e-01
-1.419318e-01
-1.678141e-01
-1.490307e-01
3.573371e-01
1.374819e-01
-1.253559e-02
-1.320188e-01
2.644385e-01
6.222907e-02
1.990867e-01
5.373513e-02
1.256315e-01
-4.410519e-03
-1.424377e-01
1.401365e-01
1.114345e-01
-4.370658e-02
1.823613e-02
-2.705345e-02
-1.050816e-01
-7.486791e-02
1.109780e-01
-8.332767e-03
-3.886550e-02
-9.471912e-03
1.681788e-01
-2.415752e-01
-1.598601e-01
1.780470e-01
1.990431e-01
1.440457e-01
8.726215e-02
1.976459e-01
2.862672e-02
6.789307e-02
3.668755e-02
1.158139e-02
5.485813e-03
1.117721e-02
-1.116638e-02
-2.125143e-02
-2.792960e-02
-6.993716e-02
-1.164065e-02
6.994086e-02
1.828814e-02
-7.059232e-02
-4.076006e-03
-8.314572e-03
-5.154131e-02
-4.483620e-02
5.767563e-02
-8.236044e-02
-5.339056e-02
3.617085e-02
-1.486916e-02
-4.830826e-02
9.878741e-03
-4.862976e-02
-4.685317e-02
1.082753e-02
-1.274562e-01
-4.905536e-02
1.518550e-02
-1.906786e-01
-1.338622e-01
-5.924765e-02
-1.642682e-01
-1.417911e-01
-2.987154e-02
4.180968e-02
-8.766741e-03
-2.507530e-02
-4.362519e-02
-4.379473e-02
-6.767436e-02
-1.922989e-02
-1.138090e-02
-6.393110e-03
-7.480667e-04
2.478497e-05
-2.888401e-03
-1.281422e-03
-6.386183e-04
-6.782881e-05
-3.241634e-04
-1.988771e-04
-2.538780e-03
-5.085839e-02
-4.921310e-02
8.810159e-04
3.555667e-02
-4.265705e-02
-2.585420e-02
2.556661e-02
-5.289020e-02
-8.928123e-03
-2.989909e-02
-5.107769e-02
-5.376178e-02
-3.826126e-02
-6.262998e-02
-1.591907e-02
2.693043e-02
2.168184e-02
2.848872e-03
-3.208794e-02
-3.894635e-02
-1.087951e-01
-1.673137e-01
-1.605109e-01
-1.694767e-01
-6.445143e-02
-3.965206e-02
-1.744310e-01
-8.716797e-02
-1.580556e-01
-1.370369e-01
-8.351693e-02
-1.486947e-01
-1.218866e-01
3.266305e-02
-8.307297e-02
-5.254331e-02
1.798832e-02
-3.829186e-03
7.982235e-03
-8.076732e-03
-6.755981e-02
8.594488e-03
-3.053101e-02
-4.129762e-02
4.657922e-02
-6.271154e-03
-9.685946e-02
2.886371e-03
5.190655e-03
3.872702e-03
3.393725e-02
1.651225e-02
-7.079711e-02
-5.092381e-03
-8.377323e-02
2.730276e-02
1.192504e-02
-1.182923e-01
1.281706e-02
2.796357e-02
-1.677204e-02
5.391140e-02
3.801082e-02
-8.622453e-02
-9.528166e-02
-1.305373e-01
-1.177420e-01
-1.366434e-01
-7.900230e-02
-7.271343e-02
-1.294202e-01
3.683660e-03
1.157280e-01
2.250690e-02
-1.244611e-01
4.191426e-02
-1.864205e-01
-2.779732e-01
-4.968955e-02
-1.082986e-01
-1.451902e-01
3.788239e-02
-9.500178e-02
-2.116127e-01
9.199262e-04
-4.134525e-02
-4.895739e-02
-7.303481e-02
-6.545915e-02
-6.802344e-02
8.205462e-02
7.807609e-02
6.625272e-02
3.545613e-02
2.701138e-02
3.330110e-02
-1.178608e-02
-2.293090e-02
-1.759288e-02
3.577632e-03
2.175473e-02
-9.211254e-03
1.460937e-02
-6.164291e-03
1.281028e-02
-3.363229e-02
2.328182e-02
3.768703e-02
5.686798e-02
4.925407e-02
6.596559e-02
1.148997e-02
4.973200e-02
8.526589e-03
-5.684576e-02
-1.590260e-02
2.568574e-02
-1.045692e-01
1.577777e-05
2.929970e-03
-8.653288e-02
-1.731807e-02
2.652335e-02
-1.046812e-01
-5.318976e-02
2.452055e-02
8.724929e-02
1.204098e-01
1.279263e-01
5.493552e-02
6.690775e-02
3.973104e-02
4.274284e-02
5.925522e-02
4.833166e-02
4.891261e-03
3.867056e-05
-1.859324e-03
-3.744793e-03
2.062996e-04
-4.353305e-04
4.673133e-04
4.835463e-04
-5.883053e-04
-9.686569e-04
-1.036366e-02
-6.662714e-02
2.415038e-02
-2.473099e-02
-1.824804e-02
6.893360e-02
3.834197e-02
-1.444085e-02
2.928368e-02
5.251822e-02
5.040054e-02
-8.958244e-02
-1.719173e-02
-1.328451e-02
-6.461840e-02
-4.764237e-03
1.235744e-02
-9.845465e-02
5.921507e-02
-3.631496e-02
-1.056876e-01
4.976904e-02
-2.835057e-02
-4.421645e-02
2.584822e-02
-5.638405e-02
-9.275822e-03
2.817628e-02
-1.633158e-02
2.997736e-03
5.532433e-02
4.498831e-03
-1.181037e-02
2.703892e-02
-1.791185e-02
2.810065e-02
4.326753e-02
4.712819e-02
-7.511906e-03
1.753797e-02
4.163034e-02
8.834353e-04
1.644311e-02
2.810656e-02
-2.130866e-02
-3.506042e-02
-2.607497e-02
-3.847080e-02
-2.751770e-02
3.183386e-02
-7.967244e-03
1.339855e-02
2.715443e-02
2.946339e-02
3.944818e-02
-1.628014e-03
-3.230117e-02
2.645714e-02
-7.580564e-03
7.148118e-03
5.765798e-02
8.736948e-03
5.071902e-02
6.858021e-02
1.201328e-01
-1.379567e-02
-5.223950e-02
9.133982e-02
9.850739e-03
-1.232372e-02
9.104933e-02
9.355018e-02
4.321403e-02
3.613591e-02
1.226696e-01
3.890165e-03
-5.970956e-02
2.508027e-02
1.254115e-02
-9.829285e-02
-5.026671e-03
3.415400e-02
-1.030906e-02
-1.050652e-01
-4.162280e-02
-5.437516e-02
-1.353382e-02
2.841070e-02
-8.767955e-05
