-7.142448e-02
-8.343751e-02
-5.556463e-02
-3.963336e-02
-1.013485e-01
-9.204776e-02
5.238270e-02
-4.761450e-02
-5.541898e-02
3.420606e-02
-6.209006e-02
-3.859278e-02
2.677677e-02
-8.850091e-02
-2.607461e-02
-1.223904e-02
-6.114232e-02
-2.570838e-02
-6.398436e-03
6.016138e-04
4.905633e-02
-2.401697e-02
-2.430504e-02
-1.674269e-02
1.784414e-02
6.310286e-03
-4.321903e-02
1.866851e-02
4.276380e-03
7.014085e-04
-2.221043e-03
-3.105216e-03
-1.517110e-02
5.891954e-03
1.506792e-02
2.811373e-02
4.887125e-02
-3.141123e-02
-1.311027e-02
-8.701552e-02
-1.450781e-02
1.619033e-02
-9.492215e-02
-8.379897e-02
3.353373e-02
-2.636107e-03
7.195683e-04
3.181397e-03
-2.838125e-03
-3.369810e-04
-6.379082e-05
-1.008973e-03
9.378654e-04
5.977887e-04
4.779693e-02
9.068678e-02
-4.747245e-03
1.641825e-01
1.274999e-01
1.763718e-01
4.190488e-02
1.864266e-01
9.919520e-02
-3.945817e-02
3.002060e-02
4.572573e-02
-5.206343e-02
-5.868668e-02
9.553034e-03
-4.659690e-02
-8.110724e-02
-2.634698e-02
-3.935857e-03
1.815633e-02
4.057902e-02
-1.337067e-02
-1.290267e-02
8.888893e-02
2.079809e-02
-2.157193e-03
9.882051e-03
-4.787372e-02
4.263782e-02
1.625802e-02
3.026919e-03
1.002014e-01
6.067495e-02
-6.986689e-02
7.461856e-02
1.203852e-01
8.059778e-03
4.487101e-02
6.178791e-04
3.445161e-02
1.603951e-02
9.199226e-02
2.382205e-02
1.057912e-01
1.031029e-01
3.452010e-02
-5.055895e-03
8.801018e-03
-4.116106e-02
-8.784274e-02
-3.884980e-02
5.098074e-02
-2.066764e-02
-5.325093e-02
9.357597e-02
6.269678e-02
-1.237749e-02
5.576441e-02
6.792125e-02
-1.005036e-02
-2.160834e-02
3.387299e-02
-2.010007e-03
-1.061702e-02
-1.872104e-02
3.131974e-04
-3.111276e-02
-3.443287e-02
-3.823794e-02
-5.394294e-02
-9.448838e-02
-6.217155e-02
-1.110438e-02
6.148748e-02
9.557047e-02
-5.965266e-02
-1.608459e-02
5.140869e-02
-8.509620e-02
-4.423910e-02
-4.596706e-02
-1.763396e-02
-4.904094e-02
-6.474979e-02
5.717286e-02
5.619184e-02
8.188476e-03
6.907617e-03
1.177081e-02
1.812424e-02
-6.839582e-02
-2.505822e-03
7.651981e-03
-3.910894e-02
-7.347637e-02
-3.190826e-02
-2.501541e-02
3.205218e-02
-1.191408e-02
3.333672e-02
4.292047e-02
4.666911e-02
-4.617132e-03
8.664632e-03
4.290829e-03
3.489175e-02
7.557243e-03
3.837330e-02
3.275921e-02
-8.459435e-03
-1.859839e-02
-6.349229e-02
2.930945e-03
3.977650e-02
-8.513258e-02
-1.734060e-02
3.940691e-02
3.352571e-02
6.983414e-02
8.784845e-03
7.112835e-03
6.528323e-02
4.416065e-02
-2.881871e-02
4.756815e-02
5.166053e-02
3.806246e-03
1.973688e-02
3.640497e-02
1.531611e-02
-1.552540e-02
2.398786e-02
1.467302e-02
1.886656e-02
2.224954e-02
-1.307822e-02
1.305000e-02
3.937696e-02
3.152076e-02
6.164446e-03
1.111282e-02
5.643946e-02
2.082988e-02
-3.779805e-03
3.133218e-02
5.585019e-02
2.293763e-02
-3.686684e-02
9.663036e-02
1.513001e-01
-9.058681e-02
3.550564e-02
9.313031e-02
-6.501507e-03
-5.825535e-02
-2.525978e-02
-4.601995e-02
-4.144641e-02
3.819336e-02
-9.274756e-03
-9.967469e-02
-2.327241e-02
3.049177e-02
-1.326476e-02
2.747552e-03
5.052548e-02
9.343075e-04
2.374848e-02
-6.975649e-03
-3.423058e-02
1.668240e-02
-1.246658e-02
-1.567549e-02
-3.278098e-02
-2.833453e-03
3.925522e-03
-7.016335e-02
5.122282e-02
-7.019057e-02
-8.369827e-02
6.932519e-02
-1.054350e-04
2.835240e-03
-1.529195e-02
-8.193783e-02
-3.341993e-02
9.001461e-03
-5.612544e-02
-1.938765e-02
-4.837872e-02
-4.309583e-02
2.442099e-02
2.798405e-02
2.320164e-02
8.914354e-02
1.127556e-01
6.993108e-02
1.000433e-01
2.986295e-03
2.993991e-02
3.348457e-02
3.388326e-02
2.200178e-02
1.036936e-01
4.916649e-02
1.926281e-02
2.625519e-02
-3.810925e-04
-6.242925e-06
-3.370903e-04
-1.447618e-03
2.332644e-03
-2.232916e-04
-6.900354e-05
-1.008129e-03
2.526476e-04
-4.195164e-02
-4.637115e-02
-8.970226e-02
1.038078e-02
9.640464e-03
2.030075e-03
5.070360e-02
3.030170e-02
4.386865e-02
-3.248326e-03
4.354289e-02
-1.641419e-02
2.161129e-02
4.425695e-02
8.343381e-02
-3.947424e-02
-1.991194e-02
5.426243e-02
-1.467376e-01
-1.569994e-01
-9.598437e-02
-1.678504e-02
-6.174967e-02
-7.186194e-02
3.901032e-02
3.744495e-02
6.154948e-03
-2.596594e-02
-4.496371e-02
-4.996010e-02
-1.572692e-03
-6.656129e-02
-6.171939e-02
-2.243662e-02
-3.113566e-02
-2.199708e-02
3.891292e-02
3.353987e-02
2.425783e-02
-2.944458e-02
-4.431503e-03
-1.377922e-02
-4.891076e-03
5.197804e-03
-3.007224e-03
2.915314e-02
-1.053793e-02
-2.088093e-02
6.818117e-02
2.993710e-02
9.013067e-03
-2.126971e-03
3.139809e-02
3.442569e-02
2.730046e-02
-6.146612e-02
1.387333e-02
6.178370e-02
2.876053e-02
-3.000947e-02
-3.373436e-02
4.045313e-02
4.963220e-02
5.285427e-04
6.647024e-04
-9.527482e-04
1.202035e-03
-2.380712e-04
-1.301486e-04
-4.038702e-03
3.958319e-04
-5.158669e-04
7.686617e-02
2.305693e-02
6.042873e-02
7.128096e-02
1.444462e-01
1.011338e-01
6.610695e-02
2.681819e-02
5.570140e-03
-5.310994e-02
-6.876155e-03
3.831383e-02
6.487436e-02
-4.332924e-03
8.650530e-03
-1.511633e-02
3.071540e-02
-5.979800e-04
-2.803862e-02
-8.125308e-02
-5.705165e-02
-1.087104e-02
-3.822563e-02
-7.019211e-02
9.979350e-03
-7.381042e-03
-5.192045e-02
-3.153138e-02
-2.743528e-02
2.953864e-02
-7.014745e-03
3.568520e-02
3.797899e-02
-2.812212e-02
-1.413686e-02
-1.389202e-02
4.064581e-02
4.986561e-02
3.245655e-02
4.711556e-02
3.998130e-02
2.873135e-02
4.613314e-03
4.465234e-02
2.210990e-02
2.783143e-02
1.691441e-02
-2.616698e-02
8.010752e-03
-3.495666e-02
-5.909107e-02
3.433122e-02
-4.037581e-02
-9.813307e-02
9.055098e-02
9.482515e-03
-2.580797e-02
5.553084e-02
2.897163e-02
2.816127e-02
5.126908e-02
8.184819e-03
4.453684e-02
6.727673e-02
8.340286e-02
3.350440e-02
1.107042e-01
7.496476e-02
-1.599473e-02
-4.318019e-02
-7.801617e-02
-9.634542e-02
2.420314e-02
-4.396596e-02
-1.594269e-02
1.901723e-02
-1.513382e-02
-7.863991e-03
-2.216188e-02
-3.132469e-02
-5.763373e-06
-1.280640e-02
-1.946028e-02
-5.803937e-03
9.516042e-02
7.315937e-02
1.155190e-02
1.256036e-01
1.164355e-01
4.816552e-02
-1.277273e-02
-9.664408e-03
-2.045256e-02
-2.987259e-02
-5.679945e-02
-4.962470e-02
-1.000454e-01
-1.152241e-01
-4.846307e-02
5.450472e-03
-1.317068e-02
-2.700715e-02
-2.818872e-02
-1.317323e-02
-6.292647e-02
-6.206319e-02
-5.021235e-03
-7.556104e-03
-1.363523e-02
-1.918468e-02
-2.715183e-02
-1.646474e-02
3.138547e-02
-1.348955e-02
-7.160428e-02
-7.952490e-02
-1.008917e-01
-1.641576e-02
-2.169496e-02
2.405487e-02
1.625076e-02
2.000037e-02
5.337723e-02
1.989679e-02
1.954952e-02
9.280505e-03
-2.326056e-02
-4.117884e-02
-4.154368e-02
-3.333831e-02
-3.599162e-02
-2.296786e-02
-2.795698e-02
3.469066e-03
1.132235e-04
1.511438e-02
1.443755e-02
1.656339e-02
-3.577330e-02
-4.379903e-03
-6.500075e-03
-2.417444e-02
-5.203632e-02
-8.849302e-03
3.075814e-02
2.384383e-02
3.557502e-02
-6.154038e-02
6.415073e-03
1.207559e-03
-2.591781e-02
-3.708026e-02
4.805957e-03
-4.774299e-02
-3.959512e-02
-2.548301e-02
6.761722e-02
1.724289e-02
-1.629512e-02
2.044591e-02
-9.095840e-03
4.091921e-03
-7.952024e-02
-5.033131e-02
-3.597153e-02
-3.381877e-02
-4.669425e-02
-3.968168e-02
-1.327857e-02
-1.734462e-02
-3.479529e-02
4.944934e-02
4.806883e-02
1.394132e-02
-8.096914e-03
3.616179e-02
7.364085e-02
-7.607515e-03
-4.409514e-02
7.227903e-03
5.199162e-03
-1.374017e-02
-3.865017e-02
2.489859e-03
-2.878765e-02
-4.098018e-02
-2.820246e-02
-2.731525e-02
-2.343704e-02
-1.216631e-02
-7.303268e-03
-1.626670e-03
-3.203250e-03
8.459683e-03
-1.580175e-02
1.360454e-02
-2.964578e-03
1.788970e-02
5.546063e-02
8.718456e-03
-4.860152e-02
-9.397168e-03
9.525164e-03
1.568707e-02
-8.619401e-02
-4.923623e-02
-9.817389e-03
-6.626843e-04
1.436720e-03
2.764850e-03
4.703520e-04
1.590907e-03
2.189988e-04
4.981807e-04
-1.691616e-03
8.449415e-04
6.085990e-02
2.237066e-02
-6.403632e-03
6.846828e-02
1.489191e-02
-1.919720e-02
4.733477e-02
-3.317453e-03
-2.020904e-02
-3.211488e-02
-1.649190e-03
6.594687e-03
-2.475815e-02
-5.611015e-03
-6.463457e-03
-3.873883e-02
-3.966268e-02
1.543872e-02
-3.997774e-02
-4.859959e-02
-5.546831e-02
-5.429416e-02
-6.886593e-02
-1.846120e-02
-7.755727e-03
-7.411876e-02
-6.866674e-02
3.408776e-02
1.945020e-02
1.363456e-02
9.804715e-03
-1.527696e-02
-1.375145e-02
-4.057220e-03
4.441861e-03
2.204596e-02
-2.196898e-04
9.259611e-03
1.539637e-02
2.321510e-03
6.574051e-03
-1.928033e-02
-6.258724e-02
-5.037469e-02
-7.567138e-02
4.266901e-02
1.923693e-02
1.181075e-02
4.073318e-02
3.150967e-02
2.073758e-02
2.985530e-03
2.868537e-02
3.910536e-02
2.388403e-02
1.601588e-02
-1.736410e-02
1.281384e-01
1.342205e-01
-1.760292e-02
9.125908e-02
8.438861e-02
6.315305e-03
3.422275e-04
4.255493e-04
-7.934198e-04
1.915772e-06
1.163839e-03
-6.237450e-04
-4.432262e-04
-6.837191e-04
1.253422e-05
2.623967e-02
1.391023e-02
4.330091e-03
7.765823e-02
1.197386e-01
5.036684e-02
9.928482e-02
7.011947e-02
7.518997e-02
-2.426845e-02
4.590801e-02
2.330447e-02
-2.408643e-02
6.929718e-02
2.423104e-02
-2.106146e-02
1.205637e-02
-5.874059e-02
2.227678e-02
1.236570e-02
1.229598e-02
2.365858e-02
2.284578e-02
3.717973e-02
-9.681848e-03
-1.714497e-02
-6.516729e-03
-5.593509e-02
-2.874403e-02
-8.916440e-03
-3.571308e-02
-6.829382e-02
-5.860050e-02
4.152060e-02
1.453275e-02
-4.443746e-02
-1.950762e-02
2.899935e-02
6.826657e-02
-1.016798e-01
-1.858184e-02
1.429606e-03
-5.592975e-02
-6.829450e-02
7.790832e-03
-2.818711e-02
2.590209e-02
4.200274e-02
1.476670e-02
3.444330e-02
6.650122e-02
-1.574656e-02
4.004844e-02
8.848009e-02
-1.693944e-03
2.765465e-02
-6.260363e-02
6.017287e-02
-3.474686e-02
-6.568230e-02
1.427023e-01
8.906010e-02
-4.590934e-02
4.656101e-04
5.018946e-02
7.323539e-02
5.362415e-02
5.050052e-02
5.609818e-02
1.208460e-02
-4.447715e-02
-8.411600e-02
2.505556e-02
1.438725e-02
-7.839689e-03
1.114666e-02
2.698503e-02
-3.758645e-02
-2.350853e-02
-2.156937e-02
-4.974250e-02
-3.415444e-02
-4.976253e-02
-6.295341e-02
3.556835e-03
-2.535773e-02
-5.796155e-02
3.661959e-02
2.439509e-02
-2.246982e-03
-3.962976e-02
-2.740794e-02
-5.580502e-02
5.620694e-02
2.339687e-02
-1.651157e-02
-1.721248e-02
-1.918279e-02
-4.612735e-02
4.058977e-03
-2.715238e-02
-1.629025e-02
2.878179e-02
1.077438e-02
-9.474709e-03
1.780860e-02
-2.319884e-03
-2.478161e-02
7.083883e-02
3.239038e-02
4.714905e-02
1.218731e-01
5.927143e-02
6.288778e-02
1.032783e-01
1.003979e-01
6.487900e-02
-5.966200e-03
4.746658e-03
3.517674e-03
6.551441e-02
2.538898e-02
1.114602e-02
3.004454e-02
-9.594887e-03
-2.759742e-02
-2.391370e-02
-4.146653e-02
-4.641817e-02
-2.936572e-03
-3.884303e-02
-3.857851e-02
-3.795011e-02
-4.181950e-02
-3.728857e-02
1.669985e-03
7.861925e-03
6.067460e-03
-2.965014e-03
-2.746565e-02
-1.971982e-02
-1.309151e-02
-3.122613e-02
-5.823640e-02
-7.158203e-02
-1.426319e-03
-2.389470e-02
-4.645605e-02
-6.361197e-02
-4.499093e-02
-1.408829e-02
-1.092144e-02
4.559494e-04
1.690516e-03
-4.135177e-02
-3.314602e-02
-9.361806e-03
-1.345505e-02
-3.147862e-02
-4.006722e-02
1.606760e-02
3.252748e-02
-5.160724e-02
-2.852283e-02
-1.362406e-02
1.846980e-02
6.793322e-02
5.660660e-02
1.106413e-02
6.446470e-02
7.007488e-02
-6.020054e-03
-5.549791e-02
-2.809249e-02
-4.178064e-02
-1.711981e-02
-3.293141e-02
-2.440146e-02
2.137735e-02
2.362565e-02
-5.191075e-02
-2.538155e-02
-1.979637e-02
-6.598768e-02
-3.169593e-02
3.213342e-02
-7.730239e-02
-3.151411e-02
4.388269e-02
1.952337e-02
4.493368e-02
-1.442932e-03
2.605036e-02
4.713128e-02
3.115421e-02
-1.860590e-02
-2.057396e-02
-2.550633e-02
-6.386070e-02
-3.832653e-02
-3.409282e-02
-2.140084e-03
-2.026205e-02
-5.646588e-02
5.652358e-03
2.432405e-02
4.320446e-02
-3.468295e-04
1.334783e-03
2.717401e-03
-1.492215e-03
-3.893753e-04
1.480847e-03
4.017429e-04
-1.596804e-03
3.762141e-06
-2.770536e-02
2.841999e-02
5.244167e-02
-6.957632e-02
1.408322e-02
7.343114e-02
-2.922213e-02
5.001444e-02
1.161721e-01
1.879536e-03
-2.734741e-03
8.650547e-03
2.955640e-02
3.884285e-02
-1.835883e-02
8.863680e-02
5.363265e-02
1.039721e-02
1.819880e-02
5.948480e-02
3.383889e-02
2.916225e-02
5.762068e-02
4.927947e-02
-6.495058e-02
-4.659883e-02
-5.954870e-02
3.522936e-02
1.771813e-02
9.010152e-03
5.176897e-02
3.485406e-02
1.925946e-02
4.055780e-02
3.322620e-02
1.461648e-02
-3.099462e-03
3.801376e-03
-2.841684e-02
-1.999615e-02
-1.586746e-02
1.480235e-02
-1.621152e-02
6.349791e-03
2.700544e-02
-1.562926e-02
-1.890169e-02
-1.517251e-02
-1.756318e-02
3.294674e-03
-1.721098e-02
2.339297e-03
1.047994e-02
1.089286e-02
8.966567e-03
5.812521e-02
4.582085e-02
3.855553e-02
2.363260e-02
1.578837e-02
8.111202e-02
-4.180945e-03
-1.970498e-02
-2.409604e-03
-5.665179e-04
2.418440e-03
2.989715e-04
-6.053046e-04
3.252916e-04
2.428676e-04
-1.100606e-03
-6.686278e-05
-7.902890e-02
1.927089e-02
-1.275830e-02
-3.475916e-02
-2.682248e-02
-5.659692e-03
5.391130e-02
-9.284687e-03
-3.050598e-02
-4.276405e-02
-8.323200e-03
-8.226574e-03
-1.557905e-02
-8.698586e-03
8.283266e-03
-3.705274e-02
-6.724124e-02
-4.584187e-02
2.576090e-02
3.923112e-02
2.316166e-02
1.006363e-01
7.388008e-02
5.214771e-02
6.090066e-02
3.343613e-02
1.603475e-02
-1.604840e-02
-1.478482e-02
2.408488e-02
-3.586744e-02
-2.582572e-02
9.096153e-03
2.763984e-02
-1.632759e-02
1.261136e-02
-4.650611e-02
3.111973e-02
4.706465e-02
3.010588e-03
1.538287e-02
2.471970e-02
4.585012e-02
2.282914e-02
-6.534536e-03
-4.089841e-02
-1.629837e-02
-3.016123e-03
9.982917e-03
8.286540e-02
7.029916e-02
4.238599e-02
5.036317e-02
4.764954e-02
6.402641e-03
-2.972056e-04
2.755573e-03
-1.077112e-02
-2.389955e-02
5.776265e-03
-5.960516e-02
-5.294635e-02
-6.334852e-02
1.486536e-02
2.427528e-03
6.468192e-03
1.202486e-01
8.109074e-02
1.775211e-04
3.217206e-02
3.334381e-02
-2.056141e-02
8.503802e-03
2.240726e-02
-2.795952e-03
-8.845140e-03
6.764612e-04
1.710518e-03
3.658988e-03
-1.956136e-02
-4.714847e-03
-4.020564e-02
2.411014e-03
-4.112601e-04
-7.824532e-02
-4.993107e-02
-3.385391e-02
6.161183e-03
2.285671e-02
1.718759e-02
4.597973e-02
-8.782324e-03
-8.827901e-03
2.482866e-02
-2.932121e-02
-4.187955e-02
-2.670906e-02
-6.082723e-02
-1.526111e-02
-5.135046e-02
-5.605206e-02
-4.520869e-02
-3.458165e-03
1.051730e-04
-3.193301e-02
-2.593728e-02
-1.779042e-02
-1.578619e-02
-6.998000e-02
-1.076690e-01
-5.026805e-02
-5.837074e-02
-6.633687e-03
2.442175e-02
-1.492122e-02
8.108953e-02
8.372955e-02
-2.133478e-02
4.330493e-03
6.224968e-03
2.328145e-02
1.497019e-02
1.522918e-02
6.794128e-02
6.088778e-02
1.686936e-02
1.592499e-02
-5.011874e-02
-5.103220e-02
1.619899e-02
-2.934914e-02
-4.068615e-02
-6.009858e-04
-2.457125e-02
7.303024e-03
2.035032e-02
3.485939e-02
2.830373e-02
2.157939e-02
2.041241e-02
2.229602e-02
-2.497191e-02
5.442725e-03
2.960433e-02
2.984358e-02
2.385208e-02
6.331015e-02
4.727487e-02
3.227949e-02
8.922098e-02
5.934392e-02
4.341592e-03
5.589908e-03
1.025329e-01
6.483395e-02
1.448588e-02
6.007205e-02
2.714705e-02
4.682017e-02
-1.071890e-02
-2.516648e-03
-3.744105e-03
-5.381981e-02
-5.111256e-02
-5.491070e-02
-7.274908e-03
3.231683e-03
-8.187091e-03
3.201021e-02
4.462497e-02
2.459399e-02
-1.221234e-02
-3.399298e-02
-3.878339e-02
-3.722455e-02
-4.483353e-02
-2.522848e-02
-1.940726e-02
-5.336818e-02
-2.623535e-02
4.177460e-02
3.046206e-02
3.085072e-02
9.268263e-03
1.131054e-02
3.950270e-02
-1.466953e-02
3.215351e-03
6.182634e-03
-1.902377e-02
-4.731765e-02
-6.072306e-02
-2.981975e-02
-5.957846e-02
-6.116625e-02
-1.449944e-02
-2.549155e-02
-9.448222e-03
-1.870360e-02
-3.727971e-02
-1.513178e-02
1.608750e-02
1.595990e-02
-4.651098e-02
-2.729971e-02
6.672812e-03
3.509945e-03
-3.599073e-05
-2.288101e-03
3.777411e-04
-8.745343e-04
-1.069005e-04
1.689416e-04
1.119158e-04
4.113274e-04
9.860001e-04
-2.247995e-02
-3.059144e-03
-2.309734e-02
3.774317e-03
5.613633e-03
8.781739e-03
9.359305e-03
1.295332e-02
2.110138e-02
7.157111e-03
2.078925e-02
-1.573894e-02
-1.679813e-02
-1.314631e-02
-2.893144e-02
-7.925143e-03
-2.610193e-02
-2.589948e-02
-2.628686e-02
9.549857e-03
-1.689329e-02
1.704072e-02
1.980377e-02
-2.551380e-02
3.007521e-02
3.675926e-02
-4.614820e-02
-1.329904e-02
-5.092623e-02
-3.952370e-02
-3.294132e-02
-5.193262e-02
-5.669235e-02
3.263242e-02
-1.445752e-02
-5.259676e-03
2.486800e-02
-3.637950e-02
-6.531727e-02
5.354897e-02
-1.206636e-02
-6.511669e-02
1.004977e-02
-5.549400e-02
-9.645838e-02
5.374138e-04
3.003873e-03
4.397147e-03
9.933501e-03
2.286782e-02
1.831234e-02
5.960239e-05
-8.021745e-03
1.993203e-02
1.641257e-02
2.519146e-02
5.642460e-02
-1.052140e-02
-5.649658e-03
6.995627e-02
-8.011043e-02
-2.415320e-02
4.998839e-02
-1.602781e-04
6.411109e-04
1.046300e-03
-1.503997e-04
2.829954e-04
1.086374e-03
-2.105561e-03
-4.371401e-04
-3.155861e-04
1.142752e-02
4.453736e-02
1.832341e-02
1.270765e-02
5.257662e-02
9.046993e-02
4.320780e-02
3.947251e-02
4.902553e-02
-5.059000e-02
-7.063585e-04
2.705285e-02
1.876497e-02
3.758992e-02
1.275474e-02
-2.937630e-02
-7.139690e-02
-5.335205e-02
3.632690e-02
2.798134e-02
2.778738e-02
1.019404e-01
8.926119e-02
-5.292396e-04
8.957916e-02
6.553283e-02
2.039628e-03
-1.973014e-02
1.712360e-04
-3.280500e-02
-2.156561e-03
-2.528917e-02
-4.341330e-02
4.617924e-02
-7.342367e-03
-8.733913e-02
-2.411801e-02
2.188405e-02
5.077334e-02
2.067738e-02
2.915921e-02
3.718222e-02
7.919027e-02
5.763191e-02
-5.759061e-03
7.394624e-03
-2.464931e-02
-5.296538e-02
5.003165e-02
-2.109957e-02
-3.117471e-02
8.098257e-02
4.502691e-02
-6.288499e-02
-5.334750e-02
-7.924319e-03
3.669529e-02
-4.833068e-02
-5.380397e-04
3.460363e-02
-8.470692e-02
-5.927920e-02
-2.243433e-02
6.787349e-02
1.506757e-02
2.238597e-03
1.203999e-01
2.208304e-02
-2.348591e-02
7.970715e-02
1.163804e-02
3.155974e-03
-5.790370e-02
-3.116925e-02
-2.590570e-02
-2.805861e-02
-5.648701e-02
-5.037217e-02
-9.449471e-03
-5.338806e-02
-8.009709e-02
-3.547880e-02
4.297654e-03
4.373424e-02
-1.380383e-02
1.421258e-02
1.025666e-02
4.028514e-02
3.741013e-02
2.962736e-02
1.082479e-03
-6.669607e-02
-9.903299e-03
-2.560342e-02
-1.531453e-02
-1.128372e-02
-5.281017e-02
-1.985142e-02
-1.227676e-02
-3.091438e-02
-3.725547e-02
-1.142391e-02
-2.856970e-03
-1.562849e-02
3.250596e-03
-1.923909e-02
-9.625385e-03
3.838603e-03
-6.430189e-02
2.667583e-02
-3.198449e-02
-3.174321e-02
4.186243e-02
3.526730e-02
-3.252896e-02
4.964556e-02
8.015966e-02
-2.499059e-02
-4.695003e-02
-3.210739e-03
4.733134e-04
-1.039648e-02
-4.475608e-03
-1.964772e-02
-2.196490e-02
-5.520357e-02
-4.165858e-02
-1.193544e-02
-4.416993e-02
-8.995605e-02
-4.586391e-02
-4.047694e-02
2.018939e-03
3.063860e-02
-1.255229e-02
4.072178e-03
-4.817573e-02
-1.993698e-02
1.187732e-02
1.833334e-03
-2.271526e-02
-2.292315e-02
-1.961170e-02
-1.097308e-02
3.514273e-02
3.346146e-02
-3.647865e-02
-1.589696e-02
-4.305525e-02
-3.288825e-02
-8.498590e-02
-5.601163e-02
-7.698767e-02
1.384835e-02
1.559454e-02
7.570977e-03
8.045101e-03
3.828748e-02
2.101843e-02
4.466836e-03
-4.022114e-02
-1.107044e-02
7.292277e-03
-2.586370e-02
-5.235497e-02
1.920468e-02
-3.226023e-03
-2.336843e-02
4.567431e-02
2.455989e-03
-7.316686e-03
-2.062386e-02
4.638350e-03
-1.085202e-03
-1.781603e-02
-8.621809e-03
5.928362e-02
1.931433e-02
-2.641923e-02
2.025248e-02
-2.601446e-02
-5.649002e-02
2.616312e-03
-2.064774e-02
-4.203441e-02
-1.688988e-02
1.855338e-03
-1.920461e-02
1.838418e-02
-2.321144e-02
-5.546185e-02
-4.099988e-02
-2.785362e-02
-5.747654e-02
-6.213178e-02
-3.638075e-02
-6.671993e-02
-2.243698e-02
-2.744704e-03
-4.617003e-03
-2.069740e-03
6.947176e-02
4.618671e-02
-9.085595e-03
5.515143e-02
8.908988e-03
-4.162270e-02
-8.946976e-04
6.820440e-04
-4.455769e-04
-5.305841e-05
1.650254e-03
-4.481377e-04
-1.358922e-03
-1.014818e-03
8.241675e-04
7.026400e-03
-4.082037e-02
-4.886596e-02
-3.519594e-02
-5.440546e-02
-3.883860e-02
1.709527e-03
-2.974010e-02
-9.659375e-03
-4.847800e-02
-2.834219e-02
2.391420e-02
-5.002804e-02
-1.272935e-01
4.688072e-02
-2.198071e-02
-1.242681e-01
3.464891e-02
5.808413e-02
8.526448e-02
1.093209e-01
3.121250e-02
4.589432e-02
8.419048e-03
5.320814e-02
3.282093e-02
-2.908373e-02
-1.501907e-03
4.544289e-02
5.157450e-02
-2.915258e-02
-1.074302e-03
1.344232e-02
-2.258475e-02
1.168896e-02
4.259373e-02
-3.519573e-02
-1.228027e-02
-7.946398e-03
-1.013867e-01
-6.898994e-02
-3.661110e-02
-6.485219e-02
-6.106462e-02
-7.449420e-03
2.858749e-02
1.663861e-02
1.486494e-02
1.006293e-02
5.411132e-02
4.150243e-02
-6.198198e-03
2.489228e-02
6.269313e-02
4.903732e-02
-1.078560e-01
-5.800255e-02
-3.701922e-02
-8.427634e-02
-5.690494e-02
-6.787603e-02
-7.563192e-02
-3.278531e-02
-2.759984e-04
1.570311e-03
6.645645e-04
-3.860185e-04
5.645397e-04
-1.759661e-03
-1.373379e-03
-4.457436e-04
-1.281160e-04
-2.835074e-02
-5.756478e-02
1.427781e-02
-9.160176e-02
-6.476214e-02
-4.828897e-02
-3.722766e-02
-6.066136e-03
5.007564e-03
-4.005859e-02
-1.036135e-01
-6.084066e-02
-3.464277e-02
-6.053497e-02
-1.216562e-01
-2.521777e-02
-8.844830e-03
-4.111748e-02
5.788030e-02
6.204863e-02
3.685244e-02
4.122183e-02
6.738254e-02
5.481432e-02
2.779414e-02
3.922632e-02
5.715430e-02
-3.277674e-02
-3.211328e-02
-4.701400e-02
-3.994775e-02
-5.291008e-02
-6.191476e-02
-4.401441e-02
-7.001843e-03
2.586572e-02
-1.798241e-02
1.845966e-02
6.402423e-02
-2.419848e-02
2.884394e-02
6.330349e-02
-8.203495e-02
-3.590186e-02
-4.701615e-03
-4.515725e-02
-7.782927e-03
-1.429873e-02
-3.981499e-02
-1.630437e-02
2.067107e-02
-7.268343e-02
-3.332889e-02
1.999133e-02
1.484428e-02
3.038167e-02
-1.085814e-02
4.355519e-03
-1.825633e-02
-1.788981e-02
7.193218e-02
1.096912e-03
-8.251760e-02
-4.752365e-02
-2.819512e-02
2.542688e-02
-1.264606e-02
-1.335308e-02
1.513838e-02
-2.481362e-02
-4.687557e-03
2.994688e-02
-2.538805e-04
-3.434232e-02
-4.386404e-02
2.373653e-02
-1.308090e-02
-2.926311e-02
7.944506e-02
5.041508e-02
3.113714e-02
3.234969e-02
1.204137e-02
4.793756e-02
7.732004e-02
6.957881e-02
4.649752e-02
5.179583e-03
1.780321e-02
3.340220e-02
-6.847619e-03
-3.609116e-02
-2.334896e-02
2.361001e-02
4.135719e-02
6.634973e-02
2.156643e-02
8.650951e-03
-1.381538e-02
8.641521e-03
1.230415e-02
5.146001e-02
2.708638e-02
4.306664e-02
7.357190e-02
2.598034e-02
4.311898e-02
6.144357e-02
-2.163311e-02
-1.892079e-02
-1.550458e-02
-1.560179e-01
-1.294224e-01
-7.963088e-02
-3.121653e-02
-8.202221e-02
-1.244350e-01
-1.163342e-02
-2.540880e-02
5.051434e-02
-1.586050e-02
-4.573727e-02
-1.889762e-02
6.126213e-02
4.205604e-02
1.136475e-02
1.898376e-05
-3.698706e-02
-6.757149e-02
-9.323860e-02
-2.648777e-02
8.333454e-02
-8.855473e-02
3.388468e-02
1.694168e-01
-3.284002e-02
-4.417418e-02
-6.261963e-02
6.734199e-03
-7.336701e-03
-1.897014e-02
-7.376077e-03
-1.280320e-02
-3.255084e-02
-1.133287e-02
-1.073319e-02
-8.302719e-02
-3.691928e-02
1.013509e-02
-5.930716e-02
-8.826653e-02
1.223298e-02
6.157585e-02
-7.382277e-02
-5.603265e-02
-2.772888e-02
-2.087720e-02
1.924883e-03
1.282843e-02
-2.042493e-02
-2.732244e-02
5.289413e-02
-1.017325e-02
1.225031e-02
1.012665e-03
6.404255e-02
1.569907e-02
-2.091334e-02
4.349134e-02
6.403944e-02
4.953094e-02
4.560578e-03
4.693291e-02
-3.741378e-02
7.423884e-02
1.272738e-01
-6.239031e-03
8.387599e-02
4.755456e-02
3.456254e-02
-4.961822e-02
1.699672e-02
-4.128474e-03
-1.422679e-02
3.990281e-02
3.726247e-02
-5.050502e-02
-2.097855e-02
3.746258e-03
7.992220e-02
-3.324500e-03
-2.350618e-02
-5.077910e-03
-6.235010e-02
-5.284574e-02
-8.033653e-02
-6.689622e-02
-7.722942e-03
-4.343502e-02
-4.700236e-02
-2.051454e-02
1.435576e-03
1.991965e-02
-5.802904e-02
-2.224182e-02
5.011554e-02
-1.167305e-02
1.609241e-03
-2.335325e-03
-4.533474e-04
-1.066711e-03
-7.202448e-04
2.237395e-03
-3.825197e-04
-1.634636e-03
1.596507e-03
1.964139e-02
6.872842e-02
2.452477e-03
5.158077e-02
9.396723e-02
5.493812e-02
-4.590671e-02
-1.542647e-02
-3.462839e-02
-3.507117e-02
3.904207e-03
4.999630e-02
-4.582983e-02
-6.181537e-02
4.109512e-02
7.603414e-02
-1.152348e-02
3.275565e-02
8.062041e-02
6.808254e-02
-1.169540e-02
-1.105678e-02
-5.115005e-03
-6.362412e-02
-7.632897e-02
-9.251935e-02
-1.041644e-01
-4.762858e-02
-3.179104e-02
-3.425114e-02
7.058413e-03
-3.432896e-02
-2.549034e-02
-1.027079e-02
5.730368e-03
4.432083e-02
2.565270e-02
4.069864e-02
-3.408442e-02
1.294834e-02
-1.446544e-02
-7.668272e-02
3.435122e-02
-2.649075e-02
-8.319246e-02
9.690296e-03
-1.174958e-02
1.111393e-02
4.036296e-04
-2.617500e-02
-1.645859e-02
4.196310e-02
1.483533e-02
-1.117390e-02
-1.071303e-02
1.541311e-01
1.585749e-01
-5.546839e-02
1.496490e-01
1.938794e-01
-2.953180e-02
7.992389e-03
2.025014e-02
-2.184768e-03
-1.906546e-03
5.990271e-06
-3.057942e-04
1.116662e-03
2.020161e-03
-7.419433e-04
9.664521e-04
-7.649997e-04
-2.955928e-02
5.658123e-02
1.021348e-01
-2.028300e-02
5.530662e-02
4.668301e-02
-5.052642e-02
-7.984865e-02
-2.711299e-02
1.157909e-02
2.703427e-02
6.806674e-02
-6.155942e-02
7.617990e-03
4.691978e-02
-8.165350e-02
-6.144722e-02
1.839533e-02
4.747607e-03
-4.220485e-03
-2.957883e-02
-1.866622e-04
-2.715434e-02
-2.329199e-02
-9.073331e-02
-4.449254e-02
-7.593046e-02
1.872233e-02
2.201738e-02
-2.515104e-02
-1.415762e-02
-2.590885e-02
-4.458699e-02
2.487360e-03
-1.219796e-02
2.594547e-03
3.085836e-02
4.857107e-02
-2.911615e-02
4.765831e-02
5.452503e-02
-7.614175e-02
4.936088e-02
1.955208e-02
-8.043908e-02
-2.556205e-02
3.489811e-02
1.304594e-02
1.160262e-02
-1.838150e-02
-7.551347e-02
4.365985e-02
-2.470255e-02
-9.987611e-02
6.846499e-02
6.934303e-02
3.576810e-02
1.908365e-02
1.071847e-01
1.337040e-01
2.830692e-02
8.094122e-02
1.959731e-01
8.988801e-02
6.322716e-02
-4.459095e-02
-1.299047e-02
1.315466e-02
-3.245095e-02
-8.643674e-02
-7.105203e-02
-7.585791e-02
-4.811975e-02
-6.430160e-02
-1.462359e-02
1.335532e-03
-6.847820e-03
5.713664e-02
-1.611224e-02
3.865420e-02
9.237853e-02
5.410065e-02
1.340524e-02
-8.312055e-02
8.209644e-02
3.814577e-02
-5.952950e-02
2.676031e-02
1.277054e-02
-3.703138e-02
1.614511e-02
-3.347425e-02
-3.404715e-02
-4.857487e-02
-4.213997e-02
-9.049045e-02
-4.409680e-02
-1.182944e-02
-3.816593e-02
5.943958e-02
8.076869e-03
7.412002e-02
-7.655872e-03
-7.940529e-02
-8.991323e-03
3.166822e-02
1.988703e-02
-6.815280e-03
4.918459e-02
5.951567e-02
3.897864e-02
-3.389574e-02
5.644061e-03
1.028065e-02
-3.860045e-02
-5.678245e-04
-1.359271e-02
-1.331202e-02
-4.281531e-03
-3.441072e-02
6.543894e-03
1.010454e-02
-2.597315e-02
-3.642943e-03
3.799630e-02
-1.848441e-03
-5.502584e-02
-1.711849e-02
-1.989453e-02
-4.954480e-02
9.108674e-03
-3.974513e-03
-1.409836e-03
1.174174e-02
-2.841302e-03
-2.676168e-02
-3.468884e-02
2.416459e-02
-9.635077e-04
2.759847e-03
7.753379e-02
-1.608453e-02
-1.358987e-02
7.092697e-03
-5.421466e-02
-9.119967e-02
-1.052203e-01
3.048631e-02
-1.111831e-01
-1.450871e-01
6.069620e-02
3.313372e-02
-1.159828e-01
3.873058e-02
5.525641e-02
4.018851e-02
-1.451343e-03
-5.554239e-02
-5.565225e-02
-1.424433e-02
-2.729499e-02
-8.187402e-02
3.483192e-02
1.489220e-02
-5.716538e-02
-8.703640e-03
2.552961e-02
-7.358497e-02
-6.543096e-02
-4.825738e-02
-1.005588e-01
-5.296876e-02
-8.286026e-02
-6.579065e-02
-6.526792e-02
-6.475978e-02
-8.525372e-02
-3.142658e-02
-1.862347e-02
1.363037e-04
1.643962e-02
8.362505e-03
-1.178397e-02
1.003220e-02
-2.458354e-03
-1.933612e-02
1.785291e-02
2.898007e-02
1.857565e-02
-1.485777e-01
-7.519668e-02
1.837139e-02
-5.430043e-02
-1.978904e-02
2.479927e-02
-3.434514e-02
1.809783e-06
-2.577261e-02
-2.235280e-02
-3.235181e-03
-3.377560e-02
2.531336e-03
-7.912146e-02
-1.228558e-01
6.840248e-02
2.076093e-02
-7.939075e-02
4.464787e-04
-1.786442e-03
4.999982e-05
1.957645e-03
2.324922e-04
-9.090666e-04
-1.658198e-04
-2.041381e-03
2.209450e-04
-5.277031e-02
-3.785320e-02
-3.610674e-02
-3.790420e-02
-7.624391e-02
-8.117761e-02
-4.088700e-02
-6.304252e-02
-5.220654e-02
3.469314e-02
5.384624e-02
1.087135e-01
4.188459e-02
8.617967e-02
1.280887e-01
-1.948142e-03
5.682848e-02
1.242719e-01
-2.083151e-02
1.347271e-02
-1.153114e-02
6.529377e-02
1.201350e-01
6.135189e-02
6.064254e-02
8.909360e-02
9.506658e-02
5.403622e-02
-2.527538e-02
-5.998867e-02
1.762382e-02
-5.745391e-02
-3.030486e-02
-4.931477e-03
-3.941112e-02
-1.166619e-03
8.017691e-02
4.411445e-02
2.206505e-02
8.864167e-02
5.441124e-02
3.016218e-02
1.000583e-02
3.266037e-02
7.217776e-03
2.541124e-03
2.778721e-03
1.097711e-02
1.180565e-02
1.860210e-02
-1.699058e-03
2.954238e-02
1.644135e-02
9.036600e-03
-6.681396e-02
-8.448171e-02
-7.039796e-02
-2.215848e-02
-8.576724e-02
-5.346920e-02
-8.220722e-03
-7.694922e-02
-6.820218e-02
-1.051425e-03
1.785610e-03
5.464221e-04
1.709392e-03
-1.245042e-03
1.059811e-03
-7.127892e-04
7.008432e-04
-2.016902e-03
2.951965e-03
4.787504e-03
-5.734264e-02
4.660324e-02
1.422695e-01
4.540042e-02
-2.314848e-02
1.446599e-02
1.440628e-02
7.343173e-03
-4.236662e-03
1.150122e-02
5.863303e-02
3.800638e-02
3.970535e-02
2.680417e-02
8.040591e-02
8.897005e-02
2.516857e-02
-1.948236e-02
-2.682961e-02
3.008798e-02
2.239649e-02
4.269679e-03
4.020524e-02
2.190156e-02
7.145506e-02
3.222872e-02
3.835646e-02
3.812095e-02
3.913138e-02
7.255293e-02
-3.872005e-03
4.303307e-02
2.276494e-02
-3.115068e-02
6.469084e-03
1.397314e-02
-2.778073e-02
4.509733e-03
2.934378e-02
-6.209882e-02
1.581486e-02
2.546296e-02
-7.120657e-03
3.316680e-02
1.768613e-02
3.198338e-02
3.617674e-02
2.010071e-02
4.586264e-02
8.970410e-02
7.109488e-02
4.844100e-02
-1.914877e-02
1.950118e-02
-3.646290e-02
-1.170689e-02
2.651326e-02
-6.721610e-03
-2.733001e-02
-3.565459e-02
-5.982250e-02
6.751925e-02
6.105864e-02
2.263025e-02
1.040019e-01
4.764108e-02
3.588283e-02
1.018784e-01
6.670313e-02
3.685797e-02
-3.633693e-03
-5.244918e-02
-2.279925e-02
-4.904312e-03
-1.122019e-02
5.832811e-03
1.662007e-02
1.846515e-02
-1.620495e-02
6.315812e-05
-1.672830e-04
-4.505074e-03
5.242327e-02
3.821493e-02
4.301665e-02
5.235387e-02
1.241171e-02
-3.299348e-02
-2.525542e-02
-2.359978e-02
-3.257497e-02
-4.525712e-03
-1.359672e-02
1.930264e-02
-3.464708e-02
-2.998243e-02
3.780820e-02
-1.467065e-02
1.724021e-03
2.486127e-02
-1.314905e-03
1.754760e-02
1.702518e-02
1.772544e-02
2.790478e-02
3.894557e-02
-6.436582e-02
-6.251934e-02
-2.830666e-02
-1.191482e-01
-1.089642e-01
-8.525325e-02
-2.392315e-02
-1.027416e-01
-1.196021e-01
-1.662955e-02
-3.923235e-03
-2.494886e-02
-1.192004e-02
-2.866657e-02
1.415175e-02
-1.574775e-02
-3.186366e-02
-3.631304e-02
2.001198e-02
1.411664e-02
2.153959e-02
1.062354e-02
2.266504e-02
-1.072935e-02
-3.687845e-03
1.063846e-02
-7.963160e-03
-1.829642e-02
-4.143245e-03
5.668996e-03
-1.263391e-02
4.669601e-03
-5.231456e-03
-2.393184e-02
-3.768916e-02
-2.360289e-02
1.184444e-01
1.084244e-01
1.467788e-03
2.525280e-02
4.981830e-02
-2.152378e-02
-4.807010e-02
-4.270831e-02
-6.782199e-02
2.498271e-02
2.827523e-02
3.698638e-02
6.325407e-03
5.297445e-04
1.259802e-02
-2.327069e-02
-1.857383e-02
1.696415e-02
-4.420158e-02
-1.902490e-02
-1.241371e-03
7.389248e-03
2.096636e-02
3.234675e-02
1.306577e-02
2.799287e-02
2.916779e-02
-7.696354e-03
-3.744520e-02
2.043794e-02
1.500708e-02
-4.615954e-02
-1.739843e-02
8.005081e-03
-2.177669e-04
-6.353683e-03
-7.308552e-02
-6.696066e-02
-4.757983e-02
-3.611616e-02
-1.086911e-02
-4.041037e-03
2.098450e-02
8.069538e-02
5.770514e-02
-3.342716e-02
-3.696924e-02
-1.606233e-02
3.220479e-03
-2.743921e-02
-2.150706e-02
3.351397e-02
-2.342514e-03
-1.032955e-02
2.347103e-03
-6.827445e-03
8.058503e-03
-6.026961e-03
-3.204335e-02
-2.960654e-02
-5.295554e-02
-4.339325e-02
-3.045222e-02
2.352874e-04
6.122896e-04
8.930149e-04
-1.815052e-03
-1.060348e-03
-4.971600e-04
-8.580083e-04
-2.211321e-03
1.706836e-04
2.103231e-02
1.925281e-03
-8.637887e-03
6.426190e-02
5.052556e-02
-7.823982e-04
5.444635e-02
-4.148688e-03
8.063914e-04
-3.930621e-02
-6.166711e-02
-7.379880e-02
-1.056544e-01
-5.588427e-02
-7.013325e-02
-7.292987e-02
-8.902086e-02
-7.778081e-02
-1.165025e-02
9.173843e-03
-1.035025e-02
-2.361146e-02
3.574094e-03
-3.424797e-02
-6.010145e-02
1.438493e-03
8.739953e-03
-1.067522e-03
3.093141e-02
1.300485e-02
-9.374435e-03
2.467486e-03
-2.360690e-02
4.103744e-02
6.934844e-02
6.294291e-02
-1.132557e-01
-6.091109e-02
-6.434306e-02
-2.068443e-02
7.362507e-02
6.579609e-02
-5.252088e-02
5.612097e-04
-1.370333e-02
4.039795e-03
1.809884e-02
3.753974e-03
1.291896e-02
2.483898e-02
3.639772e-04
-1.079424e-02
-1.371063e-02
-1.645529e-02
7.712911e-02
-3.074121e-03
6.255501e-02
-5.044292e-04
-6.455860e-02
-5.590103e-03
-7.098898e-02
-2.021272e-02
-2.032431e-02
4.458154e-04
7.218892e-04
-8.256287e-05
-7.895795e-05
-1.161544e-04
5.109814e-04
7.440021e-04
-1.493227e-03
-7.205253e-04
9.844346e-04
-2.759552e-02
-1.674166e-02
1.962765e-03
-9.807238e-03
-3.388179e-02
-2.395920e-02
-9.710389e-02
-9.281334e-02
-4.181380e-02
-3.577734e-02
-5.101791e-02
-3.745284e-02
-4.320141e-02
-4.985825e-02
-7.990365e-02
-6.898427e-02
-6.904741e-02
2.952317e-02
1.713400e-02
-8.363684e-03
-6.646865e-02
-5.870779e-02
-1.074092e-01
1.042135e-02
3.795285e-02
3.951705e-02
1.128098e-02
5.549266e-02
5.806610e-02
3.301681e-02
7.866836e-02
4.932645e-02
-3.231718e-03
2.052815e-02
-1.953395e-02
-3.044545e-02
-5.733809e-03
1.957785e-02
6.071613e-03
1.289693e-02
-4.318002e-04
2.391464e-02
2.766200e-02
-1.465287e-03
-8.572397e-02
5.259851e-02
7.586960e-02
-4.834258e-02
4.247240e-02
6.176390e-02
-7.459798e-02
2.227389e-02
-1.926973e-02
-3.400867e-02
-5.541079e-03
-1.869066e-02
-3.853105e-02
-3.917618e-02
5.120852e-02
-8.455808e-02
-7.973114e-02
-1.762309e-02
7.566514e-02
7.552117e-02
4.228185e-02
-2.762445e-02
9.827614e-03
-4.567594e-02
-3.665104e-02
-1.739526e-02
-3.846588e-02
6.727573e-03
1.011841e-02
-2.429690e-02
-1.192050e-02
3.106059e-03
-6.978343e-03
-4.519992e-02
3.746747e-03
3.232537e-02
-6.074682e-02
-3.300893e-02
-3.030311e-02
5.700195e-03
1.694274e-02
-3.777084e-02
6.149445e-02
9.568539e-02
1.109461e-02
5.707312e-02
3.067413e-02
2.669162e-02
-3.231099e-02
-2.633863e-03
1.419844e-02
8.608351e-03
8.207506e-02
8.150589e-02
8.652888e-03
1.331277e-02
7.578828e-03
-1.980737e-02
2.574213e-02
-2.623417e-02
-4.400815e-03
1.918194e-02
-7.046381e-03
7.303766e-02
5.885167e-02
5.813070e-03
3.889262e-02
3.422127e-02
-6.146152e-02
1.521563e-02
3.575424e-02
-9.495061e-02
1.329116e-02
1.618248e-02
1.650905e-03
6.258755e-02
3.315689e-02
2.453521e-02
1.147282e-01
1.239570e-01
6.566323e-02
5.164379e-03
-4.841122e-02
5.146210e-04
-2.693132e-02
2.950449e-02
1.039630e-01
-1.320416e-02
8.286124e-02
1.552918e-01
3.825803e-02
3.917801e-02
2.447445e-02
-1.359101e-02
-8.271496e-03
1.180152e-02
-4.760546e-02
-2.780319e-02
1.018193e-02
4.429667e-02
3.562079e-02
9.602923e-02
7.460996e-02
8.273549e-02
4.701708e-02
-2.909921e-02
-6.065737e-02
4.265133e-04
-1.945686e-02
-2.096781e-02
-2.882047e-02
1.927387e-02
-1.794380e-02
-1.482992e-02
-4.423298e-02
-5.624455e-03
-1.409601e-02
-5.804838e-02
7.537445e-03
-4.412121e-02
5.826681e-02
7.882693e-02
1.500130e-02
7.864944e-03
7.500830e-02
2.431737e-02
1.118461e-02
-2.745522e-02
-1.622872e-02
2.785528e-02
-2.991776e-02
-1.034016e-01
-5.041120e-02
-1.315070e-01
-1.107381e-01
-1.151197e-02
2.327349e-02
1.361167e-02
1.498595e-02
1.284765e-02
-3.800287e-02
3.784356e-02
3.469920e-03
-3.136793e-02
6.909192e-02
-5.108893e-04
-2.384188e-02
-6.883627e-03
-2.711874e-02
-8.860254e-03
4.150316e-03
3.716304e-02
8.753769e-02
-2.736125e-02
1.662270e-02
1.244486e-03
-5.959978e-02
2.202864e-02
7.941006e-03
1.034492e-01
2.302129e-01
1.405741e-01
1.622713e-03
-5.834786e-04
1.158140e-03
9.104862e-04
5.281898e-04
-2.045586e-03
3.416979e-04
-1.387490e-03
6.517537e-05
-2.688818e-02
2.068466e-02
8.359400e-03
-2.390005e-02
7.788022e-03
-4.775856e-03
-1.334034e-02
-1.210034e-02
-1.076225e-02
-7.057793e-03
4.326404e-02
4.575637e-02
3.061450e-02
2.847869e-03
-3.144928e-02
9.557499e-02
4.134334e-02
-3.430651e-02
6.647744e-02
3.392078e-03
-4.379757e-02
-3.570854e-02
-4.059541e-02
2.144556e-03
-3.874683e-02
-3.590995e-02
-5.110138e-03
4.200558e-02
3.091475e-02
2.501597e-02
-6.657556e-03
3.752001e-02
-1.444475e-02
8.214601e-03
1.426742e-02
-9.778216e-02
-1.557360e-02
-1.264646e-02
7.277769e-03
-3.515574e-02
-3.185923e-02
1.175023e-03
-4.882606e-02
-2.784229e-02
2.318472e-03
-1.180800e-02
1.471655e-02
2.471903e-02
-3.789116e-02
3.705847e-03
1.007771e-02
-2.832176e-02
-8.005010e-03
5.403346e-03
-7.085771e-02
6.338111e-02
2.578190e-02
-7.300937e-02
3.738125e-02
8.662283e-02
-1.070139e-02
1.701582e-02
-5.707113e-02
-4.263151e-04
6.042275e-04
-3.029123e-04
1.137511e-03
-1.726928e-04
4.237263e-04
9.646132e-04
2.195833e-03
-1.027028e-03
5.917281e-02
8.728059e-02
1.368102e-02
1.983142e-02
9.693238e-03
2.651651e-02
-1.098492e-02
-8.029388e-03
-3.063636e-02
-5.870275e-02
7.717839e-04
8.332963e-03
-7.825514e-02
-2.620248e-03
5.949836e-02
-6.575052e-02
-5.674053e-02
1.751064e-02
-2.530054e-02
-1.239340e-02
1.038251e-02
-1.726211e-02
1.267155e-02
3.527128e-02
5.249814e-02
6.086506e-02
3.942575e-02
3.076443e-02
-9.334949e-03
-6.832806e-03
-4.701557e-02
-9.149390e-02
-6.209365e-02
-7.237018e-02
-1.042211e-01
-4.376512e-02
-4.285915e-03
-5.170113e-02
-2.472625e-02
-6.692531e-02
-7.790248e-02
-3.519649e-02
2.200752e-02
-2.244980e-02
-1.892707e-02
1.086773e-02
-1.442544e-02
-4.081799e-03
-1.229999e-02
3.225315e-04
-1.427093e-02
-1.997736e-02
3.271702e-02
3.878523e-02
2.345742e-03
-4.901516e-02
1.522285e-02
3.237082e-02
-4.357184e-03
-3.054476e-02
5.614515e-02
-6.000716e-03
-3.079235e-02
1.352835e-04
-6.135305e-02
-4.201629e-02
-3.229081e-02
-2.349826e-02
3.810748e-02
-1.279293e-02
5.116200e-02
1.653869e-02
-2.498966e-02
2.423528e-03
-2.791978e-02
-1.098644e-02
-3.357794e-02
-2.192009e-02
-1.741508e-03
-2.694582e-02
-3.557178e-02
8.077810e-02
-1.899997e-03
-5.337822e-02
6.519618e-02
-4.851000e-02
-1.519455e-02
-1.156096e-02
-4.379163e-02
1.733104e-02
-5.459569e-03
-4.068613e-02
-1.237660e-02
-6.030930e-03
8.073492e-03
1.086165e-02
-1.047769e-02
-3.350088e-02
-6.117250e-02
3.227151e-02
2.482898e-02
-7.340281e-03
6.552450e-03
1.824649e-02
6.943720e-03
-6.126842e-02
6.058387e-03
4.131870e-02
-4.555731e-02
-2.810898e-02
1.895480e-02
-8.572459e-03
-2.967801e-03
3.579688e-02
-3.245606e-02
-4.274807e-04
3.975270e-02
1.099859e-02
-2.133312e-02
-5.291583e-03
4.843592e-02
2.294209e-02
7.996725e-03
4.831840e-02
2.872657e-02
2.993274e-02
-1.625193e-02
1.490133e-02
1.165737e-02
2.230802e-02
3.994687e-02
8.424728e-03
-2.814509e-02
-4.838208e-02
-6.054275e-02
-1.083945e-02
-7.086656e-03
-1.951919e-02
-3.172491e-03
8.811279e-03
-1.626973e-02
-2.864920e-02
-2.041068e-02
-1.047578e-02
-2.747430e-02
7.360609e-03
2.621060e-02
-6.453574e-02
-4.051765e-04
8.852983e-03
-5.035879e-02
1.765497e-02
1.690020e-02
-2.190183e-03
-4.874038e-03
-5.395932e-02
-4.259786e-02
-5.069427e-03
1.020019e-02
-5.123744e-02
-5.018181e-02
-4.229065e-03
2.765621e-03
-4.358437e-02
9.720132e-03
-1.943605e-02
4.529830e-03
4.435329e-02
-4.003609e-03
1.733345e-02
8.413819e-03
1.023261e-02
2.267992e-02
-7.249585e-03
-7.999019e-02
-1.007964e-02
-7.183441e-03
-6.991493e-02
7.150739e-02
2.585103e-02
-7.324614e-03
1.178431e-02
-2.989338e-02
3.239118e-02
1.939080e-02
-2.902162e-02
3.154905e-02
-7.338251e-03
-3.466166e-02
-5.285287e-03
-7.776177e-03
-9.695729e-03
1.982406e-02
3.866135e-02
-5.286059e-03
2.844999e-03
-1.279262e-02
-3.583741e-02
-7.773052e-02
-2.220478e-02
6.189661e-02
-1.095219e-02
-3.416863e-02
-7.092533e-02
-1.858878e-02
-9.739663e-02
-1.144021e-01
4.623870e-04
-2.888805e-03
-4.697903e-04
-2.219798e-04
-2.147701e-03
1.614609e-03
4.819355e-04
-3.220163e-03
1.202503e-03
-8.615352e-03
4.331805e-03
-1.681815e-02
2.369122e-03
7.378028e-03
-3.143432e-02
-1.775876e-02
2.928144e-04
-8.707212e-02
7.632040e-02
1.393373e-01
-2.751308e-02
1.935056e-01
1.762920e-01
-5.861031e-02
1.131644e-01
1.080333e-01
-8.699348e-02
-2.384656e-02
-3.072112e-02
-9.525102e-03
-5.748679e-02
-3.365774e-02
-4.901550e-02
1.726252e-03
1.424370e-02
1.010048e-02
2.853792e-03
-1.229696e-02
-2.171136e-02
3.032449e-02
-9.622113e-03
-4.606872e-03
-4.436002e-02
-1.250501e-02
-1.967478e-02
-5.319149e-02
-1.469035e-02
1.562823e-02
-5.515516e-02
-2.427073e-02
-3.252442e-02
-9.016712e-03
2.353312e-02
1.187435e-02
-1.424267e-02
-1.339137e-02
-1.390572e-02
5.489370e-02
2.970348e-02
2.295455e-02
-9.936561e-03
6.707148e-03
1.576949e-04
-1.360357e-02
1.815505e-02
2.212469e-02
1.507792e-02
1.152755e-02
-3.865513e-02
-8.253236e-03
2.675623e-02
1.717971e-02
-1.517803e-03
-2.939127e-03
-1.946600e-03
6.477317e-04
-2.578358e-04
-6.289734e-04
6.179321e-04
1.638084e-03
-5.528408e-04
5.614851e-02
-2.709948e-02
-5.440432e-02
1.180599e-03
1.241723e-02
-3.355982e-02
-1.270821e-02
-6.977983e-02
-8.304839e-02
-2.912172e-02
1.217230e-02
-1.380083e-02
-5.026364e-02
2.080555e-02
-8.388321e-04
-5.096772e-03
8.132274e-02
7.328778e-02
-8.682705e-04
-6.055821e-04
4.458815e-04
9.324878e-03
-1.809156e-02
-4.603592e-02
4.642532e-02
4.904688e-02
1.567101e-02
-1.771883e-03
2.752508e-02
3.990050e-03
-2.663562e-02
1.700238e-02
3.491205e-02
4.892492e-02
3.783275e-02
2.205148e-02
8.988075e-03
2.151503e-02
-5.274624e-04
-4.752326e-02
-6.871489e-04
2.279194e-02
-4.082864e-02
-7.287445e-02
-3.541124e-02
1.788444e-03
3.856442e-02
4.708975e-02
-4.281434e-02
-3.987191e-02
-2.063931e-02
-5.758652e-02
-5.180001e-02
-3.443199e-02
-4.082868e-02
1.174318e-02
1.540504e-02
-1.042530e-01
-1.654796e-02
-3.295595e-02
-2.842079e-02
-3.401225e-02
-5.194670e-02
2.754840e-04
3.263000e-02
4.495656e-02
2.971339e-02
6.476904e-02
4.408129e-02
-5.811920e-02
-3.667192e-02
-4.292751e-02
-2.376112e-02
-2.673003e-02
-4.783728e-02
-8.427255e-03
-1.982044e-03
-3.044953e-02
2.000133e-02
4.719392e-03
-2.656015e-02
-1.184640e-02
3.463475e-02
-1.055757e-02
-3.099416e-02
3.779429e-02
-2.669764e-02
2.063392e-02
2.274784e-02
-2.759114e-02
-2.178062e-02
-1.410053e-02
-2.452370e-02
-5.676531e-02
-5.610827e-02
-4.739594e-02
-3.299533e-02
-6.090157e-02
-3.362085e-02
-9.047040e-03
-3.989223e-02
-4.414391e-02
1.295687e-02
9.285671e-03
-1.699283e-02
9.424845e-03
3.165261e-03
-2.115301e-02
4.965317e-02
-4.514733e-02
-7.428996e-02
1.743321e-02
-3.070912e-02
-9.453122e-02
1.165535e-02
5.498664e-03
-3.440166e-02
-1.416155e-02
-3.203102e-02
-2.322066e-02
2.290413e-02
3.105099e-02
1.787984e-02
5.545665e-03
6.084485e-03
1.150455e-03
2.569714e-02
-1.274484e-02
-3.010480e-02
-5.929399e-03
-2.211977e-02
-2.826140e-02
1.153703e-02
4.207944e-02
2.744033e-02
1.869654e-02
2.700253e-02
6.617281e-03
1.547683e-02
2.577845e-02
1.249111e-02
-1.441449e-02
-2.663465e-03
8.971776e-03
1.948809e-02
-5.406061e-03
-3.499597e-02
2.629577e-02
3.749654e-02
5.602817e-02
1.282546e-02
1.405719e-02
3.251083e-03
-3.134590e-03
-1.172721e-02
-2.779475e-02
-1.773864e-02
1.872891e-02
4.319442e-02
-2.956731e-02
6.838859e-02
8.210991e-02
-2.234554e-02
-1.570973e-02
-2.899348e-02
-6.998952e-02
-4.157136e-02
-7.641029e-02
1.596098e-02
1.725394e-02
2.529078e-02
2.224410e-02
1.211565e-02
5.964405e-04
8.151304e-02
5.761178e-02
5.564718e-03
2.630683e-02
-3.856465e-03
7.395461e-03
1.967172e-02
-1.143623e-02
-1.501383e-02
1.597163e-02
-8.525826e-03
-2.493947e-02
4.482861e-02
1.947864e-02
-1.305238e-02
-4.472730e-02
-7.567279e-03
-1.673365e-02
-9.385021e-03
-3.581286e-02
-2.646460e-02
3.493841e-03
4.151142e-03
-7.984266e-03
-2.775689e-02
-2.348584e-02
-1.229187e-02
1.708887e-02
7.514244e-02
9.292312e-04
-7.969155e-02
-5.541570e-02
-5.479856e-02
1.645471e-04
1.991643e-03
4.360566e-04
2.999382e-03
1.336094e-03
-8.189343e-04
-7.392134e-05
-7.572258e-04
-2.494072e-04
-9.783641e-03
-5.589100e-03
4.738263e-03
-1.241418e-02
-2.713461e-02
-2.161814e-02
-3.786648e-02
-9.151835e-02
-5.159577e-02
-7.172383e-02
-6.623031e-02
2.851260e-02
-5.931140e-02
-5.122048e-02
-3.822119e-03
8.299543e-03
-1.703689e-02
-6.689536e-02
-4.891845e-03
-2.613028e-02
1.228784e-02
3.183694e-02
1.540538e-02
3.680371e-02
6.146805e-02
2.451623e-02
4.761474e-02
2.058808e-02
3.336056e-02
-9.836600e-03
1.222232e-01
7.180637e-02
4.772217e-03
7.335409e-02
2.818469e-02
-4.145551e-03
3.287663e-02
2.568965e-02
4.646887e-02
1.968219e-02
2.070670e-02
2.373654e-02
-1.260636e-02
-1.050056e-02
-2.038733e-02
-1.971836e-02
-1.867139e-02
-1.399178e-02
-2.495815e-02
-1.785384e-02
-2.403621e-02
-1.655589e-02
-4.014103e-03
-6.035702e-03
4.716307e-02
6.254500e-02
-4.589944e-03
6.851228e-02
6.254043e-02
-1.721333e-02
8.889234e-03
2.818929e-02
-2.976936e-02
-8.064827e-04
-2.128659e-04
1.635115e-04
-1.715370e-07
2.093633e-04
1.313429e-03
-2.292902e-03
4.960368e-04
-3.341506e-04
-8.382015e-02
-7.331774e-02
-1.457009e-02
-2.979142e-02
9.847869e-04
1.900477e-02
-6.885654e-02
-3.975349e-02
-3.411340e-02
9.002133e-02
5.115021e-02
1.562014e-02
3.206351e-02
5.253122e-03
1.063283e-03
9.882973e-03
-1.120930e-02
2.150583e-03
3.591326e-02
2.205800e-02
3.585108e-02
1.296582e-02
1.522977e-02
2.953452e-02
-5.671107e-02
-8.166681e-02
-5.250825e-02
2.778473e-02
3.785098e-02
1.439759e-02
2.944236e-02
3.970321e-02
5.549698e-02
-1.933899e-02
-3.811578e-02
-4.423172e-02
-3.358915e-02
-2.756956e-02
5.536309e-03
2.139997e-02
4.317866e-02
2.676512e-02
3.518612e-03
1.428535e-02
1.530522e-02
-2.291889e-02
4.379491e-03
9.435973e-03
-1.849947e-02
-1.284170e-02
-4.359645e-02
3.844576e-02
-2.069178e-03
-1.627341e-02
-4.440141e-04
1.947226e-02
7.347558e-02
-2.079205e-02
-8.733039e-03
5.052255e-02
2.999590e-02
-2.168049e-02
-2.977983e-02
-2.386316e-02
1.418813e-02
1.275803e-02
4.719613e-03
1.337344e-02
2.584953e-02
-2.091130e-02
-6.658127e-02
-5.929696e-02
6.297133e-02
5.190494e-02
4.669499e-02
2.369002e-02
1.104250e-02
-3.469061e-02
4.131070e-02
-3.721597e-02
-5.795822e-02
-1.987546e-02
3.134993e-02
2.466346e-02
-4.310182e-02
1.654142e-02
8.440900e-04
1.407717e-02
-3.691912e-04
-5.763605e-02
9.347240e-03
2.878593e-02
2.430002e-02
7.274471e-02
2.459906e-02
4.618219e-02
-3.426614e-02
-7.252016e-03
4.142125e-02
6.563007e-03
1.074686e-02
-1.563741e-03
-3.076682e-02
-1.758263e-02
-7.536019e-04
2.913685e-02
2.219567e-02
5.184359e-02
-5.861305e-02
-1.623554e-02
-6.012432e-02
-2.354507e-02
-6.816713e-02
-2.600883e-02
3.872531e-02
1.427542e-02
2.465105e-02
-9.036666e-03
6.491992e-03
9.104545e-03
-7.841557e-03
-7.374519e-03
1.861093e-02
-3.769105e-02
-2.890713e-02
-1.993863e-02
1.267585e-02
2.515021e-02
3.430716e-02
2.072273e-02
9.436205e-03
-1.161675e-02
-1.528204e-02
-2.887868e-02
-2.556607e-02
5.337715e-02
2.054695e-02
1.048562e-02
2.034804e-02
-9.222401e-03
-4.744086e-02
1.142407e-02
-3.025657e-02
-2.044796e-02
2.911500e-02
6.609633e-02
-1.312763e-02
3.115571e-03
-1.068794e-02
-1.624962e-02
3.163579e-02
-1.375186e-02
-7.255787e-02
7.094818e-02
4.016535e-02
1.684652e-02
3.087448e-02
-1.984644e-02
-3.799387e-02
9.834483e-04
-5.923263e-02
-4.970319e-02
-4.772274e-03
1.680879e-02
-2.249254e-02
-2.347735e-02
-3.718424e-03
-3.635718e-02
-1.838688e-03
-1.496979e-02
-3.616553e-02
-2.196076e-02
-8.683518e-03
2.816089e-02
-2.368641e-02
-1.893922e-04
5.582043e-03
-3.312512e-02
4.896226e-03
-2.315271e-02
-3.339078e-02
-4.299919e-02
-1.643683e-02
-4.502456e-02
2.236815e-02
3.920731e-02
-2.816495e-02
3.835539e-02
2.019156e-02
7.493800e-02
4.385115e-02
1.977163e-02
6.436072e-02
-9.514429e-03
-4.012608e-02
-4.875425e-03
-7.170044e-02
-7.640316e-02
7.646978e-02
5.633133e-02
-4.307945e-03
3.036770e-02
-3.162646e-03
-4.568236e-02
-4.370962e-02
-5.549167e-02
-2.308702e-02
-1.207834e-03
-2.455804e-03
2.188357e-03
-1.919169e-03
5.087970e-04
3.454592e-03
5.894729e-04
5.074508e-04
-3.294875e-04
-1.288127e-02
1.053690e-02
-9.508901e-03
7.139120e-03
6.011674e-02
1.730034e-03
4.815531e-02
6.463482e-02
-9.888910e-03
-1.127212e-02
-7.605982e-02
-4.987339e-02
1.084586e-05
-1.013153e-01
-5.950645e-02
1.051184e-02
-5.402270e-02
-5.825644e-02
6.325968e-02
1.075623e-02
6.090168e-02
3.407892e-02
-5.369581e-02
-2.558372e-03
-7.260240e-03
-8.521341e-02
-7.805318e-02
-2.185427e-02
-3.645472e-03
2.872954e-02
-4.072682e-03
1.066870e-02
2.375898e-02
6.183439e-03
2.111718e-02
-2.195357e-02
8.250529e-02
4.975694e-02
3.264560e-02
4.208466e-02
1.222866e-02
2.755668e-02
-2.144185e-02
-4.477856e-02
-1.980151e-02
-8.065859e-03
6.099450e-04
7.847311e-03
-2.760609e-02
-1.319117e-02
1.065611e-02
-3.906041e-02
-2.228142e-02
-1.901638e-03
2.251061e-02
5.009887e-02
-6.979778e-02
7.297745e-02
5.179149e-02
-3.457472e-02
8.219229e-02
1.315937e-03
-1.154805e-01
2.028376e-03
-4.786256e-04
1.321209e-03
1.658347e-03
4.806452e-04
-1.102960e-03
-2.145059e-03
-1.109833e-04
1.812963e-03
-8.513922e-03
-5.785892e-02
-4.869824e-02
-8.337534e-04
-1.284546e-02
-3.630245e-02
-5.242124e-02
-1.074202e-01
-7.435760e-02
3.458448e-02
2.253402e-02
-6.055951e-03
4.291379e-02
-1.252477e-02
-1.653605e-02
4.033633e-02
-1.274702e-02
-5.849735e-03
-4.955057e-02
-4.830006e-02
-3.260586e-02
-1.621809e-02
-2.876502e-02
-1.881849e-03
1.151687e-02
-1.414893e-02
-1.287888e-02
2.445187e-02
6.826472e-03
-1.001377e-02
2.308796e-02
-2.240559e-02
-4.165702e-02
-2.338803e-02
-6.469772e-02
-4.201574e-02
4.046275e-02
-1.614758e-02
1.559692e-02
7.677361e-02
-2.018471e-02
-1.927301e-02
1.389115e-02
-7.353910e-02
-3.717989e-02
4.451146e-02
3.092887e-02
6.443881e-02
2.125383e-03
-2.814365e-02
2.991926e-03
-3.168947e-03
-1.899127e-02
2.084048e-02
1.450153e-02
-5.769589e-02
-4.486343e-02
4.035036e-02
-1.253852e-02
-7.123028e-02
3.977642e-02
3.207416e-02
-4.317388e-02
4.386267e-02
-2.501576e-02
-1.783664e-02
2.230760e-02
-1.512067e-02
-6.882575e-03
1.168825e-02
1.903999e-02
3.301064e-02
3.843420e-02
-7.470733e-03
-5.294428e-02
5.146377e-02
-2.492407e-02
-4.417374e-02
4.751815e-02
-3.146548e-02
-2.816091e-02
9.583322e-02
3.014285e-02
-6.510277e-04
3.385396e-02
1.870528e-02
4.721817e-02
-1.995873e-02
-2.541710e-02
2.691984e-02
-1.199383e-02
-2.858452e-02
2.732571e-02
1.084078e-01
1.535230e-02
5.875305e-02
2.164339e-02
-6.731869e-02
-1.437748e-02
-1.324687e-02
-3.925586e-03
1.603566e-02
2.337781e-03
-6.867385e-03
5.559240e-02
-6.830653e-03
-4.243467e-04
-7.199162e-03
-3.436409e-02
-2.775014e-02
-3.361532e-03
-3.896327e-02
-3.844021e-02
1.706063e-02
-2.309527e-02
-4.102289e-02
-4.003228e-03
2.488395e-02
4.271908e-02
5.853990e-02
-1.659073e-02
9.462256e-03
3.962164e-02
-5.550218e-02
-5.339514e-02
5.280903e-03
-2.959829e-02
4.655729e-02
3.622189e-02
1.739224e-02
1.451784e-02
-3.915591e-03
3.911578e-02
-2.475461e-02
-7.625812e-02
-1.567576e-02
-1.214338e-02
-1.443138e-02
-1.581006e-02
-2.689917e-02
-1.544010e-02
-2.525911e-02
-3.157376e-02
-2.099406e-02
4.625943e-03
-4.326379e-02
2.228511e-03
1.706064e-02
-1.033365e-02
-3.404543e-02
1.204105e-01
6.522480e-02
1.091214e-02
6.363411e-03
-2.934287e-02
-2.739697e-02
-2.344851e-02
-3.515106e-02
-7.140078e-02
1.336605e-02
-1.240009e-02
-2.863519e-02
6.257458e-03
-4.669682e-02
4.644064e-03
1.011584e-02
1.775271e-02
6.136419e-02
1.071056e-02
1.595001e-02
3.451744e-02
2.842404e-03
2.314100e-02
5.082358e-02
-7.892571e-02
1.303900e-02
6.043175e-02
-4.224695e-02
1.825046e-02
7.134510e-02
1.288495e-02
-2.496495e-02
1.608500e-02
-1.694815e-02
-1.026737e-02
3.354260e-02
-2.855565e-02
-2.046716e-02
1.447943e-02
4.116804e-02
3.899974e-02
7.440574e-03
3.076620e-02
7.341310e-03
-1.247368e-02
1.506684e-02
-3.662182e-02
-3.971763e-02
3.403187e-03
-3.725424e-02
-2.505595e-02
7.568573e-02
8.687055e-03
6.292009e-02
5.010900e-04
-7.338104e-02
-3.419996e-03
1.062480e-03
-1.877239e-05
2.058252e-03
-1.844376e-03
2.502153e-04
-4.775526e-04
8.758167e-04
9.971844e-04
5.919309e-04
1.968860e-02
-2.431939e-02
-1.310672e-02
1.092113e-02
-3.320714e-02
-1.322500e-03
-5.544733e-02
-6.339471e-02
-1.066844e-02
2.978696e-02
5.914868e-02
-1.021873e-01
1.127371e-02
1.777578e-01
-3.497956e-02
-6.779519e-02
8.021538e-02
-1.630447e-02
-7.779922e-02
-5.310050e-02
-7.125864e-02
-8.053339e-02
-4.405218e-02
-1.577120e-02
-1.117361e-01
-6.979612e-02
-8.682586e-02
2.308710e-03
3.687181e-02
4.088240e-02
6.908503e-03
5.811447e-02
4.764277e-03
2.302373e-02
-5.567844e-03
-6.428134e-02
-3.765531e-02
-6.288032e-02
-4.251244e-02
-4.851202e-02
-3.390869e-02
-2.172066e-02
-2.112494e-02
-1.777389e-02
-1.409126e-02
3.118031e-02
4.659196e-02
2.766572e-02
-1.142222e-02
1.495330e-02
1.368520e-02
1.673425e-02
4.037679e-02
5.769594e-02
-1.099268e-03
-1.394598e-01
-1.653547e-01
4.212172e-02
-1.186349e-01
3.175468e-02
3.631228e-03
-5.005763e-02
1.119358e-02
-2.787021e-04
-1.276072e-04
3.488672e-04
1.046599e-03
6.743872e-04
1.203183e-03
-2.069113e-04
-1.003102e-03
-1.460756e-03
-8.688824e-02
-6.116278e-02
-2.050901e-02
-1.117431e-01
-7.738120e-02
8.520720e-03
-1.115584e-01
-1.074482e-01
4.377170e-02
5.713028e-02
4.749600e-02
-3.811314e-02
-2.059389e-02
-1.453462e-02
-2.089403e-02
-8.643244e-02
-4.339092e-02
-5.782489e-02
1.865946e-02
3.181748e-02
4.429574e-02
2.132489e-04
2.940362e-02
5.066949e-02
3.383569e-03
2.287409e-02
1.133660e-02
3.661041e-02
3.986369e-02
3.923593e-02
6.135303e-03
6.641266e-03
-1.902002e-02
-3.338761e-02
-4.274727e-02
-5.022464e-04
4.987794e-05
-5.158667e-03
2.631327e-02
-4.200452e-02
-5.196608e-04
9.940804e-02
-1.225254e-01
-6.530534e-02
2.498395e-02
-3.809357e-02
-5.772230e-02
-2.598039e-02
-3.018156e-02
-6.120520e-04
1.074548e-02
-1.412550e-02
1.605775e-02
2.911830e-02
1.352177e-03
-5.746974e-02
3.408401e-02
3.403802e-02
-5.509936e-02
-2.348201e-02
2.338623e-02
-9.011398e-02
-2.073683e-02
-2.534263e-02
8.396384e-03
8.738800e-02
2.007490e-02
1.547348e-02
8.516372e-02
6.471622e-02
9.879418e-02
5.550503e-02
-2.480081e-02
-3.168685e-02
7.434742e-02
1.418582e-02
-6.275082e-02
2.938355e-02
4.685539e-02
-5.836010e-02
-1.754175e-02
6.921057e-02
1.209891e-02
8.087293e-02
3.349874e-02
-2.921915e-02
-2.484345e-02
-4.473701e-02
-6.520849e-02
-8.238181e-03
-2.390931e-02
-1.330492e-02
-7.743601e-02
-4.463195e-02
-4.839543e-02
-1.024676e-01
-1.468668e-02
-2.044523e-02
-4.266142e-02
1.001614e-02
2.928248e-02
1.091218e-02
-1.205777e-02
-1.582406e-02
-1.177452e-02
9.024185e-03
3.288958e-02
1.808955e-02
-3.290531e-02
-4.526694e-02
-1.336441e-04
1.360703e-02
-1.053220e-01
-5.892371e-02
5.798899e-02
-9.803722e-02
-1.052497e-01
-1.941553e-02
7.724565e-03
-1.097507e-03
-4.603975e-02
-4.049904e-02
5.610755e-04
1.870977e-02
2.763284e-02
-3.841377e-03
1.045583e-02
4.180343e-02
3.693002e-02
-3.584055e-02
-2.199737e-02
-6.087606e-02
2.512492e-03
-6.857286e-02
-6.654319e-02
5.473698e-02
1.270486e-02
-2.473080e-02
1.041468e-01
6.453750e-02
2.559710e-02
-1.432922e-02
-2.359286e-02
-2.662842e-02
-1.096889e-01
-1.143771e-01
7.669806e-04
1.797375e-03
-7.167538e-02
-1.261840e-02
1.543808e-01
6.058434e-02
-4.685430e-02
-3.137116e-02
3.808688e-02
1.245143e-01
-9.060285e-02
-8.760452e-02
3.771079e-02
3.231614e-02
-2.921271e-02
-7.331963e-02
-2.824421e-02
1.435483e-03
3.969389e-03
-4.169933e-02
-1.073398e-02
1.455176e-02
-6.715923e-03
1.310404e-03
1.675017e-03
9.585873e-03
5.825056e-03
5.643673e-03
1.380007e-02
-6.154606e-02
8.285891e-03
-1.792628e-02
5.697662e-02
1.849401e-02
-3.300034e-02
-5.128825e-02
2.854635e-02
-7.706379e-02
-4.406954e-02
7.610203e-03
-5.543063e-02
-3.592125e-02
7.549528e-04
1.578691e-02
1.336383e-02
-2.254575e-02
3.213497e-04
-1.472278e-02
-5.376938e-02
3.300806e-02
1.786657e-02
-2.277311e-02
-8.691318e-02
-7.995681e-02
-4.061163e-02
-4.783629e-03
1.840431e-03
-3.823537e-02
1.672240e-03
7.769326e-02
-2.058125e-02
7.622752e-04
1.187623e-04
-2.145791e-05
-1.099325e-03
-2.919307e-03
9.029369e-04
1.415091e-03
-2.016598e-03
1.768363e-03
2.495800e-02
6.428765e-02
2.327091e-02
-2.848967e-02
1.543141e-02
-4.743827e-03
-8.102168e-02
-5.773054e-02
-6.352658e-02
-2.716695e-02
-9.310752e-02
-1.124688e-02
6.766289e-02
-1.380707e-01
-1.092153e-01
1.584936e-02
-1.044796e-01
-1.035183e-01
7.604791e-03
-2.556342e-02
-1.876027e-02
3.714878e-02
-4.386175e-02
-5.858831e-02
3.401658e-02
-6.986719e-02
-7.025858e-02
-9.986010e-03
-1.271217e-02
-1.350789e-02
1.621103e-03
-2.870709e-02
-6.202572e-03
-6.216759e-02
-4.693275e-02
-9.159434e-03
-2.596617e-03
-1.038451e-02
-1.884995e-02
-1.195836e-02
-1.325682e-02
2.259249e-03
1.616165e-02
-6.033278e-04
-7.754549e-04
5.950809e-02
5.389865e-02
6.042804e-03
1.470525e-02
-7.475878e-03
-5.014245e-02
-4.417976e-03
-1.861345e-02
-2.238909e-02
3.142983e-02
-1.061059e-02
2.078941e-02
1.482927e-02
5.691655e-02
4.287620e-02
2.144502e-02
7.354140e-02
7.225474e-02
-1.474547e-04
-8.721227e-05
7.246870e-04
1.354336e-03
-3.298180e-04
-8.567430e-04
9.498206e-04
-6.236787e-04
8.175529e-04
-9.741118e-03
3.477594e-02
5.515755e-02
5.760817e-02
8.122055e-02
5.825394e-02
2.496959e-02
-1.040063e-02
-5.104928e-02
-3.664330e-02
-7.914581e-03
-1.714178e-02
9.415138e-03
1.832695e-02
2.691152e-03
1.825696e-02
3.940298e-02
3.458632e-02
6.405850e-02
4.008459e-02
1.022872e-02
4.666401e-02
2.417112e-02
1.322073e-02
1.773581e-02
1.583096e-02
3.367421e-02
1.352224e-04
3.795075e-02
-1.981730e-03
6.244995e-02
3.487841e-02
2.348308e-02
6.992523e-03
-1.261961e-02
-6.927077e-02
8.211894e-03
9.361070e-03
-1.449100e-02
6.980351e-02
2.729853e-02
-4.590149e-02
-7.620053e-03
-3.852678e-02
-7.455525e-02
-2.968054e-02
4.486989e-02
8.884974e-02
-3.004796e-02
2.172794e-02
2.668695e-02
3.129869e-02
5.757133e-02
2.972734e-02
-1.196456e-02
-1.885005e-02
3.065359e-02
-2.714854e-02
1.813748e-02
-8.548231e-04
4.150802e-02
1.894188e-02
-2.711490e-02
-4.722249e-02
-8.006050e-04
1.609828e-03
6.093608e-03
-1.064852e-02
-3.631747e-02
7.285669e-03
-1.243241e-02
-1.424530e-02
3.019802e-02
-2.468846e-02
-2.693720e-02
-1.467252e-02
-6.229134e-02
-1.845674e-02
-1.231837e-02
-2.724590e-02
-4.051541e-03
-1.153374e-01
-5.904865e-02
-1.796969e-02
-6.020863e-02
8.662079e-03
2.359382e-02
-3.434679e-02
-1.389929e-03
-5.501795e-03
-6.143860e-02
-4.968213e-02
2.506018e-02
-5.271207e-02
-1.307112e-02
1.692226e-02
-6.911919e-02
-1.424640e-02
3.494481e-02
6.325422e-02
4.139498e-02
3.005088e-02
5.040283e-03
-1.853078e-02
-7.752030e-03
-2.030072e-02
-9.360829e-03
1.099447e-03
5.178658e-02
1.384981e-02
-9.639435e-03
3.819197e-02
3.579626e-02
4.920701e-03
-1.480837e-02
-1.889380e-02
1.862137e-02
-5.427385e-03
1.297047e-02
2.300810e-02
-1.102091e-02
2.123048e-02
3.842744e-02
1.928401e-02
3.189319e-02
3.101905e-02
-2.554163e-02
6.925449e-03
9.469616e-03
-2.717365e-02
-3.589084e-02
-8.093605e-03
-2.014337e-02
-1.565719e-02
-5.330386e-02
-4.211662e-03
-8.068237e-03
-7.720718e-04
-2.844061e-02
-2.545245e-02
-5.170670e-03
-3.437140e-03
-1.968627e-02
-1.417681e-02
4.291850e-02
5.965427e-02
3.088471e-02
6.392685e-02
5.317009e-02
-2.684682e-02
5.213436e-03
-2.855255e-02
-9.067734e-02
-1.611738e-03
2.397960e-02
6.161579e-02
2.605350e-02
1.424810e-02
-2.959462e-02
4.706837e-02
4.803238e-03
-5.035114e-02
-4.917123e-02
2.635318e-03
2.696116e-02
-3.226519e-02
-3.380648e-02
-1.066069e-02
-8.310726e-02
-5.612292e-02
-4.869265e-02
-1.035225e-03
-6.579693e-02
-2.602685e-03
-7.933762e-02
-1.304522e-02
3.030243e-02
-7.963075e-02
-7.555912e-02
1.630129e-02
-1.303355e-02
-1.670030e-02
-4.483515e-03
-2.438187e-02
-2.363075e-03
-1.411778e-02
3.896556e-03
-8.348058e-03
-2.643295e-02
-1.316817e-02
3.651410e-03
-7.164530e-03
-6.661321e-02
-4.783612e-02
-1.258058e-02
-3.570735e-02
3.646831e-03
3.377364e-03
1.285086e-01
1.318930e-01
3.434934e-02
-3.361023e-02
-3.796912e-02
-1.805296e-02
-9.974728e-02
-1.446618e-01
-6.871571e-02
2.184709e-03
-5.919713e-05
-8.046855e-04
6.674516e-04
6.906976e-04
1.287137e-03
-2.032981e-04
6.628527e-04
8.168512e-04
7.375411e-02
5.297754e-02
4.925251e-02
-2.684113e-02
-8.249760e-02
-5.993100e-02
-2.123395e-02
-8.204469e-02
-8.895983e-02
3.399038e-02
3.405134e-02
2.210234e-02
4.700644e-02
5.566677e-02
-9.313695e-03
4.353044e-02
8.952488e-02
-1.551997e-02
1.057972e-02
-8.729244e-03
-1.803926e-02
1.874467e-02
4.791119e-02
3.731145e-02
2.943555e-02
1.041880e-01
3.174188e-02
-1.245365e-03
9.885794e-03
-9.124434e-03
-3.530175e-02
4.789286e-02
2.701202e-03
-2.446473e-02
4.990457e-02
5.246853e-02
-2.068655e-02
1.703881e-02
2.855988e-02
5.189237e-02
5.868974e-02
4.530597e-02
-1.999258e-02
-6.749324e-03
-1.634985e-02
-7.804216e-03
7.621515e-04
6.647338e-03
-7.941573e-03
8.363576e-05
-1.639986e-02
1.564581e-03
2.186276e-02
4.410247e-03
1.124956e-03
-4.000040e-02
-9.634749e-02
-2.224956e-02
-2.484563e-02
-9.727835e-02
-1.743407e-02
-1.195242e-02
-8.482250e-02
7.179616e-04
-4.026385e-04
-1.351817e-03
3.471832e-03
-1.929062e-04
1.262509e-04
-7.445933e-04
-8.887874e-04
9.697586e-04
3.952663e-02
4.351069e-02
5.200320e-02
1.020457e-02
1.727795e-02
-2.050683e-03
9.152357e-03
6.327539e-03
-1.127323e-02
-3.893496e-03
7.267000e-03
1.707929e-02
-2.982611e-02
2.832775e-03
1.996861e-02
-1.825468e-02
3.131335e-02
2.395179e-02
-1.056357e-02
-3.050274e-02
-1.619749e-02
-6.251698e-02
-3.606874e-02
-7.475218e-03
-1.824744e-02
-8.797687e-03
3.085192e-02
3.584095e-02
-6.630154e-03
-1.077831e-03
3.974915e-02
-3.138709e-03
1.266662e-02
1.644092e-02
2.133615e-02
1.834385e-02
7.079691e-03
-3.399216e-02
-3.556385e-02
-9.426497e-03
-2.928611e-02
-4.417161e-04
-6.593656e-03
3.424935e-02
-2.773089e-03
7.896090e-02
7.248250e-02
5.196055e-02
1.492996e-02
5.630752e-02
3.652768e-02
-6.354395e-03
3.125345e-02
5.006475e-03
-6.626099e-02
1.114243e-02
5.965103e-02
-2.682932e-02
-2.786330e-02
6.960098e-02
-2.897425e-02
-5.976456e-02
-3.791216e-02
4.121008e-02
-5.602730e-03
-4.983675e-03
-3.782427e-02
2.412723e-03
-3.292235e-02
-3.903650e-03
2.195377e-02
-1.352434e-02
2.035234e-02
7.089932e-04
8.086497e-04
1.818906e-02
-1.337154e-02
-1.997216e-02
1.828485e-02
4.952081e-03
-9.642952e-04
2.567618e-02
1.281124e-02
-5.208251e-02
-3.703115e-02
-9.954541e-02
-8.769277e-02
-1.871586e-02
-6.579386e-02
-3.706481e-02
3.599997e-02
3.798126e-02
1.352071e-02
1.865024e-02
-2.244942e-02
-6.627638e-02
4.156843e-02
4.344502e-02
9.332243e-03
3.478153e-02
2.502154e-02
-6.160851e-03
-1.411465e-02
1.752474e-02
-6.024219e-02
1.168493e-02
4.157750e-02
2.160607e-02
-9.633793e-02
1.991065e-02
-1.354086e-02
5.108420e-02
9.521551e-02
1.397949e-02
4.804921e-02
4.931151e-02
6.643867e-02
-1.868562e-02
-3.953293e-02
-1.565050e-02
-2.684528e-02
-2.209911e-02
-2.584394e-02
-3.416756e-04
-3.787112e-03
2.465475e-02
1.928425e-02
3.959242e-02
2.693913e-02
4.888438e-02
7.099006e-02
7.484796e-02
-1.795258e-02
-1.184929e-03
-3.515478e-02
1.338649e-02
1.388738e-02
1.097572e-02
3.742535e-03
1.053220e-03
4.258120e-04
-5.075228e-02
-6.535176e-03
2.180694e-02
6.725512e-03
-1.397646e-02
-1.779088e-02
-4.233431e-03
6.974163e-02
7.655427e-02
1.222847e-02
5.917562e-02
6.715064e-02
2.312741e-02
3.998912e-02
4.366023e-02
-6.337459e-03
4.704516e-02
6.772722e-02
-4.247113e-02
-1.736131e-02
8.448424e-03
4.488677e-03
2.331392e-02
-8.631589e-03
-9.853235e-03
6.598246e-03
-1.774091e-02
2.273706e-03
2.924217e-02
6.672311e-03
4.263385e-02
-1.709684e-02
-3.684854e-02
-3.038366e-04
-1.973143e-02
-9.017077e-02
-4.358620e-02
-1.805314e-03
-5.076559e-02
9.840572e-04
3.671796e-02
2.145125e-02
2.951410e-03
2.359682e-02
-7.665545e-03
1.362262e-02
2.511935e-02
3.226900e-03
2.753903e-03
2.803937e-02
4.805040e-02
2.633087e-02
3.893847e-02
7.657706e-02
-1.621166e-02
2.488774e-02
4.834908e-02
1.260932e-02
9.261090e-02
1.086213e-01
-9.674794e-02
-7.292409e-02
-1.082937e-01
4.950348e-04
-2.229871e-02
-6.532044e-02
-6.613286e-04
-1.510092e-03
1.428072e-03
-2.030380e-03
5.378335e-04
-1.492071e-03
8.984974e-04
-7.832594e-04
-1.236557e-03
2.223786e-02
5.550561e-02
5.016783e-02
6.164272e-02
4.271426e-02
5.769732e-02
1.325107e-02
3.370100e-02
4.709093e-03
-8.698943e-02
-8.838662e-02
-7.297116e-02
4.587229e-02
-5.488822e-02
-1.087455e-01
8.265588e-02
-3.892422e-02
-1.190974e-01
3.349474e-02
3.605963e-02
-4.574798e-02
-5.831903e-02
-6.390189e-02
-2.709423e-02
-6.672842e-02
-2.794564e-02
2.306877e-02
-1.210536e-02
2.128413e-02
-6.409013e-02
-5.672645e-02
4.849699e-02
5.663295e-04
2.265538e-02
6.173193e-02
2.852897e-02
2.100273e-02
4.976684e-03
-1.990181e-05
9.584632e-03
1.258215e-02
3.193821e-02
8.452951e-03
3.516284e-02
2.776427e-02
-1.098905e-03
-9.727717e-03
-2.092355e-02
1.504069e-02
8.213885e-03
-1.127167e-02
-2.661511e-02
-1.113260e-02
-8.052047e-03
8.389025e-03
3.456456e-02
2.925787e-02
-3.549603e-03
2.763785e-02
-3.356815e-02
4.273453e-03
-3.698830e-02
-6.008689e-02
5.933793e-04
1.977780e-04
1.645264e-03
-1.293177e-03
-1.038291e-03
2.660321e-04
-1.392055e-03
6.246357e-04
1.135140e-03
-4.060470e-02
-1.952678e-02
-7.237361e-02
-1.660756e-02
-7.064629e-02
-6.931128e-02
-5.481874e-02
-8.014768e-02
-6.310497e-02
-1.107318e-02
-2.967614e-02
-1.402475e-02
1.507834e-02
-1.290986e-02
-1.578454e-02
1.264489e-03
3.039326e-03
-2.499006e-02
-1.774630e-02
-5.757639e-03
-1.509218e-02
-3.629412e-02
-1.676198e-02
-1.802326e-02
2.464392e-02
3.259141e-02
2.008342e-02
-6.519771e-03
-8.956707e-02
-1.219824e-01
6.985781e-03
-4.426969e-02
-5.560432e-02
8.260380e-02
3.537694e-02
-1.814684e-02
-1.286834e-02
-3.580631e-02
-9.163939e-02
-4.397762e-02
-7.613511e-02
-5.021758e-02
-4.229912e-02
-5.088014e-02
-3.464629e-02
6.359629e-02
4.607582e-02
7.662633e-03
5.000624e-02
1.205080e-01
1.039278e-01
1.700982e-03
2.779786e-02
1.093743e-02
3.681991e-02
6.661585e-02
7.986351e-02
3.174132e-02
4.658547e-02
4.803131e-02
-4.383926e-02
-4.446492e-02
-1.882721e-03
-4.684373e-02
-6.205223e-02
-8.477579e-02
-1.331528e-02
2.941921e-02
6.996485e-03
-4.971372e-04
3.751246e-02
-4.172628e-04
-3.221779e-02
1.173732e-02
2.647474e-02
-3.086245e-02
5.739107e-02
9.269730e-03
-4.873149e-02
4.965863e-02
-1.094903e-02
-2.899405e-03
1.576568e-02
5.327944e-02
3.226640e-02
1.291719e-02
-1.157801e-02
5.691927e-03
-1.259751e-03
5.923914e-04
1.606107e-02
-2.881456e-02
-5.789926e-02
4.514508e-02
3.969285e-02
-2.018416e-02
6.187013e-02
5.112058e-02
-5.714970e-03
-8.414571e-03
-1.271082e-03
-1.398843e-02
3.009976e-02
3.140933e-02
-1.454087e-02
-1.394970e-02
2.186243e-02
7.038583e-03
2.371444e-03
2.685317e-02
-5.701048e-02
7.572202e-02
1.116395e-02
-8.029494e-02
3.666718e-02
4.416816e-02
-2.311626e-02
-4.201398e-02
-4.084149e-02
-4.315297e-02
3.971155e-02
2.380737e-02
-1.491470e-03
1.666932e-02
9.791314e-03
-2.109551e-02
-5.986250e-03
-4.181626e-02
-7.580033e-02
-2.199334e-02
-3.035551e-02
-2.243022e-02
1.558502e-02
2.666408e-02
1.657916e-02
-1.116468e-02
1.052271e-02
7.991401e-03
2.882054e-03
3.713968e-02
3.911316e-02
2.218802e-02
5.849904e-02
-4.904228e-03
5.408765e-02
4.128559e-02
-2.516026e-02
8.111222e-02
8.730058e-03
-5.378428e-02
-4.223737e-02
-6.677197e-02
-6.226789e-02
-4.688329e-02
-3.878678e-03
-5.527565e-02
6.613623e-02
6.247245e-02
9.353138e-04
6.913798e-03
-2.773562e-02
-2.281692e-02
2.715592e-02
4.461822e-02
-3.472165e-02
-1.290655e-02
6.186511e-03
-3.231487e-02
-1.853986e-02
1.667141e-02
-1.035459e-02
3.065565e-02
9.921390e-03
9.541389e-03
5.041540e-02
8.589744e-04
-1.101654e-02
3.860050e-02
-1.536576e-03
-4.577870e-03
-5.405762e-02
3.205536e-02
1.280367e-02
-5.649738e-02
-7.995992e-03
1.301861e-02
-2.060164e-02
2.160714e-02
-2.781738e-04
1.374890e-02
-1.408433e-02
2.151122e-02
-1.470826e-02
7.132285e-02
6.113689e-02
1.330921e-02
8.692458e-02
2.470362e-02
-7.053972e-03
-2.896894e-03
-3.588053e-02
7.867730e-03
5.462013e-02
1.006558e-02
2.489801e-02
5.183487e-02
-2.854247e-02
1.146120e-04
-1.352051e-03
7.972430e-04
-5.048874e-04
1.240440e-03
3.353514e-03
1.444903e-03
7.197479e-04
-1.386727e-03
-8.597428e-02
-5.441222e-02
-6.085371e-04
-3.946018e-02
9.380383e-03
6.137432e-02
-1.359023e-02
1.029371e-03
2.391284e-02
-8.651714e-02
6.668434e-02
4.503537e-02
-1.549703e-02
8.075561e-02
-3.306168e-03
-1.737239e-02
2.411712e-03
-5.546663e-02
4.836655e-02
-2.629897e-02
-5.747138e-02
7.136730e-02
-2.072273e-02
-3.660569e-02
6.634695e-02
8.240483e-03
6.505429e-03
3.027322e-02
2.013433e-02
1.681182e-02
-2.249544e-02
-3.501629e-02
1.008883e-02
-2.502534e-02
1.290277e-03
5.952466e-02
-5.475913e-02
-6.295600e-02
-6.801017e-02
3.322562e-02
2.585600e-02
1.665710e-02
2.601704e-02
-7.965254e-03
-7.230588e-03
8.646524e-03
5.368003e-03
1.723489e-02
-7.310853e-03
-1.977063e-03
4.350941e-03
-1.208863e-02
-1.852687e-02
-6.029539e-03
-6.832265e-04
-2.366417e-02
1.081356e-02
-2.366702e-02
-2.974877e-02
-1.176349e-02
-6.417176e-03
-8.597147e-02
-1.816799e-02
8.199356e-04
2.071410e-03
-1.819314e-03
1.173705e-03
-6.490240e-04
3.188242e-03
1.674171e-04
1.473269e-03
-5.606726e-04
5.150890e-03
-1.279271e-02
-3.745849e-02
3.529149e-02
2.248176e-02
3.222883e-03
8.084493e-03
-1.330019e-03
-1.645618e-02
4.344131e-02
1.407354e-02
-1.998778e-02
2.090448e-02
1.275204e-03
1.775465e-03
3.912064e-02
-1.914622e-02
-9.587773e-03
9.537596e-04
-1.601040e-02
6.205843e-03
-3.639643e-02
-3.860812e-02
-2.536829e-02
-1.464662e-02
7.011206e-03
2.758214e-02
5.204581e-03
3.487482e-02
3.754783e-02
9.205319e-03
3.867463e-02
5.256326e-02
2.445008e-02
2.070872e-02
-2.061309e-02
5.051795e-02
2.790207e-02
-1.963740e-02
4.514638e-02
1.319688e-02
-2.642735e-02
3.342532e-02
-7.706987e-03
-4.481716e-02
-9.519668e-03
-2.741435e-02
-2.462149e-02
1.233082e-02
-4.139051e-03
-9.609121e-03
-6.606029e-03
-8.360233e-03
-3.010091e-03
-4.666429e-02
2.976918e-04
-1.305347e-02
-3.388067e-02
1.970928e-02
9.468538e-03
-7.706570e-02
-3.916109e-02
-1.555877e-02
1.276459e-02
2.989590e-02
2.707929e-02
-4.527001e-03
-7.126293e-03
1.206902e-02
-4.270622e-02
-4.958033e-02
-1.810902e-02
6.644887e-03
1.595290e-02
-5.566027e-03
4.156457e-02
9.709463e-03
-1.785952e-02
1.081331e-02
-2.440399e-02
-6.311461e-02
-2.711646e-02
-2.240188e-02
-3.990424e-02
-3.511494e-02
-4.078052e-02
-9.508856e-03
-5.058768e-02
-2.319063e-02
2.101894e-02
1.293315e-02
-2.144470e-02
-7.450009e-03
-4.934533e-02
-4.270540e-03
-2.538063e-03
-5.551124e-03
1.815420e-02
-3.756783e-03
-2.104985e-02
-1.727069e-02
8.351570e-03
-1.977692e-02
2.176776e-02
2.939094e-02
-5.668037e-03
1.948784e-02
6.959533e-03
7.620835e-02
2.310914e-02
1.502115e-02
4.492848e-02
-2.843134e-02
-2.156597e-03
-1.943498e-03
-4.387259e-02
-3.385376e-03
2.888341e-02
1.204858e-02
2.162625e-02
2.870103e-03
7.247201e-03
1.378923e-02
-9.188435e-03
-9.055068e-03
1.386985e-02
4.147078e-02
3.949383e-02
-2.795057e-03
-2.021053e-03
9.639767e-04
-4.505640e-02
-2.399929e-02
7.987332e-03
-3.156778e-02
1.423041e-02
3.869690e-02
1.228995e-02
1.499156e-02
1.113123e-02
-5.625728e-03
-2.178816e-02
-2.143121e-02
-1.956443e-02
5.301951e-02
2.163646e-02
-4.969777e-03
-5.809022e-03
1.753684e-02
-1.456047e-02
3.662807e-02
-5.248044e-03
-2.734049e-02
1.316734e-02
9.687877e-03
5.443695e-03
-1.823659e-02
4.540833e-02
1.823547e-02
-1.507707e-02
1.991224e-02
-4.984138e-03
1.816849e-02
1.205322e-02
-1.464954e-03
6.149189e-03
-1.453068e-03
-1.010356e-02
-2.357950e-02
-1.573493e-02
-1.462767e-02
9.890334e-03
-1.716084e-02
-3.818083e-02
1.698049e-02
3.106746e-02
-5.997513e-02
8.220396e-03
-3.059695e-02
-4.738400e-02
-3.056582e-02
-4.130961e-03
-8.521037e-03
-1.969688e-02
-1.077011e-02
-3.070624e-02
1.200597e-02
-1.064831e-02
-9.293754e-03
-3.729059e-03
-7.048465e-03
-2.871907e-03
1.244500e-02
-1.394229e-02
-1.600463e-02
-1.889745e-02
-5.949717e-03
-1.144317e-02
2.867192e-02
-2.917105e-02
3.540115e-02
-1.092367e-02
-7.427718e-03
9.470301e-03
1.477395e-02
2.178315e-02
4.317322e-02
1.443408e-03
-1.141516e-04
-1.583966e-03
-2.132355e-03
3.016062e-04
-1.171635e-03
1.087329e-04
2.160682e-05
-4.183334e-04
4.918175e-02
-1.894970e-02
-2.608023e-02
1.295539e-02
-4.075844e-02
-2.801092e-02
-1.017596e-02
-3.408172e-02
-2.817984e-02
-3.323462e-02
7.325171e-02
9.051130e-02
-1.149556e-02
1.208534e-01
7.834177e-02
4.842813e-02
5.362036e-02
6.218116e-02
-8.043955e-02
1.667089e-02
-3.994329e-02
-2.239018e-02
8.285497e-02
-1.398630e-02
-1.061320e-01
7.666815e-04
-3.853081e-02
-1.766648e-02
2.040960e-02
-3.400238e-02
1.031475e-02
-4.226067e-02
-2.654854e-02
-2.815931e-02
-9.839868e-03
-3.747831e-02
-3.377644e-02
-2.542710e-02
-3.745958e-02
-5.009165e-03
-8.013795e-03
-1.250448e-02
-2.531829e-02
-2.259019e-02
-3.163641e-02
-7.500063e-03
-6.195995e-03
-1.195508e-02
2.089078e-02
6.614263e-04
1.343445e-02
-6.720473e-03
-5.109190e-03
6.704669e-03
-5.680420e-02
1.799110e-03
2.807717e-02
-4.145535e-02
-3.905174e-02
4.445184e-03
-2.818044e-02
1.247328e-02
5.726308e-02
1.030221e-03
-6.023808e-04
-6.238412e-04
1.317818e-03
1.398996e-03
1.946460e-03
1.277769e-03
-2.982806e-03
7.161280e-04
-4.064752e-02
8.956667e-03
1.217467e-02
-1.248068e-04
7.978138e-03
3.427554e-02
7.187506e-03
3.956779e-02
2.060690e-02
1.772636e-02
5.616000e-02
5.362680e-02
-4.436428e-02
-1.058265e-03
-1.956600e-02
-5.553301e-02
-3.890209e-02
-2.485795e-02
-4.317592e-02
-5.690899e-02
-6.351795e-02
-8.695784e-02
-9.290069e-02
-9.237939e-02
1.562855e-02
-1.028566e-02
-1.637802e-02
-3.378745e-02
5.393223e-02
7.287332e-02
-4.350175e-02
3.694885e-02
2.110071e-02
-6.585027e-02
-3.097146e-02
-4.818220e-02
-5.484123e-02
3.785786e-02
7.624684e-02
-7.730389e-02
3.080380e-02
1.120973e-01
-1.128030e-01
-4.038328e-02
-1.229803e-02
-3.140039e-02
-1.972830e-02
-2.409241e-02
-5.091752e-02
-1.922453e-02
-5.862676e-03
3.792077e-02
6.635883e-02
3.220997e-02
-8.420201e-02
2.904188e-02
3.816687e-02
-6.629440e-02
-5.161648e-02
1.057150e-01
-6.453265e-02
-1.757414e-01
-8.817739e-02
-2.734184e-03
-6.784380e-03
-2.731314e-02
-2.615959e-02
-2.731581e-02
-6.359891e-02
-1.784434e-03
1.109697e-02
-6.280335e-03
-7.279546e-02
7.389721e-03
8.563574e-02
-7.438962e-02
-3.278594e-02
3.521318e-02
-2.503990e-02
-1.536720e-02
-1.000946e-02
-1.750073e-02
-8.275728e-02
-2.945308e-02
5.228001e-03
-5.480611e-02
-4.879935e-02
2.847754e-02
1.937373e-02
-1.585590e-03
-4.476499e-04
-2.075447e-02
-3.237056e-02
-1.080584e-02
-1.730566e-02
-2.526302e-02
1.181438e-02
-5.042770e-03
-1.112135e-05
1.692092e-02
-6.405215e-03
-2.008272e-02
8.212599e-03
6.750551e-03
3.068275e-02
-2.050137e-02
2.491610e-02
2.992190e-02
-3.221874e-02
-7.630479e-02
-2.734257e-02
7.668977e-03
-2.988879e-02
4.405465e-03
-1.308831e-02
-1.896865e-02
-4.423557e-02
-3.405621e-02
-2.313585e-02
-1.370121e-02
-1.692886e-02
-3.525712e-02
-2.202268e-02
1.752911e-02
3.018024e-02
6.209537e-03
-4.537863e-02
-4.332611e-02
1.605601e-02
-6.835801e-02
-1.081686e-01
-2.863164e-02
-3.187016e-02
-5.703878e-02
5.681410e-03
-5.415720e-03
-3.478255e-02
-5.478242e-02
1.888384e-02
2.820468e-02
2.377138e-02
-4.142062e-02
-5.039791e-02
-1.300647e-02
-7.288887e-02
-6.483521e-02
4.973162e-02
-1.003835e-01
-1.428295e-01
-8.586255e-02
-2.338557e-02
-9.268477e-03
-7.817112e-02
-2.183880e-02
-3.019664e-02
-5.881452e-04
-7.737175e-02
-3.458121e-02
-4.857391e-02
-3.014181e-02
-1.199101e-02
-4.725362e-02
2.777712e-02
4.818037e-02
1.971617e-02
-2.105692e-02
-5.967051e-03
-1.505728e-02
-2.963704e-02
-3.624392e-02
-2.424892e-02
5.120811e-02
-1.967184e-02
2.712947e-03
9.752830e-02
6.908142e-03
4.291319e-02
1.074485e-01
7.696509e-02
5.388511e-02
2.117543e-02
-1.149268e-02
-1.538107e-02
-4.344914e-02
-8.119807e-02
-6.483330e-02
-8.808190e-02
-6.303910e-02
-4.513041e-02
-4.912783e-02
-2.739900e-02
7.295608e-03
-1.550520e-02
-4.235565e-02
-1.621399e-02
3.696715e-03
-7.660878e-03
-1.673788e-02
7.339603e-02
7.536711e-02
7.994904e-02
-6.009274e-02
-1.068263e-02
3.342047e-02
-1.349481e-02
-4.247700e-02
1.871938e-02
-1.919704e-05
3.324291e-03
2.197535e-03
-8.790934e-04
3.110850e-04
-1.762079e-03
1.991897e-03
-1.299489e-03
-2.094534e-03
1.960311e-02
4.617785e-02
2.689756e-02
-2.475451e-03
4.528106e-03
-1.192345e-02
-6.671289e-02
-2.562925e-02
-5.189408e-02
8.498317e-03
-1.378076e-02
-5.356560e-03
2.419121e-02
-2.363994e-02
-5.338652e-02
6.096270e-02
6.987781e-03
-2.801127e-02
-2.501828e-02
-1.219574e-02
-3.019540e-03
1.604889e-02
-3.024247e-02
-2.021069e-02
-6.763659e-03
-3.688801e-02
-5.019890e-02
-4.803386e-04
1.742207e-02
2.105357e-02
-3.148104e-02
-4.926527e-03
3.232441e-02
-3.995606e-02
-1.353531e-02
5.040791e-02
-1.849651e-03
-3.134631e-03
-2.453863e-02
1.324821e-02
-9.248554e-03
-1.781922e-02
7.715100e-03
8.127378e-03
7.156012e-03
-4.340367e-03
-9.330995e-03
-1.296710e-02
5.170274e-03
4.872722e-03
2.649432e-03
-1.027615e-02
-2.852403e-03
-6.783512e-03
6.007268e-02
-6.123341e-02
-8.640049e-02
4.998685e-02
2.270405e-02
-6.217305e-02
2.999437e-02
2.897283e-02
-2.154736e-02
1.132210e-03
1.471770e-03
1.260676e-03
1.753022e-04
-1.797385e-03
-2.953372e-04
-2.596393e-05
-2.902410e-05
-5.391521e-04
-1.409941e-02
-1.008186e-02
-6.056450e-04
7.533038e-03
2.961274e-02
1.118577e-02
-3.812735e-02
-4.180976e-02
-5.382991e-02
-1.437366e-02
-1.867093e-02
-3.088633e-03
1.626113e-02
1.159390e-02
-2.270130e-02
2.779452e-02
1.110573e-02
-4.472756e-02
1.794307e-02
-1.096899e-02
-3.272670e-02
-9.906770e-03
-2.168885e-02
-3.355275e-02
1.393581e-02
1.107073e-02
3.538806e-02
-1.276160e-02
-6.268887e-03
-5.671071e-02
-9.994317e-03
-1.232761e-03
-5.919444e-02
1.971290e-02
2.583395e-02
-5.885247e-03
-9.161500e-03
-6.644490e-03
-5.718370e-03
-6.218871e-04
-2.629765e-02
-4.181800e-02
-4.150282e-02
-1.967414e-02
-2.996927e-02
-1.932824e-02
1.751028e-02
4.952729e-02
-3.875199e-02
-3.326536e-02
1.058462e-02
8.362808e-03
-2.670075e-02
-7.462879e-03
2.054021e-02
-4.296671e-02
-4.683920e-02
4.510232e-02
1.381681e-02
-5.458759e-02
-2.007943e-03
4.123531e-02
-3.169830e-02
2.206481e-02
3.278021e-02
2.806302e-02
-1.589352e-02
-5.253222e-03
-1.007752e-02
-2.339850e-02
-4.639727e-03
3.289046e-02
-2.237186e-02
-7.271880e-03
-2.112369e-02
3.815769e-03
1.308223e-03
-4.114463e-03
-9.165107e-03
-1.463456e-02
-3.230883e-03
-1.195593e-02
1.825921e-02
5.448788e-02
1.259991e-02
3.988810e-02
3.306390e-02
-2.444254e-03
7.068268e-03
5.367646e-03
-1.255803e-02
2.278387e-02
4.627734e-02
-4.860619e-02
-4.383514e-02
-3.283625e-02
1.087754e-02
-1.149740e-02
-8.094171e-03
-2.211435e-02
-1.588818e-02
-4.802496e-04
-9.081174e-03
2.352513e-03
9.366281e-03
-3.349464e-02
-2.512494e-02
-2.235770e-02
-1.689967e-02
-1.721201e-02
1.120611e-02
-7.018570e-02
-3.506209e-02
3.337540e-02
-3.566634e-02
-6.551790e-02
-7.512698e-03
-1.492867e-03
3.314898e-02
2.028378e-02
-2.280225e-02
1.287032e-02
1.698197e-02
-1.360453e-02
4.079575e-03
2.535890e-02
-2.241437e-02
1.249462e-03
1.778191e-03
-1.588763e-02
-1.841410e-02
-4.275496e-03
1.320287e-02
-1.092795e-02
-1.539292e-02
-2.348296e-03
-2.113369e-03
1.552985e-02
-1.998774e-02
-4.556764e-03
1.098766e-02
-3.425232e-02
-2.331624e-02
-9.306991e-03
1.752718e-03
-2.096012e-02
-4.060217e-02
8.694801e-03
7.840652e-03
-1.439179e-03
2.192419e-02
3.491516e-02
2.915185e-02
-7.306875e-02
-4.790338e-02
-2.287213e-02
-2.669080e-02
-1.599655e-02
-1.012526e-02
1.202945e-02
2.001905e-02
8.174644e-04
-1.916390e-02
-1.212980e-03
6.802273e-03
-1.097202e-03
3.935836e-03
2.124136e-02
1.885730e-02
1.045232e-04
3.829557e-03
3.594406e-02
5.035562e-02
2.944414e-02
-9.031340e-03
3.057360e-02
4.842748e-02
-2.268813e-03
1.806972e-02
5.266214e-02
1.379563e-02
-7.351701e-03
1.425648e-02
-8.189858e-03
-1.976296e-02
1.909431e-02
-1.411547e-03
-9.189582e-03
3.219059e-02
-5.571488e-03
9.482481e-03
-1.941640e-02
-1.200984e-02
-7.192553e-03
7.745552e-03
-1.064909e-02
1.624379e-02
2.907989e-02
7.580622e-02
5.096534e-02
2.812098e-02
-5.144881e-02
-5.886715e-02
-6.234057e-02
-2.098533e-02
-4.871124e-02
-3.368496e-02
3.253103e-03
-1.490838e-03
-1.472091e-03
-1.287661e-03
9.273550e-04
-5.364127e-04
-1.074858e-03
3.347075e-04
-9.123576e-04
-3.330646e-02
-2.430311e-02
-1.016790e-02
-4.385648e-02
-5.950969e-02
-2.584380e-02
-5.265610e-03
-2.622506e-02
7.165437e-03
2.055245e-02
1.421292e-02
-1.547689e-02
8.388812e-03
3.965731e-02
-7.019902e-04
-3.302350e-02
-6.454385e-04
7.814730e-03
5.579937e-02
1.184738e-01
9.160475e-02
5.251482e-02
1.293966e-01
7.321171e-02
2.668586e-02
7.397011e-02
3.956768e-02
2.341970e-02
1.601155e-02
-5.597035e-02
9.153277e-02
8.590539e-02
6.370523e-03
6.938940e-02
7.340866e-02
3.882238e-02
1.406351e-02
3.589040e-02
4.697688e-02
-1.090657e-02
2.829625e-02
3.041732e-02
-1.428924e-02
1.860101e-02
-6.031821e-03
2.019784e-02
4.068966e-03
-5.316215e-03
4.263108e-03
3.380482e-03
-1.484854e-02
4.089016e-03
9.956967e-03
-1.860412e-02
5.168266e-02
2.502029e-02
4.902478e-02
6.601612e-02
2.257455e-02
-4.369917e-02
7.234266e-02
5.172072e-02
-8.295067e-02
1.072572e-03
2.463313e-03
-8.512383e-04
2.062659e-03
6.259829e-04
-1.397014e-03
-1.298564e-03
3.973824e-04
-4.588444e-05
-1.504449e-04
-2.649328e-02
1.631760e-03
-1.736976e-02
-9.431802e-02
-1.131590e-01
7.268922e-02
5.920057e-03
-1.128414e-01
2.665048e-02
-1.050020e-02
2.239588e-02
1.828748e-02
1.613733e-02
1.654653e-02
6.396592e-03
4.273834e-02
2.675831e-04
-1.358268e-02
-1.038690e-02
-2.177344e-02
2.370164e-03
1.491283e-02
-2.219971e-02
-1.947177e-02
-4.324993e-02
-5.715483e-02
-3.289555e-02
2.113908e-03
3.352782e-02
-6.944534e-03
1.490430e-02
3.640039e-02
-1.197699e-02
1.316772e-02
-1.228511e-02
1.586085e-02
7.809829e-03
-1.571221e-02
-2.292861e-02
-5.582354e-03
-4.260604e-02
5.034446e-02
3.014822e-02
-1.010320e-02
2.221614e-02
5.594359e-02
-5.296566e-03
3.512758e-02
5.841260e-02
-2.254229e-02
7.426687e-02
1.262199e-01
7.344726e-02
7.305504e-02
5.465348e-02
6.268389e-02
-2.562431e-02
-1.510147e-03
4.374472e-02
-4.204288e-03
-5.787194e-03
7.272871e-02
-7.648778e-03
8.714685e-02
4.830366e-02
5.023357e-02
8.559151e-02
5.765126e-02
5.942930e-03
-1.922048e-02
-2.530739e-03
4.484439e-02
1.105355e-02
-2.068305e-02
1.092369e-02
4.382417e-02
-1.610659e-02
-7.776855e-03
4.638286e-02
-2.407518e-03
-8.938703e-02
3.064330e-02
3.001563e-02
-4.713850e-02
4.514854e-03
-2.927647e-03
3.973796e-02
3.219433e-03
-6.299438e-02
3.190335e-02
-1.958668e-02
-2.867207e-02
4.150305e-02
3.884988e-02
2.145671e-02
-7.252753e-02
-1.908774e-02
7.706091e-03
1.134028e-02
-2.763392e-03
-3.990957e-02
4.966312e-02
2.181027e-02
-1.859450e-02
4.494189e-02
5.825589e-03
-3.553817e-02
1.713967e-02
1.812341e-03
1.610864e-02
2.169793e-02
-3.432608e-02
-1.130043e-02
9.944318e-02
1.794647e-02
5.363254e-02
5.842405e-03
1.889194e-02
1.916409e-02
2.650854e-02
1.807427e-02
2.503679e-03
-1.243811e-02
-3.958966e-02
-6.092221e-02
6.317298e-02
1.898685e-02
1.712998e-02
6.753775e-02
7.998259e-02
7.446766e-02
-1.609333e-02
4.947525e-03
1.962878e-03
1.830149e-03
8.893384e-03
2.770931e-03
-1.941887e-02
2.656130e-03
7.430360e-03
6.557136e-03
6.381496e-03
-1.309012e-02
-1.956374e-02
4.636387e-02
-3.714792e-02
-4.595858e-02
-5.372772e-02
2.933977e-03
-2.168397e-02
-9.553231e-02
-1.129613e-02
5.986003e-02
6.360285e-02
-1.973752e-02
1.070318e-01
5.549387e-02
-2.136101e-02
8.795165e-03
-1.859104e-03
-4.159353e-02
1.510476e-02
6.162670e-02
-5.911715e-02
4.602285e-03
1.094441e-01
4.422382e-04
-5.531268e-02
2.293523e-02
-1.270250e-03
-1.864745e-02
-2.861998e-02
-4.233634e-02
2.156087e-02
-1.114362e-02
-5.816337e-02
1.223999e-01
5.692412e-02
-3.101415e-02
-6.761192e-02
-1.017514e-02
-3.265838e-02
-6.735652e-03
3.570031e-02
-1.743190e-02
3.394793e-03
8.846754e-03
-3.588025e-02
2.029093e-02
9.258061e-03
2.998408e-03
4.195585e-02
1.381816e-02
2.425424e-02
-6.285383e-03
1.009141e-02
2.714910e-03
-3.182816e-02
-1.817354e-02
-6.791660e-02
-3.700351e-02
-1.574460e-02
3.926090e-03
6.007673e-02
1.352725e-01
8.828034e-02
-2.572730e-04
-1.213957e-03
1.320253e-03
1.459750e-04
-2.905935e-03
-2.875829e-04
2.153844e-04
-9.078983e-05
-4.565433e-04
-5.560131e-02
-6.398639e-02
-5.320447e-02
-2.020967e-02
7.380586e-04
-2.934532e-02
4.957879e-02
3.533430e-02
4.436649e-02
-7.502356e-02
-7.661987e-03
-2.192126e-02
-7.961527e-02
-7.691834e-02
5.986213e-03
-8.916063e-03
-2.718372e-02
7.928740e-04
-6.824891e-02
-5.487007e-02
-7.141658e-02
-6.486203e-02
-7.090338e-02
-9.788162e-02
-5.356982e-02
-6.415628e-02
-1.022710e-01
-1.604274e-02
-3.768081e-02
6.219114e-03
4.128028e-02
-2.283688e-02
1.187334e-02
-2.506713e-02
-2.657610e-02
2.386117e-02
1.882818e-02
2.901095e-02
2.996087e-02
3.420839e-03
-2.047410e-02
-2.336423e-02
8.084007e-03
-1.261007e-02
-2.590811e-02
-6.426905e-04
6.410875e-03
1.155694e-02
-2.434376e-02
-4.180075e-02
-2.537280e-02
-1.272592e-03
-2.047889e-02
-6.901820e-04
3.026173e-02
-8.995871e-03
-1.974594e-02
-5.429013e-03
1.298058e-02
3.061049e-02
-3.637572e-02
1.793879e-02
1.978803e-02
-1.079944e-03
-4.852118e-04
4.846071e-04
-4.053703e-04
-6.085828e-04
3.327344e-04
-7.587905e-04
1.862361e-03
6.383380e-06
4.278976e-02
1.340929e-02
3.971832e-02
5.785157e-02
2.044330e-02
2.855662e-02
1.508830e-01
4.961412e-02
3.458558e-02
1.282285e-02
4.734872e-03
3.179433e-02
4.957559e-02
5.726631e-02
-1.179088e-02
-2.680699e-02
-5.862765e-03
-2.292689e-02
3.031674e-02
2.255302e-02
3.925729e-02
6.954370e-02
1.211846e-02
2.042654e-02
-3.519375e-02
-3.128919e-02
-5.687030e-02
-4.093557e-02
3.586604e-02
2.496137e-02
-3.233901e-02
2.221676e-02
-3.161262e-03
-3.204265e-02
-4.115563e-02
-5.182099e-02
-2.897838e-02
-2.908525e-03
7.543070e-02
1.123196e-02
9.717831e-03
5.944978e-03
2.311987e-02
2.201495e-02
-9.206321e-03
4.769323e-02
2.693063e-02
2.222913e-02
-1.975615e-02
-3.160881e-02
2.196142e-03
-9.540882e-04
-1.898982e-02
4.346389e-03
-2.900092e-02
1.399113e-02
1.397110e-02
-4.887151e-02
1.256049e-03
3.822079e-02
-1.412988e-01
-4.576448e-02
1.036507e-02
8.540661e-02
5.537931e-02
2.241595e-02
3.124459e-02
2.932647e-02
7.290589e-03
-8.081897e-02
-5.259823e-02
-3.344051e-02
7.950345e-03
-7.471102e-03
-1.519347e-02
2.736654e-02
-3.273117e-02
-1.778671e-02
1.070537e-02
-3.213007e-02
-3.160274e-02
8.720156e-02
-1.985055e-02
-2.466271e-02
6.396312e-02
3.409672e-02
-5.559438e-03
7.238916e-02
5.702518e-02
1.869163e-02
-2.629515e-02
-2.312555e-02
2.278130e-02
-5.374028e-02
-4.103149e-02
-8.567330e-03
-3.386122e-02
-5.019832e-02
-9.023762e-02
1.774165e-02
8.722763e-03
-5.890848e-03
-1.766267e-02
-2.673131e-02
-4.609332e-02
1.625331e-02
1.796410e-02
-4.395606e-03
1.927359e-03
-6.753855e-02
-6.940348e-03
3.267573e-02
-1.263473e-03
-1.500835e-02
4.441299e-02
1.732371e-03
-2.529560e-02
-6.396018e-03
-2.752730e-02
-2.461585e-03
2.442276e-02
-2.761782e-02
-8.733486e-03
1.584376e-02
5.266114e-03
-6.874991e-03
6.534041e-03
4.239079e-03
4.107169e-02
-7.254974e-03
-5.083471e-02
-2.642991e-02
-8.523082e-03
-3.140762e-02
-3.262119e-02
2.064125e-02
5.250094e-03
9.134296e-03
-3.348351e-04
2.653516e-03
2.140999e-02
-2.245007e-02
-1.754788e-02
1.958892e-02
1.098709e-01
5.505208e-02
2.362731e-02
4.582044e-02
2.462735e-02
-4.078553e-02
6.468162e-02
1.139210e-01
1.096248e-02
1.015380e-02
5.276346e-03
1.835779e-02
-1.729379e-02
-5.059447e-03
-1.286541e-02
3.327939e-02
6.350835e-02
2.897017e-02
1.251139e-02
-1.471709e-02
-6.459563e-03
1.033960e-02
-2.959223e-02
-5.940913e-02
4.482962e-02
2.255584e-02
-3.492196e-02
5.394112e-02
1.917074e-02
1.958972e-02
2.755504e-02
3.617372e-02
4.705013e-02
3.629964e-02
1.723402e-02
-4.446211e-03
4.883902e-02
8.770429e-03
7.834976e-03
2.256506e-02
-6.046954e-03
1.838864e-02
1.682847e-02
-1.161069e-02
2.385004e-03
-3.822112e-03
2.123135e-02
1.930303e-02
-4.382594e-03
-2.313928e-02
1.103761e-02
2.617422e-02
1.263406e-03
2.144047e-02
4.778832e-04
-4.143666e-02
-6.764586e-02
1.249944e-02
-5.982608e-03
-1.271338e-02
-3.378018e-02
-5.106269e-03
-5.084700e-02
2.025906e-03
-7.845403e-04
-8.785686e-04
2.338320e-03
-5.035269e-05
-1.594172e-03
-2.702326e-04
1.818609e-03
-2.238543e-04
-3.218997e-02
-1.176001e-02
-7.034191e-03
-3.149488e-02
-5.354174e-02
-2.876437e-02
1.702406e-02
-4.091366e-02
-7.507821e-02
7.316392e-02
-1.046046e-02
4.379785e-02
2.235035e-02
-3.216669e-02
1.056171e-01
2.718304e-02
-3.487516e-02
8.239202e-02
4.462826e-02
1.209921e-02
9.314471e-02
-3.920395e-02
-4.726611e-02
5.471109e-02
-8.112033e-02
-4.852137e-02
-3.025754e-03
1.509234e-02
-1.416127e-02
1.380625e-02
-6.847538e-03
-5.021238e-02
-2.190367e-02
-1.722539e-02
-4.744696e-02
-5.990130e-02
-1.197855e-04
-7.488593e-03
3.865289e-02
-3.696589e-02
-3.748270e-02
1.226952e-02
-8.324806e-02
-8.977802e-02
-5.927298e-02
5.698223e-03
-5.712766e-03
2.589029e-02
-1.078967e-02
1.199420e-02
1.710689e-02
-2.758942e-02
-7.298538e-03
9.145319e-04
1.590846e-02
1.812459e-02
7.141656e-02
2.341464e-02
-1.937678e-02
9.198219e-02
-9.777022e-02
2.660929e-02
1.944049e-02
-2.133553e-03
-8.758887e-04
2.023438e-03
7.606612e-04
-1.106318e-03
1.038481e-03
-3.491632e-04
-3.259341e-04
-1.523911e-03
-8.210894e-02
-6.318770e-02
7.862302e-03
3.994949e-02
-3.535795e-02
1.004475e-01
-3.964224e-02
4.411297e-02
2.695440e-02
1.234329e-02
9.862009e-03
5.021413e-02
-9.089796e-03
6.481505e-04
4.272963e-02
-6.987481e-02
3.825558e-03
5.740950e-02
3.915032e-02
2.822224e-02
5.836324e-02
1.131787e-02
-1.548657e-02
4.374665e-02
-2.425367e-02
1.408883e-02
4.050377e-02
-2.750071e-02
-2.135932e-02
3.383628e-03
-3.825287e-02
-4.345435e-02
2.057746e-02
-1.528392e-02
7.526711e-03
6.011962e-02
-7.837482e-03
5.439958e-02
1.320835e-02
-1.446422e-02
1.678652e-02
8.645102e-02
-3.763563e-02
-3.684074e-03
1.941608e-02
-5.046206e-02
-9.604696e-02
-7.035743e-02
-1.261269e-02
-6.357067e-02
-4.978039e-02
-3.796876e-02
-1.179390e-01
-6.034119e-02
-5.638941e-02
1.696701e-02
-2.356986e-03
-8.870023e-02
1.990487e-02
-1.308542e-02
1.767297e-02
9.381846e-03
3.353277e-02
2.491276e-02
-3.487267e-04
7.811449e-02
-5.127755e-02
-1.310022e-02
4.858986e-02
-1.817530e-02
3.514306e-04
3.710353e-02
-7.757778e-02
-3.231378e-02
2.387037e-02
-6.327946e-02
-4.758881e-02
-1.957766e-02
8.053528e-03
9.044681e-03
-3.119713e-02
-6.989873e-02
2.438420e-02
4.115816e-03
-4.555184e-02
3.291586e-02
1.380987e-02
-1.312080e-01
-2.604288e-02
8.354427e-04
-3.809066e-02
1.422362e-02
2.136596e-03
9.011532e-03
2.815109e-02
8.610258e-02
3.785633e-02
1.259595e-01
4.950185e-02
-4.393877e-03
-2.817719e-02
8.264845e-02
-4.893949e-02
1.086000e-02
7.827681e-02
-2.057785e-02
-3.108388e-02
3.825543e-03
9.219617e-03
1.139326e-01
4.099621e-02
1.403610e-01
3.196034e-01
1.676124e-01
7.746287e-02
2.874431e-01
1.299293e-01
3.486087e-02
7.286359e-02
3.006113e-02
-1.028253e-02
3.595039e-02
-4.829233e-03
-3.744870e-02
1.718575e-02
1.590683e-02
6.769113e-02
4.845658e-02
-1.526511e-02
5.283907e-03
-1.751768e-02
-5.383157e-02
-1.194649e-02
-3.236255e-02
-2.795153e-02
-1.420489e-02
-3.667906e-02
4.769746e-03
1.664861e-02
1.954334e-02
8.681840e-03
4.863656e-02
2.860974e-02
-9.976580e-03
-8.283167e-02
-3.582107e-02
-4.404766e-02
-2.638940e-02
-6.249848e-02
-5.108663e-02
1.280578e-01
1.233086e-01
-6.308127e-03
1.567360e-02
2.919023e-02
-1.596338e-02
-6.373024e-02
1.394370e-02
-3.249194e-02
-9.019904e-02
2.278019e-02
7.295198e-03
3.392800e-02
2.069203e-02
1.286640e-02
-5.556758e-03
6.208196e-03
1.219113e-02
-5.179852e-02
-3.389490e-02
-2.635421e-02
-3.130354e-02
-5.601487e-03
3.006484e-02
-5.132190e-02
-1.727706e-02
-2.323794e-02
-4.495054e-02
-5.866435e-03
-9.009105e-03
6.677854e-03
5.626959e-03
4.358233e-02
-3.343862e-02
-9.086428e-03
9.816246e-03
-2.958528e-02
-4.811525e-02
-6.441093e-02
4.285881e-02
5.415269e-02
-1.363825e-03
2.174328e-02
-1.536164e-02
-1.498847e-02
-4.454755e-02
-5.500667e-02
-1.043105e-01
5.873493e-02
3.810940e-02
3.674421e-02
2.108418e-02
-1.893994e-02
1.043458e-01
-2.929228e-02
-1.822605e-02
4.049778e-02
-4.860009e-04
-1.566355e-05
1.038478e-03
9.865350e-04
-3.928792e-05
1.568111e-04
2.594911e-03
-1.339640e-03
9.991117e-04
-2.258733e-02
3.640190e-02
8.010915e-03
5.276432e-02
2.898422e-02
3.550078e-02
4.822940e-03
-9.562131e-03
-1.345947e-02
7.275778e-02
-7.275935e-02
4.109857e-02
1.516295e-01
-1.042520e-02
1.137602e-01
7.026301e-02
3.828071e-02
9.474503e-02
-6.276084e-02
-2.568305e-02
-6.659789e-02
-1.041964e-01
-6.019052e-02
-1.029161e-01
-1.058211e-01
-5.070041e-02
-8.422059e-02
-3.645266e-02
4.272940e-03
-1.917775e-03
-2.128380e-02
6.387265e-03
-2.728021e-04
-1.311303e-01
-2.430419e-02
2.450403e-02
-8.785037e-02
-5.147614e-02
-9.751932e-02
-8.658640e-02
-4.690717e-02
-8.351887e-02
-6.845010e-03
5.181416e-03
-1.764534e-02
-2.883570e-02
6.243777e-03
-2.335698e-02
-1.056710e-03
9.551307e-03
-3.216349e-02
7.532159e-03
2.411524e-02
1.262362e-02
1.441421e-01
3.720568e-02
-5.506231e-02
5.157872e-02
-5.013725e-02
-2.064058e-03
-6.129508e-02
-9.509993e-03
2.047719e-02
1.787368e-03
-3.363726e-04
1.402239e-03
1.794470e-04
2.520765e-04
2.346210e-04
-3.242803e-03
-2.267231e-03
2.207796e-03
4.960265e-02
-4.692726e-02
-8.002825e-02
-7.123572e-02
-2.798206e-02
-3.621361e-02
-8.932660e-02
-5.522398e-02
6.874437e-02
-3.158645e-02
-6.292334e-03
2.291586e-02
-1.415494e-01
-5.234935e-02
2.969520e-02
-1.273105e-02
2.962118e-02
3.871956e-02
2.323446e-03
-4.839230e-02
-5.929725e-02
-6.437053e-02
-7.478342e-02
-1.008341e-01
-4.189312e-03
1.962136e-02
1.150965e-02
4.641984e-02
-5.189542e-02
-2.410667e-02
-3.010057e-02
-2.259801e-02
1.163860e-03
6.208681e-04
9.396542e-03
-2.456881e-02
5.002388e-02
-4.261036e-02
-5.693721e-02
-3.484520e-02
-6.640418e-02
8.643805e-03
-4.348592e-03
3.787775e-03
1.915542e-02
7.342684e-02
4.542506e-02
2.129611e-02
2.282624e-02
2.209227e-02
-1.497791e-02
-2.079912e-02
1.579399e-02
4.369969e-02
-2.677528e-03
-2.236695e-02
2.607671e-03
-6.552523e-03
-2.229744e-02
-3.655173e-02
8.295003e-02
4.014907e-02
2.245413e-02
4.337719e-02
-1.650163e-02
-6.855551e-03
-1.931287e-02
-5.172486e-02
-7.233909e-02
-4.932733e-02
-8.239709e-02
-1.258305e-01
-6.477280e-02
-3.288604e-02
-2.951965e-02
-5.903933e-02
2.645895e-02
7.214924e-02
-5.588235e-02
5.737273e-02
8.138660e-02
-1.022760e-01
-6.095049e-03
-7.427019e-02
2.196938e-02
-2.621414e-02
-1.149068e-01
-2.589612e-02
-7.384501e-02
-5.979319e-02
-2.243672e-02
6.728027e-03
-2.412784e-02
-5.506105e-02
1.150682e-02
1.640132e-02
-2.737034e-02
5.976222e-02
1.277133e-02
7.298860e-03
8.444121e-03
5.736797e-03
1.710950e-02
9.148578e-02
-1.301862e-02
1.616362e-02
-2.560896e-02
-3.711582e-02
7.428205e-02
3.523063e-02
5.443076e-03
4.448675e-02
2.179838e-02
-7.317138e-03
-5.224614e-02
-5.208036e-02
-4.600450e-02
-8.742513e-03
-3.195105e-02
-1.231988e-02
2.366648e-02
-9.255786e-03
-1.456794e-02
5.759245e-02
3.421976e-03
-1.480596e-02
-4.455402e-02
-6.047704e-02
-3.677697e-02
-1.105913e-01
6.467925e-03
6.441115e-02
-3.996509e-02
4.080014e-02
6.395507e-02
7.708729e-03
1.047263e-02
4.607164e-03
-1.153539e-02
1.707175e-02
-3.241866e-03
-4.152684e-03
2.517503e-02
1.327296e-02
9.465202e-02
5.495295e-02
4.459988e-02
3.161152e-02
2.793303e-02
2.785749e-02
-6.543660e-02
-4.909814e-02
-5.407098e-03
-3.263281e-02
-3.595702e-03
-4.588362e-02
-1.658789e-01
-4.429457e-02
1.587984e-02
-1.053580e-01
-6.525844e-02
4.066665e-02
1.821976e-02
3.853248e-02
2.780910e-02
-8.036860e-04
1.409428e-02
4.359438e-02
-3.179357e-02
1.935381e-02
-7.909629e-03
5.472280e-02
1.147569e-01
-4.582845e-02
1.278255e-01
1.001050e-01
-2.651231e-02
-2.323751e-02
9.769973e-03
5.801602e-02
-3.615906e-02
3.053429e-02
-1.648050e-02
-1.388841e-02
4.390980e-03
5.831493e-03
-4.537538e-02
-2.762762e-02
9.760531e-03
-8.093818e-02
-2.012686e-02
-4.393978e-02
-1.202195e-01
5.827093e-04
3.599570e-02
-3.799409e-03
1.311727e-01
1.114114e-01
4.783464e-02
4.181214e-02
7.410035e-02
-4.170385e-02
3.746521e-02
5.200871e-03
4.389146e-02
8.204751e-02
-4.421646e-02
-1.279044e-03
-7.229209e-04
1.458859e-03
4.344015e-04
-8.425488e-04
1.220025e-03
-1.722494e-03
1.917006e-04
-1.963831e-03
-2.763567e-03
4.254264e-02
1.124896e-01
7.004123e-02
7.074700e-02
7.341033e-02
1.236524e-02
2.822436e-03
-6.108033e-02
-3.191068e-02
-6.269890e-02
-1.624407e-02
6.309588e-02
-4.006480e-02
-8.511537e-02
2.621695e-02
-4.626783e-02
-5.817736e-02
-2.360128e-02
5.819033e-03
-3.681416e-02
-6.148780e-02
-1.591147e-03
-2.656275e-02
-2.841212e-02
4.978032e-02
6.187123e-02
-1.388088e-02
1.827116e-02
7.750990e-02
9.608842e-03
9.287054e-02
1.505025e-01
3.291613e-02
9.175359e-02
2.555284e-02
3.356948e-02
5.935113e-02
4.592868e-03
7.766341e-02
8.971383e-02
6.948353e-02
-9.050556e-02
-5.755997e-02
-7.204947e-02
1.719583e-03
4.726278e-02
2.074438e-02
4.959940e-03
5.090655e-02
4.089424e-02
5.095446e-03
3.212494e-02
3.831530e-02
3.467917e-02
-9.281514e-02
-1.369217e-01
-3.145204e-02
-1.605195e-01
-1.474341e-01
-6.489895e-02
-8.562458e-02
-3.935691e-02
1.921276e-03
1.297645e-03
5.233025e-04
-4.059423e-04
-1.944513e-03
4.684705e-04
-3.272143e-04
-4.601904e-05
-8.399810e-04
-1.629654e-02
-5.642610e-02
-3.908884e-02
-1.329780e-02
8.921340e-03
2.713757e-02
-7.355257e-03
-5.696495e-02
1.238507e-02
-4.656189e-02
-8.419195e-02
-6.470258e-02
-1.672456e-02
-5.419876e-02
9.175959e-03
-2.025412e-02
2.221450e-02
1.523044e-02
8.870781e-02
1.018326e-01
1.014677e-01
1.465257e-02
1.052696e-01
1.264513e-01
4.903567e-02
9.958724e-02
1.006416e-01
1.013506e-02
-4.459099e-03
-3.086648e-02
5.343891e-02
3.978659e-02
3.706378e-02
6.940140e-03
5.221410e-02
5.452295e-02
-5.247352e-02
-5.542390e-02
-2.840123e-02
-1.636234e-02
3.532118e-02
9.504201e-02
-1.219021e-02
2.158006e-02
1.292183e-01
-6.891505e-02
-7.971949e-03
-6.098063e-02
-2.237388e-02
2.993310e-03
-5.427405e-03
-3.199279e-02
2.493432e-02
7.763843e-03
3.976871e-02
-2.671668e-02
2.520609e-03
8.812706e-03
-2.391901e-02
-7.303962e-03
-8.712965e-03
-6.118043e-02
-4.188995e-02
-2.822868e-03
3.243693e-02
1.126591e-01
-5.976395e-02
4.555882e-02
6.090868e-02
2.333079e-03
4.859713e-02
4.518882e-03
2.379088e-02
3.985891e-03
-1.553832e-02
-1.546031e-02
-1.744609e-02
-1.912533e-02
-1.879852e-04
-7.208934e-02
-4.728943e-02
3.052301e-02
-1.091238e-02
-2.641579e-02
-1.565007e-02
-2.773150e-02
-3.783605e-02
-3.929901e-02
-5.404162e-02
-5.580339e-02
1.710196e-01
2.572950e-01
1.399849e-01
1.816273e-01
1.979113e-01
1.084743e-01
5.788614e-02
4.650794e-02
-5.238134e-03
4.653046e-02
6.774667e-02
9.088510e-02
1.808659e-02
1.031462e-01
3.566525e-02
3.191881e-02
-1.296424e-02
-7.957806e-02
-4.104430e-03
-6.367573e-02
-5.093277e-02
-1.229813e-01
-3.585827e-02
-5.177743e-02
-6.976973e-02
3.324889e-02
4.816145e-02
5.205079e-02
3.062482e-02
1.450589e-02
-2.733212e-03
-6.567329e-03
-3.853309e-03
-4.300589e-02
-6.100981e-02
-5.555493e-02
-4.766472e-02
-5.109199e-02
3.023043e-02
-6.890602e-02
-6.182849e-02
9.228811e-02
5.750122e-03
-6.761600e-02
2.341286e-02
-4.660013e-04
1.896001e-02
2.831565e-04
-8.911297e-03
2.239896e-02
-7.445138e-03
4.613639e-03
1.413473e-02
-9.036924e-03
-5.941725e-04
9.455018e-03
-1.756122e-02
-8.591032e-02
-1.035460e-01
-8.288477e-02
4.447761e-02
4.300527e-02
6.476236e-03
4.038776e-02
-2.497555e-02
2.169451e-02
5.135097e-02
2.579061e-02
-9.063784e-03
2.937642e-02
5.442315e-02
1.140299e-02
4.871096e-03
3.400144e-02
1.210200e-02
-2.801285e-02
1.717572e-02
3.103165e-02
-6.224919e-02
6.653995e-04
1.687120e-02
5.393679e-02
7.063575e-02
5.757708e-03
6.928912e-03
1.582650e-02
-1.108650e-01
-1.818933e-02
-2.468559e-02
-2.950020e-02
4.646688e-02
1.430685e-02
3.917535e-02
-6.742874e-04
-4.357374e-02
-4.520013e-02
5.958619e-02
-1.482465e-02
-2.390788e-02
-4.308654e-02
-4.148009e-02
-3.365984e-04
-2.028911e-02
3.020181e-02
5.362296e-03
4.132810e-03
-3.652138e-02
-1.586817e-03
1.961940e-02
1.830719e-01
1.706306e-01
1.160551e-01
2.733895e-01
2.341148e-01
3.404072e-02
1.047197e-01
9.941832e-03
3.012218e-04
-9.455930e-04
-3.645785e-04
7.827680e-05
1.695683e-03
-1.917767e-03
-8.101362e-04
-1.735214e-03
-1.023492e-04
-5.084139e-02
-1.776914e-02
4.595729e-04
5.938067e-02
1.241441e-01
6.734288e-02
4.526825e-02
1.105632e-01
8.749143e-02
-5.270213e-02
-2.355893e-02
7.574617e-02
3.416446e-02
-5.529793e-02
-8.407185e-02
4.028899e-02
-9.136219e-02
-1.694011e-02
-4.074867e-02
-8.723659e-03
2.772725e-02
-9.258985e-03
-1.240554e-02
9.316780e-02
-1.720137e-02
-2.807448e-02
3.663496e-02
3.970281e-03
3.977551e-02
2.767301e-02
2.537549e-03
1.082734e-02
1.461232e-02
7.525575e-03
2.802711e-03
-1.029246e-02
2.573947e-02
2.239086e-02
2.972585e-02
9.848180e-03
4.544124e-03
4.419237e-03
6.228869e-03
1.225606e-02
4.365478e-02
6.765706e-03
1.240349e-02
-8.796992e-03
1.051445e-02
9.021170e-03
-7.436191e-03
-2.034861e-02
-9.338977e-03
9.748628e-03
1.019856e-02
3.755427e-02
-7.460683e-02
1.072560e-02
1.087726e-01
-5.861124e-03
1.815848e-02
1.372052e-01
4.471167e-02
-8.687538e-04
1.086637e-03
1.674150e-03
3.296823e-05
-6.986146e-04
6.876462e-04
-7.670203e-04
8.741100e-05
1.543647e-03
7.913141e-02
8.478566e-02
-4.292511e-03
8.770709e-02
1.512823e-01
1.374041e-01
4.489101e-02
7.569996e-02
6.090015e-02
-2.687448e-02
2.611304e-04
-3.633137e-02
4.558572e-02
-9.796441e-03
-4.709111e-03
4.804272e-02
-1.919960e-02
-8.419265e-03
2.848192e-02
1.936611e-02
2.485212e-02
1.639693e-02
-1.331790e-02
-7.138771e-03
1.844967e-02
-9.187073e-03
-6.261574e-02
3.604644e-02
1.928090e-02
-5.538135e-02
3.241111e-02
5.053430e-02
2.625805e-02
-1.370195e-02
1.722772e-02
5.553806e-02
-2.473418e-02
-3.892181e-02
-6.521311e-03
1.865769e-02
-5.195807e-03
-9.686287e-03
-7.421448e-03
-3.205528e-02
2.864371e-02
4.508100e-02
4.047713e-02
6.481919e-02
-2.118994e-02
-6.897614e-03
4.377036e-02
-8.010592e-02
-1.026184e-01
-5.535939e-02
7.554453e-02
1.185158e-02
2.137645e-02
8.756126e-02
1.305502e-01
8.147842e-02
3.263910e-02
1.104619e-01
1.095402e-01
1.376656e-02
-3.969828e-04
6.996968e-02
3.892537e-02
6.872025e-03
3.641047e-02
1.814445e-02
8.717341e-04
-5.097593e-03
5.273644e-02
7.426490e-03
-2.736118e-02
3.434360e-02
-8.868755e-03
-4.294021e-02
6.032657e-03
-2.099572e-03
-2.671389e-02
-3.335415e-02
-2.126482e-02
3.973549e-02
-7.515187e-03
7.895343e-03
-6.992595e-03
4.265805e-02
4.132206e-02
-8.814003e-03
-2.357257e-02
1.766425e-02
2.068280e-02
-5.499748e-02
-3.657407e-02
-8.816060e-03
-1.358779e-02
8.843603e-04
-1.532190e-02
-1.108876e-02
-1.415942e-02
-1.070706e-02
-8.212646e-03
-1.839362e-02
-6.443337e-02
-1.112757e-02
-8.628570e-03
-3.703183e-02
-1.899534e-02
-5.112895e-03
-6.645552e-02
-1.492365e-02
2.131874e-02
-4.228342e-02
-5.118459e-02
-1.216433e-02
2.184369e-03
5.638518e-03
5.023260e-03
-4.026397e-02
4.338563e-03
3.059924e-02
-1.797665e-02
-1.113184e-02
-1.208892e-02
9.393875e-03
1.331099e-02
2.495184e-02
-4.221435e-02
2.120118e-02
-3.633850e-02
-2.982692e-02
1.948381e-02
3.232485e-02
1.186250e-02
-1.722883e-02
-4.504363e-02
-1.815250e-02
1.699794e-02
-6.186379e-03
-2.963099e-03
1.957049e-03
-4.059684e-03
