-1.887564e-02
-6.782328e-02
-6.588688e-02
-3.950056e-02
-5.531691e-03
2.714002e-02
-2.058107e-02
1.047248e-02
5.963436e-02
1.398177e-02
-6.063604e-02
-3.085652e-02
-5.181370e-02
-4.125921e-02
-2.111552e-02
-2.843066e-02
2.263746e-02
-3.499303e-02
-9.870163e-02
2.576243e-02
1.041048e-01
-1.142227e-01
-6.331645e-02
2.200380e-02
-8.168348e-02
-1.075849e-01
-6.107356e-02
2.647882e-02
5.736945e-02
-2.870691e-02
4.015178e-02
4.738916e-02
-1.658102e-02
-2.845359e-02
-1.109124e-03
-1.327610e-02
-1.328054e-02
2.420633e-02
3.233999e-02
-2.067477e-02
-4.259652e-02
-3.497957e-02
7.964671e-02
-4.427884e-02
-2.423008e-02
4.994339e-03
-4.254967e-02
-8.847881e-02
2.285162e-02
-1.985575e-02
-3.798847e-02
4.796194e-02
5.959872e-02
2.642920e-02
-1.061034e-01
-1.661740e-01
-1.304590e-01
4.655815e-02
-9.200794e-02
-2.624381e-01
1.227755e-01
6.499413e-02
-1.424980e-01
-1.647310e-02
-5.937628e-02
2.608753e-02
2.681805e-02
-3.981028e-02
-2.249030e-02
2.897796e-02
-5.088907e-02
-4.783659e-02
2.336154e-02
2.324950e-02
1.191652e-01
-1.494300e-02
-4.419656e-02
3.837411e-02
-1.692500e-02
-6.739775e-02
-6.239754e-02
-3.499760e-02
-5.626751e-02
-5.432197e-02
1.053593e-02
2.348166e-03
-2.851953e-02
-2.238092e-02
-1.965428e-02
-5.777482e-02
6.363951e-02
-3.692590e-02
2.340937e-02
5.460960e-02
3.995773e-02
2.999031e-02
3.444914e-02
4.107539e-02
2.504295e-02
-1.753991e-04
-2.266817e-03
3.182862e-02
-8.279239e-02
-3.395692e-02
6.482730e-02
-1.737251e-01
-4.753328e-02
-8.491183e-03
4.047496e-03
-4.318367e-02
-5.503853e-02
7.989067e-05
-4.133145e-02
-6.920399e-02
3.212632e-02
-7.809094e-03
-4.452164e-02
-6.524391e-02
6.430411e-02
3.321368e-02
-7.099053e-02
-5.684492e-02
-5.274792e-02
-6.721642e-03
-1.405840e-01
-7.992504e-02
-2.054564e-02
-5.364400e-02
3.643873e-02
-6.543219e-03
-6.722911e-02
1.377779e-02
8.448330e-03
-5.715113e-02
-3.949063e-02
-6.152353e-02
-1.456262e-02
7.183703e-02
-3.938344e-02
-4.178635e-02
9.544224e-03
1.277800e-02
-4.695040e-02
-1.684136e-02
-8.489206e-02
8.388749e-03
1.894407e-01
1.288398e-01
2.036594e-01
-1.884192e-01
-4.012279e-03
-9.373683e-02
-1.528472e-01
3.486172e-02
1.055524e-01
-1.175066e-01
1.002760e-01
-1.749468e-01
-2.343877e-01
-9.747814e-02
-1.535004e-01
1.131953e-01
2.607756e-02
4.287402e-02
7.663737e-02
1.545750e-02
2.454128e-02
3.573552e-03
-1.884558e-02
-2.130111e-02
1.011757e-02
-1.218104e-02
1.960851e-02
1.459495e-01
7.426538e-02
9.778586e-02
4.981810e-02
4.851842e-02
-5.095750e-02
-6.718264e-02
9.458842e-02
-7.848242e-02
-8.162975e-02
6.605016e-02
-1.425411e-01
7.195613e-03
-1.495181e-01
-1.706663e-01
1.148030e-01
-8.650736e-02
-8.086888e-02
2.887635e-02
5.197981e-02
4.673872e-02
2.551351e-02
1.166945e-01
2.617329e-02
4.048428e-02
5.513838e-02
-2.110219e-02
2.266999e-02
-7.656734e-02
-1.586753e-01
7.820228e-02
-3.271846e-02
4.465293e-02
1.137146e-01
-4.630961e-02
-1.774882e-01
-2.185533e-01
-2.680556e-01
-9.139596e-02
1.320454e-01
-1.886742e-02
1.978385e-01
-3.245899e-02
5.333256e-02
-3.689578e-02
-1.160089e-01
-5.821204e-02
-8.972553e-02
7.935407e-02
-9.197434e-02
1.317612e-02
1.674906e-01
-4.555851e-03
5.388688e-02
4.337444e-02
8.474027e-02
5.259996e-02
-1.848918e-02
3.304714e-02
-4.775283e-02
-9.046864e-02
2.234775e-01
5.224407e-02
-1.819715e-01
8.953996e-02
-2.651445e-01
1.068430e-02
-4.596723e-02
-4.144285e-02
1.247167e-01
1.674443e-01
1.485938e-01
3.346143e-02
1.050072e-01
4.718453e-02
-7.341286e-02
9.082201e-03
5.617111e-02
-6.519755e-03
2.772065e-02
4.144773e-02
9.959801e-02
4.755052e-02
6.068322e-02
1.132904e-01
8.242528e-02
7.840174e-02
6.648140e-02
-1.446698e-01
-2.588776e-01
1.731006e-01
-3.006214e-01
2.721823e-01
1.294425e-01
1.449566e-01
1.737266e-01
-2.471100e-01
-6.176055e-02
-1.316797e-01
-9.348718e-02
-1.219818e-01
-7.007296e-02
2.327463e-02
-9.380402e-02
5.600674e-02
8.664200e-02
-8.407872e-02
-1.484676e-01
-5.316955e-02
-1.334895e-01
1.133648e-01
1.420490e-01
1.443296e-02
-6.391892e-03
-1.082084e-01
-9.191995e-02
-9.053719e-02
4.001762e-03
-1.644013e-02
-8.265339e-03
-7.354624e-02
8.696366e-02
6.587956e-02
4.197879e-02
3.987585e-02
9.412137e-02
1.177903e-01
5.643469e-02
1.019694e-02
-1.246654e-02
-5.725640e-02
-5.807394e-02
5.156477e-04
-1.458141e-02
-7.083097e-02
-7.807181e-02
9.103842e-02
1.007844e-01
5.747086e-02
1.317617e-02
6.092313e-02
8.120189e-02
9.783998e-02
6.202805e-02
2.437916e-02
7.135574e-02
4.966702e-02
7.705775e-03
-1.561834e-02
-4.020387e-02
-5.405908e-02
-4.659077e-03
1.638543e-03
8.154928e-03
-2.313193e-02
-5.504311e-02
-7.124326e-02
1.399719e-02
-8.784757e-03
-5.452676e-02
-1.674297e-03
8.493675e-03
4.116295e-02
3.432151e-03
2.409620e-02
5.608788e-02
3.526055e-02
3.403611e-02
3.382150e-02
2.409846e-02
6.408931e-02
3.163347e-02
-5.976319e-02
-5.957443e-02
-3.494594e-02
-8.366007e-02
-6.006813e-02
-3.632994e-02
-7.538006e-02
-9.324383e-02
-1.022495e-01
-4.667577e-03
-4.286350e-02
-1.235131e-02
3.766229e-02
7.619285e-02
6.196840e-02
1.567406e-02
7.438424e-02
8.663683e-02
9.418765e-03
5.426168e-02
9.283789e-02
-9.805419e-03
-1.010931e-02
-9.231698e-03
-2.979296e-02
-3.812058e-02
-4.961576e-02
-1.626421e-02
-2.772238e-02
-3.251712e-02
5.357099e-02
2.770805e-02
-8.193797e-03
5.568302e-02
3.765918e-02
-1.129852e-03
3.376522e-02
-1.551709e-02
1.611747e-02
9.022685e-03
4.589079e-02
1.083215e-02
3.110953e-02
6.586087e-02
-2.664900e-02
-3.508336e-03
6.138850e-03
2.212621e-02
-3.488496e-02
-8.386508e-02
-1.083468e-01
1.180264e-02
4.861025e-03
1.312262e-02
-1.878327e-02
-2.231050e-02
-6.193778e-03
-1.244374e-02
-1.189622e-02
-2.635333e-02
9.285759e-02
-6.633325e-03
-4.657112e-02
-4.299874e-02
8.201004e-02
7.312476e-02
-6.085615e-05
-9.357350e-03
2.754933e-02
3.222726e-02
2.320789e-02
9.845292e-03
-1.636621e-02
-1.795339e-02
4.953103e-03
-1.930975e-02
-6.564428e-02
-4.291005e-02
1.916935e-02
-2.558793e-02
-4.277778e-02
3.578276e-02
1.038360e-02
1.023537e-02
-1.916393e-02
2.897814e-03
-3.004135e-02
-3.081586e-02
-2.817039e-02
-4.613336e-02
-3.511337e-02
5.190895e-03
-2.994293e-02
7.529256e-02
6.289456e-02
2.208343e-02
1.441179e-03
1.270415e-02
4.926091e-02
4.881638e-02
5.662728e-02
4.545981e-02
-4.716844e-02
-1.287592e-02
2.291780e-02
-1.341676e-02
-2.546198e-02
-5.090484e-02
-2.836635e-02
-5.143154e-02
-5.840140e-02
8.215047e-02
6.001535e-02
6.368691e-02
-8.768277e-04
-9.968715e-03
-1.870123e-02
-4.171612e-02
-2.650674e-02
-1.400380e-02
9.711058e-03
1.535002e-02
8.237950e-03
1.062938e-01
9.122523e-02
7.969375e-02
6.169058e-02
6.149955e-02
4.684510e-03
-9.603061e-02
-6.216291e-02
-1.078210e-01
-3.803843e-02
-1.028091e-02
1.935554e-02
-3.627797e-02
-1.512520e-02
-8.668728e-04
-4.486713e-02
-2.001397e-02
-2.407194e-02
5.924429e-02
4.024963e-02
-4.928762e-02
4.256710e-02
2.808094e-02
-4.199140e-02
-6.180296e-02
-2.677118e-02
-4.082948e-02
-7.873642e-02
-7.325793e-02
-8.772592e-02
3.232116e-02
6.449974e-02
1.528763e-02
-2.776321e-02
-3.995424e-03
-1.838295e-02
3.773849e-02
2.898144e-02
4.342107e-02
6.513218e-02
4.349661e-02
4.559399e-02
2.441013e-02
1.239910e-02
1.207228e-02
-3.544378e-02
-9.484638e-03
-2.076206e-02
-7.826189e-03
1.339652e-02
-9.003878e-04
-1.043999e-02
-1.038656e-02
-1.640877e-02
7.981133e-03
2.117282e-02
1.882190e-02
1.555823e-02
9.963979e-03
-2.629032e-02
-6.266864e-02
1.163124e-02
1.028633e-02
2.021620e-02
-1.160971e-02
-2.052786e-02
1.253620e-01
6.468579e-02
3.009561e-02
1.339157e-02
-6.650311e-03
-8.999659e-03
-4.397075e-03
3.664066e-03
9.674394e-03
-1.265064e-02
-3.215685e-03
4.927497e-03
4.759069e-03
2.225947e-02
3.848040e-02
1.807539e-02
8.223373e-02
8.441926e-03
-3.047038e-02
-3.789297e-02
5.919319e-03
-4.578434e-02
-7.446352e-02
-4.825314e-02
-3.393389e-03
-8.205583e-03
4.892402e-02
-3.577644e-02
-4.315756e-02
-1.998770e-02
-6.804168e-02
-1.053304e-01
-1.013020e-01
3.443934e-02
4.446166e-02
-2.590984e-02
-1.017345e-02
2.228611e-02
-4.485706e-02
-2.371521e-02
-5.647511e-02
-8.396381e-02
-1.159336e-02
1.627017e-02
2.233718e-02
2.522906e-02
-2.328592e-02
-3.120546e-02
-3.494377e-02
-3.202340e-02
-2.607126e-02
-1.476945e-02
-3.897664e-02
-2.956770e-02
-6.223387e-02
-4.031360e-02
-2.962461e-02
-3.540246e-02
-4.171668e-02
-2.071558e-02
2.640283e-02
5.106406e-02
5.205632e-02
5.067010e-02
3.449464e-02
3.893423e-02
-2.071472e-02
-2.590905e-02
3.213036e-03
1.919116e-02
4.953264e-02
3.733444e-02
1.469982e-02
1.882558e-02
-1.787310e-03
-7.383443e-03
-7.508722e-03
-2.807334e-02
4.645072e-03
-3.361160e-03
1.677210e-03
-8.519013e-03
-3.080686e-02
-2.603970e-02
-2.150996e-02
-1.320372e-02
1.085876e-02
-2.256740e-03
2.245557e-02
5.233246e-02
3.461382e-02
4.090850e-02
3.753270e-02
2.780838e-02
3.291712e-02
2.639736e-02
-3.419330e-02
-5.783192e-02
-7.033745e-02
-7.002150e-02
-6.874719e-03
7.553407e-03
-4.471086e-02
5.031547e-02
6.264403e-02
-3.398339e-02
-2.396178e-02
-1.144814e-02
3.140638e-03
7.511716e-02
6.083523e-02
1.104742e-02
-2.179815e-03
-1.456717e-02
-4.188002e-02
-3.545959e-02
-1.223797e-02
-1.528221e-02
-1.342268e-02
-1.058433e-02
5.454525e-04
2.560622e-02
2.946255e-03
-4.372925e-02
-1.253436e-03
2.376000e-03
2.803765e-02
3.753753e-02
6.885351e-03
3.722037e-02
1.633008e-02
-9.920756e-03
-9.082659e-03
5.174457e-03
4.521761e-03
-2.089913e-02
-9.058297e-03
5.577946e-03
-9.093604e-03
1.554927e-02
-1.406663e-03
6.810524e-03
-4.198333e-02
-2.343440e-02
-3.783078e-02
-7.962822e-02
-7.579347e-02
-1.578391e-02
-2.204368e-02
-2.956602e-02
1.024543e-02
1.140688e-02
4.924130e-03
1.927904e-02
2.403884e-02
1.681559e-02
2.337399e-02
2.215654e-02
1.954663e-02
5.053495e-02
8.453390e-02
3.522687e-02
2.961532e-02
5.415108e-02
-2.784941e-02
-8.933458e-03
-1.787924e-02
-4.522115e-02
-8.878562e-03
-1.734259e-02
-4.143997e-03
1.749135e-02
-1.652419e-02
-2.760932e-02
1.100281e-02
-2.267886e-02
-2.862180e-02
-1.386048e-02
-2.099098e-02
-1.408278e-02
5.614295e-03
1.771805e-02
6.201142e-03
-6.792527e-05
1.430249e-02
3.894490e-02
-7.682474e-02
-9.281348e-02
-1.770389e-02
-4.494642e-02
2.301217e-02
1.067736e-01
4.583913e-02
7.773134e-02
5.268874e-02
-2.844822e-02
3.405240e-02
1.073297e-01
6.331758e-02
1.057574e-01
2.605342e-02
-6.556648e-02
-2.203014e-02
-9.879487e-02
-6.276143e-02
-9.468671e-02
-6.392606e-02
-8.333859e-02
-3.012194e-02
-2.379208e-03
-2.253989e-02
2.079813e-02
-3.350549e-03
2.417491e-02
-4.309941e-02
-8.599387e-02
3.828051e-03
-3.731976e-03
6.463664e-04
1.371185e-02
6.297177e-03
3.783876e-02
-5.348675e-02
-3.803974e-02
-5.289768e-02
-2.213377e-02
1.699664e-02
3.980282e-02
-3.828829e-02
-1.934054e-02
-8.287308e-03
1.100856e-02
-1.051746e-03
-3.772173e-02
-1.690028e-02
-5.481631e-03
6.599316e-04
-8.530854e-03
2.290709e-02
3.642868e-02
9.177241e-02
2.013203e-02
-3.466329e-02
9.179938e-02
-5.046336e-02
-1.014367e-01
-4.036850e-03
-7.476481e-02
-1.042854e-01
3.177613e-03
1.618534e-02
7.321157e-03
-7.209876e-02
-5.742308e-02
-3.338578e-03
-4.645674e-02
-7.038198e-02
3.794256e-03
-7.275575e-02
-3.563370e-02
-1.009481e-03
-5.024381e-02
-6.660444e-02
-3.985052e-02
-2.902542e-02
-7.427758e-02
-7.141729e-02
1.824827e-02
-4.945476e-02
-6.177125e-02
-3.690607e-02
-4.711464e-02
-1.758943e-02
-7.716543e-02
-2.657914e-02
-8.906886e-03
-3.501827e-02
2.407319e-02
3.391991e-02
-7.563593e-03
-3.973570e-02
-2.657025e-02
-9.128081e-04
-1.192233e-02
-3.510059e-02
-1.228646e-01
-2.939278e-02
9.416550e-02
8.396044e-04
2.444011e-03
6.806617e-02
2.925517e-02
-7.647899e-03
-5.546220e-03
-1.016230e-02
-2.964341e-02
-6.405659e-03
-9.549551e-03
-2.081840e-02
-8.467893e-03
-2.581949e-02
-1.549890e-02
-1.470899e-02
1.026274e-01
-2.537807e-02
-9.719267e-02
-3.564672e-03
9.845213e-03
7.778403e-02
-2.921165e-02
6.051225e-02
3.226988e-02
2.828478e-02
3.290888e-02
-2.734719e-02
-3.825760e-02
-7.829041e-02
-6.170033e-02
5.610180e-03
-7.402810e-02
-5.785536e-02
-5.498544e-02
-2.206517e-02
2.760986e-02
-2.481434e-02
1.151429e-02
-9.689334e-03
5.966365e-02
2.679454e-02
-6.084622e-03
-1.135611e-01
-1.120771e-01
-3.931285e-02
3.690679e-03
5.661707e-02
1.799151e-02
-4.190553e-03
5.294381e-02
2.563131e-02
6.661277e-02
9.495419e-02
6.768397e-02
6.529097e-02
3.736581e-02
1.683259e-02
3.522104e-02
1.378189e-03
2.720134e-02
-6.276093e-02
-9.845120e-02
-1.033184e-01
3.493389e-02
1.881251e-04
-3.034397e-02
8.937208e-02
1.078132e-01
9.884144e-02
-1.684453e-02
-3.308687e-02
-3.843676e-02
3.219660e-02
2.423885e-02
-1.060781e-02
2.694680e-02
3.736499e-02
-1.035906e-02
6.551660e-02
6.466919e-02
7.390615e-02
-2.064918e-02
1.698874e-02
4.553623e-02
-6.176459e-02
-3.112807e-02
3.460447e-02
-2.819414e-02
-4.666284e-02
-1.538027e-02
-3.566416e-02
-1.391361e-02
-1.864346e-03
-4.181182e-02
-2.787787e-02
-1.229751e-02
-2.023708e-02
7.009920e-02
1.924132e-02
-7.251963e-02
-3.651072e-02
-3.125026e-02
-7.981134e-02
-8.240300e-02
-7.608367e-02
-9.299567e-02
-5.878157e-03
-2.766207e-02
-5.863032e-02
-2.185300e-02
2.252084e-02
-1.982046e-02
2.946303e-02
5.449918e-02
-1.379352e-02
1.582488e-02
-9.573919e-03
-1.407320e-03
6.321945e-02
6.900798e-02
-1.228990e-02
2.701153e-02
6.826728e-02
1.732711e-03
1.407651e-03
-4.926730e-02
1.023889e-02
-7.123483e-03
-1.774182e-02
1.265457e-02
-4.626801e-03
-1.212904e-02
4.454579e-03
2.952631e-02
-4.294797e-02
6.047376e-03
7.350563e-03
-2.158971e-03
1.127054e-03
-3.657281e-03
4.280468e-02
5.267266e-02
-4.302517e-04
-5.688522e-02
2.202717e-02
7.178976e-02
2.517332e-02
-5.746402e-02
-1.777484e-02
-1.516056e-02
-2.257774e-02
-2.917536e-02
-1.510817e-02
-3.705572e-02
-4.385581e-02
-4.427476e-02
-1.593656e-02
-3.582128e-02
-4.203666e-02
1.286382e-02
-7.930199e-03
-1.095052e-02
-1.204364e-03
1.319841e-03
7.315994e-03
-4.733365e-02
-1.639650e-03
-1.051823e-02
4.083826e-03
3.046949e-03
-3.071885e-02
-3.799762e-03
4.627032e-02
2.894426e-02
-2.883009e-02
-2.999743e-02
-2.254502e-04
9.522790e-03
6.566920e-02
5.658823e-02
-2.274393e-02
4.073299e-03
4.957445e-03
-6.944625e-02
-3.638796e-02
-4.836015e-02
-2.430693e-03
-1.781012e-04
-1.248781e-03
-7.973239e-04
9.741247e-04
-5.594177e-04
-1.973346e-03
2.157559e-03
-1.975471e-03
2.378230e-03
-3.666695e-03
-3.170564e-03
2.873964e-03
-1.080251e-03
2.992003e-03
1.412009e-03
-1.243397e-03
2.462156e-03
-1.665589e-03
-2.220789e-03
3.087482e-03
2.640911e-03
1.890787e-03
-3.608587e-03
5.188000e-03
2.181988e-03
-3.658838e-04
1.963503e-03
4.449173e-04
-1.280125e-03
1.241655e-03
2.668229e-04
1.017358e-03
-4.469884e-04
-5.666916e-04
-1.121078e-03
9.727086e-04
-1.442915e-04
2.313080e-04
4.128126e-04
1.222482e-03
-1.352545e-03
9.807919e-04
-1.899688e-03
9.426356e-04
1.330495e-03
-2.031598e-03
2.841138e-03
-2.333911e-03
-2.142129e-03
1.612492e-03
1.170491e-03
-1.563717e-04
1.572050e-03
-1.958769e-03
2.325866e-03
1.901450e-03
1.031647e-03
3.906286e-03
2.385600e-03
-5.999841e-04
-4.283953e-04
2.884660e-04
5.560072e-04
-3.587344e-03
-2.322911e-03
-7.268613e-04
-1.514218e-03
-2.289483e-05
-1.450580e-03
-2.731722e-03
3.547860e-03
-2.643166e-04
1.805925e-03
1.624681e-03
2.648676e-04
1.976255e-03
-1.056591e-03
-9.497179e-04
2.862480e-03
7.110543e-04
-2.790404e-04
-2.071388e-04
2.780295e-03
9.404449e-04
-6.340307e-04
-1.007011e-03
3.865008e-04
9.205224e-04
-3.147908e-04
1.849519e-03
-2.026962e-03
-1.309131e-03
2.130925e-03
-1.176761e-03
-1.524478e-05
8.311564e-05
-2.403667e-03
1.231233e-04
1.356544e-03
-1.591471e-03
-2.296861e-04
4.101677e-03
1.851447e-04
3.948841e-04
8.908875e-05
5.515855e-04
-1.525741e-03
8.304802e-04
4.987989e-04
2.063960e-03
6.622513e-04
-5.840066e-04
1.766031e-03
3.540797e-03
-1.340015e-03
1.495672e-03
2.055661e-03
1.907117e-03
-7.251722e-04
-1.949927e-04
-2.709328e-04
1.282824e-03
4.359124e-03
1.547319e-03
-5.921139e-04
2.821677e-03
-2.121466e-03
-8.561307e-04
1.367381e-03
1.124452e-03
1.873299e-03
-1.149250e-03
-1.817024e-03
2.214658e-04
1.468712e-03
-1.009683e-03
1.774459e-03
-2.583939e-03
-2.332541e-03
1.793701e-03
1.368352e-03
3.124416e-06
-5.026020e-04
-1.069181e-03
1.891177e-03
1.961238e-03
6.860073e-04
2.732666e-04
5.187481e-03
-1.957901e-04
2.849056e-03
1.398782e-03
-2.465626e-03
-3.242524e-03
-3.272149e-06
-1.155550e-03
-2.227095e-04
-6.803819e-04
1.812335e-03
1.777616e-03
-7.983570e-04
-2.107467e-03
-1.215885e-03
3.033794e-03
-2.774771e-03
1.953151e-03
1.549947e-03
7.595728e-04
8.327815e-04
1.451393e-03
-4.883376e-03
-4.065808e-03
-1.393764e-03
-5.248460e-05
3.574689e-05
1.500464e-03
1.939259e-04
2.128751e-03
-3.075804e-03
-1.252591e-03
-3.416921e-03
1.541896e-03
1.950285e-04
-3.114931e-04
9.695029e-04
-2.796693e-03
1.142031e-03
1.473878e-03
3.432610e-04
-2.698112e-03
2.744371e-03
-5.706806e-05
1.259457e-03
-2.310079e-03
6.126188e-04
-6.222003e-04
7.900572e-04
1.427654e-04
1.687624e-03
1.848888e-03
3.694322e-04
-1.712626e-03
-1.925038e-03
-2.080531e-03
4.266177e-04
7.099364e-05
1.706964e-03
1.283840e-04
-4.174732e-04
1.828805e-03
-2.665579e-04
2.585115e-03
5.830126e-04
-2.063719e-07
2.647442e-05
8.139251e-04
-2.569499e-03
2.480424e-03
-1.492832e-03
-3.744218e-04
1.532619e-04
-1.094187e-03
-4.486665e-04
1.446112e-03
4.555960e-03
-7.541461e-04
1.139908e-03
-1.253590e-03
5.069533e-04
-1.559363e-03
-3.686773e-03
-1.518727e-03
-3.780436e-03
1.596768e-03
2.860409e-03
3.132857e-04
2.724587e-03
-5.211245e-04
4.072383e-03
-5.715176e-04
1.621055e-03
-1.679782e-03
5.451147e-04
-1.152144e-04
1.563317e-03
6.086827e-04
2.363570e-03
-2.589582e-03
1.082956e-04
3.622129e-04
-3.886768e-03
9.321929e-04
-5.334486e-04
8.182923e-04
-1.810567e-05
-5.534146e-04
-1.278728e-03
1.220571e-03
-1.460490e-03
-1.391024e-03
-9.712096e-04
3.685434e-03
-3.348533e-03
9.708689e-04
-1.045902e-03
7.545497e-04
8.634601e-04
1.963770e-03
1.062330e-03
-5.560523e-04
1.942560e-03
2.519826e-04
4.841388e-05
-1.394688e-03
-4.163187e-03
-5.973480e-04
9.666381e-05
3.647524e-03
1.107828e-03
3.291049e-04
-9.457868e-04
2.294756e-03
-1.979866e-03
7.494233e-05
2.223657e-03
4.369159e-03
1.533477e-03
-2.543321e-02
3.106578e-02
8.556092e-02
-6.085401e-02
-1.133758e-01
-1.126833e-01
6.930250e-02
1.762102e-02
-1.005308e-01
-4.060505e-02
-2.737585e-02
1.328486e-02
-6.528719e-03
-4.019377e-02
-3.694698e-03
1.953104e-02
-3.920496e-02
2.375768e-02
1.642332e-01
4.552129e-02
-1.035272e-01
8.472753e-02
1.312523e-01
-9.455325e-03
-1.470997e-01
2.808202e-02
1.437824e-02
-2.081780e-02
-3.045574e-02
-3.128953e-02
-5.225056e-02
-5.650847e-02
-4.662841e-02
-1.147836e-03
3.740299e-03
-2.393557e-02
-7.267585e-03
-2.528122e-02
-2.277805e-02
6.605023e-02
6.992795e-02
-2.042389e-03
9.738642e-03
4.410968e-02
2.161919e-02
-4.088956e-02
-1.722079e-02
5.923863e-02
-3.400674e-02
-5.643734e-02
-3.060002e-02
4.465972e-02
-1.486355e-02
-3.317787e-02
5.048963e-02
2.488010e-01
2.436549e-01
-2.425296e-01
-2.543801e-02
1.472696e-01
-2.238909e-01
-2.312512e-01
-3.141858e-02
4.298429e-02
-8.145828e-02
-6.099332e-02
-7.667268e-03
5.440413e-02
2.587376e-02
-8.296625e-02
-5.142517e-02
-4.940829e-02
2.923423e-02
-1.697953e-02
-1.016635e-01
5.220412e-02
2.794518e-02
-6.650852e-02
6.214095e-02
9.067684e-02
3.906077e-02
-8.764745e-02
-8.795121e-02
-1.219900e-01
1.817098e-02
2.228232e-03
-2.515470e-02
3.447153e-02
1.069582e-03
-3.125248e-02
-1.517333e-02
-4.230968e-03
2.022186e-04
4.154138e-02
7.056019e-02
2.730131e-02
-1.335203e-02
3.630715e-02
-3.650076e-02
-8.718535e-02
-5.093704e-02
-8.023863e-02
8.005485e-02
2.656606e-02
-9.727168e-02
7.307380e-02
6.376756e-02
-4.947989e-02
-1.791737e-02
3.770089e-02
1.549653e-02
-2.000210e-02
1.416127e-02
1.758405e-02
-2.653895e-02
-1.977288e-02
-1.453412e-02
2.118311e-02
8.990130e-02
1.248696e-02
-3.309529e-02
9.627526e-02
5.578336e-02
-5.533208e-02
-4.302511e-02
2.322631e-02
-1.085190e-02
-7.095355e-02
-8.875217e-02
-2.139513e-02
-4.256511e-02
-4.712960e-02
-1.577630e-03
5.332103e-03
6.355832e-03
1.213735e-02
-4.383422e-02
-9.649461e-02
-4.110316e-02
-2.043290e-02
-4.662527e-02
-5.367698e-02
1.009663e-02
-6.026928e-02
9.267019e-02
8.150381e-02
-8.202691e-02
5.517917e-02
-2.962485e-02
-3.472947e-02
2.660102e-02
-8.275071e-02
-6.263573e-02
-4.356107e-02
-2.617713e-02
3.998237e-02
-4.729429e-02
3.453309e-03
5.684181e-02
4.127540e-03
3.185038e-02
1.551229e-02
-7.884564e-02
-3.563134e-02
1.913225e-02
-8.294325e-02
1.153163e-02
7.505452e-02
-2.295007e-02
4.404902e-02
7.513556e-02
-2.156765e-02
-1.569176e-02
-6.647184e-05
-3.872644e-02
-2.812617e-02
2.558667e-02
-5.113539e-03
-1.337247e-03
6.605922e-02
1.741499e-02
-4.873895e-02
1.064384e-04
-5.434828e-02
-1.050726e-02
-2.803757e-02
-7.388888e-02
1.045644e-01
-9.486783e-02
-4.313601e-02
-9.749019e-03
-6.105903e-02
-1.173198e-02
-4.910259e-02
-5.722006e-02
-2.319663e-02
-7.232396e-02
-5.543016e-02
2.903852e-02
-5.048536e-02
-3.028712e-02
2.802996e-02
-1.926964e-02
-7.870558e-02
2.552238e-02
5.509458e-03
-6.092405e-02
-1.054741e-02
-5.308615e-04
-7.730418e-02
3.627327e-02
1.071514e-01
-1.080022e-01
6.204885e-02
-7.410943e-03
-7.618253e-02
-1.374304e-02
2.917000e-02
1.011846e-01
3.066337e-02
4.159919e-02
1.148386e-02
5.441777e-03
3.348566e-02
-7.067809e-02
1.070612e-02
-5.230893e-02
-7.011008e-02
1.054965e-02
-3.510150e-02
-3.077518e-02
-3.906482e-02
-6.276216e-02
-2.310099e-02
-1.415435e-02
-7.727960e-02
3.286328e-02
-2.646209e-02
-4.430411e-02
-1.506096e-02
-9.660092e-02
2.455407e-02
-2.668344e-02
-2.611610e-02
-1.100943e-01
-9.665598e-02
8.945860e-02
-7.860783e-02
-7.039627e-03
-3.008378e-02
-8.637799e-02
6.094641e-02
7.499056e-02
5.214986e-02
8.826167e-04
6.278290e-02
4.407664e-02
-2.160582e-03
3.821188e-02
2.649015e-02
5.675321e-03
-7.027131e-02
2.023945e-01
-2.535033e-02
-5.768984e-02
4.962036e-02
-1.507618e-01
2.947255e-02
-1.032894e-01
1.682381e-03
-5.126467e-03
1.208547e-02
9.585883e-02
-3.419508e-03
2.610383e-03
1.156222e-02
-1.269317e-03
3.425498e-02
-5.808311e-02
-1.820088e-02
5.355112e-02
5.027396e-04
3.243019e-02
6.132004e-02
-2.437111e-02
7.202648e-02
6.162481e-03
-1.367065e-03
-2.926998e-02
6.610069e-02
1.094628e-01
1.496860e-03
3.394739e-02
7.715539e-02
-7.003888e-02
-5.636125e-02
-4.609065e-02
1.213750e-02
-9.943455e-03
-8.267056e-02
-3.720097e-02
-1.006881e-02
-2.362745e-02
-2.905054e-02
-1.764304e-02
-3.443560e-02
7.304484e-03
3.622984e-02
-2.595773e-02
3.166709e-02
8.475590e-02
3.847523e-02
-1.188598e-03
9.462691e-03
-1.716361e-02
-1.714250e-02
3.644760e-02
1.686473e-02
2.565178e-02
5.321593e-02
4.423745e-02
-1.994622e-02
-1.951425e-02
-3.821050e-02
-3.048564e-02
-3.317188e-02
-6.709894e-02
-5.236201e-02
-6.592472e-02
-5.976375e-02
-1.298855e-02
-9.409408e-02
-6.203852e-02
-4.812899e-03
-2.120286e-02
3.095276e-02
1.350105e-02
1.223289e-02
1.787968e-02
-6.618236e-03
1.892809e-02
2.717626e-02
-2.313465e-02
-3.801239e-02
-5.474791e-02
-2.318008e-02
-4.402141e-02
-2.273840e-02
4.820957e-02
1.866016e-03
2.676047e-02
-4.787574e-02
-8.457992e-02
-9.397544e-02
-7.088934e-02
-5.094316e-02
2.944302e-02
4.844672e-03
-2.376632e-02
3.324552e-02
-1.395652e-02
-6.874525e-02
-5.776862e-02
2.063085e-02
-5.900022e-02
-4.060729e-02
1.877515e-02
-2.103529e-02
-3.994597e-03
-1.803492e-02
-7.803284e-03
-2.999791e-02
1.679993e-02
2.139532e-02
6.644461e-05
2.969825e-02
3.389872e-02
3.232830e-03
-6.978426e-03
-2.023993e-02
-8.735324e-02
1.356498e-02
-8.928266e-03
-2.031724e-02
-3.966986e-02
-3.286788e-02
-5.913502e-02
5.490108e-02
-3.556416e-02
1.739193e-02
1.984464e-02
-3.675731e-02
-7.914751e-02
-1.052604e-01
-3.487039e-02
-1.603779e-02
-1.909513e-02
-8.846570e-03
-2.650690e-02
-5.421172e-03
3.121242e-02
-2.152862e-03
3.421153e-03
2.672281e-02
7.939919e-03
-6.509671e-02
1.636680e-02
2.390303e-02
-6.802755e-02
1.384373e-02
5.782125e-02
-1.057715e-02
-6.603963e-02
-2.250124e-02
-7.729186e-03
-6.942783e-02
-5.557134e-02
2.662746e-02
-6.833331e-02
-5.592919e-02
-9.618116e-03
-3.776034e-02
-3.913941e-02
-2.294656e-02
-2.519400e-02
-1.452665e-02
-4.387493e-02
-3.836355e-02
1.062754e-02
2.388633e-02
-1.399165e-02
5.410223e-02
-6.156508e-02
-2.704976e-02
-2.425196e-02
-6.583165e-02
1.123133e-02
3.672712e-02
-7.203330e-03
7.604960e-03
7.296634e-02
-3.228938e-03
1.978272e-02
-6.184151e-02
4.007434e-03
6.955784e-02
-1.344268e-02
-3.188310e-02
7.069899e-02
2.515922e-02
3.694257e-02
3.378792e-02
1.264636e-02
3.214201e-02
3.058438e-02
-1.067685e-02
-4.260601e-03
-4.359648e-03
-7.332056e-02
-5.405934e-02
-1.339652e-02
1.228083e-02
-6.047706e-02
6.679467e-03
3.112892e-02
-1.015228e-01
-3.666811e-02
3.623943e-02
9.344990e-03
-3.475787e-02
-5.779479e-02
7.132702e-02
-4.273185e-02
-7.191616e-02
5.117331e-02
-2.065097e-03
-1.012818e-01
-1.460654e-02
6.600910e-03
7.653067e-05
-8.402097e-03
-1.190885e-02
1.980963e-02
-2.690848e-02
-3.515824e-02
-3.124908e-02
-2.448994e-02
-3.878549e-02
-3.283785e-02
-2.676464e-03
1.061361e-02
-1.475711e-02
-3.352169e-02
4.098220e-02
-3.214652e-03
5.037592e-02
3.065829e-02
6.873147e-02
-8.761907e-02
-8.859292e-02
-8.223712e-02
-9.428291e-02
-8.114864e-02
-1.079407e-01
2.544308e-02
1.261201e-02
-1.835788e-02
8.532900e-02
-1.125772e-02
-8.236870e-03
4.090163e-02
-3.954933e-02
-8.453068e-02
-6.546591e-03
5.236660e-03
2.821970e-03
1.552708e-02
5.429481e-03
-5.525490e-04
-1.444401e-02
-1.543202e-02
3.872698e-03
2.416024e-02
-2.774192e-02
-1.031688e-05
5.815854e-02
-6.500023e-02
-4.243723e-02
-1.422312e-03
-1.503515e-02
-4.981845e-02
-5.696206e-02
-3.387474e-02
-4.114928e-02
-1.137761e-02
-8.528915e-02
-3.434557e-02
-2.016014e-02
-1.034988e-01
-3.597491e-02
-1.556909e-02
4.407465e-02
4.786427e-02
-2.025594e-02
4.841678e-02
3.491240e-02
-3.016765e-02
3.241111e-02
1.055546e-02
-6.735412e-02
7.830950e-03
6.431200e-02
-1.384792e-01
-6.462123e-03
-1.884551e-02
-3.391908e-02
-2.189823e-02
-4.272336e-02
-9.281310e-02
-6.665518e-02
-4.157957e-02
2.083249e-03
-2.743946e-02
-1.724677e-02
5.963651e-02
3.387714e-03
-6.210029e-02
-2.509452e-02
-5.973379e-02
-3.559797e-02
-6.095136e-02
-7.329199e-02
-5.071095e-02
5.974827e-02
1.050374e-02
9.589866e-03
1.354220e-01
8.557086e-02
-2.871793e-01
-1.038676e-01
-1.321476e-01
-1.919692e-02
-1.242128e-01
1.517708e-01
1.538190e-01
-2.019697e-01
-2.929294e-01
-1.857297e-01
-1.791153e-01
1.217985e-01
3.334091e-01
1.657356e-01
1.328532e-01
-3.792927e-02
8.761874e-04
5.241561e-02
-2.698596e-03
-8.270498e-02
-3.430712e-02
-2.376602e-02
-7.768048e-02
-1.990275e-03
7.540543e-02
5.267698e-02
6.256668e-02
-2.227345e-02
-2.547424e-02
-2.943849e-02
7.276930e-03
-6.126615e-03
7.662063e-02
9.195761e-02
-4.714663e-03
-4.990025e-02
7.121213e-02
-8.406307e-02
1.154457e-01
9.851546e-02
1.173028e-01
1.445472e-01
1.032616e-01
-1.104447e-02
4.462309e-02
-5.004473e-02
-8.396121e-02
-1.058676e-01
-6.021130e-02
-1.034670e-01
-8.031931e-03
-1.581413e-03
-6.026380e-02
-9.993906e-02
2.707597e-03
-1.670406e-02
1.402260e-01
7.771469e-02
4.231936e-02
-2.493605e-02
-6.499019e-02
-1.700685e-01
-8.160357e-02
2.150175e-01
1.371566e-02
1.004791e-01
-2.472478e-01
-1.596211e-01
-1.734155e-01
-9.521378e-02
-5.753570e-02
-3.982370e-02
1.016043e-01
3.306899e-02
7.717191e-02
2.524411e-02
-1.577341e-02
-9.325169e-03
-1.131991e-01
-5.178940e-02
-1.580470e-02
1.498684e-02
-6.086568e-02
-5.292664e-03
2.487597e-02
-2.229606e-02
3.841388e-02
1.976901e-02
-1.652359e-01
-2.375425e-01
8.355407e-02
-2.854453e-02
2.894372e-01
6.685325e-02
1.202950e-01
4.033921e-02
-7.994060e-02
-3.557289e-02
-8.549290e-02
-6.540288e-02
-1.182860e-01
-1.180614e-03
2.136649e-02
9.295777e-04
4.776924e-02
-3.975408e-02
8.718931e-02
1.731557e-02
-1.312450e-02
4.192395e-02
-7.447224e-03
-3.679106e-02
7.135915e-02
4.441833e-02
6.116424e-02
1.068073e-02
3.553635e-01
3.166446e-02
3.108848e-01
-8.442314e-02
-2.675884e-01
-1.798946e-01
-1.558957e-01
2.449942e-01
6.336071e-02
5.362434e-02
1.234100e-01
9.745472e-02
1.025400e-02
1.719928e-02
-1.689078e-01
-6.384489e-02
-1.421158e-01
-1.873910e-01
2.034675e-01
6.261919e-02
3.868747e-02
-5.404457e-02
-2.077074e-01
-1.430216e-01
-4.831281e-02
5.011427e-02
7.528473e-02
9.842603e-02
5.897958e-02
-7.755905e-03
4.975067e-03
3.228467e-02
-6.138251e-03
-1.008312e-01
-1.207555e-01
7.761507e-02
-7.158977e-02
-9.256984e-02
-6.538851e-02
-6.979017e-02
-1.576067e-02
-7.115267e-02
-8.244835e-02
-2.031459e-02
-6.058776e-02
6.380203e-02
-2.725078e-02
-1.936317e-02
9.686852e-02
5.246210e-02
-6.304895e-02
4.407975e-02
5.393080e-02
6.890177e-02
1.936173e-01
1.217157e-01
-3.598965e-02
3.069137e-02
-2.139865e-02
-1.067871e-01
-1.012473e-01
-1.432674e-01
7.250902e-02
5.587193e-02
-1.159006e-02
2.803407e-02
3.576232e-02
2.795821e-02
1.200262e-02
6.824826e-02
4.773089e-02
1.828304e-02
4.914999e-02
8.316799e-02
3.631884e-02
4.812109e-02
7.951067e-02
8.121932e-02
6.333409e-02
5.897966e-02
-1.002667e-01
-1.038023e-01
-1.084201e-01
-3.905714e-02
-2.575038e-03
-3.987933e-02
-1.736565e-02
4.175951e-02
3.291509e-02
-5.576322e-03
3.040178e-02
-9.284433e-06
8.191306e-02
1.088244e-01
6.297544e-02
-1.768955e-02
3.380834e-02
1.065853e-01
-1.222378e-01
-7.483538e-02
-3.359322e-02
-1.995383e-02
-2.645585e-02
-6.659385e-02
5.247123e-02
4.477653e-02
-3.785405e-03
-3.129169e-03
-8.429253e-03
2.013749e-02
7.028714e-02
3.742302e-02
1.866883e-02
1.336025e-02
-2.120771e-02
-3.076173e-02
-8.712216e-02
6.523978e-02
1.432141e-02
-6.235126e-02
-2.751400e-03
-5.177178e-02
-1.060257e-01
-4.002242e-02
-4.570674e-02
-2.145393e-02
-2.274757e-02
-2.175564e-02
-6.957512e-02
-1.609623e-01
-1.856685e-01
-1.355539e-01
-1.882789e-01
-1.946959e-01
-5.746924e-02
-6.335550e-03
-4.363137e-03
2.355834e-03
4.095739e-02
1.491226e-02
4.563231e-02
6.769887e-02
6.161780e-02
7.818808e-02
1.256961e-01
1.608177e-02
4.614843e-02
4.985135e-02
-2.626706e-02
1.486784e-02
9.528254e-02
-3.301713e-02
4.941269e-02
4.059198e-02
1.081372e-02
6.089153e-02
9.853598e-03
-5.256896e-02
4.837329e-02
-1.083384e-02
-5.853726e-02
-3.898431e-02
-4.730991e-02
-7.704461e-02
-1.199903e-01
-1.324927e-01
-9.059060e-02
-7.596946e-03
1.132005e-01
1.136146e-01
3.640047e-02
3.566504e-02
1.312124e-02
-2.644029e-02
6.259628e-02
1.320455e-01
1.061299e-01
3.681966e-02
-3.642689e-02
9.955407e-02
1.656984e-02
-4.059443e-02
1.116306e-01
-3.386959e-02
-1.391133e-01
-1.602818e-01
-1.601990e-01
-2.428754e-01
-3.234054e-02
-2.739076e-02
5.478363e-02
1.343154e-02
6.525775e-02
1.105230e-01
3.589550e-02
-5.667727e-03
-2.992826e-02
-5.769978e-02
-3.685191e-02
-6.490250e-03
5.298527e-03
5.356433e-02
6.719084e-02
4.524317e-02
6.136661e-03
-2.117847e-02
2.234800e-02
-1.429350e-02
-4.713871e-02
-1.438994e-02
-4.276780e-02
-3.599726e-02
-8.722505e-02
-6.224094e-02
-8.670588e-02
-3.102297e-02
-5.569076e-02
-5.050730e-02
-7.713398e-02
-5.668143e-02
1.256370e-02
-4.546786e-02
4.823234e-03
7.243086e-02
1.347215e-01
6.047162e-02
-5.540564e-02
1.276480e-01
5.799080e-02
-2.772775e-02
2.293681e-03
-2.239535e-02
-9.188186e-02
1.186741e-02
6.149355e-03
-1.356482e-03
-7.657936e-02
-1.509527e-02
-5.750327e-02
-8.115803e-02
-5.776618e-02
3.252932e-02
9.825367e-04
-6.202285e-02
-3.218512e-02
-2.635449e-02
-1.175854e-01
-6.706516e-02
-5.071871e-02
-9.399318e-02
-6.593826e-02
8.756880e-02
-1.131597e-02
-5.163255e-02
4.223393e-02
-4.344546e-02
-3.696997e-02
-1.053290e-02
-5.546552e-02
-6.748414e-02
7.409237e-02
-9.124322e-03
-1.444289e-02
7.123321e-02
1.790374e-02
-2.205241e-03
-2.135657e-02
9.749931e-03
1.696035e-02
3.554671e-02
3.089429e-02
4.849339e-03
1.534736e-01
1.469569e-01
9.216452e-02
4.105241e-02
7.202855e-02
1.148395e-01
-3.160205e-02
-2.288502e-03
4.842333e-02
1.592899e-02
4.290132e-02
9.352885e-02
2.123733e-02
4.351753e-02
7.647053e-02
-1.852680e-02
-3.006018e-02
-3.231332e-02
-1.422807e-01
-1.060527e-01
-7.889415e-02
1.979580e-02
-6.745654e-02
-5.936972e-02
-6.919390e-02
-1.052918e-01
-1.016785e-01
-1.553462e-01
-1.396630e-01
-1.145366e-01
-5.300727e-02
-8.566512e-03
-7.061590e-02
-2.096545e-02
-4.430703e-02
-8.620539e-02
-5.136246e-02
-1.355672e-02
-8.605080e-02
5.426935e-02
-5.716471e-02
-4.513250e-02
