3.931525e-02
-1.238071e-02
-3.073343e-02
-4.120148e-02
-5.283364e-02
-6.900148e-02
8.327672e-03
2.034722e-02
1.139885e-02
1.284833e-01
-7.118143e-03
-5.984155e-02
9.889895e-02
-7.298952e-03
8.019703e-03
3.074222e-02
-3.915669e-02
1.426911e-02
-5.904093e-02
1.523667e-02
-1.237287e-02
-2.070791e-02
2.344526e-02
1.258105e-02
3.348846e-02
5.694198e-02
6.707337e-02
-6.615938e-02
3.068306e-03
-2.186115e-02
1.491676e-03
5.198125e-02
1.588752e-02
8.216658e-03
4.770847e-02
5.663303e-03
5.710226e-03
5.923615e-03
-5.521861e-02
8.467244e-02
6.499862e-02
1.275558e-02
-1.606176e-02
-8.807254e-03
-7.623780e-02
-3.184745e-02
-9.565660e-02
-1.066804e-01
-3.118667e-02
-7.155448e-02
-6.446292e-02
-6.387439e-02
-8.734725e-02
-9.854168e-02
-4.158106e-02
6.187319e-02
1.278048e-01
1.545642e-02
8.551941e-02
1.112392e-01
3.715128e-02
7.739021e-02
5.439399e-02
5.934280e-02
-1.365335e-02
-5.901323e-02
-4.866802e-02
-9.832225e-02
-1.178568e-01
-1.027902e-01
-1.105139e-01
-1.056163e-01
-5.467052e-02
-1.099079e-03
-3.994464e-02
-5.506153e-02
3.064394e-03
-3.019607e-02
-5.635528e-02
2.325329e-04
-3.180559e-02
4.543553e-02
8.562125e-02
6.703430e-02
4.214252e-02
7.972308e-02
6.597571e-02
3.144028e-02
5.960595e-02
2.227356e-02
1.718874e-02
-9.654640e-03
-1.797545e-02
2.656074e-02
-1.538417e-02
-2.557887e-02
-1.405894e-02
-3.956665e-02
-5.541549e-02
-1.238331e-01
-1.112597e-01
-7.732847e-02
-1.374384e-01
-9.310834e-02
-6.593727e-02
-1.826158e-01
-1.364584e-01
-6.261259e-02
-4.820143e-02
8.538181e-02
7.028873e-02
2.615919e-02
1.465685e-01
1.044608e-01
6.124803e-02
1.442547e-01
6.913348e-02
-9.980033e-02
-5.093446e-02
-9.289794e-02
-9.146338e-02
-7.418169e-02
-1.045199e-01
-8.478804e-02
-7.302138e-02
-8.019157e-02
6.141198e-02
6.192933e-02
4.698290e-02
1.179564e-01
1.126861e-01
8.771778e-02
1.069477e-01
1.045810e-01
9.006540e-02
-3.519491e-02
-4.375093e-02
-5.391438e-02
-6.992636e-02
-5.985193e-02
-3.590397e-02
-1.495157e-02
-9.360391e-03
1.627061e-02
-1.063163e-01
7.811602e-02
2.028772e-02
2.798915e-02
-4.728568e-02
3.872881e-02
-6.763853e-02
4.788093e-02
-2.497339e-02
1.390228e-02
1.194858e-01
-1.498945e-01
-5.368369e-02
5.316981e-02
-9.007470e-03
-1.315744e-01
1.270843e-01
-5.270618e-02
2.941684e-02
1.487642e-02
1.847527e-02
4.586268e-02
-5.015623e-04
-4.151523e-03
-7.196283e-02
2.116484e-02
1.310900e-02
-1.000056e-02
-1.434559e-02
3.700063e-02
1.824856e-02
9.703252e-03
3.316765e-02
-3.578195e-02
-4.158630e-03
-6.768486e-03
2.825972e-01
-2.262147e-01
2.123358e-01
-1.320091e-01
-3.274190e-01
2.119833e-02
2.706652e-01
-1.845247e-01
2.789462e-01
1.873739e-02
-2.111589e-02
9.120563e-02
-1.181347e-01
-3.287677e-03
-4.785996e-02
7.951138e-02
8.107180e-03
1.497583e-01
4.661334e-02
6.588867e-02
8.336322e-02
-1.229103e-01
3.901526e-02
-5.157268e-03
-2.952497e-02
9.943516e-03
-6.770406e-02
-2.462489e-02
8.550217e-02
-2.057522e-02
9.954962e-02
-5.660761e-02
1.902721e-02
-1.058778e-01
6.637102e-02
-5.829032e-02
-1.504358e-01
1.169459e-01
-1.244360e-01
8.439568e-02
1.009462e-01
-6.793038e-02
-1.247943e-03
1.449276e-02
-5.963360e-02
8.047987e-03
-1.302231e-02
3.053373e-03
-2.974413e-02
-2.969310e-02
-1.287139e-02
6.247555e-02
-2.324833e-02
1.914503e-02
1.509952e-01
1.370602e-01
4.226958e-02
-2.148616e-01
-1.741936e-01
-2.615376e-02
9.033571e-02
-8.701495e-02
5.687938e-02
2.858589e-01
-7.026132e-02
8.372170e-02
-2.592300e-01
-1.429114e-03
-1.702169e-01
1.629458e-01
-1.267067e-01
2.194183e-01
-8.720423e-02
3.618955e-02
2.663605e-02
9.716350e-02
7.186633e-02
1.087773e-01
-8.946504e-02
-2.296800e-02
-8.105689e-02
2.121931e-01
-8.886949e-02
2.520988e-02
-1.457984e-01
-2.263453e-01
-6.392249e-02
1.619553e-01
1.220180e-02
6.312579e-02
-4.050647e-02
-3.247934e-02
2.324389e-02
-7.142353e-02
5.964724e-03
1.929145e-02
-6.685189e-03
-1.821971e-02
8.659574e-02
6.857906e-02
8.771487e-02
-1.008479e-03
-1.217825e-03
-7.235455e-03
-1.045548e-02
-2.297684e-02
3.447111e-03
-2.113489e-02
5.895518e-03
-1.883580e-02
-3.091023e-02
1.765668e-02
9.585003e-04
-1.832271e-02
2.103532e-04
-1.725228e-02
-4.077125e-02
2.461178e-02
-3.471720e-02
3.754442e-02
3.858265e-02
-8.175893e-02
-6.068496e-02
2.708452e-02
-2.825262e-02
-8.786627e-04
1.207272e-01
-9.367061e-02
-2.852991e-01
2.029621e-01
4.598509e-02
-2.818002e-01
2.015405e-01
1.826153e-01
-1.949566e-01
5.597714e-03
4.349417e-03
-1.935066e-02
-1.738007e-02
4.421968e-02
7.019039e-04
-2.575428e-02
6.997702e-02
2.466578e-02
-6.304874e-02
-1.300979e-01
-4.024351e-02
1.050473e-03
-9.223041e-02
2.640775e-02
4.914348e-03
-9.510019e-02
-3.880000e-04
-8.630009e-02
2.418790e-02
1.271568e-01
-6.902832e-02
1.052851e-03
1.035441e-01
-7.220805e-02
-4.371343e-02
7.295030e-02
-7.699551e-02
1.417536e-01
2.112162e-01
-2.333596e-01
-1.413432e-02
2.817880e-01
-2.665403e-01
-1.212045e-01
2.672862e-01
-1.829552e-02
-7.211170e-02
-3.196932e-02
-1.106884e-02
-7.167262e-02
-1.037862e-01
6.165080e-02
5.033732e-02
-2.810244e-02
-5.601539e-03
4.533707e-02
5.515357e-03
-7.065696e-02
-2.201346e-02
3.352403e-02
-4.473202e-02
-3.598179e-02
5.817747e-02
-3.999110e-02
5.741610e-02
1.566926e-02
-6.729008e-02
5.115989e-02
7.010079e-02
-9.992621e-02
-5.796761e-03
3.404253e-02
4.987952e-03
7.779031e-03
3.848853e-02
1.038156e-02
3.821009e-02
4.332448e-02
1.017139e-01
-6.220350e-02
2.706566e-02
-2.131246e-02
-1.468206e-02
-1.224393e-01
-8.096078e-03
7.367586e-02
-5.430869e-02
-8.158918e-02
-4.449081e-02
-9.851027e-02
-7.942724e-03
-6.036548e-02
-7.353260e-03
-4.859995e-02
-8.806967e-02
-4.472989e-03
1.922686e-03
-7.715393e-02
-8.201488e-03
9.589066e-02
5.346077e-03
-1.175579e-01
2.377682e-02
7.376369e-02
-5.328475e-02
-5.596869e-02
1.168613e-01
-6.997661e-02
-2.857924e-02
7.180122e-03
-5.888950e-03
-1.256182e-01
-2.142376e-02
4.469400e-02
-1.506115e-01
3.347366e-03
1.114976e-01
7.374336e-02
-7.640130e-02
-1.332181e-01
7.897186e-02
-7.321235e-03
-1.454394e-01
4.596103e-02
9.166560e-02
-8.447908e-04
-3.795527e-02
-1.520542e-02
-4.406011e-02
-2.424799e-02
-7.900753e-03
-4.188040e-02
1.969946e-02
2.970050e-02
-5.028558e-03
-1.274425e-02
-1.180252e-02
1.092507e-02
-3.383269e-02
-3.537770e-02
3.866541e-03
-7.098996e-02
-6.957238e-02
-1.796588e-02
-5.013918e-03
2.233445e-02
4.014250e-02
3.330857e-02
6.715295e-02
6.953052e-02
3.472151e-02
5.575771e-02
4.556558e-02
6.095650e-02
8.111699e-02
8.437713e-02
-2.802795e-02
-3.089428e-02
-2.774892e-02
-8.993648e-02
-9.833462e-02
-9.902461e-02
6.385274e-02
1.010286e-01
4.977061e-02
3.317289e-02
5.846640e-02
2.782072e-02
-2.071577e-02
2.277860e-02
-7.946143e-03
3.725822e-02
2.079455e-02
3.080047e-02
6.199049e-03
-1.448646e-02
-5.412686e-03
-2.487650e-02
-3.991384e-02
-3.733466e-02
8.177120e-02
6.593233e-02
6.308369e-02
9.816536e-02
7.665210e-02
5.420453e-02
9.325644e-02
9.149135e-02
8.069406e-02
-7.349869e-03
4.037590e-02
2.003239e-02
3.794832e-02
6.925956e-02
4.575035e-02
3.994608e-02
4.116964e-02
2.548898e-02
-7.738694e-02
-6.015099e-02
-4.654283e-02
-3.175830e-02
-4.985162e-03
-3.585479e-03
1.905647e-02
4.003447e-02
3.133776e-02
-1.395524e-02
-1.471100e-02
-1.160570e-02
-1.474349e-02
-1.141787e-02
-1.108602e-03
-3.398186e-02
-2.397567e-02
-1.413682e-02
2.830504e-02
-9.177043e-03
-2.326173e-02
2.862621e-02
3.000735e-03
-2.037335e-02
-5.058445e-03
-3.036982e-02
-3.752581e-02
-4.771302e-02
-4.808600e-02
-4.937548e-02
-7.427107e-02
-9.282370e-02
-7.647747e-02
-3.793370e-02
-8.282659e-02
-9.729750e-02
-1.347620e-02
-1.814774e-03
-4.530361e-02
-4.898489e-03
6.362914e-03
-2.874847e-02
-5.377159e-03
2.687842e-03
-2.487504e-02
4.848235e-02
2.019354e-02
5.389560e-02
2.858645e-02
3.633699e-02
8.463638e-02
2.925580e-02
2.652402e-02
6.128681e-02
-4.201364e-02
3.003446e-03
8.622379e-02
-2.687507e-02
-8.940281e-03
3.417507e-02
-2.376046e-02
-3.281378e-02
-3.514983e-02
-5.231955e-02
-4.157002e-02
-1.784032e-02
2.154727e-03
1.782785e-02
4.757760e-02
-1.261310e-02
3.672906e-02
6.611398e-02
-8.780061e-02
-5.546826e-02
-2.821180e-02
-3.547931e-02
-1.445358e-02
1.003268e-02
-2.501602e-02
-2.360629e-02
-2.052489e-02
-1.041016e-01
-9.817468e-02
-8.208956e-02
-8.374358e-02
-9.289064e-02
-9.937204e-02
-3.551698e-02
-6.796299e-02
-1.113752e-01
2.775180e-02
-2.312188e-02
-1.167643e-01
9.990729e-02
1.070825e-01
2.016076e-02
1.111203e-02
9.925789e-02
9.749229e-02
6.065429e-02
4.716506e-02
-3.888275e-03
5.993341e-02
4.145681e-02
-4.056033e-03
4.329926e-02
2.266854e-02
-1.952028e-03
-1.270365e-01
-6.201572e-02
5.073932e-03
-1.202118e-01
-1.136000e-01
-1.253019e-01
-6.679615e-02
-6.378539e-02
-1.322505e-01
-1.370126e-02
-3.717736e-02
1.650964e-02
1.206382e-02
-2.077490e-02
-8.733398e-03
4.187442e-02
-3.764761e-03
-3.923968e-02
2.302949e-02
8.540794e-02
5.917298e-02
7.257118e-04
6.486817e-02
1.075789e-01
-4.407123e-02
-4.683141e-02
-1.636193e-02
-8.596517e-02
-5.287080e-02
4.249378e-03
-1.128086e-01
-1.101763e-01
-5.672958e-02
-7.908323e-02
-1.017573e-01
-8.858323e-02
1.896822e-03
-4.516889e-02
-6.220684e-02
3.784710e-02
7.509657e-03
1.700828e-03
4.471507e-02
1.572270e-02
9.554727e-03
-6.096126e-02
-6.545257e-02
-6.036526e-02
-2.200579e-02
-2.497486e-02
-2.106530e-02
5.334755e-02
3.363607e-02
3.546933e-02
-1.678763e-02
1.931340e-02
3.720553e-03
2.850905e-02
2.735261e-02
2.049492e-02
2.468130e-02
2.606003e-02
-2.446502e-02
-9.535208e-02
-6.883814e-02
1.437740e-02
-1.234228e-02
-2.238639e-02
-1.531203e-02
4.330087e-02
3.533119e-02
4.550850e-03
2.152660e-02
-5.599825e-03
-3.473386e-02
2.270807e-02
2.218027e-02
1.415010e-02
-2.244202e-02
-1.271862e-02
-1.627924e-02
1.168206e-01
1.081047e-01
8.159999e-02
7.505499e-02
1.203833e-01
1.174058e-01
-7.098565e-02
-2.849451e-02
5.923153e-02
-9.171898e-02
-4.331380e-02
4.448102e-02
-1.134002e-01
-7.584944e-02
1.917962e-02
-9.424289e-02
-6.431926e-02
6.878213e-03
-1.026323e-01
-9.678762e-02
-5.980086e-02
-1.624955e-02
-4.529744e-02
-3.989407e-02
5.015186e-02
2.819737e-02
3.494456e-02
-5.548269e-02
5.970511e-03
2.452422e-02
-7.647430e-04
4.921782e-02
4.015359e-02
3.145126e-02
8.415095e-02
7.280966e-02
4.014768e-02
3.694187e-02
2.625524e-02
1.863251e-02
6.467163e-02
9.822422e-02
3.118945e-04
4.320113e-02
4.354268e-02
5.239502e-02
5.812933e-02
6.124341e-02
4.057144e-03
-4.484500e-03
6.412036e-03
2.249801e-02
1.878096e-02
4.272432e-02
7.852304e-03
-2.455951e-02
-4.154348e-02
-3.304348e-02
-6.980769e-02
-7.053997e-02
-4.938453e-02
-6.254263e-02
-5.446785e-02
1.208001e-01
8.239938e-02
6.300116e-02
3.970264e-02
1.571125e-02
-5.028551e-05
-5.250380e-02
-9.504507e-02
-1.082851e-01
3.354952e-02
3.388676e-02
2.339161e-02
-3.557261e-02
-3.619063e-02
-5.279049e-02
-1.186347e-01
-1.020484e-01
-1.197468e-01
2.808453e-02
6.489493e-02
8.680343e-02
4.955774e-02
5.430706e-02
7.788559e-02
-2.268100e-02
-4.931453e-02
-3.707522e-02
-3.188850e-03
-5.408949e-03
4.037402e-03
-1.024600e-02
-1.870067e-03
4.298542e-03
-9.982900e-02
-7.665432e-02
-3.919679e-02
2.232157e-02
5.325479e-03
-1.639601e-02
1.209464e-01
1.345303e-01
9.186192e-02
1.225528e-01
1.384005e-01
9.414414e-02
1.105202e-02
3.050323e-02
3.144643e-02
-1.314006e-02
2.071541e-02
3.940257e-02
3.965945e-03
3.373089e-02
4.439975e-02
7.007018e-02
1.630684e-02
6.275613e-02
3.301972e-02
1.117026e-02
3.038784e-02
-8.149086e-03
-4.495123e-02
-6.298773e-02
6.634301e-02
6.034676e-02
8.320431e-02
2.047486e-02
6.797835e-03
2.363716e-02
3.149466e-02
1.607473e-03
1.374444e-03
-3.902338e-02
-2.143471e-02
-4.255209e-02
-1.109457e-02
-9.134536e-03
-2.132316e-02
4.615348e-02
5.109691e-02
3.960135e-02
5.994925e-02
8.756886e-02
9.286744e-02
1.443011e-02
7.188949e-03
-2.125582e-02
-1.089029e-01
-1.015089e-01
-7.762123e-02
3.677533e-02
2.721182e-02
3.481842e-02
3.010351e-02
3.787478e-03
1.675960e-02
-2.916183e-02
-6.831010e-02
-4.071517e-02
-7.189544e-03
1.100619e-02
4.701427e-02
7.209050e-02
9.206348e-02
7.445950e-02
-2.961286e-02
-2.994186e-02
-3.394284e-02
-8.201955e-02
-6.573106e-02
-1.762936e-03
-1.298121e-02
5.244429e-03
9.642515e-02
-5.440385e-02
-2.933666e-02
7.682290e-03
1.684566e-01
1.136749e-01
2.202704e-02
3.015579e-02
-9.061626e-04
-4.634074e-02
-5.435616e-02
-4.788375e-03
3.057075e-02
-1.330107e-02
2.050387e-02
5.428567e-02
6.244453e-02
3.524173e-02
5.230920e-02
5.620818e-02
-2.037501e-02
-1.922582e-02
4.542892e-02
5.891951e-02
4.890674e-02
9.629402e-02
9.033899e-02
8.144698e-02
4.857644e-02
3.783148e-02
3.361354e-02
-2.093739e-01
-2.420457e-01
-2.505623e-01
-2.935569e-01
-2.852220e-01
-3.115200e-01
-1.793104e-01
-1.483865e-01
-1.662927e-01
-8.933250e-02
-1.499924e-01
-1.341665e-01
-1.579827e-01
-1.911008e-01
-1.636258e-01
-1.318743e-01
-1.420230e-01
-1.458821e-01
-5.138331e-02
-7.125299e-02
-2.497989e-02
1.783952e-02
-2.112301e-03
-1.062725e-02
1.248214e-01
8.023082e-02
5.519083e-02
6.514276e-02
1.709890e-02
4.249287e-03
8.467392e-03
-2.609855e-02
-2.657295e-02
1.023115e-02
-2.627221e-02
2.971370e-02
7.791189e-02
4.903646e-02
7.248057e-02
2.693937e-02
3.185922e-03
-3.429775e-03
2.356376e-03
4.811792e-03
-7.136482e-04
-1.481981e-02
-1.821188e-02
-5.868369e-03
-1.326095e-02
-8.659942e-03
-4.857762e-03
-1.502722e-02
-2.880043e-02
-2.338291e-02
-1.105353e-01
-9.508939e-02
-8.265186e-02
-6.016920e-02
-1.911123e-02
-4.701700e-02
-9.737936e-02
-5.350219e-02
-1.619379e-02
-1.593369e-02
2.641780e-02
1.162774e-01
-8.259320e-02
-1.227074e-01
-1.052097e-01
9.585162e-02
-5.353332e-02
-1.028248e-01
-1.410650e-02
-8.327704e-04
1.020541e-02
7.429029e-02
9.685138e-02
9.247819e-02
-4.064823e-02
-1.484550e-03
4.824329e-03
-4.341504e-02
-7.952797e-02
-9.812212e-02
-4.100434e-02
-1.481125e-01
-1.380995e-01
4.215201e-02
-9.883228e-02
-1.095059e-01
4.277042e-02
4.847940e-02
9.434891e-02
5.622374e-03
-6.208915e-03
2.863549e-02
4.315717e-02
3.753517e-02
3.327458e-02
2.988719e-03
-3.553292e-02
3.167738e-03
-4.938308e-02
-6.130726e-02
-1.567762e-02
5.718160e-02
4.984608e-02
6.831889e-02
-6.064480e-02
1.465412e-02
-6.660018e-02
3.372156e-02
1.724966e-02
-8.435161e-02
1.044232e-01
-4.139870e-03
-6.920471e-02
1.888036e-04
3.088561e-02
-7.777482e-02
3.070752e-02
6.035500e-02
2.352510e-02
-8.534236e-02
-4.159561e-03
9.964398e-03
2.573721e-02
-1.461591e-02
-8.448523e-02
4.563840e-03
-3.673000e-02
-8.990555e-02
3.296789e-02
-3.301257e-02
-4.321283e-02
-9.246895e-02
-1.266096e-01
-5.483954e-02
-1.301715e-02
3.140833e-02
1.734611e-02
3.570156e-02
6.107201e-02
7.290076e-02
1.004499e-01
-4.810337e-02
7.261247e-02
5.467897e-02
-5.183362e-02
1.697483e-02
-9.172085e-03
-1.423758e-01
4.807139e-03
-5.808058e-02
1.171174e-01
3.234815e-02
1.078652e-02
1.647299e-01
8.468312e-03
-3.849179e-02
6.052002e-02
-9.624781e-02
-8.740852e-02
1.650791e-02
-2.487203e-02
1.811148e-03
2.134001e-02
1.632300e-02
1.543303e-02
5.853846e-02
-2.738293e-02
-4.263991e-02
-3.677431e-02
-1.040197e-01
-1.344396e-02
-2.269880e-02
-8.819294e-02
3.351753e-02
3.584936e-02
-1.206648e-01
-1.590651e-02
3.900424e-02
-5.269295e-02
-1.648207e-02
-1.458061e-02
2.530894e-02
-4.857603e-02
-1.391151e-02
-2.062945e-02
9.926808e-04
4.638462e-02
6.828400e-02
6.834191e-03
3.297589e-02
2.254417e-02
-3.331890e-02
-5.558262e-03
-1.502906e-02
-1.185509e-01
3.706658e-01
-1.868873e-01
9.142606e-02
1.321114e-01
2.389314e-02
-9.478302e-02
1.733767e-01
-1.568433e-01
-3.017308e-02
1.528384e-01
-4.414416e-02
4.575832e-02
-2.955054e-02
-4.243751e-02
2.569589e-02
-3.509291e-02
-1.204171e-01
-2.675503e-02
-1.056550e-01
-4.785847e-02
-9.938421e-02
-1.290143e-01
-8.205068e-02
-3.748536e-02
-1.109853e-01
-5.678356e-02
2.145677e-02
-2.927985e-02
9.867739e-03
-6.298574e-02
2.963111e-02
-3.901794e-03
-7.799459e-02
-6.690656e-02
-4.671758e-02
3.906504e-02
-3.402549e-02
-2.933587e-03
3.116167e-02
-5.034752e-02
6.155980e-02
4.234722e-03
-4.359888e-02
5.640106e-02
2.275356e-02
1.373552e-02
-1.212204e-01
6.470875e-02
6.362930e-02
-1.656914e-02
-2.974633e-02
-1.453182e-02
-2.576539e-02
-2.739367e-02
2.565130e-02
9.858380e-02
-2.806327e-02
-9.290716e-03
4.216128e-02
-1.502966e-02
-2.923640e-02
-3.277162e-02
-1.538407e-01
-1.179236e-01
-2.195204e-02
-1.138500e-01
-8.322560e-02
-3.392255e-02
-5.369452e-02
-7.362150e-02
-7.790984e-02
2.014774e-02
2.694542e-02
1.618865e-02
3.571659e-02
5.860467e-02
3.183236e-02
-2.639748e-03
8.374872e-02
8.361354e-02
6.944507e-02
8.666381e-02
5.076761e-02
7.168904e-02
1.274733e-01
8.992031e-02
3.876297e-02
1.174479e-01
9.339548e-02
-1.694313e-01
-9.745724e-02
-1.789776e-02
-6.503254e-02
-9.032109e-02
-3.076019e-02
9.340737e-02
-1.298359e-02
-4.598351e-02
-4.485183e-02
-5.920635e-02
-5.550095e-02
2.792673e-04
-2.869334e-02
-5.719231e-02
6.288618e-03
-2.182559e-02
-7.756612e-02
-1.399822e-02
2.636946e-02
7.594102e-02
2.245096e-02
-1.567905e-02
2.609803e-02
4.731130e-02
-5.982012e-02
-6.686593e-02
-1.075776e-01
-3.439827e-02
7.789135e-02
-1.174156e-01
-1.356949e-01
-4.289255e-02
-9.340385e-02
-1.623046e-01
-1.233700e-01
-2.383575e-02
-8.278499e-03
-1.124119e-02
-5.361391e-02
-9.334104e-03
4.938322e-02
-1.195645e-01
-7.240473e-02
1.674329e-02
-5.209662e-02
-3.770166e-02
-3.146731e-02
-2.672379e-02
-4.374137e-02
-1.765164e-02
4.526287e-03
-3.838739e-02
-7.479823e-03
-2.192158e-02
1.557031e-03
-5.405938e-02
1.091971e-02
-2.879719e-02
-5.264691e-02
3.292663e-02
-2.694563e-02
-1.117617e-01
-2.736953e-02
5.615655e-02
3.363508e-02
1.981023e-02
1.506788e-02
1.108830e-02
9.534518e-02
2.728310e-02
-3.140439e-02
3.463759e-02
6.680516e-02
2.273356e-02
1.796167e-02
1.052671e-01
8.954555e-02
-3.292052e-02
7.708552e-02
8.543973e-02
5.333106e-02
-2.766219e-02
-6.867807e-02
7.594755e-02
2.624863e-02
-5.684600e-02
1.056277e-02
-4.050723e-04
-5.046067e-02
-1.489122e-02
2.119487e-02
-7.101917e-03
2.403820e-03
6.148925e-03
4.404851e-02
1.114286e-02
2.708778e-02
8.277513e-02
-7.822002e-02
-6.037041e-02
3.024489e-02
-5.747929e-02
-1.080263e-01
-5.697451e-02
-1.564973e-02
-8.763438e-02
-1.322989e-02
-4.580932e-02
-2.792371e-02
-3.663450e-02
6.048245e-03
6.725043e-04
-2.456969e-02
5.371689e-04
2.786731e-02
2.081913e-02
9.483644e-02
-7.402390e-03
-2.869032e-02
1.115139e-02
-3.318830e-02
1.611373e-02
1.005694e-02
-2.446614e-02
-1.586892e-02
-8.001121e-02
-6.875946e-02
-3.175403e-02
-8.368113e-02
-1.264342e-01
-9.456654e-02
-2.348384e-03
-6.223502e-02
-7.710611e-02
-6.345728e-02
-6.258106e-02
-4.873505e-02
-4.808363e-02
-3.875608e-02
-2.421306e-02
-2.077251e-02
-2.021904e-04
1.331728e-02
4.437006e-02
3.895666e-03
1.544793e-02
-4.141981e-02
-1.456699e-01
-1.161965e-01
5.049470e-02
-6.555193e-02
-8.404555e-02
6.326430e-02
-6.813622e-03
2.991451e-02
1.596423e-02
-3.781807e-02
1.387011e-02
1.163113e-02
-1.384348e-02
9.018091e-02
-1.286269e-02
-4.122359e-02
-3.114873e-02
6.793170e-03
-2.863296e-02
-2.052807e-02
3.779190e-02
3.153835e-02
1.688622e-02
4.420948e-02
-2.821265e-02
-3.995327e-02
-5.093821e-02
-8.218137e-02
-5.199903e-02
1.976725e-02
-2.797333e-02
7.083768e-02
-3.537793e-02
-4.415118e-02
-1.024150e-01
-3.212659e-02
1.261481e-03
-3.980466e-02
-2.575267e-02
-1.760719e-02
-6.694818e-02
-6.761450e-02
-5.257536e-02
-6.665939e-02
-6.639716e-02
-5.869436e-02
-5.060955e-02
2.825979e-03
-4.403230e-03
-2.109004e-02
-2.065436e-02
-8.284730e-02
1.206297e-02
-9.350318e-03
-5.378675e-02
1.988872e-01
4.715477e-02
-1.105983e-01
-1.263868e-02
-9.088426e-03
3.911971e-02
4.845613e-02
-9.024674e-02
-3.786999e-02
6.149977e-02
1.583241e-02
-5.113152e-02
-1.196251e-02
-2.926123e-02
6.347793e-02
-4.183358e-02
-1.129354e-02
7.223786e-02
-4.000087e-02
-1.392705e-01
-4.846502e-02
-1.520268e-01
7.990605e-03
5.950658e-02
9.326106e-02
6.258332e-02
2.524587e-02
-8.431817e-02
-6.235360e-02
-3.713279e-03
-5.309664e-02
-2.182483e-03
-2.505968e-02
-3.605276e-02
-2.629291e-02
-6.183777e-02
-1.079741e-01
-1.236205e-02
-4.416109e-02
-9.074879e-02
2.601611e-02
4.257894e-03
4.175418e-02
2.285430e-02
-1.039337e-02
-3.011355e-02
5.401048e-02
1.628106e-02
4.146687e-02
-4.597428e-02
-8.060324e-02
5.200254e-02
-8.296062e-02
-1.110405e-01
4.354501e-03
-1.377862e-02
-5.869830e-02
2.423546e-02
-7.458472e-02
-1.119598e-01
6.374566e-03
-9.597776e-02
-1.390807e-01
-3.369088e-03
-1.022080e-01
-1.070543e-01
9.084661e-02
2.077667e-03
-5.775118e-03
8.233931e-03
1.305696e-02
4.215438e-02
9.231292e-02
-3.911724e-02
-5.925124e-03
6.358093e-02
3.766006e-02
2.132955e-02
-5.214111e-02
6.972154e-02
2.831704e-02
-3.835966e-02
1.112180e-02
-5.628646e-02
-1.226652e-01
-1.088884e-01
1.819493e-01
-3.865755e-02
-6.715171e-02
2.440853e-01
6.736594e-02
-8.323956e-02
2.510309e-01
1.034301e-01
-7.793808e-03
-3.461906e-02
-8.057172e-03
1.707182e-02
-2.384225e-02
-2.203773e-02
-3.196279e-03
-5.410774e-02
-4.194660e-02
-7.192950e-02
1.956169e-02
5.646156e-03
-4.719451e-02
1.795888e-02
3.928979e-03
2.973168e-02
1.899993e-02
3.937580e-02
-1.011573e-01
-1.277434e-01
6.145135e-02
-1.057616e-01
-1.011396e-01
2.584673e-02
-1.042101e-01
-1.143349e-01
-1.933441e-02
1.848559e-02
-3.583009e-03
-9.001307e-02
-1.105035e-02
-1.920151e-02
-1.482978e-01
1.664705e-02
1.317039e-02
-1.068372e-01
1.908658e-02
1.551169e-02
-7.914584e-02
3.598469e-02
2.703703e-02
-4.238210e-02
3.632813e-02
2.094603e-02
-1.720448e-02
-1.236569e-03
-3.409263e-03
5.040273e-02
-3.493178e-02
-3.364258e-02
1.816784e-02
-2.510498e-02
-4.531598e-02
3.896605e-02
-1.226449e-01
-1.209105e-01
-1.298830e-02
-1.552283e-01
-1.261970e-01
-2.101642e-02
-1.341965e-01
-9.222452e-02
5.631459e-02
3.793440e-02
2.086757e-02
-3.564933e-02
5.484437e-02
5.055620e-02
2.940434e-03
4.924353e-02
4.842480e-02
-1.566264e-02
7.102815e-02
-1.048600e-01
-9.292439e-02
5.035551e-02
-1.335707e-01
-1.127189e-01
5.753462e-02
-1.085295e-01
-1.160329e-01
8.531086e-02
2.053223e-02
-9.538746e-02
1.388253e-01
8.881611e-02
-7.098391e-02
1.644765e-01
1.404549e-01
-5.903754e-02
-1.755616e-01
-1.870504e-01
-2.084680e-02
-1.564733e-01
-1.484334e-01
-2.291466e-02
-8.965360e-04
-5.738700e-03
8.801958e-02
-1.584441e-02
-3.051876e-03
5.855889e-03
-1.183955e-02
7.025759e-03
-1.023847e-02
6.540354e-02
2.091745e-02
5.377372e-02
3.297998e-02
-1.005669e-02
-3.563932e-02
9.608360e-02
-9.293465e-03
-1.001491e-02
-5.637481e-02
-3.029920e-02
-1.107899e-02
1.662523e-02
-4.657178e-02
-1.134919e-02
1.482195e-02
-1.106728e-02
-1.360302e-02
4.931580e-03
-1.510113e-02
-3.419909e-03
-1.934439e-02
8.682699e-03
-1.977253e-03
-2.720820e-02
4.541662e-02
-2.163936e-02
-1.946631e-02
1.740249e-03
-7.065016e-03
1.171022e-02
-9.159886e-02
-2.192755e-03
6.280382e-02
-4.696082e-02
8.006733e-02
-1.452294e-02
-1.209182e-01
4.488914e-02
8.973687e-03
-1.718425e-02
-3.551307e-02
2.452942e-02
-3.507601e-02
2.263559e-02
-4.280129e-03
-1.011111e-01
5.478899e-02
2.561632e-02
-3.685416e-02
5.341378e-02
1.622992e-02
-6.772107e-02
2.173353e-02
-7.941144e-03
-3.904687e-02
-1.298223e-02
2.868607e-04
-4.722136e-02
-1.890461e-03
5.737007e-03
-4.893976e-02
2.342233e-02
-3.971574e-02
5.026810e-04
4.842859e-03
-2.658230e-02
-7.249578e-02
2.783527e-03
-6.300113e-02
-1.299212e-01
7.397284e-02
-2.694200e-02
-2.473923e-02
6.496156e-02
-3.119085e-02
-1.642681e-02
-4.134919e-03
-4.033550e-03
-2.428750e-02
-2.313679e-02
2.076373e-02
-9.087280e-03
-1.625731e-02
5.173785e-02
-1.511933e-01
3.807368e-02
1.491090e-01
-1.556420e-01
2.214739e-01
-1.840089e-02
-1.074982e-01
6.399240e-02
-3.311284e-02
-1.282988e-02
5.342066e-02
-7.198990e-02
-1.192805e-01
-6.117207e-03
4.818072e-02
-5.720400e-02
1.534557e-03
-1.812130e-02
-1.511994e-02
-8.164206e-03
-4.564667e-02
-1.875147e-02
-2.460397e-02
3.957275e-03
5.040976e-02
2.593530e-02
-7.568011e-02
6.109226e-02
2.265066e-02
-2.230462e-01
4.242265e-01
-1.805356e-01
-1.034129e-01
2.486643e-01
-1.765344e-01
7.862473e-04
2.705552e-03
-1.888745e-02
-5.481048e-02
2.781280e-02
4.517545e-02
-4.191336e-03
5.815832e-02
4.887914e-02
-8.099886e-03
-9.903131e-02
1.895381e-02
-4.732446e-02
-2.720247e-02
2.303050e-02
-3.405035e-02
-1.991745e-02
9.215416e-03
-4.844484e-02
3.881320e-02
-5.507481e-02
5.055602e-02
-3.702749e-02
7.937604e-02
-5.401736e-02
3.013455e-02
-8.015492e-03
-2.576937e-02
-1.048205e-01
-4.548628e-02
-4.036651e-02
1.579621e-01
1.156923e-02
4.072605e-02
-1.007776e-01
2.822326e-03
-1.053464e-02
7.686182e-02
-3.148534e-02
-1.912347e-02
-8.728781e-02
-1.227667e-02
5.791961e-02
3.687478e-02
5.780551e-02
8.549981e-02
7.659252e-02
7.368854e-02
-2.879504e-03
-7.742012e-02
-4.585668e-02
5.744864e-02
1.817627e-02
-4.661790e-02
4.663865e-02
5.745045e-02
-7.410921e-03
-1.311770e-01
3.175559e-02
-1.308996e-01
1.881620e-02
2.683514e-02
9.121784e-02
-8.954002e-03
3.907024e-02
-8.362809e-02
-5.140151e-02
9.895506e-02
-8.915014e-02
1.193559e-02
1.033552e-01
-4.091147e-02
6.533194e-02
2.655666e-02
3.823136e-02
6.106703e-02
5.485990e-02
6.062879e-02
-3.239318e-02
-8.541592e-02
-1.069633e-01
2.326441e-02
-3.349249e-02
-2.690544e-02
-3.625299e-02
1.586889e-01
4.124272e-02
-2.635860e-02
1.559335e-02
8.812549e-03
-5.793722e-02
-1.168996e-01
1.207368e-02
6.369668e-02
8.617789e-02
6.460804e-02
-3.284379e-02
3.870628e-02
4.482534e-02
1.771169e-02
8.300756e-03
-3.545510e-03
3.364472e-02
-9.959943e-03
3.425042e-02
-2.639106e-02
6.536941e-02
2.758538e-02
-6.481053e-03
6.263990e-02
-1.190608e-01
-1.771118e-01
7.491221e-01
-1.716306e-01
-5.690520e-02
-1.978901e-01
3.911066e-02
-9.599257e-02
-1.603915e-01
-3.712097e-02
1.080434e-01
2.951672e-01
2.921269e-02
-7.499675e-02
-6.152895e-02
-4.992552e-03
4.854137e-02
-8.551647e-02
6.443893e-02
2.182276e-02
-2.206565e-01
5.154892e-02
9.660632e-02
-5.306749e-02
3.443117e-02
-1.593470e-01
1.594363e-01
2.448423e-02
9.956799e-02
-1.700241e-01
-6.692306e-02
-3.430956e-02
7.948519e-03
6.695155e-02
2.693461e-02
4.125373e-02
6.644191e-02
-3.795534e-02
1.228715e-02
-1.444754e-02
-7.546348e-02
-3.075305e-02
3.620048e-02
-2.725353e-02
5.705484e-02
-3.018451e-02
-5.670897e-03
7.270640e-02
-1.442017e-03
-1.241113e-02
-9.084780e-02
2.119878e-02
7.452406e-02
4.381822e-02
5.290251e-02
1.734543e-01
1.482005e-01
1.549901e-01
5.099612e-02
4.414864e-02
5.002494e-02
-1.752337e-02
-4.714007e-02
-9.364501e-02
9.200544e-03
-3.839549e-02
-9.817038e-02
-3.725347e-02
-3.171119e-02
-6.532656e-02
-1.958940e-02
-2.592199e-02
-5.477869e-02
-1.718336e-02
-2.152460e-02
-4.648668e-02
-4.669141e-02
-3.732779e-02
-5.001088e-02
1.068475e-02
2.806512e-02
8.307013e-03
-6.674778e-02
-5.278991e-02
-7.587726e-02
-3.838329e-02
-3.299520e-02
-4.562364e-02
3.351558e-02
-4.031479e-02
-6.678809e-02
1.269648e-01
7.623160e-02
5.344902e-02
6.503765e-02
2.257847e-02
1.130486e-02
-3.273754e-03
1.264508e-02
4.357547e-03
-5.402877e-03
1.577972e-02
-5.090483e-03
1.228341e-02
2.675881e-02
1.728670e-02
-5.981908e-02
-1.973659e-02
-8.988930e-03
-4.262736e-02
-1.402501e-02
-1.533922e-02
-1.900630e-02
7.227633e-03
-2.073742e-03
-6.449646e-02
-5.377613e-02
-3.620047e-02
3.695822e-02
2.280852e-02
2.194290e-03
2.181156e-02
-1.284509e-02
-3.438999e-02
8.485765e-02
7.218840e-02
7.192797e-02
1.458764e-01
1.348714e-01
1.398814e-01
2.563902e-02
-4.698887e-03
-3.814412e-03
9.615284e-03
1.469412e-02
1.045313e-02
6.639510e-02
5.488330e-02
3.836912e-02
-1.831070e-02
-2.657270e-02
-4.450761e-02
-2.939475e-02
-1.570138e-03
-1.275756e-02
-8.570272e-02
-5.572568e-02
-6.990326e-02
-9.019813e-02
-5.936881e-02
-6.135049e-02
-9.621956e-02
-3.765211e-02
-3.636808e-02
3.032987e-02
8.472081e-02
5.788589e-02
-3.116260e-02
-2.940018e-02
-7.464404e-02
-4.958984e-02
-3.491147e-02
-6.972316e-02
-5.015174e-04
7.965584e-03
-2.611166e-02
-8.369663e-04
3.845143e-03
-4.424481e-02
-3.238368e-02
-4.208198e-02
-4.455962e-02
6.622024e-03
-2.543339e-02
-4.627018e-02
-2.347627e-02
-4.367516e-02
-7.839124e-02
-2.998224e-02
-2.093372e-02
1.571303e-02
-9.658035e-02
-5.118237e-02
-1.149402e-02
-8.247390e-02
-5.216439e-02
-8.525874e-03
9.257844e-03
2.811180e-03
1.916137e-02
1.605210e-02
4.280837e-03
1.416494e-02
-6.956826e-02
-5.823902e-02
-4.265911e-02
8.764120e-03
-5.140727e-03
-1.350492e-02
3.291364e-02
1.621227e-02
-8.576789e-03
-1.093818e-03
1.321011e-02
-5.596859e-03
7.027373e-02
6.246184e-02
3.096886e-02
5.235657e-02
8.389626e-02
9.074283e-02
3.178521e-02
6.268266e-02
5.904384e-02
-6.606230e-02
-6.226378e-02
-8.577047e-02
-1.348591e-01
-9.640037e-02
-6.861880e-02
-1.809653e-01
-9.549084e-02
-3.312229e-02
-7.778238e-03
-1.230762e-02
-2.517636e-02
-3.527915e-02
-1.954002e-02
-6.705663e-03
-3.979368e-02
-1.046009e-02
1.121209e-02
-7.406904e-02
-1.638982e-01
-1.495806e-01
-1.320761e-01
-1.665141e-01
-8.223350e-02
-1.355493e-01
-1.021352e-01
-6.781300e-03
2.792396e-02
-3.585938e-02
-3.507764e-02
1.532836e-02
-3.786528e-02
-2.132374e-02
-4.000124e-02
-5.814583e-02
-3.869117e-02
-6.416854e-02
-4.298443e-03
5.325385e-02
-1.044921e-02
6.390667e-03
5.325451e-02
3.518494e-02
1.174434e-03
2.426338e-02
7.707950e-02
3.582524e-02
-8.881208e-03
1.009316e-01
4.890664e-02
-1.402114e-03
2.967786e-02
-2.923259e-02
-4.346762e-02
1.271394e-02
3.270872e-02
1.110573e-02
3.495263e-02
5.785505e-02
5.092759e-03
7.341064e-02
5.445150e-02
-7.045644e-03
3.256761e-02
2.039323e-02
2.943406e-04
-1.485257e-02
-3.073000e-02
-3.259163e-02
-5.381958e-02
-6.437618e-02
-4.330229e-02
-3.395320e-02
-1.705186e-02
6.730375e-04
-2.244801e-03
9.524574e-04
-1.176788e-02
2.773132e-03
-2.871530e-02
3.809498e-04
-7.153350e-02
-9.363135e-02
-1.098927e-01
-1.749811e-01
-1.723778e-01
-2.135645e-01
-1.238786e-01
-1.626144e-01
-1.610087e-01
-5.501617e-02
9.327078e-03
1.685918e-02
2.091553e-02
7.670115e-02
4.612100e-02
-3.140464e-02
1.721272e-02
-1.544397e-02
-1.907149e-03
1.214061e-02
-5.803491e-02
-5.391589e-03
-3.741265e-02
-6.129139e-02
-1.126300e-02
8.808577e-03
-7.349201e-03
-6.677993e-03
-3.802404e-02
-5.019386e-02
-4.449783e-02
-7.941478e-02
-7.292730e-02
-4.000140e-02
-6.460322e-02
-2.939596e-02
-2.860655e-02
-5.057515e-02
-6.549524e-02
1.974581e-03
-3.549035e-02
-3.159196e-02
1.172480e-02
-9.973832e-03
-2.274867e-02
-2.757101e-02
-2.675115e-02
2.397727e-02
1.909945e-02
1.209029e-02
3.684623e-02
1.807279e-02
-1.833262e-02
3.789798e-03
8.496508e-02
1.783730e-02
-7.379395e-02
7.659100e-02
-2.737972e-02
-8.986071e-02
6.926274e-02
4.848371e-02
1.600082e-02
9.007963e-03
-1.495838e-02
-8.344554e-03
-2.598185e-02
-3.577724e-02
-1.521704e-02
-6.720880e-02
-6.750154e-02
-1.815631e-02
-1.730518e-02
-4.225445e-02
-3.683439e-02
-1.490473e-02
-3.482484e-02
-2.872825e-02
7.804793e-04
-1.788405e-03
-3.824329e-03
1.798550e-02
-7.103735e-02
-1.110122e-02
-5.818925e-02
-1.436808e-01
-6.242615e-02
-2.263136e-02
-8.790993e-02
-3.151584e-03
8.990115e-02
6.684729e-02
1.273051e-03
9.185394e-02
4.337738e-02
-2.308889e-02
4.040971e-02
1.410811e-02
5.838986e-03
-1.116098e-02
-2.025315e-02
-2.122457e-02
-1.965729e-02
-5.868950e-02
-2.559726e-02
3.867169e-02
-2.507565e-02
4.970429e-03
2.516337e-02
8.740814e-03
1.574829e-03
5.997852e-02
1.418897e-02
5.413081e-02
1.802747e-02
-5.056870e-04
1.821240e-02
-7.959241e-02
-8.102585e-02
-9.210932e-02
-6.974601e-02
-6.732928e-02
-1.054838e-01
-3.335378e-02
-2.781961e-02
-5.471989e-02
3.508927e-02
-1.319585e-03
1.840637e-02
9.965165e-03
-1.536319e-02
8.335711e-03
-1.330799e-02
-2.794968e-02
6.100533e-03
-1.202785e-01
9.654729e-02
-5.006983e-02
3.917423e-02
5.497300e-02
5.075864e-02
-1.440830e-01
2.604968e-02
-8.210861e-02
3.620559e-02
3.985655e-02
6.769942e-02
-8.820122e-02
-1.234417e-01
-9.491312e-02
-6.170633e-02
-6.677660e-02
-3.458077e-02
-3.460708e-02
-4.931341e-02
-6.572121e-02
3.036730e-02
2.281377e-02
-3.681191e-02
1.402093e-02
-4.515311e-02
-6.340829e-02
1.058556e-01
9.564451e-03
3.137917e-02
6.213382e-02
4.048386e-03
1.882665e-02
6.792399e-02
-5.432782e-03
-5.347449e-02
-1.245860e-02
-4.720790e-02
-5.306833e-02
-9.418439e-02
-1.189094e-01
-1.283941e-01
-6.085805e-02
-7.896452e-02
-7.430675e-02
-5.418957e-02
-8.506934e-02
-6.733499e-02
-3.832382e-02
-5.257826e-02
-5.352647e-02
1.438632e-02
6.218484e-03
-3.533275e-03
