4.889580e-04
-1.068057e-01
3.032731e-05
-1.462455e-02
-1.563192e-01
-3.149400e-02
-8.263452e-02
-1.766987e-01
-1.190203e-01
-8.271448e-03
-5.494441e-02
6.931644e-02
-5.041784e-02
-7.545497e-02
3.728533e-02
-6.767057e-02
-2.450040e-02
1.393229e-02
-8.184388e-02
9.625658e-03
-1.048899e-02
-1.185072e-02
7.851861e-02
5.001340e-02
-2.428986e-02
3.848543e-02
3.315526e-03
-1.996355e-02
3.214117e-02
1.088650e-02
-1.032504e-02
2.764890e-02
-9.880244e-03
-7.158451e-02
-4.644356e-02
-6.470592e-02
-2.614564e-02
6.767188e-02
8.650699e-02
3.718666e-02
1.148930e-01
1.125315e-01
7.000455e-02
1.612744e-01
1.149904e-01
6.216703e-03
8.365772e-03
2.696954e-02
2.235638e-02
9.294383e-04
1.249867e-02
4.640842e-03
-1.614874e-02
-1.289145e-02
-1.284967e-01
3.573985e-02
1.505091e-01
-1.081782e-01
2.720102e-02
1.163137e-01
-1.832390e-02
4.168704e-02
1.030215e-01
1.880769e-02
-1.405846e-01
-1.124051e-01
3.388924e-02
-8.133653e-02
-7.942948e-02
1.026916e-01
-4.119340e-02
-6.387009e-02
6.076371e-02
9.003091e-02
-3.691042e-02
7.247797e-02
1.028996e-01
-3.056605e-02
8.827687e-02
5.096481e-02
-5.778887e-02
-1.313345e-02
7.321547e-02
-2.793153e-02
-3.133561e-02
7.016633e-02
-8.705372e-04
-3.551590e-02
4.002366e-02
-9.256533e-03
3.298235e-02
2.167804e-02
9.511955e-02
1.805741e-02
2.066914e-04
8.659070e-02
3.949254e-02
-3.101255e-02
1.448966e-02
-5.475050e-03
-4.450809e-03
-4.427041e-02
-1.030466e-02
-4.283045e-02
-3.902994e-02
1.327809e-02
-7.589410e-02
-4.249094e-02
-1.813113e-02
-6.795626e-03
1.986979e-02
-1.115020e-02
1.726389e-02
6.252543e-02
-1.035148e-02
2.854733e-02
6.580504e-02
6.022318e-02
-9.698387e-02
-1.091943e-01
5.253978e-02
-9.102794e-02
-1.854144e-01
-3.204049e-02
-7.578991e-02
-9.790267e-02
1.769779e-02
6.307171e-02
3.314102e-02
6.295763e-02
7.092579e-02
5.825443e-02
8.576744e-02
3.435060e-02
5.833962e-02
-9.601787e-02
-1.730467e-01
-1.234572e-01
2.364689e-02
-1.067382e-01
-1.279030e-01
9.850592e-02
1.417873e-02
-3.483571e-02
-4.158514e-03
3.517028e-02
2.574415e-02
-3.372800e-02
2.553358e-02
-6.219390e-02
-1.205233e-01
4.293253e-02
4.693015e-02
5.950619e-02
-3.568413e-02
3.287187e-02
1.559970e-02
-6.728665e-02
-1.964347e-03
-1.829298e-02
-6.294956e-02
4.889899e-02
-9.867813e-02
1.249894e-01
2.118186e-01
-1.486861e-01
-1.207803e-01
5.606059e-02
4.754239e-02
-1.880034e-01
-1.074978e-01
-7.328609e-02
-1.145381e-01
-7.601400e-02
-1.845014e-02
-1.610545e-01
-1.493267e-01
9.631843e-02
-1.066188e-01
-1.562547e-01
-8.574076e-02
5.584857e-03
5.810924e-03
-4.778376e-02
-7.603497e-02
-2.545328e-02
4.389790e-02
-1.058032e-01
-8.972440e-03
8.107039e-02
-5.499559e-03
-1.692877e-01
1.412308e-01
1.483898e-01
-5.144031e-02
1.049493e-01
1.982287e-01
8.125380e-02
-1.360969e-01
-2.386496e-01
3.109659e-02
8.736441e-02
-2.211965e-01
-2.947204e-01
2.035822e-01
4.962040e-02
-2.178112e-01
1.558241e-02
-9.004099e-03
8.197352e-02
9.127107e-03
-2.265305e-02
-4.603515e-02
6.906243e-03
3.416565e-03
-8.906186e-03
-1.072014e-01
-6.329542e-02
6.314318e-03
-1.107884e-01
-1.387020e-01
-1.296604e-01
-3.258864e-02
-1.113513e-01
-1.703748e-01
-1.110329e-01
-1.222399e-01
5.181282e-03
-8.762578e-02
-9.832540e-02
-8.667176e-02
5.292523e-02
3.236284e-02
-3.646763e-02
-9.890276e-02
2.088777e-02
-4.372042e-02
-3.799126e-02
1.016330e-02
-3.593246e-02
2.474268e-03
2.370516e-02
6.442599e-03
-1.528997e-02
9.063350e-02
1.251059e-01
-8.260465e-02
-2.027680e-02
-3.998558e-02
-1.085244e-02
-2.812784e-03
-1.080433e-01
-4.196338e-02
-2.587349e-02
-1.034754e-01
-5.940112e-03
6.017428e-02
-8.772121e-03
-3.933212e-02
5.418278e-02
-1.132453e-03
2.176658e-02
5.926709e-02
8.739163e-02
3.362808e-02
4.145610e-02
3.741468e-02
2.850353e-03
8.299579e-02
4.767687e-03
-9.199783e-03
3.658447e-02
8.863974e-02
3.445722e-02
2.678604e-02
-1.374855e-02
7.146081e-02
9.109246e-03
-8.112577e-02
-4.305394e-02
-2.212977e-02
-1.072465e-02
-4.009406e-02
-9.816144e-02
-7.403255e-02
-8.578384e-02
-5.411274e-02
-3.693046e-03
-1.669058e-02
-3.439558e-03
3.813909e-03
2.479653e-02
-1.849611e-02
-5.320986e-02
1.183264e-02
-7.622591e-02
-2.336407e-02
-3.830111e-02
-1.059422e-01
-9.327985e-02
-7.744785e-02
-1.646342e-01
-1.145052e-01
-1.372381e-01
-9.841224e-02
-7.813009e-02
-3.590855e-02
-2.571617e-02
-1.547934e-02
1.033978e-02
-1.876181e-02
-5.407602e-02
4.137031e-02
2.996757e-02
5.708431e-03
-4.024948e-02
6.429997e-04
-4.276898e-02
1.140622e-02
-1.685824e-02
-7.498319e-02
-6.888126e-03
-4.537743e-02
-3.703504e-02
-2.980362e-02
-7.299889e-02
-4.145811e-02
-6.322937e-02
-5.843300e-02
-6.123655e-02
1.269876e-02
1.580481e-02
-6.884963e-02
3.220364e-03
-1.028353e-02
-1.882722e-03
-3.816165e-02
-2.424082e-02
-2.925809e-02
-4.151065e-02
-6.718024e-02
-7.468090e-02
1.236608e-01
8.356730e-02
4.934844e-03
3.059300e-02
1.010370e-01
5.066172e-03
-3.027673e-03
6.185451e-02
-2.072152e-02
-1.281616e-01
-4.892886e-02
6.864680e-02
-6.742307e-02
-2.149799e-02
-2.021154e-03
-2.109383e-02
-5.787089e-02
-1.100793e-01
-1.327510e-03
-4.460308e-02
1.148100e-02
1.466175e-02
2.908558e-02
7.929917e-02
1.787117e-02
5.122642e-02
1.378322e-02
-1.685812e-02
1.920332e-03
2.831328e-02
3.673988e-02
3.504938e-02
3.352154e-02
3.910264e-02
2.316561e-02
1.351673e-02
3.799008e-02
3.359604e-02
4.291754e-03
2.936425e-02
1.185375e-02
-3.387905e-02
-7.964435e-02
-9.587816e-03
-8.379311e-02
5.877341e-02
2.401429e-02
7.436305e-03
3.074258e-02
-2.569124e-02
1.891429e-02
-9.027454e-02
-3.586269e-02
-2.781515e-02
3.709829e-02
4.402948e-02
1.788064e-02
9.626166e-03
1.684866e-02
3.484482e-02
7.593737e-03
2.496906e-02
5.621595e-02
-5.431649e-02
-4.430848e-02
-2.374104e-02
-4.166219e-02
3.018676e-02
-3.187188e-02
-2.506092e-02
-7.382292e-02
-7.794052e-02
-4.894826e-02
-4.958031e-02
8.973043e-03
-3.599797e-02
2.642559e-02
1.103850e-01
2.575879e-03
2.797363e-02
4.081845e-02
-3.824049e-02
-1.114955e-02
8.834290e-02
-9.550598e-02
-4.478670e-02
-1.668044e-02
1.713103e-02
-1.651281e-02
-4.481511e-02
1.604371e-02
-4.620366e-02
-3.314551e-02
2.524669e-02
9.641933e-02
-6.217320e-02
9.312445e-03
8.027581e-02
-1.020079e-02
-1.423109e-02
-3.183224e-03
6.534933e-02
4.429001e-02
-1.848176e-02
1.570399e-02
1.843041e-02
7.206592e-02
2.036333e-02
-3.914981e-02
7.041862e-02
1.017886e-01
-8.975831e-02
-6.077941e-02
1.410700e-02
1.862390e-02
-5.407220e-02
-5.639106e-02
3.025215e-02
7.925053e-04
3.081780e-03
-9.461443e-03
3.594777e-02
1.900133e-02
2.784679e-03
8.325010e-02
9.376809e-02
-8.530986e-02
2.674962e-02
7.805178e-02
-3.097695e-02
-3.581335e-02
8.801836e-02
1.478140e-01
-8.099345e-02
-3.223590e-02
5.819335e-03
2.223957e-02
-6.117897e-02
-5.506726e-02
5.376116e-02
1.083333e-02
-5.551918e-02
8.610087e-03
6.248906e-02
-7.810140e-02
-1.541446e-01
-1.965575e-02
1.586521e-01
-1.428333e-01
-1.183788e-01
1.815195e-01
3.656657e-02
-9.392747e-02
1.226451e-03
2.772932e-02
5.626049e-02
-2.517893e-02
-5.520836e-02
-6.571910e-02
4.505505e-02
3.050511e-02
-3.196998e-02
2.085204e-03
7.523845e-02
-1.273905e-02
-1.160002e-01
-4.007575e-02
4.114507e-02
-4.121963e-02
-1.475109e-01
-1.917029e-02
-1.488650e-02
6.790992e-03
2.108626e-02
1.616845e-03
2.008081e-02
3.326015e-02
5.535469e-02
6.883588e-02
2.660767e-02
-5.837135e-02
6.728721e-02
-4.640740e-02
-9.730145e-02
-8.263566e-02
1.397142e-01
1.802240e-01
-1.196594e-01
8.017176e-02
-8.256093e-02
1.281883e-01
-1.551832e-01
-1.534992e-01
7.912685e-02
-4.425721e-02
-5.114205e-02
-7.412159e-02
-2.165659e-02
7.089079e-02
8.821741e-02
8.995001e-02
4.337298e-03
1.593883e-02
1.662724e-02
4.269817e-02
6.740161e-03
2.651532e-03
1.027264e-02
-1.482513e-01
4.912990e-02
1.129092e-01
-9.662339e-02
-1.610353e-01
-3.838500e-02
1.305145e-01
-1.008427e-01
3.810199e-02
1.152161e-01
-5.052523e-03
-3.258952e-02
1.958018e-02
8.176280e-02
2.214809e-02
-8.604965e-03
1.073831e-01
6.799689e-03
4.250741e-02
-2.157299e-02
4.745254e-02
9.455603e-03
-2.227188e-02
-2.766695e-02
9.161000e-03
3.588980e-02
5.206327e-02
7.646497e-02
9.535874e-02
2.592981e-02
6.436297e-03
-5.612385e-02
-6.563388e-02
-4.794834e-02
-2.879602e-02
1.031635e-01
1.097745e-03
-2.552675e-02
5.599974e-02
5.549491e-03
4.696072e-02
4.835847e-02
1.444722e-02
7.544359e-02
6.056397e-02
-6.043575e-02
-2.458627e-02
-1.276249e-02
-1.414836e-01
-1.083043e-01
-4.108803e-02
-9.865352e-02
-5.561070e-02
6.634632e-02
-1.870752e-01
-1.788634e-01
-1.150175e-01
-3.156800e-01
-2.211373e-01
-1.585290e-01
-2.326925e-01
-8.811876e-02
-3.812788e-02
-4.338735e-02
-7.548727e-02
-8.408526e-02
-6.786717e-02
-4.316652e-02
-3.936453e-02
-6.298817e-02
4.451441e-02
5.411629e-02
8.233795e-02
-1.948801e-02
9.462559e-02
1.298676e-01
2.306278e-02
5.374508e-02
7.919756e-02
-5.954694e-03
1.617692e-01
5.665855e-03
-1.875856e-01
2.488745e-02
-2.253713e-01
-2.294454e-01
-6.922596e-02
-2.909712e-01
-1.277493e-01
-8.616398e-03
8.592034e-02
2.963410e-02
5.657177e-02
-3.694866e-02
-3.091660e-02
-3.214644e-02
-8.035053e-02
-3.828532e-02
-4.543261e-02
-3.758457e-02
-8.367374e-02
-8.120297e-02
-6.595756e-02
-1.337188e-01
-2.398914e-02
6.422338e-04
-7.742066e-02
-3.086338e-02
-1.663587e-01
-1.640691e-01
-1.118627e-01
-1.686119e-01
-7.627887e-02
-7.742717e-02
-1.999372e-02
1.206873e-01
-1.095857e-01
-2.794037e-02
-3.229701e-02
-9.771417e-02
-6.879888e-02
3.549578e-02
-8.265955e-02
-5.472483e-02
-5.506466e-02
-9.979299e-02
-1.766821e-02
5.827144e-02
-9.468837e-02
1.298467e-02
5.454417e-02
6.236072e-02
9.609478e-02
5.171816e-02
-1.495100e-01
-1.390145e-02
-1.646243e-02
-5.610837e-02
8.319458e-02
4.485125e-03
-7.814830e-02
2.106412e-03
-9.653202e-02
-2.991854e-02
7.721074e-03
8.993337e-02
2.108278e-02
6.814440e-02
7.265314e-02
7.579172e-02
1.070839e-01
1.726457e-01
6.468923e-02
1.075679e-01
1.562018e-02
7.698845e-02
1.147202e-02
-6.318063e-02
4.566922e-02
-3.626004e-02
-4.451903e-02
-3.292623e-02
-1.162635e-01
-1.478359e-01
2.441608e-04
-1.381225e-01
-1.300700e-01
-1.764110e-02
-1.810160e-02
1.116432e-01
-1.296475e-01
-3.093318e-02
1.241055e-01
-2.650886e-02
-3.568703e-02
-7.123926e-03
-2.070775e-02
-7.255423e-02
4.457856e-03
2.028142e-02
-2.065376e-02
-6.899701e-02
-6.600911e-02
-6.044876e-02
-1.540904e-01
2.068893e-02
-4.908616e-02
-4.092279e-02
-8.108370e-02
1.560444e-02
8.945090e-02
-5.891469e-02
3.685404e-02
5.074157e-02
-1.115725e-02
9.212380e-02
3.865856e-02
6.731053e-02
2.381911e-02
-3.394265e-02
2.204249e-02
-2.060620e-02
-8.130415e-02
-2.761777e-02
-5.775144e-02
-1.167559e-01
-4.772660e-02
-4.807586e-02
-2.834851e-02
-6.855931e-02
-6.710901e-03
-7.250505e-03
-4.152292e-02
3.506441e-02
6.837436e-02
3.634712e-02
-2.487989e-02
7.520155e-03
3.661511e-02
-3.316233e-02
-1.162387e-02
-1.185018e-02
-5.454452e-02
-1.325483e-02
1.211405e-01
8.482757e-02
-2.414715e-02
1.513830e-01
-9.096959e-04
-6.530516e-02
1.316908e-01
-4.936360e-02
-1.010655e-01
-6.187939e-02
-1.748720e-02
-4.219786e-02
-3.914180e-02
-6.018518e-03
1.068111e-01
-5.358735e-02
-5.055435e-02
-2.497211e-02
-6.047276e-02
-1.513479e-02
4.083963e-02
2.229332e-02
7.448930e-02
8.347137e-02
5.675597e-02
9.626026e-02
1.167191e-01
-4.747799e-02
-5.821567e-02
-2.340296e-02
-5.476409e-02
-3.348224e-02
-1.525889e-02
-5.955072e-02
-4.619094e-02
-1.582560e-02
1.113270e-02
-3.473462e-03
1.685880e-02
-2.612630e-02
-6.406077e-02
-2.265945e-02
-5.422744e-02
-3.441800e-02
4.356043e-02
-7.430016e-02
-1.383630e-01
-4.470482e-02
-1.360788e-01
-1.151954e-01
2.142433e-02
-2.621531e-02
-1.744729e-02
7.424890e-02
2.356381e-03
-6.022256e-02
-7.178175e-02
-1.638711e-02
-9.165075e-02
-7.231781e-02
-5.242006e-02
-5.734805e-02
-9.487157e-03
2.813397e-02
-7.501034e-03
-7.114935e-02
3.415703e-02
-3.300175e-02
2.673230e-02
-6.523387e-03
-3.360220e-02
-1.160382e-02
-4.240133e-02
-1.613705e-02
3.245475e-02
-8.042261e-03
3.467174e-03
1.754363e-02
-2.564292e-02
-2.899745e-02
-1.816471e-02
-9.319637e-02
-2.534964e-02
1.046572e-01
2.928432e-02
4.837914e-02
1.487501e-01
1.078613e-02
-1.038207e-02
-4.310489e-02
6.917641e-02
1.741592e-02
-7.327314e-03
-2.192497e-03
6.098972e-02
4.603786e-02
2.864347e-02
7.614001e-03
-5.782737e-03
-1.116166e-01
-3.788646e-02
-8.209877e-02
-2.015052e-02
-4.263050e-02
-4.432951e-02
-6.928698e-02
-1.053011e-01
1.052230e-02
-4.411776e-02
4.626060e-03
4.622854e-02
-6.054442e-02
-1.039070e-02
4.018715e-02
-2.729215e-02
-2.500697e-02
-1.940523e-02
-6.743313e-02
1.463092e-02
5.494693e-02
-6.288818e-02
1.901731e-02
5.087531e-02
-2.285051e-02
-1.463674e-02
-1.601765e-03
2.341471e-02
-5.212549e-02
-5.244491e-02
5.767389e-02
-1.084632e-02
-5.509458e-02
-6.498199e-02
-1.906916e-02
-1.695508e-02
-3.418224e-02
-3.403691e-02
-6.663764e-02
-1.737104e-02
-3.276490e-02
-3.540219e-02
-4.539108e-02
-2.829216e-02
-2.609533e-02
-7.281659e-04
-5.130760e-02
-5.150224e-02
5.722011e-02
3.726509e-02
-1.023771e-02
5.456500e-03
7.166804e-02
1.664258e-02
2.099188e-02
-2.425236e-02
-1.400532e-02
-6.653441e-03
-4.044651e-02
-8.879251e-02
-3.674861e-02
-6.812279e-03
3.717816e-03
3.039599e-02
-1.776885e-02
-8.081654e-02
6.442471e-02
-5.670216e-02
-1.264580e-01
5.751752e-02
1.631742e-02
-6.552230e-02
2.112516e-02
7.844526e-03
1.504926e-03
-1.196395e-03
-2.839557e-02
-4.415671e-02
-2.387996e-02
-3.552692e-02
-3.399640e-02
6.079054e-03
-1.676054e-02
1.545586e-02
6.989196e-02
-8.893227e-03
-2.373745e-02
-4.020193e-02
6.023166e-03
-1.518168e-02
-6.773292e-02
-8.654355e-02
-3.516787e-02
-2.676709e-02
-8.995230e-02
-9.397297e-02
-2.423541e-02
-2.964115e-03
-3.664936e-02
4.829564e-02
8.386821e-02
6.108585e-02
4.200042e-02
8.594397e-02
7.499297e-02
2.748275e-02
4.993585e-02
4.305942e-02
-1.997846e-02
-1.230041e-02
-6.313125e-02
-9.527527e-02
3.548418e-02
-6.225268e-03
6.738995e-03
1.831296e-02
-1.078935e-01
2.831911e-02
-1.272469e-01
-1.490197e-01
7.191513e-02
-1.064206e-01
-1.085687e-01
6.555238e-02
-1.140239e-03
-7.272662e-02
-3.535496e-03
-2.202204e-02
-6.086921e-02
-2.490046e-02
-2.330102e-02
3.701561e-04
6.850146e-02
6.062765e-02
3.052609e-02
-6.162071e-03
4.893221e-02
1.501507e-01
-1.009162e-01
8.930764e-03
1.164285e-01
-7.814017e-02
-4.156865e-02
6.850824e-02
5.542124e-02
1.391137e-02
-4.900432e-02
8.727942e-02
5.240005e-02
1.789057e-02
2.463580e-02
8.308408e-02
5.221727e-02
1.491912e-01
7.992567e-05
-1.391974e-01
1.457785e-01
9.566521e-02
-2.343627e-02
8.678020e-02
6.046071e-02
-3.085537e-02
-7.671735e-02
-1.354489e-02
3.589873e-02
-6.723361e-02
3.311632e-03
1.304808e-01
-1.061229e-01
-3.247331e-02
9.382803e-02
-1.509353e-02
-6.102905e-02
-7.263722e-02
3.529575e-02
-5.766088e-03
-6.170049e-02
4.330369e-02
3.612089e-03
-1.047899e-01
6.534915e-02
4.133205e-02
7.567235e-02
2.119889e-02
2.172934e-02
4.304735e-02
2.384606e-02
6.629657e-03
5.257574e-02
3.496421e-02
9.508813e-03
-6.955784e-02
4.796833e-02
6.226244e-02
-6.130520e-02
4.766682e-02
7.003929e-02
-7.432294e-03
5.505095e-02
2.480259e-02
7.034127e-03
-6.134290e-02
-6.820460e-02
1.985647e-02
-1.666872e-01
-1.017468e-01
5.396255e-02
-1.370609e-01
-1.161215e-01
-4.524769e-02
-1.640636e-01
-1.875885e-01
-1.495843e-01
-8.637223e-02
-1.708376e-01
-1.408396e-01
-3.822830e-02
-8.022071e-02
-5.484932e-02
2.588373e-02
-8.977535e-02
-6.987535e-02
3.900126e-02
-7.108364e-02
-2.192004e-02
9.210339e-02
-3.189525e-02
-2.089484e-02
9.012293e-02
-5.331487e-03
-5.516916e-02
8.808503e-02
1.012934e-03
6.328162e-03
-4.156577e-02
-1.421374e-01
-1.284374e-01
-4.560572e-02
-4.461727e-02
-3.529581e-02
-3.486308e-02
-4.492674e-03
6.750739e-03
2.323408e-02
7.168923e-03
-2.913383e-02
6.380101e-02
4.323445e-02
2.985393e-02
8.889379e-02
6.155944e-02
5.237733e-02
-3.576529e-02
9.483892e-02
7.032534e-02
-1.934962e-01
-3.907422e-02
1.746325e-01
-1.176642e-01
-4.425474e-02
6.944373e-02
-1.282071e-01
-1.826044e-02
-1.326481e-02
-2.562851e-01
-4.716839e-02
-2.627710e-02
-2.627442e-01
-5.378188e-02
-4.619326e-02
5.420662e-05
-1.755602e-02
2.318465e-02
-1.248144e-01
-4.696760e-02
7.411944e-02
-1.846676e-02
-4.190858e-02
-2.111816e-02
7.173539e-03
8.976743e-02
4.831284e-02
-5.915236e-02
5.909390e-03
1.124585e-01
5.641564e-02
-1.155267e-02
6.738988e-02
1.048394e-01
3.696850e-02
-2.225046e-02
2.973236e-03
5.270042e-02
1.057390e-01
-8.159275e-02
-5.052672e-03
2.064509e-01
-8.410847e-03
-1.046380e-02
-7.231537e-02
1.954783e-02
5.319435e-02
-8.078317e-02
1.757497e-02
3.798528e-02
-6.582779e-02
-2.112159e-02
7.784045e-02
1.138972e-01
-6.291393e-02
-1.331778e-02
1.169237e-01
-4.493459e-02
-3.682312e-02
4.985511e-02
7.238115e-02
-7.606310e-02
-6.594383e-02
-1.549169e-02
1.225753e-01
-1.116138e-01
-1.471591e-01
2.003575e-01
-5.163673e-02
-3.816894e-02
-5.646378e-02
1.148338e-01
-1.881676e-03
-6.518073e-02
4.104002e-02
-5.537861e-03
-6.151728e-02
-1.377821e-02
3.216114e-02
1.787662e-01
-1.961138e-02
-1.398095e-01
2.585694e-01
3.986795e-02
-2.486205e-01
1.316260e-01
8.792608e-02
4.197413e-02
6.599644e-03
2.593520e-02
1.672584e-02
4.991043e-02
-5.689811e-02
-5.330410e-02
-3.590646e-02
8.871718e-02
9.268868e-02
-9.624845e-02
-8.113292e-02
2.151882e-01
-4.781823e-02
-2.017928e-01
1.352552e-01
2.190823e-03
-2.087627e-01
-5.642217e-02
-6.366855e-02
-4.599899e-02
-4.624938e-02
-9.606194e-03
-4.045571e-02
-4.548773e-02
1.782459e-02
-6.352068e-03
9.542108e-02
-6.575224e-02
-3.624227e-02
4.992421e-02
9.350798e-02
-2.026272e-01
-1.666611e-01
1.820992e-01
-1.003999e-01
-4.080477e-02
-1.758476e-01
-7.889435e-02
1.430443e-01
-1.000702e-01
-1.203956e-01
-5.014817e-02
-7.818595e-05
-2.263159e-01
6.841632e-02
1.075265e-01
8.916926e-02
7.549819e-02
7.157403e-02
5.138024e-02
6.671982e-02
6.324825e-02
2.851944e-02
-1.625115e-01
1.084423e-01
-5.979133e-02
-2.557591e-01
-8.524685e-02
2.817650e-01
-3.348655e-02
-2.061787e-01
1.019050e-01
-5.395851e-02
-9.098028e-02
3.355391e-02
1.021640e-01
7.813033e-02
-2.886978e-02
1.117294e-01
1.495015e-01
-9.717102e-02
-2.253217e-02
-2.810395e-02
2.316741e-02
-6.620805e-03
3.725885e-02
7.041006e-02
-8.856746e-03
-3.666186e-03
-1.712394e-02
-6.113801e-02
5.176972e-02
9.114422e-02
-3.432657e-02
-1.046945e-02
2.089601e-02
-7.495774e-02
-3.377397e-02
1.170004e-02
1.444764e-02
-8.737561e-02
-1.426363e-01
5.399174e-02
-5.840607e-02
-6.698108e-02
1.356760e-02
-5.248090e-02
-6.756237e-02
-2.083340e-02
-4.683696e-03
2.246450e-02
-4.087754e-02
-1.161369e-02
2.781778e-02
-1.843569e-02
-4.060843e-02
-2.743297e-02
-8.690496e-02
8.321356e-03
3.225376e-02
-5.210669e-02
3.778224e-02
6.651447e-02
-3.380513e-03
4.488857e-02
4.118793e-02
-3.469425e-02
-9.599156e-02
-5.976116e-02
-4.546398e-02
-7.668018e-02
-4.362913e-02
-4.178432e-02
-4.313115e-02
-5.701158e-02
2.419828e-03
-1.388341e-02
-2.596761e-02
9.544185e-03
9.043099e-03
5.784364e-03
-5.598313e-03
3.608503e-02
2.386060e-02
6.885795e-02
5.042087e-02
1.596362e-02
8.236005e-02
3.604920e-02
-1.592142e-02
3.669841e-02
1.309062e-02
-3.972450e-02
-1.951499e-02
4.101912e-02
4.514329e-02
-1.238108e-01
-7.786393e-02
-1.895832e-02
-6.195917e-02
-1.115444e-01
-3.382790e-02
-4.629883e-02
-9.933362e-02
-7.545663e-02
-6.502584e-02
-9.255815e-02
-7.325249e-02
-3.834372e-02
-4.275754e-02
-4.385744e-02
-2.078295e-03
-3.099211e-03
-2.570421e-02
-1.595372e-02
-2.110685e-03
-1.631967e-02
-2.381246e-04
1.309962e-02
-1.010403e-02
1.682441e-02
-1.468730e-02
1.678422e-02
-4.032752e-02
-1.440301e-02
3.667352e-02
-2.614093e-02
-2.945043e-02
-9.560927e-03
4.899240e-02
8.892305e-02
7.527306e-02
-3.077042e-02
8.648995e-03
3.933733e-02
3.313642e-02
-8.546207e-04
1.271302e-02
6.370409e-03
-1.059026e-02
-6.930812e-02
3.352811e-02
5.179931e-02
3.011290e-03
1.982210e-02
2.758578e-02
5.978125e-03
-5.410488e-02
1.000874e-03
-1.747675e-02
3.707363e-02
2.166440e-02
-3.231486e-02
5.560546e-02
-2.577290e-02
-2.220974e-02
-3.683132e-02
-6.498877e-02
-6.128072e-02
-7.439642e-02
-5.064440e-02
-6.199968e-02
-6.027731e-02
-1.247035e-02
-3.513215e-02
-6.147797e-02
-3.236192e-02
-5.264505e-02
-3.953169e-02
-7.741898e-02
-7.035575e-02
-5.911670e-02
-1.116036e-01
-4.040190e-02
-3.153937e-02
-3.903888e-02
1.892471e-02
-1.088605e-02
-4.694865e-02
2.442824e-02
-2.355441e-02
-1.819140e-02
1.180871e-02
3.772489e-02
4.166509e-02
4.959827e-02
-1.814718e-02
-2.372527e-02
4.286408e-02
-8.238088e-03
-1.173071e-02
5.750611e-02
1.220488e-01
-7.164246e-02
-2.094257e-01
1.588833e-01
7.513513e-02
-1.041883e-01
2.316758e-02
1.363570e-01
1.201851e-02
-3.805754e-02
-3.413631e-02
-3.503797e-03
-1.305084e-02
-2.421502e-02
-2.189724e-02
-8.868274e-03
1.942210e-02
1.370738e-02
1.989473e-02
2.008257e-02
-4.798022e-02
-8.293860e-02
-1.115589e-02
2.084068e-02
-8.476651e-02
-9.147722e-02
3.544298e-02
-6.558172e-02
-7.718641e-02
-6.738584e-03
-3.823368e-02
-8.190975e-02
-1.011547e-02
-7.189438e-04
-5.660221e-02
-4.129920e-02
-9.151626e-02
2.089493e-01
2.101656e-01
-2.453688e-01
-7.927268e-03
2.107633e-01
-1.724619e-01
-1.812215e-01
6.499454e-02
-1.451285e-03
4.376692e-02
6.862570e-02
-5.522120e-02
-4.434193e-02
1.138046e-01
-4.688710e-02
-4.659484e-02
6.190491e-02
5.485031e-02
-1.366227e-02
-7.192083e-02
5.481901e-02
5.810115e-02
-2.719592e-02
2.291448e-02
4.985786e-02
6.216867e-02
-3.901515e-02
-1.326550e-02
-1.282637e-03
-3.104369e-02
-1.213358e-02
2.117584e-02
-5.400297e-02
-4.404494e-02
2.169598e-03
-3.295935e-02
-3.981242e-03
-2.627746e-02
3.975777e-04
3.268047e-02
2.600068e-02
1.506179e-02
-2.355205e-03
2.800630e-02
-5.714574e-02
-5.925296e-02
-4.651366e-02
-2.276215e-02
2.806474e-02
-6.333153e-02
-2.613143e-02
5.741695e-03
-6.774213e-02
-1.281922e-02
-3.506605e-02
-3.697652e-02
4.227268e-02
1.267443e-02
-1.532407e-02
7.006317e-02
3.897214e-02
-3.247611e-03
3.847120e-02
5.878714e-02
1.229332e-02
7.699888e-02
3.057965e-02
3.489896e-02
2.898111e-02
-1.801853e-02
2.276629e-02
2.479878e-02
-5.150012e-02
-5.961691e-02
4.098317e-02
2.700898e-02
3.268589e-03
-2.510329e-02
3.780008e-02
5.956932e-02
-4.946952e-02
2.049964e-02
1.421229e-02
-6.453907e-02
2.197554e-03
3.029017e-03
-6.663974e-02
-1.899761e-02
-4.287369e-02
-5.313650e-02
-4.562693e-02
-3.997852e-02
-1.072283e-01
-2.248256e-03
6.542218e-02
-5.165297e-02
-2.814522e-02
-1.484502e-02
8.016176e-02
2.494952e-02
-9.242182e-03
-2.689018e-02
-2.449058e-02
3.011144e-02
-7.157669e-02
-1.521863e-02
9.358091e-02
-1.699265e-01
2.026475e-01
2.888899e-01
-3.059492e-01
-5.061916e-02
2.145200e-01
-1.463461e-01
-2.057743e-01
-4.382506e-02
1.025907e-03
3.190946e-02
4.406836e-02
3.376610e-03
-2.249262e-02
1.525856e-02
1.952876e-02
-4.095617e-02
-4.299610e-02
4.630312e-02
1.003298e-01
-1.615086e-02
2.976627e-02
9.672344e-02
6.191735e-03
-6.175140e-02
4.739097e-02
1.014627e-01
2.562066e-02
-2.089293e-02
-1.037372e-02
3.218793e-02
3.865561e-02
1.215999e-02
3.039264e-02
4.062040e-02
3.455813e-02
-5.466194e-02
-2.116658e-01
-1.059133e-01
1.606561e-01
-1.842564e-02
-1.727993e-01
1.673322e-01
1.889765e-01
-7.534364e-02
1.023955e-02
3.550098e-02
3.846339e-02
-2.308144e-02
3.342529e-02
4.721888e-02
-1.084449e-01
-1.627326e-02
1.057257e-01
-2.310155e-02
-7.072936e-02
1.695432e-02
5.482422e-02
-5.931987e-02
-6.766376e-02
1.239425e-01
6.504188e-03
-7.897819e-02
-5.334367e-02
-7.908060e-02
-5.189295e-02
7.634454e-03
-6.298644e-03
-4.982377e-02
3.730648e-02
7.752592e-02
-2.706987e-02
5.937410e-02
1.795371e-02
1.220956e-02
1.772290e-02
9.213311e-02
-4.451421e-03
-4.274115e-02
1.935995e-02
4.539009e-02
-1.417293e-02
-1.153841e-02
-6.334672e-02
6.748518e-02
4.987541e-02
-2.008006e-03
1.780259e-02
-2.632640e-03
-9.451469e-02
-6.112971e-03
-4.803734e-02
-4.797078e-02
1.701146e-02
-2.331897e-02
-3.832232e-02
4.313175e-02
1.649613e-02
-1.657837e-02
-8.889069e-02
6.529741e-03
1.975363e-02
-6.014965e-02
-1.186028e-01
-6.395315e-02
5.156951e-02
-1.032705e-01
-1.551228e-01
-4.590798e-02
-8.523630e-02
-2.877412e-02
6.998421e-02
-5.409490e-02
-8.796261e-03
1.678388e-01
4.496279e-02
-3.300066e-02
-3.930914e-02
5.055957e-02
1.206061e-01
-1.071780e-01
9.145236e-03
1.008664e-01
-9.081089e-02
-6.321047e-02
-2.315833e-02
4.665859e-02
-4.735083e-02
-6.230440e-02
4.159540e-02
-3.140153e-02
-1.028636e-01
1.169014e-02
-3.358474e-02
-7.186511e-02
1.180132e-02
-2.945435e-02
-5.110645e-03
5.706924e-03
-7.136947e-03
5.039479e-02
2.517832e-02
8.476456e-02
1.142065e-01
9.289847e-02
3.689998e-02
-9.044967e-03
9.295449e-02
3.306857e-02
-1.952427e-02
1.720168e-03
1.629630e-02
3.898638e-03
-4.868348e-02
-2.370753e-02
4.008238e-02
-7.436187e-02
-4.539555e-02
3.285558e-03
-6.733614e-02
-5.812869e-02
-2.295393e-03
-2.188532e-03
-2.033939e-02
-1.630114e-02
1.580853e-02
-1.793985e-02
-2.933546e-02
3.615582e-02
-4.188251e-03
-6.476809e-02
4.183822e-02
7.440148e-02
7.903511e-02
4.015652e-03
3.666612e-02
4.086335e-02
-1.294536e-02
5.429043e-04
2.433975e-02
6.415461e-02
7.117058e-02
-1.610945e-02
5.454198e-03
4.104063e-02
1.724824e-02
-4.387529e-02
1.210249e-02
3.343552e-02
3.999031e-02
3.653530e-02
2.298656e-02
1.033512e-01
3.000062e-02
1.551126e-02
7.977615e-02
-1.831172e-02
-7.167450e-02
-7.940717e-02
-6.438623e-02
-5.068304e-02
-6.849404e-02
-6.956701e-02
-3.985664e-02
-1.278249e-02
-5.415884e-02
-5.529676e-02
-6.111044e-02
-4.850194e-02
-3.954017e-02
-1.030319e-02
-3.658701e-02
-1.264788e-02
1.490470e-02
-2.880494e-02
-3.283256e-02
-4.246848e-02
4.251140e-02
7.641335e-03
-7.060446e-03
1.463823e-02
4.882836e-02
4.558488e-02
4.209339e-02
-4.187418e-02
1.864691e-02
7.735453e-04
-1.110269e-01
-2.334990e-03
-3.767439e-02
-9.739462e-02
3.540952e-02
-8.116748e-02
-1.036234e-01
1.316161e-02
2.713015e-02
-6.820244e-03
3.053284e-03
3.013278e-02
1.217526e-02
-3.489579e-03
9.478966e-03
3.547420e-03
5.151772e-02
5.264640e-02
6.825361e-02
6.437502e-02
6.409995e-02
3.499008e-02
7.350856e-03
-4.527457e-02
-3.617065e-02
-4.297724e-02
-3.166084e-02
-1.582340e-02
-8.602567e-02
-3.115070e-02
2.719865e-02
-1.308102e-02
-2.863667e-02
1.506360e-02
5.501999e-02
-1.156487e-02
3.364671e-02
9.231623e-02
2.966534e-02
1.828986e-02
1.007779e-01
1.215023e-02
-6.506063e-02
-2.832888e-02
-5.455519e-02
-4.150169e-02
-7.187511e-02
2.710608e-03
1.161711e-02
-4.731177e-02
-5.205666e-02
-1.048859e-02
1.026302e-01
1.613179e-02
-6.100697e-02
1.493401e-01
1.270141e-02
-7.065434e-02
1.137073e-01
2.560350e-02
-1.784274e-02
2.374256e-02
2.375145e-02
-1.930885e-02
1.713664e-02
2.511333e-02
-3.669623e-02
-1.213323e-02
-6.113735e-03
-7.905854e-02
-3.962320e-02
2.558618e-02
-8.348709e-03
-4.109345e-02
7.973216e-02
4.037481e-02
-5.542545e-02
6.750292e-02
4.164466e-02
-7.661916e-02
-7.678562e-02
-4.404791e-02
-3.679504e-02
-1.124629e-01
-1.347446e-01
1.158230e-02
-7.872637e-02
-8.875768e-02
-1.700890e-02
-3.636789e-02
-4.079941e-02
-5.618371e-03
-8.809700e-03
-7.628526e-03
-9.930712e-03
1.768782e-02
7.512502e-03
-1.812428e-02
3.451998e-02
3.273873e-02
1.062621e-02
-3.650647e-02
-5.139096e-02
-4.106486e-02
-8.542109e-02
-7.645898e-02
1.543759e-02
5.292918e-02
8.475432e-02
1.316695e-02
-4.932503e-02
-3.985541e-02
-3.405843e-02
-6.184545e-02
-1.628856e-02
-1.439824e-02
2.496851e-02
8.276403e-02
-2.453119e-02
-5.122831e-03
1.042555e-01
1.121700e-02
2.116856e-02
7.773865e-02
-5.906883e-02
-4.882893e-02
-6.712448e-02
-4.893472e-02
-2.856389e-02
-2.816818e-02
-9.294027e-03
4.424057e-02
3.451020e-02
-6.899492e-02
-2.218309e-02
-3.038962e-02
-6.732325e-02
-6.605045e-03
-1.991140e-02
-2.391259e-02
-1.819183e-02
-2.985368e-03
-7.623322e-02
5.459866e-03
1.350622e-02
-1.261355e-01
-1.195887e-01
-6.346624e-02
-6.782459e-02
-1.156782e-01
-8.879566e-02
-8.819408e-03
-4.644822e-03
-2.471297e-02
7.911441e-03
7.526522e-03
-2.421514e-02
-1.790639e-02
-1.844849e-02
-7.560686e-02
2.479075e-02
-2.660123e-02
1.048062e-02
5.413799e-02
3.236933e-02
5.330434e-02
5.232573e-02
-3.820692e-02
-4.085281e-02
-7.464611e-02
-6.425674e-02
-3.560503e-02
-9.871171e-02
-1.080365e-01
1.530869e-03
-5.626225e-02
-7.946475e-02
-3.728114e-02
3.517235e-02
8.269365e-03
3.753892e-02
-1.201991e-02
-6.126108e-03
1.630900e-02
-5.640218e-02
-8.604962e-02
-6.583914e-02
2.374225e-02
-2.216600e-02
-7.499863e-02
2.508117e-02
-2.926178e-03
-1.569586e-02
2.104867e-02
-3.455978e-02
-7.316361e-02
-3.456359e-02
-7.283081e-03
1.643209e-02
5.353668e-02
7.454625e-02
1.163312e-01
-2.852280e-03
6.097686e-02
9.174366e-02
2.313851e-02
-2.216537e-02
-1.115585e-01
-6.528876e-02
-1.062013e-01
-1.416427e-01
-1.171201e-01
-1.285501e-01
-1.059836e-01
-7.295529e-03
-5.554394e-02
-8.446896e-02
-4.743715e-02
-7.656877e-02
-8.362444e-02
-4.420234e-02
-4.326507e-02
-3.024096e-02
1.105078e-02
8.388010e-03
-1.247382e-02
-4.945772e-02
-4.773833e-02
-2.994659e-02
-1.178443e-01
-6.415117e-02
-6.503619e-02
1.423700e-02
1.913926e-02
3.166674e-02
4.984574e-02
4.833788e-02
2.498481e-02
5.698951e-02
2.651248e-02
-3.103488e-02
-6.581990e-02
-2.453104e-02
7.676150e-03
-3.047045e-02
4.504301e-04
3.919680e-02
-6.922027e-02
-2.688320e-02
2.180871e-02
4.921355e-02
7.046958e-03
-4.816527e-02
1.020887e-01
-2.915025e-02
-5.759242e-02
-3.559639e-02
-4.840265e-02
-2.030917e-02
1.803495e-02
5.372660e-03
-2.474202e-02
2.383629e-02
-1.989709e-02
-5.987375e-02
-7.619901e-02
-3.368119e-02
-4.613861e-02
-7.920791e-03
9.917074e-03
9.594044e-03
-3.954915e-02
-3.235308e-02
-5.349617e-02
-3.411638e-02
-4.665195e-02
-4.587310e-02
-5.407371e-02
9.174312e-03
2.529925e-02
7.952011e-02
4.494776e-03
-4.301910e-02
-5.965666e-02
-8.771302e-03
-6.717250e-03
-7.307275e-03
1.629107e-02
7.075896e-02
1.494411e-02
-2.597964e-02
-1.670632e-02
-2.469126e-02
-7.723431e-02
-5.133697e-02
-7.652581e-02
-3.971123e-02
-5.974746e-02
-5.120574e-02
-1.358081e-02
-2.490796e-02
-5.638172e-02
-2.352037e-02
-5.336545e-02
-9.611025e-04
2.793451e-03
-4.167937e-02
-7.612909e-02
1.899863e-02
-2.159924e-02
-5.438049e-02
2.809098e-02
-7.498585e-02
1.014687e-01
4.850413e-02
5.182286e-02
8.462274e-02
5.479152e-03
-1.917716e-02
-2.397332e-02
-2.499758e-02
-5.517814e-02
4.629926e-02
-2.674652e-03
-8.094719e-02
-1.148375e-02
-7.742818e-02
-7.412682e-02
-8.018298e-02
-3.899682e-02
-5.606537e-02
1.843783e-03
4.002211e-04
5.764884e-04
-1.905140e-03
-3.986412e-04
3.625237e-04
-7.540879e-05
-4.506381e-03
5.172139e-04
-3.700993e-03
-2.698265e-03
-2.662335e-03
-1.550896e-03
-6.884360e-04
2.277879e-04
5.289553e-04
-1.758404e-04
1.417125e-03
1.635846e-03
-3.570772e-03
2.181433e-03
-3.745833e-03
-1.219392e-03
-1.767329e-03
1.832632e-03
3.009006e-03
-1.301197e-03
-5.710614e-04
-1.012817e-03
-1.505780e-03
3.362582e-04
9.566330e-04
-6.958342e-04
2.997110e-04
1.870040e-03
-1.813835e-03
2.398669e-03
2.861251e-04
-2.360458e-03
6.405656e-05
-1.657102e-03
2.310809e-03
-1.400656e-03
-1.722561e-03
2.380094e-04
-5.020284e-03
-3.699479e-03
-1.641182e-03
-1.201141e-03
2.092088e-03
8.286539e-04
1.240113e-04
1.289757e-03
2.057972e-03
-1.084372e-03
1.411697e-03
-1.531921e-03
-3.340697e-03
1.208458e-03
-1.506093e-03
-3.135623e-04
4.343925e-05
2.780246e-03
-1.049640e-03
-2.067522e-03
1.538018e-03
-2.379501e-04
-1.724270e-03
-6.696825e-04
-2.912113e-03
-1.705927e-04
2.738308e-04
3.587662e-04
7.425193e-04
2.558666e-03
6.913890e-04
-1.268265e-03
1.945803e-03
1.965791e-03
-2.493080e-03
-1.031700e-04
1.807833e-03
3.332609e-03
-1.035008e-03
1.045142e-04
-4.337839e-05
7.992094e-04
-6.283357e-04
2.153286e-04
-4.239310e-04
-3.213502e-03
-3.466280e-03
1.517752e-03
2.170554e-03
-4.828637e-04
-1.055683e-03
-1.513404e-03
-5.027387e-04
2.202139e-03
-7.753095e-04
-1.454344e-03
-3.023152e-05
2.356416e-03
3.668017e-04
2.813393e-03
-1.991307e-03
8.417625e-04
2.604117e-03
-9.127123e-05
2.850732e-03
-2.122368e-03
-2.023340e-03
2.387738e-03
4.690077e-03
2.401451e-04
1.404087e-03
1.060519e-03
-1.542584e-03
3.562241e-04
-1.919720e-03
1.555898e-03
2.438035e-03
6.102549e-04
2.108578e-04
-4.619471e-03
2.637757e-03
4.168217e-03
1.294983e-04
8.247995e-05
-1.763817e-03
-4.326824e-04
-2.261494e-03
-1.683094e-03
-1.644277e-04
-1.747433e-03
4.948961e-04
-1.310874e-03
4.076220e-04
7.196420e-05
4.455636e-04
4.506067e-04
-2.181178e-04
2.997004e-03
3.455213e-05
