3.444327e-03
8.081471e-03
1.430715e-02
2.019800e-03
-6.333214e-03
-5.035653e-04
-8.222133e-03
-1.954695e-02
-7.463593e-03
-1.695436e-02
4.557170e-02
1.140783e-02
-3.191292e-02
6.911454e-02
-7.227270e-02
-8.952036e-03
4.698795e-02
-1.883905e-02
-2.118165e-02
2.139368e-02
4.808985e-04
-1.857506e-02
1.922609e-02
-4.975504e-03
-1.530437e-02
2.634084e-02
-2.424537e-03
-7.475002e-03
-6.666856e-03
-9.457813e-03
2.508780e-03
-9.214426e-03
-6.701622e-03
-1.386698e-02
-1.626696e-02
-1.571484e-02
4.702830e-03
2.430020e-03
-7.848790e-04
1.007621e-02
6.272918e-04
-2.910755e-03
1.358064e-02
9.652598e-03
7.707734e-03
-5.062837e-03
-3.403479e-03
-1.655736e-02
-8.565487e-03
-4.910117e-03
-1.968161e-02
-8.803154e-03
-1.502731e-02
-3.173477e-02
3.404557e-02
2.129273e-02
1.305527e-02
2.341046e-02
1.155310e-03
-4.988399e-03
1.787356e-03
-2.050740e-02
-2.257876e-02
-4.034676e-03
6.422717e-03
8.908464e-03
1.092913e-02
-1.063027e-02
4.096092e-03
-8.432179e-03
2.372329e-02
-1.265219e-04
3.110707e-03
1.438699e-02
1.237326e-02
2.411015e-04
1.160733e-03
1.541599e-04
-1.565146e-04
5.214268e-03
-6.411606e-03
-7.987798e-03
2.425104e-03
1.156375e-02
7.034279e-03
1.073320e-02
-1.358546e-02
-2.847906e-03
1.080237e-02
8.279870e-03
6.681520e-03
-1.481348e-02
4.121106e-02
-1.117613e-03
-3.933041e-02
5.200372e-02
-1.076849e-02
-4.359584e-02
5.511544e-02
-1.523067e-02
3.033659e-02
-3.317228e-03
-4.606890e-02
6.358732e-02
-3.008025e-02
-5.993086e-02
7.887268e-02
-3.547369e-02
-2.497041e-02
-6.754444e-02
-1.657715e-02
2.007488e-02
4.409827e-02
9.935313e-03
3.647698e-02
-5.511207e-02
1.323054e-01
-1.000068e-02
-9.142551e-03
-1.289237e-02
-4.443760e-03
1.958797e-03
-5.137424e-03
-7.040521e-03
-1.129402e-02
-1.719375e-02
3.834818e-04
1.483572e-02
2.274712e-02
-3.455387e-03
1.187177e-02
1.515350e-02
-8.112179e-03
1.188595e-03
7.594998e-03
-3.915711e-03
-3.148227e-03
6.067310e-03
-1.232290e-02
-1.582862e-02
-1.856962e-03
-1.296851e-02
-1.006602e-02
-9.179055e-03
5.014378e-02
2.218956e-03
-3.231857e-03
4.540274e-03
7.343811e-03
2.116748e-02
-1.243504e-02
1.396001e-02
5.004990e-02
1.045766e-01
-8.575995e-02
4.979420e-02
-3.937491e-03
-7.550548e-02
2.789575e-03
4.345815e-02
-1.505492e-01
6.721442e-02
-5.597906e-02
4.549293e-03
-1.313969e-02
1.420287e-02
-1.025901e-02
-3.186452e-03
-1.458405e-02
-1.229516e-02
-2.748505e-02
-1.449854e-02
-1.807429e-02
-2.547088e-02
-3.146086e-03
-8.406455e-03
-1.029885e-02
-2.030495e-03
-4.702008e-03
-1.576563e-03
-8.437788e-02
-1.590088e-01
-7.743261e-02
-1.539032e-01
-2.280472e-01
-1.399163e-01
-8.855508e-02
-1.611102e-01
-7.546796e-02
7.343401e-03
-1.104781e-02
3.167685e-03
-4.942738e-03
1.500642e-02
3.579189e-02
3.654796e-02
5.277980e-02
6.175920e-02
3.979285e-02
-7.888722e-05
4.127867e-02
-3.558590e-03
-4.696552e-02
1.594234e-03
-1.246443e-02
-1.740178e-02
2.146484e-02
-1.019221e-02
-4.369982e-02
-3.008694e-02
3.423559e-02
1.357845e-02
1.084872e-02
1.482971e-02
-1.553284e-02
1.056830e-01
-3.956653e-02
-1.332600e-01
-8.564752e-02
-7.295278e-02
-1.582840e-01
-8.697817e-02
-4.340918e-02
-1.012167e-01
-2.241320e-02
-1.974879e-02
-4.624232e-02
1.526073e-02
-6.083712e-02
-1.695462e-02
1.678505e-02
2.532439e-03
-5.869011e-04
2.018691e-02
-9.896415e-03
3.963721e-02
1.204887e-02
9.322713e-03
4.033316e-02
3.700634e-02
-4.286059e-02
1.333671e-02
2.550623e-02
4.546120e-03
5.330452e-03
8.091210e-03
1.697414e-02
9.792124e-02
-6.125547e-02
3.313788e-02
7.645997e-02
6.339261e-04
3.964637e-02
9.388639e-02
-8.553685e-02
-4.040919e-02
-1.698994e-01
1.120475e-01
3.912237e-03
1.235512e-01
-5.700938e-02
2.091184e-02
-7.162635e-03
1.440622e-04
-5.871138e-02
-7.666516e-02
-5.708241e-02
5.002650e-03
-1.451042e-02
1.050144e-02
7.015764e-02
6.312355e-02
2.749421e-02
7.551873e-02
5.959735e-02
6.199902e-02
4.732890e-02
3.684962e-02
2.986724e-02
-3.144667e-02
2.583952e-02
5.789611e-02
-1.662807e-02
2.990756e-02
8.793818e-03
-3.075575e-02
-2.950238e-02
5.834809e-03
-1.779954e-02
-3.965542e-02
-1.384339e-02
-2.710698e-02
-4.390014e-02
-1.818687e-02
-1.269761e-03
-1.350870e-02
7.851517e-03
-4.644740e-02
8.238142e-04
-7.224868e-04
-4.182118e-02
5.846541e-02
-1.354141e-02
3.129706e-02
4.286813e-02
5.637734e-02
-4.461322e-02
-3.845643e-02
-5.418506e-03
-5.146014e-02
-1.227511e-02
-3.254601e-02
-4.226027e-02
-1.770411e-02
-2.547003e-04
-1.899464e-02
-1.513115e-02
-5.118878e-03
-9.449397e-03
4.225974e-03
3.118783e-03
2.108442e-02
2.833532e-02
2.655031e-02
-2.349760e-03
1.250772e-02
3.845686e-02
1.183155e-02
1.100890e-02
2.308015e-02
-1.288817e-02
-3.386630e-03
6.369289e-03
2.192304e-02
1.533027e-02
-4.341342e-03
3.404340e-03
-1.135701e-02
-2.643834e-02
-2.750010e-03
-1.661335e-02
-3.396022e-02
5.918111e-03
1.553690e-02
2.670961e-02
2.066593e-02
2.693384e-02
2.398199e-02
1.089772e-02
2.589597e-02
2.724315e-02
-4.662608e-02
-2.399719e-02
-1.202997e-02
-1.624095e-02
-8.945541e-03
5.908001e-03
-6.745209e-03
3.664163e-03
-5.412276e-03
-3.432774e-03
1.702573e-03
2.971054e-03
5.912068e-03
1.961499e-02
1.232022e-02
-1.840642e-03
1.604521e-02
1.188121e-02
1.602178e-02
6.842286e-03
-1.976252e-02
2.371671e-02
6.165015e-03
-7.348367e-03
-2.576982e-02
-2.163280e-02
-1.443132e-02
-2.652454e-02
-8.044113e-02
-6.218821e-02
-5.091612e-02
-8.408850e-02
-5.343958e-02
-2.328682e-02
-5.646419e-02
-2.568614e-02
-1.311387e-02
1.327468e-03
5.028654e-02
-2.928716e-02
2.982637e-02
3.540340e-02
-3.256329e-02
3.008522e-02
2.616246e-02
-3.437107e-03
-8.395144e-03
-7.935903e-02
6.096182e-02
8.653148e-02
8.116641e-02
-5.520601e-02
-7.555026e-02
-3.116220e-02
9.904640e-05
-1.444875e-02
-2.471537e-02
2.401374e-02
7.705247e-03
-5.156744e-03
-2.999567e-02
-4.670412e-02
-5.654543e-02
-1.135949e-02
-1.606977e-02
-1.213286e-03
-1.829449e-02
-3.013600e-02
-1.457204e-02
-2.546751e-02
-3.008306e-02
-7.636184e-03
-2.272551e-02
-2.700945e-02
-2.992479e-02
-1.835026e-03
-1.043442e-02
-7.287535e-03
-1.987814e-03
2.284804e-03
2.373325e-02
-6.234812e-03
1.470142e-02
4.531403e-03
1.180037e-02
2.641162e-02
1.004918e-02
7.666825e-03
9.026791e-03
-9.877590e-03
8.311202e-03
3.070760e-02
-1.813938e-03
1.567309e-02
8.484758e-03
5.316717e-03
-3.347863e-02
-1.118881e-03
-1.716301e-02
3.997196e-03
-5.350756e-02
9.690512e-04
2.411563e-02
-4.736654e-02
-7.272553e-03
2.161824e-02
-2.368986e-02
-1.670271e-02
-1.311298e-02
-1.181029e-02
-8.117842e-04
-1.019835e-02
-9.743575e-03
6.621868e-03
-4.011068e-03
2.817022e-03
1.538729e-02
-3.115822e-02
-8.731720e-03
8.296423e-03
-5.051910e-03
8.077857e-03
1.399120e-02
-7.486603e-04
7.325565e-03
-9.933844e-04
-4.892065e-03
-1.562771e-03
-1.288374e-02
-2.259887e-02
-2.903031e-02
-2.378707e-02
-2.660753e-02
-2.939023e-02
-1.983507e-02
-2.883943e-03
6.956387e-03
-1.448289e-03
-6.695084e-03
-6.631731e-03
-5.873840e-03
1.160221e-02
2.047389e-02
1.817766e-02
1.572813e-02
3.031325e-02
-1.895531e-02
1.518387e-02
4.506223e-03
-1.938893e-02
1.171279e-02
4.382467e-02
-2.873202e-02
-2.478556e-02
-4.584756e-03
-1.714222e-02
4.101386e-03
1.507249e-02
-6.678156e-05
2.066717e-03
1.500368e-02
-5.540049e-03
-2.018028e-02
-1.769128e-03
-2.705214e-03
1.222336e-02
-1.348894e-03
-2.142888e-03
5.774145e-04
8.850287e-03
9.442573e-03
-1.818758e-02
3.457126e-02
-2.569529e-03
-2.411213e-02
3.599419e-02
1.169246e-03
-1.693955e-02
3.850516e-02
6.263310e-03
4.943904e-03
-1.481238e-02
-1.675584e-03
2.376549e-02
-2.560856e-02
2.502049e-02
2.086096e-02
-5.320820e-03
3.926514e-02
6.735547e-03
-4.597109e-03
1.684792e-02
-2.714637e-02
8.141802e-02
3.029595e-03
-1.522594e-02
-5.653456e-02
-9.465651e-03
-2.489473e-02
-2.425894e-02
-2.958963e-02
-6.770893e-02
-7.032111e-02
-7.018661e-02
-8.126181e-02
-8.298500e-02
-7.820849e-02
-1.630380e-02
-4.293180e-03
1.425717e-03
-1.277005e-02
6.269062e-03
8.552698e-03
7.412679e-03
1.173892e-02
1.437761e-02
3.926282e-03
6.184603e-03
2.808325e-03
5.819721e-03
-1.389255e-03
6.868680e-03
1.763901e-02
2.759775e-02
9.919163e-03
4.689510e-02
-2.776669e-02
-1.501822e-02
8.422441e-02
3.916254e-02
2.869703e-02
8.375668e-02
5.015638e-02
4.349858e-02
-2.131455e-01
1.995528e-01
-3.025661e-01
-1.456530e-02
3.933327e-01
6.404511e-02
-1.941468e-01
1.560602e-01
-1.812516e-01
2.745517e-02
1.671688e-01
-4.254733e-03
1.048654e-01
1.707939e-01
1.850200e-02
5.339238e-02
1.286346e-01
-2.077114e-02
1.738947e-02
-6.048454e-02
-5.176094e-02
1.769077e-02
-3.723100e-02
-3.183493e-02
2.970507e-02
-4.041324e-02
-1.959941e-02
-3.555379e-02
-9.283786e-02
-6.073736e-02
-1.148511e-02
-9.655624e-02
-6.017184e-02
1.586459e-02
-7.486809e-02
-5.978988e-02
-5.518779e-02
-1.012727e-01
-7.728473e-02
-2.638861e-02
-1.042679e-02
7.809747e-03
3.441669e-02
4.559802e-02
2.559988e-02
-9.888794e-02
-1.327579e-01
2.197935e-02
-1.595021e-01
-2.232802e-01
-7.705203e-02
-1.110774e-01
-1.934443e-01
-9.020602e-02
1.536666e-02
2.373998e-02
-1.314643e-01
8.806428e-02
-1.527139e-02
-9.351009e-02
2.116913e-02
9.903388e-02
-7.048789e-02
-2.726543e-02
2.715018e-02
3.626816e-02
-2.329895e-02
3.367316e-02
8.198733e-02
-5.677816e-05
2.996124e-02
1.006538e-01
-4.944035e-02
-3.832896e-02
-5.727794e-03
-3.724625e-02
3.859206e-03
1.184832e-02
-4.369698e-02
-1.293236e-02
2.836899e-02
-3.815384e-02
-8.940824e-03
1.615968e-01
1.321820e-01
1.222655e-01
3.073522e-01
1.010888e-01
8.028059e-02
2.696077e-01
-5.996374e-02
1.040078e-01
6.349225e-03
9.754367e-03
1.312414e-01
-1.955511e-02
4.023000e-02
2.012662e-01
4.252531e-02
-2.731280e-02
2.883727e-02
-8.118060e-02
6.720155e-02
-1.286277e-01
1.654819e-01
2.238409e-02
-1.083130e-01
2.335946e-02
8.644826e-02
7.892887e-02
5.552950e-02
2.464525e-02
-8.053649e-04
1.692368e-02
6.515250e-02
5.811174e-02
7.880341e-02
1.705785e-02
-3.300046e-02
1.075620e-03
-5.084271e-02
-9.436704e-02
-4.968759e-02
-5.437339e-03
-6.920684e-02
-1.955292e-02
-5.744320e-02
-6.085586e-02
-2.113672e-03
-4.792599e-02
-5.384117e-02
2.079963e-02
-5.702719e-02
-2.735120e-02
-1.874885e-02
-6.351871e-02
-3.323328e-02
9.288483e-03
-6.485581e-02
-2.937843e-02
1.636300e-02
-6.071579e-02
-2.897198e-02
2.731461e-02
-3.752168e-02
-2.254554e-03
-4.738087e-02
4.831492e-02
-9.708809e-03
5.555675e-02
-1.050347e-02
-1.703199e-02
8.108811e-03
-4.995896e-03
6.844739e-03
-6.487668e-02
-8.639537e-03
-2.932959e-02
-1.024268e-01
6.889473e-04
-5.924880e-02
-1.096731e-01
-2.960129e-02
-3.770069e-02
-3.311744e-02
-1.699007e-02
-2.224120e-02
-2.562506e-02
-4.372727e-03
-9.833767e-03
-2.322614e-02
-2.003710e-03
6.861977e-03
1.190589e-02
-1.978676e-02
-7.189559e-03
2.145368e-02
-2.498943e-02
7.379564e-03
5.013317e-02
-1.295904e-03
-3.588445e-02
-1.045674e-02
4.601298e-03
-1.930083e-02
-3.275877e-03
3.079198e-02
2.289380e-02
1.103898e-02
-3.672299e-02
-5.546042e-03
2.014187e-02
-7.668766e-02
-4.264041e-02
5.130698e-03
-3.572700e-02
-7.757362e-03
3.096688e-02
2.318087e-02
-2.734877e-02
-4.205685e-02
7.687669e-02
-3.703125e-02
3.573367e-02
5.488640e-02
1.031996e-02
7.219688e-02
-2.303459e-02
6.355065e-03
1.988499e-02
-5.969686e-02
-2.356134e-02
3.744611e-02
-7.656661e-02
-4.836491e-02
2.354096e-02
-6.268854e-02
3.317019e-02
-7.232466e-03
-1.143484e-02
1.705187e-02
1.430141e-03
-1.910908e-02
1.159920e-02
1.541325e-02
-3.434366e-02
-1.461636e-02
3.108855e-03
-1.158882e-02
-7.845693e-03
6.377016e-03
2.211009e-03
8.682554e-03
1.363010e-02
-1.969830e-03
8.287332e-02
-1.164285e-02
3.363835e-02
4.807824e-02
-3.031847e-02
5.735898e-02
2.203725e-02
9.920349e-03
-3.098558e-03
-1.507563e-01
3.281008e-02
2.615575e-03
-4.327484e-02
-2.443071e-02
1.667652e-02
4.633970e-03
4.984590e-03
5.242356e-02
4.630868e-02
5.425087e-02
4.587755e-02
4.218283e-02
5.185623e-02
1.475537e-02
2.114927e-02
3.588784e-02
-4.535334e-02
-2.488270e-02
1.367549e-02
-6.385490e-02
-1.541150e-02
3.574232e-02
-4.298702e-02
7.403253e-03
5.034002e-02
-1.280655e-02
3.105898e-03
8.193028e-03
-2.777979e-02
-4.084489e-02
-1.306812e-02
-1.182882e-02
-1.698782e-02
1.309080e-02
-2.331411e-02
4.992987e-04
1.154527e-02
-1.264582e-02
1.908575e-02
1.288339e-02
-1.962027e-02
8.798506e-03
7.628906e-03
1.632498e-02
-5.625248e-02
4.557895e-02
4.862412e-02
-4.356169e-02
-1.459928e-03
5.472035e-02
3.150256e-03
-2.077929e-02
2.868428e-02
-1.507212e-02
-3.004966e-02
4.741779e-02
-1.889256e-02
-4.232696e-02
2.618775e-02
-9.030730e-03
-4.882420e-02
9.139934e-03
4.659649e-03
-1.157706e-03
-5.820326e-03
4.669213e-04
4.960750e-03
-6.604200e-03
-1.333649e-02
4.119313e-03
-1.146650e-02
-1.213670e-02
-2.157251e-03
8.804137e-04
8.735312e-03
1.631236e-02
-6.963704e-03
4.685111e-03
1.160958e-02
-1.590849e-02
-1.377400e-02
-1.564713e-03
-3.635741e-04
-1.701793e-02
2.914156e-03
1.302890e-02
1.051258e-02
3.279670e-02
-1.846709e-02
9.170580e-03
1.101725e-02
-2.071797e-02
2.415311e-02
1.463353e-02
-7.422521e-03
1.729090e-02
1.227759e-02
2.377817e-02
4.955437e-03
-4.358293e-02
9.007053e-03
-1.987840e-02
-1.380804e-02
-1.069781e-02
1.295680e-03
-3.172141e-02
1.774904e-02
1.503825e-02
1.760254e-02
2.154496e-02
1.793310e-02
1.725695e-02
8.618058e-03
9.330901e-03
4.995502e-03
-2.202036e-02
7.225901e-03
-1.911456e-04
-2.152503e-03
-4.425273e-03
-7.910581e-03
1.225767e-02
2.411695e-02
-1.125488e-02
-4.920640e-02
3.300957e-02
7.144358e-03
-4.794463e-02
4.557764e-02
6.312125e-03
-4.983042e-02
3.619394e-02
5.359136e-03
1.866730e-02
-1.951422e-02
-2.455220e-02
5.414455e-02
-3.710038e-02
-1.588281e-02
8.242022e-02
-2.471980e-02
-8.801820e-03
-4.823438e-02
-5.813132e-03
2.172923e-02
1.306528e-02
6.467954e-03
-5.260607e-02
-5.466899e-02
5.025575e-02
-2.020909e-03
-3.387912e-02
-3.921112e-02
-2.511290e-02
-3.212756e-02
-3.384618e-02
-2.520964e-02
-2.624562e-02
-2.115276e-02
-2.645020e-03
2.180028e-03
9.191431e-03
-2.662321e-03
1.564402e-02
2.416069e-02
5.088911e-03
9.734273e-03
2.154359e-03
-2.701428e-02
1.639189e-02
2.505613e-02
9.774799e-03
4.843567e-03
8.371620e-03
-4.850498e-05
3.464192e-03
4.995641e-03
-5.642575e-03
1.930892e-02
-1.871103e-02
-2.795076e-02
-2.061930e-02
-3.873499e-02
-1.917871e-03
1.556031e-02
3.392008e-03
4.826678e-02
6.895582e-02
-5.884552e-02
9.781642e-02
-1.113221e-01
5.105763e-02
-7.893679e-02
4.571239e-02
-3.398034e-02
7.982322e-02
1.456241e-02
-1.570686e-02
-2.198269e-03
2.283115e-02
3.127905e-02
1.294437e-02
-4.149468e-02
-1.605856e-02
-7.006077e-03
-3.138507e-02
5.635052e-03
-1.793883e-03
1.081891e-02
3.688002e-02
3.232671e-02
3.430616e-02
6.180359e-02
5.549312e-02
6.792080e-02
1.826748e-02
2.386490e-02
-1.248784e-02
-4.821633e-02
-4.194698e-02
3.072784e-02
7.446658e-03
2.461869e-02
4.013085e-02
1.861096e-02
-7.473989e-03
-3.121102e-03
-1.465077e-02
-4.286775e-03
-4.258931e-02
-3.686963e-02
-7.938283e-03
6.254898e-02
3.739277e-02
2.361093e-02
4.490083e-02
3.801230e-02
4.235054e-02
-4.206039e-03
1.396378e-02
2.511203e-02
3.813395e-02
-2.734451e-02
-4.839956e-02
1.710234e-02
2.392083e-02
7.485402e-03
-2.113227e-02
-3.290493e-02
1.127531e-02
6.982484e-02
2.653757e-02
3.105081e-02
-1.949969e-02
-4.453306e-02
-2.318191e-02
-1.538755e-02
-2.714828e-02
-1.290645e-03
-1.165724e-02
1.080556e-02
-5.460950e-02
-6.921665e-03
-1.541235e-02
-2.082365e-02
-3.667467e-02
-4.606260e-02
-6.870504e-02
3.662110e-02
-4.887579e-02
-7.478087e-02
-6.116564e-03
-7.943649e-02
-7.631794e-02
3.801343e-03
-3.564768e-02
-3.361205e-02
3.021681e-02
-7.386975e-03
4.917946e-02
1.838918e-02
6.952760e-02
6.816379e-02
1.930534e-02
4.380570e-02
5.650166e-02
5.568131e-02
1.449483e-01
7.374403e-02
-1.179355e-02
-1.937329e-01
1.279354e-02
5.677826e-02
2.728201e-02
4.418815e-03
3.242876e-02
4.061877e-02
4.585212e-02
1.663771e-02
2.142395e-02
3.034328e-02
7.344113e-03
1.174850e-02
1.198278e-02
1.594786e-02
3.566344e-02
4.354994e-02
2.598224e-02
3.207831e-02
5.959937e-02
2.527765e-02
5.542309e-02
7.025389e-02
3.024270e-02
-8.811779e-03
-6.619936e-03
-5.419487e-04
-1.228197e-02
-3.881318e-02
2.005948e-02
-1.548100e-02
-1.496668e-02
-5.058998e-02
-5.045263e-02
-9.667707e-04
-4.702495e-02
-3.647603e-02
2.840008e-02
-2.197723e-02
-1.416579e-02
4.794289e-02
-9.268469e-02
1.143000e-02
3.634766e-02
-6.609146e-03
-8.542972e-02
5.412718e-02
8.392426e-02
-1.149543e-01
1.238256e-01
2.217337e-03
-3.785609e-02
-1.078855e-01
-9.397919e-02
-1.390406e-01
-1.292955e-01
-6.423225e-02
-1.744474e-01
-1.016668e-01
6.304511e-02
6.256319e-02
3.476556e-02
5.431513e-02
5.178471e-02
1.726439e-02
-6.673587e-03
-3.834014e-02
-2.409740e-02
3.822048e-02
-5.800412e-03
-5.590421e-02
-1.297917e-02
8.279465e-03
-3.240640e-02
-9.728688e-03
1.404247e-02
2.541415e-02
7.711858e-02
8.116645e-02
6.733855e-02
9.480370e-02
9.248310e-02
8.861115e-02
6.136918e-02
7.383560e-02
3.402013e-02
-4.378089e-02
-4.133277e-03
-2.760906e-02
5.502716e-02
1.328259e-01
1.235150e-01
2.415617e-02
1.206239e-01
1.217450e-01
8.009851e-02
1.267362e-02
2.871179e-02
3.786594e-02
7.051031e-02
3.447952e-02
8.684863e-02
-6.083217e-02
1.650806e-02
2.505349e-02
1.297607e-03
-5.307510e-02
1.869516e-02
-7.465156e-03
-4.437489e-02
2.173562e-04
-2.602523e-04
1.609764e-02
7.767134e-03
-2.027903e-02
1.699831e-02
-2.297802e-02
-2.934708e-02
3.039484e-02
3.987440e-02
2.245755e-02
2.257467e-02
-3.487590e-02
-5.183104e-02
-2.441891e-02
-5.543208e-02
-8.816211e-02
-6.306928e-02
-9.346515e-02
-1.238379e-01
-9.751290e-02
-2.053934e-02
6.013051e-02
1.803559e-02
-1.008195e-01
3.978639e-02
-4.612310e-02
-1.138363e-01
-3.539773e-02
-1.671118e-01
-1.196279e-01
2.798259e-02
7.483394e-02
8.315190e-02
-1.759276e-01
-8.442231e-02
4.824857e-02
1.175622e-01
6.925145e-02
4.137430e-02
2.517674e-02
1.174829e-02
1.855990e-02
2.075139e-02
1.882071e-02
7.117417e-02
8.445200e-02
1.047422e-01
-4.625791e-02
9.203060e-03
5.292985e-02
6.605950e-03
5.215931e-02
1.075693e-01
-4.509528e-03
3.639632e-02
4.400248e-02
-7.465865e-02
-3.886805e-02
-1.360984e-02
-6.699808e-02
-4.385292e-02
-3.559778e-02
-3.919587e-02
-4.405851e-02
-2.273316e-02
1.380015e-02
1.780144e-02
7.454206e-03
6.484694e-02
5.354539e-02
3.998540e-02
6.092077e-02
4.968382e-02
3.642033e-02
1.484862e-02
-6.191860e-03
-6.240852e-02
2.094105e-02
2.799279e-02
3.352933e-02
2.453834e-03
-4.649683e-02
-5.054833e-02
4.085434e-02
8.325528e-02
7.296014e-02
6.996605e-02
9.600169e-02
1.112073e-01
5.083212e-02
5.571495e-02
9.207238e-02
-4.360974e-02
-4.959305e-02
-5.085761e-02
-4.013039e-02
-2.235628e-02
-2.688111e-02
-1.660323e-02
2.517421e-03
9.503318e-03
6.782450e-03
1.856219e-02
2.966666e-02
-1.670633e-02
1.857501e-03
8.964544e-03
-2.780362e-02
-1.178098e-02
7.122518e-03
3.186573e-02
3.317384e-02
2.294754e-02
3.442490e-02
2.806629e-02
2.201874e-02
2.820056e-03
-5.963265e-03
-2.353847e-02
4.462759e-02
1.106807e-02
-1.066428e-02
1.068147e-02
-2.735667e-02
-3.087577e-02
-3.386119e-02
-6.186507e-02
-6.671086e-02
2.173178e-02
5.270594e-02
6.763502e-03
-9.626569e-04
1.329807e-02
-9.609682e-03
-1.329511e-02
1.742246e-02
1.471616e-02
-3.423528e-02
-3.921431e-02
-3.874428e-02
-5.502215e-02
-3.250146e-02
-2.050539e-02
-6.109579e-02
-3.199538e-02
-8.359342e-03
3.899437e-02
1.389844e-02
3.243456e-03
1.452227e-02
-1.006858e-02
2.441061e-03
-1.700548e-02
-8.390120e-02
-3.676786e-02
-3.269110e-02
-1.495589e-02
1.147664e-02
-3.200039e-02
-1.349914e-02
2.394607e-02
-3.717864e-02
-2.462184e-02
2.797173e-02
5.181960e-03
-3.344224e-02
-1.019776e-02
-2.881478e-02
-2.083663e-02
-1.256289e-02
-1.615273e-02
-4.604589e-03
2.218805e-02
-3.754139e-02
5.429460e-02
3.561055e-02
-4.137895e-02
-5.383927e-02
2.508610e-02
5.260399e-02
6.447741e-02
-3.627416e-02
5.255671e-02
5.210117e-02
4.686243e-02
8.966731e-02
7.322071e-02
7.502114e-02
9.790064e-02
9.252391e-02
1.028636e-01
2.252173e-02
2.305125e-03
5.787763e-03
-1.035344e-03
-1.659448e-02
-1.425071e-02
-1.955394e-03
-1.948133e-02
-1.524672e-02
2.450015e-02
3.689273e-02
3.090145e-02
8.853179e-03
2.295556e-02
1.867042e-02
-8.147316e-04
8.096611e-03
2.114309e-02
-6.968401e-03
-4.502665e-02
-8.318376e-02
-3.257062e-02
-7.371063e-02
-1.036440e-01
-5.064559e-02
-1.004244e-01
-8.979642e-02
-9.483137e-02
1.023653e-01
-9.505719e-02
2.249733e-02
1.049435e-01
1.672526e-01
1.057484e-02
-1.209000e-01
-1.261780e-01
-3.143860e-02
4.675191e-02
-4.093073e-02
2.321462e-02
-4.074014e-02
-4.041568e-02
3.443030e-02
2.137747e-02
-4.584040e-02
-2.610270e-02
-5.233640e-02
-8.397905e-02
-6.294930e-02
-1.217264e-01
-1.325878e-01
-3.473770e-02
-5.095708e-02
-7.122051e-02
1.998036e-02
6.318568e-03
1.830686e-02
-2.585375e-02
6.454906e-03
-5.711821e-02
2.252493e-02
1.613727e-03
-1.344719e-02
-3.653520e-02
-7.310642e-02
-1.022677e-01
-9.712121e-02
-1.171754e-01
-1.443298e-01
-1.224489e-02
-1.865777e-02
-7.205734e-02
-1.201172e-01
-1.235947e-01
-9.065622e-02
-1.387558e-01
-1.562387e-01
-1.548017e-01
-1.026881e-02
-8.249551e-05
-5.053254e-02
1.402597e-01
-1.266901e-01
1.151569e-01
5.883636e-02
-1.609346e-02
2.478347e-02
2.255794e-01
-2.091614e-01
2.465681e-01
-4.554573e-02
-9.424911e-02
-9.429516e-02
-8.229908e-02
-8.800323e-02
-9.180916e-02
-6.667747e-02
-1.097909e-01
-7.226326e-02
-1.990165e-02
1.167459e-01
-2.379799e-02
-1.577919e-01
1.055480e-01
5.630407e-02
7.267649e-02
1.832823e-01
6.562018e-02
-1.995464e-02
-2.215886e-02
-4.223422e-02
-1.844533e-02
-4.873632e-02
-2.161602e-02
-6.936619e-02
-1.411436e-01
-8.073406e-02
-1.545066e-02
7.952131e-02
2.769860e-02
-1.045387e-01
8.611700e-02
-9.057231e-02
-8.128321e-03
9.252359e-02
1.012281e-02
2.874420e-02
2.038243e-01
-6.992104e-03
1.979236e-01
-6.896301e-01
2.001860e-01
8.466553e-02
2.925879e-02
1.459011e-02
-4.664174e-02
-2.798963e-02
-1.017540e-02
-4.575941e-02
-5.786784e-02
-6.439994e-02
-4.428560e-02
-6.455585e-02
-5.405916e-02
-2.303175e-02
-4.701706e-02
-5.685889e-02
-3.474051e-02
-4.108019e-02
-2.539042e-02
2.123035e-02
3.190544e-02
4.932653e-02
5.647650e-02
-4.716357e-02
1.601693e-01
-5.486944e-02
-3.959680e-02
-1.951018e-02
1.294121e-01
-7.027648e-02
1.602620e-01
-4.258149e-02
-7.191132e-02
6.153618e-03
-6.298611e-02
-1.235889e-01
-7.271932e-02
3.327448e-02
-6.079317e-02
-2.489285e-02
-2.960858e-01
7.488292e-02
-6.514802e-02
1.786756e-01
-6.116021e-02
2.751723e-01
-3.516186e-02
6.548035e-02
-1.944650e-01
8.032159e-02
8.897636e-02
-4.903429e-02
4.742552e-02
1.083969e-01
3.789837e-02
9.311933e-02
3.911994e-02
6.428644e-02
-6.305055e-03
1.403616e-02
-7.394620e-03
-4.924651e-02
-1.174254e-02
-6.809785e-03
-1.875349e-02
-1.252401e-02
-2.101609e-02
9.339194e-02
8.528934e-02
-1.450027e-02
1.300135e-01
1.506753e-01
3.114888e-02
8.335976e-02
9.250105e-02
4.418265e-02
-1.926546e-02
-2.574186e-02
-5.407332e-02
3.770973e-02
3.958970e-02
1.165562e-02
9.719864e-02
1.202505e-01
5.445267e-02
2.369038e-02
1.955655e-02
1.193054e-01
9.037156e-02
-1.577450e-02
6.330976e-02
1.511459e-01
3.602986e-02
5.147007e-02
-6.121441e-02
-5.282843e-02
-1.833046e-02
-1.371328e-02
2.426233e-02
-4.285565e-03
2.216800e-03
-6.770328e-02
4.742800e-02
5.845195e-02
1.224164e-01
1.302114e-01
6.793816e-02
1.318385e-01
1.809796e-01
3.071380e-02
7.155137e-02
1.568882e-01
3.211526e-03
3.416133e-02
-1.690824e-02
-3.335113e-02
-2.813191e-02
-1.229486e-02
8.226277e-02
-3.506225e-02
-7.409395e-02
-4.151140e-02
-2.628985e-02
6.467274e-03
3.074791e-02
-4.710384e-03
2.241183e-02
2.015188e-02
-3.613499e-03
-9.306408e-03
-5.234411e-02
-3.433072e-02
-9.849683e-02
2.213628e-03
3.380696e-02
1.875823e-02
1.897376e-02
9.521234e-05
6.061051e-02
-2.339760e-02
1.173506e-01
1.058420e-01
1.806268e-02
-2.518081e-01
-1.979545e-01
4.758890e-02
2.265551e-01
2.697319e-02
-2.892578e-02
-1.203012e-02
-2.202459e-02
-8.585436e-02
-8.779385e-02
-1.023772e-01
1.289988e-03
-1.322090e-02
-3.507459e-02
-4.141032e-03
-5.207255e-02
2.159046e-02
-5.049919e-02
-1.591212e-01
-8.469974e-02
5.973596e-02
-8.350543e-02
-8.394644e-03
-3.646633e-02
-3.916803e-02
-1.534019e-02
1.427619e-02
-4.922764e-03
1.476865e-02
7.279824e-03
-4.278504e-02
-1.499894e-02
8.223089e-02
7.507136e-02
7.693493e-02
1.543369e-01
1.493797e-01
1.185303e-01
1.276840e-01
1.316813e-01
1.013587e-01
-1.939959e-02
4.594097e-02
6.573749e-02
-6.847593e-02
-3.131029e-02
-5.453056e-02
-1.880298e-02
-1.392759e-02
9.622017e-02
-4.620708e-02
-1.186849e-01
-2.025072e-02
-6.397434e-02
-1.078086e-01
-3.844336e-02
-1.733730e-02
-8.159102e-02
-7.563532e-03
4.477260e-03
1.669875e-02
4.806441e-02
1.419491e-02
-1.298083e-02
2.686022e-03
8.546075e-03
-9.769870e-03
-1.711285e-02
-3.373160e-02
-6.046067e-03
1.571141e-02
1.368795e-02
7.012184e-02
6.939007e-02
5.003923e-02
9.659752e-02
1.014593e-01
4.713903e-02
8.735544e-03
-9.510199e-03
-1.708808e-02
-5.095067e-02
-4.699573e-02
-8.080834e-02
-1.135055e-01
-8.870487e-02
1.506730e-03
3.330124e-02
4.476469e-02
1.051251e-01
1.387184e-01
1.166286e-01
8.514438e-02
1.618335e-01
1.661843e-01
3.050140e-02
-2.289716e-02
-5.094952e-02
-2.141077e-02
-6.955110e-02
-5.515972e-02
1.893841e-02
-2.317873e-02
-1.119224e-01
-1.128856e-02
2.440660e-02
3.967701e-02
8.567525e-02
1.084604e-01
7.165596e-02
9.451152e-02
1.345781e-01
1.023078e-01
6.541070e-02
-4.375588e-03
2.542350e-02
2.752398e-02
-2.085974e-02
3.762408e-02
8.667227e-02
4.023658e-02
9.578323e-02
1.775814e-02
6.903381e-02
1.653414e-01
1.540010e-02
2.136854e-02
1.282234e-01
2.584092e-02
-2.270489e-02
7.714152e-02
3.234212e-02
6.120402e-02
4.220900e-02
-2.898890e-02
-1.532098e-02
-2.208153e-02
-4.648533e-02
-2.398133e-02
-5.927928e-02
-1.228489e-02
6.994731e-02
4.578830e-03
-6.009494e-02
3.416980e-02
-4.237749e-03
-1.283963e-02
-1.028489e-02
-4.944519e-02
5.100783e-02
4.172011e-02
3.401336e-02
6.505325e-02
5.596909e-02
3.222556e-02
5.712614e-02
5.689467e-02
4.726944e-02
9.336148e-02
1.040821e-01
6.895041e-02
1.391179e-01
1.460165e-01
8.894678e-02
1.118807e-01
1.312872e-01
9.250913e-02
7.983834e-02
8.541603e-02
4.990105e-02
3.120470e-02
4.989548e-02
1.162795e-02
2.393065e-02
7.538400e-02
5.860750e-02
-3.009710e-02
-6.198309e-02
-1.288924e-04
-5.014731e-03
-6.944214e-02
8.863966e-04
6.513364e-02
2.870362e-03
6.026960e-02
-4.606012e-02
-1.796252e-02
-8.184472e-02
1.146806e-01
2.204490e-01
7.526305e-02
-5.371073e-02
9.955172e-02
-2.926173e-01
1.217536e-01
1.973451e-02
5.842620e-02
5.235074e-02
7.416299e-02
6.604490e-02
-5.593767e-02
3.156960e-02
4.406808e-02
-1.665263e-02
1.673982e-02
-2.492298e-02
1.172060e-04
3.170756e-02
1.078527e-02
1.742678e-02
8.692551e-03
-1.634128e-02
4.539426e-02
1.169695e-01
3.731795e-02
6.825173e-03
4.353734e-02
-6.511548e-03
-4.338309e-02
3.086307e-02
-2.257850e-02
2.610773e-04
-3.179166e-02
-3.250847e-02
-3.003477e-02
-4.902710e-02
-6.652635e-02
-3.481114e-02
-1.330246e-03
-2.379153e-02
5.094775e-02
-8.772204e-03
-4.480416e-02
-1.020533e-02
-7.555087e-02
-1.301108e-01
6.264032e-02
-2.671713e-02
-1.053765e-01
-3.634667e-02
-1.492647e-02
-9.720472e-03
-7.999957e-02
-4.589368e-02
-1.017895e-02
-6.394410e-02
2.928259e-02
-3.195978e-02
2.112295e-02
-9.274972e-03
1.479126e-03
-1.017647e-03
-4.883047e-02
-4.829789e-02
1.266277e-02
-3.581272e-02
-5.851739e-02
4.197988e-02
-6.030770e-03
3.018020e-02
1.662481e-02
-2.908746e-02
-5.306950e-02
-1.286640e-01
-6.894392e-02
-7.461481e-03
-1.845523e-02
-2.236653e-02
-1.117012e-01
-1.238782e-02
1.626292e-02
-1.106883e-01
4.680363e-02
1.101675e-01
-2.819892e-02
1.140447e-01
-1.443263e-01
7.285614e-02
1.743511e-01
-2.793894e-01
2.038898e-01
2.537736e-02
3.454737e-02
8.835401e-02
2.068436e-02
-1.043867e-01
4.636609e-02
-7.128201e-03
3.431213e-01
-1.255612e-01
-1.353675e-02
-2.167985e-01
1.575119e-01
7.504615e-02
6.129181e-02
6.040233e-02
1.476605e-01
1.348473e-01
1.428024e-01
1.293381e-01
1.057467e-01
1.131950e-01
4.949206e-02
1.268404e-02
2.239030e-02
9.093734e-03
-3.340505e-02
-3.280963e-02
-3.436437e-03
-5.580753e-02
-2.608829e-02
9.359074e-02
2.095671e-02
-9.062051e-02
7.078035e-02
2.122824e-02
-7.576977e-02
4.339001e-02
3.505394e-02
-8.264041e-02
2.465532e-03
-1.168428e-02
-3.090578e-03
-1.419095e-02
-2.169888e-02
-4.295694e-03
-2.969295e-02
-1.148800e-02
-4.192197e-03
-8.878111e-02
-9.461225e-03
4.050104e-02
-1.423260e-02
-3.400575e-02
1.170506e-01
-1.849004e-03
-8.279262e-02
-3.194217e-02
7.495997e-03
8.533600e-02
4.577652e-02
3.755452e-02
1.102378e-01
6.982820e-02
7.175220e-02
7.710873e-02
3.365666e-02
-4.443360e-02
-5.503942e-02
-5.280744e-02
-4.618930e-02
-4.438104e-02
-4.521656e-02
-2.682284e-02
-2.051592e-02
-3.162433e-02
3.648820e-02
1.479648e-02
-1.701473e-02
3.431927e-02
3.356617e-02
-4.423158e-03
3.162713e-03
-7.973304e-03
-7.723470e-03
-3.215197e-02
-2.543178e-03
2.530320e-02
-3.303882e-02
-1.273031e-02
1.308105e-03
-5.285544e-02
-2.824956e-02
-1.117560e-02
6.165065e-02
3.676617e-02
-3.752912e-02
4.774076e-02
3.581752e-02
-1.437141e-02
6.282432e-02
4.427267e-02
1.063005e-02
2.129092e-02
8.299140e-02
4.509386e-02
1.256975e-02
4.425612e-02
4.200783e-02
1.706994e-02
5.628267e-02
3.478946e-02
3.151437e-02
4.055147e-02
2.431428e-02
2.758261e-02
3.276718e-02
2.547974e-02
1.631326e-02
-9.094890e-03
4.113126e-03
-2.319657e-02
8.976163e-03
-2.650335e-04
-2.338795e-02
-3.842748e-02
-1.495595e-02
-1.297115e-02
-2.503642e-02
6.050031e-03
6.993786e-02
-6.207270e-02
-7.628738e-02
5.771572e-02
-3.505177e-02
-5.522271e-02
1.000695e-02
-5.729875e-02
-5.983907e-02
-4.464215e-02
4.690469e-02
5.354663e-02
-8.539448e-02
6.427626e-02
1.289888e-01
-2.043126e-02
6.596324e-02
1.012996e-01
-9.663115e-02
-7.442583e-03
6.097684e-02
8.325247e-02
-3.330624e-02
-2.536465e-02
1.913447e-02
4.595394e-02
-8.065006e-02
3.626588e-02
4.208886e-02
3.530592e-02
2.558978e-02
2.112187e-02
1.370919e-02
3.404669e-02
4.410101e-02
4.629336e-02
-1.667561e-02
-3.489221e-02
-2.827121e-02
-4.740107e-02
-6.206919e-02
-4.725002e-02
-1.282552e-02
-4.451018e-02
-2.753766e-02
-3.539299e-02
-8.195826e-02
-5.563115e-02
-2.572849e-02
-7.855599e-02
-4.428162e-02
6.962033e-03
-3.913271e-02
-3.190161e-02
4.194665e-02
2.514388e-02
2.284310e-02
-4.388807e-02
-5.966326e-02
-3.128570e-02
-6.625382e-02
-7.677913e-02
-2.067216e-02
8.849684e-02
3.447263e-02
3.016122e-02
-2.692256e-02
5.676813e-02
-8.462316e-03
-6.718779e-03
-4.751657e-02
-2.874846e-02
-3.962910e-02
-6.372382e-03
5.378032e-02
-3.186463e-02
-8.507711e-03
1.718070e-02
-3.550959e-02
-2.373566e-02
-6.645238e-03
-1.451286e-03
2.670730e-02
9.119814e-03
4.058470e-02
5.408892e-02
2.484725e-02
5.031651e-02
4.919319e-02
1.905268e-02
2.890963e-02
3.589060e-02
5.701535e-02
-4.543121e-03
-3.546603e-02
-1.876280e-02
-2.070954e-03
-3.924546e-02
-3.142808e-02
6.731681e-03
1.783038e-02
4.728157e-03
4.197752e-03
1.524278e-02
2.142577e-02
-3.264054e-04
2.612304e-02
2.960310e-02
2.304890e-02
3.875802e-03
-3.666893e-03
2.000144e-02
3.349284e-02
2.993094e-02
3.035147e-02
3.192004e-02
1.536528e-02
-2.046745e-02
-2.680256e-02
-1.342596e-02
-2.170978e-02
1.172435e-03
3.294253e-02
-2.942461e-02
5.265037e-02
4.950370e-02
9.681410e-02
7.994885e-02
8.195896e-02
6.184523e-03
-1.652677e-02
7.499789e-03
-4.675345e-02
-6.908190e-02
-3.174254e-02
1.683383e-02
3.586287e-02
2.313690e-02
3.176887e-02
3.448000e-02
-1.414255e-02
-8.369912e-02
-4.942137e-02
-5.375332e-02
1.012558e-01
4.827712e-02
3.010891e-02
4.915868e-02
1.447363e-02
-2.709766e-02
-2.479423e-02
-5.707886e-02
-8.387471e-02
1.199658e-02
3.788395e-03
-2.919190e-02
1.327206e-03
4.131932e-02
-2.877715e-02
-6.727220e-03
7.384711e-02
-2.710622e-02
-4.393427e-02
4.709461e-02
2.787228e-02
3.528482e-02
6.476142e-02
-3.326495e-02
2.087920e-02
-1.172567e-01
3.243021e-02
-3.715725e-02
-3.527224e-02
-3.149704e-02
-1.204233e-01
-1.123741e-01
-1.105759e-01
-1.354282e-01
-1.156618e-01
-1.055673e-01
-3.866718e-03
-1.866242e-02
-2.283895e-02
-1.764846e-02
-4.253132e-02
-4.948279e-02
-2.319860e-02
-5.501730e-02
-4.904725e-02
-1.521952e-02
-2.066368e-02
-2.720330e-02
-4.968910e-02
-4.899096e-02
-2.262728e-02
-5.012434e-02
-3.956834e-02
-4.696552e-02
