1.301352e-03
9.555764e-04
-3.222368e-04
8.830943e-04
9.523395e-04
-3.469253e-03
-8.494026e-04
2.528842e-04
1.863886e-06
1.288754e-02
-3.422524e-02
2.476118e-02
2.190135e-02
8.788320e-02
5.561446e-02
-3.475899e-03
2.880112e-02
-4.029725e-02
-1.212664e-01
-7.020316e-02
-1.110531e-01
-5.864548e-02
4.996126e-02
4.590205e-02
5.878247e-04
1.273157e-02
4.731911e-02
-3.000130e-02
-1.645899e-02
1.299846e-04
6.004836e-03
2.796906e-02
-3.148169e-03
-8.887941e-02
-5.450281e-02
-2.812049e-03
4.475419e-02
-2.994595e-01
-1.731740e-01
-1.014903e-01
4.843692e-01
1.780932e-01
1.641821e-02
-2.149981e-01
-1.415510e-01
-4.322150e-02
-9.813013e-03
2.455888e-02
-4.487457e-02
2.780716e-02
5.581622e-02
3.472047e-02
2.932420e-02
6.903522e-02
-3.485120e-02
-2.874833e-02
6.101063e-02
1.026267e-01
7.234922e-02
-6.488342e-03
3.979906e-02
-2.206206e-02
-3.285604e-02
-3.853759e-02
4.038449e-02
4.350272e-02
-6.102416e-02
2.781014e-02
4.557316e-02
-3.399749e-02
5.990547e-02
8.352070e-02
-1.135709e-01
-3.276100e-02
-3.404713e-02
-3.607683e-02
4.748195e-02
-4.008482e-02
-3.622025e-02
-2.948339e-02
-1.371388e-01
1.298988e-01
2.433220e-02
-4.642739e-02
-1.514068e-02
-7.090563e-03
-1.825290e-02
-4.281943e-03
4.304970e-02
-5.087148e-02
8.486101e-03
1.614319e-03
-4.252360e-02
3.517162e-02
3.444787e-02
1.951183e-04
7.964733e-02
9.646642e-02
4.391054e-02
-6.922921e-02
2.077712e-03
2.180261e-02
2.535145e-02
3.876718e-02
3.480315e-02
-2.933862e-02
-1.107915e-02
-1.631469e-02
-2.296627e-04
8.464517e-04
1.882415e-04
1.915904e-03
2.019366e-03
-6.290188e-04
-1.850177e-03
8.382826e-04
-2.215817e-03
2.793001e-02
4.549499e-02
8.467426e-02
-2.173703e-03
3.874747e-02
-4.311807e-02
6.317707e-02
2.844164e-02
-3.266419e-02
-3.922024e-02
-4.765409e-02
-1.556838e-02
-7.224777e-02
-3.848044e-02
1.294691e-02
-5.432362e-02
-7.032231e-02
-4.378173e-02
4.642644e-02
1.117530e-01
-1.181516e-02
1.370533e-02
-9.613609e-02
3.668586e-02
1.861298e-03
-1.083071e-01
-3.914982e-02
-1.253559e-04
2.545553e-03
2.659284e-04
3.395541e-04
3.906742e-03
1.473180e-03
-1.112453e-03
2.091001e-04
3.067816e-03
1.698905e-02
-4.954994e-02
-8.559144e-03
-5.732872e-02
-1.384049e-01
8.654277e-03
-5.483782e-02
-2.808329e-02
2.454594e-02
-3.165402e-02
-1.133816e-01
-7.931300e-03
-6.248300e-02
-1.259308e-01
-8.165919e-03
-8.788747e-03
1.174088e-02
-5.674199e-03
-2.623787e-02
-5.107697e-02
-3.890811e-02
2.559169e-02
2.848219e-02
-1.976249e-02
5.485734e-02
6.719168e-03
-2.815403e-03
-5.025916e-03
1.321202e-02
-7.883409e-02
-1.633286e-01
-2.140499e-01
2.002794e-01
4.045318e-02
2.102750e-01
-2.522453e-02
-4.524368e-02
-5.764146e-02
-5.198205e-02
-5.805578e-03
-3.504253e-02
-2.998527e-02
2.798517e-02
1.617605e-02
-1.300207e-02
-1.480728e-02
1.382489e-02
3.889297e-03
-3.009518e-02
1.156279e-01
2.293412e-01
1.908287e-02
5.817277e-02
1.239849e-01
-2.674917e-02
7.259087e-02
7.290525e-02
5.577048e-02
1.286719e-01
2.246197e-02
8.109570e-03
2.596983e-02
-2.650104e-02
1.162647e-02
-9.744702e-02
1.142545e-01
-1.127500e-02
-9.396186e-02
4.725739e-02
-1.783776e-02
-1.195355e-01
-3.727255e-03
8.668328e-02
4.325476e-02
-1.235371e-02
8.060278e-02
-1.061295e-01
-1.194514e-01
-8.322696e-02
-9.050191e-02
1.643379e-02
-8.138482e-03
-5.657272e-02
-6.736079e-02
-1.484282e-01
-2.069894e-01
-1.548394e-01
-1.523652e-02
-4.020032e-02
2.786312e-02
-4.142160e-03
-3.729783e-02
1.006968e-02
-1.029679e-02
3.953862e-04
5.639714e-02
-1.902566e-02
-4.397840e-03
6.687454e-02
-1.389736e-03
-2.839729e-03
-3.393418e-03
8.983475e-04
-2.338520e-03
-1.292612e-03
1.233269e-03
-2.390107e-04
1.980157e-03
4.941688e-02
-7.390195e-04
6.018883e-02
6.553587e-02
7.402845e-02
1.406490e-01
6.929066e-02
5.101225e-02
2.325309e-02
4.556096e-02
-4.098504e-02
-4.875753e-02
3.035744e-03
-6.018253e-02
-6.042842e-02
3.224308e-02
-1.462722e-02
-1.040840e-02
1.984610e-02
1.015500e-01
-1.336211e-02
1.358722e-01
9.865186e-02
-1.120074e-01
4.838391e-02
-1.634327e-02
-7.078083e-02
-9.841702e-04
1.834412e-03
1.343235e-03
4.909565e-05
2.073867e-05
2.725640e-04
1.149374e-03
-1.149296e-03
-4.937510e-04
-1.238759e-02
5.017297e-03
5.314462e-02
-1.088123e-02
1.852912e-02
4.397530e-02
-1.104789e-02
-2.287026e-03
-1.433984e-02
6.214354e-02
-5.727739e-02
-1.800308e-02
8.955718e-02
-4.316565e-02
-2.782412e-02
8.466341e-02
2.775358e-02
3.276421e-02
4.913054e-02
2.756406e-02
7.131428e-02
2.101565e-02
-9.332773e-03
3.419711e-02
-1.724230e-02
-1.395690e-02
2.371904e-02
-2.733369e-02
3.495522e-02
-2.661242e-02
-4.053568e-03
1.316829e-01
1.169923e-01
-9.836083e-02
-5.927905e-02
-1.946139e-02
1.945274e-02
2.286693e-02
3.070696e-02
-3.121608e-03
-1.431345e-02
4.335124e-03
-1.706762e-02
-4.127218e-02
-1.887829e-02
-1.973743e-02
-1.363583e-02
-3.251387e-02
1.533697e-02
3.018364e-02
-1.420355e-03
3.893296e-03
1.093019e-02
-1.186428e-02
-3.415646e-02
-9.357078e-02
1.925550e-02
-1.725260e-02
-9.760213e-02
-1.839107e-02
5.137824e-03
-2.556329e-02
-1.491621e-02
2.328298e-02
-5.181225e-02
-2.093337e-02
2.670966e-02
-6.349725e-02
-2.692834e-02
-8.402811e-05
-7.075427e-02
-2.933148e-02
-1.385042e-03
1.047201e-02
6.115969e-03
3.856930e-03
2.561032e-03
-7.249483e-03
9.351114e-03
3.474741e-02
8.010859e-03
5.781759e-02
7.924233e-02
8.104224e-02
4.451101e-02
4.554419e-02
4.991453e-02
3.377525e-02
3.568489e-02
3.041674e-02
1.590803e-03
-1.018021e-02
-8.988011e-04
3.463973e-02
8.115765e-03
2.101487e-03
4.710308e-02
3.248265e-02
1.264903e-02
1.326149e-03
-2.817754e-03
-2.313272e-03
1.488963e-03
5.958466e-04
-2.528853e-03
-1.841654e-03
-2.398221e-03
-2.409928e-03
-1.065958e-02
-1.774458e-02
-2.680141e-02
-1.212138e-02
-4.812094e-02
-5.956147e-02
2.978830e-02
-3.317498e-03
-4.685494e-03
-8.063196e-02
-5.332329e-02
-5.718350e-02
-6.325468e-02
-3.579644e-02
-6.256318e-02
-5.117566e-02
-2.423830e-02
-4.664298e-02
2.607591e-02
-1.241620e-01
1.943147e-02
6.666156e-02
-4.480346e-02
1.019808e-01
8.283957e-02
4.560361e-02
1.172514e-01
1.228110e-03
3.640012e-03
3.953194e-03
2.441076e-03
-1.398786e-03
-1.706861e-03
-3.267418e-03
-6.197400e-04
1.667405e-03
1.077369e-02
9.796070e-03
5.962958e-03
-1.094563e-02
-5.531813e-03
-1.078184e-02
-2.167972e-02
-7.304057e-03
-6.601332e-03
1.661500e-02
2.236560e-02
3.662657e-02
-1.635256e-02
1.186499e-03
1.275025e-02
-2.091161e-02
-2.123954e-02
-1.214438e-02
3.852744e-03
-3.708694e-03
-2.268257e-03
-4.173906e-03
4.103239e-03
5.520163e-03
1.122855e-03
-2.463583e-03
3.143074e-03
-1.586212e-02
-2.620705e-02
2.918234e-02
6.189103e-02
-7.467022e-03
8.477360e-02
-8.259959e-02
-6.959992e-02
-5.052789e-02
1.051196e-03
-1.037072e-02
-1.412344e-02
3.020214e-03
-1.421434e-02
-1.611415e-02
-1.039590e-02
-2.060791e-02
-1.226738e-02
-8.121962e-03
2.870143e-02
1.602912e-02
-1.364978e-02
1.949966e-02
3.237218e-02
-8.185206e-03
5.361148e-03
1.463418e-02
2.321129e-02
3.469819e-02
2.215839e-02
-1.150725e-02
-1.255290e-03
-1.407227e-02
4.633707e-03
3.852577e-03
-3.928245e-03
-2.767821e-02
6.373500e-02
-4.000343e-02
-3.845509e-02
5.726391e-02
-4.403869e-02
-2.090330e-02
8.003175e-02
-2.618378e-02
9.540528e-03
-1.941943e-02
1.753409e-04
-1.964998e-02
-4.275044e-02
-1.296241e-02
-9.286522e-03
-2.145467e-02
1.592673e-02
-1.479506e-02
-2.376039e-02
-2.580149e-02
-1.338946e-02
-3.890177e-02
-4.573468e-02
4.650307e-02
3.135319e-02
4.403315e-02
1.472282e-02
2.918400e-03
-6.024308e-04
3.664560e-03
3.252371e-03
-1.804269e-03
4.571774e-03
-4.539881e-04
-4.134097e-05
3.297325e-04
2.561052e-03
-2.898485e-03
-1.976388e-03
7.250453e-04
-1.059979e-03
3.372308e-04
5.394783e-04
-1.259674e-03
-2.211025e-03
2.935542e-02
4.548915e-04
-6.440063e-03
2.705803e-02
1.636051e-03
-1.574965e-03
3.372969e-02
1.057732e-02
-1.112677e-02
-6.181886e-03
2.925396e-02
-6.202660e-03
-2.470851e-03
4.105007e-02
-2.766124e-02
-1.822202e-02
2.051476e-02
1.083444e-02
7.613648e-02
-3.911695e-02
-1.377073e-02
4.268609e-02
-6.026558e-02
-4.129179e-02
1.068008e-02
-5.450869e-02
-6.664101e-04
-6.613983e-04
-1.644845e-03
2.107773e-03
-2.974386e-04
-1.262219e-03
1.843810e-03
-7.299521e-04
-1.976260e-03
7.815746e-03
-1.121318e-01
-2.205439e-02
2.491618e-02
-1.177455e-01
-1.325070e-02
4.633866e-02
-4.425731e-02
-1.441693e-02
9.216635e-02
-1.135849e-01
4.058800e-02
5.555188e-02
-8.695462e-02
1.878898e-02
1.941198e-02
-4.411514e-02
2.585954e-02
-2.726414e-03
-3.383819e-02
-1.075522e-02
1.096734e-03
4.170373e-02
-1.327521e-03
-2.909773e-02
3.879271e-02
-2.749434e-02
9.921032e-02
-3.607057e-02
5.034374e-02
5.335260e-02
-2.668209e-01
1.814018e-01
1.295962e-01
7.838940e-02
4.526326e-03
5.109504e-03
-5.210465e-02
-9.477416e-02
3.270055e-03
-3.077437e-02
-6.715977e-02
3.127354e-03
4.733857e-03
-1.250693e-02
-1.859075e-01
8.351640e-03
1.277710e-01
-1.986950e-01
4.503594e-02
3.198334e-01
-8.906493e-02
4.047743e-02
2.483261e-01
-3.517682e-02
-5.708175e-03
-3.098570e-02
-4.363322e-02
6.486237e-02
-1.168585e-01
-3.209967e-02
5.714606e-02
-6.694733e-02
-1.086197e-02
-1.078763e-01
-2.083571e-03
-3.085328e-02
-2.880414e-02
2.712551e-02
-2.527557e-02
2.742689e-02
3.176354e-02
1.814561e-02
-1.983932e-02
-4.651649e-02
1.524379e-01
-3.362097e-02
-1.223071e-01
1.214739e-01
-3.249664e-02
-2.990031e-02
7.612785e-02
3.352671e-02
1.497967e-02
4.489457e-02
-1.466467e-02
-2.032218e-03
6.724530e-02
-3.991288e-02
3.665728e-03
4.887621e-03
-8.205742e-02
-5.454423e-02
3.169527e-03
-3.397712e-02
-4.903308e-03
1.517368e-02
1.034045e-02
3.273199e-02
5.815290e-04
-8.557084e-05
-1.632813e-04
-7.229503e-04
-1.125000e-03
-1.420871e-03
-7.381286e-04
7.399487e-04
-3.241069e-04
2.245091e-02
-8.967483e-03
3.632240e-03
-1.849919e-02
-2.139650e-02
1.205923e-01
-2.226670e-02
-4.871635e-03
7.692552e-02
-5.460573e-03
-8.154792e-02
-9.629650e-02
-2.748566e-02
-7.863993e-02
-1.137376e-01
5.857699e-03
-2.010942e-02
-5.539120e-02
-4.263313e-02
1.703604e-01
-1.000138e-01
-1.110969e-01
3.735017e-01
-2.339257e-01
-1.030888e-01
1.976726e-01
-2.502798e-01
6.624655e-04
2.554960e-03
3.491436e-03
1.189681e-03
-1.817456e-03
-1.698034e-03
1.179650e-03
7.258555e-04
-2.576401e-04
-1.243047e-01
-3.869589e-02
-5.228209e-04
-1.339323e-01
-5.476156e-02
2.484492e-02
-1.933278e-02
7.009543e-02
8.884452e-02
1.356438e-01
-4.516455e-02
-1.143900e-01
9.159594e-02
-2.087499e-01
-1.906555e-01
1.041340e-01
-1.661184e-01
-1.769778e-01
7.462154e-02
-6.770941e-03
2.496076e-02
5.559190e-02
9.309610e-03
6.112223e-02
3.563982e-03
-2.004793e-02
9.013904e-03
-8.675496e-02
-2.139019e-02
-4.965726e-02
-1.410023e-01
-1.042279e-01
3.807890e-02
-4.042977e-02
-2.152465e-02
2.278736e-02
1.099634e-01
5.424786e-02
3.843164e-02
8.975569e-02
3.669067e-02
-2.260112e-03
3.529725e-02
1.327800e-02
-2.127910e-02
-8.321085e-02
2.043760e-02
9.343322e-03
-9.768768e-02
4.408233e-02
1.332081e-01
-7.635476e-02
2.743907e-02
1.164998e-01
5.826459e-02
-1.275692e-01
-5.990918e-02
-8.468405e-02
-2.235665e-01
-4.251713e-02
-1.301467e-02
-3.063304e-02
3.273223e-02
-2.590108e-02
6.765283e-03
8.946550e-02
-1.965734e-02
7.379176e-02
9.008624e-02
8.782381e-05
1.547026e-01
1.243402e-01
-5.535262e-02
6.748314e-03
3.848620e-02
2.224040e-02
2.413980e-02
-3.938681e-02
5.018839e-02
3.430235e-02
-9.756759e-03
4.908865e-02
3.687255e-02
-8.470523e-03
7.481561e-02
3.136692e-02
8.019056e-04
7.483224e-02
4.971768e-02
5.290351e-02
4.341712e-03
-2.375049e-02
-6.678329e-02
3.124375e-02
3.182807e-02
1.576208e-02
1.076140e-01
1.189415e-01
1.142936e-01
-1.569019e-03
1.537342e-03
3.959734e-03
1.747483e-03
-1.649579e-03
-1.424796e-03
-8.636853e-04
8.778959e-04
-1.775938e-03
1.585945e-02
-1.099833e-02
-8.853742e-05
1.156552e-02
6.133428e-03
4.847959e-02
-1.903336e-02
-2.968492e-03
9.039567e-02
4.303770e-02
-3.835251e-02
-5.898591e-02
5.402982e-02
-3.859559e-02
-7.635844e-02
9.171201e-02
7.039320e-03
-3.153549e-02
-2.290905e-02
-1.683716e-01
1.358992e-02
-4.187851e-02
-6.564610e-02
7.718294e-02
-1.252641e-01
4.145061e-03
-2.114019e-02
1.104869e-03
1.341762e-03
1.113323e-03
-2.795417e-03
-4.316010e-04
9.021006e-04
-5.468138e-04
-3.049353e-03
1.542576e-03
9.388392e-02
1.464630e-01
5.632858e-02
-2.952757e-02
2.341819e-02
1.248388e-01
-2.482902e-01
-9.890310e-02
2.969865e-02
-1.208440e-01
1.281911e-01
2.724130e-01
-7.413110e-02
-3.848832e-02
1.219965e-01
-2.220206e-01
-3.480747e-01
-3.239204e-01
-6.212801e-02
-1.529503e-03
-3.037241e-02
-7.376598e-02
-3.761984e-02
-6.753215e-02
-6.094426e-02
-9.132374e-02
-2.122093e-01
4.884526e-02
5.357779e-02
-1.781308e-01
1.321689e-01
-1.432538e-01
-6.144155e-02
-6.074716e-02
2.103446e-02
5.132289e-02
-3.331098e-02
-4.379990e-03
-1.786496e-02
7.823493e-02
8.179408e-02
9.331627e-02
2.905542e-02
8.770880e-02
9.629149e-02
-3.807992e-02
1.468722e-01
-1.753103e-02
-1.182268e-02
6.531204e-02
1.134740e-01
-9.640341e-02
-1.983569e-01
-8.006837e-02
1.226805e-01
2.691862e-01
7.098281e-02
-5.641160e-03
9.722163e-02
1.454171e-02
-4.414163e-01
-4.483307e-01
-4.348353e-01
9.213908e-02
-4.946644e-02
3.886579e-02
3.938736e-02
-5.125767e-02
1.839550e-02
-7.636717e-02
-1.730783e-02
-4.302735e-03
-1.352697e-01
1.520395e-01
1.868260e-01
-2.218809e-02
-3.301848e-02
-4.058648e-02
3.292028e-03
-1.063915e-01
-1.747519e-01
-1.664759e-01
-1.376530e-01
-1.331398e-01
-3.328864e-01
-2.324012e-01
-2.956925e-01
-2.337433e-01
-1.962712e-01
-1.758303e-01
3.933834e-02
3.564074e-02
4.828657e-02
-3.311549e-02
3.208258e-02
6.071999e-02
-7.157674e-02
-4.803010e-02
4.576716e-02
8.433156e-05
2.959230e-03
2.263627e-03
-1.857546e-03
3.713038e-03
4.150385e-04
-1.859591e-03
7.166694e-04
1.751797e-03
-6.141830e-02
-4.187047e-02
-1.384364e-02
-9.696696e-02
-6.778253e-02
1.500987e-01
-8.696145e-02
-1.101573e-01
2.563754e-02
5.562754e-02
3.269023e-02
8.549982e-02
-6.677756e-02
-6.100267e-02
3.177490e-02
8.466632e-03
-3.351308e-02
7.816351e-02
-2.570723e-02
-4.892445e-02
6.832468e-02
-2.851828e-02
1.282645e-01
-1.693232e-01
-1.245541e-01
2.177623e-02
-1.355083e-01
6.487215e-04
-2.650781e-03
5.467190e-04
-2.390663e-04
-4.492245e-04
-1.785572e-03
-7.494705e-04
2.580203e-03
5.450946e-05
9.887873e-02
1.333753e-01
1.249903e-01
1.848070e-02
-4.050280e-02
-1.324194e-01
6.406350e-03
9.347936e-02
7.410278e-02
4.747187e-03
1.103277e-01
9.090091e-02
-8.403035e-02
-8.805455e-02
-1.009309e-01
-1.923603e-02
9.855057e-02
-1.117918e-02
8.479875e-02
3.453635e-03
-1.924198e-02
-6.096945e-02
-1.104705e-02
5.291179e-02
-2.287742e-03
5.732001e-02
-7.726723e-03
-8.596560e-02
5.093784e-01
1.460894e-01
2.699673e-02
-5.082020e-01
-3.225543e-01
8.825211e-03
2.833180e-01
1.683845e-01
1.863355e-02
6.433160e-02
8.885389e-02
3.701510e-03
-1.097393e-03
7.435492e-05
-6.717257e-02
-5.712307e-02
-3.615624e-02
1.229106e-01
1.345835e-01
-2.132202e-02
-1.060611e-01
-5.708744e-02
3.781089e-02
1.124014e-01
1.236718e-01
-5.135706e-03
-2.876188e-02
5.330931e-03
6.960611e-02
-8.675884e-02
-4.819740e-02
-2.519027e-02
6.524984e-02
8.390461e-02
2.597292e-02
9.755480e-02
1.862165e-01
-5.443886e-02
4.273371e-02
9.764603e-02
-1.149413e-01
5.439693e-02
1.070620e-01
-2.815472e-02
-8.932614e-02
-4.294819e-02
1.171377e-02
1.152614e-01
4.314298e-02
-1.340812e-02
-2.330350e-02
1.823880e-04
5.945395e-02
-1.941331e-02
-2.327369e-02
-1.252971e-01
3.165598e-02
5.663629e-02
-5.585401e-02
-7.542500e-02
-9.520017e-02
-7.758989e-02
1.124144e-01
9.396772e-02
5.736981e-02
1.708171e-02
5.395337e-02
5.180465e-02
4.482378e-02
4.836153e-02
4.719865e-02
1.840051e-03
-2.687742e-03
-8.417521e-05
-1.549165e-03
-6.979335e-04
8.330072e-04
7.842033e-04
-9.772026e-04
-1.452775e-03
-3.209929e-02
1.830585e-02
-6.438243e-02
2.819154e-02
-1.831771e-02
8.716845e-02
3.468179e-03
1.164207e-02
4.786419e-02
1.025491e-03
3.358382e-02
8.575602e-02
-2.761584e-02
-4.113941e-02
1.346541e-02
-4.895450e-02
-2.565793e-03
6.696097e-02
3.445656e-02
-3.488805e-02
3.326373e-02
-2.259842e-02
8.051030e-02
-5.423010e-02
-5.381184e-02
-6.925866e-03
1.923584e-02
5.577354e-04
2.318378e-04
8.908111e-04
-1.343163e-03
7.307239e-04
1.320374e-03
-1.308420e-03
-5.143628e-04
1.868431e-03
-5.024307e-02
-2.670701e-02
-5.496490e-02
1.948393e-02
-4.904814e-03
-3.481557e-02
5.294863e-02
9.216222e-03
1.293854e-02
8.261900e-03
-2.665005e-02
-2.957572e-02
-9.257408e-04
-4.022711e-02
-7.098469e-02
-4.622252e-02
-4.022183e-02
-4.457682e-02
1.871532e-03
5.428844e-03
-5.822768e-02
-3.043722e-02
1.698934e-02
-4.778458e-03
-3.676069e-02
3.059088e-02
1.529850e-02
-7.221545e-02
-1.248384e-01
-3.049392e-02
1.410031e-01
-1.170537e-01
-3.800920e-02
-9.514664e-02
4.495442e-02
5.998176e-02
3.120991e-02
2.140456e-02
-6.021990e-03
1.656225e-02
1.383086e-02
5.986509e-03
-5.338751e-03
1.274289e-03
1.539662e-02
-3.724016e-03
-5.436080e-02
3.288432e-02
-2.976520e-02
-1.534977e-01
2.379348e-02
4.137244e-02
-6.532156e-03
4.140997e-02
-8.490543e-03
-8.963841e-03
2.816384e-02
-3.047347e-02
5.041184e-02
5.413604e-02
-6.536445e-02
1.161917e-02
1.224735e-02
-3.995183e-02
8.274634e-02
-2.044513e-02
-5.077114e-02
6.085531e-02
-1.520506e-02
-6.650545e-02
4.643416e-02
-1.548698e-02
3.843869e-02
-2.211154e-02
-1.026247e-02
1.151904e-01
4.890018e-02
-2.398090e-03
4.416247e-02
5.681747e-02
3.518826e-02
1.000581e-02
2.093107e-02
1.010555e-03
-5.236536e-02
-5.254092e-02
-7.805888e-02
3.160705e-02
1.319669e-02
-2.796162e-02
-1.195168e-02
7.272934e-03
-1.007549e-02
-2.441456e-03
1.099884e-02
2.241679e-02
1.546129e-02
8.523213e-03
4.349987e-02
4.050123e-04
3.088953e-03
-3.152313e-04
1.354129e-03
6.457513e-04
1.001877e-03
4.238863e-03
-2.039278e-03
1.248518e-03
-3.069462e-02
6.600484e-03
-7.247762e-03
-5.160254e-02
-6.297694e-02
1.023880e-02
-3.184554e-02
-4.227136e-02
-2.006411e-02
-4.648757e-02
-8.451012e-02
-5.791784e-02
-3.763880e-02
-8.026961e-02
-6.525265e-02
-2.226824e-02
-6.275876e-02
-5.680756e-02
-8.874045e-02
4.796426e-03
-6.817607e-02
-1.177246e-01
1.475266e-01
-5.271356e-02
-7.633911e-02
9.822927e-02
-2.906004e-02
5.981487e-04
1.237704e-05
2.721879e-03
-3.442674e-03
1.323252e-03
-1.216699e-03
5.608131e-04
-2.134335e-03
-1.641935e-03
1.846392e-02
5.392313e-02
1.952857e-02
1.840046e-02
1.897955e-02
-3.451535e-02
-1.614080e-02
-5.333158e-02
-7.763271e-02
-8.809561e-02
-1.542365e-02
1.204969e-01
-1.455073e-01
3.808384e-02
1.942161e-01
-5.136512e-02
5.414934e-02
1.301211e-01
-1.773358e-01
-5.058770e-02
-2.597493e-02
-1.079142e-01
6.607086e-02
8.089153e-02
-6.005225e-02
9.445633e-02
8.734436e-02
-1.310347e-01
2.681276e-02
-5.418063e-02
4.344133e-02
1.587841e-02
-2.160255e-02
1.992847e-01
1.213998e-01
-1.244710e-01
-1.272493e-01
-1.152881e-01
-1.065841e-01
-6.167903e-02
-6.376737e-03
-9.971106e-04
2.142746e-02
1.053915e-01
1.077810e-01
-1.243829e-01
1.504314e-02
7.966456e-02
-5.417087e-02
1.174604e-01
1.660200e-01
-9.058663e-03
1.091515e-01
6.943640e-02
-2.582205e-03
1.015659e-01
8.144653e-02
-7.099417e-04
1.586594e-01
1.609623e-01
6.426068e-02
6.789443e-02
6.713870e-03
2.872798e-02
8.303527e-02
5.789547e-02
8.589538e-04
4.718662e-02
4.779302e-02
4.383143e-02
7.878735e-02
9.001885e-02
3.383600e-02
8.412178e-02
5.727025e-02
9.633288e-04
8.893123e-02
8.590601e-02
2.249833e-02
9.960448e-02
4.454127e-02
1.319523e-02
-2.594493e-02
-8.793300e-02
3.189991e-02
8.998542e-02
6.809396e-02
6.786911e-02
1.614514e-01
1.402158e-01
5.391034e-04
-8.099975e-03
-1.529176e-02
-9.298966e-03
2.983127e-02
2.983230e-02
3.168795e-02
8.129394e-03
2.057371e-02
6.018364e-04
5.647031e-04
-1.745309e-03
-8.115154e-04
1.619814e-03
-2.867027e-03
-8.218715e-04
-1.989306e-03
-3.576076e-04
-9.064221e-02
-5.310926e-02
1.683730e-02
-6.068316e-02
-2.156800e-02
9.893654e-02
-5.765193e-02
2.796668e-02
1.389443e-01
1.049475e-01
1.947322e-01
1.022195e-01
1.038506e-01
1.751870e-01
1.140179e-01
5.820759e-02
1.245566e-01
7.967764e-02
-4.402978e-02
8.988058e-02
9.404679e-02
3.821621e-02
1.447849e-01
3.240168e-02
4.471008e-02
1.179738e-03
-1.172448e-01
-2.802940e-04
5.734274e-04
3.219065e-03
6.811283e-04
2.234266e-03
1.062747e-03
2.744204e-03
-2.097575e-04
2.479941e-04
-2.844286e-02
-9.422632e-03
6.632470e-02
2.516217e-03
-3.041545e-02
-4.589907e-02
8.268468e-02
1.160933e-01
2.892011e-02
9.128197e-02
-1.081406e-01
8.929741e-02
6.053144e-02
-2.279792e-02
-3.650681e-02
-8.114202e-03
2.909617e-02
-4.240717e-02
-9.539940e-02
-9.920945e-02
-7.886102e-02
-1.059609e-01
1.348881e-02
5.892584e-02
1.495818e-02
1.112398e-01
5.082529e-02
-2.164237e-01
3.112522e-01
-8.789995e-02
2.101340e-01
-4.348994e-01
2.214998e-02
-2.633727e-01
3.914655e-01
-1.876834e-01
-5.318730e-02
-4.434385e-02
-1.637995e-02
-6.433242e-02
-1.105730e-01
-6.512906e-02
-8.020572e-02
-7.744487e-02
-6.274122e-02
-2.216764e-02
3.876239e-03
-5.652402e-02
-8.626746e-02
-9.328802e-02
1.592753e-01
1.281271e-04
7.122691e-03
-3.132482e-02
-3.465663e-02
-1.071449e-02
7.702956e-02
-2.075947e-02
8.491648e-02
-1.846085e-02
9.926110e-03
5.321044e-02
-3.380978e-02
-2.856119e-02
-8.216107e-02
4.854095e-02
-1.480158e-01
-1.361519e-01
1.658742e-02
-1.784848e-01
-1.163659e-01
8.443935e-02
-6.770497e-02
-8.905645e-02
-1.628175e-02
1.087693e-01
-6.174717e-02
-9.284367e-02
3.030296e-02
-4.062541e-02
3.709352e-02
-1.263417e-02
1.063483e-02
5.302951e-02
-2.064828e-01
-2.538325e-01
-2.514421e-01
3.965248e-02
-4.376148e-02
7.299946e-02
8.250389e-02
6.277264e-02
2.752198e-02
1.754073e-02
9.452523e-02
6.755797e-02
5.906195e-02
7.959463e-02
1.069534e-02
-5.996833e-03
1.761823e-03
7.741947e-04
2.043501e-03
4.673386e-03
2.854075e-03
-1.464893e-03
6.278477e-06
2.039620e-03
2.096258e-02
-9.431302e-03
-1.406162e-01
5.344603e-02
-1.112310e-01
1.081727e-01
-4.205160e-02
8.967791e-03
-3.033767e-02
-1.068695e-01
-9.678134e-02
-1.691547e-01
-1.086746e-01
-7.596959e-02
-1.324402e-01
-1.223149e-01
-3.729198e-02
-4.677146e-02
-5.931539e-02
-5.869086e-02
-2.179745e-02
-9.050224e-02
2.752906e-01
-1.093258e-01
-3.723912e-02
5.525880e-03
-4.281373e-02
-7.642178e-05
-1.678427e-03
3.808747e-04
-1.415032e-03
3.121705e-03
-9.631612e-04
3.148106e-03
-2.602583e-03
-3.660795e-03
-4.711551e-02
-2.543423e-03
-5.484625e-02
-8.758780e-03
5.430123e-02
-3.086068e-03
9.336774e-02
1.955843e-01
8.839164e-02
8.476871e-02
8.447676e-03
-2.123684e-02
7.353870e-03
-2.585545e-02
-1.153643e-01
6.481815e-02
7.036395e-02
1.460494e-02
4.295580e-02
4.353081e-02
2.785751e-03
2.517600e-02
6.299723e-02
6.766502e-02
1.491906e-02
3.657589e-02
5.636105e-02
4.114092e-02
6.403519e-02
1.454486e-01
1.521559e-02
-1.900851e-01
-2.010951e-01
3.297315e-03
4.195245e-01
7.571887e-02
2.400243e-02
1.168857e-02
1.024120e-03
1.365396e-02
3.463990e-02
7.741531e-03
1.236412e-02
6.250525e-02
4.998017e-02
1.796219e-02
1.493315e-02
4.890757e-02
-3.082376e-02
-1.229627e-01
1.890613e-02
1.382474e-01
7.769232e-02
-4.570515e-02
-1.045585e-02
-2.201325e-03
-7.878970e-02
5.790782e-02
4.691738e-02
4.922122e-02
4.174230e-02
3.055568e-02
8.813574e-02
-4.644903e-02
2.474093e-02
-9.509131e-03
-3.352270e-02
5.366406e-02
2.816072e-02
-8.034735e-03
3.240623e-02
-5.301504e-03
1.136022e-02
1.038083e-02
5.827126e-02
1.171326e-01
7.682261e-02
3.192012e-03
-5.025388e-02
3.197218e-02
-4.009612e-02
2.795034e-03
5.693891e-02
8.452204e-02
-7.609846e-02
-6.497853e-02
-5.322002e-02
-5.102873e-02
-4.262765e-02
-6.147452e-02
-3.565422e-02
1.959423e-02
-1.351724e-02
-4.095540e-02
2.831409e-02
8.275809e-03
4.230318e-02
9.866063e-02
4.742746e-02
9.324959e-04
6.904386e-04
6.952740e-06
-1.970831e-03
-2.373132e-03
-1.645792e-03
-1.902443e-03
-4.043000e-03
9.925149e-04
-8.140585e-03
2.489027e-03
1.478280e-02
-6.036254e-02
-9.070836e-03
5.572754e-02
-6.720085e-02
1.632885e-03
-8.249962e-02
-2.307354e-02
-9.600039e-02
-1.060518e-01
-1.445574e-02
-6.854791e-02
-7.058912e-02
5.756649e-02
3.481314e-02
4.441819e-03
-1.128560e-02
2.222231e-02
-5.654315e-02
-2.460059e-02
3.095323e-02
-1.752233e-02
8.874975e-02
-5.465282e-02
7.629520e-02
-2.681306e-03
1.534999e-03
2.475984e-03
-1.967456e-03
1.842702e-03
-1.799121e-03
-3.319962e-03
1.220416e-03
-1.896635e-05
-1.918443e-02
-3.988385e-02
4.479267e-02
9.012179e-03
-2.236234e-02
1.390884e-02
-2.583114e-02
-2.796308e-02
-3.079229e-02
-1.250728e-03
5.712625e-02
5.903363e-02
6.485301e-02
9.215835e-02
1.189304e-01
4.612329e-02
7.327667e-02
8.171953e-02
-3.901902e-02
-4.678865e-02
-6.459382e-02
-4.587180e-02
-4.669980e-02
-7.226636e-02
-4.669159e-02
-5.910742e-02
-5.625111e-02
-8.635292e-04
9.921492e-03
8.135422e-02
-1.539570e-01
-5.830958e-02
-1.418137e-02
-3.260009e-02
-3.483895e-02
3.334961e-02
-1.995381e-02
-2.996910e-02
-3.009447e-02
-1.161713e-02
-2.016440e-02
-5.834254e-03
3.145905e-02
3.019455e-02
2.578631e-02
-1.083130e-02
-7.094750e-02
-5.337926e-02
1.661715e-02
-9.313793e-02
-8.958507e-02
-1.757106e-02
-1.152667e-01
-7.297439e-02
5.127183e-02
7.948723e-02
7.904590e-02
8.014255e-02
8.914839e-02
1.024862e-01
1.659266e-02
8.491652e-02
1.231890e-01
-7.851975e-02
-3.476437e-02
-9.238130e-03
-4.227995e-02
-3.570588e-02
-2.450112e-02
-7.692762e-02
-3.825419e-02
-5.270635e-02
-5.592490e-02
-8.033895e-02
-1.017407e-01
-4.455936e-02
-8.210990e-02
-8.060431e-02
-3.378296e-02
-6.685960e-02
-4.636557e-02
-1.197119e-02
-1.567119e-02
-2.921984e-03
-2.078256e-02
-4.127359e-02
-2.449861e-02
-2.512681e-02
-1.769008e-02
2.204596e-02
6.370053e-02
6.899264e-02
1.190385e-01
5.119024e-02
1.947648e-02
3.645545e-02
1.404699e-02
-1.205524e-02
-5.944281e-03
1.359542e-03
1.327168e-04
-1.642080e-03
-1.959351e-03
-1.006785e-03
9.483034e-04
1.720659e-03
-1.717876e-03
2.927305e-03
3.981248e-02
1.736611e-03
3.540329e-02
4.597137e-02
2.584568e-02
3.278006e-02
2.647501e-02
6.775173e-03
-1.210422e-02
4.329718e-04
-4.913148e-03
-2.567826e-02
-2.132063e-02
-1.845660e-02
-4.459341e-02
-4.599436e-02
-8.357248e-02
-6.689227e-02
-2.604748e-02
-1.032665e-01
-3.236898e-02
-8.845720e-04
-6.721433e-02
7.738638e-04
-7.275315e-02
-2.824846e-02
8.254611e-02
-3.350870e-03
1.256833e-03
-1.883645e-03
4.390960e-04
3.028724e-04
-2.685302e-03
-4.220901e-04
-2.677321e-04
-5.052726e-04
-3.512002e-02
6.818721e-02
8.359395e-02
-7.009471e-02
2.547069e-02
5.076448e-02
-1.937253e-02
-5.363895e-02
-5.607561e-02
-1.520215e-01
9.694593e-02
5.856719e-02
-4.356951e-02
-5.926373e-02
4.522527e-02
9.358964e-04
-1.050477e-01
-4.965767e-04
7.100344e-02
-1.130513e-02
6.043959e-02
2.294169e-03
-1.081716e-01
8.860651e-03
4.228745e-02
-7.123202e-02
4.485390e-02
-2.325713e-02
-6.230683e-02
-1.415143e-01
-1.844059e-01
4.096266e-01
-2.320437e-01
-7.643065e-02
-1.376877e-01
1.051675e-01
2.776079e-02
7.009435e-02
5.721388e-02
-4.131929e-03
4.421028e-02
2.514376e-04
-2.306160e-02
-6.621632e-02
-5.123015e-02
5.000624e-02
3.130971e-02
-4.857749e-02
-2.471731e-02
3.424358e-02
-1.153790e-01
-6.135507e-04
-3.625339e-02
-3.703490e-02
-7.466161e-03
-5.287803e-02
1.110401e-01
-1.414101e-02
-1.492320e-01
1.125727e-01
4.307644e-02
-2.724927e-02
-4.845327e-02
-8.045843e-02
-1.240345e-01
4.078844e-02
-5.903107e-02
-1.601138e-01
5.011247e-02
-6.301507e-02
-1.277614e-01
1.013779e-01
5.809882e-02
-4.320572e-02
3.612500e-02
-1.188934e-01
-1.994687e-02
-4.362522e-03
7.197770e-02
2.157097e-02
-2.309130e-03
3.185815e-02
5.145916e-02
9.346926e-03
1.788081e-02
1.447734e-01
8.681337e-02
-7.129345e-02
4.385989e-02
-4.577998e-02
-1.048574e-02
4.205754e-02
4.072180e-02
-1.044918e-02
-5.178273e-02
-3.413460e-02
-9.399812e-03
-6.664918e-02
-9.269697e-02
-3.677306e-03
1.453952e-03
-1.671368e-03
-2.854292e-03
-1.330793e-03
-7.994264e-04
-1.381752e-03
9.423464e-04
7.143936e-04
-4.235492e-02
4.559311e-02
3.886665e-02
-4.102308e-02
9.604222e-03
-1.560471e-01
5.885867e-02
-5.225387e-02
1.850987e-02
-1.792557e-03
3.782224e-02
3.473270e-02
4.565052e-02
-1.897613e-02
-5.700395e-02
3.533565e-02
-1.094503e-01
-2.487320e-02
1.775350e-01
-2.530096e-01
6.236054e-02
2.325712e-01
-4.024610e-01
3.182859e-01
9.154383e-02
-8.503982e-02
6.497755e-02
-7.838968e-04
1.380245e-04
-2.544150e-03
-7.613014e-04
1.257853e-04
6.585150e-04
-6.584636e-04
2.427318e-03
-2.318185e-03
6.742746e-02
5.418655e-02
-6.589701e-02
1.649361e-01
1.393034e-01
-5.400551e-02
8.844131e-02
1.036244e-01
-1.068469e-03
1.302632e-01
5.326056e-03
-1.139236e-02
1.321615e-01
-6.301086e-03
-4.059318e-02
-4.883768e-02
-8.002505e-02
-2.051788e-02
-6.971547e-02
-1.917460e-02
-6.387522e-02
-8.542631e-02
2.563621e-02
6.582496e-02
-1.153099e-01
2.462885e-02
4.443078e-02
7.805615e-02
-4.601767e-02
-4.895921e-02
3.026842e-01
-6.504489e-02
-2.212653e-01
1.729012e-02
-3.012707e-02
6.294753e-02
-3.392784e-02
-2.860210e-02
-3.808429e-02
-5.505616e-02
-3.519460e-02
-5.740848e-03
-6.637732e-02
-2.913954e-02
2.685172e-02
-3.000692e-02
-1.863165e-01
2.657192e-02
3.894345e-02
-2.958683e-01
3.493815e-02
7.123015e-02
-8.701778e-02
2.106672e-02
3.384891e-03
2.499892e-02
4.863760e-02
-8.629468e-02
9.301111e-02
1.100294e-01
-1.718244e-01
-6.759070e-02
1.104376e-02
4.672964e-02
1.169096e-01
-4.877282e-02
2.530118e-02
5.767314e-02
-8.057935e-02
4.133362e-02
8.225293e-02
-3.240720e-02
-2.349092e-02
-5.295683e-02
-3.939391e-02
1.382981e-01
1.415512e-01
-5.755087e-02
-1.628783e-02
-9.153007e-03
-1.423074e-01
-9.922026e-02
-6.694810e-02
4.410022e-02
-1.063446e-01
-1.117480e-01
-8.306536e-02
3.947501e-02
2.485941e-02
4.771358e-02
-3.893135e-02
-1.540907e-03
-3.546916e-02
-3.358294e-03
3.885986e-02
3.479321e-02
1.626406e-02
5.164882e-02
3.418535e-02
-6.182509e-05
2.148914e-05
1.648686e-03
1.387634e-04
3.525108e-03
-2.287183e-03
1.931968e-03
4.374367e-03
5.125268e-03
-1.036571e-01
-1.015321e-02
-1.054353e-02
-9.584831e-02
-4.306478e-02
2.621996e-02
-7.863243e-02
-2.418038e-02
-4.831307e-02
-1.099754e-01
-3.644703e-02
8.206832e-02
-7.500747e-02
-1.137515e-02
9.919234e-02
-3.052946e-02
1.976512e-02
1.079630e-01
-1.086640e-01
8.940391e-02
9.739292e-02
-2.279646e-01
2.938806e-01
1.639490e-01
-1.584530e-01
8.178176e-02
2.514710e-02
3.153699e-03
-2.368543e-03
5.480824e-04
-5.081155e-04
1.063524e-03
3.681951e-04
3.601575e-03
3.041775e-04
2.784014e-03
-2.455793e-03
8.869055e-04
9.470089e-02
-4.537731e-02
-5.823400e-02
-8.238747e-03
-1.042666e-01
-1.158192e-01
-1.250978e-01
1.075033e-01
1.474170e-01
6.349427e-02
1.060196e-01
-5.148781e-03
-7.494223e-03
-1.226996e-01
-2.077921e-01
-1.616458e-01
2.141777e-02
-1.285351e-02
1.606020e-02
3.100216e-02
-4.525278e-02
-1.973164e-02
6.048169e-03
2.732055e-02
8.368729e-02
1.176169e-01
1.229388e-01
6.436083e-02
-2.899840e-04
2.309562e-01
-3.049312e-02
-4.774981e-02
-2.966916e-01
-7.705585e-02
8.000496e-03
-8.272129e-03
-1.606787e-02
3.279571e-02
-3.368090e-03
-2.224146e-02
-2.668605e-03
-6.024987e-02
-7.842381e-02
-1.732548e-02
-3.144959e-03
-1.643552e-02
1.809767e-02
2.902915e-02
5.306915e-03
-1.303599e-01
-5.419747e-02
7.801940e-02
9.632687e-02
1.311035e-02
-2.578244e-02
-7.234838e-02
-6.196509e-02
-2.631764e-02
-1.311148e-01
-4.848932e-03
1.347331e-02
7.642674e-02
3.882572e-02
1.765209e-02
1.301770e-03
-1.728679e-02
-1.675585e-02
-6.891333e-02
-3.372039e-02
-2.165502e-02
-4.797337e-02
1.431571e-03
1.279646e-05
-8.905166e-02
-2.037365e-03
5.806599e-02
1.357058e-01
9.706447e-02
-2.066481e-02
6.049029e-02
3.842292e-02
6.914644e-02
3.576936e-02
6.518619e-03
-4.543880e-02
-6.758343e-02
-9.310675e-02
-1.624163e-01
-2.473237e-03
-1.273611e-03
-3.788150e-02
1.028167e-02
8.233140e-03
-1.398681e-02
6.694049e-03
5.364669e-02
5.040195e-02
-1.439921e-03
-3.643853e-03
3.432397e-03
2.458857e-03
4.416641e-03
-6.478806e-04
-2.195963e-03
-1.954835e-04
1.136482e-03
4.839594e-02
3.645700e-02
-2.786405e-02
5.296940e-02
5.235502e-02
-5.002559e-02
5.888517e-02
4.491585e-02
1.420413e-01
-1.711998e-02
-1.251991e-02
8.417863e-03
-7.381708e-02
-9.587242e-02
-8.948150e-02
-7.956806e-02
-1.211788e-01
-8.586798e-02
5.965751e-04
-5.846151e-03
-1.075042e-01
-3.528124e-02
-1.241177e-02
4.938440e-02
-3.812943e-02
1.448528e-01
-2.635642e-02
