2.337329e-02
2.201156e-02
-2.565084e-02
6.125328e-02
5.207086e-03
-1.826282e-02
2.415716e-02
-2.900934e-03
-4.445621e-02
8.395681e-02
1.273658e-02
-5.447683e-02
8.863147e-02
3.655649e-02
3.912050e-03
-1.564443e-01
-2.172337e-01
-4.362895e-02
1.689416e-02
4.207746e-02
5.721007e-02
1.901566e-02
3.286781e-02
5.350988e-02
-3.857544e-02
2.118656e-02
1.162586e-02
-3.157158e-02
1.635208e-02
2.846480e-02
-8.436440e-03
4.578774e-03
-7.226946e-03
-4.076882e-03
2.862824e-02
2.953060e-02
-2.529238e-02
2.847490e-03
-3.349312e-03
2.894249e-02
3.799456e-02
2.107612e-02
-2.549622e-02
-1.578934e-02
2.434700e-03
5.906563e-04
-2.983732e-02
-3.876961e-02
1.773119e-02
1.170395e-02
2.981459e-02
-4.217329e-02
-2.723825e-02
-5.341633e-02
2.597289e-02
4.688114e-02
2.804708e-02
-1.163255e-02
4.185701e-02
4.083696e-02
3.519772e-03
2.104443e-02
2.610333e-02
1.680442e-03
-8.870373e-04
4.096715e-04
-1.159371e-03
-1.930360e-03
-2.689534e-03
-1.789169e-03
-2.858911e-04
2.354046e-03
6.392816e-04
1.809538e-03
-4.035392e-04
1.728528e-03
1.861531e-03
1.316883e-03
-2.513552e-03
2.781847e-03
2.417336e-03
-9.990632e-03
3.143399e-03
2.532176e-02
-9.174620e-03
-2.203551e-02
2.371876e-02
6.179016e-02
4.347522e-02
6.110110e-03
-6.202222e-02
2.457753e-02
7.223321e-04
-1.105698e-02
-3.289840e-02
-3.482274e-02
-1.050552e-02
-2.381263e-02
3.382995e-02
1.825009e-02
3.658503e-02
1.812539e-02
1.696785e-02
2.100519e-03
8.397443e-03
-2.095220e-02
-1.684895e-02
4.705902e-03
3.986229e-02
6.127387e-02
2.975585e-02
6.281137e-03
4.397647e-02
2.397828e-02
-7.212141e-03
-2.012213e-02
-2.652114e-02
-1.182300e-01
4.421799e-02
1.569795e-01
-1.322225e-01
-1.584913e-02
-6.177070e-02
1.262762e-01
-2.549548e-02
-3.951238e-02
-2.890151e-02
-1.525019e-02
5.368741e-03
-1.514416e-03
-4.768766e-02
-5.234687e-02
1.203741e-02
-3.835351e-03
1.351310e-03
3.065057e-02
3.779079e-02
-5.566747e-02
-3.092848e-02
2.478764e-02
-3.090929e-02
-4.437968e-02
-1.701163e-02
-4.094825e-03
-4.703083e-02
-4.204642e-02
2.244986e-02
-1.663776e-02
-6.268680e-02
-3.930485e-02
-1.041764e-01
-1.172078e-01
-1.029840e-02
-3.714159e-02
1.302724e-01
9.973976e-02
1.264988e-01
2.271658e-01
1.784264e-01
1.023468e-01
1.871272e-01
9.160303e-02
-1.011916e-01
-5.737766e-02
-3.991977e-02
-3.754045e-02
-3.451338e-02
-5.125945e-02
-6.750049e-02
-1.054012e-01
-9.185882e-02
-1.878894e-02
-6.019745e-02
-1.275086e-01
-4.133147e-02
-4.085047e-02
-6.631151e-02
7.281253e-02
3.567901e-02
-1.757067e-02
-1.284943e-02
3.408271e-02
-5.976997e-04
2.679552e-02
-2.072190e-02
1.721413e-02
2.051947e-02
-5.266265e-04
-1.864381e-02
1.102112e-02
1.100939e-01
8.869079e-03
-3.061822e-02
-3.285414e-02
8.557727e-02
-3.649387e-02
4.506188e-02
1.488295e-01
-5.303143e-02
-8.275235e-02
-2.875062e-02
-4.402097e-02
-9.504236e-02
-9.301040e-02
-4.376602e-02
-5.026817e-02
-4.589244e-02
-1.534087e-04
-1.246849e-03
-8.375081e-04
8.941271e-04
-1.865344e-03
-2.279162e-03
-1.875367e-03
1.203668e-03
1.325237e-03
2.594990e-03
-3.998868e-03
3.152416e-03
-1.740315e-03
1.112792e-03
6.052710e-04
-2.123618e-03
1.687948e-03
-2.815501e-04
8.220816e-02
9.643647e-03
-1.120231e-01
-5.813271e-02
-1.124885e-01
-6.743169e-02
-5.933141e-02
-1.225638e-01
-1.032097e-01
4.508476e-02
4.173009e-02
-2.138966e-02
4.384777e-02
1.585485e-01
4.528822e-02
1.741332e-01
4.364933e-02
-9.502930e-03
-1.499711e-02
-5.866063e-02
-2.857471e-02
-5.122794e-02
8.485289e-03
3.949745e-02
1.327577e-02
4.321380e-03
5.937823e-02
5.463703e-02
-5.328792e-02
-4.067301e-02
6.148505e-03
-4.115110e-02
5.764447e-02
-6.291147e-02
6.359246e-02
5.561738e-02
1.374608e-01
-4.609646e-02
1.832148e-02
4.996881e-02
3.533699e-01
2.436061e-01
2.229251e-01
2.225089e-01
8.142350e-02
1.389816e-01
1.650161e-02
-3.257118e-02
4.610455e-02
-4.724994e-03
2.342774e-02
2.061846e-02
-3.604814e-02
-5.540106e-02
-6.881972e-02
9.942351e-02
7.179978e-02
-1.040592e-02
1.448773e-01
1.436600e-01
1.368991e-02
8.086263e-02
1.015580e-01
4.708121e-02
-3.877044e-02
-1.298445e-01
8.900502e-02
4.692551e-02
-3.326086e-02
9.389786e-02
1.165621e-01
9.551129e-02
-2.092449e-02
1.929250e-02
1.440531e-02
-1.455639e-01
-1.212154e-03
3.397914e-02
-9.606005e-02
-4.758428e-02
9.555793e-03
-1.607721e-02
2.961433e-02
5.133873e-02
-5.351533e-02
-2.820653e-02
-1.165056e-02
-2.908348e-02
2.837240e-02
1.930509e-02
2.831311e-02
5.742113e-02
6.417545e-02
1.238467e-01
1.344900e-01
1.370408e-01
-1.902475e-02
-1.110683e-02
-2.822362e-02
-1.666809e-02
-9.369168e-03
1.207646e-02
-2.280843e-03
2.263447e-03
9.424945e-03
-2.235423e-02
-2.392696e-02
-1.417364e-02
-2.194849e-02
-1.066679e-02
-1.920738e-02
1.804526e-02
-1.833608e-02
-2.092708e-02
-2.760379e-02
-3.774375e-02
-7.800289e-02
3.290530e-02
5.055188e-02
2.903068e-02
5.246439e-02
9.436707e-02
7.956181e-02
-3.609024e-02
-2.299363e-02
-6.882927e-04
1.779685e-03
-2.068412e-03
-1.381712e-03
1.917464e-03
-1.359987e-03
-2.661045e-05
9.819688e-04
2.195731e-03
4.308826e-04
-1.983037e-03
1.764566e-03
9.460751e-04
-1.904653e-03
-9.273491e-04
3.379416e-03
-1.045012e-04
-9.574760e-04
-4.015351e-04
2.793905e-02
1.174264e-01
7.556135e-02
-1.791367e-02
6.156928e-02
1.205414e-01
-5.059895e-02
2.842792e-02
7.367923e-02
1.034380e-01
7.336085e-02
2.038437e-02
8.397597e-02
2.515128e-02
-2.854551e-02
3.611990e-02
4.164279e-03
-3.581872e-02
-2.696201e-02
1.106795e-02
1.250753e-02
-9.414158e-03
2.330138e-02
9.305444e-02
-1.152387e-02
2.865562e-02
8.072828e-02
-6.566347e-02
-9.776574e-02
-3.205312e-02
-5.579755e-02
-5.407748e-02
-2.818318e-03
-1.130615e-02
-1.738490e-02
1.240141e-02
7.456538e-03
4.274842e-02
-2.879469e-02
6.302889e-02
3.238084e-03
-2.873422e-02
-2.010964e-02
-1.028640e-01
-2.491143e-02
1.431337e-02
-1.726369e-02
-1.637107e-02
6.539983e-02
5.247081e-02
7.243557e-02
4.052848e-02
7.419591e-02
8.227578e-02
-1.873214e-03
7.910139e-03
6.222721e-03
-8.296078e-03
5.018364e-02
4.223455e-02
4.151304e-02
8.162767e-03
2.161936e-02
-1.871406e-02
-1.638697e-02
7.722333e-03
-2.885879e-02
-6.211760e-03
-6.021774e-03
-4.290624e-03
2.816785e-03
-3.205919e-03
-3.379403e-02
2.042429e-02
6.115720e-02
5.857951e-03
8.560638e-02
-4.132074e-02
1.201135e-02
-9.214294e-02
2.110488e-03
1.067849e-02
2.835480e-02
2.523032e-02
5.732490e-03
-8.088601e-03
-2.014983e-02
1.161593e-02
-1.377617e-02
5.569591e-03
-3.827680e-03
-3.994809e-04
-1.323844e-02
-6.428803e-03
-2.122048e-02
-1.912732e-02
-3.628942e-03
-9.715265e-04
4.402055e-03
-2.089415e-03
-9.114003e-03
-1.377380e-02
7.889864e-03
8.278492e-03
1.624534e-02
-1.262829e-03
-3.926328e-03
-6.298478e-03
2.154744e-02
2.408501e-02
-8.218278e-03
1.693345e-02
-2.504280e-02
-1.899700e-02
2.773529e-03
4.052972e-03
3.164522e-02
7.810533e-03
6.836496e-03
1.836331e-02
-2.383374e-03
-3.132924e-03
-3.840708e-03
-1.027218e-02
-8.140469e-03
-4.378163e-03
-3.558833e-03
2.538235e-04
-1.144086e-03
7.650555e-04
1.773348e-03
-2.213219e-03
-9.036016e-04
-3.536597e-04
-1.710720e-03
1.180719e-03
1.260953e-03
-1.598746e-03
3.026228e-03
9.569932e-04
-3.587496e-03
3.002150e-03
-7.626003e-04
-9.914250e-04
6.472810e-03
4.092975e-03
-2.875256e-03
1.223610e-02
-6.445332e-03
-6.938725e-03
1.558727e-02
3.431502e-03
-7.877218e-04
2.037704e-02
-4.216602e-02
3.422392e-03
-2.027386e-02
-5.402954e-03
1.494527e-02
-4.607767e-03
2.620534e-03
-2.838330e-03
1.039489e-02
4.675320e-03
6.777902e-03
1.232318e-02
1.707500e-02
-1.106595e-02
1.746581e-02
-5.319177e-03
-1.362253e-03
7.629534e-03
1.251422e-03
-1.779156e-02
2.464393e-03
1.363826e-02
-2.156588e-02
8.691917e-03
2.440345e-02
-1.000170e-02
8.317328e-02
-5.091954e-02
-7.063118e-02
-4.009767e-02
-2.718766e-02
5.875478e-02
1.453158e-02
7.032704e-02
1.056058e-02
-5.654390e-03
7.727220e-03
-3.090733e-03
-2.145954e-04
3.487510e-03
-9.340481e-04
-2.633579e-02
-1.859546e-02
2.594851e-03
-4.296889e-03
2.498472e-02
2.016282e-02
-7.532960e-03
8.209357e-03
-4.462732e-02
-4.855201e-03
1.361692e-03
1.125273e-02
-7.614681e-03
-5.945173e-02
-5.156165e-02
3.061438e-02
-1.122143e-02
-1.249465e-02
4.669159e-02
-5.268833e-03
1.770079e-02
-6.084986e-03
-2.295574e-02
1.575475e-01
1.129173e-01
-1.243048e-01
1.235536e-01
1.985513e-02
-4.266810e-02
6.713991e-02
-8.902550e-03
-5.971432e-02
-5.998906e-02
2.220894e-02
-3.614338e-02
-1.264443e-02
-1.676037e-02
-8.520026e-02
-4.563294e-02
2.019995e-02
-5.650425e-02
-6.790506e-02
-5.749802e-02
-9.007255e-02
-7.616481e-02
3.202499e-02
1.939787e-02
-1.047207e-02
1.959192e-02
-1.447291e-02
-1.056198e-02
-6.191567e-03
-1.747622e-02
-2.463157e-02
8.703524e-03
-3.108399e-02
-1.530435e-02
-3.153162e-02
5.790115e-02
7.471727e-02
-9.501117e-02
2.676768e-03
-1.310006e-02
-5.265025e-02
-1.039072e-01
-5.723596e-02
-3.157838e-02
-4.331033e-02
-3.265395e-02
-3.322098e-02
-6.611499e-02
-5.435721e-02
-4.480683e-02
-1.957205e-02
-1.055683e-01
5.882893e-04
4.121198e-04
1.230365e-03
2.327752e-03
1.118753e-03
3.109156e-03
-1.218943e-03
-3.237316e-03
-2.333826e-03
2.214164e-03
4.448021e-04
-4.939599e-04
-1.570883e-03
2.875198e-04
1.443794e-03
-6.317736e-05
-9.722682e-05
1.019568e-03
-5.340136e-02
-1.989308e-02
-4.635046e-02
-2.576569e-02
6.579754e-02
-2.123264e-02
1.189327e-02
7.130043e-02
-1.650899e-02
3.733415e-02
7.034751e-02
-2.370101e-02
4.919590e-02
8.311368e-02
4.211243e-02
3.726362e-02
-2.839244e-03
6.551943e-02
-2.171512e-02
4.230171e-02
2.305308e-02
-7.543173e-02
8.230703e-02
8.558261e-02
-7.855175e-02
8.393662e-02
5.905686e-02
3.953075e-02
1.135443e-01
6.347957e-02
1.849293e-02
9.265400e-02
1.143823e-01
-3.605111e-02
5.855288e-02
7.453537e-02
-6.754923e-02
-4.342231e-02
-1.384664e-01
-1.242471e-01
-7.880785e-02
-1.278414e-01
-7.861203e-02
-8.029470e-02
-5.170482e-02
-2.721124e-02
-3.372312e-02
-2.725984e-02
-7.116199e-02
1.139444e-03
-1.671338e-02
-1.992682e-02
-2.763300e-02
-1.613835e-02
-8.899748e-02
-2.080542e-02
-8.819036e-03
-6.701746e-02
-3.643042e-02
8.105761e-02
-1.316107e-01
-8.602978e-02
4.915300e-02
1.110177e-02
3.670865e-02
4.932164e-02
8.867548e-03
-2.158585e-02
4.576534e-02
-5.676723e-02
-1.953492e-02
2.765618e-02
1.269118e-02
-3.290047e-02
4.414403e-02
3.490808e-02
1.505938e-02
1.044234e-01
4.276736e-02
1.094431e-01
5.155032e-02
-4.174295e-02
-5.488397e-02
-7.886718e-02
-2.853862e-02
-6.652838e-02
-5.059252e-02
1.578188e-02
-3.131443e-02
-4.202174e-02
1.999754e-02
-1.718605e-02
-2.170894e-02
-1.126200e-03
-1.791575e-02
-5.182869e-02
2.086393e-02
-4.773496e-02
-3.339374e-02
-2.569037e-02
3.491307e-03
4.633096e-03
-2.241345e-02
-1.484449e-02
-1.141601e-02
-1.323562e-02
1.205853e-03
-5.498852e-03
-3.250062e-02
-3.310138e-02
-3.688204e-02
-5.951766e-03
-4.682793e-03
-3.637695e-03
1.601554e-02
2.911874e-02
-8.220178e-03
8.941185e-03
-2.721156e-02
-6.678028e-03
1.051644e-03
1.187760e-02
-3.354018e-02
-8.404226e-03
-2.971471e-02
-4.455898e-02
1.827081e-03
7.069728e-04
1.676145e-03
9.258142e-05
4.641397e-03
3.058509e-03
-2.340699e-03
-2.832146e-03
-8.456103e-04
2.563526e-04
-2.723535e-03
2.705678e-03
-3.218834e-04
-5.472439e-05
2.756650e-03
-6.350815e-04
1.136300e-03
4.501029e-03
5.874508e-02
6.499185e-02
4.409261e-02
8.587361e-02
-1.855410e-02
-1.618852e-02
7.718755e-02
1.455792e-02
-3.288582e-02
-2.296172e-02
8.557874e-03
4.059091e-02
1.498937e-02
-2.589004e-02
8.254029e-02
5.113029e-02
5.035119e-02
6.638540e-02
1.385584e-02
4.257302e-02
3.516076e-02
4.996886e-03
2.657155e-02
2.535093e-02
2.267523e-02
1.391384e-02
-3.932671e-02
3.250967e-02
1.391880e-02
2.242299e-02
2.370213e-02
3.315597e-02
-1.062792e-02
-1.017186e-02
1.458031e-02
-2.741030e-02
-7.513028e-02
2.426257e-02
-1.309081e-02
7.536429e-02
-3.236838e-03
9.627082e-03
-2.008965e-02
4.130749e-02
8.103440e-02
-6.274928e-02
2.749124e-03
6.113336e-02
-3.548731e-02
1.069567e-02
4.790242e-02
-2.907563e-02
-3.289489e-02
-2.612677e-02
-2.752513e-02
-6.575333e-02
-1.557828e-02
-8.411036e-02
-5.663454e-02
-2.706738e-02
-1.202813e-02
-3.751255e-02
-1.038624e-01
5.593464e-02
5.192871e-02
7.821942e-02
3.285674e-02
9.660961e-02
1.119450e-01
5.947211e-02
1.867784e-02
1.207026e-02
-1.365089e-01
-1.594990e-01
-5.642840e-02
-1.176869e-01
-6.627124e-02
-1.824518e-01
8.047000e-02
-1.305996e-01
-1.676448e-01
6.025669e-03
-3.144614e-02
3.987488e-02
8.175888e-03
1.607279e-02
-3.288260e-03
6.756491e-03
-1.060551e-02
4.422312e-02
-1.737317e-02
-1.047539e-03
5.594159e-02
-7.178761e-03
3.360544e-03
2.903732e-02
-4.397827e-02
-4.086832e-02
-1.665138e-03
4.307159e-02
4.170187e-02
4.814612e-02
-3.408415e-03
4.845755e-03
2.188955e-02
-3.203150e-02
-2.698350e-02
-2.758668e-02
2.377375e-02
7.646722e-02
3.465220e-02
-4.431091e-02
3.318495e-02
-2.207951e-02
-3.479759e-02
-7.578778e-02
9.166024e-02
-1.740110e-02
2.062319e-02
5.196051e-02
3.702455e-03
-1.854450e-02
-1.216838e-02
4.042684e-02
1.135467e-02
-1.262512e-02
-9.031720e-04
1.733981e-03
-1.278121e-03
-3.000593e-03
-5.049982e-03
-3.007634e-03
-2.180700e-03
-3.841404e-04
2.107524e-03
-8.366834e-04
2.187448e-03
-1.689682e-03
1.753358e-03
-4.645219e-04
-6.220993e-04
-9.436294e-04
2.090522e-03
-2.159833e-04
-7.129691e-03
-5.976075e-02
-3.740961e-02
8.838085e-02
7.734976e-02
-6.526951e-03
6.438543e-02
5.541683e-02
1.862642e-04
-9.484845e-02
-1.571858e-02
1.839898e-02
-1.191062e-01
-1.858629e-02
3.476697e-02
-1.797245e-01
-4.757098e-02
-1.219051e-02
-3.726762e-02
-5.626708e-03
5.366115e-02
-3.032145e-02
-1.621058e-04
1.173709e-03
-5.661699e-02
-1.942038e-02
-6.728756e-02
-7.526020e-02
-1.666558e-02
-8.364686e-02
-2.972122e-02
-2.961493e-02
-1.159055e-02
-6.921694e-03
-7.309514e-02
-2.569948e-02
3.303114e-02
-1.156534e-01
-2.379808e-01
-3.258873e-02
-2.024824e-01
-8.454254e-02
-2.922905e-02
8.574419e-02
7.963144e-03
8.942548e-02
9.757536e-02
6.462330e-02
-2.266327e-02
1.570985e-02
-9.936887e-03
1.328352e-03
3.176062e-02
7.415801e-02
-5.361769e-02
4.187371e-02
-9.559896e-03
-1.318533e-02
6.415980e-02
9.104522e-02
-5.279371e-02
3.076608e-02
5.674748e-02
7.505801e-02
-8.131250e-03
-6.688152e-02
-5.449291e-03
1.739475e-03
-5.371070e-02
-3.164909e-02
-1.628523e-02
-8.061639e-02
4.209443e-02
1.486595e-01
1.994992e-01
4.397650e-02
2.458620e-01
1.976709e-01
1.300353e-01
1.219273e-01
1.161688e-01
3.519532e-02
7.952566e-02
1.584162e-01
2.799374e-02
8.293781e-02
1.034182e-01
-7.394717e-02
-1.117880e-02
-4.650288e-02
5.582169e-02
9.845117e-02
6.840394e-02
9.040230e-03
1.914473e-02
8.777814e-03
-1.492653e-01
-7.550499e-02
-3.623096e-02
7.237436e-02
1.136321e-01
8.770157e-02
3.260573e-02
2.260192e-02
4.575647e-02
6.477644e-02
9.663517e-02
7.144383e-02
6.208691e-02
2.182819e-01
1.071330e-01
9.313571e-02
6.749965e-02
-4.241556e-02
3.304510e-02
-1.239632e-02
-8.701411e-02
-4.587305e-03
3.868209e-02
2.678211e-02
5.157322e-02
1.693369e-02
-2.834086e-03
-5.673727e-02
-3.313104e-02
-3.250013e-02
-2.858411e-04
3.447848e-03
2.838539e-03
7.827177e-04
1.823184e-03
-4.160084e-03
2.933689e-04
-2.280468e-04
-1.275445e-03
-1.507777e-03
2.009040e-03
-3.323191e-03
-6.383162e-04
-8.269663e-05
5.693520e-04
1.690168e-03
1.508535e-04
-2.035534e-03
-6.115025e-02
-2.257323e-02
-3.278074e-02
-5.556633e-02
-6.753667e-02
4.862832e-02
-6.854716e-02
-1.994143e-03
-1.550226e-02
2.042787e-02
2.536312e-02
1.867067e-02
3.681127e-03
-3.096854e-02
7.046852e-02
-6.405324e-02
-1.429478e-02
1.914848e-02
-4.276333e-02
3.520902e-02
4.691179e-02
8.968019e-02
7.359729e-02
7.801981e-02
8.691152e-02
3.718520e-02
-7.390985e-04
-1.164730e-01
-5.604709e-02
-1.289579e-02
-5.543248e-02
-6.777447e-02
-5.121111e-02
1.956982e-02
-2.886634e-02
-2.886092e-02
1.046819e-01
4.455629e-02
4.322388e-02
2.522188e-01
1.779447e-01
7.706919e-02
5.959630e-02
1.345472e-01
1.189772e-01
2.201922e-02
2.004800e-01
1.878085e-01
2.255462e-02
1.327951e-01
1.108037e-01
3.563292e-02
1.230295e-01
1.237105e-01
1.214834e-02
9.548547e-02
1.075167e-01
1.233308e-01
8.202808e-02
4.861256e-02
4.244584e-03
-1.068438e-01
-1.567412e-01
1.546553e-02
-3.545918e-02
-1.730153e-02
3.724139e-02
-3.097746e-02
-4.278583e-02
-1.253123e-02
-5.078121e-02
-5.645244e-02
7.165249e-02
-8.208921e-02
-4.196045e-02
-5.780530e-02
-7.946466e-02
1.986295e-02
1.139357e-02
-7.689372e-03
2.366624e-02
-7.097305e-03
-4.825642e-03
-2.138693e-02
-1.816216e-02
-3.527639e-04
2.090422e-03
-5.541054e-03
-7.988269e-03
-2.837001e-02
5.838545e-03
9.961315e-03
-9.030755e-03
5.363736e-02
6.309471e-02
4.271757e-02
5.116884e-02
4.146761e-02
1.845539e-02
-1.126492e-03
-3.001535e-03
-7.667392e-03
-8.625438e-04
-1.261406e-02
-1.059396e-02
1.139743e-02
2.189784e-02
-2.240372e-03
-5.104504e-02
-2.710460e-02
1.840652e-02
-2.442526e-02
-1.292492e-02
1.985083e-02
-1.216098e-02
-4.997232e-03
-4.140270e-03
-8.900098e-03
-5.194025e-03
-4.558533e-02
-1.776879e-02
-1.861637e-02
-2.439236e-02
-2.038946e-02
-6.258467e-03
-2.882294e-02
9.927375e-04
-2.060347e-03
7.494046e-04
2.485119e-03
-3.338133e-03
3.133072e-04
2.229291e-04
4.761242e-05
2.239115e-04
-1.948860e-03
6.565485e-05
-3.924624e-03
-2.787935e-04
3.126469e-03
-9.694265e-04
-1.014499e-03
1.327196e-05
4.615363e-04
2.560679e-03
-4.983791e-02
-2.131913e-02
-2.771775e-03
-2.276311e-02
-4.502094e-02
-1.221072e-02
-3.131356e-02
-2.903995e-02
1.841373e-02
2.228715e-02
-1.438955e-02
5.272042e-02
-2.862681e-02
-1.493426e-02
-1.320011e-02
-5.554428e-02
-4.726947e-02
-1.653493e-02
-3.630152e-02
-1.823351e-02
-2.727291e-02
-4.115755e-02
-2.812248e-02
-7.723575e-03
5.920356e-03
4.042368e-03
5.428154e-03
-1.826954e-02
3.017088e-03
-1.635497e-02
-5.420763e-02
-7.648209e-03
-3.538110e-02
-2.516140e-02
2.687463e-03
2.744276e-03
2.949405e-02
-1.601363e-02
9.879882e-02
4.326109e-02
-6.057734e-03
-6.391758e-02
-2.333950e-02
-3.048916e-02
-1.679487e-02
-7.318864e-03
6.015720e-04
6.803058e-03
-1.337315e-03
6.732082e-03
2.960072e-02
-2.530869e-03
2.587408e-02
6.570250e-02
3.175637e-02
7.938057e-02
5.415602e-04
-4.465818e-02
7.153171e-02
4.611234e-02
-1.557473e-03
4.812009e-02
1.057985e-02
5.898885e-03
3.263348e-02
-6.129197e-03
-1.214671e-03
-4.614546e-03
4.107859e-03
-4.186596e-03
1.581901e-03
-4.089992e-03
3.397535e-02
3.507812e-03
6.173751e-02
5.141319e-02
-6.506339e-02
-1.582918e-02
-7.409033e-02
-1.605098e-03
-5.412418e-03
-2.909533e-03
9.276920e-03
9.122172e-03
-2.437587e-02
-1.995151e-02
-6.599193e-03
-1.543437e-03
-5.073134e-04
-1.380236e-02
-2.238739e-02
-1.764441e-02
-1.318907e-03
-2.806059e-04
6.651563e-03
1.497856e-02
1.709512e-02
3.129441e-03
5.310544e-04
3.002306e-03
1.132371e-02
1.480763e-04
1.074833e-02
7.016042e-03
1.867451e-03
-6.044822e-03
1.850343e-03
2.720969e-02
1.926704e-03
-1.395769e-02
-3.488926e-03
-1.380357e-02
-2.723426e-02
1.015456e-02
2.585022e-02
-3.310145e-02
3.794373e-03
3.770426e-03
-5.732909e-03
-4.368154e-03
6.667319e-04
-5.849743e-03
1.599394e-02
2.499025e-02
1.367242e-02
-6.835178e-04
-2.147500e-03
2.021811e-05
2.614284e-04
1.602393e-03
-9.171186e-04
8.358253e-04
-1.614533e-03
-1.316823e-03
3.040109e-04
1.965441e-04
-8.719084e-04
1.429334e-03
-2.494202e-04
-9.444902e-05
-2.336865e-03
7.170242e-04
-3.567737e-04
-3.386649e-02
-2.938062e-02
1.924804e-03
-1.160706e-02
1.647589e-02
1.333797e-02
7.891415e-03
3.590582e-03
1.179690e-02
-2.122943e-02
9.416993e-03
2.955879e-03
3.512291e-03
-1.017084e-03
1.380253e-02
1.921815e-02
4.307497e-03
-2.104330e-02
-2.849638e-03
1.367114e-02
1.453700e-02
6.432868e-03
1.852365e-02
-4.625140e-03
-5.752907e-03
-2.458642e-02
1.334027e-02
5.335266e-03
-7.702874e-03
-2.176266e-03
-3.861250e-03
-1.539688e-02
-2.043583e-03
1.598906e-03
3.762582e-03
2.077374e-02
-6.489000e-02
-1.607692e-02
-2.024241e-02
3.895810e-03
5.418732e-02
-1.582545e-02
2.052767e-02
1.409166e-02
-1.298127e-02
-5.684513e-03
-1.329060e-03
-1.248964e-03
8.822096e-03
1.895957e-02
-5.038512e-03
9.761225e-03
-1.179530e-03
3.123472e-03
4.540262e-03
2.424687e-02
-1.014119e-02
2.228990e-02
3.115722e-03
-5.190146e-02
-1.516113e-02
9.389158e-03
1.463560e-02
2.951864e-02
2.330130e-02
6.059314e-02
2.523752e-02
-1.371039e-03
1.166669e-02
-2.497430e-02
-2.473843e-02
-1.755100e-02
-1.348999e-02
-1.853780e-02
5.305070e-02
4.134926e-02
-2.154766e-02
4.806074e-02
-2.952393e-02
-9.341690e-03
-1.139707e-02
2.399735e-04
1.543080e-02
5.113197e-03
9.445326e-03
9.411239e-03
-3.781283e-02
2.495593e-02
-1.532524e-02
-2.002404e-02
-8.223165e-03
1.631618e-02
1.308117e-02
-3.888250e-02
-2.850174e-02
-1.231419e-02
-4.733703e-02
-3.813782e-02
-4.100177e-02
9.806159e-03
-6.470398e-03
-3.132531e-03
-1.518023e-02
-1.068908e-04
6.589951e-03
-5.408868e-03
1.601658e-03
6.183902e-03
-3.844654e-03
1.199434e-01
-1.863198e-02
6.737126e-03
-1.254268e-02
-3.614292e-02
2.829161e-03
-2.563797e-02
-9.894781e-04
-2.631910e-02
7.486415e-03
1.716324e-02
-3.170247e-02
-1.765289e-02
-1.884482e-02
-2.885492e-02
-2.270203e-02
-6.494729e-02
-1.263303e-03
1.930537e-04
-1.271548e-03
-2.491386e-03
4.364962e-03
1.419145e-04
4.149021e-04
4.394056e-03
4.297975e-04
2.072732e-03
2.207201e-03
-2.913429e-03
1.193661e-04
-1.159037e-03
1.567757e-03
-1.068207e-03
1.054590e-03
-7.822798e-04
-3.481519e-02
1.712210e-02
4.055343e-02
9.794557e-03
1.842345e-02
2.948277e-03
2.321665e-02
3.397563e-02
-2.924999e-02
9.877260e-03
-4.013991e-02
-4.241013e-02
-3.957530e-02
-1.573705e-02
1.535903e-02
-2.899387e-03
-3.022946e-02
3.306921e-02
-5.067509e-03
1.682321e-02
1.249741e-02
-5.322826e-02
3.214887e-02
1.672801e-03
-3.170483e-02
3.531839e-03
9.486099e-03
-2.635602e-02
2.400072e-02
-1.134115e-02
-1.368945e-02
-5.051856e-02
1.535462e-02
-1.267322e-02
-1.098141e-02
-4.003372e-02
1.289124e-01
-3.197162e-02
-1.129776e-01
-5.328236e-02
2.695157e-02
8.268552e-02
-1.841246e-02
8.609395e-02
6.098583e-02
-7.031336e-04
3.702015e-02
5.452324e-03
-2.252374e-02
3.446216e-03
-1.352653e-02
-1.442438e-02
-2.119239e-03
7.443826e-03
-2.808777e-02
-2.590277e-02
1.701882e-02
-7.156327e-02
-4.110361e-02
1.469458e-02
1.287820e-02
-1.977970e-02
1.741939e-02
8.368554e-02
1.131784e-01
1.866684e-02
1.579899e-01
1.566734e-01
9.179223e-03
8.173636e-02
7.142469e-02
-5.871488e-02
-4.074765e-02
-5.429672e-02
-1.132935e-01
3.396494e-02
-1.927922e-01
-1.596506e-01
2.938974e-02
-1.658212e-01
-4.405535e-02
1.060262e-01
6.194238e-02
1.103103e-04
3.877893e-02
5.338762e-02
-2.400679e-02
-7.684417e-02
-7.911532e-02
4.479441e-03
-6.554921e-02
-6.370284e-02
-4.562933e-02
-7.795398e-02
-3.914385e-02
-1.384453e-02
-7.478028e-02
-8.649786e-03
-2.779615e-02
4.258567e-03
-1.498330e-02
-3.204291e-02
6.155460e-04
-4.621704e-03
-1.183165e-02
1.575484e-02
-1.881666e-02
-4.621106e-02
-1.632406e-02
-2.423971e-02
-3.978941e-02
-1.085247e-01
-6.773923e-02
-6.251734e-02
-6.200908e-02
-2.762465e-02
-6.242872e-02
2.110715e-04
4.734049e-02
-2.070979e-02
6.641521e-03
5.165242e-02
5.000082e-02
-6.042249e-02
3.685231e-02
8.273392e-02
1.354432e-03
-1.859691e-05
-3.620732e-03
-2.109054e-04
4.083202e-03
-4.097118e-04
-2.306020e-03
-2.091252e-03
3.247384e-04
-2.645220e-03
-7.795427e-04
-2.033165e-03
-2.744125e-04
-4.472800e-03
-6.852442e-04
-4.023036e-04
-3.056843e-03
3.476281e-03
-2.252144e-02
4.123222e-02
7.453380e-02
2.522723e-02
1.551124e-01
7.904037e-02
9.170761e-02
1.817860e-01
1.124609e-01
-7.727899e-02
-1.329535e-02
-2.672213e-02
1.358944e-02
-2.259389e-02
5.302409e-03
7.749237e-02
1.088720e-02
5.476325e-02
-3.644897e-02
1.105518e-03
-3.358610e-03
1.301280e-02
-9.354075e-03
-4.024899e-02
-2.727122e-02
-3.294321e-02
-1.037058e-01
3.775941e-02
-9.246887e-03
3.598554e-02
5.782464e-02
-6.132536e-02
-1.158372e-02
2.297233e-03
-1.012687e-02
-1.048288e-01
-6.092814e-02
-6.557440e-02
2.098186e-02
-1.137386e-01
7.379187e-03
-1.582087e-03
4.629419e-02
3.462592e-02
-1.020831e-01
1.905649e-04
3.209430e-02
-3.885097e-02
3.198396e-02
-1.411960e-02
-2.672748e-02
8.274027e-02
-2.918042e-02
-2.748358e-02
1.682339e-02
-2.770140e-02
9.155734e-03
-2.755601e-02
-4.952677e-02
-3.015378e-02
-8.937252e-02
-8.030900e-02
-1.262154e-01
-6.416064e-02
-5.377158e-03
2.275649e-02
4.225256e-02
5.763887e-02
4.171467e-02
1.710449e-02
6.103454e-02
5.741190e-02
9.523776e-03
-5.759958e-02
-1.745208e-01
-1.180576e-01
-1.825782e-01
-2.791611e-01
-1.366566e-01
-1.866847e-01
-8.794296e-02
-4.513292e-02
2.423269e-02
-2.290906e-02
3.328959e-02
-1.614225e-02
-2.407755e-03
7.819498e-03
-8.273595e-03
-1.280508e-02
-1.206743e-02
5.610620e-03
7.784360e-03
3.782756e-02
2.026911e-02
3.701055e-02
-1.081910e-02
-1.761170e-02
-4.680658e-02
8.288127e-03
1.942025e-02
1.078518e-02
-1.162094e-02
-1.368989e-02
3.018305e-02
-7.112553e-03
-3.623516e-03
2.364485e-02
5.769942e-02
-1.482164e-02
-6.044307e-02
-1.158350e-02
-3.340615e-02
9.093378e-03
-4.570990e-02
-7.138477e-02
-5.332875e-02
2.537434e-02
7.665852e-02
5.429368e-02
4.457169e-02
1.645745e-02
6.032617e-02
5.148733e-02
-1.266895e-02
5.240965e-03
-5.662512e-05
2.506363e-04
-2.151497e-03
-1.197394e-03
-3.027470e-04
1.683174e-03
3.597587e-03
-2.244931e-03
9.139195e-04
-9.196135e-04
6.730718e-04
-4.434386e-03
-1.232829e-03
5.378934e-04
3.049413e-03
8.925655e-05
-1.487892e-04
-1.224591e-04
4.167388e-02
2.867064e-02
7.058790e-02
-2.377590e-02
2.197011e-02
5.238078e-02
1.952825e-02
7.891019e-03
9.083940e-02
3.112116e-02
-1.021946e-01
-2.339790e-02
-4.729366e-02
-9.478457e-02
-4.647184e-02
4.060712e-02
-1.052776e-01
2.606456e-02
-1.955184e-02
-4.060308e-03
7.980886e-02
-4.635891e-02
9.623067e-03
1.154969e-01
1.718393e-02
4.522654e-02
6.544552e-02
-3.255351e-03
-3.196202e-02
4.013706e-02
3.628041e-03
1.199741e-02
-1.635057e-02
1.926431e-02
4.039842e-02
5.575558e-02
-1.144883e-01
-1.935070e-01
-1.908673e-01
-1.471720e-01
-2.098777e-01
-2.558532e-01
-1.085255e-01
-1.662037e-01
-1.374368e-01
4.896979e-02
8.101239e-02
1.150704e-01
2.676738e-02
-1.594177e-02
1.180700e-01
-2.432443e-02
-2.174092e-02
9.676658e-02
-2.908956e-02
-3.951199e-03
-6.254534e-03
-3.354835e-02
-9.260599e-02
-8.950660e-02
5.458993e-02
-3.147911e-02
-3.359176e-03
-4.718709e-02
-3.566859e-03
-1.293845e-02
-8.023974e-02
1.227275e-02
3.466545e-02
2.426415e-02
8.456414e-03
-6.574575e-04
-9.634731e-02
2.481715e-02
-1.081201e-02
-1.422595e-01
8.550920e-02
-4.035706e-03
-7.093477e-02
1.994720e-02
7.232229e-02
-2.276646e-02
-5.413469e-02
-2.251176e-02
5.225418e-03
-1.095239e-02
-1.081898e-03
1.496171e-02
2.644533e-02
2.310007e-02
-7.031954e-03
1.202908e-02
-1.836617e-02
7.438408e-03
-9.513046e-03
-3.948020e-02
-6.127894e-03
3.977744e-03
3.017596e-02
-2.370340e-03
4.338796e-03
4.225186e-03
2.291594e-02
-7.900246e-03
-3.743178e-03
-2.414630e-02
-4.877294e-03
1.286835e-02
3.032641e-02
-2.454293e-02
-1.449520e-02
6.583890e-02
4.805426e-02
-7.866435e-04
5.157513e-03
-6.426404e-03
-1.184321e-02
5.591108e-02
6.239155e-03
1.231438e-02
4.208031e-02
9.986605e-03
-2.316117e-02
2.011184e-02
-2.668798e-02
-4.993736e-02
3.781086e-03
2.749880e-03
-3.585688e-04
-2.937297e-03
-3.545900e-04
-1.576141e-03
-7.462085e-04
-3.751797e-04
-1.474596e-03
-1.786779e-03
-2.369425e-03
-1.999493e-03
2.162634e-03
2.995398e-05
-6.482606e-04
2.352245e-03
1.697274e-03
-1.276446e-04
3.111981e-02
-1.649224e-02
-1.255456e-02
3.036240e-04
-5.024852e-03
-1.550302e-02
-5.046388e-02
-3.743282e-02
7.184731e-03
9.524641e-02
2.938648e-02
9.948061e-02
4.691522e-02
5.592138e-02
-2.559641e-02
-5.118188e-02
7.448474e-02
5.249714e-02
4.593985e-02
-2.298109e-02
-9.500629e-02
9.512193e-02
-4.468735e-02
-1.060435e-01
6.079778e-02
4.460248e-02
-6.648510e-02
-6.503383e-03
-2.721775e-03
-2.142170e-03
-4.745235e-02
6.281888e-02
-8.308247e-02
1.546117e-02
-4.688951e-02
2.491790e-02
1.000794e-02
3.503562e-02
5.758542e-02
9.886313e-02
-4.526674e-02
-4.374355e-02
-8.952089e-02
-8.611433e-02
2.761331e-02
1.797552e-04
-5.705228e-02
-1.479810e-03
4.254802e-02
-1.907322e-02
3.174711e-02
1.111042e-02
2.042922e-02
3.112218e-03
6.883033e-02
5.461153e-02
-7.082572e-03
8.439753e-02
1.215675e-01
-8.228966e-02
-6.793400e-02
3.480948e-02
5.593958e-03
4.796680e-03
6.158088e-03
1.570081e-02
1.226309e-02
1.939893e-03
1.902230e-02
7.427965e-03
1.434057e-02
8.819831e-03
-3.165897e-02
-1.718508e-02
6.683364e-02
3.310808e-03
5.048896e-02
-5.320863e-02
5.454555e-03
-3.401370e-02
-3.674249e-02
-6.943798e-03
1.582874e-02
2.870600e-03
-1.132618e-02
-3.093772e-03
-1.057248e-02
-1.885729e-02
-6.532262e-03
-7.886153e-03
3.060177e-03
5.322884e-03
-5.607801e-03
-2.337581e-04
2.252527e-04
-2.035736e-03
-6.660096e-03
4.447574e-03
1.945594e-02
6.284825e-03
-5.764652e-03
-5.821028e-03
-2.838057e-03
-2.340269e-03
5.165497e-03
-2.928974e-03
-2.458656e-03
-7.330358e-03
2.231731e-02
9.654259e-03
1.459066e-02
-1.685019e-02
-1.917903e-02
-1.380157e-02
-2.500018e-02
-2.730494e-02
-1.236605e-03
-5.381679e-04
9.793177e-03
2.771750e-03
9.239164e-03
9.200195e-03
-8.410428e-04
1.552567e-02
1.080353e-02
8.591295e-03
1.709929e-03
-1.550079e-03
7.331154e-04
3.344294e-04
3.754303e-03
-2.216853e-03
-1.081118e-03
7.411720e-04
-8.097285e-04
-3.135273e-03
2.030416e-03
1.320384e-03
-1.446202e-03
-5.045288e-04
2.405237e-05
-1.238753e-03
-1.147874e-03
9.682595e-04
3.464451e-02
2.101335e-02
-1.658735e-03
2.814935e-02
1.325930e-02
4.618567e-03
1.563467e-02
3.255032e-02
2.214095e-02
1.191133e-02
-9.370566e-03
6.405996e-03
-1.220790e-02
-2.819940e-03
9.937507e-03
-1.033976e-02
1.744897e-02
7.723796e-03
-6.008668e-03
2.069115e-02
2.526251e-02
2.473428e-02
1.810884e-02
2.004056e-02
2.651392e-03
-3.575151e-03
-5.572097e-03
6.289425e-03
-3.950556e-03
-4.717512e-03
9.642534e-04
1.034555e-02
7.218767e-03
-8.301673e-03
-8.286180e-03
8.108177e-03
3.195361e-02
1.101212e-02
-3.102837e-02
-5.311308e-02
-2.427918e-02
3.723921e-02
-3.133308e-02
6.692833e-02
2.418476e-02
5.515717e-03
1.228748e-02
1.684502e-02
1.021813e-02
1.722185e-02
3.104999e-02
6.914543e-04
9.803369e-03
6.828088e-03
-1.273357e-04
1.891853e-02
1.159855e-02
1.108566e-02
1.768055e-02
-2.621162e-02
-1.133120e-02
-1.321434e-02
6.962889e-03
-9.037121e-02
-7.267802e-02
-5.020640e-02
-5.261644e-02
-7.660884e-03
-1.320275e-02
7.106184e-02
8.543121e-02
3.104149e-02
-4.768046e-03
1.936124e-02
-1.688472e-01
-8.082358e-02
1.554470e-01
-4.444413e-02
-2.146447e-01
6.596280e-02
6.405612e-02
-5.604937e-02
-3.330963e-02
1.489251e-02
-5.143794e-02
2.442261e-03
-7.367474e-03
-4.288041e-03
7.313628e-02
-1.880188e-02
-2.931125e-03
-2.344937e-02
-2.407855e-02
2.061885e-03
5.402721e-02
1.128900e-01
7.249045e-03
1.113544e-01
1.073293e-01
1.080560e-02
-2.139062e-02
-2.739310e-02
-3.029069e-03
-1.868268e-02
-3.630569e-02
-1.844517e-02
-2.890672e-03
-2.471316e-02
-5.094319e-02
-4.939771e-02
-3.875589e-02
-3.078939e-02
-1.773742e-02
8.103086e-04
7.147152e-02
2.039083e-02
-3.619295e-02
-1.962842e-02
-3.761186e-02
-4.870332e-02
1.457447e-02
-5.397876e-03
-3.671623e-03
7.599609e-02
1.521880e-01
1.122341e-01
-2.101740e-03
-2.283411e-04
-3.802550e-04
-1.998942e-03
-1.048395e-03
2.539037e-03
-1.758530e-03
9.959936e-04
-1.859672e-04
-9.056883e-04
1.028380e-03
-1.686284e-03
-1.519616e-03
2.019946e-04
8.875398e-04
-2.836962e-03
-1.349495e-03
-8.475471e-04
-7.824406e-02
-6.093573e-02
1.921192e-02
-2.892780e-02
5.738124e-02
1.566676e-01
6.277053e-02
7.406531e-02
9.771606e-02
-2.956466e-02
3.424793e-02
-3.716993e-02
-1.138253e-02
-5.400524e-02
-4.900720e-02
-5.617744e-02
-5.060796e-02
8.558957e-03
-2.870462e-02
2.509775e-02
2.095167e-02
-8.986131e-03
-3.043102e-02
-6.966023e-02
-2.405087e-02
-7.798595e-02
-8.462596e-02
8.475558e-02
1.163567e-01
-3.935269e-02
1.691801e-02
5.617150e-02
-1.023151e-02
3.113558e-02
-1.645948e-02
-4.141499e-02
6.707104e-02
1.264311e-02
-1.260200e-01
1.026960e-01
1.949792e-01
-5.896663e-02
1.096159e-01
5.262011e-02
1.202856e-01
4.805235e-02
6.854921e-02
8.066743e-02
-3.144816e-02
-6.654568e-03
-2.913522e-02
-6.682467e-02
-3.429879e-02
-7.725542e-02
-1.035805e-01
-1.416920e-03
-3.513192e-02
-1.200738e-01
-5.698114e-02
-1.001940e-01
-7.613654e-02
-7.422077e-02
8.419542e-02
