-8.631858e-02
-1.421763e-01
-3.058460e-02
1.516463e-01
-6.871469e-02
-1.265043e-01
-1.260379e-01
1.440508e-01
8.430778e-02
2.684310e-02
3.216372e-02
6.109347e-03
-1.698823e-01
-5.012828e-02
1.488090e-02
1.677705e-01
1.342707e-02
-9.510363e-02
-1.164710e-01
-2.569395e-02
1.509165e-02
9.653161e-03
-6.158587e-02
4.896048e-03
4.028127e-02
1.748766e-02
2.322719e-02
-2.235059e-02
-1.026568e-01
-1.239703e-01
7.810664e-02
-4.961009e-02
-1.079962e-01
5.983714e-02
1.073602e-01
6.625904e-02
3.073216e-02
3.353206e-02
1.449021e-02
-7.929628e-02
-4.559716e-04
3.560429e-02
3.833770e-02
-3.270790e-02
-1.046597e-02
-5.040216e-03
-6.127981e-02
7.573745e-03
-3.781041e-04
-1.452800e-02
-1.158902e-02
-4.262994e-02
-6.616333e-03
8.397120e-02
-7.064547e-02
-5.327484e-02
-1.145337e-02
-3.124274e-02
-6.124339e-02
1.280516e-02
1.067021e-01
-5.058846e-02
-8.187433e-02
6.057901e-02
9.595297e-02
-7.111147e-02
-1.910938e-01
-2.015186e-02
1.209873e-01
4.978925e-02
-2.028146e-01
-2.109028e-01
1.016208e-01
-2.314132e-02
-7.830882e-02
1.280838e-02
7.154965e-02
2.612688e-02
-1.762159e-02
-8.439529e-02
7.336583e-02
1.396050e-02
-1.830111e-02
-6.195931e-02
2.374245e-02
2.259682e-02
2.926713e-02
1.099553e-01
8.174801e-02
5.709618e-02
4.011946e-02
-2.409658e-03
-1.251998e-01
-2.371317e-01
1.225229e-02
9.987600e-02
1.646343e-01
-1.863009e-01
-9.416677e-02
1.378602e-01
-8.348927e-03
-8.232573e-02
-2.407906e-01
3.653716e-02
2.248807e-02
1.952670e-02
-5.637489e-02
3.395481e-02
-2.795756e-03
2.393118e-02
8.134212e-02
-6.870520e-03
9.619061e-04
2.230439e-02
3.097437e-04
1.800098e-02
1.564198e-02
-1.051726e-01
-5.426085e-02
6.276647e-02
1.407700e-01
-6.901599e-02
-5.823633e-02
-1.482021e-01
-8.280464e-03
-1.959280e-02
3.228924e-02
-2.072784e-02
1.180614e-02
5.816193e-02
1.037920e-01
5.941483e-02
-3.764285e-02
-3.337054e-02
9.551331e-02
-2.085432e-01
-3.262465e-02
2.592914e-02
9.491889e-02
-7.083250e-02
-5.858868e-02
4.789459e-03
5.730994e-02
-3.722387e-02
-8.460071e-02
-7.952562e-02
-7.187710e-02
-1.427703e-01
-2.495928e-01
-2.835919e-01
-6.181686e-02
-4.618235e-02
-1.605542e-01
-1.593455e-03
2.673257e-02
8.313113e-02
-1.938888e-02
1.369888e-01
7.302653e-02
8.383880e-02
5.480207e-02
-4.725132e-03
-2.530472e-02
5.430499e-02
7.734863e-02
-4.766875e-02
-4.039373e-02
-6.862497e-03
-4.967048e-02
-3.894249e-02
-1.147504e-02
-6.970170e-03
-4.258855e-03
8.729513e-02
-3.479894e-02
-7.818837e-02
4.157519e-02
3.795147e-03
7.412133e-02
9.640725e-02
-2.163429e-02
3.713956e-02
-2.771435e-02
-1.695859e-01
6.532611e-02
-7.669494e-02
-9.410296e-02
-2.412669e-02
6.475616e-04
-4.230389e-02
-6.287547e-02
-3.855108e-02
-6.964581e-02
-8.488113e-02
-7.893103e-02
-5.905764e-02
-6.479593e-02
-7.480118e-02
-6.991163e-02
1.079295e-02
-1.853086e-02
-4.666699e-02
3.721260e-02
5.888342e-02
-3.960058e-02
-8.544376e-02
2.068955e-02
-1.068250e-01
9.073836e-03
-1.405266e-02
2.391502e-02
1.708142e-01
-1.987917e-03
-1.221954e-01
-2.174192e-01
-1.707957e-01
3.411468e-02
-5.794587e-02
-1.763026e-01
1.070736e-01
1.095775e-01
-1.184117e-01
7.635919e-02
1.306221e-01
7.720535e-02
7.281625e-02
2.038243e-02
1.433257e-02
-2.068737e-03
-5.384689e-03
1.599719e-02
1.906093e-02
-2.275429e-02
5.423775e-04
-2.882125e-02
-3.962757e-02
-2.645086e-02
-6.253653e-02
1.027633e-01
-3.028907e-02
-8.324354e-02
-1.678472e-02
-4.818308e-02
-8.480500e-02
-1.890984e-01
-2.135205e-01
-2.162064e-02
4.238610e-02
-1.003266e-01
-2.675819e-02
-5.681118e-03
-4.484375e-02
-1.178946e-02
5.861102e-03
-7.948440e-03
2.276693e-02
1.173934e-02
-1.691878e-02
2.658755e-02
-2.583056e-03
-1.962999e-02
2.639889e-02
-1.082613e-02
-5.395111e-03
1.104307e-01
-1.367114e-01
1.610167e-02
3.186289e-02
-7.059013e-02
5.040120e-02
-1.279565e-02
-4.657833e-02
-1.022978e-01
9.989969e-03
5.059630e-02
-2.850764e-02
-2.477065e-02
2.987181e-02
3.838795e-02
-1.121751e-02
8.882134e-02
-2.692289e-02
-8.858292e-02
-7.718606e-02
-1.479570e-02
-3.642735e-02
-1.802649e-02
-1.042695e-03
-6.496052e-02
-3.727234e-02
-4.458302e-02
-4.407158e-02
-8.286181e-02
2.787635e-03
-5.200471e-02
4.696446e-03
-2.443924e-02
-6.964625e-02
-7.512630e-02
-4.184961e-02
-7.280821e-02
1.289364e-02
-1.926444e-03
-1.035184e-02
3.932123e-02
7.873854e-02
9.482064e-02
5.304788e-02
1.540905e-01
-5.772087e-02
-1.627716e-01
-4.868171e-02
-1.683762e-01
-2.036703e-01
-1.589121e-01
7.606335e-02
9.589871e-02
8.564831e-02
9.564117e-02
3.438434e-02
2.269274e-02
5.180780e-03
7.366594e-03
-1.437638e-02
-2.018969e-04
5.582916e-02
9.216765e-02
4.653568e-02
1.461273e-01
1.469382e-01
1.143327e-01
9.489085e-02
9.823704e-02
-2.124635e-03
4.211397e-02
3.660311e-03
1.745202e-03
-1.337707e-02
-3.042252e-02
-1.867167e-05
-1.582808e-02
-3.738965e-02
-2.104513e-01
-2.036451e-01
-1.453655e-01
-9.002415e-02
5.657753e-02
2.361128e-02
7.880452e-02
1.573260e-01
8.550327e-02
-1.174659e-01
-1.021624e-01
-1.583391e-02
-7.613946e-02
5.445196e-02
-3.447502e-02
-7.695794e-02
-8.818495e-02
-4.405837e-02
1.659686e-02
-1.204159e-02
-8.233120e-02
1.609912e-02
1.143593e-02
-8.165403e-02
-7.029813e-03
-8.121500e-04
5.139838e-03
-8.822590e-02
-1.886546e-03
-7.623357e-03
4.298737e-02
9.619085e-02
7.283566e-03
-2.096336e-02
-4.565058e-02
-6.586180e-02
2.927569e-02
-1.971206e-02
3.643927e-02
8.779466e-03
7.791350e-02
-1.491802e-02
1.723210e-02
-1.478530e-01
-1.141179e-01
-3.265430e-02
-1.080104e-01
-5.273261e-02
-9.072115e-02
-4.490891e-02
-4.019129e-02
-1.049709e-01
-2.307921e-02
9.655801e-02
3.977576e-02
1.295383e-02
-4.001435e-03
1.861087e-02
-6.131082e-03
5.955834e-03
4.716546e-02
3.717788e-02
4.513879e-02
4.333047e-02
2.819141e-02
-1.615272e-02
7.447762e-02
-1.324307e-01
-1.345886e-01
-1.093340e-02
1.946770e-03
-5.418984e-03
3.269982e-02
1.443032e-02
2.251934e-02
7.795413e-02
3.198343e-02
3.544383e-02
-1.789111e-03
-6.601983e-03
4.016098e-02
-5.980665e-02
-5.133546e-03
-3.572900e-02
-3.759973e-02
-6.906778e-02
-2.302155e-02
-6.907007e-02
-3.735884e-02
-2.257390e-02
-6.832708e-02
-1.031051e-02
-6.009007e-02
4.784783e-02
4.657101e-02
-1.118349e-01
-1.632311e-01
-1.853412e-01
-1.430602e-01
6.433381e-02
5.695807e-02
1.161118e-01
5.517510e-02
-4.286357e-02
-5.391300e-02
5.711161e-02
1.600799e-02
-9.770553e-02
-5.837502e-02
-7.473886e-02
-9.122826e-03
-8.744632e-02
-6.183678e-02
-5.821067e-02
3.017075e-03
7.114433e-04
-6.897362e-02
-2.580981e-02
-5.104207e-02
-7.567646e-02
3.969917e-02
1.088759e-01
-1.991783e-02
8.729570e-02
1.090194e-01
3.511077e-02
-3.173874e-02
4.587311e-04
1.513376e-02
5.245443e-02
-5.841337e-02
-2.955546e-02
-1.759302e-02
-5.134163e-02
-2.068907e-02
-8.850344e-02
-2.584990e-02
-1.727277e-02
-5.125709e-02
-1.887712e-02
8.512627e-03
-1.451451e-02
1.846320e-02
-3.262758e-02
-6.221215e-02
-4.310974e-02
6.958648e-02
-1.161915e-02
-6.229592e-02
-6.241535e-03
-6.652972e-02
-1.858180e-02
-7.724494e-02
-1.144873e-02
-1.466458e-01
-6.264813e-02
-1.992029e-01
-1.024259e-01
-2.379349e-02
1.731441e-02
-1.379808e-02
-9.400718e-02
1.617067e-02
-1.080200e-02
-1.212844e-01
-5.328615e-02
-1.876754e-02
6.399313e-02
2.969067e-02
3.280064e-02
9.078153e-02
4.323817e-04
1.559022e-02
-1.941684e-02
-6.691872e-03
-2.811299e-02
-3.474017e-02
-3.212246e-02
-2.654602e-02
-4.120195e-02
5.433633e-02
-1.126802e-03
7.868996e-02
-8.584746e-02
-9.388329e-02
6.613761e-04
-2.916055e-02
2.505643e-02
-1.539742e-01
-3.592294e-02
1.385813e-01
-7.252797e-02
-1.201649e-01
-8.491953e-02
-2.619617e-02
3.478667e-02
-6.498564e-02
-7.140047e-02
-1.067801e-02
7.578887e-04
1.907733e-03
5.259802e-02
5.608328e-02
4.659583e-02
3.899331e-02
3.424998e-02
1.421516e-04
-4.868660e-02
-7.137196e-02
-1.130665e-01
-4.605213e-02
7.426089e-02
-8.401696e-02
5.125009e-02
8.411158e-02
8.703011e-02
4.517622e-02
7.415125e-02
-2.385510e-02
-8.660617e-02
-3.774447e-02
2.612007e-02
2.092618e-02
-5.262235e-02
1.402430e-02
-1.291248e-01
-1.838450e-01
-1.226816e-01
1.256027e-03
-4.268885e-02
-8.369603e-02
-1.296266e-01
-4.269255e-02
-4.315259e-02
-5.868587e-02
1.486083e-02
4.490761e-02
-6.111724e-02
-7.707112e-02
-1.398488e-01
1.239682e-01
5.875486e-02
-4.033371e-02
1.385893e-02
7.538071e-02
1.053114e-01
7.646481e-03
2.222233e-02
6.785547e-02
5.078327e-02
6.135142e-02
9.905249e-02
-8.223119e-02
2.465691e-02
1.403467e-01
-1.956648e-01
-1.471424e-01
-2.911482e-02
-7.308795e-02
-1.473469e-01
-1.586506e-01
-3.524526e-03
-2.118192e-02
1.261695e-02
-1.564209e-02
-5.036850e-02
-5.785884e-02
7.557610e-02
1.803069e-02
-2.995384e-02
-1.012054e-01
2.651081e-03
7.687781e-02
-1.529546e-01
-1.114854e-01
-2.475250e-02
-1.044594e-01
-1.317097e-01
-9.774604e-02
2.766673e-02
3.301911e-03
-4.263356e-02
7.755579e-02
6.112045e-02
-2.261846e-02
9.572402e-02
5.802745e-02
-2.739825e-02
-1.013492e-01
-1.488082e-01
-1.002415e-01
3.010549e-02
-5.668531e-02
-1.183571e-01
7.093894e-02
1.025562e-01
5.301233e-02
1.505426e-01
-2.938234e-02
-2.957557e-02
2.358677e-02
3.999547e-02
1.049865e-01
-6.399930e-02
-7.087207e-02
-5.965679e-02
-1.864644e-02
4.730342e-02
5.114929e-02
2.905995e-02
3.219593e-03
2.717564e-02
-5.121603e-03
1.624665e-02
4.957609e-02
-3.916317e-02
-1.414560e-02
-3.910280e-03
-5.003000e-02
-3.657339e-02
-6.118828e-02
-4.059501e-02
-5.051240e-02
-6.614039e-02
1.186443e-03
-1.136297e-02
-7.600052e-02
-4.786284e-02
-2.242038e-02
-8.812688e-02
-1.044978e-03
-1.083254e-02
1.780505e-02
-5.826749e-02
-1.306539e-03
1.354050e-02
3.596738e-02
2.385196e-02
8.705284e-03
-3.369129e-02
-2.662800e-02
3.395782e-03
-2.461063e-02
-5.931006e-02
-6.808734e-02
1.212304e-02
-2.698606e-02
-6.477514e-02
2.148768e-02
2.289153e-03
-4.739921e-02
-7.452987e-02
-1.384564e-01
-8.712110e-02
-8.007319e-02
-1.150619e-01
-1.153459e-01
1.064626e-01
5.308094e-02
-8.692411e-02
-1.182279e-02
5.146224e-02
-1.975267e-02
1.142457e-02
-1.492922e-02
-2.407622e-02
1.921359e-03
1.904847e-02
-4.776296e-02
6.722922e-02
4.485282e-02
6.680112e-02
-4.237537e-02
-4.939904e-02
1.513909e-02
1.147598e-01
6.771672e-02
5.411728e-02
-9.737712e-02
-1.119289e-01
-1.228661e-01
-6.580480e-02
-2.620180e-02
-7.552800e-02
8.375134e-02
7.068516e-02
4.851549e-02
3.008135e-02
-6.228496e-03
-2.390170e-02
2.583352e-03
-1.972100e-02
-1.021694e-02
7.404272e-04
4.937842e-02
6.979902e-02
6.145997e-02
9.904832e-02
5.297129e-02
-5.623457e-02
-6.301456e-02
-3.026209e-02
-1.129821e-01
-1.875689e-01
-1.467775e-01
3.002243e-02
1.763984e-02
4.841194e-03
6.396801e-02
6.410450e-02
5.662734e-02
3.558926e-02
5.819215e-02
6.683598e-02
-9.241535e-02
-1.375288e-01
-1.296186e-01
-8.277577e-02
-1.133946e-01
-1.621864e-01
9.665843e-02
8.327371e-02
4.383111e-02
1.707434e-02
1.437502e-02
-2.312202e-02
1.538872e-02
1.812241e-02
-4.318985e-02
7.501110e-02
9.351521e-02
1.829945e-02
-9.997719e-03
2.551597e-02
1.227685e-01
-1.286242e-01
-1.983692e-01
-1.345758e-01
5.610183e-02
-5.539393e-02
-1.332162e-01
-5.528300e-02
-7.563915e-02
-4.910717e-02
-8.081819e-02
-3.654560e-02
-1.573348e-02
-4.984756e-02
-1.886419e-02
-2.138299e-02
1.254758e-02
4.234745e-02
9.369022e-02
3.303601e-03
-1.867160e-02
6.543993e-02
-4.749811e-02
-9.803531e-02
-1.056521e-02
-7.576292e-02
-9.546752e-02
-4.740009e-02
-1.699306e-02
-3.230397e-02
-2.941552e-02
4.448945e-02
4.646505e-02
-1.054632e-02
-3.072277e-02
-3.541616e-02
1.146109e-03
2.631457e-02
8.254660e-02
5.042426e-02
-5.490762e-02
7.657050e-04
4.190929e-02
6.783513e-02
5.885496e-02
7.409399e-02
8.991092e-02
9.005064e-02
1.036253e-01
-1.104008e-01
-2.721173e-02
1.226732e-02
-8.938541e-03
-8.224325e-03
-2.372524e-02
-2.356500e-02
-4.430659e-02
-6.594458e-02
2.385527e-02
3.286313e-02
9.578750e-03
2.896130e-02
8.007663e-02
1.019850e-01
-6.229175e-02
-1.385017e-01
7.041217e-03
-3.396540e-02
-2.023932e-01
-1.717403e-01
-5.174531e-02
-1.526805e-02
1.699373e-02
-2.850956e-02
-2.203376e-02
-5.192091e-03
9.416966e-02
6.192774e-02
6.662505e-02
-5.629340e-02
4.029612e-04
3.268265e-02
-8.816070e-02
-4.938387e-02
-2.556717e-02
-7.254156e-02
-6.756552e-02
-9.269500e-02
-1.349819e-01
-5.919705e-02
2.084568e-02
-7.743166e-02
-6.922477e-02
-1.648257e-02
1.945244e-02
5.333250e-02
1.287095e-01
-2.860068e-02
-9.165746e-02
-1.136396e-01
-3.852982e-02
-1.288518e-01
-8.444326e-02
-5.804236e-02
-8.075865e-03
-2.965137e-02
3.331715e-01
2.240040e-01
2.755516e-02
1.915735e-01
-3.531039e-02
-1.432895e-01
-1.705128e-01
-3.020478e-01
-2.072606e-01
-2.123317e-01
-4.125706e-02
4.433712e-02
-6.951009e-02
6.126506e-02
-5.690682e-04
4.477093e-02
7.537944e-02
-2.580526e-02
7.314028e-02
4.043349e-02
1.504550e-01
-3.391771e-02
1.174820e-02
7.610267e-02
2.394130e-02
1.016143e-02
-1.974705e-02
2.777876e-03
6.810043e-03
6.269060e-02
2.066634e-02
1.104247e-01
7.462387e-02
8.940242e-02
1.543574e-01
1.786542e-03
-1.591901e-01
-3.385103e-01
-1.782487e-01
-3.219576e-01
-4.226423e-02
3.137060e-01
4.859129e-02
4.215131e-01
3.461156e-01
-3.126531e-02
-1.426239e-01
-1.854059e-01
-1.308898e-01
-5.452278e-02
6.834970e-02
-6.241270e-02
-1.740781e-02
-3.726969e-02
1.555587e-01
8.314132e-02
-5.393373e-02
5.348413e-02
-3.603909e-02
-7.424480e-02
-5.724386e-02
-9.527773e-02
9.464255e-03
-4.281975e-01
-3.635528e-02
1.144153e-01
-3.289481e-02
2.088572e-01
6.691957e-02
1.366871e-01
3.363131e-02
-1.940643e-01
-2.993646e-02
1.426795e-01
1.321592e-01
1.011052e-01
1.511121e-01
-2.269105e-02
5.676088e-02
-4.513159e-02
-1.151495e-01
6.544989e-02
-1.683890e-02
-1.454136e-02
6.694688e-02
-3.730927e-02
-1.352182e-02
-5.673248e-02
1.445357e-02
1.318343e-01
7.506509e-02
2.236961e-02
-2.376856e-02
2.001802e-02
-3.374115e-02
-2.389068e-03
5.784661e-02
3.548635e-02
8.684566e-02
2.931737e-01
1.206801e-01
-8.442197e-02
1.003333e-01
-1.387854e-01
-7.024041e-02
-1.365674e-01
-1.931707e-01
2.946530e-02
5.687154e-02
5.830263e-02
1.165200e-01
-1.500297e-02
-1.287778e-02
9.154866e-02
-3.225527e-02
-8.329528e-02
-4.693591e-03
1.093405e-02
-2.690598e-02
-1.051051e-01
-6.388795e-02
-4.365576e-02
-1.088583e-01
-2.885313e-02
-8.056342e-02
-1.263346e-01
-2.443388e-02
-2.562605e-02
2.195827e-02
7.590033e-03
3.431812e-02
6.271682e-02
-1.415224e-02
8.816871e-03
3.124113e-02
6.827299e-02
8.545066e-02
2.383940e-02
6.129426e-02
3.636929e-02
-9.794404e-03
4.037165e-02
5.308025e-02
-9.866373e-04
2.654217e-02
8.790013e-03
-6.580164e-02
7.027820e-02
7.463910e-02
2.754609e-02
1.625992e-02
3.739195e-02
4.885399e-02
-4.354208e-03
-5.355658e-03
-4.214961e-03
1.022964e-02
-2.964800e-03
2.672259e-02
-1.991664e-02
-2.158799e-02
8.186154e-03
-2.395249e-02
-3.782490e-02
-1.309533e-01
1.191975e-01
2.139720e-01
5.488879e-02
-1.356064e-02
1.750915e-01
-4.293052e-04
-3.550864e-02
-3.275785e-02
9.718652e-03
-4.604098e-02
-4.715176e-02
-1.277704e-02
-5.449580e-02
-5.674431e-02
-2.039485e-02
-2.182003e-02
5.250295e-02
-1.460907e-02
-7.260288e-02
-3.060248e-03
-4.573023e-02
-3.137710e-02
-1.963056e-02
-5.341451e-02
-7.550215e-02
2.739843e-02
-5.724293e-02
9.533859e-02
1.691193e-01
7.643864e-02
-6.684221e-02
2.623580e-02
1.042274e-02
-1.469000e-02
-5.883929e-02
-5.205615e-02
-3.506884e-02
-6.565934e-02
-6.407819e-02
1.249843e-02
-1.492612e-02
-1.777118e-02
-1.632231e-02
-5.553424e-03
-1.773070e-02
-1.903647e-02
-1.469244e-02
-4.154555e-02
-2.122610e-02
-3.333402e-02
-5.212690e-02
2.531767e-02
5.533231e-02
-1.788011e-02
-8.330628e-02
3.923129e-03
-6.249972e-02
-1.490568e-02
4.921424e-02
-3.010520e-03
8.725231e-02
5.009285e-03
-2.739331e-02
-2.280689e-02
-5.430641e-02
-6.641894e-02
1.604671e-02
-1.969131e-02
-3.797158e-02
-3.606240e-02
-8.326966e-03
1.016154e-02
-4.403152e-02
-3.891956e-02
-1.120733e-04
-7.197083e-03
-6.416614e-03
2.394444e-02
-7.450768e-02
1.823659e-03
3.248592e-02
4.613568e-02
3.768221e-02
9.414724e-02
-5.108688e-02
-5.197020e-02
-1.529721e-02
2.077925e-03
-2.836820e-02
-3.018186e-03
-6.123295e-02
-2.698195e-02
-2.430745e-02
-3.993367e-02
4.813768e-03
-1.409472e-02
3.058942e-02
7.776062e-02
2.437852e-02
-2.144048e-02
2.393559e-04
1.309929e-02
-1.642316e-02
-9.545720e-03
-6.775272e-03
7.619630e-02
1.731067e-02
4.102100e-02
3.111016e-02
4.288350e-02
-5.625177e-02
-5.355685e-02
-2.923863e-02
-7.499253e-02
8.289708e-02
6.000685e-02
2.253367e-02
-7.516347e-03
-2.224344e-02
1.120760e-01
-3.173186e-02
5.558285e-02
1.185615e-01
-5.157369e-02
6.971871e-02
6.150139e-03
-3.227898e-02
-4.330554e-03
-3.011441e-02
-1.445651e-02
-4.484556e-02
-5.708974e-02
6.456104e-02
8.304892e-03
-3.408134e-02
7.662819e-02
1.195719e-02
-3.343583e-02
5.152505e-02
-1.964285e-02
-8.454912e-03
-4.067309e-02
1.019602e-02
-1.763563e-02
-4.759476e-02
4.139233e-03
8.085335e-02
-4.967156e-02
-2.010005e-02
6.982684e-02
6.708551e-02
2.395486e-02
2.354423e-02
3.266387e-02
2.967952e-02
2.290166e-03
1.625729e-02
5.215655e-02
3.842513e-02
-4.604644e-02
-2.205054e-02
-3.824589e-02
-2.017969e-02
-6.108245e-02
1.733392e-02
3.123244e-02
-2.471540e-02
-2.915707e-02
4.326176e-03
1.113573e-01
2.298851e-02
-2.058965e-02
4.025196e-02
5.346528e-02
4.963738e-02
3.624871e-02
-3.742376e-02
4.807778e-03
2.212768e-02
-2.521689e-02
-1.365095e-02
4.040711e-02
-2.463582e-02
-4.768890e-02
2.468129e-02
1.269646e-02
-6.298788e-05
-4.820528e-02
-4.406311e-02
8.869320e-03
-3.956912e-02
-3.756806e-03
1.581835e-02
-2.358580e-03
1.872251e-02
-6.243365e-02
1.301219e-01
-2.314009e-02
-9.432656e-02
-2.423352e-03
1.262652e-01
-7.384734e-02
9.675613e-04
5.271128e-02
1.039352e-01
5.880326e-02
-5.230587e-02
-4.476850e-02
4.772495e-04
-2.208761e-02
-2.825536e-02
6.502968e-02
9.547020e-02
-1.895312e-02
1.308375e-02
4.487154e-02
-6.405144e-03
-8.740008e-04
2.394619e-02
-1.273633e-02
-1.400113e-02
-1.702794e-02
1.979678e-02
2.313628e-02
1.600600e-01
9.370669e-02
-5.484494e-03
-6.863847e-03
1.189926e-01
-4.734839e-02
-1.191374e-01
6.191366e-03
-3.983374e-02
2.429245e-02
2.738243e-02
9.743508e-02
2.594857e-02
4.955836e-02
8.987115e-02
-2.715900e-02
-5.362873e-02
2.463925e-02
2.451419e-02
-3.222466e-02
7.168602e-02
1.812637e-02
-1.483405e-02
-6.981993e-02
-1.379605e-01
2.404586e-03
-8.903448e-02
-5.072630e-02
5.261654e-03
-1.505830e-01
-9.835152e-02
-1.831307e-02
5.603830e-03
-5.909932e-02
-1.497166e-01
-1.564871e-01
-1.187228e-01
-1.179344e-01
-1.547965e-01
3.999482e-02
-2.296855e-02
-6.766514e-02
2.389348e-02
1.249842e-02
2.535526e-02
-8.548080e-03
1.054083e-02
-4.341931e-02
-6.684575e-02
-5.054260e-02
-3.880490e-02
-1.294548e-02
8.176395e-02
4.260655e-02
-2.697084e-02
8.177269e-02
1.045240e-02
-7.653645e-02
2.830852e-02
5.555751e-02
-2.109309e-02
-9.329702e-03
-9.160474e-02
-9.198884e-02
-5.874238e-02
-3.874439e-02
1.658621e-01
8.107653e-02
-5.657423e-02
1.483442e-01
3.201025e-02
-3.477100e-03
-5.705538e-02
-1.941913e-02
-2.524021e-02
-8.034944e-02
5.725902e-03
-5.244669e-02
-6.661684e-02
-1.080057e-01
-8.322885e-02
3.386963e-02
5.678754e-02
3.722921e-02
1.375008e-01
3.898460e-02
-9.372577e-02
3.434333e-02
-5.462127e-02
-2.624915e-02
-4.675748e-02
-3.462159e-02
-3.998405e-02
1.961462e-02
-1.468892e-01
-2.080625e-01
-1.126022e-01
-2.846304e-02
1.295640e-02
-1.360707e-02
3.833276e-02
1.537723e-01
1.124900e-01
8.095716e-03
2.430055e-02
1.128459e-01
-3.952814e-03
4.820231e-02
1.718531e-02
1.118839e-02
7.231782e-02
5.806190e-02
1.631016e-02
2.007036e-02
5.042883e-02
4.194438e-02
2.237293e-02
-4.944767e-02
1.316919e-02
3.033369e-02
5.803522e-02
4.412787e-02
-1.495937e-01
9.622964e-02
-1.511987e-01
-2.745168e-01
-2.517962e-01
-1.114945e-01
-7.397606e-03
-4.307729e-02
-8.522101e-02
-7.698877e-02
-3.072318e-02
6.947533e-02
5.093110e-02
1.648368e-02
3.990483e-02
2.703061e-02
9.958915e-03
1.726071e-02
2.728180e-02
2.208139e-02
5.303025e-02
-3.358014e-02
2.562872e-03
6.962135e-02
5.514886e-02
-1.317073e-01
-1.800598e-01
8.479131e-02
-2.266481e-01
-9.690400e-02
-3.405225e-02
-6.763458e-02
1.913503e-02
1.967395e-02
2.609349e-02
-2.530360e-02
-2.916907e-02
3.711424e-02
-3.384902e-02
-3.484524e-02
-4.237320e-02
-2.465503e-02
-1.353052e-01
-7.281636e-02
-9.705556e-03
1.058558e-02
-8.801896e-02
-9.163392e-02
-4.483967e-02
-5.840489e-02
-1.309229e-01
-1.241886e-02
-3.091726e-03
-1.550123e-02
-5.968029e-02
-6.808916e-02
-5.025871e-02
3.801538e-04
-3.484209e-02
6.104088e-02
1.412382e-02
2.321549e-02
2.145790e-02
-1.125381e-02
-1.438355e-02
-3.742272e-02
-1.081320e-01
-1.010904e-01
7.723006e-03
2.782066e-02
-9.155441e-02
1.063941e-01
2.266956e-01
1.273485e-01
1.286905e-01
1.798025e-01
1.800106e-01
-2.648016e-02
1.329226e-02
3.307892e-02
-6.111316e-02
-7.723688e-02
-9.574784e-02
1.088780e-01
1.471132e-01
1.541920e-01
8.210142e-02
6.369004e-02
6.757993e-02
-6.482033e-02
-3.453954e-02
-6.365688e-02
3.108112e-03
1.173397e-02
-5.882054e-03
-4.163794e-02
-7.189295e-02
-4.167995e-02
5.746990e-03
-2.621265e-02
-2.399961e-02
1.125972e-01
1.004900e-01
-4.909637e-02
1.112848e-01
2.496992e-01
1.164365e-01
-1.301600e-01
-3.242314e-02
5.604278e-02
-6.643138e-02
-7.741794e-03
3.779427e-02
-8.720019e-02
-6.136630e-02
-4.412809e-02
-5.608173e-02
1.176617e-01
1.112799e-01
-5.405664e-02
-2.019695e-02
-1.850451e-02
-3.644779e-02
1.255551e-02
-2.215545e-02
2.851472e-02
8.008599e-02
4.836955e-02
5.009196e-02
1.057547e-01
3.425575e-02
-2.355183e-02
-1.564074e-02
-3.955736e-02
-1.601238e-01
-1.480174e-01
-7.989255e-02
-7.635582e-03
-1.508688e-02
-1.636354e-02
-5.632957e-03
-1.410484e-01
-1.554398e-01
2.791292e-02
1.728474e-02
-6.907848e-02
-7.561970e-02
-2.504827e-02
-1.601298e-02
-1.937302e-02
2.879287e-04
-2.412851e-02
2.468761e-02
-8.067199e-03
-7.764797e-02
-3.083607e-02
-1.902002e-02
-1.536381e-02
-4.302070e-02
-6.376854e-03
2.144055e-03
-7.918324e-03
1.247654e-02
1.660384e-02
-1.161478e-02
-3.099878e-02
-9.180561e-02
-7.805794e-02
1.086428e-01
4.548319e-02
-3.680580e-02
1.591117e-01
2.009357e-01
2.891430e-02
4.474325e-02
6.650958e-02
-4.766125e-02
7.983697e-03
2.664275e-03
-1.705460e-02
-2.367000e-02
-5.715245e-03
-9.028613e-03
-5.118872e-02
-7.207263e-02
-1.075739e-01
-1.650723e-03
-4.335814e-02
-9.375905e-02
-1.832213e-02
3.171275e-02
-2.079337e-02
-1.533232e-02
8.721586e-03
-1.905358e-02
-5.065065e-02
1.030196e-02
2.864022e-02
-8.621055e-03
-4.459047e-02
2.889114e-02
1.190222e-02
-3.017967e-03
3.179520e-02
2.166299e-02
3.639504e-02
2.019519e-02
5.377874e-03
3.070633e-03
-9.863710e-03
1.241114e-02
1.940265e-02
-5.516095e-03
2.448602e-03
2.087389e-02
-1.159273e-03
-1.955868e-02
-2.510802e-02
5.698835e-03
2.502646e-02
3.214492e-02
-6.707910e-03
-9.276665e-04
2.963268e-02
-2.310747e-02
-1.131066e-02
-5.469746e-03
4.341296e-02
9.907816e-03
-1.455023e-03
9.124075e-03
7.211893e-03
3.102270e-03
-1.360921e-02
-1.258165e-02
-7.181762e-03
-2.430231e-03
-8.216056e-03
-6.993030e-03
-7.794944e-03
-1.268461e-02
-1.616147e-02
-1.880690e-02
-1.314180e-02
-1.355052e-02
2.784252e-02
4.301380e-02
1.148809e-02
1.971739e-02
6.979069e-02
5.740150e-02
-2.059365e-02
-1.685621e-02
2.643202e-02
2.608111e-02
3.631896e-02
2.144437e-02
1.281218e-02
4.948383e-02
1.522752e-02
-1.217598e-02
-9.803270e-03
2.788440e-02
1.055567e-02
-2.665115e-02
4.412925e-03
1.544883e-02
-1.663753e-02
-2.555625e-02
2.519290e-03
1.109831e-02
7.502872e-03
4.956227e-02
3.546715e-02
2.323905e-02
1.972289e-02
1.262239e-02
1.952918e-02
-1.730436e-02
-2.175301e-02
-2.398909e-03
1.717994e-02
-1.651882e-02
-4.715659e-02
-9.627554e-03
1.864386e-02
1.261587e-02
-1.532038e-02
-2.536704e-03
1.651020e-02
3.330633e-03
-4.496994e-02
-2.353445e-02
3.463637e-02
8.836617e-03
-3.633212e-02
1.400749e-03
2.752673e-02
2.815961e-02
-1.890371e-04
-5.542209e-03
-1.246798e-02
-1.030250e-03
-6.105174e-03
-4.255678e-03
4.923047e-03
-8.263878e-04
-9.533426e-04
-5.761614e-02
5.372511e-03
2.623856e-02
-1.268222e-02
-5.028037e-02
-2.399026e-02
3.970021e-02
1.149718e-02
-5.543168e-03
-9.861673e-03
-4.983983e-02
-9.410740e-03
3.398582e-03
-1.313215e-02
-3.347582e-02
-1.499757e-02
1.472838e-05
-1.668919e-02
-1.734162e-02
1.605183e-02
1.249833e-03
-1.523678e-02
-6.477159e-04
9.687743e-03
-3.981489e-03
-2.799302e-03
1.052792e-03
2.360452e-02
4.690982e-02
-2.418390e-03
1.875986e-02
-7.516533e-02
-3.151651e-02
-4.785144e-02
6.363457e-02
1.091192e-01
2.530229e-02
4.682948e-02
-6.672798e-02
1.858264e-02
3.459652e-02
-6.437859e-02
-1.566445e-02
3.786059e-02
-4.925845e-02
-6.522559e-02
-1.621791e-02
-2.994653e-02
-3.307519e-02
5.405741e-02
-3.819039e-02
-5.207529e-02
5.083938e-02
7.386649e-03
-2.839202e-02
-5.716776e-03
-1.775109e-02
-3.103513e-02
-5.207839e-02
-2.213710e-04
-1.504550e-02
5.033227e-02
3.363606e-02
1.142202e-02
-5.150383e-02
6.110554e-03
-3.480010e-02
5.487394e-03
-7.830267e-02
5.278093e-02
5.772591e-02
2.185532e-03
-4.762192e-02
-5.374097e-02
-5.329595e-02
-5.077582e-02
-7.346960e-02
-7.237065e-02
-5.104728e-02
-4.541818e-02
-6.748325e-02
6.259521e-02
4.737472e-02
4.088072e-02
-6.195487e-02
4.096490e-02
-4.876594e-02
1.774838e-02
-8.936076e-02
3.977544e-03
-6.319081e-02
-1.332909e-01
2.503286e-02
-1.764075e-02
8.410698e-02
3.051834e-02
9.801494e-02
-1.080002e-01
-4.926804e-02
-8.784568e-03
1.340994e-02
2.200484e-02
-7.967232e-02
1.313538e-02
5.191823e-03
-5.550442e-02
-6.134716e-02
-1.715751e-02
-2.135969e-02
-4.791402e-02
4.512273e-02
-5.913079e-02
-2.730514e-02
4.647322e-02
1.339945e-02
3.822475e-02
7.960415e-02
-6.780151e-02
-1.751477e-01
4.329225e-02
-2.066323e-01
7.785368e-02
-8.463065e-02
3.784188e-03
-2.210627e-02
-1.581075e-01
1.955006e-02
6.168375e-03
5.586935e-02
1.116453e-02
7.184777e-02
1.145609e-01
-1.173894e-02
7.362343e-02
-8.218911e-02
4.669283e-02
5.644232e-02
3.496918e-02
4.182556e-02
3.023124e-02
2.255861e-02
5.872642e-02
4.832501e-02
1.915222e-02
-8.150624e-02
5.033955e-03
-1.270284e-01
1.695322e-01
-4.966730e-02
3.696349e-02
-4.852859e-02
-1.247739e-01
8.316629e-02
2.533211e-03
4.497892e-04
1.636731e-02
-7.444378e-02
1.552580e-02
3.455100e-02
-5.741757e-02
-3.723219e-02
4.208442e-02
-3.459200e-02
8.259709e-02
-1.438711e-02
1.080180e-01
3.437272e-02
1.157930e-02
-9.570931e-03
-2.745903e-02
-9.280785e-03
-1.198979e-01
-1.242568e-01
-8.526587e-02
3.526028e-02
1.599690e-01
-5.066442e-02
9.482005e-03
-2.649255e-02
-7.922564e-02
-1.237384e-01
-1.360193e-02
7.648931e-02
4.116334e-02
-1.076180e-01
-1.907946e-01
-3.603764e-02
-6.493329e-02
-9.717135e-02
1.527812e-02
-8.417393e-02
-1.764665e-02
-1.678032e-02
2.939327e-02
-7.101354e-03
-4.125871e-02
3.573491e-02
-5.484756e-02
-8.048572e-02
-1.313977e-01
-1.065389e-01
2.987390e-02
2.326156e-01
5.588205e-02
7.002766e-02
1.850053e-01
4.801119e-02
5.111370e-02
1.549510e-02
-1.067383e-02
1.745493e-01
-7.229920e-02
5.955352e-02
-5.140451e-03
-1.435471e-01
-2.517926e-03
-6.302655e-02
-6.825913e-02
-9.716056e-02
-3.421647e-02
-5.560000e-02
-2.790687e-02
1.572124e-02
-1.222931e-02
-8.192037e-02
-4.044033e-02
2.832118e-02
1.866176e-02
2.325741e-02
-1.603961e-01
-8.864314e-03
4.626440e-02
-2.844148e-02
1.045606e-02
4.808383e-02
-4.759237e-02
-9.181522e-02
-2.957311e-01
-3.254588e-01
-1.780394e-01
-8.888348e-02
-8.164582e-02
1.296317e-02
1.043307e-01
2.804650e-02
-1.157558e-01
-4.548432e-02
-2.505380e-02
1.463518e-01
-1.339785e-01
-7.932424e-02
1.088449e-01
-6.995835e-02
-2.351778e-02
-3.211052e-02
4.585060e-02
4.048211e-02
5.075279e-02
7.388835e-03
2.177147e-02
1.851474e-02
-2.095059e-03
6.933403e-02
-1.978306e-02
6.689592e-02
-1.209432e-01
-3.227131e-02
-8.640965e-02
-1.066650e-01
1.642974e-02
-2.431463e-02
2.689396e-01
7.433363e-03
2.041600e-02
9.086707e-02
-4.372689e-02
-8.753351e-02
-1.356830e-01
-8.342247e-02
3.728956e-02
2.127484e-02
5.237160e-02
6.231435e-02
4.422517e-02
2.265735e-02
7.526284e-02
5.737452e-02
7.036021e-03
1.228678e-01
-9.366130e-03
5.793386e-02
-2.138281e-01
3.288872e-02
-6.021943e-02
-1.462190e-01
2.002852e-01
-1.865181e-01
7.461120e-02
-8.832583e-02
-1.148584e-02
-9.234217e-02
-1.580752e-01
7.299677e-02
-1.219058e-01
-6.433862e-02
8.751217e-02
-1.214390e-01
-2.817191e-01
-1.401165e-01
-1.545833e-01
-1.291034e-01
-2.491822e-02
-3.776508e-02
2.299115e-02
-2.158560e-02
1.006208e-02
3.737713e-02
1.477539e-03
6.940543e-02
1.022728e-01
9.538797e-02
2.543044e-02
9.180062e-02
1.072393e-01
6.888879e-03
-6.555327e-03
-5.892274e-02
3.317747e-03
-1.106324e-02
-3.309408e-02
-2.237746e-02
-1.327347e-02
-2.507585e-02
-7.745259e-02
1.328469e-02
-4.101209e-02
-1.369245e-02
5.833822e-02
-4.266352e-02
-2.366008e-02
3.139066e-02
-4.717091e-02
-9.837381e-02
-5.739720e-02
-3.797031e-02
-7.119198e-02
-2.160956e-02
-7.576825e-03
-3.048022e-02
1.954389e-02
3.782152e-02
6.035525e-02
1.341655e-01
7.502528e-02
7.185060e-02
6.445093e-02
1.558419e-02
1.077617e-01
1.024888e-01
-1.779075e-02
1.647630e-02
-2.235464e-02
-2.012900e-02
1.830858e-02
-4.031647e-02
-2.409788e-02
-1.852584e-02
-4.561175e-02
-9.612740e-03
-6.968198e-02
-1.515211e-01
-9.716324e-02
-8.022261e-02
-1.171909e-01
-5.639907e-02
-5.896120e-02
-4.746871e-02
2.359258e-02
-8.262574e-02
1.756705e-02
-4.555042e-02
7.497480e-02
1.472593e-01
4.724951e-02
5.775087e-02
1.100555e-01
-5.025898e-03
-3.325336e-03
4.652390e-02
4.419374e-02
-2.027497e-02
1.093655e-02
-5.306785e-03
1.982915e-02
-1.241816e-02
-5.974466e-02
3.427656e-02
1.020144e-01
1.591678e-01
-1.105136e-03
7.137778e-02
9.536628e-02
-3.975466e-02
1.628728e-02
3.506354e-03
-7.093908e-02
-9.829666e-02
-4.605582e-02
-6.180512e-02
-1.246684e-01
-7.238807e-02
4.711401e-02
-1.380264e-02
2.593242e-02
6.247969e-02
1.330165e-01
9.245199e-02
5.046476e-02
8.442333e-02
8.928777e-02
7.075106e-02
5.460709e-02
5.206273e-02
2.586144e-02
1.864211e-02
1.197148e-02
3.061827e-02
1.738411e-02
1.714721e-02
2.070067e-02
1.487431e-02
3.321475e-02
-2.877695e-02
-2.525593e-02
6.365546e-02
3.094897e-02
3.297553e-02
7.051826e-02
4.275560e-03
1.847935e-02
3.686937e-02
-4.627530e-02
9.589273e-02
7.119610e-03
-8.344921e-02
5.016992e-02
-5.530718e-02
-4.170606e-02
5.700003e-02
-6.604648e-02
6.800849e-03
-1.721148e-02
-8.013693e-03
7.095779e-02
6.308957e-02
1.124896e-02
-5.164639e-02
-2.341916e-02
-6.015228e-02
2.473144e-03
5.939212e-02
4.242477e-02
-5.994860e-03
-3.735019e-02
3.459181e-02
2.329224e-02
-5.586706e-02
-1.267430e-02
9.036458e-02
-5.784948e-02
9.140777e-02
5.154468e-03
1.268512e-01
-4.065510e-02
1.829519e-02
1.255943e-01
-4.411167e-02
-1.233993e-03
-4.232546e-02
-8.941843e-02
-5.894970e-03
2.615360e-04
-7.037277e-02
-5.250207e-02
-3.218011e-02
-6.254139e-03
-2.282952e-02
-4.655956e-02
-1.147685e-01
2.435678e-02
-8.134747e-02
-5.154011e-02
1.196483e-01
-2.984854e-03
-5.535471e-03
-1.975994e-03
-1.109561e-01
-1.226896e-02
-7.782716e-02
-3.370994e-02
-9.398036e-02
4.169636e-03
3.158481e-02
-9.382604e-02
-6.094845e-02
-5.498988e-02
-4.873043e-02
-3.012955e-02
-5.085999e-02
-3.657360e-03
-1.970601e-02
7.386343e-03
-6.159915e-02
-1.362410e-02
-3.524502e-02
3.647446e-02
-6.294321e-02
1.726745e-02
-1.154396e-01
-2.842435e-02
-4.446220e-04
-2.928876e-02
1.533282e-02
-5.337110e-02
4.981963e-02
-3.852170e-02
3.046175e-02
-1.054238e-01
-5.881594e-02
3.042824e-02
-1.703556e-02
-3.976491e-02
-5.558991e-02
1.678935e-02
4.931019e-02
-3.336959e-02
-8.459297e-02
2.071541e-02
4.929432e-02
-1.132628e-01
-6.935453e-03
-9.258850e-02
-5.548454e-02
3.510960e-02
-3.437341e-02
-3.981399e-02
5.986953e-02
2.460943e-02
6.310286e-02
3.024984e-03
-2.689149e-01
1.750101e-01
-1.134455e-02
-1.438853e-02
-2.011914e-01
-1.594728e-01
1.324900e-01
-1.217375e-01
-3.937498e-02
-2.197257e-01
-2.025015e-02
1.074808e-02
-1.540375e-01
-3.177673e-02
-4.262242e-02
6.069410e-03
-9.609524e-02
4.890569e-02
9.045245e-02
9.378646e-02
1.772716e-03
5.191701e-02
8.148278e-02
-2.300316e-02
3.430786e-03
3.709605e-02
-4.876301e-02
2.475560e-01
-2.579799e-01
-3.255304e-02
-2.358185e-02
1.167882e-01
1.064454e-01
-2.612249e-01
2.437249e-01
-7.658143e-02
-1.534053e-02
3.401793e-02
6.080974e-02
-3.910147e-03
1.130361e-02
2.835647e-02
4.661327e-02
-1.875642e-02
5.634763e-05
8.760539e-02
-6.181981e-02
6.069094e-02
8.058902e-02
1.510117e-02
4.866344e-02
-7.241383e-02
8.958937e-03
