1.251696e-02
-1.213894e-02
-6.059942e-03
-3.915676e-02
-2.602009e-02
1.117269e-02
1.167034e-02
2.171123e-02
3.970874e-02
-6.609273e-03
1.735914e-02
-4.561341e-02
1.741789e-02
2.959027e-02
-3.790892e-02
1.873277e-02
-9.502800e-03
-3.121060e-02
-7.196788e-03
-2.115843e-02
-4.499605e-02
-2.828283e-04
-1.179512e-02
-2.839756e-02
1.638070e-02
1.904985e-02
-6.330327e-03
-2.604317e-02
8.986610e-04
2.593607e-02
-2.298696e-02
2.174777e-02
3.637194e-02
-2.051932e-02
2.160913e-02
3.257853e-02
1.560996e-02
3.181974e-03
-7.221784e-02
3.399958e-02
-1.416633e-02
-5.193801e-02
2.023339e-02
-2.430591e-02
-4.214770e-02
1.073874e-02
1.083402e-02
-1.086046e-02
-7.204352e-03
1.087764e-03
-2.827749e-02
-1.898656e-04
5.838220e-03
-1.955658e-02
-1.054397e-02
1.042136e-03
1.467692e-02
3.019657e-03
4.828640e-03
2.416486e-02
5.183810e-03
1.330454e-02
2.152009e-02
-2.401014e-02
-3.862519e-02
1.635011e-02
-3.208732e-02
-5.468669e-02
-1.768245e-02
-2.447803e-02
-3.310660e-02
1.622801e-02
1.748072e-02
4.554682e-03
-4.841500e-03
4.246845e-03
-3.922461e-03
-1.104470e-02
-1.870154e-02
-3.493614e-02
-1.817476e-02
-1.521072e-03
3.857748e-03
6.339516e-03
7.153943e-03
3.915995e-03
8.153781e-03
-1.104570e-02
7.500808e-03
9.795070e-03
2.397483e-02
-1.438466e-03
-2.628411e-02
1.705338e-02
-1.232745e-02
-4.971441e-02
1.083247e-02
-3.616555e-02
-2.097533e-02
1.442952e-02
-6.368143e-03
-4.886631e-03
3.241179e-02
1.206082e-03
2.682608e-02
5.017189e-02
3.366977e-02
1.588453e-02
3.190328e-03
1.983123e-02
6.830038e-03
1.382798e-02
1.607834e-02
2.661913e-04
-8.898493e-03
-6.623198e-03
-2.078371e-02
-2.388179e-02
-3.401140e-02
4.363818e-02
-6.037131e-02
-2.969839e-02
3.896278e-02
-3.721959e-02
6.594792e-03
4.164312e-02
1.232327e-02
3.152536e-03
-2.362135e-02
7.280632e-05
-1.334564e-02
-2.217097e-02
-1.583350e-02
-1.359351e-02
-2.088396e-02
-3.579539e-02
-4.429745e-02
1.312433e-02
-3.258999e-02
-1.217269e-02
2.444928e-02
-6.076455e-03
7.623584e-03
3.011920e-02
-4.129084e-02
-6.269258e-02
7.802135e-02
4.599317e-03
3.481197e-02
2.959586e-02
-8.489604e-03
-1.014841e-01
-6.184633e-02
2.103681e-02
4.363385e-03
3.509086e-02
1.813090e-03
-3.126084e-02
1.109654e-02
-9.017922e-02
1.640367e-02
-1.013068e-01
4.423405e-02
-4.933142e-03
-5.995540e-02
-2.002835e-02
-4.428842e-02
6.056509e-03
-5.276153e-02
1.651617e-02
9.093506e-02
4.525707e-02
-1.367421e-02
-6.435621e-02
2.371806e-02
-3.843962e-02
-3.752075e-02
-6.337208e-02
-6.128461e-02
4.806631e-03
3.886383e-02
-9.092980e-02
-1.088352e-02
-1.061886e-01
-1.615919e-01
-2.476395e-02
-8.947853e-02
2.070106e-02
4.634350e-02
2.070898e-02
9.854944e-03
4.927501e-02
4.734492e-02
1.115463e-02
7.558551e-02
6.221591e-02
-9.823575e-03
2.509394e-02
-2.279263e-02
-2.239929e-02
-5.806670e-02
8.672018e-03
-1.851821e-03
-1.834857e-02
-4.260337e-02
-7.537802e-02
-1.210460e-01
1.506876e-01
3.040066e-02
-8.899069e-02
-5.445932e-02
-8.513910e-02
3.192068e-02
-2.767323e-02
3.858235e-02
2.831538e-02
-5.468123e-03
3.507025e-03
-4.300798e-02
6.326147e-02
1.740245e-02
-1.831632e-02
7.571364e-02
4.237907e-02
-3.779088e-02
5.239970e-02
1.983954e-02
-2.236780e-02
2.871528e-02
-3.371363e-02
-8.351840e-02
-4.101330e-02
-6.924181e-02
-6.178265e-02
6.281223e-02
6.082938e-02
-3.250940e-02
7.566493e-03
-8.389465e-02
6.652446e-03
-1.047033e-01
3.166502e-02
-6.812675e-02
2.466292e-02
-7.711854e-02
-1.611143e-01
-1.119198e-01
-1.782348e-01
-1.493027e-01
-1.777300e-01
-1.058981e-01
1.537262e-02
-3.347141e-02
-5.756732e-02
-1.188274e-01
-5.992408e-02
-8.793689e-02
-1.220594e-01
-1.144570e-01
-1.320647e-01
-1.640331e-01
8.632787e-02
-5.509964e-02
-2.800780e-02
-1.321404e-01
1.454343e-01
-6.476164e-02
8.315507e-02
-1.849171e-02
-4.730533e-05
5.479368e-04
-2.215190e-02
-1.048751e-01
-3.674302e-02
-8.553536e-02
-1.253253e-01
-5.383369e-03
-1.171539e-01
-3.521067e-02
-1.618110e-02
-9.491409e-02
-9.239650e-02
-5.521948e-02
2.535534e-02
5.151449e-02
9.102233e-02
-7.015993e-03
3.108454e-02
-2.993324e-02
-1.002191e-01
-4.380716e-02
-5.411749e-02
-1.040853e-01
-8.180201e-02
-5.659402e-02
-9.173121e-02
-1.046461e-01
-1.308216e-02
-9.810500e-03
-1.571333e-02
-2.062947e-02
-9.073125e-02
-7.630158e-02
-3.885688e-02
-1.118478e-01
-1.124544e-01
-4.335784e-02
3.841849e-02
5.167504e-02
-1.809136e-02
1.670429e-02
3.117155e-02
4.170350e-02
1.443281e-02
8.044830e-03
-2.851924e-02
1.264274e-02
1.704604e-02
-2.074558e-02
8.603550e-03
-1.918471e-02
-1.937955e-02
-1.297535e-03
-2.567182e-02
1.017185e-02
1.426565e-01
-2.583351e-02
-1.346732e-02
-2.404308e-02
5.222350e-02
7.417814e-02
-1.605621e-01
8.276257e-02
-6.563112e-03
4.287575e-02
1.550350e-02
-1.888797e-02
4.791173e-02
3.336372e-02
-4.264799e-03
7.131730e-03
1.230229e-02
-1.112162e-02
1.888274e-02
5.174728e-03
-1.187265e-02
-7.661043e-03
1.040633e-02
-1.869908e-02
-2.938233e-02
6.399781e-02
-1.285440e-01
-1.366822e-01
-3.992667e-02
-4.251839e-02
-1.333830e-01
-5.293127e-02
-2.740536e-02
-8.802860e-02
-4.861581e-02
7.414810e-02
-6.376962e-03
-1.553540e-02
1.326544e-02
-3.783497e-02
1.068503e-02
-1.536916e-02
-2.082307e-02
-4.553613e-03
-2.037684e-02
-3.567162e-02
-3.408510e-02
3.162776e-03
-1.843473e-02
-2.800807e-02
2.205961e-02
2.164333e-02
1.063819e-02
-6.169368e-02
6.913432e-02
-5.849550e-02
-4.503827e-02
-2.394150e-02
6.181471e-02
-7.248043e-03
-9.908953e-02
1.332313e-01
-7.115419e-03
1.039964e-01
-6.680356e-02
-6.938159e-02
1.320404e-01
-3.333596e-02
-1.058278e-01
8.708994e-02
9.597500e-02
-1.899366e-02
1.141302e-02
-6.589992e-03
-1.344491e-02
8.446272e-03
8.275555e-03
4.500042e-03
3.707613e-03
5.047846e-03
1.108837e-02
-1.864682e-01
2.135027e-01
7.441763e-02
-5.607739e-02
5.444765e-02
1.419472e-03
4.733647e-02
-1.078193e-01
6.417046e-02
-5.345769e-02
-7.395560e-02
1.726283e-02
-2.365163e-02
-1.125287e-02
1.228765e-02
3.770376e-02
5.601123e-02
-3.384763e-02
-1.070892e-01
1.015036e-02
-2.535588e-02
-8.570673e-02
4.767664e-03
-1.487665e-02
-2.605672e-02
2.952297e-02
1.626788e-02
6.902363e-02
7.983631e-03
3.989107e-02
-7.524043e-02
6.356868e-02
4.111271e-02
6.393880e-02
-2.084903e-02
6.189102e-02
4.754709e-02
5.670608e-02
-1.792578e-04
8.063189e-03
5.599149e-02
3.238799e-02
-5.342436e-02
1.909141e-02
-7.846731e-02
7.944325e-02
9.829850e-02
-1.264143e-01
-7.348520e-02
6.997513e-02
-3.483421e-03
-1.073037e-01
-4.021448e-02
-2.020389e-02
-3.054397e-04
4.072014e-02
9.353108e-03
-2.143927e-02
-3.480876e-03
2.102664e-02
3.883420e-02
-3.374205e-02
4.723051e-02
1.805299e-01
-5.486266e-02
-1.085520e-01
1.001057e-01
7.864325e-02
-1.126003e-01
-1.281252e-01
7.999990e-02
-2.701350e-02
-1.018707e-02
-4.979277e-02
2.399990e-02
2.750477e-02
-2.098625e-02
-7.146827e-02
1.562799e-02
9.958489e-03
-1.731380e-02
-7.876115e-03
1.144749e-03
-6.857818e-03
2.856672e-02
2.074407e-02
3.097410e-02
-8.626444e-03
-1.824917e-02
7.819750e-02
-4.422850e-03
-8.664150e-02
-2.682295e-02
-3.659549e-02
3.333537e-02
2.931083e-02
-7.808859e-02
1.289167e-01
4.495284e-02
-3.584840e-02
-5.546479e-02
8.213662e-02
3.714006e-02
-3.581377e-02
3.309825e-02
8.162000e-02
1.072965e-01
2.689338e-02
-3.541892e-03
-1.091427e-02
8.017223e-03
3.378961e-02
-1.116638e-02
5.662766e-02
3.930440e-02
3.668557e-02
6.839164e-02
-2.766110e-02
-1.707800e-01
-1.555742e-01
1.893288e-01
-7.173514e-03
-1.020979e-01
-1.563059e-01
1.485498e-01
3.914628e-02
-1.372873e-01
-1.877678e-01
-2.708106e-02
2.255796e-01
-1.760177e-01
-2.098151e-01
-9.375889e-03
1.237473e-02
5.399072e-02
4.583059e-02
4.848395e-02
4.426143e-02
3.960845e-02
2.268123e-02
5.386332e-02
1.885495e-02
-1.303693e-02
-2.296807e-01
-5.678357e-02
2.133580e-01
7.794358e-02
-1.426693e-01
6.055567e-02
1.162325e-01
3.610072e-03
-2.503440e-01
1.087254e-03
-1.167420e-01
-1.290305e-01
6.412075e-02
1.247778e-02
-2.602027e-02
1.833831e-02
1.004445e-01
6.169054e-02
-5.442220e-05
6.648026e-03
-6.525157e-03
1.399409e-02
1.028222e-02
1.023131e-01
3.958628e-02
-7.457820e-02
-1.653244e-02
-2.211509e-02
-4.863373e-02
-9.343259e-03
-5.001409e-02
3.281348e-03
-6.092921e-02
-4.833791e-02
-4.459208e-02
-8.437719e-02
-4.160562e-02
-2.090113e-02
1.134688e-02
-2.075150e-01
-9.151711e-02
9.108596e-02
-3.011957e-01
-8.114901e-02
8.982757e-02
7.676660e-02
5.245444e-02
1.138624e-02
1.040080e-02
2.312034e-02
3.385129e-02
-2.785184e-02
6.561610e-02
6.336320e-02
9.153009e-03
3.050183e-02
-2.509673e-02
1.421797e-02
-5.808760e-03
-6.676498e-02
2.933649e-02
-2.915061e-02
-1.758927e-02
7.103399e-02
-4.499150e-02
5.974928e-02
9.186699e-02
-3.244257e-02
8.215553e-02
-4.960570e-02
1.662261e-01
2.517224e-02
9.312203e-03
3.420262e-02
-1.850337e-02
1.041021e-01
1.044191e-01
1.300515e-03
7.950688e-02
7.981262e-02
1.811505e-02
-1.612204e-02
-3.645273e-02
3.814841e-02
7.424585e-02
7.899079e-05
-1.621164e-02
7.623736e-02
4.694194e-02
-1.142762e-01
-5.993114e-02
-4.687554e-02
3.848207e-02
-8.851538e-02
-2.767586e-02
-1.957653e-03
-9.132084e-02
4.756717e-02
-7.553153e-02
-5.551840e-02
-3.267808e-02
-4.067055e-02
-4.596419e-02
-8.333034e-03
2.283598e-02
4.856446e-03
8.279105e-02
-2.135760e-02
-1.588681e-03
2.060844e-02
-5.789652e-03
-4.253301e-02
-5.139657e-02
3.827651e-03
-4.822895e-02
-2.142482e-02
1.953208e-02
-9.180360e-02
5.670378e-03
-6.648270e-02
1.127864e-01
-5.558047e-02
4.996420e-02
-5.053434e-02
1.426006e-01
-8.888208e-02
-7.067816e-02
-9.333599e-02
-2.384041e-02
2.948546e-01
-1.024801e-01
-7.016181e-02
2.045186e-01
-1.262681e-01
-1.532826e-01
3.805387e-02
-6.468879e-03
-4.342896e-02
1.964971e-02
-1.653161e-02
-8.893253e-03
-2.897584e-03
-3.587831e-02
3.748444e-02
7.735942e-02
-7.775016e-02
1.239144e-01
-8.804654e-02
2.711851e-01
-1.563814e-01
-8.483994e-02
-2.169708e-02
-1.756199e-02
-1.485172e-01
-1.270085e-01
-2.240182e-02
-1.185271e-01
-4.700745e-02
-2.134706e-02
2.077252e-03
5.229232e-02
-3.476802e-02
-7.198430e-02
-4.639475e-02
5.655698e-03
-1.290926e-01
2.464432e-02
4.185941e-02
-7.315545e-02
-1.662427e-02
9.357144e-02
-3.507616e-02
1.211891e-01
8.609603e-02
-2.446261e-02
-1.491368e-01
5.250451e-02
1.000679e-01
-2.784153e-02
-2.201547e-01
1.786221e-01
4.590531e-02
5.960789e-02
3.591111e-02
1.231409e-01
1.659235e-01
2.002902e-02
-1.396384e-02
6.337430e-02
-1.823697e-02
1.215493e-01
1.276754e-01
-1.699355e-01
-4.233458e-02
7.470373e-02
-9.017535e-02
-1.114569e-01
-6.819819e-02
3.542291e-03
4.396598e-02
9.194519e-02
2.432553e-02
-3.967246e-02
-9.124050e-03
2.288025e-02
-2.130983e-02
-1.098241e-01
1.264450e-01
1.160877e-01
-2.132891e-02
-7.317073e-02
1.868170e-01
7.669953e-02
-1.315945e-01
-1.032179e-01
6.613959e-02
-3.855969e-02
-3.726692e-02
-3.657874e-02
6.456894e-02
5.413081e-02
3.817556e-02
-8.133407e-03
8.551839e-02
5.472081e-02
1.305278e-02
1.411454e-01
-5.726822e-02
-1.541925e-01
1.887257e-01
1.952530e-01
-1.894764e-01
-1.570731e-01
-1.732354e-02
9.937473e-02
-7.534677e-02
-1.122526e-01
-1.279134e-02
9.133634e-02
8.065689e-02
-1.060794e-01
-1.363534e-01
1.828151e-01
-4.211523e-02
-1.737443e-01
-1.773427e-01
2.475315e-01
1.149332e-01
-2.066472e-01
1.807358e-01
3.231362e-01
1.898253e-01
3.510153e-02
-3.065504e-02
-2.732053e-02
4.097693e-03
3.768797e-02
1.729849e-02
-3.356993e-02
-2.827736e-02
4.029020e-02
1.629014e-02
-7.664368e-02
-1.463263e-01
-4.387755e-02
3.238577e-01
2.748164e-02
-1.635416e-01
-2.800255e-02
1.778441e-02
-1.475893e-01
-3.254284e-01
-3.297883e-01
2.031257e-01
3.042362e-01
-2.776353e-01
-2.721515e-01
1.395381e-01
2.341208e-02
1.037019e-01
7.297104e-02
1.159352e-01
3.017411e-02
1.887008e-02
3.652647e-02
6.680613e-02
9.270335e-03
-2.491133e-02
-1.392638e-01
1.290592e-01
1.420069e-01
-1.869181e-02
-1.464297e-01
6.304628e-02
1.300334e-01
-7.287439e-02
-1.766577e-01
-1.974444e-01
-2.815492e-01
-2.206110e-01
7.727766e-02
2.223250e-02
-1.709936e-01
1.148575e-01
2.279951e-01
5.666753e-02
1.138253e-01
8.249110e-02
-9.435529e-02
-5.540808e-02
8.898269e-02
5.753912e-02
-7.984339e-02
-1.351258e-01
-2.084969e-02
3.125182e-03
7.806996e-03
4.345825e-02
-4.598076e-03
-3.109125e-02
-4.408057e-02
5.521352e-03
-1.604656e-02
-4.429947e-02
3.347658e-02
8.365477e-03
1.753335e-02
-1.150487e-03
-1.669262e-02
3.667116e-02
-3.346730e-02
-3.676985e-03
5.930007e-02
7.397800e-03
2.071240e-02
3.826023e-02
-1.661296e-02
8.902465e-04
3.100305e-02
-4.779829e-02
-3.370872e-02
-3.495266e-04
-1.374202e-02
-5.151386e-03
1.749573e-02
-7.669600e-03
-1.348128e-02
1.799849e-02
-9.029703e-03
-2.608027e-02
-7.682721e-03
-3.611909e-03
-1.538688e-02
-2.901784e-02
-1.281528e-02
7.145538e-03
-1.111453e-02
-3.814616e-02
2.024623e-02
2.478585e-03
2.268701e-02
-7.648344e-04
7.518374e-03
1.275071e-02
-1.784697e-03
-9.726441e-04
1.116937e-02
-4.562905e-03
-1.723254e-02
-4.027666e-02
-3.754382e-02
-4.240564e-02
-1.458225e-02
-1.489526e-02
-2.344896e-02
2.613247e-03
-1.545314e-02
-2.747756e-02
6.395464e-02
7.260129e-02
9.622671e-02
3.421052e-02
3.249083e-02
5.451690e-02
4.786815e-02
1.449363e-02
3.932400e-02
-1.332886e-03
-3.752487e-02
-4.249473e-02
9.338859e-03
-1.220557e-02
-3.760907e-02
4.251526e-02
6.468964e-03
-1.623903e-02
5.056203e-03
-2.473729e-03
-2.129730e-03
-4.383981e-03
-1.526205e-02
-1.373012e-02
-3.890899e-03
-2.458782e-02
-2.722942e-02
1.461492e-02
1.326739e-02
1.297248e-02
1.075143e-02
2.161206e-02
-2.061672e-02
7.813510e-04
-1.004097e-02
-3.986273e-02
-3.945144e-02
-6.981606e-02
-8.394008e-02
-2.384368e-02
-4.708603e-02
-8.339492e-02
-8.237422e-03
-4.303531e-02
-8.790738e-02
-2.234105e-02
-3.751802e-03
4.744220e-03
3.066873e-03
1.575016e-02
3.247615e-02
-1.103137e-02
-7.676369e-03
8.886092e-03
-2.782270e-02
-5.397275e-03
-3.442856e-02
-9.360977e-03
-2.856066e-02
8.163845e-03
-3.024603e-02
-4.113725e-02
5.757109e-03
3.966973e-03
-1.375483e-02
-3.285217e-02
-6.503053e-03
-2.643030e-02
-2.256689e-02
9.485956e-03
-2.492046e-02
-2.204367e-02
-8.270128e-04
-2.287299e-02
-2.216324e-02
-3.085703e-03
-1.741837e-02
-6.542655e-03
1.691842e-02
1.886456e-02
2.014333e-02
-5.188329e-02
-3.103147e-02
7.379771e-02
5.833527e-02
6.572131e-02
6.145523e-02
-5.371200e-02
-1.940621e-03
6.472820e-02
6.037888e-03
-4.012690e-02
-6.717966e-02
-8.517268e-02
-8.963630e-02
-1.008968e-01
1.410520e-02
5.137805e-02
3.187487e-02
-1.678607e-01
1.255068e-02
1.659010e-01
-8.030746e-02
-6.067877e-02
3.833106e-02
-3.787980e-03
-9.420851e-02
-1.231817e-01
1.130181e-02
5.807586e-03
-3.428896e-02
5.783860e-02
7.273795e-03
-7.613958e-02
5.904234e-02
-2.715845e-03
-4.880900e-02
3.947994e-02
7.270075e-02
4.964765e-03
3.353419e-02
3.427670e-02
3.437335e-02
2.160324e-02
-8.636816e-03
2.689389e-02
2.778196e-02
1.861799e-02
-3.425823e-02
3.642609e-02
7.096585e-02
-3.461340e-04
-2.712535e-02
1.541999e-02
4.167652e-02
-3.949460e-02
-1.118395e-01
-1.151057e-01
1.208274e-01
2.777905e-02
-1.409501e-01
9.354105e-02
9.976408e-02
-4.939362e-02
1.031837e-01
1.017480e-01
9.291597e-02
-7.574709e-02
-7.083146e-02
5.238612e-02
1.680708e-02
-7.069910e-02
-5.570358e-02
4.161017e-02
-1.236755e-02
-3.976072e-02
1.565721e-01
1.609140e-01
1.202777e-01
4.445740e-09
3.355275e-02
3.261937e-02
1.935110e-02
-1.249163e-02
-3.668416e-02
-9.764371e-03
1.992022e-02
3.640851e-02
-3.946962e-02
3.027480e-02
4.709298e-02
3.161975e-02
8.055747e-02
-1.331744e-02
2.170169e-02
6.155727e-02
4.422107e-02
-1.882734e-02
2.319506e-02
1.865244e-02
2.562797e-02
-8.703523e-02
-1.140421e-01
7.948506e-02
8.526652e-02
7.718623e-02
-1.264302e-01
-1.144664e-01
-1.575495e-01
2.951272e-02
6.410948e-03
9.221595e-03
7.439128e-03
-1.632087e-02
-1.976180e-02
1.955330e-02
-1.986372e-02
-2.903586e-02
-4.098492e-02
-9.639210e-02
-4.345462e-02
2.696150e-02
-8.473219e-02
-9.575999e-02
9.036691e-02
-1.575068e-02
-9.952427e-02
-1.286455e-01
-1.711540e-01
-1.006274e-01
4.051623e-02
4.285523e-02
4.376420e-02
-3.057037e-02
4.405577e-02
6.274378e-02
-1.009839e-01
-4.217825e-02
1.159504e-01
-5.564442e-02
-9.724692e-02
-7.678770e-03
1.107616e-01
1.305307e-02
-4.637821e-02
-1.433481e-03
1.345011e-03
-2.084963e-04
-1.048170e-03
-2.160151e-03
-1.943958e-03
2.800369e-04
1.550347e-03
3.295216e-03
-1.310524e-03
-1.252970e-03
1.965008e-03
-4.191155e-03
-2.784776e-03
8.719999e-04
8.442253e-05
1.686436e-03
-1.557423e-03
-1.428664e-03
-8.117498e-04
-1.557594e-03
-1.520535e-03
-1.233592e-04
-2.617239e-03
2.795664e-04
3.818012e-03
3.145471e-03
1.438276e-03
3.273716e-03
2.452832e-03
8.844824e-04
2.175979e-03
-2.476380e-03
1.381018e-03
-1.418607e-03
-4.919932e-04
-3.953318e-03
-2.012609e-03
1.758357e-03
1.206723e-03
3.756279e-03
2.704873e-03
-7.151456e-04
2.089415e-03
-4.559558e-04
-7.210007e-04
4.864124e-04
-1.349745e-03
5.672935e-04
-5.769368e-04
-9.688964e-04
2.062933e-04
1.884802e-03
1.350871e-03
2.368800e-03
9.300913e-05
5.160758e-04
1.592550e-03
6.059693e-04
3.836744e-03
-3.035319e-03
3.766676e-04
-3.050768e-04
5.955744e-04
-1.564299e-03
3.780459e-04
6.400224e-05
-5.124915e-04
7.267412e-04
-1.567650e-03
6.928536e-04
3.154837e-03
1.135350e-03
-2.540410e-04
-9.392654e-05
-6.774723e-04
1.736980e-03
-9.502771e-05
2.421008e-03
3.518244e-04
-9.144838e-04
1.923004e-03
-3.266121e-03
7.358200e-04
7.744147e-05
6.225388e-04
-3.879380e-03
-1.967104e-03
-1.353571e-03
6.558851e-04
-7.820824e-04
-1.264221e-03
-1.098260e-04
-1.296839e-03
1.861356e-04
2.854173e-03
1.493488e-03
5.819320e-04
-8.910946e-04
8.907281e-04
-1.652309e-03
1.294742e-03
4.229254e-04
-1.932557e-03
-1.767326e-03
2.385331e-03
-1.743795e-03
1.125836e-03
-3.845702e-03
2.773353e-03
-1.670507e-03
-2.253154e-03
9.182844e-05
-8.766501e-04
-1.458587e-03
-5.467481e-04
-1.107435e-03
1.180306e-03
3.948415e-03
7.776186e-04
-1.745233e-03
-5.179150e-04
3.038036e-03
-7.376981e-04
-1.357044e-03
-7.991696e-04
-6.502075e-04
-3.296983e-04
8.299778e-04
-8.979785e-04
-3.075836e-03
-2.034778e-03
-1.140713e-03
-5.163228e-04
9.289377e-04
6.935615e-04
-3.074592e-04
7.366661e-04
3.584640e-03
4.107831e-04
-1.030783e-03
1.324725e-03
-9.460946e-04
1.696061e-04
6.407783e-02
8.262548e-03
1.115701e-02
-6.217512e-02
-2.399474e-02
3.147649e-02
-2.439165e-02
4.615774e-02
5.468938e-02
-7.749285e-02
-3.079131e-02
9.349728e-02
-8.618922e-02
-3.882371e-02
7.842880e-02
-3.849239e-02
-4.567821e-02
2.077663e-02
-5.359069e-02
-5.900262e-02
3.286688e-02
-5.137493e-02
-5.356470e-02
8.935901e-02
-4.432192e-02
-2.545668e-02
8.833316e-02
7.830732e-02
-3.112039e-02
-1.028046e-01
1.415620e-01
-1.124764e-02
-9.157155e-02
8.681664e-02
-9.741110e-03
-1.002159e-01
-2.148223e-01
-8.575808e-02
4.350846e-02
-1.797851e-01
-9.106035e-02
1.013839e-01
-1.644452e-01
-1.327177e-01
8.785982e-02
-3.288784e-02
-2.963592e-02
-3.237310e-02
-2.505652e-02
2.588559e-02
4.390743e-02
-2.222071e-02
2.962770e-02
6.304254e-02
-3.922652e-02
1.020449e-01
2.510778e-04
-9.865348e-02
7.116915e-02
-9.737259e-03
-5.320792e-02
2.728662e-02
2.827060e-02
2.680834e-02
-1.772461e-02
-3.930617e-02
-3.152213e-02
-2.648005e-02
3.290258e-02
-2.238220e-02
-6.892773e-02
1.000221e-01
8.950970e-02
4.619103e-02
1.227979e-02
1.469270e-02
7.872943e-02
-1.452206e-02
-1.619685e-02
5.270356e-02
3.343179e-02
1.536958e-02
-2.771923e-02
-2.923354e-02
5.981805e-03
-9.939400e-03
-7.449980e-03
-2.333456e-02
-3.216186e-02
-1.150049e-02
-1.224143e-01
5.838056e-02
5.504074e-02
-2.151182e-01
1.128946e-01
1.286537e-01
-1.658385e-01
1.164034e-02
6.125646e-02
-1.362588e-01
7.209696e-02
-1.225148e-02
-2.051324e-01
1.201244e-01
1.655363e-02
-1.383868e-01
4.239463e-02
7.806250e-02
1.770435e-02
2.700189e-02
1.254462e-01
-1.119289e-02
1.899114e-02
1.138923e-01
-5.323434e-03
9.628767e-03
6.383129e-02
4.650466e-02
-1.039576e-01
-4.966559e-02
2.705475e-01
-1.056099e-01
-1.830276e-01
2.221508e-01
-2.573298e-02
-1.630423e-01
-4.416287e-02
5.384021e-02
-8.574749e-02
-4.717663e-02
2.093611e-01
-5.228144e-02
-3.642427e-02
1.579252e-01
-7.365236e-03
-3.023431e-02
2.223168e-02
-3.084398e-02
-3.407960e-02
-6.757919e-02
-3.118818e-02
-1.565522e-02
-6.418902e-02
1.003466e-02
3.641641e-02
1.538277e-02
7.550678e-02
-4.740189e-02
-4.345015e-02
3.191191e-02
-8.824316e-02
5.664804e-02
2.231513e-01
-1.635498e-02
-2.541986e-01
-2.673593e-01
-9.345041e-02
-2.612863e-01
-2.673707e-02
-1.835541e-01
-2.108715e-01
-2.351657e-04
-1.492056e-03
3.241231e-02
5.642849e-02
3.656420e-02
-1.042281e-02
-4.031761e-02
1.584953e-02
-3.891405e-02
-5.399597e-02
1.124481e-01
5.092270e-02
-1.727564e-01
2.705118e-01
8.822145e-02
-2.479983e-01
9.354767e-02
-1.155624e-01
-3.048621e-01
-7.965382e-02
-2.322852e-01
-8.300204e-02
-2.508174e-01
-2.542989e-01
9.718665e-02
-1.537776e-01
-5.921985e-03
-3.811539e-02
1.265634e-01
1.613557e-01
-3.544823e-02
9.360129e-02
3.922245e-03
-1.283639e-02
-6.522074e-03
-2.693109e-02
1.464748e-01
-1.276882e-01
-3.117840e-02
1.558096e-01
-5.559047e-02
-1.257937e-02
1.026760e-01
-2.580240e-02
6.064373e-02
-1.826121e-02
2.462967e-02
-3.607771e-02
4.161020e-02
-5.191492e-02
3.501726e-02
-7.886861e-03
1.779341e-02
2.942002e-02
-2.970602e-02
1.278452e-02
7.602560e-02
1.443297e-01
-5.386920e-02
1.926909e-01
2.679802e-01
-4.294812e-02
9.829585e-02
1.428943e-01
-6.924210e-02
-3.327776e-02
4.321314e-03
-2.891912e-02
-4.154150e-03
1.146728e-01
-1.248225e-02
-5.858336e-02
3.811955e-02
-8.533089e-02
-1.034944e-01
8.986583e-03
-2.266018e-01
-7.956428e-02
3.870194e-01
-1.237524e-01
1.821006e-03
1.307189e-01
-1.541464e-01
-1.941404e-02
-4.174469e-02
-2.464947e-01
-1.870127e-01
1.260863e-01
-5.640507e-02
-1.762502e-01
1.900200e-01
6.903287e-02
-2.980331e-02
-2.529528e-04
1.365860e-02
-9.991146e-02
-4.757802e-03
-7.022359e-02
-7.624106e-02
2.987175e-02
3.725057e-02
1.823512e-02
1.534324e-02
3.781287e-01
2.450064e-01
-3.597229e-01
1.661414e-01
4.641264e-02
-2.775314e-01
-1.242752e-01
5.401928e-02
-2.265509e-03
-9.083510e-02
2.331121e-01
2.891324e-01
-4.406042e-02
1.365538e-01
1.033759e-01
-2.741303e-01
-6.253259e-02
2.099818e-01
-1.481324e-01
4.052516e-02
5.246277e-02
1.470264e-03
3.714535e-02
-1.707823e-02
-1.107745e-01
-7.615360e-02
7.829212e-02
-3.594899e-02
-6.111899e-02
-6.979001e-02
1.343185e-01
1.698290e-01
7.673910e-02
-3.092204e-02
-4.195093e-02
-2.003874e-03
-4.293013e-02
-5.013087e-02
-5.475875e-02
5.260011e-02
4.791718e-02
5.879724e-02
-4.405299e-03
-1.761577e-02
-2.883765e-02
2.774841e-03
-1.938315e-04
-2.326937e-02
-2.294931e-02
7.961421e-03
3.730738e-02
-3.746413e-03
-4.418115e-03
-2.391372e-02
1.321977e-02
-4.888614e-03
-4.956006e-02
6.510840e-02
5.748042e-02
2.834625e-02
-1.606243e-02
-1.986635e-02
2.058296e-02
-1.371319e-02
-2.401168e-02
-9.660489e-04
-4.845194e-03
-2.373748e-02
6.505495e-03
1.130948e-02
-3.995250e-02
-3.216682e-02
1.849191e-02
1.406715e-02
-1.183883e-02
2.430408e-02
5.614709e-02
3.538314e-02
6.563540e-02
1.367762e-01
1.480456e-01
-8.829957e-02
-1.670695e-02
2.883936e-02
-7.899532e-02
-1.085779e-01
-1.180093e-01
8.888101e-02
9.595960e-02
1.599112e-02
-4.560825e-02
-6.657150e-02
-2.473533e-02
5.028955e-02
-2.755823e-02
-5.789948e-02
-2.782198e-02
-1.500985e-02
-3.064134e-02
5.444112e-02
1.001835e-01
1.040730e-01
-5.193122e-02
-1.575250e-02
3.023533e-02
4.102656e-02
2.282808e-02
1.121312e-02
-2.103388e-02
-4.148761e-02
-1.234715e-02
1.630900e-02
-3.534669e-02
-4.321245e-02
-1.414814e-02
-5.315867e-02
-6.531990e-02
-5.960188e-02
-3.179306e-02
-2.647435e-02
-9.936121e-03
-4.345754e-03
-1.247040e-02
-4.298238e-03
-1.130208e-01
-1.878889e-01
1.399708e-01
1.720070e-01
1.195402e-01
-1.266514e-01
-9.872725e-02
-1.150056e-01
4.690743e-02
6.226862e-02
2.692384e-02
1.786856e-03
1.282766e-02
1.167819e-02
-1.314680e-02
-1.254429e-02
-1.166596e-02
-3.503069e-02
-1.038343e-02
-1.015241e-01
8.986750e-03
-2.318819e-02
3.209249e-02
4.767893e-02
5.367836e-02
2.888759e-02
-1.001132e-01
-9.724762e-02
-5.642818e-02
-2.030804e-02
-2.577908e-02
-7.959296e-03
-1.221373e-02
-2.802469e-02
8.932804e-03
2.803963e-02
6.172176e-02
5.157706e-02
-5.516398e-02
-5.278154e-02
-5.366943e-02
-2.571099e-03
2.266799e-02
-4.040936e-02
-2.953151e-02
-4.143406e-02
-3.282142e-02
-6.991497e-03
1.237131e-01
-1.347556e-03
-7.516691e-02
-1.035708e-01
-1.216683e-02
-1.100551e-01
-1.261653e-01
-5.365829e-02
8.770370e-02
-4.839274e-02
-1.343376e-01
6.107045e-02
7.669084e-02
1.042436e-01
6.355064e-02
-4.164131e-02
-1.479211e-01
4.120813e-02
6.885134e-02
-5.083954e-02
-6.899636e-02
9.042387e-02
8.906323e-02
6.031357e-02
-6.265513e-03
-1.031461e-01
5.459421e-02
7.104125e-02
5.744267e-02
-3.074703e-02
-4.630495e-03
1.043586e-01
-8.377098e-02
-1.318454e-01
7.833861e-02
1.099561e-01
-9.286306e-02
-1.242627e-01
2.045505e-01
2.105635e-01
-2.882393e-02
-1.061574e-01
-4.087091e-02
8.496864e-02
-8.965776e-02
-8.968735e-02
5.154206e-02
4.896155e-02
-7.594956e-02
-9.449246e-02
-9.123177e-02
-1.286692e-01
3.320313e-02
1.051617e-01
-2.118756e-02
-7.835600e-02
2.675267e-02
4.157798e-02
-1.120377e-01
-2.250605e-03
-1.286088e-02
1.415988e-01
7.275391e-02
-1.308697e-01
-1.072478e-01
1.785355e-01
8.852512e-02
-1.379105e-01
6.144504e-02
2.196480e-01
2.845027e-01
-6.448036e-02
-1.099711e-02
1.794825e-01
5.352880e-02
-1.107485e-01
-1.082096e-01
-3.967118e-03
-3.256528e-03
4.187916e-03
4.140218e-02
-4.974517e-02
-3.843825e-02
7.188725e-03
-5.148774e-03
-7.147830e-02
-1.818414e-01
-4.028524e-02
1.040041e-01
7.722464e-02
-1.549115e-01
-5.916348e-02
1.012357e-01
5.362488e-02
-1.790552e-01
-2.868679e-01
5.954322e-02
5.357196e-02
-2.072704e-01
-1.106733e-01
6.889667e-02
1.880870e-02
-2.187741e-01
-2.800594e-01
9.379043e-02
1.800286e-02
5.056654e-02
1.162282e-01
2.682876e-02
3.035701e-03
1.180839e-01
8.301227e-02
3.011877e-02
3.228577e-01
1.090498e-01
-2.536752e-01
-1.382275e-01
3.020179e-01
-2.385611e-02
-2.643418e-01
-1.581277e-01
2.250790e-01
-7.797793e-02
1.713095e-01
1.652476e-01
-2.158773e-01
-5.350014e-02
1.526053e-01
-8.320715e-02
-8.962650e-02
-1.169678e-01
-3.602492e-02
-1.293710e-01
-3.544977e-02
1.136980e-01
-3.936254e-02
-6.273214e-02
4.579554e-02
2.318441e-03
-2.821312e-02
-1.125357e-03
-5.258869e-02
-1.169709e-02
-3.914406e-02
-5.062209e-02
-1.902147e-01
-4.808885e-02
-1.410177e-01
-1.656777e-01
4.819496e-02
1.435265e-01
6.683566e-02
3.746966e-02
2.340942e-02
-4.201825e-02
-5.100087e-02
-9.201872e-02
-6.272413e-02
-1.082235e-01
-2.956073e-02
8.065370e-02
-5.090461e-02
-3.298933e-02
9.955738e-03
2.282047e-03
-3.812935e-02
-8.612865e-02
-8.477362e-02
-5.634920e-02
4.864055e-02
1.081279e-02
2.762133e-02
5.139694e-02
1.051902e-02
3.931125e-04
-5.233280e-02
5.424194e-03
-6.533526e-05
-8.644382e-03
-4.851291e-02
-1.585301e-01
-5.925127e-02
-6.375640e-02
-1.430062e-01
7.813281e-02
-8.174448e-02
-2.136600e-03
8.118987e-02
-4.218055e-02
9.583528e-02
1.001840e-01
2.121171e-03
8.807003e-02
6.042818e-02
8.981708e-02
-7.611123e-02
-9.455804e-02
-8.179969e-02
-1.896206e-01
-1.359186e-02
-1.846685e-01
-1.096923e-01
1.385957e-01
7.241913e-03
2.059001e-02
3.509136e-02
-1.042634e-01
6.870556e-04
1.978934e-01
4.075471e-02
1.347447e-01
1.352595e-01
9.750806e-03
-3.106231e-02
-1.213308e-01
3.246575e-03
2.672212e-02
1.285788e-02
1.079297e-02
6.892010e-02
1.202329e-01
-6.152451e-02
-2.208529e-02
-1.716280e-02
-5.123613e-02
1.571929e-02
5.951800e-03
-2.385876e-02
3.928167e-02
1.626883e-02
-3.933685e-02
8.909409e-02
-1.486747e-03
5.448038e-02
-5.611499e-02
7.288796e-03
-5.607202e-04
-1.584483e-02
3.888744e-02
6.419830e-02
6.002849e-03
-2.198752e-01
-3.484573e-02
-1.025549e-01
-1.805935e-01
-6.138835e-02
-1.173841e-01
-1.162137e-01
2.894275e-02
-4.099747e-03
-2.253386e-02
9.639832e-03
-6.142104e-03
-2.422634e-02
-5.818399e-02
-7.893182e-02
-8.021252e-02
-5.999211e-02
-1.067842e-01
5.056562e-02
-7.171459e-02
5.791586e-02
1.242945e-01
6.269436e-02
1.833001e-01
2.560915e-02
-5.824901e-02
-9.556985e-02
-1.781858e-01
-8.887898e-02
-5.352944e-02
-4.785139e-02
2.770416e-02
7.655166e-02
1.546630e-01
7.209963e-03
-8.748867e-02
-8.715162e-02
-1.013483e-01
-4.255025e-02
6.354380e-02
-3.816003e-02
3.538464e-02
8.042473e-02
3.532813e-02
-5.381216e-02
-1.804013e-01
7.355320e-02
1.590783e-01
9.321092e-02
-1.263205e-01
-4.010762e-02
3.265499e-02
-4.131935e-02
-2.453012e-02
6.945521e-02
1.623620e-02
-7.929518e-03
3.779570e-02
4.506175e-03
-2.693149e-02
-2.548927e-03
-2.245000e-02
-7.534810e-02
-1.054274e-01
8.159032e-02
8.894940e-02
8.597714e-02
-2.476084e-02
4.567020e-03
6.909312e-02
7.512233e-02
3.272682e-02
-1.931062e-03
7.788081e-02
7.838350e-02
6.326868e-02
-3.015404e-02
-1.564606e-02
9.752795e-03
-8.987009e-02
-3.881049e-02
5.684746e-02
5.517624e-02
4.886428e-02
1.171143e-01
-4.805209e-02
-8.895586e-02
2.721499e-02
1.274106e-02
-9.915418e-03
-4.317676e-02
-7.527336e-03
3.353523e-02
6.733540e-04
3.157320e-02
2.818249e-02
-2.706910e-02
-2.657760e-02
-2.424409e-02
3.485749e-02
2.813105e-02
-1.487427e-02
-4.782745e-02
1.919930e-02
4.240272e-02
1.549989e-02
-1.683065e-01
-5.922428e-02
-1.212506e-02
6.067688e-02
-2.133149e-02
-8.917604e-02
4.365376e-02
1.061549e-01
8.330666e-02
5.013299e-02
1.109012e-01
9.014343e-02
-8.225299e-02
-4.510421e-02
2.847814e-02
-2.039277e-02
-1.939902e-02
-5.171317e-02
-7.892353e-02
-3.892643e-02
1.413793e-02
-2.069086e-02
-3.914668e-02
-4.479143e-02
-1.493731e-03
1.394785e-02
-7.698869e-03
-4.546737e-02
1.420163e-03
6.191612e-02
8.261272e-02
-4.178866e-02
-6.643958e-02
-1.245367e-02
3.485722e-02
-3.306734e-02
-2.510030e-03
9.504632e-02
-8.033774e-04
-1.373610e-01
-1.253399e-01
-1.603569e-01
6.592879e-02
1.096075e-01
-6.960934e-02
9.552746e-04
-1.738056e-02
-8.752869e-03
5.155986e-02
1.726584e-02
1.962293e-03
1.073676e-01
9.011098e-02
6.628256e-02
1.224186e-02
-6.184046e-02
-8.561239e-02
3.087111e-02
1.191971e-01
4.232000e-02
-6.459726e-02
-1.658304e-01
-3.884456e-02
4.626154e-03
4.193414e-02
-4.464966e-03
-1.243815e-02
1.249997e-02
1.621806e-02
-3.312390e-02
-4.462908e-03
-5.777556e-02
-2.715820e-02
-2.722029e-02
-5.555856e-02
6.925495e-02
7.196185e-02
-2.319679e-02
-1.322404e-01
-8.310910e-02
5.792535e-02
-3.293969e-04
-9.545980e-04
-3.528817e-04
7.709996e-04
-8.252339e-04
-1.626299e-03
-2.159202e-03
2.559044e-03
1.337770e-03
1.764343e-03
-7.373628e-05
7.055360e-04
1.665110e-03
3.055245e-03
3.260087e-04
1.399013e-03
3.013567e-03
2.116951e-04
-8.718922e-05
-2.238125e-03
8.766182e-05
3.647691e-04
1.810945e-03
-1.465267e-03
-3.349489e-04
7.455299e-04
-1.777899e-03
2.209601e-03
-1.465174e-03
4.908172e-04
3.546943e-04
3.183876e-03
-1.756208e-03
1.210565e-03
4.473805e-04
-1.210322e-03
2.339402e-03
-2.344951e-03
-1.952238e-03
3.515316e-03
6.270807e-04
-3.790740e-04
-1.766225e-03
-4.885888e-04
9.055907e-04
-1.237938e-03
5.520411e-04
1.188881e-03
8.553404e-04
2.820867e-03
-7.882770e-04
-2.227717e-05
1.087531e-03
9.478831e-04
-2.964015e-03
-2.684723e-03
-4.529650e-03
-2.617337e-03
-1.715285e-03
1.745717e-03
-2.961829e-03
2.791940e-03
2.261345e-03
-1.085507e-03
-2.551443e-03
-1.592307e-03
2.085054e-03
-7.440861e-05
1.052964e-03
-3.135830e-04
-2.210526e-03
-3.486473e-03
3.156371e-04
1.827828e-03
2.364603e-03
1.830110e-03
-1.412649e-03
-9.920426e-04
5.731320e-04
2.374637e-03
5.858957e-04
-1.024337e-03
1.981534e-03
2.731930e-04
-1.909678e-03
-9.133364e-05
-1.810996e-03
-1.086007e-03
-2.885678e-03
-8.371967e-04
1.427483e-03
1.888011e-03
-2.314814e-03
-1.075620e-03
-2.848736e-03
2.552930e-04
-5.594618e-04
-1.765479e-03
-3.186473e-03
2.178984e-03
-1.473125e-04
-2.004005e-03
-4.507035e-03
1.525173e-03
-1.359963e-03
-2.754871e-03
-1.019064e-03
7.356231e-04
-3.049693e-03
1.086088e-03
-1.860626e-03
-5.648399e-04
-4.406311e-03
-2.817301e-03
-1.757330e-03
-2.881977e-04
1.238010e-03
-1.238819e-03
-1.955169e-03
-1.955570e-03
-6.057768e-04
-3.103787e-04
4.320959e-03
-4.778278e-03
4.521939e-04
-1.961298e-03
-9.142913e-04
-2.191635e-04
-1.114495e-03
-5.752835e-05
7.818716e-04
-1.049999e-03
-3.418894e-03
-8.591120e-04
-8.715178e-04
-4.584867e-03
-1.896338e-03
2.163882e-03
-1.729757e-03
-1.520653e-05
1.967029e-03
3.350171e-04
1.014178e-03
2.088048e-04
