6.117099e-03
-7.528519e-03
-2.418419e-02
1.445014e-02
2.860200e-03
-2.226880e-03
2.158784e-02
1.645196e-02
4.008837e-03
-7.219476e-04
-1.835007e-02
-1.991128e-02
1.506584e-02
-2.611531e-04
-7.034044e-03
-1.116506e-02
1.183456e-03
-5.112903e-03
-1.609335e-02
3.183223e-05
-6.663390e-02
3.130094e-03
4.087670e-03
-5.309187e-02
4.661454e-03
2.497517e-02
-5.666678e-02
8.306499e-04
1.415785e-03
-6.611902e-04
-9.035415e-04
-4.838531e-03
4.593273e-04
-5.236880e-03
-1.372296e-03
-2.218804e-03
-1.333756e-02
3.403614e-04
8.971968e-03
-2.733628e-03
-3.329318e-02
-5.846220e-03
-6.004774e-03
3.095340e-03
-3.512116e-02
2.186314e-02
5.038191e-03
8.364813e-03
8.823428e-03
5.459304e-03
1.519431e-02
8.211888e-03
1.358848e-02
1.110949e-02
2.999676e-02
-4.181416e-03
2.822094e-02
1.419434e-02
3.579658e-02
-3.856829e-02
-2.146161e-02
7.676573e-03
-1.158350e-02
-8.757381e-03
4.981370e-04
6.822712e-02
-1.322173e-02
-1.051809e-02
3.106989e-02
-5.184581e-02
-3.172025e-02
-2.260550e-02
1.513652e-02
1.423023e-02
1.824084e-02
-1.697404e-03
-2.079520e-03
-8.537629e-03
1.269191e-02
3.764327e-03
7.182608e-03
-1.186565e-02
3.475036e-03
1.134731e-02
9.226608e-03
4.001093e-02
4.435895e-02
-6.866624e-02
-1.361185e-02
-6.983964e-03
1.017884e-03
-3.695594e-02
-1.497049e-02
-2.836047e-04
-3.414819e-02
-1.588007e-02
-1.705726e-03
-2.450173e-02
5.217636e-04
-6.384624e-03
6.751004e-03
1.433598e-02
-3.044833e-02
2.070699e-02
-7.015194e-02
-2.970423e-03
-7.177592e-02
2.985536e-02
3.344858e-04
6.568597e-03
3.855370e-03
-1.438830e-02
-7.100226e-03
-4.233961e-03
-6.810925e-03
5.459743e-03
1.030217e-02
4.551927e-03
1.630041e-02
-1.876634e-02
1.246808e-03
-1.338377e-03
-3.288820e-02
2.529011e-02
-2.212283e-02
-1.065617e-02
-7.628406e-03
5.339448e-04
2.328512e-02
-1.418675e-02
1.993583e-02
3.674871e-02
-3.401625e-02
-1.006080e-02
1.762638e-02
-9.659033e-03
3.237230e-02
-1.843408e-02
-4.835014e-03
1.896172e-02
-2.474882e-02
1.725497e-02
2.063308e-02
-5.495901e-02
2.864034e-02
2.230158e-02
8.018442e-03
3.315494e-02
4.520444e-02
4.639179e-02
2.094129e-02
4.863746e-02
5.484804e-02
1.224566e-04
2.193503e-02
1.532007e-02
6.991352e-02
6.919476e-02
4.183970e-02
5.982600e-02
1.969365e-02
7.098495e-02
8.647220e-03
-1.101827e-01
-7.486083e-02
-4.107739e-02
-1.082757e-01
-8.173993e-02
-4.851187e-02
-7.956464e-02
-1.164094e-01
-2.844355e-04
-1.376210e-03
6.861177e-04
-2.320174e-03
1.075007e-03
-7.550801e-04
-5.168467e-04
-3.581009e-03
3.214268e-04
-1.864862e-02
-5.080406e-02
-3.560320e-02
-4.561326e-02
-1.688379e-02
-8.455490e-03
-5.159871e-02
-2.530658e-02
7.640275e-02
5.801119e-02
3.448009e-02
9.965535e-03
6.293358e-02
-3.860024e-02
-4.592241e-02
-3.096362e-02
-5.017985e-02
-5.069607e-02
-5.254024e-02
-1.048735e-01
-1.240271e-01
-4.339852e-02
-2.814716e-02
-1.563226e-02
1.841045e-02
3.655815e-02
4.059314e-03
-6.815266e-02
-7.026723e-02
4.291452e-03
-4.545251e-02
-8.571097e-02
5.683142e-02
-6.119848e-02
-7.127469e-02
2.804149e-03
-1.229958e-02
8.488009e-03
3.544760e-02
-3.856117e-02
-1.385096e-02
2.163094e-03
-1.767135e-02
-9.730179e-03
-4.618179e-02
-3.303299e-02
3.107747e-02
9.328510e-02
6.693701e-02
7.449864e-03
1.425958e-01
2.790695e-02
1.075680e-01
1.006315e-01
-3.881342e-02
2.682263e-02
2.340246e-02
-5.186250e-02
3.706711e-02
6.087590e-02
-3.081644e-02
6.579512e-02
4.806054e-02
2.695714e-02
6.093476e-03
9.445626e-02
7.936688e-03
3.273414e-02
1.889388e-02
4.761855e-02
2.724723e-02
-7.462186e-02
1.317201e-02
6.602357e-02
7.012009e-02
1.633553e-02
7.343140e-02
3.678454e-02
1.004542e-01
1.120492e-01
5.222945e-02
1.511679e-01
7.499967e-02
1.916311e-02
1.879936e-01
5.144611e-02
5.284376e-02
7.121149e-02
8.150525e-02
4.011333e-02
-1.444354e-02
-3.287316e-02
4.864702e-02
1.077579e-02
-1.909743e-02
2.108087e-02
-1.374165e-02
-1.027387e-02
5.337626e-04
-4.488594e-02
1.240806e-01
7.785152e-02
-8.462033e-02
7.336508e-02
1.659417e-01
4.364439e-02
8.778720e-02
1.571427e-01
-4.409814e-02
-9.348925e-02
-1.017220e-01
-7.795898e-02
-1.355567e-01
-1.652935e-01
-6.050152e-03
-3.652906e-02
-9.101786e-02
-1.454170e-02
3.583104e-02
2.092951e-03
-1.326042e-02
2.175764e-02
1.535125e-02
-1.478564e-02
1.623583e-02
2.021218e-03
-1.264923e-02
-5.406700e-02
-6.917606e-02
7.024207e-03
-3.364353e-02
-5.823606e-02
-6.238066e-03
7.883778e-03
-4.002289e-02
-1.606820e-04
-1.686520e-03
5.211144e-04
2.431361e-03
7.695180e-04
3.255944e-04
-2.359662e-03
1.624660e-03
1.788225e-03
-3.987289e-02
3.700735e-02
2.295945e-02
-2.693734e-02
8.210885e-03
1.507760e-02
-5.703229e-04
-6.565531e-04
-2.062677e-02
-4.367921e-02
-6.931617e-03
1.156581e-02
-6.530413e-02
-3.454378e-02
-2.736572e-03
-4.251918e-02
-2.444106e-02
-2.627161e-03
5.151530e-02
1.707715e-02
4.111844e-02
-2.501847e-02
2.657348e-02
-2.898708e-03
-8.663608e-04
4.112712e-04
-1.469585e-02
-8.115413e-02
1.280495e-02
4.657494e-03
-9.098317e-02
-4.387539e-02
2.897900e-02
-1.205262e-01
-1.081862e-01
-3.592342e-02
-2.639090e-02
-4.837000e-02
-1.576412e-02
-3.908625e-04
-2.568077e-02
-5.765253e-02
5.580688e-02
6.951474e-02
3.357041e-02
4.622904e-02
6.036094e-02
6.117770e-02
4.198129e-02
6.111852e-02
1.306619e-03
7.083549e-02
1.011296e-01
3.402543e-02
-6.649349e-02
-3.106895e-02
-6.031145e-02
-2.298448e-02
-2.434896e-02
-3.704553e-02
2.288433e-02
-1.316328e-02
-2.697329e-02
2.977814e-02
-1.718743e-03
-3.253689e-03
1.759017e-01
5.426152e-02
2.264429e-02
2.313054e-02
8.236923e-02
4.721330e-03
-7.671832e-02
-4.181877e-02
-3.503845e-02
-1.964327e-02
6.807903e-03
4.708834e-03
-5.620492e-03
3.019544e-02
-3.289238e-03
-2.902517e-02
-3.649959e-02
-5.134555e-02
1.776491e-02
3.630933e-02
-3.696686e-02
3.498428e-02
3.545177e-02
1.088419e-03
2.129189e-02
-3.871741e-04
2.809690e-02
-1.722844e-02
-9.542571e-03
2.540821e-02
-4.608544e-02
-4.566836e-02
-3.680269e-03
-9.878940e-02
-4.447230e-02
3.867079e-03
5.784333e-03
9.250090e-02
1.369026e-01
3.689998e-02
6.515483e-02
9.870547e-02
-1.679472e-03
6.798703e-03
5.841625e-03
-7.798385e-03
-5.010162e-03
-8.579152e-03
-6.646127e-03
4.986237e-03
-1.654333e-03
-4.753268e-03
3.055584e-03
2.555976e-02
-2.360832e-02
-1.082051e-02
6.282204e-03
-2.791595e-02
-8.625439e-03
-4.012141e-04
-2.526184e-02
4.102218e-02
8.799200e-02
-4.372184e-02
2.639853e-02
8.024741e-02
-4.781072e-02
3.074064e-02
8.500192e-02
2.155449e-03
1.738494e-03
-4.207287e-04
-7.640006e-04
3.012549e-03
-1.830684e-03
4.674787e-04
3.093278e-03
-1.825140e-03
-2.601730e-03
-1.229938e-02
-1.608982e-04
1.635601e-02
1.040241e-02
2.557957e-02
3.538934e-02
-1.598383e-03
2.015853e-02
-1.590787e-02
-5.938313e-03
-8.206557e-03
-2.948344e-03
-7.358797e-03
1.791546e-02
9.220511e-03
4.799306e-03
7.224014e-03
2.500247e-02
1.226379e-02
1.725299e-02
4.065470e-02
-2.699509e-03
-2.147252e-02
3.826370e-02
-1.596549e-02
-2.880849e-02
3.309175e-02
-4.073815e-02
-2.408973e-02
-6.665446e-03
-6.289288e-02
-2.255136e-02
2.115406e-02
-4.616168e-02
-3.211133e-02
8.735216e-03
7.545469e-03
-3.032217e-03
-1.262640e-02
-8.572483e-03
-1.364362e-02
8.197835e-03
2.531572e-02
2.686797e-02
-3.919719e-03
2.476865e-02
1.920337e-02
8.237028e-03
4.944620e-02
3.366992e-02
-5.632140e-02
1.512918e-02
2.302863e-03
1.856809e-02
6.632139e-02
1.537463e-02
3.302940e-02
6.400397e-02
1.224869e-02
3.730530e-02
6.825664e-02
1.559328e-02
4.519316e-02
-1.373857e-02
8.380238e-03
-1.886028e-02
-3.657850e-02
-5.625972e-02
4.289196e-02
-2.929990e-03
2.402099e-02
-2.870426e-02
-3.357073e-02
-5.284960e-03
-1.123917e-02
-1.194806e-02
3.422728e-03
-1.577144e-02
-2.350570e-02
-2.570479e-02
2.050430e-02
-1.962161e-02
4.421103e-02
8.217077e-03
2.019804e-02
8.930846e-03
3.029687e-02
2.646418e-02
3.850762e-02
7.630960e-02
-7.414408e-03
-3.266890e-02
5.999282e-02
-2.534544e-02
-3.264378e-02
5.727457e-02
4.371273e-03
-6.210144e-02
4.128845e-03
2.346421e-02
1.496757e-03
1.874561e-02
-7.982670e-03
-8.370012e-03
8.154592e-03
-1.051543e-02
-4.959175e-03
-5.595391e-02
-3.235764e-02
-1.459549e-02
-1.612805e-02
1.066914e-02
2.849756e-02
6.894829e-03
3.542069e-02
5.361968e-02
1.051055e-02
5.594033e-02
-7.136707e-03
7.771347e-03
3.965422e-02
5.941445e-03
3.040240e-02
5.353015e-02
2.103010e-02
-2.010912e-02
-2.786603e-02
-2.770224e-02
-5.456539e-02
5.754876e-02
-2.028955e-02
-3.012309e-02
3.609074e-02
-3.836973e-02
5.170040e-03
-3.196003e-03
-2.536552e-03
1.951416e-03
-5.028564e-03
-2.319159e-03
4.575898e-03
-1.670699e-03
-1.333270e-03
-2.671465e-02
2.492199e-02
-3.175101e-03
3.455722e-02
5.775405e-02
-2.092363e-02
-8.928735e-03
1.398214e-02
5.462682e-02
6.220990e-02
3.553139e-02
3.821498e-02
2.264203e-02
-3.317365e-02
-3.934805e-02
-1.123044e-02
-6.226410e-02
-9.325196e-02
-1.154191e-02
-1.102065e-01
-8.296760e-02
-1.665680e-02
9.041192e-03
6.299780e-02
5.587051e-02
6.340840e-03
-1.016540e-02
-5.277293e-02
2.306953e-02
-4.462610e-02
4.923167e-02
9.541407e-02
-3.160297e-03
-1.929590e-02
6.784366e-03
-1.300152e-02
3.566185e-02
3.476281e-02
-8.662144e-04
5.894006e-02
3.561879e-02
-5.262476e-02
2.656737e-02
3.820671e-02
-6.071908e-02
3.941545e-02
1.494879e-03
5.195463e-03
7.894644e-02
7.096820e-02
-1.305417e-02
4.905616e-02
5.251922e-02
-6.159411e-03
2.004258e-02
1.103161e-02
3.077758e-02
2.050923e-02
-1.280172e-02
1.789524e-02
2.742481e-02
-7.439056e-03
3.687542e-02
-1.460322e-01
-1.317521e-01
-5.156996e-02
1.623195e-02
1.958894e-02
-2.314386e-02
-4.589115e-02
-1.237718e-02
-1.242109e-01
-3.147871e-03
2.216517e-02
1.107176e-02
3.613610e-02
6.316541e-02
1.622555e-02
6.684444e-02
1.112727e-01
7.626938e-02
6.426550e-02
-4.716457e-02
-1.482977e-02
1.169258e-01
-4.361730e-02
-6.377011e-03
1.825423e-02
3.011562e-02
3.040569e-02
3.343916e-02
8.532753e-02
-8.508333e-03
2.784317e-02
1.306780e-01
9.774429e-02
4.454329e-02
1.461943e-01
4.307342e-02
-1.162499e-01
1.491826e-01
3.884176e-02
-2.251248e-01
1.519359e-01
1.316618e-01
-8.290058e-02
1.836348e-01
1.376571e-01
6.410763e-04
3.249295e-03
-1.818186e-02
3.303134e-03
-7.968334e-03
-1.796955e-02
-7.010659e-03
-6.748712e-03
5.965755e-03
-7.024982e-03
1.101253e-02
-6.574690e-03
2.359368e-02
-1.112623e-02
5.781290e-05
2.722440e-02
3.403020e-03
-1.114652e-02
7.196372e-02
2.241144e-02
-4.245849e-02
8.514215e-02
5.606490e-03
-2.369506e-02
2.027735e-02
2.488187e-02
-1.037850e-03
3.040711e-04
1.781803e-03
-5.034686e-04
-1.135012e-03
7.548667e-04
9.671474e-04
-2.456306e-04
4.522225e-03
-4.647472e-05
4.278057e-02
2.672808e-02
-5.649259e-02
1.121846e-01
8.034337e-03
-3.946440e-02
6.574318e-02
5.393415e-02
-1.040402e-02
-1.974984e-02
-3.042599e-02
-3.516513e-02
-2.860018e-02
-3.412856e-02
-3.805019e-02
9.490852e-03
-7.332018e-03
-3.821386e-03
2.713223e-02
-5.663481e-02
-2.486430e-02
1.594002e-01
5.159451e-02
3.877187e-02
1.066112e-01
1.473050e-01
-4.889622e-02
-6.512182e-04
-3.648403e-02
-1.030169e-01
5.814794e-02
-1.190582e-01
-1.232306e-01
-5.442230e-05
-6.865826e-02
-5.875031e-02
-1.182754e-02
-2.312182e-02
2.650439e-02
-7.726910e-02
-7.875410e-02
-4.801446e-02
-2.879480e-02
-5.702669e-02
2.401269e-02
-4.076123e-02
-4.184043e-02
-6.158503e-02
-3.061556e-02
3.606139e-02
7.496411e-02
-1.872267e-02
5.033794e-02
9.267443e-02
2.095139e-02
-3.260823e-02
-2.511333e-02
5.042024e-03
-8.932533e-02
-3.590247e-02
-1.812446e-02
-8.859228e-02
-2.633994e-02
1.285290e-01
1.405504e-01
1.337378e-01
2.671203e-01
2.099839e-01
1.968602e-01
2.087405e-01
1.401879e-01
1.580393e-01
8.401493e-03
1.657182e-02
5.725800e-02
-1.169706e-02
-5.963039e-03
5.195312e-02
1.512559e-04
2.652065e-02
1.056821e-01
7.378760e-02
1.744441e-02
9.364591e-02
-3.202180e-02
2.795110e-02
-4.992357e-03
2.711825e-02
4.311380e-03
-2.621639e-02
3.825175e-02
4.907627e-02
1.177643e-01
9.713712e-02
8.487922e-02
5.407213e-02
3.353149e-02
7.200502e-02
-5.775196e-02
3.689411e-02
6.944482e-02
5.548247e-02
-2.806850e-02
2.809795e-03
-3.184287e-02
8.042376e-02
2.346344e-02
2.340109e-02
-6.750947e-03
-1.880022e-02
1.912077e-02
2.847660e-03
1.264771e-02
4.288790e-02
-8.120054e-03
5.956136e-03
4.238478e-02
-3.330814e-02
-3.850814e-02
-1.972954e-02
-3.145447e-02
-7.351243e-02
-4.309685e-02
-2.891931e-02
-6.904773e-02
-8.726494e-02
4.499552e-02
-3.956809e-02
-2.714616e-02
1.130694e-02
-1.445992e-02
-2.848237e-02
1.672363e-02
-4.892060e-02
-1.421422e-02
3.849443e-04
-9.856207e-04
1.513323e-03
3.003234e-04
8.222059e-04
-1.194198e-03
-4.672329e-04
-3.158406e-05
-3.416502e-04
2.611200e-02
1.968720e-03
-7.886469e-03
1.436066e-02
7.830797e-02
-5.565572e-02
2.478906e-02
3.973299e-02
4.184964e-02
1.271364e-02
1.873621e-02
3.312896e-02
2.977994e-02
1.728169e-02
1.585299e-02
3.582232e-02
7.871726e-04
9.981209e-03
-3.324276e-03
9.068632e-02
-3.393161e-02
-6.088480e-02
8.658542e-02
7.997735e-02
-3.635040e-02
-2.811314e-02
6.542964e-02
5.334304e-02
8.837058e-02
9.703873e-02
-1.613462e-03
9.263197e-02
-4.219609e-03
3.159779e-03
3.189460e-02
1.505584e-02
-1.831898e-02
2.684519e-02
3.716531e-02
3.286366e-02
6.552777e-02
9.831384e-02
-2.370105e-02
3.723326e-02
5.319907e-02
8.867373e-03
2.837704e-02
4.479715e-02
-1.121456e-01
-7.904832e-02
-4.892823e-02
-1.298298e-01
-4.964689e-02
1.210701e-02
1.736394e-02
-2.087107e-02
2.192858e-02
1.319342e-02
-4.955141e-02
2.381201e-03
2.922529e-03
-6.668758e-02
-2.247900e-02
-2.499882e-02
3.025904e-02
-2.053463e-02
2.165416e-02
6.343670e-02
1.271873e-01
6.327297e-02
1.741993e-02
5.647419e-03
-2.574349e-03
-1.509070e-02
-7.532724e-03
-2.121886e-02
-1.862395e-02
-3.076547e-02
-2.860579e-02
1.123598e-02
5.465797e-03
4.143698e-02
-1.550008e-02
-8.272558e-02
5.976692e-02
-6.489547e-03
-6.329706e-02
4.276017e-02
-6.172679e-02
-4.435681e-02
-7.412951e-02
3.091364e-02
2.343411e-02
-6.529582e-02
4.585487e-02
-1.233589e-02
-5.866310e-02
3.381250e-02
-1.080390e-02
-1.946942e-02
-4.440567e-02
-1.553089e-02
-3.652113e-02
3.140962e-02
3.262563e-03
-3.033573e-02
8.838959e-03
-1.484257e-02
1.227486e-02
-8.861395e-03
-1.391398e-02
-3.397797e-03
-3.531397e-02
-2.446055e-02
-1.914600e-02
-2.035526e-02
-1.602511e-02
2.821877e-02
5.968292e-02
4.259787e-03
4.332032e-02
1.892948e-02
1.113494e-02
4.943806e-03
1.867771e-02
3.092012e-03
6.285948e-03
-8.458179e-03
-1.456374e-02
2.706141e-04
-2.258457e-02
-2.089730e-02
5.177988e-03
-2.139723e-02
-3.491919e-02
1.441397e-03
-2.673761e-03
1.559622e-03
1.249658e-03
1.854342e-04
1.043948e-03
1.094164e-03
1.242093e-03
-2.105645e-04
5.499672e-03
1.774383e-02
2.470364e-02
-2.094424e-02
-1.842462e-03
2.871249e-03
-5.415352e-02
-3.723104e-02
-6.018663e-02
-4.940896e-02
8.843681e-03
4.611175e-02
-3.993013e-02
2.265543e-03
1.321263e-02
2.067652e-02
5.055160e-02
5.489390e-02
-4.233643e-02
7.623525e-02
2.491997e-02
-1.137549e-01
1.929480e-03
-1.313662e-02
-1.110097e-02
-3.066737e-02
5.500910e-02
-3.798673e-02
-1.875957e-02
4.410422e-02
-3.929812e-02
-6.856396e-02
5.451733e-02
-9.311785e-02
-3.947691e-02
-3.668877e-02
2.663506e-02
7.981285e-03
2.953861e-02
-5.583409e-02
-2.435881e-02
-1.382393e-02
-5.622986e-02
-9.149596e-03
1.024789e-02
-5.350633e-02
5.288106e-02
1.502101e-01
5.724403e-02
1.554565e-01
1.190588e-01
6.399084e-02
1.308476e-01
1.381464e-01
-2.044959e-02
-1.949600e-02
2.304155e-02
-1.864712e-02
-6.711937e-03
5.857759e-02
-1.988353e-02
-8.519913e-03
2.295236e-02
7.996947e-02
-8.258647e-02
-4.346302e-02
-7.186384e-02
-2.188187e-02
-5.885789e-02
-2.815216e-02
-7.738996e-02
-4.223179e-02
-1.659362e-03
7.144374e-03
2.916989e-02
-1.291547e-02
4.164330e-02
2.755998e-02
-1.887835e-02
1.476301e-02
4.790426e-02
4.284910e-02
1.026952e-02
-5.431736e-02
1.227948e-01
1.056504e-01
1.495044e-02
4.714110e-02
9.348386e-03
-9.722199e-03
7.343811e-02
4.402259e-02
5.954224e-02
-2.119224e-03
-1.534199e-02
1.489518e-02
-7.076886e-02
-2.557232e-02
-4.846242e-02
3.710392e-02
9.372679e-02
-1.172797e-01
-4.550928e-02
-3.198462e-03
-2.719110e-02
-1.118717e-05
-2.550437e-02
-3.129298e-02
2.803216e-02
6.472968e-03
1.225492e-02
2.945511e-02
1.704399e-02
4.057716e-02
-1.038689e-02
9.973566e-04
4.723696e-02
-2.164979e-02
-3.729736e-02
4.109382e-03
2.933471e-02
-1.062635e-02
-6.675286e-04
2.836424e-02
-1.000491e-02
-1.661200e-02
7.500546e-02
7.695442e-02
-6.692044e-02
4.589011e-02
4.808426e-02
-8.372114e-02
1.577964e-02
2.391902e-02
-8.057052e-02
2.367487e-03
-3.448068e-04
9.021625e-04
-3.625294e-04
1.188509e-03
4.884125e-05
-8.381140e-04
-3.646797e-04
2.797248e-03
-4.366757e-03
-2.308697e-02
-3.413839e-02
-3.368165e-02
-6.340791e-02
-6.448871e-02
2.477337e-02
-7.605720e-02
-5.150910e-02
-1.877664e-02
-1.251242e-02
-4.507869e-02
3.808644e-02
2.744427e-02
-7.259676e-03
-4.305577e-03
1.087835e-02
-4.262060e-03
-3.213561e-02
5.379513e-02
6.894431e-02
2.613984e-02
-2.209074e-02
-1.905817e-03
9.063822e-02
-3.695254e-02
-1.049773e-01
-6.705353e-02
-1.122229e-01
-1.006853e-01
-8.653249e-02
-8.324605e-02
-1.098487e-01
-4.301127e-02
-4.843557e-02
-1.122594e-01
-2.412674e-02
7.287389e-03
9.736418e-03
-3.584964e-02
6.262742e-03
5.154124e-02
-2.163868e-03
-2.740572e-02
-9.565581e-03
1.827323e-02
8.075968e-03
-6.214686e-02
1.079657e-01
3.898270e-02
-5.226057e-02
6.598603e-02
5.835438e-03
6.666522e-03
6.181359e-02
-3.224084e-02
-2.331461e-02
4.840793e-02
-3.890433e-02
-1.842437e-02
3.980364e-02
-4.710174e-02
-2.117212e-02
4.089528e-02
1.060973e-02
4.884687e-02
5.736489e-02
-2.824502e-02
4.915175e-02
1.517474e-02
3.031936e-02
3.007088e-02
-2.006855e-02
6.311706e-03
3.106506e-02
-1.560342e-02
7.351995e-02
1.122652e-01
-6.619454e-02
-9.549377e-03
8.073381e-02
2.077030e-02
6.348760e-02
-2.644780e-02
2.023419e-02
-1.323424e-02
5.873414e-03
4.469467e-02
-5.586201e-02
-2.598068e-02
-8.254245e-02
-3.622605e-02
-4.814949e-02
-5.566942e-02
-3.135566e-02
-4.179206e-02
9.857652e-04
2.643695e-02
-6.586955e-03
-7.265427e-02
-5.041078e-02
7.028831e-02
-8.668616e-02
-1.523621e-01
7.434037e-02
-2.369264e-02
-6.074825e-02
2.735024e-02
5.749786e-03
5.514450e-03
-9.798667e-03
3.486477e-03
-5.710857e-03
-9.444715e-03
1.386448e-03
-4.405032e-03
-1.717498e-02
-1.544505e-02
-6.356242e-02
-2.192032e-02
-2.849340e-02
-3.509827e-02
-1.818938e-02
-2.751105e-02
-3.706409e-02
-1.015180e-02
-7.381400e-03
-2.840781e-02
2.477263e-02
1.322613e-03
-1.065271e-02
2.763133e-02
2.409486e-02
-1.917247e-02
2.810016e-02
-8.030692e-04
-1.851128e-03
-5.865938e-04
3.058177e-03
4.317173e-04
1.887344e-03
7.365271e-04
-1.153528e-03
2.341393e-03
-1.084701e-02
-2.597649e-02
-6.374793e-03
1.538970e-02
-1.602635e-03
2.241095e-02
-6.647997e-03
7.306091e-03
-4.933491e-03
6.348247e-03
-1.406038e-02
-2.392715e-03
-9.295475e-04
-1.404058e-02
-8.642830e-03
-3.898276e-03
-2.447767e-02
-7.338198e-03
-1.658297e-02
-5.397390e-02
-6.599681e-03
3.565985e-02
-1.587103e-02
-5.830599e-03
4.593311e-03
7.047249e-02
6.405388e-03
1.138438e-02
1.797947e-02
1.957751e-02
3.370787e-02
4.775462e-03
5.217888e-02
2.434706e-02
3.882558e-02
-1.983146e-03
-9.493330e-03
3.747805e-03
1.796211e-03
-1.675217e-02
-5.502865e-03
-1.478293e-02
-2.481993e-02
-1.361412e-02
-1.833050e-02
-1.272927e-02
-1.429974e-02
9.903725e-03
-6.151609e-02
-6.873320e-02
4.614684e-03
-4.892860e-02
-4.762082e-02
-2.542465e-02
-1.322099e-02
-6.131246e-03
2.291215e-02
4.148822e-03
5.909575e-03
3.507218e-02
9.647195e-03
2.293007e-02
2.804056e-02
1.900939e-02
-4.348028e-02
-3.450999e-02
-2.104899e-02
7.144643e-02
-5.003428e-02
-2.337856e-02
4.097088e-03
-2.198314e-02
7.625109e-03
-5.458041e-04
2.078964e-02
-2.938443e-02
-3.473119e-02
-4.172988e-03
-1.146695e-02
-1.909605e-02
-9.685140e-03
2.286099e-02
3.590330e-04
-6.997137e-03
3.243816e-02
-3.901816e-02
9.193739e-03
9.702409e-03
-3.797123e-02
-2.434467e-02
2.965479e-02
3.782099e-02
3.925610e-03
2.568739e-02
3.947298e-02
1.200366e-02
-2.992335e-03
2.401126e-02
4.719452e-03
2.876066e-02
-3.127278e-03
3.761873e-02
-2.087306e-03
-2.832724e-02
5.456777e-02
-3.706614e-02
-4.092781e-02
7.886206e-04
3.429189e-02
5.399738e-03
-8.511198e-03
2.559997e-02
2.055803e-03
-3.077582e-02
2.303047e-02
-3.616085e-03
-2.372047e-03
-3.258881e-02
5.664052e-03
1.539744e-02
-1.590362e-02
1.570196e-02
-2.139871e-03
8.452408e-03
1.192749e-02
-3.022001e-02
-5.858839e-02
-1.463282e-02
-7.188139e-02
-4.077441e-02
-2.823028e-03
-8.004525e-02
-4.448985e-02
-3.081231e-02
-9.177097e-02
-1.261480e-03
-9.199817e-04
-1.547368e-04
-6.102849e-04
-1.603285e-03
-6.623021e-04
-7.220809e-04
-2.519512e-03
-9.326712e-04
-3.220085e-03
3.947916e-02
-4.537541e-02
2.646652e-02
4.762369e-04
-4.293943e-02
2.937390e-02
1.389062e-02
5.776707e-02
2.453665e-02
1.745369e-02
5.006038e-03
-1.418250e-03
6.750960e-04
-4.788624e-02
2.408501e-03
-1.561188e-02
-3.369868e-02
2.889742e-02
4.952472e-02
-7.173528e-02
-8.563252e-03
3.585779e-02
7.714338e-02
6.806015e-02
1.777757e-02
3.482464e-02
-2.654462e-02
-4.361504e-02
3.047805e-02
2.184413e-02
-7.894011e-02
-3.598607e-02
3.296762e-02
-2.703640e-02
-5.400211e-02
9.551554e-03
-1.051032e-02
-4.316220e-03
-7.351515e-02
-2.695945e-02
-6.414430e-02
-3.113499e-02
-2.797384e-02
-1.708550e-02
-5.845731e-02
6.176640e-03
-2.581812e-02
-8.828913e-03
-2.996458e-02
-2.285209e-03
-3.394865e-02
-2.085616e-02
-1.873920e-02
-1.700404e-02
-7.231084e-02
-5.349902e-02
-2.712626e-02
-9.376942e-02
-7.448454e-02
-2.681679e-02
-9.376406e-02
-6.652220e-02
4.549311e-03
-1.059231e-02
2.647136e-02
1.177616e-01
1.954845e-02
1.224170e-01
7.624725e-02
1.160417e-01
-2.559385e-02
-2.318997e-02
-1.732299e-02
4.996779e-03
-3.545459e-02
-1.118813e-02
-9.361235e-03
-3.488820e-02
-3.816881e-03
2.509384e-02
7.117258e-02
2.233699e-02
-6.704104e-02
8.576249e-02
-1.598289e-02
-8.799996e-02
2.722359e-02
-2.808138e-02
3.342131e-05
-3.780078e-02
-1.638497e-02
2.200458e-02
-7.768583e-02
-3.229118e-02
2.028618e-04
-8.970898e-02
-5.712886e-03
-1.219426e-02
-2.458272e-03
9.097012e-02
3.634287e-02
-1.662036e-01
3.165131e-02
1.270803e-01
-7.454200e-02
2.463890e-02
5.289449e-02
7.392073e-03
-2.354297e-02
-1.654645e-02
6.077005e-02
1.713010e-02
-2.327227e-02
6.481428e-02
4.879599e-02
1.908592e-02
-7.873131e-02
-1.155495e-01
-2.865599e-02
-1.959628e-02
-6.596567e-02
2.678539e-03
-4.754357e-02
-4.170049e-02
-1.847685e-02
4.402593e-02
-1.924805e-02
-1.982935e-02
6.844524e-02
-9.388170e-03
-1.017427e-02
9.601981e-02
-6.065204e-04
-3.298579e-02
-4.127261e-04
-1.031161e-03
1.237911e-03
2.989145e-04
-2.893008e-03
2.997260e-03
-1.288555e-03
-2.603018e-03
-8.235079e-05
3.217401e-02
5.546932e-02
-1.560081e-02
-4.982386e-02
1.033013e-01
6.243694e-02
-3.108065e-02
1.676822e-02
6.962255e-02
1.863326e-02
9.893593e-03
9.063703e-03
-1.789157e-02
-1.690593e-02
-2.915514e-02
3.742866e-03
-2.080600e-02
-7.710115e-03
2.126272e-02
2.302961e-01
3.997627e-02
1.109189e-01
2.012305e-01
2.878337e-01
1.328078e-01
1.925631e-01
-6.000834e-04
1.218661e-01
7.526925e-02
3.512385e-02
1.183245e-01
2.320309e-01
3.255786e-03
1.096020e-01
7.271233e-02
8.628430e-02
-8.589766e-03
5.378344e-02
2.919917e-02
-1.937374e-02
8.125265e-03
-1.092239e-02
2.379500e-02
3.936286e-02
-3.667124e-02
-1.421552e-01
-1.143431e-01
-3.747639e-02
-8.275288e-02
-1.310170e-01
-5.193489e-02
-5.615499e-02
-2.640455e-02
-3.410077e-02
4.159386e-02
1.000796e-02
-4.331357e-03
9.325092e-03
-2.610068e-02
-4.292528e-02
-9.183087e-04
-3.719066e-02
-5.193324e-02
7.917437e-02
1.184194e-01
5.409878e-02
1.651520e-01
9.190984e-02
1.395548e-01
3.596165e-02
7.695920e-02
-1.007807e-01
-2.396016e-02
-1.550449e-03
4.542218e-02
-2.094813e-02
-2.737184e-02
3.080828e-02
-5.989439e-02
-5.017029e-02
1.783103e-02
3.779398e-02
-3.033568e-02
-1.635527e-01
1.843032e-02
-8.856217e-02
-9.982793e-02
-3.098570e-02
-1.128558e-01
-1.462795e-01
-4.178398e-02
-4.271752e-02
3.567943e-02
-3.203020e-02
-1.524061e-02
9.085944e-02
-5.663716e-02
1.035899e-02
1.078540e-01
2.546931e-02
6.581314e-02
1.047984e-01
-1.216807e-01
-2.973031e-02
4.195775e-02
6.687043e-02
-3.142854e-02
-6.749316e-03
5.257384e-02
9.463741e-03
3.677172e-02
2.850900e-02
-2.097402e-03
8.373701e-03
4.613254e-02
1.637632e-04
2.040602e-02
3.952442e-03
-3.733607e-02
-5.276914e-02
-4.519430e-02
-5.239633e-02
-6.749254e-02
2.788011e-02
-5.330543e-02
-7.565471e-02
-2.595598e-02
6.846420e-03
3.897458e-02
2.469579e-02
3.860497e-02
1.948215e-02
3.297361e-02
6.759401e-02
2.665324e-02
3.634681e-04
-1.795180e-03
5.203342e-04
-3.468548e-03
-3.711651e-03
3.006388e-03
-3.918519e-04
-1.654951e-03
-8.301017e-04
-2.776198e-02
-1.701690e-02
-4.032713e-02
-2.539058e-02
-8.742895e-02
-3.072778e-02
-6.073560e-04
-4.113942e-02
-1.229057e-01
2.208371e-02
-2.786390e-02
-1.355868e-02
1.104647e-02
-2.259530e-02
-7.103391e-03
1.373806e-02
-6.477488e-04
7.231080e-03
-1.320055e-01
-8.508702e-02
-4.328567e-02
-1.622761e-01
-1.299357e-01
-9.488611e-02
-6.733403e-02
-1.720050e-01
-8.817233e-02
-4.838508e-02
2.257761e-02
5.506174e-02
-7.241020e-02
-2.221884e-02
5.228848e-02
-4.708167e-02
-3.762883e-03
-6.784523e-02
4.156781e-02
4.955101e-02
6.255427e-02
-2.035842e-02
-1.745890e-03
-8.515297e-05
3.885762e-02
-3.815280e-02
2.530719e-02
-3.047791e-02
7.749089e-02
1.067733e-02
3.386978e-02
1.227415e-01
4.202919e-02
4.610779e-02
-2.572440e-03
-1.248360e-01
3.025063e-03
-3.440619e-02
5.444045e-02
2.979134e-02
3.338695e-02
6.071602e-02
4.478971e-02
-1.978354e-02
1.247644e-02
-1.160605e-01
-2.077526e-01
-7.160950e-02
-1.046716e-01
-2.881325e-01
-2.358606e-01
-1.925061e-01
-2.064198e-01
-1.959106e-01
-3.466507e-02
-1.312013e-02
-2.872779e-02
4.302485e-02
5.269898e-02
4.394779e-02
4.430149e-02
6.150262e-02
9.912549e-03
4.101683e-02
-3.751934e-02
-3.602268e-02
-2.483227e-02
-4.167020e-02
1.656895e-02
-5.740961e-02
1.511508e-02
8.210726e-02
-5.611410e-02
3.894746e-02
8.609293e-02
-3.422195e-02
8.849801e-03
5.552600e-02
-2.848023e-02
7.643340e-02
4.434931e-02
-7.890716e-02
4.116692e-03
-1.487366e-02
2.274076e-02
5.828262e-02
1.231070e-01
-4.653234e-02
5.246615e-02
6.956151e-02
5.235052e-03
2.778859e-02
3.232617e-02
-6.264165e-03
2.705218e-02
3.006368e-02
4.638856e-02
1.919641e-02
2.560165e-03
2.834572e-02
-4.278572e-02
-4.162890e-02
-1.608326e-02
8.977366e-03
-3.030026e-02
-4.672663e-02
-4.394063e-02
2.030743e-02
-4.775706e-02
-7.245712e-02
1.107005e-01
-2.636475e-02
-4.111019e-03
6.271966e-02
6.085715e-02
1.393409e-02
1.326960e-01
1.203664e-03
-1.517244e-03
3.500843e-04
-1.552835e-03
2.286360e-03
3.880362e-04
2.415249e-03
-1.518077e-03
7.506325e-04
-4.352687e-02
1.929648e-03
5.443890e-02
7.865092e-03
-3.758347e-02
5.373928e-02
3.620499e-02
6.796010e-03
-3.093673e-02
-8.177752e-02
4.227968e-02
8.875986e-03
-5.188886e-02
9.061185e-02
5.355417e-02
-6.320693e-02
1.492482e-02
-5.786293e-03
8.900498e-02
-8.082213e-03
4.769563e-02
3.584219e-02
1.781192e-01
3.378077e-02
-4.164895e-02
9.245723e-02
1.213093e-01
4.854434e-02
-1.934903e-02
-1.346159e-01
8.183154e-02
8.360476e-04
7.396541e-02
2.468944e-02
-3.988678e-02
8.214492e-02
1.012410e-02
-4.367144e-02
1.683175e-02
1.521155e-01
-5.985275e-02
5.296094e-02
6.762458e-02
2.640267e-02
4.037697e-02
8.892128e-02
2.007023e-03
6.728926e-02
-7.085383e-02
1.642640e-02
1.392327e-02
-5.946158e-02
-9.487219e-02
-1.005732e-01
4.708160e-03
1.088303e-01
-3.727275e-02
2.697028e-02
1.231046e-01
7.569222e-03
3.310646e-03
1.187660e-01
-3.861735e-02
1.647417e-01
1.441061e-01
7.460711e-02
1.688638e-01
1.015367e-01
8.661109e-02
6.810579e-02
1.700891e-01
1.106820e-01
8.219938e-02
-6.374171e-02
-5.020343e-02
2.478294e-02
-1.030686e-01
-6.472035e-02
6.498685e-02
-5.497117e-02
-1.129602e-01
-2.368093e-01
-8.846258e-03
1.342637e-01
-1.010729e-01
2.379953e-02
-6.913522e-02
1.180808e-03
-3.322648e-02
1.184986e-02
1.093691e-01
-1.196687e-02
-3.924559e-02
7.955039e-02
-9.506071e-02
-6.443816e-02
-7.153605e-04
-1.883529e-01
-8.086634e-02
1.465963e-01
-8.719818e-02
-2.462413e-01
2.694790e-01
-4.641676e-02
-4.031468e-01
-7.265673e-02
-7.066581e-02
4.593502e-02
8.060074e-03
-2.958660e-03
1.420410e-02
-3.358383e-03
-4.098042e-03
1.422207e-02
-4.319033e-02
-9.573105e-03
1.917025e-02
-4.625716e-03
2.952633e-04
-3.201884e-03
2.661621e-02
-1.704558e-02
-4.408530e-02
2.896089e-02
-3.075235e-03
6.978670e-03
-2.630759e-03
-1.119252e-03
-1.521511e-01
1.795659e-02
-3.359105e-02
-1.481258e-01
-2.293659e-02
-1.164518e-02
-1.630626e-01
4.125081e-05
2.927247e-04
-1.435416e-03
-2.896524e-04
1.678668e-03
8.344958e-04
-4.429894e-04
-2.159745e-03
2.521335e-03
3.225243e-02
5.775078e-03
2.045140e-04
1.925491e-02
5.730221e-02
-3.089565e-02
3.365849e-02
2.114401e-03
3.735988e-04
-6.140796e-03
-1.343466e-02
-2.654834e-04
3.933384e-02
4.721599e-02
5.733048e-02
1.787653e-02
1.453346e-02
2.009776e-02
-9.228565e-02
1.473808e-02
-5.827820e-02
-5.623855e-02
-1.886416e-02
1.222514e-02
5.806936e-02
-8.759734e-03
-2.652264e-02
-9.478642e-02
-7.120740e-02
5.259477e-02
-2.004290e-02
9.356717e-03
3.671006e-02
6.037316e-02
3.820890e-02
2.976994e-02
-2.374902e-02
-5.064431e-03
3.101549e-02
-4.410139e-02
4.197546e-02
6.722498e-02
1.628672e-02
4.458283e-02
4.553679e-02
6.640985e-02
4.346361e-02
6.503821e-03
7.820841e-02
9.744038e-02
4.676932e-02
1.018792e-01
9.902795e-02
7.731115e-03
2.682311e-02
-9.226365e-03
-5.848315e-02
2.826886e-02
-3.169354e-02
-8.863036e-02
3.494976e-02
-6.550780e-02
-1.195964e-01
-9.340618e-02
-2.062243e-02
-2.431390e-02
-7.130168e-02
-7.398651e-02
2.474516e-02
3.001854e-03
-2.365086e-02
7.558236e-04
2.785553e-02
1.059447e-02
2.336765e-02
1.187554e-02
2.011893e-02
4.594686e-02
2.823419e-03
3.845671e-03
5.800368e-02
-1.073223e-02
1.245726e-01
2.335355e-02
1.143105e-02
1.373844e-01
1.287445e-02
1.294959e-02
4.849259e-02
2.862276e-02
-5.224273e-02
-9.006108e-02
-8.009714e-02
-9.964705e-02
-9.082419e-02
-4.529848e-02
-9.265020e-02
-1.163748e-01
-4.409813e-02
-4.924730e-02
-5.239597e-02
2.786242e-02
-6.678120e-02
-1.851974e-01
6.397210e-03
1.779440e-02
-8.589690e-02
2.677531e-02
6.768666e-03
-1.214276e-02
-3.049408e-03
-7.183148e-03
-1.583556e-02
-1.060589e-02
-1.083157e-02
-2.769037e-02
-1.053859e-02
1.893692e-03
-1.048853e-02
-2.532092e-02
2.449949e-02
-4.255542e-03
-2.428006e-03
1.653857e-02
1.432598e-02
2.654697e-02
4.461435e-02
-3.101284e-02
-4.476120e-02
2.465641e-02
-2.404675e-02
-5.986524e-02
3.701355e-02
-1.588987e-02
-4.962356e-02
5.768356e-04
2.275936e-03
9.523630e-04
3.663283e-03
-4.087038e-03
-5.470245e-04
2.367147e-03
2.516074e-03
1.190757e-03
1.037990e-02
-4.774588e-03
1.407563e-02
4.601170e-03
6.813669e-03
3.909490e-03
-1.534229e-02
3.507084e-03
-6.189298e-03
-1.158819e-03
2.869828e-03
1.953867e-02
1.351670e-03
7.727294e-03
1.235096e-02
-2.270421e-03
1.015608e-03
1.182538e-02
-1.149418e-02
2.354284e-02
-2.315701e-02
-5.429507e-02
-1.259203e-02
2.172705e-02
1.445171e-02
-2.094330e-03
2.578683e-02
1.732996e-02
-1.080779e-02
-3.328457e-03
-2.245376e-02
2.502779e-02
-1.034573e-02
-4.131574e-03
1.123645e-02
2.006771e-02
-1.423661e-02
1.009400e-03
7.399451e-03
-2.163441e-02
-9.843693e-03
-5.759987e-03
-8.380464e-03
-2.783604e-03
-1.066134e-02
-2.590958e-02
-9.931400e-03
-7.372907e-03
-9.133267e-03
2.649766e-02
3.719994e-03
-1.395267e-02
4.629336e-03
1.932193e-02
-2.633953e-02
-2.521725e-02
1.952204e-02
-3.095550e-02
-3.409353e-02
8.445819e-03
-2.543578e-02
-3.037036e-02
1.162547e-02
-1.824906e-02
3.451300e-02
2.809274e-04
-4.177395e-02
7.293371e-03
1.573264e-02
5.304493e-03
-3.445284e-02
-9.907713e-04
1.949363e-02
1.350128e-02
6.344344e-03
1.563982e-03
5.974806e-03
9.547828e-03
3.008513e-03
-1.911618e-03
6.165091e-03
-1.308832e-02
-2.070317e-03
-4.113657e-02
2.222503e-02
1.478731e-02
-3.015470e-02
2.197233e-02
3.325916e-02
-3.731038e-02
-2.017384e-02
5.220446e-03
1.011505e-02
-2.032047e-02
-1.362715e-03
1.049927e-02
-1.524826e-02
3.109934e-03
9.740275e-03
-3.178820e-03
8.967867e-03
-2.248075e-02
3.540328e-02
-5.279203e-05
-7.631216e-03
-1.552632e-02
2.226420e-02
-1.777928e-02
