8.249810e-03
-3.533255e-02
-3.162508e-02
3.495561e-02
-9.185050e-02
2.204446e-02
3.594047e-04
-2.806717e-02
2.302911e-02
-6.795205e-02
-7.122643e-02
-3.323265e-02
8.143832e-02
-7.821059e-02
3.654870e-02
2.854189e-02
3.436308e-02
4.894836e-02
-4.191466e-02
-2.496011e-02
4.376648e-05
-1.037934e-02
-6.576599e-02
-9.361164e-04
5.260829e-02
-3.305555e-02
-3.687886e-02
3.379829e-02
-8.252025e-02
6.243323e-02
8.701410e-02
3.481256e-02
-1.627048e-01
-5.137601e-02
9.960943e-02
-7.913275e-02
-1.092935e-01
-9.939253e-02
1.201751e-01
-1.360738e-02
1.308083e-01
-1.288383e-01
-4.955675e-02
1.977081e-01
5.052697e-02
2.350355e-02
-9.270653e-02
5.464097e-02
-3.096794e-02
1.462488e-02
6.845423e-02
-1.207359e-01
8.696162e-02
-2.463710e-02
-3.452105e-02
4.660189e-02
7.718178e-02
-5.516821e-02
-1.072661e-01
6.322969e-02
-7.003838e-03
-1.959745e-02
3.151203e-02
1.996445e-02
8.016965e-03
-3.171930e-02
-8.723331e-02
-2.009013e-01
1.279155e-01
-3.188158e-02
4.628909e-02
1.100867e-01
2.256176e-02
7.272077e-02
-4.460666e-02
-1.308617e-01
-2.146398e-02
8.842643e-02
-9.242235e-02
4.452609e-02
7.689128e-02
-3.081322e-02
4.076735e-02
-9.707232e-02
-3.360367e-02
-3.207622e-02
-5.606683e-02
-4.534906e-02
2.636496e-02
-1.294900e-01
3.134735e-04
2.447560e-02
1.874716e-02
-1.222996e-02
-1.789312e-02
-1.638245e-02
8.767406e-03
1.372150e-01
-2.715661e-02
-1.229005e-02
8.865540e-02
1.336492e-01
1.270757e-02
8.362622e-02
8.118994e-02
-1.270210e-01
2.496303e-02
-9.633000e-03
-4.209573e-02
4.601020e-02
-2.648434e-02
1.146029e-01
2.947153e-01
7.818390e-02
-4.314379e-02
6.723748e-02
2.482949e-04
-4.906682e-02
2.403838e-02
5.256235e-03
2.324029e-02
-8.457394e-02
-6.902614e-02
3.272488e-02
-5.160376e-02
-6.294855e-02
4.044349e-02
-2.359102e-03
6.495443e-02
-1.221128e-01
-1.940182e-01
-3.414347e-02
-5.529251e-03
-5.154265e-02
7.844776e-02
-1.215129e-01
-7.336532e-02
-3.239818e-03
1.316634e-01
-2.213402e-02
-2.795033e-02
7.797650e-02
9.445202e-02
8.211582e-02
-7.587307e-02
-7.217734e-02
2.402703e-02
2.616326e-02
-1.652869e-02
-1.236966e-02
-5.834363e-02
-3.846550e-02
-5.162291e-02
-7.823005e-02
-3.316198e-02
4.850595e-03
1.164910e-01
5.321804e-02
6.048658e-02
9.928963e-02
9.308349e-03
-4.063060e-02
-8.055650e-02
-9.436823e-02
1.677402e-02
-7.231977e-02
1.230346e-01
1.082980e-01
1.926072e-01
-1.713107e-01
6.266975e-02
2.069427e-02
-2.871484e-02
3.734649e-02
4.110041e-02
5.536148e-02
5.921713e-02
-3.200599e-02
-2.405217e-01
-7.354737e-02
3.421927e-02
9.118659e-03
-1.889855e-02
-2.124740e-02
1.354114e-01
6.431273e-03
3.279346e-02
-1.383860e-01
7.226463e-03
4.232568e-02
1.498305e-01
7.791465e-02
-2.425856e-02
-1.136438e-01
-9.610754e-02
-3.048012e-02
-1.210409e-01
-1.757403e-02
4.130209e-02
1.385703e-01
3.788265e-02
-2.284982e-03
4.071894e-02
2.842437e-02
3.402932e-02
-3.211353e-02
-5.504262e-02
-1.193476e-01
7.871929e-02
1.242152e-02
-1.176486e-02
-1.717222e-02
-4.507657e-02
7.517489e-02
-5.952125e-02
-5.861092e-02
-2.051012e-02
4.272469e-02
-3.672036e-02
-1.059633e-02
-2.366690e-02
-2.959701e-02
7.346263e-02
7.026624e-02
-3.447577e-02
1.360677e-02
2.723425e-02
-5.646970e-02
3.688956e-02
1.810709e-02
-6.072364e-02
1.616281e-01
1.418972e-01
1.808820e-02
-2.641162e-02
-1.445689e-02
4.291367e-03
-1.888968e-01
-1.409927e-01
6.021435e-02
-4.491520e-02
-2.988219e-02
3.102563e-02
-6.182535e-02
9.565916e-03
-1.296693e-02
-4.262900e-02
-9.518513e-03
2.379932e-02
1.548854e-02
7.693432e-02
-1.543438e-02
-2.447480e-02
3.268300e-02
4.456792e-03
-3.138319e-02
2.289907e-02
1.610886e-02
-3.909030e-02
3.414590e-02
-8.581797e-03
-8.478589e-02
-9.902218e-03
-3.850129e-02
-5.482503e-02
-9.862854e-02
-1.040260e-02
-2.683620e-02
-3.375961e-02
1.980303e-02
-3.285544e-02
2.870932e-02
4.773623e-02
-5.848953e-02
1.966365e-01
2.815689e-02
2.307510e-03
7.385995e-03
-1.567799e-01
-6.002803e-03
-5.906167e-02
5.512932e-02
-1.022864e-02
1.167248e-01
-1.617036e-01
8.587085e-02
7.404320e-02
-1.618296e-01
5.603687e-02
-7.440351e-03
-7.795823e-02
-1.122919e-02
1.015555e-01
-1.605804e-01
1.738230e-01
1.024934e-01
-1.643729e-01
6.502987e-02
-1.912383e-02
2.333615e-03
-1.826390e-02
-1.197589e-01
-4.579623e-02
-1.906596e-02
-3.321293e-02
-7.773647e-02
-5.381435e-02
1.711478e-02
2.330384e-03
4.135326e-02
-3.214356e-02
4.350112e-02
-1.521412e-02
1.014081e-01
1.589072e-01
3.344142e-02
-6.282979e-02
-4.339100e-02
-3.244865e-02
-2.159442e-03
-1.000016e-02
-7.729374e-03
3.067391e-02
8.319941e-03
1.338684e-02
7.727116e-02
9.541256e-03
3.293741e-02
-1.076221e-02
9.483599e-02
-5.915993e-02
-4.939912e-03
-1.936181e-02
-7.338928e-02
-4.600611e-02
-4.085223e-02
5.389785e-02
-1.713788e-01
-1.201775e-02
3.136358e-02
-5.083184e-03
2.393766e-02
-2.035490e-02
1.225938e-02
7.784621e-03
7.996501e-02
-1.970495e-01
2.581255e-02
1.823844e-02
1.873190e-02
1.512803e-02
-4.564550e-02
-2.611983e-02
1.666933e-02
-4.270243e-02
-5.485710e-02
7.076555e-02
-1.388661e-01
1.640683e-01
1.228526e-01
2.352710e-02
1.570736e-02
-5.193267e-03
1.879456e-02
7.924155e-02
-6.410862e-02
-1.151767e-01
5.793536e-02
5.347303e-02
1.625141e-03
6.732622e-02
-1.064794e-02
5.532449e-02
2.203707e-02
-4.328574e-02
-2.664477e-02
-3.855482e-04
-8.292428e-02
-1.843786e-02
-3.355889e-02
-3.992897e-02
-2.346802e-02
-2.076867e-02
-1.015537e-01
1.016945e-01
-1.200209e-01
-6.582307e-02
-1.278330e-02
7.668624e-02
4.363278e-02
1.297737e-02
1.131025e-01
1.567641e-01
1.623213e-02
1.367943e-01
2.134147e-01
6.951442e-02
-5.298638e-02
-4.209055e-02
1.657632e-02
-1.143933e-01
-7.448326e-02
-7.410316e-02
-1.390022e-01
-6.256031e-02
-4.064319e-02
-1.119358e-01
-5.883763e-02
-3.897753e-02
-2.063675e-02
-6.699371e-02
1.036335e-01
-5.122067e-02
-4.601843e-03
6.489881e-03
6.086523e-02
-5.947990e-03
-5.139512e-02
2.991332e-02
2.648195e-02
-1.131005e-01
-4.206280e-02
8.243914e-02
-1.324122e-02
9.844270e-02
6.248406e-02
-5.176612e-02
4.324511e-02
-7.700223e-02
-2.458892e-02
8.932154e-02
-3.956447e-02
