3.375338e-02
2.727336e-02
3.080408e-02
2.117800e-02
2.165037e-02
1.071649e-03
-3.398433e-02
6.499303e-03
2.932599e-03
-7.773356e-03
-9.259040e-03
1.337728e-02
-5.879519e-03
3.112367e-02
-1.392568e-02
1.427230e-02
7.828207e-03
8.788454e-03
-7.407761e-04
-1.520483e-02
-1.483716e-02
1.460935e-02
1.485823e-02
3.482778e-03
-1.967270e-03
3.788861e-02
2.251662e-02
2.009507e-02
-2.251731e-03
-7.201385e-03
-1.004969e-03
1.490623e-02
7.284062e-03
-1.265975e-02
-1.758660e-02
-2.542916e-02
-1.911655e-02
-2.530525e-02
-9.976169e-03
-2.053968e-03
4.400662e-03
2.804600e-02
3.761681e-02
2.944511e-02
1.973392e-02
1.845441e-02
2.790800e-02
4.356834e-02
2.868552e-02
4.242696e-02
1.803265e-03
-1.382155e-04
-5.796850e-03
-4.479515e-02
-8.659394e-03
6.307859e-04
-1.670949e-02
-4.032842e-02
-2.740545e-02
-2.773488e-02
-2.606891e-02
-1.703261e-02
-2.203603e-02
3.860469e-02
6.200695e-02
1.302893e-02
9.924613e-03
1.888157e-02
1.152651e-03
-1.724814e-03
-5.906696e-03
-2.709052e-02
-2.774192e-02
-2.022573e-02
-4.685520e-02
-3.410790e-02
-3.627359e-02
-3.165929e-02
-1.116195e-02
-1.111100e-02
-3.757971e-02
2.866392e-02
2.807111e-02
2.123201e-02
1.781756e-02
3.555348e-02
5.741027e-02
2.075009e-02
6.013550e-04
2.274833e-02
-6.569094e-03
1.023891e-02
9.584005e-03
3.187185e-03
-3.064575e-03
6.754823e-03
2.179066e-02
1.287465e-02
2.920744e-03
-1.627980e-03
-1.591089e-02
4.623803e-03
7.286197e-03
2.822035e-02
2.582622e-03
1.508249e-02
-6.109841e-03
-3.384630e-02
-1.773825e-02
-1.220665e-02
1.525681e-02
-8.089663e-03
-1.083644e-03
1.306580e-02
-1.408440e-02
-1.318199e-02
-8.647999e-03
3.810256e-02
1.805314e-02
-1.041564e-02
1.293128e-03
-2.181765e-02
-3.282762e-02
3.082216e-03
-1.430494e-02
-1.247587e-02
-7.456676e-03
-1.290843e-02
-5.540634e-02
1.697994e-03
-2.282490e-02
-3.644575e-02
7.301804e-03
-2.836652e-02
-2.074191e-02
-9.941964e-03
-2.239137e-03
-1.250608e-03
5.147668e-04
-3.755460e-03
9.977485e-03
3.635566e-03
1.857624e-02
1.643311e-02
-1.810617e-02
-2.203257e-02
5.087144e-03
2.770154e-02
-1.633317e-02
4.316966e-03
2.528414e-02
3.529602e-02
1.230011e-02
-5.544093e-03
3.373819e-03
3.325851e-02
2.510911e-02
1.402194e-02
4.405895e-02
5.805691e-02
1.256516e-02
3.616268e-02
6.037720e-03
6.813740e-03
-7.031918e-04
-6.730561e-04
-1.894649e-02
8.320102e-03
2.944354e-02
-2.298174e-03
1.135831e-02
8.562705e-03
-2.325387e-02
-8.502713e-03
-5.540606e-03
-1.862081e-02
1.445165e-02
-2.852494e-03
2.984595e-03
1.672054e-02
-2.353294e-02
-2.734200e-02
-1.352551e-02
-6.311052e-03
7.710678e-03
-2.222317e-02
3.215684e-02
8.291609e-03
2.346012e-03
-4.762487e-02
-1.663975e-02
-1.697935e-02
-1.934841e-02
-2.537596e-02
2.419740e-03
-6.273331e-02
-3.489299e-02
-2.805620e-02
1.329121e-02
1.593044e-02
-5.053414e-03
-1.729492e-02
-2.800869e-02
-1.590278e-02
-2.383314e-02
-3.576687e-02
1.734918e-04
-1.874819e-02
-4.928409e-02
-4.000762e-02
1.734295e-02
-8.419449e-03
-2.250274e-02
4.832430e-02
3.164625e-02
3.170016e-02
-1.214239e-03
-6.173350e-03
1.194758e-02
-3.023795e-02
1.665893e-02
-2.053978e-02
-3.080801e-02
-2.373099e-02
-2.704913e-02
1.408031e-02
-5.946460e-03
-4.861928e-02
1.216310e-02
-9.411047e-03
-8.841538e-03
1.852985e-02
1.029932e-02
2.763063e-02
1.530260e-03
2.303327e-03
4.168554e-02
-1.172208e-02
3.966793e-02
2.080041e-02
-2.661677e-02
-5.851718e-03
-2.850582e-03
-4.270196e-02
-3.897544e-02
-1.649263e-02
-3.460118e-02
-4.781597e-03
-2.291077e-02
-1.277209e-02
-1.965695e-02
-8.536534e-03
-4.133977e-02
2.634927e-04
1.495091e-02
-3.692271e-02
-7.611411e-03
1.347613e-02
-1.498371e-02
-1.617774e-02
6.537834e-04
8.926676e-03
5.426610e-02
3.423096e-04
1.220217e-02
1.168888e-02
7.401088e-03
7.372544e-03
1.875203e-02
1.838563e-02
-1.577653e-02
-2.388128e-02
-2.017540e-02
6.325521e-03
-1.984787e-02
-3.208730e-02
-8.125840e-03
1.786947e-02
-1.745425e-02
-4.046301e-03
2.170924e-02
4.481962e-02
3.479054e-02
-9.310082e-04
8.938889e-04
8.562274e-03
-8.161969e-03
-1.230797e-03
2.140765e-02
1.485214e-02
1.649773e-02
2.665214e-02
3.100318e-02
4.575726e-02
5.140602e-03
4.505638e-02
2.368296e-02
7.000515e-03
-1.473988e-02
-1.268834e-02
-6.308062e-03
1.996467e-02
-2.109287e-03
-4.925956e-03
-2.039244e-02
-1.564651e-03
-3.890499e-02
-2.308787e-02
-1.244604e-02
-3.036441e-02
-1.862976e-02
3.423794e-02
-8.665890e-03
6.014734e-03
-1.879182e-02
2.694741e-03
-2.670824e-03
-6.815066e-03
-3.360976e-02
2.103743e-02
-6.543113e-03
-3.288150e-04
-2.138993e-02
-1.274146e-02
-2.439857e-02
-1.827756e-02
-1.259761e-02
-2.118536e-02
-4.855460e-02
-4.071997e-02
-4.339147e-02
-4.788753e-02
-1.731355e-02
3.072866e-02
2.977310e-02
-1.720659e-02
-1.129752e-02
-5.110637e-03
3.584259e-03
-2.411496e-02
-2.305243e-02
-4.942558e-03
1.209947e-02
-1.910002e-03
5.525303e-03
-1.539173e-02
-7.074247e-03
1.643713e-02
-7.858131e-03
1.593975e-02
-5.441179e-03
-1.741351e-02
-2.543787e-02
7.372060e-03
5.304812e-03
-6.482223e-03
2.240062e-02
9.891212e-04
-1.235368e-02
-9.393205e-03
1.568272e-02
1.595228e-02
2.346479e-02
2.283811e-02
1.407965e-02
4.294572e-03
2.951654e-02
1.615059e-02
-5.135123e-03
4.523128e-04
-2.047181e-02
-4.690639e-03
1.048246e-02
8.601625e-03
-1.339693e-02
-2.776917e-02
-2.443083e-02
2.174775e-02
-4.306445e-03
2.279961e-03
1.319884e-02
5.468361e-03
2.446999e-03
5.475774e-03
-4.146008e-03
1.857309e-02
2.810235e-02
4.390186e-03
-4.283419e-03
1.314223e-02
6.832181e-03
3.559322e-02
2.131210e-02
-2.112684e-02
1.563708e-02
2.017273e-02
2.800136e-02
1.470419e-02
3.500124e-02
2.859170e-02
-8.299358e-04
2.571945e-02
1.080507e-02
-1.389992e-03
1.141064e-03
-2.414371e-02
-2.797019e-02
-3.262482e-02
1.025517e-02
-4.324780e-02
-1.882791e-02
-5.406936e-03
-2.230019e-02
-1.274190e-03
2.716710e-02
4.339800e-02
-1.614971e-02
-1.282923e-02
-1.087000e-03
-1.227198e-02
-3.230340e-02
-1.561041e-02
-5.399051e-03
2.667662e-03
-1.809081e-02
-2.993929e-02
-1.599865e-03
9.936423e-03
-1.796033e-02
-1.744473e-02
-4.408653e-02
-4.142420e-02
-3.042789e-02
-4.522169e-02
-3.387967e-02
-5.086618e-03
5.132487e-03
-3.767028e-02
-1.300292e-02
-1.287297e-02
-3.537919e-02
1.023092e-02
1.603729e-03
4.592270e-03
6.357429e-04
2.147666e-02
4.241658e-02
-6.522348e-03
3.877562e-02
1.029147e-02
-8.464228e-03
1.512353e-03
5.307441e-03
-6.063448e-03
-1.059400e-02
-9.404313e-03
-1.284226e-02
4.047436e-03
5.101431e-03
1.066965e-02
1.759997e-02
1.504817e-02
5.854352e-03
1.616508e-02
-4.480812e-03
-3.010860e-03
4.694836e-03
2.261345e-03
4.463968e-03
2.795891e-02
4.762745e-02
4.966193e-03
1.880878e-02
5.985494e-02
4.530585e-02
2.676127e-02
-1.171596e-03
-1.530400e-02
-1.109014e-02
-2.692294e-02
-6.290988e-03
-5.164338e-03
2.654802e-02
-6.696501e-03
9.180636e-03
1.781469e-03
-1.335846e-02
-7.706826e-03
-1.009196e-02
-2.567801e-02
1.203846e-02
-1.532292e-02
-9.837493e-03
-2.983277e-02
-7.400432e-03
1.363830e-02
7.326985e-03
-8.197299e-03
5.446851e-03
2.873075e-02
2.740250e-02
1.347531e-03
5.152587e-04
1.342212e-02
-1.567810e-03
3.768709e-02
3.600600e-02
2.321091e-02
3.859977e-02
1.679456e-02
2.454992e-02
4.667847e-02
5.554978e-04
-1.613033e-02
-9.809198e-03
1.702356e-02
-2.803596e-02
-8.686129e-03
-2.100495e-02
-2.446421e-02
-8.763671e-03
1.423148e-03
1.458778e-02
-1.826834e-02
-3.789268e-02
2.885023e-02
9.468448e-03
-3.871895e-02
2.744547e-02
-8.464921e-03
-3.219187e-02
-1.263250e-02
-4.206857e-02
-4.230388e-02
-8.498674e-04
-7.512829e-03
-2.541864e-02
1.432781e-02
-2.163631e-02
-2.177138e-02
-1.686613e-02
-4.515733e-02
-2.752303e-03
-1.336457e-02
-2.915778e-02
-7.740301e-03
-1.343524e-02
-3.024346e-02
-6.559095e-03
-1.367607e-03
1.071636e-02
-2.002026e-02
-1.699143e-02
-9.041025e-03
-3.660828e-03
-2.648008e-02
-5.062875e-03
2.985333e-03
-2.340852e-02
-1.185354e-02
1.012942e-03
-1.993512e-02
-2.060615e-02
1.753729e-02
1.190288e-02
3.043009e-02
1.505325e-02
-5.825384e-02
-3.520656e-02
1.301141e-02
-2.601165e-02
1.098378e-02
-1.184010e-02
-1.389577e-02
-2.015325e-03
-1.375503e-02
2.652608e-02
-2.103175e-02
-1.430650e-03
1.134360e-02
-3.553779e-02
1.626162e-02
1.520901e-02
-1.323626e-02
2.031027e-02
-6.643726e-03
4.104697e-03
-1.656260e-02
3.450793e-03
-1.671769e-02
-1.393958e-02
2.233496e-02
-1.282282e-04
-6.310161e-03
-1.535766e-02
6.047326e-03
-4.695711e-03
-6.263062e-03
1.543018e-02
-8.527157e-03
-3.363957e-02
1.787537e-02
-1.127212e-02
-1.173550e-02
-8.253830e-03
1.352003e-02
-5.765288e-03
9.315831e-03
-1.045218e-02
-4.155891e-04
-9.599173e-05
-1.945149e-02
4.109181e-02
-5.719071e-02
2.572361e-02
6.501051e-02
-9.028839e-02
2.411636e-02
3.451664e-02
-2.548010e-02
1.986920e-02
-2.346106e-02
1.561955e-02
-2.143878e-02
5.273197e-03
7.063169e-03
1.887524e-03
9.020944e-04
-1.322361e-02
-2.217314e-03
2.858193e-02
-3.227846e-02
2.169182e-02
1.357033e-02
-3.107957e-03
-2.335269e-03
-9.458747e-03
-5.564380e-03
2.325160e-02
9.340672e-03
-1.788907e-02
1.651708e-02
2.359628e-02
-7.414088e-03
-1.344519e-04
1.772104e-03
-9.645729e-03
1.666331e-02
-3.752700e-03
1.982203e-02
5.354168e-03
-7.793412e-03
7.418056e-03
-5.107389e-03
5.819048e-03
2.570197e-03
5.221565e-03
1.657012e-03
3.748321e-03
3.416104e-03
9.445104e-03
-8.092084e-04
-9.217141e-03
1.423072e-02
-1.615156e-02
-7.975685e-03
6.554373e-03
3.056156e-03
-2.716148e-03
-1.506553e-03
3.422364e-02
-1.040361e-03
-1.480753e-02
1.292434e-02
6.300420e-03
1.168786e-02
-4.957991e-04
4.695188e-03
6.052615e-04
-2.251253e-02
1.228358e-03
1.334469e-02
1.196784e-02
9.478160e-03
1.397956e-02
-2.564202e-02
1.453300e-02
1.544165e-02
-5.214626e-02
2.544067e-02
8.747731e-03
-4.741006e-02
1.044060e-02
-1.200773e-02
1.448973e-02
-2.669812e-02
-2.090792e-02
3.736855e-02
-3.341376e-02
-2.763113e-02
3.003539e-02
-2.122522e-02
2.077499e-02
-2.090392e-02
1.438700e-02
1.403871e-02
-8.374969e-03
3.767212e-02
1.345405e-02
-4.110584e-02
4.155550e-06
3.071002e-02
-3.996062e-02
5.879923e-03
4.311038e-02
-1.012046e-01
4.825961e-02
2.361282e-02
-4.205672e-02
2.721895e-02
5.911984e-03
1.590237e-03
4.727621e-04
-2.034641e-02
-5.644009e-03
-3.259137e-02
-3.518427e-02
-4.706795e-03
8.290896e-03
-1.431514e-02
-1.935865e-02
-8.751755e-03
-3.107295e-02
-3.423543e-02
-1.087033e-02
-1.252639e-02
-1.888858e-02
2.378063e-02
-2.323558e-02
-1.415517e-02
-2.011838e-02
-2.808075e-02
-1.466081e-02
5.000599e-03
1.754965e-02
2.880087e-02
2.848064e-02
5.512977e-03
2.891964e-02
2.975870e-02
2.596482e-02
4.895236e-02
4.246236e-02
-1.673625e-03
4.135131e-02
3.873790e-02
2.488761e-02
4.271834e-02
1.587724e-02
1.464286e-02
3.984954e-03
3.099786e-02
-2.660616e-02
1.846440e-02
2.814153e-02
-1.039087e-02
-6.400696e-03
-1.633066e-02
1.609683e-03
-2.799765e-02
6.950943e-03
-2.071563e-02
-2.219670e-03
-1.219440e-02
-5.689096e-02
-1.042498e-02
3.511139e-02
-7.439706e-03
2.506782e-02
3.826612e-02
1.896563e-02
5.099792e-02
3.750198e-02
3.846790e-02
1.081768e-02
4.600033e-03
2.089379e-02
2.844607e-02
1.139838e-02
1.985909e-03
1.483301e-02
-5.993062e-03
1.281384e-02
-3.252477e-03
2.484721e-02
-1.197555e-02
-9.957592e-03
1.072492e-02
-2.453120e-02
9.883074e-03
-9.729019e-03
-2.403147e-03
-6.114300e-03
-2.318902e-02
-1.165349e-02
-2.569811e-02
-1.194037e-02
-1.656064e-03
-3.139829e-02
7.674666e-03
-1.605877e-02
7.387314e-03
-6.704990e-03
7.418365e-03
-1.798658e-02
6.990689e-03
-2.829337e-03
4.699938e-02
1.614090e-02
-3.207722e-02
-1.375256e-02
5.293123e-03
-9.242993e-03
-3.942743e-04
8.811675e-03
1.853106e-02
4.578074e-03
-3.085633e-02
1.567486e-02
1.075190e-02
6.393202e-03
1.366072e-02
1.329015e-02
6.549999e-04
1.790900e-02
-2.352898e-02
-3.982963e-02
-1.341686e-02
-4.379433e-02
-4.955491e-02
9.002275e-03
1.986385e-03
-2.343111e-02
-1.240889e-02
-6.434482e-03
-3.674957e-02
-2.060475e-02
7.566377e-03
-3.144910e-02
9.102556e-03
-2.346725e-03
-2.114282e-02
6.412967e-03
-3.522826e-02
-3.833783e-02
3.296926e-02
1.022810e-02
-1.202617e-02
4.857748e-02
1.967903e-02
-4.708895e-02
1.146762e-02
-1.481629e-02
-5.260000e-02
-2.394439e-02
-4.224874e-02
-3.134690e-02
-8.742645e-03
-4.208092e-02
-2.922207e-03
1.215718e-02
1.496343e-03
2.062422e-02
5.870900e-03
2.755759e-03
7.036092e-03
-9.048148e-04
-1.551231e-02
8.175016e-03
9.652666e-03
1.192633e-02
1.670602e-02
-9.725138e-03
7.275230e-03
-3.179703e-02
-1.541227e-02
-2.844976e-02
-3.638256e-02
-8.163510e-03
-2.640587e-02
-1.335338e-02
3.107854e-02
2.224491e-02
1.645380e-02
-2.691860e-03
-1.601134e-02
-5.744794e-02
-3.914028e-02
-5.806940e-02
-4.145755e-02
1.127617e-02
4.347274e-02
3.495938e-02
-3.024981e-02
2.832386e-02
2.379445e-02
-3.455824e-02
-3.666652e-02
-1.969141e-02
2.348206e-02
4.688547e-02
1.926118e-02
2.032120e-02
8.773336e-03
9.573163e-03
2.637635e-02
-3.555553e-03
-7.215715e-03
-4.200386e-02
9.504992e-03
2.180487e-02
-2.342071e-02
1.314743e-05
9.290657e-03
4.398757e-04
1.556975e-02
1.506152e-02
5.930827e-03
-2.199857e-02
-8.890308e-04
-1.365268e-02
-1.810835e-02
-4.182632e-02
-3.945326e-03
-5.067135e-02
-4.425603e-02
1.809340e-02
-1.351025e-02
-4.760784e-02
-1.095420e-02
6.592989e-03
-3.722328e-02
-3.858012e-02
-2.595299e-02
-3.904903e-02
2.156953e-03
7.696651e-03
1.660155e-02
1.331186e-02
-1.174377e-02
1.788228e-02
-6.465989e-03
4.480352e-03
2.810716e-02
-8.714374e-03
-1.765723e-02
-4.199165e-02
-3.574352e-04
2.437916e-02
-1.064357e-02
-6.022251e-03
1.916198e-02
2.888394e-02
-1.457921e-02
-9.512174e-03
1.059611e-02
9.677822e-03
-1.671334e-02
2.745649e-02
5.948680e-03
2.607975e-02
1.243296e-02
-2.707186e-03
-6.294542e-03
-1.716756e-02
1.512863e-02
-1.203781e-02
-1.637012e-02
1.978943e-02
-8.220570e-03
-2.713029e-02
4.033538e-03
2.732479e-02
3.682668e-02
9.912837e-03
6.319133e-02
3.295030e-02
2.327054e-02
3.617340e-02
3.789456e-02
-1.052071e-02
-2.331602e-02
-3.361128e-02
1.413393e-02
-3.334299e-02
-3.294049e-02
1.555258e-02
-3.198889e-02
-8.539710e-04
2.840429e-02
3.957387e-02
1.048984e-02
1.569761e-02
-1.526402e-02
-9.397017e-03
4.107102e-03
-2.704424e-02
-1.719519e-03
-1.240162e-02
2.297495e-02
2.823274e-02
1.067928e-02
3.118327e-02
2.724649e-02
-1.059690e-02
5.721399e-03
3.623804e-02
1.264489e-03
1.110777e-02
4.998843e-04
-2.478509e-02
-3.445496e-03
-2.794336e-03
9.137248e-03
8.798373e-03
-3.167756e-02
-1.730549e-02
-2.640825e-02
-1.232634e-02
1.101030e-02
-9.150979e-03
-1.358311e-03
7.838801e-03
-1.020303e-02
-3.193667e-02
-1.075465e-02
-2.240340e-02
-2.353834e-02
-2.214118e-03
-1.360031e-02
-2.472575e-02
6.848753e-03
7.880546e-03
9.285726e-03
-1.874386e-02
-4.746919e-02
-2.504334e-02
-2.147750e-02
-4.091564e-02
-5.831252e-02
1.453205e-02
-2.621634e-02
-2.914324e-02
-4.265495e-03
-6.716647e-03
-1.118902e-02
2.045419e-02
1.893559e-02
1.326532e-02
3.881168e-03
1.455855e-02
5.301644e-02
-4.627105e-02
-4.936609e-02
-3.026605e-02
-1.535306e-02
-2.225083e-02
-3.576269e-02
1.608375e-02
-1.056685e-02
-1.198113e-02
3.727163e-02
-1.682213e-04
-1.767824e-02
6.937475e-03
2.159720e-02
1.725355e-02
-2.184620e-02
2.325217e-02
3.284136e-03
-1.378258e-02
1.559350e-03
-1.987491e-02
6.328574e-03
-1.280243e-04
-1.833753e-03
-1.266191e-02
4.109102e-04
-4.817462e-03
-2.609072e-02
-4.267200e-02
-3.360320e-02
-2.344879e-02
-8.211073e-03
-3.570499e-02
5.391315e-03
-1.841628e-02
-3.535965e-02
2.972529e-02
-5.255242e-03
1.751308e-02
3.345686e-03
-3.435460e-03
3.459622e-03
-6.921898e-03
2.220090e-03
-3.265397e-02
6.726069e-03
5.093382e-04
7.734369e-03
1.924809e-02
5.312369e-03
-1.019998e-02
9.569035e-03
-1.079694e-02
6.993842e-03
-5.614660e-02
-2.315142e-02
1.983181e-02
-9.058630e-03
-2.757275e-02
-2.204944e-02
6.138414e-03
6.707512e-03
5.065837e-03
-2.222103e-02
1.536468e-02
1.996221e-02
-1.030270e-02
-1.500178e-02
1.792552e-02
1.982405e-02
8.858287e-04
-1.452812e-04
-1.792201e-02
1.445946e-02
1.827039e-02
-1.650519e-02
1.188813e-02
2.759175e-02
-2.522168e-02
-2.256292e-02
1.256172e-02
-2.314689e-02
3.365380e-03
2.526953e-02
-1.734170e-02
-3.459562e-02
-1.015543e-02
-2.478533e-03
8.882516e-03
2.821085e-03
-1.982684e-02
-3.571855e-02
-5.249983e-03
-1.812966e-02
-2.689910e-02
5.493404e-03
-1.987906e-02
-8.228324e-03
-2.615383e-02
1.007152e-02
-1.665879e-02
-2.920220e-02
-2.597738e-02
-3.007746e-02
-5.402389e-03
-2.251917e-02
-2.189587e-02
-4.083991e-03
-2.101049e-02
-4.802647e-03
-1.368824e-02
-2.667409e-02
-1.974411e-02
1.184239e-02
-1.547170e-02
-3.994454e-02
-4.411194e-03
-6.473050e-03
-1.260025e-02
-6.350992e-03
1.875983e-02
3.098519e-02
4.807241e-04
-2.896289e-02
1.284596e-02
1.551887e-02
3.172050e-02
7.239337e-03
-9.423777e-03
6.261410e-02
2.848569e-02
1.516710e-02
3.727870e-02
2.700344e-02
1.022597e-02
-8.038563e-03
-1.108668e-02
2.391825e-02
2.453054e-02
4.254005e-02
2.457672e-02
1.789163e-02
5.456243e-02
4.711121e-02
-5.196695e-03
-1.549852e-02
-4.443621e-02
-6.301398e-03
-3.915786e-02
-1.357388e-02
-6.908316e-03
-1.730284e-02
-2.663419e-02
2.106832e-02
1.831944e-02
1.690849e-02
-1.689329e-02
2.620927e-04
-7.546104e-03
-3.534033e-02
-9.564576e-03
-6.721940e-03
4.323476e-03
-3.568303e-03
-2.591257e-02
3.611358e-02
1.308645e-02
-4.058049e-02
4.699680e-02
1.374983e-02
-1.205842e-02
-9.969952e-03
2.165319e-02
1.966085e-03
-1.491416e-02
3.530160e-02
2.740002e-02
2.574585e-02
1.202825e-02
2.805998e-02
-3.865521e-02
-3.359107e-02
-1.986174e-03
-3.240767e-02
-2.682238e-02
-3.497832e-02
-9.733499e-04
-1.966855e-02
-8.554112e-03
-1.504263e-02
-5.246852e-03
3.075837e-02
-1.260332e-02
7.585452e-03
8.011952e-03
5.786412e-03
4.435085e-03
-1.265630e-03
-2.990605e-02
6.553757e-03
4.774408e-02
-4.428967e-02
-1.066028e-02
3.763225e-02
-3.630611e-02
-3.284499e-03
-1.150379e-02
-8.077303e-03
-1.085405e-02
1.039360e-02
-1.990864e-02
-4.827189e-03
-1.783730e-02
5.811407e-04
-1.184320e-02
-8.096777e-03
-2.218766e-02
-1.097728e-02
1.180528e-03
-6.778679e-03
-2.841370e-02
-1.678116e-02
-9.146735e-03
-1.309787e-02
-1.463467e-02
-3.483980e-03
3.499123e-02
4.016680e-03
-4.683718e-03
2.593091e-02
-2.945254e-02
-5.633581e-03
5.187668e-04
-1.293203e-02
-1.520053e-02
-1.032011e-02
1.580114e-02
1.905590e-02
-2.813240e-03
-1.436148e-02
4.394718e-02
4.943437e-02
2.692534e-02
-2.195884e-02
-2.686068e-02
-3.508529e-02
-9.559635e-03
-2.147280e-03
-2.942896e-02
1.644597e-03
-1.462739e-02
-1.253569e-02
-3.928571e-02
-3.469126e-02
5.910811e-03
-3.475949e-02
-1.580084e-02
-4.292014e-03
-2.107930e-02
-1.263764e-02
3.053090e-02
-1.278148e-02
-1.238776e-02
2.914003e-03
-7.857434e-03
-5.131875e-03
3.879346e-02
-1.321337e-02
-1.082852e-02
-8.488404e-03
1.271066e-02
3.990778e-02
1.243375e-02
6.401929e-02
1.637250e-02
3.896683e-02
3.314600e-02
3.039564e-03
4.783822e-04
-7.157527e-03
1.592619e-02
1.554257e-03
-1.326219e-02
1.072706e-03
3.217205e-02
-4.907168e-03
1.533156e-03
1.085334e-02
8.680003e-03
6.553620e-03
-1.243083e-02
2.315091e-02
4.952136e-03
-4.978121e-03
3.147530e-02
2.177437e-02
-2.402569e-02
-4.727574e-02
-8.987885e-04
3.045712e-02
-5.489166e-02
-1.060193e-02
3.572674e-02
-4.040894e-02
8.592730e-03
3.173996e-03
1.010390e-02
5.397283e-03
-7.917440e-03
7.845610e-03
7.487020e-04
3.111326e-03
2.376181e-02
1.174372e-02
2.590707e-02
7.688100e-03
1.378658e-02
7.045464e-03
2.607699e-02
7.569843e-03
1.570515e-02
7.300277e-03
7.635913e-03
-6.392451e-03
1.179972e-02
-4.513139e-03
-8.844593e-03
9.810652e-03
9.562276e-03
7.984317e-03
7.634468e-03
1.853063e-02
2.415048e-02
-2.166704e-02
-1.073059e-02
-1.823385e-02
-3.421562e-02
-2.463926e-02
-1.524356e-02
-1.309496e-02
-6.010508e-03
-1.349511e-03
1.473603e-02
4.140747e-02
2.804508e-02
2.213940e-02
2.681848e-02
2.924241e-02
-1.198527e-02
1.835148e-02
5.245235e-03
1.476608e-02
4.689902e-02
3.450992e-02
2.132283e-02
3.326415e-02
3.874349e-02
2.599760e-02
2.102654e-02
1.804800e-02
-3.272239e-02
-1.977326e-02
-7.007907e-03
-5.546216e-02
-2.187063e-02
-8.309005e-03
-3.207351e-02
-2.174052e-02
2.217737e-02
1.183905e-03
-8.474028e-03
-2.742588e-02
2.634915e-02
2.068821e-02
-1.288518e-02
4.356722e-02
3.848952e-02
-2.647196e-02
1.039809e-02
-5.046818e-03
1.281472e-02
-9.289027e-03
-3.133915e-03
-7.579015e-03
1.424071e-02
1.686474e-03
-2.187322e-02
-4.644956e-03
-9.528506e-03
8.777863e-04
-1.554185e-02
-5.125046e-03
-2.122503e-03
-4.258216e-03
1.752272e-04
7.151108e-03
2.801866e-02
1.386132e-02
1.914000e-02
-1.219472e-03
2.379270e-02
-4.325317e-03
-1.364149e-02
2.785055e-02
3.571493e-02
-1.322780e-02
-1.000534e-02
-8.070830e-03
5.923308e-03
-1.437090e-02
-2.846233e-02
-2.603486e-02
-1.914241e-02
-2.457656e-02
-6.605333e-03
1.115773e-02
1.349598e-02
2.278256e-02
3.952358e-03
6.537788e-03
-6.076149e-03
-6.605433e-04
9.514606e-03
3.075178e-02
1.166973e-02
8.553750e-03
5.559143e-03
4.783345e-03
4.409512e-03
-1.113981e-02
-5.910132e-03
-1.558391e-02
-3.876176e-02
-6.811760e-02
-4.800429e-03
-1.261165e-02
-4.092713e-02
-5.593599e-02
1.061216e-02
4.945353e-03
-4.477425e-02
-3.493284e-02
-2.281081e-02
-2.410373e-02
-5.609983e-02
-4.342512e-02
-3.539536e-02
-1.838946e-02
-4.301747e-02
-3.591261e-02
2.454755e-02
1.384136e-02
1.066154e-02
-1.052526e-02
1.440691e-02
1.822741e-02
-3.533807e-02
-2.032522e-02
-2.038651e-02
-3.782525e-03
1.319969e-02
1.602382e-02
-1.434175e-03
5.865065e-04
9.693669e-03
8.555738e-03
4.467282e-04
2.701937e-03
-7.430229e-03
3.814395e-04
3.123210e-02
-4.817253e-03
-4.408429e-03
6.802562e-03
-6.951419e-03
-1.258258e-02
-7.933230e-03
-2.069327e-02
-3.480138e-03
2.970139e-02
-3.379973e-02
-3.365492e-02
-5.099559e-03
-2.148550e-02
-4.111314e-02
-4.611360e-02
-5.334242e-02
-7.189263e-02
-3.274708e-02
-4.000827e-02
-5.113044e-02
-4.253346e-02
-1.965350e-02
-4.677148e-02
-4.313869e-02
2.174342e-02
-8.773365e-03
-6.915112e-03
2.917271e-02
2.288948e-02
-3.554384e-02
7.845818e-03
6.601708e-03
-1.047345e-02
-1.208503e-02
-2.082023e-02
1.330113e-02
-2.813403e-02
-1.128939e-02
7.190736e-03
-6.568235e-04
1.141249e-02
2.077834e-02
6.813230e-03
-1.364705e-02
-5.319749e-03
2.284219e-02
-3.976287e-02
-6.194830e-03
1.973482e-02
3.166639e-02
-2.234441e-04
3.716914e-03
5.932861e-03
-1.875226e-02
2.951898e-02
-2.965316e-03
-1.321072e-03
4.271229e-02
1.287955e-02
-2.117272e-02
1.075798e-02
6.052069e-03
-1.133594e-02
1.558528e-02
3.537846e-02
3.847355e-02
1.427696e-02
2.579953e-02
2.168090e-02
-2.175306e-02
2.802330e-02
-2.771894e-02
-3.026093e-03
2.548039e-03
1.234403e-02
6.566027e-03
1.097772e-02
1.405424e-02
2.655301e-02
-7.845117e-03
1.501541e-03
3.845084e-02
-2.117035e-03
-1.728442e-02
2.173830e-02
3.561873e-02
-5.592045e-03
-2.013242e-02
-5.453564e-02
-4.836865e-02
-2.394695e-02
-1.606384e-02
-3.728805e-02
-4.189386e-03
-1.220174e-02
-9.062517e-03
-2.513032e-03
2.378355e-02
2.557859e-02
6.630499e-03
1.627323e-02
1.287431e-02
2.952504e-03
-2.337312e-02
2.487070e-02
2.434395e-02
2.197130e-02
-1.537370e-02
7.109465e-03
2.118242e-02
9.304285e-03
1.305905e-03
5.124077e-03
5.261271e-03
1.134899e-03
1.019371e-02
-3.548845e-02
-2.619596e-02
8.809543e-04
-1.466749e-02
4.257670e-03
1.189351e-03
-1.221324e-02
-3.010677e-02
-1.402509e-02
-1.171109e-02
-2.384807e-03
7.639175e-03
2.174768e-02
1.200782e-02
2.678641e-02
3.679072e-02
5.852714e-03
-1.094625e-02
2.773996e-03
2.190428e-02
1.098163e-02
1.310217e-04
3.092818e-02
-7.778289e-03
-1.545730e-02
-8.504314e-03
7.270615e-03
1.222688e-02
-3.065680e-02
-6.637340e-03
1.508800e-02
-3.911792e-03
1.106237e-02
-1.849192e-03
1.813830e-02
5.264465e-02
2.253013e-02
3.308658e-02
4.354624e-02
4.712166e-02
1.792669e-02
3.510893e-02
2.800989e-02
5.710920e-03
2.332347e-03
2.823889e-03
1.041094e-02
-3.893166e-03
1.718865e-02
2.239439e-02
6.696033e-03
-4.352280e-03
-6.692886e-03
1.788498e-02
5.022275e-03
1.361214e-02
1.050031e-02
7.335282e-03
3.311685e-04
-5.036061e-03
-1.794874e-02
2.491940e-02
8.601636e-03
-1.095945e-03
2.556579e-04
6.284728e-03
-7.286983e-03
-3.824997e-03
-9.378611e-03
-1.524901e-03
2.191092e-03
1.448864e-02
6.402677e-03
1.078719e-02
1.914622e-02
2.792370e-02
1.896851e-02
4.537955e-02
3.767747e-02
-1.380855e-02
1.219195e-03
1.024964e-02
-2.686734e-03
1.440999e-03
4.764375e-02
7.220417e-03
3.383347e-02
6.168841e-02
2.011283e-02
3.244204e-02
-9.405879e-04
1.188661e-02
1.588498e-02
-4.739027e-03
-8.202446e-03
1.469580e-03
2.620800e-02
-2.655000e-02
-3.041566e-02
2.642813e-04
-2.276001e-02
-4.034440e-02
-2.464879e-02
-2.118182e-02
-3.711832e-02
-4.107240e-02
-3.292586e-02
-4.807650e-02
-2.351109e-02
-2.119868e-02
-8.674264e-04
2.611172e-02
1.306920e-02
9.610604e-03
3.363162e-02
-6.329011e-03
-6.970110e-03
-2.070439e-02
-1.532114e-03
5.287466e-04
1.906621e-03
-1.229920e-02
-2.795717e-02
1.108812e-02
-2.543378e-03
3.723427e-02
1.721051e-03
3.126224e-02
-3.915465e-03
-2.167401e-02
-4.072762e-03
-4.259182e-02
-1.442993e-02
1.253810e-02
1.618657e-02
2.615896e-02
8.329618e-03
1.735952e-02
2.337960e-02
1.919819e-02
4.087426e-02
2.529833e-02
1.782013e-02
-1.651453e-02
1.385525e-03
-1.354210e-02
-3.259105e-02
-2.484827e-02
9.221256e-03
-1.049460e-02
1.909678e-02
1.001653e-02
4.869972e-02
-6.008190e-03
1.815004e-02
5.143469e-02
2.842201e-03
8.068795e-03
2.566075e-02
-2.574042e-04
-3.968779e-02
-3.461096e-02
1.845515e-02
-4.716659e-02
-3.716557e-02
6.365241e-03
-3.216205e-02
-7.628005e-03
5.849489e-03
4.582187e-03
1.860080e-02
-6.356725e-03
-2.238413e-02
-6.795165e-03
-1.660949e-02
-1.548996e-02
-3.947386e-02
-2.036241e-02
6.826486e-03
-4.209535e-02
-3.312841e-02
1.425680e-02
-1.788659e-02
-2.035280e-02
2.228516e-02
3.731267e-03
-1.519645e-02
-1.231684e-04
-1.346873e-02
-1.019619e-02
-5.390193e-03
-6.652358e-03
-5.583670e-03
-1.160438e-02
-1.398079e-02
-6.512036e-03
7.871980e-03
1.045356e-02
-1.412234e-02
-2.008282e-03
-2.094638e-02
-4.870563e-04
2.552583e-03
-4.258904e-03
-1.197981e-02
3.631959e-03
-2.873184e-02
-1.990562e-02
5.017923e-04
-6.021573e-02
-5.109737e-02
-1.173682e-02
-5.315592e-02
-4.133948e-02
-5.735895e-03
-4.338888e-02
-2.840566e-02
-2.244372e-02
-2.473911e-02
-3.955589e-02
-3.166395e-02
-4.832425e-02
-2.415068e-02
-2.555199e-03
5.246628e-03
-5.099819e-03
5.241327e-03
-4.366754e-03
9.323529e-03
-1.295316e-02
5.780889e-03
2.455924e-02
-1.792593e-02
-3.532453e-03
1.052026e-02
-5.577431e-03
-2.354355e-02
-4.436614e-04
-6.077282e-03
-8.962646e-03
1.164545e-02
-2.312187e-02
-5.026272e-03
5.066653e-03
-1.720471e-02
1.752332e-02
1.014876e-02
-1.381824e-02
-2.966147e-03
1.266752e-02
-2.915814e-02
-2.540420e-02
2.998948e-03
-1.298835e-02
-8.803952e-03
-5.674938e-03
-9.282632e-03
-4.300681e-02
-1.254448e-02
3.262854e-02
6.721000e-03
-4.616238e-03
-9.369903e-03
1.016230e-02
2.101906e-02
-8.293788e-04
-1.435101e-03
7.159580e-03
-1.123147e-02
-2.265185e-02
-1.598720e-02
1.123768e-02
-7.319706e-03
-1.268146e-02
-2.027691e-02
-1.871295e-02
2.440883e-03
-2.043289e-02
-3.310019e-02
-1.307562e-02
-1.426433e-02
-2.296475e-02
-3.282073e-02
-6.794151e-03
-1.307270e-02
-4.850708e-02
-1.856072e-02
9.547453e-03
1.651065e-02
-4.995326e-02
-2.375808e-02
1.823535e-02
-4.235407e-02
-4.553599e-02
-1.136136e-02
-1.057265e-02
8.934503e-03
-2.106514e-02
1.650816e-02
-6.332891e-03
8.001219e-03
-6.440620e-03
1.205802e-02
3.425115e-02
-1.301973e-02
4.794148e-02
3.191655e-02
-5.341243e-03
1.725867e-02
4.469487e-02
-1.738610e-02
-4.337731e-04
2.030758e-02
2.662830e-02
3.566745e-02
1.244358e-02
3.984316e-02
2.427669e-02
4.609222e-02
1.965658e-02
3.382035e-02
3.622932e-02
-1.400126e-02
-2.475025e-02
-1.756028e-02
1.314091e-02
-3.726989e-03
3.694013e-04
1.175409e-02
8.300655e-05
-2.281630e-02
1.668518e-02
-2.452751e-03
-9.745935e-03
2.495309e-02
-1.878954e-02
6.876093e-04
1.070115e-02
2.080695e-02
-9.318321e-03
5.128807e-03
-1.494096e-02
8.059607e-04
1.856085e-02
-3.339481e-02
-1.375636e-02
-1.974243e-02
-7.514771e-03
7.472251e-03
-3.350548e-02
-1.612385e-02
4.052585e-03
-2.646534e-02
-1.216497e-02
-1.610131e-02
1.285097e-02
-2.128808e-02
-4.224630e-03
-3.365518e-03
-3.219501e-02
-2.051407e-02
1.711460e-03
-7.026350e-03
-1.922135e-02
9.557187e-03
1.684567e-02
1.813458e-02
-5.137228e-03
2.931288e-03
1.668053e-03
2.597267e-02
3.375430e-02
2.265788e-02
3.843437e-02
1.607480e-02
1.119046e-02
-1.308488e-03
-2.407077e-03
2.038342e-04
1.846612e-02
-8.356545e-03
-3.073958e-02
7.838113e-04
-1.116090e-02
-7.705114e-03
2.464734e-04
-9.862690e-03
-5.815254e-03
-5.563117e-03
-1.018973e-02
-1.588810e-02
1.146062e-02
8.634549e-03
2.137304e-02
-1.877153e-02
9.555792e-03
-1.002809e-05
1.669572e-02
1.468605e-02
2.426411e-02
2.107736e-02
4.420789e-02
6.669512e-02
1.883757e-02
2.953768e-03
-2.115976e-03
-1.540371e-02
-1.682148e-02
-2.281845e-02
-2.638254e-02
-9.783341e-03
-1.129386e-02
-4.307438e-03
9.240992e-03
1.410581e-02
-8.190340e-03
-1.184871e-02
-3.419884e-02
-2.711142e-02
-2.499977e-02
-2.032987e-02
7.226247e-03
-2.341873e-03
8.410069e-03
2.217270e-02
1.214781e-02
3.457403e-02
-8.348459e-03
3.208774e-03
2.258405e-02
-4.303622e-03
7.128745e-03
1.384301e-02
-9.501942e-03
-2.220734e-02
-4.993032e-03
-1.470005e-02
-1.035926e-02
6.914912e-05
9.260630e-03
-1.614524e-02
1.219917e-02
-8.528527e-03
-9.572536e-03
9.904170e-03
-3.489973e-03
3.882438e-03
2.542908e-02
-3.190492e-02
8.728900e-03
-2.367638e-02
-7.394500e-03
7.303911e-04
9.903854e-03
-6.514343e-03
-1.723989e-02
-2.939880e-02
2.847214e-02
2.565839e-03
-1.614332e-02
-1.068340e-02
-1.582608e-02
1.484590e-02
-1.082339e-03
-1.378684e-02
-1.084215e-02
1.069562e-02
1.535776e-02
1.233668e-02
4.051666e-03
-2.903694e-02
-1.263581e-02
1.733360e-03
-2.514435e-03
-1.994443e-02
-1.164219e-02
-2.064035e-02
-1.256799e-02
-3.869268e-03
-3.153740e-02
-4.475164e-02
-3.940569e-02
-2.534554e-02
-2.880713e-03
-2.417626e-04
1.056128e-02
-5.954980e-03
3.646217e-02
1.631367e-02
1.682167e-03
1.780767e-02
9.297286e-03
-1.386572e-02
2.060285e-02
2.134359e-02
1.633305e-03
3.162101e-02
-2.099414e-03
-5.911924e-03
3.001254e-02
-9.008014e-03
5.082585e-03
-1.380066e-02
-4.311713e-02
-5.268162e-02
-5.193258e-02
-3.872226e-02
-3.849479e-02
-5.502095e-02
-5.549219e-02
-3.031881e-02
-1.457854e-02
-2.395295e-03
-3.113530e-03
5.397935e-03
4.073532e-02
2.524814e-02
-1.057679e-02
3.721244e-02
1.210309e-02
-2.234381e-02
-1.480824e-02
2.206427e-03
-5.049541e-02
-2.984246e-02
-1.587138e-02
-4.126657e-02
-2.860788e-02
1.081136e-02
-1.585650e-02
-2.429502e-02
-2.696735e-02
1.263112e-02
-5.879792e-03
6.890460e-03
8.501103e-04
1.107570e-03
-1.299100e-02
-4.072419e-02
-1.501825e-02
-1.765968e-02
1.711051e-02
1.818065e-02
1.253467e-02
1.411433e-02
5.147748e-02
3.918048e-02
3.686594e-03
-1.684161e-02
-2.144474e-02
1.724508e-02
-2.208452e-02
-2.035177e-03
3.428762e-03
2.137068e-02
4.201688e-03
-3.799649e-02
-2.306627e-02
-3.621031e-02
-1.146352e-02
1.989969e-03
3.156523e-03
-1.698476e-02
-1.813103e-02
1.091141e-02
-2.529414e-02
-3.379572e-03
-3.382410e-02
-1.460112e-02
-2.395814e-02
-1.767844e-02
1.548664e-02
-2.010488e-02
-1.092246e-02
8.371001e-03
2.304297e-02
2.544264e-02
-9.344367e-03
3.583140e-02
3.226480e-02
-2.825848e-03
2.633972e-02
5.955300e-03
-1.864475e-02
-3.483188e-03
3.745008e-02
-2.163946e-02
9.647776e-03
2.382538e-02
-1.406194e-02
5.781070e-03
2.460814e-02
1.854758e-02
1.597801e-02
2.293657e-03
2.473230e-02
1.887060e-02
-6.582704e-04
2.302618e-02
1.346718e-02
-1.143734e-02
-3.934535e-02
-4.051060e-02
-4.865066e-02
-3.682261e-02
-5.247542e-02
-5.023962e-02
-2.049829e-02
-5.704583e-02
-5.576326e-02
-1.286934e-02
9.290950e-03
1.197310e-02
-4.526083e-04
-1.152568e-02
-5.843205e-03
-9.289449e-03
-5.756323e-04
-3.185051e-03
1.026352e-02
-1.725087e-02
-1.501840e-02
8.752812e-04
-1.944751e-02
-1.688499e-02
4.484497e-03
-5.368397e-03
-9.683713e-03
-2.029257e-02
6.345638e-03
2.832088e-06
-2.346223e-02
-4.505157e-03
-7.740042e-03
-2.900326e-02
-4.754100e-03
6.604227e-03
-3.401587e-02
-9.102851e-03
1.804039e-03
-7.368403e-03
4.744154e-03
-2.537499e-03
-3.173438e-02
-2.884229e-02
8.929913e-03
1.272547e-03
-1.819127e-02
-2.021045e-02
-3.570182e-03
2.831310e-03
-3.580859e-02
1.506059e-02
-1.780328e-02
-3.440191e-02
4.227744e-02
1.837476e-02
-2.488455e-02
1.878299e-02
-2.709789e-03
-2.142212e-02
7.857996e-03
1.718397e-02
6.736413e-04
4.813577e-03
-3.180075e-02
1.322948e-03
3.869774e-03
-1.564567e-02
-2.171285e-02
-3.338513e-02
-4.423167e-02
-3.406126e-02
-2.662922e-03
-1.566175e-02
2.425522e-03
2.059996e-02
-1.194910e-02
-4.229035e-03
1.237942e-02
-7.074159e-03
-1.218884e-03
5.249464e-03
-1.238490e-02
-1.194804e-02
-1.508644e-02
-1.143863e-02
-3.879485e-03
1.939541e-02
-2.257570e-03
6.538039e-03
-3.161840e-02
-3.427758e-02
1.346167e-02
-1.763119e-02
3.876359e-03
3.031226e-02
2.350143e-02
2.096984e-02
2.086118e-02
1.883256e-03
-2.088659e-02
-3.454040e-02
1.512300e-02
9.687047e-04
-3.529501e-02
1.960502e-02
1.766110e-02
-3.503110e-02
2.356158e-02
1.613597e-02
-2.490252e-02
-5.857471e-03
-2.484560e-02
-1.440056e-02
1.034166e-02
-1.855653e-02
-2.354856e-02
-3.701587e-03
-2.083763e-02
-4.939038e-02
1.436954e-03
-3.625165e-02
-5.213413e-02
7.900130e-03
-9.917786e-04
-4.113004e-02
-1.153221e-02
8.812587e-03
4.026042e-03
9.705929e-03
-1.407179e-03
4.143982e-02
2.957999e-02
1.433198e-02
1.881717e-02
-6.787159e-03
2.535304e-02
1.771053e-02
-1.959973e-02
-2.858475e-02
2.342859e-02
9.843787e-03
-4.723446e-03
5.142719e-03
-1.057768e-02
-2.193776e-02
-2.702821e-02
-3.713945e-02
-2.482749e-02
-4.677603e-02
-3.409353e-02
-4.857758e-02
-7.021877e-03
3.513059e-02
8.299642e-03
1.141976e-02
-1.132851e-02
-1.243642e-02
2.258745e-03
8.625576e-03
2.185625e-02
2.458579e-02
-1.309928e-02
-2.395250e-02
-1.588343e-04
-1.788322e-02
-5.996368e-03
1.218680e-02
-1.697562e-02
-8.244594e-03
3.997118e-02
1.186343e-03
-1.174191e-02
-1.012926e-02
2.021095e-03
9.011613e-03
-7.089062e-03
1.697815e-02
2.363373e-03
-2.254807e-02
-2.546116e-02
-1.528320e-02
-2.781521e-02
-2.218984e-02
-3.640596e-02
-3.579811e-02
9.724865e-03
-1.325441e-02
-3.430572e-02
-1.884340e-03
-1.130442e-02
1.750151e-02
-2.685676e-03
-2.002500e-03
-8.152426e-03
-1.752212e-02
2.998360e-04
-3.009078e-02
1.992399e-02
-4.743666e-03
-7.097193e-03
-5.870827e-03
3.054498e-03
-5.519092e-03
-1.778098e-02
-1.200384e-02
-1.886890e-02
2.639432e-02
-1.953051e-02
-2.827601e-02
2.768804e-02
9.102107e-03
-1.517692e-03
3.647662e-02
4.898190e-02
-1.084964e-02
-3.003237e-02
-6.281403e-02
-4.380594e-02
-2.808383e-02
-4.890340e-02
-3.363570e-02
-2.925573e-02
-4.557917e-02
-2.437247e-02
1.658069e-02
4.399557e-02
1.108826e-02
7.019140e-03
1.374984e-02
-1.286245e-02
2.070283e-02
-1.247302e-02
3.014940e-03
-3.312384e-03
1.467678e-03
-7.000954e-03
-1.554116e-03
-3.306963e-02
-2.024051e-02
-2.203219e-03
-1.093737e-02
7.299708e-03
-1.148077e-02
-2.074233e-02
-5.941026e-03
-2.499564e-03
-2.983293e-02
-1.522693e-02
2.599000e-03
-3.047106e-02
-4.438833e-03
-1.510583e-02
-3.220862e-03
1.101272e-02
-8.660251e-03
-9.774279e-03
3.119296e-03
6.539348e-03
-3.776486e-03
-1.709123e-02
2.537312e-03
-2.286283e-02
-3.311789e-02
-5.659563e-03
-1.087253e-02
-3.427551e-02
8.768050e-03
-1.680844e-02
1.761413e-03
7.434792e-03
-3.888719e-03
-4.820687e-03
-1.377943e-02
1.493440e-03
-3.227764e-02
-2.031307e-02
-3.481803e-02
-1.045890e-02
1.196859e-02
3.849212e-03
1.952486e-02
1.166942e-02
8.053703e-03
2.601425e-02
-3.262434e-03
3.473348e-02
4.771944e-02
1.099954e-02
7.948786e-03
3.453323e-03
-1.958875e-02
2.383809e-02
1.127336e-02
-1.354189e-02
1.353455e-02
-7.946960e-03
-2.986327e-02
-2.946948e-02
-1.113668e-02
-1.824481e-02
-1.414380e-02
-5.062382e-02
-1.655211e-02
-2.056552e-02
-2.684852e-02
2.379216e-02
1.891157e-02
-3.131390e-03
1.980550e-02
-1.574001e-02
1.039167e-03
1.077806e-02
1.535635e-02
-2.475697e-03
-1.247310e-02
-2.793234e-02
-1.360871e-02
-1.278714e-02
-2.637714e-02
-4.446298e-02
-5.221553e-03
-4.989936e-02
-5.030311e-02
3.137401e-02
2.424068e-02
2.514753e-02
2.240595e-02
-7.889307e-03
-1.781582e-02
9.799457e-03
-3.599566e-04
-1.056165e-02
-2.711844e-02
3.620932e-02
1.715951e-02
-9.280712e-04
-6.568799e-03
1.520209e-02
7.249206e-03
1.275896e-04
2.734919e-02
1.996912e-02
2.199897e-02
8.421290e-03
1.271882e-02
-4.497302e-03
-2.580527e-03
9.010016e-03
9.526236e-03
3.819479e-03
2.592470e-02
-1.487091e-02
-8.109336e-03
2.420502e-02
-2.217438e-02
-8.888529e-03
6.797842e-03
-4.268088e-03
-3.297354e-02
3.189165e-03
-7.611126e-03
2.572393e-02
-2.460740e-02
-2.066421e-02
-8.893931e-03
-4.143162e-03
1.994198e-03
-1.272559e-02
-3.088500e-02
1.002376e-03
-2.760068e-02
-9.527373e-03
9.823794e-03
-7.027901e-03
-4.409738e-02
-4.606091e-03
-1.096633e-03
1.156059e-02
6.723019e-03
-5.332783e-02
2.507606e-02
3.683592e-02
4.880072e-04
4.403675e-03
3.616180e-02
1.601464e-02
-4.026324e-02
-5.482237e-02
-3.529551e-02
-3.943740e-02
-2.688669e-02
-2.817872e-02
3.532565e-03
-1.762946e-02
-2.703782e-02
-1.748114e-02
2.254113e-03
-1.156131e-02
-7.247164e-03
7.843249e-03
1.028489e-02
1.113327e-02
1.141608e-02
3.513556e-02
-4.331379e-02
-2.270973e-03
2.530174e-02
-4.723385e-02
-1.317359e-02
1.600674e-02
-4.034790e-02
-3.267719e-02
-1.127903e-02
3.726488e-02
-3.021085e-03
-2.444330e-02
3.373606e-02
5.292421e-03
-7.176877e-03
1.872071e-02
1.204435e-02
-3.861573e-02
2.569218e-02
1.970990e-02
-5.158145e-04
-2.335224e-03
3.347359e-02
3.648928e-03
-1.225319e-02
-6.712702e-03
8.464425e-03
-1.270439e-02
-3.403691e-02
-3.070260e-02
-2.324605e-02
-1.599460e-02
-5.826776e-02
-1.113962e-02
-2.261918e-02
-4.891077e-02
-7.037646e-04
1.000042e-04
2.296355e-02
-1.220468e-02
-4.567775e-02
2.731135e-02
-6.792215e-03
-1.646878e-02
7.605909e-03
3.219304e-02
1.634538e-02
7.592487e-03
5.392043e-03
-7.559284e-03
-4.881422e-03
6.219408e-03
2.205126e-02
1.514379e-02
-8.233287e-04
-1.426239e-02
1.209756e-03
5.546557e-03
-1.438448e-02
9.695914e-03
-9.731757e-03
-2.167142e-02
-1.514334e-03
3.692002e-03
1.564027e-02
2.872375e-02
-2.787404e-02
-2.797677e-02
-1.683322e-02
-1.870342e-02
-2.425564e-03
2.348858e-03
9.571635e-03
1.606745e-02
-1.569337e-02
2.237213e-02
5.239708e-02
3.262681e-02
-9.664992e-03
4.285360e-02
1.347879e-02
1.986836e-02
3.552762e-02
-6.102933e-03
2.265952e-02
3.055798e-02
1.197305e-03
1.631168e-02
1.564151e-02
1.347427e-03
-1.868075e-02
-3.894646e-03
2.251713e-02
1.432070e-02
-7.390127e-04
1.874059e-02
-5.858551e-04
-1.870996e-02
-4.684890e-03
-8.491395e-03
-1.296466e-02
2.063332e-02
-1.262579e-02
-1.897758e-02
-2.641675e-02
-4.097399e-02
-4.338652e-02
-2.255732e-02
3.038443e-02
-3.006675e-02
-1.356043e-02
1.522277e-02
1.261018e-02
-2.027068e-03
1.487218e-02
-1.537219e-02
-2.104465e-02
-1.384729e-02
4.356796e-02
-4.117682e-02
2.446426e-02
4.346542e-02
-2.758972e-02
2.746234e-02
5.152858e-02
-5.217040e-02
-9.640871e-03
9.181414e-03
-2.710195e-04
-2.264957e-02
1.279766e-02
3.441239e-02
-1.587065e-02
2.533276e-03
8.182382e-03
1.622082e-04
-3.998675e-03
1.898379e-02
1.052239e-02
1.547590e-02
-6.976948e-03
-3.990813e-02
-3.181972e-02
-3.810192e-02
1.572330e-02
1.073644e-03
-1.375982e-03
7.875190e-03
-4.330253e-03
-2.634790e-02
-2.258215e-02
-8.786487e-03
-2.123410e-02
1.570052e-02
-3.125169e-02
-1.512160e-02
5.991909e-03
-6.158798e-03
-2.064606e-03
2.933866e-03
-1.746923e-02
1.346853e-02
-3.305195e-03
2.172144e-02
-2.178273e-02
-1.912236e-02
-3.238527e-02
-1.172769e-02
-9.340126e-03
-2.587393e-02
-3.863430e-02
-1.428045e-02
-1.207933e-02
-4.676223e-03
-3.134225e-03
-8.761301e-03
-3.356639e-03
1.696050e-03
-1.649772e-02
-5.084128e-05
1.608735e-02
2.324244e-02
2.390201e-02
1.496836e-04
8.769963e-03
1.251149e-02
-2.409467e-02
5.555796e-03
1.174965e-02
-2.330251e-02
-4.638091e-03
-4.863499e-03
-1.932016e-02
2.307685e-02
-1.426404e-02
-4.392451e-02
1.980712e-02
-2.800362e-02
-7.425119e-03
-3.868748e-02
2.924870e-02
-2.844934e-03
-1.598575e-02
8.888375e-04
-1.461849e-02
-1.903558e-02
1.661644e-02
1.450981e-02
1.316933e-02
-3.653609e-02
-1.568271e-02
-4.790587e-03
-6.143888e-03
-5.049440e-02
4.321839e-03
-2.807156e-02
-1.658703e-02
2.977091e-03
-5.200234e-02
-1.157973e-02
1.704141e-02
-1.966727e-02
-5.865854e-03
2.177238e-02
-2.232691e-02
-7.294614e-03
-1.548752e-02
-1.088499e-02
-2.259060e-02
-1.795227e-02
1.517130e-02
-1.655864e-02
-1.638265e-02
1.311782e-03
3.675052e-03
2.528238e-02
1.782506e-03
4.351041e-03
6.199181e-03
2.886989e-02
-1.869540e-02
8.454852e-03
-5.746562e-03
-8.825095e-04
-2.854779e-03
-6.561180e-03
-1.248777e-02
4.266685e-04
-1.839747e-02
-3.282481e-03
-3.752007e-02
-5.426680e-03
-3.738653e-02
-5.058992e-02
-2.793961e-02
-2.675504e-02
-5.241744e-02
2.639185e-03
-4.426119e-02
-2.259015e-02
3.348885e-02
-1.697086e-02
-3.071476e-02
-9.739318e-03
1.277918e-02
-1.001985e-02
4.438490e-03
5.740752e-03
-1.632944e-02
-1.093681e-02
-2.243565e-02
-1.575946e-02
-3.348298e-02
-6.699202e-03
-4.319597e-03
-4.969348e-03
-1.852032e-02
3.807670e-03
-5.137243e-03
-4.602856e-03
-2.028514e-02
-3.088405e-02
3.255326e-02
-6.057149e-03
-1.460333e-02
-4.058598e-03
3.417188e-02
2.716945e-02
6.065664e-04
-1.810616e-02
-7.802656e-03
-3.036293e-02
-2.911230e-02
-4.146094e-03
-2.780744e-02
-4.616991e-03
4.428621e-03
1.144046e-02
-1.778767e-02
1.882799e-02
-1.617152e-02
1.689933e-02
3.638824e-02
2.708906e-02
2.788119e-02
2.622279e-02
1.324954e-03
2.543047e-03
1.789346e-03
4.526470e-03
6.926275e-03
1.797178e-02
2.110020e-02
1.737849e-02
1.293314e-02
9.568959e-03
2.177638e-02
1.869777e-02
2.719636e-02
-1.346513e-02
2.310558e-02
-1.976329e-03
3.029197e-02
-3.183727e-02
1.645399e-02
-3.373652e-03
-7.179529e-03
1.751729e-02
-3.756093e-03
-5.414993e-02
1.990398e-02
-4.692443e-03
-1.609189e-02
3.312554e-03
1.203656e-02
1.191594e-03
-1.256070e-02
-3.724581e-02
-2.578679e-02
-1.044998e-02
-4.471882e-02
-3.059553e-02
3.682178e-02
3.374109e-02
-1.042373e-02
4.140533e-02
4.229664e-02
4.392503e-02
3.693811e-02
6.250976e-02
3.662336e-02
1.369046e-02
-1.245227e-02
-2.030545e-02
-4.669611e-02
-2.758397e-02
-1.968770e-02
-1.460447e-02
-1.425647e-02
-6.137128e-04
-1.756582e-02
-2.551978e-02
-2.315781e-02
-2.880789e-02
-2.575751e-02
-2.520670e-03
-1.780938e-02
-1.877236e-02
9.903450e-03
1.696095e-02
-1.378894e-03
-1.877311e-02
-7.483014e-03
8.355490e-03
-3.990692e-02
-1.461020e-02
-7.869180e-03
6.118676e-03
2.187841e-03
-2.717401e-02
-6.994397e-03
1.213637e-02
-7.385421e-03
1.613006e-02
1.229667e-02
4.902602e-02
5.075167e-02
2.845042e-04
1.570748e-02
1.106587e-02
1.567718e-02
2.774288e-02
-1.181090e-02
-4.937545e-03
1.928537e-02
1.972877e-02
3.407487e-02
1.585578e-02
-9.224311e-03
2.447794e-02
-2.188213e-02
-3.481485e-02
4.274646e-03
-3.916342e-03
-1.594500e-02
-8.418320e-03
2.578631e-02
2.852027e-02
-9.445349e-03
-6.801091e-04
2.098018e-02
2.431335e-02
1.230017e-02
-2.327185e-02
2.599640e-02
-6.989702e-04
1.366993e-02
3.009385e-02
2.250351e-02
-7.746297e-03
-1.034058e-02
-5.994814e-03
4.943560e-02
7.275617e-03
-1.452072e-02
7.356563e-03
6.715948e-03
2.481288e-02
3.955393e-02
1.629499e-02
4.689431e-02
4.116281e-02
-3.807783e-02
-2.694610e-02
-1.848114e-02
-4.256034e-02
-2.938305e-02
-2.995638e-02
-1.509671e-02
5.538826e-03
4.028806e-02
-1.048971e-02
-1.749719e-02
-1.865936e-02
-1.426363e-02
2.267309e-03
-1.987445e-02
2.905538e-03
1.905422e-02
-5.581407e-03
-3.245441e-02
2.107164e-02
3.045101e-02
1.942651e-02
1.580332e-02
5.409105e-02
4.001914e-02
6.873675e-02
2.731745e-02
-1.306101e-02
-2.134654e-02
1.202301e-02
-8.202110e-03
-5.393854e-03
-1.988939e-02
-1.716805e-02
-2.804011e-02
-1.976424e-02
-3.400106e-03
-1.377502e-02
1.161351e-02
-2.263474e-02
4.762306e-03
5.040585e-03
-3.544795e-02
-2.701309e-02
-1.135999e-02
-7.517306e-03
-3.340801e-02
2.561295e-05
3.862745e-04
-3.698626e-02
-1.285052e-03
1.296427e-02
-1.561243e-02
-6.528292e-03
-4.570558e-02
-2.962856e-02
-3.470591e-02
-4.144610e-02
-4.612627e-02
2.729560e-03
-4.348034e-02
6.588884e-03
6.496882e-02
1.055676e-02
2.143248e-02
-2.174491e-02
-3.713821e-03
2.945753e-03
5.295241e-04
-7.382545e-03
-6.424373e-03
2.501515e-02
-1.536698e-02
-3.615335e-02
-3.377127e-02
-5.629132e-02
-2.800520e-02
-7.991767e-03
-4.208883e-03
1.165076e-02
7.165997e-03
-2.608847e-02
2.497609e-03
5.274309e-03
-2.566736e-02
-1.693110e-02
1.455357e-02
1.722578e-02
-1.398075e-02
-1.030494e-03
-5.986582e-03
-1.370481e-02
-1.208252e-02
1.594113e-02
8.089780e-03
-3.664725e-03
8.692449e-03
3.085345e-02
-2.327584e-03
-1.150519e-02
7.255788e-03
2.383072e-02
-1.110881e-02
-6.110324e-03
8.457562e-03
-5.077663e-02
-3.145361e-02
-2.768607e-02
-3.020677e-02
-5.636864e-02
-1.382711e-02
-1.645344e-02
-4.859300e-02
-4.586413e-02
3.038063e-02
-1.570217e-02
-3.080267e-02
-2.401398e-02
-1.770274e-02
-1.153368e-03
-3.181945e-02
-1.814377e-02
-2.485747e-02
7.607201e-03
-2.309339e-02
-2.327102e-02
-5.566765e-03
2.479383e-02
3.267491e-03
1.227498e-02
1.126623e-03
4.308899e-02
1.618138e-05
3.212364e-02
1.095665e-02
-1.747414e-02
-4.256492e-02
-4.366953e-02
5.271980e-04
-3.509038e-03
-4.736884e-02
1.118574e-02
2.584501e-05
-1.352372e-02
-3.305259e-02
-3.064734e-03
5.088130e-02
-6.601570e-03
-2.909288e-02
-6.711812e-03
5.864768e-03
-2.870749e-02
-5.292718e-02
4.235414e-02
1.320239e-02
-8.675603e-04
2.148426e-02
1.587943e-02
2.677971e-02
4.705788e-04
4.209443e-02
3.133260e-02
-3.612785e-03
1.083034e-02
-2.368891e-03
-6.826930e-03
3.393041e-02
-6.489014e-03
-1.442038e-02
1.455540e-02
-5.102089e-03
-4.531574e-02
-7.110747e-03
5.934720e-03
-4.149453e-02
-1.215509e-02
4.086092e-03
-1.888960e-02
-1.591919e-02
-3.643651e-03
1.287810e-02
-9.460253e-03
-4.079932e-04
1.061730e-02
9.948852e-04
-3.229890e-02
1.507656e-02
1.843526e-02
2.099412e-02
1.075490e-02
-9.102877e-03
-1.595885e-02
2.374733e-02
-1.662309e-02
1.543651e-02
-2.411939e-03
2.715898e-02
2.681073e-02
-1.427030e-02
-3.575479e-02
-2.205843e-02
2.696898e-03
6.144063e-03
-2.425613e-02
-6.077418e-04
1.232785e-02
-1.254687e-02
2.643574e-03
-2.171601e-02
7.450991e-03
6.630525e-03
5.720590e-03
1.257389e-03
2.482210e-02
1.581012e-02
-2.505989e-03
2.881493e-02
1.887450e-02
-2.464436e-02
2.701146e-02
3.449249e-02
3.353901e-02
-9.349831e-03
1.436296e-02
2.138893e-02
1.765927e-02
3.285390e-02
1.825385e-02
-5.503638e-03
1.295225e-02
2.170396e-02
-1.019479e-02
-1.256062e-02
9.182516e-03
9.790348e-03
2.172780e-02
-1.150687e-02
1.899540e-02
3.996146e-02
2.695207e-02
2.619625e-03
4.272905e-02
2.541933e-02
-3.778609e-02
-3.253021e-02
-2.437964e-02
8.981666e-03
-3.721459e-02
-2.860099e-02
1.304074e-02
-3.968390e-03
-1.684988e-03
-1.611376e-02
-1.721629e-02
-2.762674e-03
-2.113921e-02
6.574676e-03
6.321983e-04
7.983541e-03
-2.147140e-03
1.762887e-02
4.522340e-03
6.923699e-03
2.277229e-02
8.326364e-03
2.223339e-02
3.242581e-02
5.206247e-03
2.206026e-02
2.195400e-02
6.968341e-04
-2.920827e-02
-3.087006e-02
-1.980951e-02
-3.211141e-02
-1.104106e-02
1.739131e-03
-2.544497e-02
-2.462901e-02
-7.559432e-03
-7.612070e-03
-2.807452e-02
-1.897592e-02
-3.335269e-02
-3.019428e-02
1.422417e-02
1.104159e-02
-2.596022e-02
2.301402e-03
2.815222e-02
1.401735e-02
3.027626e-02
2.468075e-02
-3.277867e-03
1.342447e-02
2.800818e-02
4.963572e-03
1.926347e-05
-9.248715e-03
4.503277e-03
-1.758541e-02
-1.636135e-02
4.325650e-03
-4.729575e-03
6.114935e-03
2.251601e-02
5.799379e-03
-2.129231e-03
-3.192942e-03
8.039930e-03
-1.326877e-03
1.608374e-02
-1.181682e-02
-3.914132e-03
1.994172e-02
3.160686e-02
1.440794e-02
-1.139254e-02
2.586393e-02
1.596090e-02
-3.189644e-02
9.059492e-03
1.692411e-02
-3.171292e-02
3.438756e-02
3.439787e-03
3.206469e-03
-4.020548e-03
-1.003379e-02
6.958733e-04
1.610367e-02
1.484236e-02
1.678033e-02
-1.455463e-02
-1.357433e-02
-1.446436e-02
-3.674871e-02
-3.734946e-02
-4.878014e-02
-3.196364e-02
-3.280439e-02
-6.533284e-02
1.467313e-02
4.175913e-04
-1.268770e-02
2.538705e-02
1.013303e-02
2.791169e-03
3.839797e-02
2.438968e-02
3.089222e-02
1.998736e-02
1.189441e-02
4.855927e-03
-9.038542e-03
1.688401e-02
2.559647e-03
-3.278483e-03
-7.128531e-03
1.537734e-02
-1.357913e-02
1.618582e-02
1.006364e-02
2.059464e-02
2.527867e-02
1.263095e-02
2.857914e-02
1.810272e-02
1.738614e-02
1.253918e-02
1.957364e-02
2.174161e-02
1.274797e-02
-1.495961e-02
2.201205e-02
-4.911392e-03
1.046215e-02
5.842744e-03
6.425905e-03
6.492021e-03
-1.423206e-02
2.752444e-03
1.268076e-02
-6.473419e-03
-3.154897e-02
-1.894313e-02
-4.792647e-03
-4.681442e-03
-1.568751e-02
-4.897849e-02
5.090230e-03
-2.260974e-02
-2.656467e-02
2.184401e-02
2.412872e-02
-1.098088e-02
-1.645976e-03
-7.305965e-03
-4.831128e-02
-2.061044e-03
2.765272e-03
-1.813397e-03
2.677619e-02
3.058003e-02
4.975172e-03
3.266932e-02
-3.193287e-03
-3.532659e-02
1.893762e-02
-1.075092e-02
-1.615978e-02
1.048410e-02
-8.734865e-03
-1.497393e-02
-1.171033e-02
5.115132e-03
3.413666e-03
-1.821256e-02
-2.199228e-02
-6.304083e-03
-3.517165e-03
2.846193e-03
-1.545012e-03
2.140898e-02
5.403105e-02
4.888288e-02
2.324246e-02
2.074533e-02
5.042818e-02
3.329393e-02
4.244216e-02
1.299413e-02
-1.426862e-02
3.031917e-02
-8.316095e-03
-1.309715e-02
1.325137e-02
-1.917308e-02
1.004201e-02
-1.245924e-02
2.186224e-02
1.674970e-02
8.143834e-04
1.305336e-02
-1.502607e-02
1.230283e-02
-1.488633e-03
6.705184e-03
-2.772690e-02
-2.212570e-03
-8.653763e-03
-2.388689e-02
-3.413288e-03
-2.535137e-03
1.695868e-02
-4.390731e-02
-1.740776e-02
-3.496719e-02
-5.058404e-02
-2.373096e-02
-1.253738e-02
-1.709405e-02
-4.286661e-02
-4.369621e-02
-7.332334e-03
-4.921873e-02
-3.501488e-02
-3.491960e-02
4.209244e-03
9.419152e-03
-2.171640e-02
3.638747e-04
-1.273325e-02
-4.065399e-03
5.201199e-03
-2.411110e-02
-2.713297e-02
5.282069e-03
1.235538e-03
-9.517378e-03
2.022667e-02
-9.230549e-04
-1.644987e-02
-1.981322e-03
2.260195e-03
-1.057159e-02
2.292566e-02
2.736294e-02
-9.538219e-04
2.835611e-02
6.446350e-03
1.741055e-02
2.694612e-02
2.404551e-02
-3.989029e-03
1.005482e-02
1.170967e-02
1.604331e-04
-1.267400e-02
4.218472e-02
1.172697e-02
2.973149e-02
5.612004e-03
3.074761e-02
3.376969e-04
1.710583e-02
1.368513e-02
5.495845e-03
2.085629e-02
3.156998e-02
3.693607e-02
4.915709e-02
4.247456e-02
9.797073e-03
1.661799e-02
-3.018930e-03
2.747650e-02
4.899170e-03
-4.934506e-03
2.057504e-02
-2.925244e-02
-5.173129e-02
2.510154e-02
2.406715e-03
-1.567306e-03
3.034196e-02
6.352297e-03
1.150915e-02
3.655015e-02
3.538575e-02
3.679839e-02
1.114568e-03
1.100462e-02
1.035037e-02
-6.120320e-04
1.087305e-02
-2.915454e-02
2.995711e-03
-1.691614e-02
-2.215112e-02
-3.222764e-03
2.717513e-02
3.081594e-02
3.521565e-02
1.054689e-02
-2.849371e-03
3.053934e-02
-2.851792e-02
-3.896959e-02
-1.706461e-02
-2.203614e-02
-8.580718e-03
-3.171299e-02
-2.041187e-02
-4.114896e-02
-3.350197e-02
-7.119205e-02
-4.842429e-02
-2.237553e-03
-1.318075e-02
-3.686868e-02
1.905795e-02
-1.458668e-02
-2.613537e-02
-3.871326e-03
-2.182407e-02
-1.270264e-02
-1.544072e-02
-1.055400e-02
1.353883e-02
-2.045318e-02
-1.500354e-02
3.866068e-02
2.131341e-02
1.062767e-02
2.485161e-02
3.522120e-02
3.324240e-02
3.181940e-02
9.287316e-03
2.771872e-02
2.455958e-02
1.449770e-02
1.496900e-02
1.303228e-02
-1.878532e-02
2.280389e-02
-4.781166e-03
-1.395749e-02
-4.015678e-03
8.110004e-03
-1.541009e-03
2.102870e-02
5.513891e-02
-2.177675e-03
-1.350299e-02
1.791763e-02
2.199815e-02
-1.222956e-02
3.264032e-03
2.908247e-02
2.281676e-02
3.887893e-02
1.134158e-02
-1.345052e-02
-1.025651e-02
3.267903e-02
2.469072e-02
1.722862e-02
1.705335e-02
2.308303e-02
2.059804e-02
3.830425e-02
5.685315e-03
-2.173175e-02
1.333798e-02
-1.789713e-02
-3.614028e-04
-1.624587e-03
-7.422633e-03
-1.109482e-02
-5.060766e-03
-4.307195e-02
-4.934872e-02
-2.175678e-03
-1.482404e-02
-1.640129e-02
1.169781e-02
1.562675e-02
4.867888e-03
1.164987e-02
7.162276e-03
1.653790e-02
7.142714e-03
1.654795e-02
4.120052e-03
1.016531e-02
5.663486e-03
1.552872e-02
4.137200e-02
5.154523e-02
4.941434e-02
-2.130175e-03
1.316132e-02
2.709224e-02
-2.794762e-02
-3.402745e-02
-1.989087e-02
-3.675696e-02
-4.836721e-02
-3.272082e-02
-1.337005e-02
-4.804740e-02
2.344750e-03
-1.031752e-02
-2.697078e-02
7.623127e-03
-1.497383e-03
-5.666592e-03
-4.769788e-02
-8.231944e-03
2.395678e-03
-2.654658e-02
1.027403e-02
2.895512e-02
5.910208e-03
1.077477e-02
-6.150382e-03
-1.219951e-02
1.280866e-02
1.115698e-02
-1.770320e-02
-1.124416e-02
-2.148624e-02
1.430514e-02
-5.126589e-03
-1.231519e-02
-3.797120e-04
-1.684042e-02
-1.453003e-02
-1.874598e-02
-4.121944e-02
-1.552590e-02
-3.793864e-02
5.638031e-03
-8.132291e-03
-2.870411e-02
2.287284e-02
-1.453017e-03
-6.495429e-03
2.406252e-03
1.839241e-02
-1.219479e-02
-4.720041e-03
-2.623051e-02
-3.132282e-02
1.842359e-02
1.752242e-03
-3.789589e-02
9.351344e-03
-4.383396e-03
-3.198326e-02
4.338564e-02
3.375943e-02
1.244271e-02
3.541621e-02
3.813096e-02
1.384311e-02
8.601408e-03
8.867949e-03
-3.348819e-03
1.826164e-02
-4.645653e-02
-1.442813e-02
-3.887793e-02
-4.269622e-02
-6.077469e-02
-2.826145e-02
-4.865999e-02
-2.608822e-02
3.455525e-03
-1.212792e-02
-1.110816e-03
2.045221e-02
1.147060e-03
2.291607e-02
1.919205e-02
3.259140e-02
1.157928e-02
-4.323792e-03
4.027434e-03
-4.515640e-05
8.132390e-03
1.662654e-02
1.700052e-02
-5.980043e-03
2.522700e-02
5.308874e-03
5.303109e-02
4.548892e-02
-9.835375e-03
5.655574e-02
3.611345e-02
-4.390627e-03
3.432449e-02
-6.442565e-03
-2.569242e-02
2.620142e-02
-1.393118e-02
-2.763259e-02
-2.417199e-03
-2.741340e-02
-1.743226e-02
1.370285e-03
-2.176878e-02
-2.902741e-02
-1.594077e-02
-2.927479e-02
-5.661430e-03
-1.245151e-02
-1.039731e-02
-3.252596e-02
-2.816411e-02
-1.810531e-02
-7.026075e-03
1.194515e-03
-4.243668e-03
8.205782e-03
1.637461e-02
-1.726721e-02
-3.333523e-03
-4.338585e-03
-2.124113e-02
-4.607292e-03
2.455547e-02
9.036607e-03
-1.431018e-02
1.296088e-02
-1.895151e-02
-9.522462e-03
6.672800e-03
2.766092e-03
-4.945419e-03
-2.228749e-02
8.844997e-03
4.399633e-02
-2.650931e-02
2.655410e-02
3.673537e-02
-2.851556e-02
-8.951575e-03
1.027869e-02
-2.927617e-02
-2.499878e-02
-1.300452e-02
-2.237694e-02
-1.562496e-02
4.626701e-03
-1.342054e-02
-1.138932e-02
1.325289e-02
7.465729e-03
1.422813e-02
-2.396880e-02
1.265546e-02
1.745612e-02
-1.935602e-02
-1.904578e-02
-3.878111e-03
1.306384e-02
-1.608743e-02
8.309354e-03
-3.692630e-02
-3.657106e-02
-1.616359e-02
-1.413750e-02
-4.623219e-02
-2.920447e-02
-1.374889e-02
1.957871e-02
1.350349e-02
2.313030e-02
4.219602e-02
6.473935e-02
5.723734e-02
1.581820e-02
4.253881e-02
-1.276878e-02
-3.886034e-02
3.979269e-04
2.740474e-02
-5.599564e-03
2.249316e-02
3.320714e-02
2.244600e-02
1.479556e-02
3.946184e-02
9.042175e-03
-6.292155e-03
2.979835e-02
-2.118423e-02
5.235697e-04
4.770246e-02
-7.985904e-03
2.443648e-02
2.918448e-03
-1.468055e-02
6.037950e-03
1.453850e-02
1.555399e-02
5.400025e-02
5.431415e-02
-3.308397e-03
7.751955e-03
3.082631e-02
-2.317635e-02
-2.844142e-02
1.154225e-02
-1.456641e-02
1.262158e-02
3.129823e-02
3.426012e-03
2.465021e-02
1.400536e-02
-8.339468e-03
-1.132797e-03
-1.265092e-03
-2.203758e-02
-3.299295e-03
1.819899e-02
-6.173740e-03
3.267910e-04
1.055383e-02
1.576722e-02
1.151990e-02
8.770840e-03
-8.576937e-03
1.167569e-02
-7.553603e-03
4.376093e-03
1.204901e-02
3.042634e-02
-8.341698e-03
-6.907762e-03
-2.312619e-02
-2.036744e-02
-2.002663e-02
-6.135726e-03
-2.290120e-02
-2.422054e-02
-3.138836e-02
-2.588635e-02
-1.705552e-02
2.213841e-04
-1.761540e-02
1.073403e-02
1.885162e-02
-1.012152e-02
6.382799e-03
2.510248e-03
-1.604272e-02
-1.297410e-02
-1.686690e-02
4.322211e-03
-8.806321e-03
7.878376e-03
4.119322e-02
1.115408e-02
1.142344e-02
-9.334313e-03
-2.254507e-02
-1.285396e-02
7.396981e-03
-6.440910e-03
-3.622016e-02
1.551974e-03
8.085112e-03
-2.620252e-02
-5.635894e-03
2.083601e-03
1.892464e-02
-1.455370e-03
1.148974e-02
1.379210e-02
1.613080e-02
3.199879e-02
9.567887e-04
1.208352e-03
4.745616e-03
4.941030e-03
3.877838e-03
2.490188e-03
-8.002711e-03
-2.282812e-03
-1.692585e-02
-1.891050e-02
-1.672679e-02
-1.756626e-02
-2.340748e-02
-5.981446e-03
-7.494937e-03
-4.989993e-03
2.884409e-03
1.165341e-02
1.224626e-02
2.507148e-02
6.609685e-03
3.282931e-02
-2.188179e-02
1.600552e-02
2.394361e-02
-2.872887e-02
1.929849e-02
1.121834e-02
-4.052807e-02
-1.525490e-02
1.509100e-02
-4.748042e-02
-2.402916e-02
2.658021e-02
-8.664274e-03
1.183415e-02
1.112846e-02
-8.104344e-03
-2.378255e-02
-1.719395e-03
-2.349354e-02
-1.280907e-02
-2.528614e-02
1.481606e-02
-5.421710e-03
-8.885310e-03
1.268033e-02
2.000129e-03
-5.339508e-03
-2.026277e-03
-1.164487e-02
1.320341e-02
-9.895370e-03
-2.075603e-02
-1.951517e-02
1.990200e-03
9.881255e-03
1.719043e-02
-2.577573e-03
1.692325e-03
3.654050e-02
1.935585e-03
1.618917e-02
3.198360e-02
1.831197e-02
8.947637e-03
3.521806e-02
3.707815e-02
5.306676e-02
3.238439e-02
-1.486900e-02
3.202847e-02
-3.946538e-03
-1.268516e-02
1.889921e-02
2.672736e-02
1.187837e-03
1.887709e-02
-2.207962e-04
-7.442936e-04
8.542161e-03
-8.417548e-03
-2.245601e-02
5.132313e-03
-8.964634e-03
-1.322073e-02
-2.359823e-02
-1.773091e-02
1.077490e-03
-3.137351e-02
-3.218744e-02
-1.381284e-02
-3.817132e-03
-1.179929e-02
-2.672375e-03
8.121661e-03
5.091820e-04
-3.450516e-03
1.547515e-02
1.321452e-02
-1.270801e-02
2.095750e-03
-3.195544e-02
3.630103e-03
-1.518986e-02
-3.222194e-03
9.115507e-03
-1.397435e-02
1.155946e-02
-1.924907e-02
-2.363588e-02
-3.399337e-02
9.914386e-03
-1.623825e-03
-2.399699e-02
1.175162e-02
-1.579736e-02
-3.391337e-02
3.113098e-02
4.610688e-04
-5.800118e-02
2.952469e-02
1.366432e-04
-1.878562e-02
1.746925e-02
-1.429366e-02
-1.484980e-02
-1.228157e-02
-1.004436e-03
3.647233e-03
-1.939084e-02
1.440447e-02
5.374391e-03
4.077329e-03
-1.773524e-02
2.552344e-02
-1.891194e-02
-2.338640e-02
-5.111086e-02
-3.340899e-02
-1.028016e-02
-1.646042e-02
-2.283845e-02
-3.693210e-03
4.290740e-03
1.321419e-02
2.504747e-02
-2.218996e-03
1.837644e-02
-2.602105e-03
-2.272680e-03
8.882976e-03
-1.505673e-02
-2.661734e-02
-3.950468e-02
4.073405e-03
3.419209e-02
-2.976097e-02
-2.114494e-02
4.141223e-02
-3.751817e-02
3.431383e-02
4.712575e-02
-1.672000e-02
-5.321055e-02
-1.241577e-02
-1.125554e-02
-9.912934e-03
-6.704399e-02
-5.017409e-02
-7.565977e-03
-3.848245e-02
2.262603e-02
-4.086990e-04
-1.437219e-02
3.206865e-02
6.190439e-03
2.389991e-03
2.833522e-02
1.843304e-02
-2.008686e-02
-1.116002e-02
3.244032e-02
3.016235e-02
1.921451e-03
-4.267541e-03
2.013105e-03
-7.322310e-03
9.401762e-03
7.199809e-04
8.225018e-04
1.473975e-02
6.391407e-03
3.511172e-02
3.035031e-02
-1.362151e-02
2.304776e-02
-1.961749e-03
-3.189810e-03
-4.189377e-02
-1.549912e-02
-1.789931e-02
-2.286651e-03
4.066451e-02
1.217360e-02
3.311951e-03
3.176711e-02
3.617031e-02
1.330517e-03
2.996442e-02
3.864709e-02
-1.321884e-02
2.009520e-02
1.834397e-02
3.063174e-03
-1.306299e-02
4.008485e-04
-1.848554e-02
4.069134e-02
3.999712e-02
-1.860458e-02
4.933246e-02
4.002156e-02
-3.392623e-02
-4.326150e-03
4.613427e-04
-3.364522e-02
-1.407960e-02
1.154676e-02
7.089363e-03
-1.543188e-02
-5.737190e-03
4.786409e-02
2.233856e-02
7.686658e-03
2.457436e-02
8.662410e-03
-9.623707e-03
1.358281e-02
-1.342090e-03
-4.830144e-03
7.793808e-03
-1.509346e-02
-1.732375e-02
1.488867e-02
1.414600e-03
-2.951380e-02
3.061962e-02
-2.543446e-04
-1.233643e-02
2.473589e-03
-2.497291e-03
1.291680e-02
4.331726e-03
5.493820e-02
4.469635e-02
2.090138e-02
5.272026e-02
3.556712e-02
1.589222e-02
2.839030e-03
-3.299072e-02
-1.762937e-03
5.672673e-03
2.818012e-02
2.691277e-04
5.693993e-03
1.487181e-02
-2.320821e-02
-2.049765e-03
1.020401e-02
1.476318e-03
-1.470886e-02
8.520708e-04
-9.067343e-03
-1.280141e-02
4.092783e-03
-1.895865e-02
-1.459475e-02
-9.880406e-03
-1.217050e-02
-2.028700e-02
4.039551e-03
4.893211e-03
-1.021989e-02
3.186490e-02
-1.548663e-02
2.995123e-02
-4.208345e-03
-1.116674e-02
1.733333e-02
1.698720e-02
-7.865976e-03
2.154864e-02
1.261825e-02
6.664179e-03
1.110458e-02
1.474071e-02
1.432249e-02
-1.539333e-02
-3.218170e-02
3.508116e-02
2.079685e-02
7.784526e-03
4.393907e-03
4.272869e-02
4.187796e-02
1.985718e-02
6.051248e-03
-2.930602e-03
1.563816e-02
1.248745e-02
3.465123e-02
2.363795e-02
2.309592e-02
-9.084123e-05
9.001181e-03
-2.634150e-02
1.400873e-02
-8.906604e-04
-2.490431e-02
1.807508e-03
1.840378e-03
-1.450727e-02
-2.389598e-03
9.469335e-03
1.085265e-02
3.798528e-02
-2.140960e-02
6.197404e-03
4.840186e-02
4.272531e-03
-2.512990e-02
2.564716e-03
-1.967968e-02
-6.005291e-03
1.718868e-02
-2.762192e-02
-1.654375e-02
-6.611020e-03
-2.569046e-03
-1.859015e-02
1.187851e-02
-4.051293e-02
1.184881e-03
5.246162e-03
-6.707260e-03
-1.844877e-02
1.831060e-02
1.599802e-02
-4.143341e-03
-1.781588e-02
5.016637e-02
1.133070e-02
-6.472311e-03
4.996279e-02
1.747912e-02
2.311776e-02
3.267858e-02
4.580138e-02
2.186238e-02
-6.533691e-03
-1.185021e-02
-1.136315e-03
-5.780617e-03
-8.270196e-03
2.785711e-02
8.562456e-03
2.423696e-03
2.342662e-02
2.362930e-02
2.432082e-02
8.423834e-03
5.142564e-03
3.106510e-02
2.190761e-02
4.334087e-03
2.938252e-03
1.466608e-02
-1.320062e-02
-3.414633e-03
4.752754e-04
1.822653e-02
1.661412e-03
6.234091e-03
-2.322740e-03
4.014105e-03
2.693535e-03
7.649841e-03
-4.848870e-02
-4.913247e-02
1.646827e-03
-3.228338e-02
-2.593524e-02
6.732584e-03
2.691690e-03
-3.006093e-02
8.752241e-04
-3.549348e-03
3.455522e-03
1.472306e-02
1.646819e-02
8.254291e-03
3.603557e-02
3.317124e-02
8.062063e-03
-1.638769e-02
-1.116229e-03
-4.856213e-03
1.422118e-03
5.553043e-03
1.735072e-02
4.367602e-03
2.251608e-02
1.633901e-02
-5.249937e-03
2.122194e-02
6.407472e-03
4.111130e-02
4.021923e-02
1.320579e-02
3.227270e-02
3.485391e-02
9.818932e-03
-3.193094e-02
-4.208089e-02
-4.249614e-03
-6.102138e-03
-1.791721e-02
8.721313e-03
-1.814429e-02
-3.600638e-03
2.843087e-03
7.742448e-04
1.771450e-02
1.672308e-02
-1.830306e-02
1.191044e-02
2.981170e-02
-2.051656e-02
-3.185971e-02
-1.692089e-02
3.822939e-02
1.383529e-02
2.003719e-02
4.026329e-02
4.427324e-02
2.797755e-02
-2.359945e-04
3.843064e-02
3.526093e-02
-6.531696e-03
3.865804e-03
-2.778701e-02
-1.067558e-02
1.628710e-02
7.127129e-03
6.618401e-03
1.020628e-02
1.495741e-02
-1.114395e-02
1.416167e-02
3.482681e-02
-3.108913e-03
1.623227e-02
6.837604e-02
1.208445e-02
3.047592e-02
1.922224e-02
2.190593e-02
2.530638e-02
2.085736e-02
3.542250e-02
4.666972e-03
2.107358e-02
1.092521e-02
6.143751e-03
-4.287059e-03
1.185941e-02
-3.803990e-02
-1.186216e-02
-1.088745e-02
-1.180405e-02
-2.480974e-02
-4.525253e-02
-4.749077e-02
9.430042e-03
-1.692432e-02
8.352346e-03
8.405764e-03
9.229907e-03
1.074614e-02
2.949169e-02
-1.360133e-02
9.733676e-03
5.749887e-03
-9.476340e-03
-1.109259e-02
7.868947e-03
-1.868222e-02
5.092004e-03
1.966326e-02
-1.414100e-02
-8.203636e-03
9.218941e-03
4.500658e-02
3.991088e-02
2.619655e-03
4.697692e-02
-3.424637e-03
2.115941e-02
1.678134e-02
2.394768e-02
2.610181e-02
-3.089623e-02
-5.782162e-03
-2.164224e-02
-2.179140e-02
-1.212252e-02
-1.626301e-02
-9.432358e-03
-4.439422e-03
-2.321295e-02
-4.532311e-02
-3.167794e-02
2.078366e-04
1.495868e-02
3.267301e-03
2.340871e-02
2.477106e-02
3.760555e-02
4.629030e-02
2.769488e-02
1.954823e-02
-1.319397e-02
6.210029e-03
9.242201e-03
-2.398415e-02
-2.630650e-02
-5.149169e-02
-2.528773e-02
-9.178749e-03
2.857595e-03
7.349220e-03
8.516250e-03
-1.051567e-02
-3.585030e-04
1.046827e-02
2.497631e-02
1.859410e-02
-2.943216e-02
-1.938886e-02
-2.157619e-02
-3.460002e-02
-3.943590e-02
-3.547896e-02
-2.805898e-02
-1.645214e-02
-7.699982e-04
-1.051824e-02
-6.417410e-03
6.494652e-03
-3.847264e-02
6.608628e-04
2.889773e-03
3.602420e-03
-1.482560e-02
-5.167547e-02
3.501265e-02
5.260643e-03
-4.626174e-03
-3.049076e-03
2.928803e-02
8.413457e-04
-2.039657e-02
-1.004144e-02
-1.178105e-02
-1.828379e-02
-2.153394e-03
1.580155e-02
-2.320955e-02
-1.594588e-02
1.411599e-03
-1.328781e-02
-1.174925e-02
-3.202680e-02
-6.485668e-03
1.867934e-04
3.496087e-02
1.913982e-02
-2.349907e-03
1.893844e-02
4.323911e-02
4.488444e-02
-2.233543e-02
