8.363639e-03
-1.454177e-02
-8.044944e-03
-1.211580e-03
1.851428e-03
-2.216465e-02
3.338331e-03
-7.628469e-03
-1.408908e-02
1.710627e-02
1.609961e-02
1.540012e-05
-4.904046e-03
-1.078350e-02
-1.195787e-02
-5.028286e-03
-2.182381e-02
-8.432261e-03
-5.420749e-03
6.639285e-03
1.388153e-02
1.052734e-02
9.472018e-03
2.086077e-03
4.921948e-03
-8.740103e-03
-1.564656e-02
1.027262e-02
2.040403e-02
1.450203e-02
1.152175e-02
1.027254e-04
1.950189e-02
4.298845e-03
-2.423437e-02
-1.056435e-02
-6.382555e-03
-1.525603e-02
-3.530106e-03
-1.164949e-02
-1.814962e-02
-3.636110e-03
-1.439399e-02
8.081055e-03
3.813172e-03
-6.721769e-03
2.261106e-03
5.750441e-03
1.316634e-02
2.428300e-03
1.708673e-02
1.953286e-02
3.769125e-02
3.373331e-02
3.964680e-03
-2.463094e-02
-1.820470e-02
-1.186331e-02
-1.260601e-02
-9.882472e-03
2.211586e-02
6.041712e-03
6.764853e-03
-9.365782e-03
-3.824898e-03
1.999589e-02
3.178635e-03
1.137993e-02
2.743466e-03
1.529923e-02
1.081262e-02
1.349062e-02
2.321628e-02
4.005198e-03
1.158519e-02
1.779803e-02
-1.132416e-02
-8.832809e-03
8.997835e-03
5.047104e-03
-1.481046e-03
-1.023983e-02
-1.395273e-02
-2.431298e-02
-3.094549e-02
-1.857898e-03
-1.346460e-02
-1.819394e-03
-1.737956e-02
-1.680851e-02
-1.431234e-02
-2.324362e-02
-2.777733e-02
-4.323310e-02
-1.041670e-02
-1.445303e-02
-3.627322e-02
-1.457132e-02
-1.338761e-02
2.576974e-02
3.191335e-02
1.291268e-02
2.851756e-02
2.280084e-02
7.751417e-03
2.898623e-02
2.691632e-02
1.357482e-02
-2.079815e-02
-8.649578e-03
-1.903140e-02
-4.326441e-03
-8.384245e-03
-2.002328e-02
1.549837e-04
-4.851752e-03
-3.479704e-03
1.978611e-02
2.243573e-02
1.421646e-02
-4.203851e-04
1.818090e-02
1.276874e-03
7.296630e-03
1.190640e-03
3.130873e-03
6.877098e-03
6.596938e-03
2.706329e-02
-5.692202e-03
-1.368545e-02
6.742887e-03
-1.349684e-02
1.686615e-02
9.269234e-04
-1.183853e-02
-7.749458e-03
4.340291e-03
-1.295503e-02
2.602340e-03
2.428597e-02
-2.481242e-02
-3.269597e-03
1.365912e-02
-2.517143e-03
-1.521177e-02
-1.113743e-02
5.630919e-03
4.254199e-03
5.425401e-03
-5.125518e-03
3.668258e-03
1.605561e-02
-3.863886e-03
-9.659539e-03
-1.867110e-02
6.584960e-03
-1.070503e-02
-2.012572e-02
-1.486416e-02
-1.546802e-02
-3.356928e-02
-2.845067e-03
-1.302714e-02
-3.534796e-02
8.219597e-03
7.356131e-04
-1.030099e-02
-1.303890e-02
-1.014772e-02
-6.140232e-03
1.360017e-02
1.973960e-02
-1.377584e-02
1.415718e-03
2.016247e-03
3.154289e-03
-1.037230e-02
-1.000405e-02
-1.648578e-02
-8.558371e-03
-5.375690e-03
2.482091e-02
-2.522015e-03
-2.227251e-02
2.869842e-02
1.803099e-02
-6.734033e-04
-6.400955e-03
-3.085401e-03
7.634496e-04
5.514656e-03
-5.144420e-03
9.616164e-03
2.352623e-02
1.224123e-03
1.242330e-02
1.826052e-02
2.248847e-02
1.493605e-02
5.752656e-03
2.537011e-02
1.541430e-02
-2.207866e-04
9.051545e-03
-1.372269e-02
-2.315424e-02
-3.736956e-02
-3.330461e-02
3.713184e-03
-8.977802e-03
-1.231003e-02
-7.628107e-03
-2.309832e-03
-4.863500e-03
8.121810e-03
1.513734e-03
1.704271e-02
3.104199e-03
3.323158e-02
2.497545e-02
-1.131982e-02
2.165362e-02
2.622107e-02
-2.093603e-03
1.059503e-02
2.601680e-02
-2.984602e-04
1.287575e-02
6.392865e-03
1.296860e-02
1.955926e-02
1.425027e-02
-8.057986e-03
-1.109003e-02
-1.006609e-02
-9.772073e-03
-3.333157e-03
-4.057871e-03
-1.641330e-03
-5.871945e-03
5.337039e-03
-4.750129e-03
-3.600883e-02
-4.216449e-02
-9.346640e-03
-2.661507e-02
-3.491807e-02
-2.261412e-02
-2.677979e-02
-9.615083e-03
-5.631725e-03
1.682420e-02
1.982265e-02
2.796684e-02
1.072260e-02
3.007874e-02
2.989102e-02
2.531550e-02
1.970122e-02
3.578375e-02
8.079455e-03
-1.163768e-02
-1.819374e-02
8.505397e-03
1.711423e-03
-1.782793e-02
-4.720407e-03
-7.833927e-03
1.899528e-03
1.403588e-02
-8.050720e-04
-1.017239e-02
-2.038276e-02
4.927537e-03
-5.557875e-03
1.461897e-02
1.166660e-02
-4.651682e-03
-2.224104e-02
1.996591e-02
-8.242060e-04
-1.358532e-03
2.122370e-02
-7.667059e-03
6.760922e-03
1.518934e-03
-1.335401e-02
1.390373e-02
7.896922e-03
2.184821e-03
2.859002e-02
1.495739e-02
-5.850957e-03
4.999282e-03
1.566302e-02
8.118141e-03
9.411568e-03
1.977908e-02
4.033921e-02
1.307950e-02
3.876137e-02
1.703161e-02
2.256340e-02
9.346352e-03
1.412408e-02
1.413106e-02
2.054927e-02
3.494514e-03
2.387557e-02
1.870624e-02
2.159956e-02
2.094106e-02
1.736546e-02
1.917613e-02
-4.084429e-03
1.291056e-02
1.842059e-02
-1.219304e-03
7.311164e-03
2.317173e-03
5.789468e-04
-1.685754e-02
1.626399e-03
1.174446e-02
8.706572e-03
5.584356e-03
6.413896e-03
-2.198591e-02
-1.860507e-02
-9.461466e-03
-1.394979e-02
-1.263738e-02
-3.201376e-03
-4.938519e-03
-1.324721e-02
-1.626121e-02
-1.316643e-02
-2.186159e-02
1.578836e-02
8.961613e-03
2.208742e-02
1.044032e-02
-1.187473e-02
8.366494e-04
3.363803e-03
-1.764815e-02
-1.763444e-02
-4.357740e-03
-2.233685e-02
-1.442056e-02
2.451370e-02
3.002133e-02
1.040367e-02
9.682124e-03
4.109729e-03
1.301509e-02
1.942505e-02
-1.245336e-03
-7.087124e-03
1.831079e-02
1.907987e-02
-2.396417e-03
2.109359e-02
3.041336e-02
-6.984540e-03
1.012645e-02
-7.121096e-03
-2.380148e-02
-4.659414e-03
-7.880735e-03
2.387510e-03
1.572970e-02
1.477963e-02
1.162618e-02
-2.067236e-03
3.746876e-03
2.471128e-02
-6.026598e-03
-1.510369e-03
-8.976631e-03
2.001412e-03
-7.950132e-03
-6.312059e-03
1.548622e-02
2.420382e-02
6.129513e-04
-2.577257e-02
-1.411300e-02
-2.577584e-03
-6.844125e-03
-7.380170e-03
-1.094058e-02
-1.635963e-02
-1.545843e-02
-1.542922e-02
6.389974e-04
2.229427e-02
2.114847e-02
-9.242883e-03
9.541900e-03
2.368206e-02
-7.004307e-03
4.652832e-03
1.507461e-02
-7.199308e-03
1.630529e-02
4.164359e-03
1.644335e-02
7.673376e-03
7.742753e-03
-2.079214e-02
-2.726238e-03
9.407779e-03
1.129836e-03
-9.584997e-03
-7.305180e-03
1.606048e-02
7.680178e-03
-6.733357e-03
2.004067e-02
2.281169e-02
-5.249146e-03
-6.140016e-03
7.941304e-03
-5.439901e-03
-2.926567e-02
-9.068865e-03
1.151114e-02
-1.245359e-02
-1.474062e-03
1.848389e-02
3.909646e-02
2.363202e-02
6.871363e-03
3.608537e-02
-7.914981e-04
-9.560358e-03
-3.292063e-02
-5.272276e-03
-2.253174e-02
-1.249829e-02
1.029465e-03
-3.794694e-03
9.287206e-03
1.328846e-03
1.249143e-03
1.520886e-02
1.116501e-02
1.881022e-02
4.390114e-03
-2.215673e-03
-4.425643e-03
3.724993e-03
9.359773e-04
2.137854e-02
1.952295e-02
2.591474e-02
2.301915e-02
2.449027e-02
3.081934e-02
-4.490826e-03
2.043726e-02
1.634279e-02
8.697153e-03
9.359207e-03
1.839531e-02
7.071036e-03
-7.181591e-03
6.114306e-03
3.616104e-02
-2.169677e-02
1.762542e-02
1.889367e-02
-1.565586e-02
2.365732e-03
1.328145e-02
3.135161e-03
7.970170e-03
2.923809e-02
-2.271221e-04
-1.418146e-02
2.441624e-02
-5.916209e-03
1.741869e-02
2.552784e-02
8.297463e-03
9.250387e-03
-6.763134e-03
1.380187e-03
2.163221e-03
-1.255056e-02
-3.649606e-02
-1.369352e-02
-1.457959e-02
-1.031361e-02
-2.004066e-02
-2.117875e-02
5.924958e-03
-9.523479e-03
-2.402213e-02
1.377819e-02
-9.237467e-04
-2.223951e-02
-2.849998e-02
-2.721460e-02
-2.589064e-02
-6.570097e-03
3.206940e-03
-3.251008e-03
5.889525e-03
-6.907334e-03
-4.702331e-03
4.595440e-03
2.745909e-02
3.396509e-02
2.271583e-02
8.447109e-03
9.545661e-03
9.518546e-03
5.673049e-03
-7.648516e-03
-3.832949e-03
-8.999926e-03
-1.049130e-02
-9.482461e-03
-1.409328e-02
-2.261247e-02
-8.500249e-03
-7.319502e-03
-2.294839e-02
8.577542e-03
-8.927443e-03
-9.574708e-03
7.353225e-03
-1.205398e-02
2.334735e-02
-1.256720e-02
-1.581084e-02
1.869910e-03
2.031954e-03
1.173594e-02
-2.007059e-03
1.351911e-03
1.514281e-02
2.416863e-02
1.444374e-02
-4.821955e-03
1.443763e-03
-5.315817e-03
2.382997e-02
8.481235e-03
-2.946695e-03
9.573482e-03
4.147605e-03
9.878693e-03
2.470276e-03
2.290769e-02
-1.203550e-03
6.422855e-03
1.550237e-02
1.476965e-02
3.724081e-02
2.968845e-02
1.186882e-02
1.039080e-02
1.770242e-03
6.410358e-03
-1.254191e-02
-1.313393e-02
-7.630974e-04
-1.425235e-03
-3.543165e-02
-2.204017e-02
-3.257639e-02
-3.987633e-02
-1.844689e-02
1.307723e-02
-1.090373e-03
-1.181327e-02
-5.384250e-03
-4.535689e-03
3.929287e-03
-1.526559e-02
8.422487e-03
-1.275327e-02
-1.797503e-02
-7.321074e-04
-1.167807e-02
-1.083527e-02
5.841263e-03
-1.098434e-02
-1.830444e-02
-9.047853e-03
-1.030146e-02
-8.434272e-03
-1.692316e-02
-2.917553e-03
7.331321e-03
-1.432962e-02
-2.952120e-03
-1.429163e-03
-5.259015e-03
-2.818858e-02
-3.664454e-04
4.683942e-03
-1.567832e-02
-1.728028e-02
-1.002681e-03
-2.530103e-02
-6.354948e-03
-1.693320e-02
-1.387690e-02
9.901270e-03
-9.511019e-03
6.525717e-03
-8.139757e-03
-9.380809e-03
1.133362e-02
6.425277e-03
5.805125e-03
-4.025674e-04
-1.581114e-02
-2.148776e-02
2.140185e-03
-2.069268e-02
-2.103092e-02
8.784390e-03
1.032851e-02
-2.218161e-02
2.371957e-03
1.206269e-02
-1.186972e-02
1.079985e-02
3.824260e-05
-2.033556e-03
1.878133e-02
2.671414e-02
-5.302578e-03
1.850239e-03
-2.540504e-02
-2.348911e-02
1.004469e-02
-3.142981e-03
-3.235950e-02
-7.519057e-03
-2.970366e-02
-6.748152e-03
1.598990e-02
-3.511736e-03
5.755462e-03
1.364082e-02
1.161984e-02
9.730821e-03
1.685438e-02
2.212696e-02
-1.633587e-02
1.096351e-02
1.591530e-02
-7.166159e-03
4.981555e-03
-1.103548e-02
5.881742e-03
1.550386e-02
-4.183436e-03
-9.333350e-03
2.093615e-02
-1.764731e-02
-2.473691e-02
-8.400370e-03
-1.278554e-02
-3.025751e-02
-1.979203e-02
-3.825265e-02
-4.034624e-02
-7.138102e-03
8.902688e-04
-1.466347e-02
-1.515565e-02
3.538454e-03
3.086333e-03
-8.348520e-03
1.758658e-04
-4.623824e-03
7.184756e-03
2.480415e-02
4.635363e-02
1.774941e-02
3.648238e-02
4.211323e-02
3.858561e-02
4.977110e-02
1.958680e-02
-1.666398e-02
8.913996e-04
8.107145e-03
1.434845e-03
-1.010311e-02
-7.199894e-03
-2.062381e-02
-1.999869e-02
-9.155629e-03
-1.200415e-02
1.214439e-02
3.435330e-03
6.102426e-03
-5.054273e-03
3.927283e-03
1.482061e-02
1.215457e-02
1.603927e-02
2.699449e-02
1.607948e-02
7.368022e-03
1.365929e-02
7.308166e-03
-7.799465e-04
2.413775e-03
-5.369551e-03
6.498156e-03
-6.619036e-03
-6.470172e-03
-1.337408e-02
-6.357686e-03
-1.533651e-02
1.057722e-02
-1.165869e-02
-1.336384e-02
-6.843304e-03
4.049766e-03
-1.334267e-03
6.700977e-04
-6.869489e-03
1.759676e-02
-5.854593e-03
7.139918e-03
7.077103e-03
5.034068e-03
8.953253e-04
-1.425750e-02
-3.763245e-02
4.233329e-03
1.355627e-02
-3.246847e-02
7.422418e-04
-2.059474e-02
-4.095775e-02
1.097575e-02
-5.995207e-03
5.356894e-04
7.164122e-03
2.866965e-02
6.492538e-03
1.272113e-02
1.942896e-03
1.299560e-02
-6.367309e-03
-2.702641e-03
-5.880373e-03
-2.586716e-02
-4.944552e-03
-8.587965e-03
2.072294e-03
-8.812033e-03
-1.346858e-02
2.067210e-02
1.432166e-02
9.574161e-04
1.444583e-02
4.747071e-03
1.275363e-02
-6.504662e-03
1.122142e-03
-3.493933e-03
7.611351e-03
2.109960e-02
1.442770e-02
7.791265e-04
1.022587e-02
1.426551e-02
1.492688e-02
-2.926334e-04
1.372232e-02
-1.531272e-02
-5.790586e-03
-1.500082e-02
1.178814e-03
-5.635322e-03
-2.192938e-02
-2.713297e-04
-4.741067e-03
-1.965022e-02
-2.000130e-03
-7.351395e-04
-1.166835e-02
3.267785e-02
-9.715909e-03
1.860156e-02
5.015806e-03
4.009896e-03
1.326650e-02
6.200123e-03
1.257962e-02
-6.025137e-03
1.297494e-02
6.376629e-03
-2.346406e-03
1.083829e-02
2.582462e-03
-3.655237e-03
1.332308e-02
3.347063e-03
1.514516e-02
1.639325e-02
2.156550e-02
4.245998e-03
1.387612e-02
8.507933e-03
9.416931e-03
6.167279e-03
-3.370794e-02
-2.691879e-02
-1.249443e-02
-8.320103e-03
-4.134265e-02
4.939263e-03
-6.620226e-03
-1.995571e-02
-6.426501e-03
-6.590629e-03
-1.732625e-02
-2.644938e-03
-2.231344e-02
-9.779900e-03
7.962103e-03
-9.907635e-03
-1.790470e-02
5.100828e-03
1.838675e-02
-1.084315e-02
1.248368e-02
-2.215929e-02
5.149155e-03
-1.271749e-02
1.164576e-04
7.364667e-03
-9.555590e-03
-1.603270e-02
1.031768e-02
-1.453719e-02
-4.740031e-03
-1.746047e-02
8.687680e-03
-8.584525e-03
-1.066205e-02
-3.162923e-02
-2.956133e-02
-4.229698e-02
-1.133469e-02
-5.637341e-03
-8.364509e-03
-2.403453e-03
2.987748e-03
-5.956265e-03
2.771729e-02
1.402669e-02
-1.085536e-02
1.275452e-02
1.510267e-02
-6.643254e-03
1.398492e-02
1.209103e-03
7.422558e-03
5.993032e-03
1.681439e-02
7.953784e-03
-1.750123e-02
-1.702006e-02
1.606867e-02
-1.293474e-02
-1.323915e-02
8.173478e-03
1.270350e-02
-5.086795e-03
8.081706e-04
3.242765e-03
8.807465e-03
-1.406540e-02
2.122931e-02
-7.204364e-03
-4.550690e-02
-1.148975e-02
-1.990991e-02
-1.209473e-02
-1.727076e-02
6.140758e-03
1.882874e-03
2.328462e-02
1.209619e-02
7.167681e-03
3.184610e-02
2.033486e-02
3.549053e-03
1.765729e-02
1.470573e-02
3.057456e-02
7.413910e-03
2.172602e-02
8.251755e-03
-3.560442e-03
-3.402240e-02
-1.801068e-02
-2.702848e-02
-3.027807e-02
1.267680e-02
-2.240765e-02
-1.722481e-02
7.478191e-04
7.015571e-03
-1.938439e-02
-6.270938e-03
2.133423e-02
-7.628951e-03
-5.252765e-03
1.129214e-02
5.145974e-03
1.634178e-02
-6.190921e-03
-1.658530e-02
-2.191786e-03
1.957563e-03
5.666953e-03
1.358561e-02
1.155408e-02
-3.884443e-03
8.383218e-03
-1.094954e-02
-1.284940e-02
1.274373e-03
-2.398488e-02
1.478490e-02
1.642264e-02
-8.410973e-03
1.687089e-03
5.118827e-03
-2.035658e-04
2.017836e-03
1.980253e-02
9.076031e-03
1.445667e-02
1.930878e-02
3.902174e-02
3.596593e-03
9.687165e-04
-8.675130e-04
1.025080e-03
-6.069780e-03
1.274258e-02
7.281328e-03
-9.045692e-03
1.237608e-02
1.643624e-02
1.343461e-02
-1.562856e-02
-4.193723e-03
4.484988e-03
-5.112612e-03
5.070778e-04
1.309361e-02
-1.923915e-02
-1.447602e-04
-4.931404e-03
3.643478e-03
1.403153e-02
1.337603e-02
-1.594903e-02
-6.852894e-03
1.913163e-02
-3.697737e-02
-2.650520e-02
2.442656e-02
-4.642391e-03
-1.131892e-02
4.520747e-02
-6.237990e-03
-1.083157e-02
3.532701e-02
-1.200186e-02
-9.296467e-03
-4.759242e-03
-9.891554e-03
-1.145910e-02
-1.307495e-02
-1.779498e-02
-1.773882e-02
1.244436e-03
-1.876291e-02
-7.089508e-03
-1.536629e-02
8.374433e-03
8.086716e-03
1.445048e-02
2.501918e-02
-3.255343e-03
5.454134e-03
1.229568e-02
-1.394518e-02
-9.464203e-03
1.448760e-02
9.186451e-03
3.003734e-03
2.509389e-02
1.677152e-02
3.490465e-03
-1.305988e-02
2.120127e-02
2.719754e-02
-9.542817e-03
-7.065611e-03
6.188603e-03
-7.428972e-03
-5.667828e-04
-5.620257e-03
-1.431723e-02
-1.310529e-03
-7.161075e-03
-9.060361e-03
1.210880e-02
1.234390e-02
6.766747e-03
4.093364e-02
3.051577e-02
2.816772e-02
4.899335e-02
2.208314e-02
1.038567e-02
1.401658e-02
3.888701e-02
1.114693e-02
1.896550e-02
1.015943e-02
-6.103551e-03
5.729383e-03
1.277843e-02
-8.466649e-03
2.991445e-03
7.466391e-03
5.217903e-03
1.972941e-03
5.230757e-03
1.625836e-03
-1.127217e-02
-1.082978e-02
-1.379320e-02
-3.067997e-02
1.124220e-02
-1.805979e-02
-7.052940e-03
-1.082788e-02
-2.331346e-02
-2.638460e-02
-1.572780e-02
1.847206e-02
7.760155e-03
-9.111346e-03
1.488135e-02
-9.577233e-03
-1.539564e-02
-1.882986e-02
-1.968736e-02
-9.236391e-04
3.928794e-03
-1.053559e-02
3.742988e-03
9.683225e-03
-1.605597e-02
5.406760e-03
2.434621e-02
5.170833e-03
1.145623e-02
-3.287659e-02
-3.868438e-02
-1.374160e-02
-2.507322e-02
-1.972117e-03
-2.276995e-03
2.330732e-02
7.150180e-03
2.422149e-02
1.584322e-02
1.492080e-02
-6.157931e-03
2.100533e-02
1.904100e-02
-1.700891e-02
2.626213e-02
4.564940e-03
-1.398359e-02
-2.521438e-02
1.834067e-02
1.532278e-02
-7.851494e-03
2.193645e-02
1.894146e-02
-1.600190e-02
-5.186222e-03
-2.759888e-04
-4.216835e-03
-1.501992e-02
-4.513734e-03
3.597241e-03
-2.023318e-02
1.177292e-02
-1.174829e-04
-2.232744e-02
-4.135550e-04
-4.178224e-02
-5.205534e-02
-9.700350e-03
-4.525924e-02
-2.796411e-02
9.996325e-04
-3.374897e-02
-3.333840e-02
-4.505299e-03
-2.495556e-04
1.697428e-02
4.487206e-03
5.840531e-03
-3.282813e-03
1.576203e-02
-7.819234e-03
6.007852e-03
1.739959e-02
1.720763e-02
2.135121e-03
-3.640904e-02
9.574777e-03
4.948168e-03
5.736975e-03
2.733188e-02
4.734524e-02
1.469145e-02
-1.794270e-02
-2.773273e-03
-5.688215e-03
9.881240e-03
2.040043e-03
6.815836e-03
2.131503e-02
-1.028593e-02
2.682813e-02
-1.509904e-02
-1.373704e-02
-1.853981e-02
-1.785394e-02
-9.588308e-03
-7.008824e-04
9.730298e-03
-1.520471e-02
6.090606e-03
1.494243e-02
2.580306e-02
1.531720e-02
2.005926e-02
1.945552e-02
1.670170e-02
3.553456e-02
1.508542e-02
9.565345e-03
9.295818e-03
1.134909e-03
-2.181245e-03
-1.280551e-02
-3.801737e-03
-6.756916e-03
-9.021069e-03
-1.166173e-02
3.401276e-03
-1.342512e-02
2.661700e-02
2.305541e-02
-9.033811e-03
2.694807e-02
3.240694e-02
6.007002e-03
-2.860648e-03
8.735867e-03
-1.474917e-02
-1.317461e-02
-2.871279e-02
4.043931e-03
2.151413e-02
1.210518e-03
2.523768e-02
2.821954e-02
1.341299e-02
3.348377e-03
1.839701e-02
1.347368e-02
1.116984e-02
1.172463e-02
1.292786e-02
-3.088567e-03
1.286260e-02
-7.007301e-03
-4.640748e-03
-9.116817e-03
2.126741e-02
-1.068538e-02
-2.759079e-03
1.387232e-02
7.406954e-03
-2.113682e-03
2.890197e-02
-9.538316e-03
-1.072469e-02
7.209767e-03
-1.119448e-03
-5.476072e-03
-1.977725e-03
-1.305941e-03
1.484447e-02
-9.190863e-03
-1.389388e-02
-9.410110e-03
-9.607428e-04
-8.089402e-03
-1.548173e-02
-2.843044e-02
-1.325814e-02
7.255551e-03
-2.925318e-02
-1.140188e-02
-4.649517e-03
-1.247058e-02
1.261433e-02
5.294987e-03
-1.397976e-02
4.326346e-03
-5.129753e-03
-1.767742e-02
-1.039077e-02
-1.090504e-02
1.284708e-02
2.744989e-02
3.223654e-02
-4.708368e-03
1.091424e-03
2.982938e-02
-1.347155e-03
3.251062e-02
4.542307e-02
-1.136761e-02
3.267886e-02
2.270000e-02
1.344578e-02
-4.116967e-03
-1.233962e-03
1.131822e-02
-1.598191e-02
-4.230105e-03
-6.515708e-03
-4.675142e-03
3.071925e-03
1.746920e-04
-1.078248e-02
-1.443493e-03
6.627160e-04
-1.444595e-02
-4.661107e-03
-2.850202e-02
-5.638226e-03
-7.533955e-04
2.080865e-03
1.759256e-02
4.358433e-02
2.106663e-02
2.254899e-03
2.544435e-02
2.228103e-03
1.582360e-02
1.944803e-02
9.127064e-03
1.874076e-02
1.495691e-02
1.794973e-02
-6.727983e-03
3.430183e-03
7.800594e-03
-9.917107e-03
-7.316443e-03
1.900650e-03
-1.120930e-02
-2.407470e-02
2.298616e-03
-3.557152e-03
-3.972452e-04
1.758795e-02
2.196316e-02
1.303609e-02
1.169174e-02
2.458097e-02
2.724777e-02
5.900138e-03
4.700203e-03
8.026825e-03
1.686098e-03
-1.565892e-03
1.650082e-02
5.823996e-03
-7.298613e-03
1.861815e-02
1.461762e-02
-9.803913e-03
1.019658e-02
1.658376e-02
2.346906e-02
1.172778e-02
1.043646e-02
1.223213e-02
3.715196e-03
1.610952e-02
-9.974284e-03
-4.840928e-03
9.764174e-03
7.633639e-03
1.339044e-03
-1.895081e-03
9.858296e-03
-3.908198e-03
1.099779e-02
4.319062e-03
1.362575e-02
-1.006467e-02
-5.610763e-03
-5.291631e-03
-6.914740e-03
7.077168e-03
-2.800361e-03
-1.199385e-02
-1.969342e-02
-4.670779e-03
1.501419e-02
-9.720098e-03
1.788698e-03
1.106053e-02
6.399516e-03
1.523282e-02
2.245503e-03
3.542060e-03
-1.145504e-02
-3.468469e-02
1.671018e-02
-1.718285e-03
-1.881270e-02
1.524102e-02
1.086320e-02
-1.467099e-02
2.831393e-02
4.131970e-02
3.101430e-02
4.120914e-02
1.732457e-02
7.806608e-03
2.268698e-02
2.585469e-02
-7.254543e-03
-7.357264e-03
2.341866e-03
1.780280e-02
-1.617551e-02
-2.227056e-03
4.483739e-03
-3.498709e-02
8.102336e-04
1.924733e-04
-2.882761e-02
-1.338453e-02
1.271547e-02
-3.628760e-02
-4.089573e-03
1.216195e-02
-1.768643e-02
-4.831709e-03
-5.398042e-03
7.147672e-03
9.831342e-03
1.357211e-02
8.627899e-04
-7.984334e-03
5.839630e-03
-1.921191e-02
-9.277744e-03
4.302439e-03
9.374842e-03
-7.884733e-03
-2.372562e-02
-1.564329e-02
-4.804447e-02
-3.442191e-02
1.773218e-03
-2.112392e-02
-6.996061e-02
-3.091708e-03
1.341312e-02
1.309186e-02
-1.422734e-02
1.504225e-02
-1.369482e-03
-4.332582e-03
-5.940856e-03
5.266323e-04
-3.785418e-03
7.671221e-03
2.921072e-02
-1.609699e-02
-6.099506e-03
1.077066e-02
-9.480380e-03
-9.821943e-03
1.933534e-02
1.080464e-02
4.747364e-04
-4.711652e-03
-3.229898e-03
1.538669e-03
-1.605735e-02
-1.205780e-02
-1.869566e-02
-1.606067e-02
6.036521e-03
-1.635131e-02
3.963815e-03
9.330889e-03
-1.914384e-02
-1.746612e-03
-3.647440e-03
9.993116e-03
3.948023e-03
-2.168814e-02
-1.894085e-03
1.473635e-02
7.539495e-03
9.754405e-03
8.300237e-03
3.185916e-03
-1.421156e-02
1.186939e-02
-7.663389e-03
3.410608e-03
-4.197252e-03
-1.523869e-02
-1.944296e-02
3.794772e-03
-2.362873e-02
-1.593585e-02
3.958421e-03
2.952391e-03
-2.139776e-03
2.071727e-02
8.349472e-03
-8.508006e-03
6.005960e-03
1.233307e-02
8.260164e-03
9.317189e-04
1.539712e-02
-8.268213e-03
-2.708493e-03
2.057685e-02
-1.202678e-02
-1.195590e-02
1.667913e-02
2.065646e-02
-2.442563e-02
-7.726522e-03
-9.703950e-04
-8.507330e-03
-2.820139e-02
-1.568543e-02
-7.990306e-03
-2.261440e-02
-2.590260e-02
-3.875251e-02
9.773308e-03
2.888355e-02
3.461286e-02
3.192366e-03
-3.335533e-03
2.531494e-02
-3.576350e-02
-1.017607e-02
-2.226947e-02
-1.561579e-02
8.149021e-04
3.071376e-02
-9.519594e-03
-1.267580e-02
2.041153e-04
-2.065368e-02
-8.055485e-03
-6.495080e-03
1.860377e-02
9.706686e-04
-1.853184e-02
2.151758e-02
-4.905378e-03
-1.951605e-02
1.216118e-03
7.704183e-03
-8.914101e-03
-1.112843e-02
-2.033071e-02
-5.570617e-03
-1.968656e-03
-7.437984e-04
-8.046096e-03
1.610799e-02
3.701460e-03
-2.161300e-03
-6.048106e-03
-3.499637e-03
1.461376e-02
-6.451078e-03
-8.024205e-03
-9.052570e-03
2.221265e-02
1.091039e-02
-2.493735e-04
1.172766e-02
2.651176e-02
2.188861e-02
1.361729e-02
2.365575e-02
1.513618e-02
1.032651e-02
3.655491e-03
7.281757e-03
1.596164e-02
2.478448e-03
1.796266e-02
1.829349e-02
-2.418307e-02
1.287494e-03
-1.523416e-02
-6.561759e-03
-2.799694e-03
-2.459986e-03
2.396014e-03
-7.546183e-03
1.442505e-03
-1.190697e-02
1.301955e-02
-1.516423e-02
1.748683e-02
2.630580e-02
-3.795485e-03
-3.339810e-02
-5.501802e-03
-2.629561e-02
-1.192234e-02
-1.021941e-02
-1.411679e-02
-4.495400e-03
6.562260e-03
-1.489752e-02
-1.657128e-02
4.601494e-03
4.129422e-04
4.972536e-04
4.971088e-03
2.610381e-02
5.013252e-03
1.081811e-02
-3.257483e-02
-4.011737e-02
-3.058984e-02
-1.566911e-02
-4.379675e-03
3.369560e-03
-2.496843e-03
3.313072e-03
1.975038e-02
1.653404e-02
7.151628e-03
1.632400e-02
1.789858e-02
2.847899e-02
1.433784e-02
-1.340495e-04
2.541090e-02
1.560047e-02
-1.737949e-02
-1.194908e-02
1.567375e-02
-3.380857e-02
9.439798e-03
4.415150e-03
-3.297157e-02
-1.814712e-02
1.283703e-02
-7.878391e-03
-4.500985e-04
-7.818822e-04
-1.560862e-02
7.704730e-03
1.729838e-02
-2.872644e-03
8.933010e-03
2.798996e-02
2.106210e-02
1.249842e-02
-1.699132e-02
1.417245e-02
1.819049e-02
-7.706132e-03
1.116016e-02
-1.633469e-03
5.127800e-03
-1.840110e-02
-1.556237e-03
7.567320e-03
-8.664993e-03
-5.059408e-03
-2.230592e-04
-7.026794e-04
-5.139250e-03
-8.339791e-04
-1.034106e-03
-2.948622e-02
-3.533264e-02
6.230164e-03
-1.389885e-03
1.664038e-04
2.544241e-02
3.591446e-02
2.265254e-02
5.213989e-03
-8.567014e-03
-5.221222e-03
2.742334e-03
-1.626177e-02
-2.275830e-02
-1.740348e-02
-1.415747e-02
2.072119e-03
1.618039e-02
2.007208e-04
8.393690e-03
1.105740e-03
8.780406e-03
-1.366828e-02
1.695300e-02
3.927732e-03
-1.577118e-02
4.538050e-03
-1.769183e-02
-1.832641e-02
-6.219282e-03
-2.418921e-02
-3.089259e-02
7.778819e-03
-2.081089e-02
-1.924551e-02
-9.348271e-03
1.726925e-02
-6.622552e-03
6.099021e-03
2.530968e-03
1.103751e-02
1.111284e-02
2.948908e-03
1.684226e-02
-1.987927e-02
-1.564647e-03
8.620013e-03
3.911293e-03
-2.735737e-03
2.391239e-03
1.025474e-02
1.362953e-02
8.464971e-04
-2.388127e-04
1.934782e-02
-3.512006e-03
1.926159e-02
7.037704e-03
-1.626883e-03
-5.161116e-04
3.549881e-03
-6.778459e-03
2.632116e-02
3.111616e-02
1.088751e-02
5.793729e-03
2.355497e-04
-4.221410e-03
1.309741e-02
2.175066e-02
1.000057e-02
-1.121425e-02
2.255473e-02
7.820562e-03
-2.849904e-02
-1.330472e-02
6.192010e-03
1.434028e-02
1.479953e-02
6.066941e-03
-3.076262e-03
6.276031e-03
-2.447942e-02
-1.330422e-02
-2.796888e-02
-1.540043e-02
-4.880417e-03
-6.460943e-03
-5.064107e-03
-8.681530e-03
1.321725e-02
2.213848e-03
-2.446001e-02
-8.113783e-03
-1.081791e-02
-3.078083e-02
-3.458829e-03
-5.139760e-04
-1.914999e-02
-2.714477e-02
-3.380299e-02
-1.343890e-02
-3.014146e-02
-2.399499e-02
9.505193e-03
-1.273777e-02
-1.712846e-02
1.736199e-02
2.168292e-02
2.406282e-03
1.542294e-02
1.637268e-02
-1.522874e-02
2.009047e-02
7.621035e-06
-1.579672e-03
4.188266e-04
-4.376026e-03
-1.941312e-02
-8.007034e-03
-1.430414e-02
-2.235147e-02
6.175694e-03
-5.710057e-03
-1.882449e-02
-2.598445e-02
-2.238934e-02
-9.701858e-03
-2.368900e-02
-5.049609e-03
1.214042e-02
-9.259990e-04
-6.913410e-03
4.286713e-03
-4.691866e-04
-2.397464e-02
-6.974810e-03
-1.264294e-02
-1.884615e-02
-4.864181e-03
-1.619945e-02
-1.171920e-02
-6.909988e-03
4.740478e-03
2.035832e-02
-4.243815e-03
4.172270e-03
2.543465e-03
3.572555e-04
-1.639448e-02
-1.194419e-02
1.669493e-02
9.622544e-03
1.444862e-02
1.445263e-02
2.574052e-02
7.910522e-03
1.651549e-02
3.742341e-02
1.954388e-02
9.134476e-03
-1.451109e-02
-6.065374e-03
1.135705e-02
-3.044420e-02
-4.515848e-03
3.218535e-02
-1.810083e-02
-9.918219e-03
4.899942e-03
6.540350e-03
2.235453e-02
3.367135e-02
4.573344e-03
7.614903e-03
2.332127e-02
-7.852112e-03
-3.145679e-02
-1.773250e-02
2.247595e-02
-3.019785e-03
5.688875e-03
-1.051300e-02
4.926628e-03
7.145692e-03
-1.470576e-02
-1.875732e-03
8.660887e-03
1.430947e-02
7.078988e-03
1.436473e-02
4.000227e-03
9.075117e-04
1.494392e-02
-6.794864e-03
1.692381e-02
2.214694e-02
-1.507559e-02
-3.332235e-03
-1.246965e-03
-7.348363e-03
9.355888e-04
1.585851e-02
-2.889476e-03
2.701044e-02
3.073710e-02
1.143474e-02
9.955548e-03
1.154634e-02
1.541947e-02
8.982000e-03
-6.585642e-03
-5.514044e-03
-2.833682e-03
-1.135182e-02
-4.010134e-02
-5.699363e-02
-3.667641e-02
-1.906199e-02
-2.625153e-02
-2.226140e-02
-1.308774e-02
-1.650643e-02
7.648413e-03
-9.450464e-03
6.518158e-03
-1.109996e-02
-3.154021e-03
-1.247419e-02
-7.566056e-03
-1.732771e-02
-1.294698e-02
-1.550836e-02
9.631490e-03
-3.448069e-03
1.861536e-02
2.320642e-02
2.365463e-02
3.171495e-02
1.697662e-02
1.900537e-02
1.841638e-02
1.590604e-03
-1.391903e-02
1.769020e-02
-1.093818e-02
1.761746e-03
-6.326966e-03
-5.395603e-03
1.890739e-02
-1.107415e-02
-5.155116e-03
6.133231e-03
3.707302e-04
-1.036839e-02
1.020949e-02
3.641397e-03
-9.968255e-03
9.034712e-03
3.860380e-03
1.014177e-02
8.476220e-03
9.259753e-03
-1.931995e-04
-6.175245e-03
1.542747e-02
-9.047200e-03
4.630016e-03
2.359940e-02
-4.971702e-03
-4.267220e-03
6.738619e-03
-5.129930e-03
1.901232e-02
2.359178e-02
5.910565e-04
1.229187e-02
4.048324e-02
-1.272464e-02
-7.280729e-03
-2.504265e-02
-1.947983e-02
-1.219925e-02
-3.812776e-02
-1.092986e-02
-2.250235e-02
-2.293129e-02
-4.418802e-03
-1.723923e-03
-5.768980e-03
3.816939e-03
1.317084e-02
-7.352703e-03
3.834921e-02
2.147168e-02
-3.349526e-04
-4.475971e-03
-1.054350e-02
-1.833688e-02
-3.941542e-04
-1.473616e-02
-4.662415e-03
2.513301e-03
-4.820458e-03
-1.278046e-02
8.758090e-03
-6.480664e-03
-8.041906e-03
8.541707e-03
-8.283142e-03
2.689410e-03
1.254266e-02
-4.858906e-03
-3.594466e-03
-1.345154e-02
-9.494484e-03
9.864789e-03
1.271757e-02
1.246499e-02
3.513987e-02
1.154536e-02
5.936135e-03
4.606532e-02
1.711409e-02
2.627134e-02
2.985918e-02
1.327406e-03
1.405146e-02
2.655468e-02
-5.187052e-03
3.061776e-03
-5.919714e-03
4.728612e-03
1.933312e-02
-7.581296e-03
1.988374e-02
3.180253e-02
2.343435e-02
-7.955316e-03
9.918987e-03
3.712385e-02
1.106873e-02
5.025487e-03
-1.574143e-03
2.425068e-02
1.192586e-02
1.064762e-02
1.238587e-02
2.033780e-02
8.792644e-03
-5.586457e-03
2.456444e-02
1.604925e-02
-1.265852e-02
3.659633e-03
7.855993e-03
3.522176e-03
-1.037223e-03
2.852771e-03
9.382877e-03
1.106586e-02
-5.440430e-03
3.757063e-02
3.924601e-02
9.537090e-04
2.716370e-02
9.655270e-03
3.179959e-02
5.628472e-06
1.858268e-02
5.009046e-03
-6.056987e-03
-1.577848e-02
-2.958561e-03
-3.692044e-05
3.502785e-03
1.154682e-02
1.628621e-03
-1.361789e-03
-7.786201e-04
2.827540e-02
-2.179389e-03
1.484448e-02
2.899470e-02
3.146287e-02
1.811099e-02
-1.944249e-02
-1.275926e-02
1.334634e-02
-8.729814e-03
-1.303184e-02
-1.448624e-02
-4.655289e-04
-3.147754e-02
-1.009267e-02
8.356844e-03
-1.423251e-03
-1.498150e-02
-4.429434e-03
1.788487e-03
-1.513943e-02
-3.964627e-04
-3.813500e-03
-4.982323e-03
2.222627e-02
1.012409e-02
-1.585868e-03
2.795783e-02
2.099357e-02
1.477000e-02
1.312713e-04
-4.743561e-03
1.558593e-02
-1.033162e-02
-9.154487e-03
-1.648737e-02
-1.291512e-02
5.151143e-03
-3.278912e-03
-1.968848e-03
-1.422951e-02
-1.193862e-02
-1.604820e-02
-1.948237e-02
-1.585673e-02
3.142750e-03
7.239826e-03
2.333728e-02
7.879240e-03
2.196782e-02
8.350222e-03
-1.100286e-02
-1.564261e-02
2.648262e-03
-1.191605e-02
2.303256e-02
1.375597e-02
-9.747397e-03
9.295369e-03
3.756870e-02
5.708375e-03
2.927365e-02
2.424807e-02
7.740153e-03
-1.914287e-02
6.511846e-03
-1.708695e-02
-1.742695e-02
-2.110545e-03
2.509314e-02
7.340195e-03
8.405332e-03
3.291200e-02
3.987959e-02
3.641695e-02
1.595665e-02
4.045173e-02
3.146893e-02
-4.557631e-03
-1.011400e-02
-1.226381e-02
1.995681e-02
-1.119239e-02
-2.212353e-02
2.702712e-02
-1.116778e-02
-4.896765e-03
-1.621886e-02
-1.655541e-02
-7.153979e-03
1.359989e-02
3.274795e-03
1.417461e-02
8.821542e-03
1.385690e-02
2.896480e-02
2.216479e-02
6.989770e-03
5.822944e-04
3.651557e-03
-7.008409e-03
7.539086e-04
1.831134e-02
2.227391e-02
5.949921e-03
4.122677e-02
4.595640e-02
3.714310e-02
4.044811e-02
1.984820e-02
4.094594e-02
1.791115e-02
1.832480e-02
1.723918e-02
9.925005e-03
-2.134861e-02
-1.569910e-02
2.315264e-03
-5.919398e-03
1.460398e-02
8.068935e-03
2.269059e-02
1.331745e-02
1.329640e-02
-6.508639e-03
-2.114590e-02
1.996458e-03
-1.193937e-03
-1.023203e-02
-5.216083e-03
-7.344569e-03
-5.905584e-03
-1.647802e-02
-1.226306e-02
-9.062875e-03
-1.043202e-02
-2.142965e-02
6.436711e-03
-1.271510e-02
-1.432799e-02
1.920304e-03
-6.457739e-03
-7.809662e-03
-1.055397e-02
-3.534287e-02
-2.947746e-02
-1.749799e-02
-4.098042e-02
-5.434268e-02
-3.358024e-02
-2.861911e-02
-2.297854e-02
-1.309448e-02
-2.339530e-02
-2.868810e-02
-2.477936e-02
-5.646104e-03
-1.194888e-02
-1.426657e-02
-5.549845e-03
7.245467e-03
-7.501743e-03
-1.420248e-02
-9.369587e-03
-3.606164e-02
-2.276477e-02
-4.133180e-02
-7.811146e-03
1.793936e-02
1.321901e-02
1.936751e-02
6.984370e-03
9.595330e-03
1.746098e-02
9.359956e-03
1.274492e-02
1.647804e-02
-1.123516e-02
-3.144621e-02
-3.420324e-02
-1.611928e-02
-2.005934e-02
1.249247e-02
2.105213e-02
2.796630e-02
3.393255e-02
8.828568e-03
7.500850e-03
-2.028380e-02
1.908913e-02
-3.148863e-03
8.134008e-03
8.685046e-03
1.658636e-02
3.533181e-03
-1.239871e-02
6.785834e-03
-3.934589e-03
-1.556837e-02
4.597303e-04
-7.553676e-04
-5.268422e-03
-6.443749e-03
-1.125142e-02
-7.924076e-03
2.135871e-02
2.531563e-02
3.747629e-03
1.981133e-02
1.915840e-02
-4.769655e-03
1.570091e-03
-9.800221e-03
2.665308e-02
1.314794e-02
-1.464007e-02
2.467994e-02
2.619201e-02
9.103576e-04
2.134789e-02
2.252499e-02
1.541835e-02
-1.471790e-02
-1.427966e-02
-2.315531e-03
-1.491380e-02
9.304904e-03
1.872507e-02
2.200228e-02
8.544190e-03
1.318972e-03
-1.739687e-02
3.064294e-04
-2.875531e-04
-3.911219e-03
-1.368938e-02
-4.785687e-03
-7.362311e-03
2.328855e-03
-3.862178e-05
-9.635153e-03
-2.708892e-03
1.066065e-02
-4.274382e-04
6.232150e-03
1.352664e-02
-1.225188e-02
7.109111e-04
2.172144e-03
1.302710e-02
3.826165e-03
1.255958e-02
1.194777e-02
1.606197e-02
6.284117e-03
-7.257241e-03
9.560394e-03
2.975217e-03
-1.650799e-02
-1.656483e-02
-1.258377e-02
-1.246648e-02
8.238514e-04
6.193262e-03
-5.267267e-03
-1.990847e-02
-6.437141e-03
6.852596e-04
-4.032540e-03
4.963308e-03
-3.027234e-02
-1.985043e-02
8.012908e-03
-2.529459e-02
-1.075155e-02
8.639721e-03
-1.550957e-02
5.034409e-03
8.882110e-03
-1.623673e-02
-1.269861e-02
1.355783e-02
-2.414685e-02
-1.692798e-02
-1.471521e-03
-2.467283e-03
2.834364e-04
-2.870633e-02
1.511626e-02
-3.254501e-03
-1.746501e-02
8.778811e-04
-1.923883e-02
5.353113e-03
-2.501721e-04
8.374650e-04
-7.417490e-03
9.807042e-04
2.842610e-03
-5.864358e-03
-1.958501e-02
-2.304204e-02
1.062247e-02
-2.622381e-02
8.623924e-03
9.614557e-03
2.008800e-02
1.248122e-02
-1.342859e-03
-1.165660e-02
2.296138e-02
-1.294499e-02
-2.273150e-02
-2.650453e-03
-8.327081e-03
-1.265847e-02
-1.958862e-02
-1.083443e-02
-7.847492e-03
-2.234860e-02
-1.706912e-02
-3.192574e-03
-9.384876e-03
-7.628866e-03
-1.414144e-02
-1.846360e-02
-2.372378e-02
-2.911947e-02
-2.013210e-02
-2.141330e-02
-1.571123e-03
1.005330e-02
-1.031180e-02
2.021916e-03
-2.173042e-03
-8.567056e-03
1.403654e-02
7.417992e-03
-1.524931e-02
-5.745885e-03
2.257447e-02
-1.488960e-02
5.468578e-03
-5.989809e-04
-2.229567e-03
3.486460e-03
-9.835526e-03
-1.395238e-02
8.719344e-03
-5.699903e-03
-1.417179e-02
7.239243e-03
5.976210e-04
1.130996e-02
7.578830e-03
2.267246e-02
1.846638e-02
-1.976046e-02
2.030209e-02
1.616507e-02
1.295321e-02
2.119952e-02
2.695039e-02
8.066514e-03
1.560070e-02
-1.102488e-02
-1.096240e-02
1.160843e-02
3.140618e-03
-4.542918e-03
5.345622e-04
-6.648485e-03
-2.203278e-02
5.628236e-04
-1.784530e-02
1.234363e-02
1.838535e-02
1.686912e-02
-5.698477e-03
1.138844e-02
-7.766076e-03
8.379886e-03
1.216945e-03
8.582560e-03
1.130689e-02
-1.544564e-02
-5.351444e-03
1.344208e-02
-4.895717e-03
6.108211e-03
1.036923e-02
-2.681233e-03
6.657510e-03
-1.895671e-03
2.202945e-03
1.944789e-02
1.860191e-03
-1.307631e-02
7.434808e-04
-1.364855e-02
-1.857093e-03
5.561018e-03
-4.608423e-03
-1.352757e-02
1.152064e-02
-2.332382e-02
-4.742010e-03
-8.603862e-03
-1.818063e-02
-4.655028e-03
2.562742e-02
-1.196746e-02
-1.123008e-02
-3.131391e-02
-6.593429e-03
-3.330870e-02
-2.074849e-02
9.073397e-03
-3.273861e-02
-2.192544e-02
4.035209e-03
-1.249913e-02
-1.540127e-02
7.663503e-03
-4.067561e-03
-7.724791e-03
1.459329e-02
-2.660337e-02
1.081496e-03
9.990700e-03
4.177095e-03
-1.733886e-02
4.131901e-03
-2.869386e-03
-1.418014e-02
-1.161359e-02
-1.093073e-02
-1.582566e-02
5.716699e-03
1.325317e-02
3.397668e-02
9.609134e-03
6.904467e-03
3.580568e-02
-1.088275e-02
-3.151310e-03
4.367706e-02
4.321338e-03
2.203174e-03
-4.357744e-03
-9.223690e-03
2.892748e-03
6.530082e-03
-5.831705e-04
1.512607e-02
2.448987e-02
1.829711e-02
-6.509152e-03
-4.580790e-03
-5.996304e-04
1.293797e-03
-1.593547e-02
-9.935743e-03
-5.699501e-03
-4.142778e-03
-3.123639e-02
-3.925852e-02
-3.284987e-02
-1.794928e-02
-2.491273e-02
-1.923736e-02
1.204435e-03
2.439327e-04
2.437474e-02
-7.848172e-03
-1.376764e-02
-1.615894e-02
-4.871593e-03
-2.699244e-03
-9.743601e-03
2.009857e-02
2.969486e-03
-5.510502e-03
-9.769537e-03
-6.670021e-03
-6.835010e-03
-3.540188e-02
-1.003779e-02
1.091779e-02
-4.885998e-02
-6.312081e-03
4.681784e-03
2.253749e-03
-1.548054e-02
-1.396241e-02
-2.010528e-02
-2.338574e-02
-2.796486e-03
-1.594958e-02
-3.196096e-02
-1.248477e-02
-2.280390e-03
-5.928431e-03
-1.644171e-02
-9.081461e-04
5.230603e-03
-8.723839e-03
1.252221e-02
1.172884e-02
-4.138991e-03
-3.075786e-03
-2.255874e-03
-1.047113e-02
-1.261676e-02
8.385849e-03
-3.369082e-03
-1.324459e-02
-7.342163e-03
1.193336e-02
1.434914e-03
1.185100e-02
-1.526412e-02
-1.256673e-02
6.081874e-03
3.160715e-02
1.241082e-02
8.042064e-03
2.492178e-03
-1.549249e-02
1.618011e-02
1.336975e-02
6.123586e-04
-1.264336e-02
-1.965308e-03
-1.473607e-02
-1.418932e-02
-1.546917e-02
1.510959e-02
-9.857703e-03
-8.827655e-03
1.598271e-03
-1.255960e-02
-2.177000e-02
4.881116e-04
-7.809254e-03
2.706592e-03
5.542259e-03
-2.542729e-02
6.548491e-03
1.430128e-03
-1.464220e-02
-1.587167e-02
-1.535662e-02
-2.097143e-02
-1.431089e-02
-1.324050e-02
-1.361551e-02
1.148030e-02
3.636963e-03
-1.633581e-02
-5.011196e-03
-1.473579e-02
-3.960995e-04
3.693150e-03
-5.225303e-03
-3.832465e-03
1.810808e-04
-2.550631e-03
9.538781e-03
5.637153e-03
-7.403818e-03
1.788268e-02
-1.718114e-03
-5.409998e-04
-1.845822e-02
2.676467e-03
-1.682731e-03
7.208967e-04
1.987778e-03
1.045617e-03
1.478069e-02
-4.616493e-03
3.369888e-02
3.073161e-02
-3.210092e-03
2.595715e-02
1.545556e-02
1.369610e-02
1.338688e-02
1.302445e-02
-5.453086e-03
1.152294e-03
-9.785919e-03
-6.599679e-03
-1.471728e-02
-1.860502e-02
-1.331329e-02
-1.058882e-02
-5.750523e-02
-3.604209e-02
-2.075053e-02
1.686620e-03
-1.808249e-03
-9.244882e-04
6.969492e-03
6.814909e-03
2.509004e-02
2.839694e-02
2.109995e-02
-1.722817e-02
-1.992886e-02
-1.385874e-02
-1.148616e-02
-1.783493e-02
-2.846219e-02
1.241697e-02
-1.953546e-02
-3.809868e-03
7.357568e-03
4.030121e-03
1.525309e-02
2.038816e-02
-1.212352e-02
-8.679570e-03
-2.875600e-03
8.843611e-03
-8.691601e-03
-2.647387e-02
-2.990824e-02
7.066709e-03
2.256874e-03
1.028617e-02
1.580974e-02
1.411405e-02
1.846659e-02
2.671391e-02
-5.401173e-03
7.336062e-03
-2.198517e-04
-1.929366e-02
-4.117288e-03
-2.599016e-03
-3.467601e-03
-2.828170e-02
-1.129893e-02
1.169486e-03
-5.133422e-03
-1.228183e-02
-1.827552e-02
1.096227e-03
-2.296831e-02
2.181731e-04
-1.051223e-02
-3.694100e-03
3.004988e-03
3.153304e-04
4.224400e-03
-1.377366e-02
-8.215128e-03
-2.162514e-02
1.102719e-03
-2.048710e-02
-1.930142e-02
-7.850106e-03
-1.086950e-02
-1.366079e-02
2.990460e-03
-7.523132e-03
-1.335490e-02
-6.634120e-04
-5.738764e-03
-1.277748e-02
-1.611793e-02
-2.552100e-02
-1.786001e-02
3.174389e-02
2.124100e-02
1.561471e-02
4.077437e-03
1.566548e-02
2.234494e-02
-9.132756e-03
6.905056e-03
1.663740e-02
1.886547e-03
1.056335e-02
-3.010900e-04
-2.365622e-04
7.474496e-03
1.980877e-03
6.543648e-03
2.417061e-02
1.673648e-02
7.127848e-03
1.909039e-02
2.735365e-02
-4.577640e-03
-7.022201e-03
3.434160e-03
-1.282004e-02
-8.541160e-03
7.301990e-03
-6.117019e-04
-9.089398e-05
-9.064070e-04
1.613617e-02
-2.804525e-03
-6.673348e-03
-1.152174e-02
-3.877932e-03
-5.102315e-03
1.715587e-02
2.345738e-02
8.987998e-03
9.101974e-03
-6.393784e-03
-5.919382e-03
9.391640e-03
-4.871947e-04
-1.722245e-02
1.891228e-02
9.585688e-03
-2.282523e-02
1.312425e-02
-9.084038e-03
-5.584756e-03
-1.190253e-03
-7.469689e-03
1.628391e-02
-6.111402e-03
5.173412e-03
1.679849e-02
-3.927283e-03
1.680663e-02
3.853436e-03
-2.016750e-02
-4.107101e-04
2.791350e-02
-5.482357e-05
-4.784765e-03
2.347263e-02
4.227384e-03
1.419760e-02
2.805257e-02
1.666486e-02
2.335366e-02
1.274031e-03
3.259275e-03
8.459761e-03
2.029750e-02
2.960033e-02
1.159605e-02
1.262725e-02
5.656286e-03
1.989402e-02
9.660896e-03
1.139393e-02
4.723096e-03
1.782659e-02
1.853963e-02
1.501284e-02
2.322215e-02
-2.386878e-02
-1.399407e-02
7.361794e-03
-2.414035e-02
-2.693981e-02
-1.934180e-02
-1.320682e-02
-7.896144e-03
-8.861580e-03
1.693607e-02
5.515071e-03
8.544485e-03
3.144934e-02
1.625796e-02
2.688460e-02
1.031889e-02
2.883156e-02
3.356747e-02
-8.610925e-04
-4.055971e-03
1.300954e-02
-2.052309e-02
8.477687e-03
2.067441e-02
-2.606934e-02
-8.881686e-03
1.267105e-02
-1.882008e-02
-2.290133e-02
-2.067876e-03
-3.312857e-02
-1.255589e-02
-1.213348e-02
-4.394105e-03
4.312256e-03
-1.413915e-02
-1.838708e-02
-5.881755e-03
3.695701e-03
1.158235e-03
-4.586724e-03
1.224518e-02
-1.059430e-02
-4.326256e-03
-6.278930e-03
-7.759125e-03
3.921636e-03
-9.812393e-03
-1.889330e-02
-1.973411e-02
1.431537e-02
-2.151166e-02
-8.729717e-03
1.317120e-02
-1.299256e-03
-1.854976e-02
1.102791e-02
7.314447e-03
-1.468000e-02
-4.309383e-03
-6.617366e-03
-2.641073e-02
-2.143491e-02
1.012749e-02
1.095289e-02
2.834377e-02
2.307989e-02
2.242101e-02
9.447750e-03
7.442304e-03
3.085322e-02
2.944990e-02
2.584331e-03
8.337650e-03
1.950377e-02
-5.736001e-04
2.017050e-03
1.299791e-02
1.048962e-03
1.491733e-02
1.933549e-02
8.175616e-03
4.409028e-03
2.150486e-02
1.345024e-02
9.264259e-03
4.086682e-02
-5.547080e-03
3.103014e-02
3.725346e-02
-1.338362e-02
1.142787e-03
-1.762918e-02
1.319409e-02
-1.569258e-02
-6.550265e-04
1.236648e-02
9.271381e-03
1.179508e-02
7.166896e-03
9.602220e-03
-2.419202e-03
-9.483642e-03
1.956345e-02
7.755556e-03
-5.412086e-03
9.516436e-03
2.559902e-02
8.247705e-03
9.516435e-03
1.344688e-02
1.271502e-02
-3.214995e-03
-1.114373e-05
3.260417e-02
1.567075e-02
-7.386008e-03
-2.606204e-02
-6.199796e-03
-9.478731e-03
-2.315131e-02
-1.877314e-02
-3.003133e-02
-8.812285e-04
-8.246348e-03
-2.729422e-02
-7.211829e-03
-1.582403e-02
6.407207e-04
-2.372208e-02
-6.278809e-03
-2.585930e-02
4.578924e-03
-1.714176e-02
-1.636354e-02
1.833971e-02
3.000385e-02
1.685314e-02
3.972873e-02
-3.837611e-03
1.277398e-03
7.214464e-03
7.049783e-03
-6.018785e-03
-7.996516e-03
-9.594119e-03
1.744958e-03
-6.425670e-03
2.778107e-03
1.394142e-02
1.318869e-03
1.279374e-02
2.476204e-02
-2.592344e-02
-1.167054e-02
3.518500e-04
-2.642847e-03
4.894988e-03
1.058198e-03
-1.877411e-02
-1.571877e-02
-8.929825e-03
1.027078e-02
-1.119140e-03
-6.909845e-03
9.951235e-03
-3.283969e-03
4.204848e-03
1.262622e-03
1.806833e-02
-1.013028e-04
-1.971785e-04
-1.956101e-02
-2.761058e-02
1.281827e-02
1.884373e-02
-2.376255e-03
-6.017518e-04
-2.749871e-03
-1.978871e-02
9.073917e-03
-3.042029e-03
2.070994e-02
4.694823e-03
-4.152264e-03
-2.138062e-02
-9.111161e-04
-3.953908e-03
2.668412e-03
-6.425358e-03
-9.445978e-03
-8.997803e-03
-1.912098e-02
-1.097161e-02
-3.867986e-04
-8.102007e-03
-1.547812e-02
-7.629143e-03
3.475528e-04
1.000309e-02
1.180641e-02
-3.238946e-02
5.150120e-03
-8.737687e-03
-1.688504e-02
4.381562e-03
-3.631165e-03
1.344377e-02
2.048529e-02
-1.929073e-02
6.011720e-04
-1.889223e-03
-5.767161e-03
-8.037825e-03
-5.639067e-03
-2.621807e-02
4.931046e-03
1.565790e-02
5.258019e-03
1.676176e-02
-3.215181e-03
-4.860115e-03
1.994058e-02
1.665119e-02
5.931568e-03
2.448100e-03
-1.302882e-02
-2.215526e-02
3.168486e-03
7.696338e-03
5.941170e-03
2.475224e-02
1.728311e-02
-2.497692e-02
-1.822803e-02
4.221923e-03
-9.733542e-03
-2.449852e-02
-1.337461e-02
-2.133060e-02
-3.769825e-03
2.804271e-03
2.219606e-06
-1.386946e-02
-1.874369e-02
-1.876039e-02
4.662198e-03
-1.929119e-02
-2.587579e-02
-1.393091e-02
-2.671725e-02
-8.024336e-03
-1.425240e-02
-1.109848e-02
6.643591e-03
-1.545195e-02
-1.115126e-02
4.352822e-03
-3.474947e-03
-2.600065e-03
1.130748e-02
1.040591e-02
2.255366e-02
1.189821e-02
2.656517e-02
2.481709e-03
1.905628e-02
3.219506e-02
2.657487e-02
3.483789e-02
-6.668115e-03
1.424731e-02
5.566360e-03
6.889213e-03
1.920361e-03
-1.658675e-03
1.213626e-03
2.606709e-02
3.157892e-03
1.065593e-02
7.932815e-03
-2.623949e-02
1.025569e-02
-7.609557e-04
1.072586e-02
4.648688e-03
2.092677e-02
1.815546e-02
-8.538820e-03
-9.475638e-03
-1.095708e-02
-2.432873e-02
8.427558e-03
-1.651414e-02
-6.396004e-03
-9.304120e-03
-1.170516e-02
2.545398e-02
3.883626e-02
2.678346e-02
1.371820e-02
2.256691e-02
1.391510e-02
-3.338748e-03
-8.976171e-03
1.491646e-03
1.260303e-02
1.688867e-02
1.428824e-02
5.442658e-03
1.987413e-03
-3.473242e-04
1.053808e-02
-7.364316e-03
-1.872948e-02
-9.271898e-03
1.187231e-02
4.191095e-03
1.134739e-02
7.433343e-03
-2.996800e-03
-1.135903e-02
-8.657392e-05
1.314176e-02
-6.701531e-03
1.078530e-02
-8.103873e-03
-6.104745e-03
-5.921927e-03
-1.952313e-03
-1.563133e-02
-9.973644e-03
-6.566563e-03
3.709594e-03
-2.905312e-02
-1.905060e-02
-2.269482e-02
-1.150197e-02
-3.560346e-02
-6.413240e-03
-2.331475e-02
-2.571396e-02
1.222310e-03
-1.310156e-03
-3.132003e-03
3.891873e-03
2.993909e-03
6.525972e-03
-9.301704e-03
7.996324e-03
2.435005e-02
-1.771030e-02
-3.068883e-02
-1.349221e-02
-3.604689e-03
-2.725885e-02
5.441320e-03
-3.766577e-02
-1.494108e-02
9.876378e-03
-4.922134e-02
-9.416424e-03
5.370434e-03
-1.043065e-02
1.685419e-03
2.225794e-02
3.423491e-03
1.541344e-02
2.534295e-02
-6.473990e-03
-2.080759e-02
-2.603105e-02
-1.335914e-02
-7.425645e-03
-6.336837e-03
-1.634004e-02
-1.112906e-02
1.458759e-02
-1.365071e-02
-2.541852e-02
-1.396241e-02
4.254425e-03
-1.481629e-02
-3.363968e-03
-1.023233e-02
-1.019242e-02
4.457293e-04
2.824769e-02
1.395130e-02
3.030087e-03
1.545494e-02
1.754971e-02
6.721779e-03
2.453405e-02
-5.880294e-03
-1.743836e-02
-1.491249e-02
8.012729e-04
-4.675790e-04
2.075687e-02
8.500559e-04
-8.710667e-03
1.755125e-02
1.009845e-02
2.430706e-04
1.375512e-02
4.972055e-03
-1.378900e-02
1.980880e-02
1.500926e-02
-6.842117e-03
1.262037e-02
-7.004461e-03
-4.644301e-03
-1.139966e-02
1.126657e-02
1.100146e-02
-4.693724e-04
6.246790e-04
9.351759e-03
1.747944e-02
3.257116e-03
1.595307e-02
-1.108941e-02
1.013590e-02
8.194472e-04
-2.795858e-02
1.083496e-02
-1.871555e-04
-9.177958e-03
-2.154006e-02
1.901987e-02
5.552196e-04
1.139539e-02
7.139825e-03
8.569834e-03
3.155518e-02
3.609809e-03
1.606113e-02
1.267185e-02
1.084202e-02
-1.332317e-02
-3.439142e-02
-3.448650e-02
-1.692787e-02
-4.078459e-03
-8.839385e-03
4.879539e-03
-2.049534e-03
4.595051e-03
1.313600e-03
8.385953e-04
1.617965e-03
-3.929272e-04
6.934789e-03
-1.614494e-02
-6.799691e-03
5.365429e-03
-2.817618e-03
-1.597879e-02
4.614388e-03
-4.337640e-03
-1.139319e-02
7.612095e-03
1.423866e-02
-1.123568e-02
-7.981743e-03
1.827597e-02
6.959839e-03
-1.178362e-02
-1.459449e-02
-5.458922e-03
-9.169634e-03
2.163831e-03
-6.069134e-03
8.609950e-03
-1.540438e-02
-2.124035e-02
1.529185e-03
5.112770e-03
-2.406700e-02
-2.024046e-02
1.033520e-02
6.734656e-03
1.969537e-02
2.897978e-02
-5.067117e-03
-8.500149e-03
-2.131489e-02
1.147716e-02
-1.040451e-02
-2.738041e-02
2.108782e-02
2.830763e-04
1.189850e-03
8.261407e-03
1.378709e-02
-4.310118e-04
2.607034e-02
4.354895e-02
2.096328e-02
7.927725e-03
3.057029e-02
5.147689e-02
9.889042e-03
-1.335561e-02
-1.611890e-03
-9.177456e-03
-2.451392e-03
4.130549e-03
1.299627e-02
3.091965e-02
2.479636e-02
1.549253e-02
1.605762e-02
1.183691e-02
-2.788029e-03
8.121456e-03
-6.618126e-03
-9.665479e-03
-2.337822e-03
-1.163089e-02
2.215892e-02
-4.097821e-03
1.002188e-02
6.313771e-03
1.596011e-02
2.015081e-03
1.028718e-02
1.767308e-02
2.381823e-02
3.263334e-02
2.041896e-02
3.402404e-04
-3.230155e-04
5.869253e-03
-2.337720e-03
-1.685143e-02
-1.865011e-02
-2.447334e-02
8.100233e-03
-5.356213e-04
4.279642e-03
4.602159e-03
1.211297e-02
-4.210804e-03
-1.026903e-02
1.853372e-03
2.111919e-02
-1.582129e-02
9.973014e-03
5.955693e-03
3.864519e-03
1.191398e-02
1.925180e-02
-2.198840e-03
1.568245e-02
2.810823e-03
-1.031791e-02
-1.655930e-02
-7.234456e-03
-8.074875e-03
-4.662524e-03
-8.853282e-03
1.045472e-02
1.076983e-02
1.846654e-02
-1.139535e-02
-5.809160e-04
2.856333e-02
1.971227e-02
2.352410e-02
4.440000e-02
-1.383274e-03
5.821561e-02
4.885235e-02
6.889272e-03
-1.866782e-03
-4.686375e-03
4.273012e-04
4.341257e-04
-6.773755e-04
-1.362186e-02
-2.159604e-02
-2.214660e-02
2.799040e-03
-1.322703e-04
1.071556e-02
-5.828517e-03
-3.984131e-03
1.943193e-02
2.292475e-03
-1.807966e-02
-2.752238e-03
-2.666902e-03
8.412146e-03
3.907492e-03
-1.986695e-02
-1.700971e-02
8.486616e-03
-4.078313e-02
-2.142950e-02
-1.126995e-02
-9.659263e-03
-1.205924e-02
-2.458791e-02
1.508867e-02
-8.343325e-03
-9.430858e-03
-1.917878e-03
1.256495e-02
4.682098e-03
-4.305178e-02
-2.431542e-02
9.267224e-04
-1.680913e-02
2.942420e-03
-7.748235e-03
-5.040160e-03
4.953196e-03
1.258831e-02
-1.745575e-02
-1.120161e-02
3.084937e-03
-8.028090e-03
-1.171272e-02
2.130666e-03
-2.429104e-03
2.649679e-03
1.702253e-04
2.360297e-02
-1.564317e-03
-9.440507e-03
8.617988e-03
1.083914e-02
-7.469467e-03
6.272296e-03
1.450551e-02
6.785974e-03
7.346550e-03
1.463965e-02
9.710284e-03
3.357066e-02
2.467778e-02
-1.110604e-03
1.183230e-02
8.390227e-03
-1.413758e-02
2.731868e-02
3.203592e-02
6.847039e-03
1.806869e-02
7.987769e-03
1.261242e-02
8.934270e-03
1.502181e-02
-1.092294e-03
-2.253349e-02
-1.316113e-02
-1.293518e-02
-1.020118e-02
-2.411330e-02
-7.703049e-04
-2.341736e-02
-2.925263e-03
-7.743208e-03
-6.622067e-03
-1.275753e-03
-2.528772e-02
3.828685e-04
2.634035e-03
-9.522239e-03
4.291680e-03
1.152392e-02
-8.616968e-03
1.322007e-02
8.685704e-03
-7.277338e-04
-1.649819e-02
1.269878e-02
6.855029e-03
2.775962e-03
-1.010772e-02
-2.333078e-02
1.283864e-02
1.149196e-02
6.906146e-03
1.330176e-02
1.217871e-02
4.964268e-03
-1.281289e-02
9.010410e-03
6.722613e-03
7.175847e-03
-2.528092e-02
-1.237251e-02
3.368315e-03
-3.959124e-03
1.052370e-02
-2.079715e-02
1.274579e-03
8.946742e-04
-1.147778e-02
-1.993811e-02
-8.226232e-03
-4.639706e-03
1.119421e-02
8.246967e-03
-1.135610e-02
-1.039420e-02
-1.296619e-02
-1.372122e-02
5.405740e-03
1.575261e-03
1.170630e-02
1.518799e-02
-2.206723e-03
1.759938e-02
1.185169e-02
-2.441355e-04
-1.770603e-02
9.003591e-03
1.164792e-02
3.932700e-03
1.635468e-03
2.588080e-03
1.316175e-02
1.840994e-02
-2.063432e-02
3.138929e-02
4.618937e-02
1.925419e-02
8.189127e-03
1.359125e-02
9.957592e-03
6.196934e-03
-5.659790e-03
-7.554316e-03
4.256761e-03
6.968114e-03
7.026701e-03
1.549435e-02
1.833506e-02
-1.190471e-02
3.193518e-04
-1.162924e-04
-2.050410e-03
-1.162874e-02
-9.021887e-03
1.465942e-02
-1.732566e-03
6.862782e-03
2.070702e-02
7.826444e-03
1.003989e-02
1.828480e-02
-1.348021e-04
6.554549e-05
8.224038e-03
3.308044e-02
-1.416661e-03
-4.560122e-04
6.338967e-03
2.651701e-02
1.987734e-03
9.865233e-03
2.545022e-03
-9.676516e-03
-4.729351e-03
-1.489537e-02
-3.050706e-03
-1.532418e-02
-2.224132e-02
7.721177e-03
-6.568415e-03
-3.195681e-02
-2.519533e-02
-3.680806e-02
-2.384730e-02
-2.109472e-02
-1.574085e-02
-1.793932e-02
-5.469418e-02
1.708959e-02
1.236292e-02
1.649451e-03
-2.523056e-03
-2.489551e-03
6.633888e-03
-3.231357e-02
-9.023312e-03
9.383469e-03
1.089854e-02
8.601382e-03
1.858426e-03
1.383180e-02
8.360262e-03
1.600270e-02
2.750462e-02
1.698789e-02
5.987390e-03
-1.273222e-02
-1.328739e-02
-1.957084e-02
-1.894880e-02
-1.156395e-02
1.730774e-03
9.048204e-03
1.959774e-03
4.259525e-03
1.757233e-02
1.214992e-02
8.380818e-03
1.750929e-02
4.892352e-03
4.448501e-03
1.442792e-02
-1.335850e-03
-2.940712e-02
-7.932823e-03
-1.072197e-02
1.761057e-02
-2.514892e-02
-3.210795e-03
1.024994e-02
-1.901689e-02
-5.051060e-03
3.036229e-02
-3.044248e-04
1.702587e-02
6.888519e-03
-2.734490e-02
-3.230053e-02
-1.087853e-03
6.604080e-03
-1.475421e-02
-6.600852e-03
-1.325256e-02
-2.547461e-02
-1.376123e-03
-2.404240e-02
-1.742717e-02
-4.402712e-03
-4.483694e-02
9.389988e-05
1.592318e-02
2.525054e-02
-9.739382e-03
4.063098e-03
-1.323166e-02
5.381150e-04
-1.573741e-03
-7.869290e-03
-1.380240e-02
-1.493400e-02
1.323345e-02
-4.193563e-03
6.873586e-03
4.552379e-03
1.063710e-02
1.502835e-02
1.665516e-02
2.148255e-02
2.210247e-02
6.341423e-03
6.760256e-03
-1.445640e-02
2.690459e-02
1.030118e-02
2.534357e-02
1.458768e-02
2.491052e-02
8.756940e-03
4.702014e-03
7.750979e-03
-3.162883e-02
1.597740e-03
-1.523496e-02
-2.244840e-02
9.618362e-03
-1.596531e-02
-2.312671e-02
-2.982733e-02
-1.347645e-02
-1.870997e-02
-1.346176e-02
-3.211546e-03
-2.455804e-02
-2.072857e-02
-1.200208e-02
1.294051e-03
6.722173e-03
1.528312e-02
3.066424e-03
8.204973e-03
-3.698273e-03
-7.644677e-03
9.249974e-03
-2.559716e-02
-1.135763e-02
1.079214e-02
8.683814e-03
2.329005e-03
-1.539199e-02
-8.734399e-03
-1.285292e-02
-4.914377e-02
-4.265892e-02
-2.147795e-02
1.204467e-02
2.667142e-02
8.877298e-04
3.913968e-03
6.583970e-03
2.335474e-02
-7.940255e-03
1.116280e-02
1.206981e-02
2.805978e-02
2.787237e-02
6.337570e-03
3.968798e-03
1.079317e-02
2.534310e-02
-2.741860e-03
9.198274e-03
1.260425e-02
2.505511e-02
3.126726e-02
1.468855e-02
3.345184e-02
1.480786e-02
2.513703e-02
9.059257e-03
3.521395e-02
-1.139190e-03
2.464182e-02
2.256279e-02
1.624457e-02
2.994953e-02
3.746253e-02
8.741836e-03
3.120957e-02
4.528123e-03
2.134418e-04
1.443043e-02
1.419379e-02
5.218335e-03
2.003709e-02
-7.468880e-03
-1.667641e-02
6.861103e-04
2.638255e-03
-2.064275e-02
-2.532126e-02
-3.097571e-02
-1.792332e-03
-1.595266e-02
-2.184127e-02
-1.248868e-02
-4.671188e-03
-3.316459e-02
-7.775216e-03
5.940602e-03
-1.573019e-02
1.123453e-03
-1.511967e-02
8.217020e-03
6.071924e-03
-7.553857e-03
-1.507601e-02
2.423745e-02
-3.077117e-02
1.859959e-03
-1.448292e-02
-6.562489e-03
-1.420200e-02
-1.048192e-02
1.879420e-02
3.061309e-04
-1.540367e-02
-4.629967e-03
-6.752877e-03
-1.278052e-02
1.491960e-02
-1.560208e-02
-1.787147e-02
-3.564773e-03
1.212628e-02
8.665444e-03
-3.653017e-03
1.756958e-02
1.242013e-03
-4.630300e-03
2.141892e-03
1.706726e-03
7.023352e-03
3.953323e-04
2.092498e-03
-2.685296e-02
-5.899715e-03
1.745424e-02
-1.871500e-02
-6.900530e-03
1.299462e-02
-4.886149e-03
-3.077241e-03
-1.149210e-02
1.699748e-03
-2.328334e-03
-2.568791e-03
2.420278e-02
3.402770e-04
3.365184e-03
9.188069e-03
3.313010e-02
-9.473341e-04
-2.411617e-02
-4.974229e-03
3.924970e-02
-1.302687e-02
-7.138702e-05
-1.119898e-02
-1.269441e-02
6.368935e-03
-1.181486e-02
1.274866e-02
3.267008e-02
-3.611330e-05
2.136191e-02
3.198090e-02
7.814356e-03
2.211279e-02
2.577050e-02
1.203860e-02
3.090506e-03
2.342073e-02
6.000050e-03
2.287371e-02
2.454521e-03
-3.236013e-03
1.360558e-02
1.748226e-02
9.215050e-03
1.814222e-02
2.751729e-03
3.789612e-03
-5.447976e-03
2.112107e-03
2.409125e-02
-2.018277e-02
-1.143817e-02
1.006103e-02
-1.783228e-02
-3.158154e-02
-2.156678e-02
-2.034507e-02
-1.745368e-02
-3.087434e-02
-6.260059e-05
-2.590822e-02
-4.005155e-02
-3.378650e-04
-1.744774e-02
-1.507933e-02
-1.674565e-03
-1.238211e-02
-1.108877e-02
-3.974282e-03
-3.006720e-03
-1.480102e-03
2.686151e-02
3.766967e-02
2.420244e-02
1.461728e-02
6.794970e-03
1.566721e-02
5.651589e-03
3.599842e-03
-7.995061e-03
-1.024003e-02
-1.144574e-02
-1.566518e-02
-1.146640e-02
1.713252e-03
-1.570915e-02
-6.211243e-03
-2.919812e-03
1.311993e-02
2.728130e-02
2.964921e-02
1.163247e-02
1.706744e-02
-1.344591e-02
-9.115877e-04
-2.108355e-02
-3.749302e-02
-2.217415e-02
1.959747e-02
3.276443e-02
-5.326958e-03
1.200263e-02
9.533668e-03
-7.150252e-04
-9.115397e-03
-1.057576e-02
-2.063076e-02
-4.741746e-03
-1.851435e-03
1.151553e-02
-2.712510e-02
2.225066e-03
1.330634e-02
-2.111363e-02
-4.791263e-03
1.673018e-02
-6.694557e-03
-1.293342e-02
-1.212877e-02
1.468774e-02
-3.711904e-03
-1.785767e-02
1.012976e-02
-3.483013e-03
5.489678e-03
-2.715172e-02
4.677314e-03
8.367445e-03
4.344361e-03
8.534603e-03
1.957224e-02
9.559085e-03
1.192656e-02
2.253295e-02
1.888260e-02
3.801322e-02
3.798014e-02
8.213010e-03
1.476216e-02
2.585082e-02
5.367483e-03
5.440241e-03
9.293437e-04
-1.496824e-02
2.459167e-03
1.115012e-02
-5.847480e-04
2.485637e-02
1.503566e-02
-1.965222e-02
3.278324e-03
1.301896e-02
8.258810e-03
2.918864e-02
2.555118e-02
-4.688831e-03
8.720603e-03
1.294990e-02
-1.390805e-02
1.268505e-02
2.004379e-02
-1.178333e-03
1.645971e-02
8.298321e-03
-1.295226e-02
2.795708e-02
1.360016e-02
-2.386439e-03
1.462997e-02
-3.667024e-03
-4.644581e-03
-1.771155e-02
-2.336536e-02
-8.688848e-03
-6.904345e-03
-1.789909e-02
-2.896470e-02
-2.570911e-02
-1.544643e-02
1.384730e-03
-3.350718e-03
-8.972299e-03
-9.368572e-03
1.400125e-02
-1.106298e-02
6.738860e-04
1.596090e-02
-6.299628e-03
-1.749435e-02
1.362820e-02
-1.326155e-02
1.978796e-02
1.706466e-02
1.228641e-02
1.712007e-02
1.735416e-02
5.506190e-04
-1.846257e-03
5.203626e-03
-5.842142e-03
-1.127830e-02
-7.266618e-03
-1.810160e-02
-1.612266e-02
2.241233e-03
6.878469e-03
1.663733e-02
-1.717905e-02
-1.040875e-02
4.918502e-03
1.919020e-02
-2.345836e-03
1.444529e-02
-7.546081e-03
1.488139e-03
-9.673214e-03
1.282914e-02
1.020011e-02
-2.396197e-02
1.747972e-02
9.412280e-03
-1.636377e-02
6.009307e-04
6.503354e-03
-1.654032e-03
4.076390e-03
6.999923e-03
3.613657e-03
-1.008996e-03
9.449798e-03
1.441360e-02
9.110957e-03
-3.823897e-03
1.179814e-03
1.423454e-02
7.765361e-03
9.465851e-03
-1.505267e-02
-2.083918e-02
2.177586e-03
-1.348896e-02
-3.548290e-02
5.748023e-03
-2.648276e-03
-1.063440e-02
6.432897e-03
-4.264882e-03
2.025722e-02
8.328496e-03
2.010159e-02
1.719710e-02
5.495088e-03
4.431545e-03
-1.600879e-02
1.042001e-02
4.623966e-03
-6.686400e-03
1.852452e-02
3.649356e-02
3.990260e-02
9.043201e-04
-1.619157e-03
1.258687e-02
1.193744e-02
-2.014975e-02
-1.680666e-02
5.637510e-03
-6.864953e-03
9.337086e-03
9.287114e-03
1.026117e-03
-5.524676e-03
1.258773e-02
-2.026165e-02
7.464318e-03
2.937850e-03
2.888335e-03
8.909135e-03
4.316678e-03
-5.181869e-03
-1.184999e-02
-1.658717e-02
-3.785072e-02
-1.851799e-02
-2.369032e-02
-3.283658e-02
-3.314841e-02
-9.434697e-03
1.324425e-02
6.613498e-03
-1.627159e-02
1.195282e-02
7.877155e-03
-1.194475e-02
-5.268238e-03
3.074415e-02
1.244546e-02
2.024118e-02
-1.573023e-02
1.071310e-02
9.965899e-03
4.679069e-03
-1.685592e-03
-1.480840e-03
-1.996408e-04
6.190410e-04
3.427238e-03
1.616471e-02
-7.662775e-03
-5.801832e-03
4.491824e-03
-1.262332e-03
-3.708938e-03
-1.055825e-02
2.628845e-03
3.000081e-03
9.015709e-03
-4.005649e-03
-4.924501e-03
6.717303e-03
-1.210074e-02
2.826616e-03
2.088805e-03
-2.513695e-02
-2.164171e-02
-2.537629e-02
-3.702478e-02
-1.973627e-02
3.692941e-03
-5.924899e-03
-1.095122e-02
-2.661714e-03
2.318750e-02
2.688727e-02
-5.437357e-03
2.550139e-02
2.342433e-02
-2.016394e-03
1.635518e-02
4.183281e-02
2.425785e-02
2.073860e-02
1.994142e-02
4.458161e-03
2.363296e-02
1.453359e-02
1.735155e-02
2.626835e-02
9.276757e-03
1.480623e-03
-1.364701e-02
-8.470428e-03
2.261664e-02
-4.034251e-03
-7.964281e-03
1.002874e-02
-8.477290e-03
1.614927e-02
4.249870e-03
-5.627728e-03
1.636450e-02
8.223813e-03
6.102651e-03
1.001699e-02
9.840391e-03
2.462446e-02
2.016300e-02
-2.213936e-02
-2.325494e-03
-2.911292e-03
-3.799735e-03
2.658253e-02
6.181792e-03
-1.227426e-02
8.904384e-03
-7.219278e-04
-5.139302e-03
-1.509924e-02
-2.742826e-02
-8.898736e-03
-1.831388e-02
-1.270035e-02
-1.766745e-02
-1.368978e-02
7.078691e-03
-2.813481e-02
9.551941e-03
2.005495e-02
5.880969e-03
2.277262e-02
2.402993e-02
1.868090e-02
2.799999e-02
8.043885e-03
1.420372e-02
-1.749569e-02
-1.025584e-02
7.368905e-03
-5.966620e-03
-3.353758e-03
-1.544272e-02
-7.095786e-04
-1.293151e-02
-2.022000e-02
-3.380640e-02
-2.948199e-02
-2.084977e-02
-2.824939e-02
-2.498268e-02
-1.295461e-03
-1.585623e-02
6.746056e-03
5.917817e-03
6.275267e-03
4.487730e-03
-6.343889e-03
4.938503e-03
-5.348760e-03
-1.126059e-02
4.649605e-03
1.685666e-02
2.486652e-03
-2.695101e-02
1.313615e-03
-4.878187e-03
-1.961668e-02
-1.307455e-03
1.354214e-02
-4.118951e-03
8.160363e-03
2.603878e-02
3.354850e-02
1.358003e-02
-4.727060e-03
1.785185e-02
1.118230e-02
-2.238001e-03
1.279040e-02
1.273941e-02
-8.145086e-03
2.289619e-02
-9.009444e-03
-2.440600e-02
7.748603e-03
-8.558561e-03
5.876394e-04
3.031013e-03
6.588356e-03
-4.953643e-03
-4.711641e-03
-1.136503e-02
-1.124423e-02
-1.129964e-02
-7.731528e-03
-2.057288e-02
-5.668609e-03
-1.536496e-02
-1.072016e-03
-1.068159e-02
-1.609069e-02
-1.064835e-03
1.040207e-03
-3.307233e-03
1.270424e-02
1.089316e-02
1.201449e-02
5.723227e-03
-1.194095e-02
2.262088e-03
4.253196e-03
2.208845e-03
6.613135e-03
-2.633864e-03
1.649421e-02
7.973243e-03
-7.257373e-03
-1.476991e-02
-1.126152e-02
-9.765996e-03
-9.440475e-03
1.768490e-04
-1.500542e-02
2.903105e-03
4.981908e-03
-7.709155e-03
4.203048e-03
1.706167e-02
2.011638e-02
2.165419e-04
2.774746e-02
2.824655e-02
-9.272932e-03
-1.834072e-03
-8.588118e-03
2.521220e-02
2.552416e-02
1.983682e-02
8.444003e-03
4.215731e-02
2.519515e-02
2.033780e-02
1.288134e-02
-4.221664e-05
7.796198e-03
-1.296474e-03
1.585875e-02
5.446298e-03
6.838254e-03
1.948915e-04
1.337280e-02
2.211730e-02
1.445296e-02
-2.079671e-02
-4.197621e-04
-5.403956e-03
-2.516995e-02
-6.130831e-03
1.712559e-02
-8.673953e-03
-1.923999e-03
8.095728e-03
1.381289e-04
8.967298e-03
1.775126e-02
3.330700e-03
2.223097e-02
1.479293e-02
-1.238593e-02
2.820346e-02
3.002409e-02
-4.843691e-03
-1.070571e-02
-2.246652e-03
9.134677e-03
2.876354e-03
-2.617611e-02
2.695658e-02
3.935998e-03
8.130604e-03
3.939682e-03
5.664030e-03
1.593808e-02
-6.018700e-03
-7.984350e-03
3.686754e-03
3.533262e-05
9.919544e-03
-1.019767e-03
-1.567865e-02
-5.590850e-03
-1.915603e-02
2.193890e-02
1.194821e-02
8.120652e-03
2.473557e-02
3.974234e-02
2.674738e-02
-2.026472e-02
-1.252824e-02
-1.650942e-02
4.999518e-03
-3.009524e-03
-1.893280e-02
1.727495e-02
-2.352155e-03
-2.177444e-02
-2.146402e-02
1.788444e-02
2.333672e-02
1.347624e-02
1.972054e-03
2.008993e-02
7.880040e-03
1.034246e-03
2.598265e-02
4.951834e-03
9.966538e-03
-2.639948e-03
-1.248554e-02
-1.320920e-03
-4.946240e-03
6.170494e-03
1.213800e-02
1.113244e-02
-1.068375e-02
-6.905503e-03
-1.350363e-02
-1.582551e-03
9.015275e-03
1.086181e-02
2.979334e-02
2.045259e-02
-1.024556e-02
2.308478e-03
2.164710e-02
3.386771e-02
1.683226e-02
8.686807e-03
7.826740e-03
4.197959e-03
1.705888e-02
8.580203e-03
-1.000040e-02
1.646031e-02
-2.061401e-02
3.102606e-03
-7.803621e-03
-1.161691e-02
2.938379e-03
-8.642858e-03
2.319496e-05
1.135312e-02
6.525530e-03
3.220880e-02
2.805754e-03
3.479952e-02
2.670353e-02
1.231469e-02
2.789335e-02
1.775378e-02
2.580073e-03
-2.415506e-02
-2.298931e-02
1.246097e-02
-4.447380e-03
-4.987629e-04
-1.026285e-02
-1.759143e-03
1.206611e-03
-1.810632e-02
-1.577225e-02
-1.550583e-02
-1.760167e-02
-2.699932e-02
-2.181790e-02
-1.980207e-02
-4.103690e-02
-4.113337e-02
1.576097e-02
1.996261e-02
9.884456e-03
-4.842420e-03
1.786766e-02
1.158371e-03
1.320111e-02
1.463782e-02
-4.117212e-03
-1.648119e-02
5.826995e-03
2.702589e-02
-7.895703e-03
-4.482510e-03
1.685050e-02
-1.991390e-02
1.528766e-02
2.095918e-02
-5.312338e-03
-2.417527e-02
-2.929569e-02
-3.722125e-02
-2.731240e-02
-3.048598e-02
-1.948361e-02
-2.640998e-02
-3.661364e-02
-1.353018e-03
9.739666e-03
-7.905828e-03
1.309222e-02
-9.360461e-03
-7.154004e-03
2.359751e-02
2.074798e-02
1.287738e-02
1.400481e-02
1.241836e-02
2.050896e-02
2.252203e-03
1.811902e-02
4.739565e-03
-9.334114e-03
2.001823e-02
1.199123e-02
-1.150549e-02
6.916460e-03
-7.426547e-03
-5.265503e-03
-2.206692e-03
-1.655841e-02
-5.640313e-03
-1.496381e-02
9.731179e-03
-1.731020e-02
-1.825376e-02
1.532103e-05
-3.415074e-03
-7.211921e-04
-3.239083e-03
-9.809677e-04
1.080472e-02
2.387463e-02
-7.843222e-03
-3.728414e-03
1.250959e-02
-9.809461e-03
-1.502675e-02
2.495659e-03
-2.376078e-02
1.188603e-02
1.089366e-02
-6.029860e-03
4.953024e-03
1.667146e-02
-1.400791e-02
-6.046051e-03
2.602489e-02
-2.285570e-02
-1.016201e-02
-2.721321e-04
-5.812678e-03
-1.439513e-02
1.200539e-02
-3.493751e-05
-1.102427e-02
-1.477438e-02
3.982727e-03
6.375872e-04
-6.195868e-03
2.450329e-02
2.976848e-03
1.232651e-02
-5.597769e-03
1.270177e-02
3.220526e-03
2.266550e-03
-2.621147e-02
-2.763011e-02
-1.399538e-02
2.043650e-02
6.833206e-03
1.976188e-02
4.801946e-03
5.743312e-03
1.853125e-02
1.866958e-02
-6.622104e-05
-5.464483e-03
-1.506489e-02
-6.536357e-03
-2.571074e-03
-5.534702e-03
7.545000e-03
5.627206e-03
1.000475e-02
-3.533758e-03
1.583777e-02
1.638131e-02
2.583712e-02
1.115172e-03
1.152902e-02
9.926794e-03
-9.789135e-03
-2.940515e-03
-5.166974e-03
-3.304490e-04
-5.397098e-03
2.527299e-02
-4.391531e-03
-1.332787e-02
1.194047e-02
-1.076051e-02
-3.828706e-03
8.958908e-03
1.303403e-02
4.495812e-04
-7.104128e-03
2.267385e-02
1.851977e-02
-9.902765e-03
1.699849e-02
6.172063e-03
1.510385e-02
-1.516360e-02
-1.617901e-02
-1.481040e-02
9.075702e-03
-5.166044e-03
-1.552952e-02
-1.549571e-02
-3.521999e-03
-1.211889e-02
3.825855e-03
5.827569e-03
-2.078173e-02
1.594439e-03
9.523015e-03
-1.264263e-02
2.355396e-02
9.253024e-03
1.959023e-03
-3.010601e-02
-8.200536e-03
-2.152445e-02
7.935386e-03
-2.398199e-02
-1.361592e-02
-1.419601e-02
-2.434102e-02
-8.832357e-03
1.107133e-02
8.657732e-03
-5.915812e-04
1.334451e-02
1.647237e-02
-6.118519e-03
5.695218e-03
2.513603e-02
3.193440e-02
-2.521808e-02
1.691243e-02
4.365556e-02
-2.215554e-03
-2.421231e-03
1.994212e-02
-3.283449e-03
3.220221e-03
2.234060e-02
1.473983e-02
-1.369888e-02
-1.500705e-02
-1.276680e-02
1.152062e-02
3.607950e-04
-1.061756e-04
1.549729e-03
7.405756e-03
-3.991069e-03
-2.034327e-03
1.528411e-02
7.253318e-03
2.102501e-03
4.979991e-03
-8.010061e-03
6.838445e-03
-8.812927e-03
-1.439926e-02
-8.215399e-03
9.605188e-04
2.740596e-03
3.688904e-03
-3.379986e-02
-1.174883e-02
-2.279807e-02
-3.664181e-02
-3.462829e-02
9.077911e-03
6.319746e-03
-1.522507e-02
-6.982525e-04
3.449079e-03
9.631747e-04
-1.448187e-02
4.989482e-03
8.901443e-03
2.021193e-02
1.126748e-02
1.470494e-02
-5.675984e-04
1.182046e-02
-9.291585e-03
4.351261e-03
3.751908e-03
-9.655815e-03
3.128165e-04
-1.716410e-02
-5.840769e-03
9.508831e-03
-1.808726e-02
-6.066558e-03
-1.100446e-02
-1.250889e-02
5.553901e-03
9.933924e-03
2.272127e-02
9.948766e-03
6.595192e-03
3.970467e-03
-4.534150e-03
-5.780380e-04
-6.964581e-03
-9.515334e-03
3.504468e-03
4.809949e-03
-1.377989e-02
1.554384e-02
-3.715602e-03
2.055233e-02
2.031970e-02
3.029646e-02
-1.973329e-02
-2.921716e-03
8.670975e-03
1.036602e-02
2.123522e-02
2.016935e-02
1.496503e-02
4.920946e-02
2.499752e-02
-2.757834e-02
4.398429e-03
7.927389e-03
5.075798e-03
4.196569e-03
-1.313081e-02
6.060309e-03
-1.408833e-02
-1.589587e-02
-7.405025e-03
-2.201802e-02
-2.475829e-02
-1.821204e-02
-2.865865e-02
-2.447136e-02
-5.567800e-03
-1.732288e-02
-2.016943e-02
3.108960e-03
4.815384e-03
3.595297e-03
2.681043e-03
8.320016e-03
3.484638e-04
4.080967e-03
-5.795936e-03
-1.787162e-03
-7.171782e-03
-1.782598e-02
-1.238738e-02
-9.887727e-03
-8.469209e-03
-9.920985e-03
1.156951e-02
9.302730e-03
4.294262e-04
5.028160e-03
4.505509e-03
-9.281878e-03
1.188946e-02
-1.435467e-03
-2.875444e-03
2.009365e-02
-1.226781e-03
5.221720e-03
1.982133e-02
2.093917e-02
-2.595207e-03
5.015992e-02
4.771896e-02
3.894621e-02
4.965083e-02
4.456419e-02
1.719483e-02
4.314336e-03
2.639106e-02
2.601404e-03
8.146108e-03
1.950093e-03
1.995791e-02
4.658901e-03
4.641293e-03
-1.056221e-02
-3.139936e-02
-1.684118e-02
1.245531e-03
-1.803724e-02
-1.787399e-02
-1.418725e-02
3.978996e-03
1.313880e-02
1.100492e-02
3.420213e-03
1.436453e-02
6.687581e-03
2.910826e-02
9.627624e-03
1.528564e-02
3.175807e-02
2.518361e-02
1.334596e-02
3.821239e-03
-9.167288e-03
-2.255185e-03
-1.892383e-02
4.135819e-03
-1.859282e-02
-7.086355e-03
-2.646458e-02
-8.825030e-03
1.446387e-03
4.762947e-03
-6.617181e-03
-1.381854e-02
6.463549e-04
-5.904018e-03
-2.088718e-02
-2.248806e-02
7.110019e-04
-2.216369e-03
1.798610e-03
8.359251e-03
1.982531e-02
6.226541e-03
-7.677013e-03
-1.272541e-02
7.629930e-03
-3.575390e-03
-4.942063e-03
5.023907e-03
-8.028471e-04
-1.365221e-02
-1.491535e-02
3.241344e-03
-1.562236e-02
-1.947728e-02
-1.422429e-02
-1.421773e-02
-2.090653e-02
-1.020821e-02
2.812707e-03
3.053437e-03
2.379298e-03
3.530689e-03
4.808270e-03
7.428235e-04
-2.663402e-02
-3.439634e-02
-9.420307e-03
-2.696762e-02
-3.483464e-02
-1.096859e-02
-1.855440e-02
-3.280010e-03
-5.948395e-03
-4.024033e-03
9.512402e-03
-3.593954e-03
1.016008e-02
2.203139e-03
-3.974271e-02
4.442829e-03
-3.886576e-03
-2.960670e-02
1.482279e-02
1.594320e-02
-1.396313e-02
6.672630e-03
1.628454e-03
2.862947e-02
1.916382e-02
2.401900e-02
1.833670e-02
-6.284186e-03
1.032391e-02
1.234693e-02
5.118748e-03
4.005034e-03
-9.865582e-03
4.152445e-03
1.070668e-02
-2.424264e-03
2.168153e-02
2.697904e-02
1.004324e-02
2.415530e-02
3.311345e-02
1.307288e-02
1.155970e-03
1.382055e-02
1.593636e-03
-4.153300e-03
1.576701e-02
-6.176133e-05
-5.368051e-03
-7.951325e-03
1.613654e-02
-7.977714e-03
-5.547212e-03
3.021740e-03
1.626670e-02
-1.004473e-04
4.321492e-03
1.251558e-02
-1.287889e-02
4.007329e-03
-1.336419e-02
1.895449e-03
1.042330e-02
3.652974e-02
4.472264e-02
1.181307e-02
3.497705e-02
1.135469e-02
1.679350e-02
1.039766e-02
6.776288e-03
1.110419e-02
-2.143900e-02
-1.149453e-02
-2.342208e-02
-2.357620e-02
-1.461157e-02
-7.620393e-03
-7.297570e-03
9.777038e-03
-1.816548e-03
2.247079e-03
8.303728e-03
1.986286e-04
2.442151e-04
-1.875665e-02
-6.455990e-03
1.094094e-02
-1.434707e-02
-2.004668e-02
1.371917e-02
-8.055915e-03
-5.260599e-04
1.378434e-02
-9.240007e-03
-1.064738e-02
1.130121e-02
2.139677e-05
3.462879e-03
6.566385e-03
1.170528e-02
-2.373499e-03
1.019264e-02
6.115764e-03
7.185384e-03
-3.510327e-03
-5.948123e-03
1.075813e-02
-1.337444e-02
9.797895e-03
-2.081832e-02
6.669103e-03
4.383883e-03
2.883444e-03
-5.164560e-03
3.156092e-03
2.203115e-02
-3.424851e-02
-5.168739e-03
-1.680314e-02
1.739613e-04
-3.488091e-03
-1.535754e-02
4.448135e-03
2.260502e-03
6.215014e-03
-4.996535e-03
-6.758589e-03
5.302948e-03
4.409627e-03
1.501672e-02
1.835268e-02
1.658027e-04
2.046870e-02
6.350639e-03
1.323643e-03
-1.493617e-02
-1.371319e-02
4.525729e-03
-4.521002e-04
-2.533130e-02
2.455005e-02
-6.617416e-03
-1.305609e-02
-1.071273e-02
-1.425494e-02
-1.747083e-02
2.471565e-02
-1.434488e-03
3.003483e-03
3.508013e-02
2.495121e-02
-1.886068e-03
-7.379875e-03
-7.452593e-03
8.658409e-03
-6.876310e-03
-9.198525e-03
-4.788836e-03
8.902663e-03
2.011846e-03
-5.879878e-03
1.551620e-03
2.814638e-02
1.118410e-02
9.649371e-03
1.527727e-02
2.171000e-02
-1.140220e-03
1.802590e-02
2.071202e-02
-7.556885e-03
-1.326442e-02
-1.216375e-02
-2.622854e-02
-1.953485e-02
-2.519706e-02
9.251585e-03
-7.646031e-03
-2.892215e-02
1.208419e-02
-4.575119e-03
-2.280635e-02
1.581767e-03
1.438137e-02
-1.771698e-03
1.086927e-02
-3.622560e-03
1.728811e-03
-2.457476e-02
-6.420114e-03
1.078563e-02
-8.225540e-03
-6.546775e-03
4.916239e-03
-1.937073e-02
-3.401101e-02
-2.176800e-02
3.510821e-02
-3.148264e-02
-2.672583e-02
2.727791e-02
-1.823048e-02
-3.362995e-02
3.136839e-02
-1.717267e-03
-2.495593e-02
4.821333e-05
7.075662e-04
-1.199878e-02
2.518152e-03
3.108738e-03
3.635648e-04
8.182555e-03
1.597672e-02
1.029230e-02
2.235599e-03
9.071543e-03
2.719240e-02
9.292645e-03
2.050494e-03
2.196720e-02
7.900020e-03
2.096075e-03
1.381727e-02
-2.020535e-02
-1.803631e-03
1.116098e-02
-1.698977e-02
-2.053266e-02
-1.227894e-02
-2.162067e-02
-6.120470e-03
2.421949e-03
2.894068e-02
1.286715e-02
8.947529e-03
7.980354e-03
-6.155656e-03
2.241493e-02
-2.010197e-02
1.796398e-02
1.425835e-02
-2.699193e-02
-1.871723e-03
7.671537e-03
-2.466779e-03
-2.180462e-04
-1.781811e-03
1.617450e-02
-2.506673e-03
-1.998556e-02
2.420498e-02
6.130339e-04
4.124536e-03
4.021513e-03
3.386765e-03
1.269636e-02
6.803568e-03
1.461185e-02
7.147317e-03
1.913832e-02
-2.326008e-02
-2.436497e-02
1.444086e-02
-8.241661e-03
-2.388082e-02
2.607203e-02
-1.258597e-02
-1.544530e-02
1.170242e-02
1.250033e-02
-9.489743e-04
-9.622319e-03
-4.469758e-03
-3.048476e-03
6.046491e-03
-3.941441e-03
-1.114172e-02
-1.674844e-02
5.961929e-04
2.695168e-02
-9.675977e-03
-1.025780e-02
5.832280e-03
1.242020e-02
-1.227221e-02
-1.628221e-03
3.035172e-02
2.213220e-02
3.988369e-03
6.993934e-03
1.880192e-02
1.554771e-02
1.041674e-02
1.371702e-02
1.564416e-02
1.708275e-02
-2.491770e-03
-3.622380e-03
1.961139e-02
-8.816844e-04
2.444279e-03
2.336901e-02
2.463968e-02
2.693471e-03
-1.855615e-02
-5.226549e-03
-7.811842e-03
-1.158416e-02
-8.654555e-03
-1.966800e-02
1.835394e-04
-2.615687e-02
-2.120963e-02
-1.128569e-02
-2.341101e-02
-1.068461e-02
-1.920667e-03
-1.890472e-02
1.113297e-02
3.978517e-03
4.145867e-03
-4.899060e-03
-5.555373e-03
-1.185920e-02
-1.723437e-02
4.263769e-03
-5.000304e-03
-5.612522e-03
1.891678e-02
-6.443209e-03
-5.752830e-03
-2.121453e-02
-3.552732e-02
-3.353237e-03
-2.554282e-03
-2.023766e-02
-1.355077e-02
-4.830593e-03
-1.834545e-02
-1.796230e-02
8.236383e-03
-1.593673e-03
2.029967e-03
2.164690e-02
1.554826e-04
1.638366e-02
8.606224e-03
4.840563e-03
-1.684091e-02
6.009273e-03
-1.522103e-02
-1.392039e-02
1.160533e-02
-4.498540e-03
-4.073131e-02
-2.647519e-03
-1.856840e-02
-2.220348e-02
-2.682859e-02
8.458209e-03
-3.790723e-03
-1.166770e-02
-1.019872e-02
1.535326e-02
1.247667e-03
-2.686226e-03
2.246507e-02
-5.186342e-03
1.772773e-03
1.002778e-03
-8.988887e-03
6.879709e-03
8.463755e-04
-3.527801e-03
7.423568e-03
8.897472e-03
3.117285e-03
3.433430e-03
2.368192e-03
1.374662e-02
1.216567e-02
2.332475e-02
2.553425e-02
1.039937e-02
-5.146709e-04
-3.825162e-03
-2.396602e-02
-1.460130e-02
-3.066150e-02
-2.655642e-02
-2.556428e-02
-2.067194e-02
6.391805e-03
-1.842487e-02
-2.336941e-02
-3.059114e-03
5.509505e-03
5.245350e-04
-1.963733e-02
-2.877991e-03
-1.447986e-03
-4.734356e-03
-6.524029e-03
-8.039873e-03
3.136314e-03
6.706099e-03
-3.444430e-02
5.696990e-03
2.868424e-03
-1.102917e-03
-4.784719e-03
3.357247e-03
3.859899e-03
-1.939174e-02
-2.079481e-02
-2.615690e-02
-1.588898e-02
-1.517646e-02
-4.703368e-03
-1.285649e-02
-3.528628e-03
2.009316e-02
1.064161e-03
3.218808e-02
-1.781609e-02
1.126747e-02
-3.302661e-03
-1.709637e-02
-1.977312e-02
-2.069659e-02
1.134416e-02
1.770600e-02
1.723965e-02
-3.247984e-03
6.806761e-03
8.065672e-03
8.041910e-03
8.019290e-03
2.312573e-02
-8.401589e-03
-2.926653e-02
-4.155365e-02
-2.036463e-02
-1.788927e-02
-5.578269e-03
-2.632331e-02
-3.725758e-02
-2.773065e-02
6.495912e-03
1.582861e-02
3.468921e-03
1.293100e-02
3.166638e-02
2.666563e-02
1.543364e-02
1.489264e-02
9.474743e-03
-9.313405e-04
-1.932959e-03
-1.120330e-02
1.887771e-02
-5.725041e-04
1.502689e-02
-9.351284e-03
-9.244598e-03
1.746678e-02
8.661359e-03
2.125633e-02
1.468898e-02
-1.100342e-02
-3.390782e-05
-2.873968e-03
1.306630e-03
1.214559e-02
1.151673e-02
-4.361022e-04
4.884209e-03
3.491193e-03
-1.588234e-02
-1.367315e-02
-1.149969e-02
-2.804948e-02
-3.110261e-03
-1.625253e-02
-1.109733e-02
-6.425233e-03
1.873142e-03
-1.531789e-02
-9.739590e-03
-8.905875e-03
-3.680385e-02
-2.380558e-02
-2.220757e-02
6.896105e-04
-7.980516e-04
7.169159e-03
-2.260998e-02
5.242718e-03
1.290779e-02
-1.046303e-02
-1.134158e-02
7.847153e-03
1.009813e-02
2.241198e-02
9.538964e-03
2.742833e-02
9.446383e-03
-5.591656e-03
1.925308e-03
-6.953289e-04
-1.432841e-03
-5.031267e-02
-2.451957e-02
-1.439693e-02
-1.484812e-02
-3.164328e-02
-9.186937e-03
-1.057921e-02
-2.441852e-03
2.633321e-03
4.642534e-03
-2.766802e-03
-7.065972e-03
-1.987609e-04
6.488228e-03
4.231117e-03
-1.582243e-02
1.729908e-04
-9.247304e-03
-2.893689e-02
-1.402783e-02
-5.414873e-03
-1.863416e-02
-1.032840e-02
-8.112643e-03
-3.422660e-04
-1.936217e-03
4.558657e-03
3.638077e-03
-1.539742e-02
1.376950e-02
5.138731e-03
-2.610778e-03
-1.329086e-02
-2.589390e-02
-1.954931e-02
-1.681391e-02
1.836539e-02
-9.335555e-03
-1.288721e-02
5.481034e-03
-5.843688e-03
-8.089242e-03
-9.504929e-03
-1.380188e-02
-1.089083e-02
2.446687e-02
1.391432e-02
1.302971e-02
2.063574e-02
3.038660e-02
1.791987e-02
1.535783e-02
1.981276e-02
1.980118e-02
9.585790e-03
4.897044e-03
9.344286e-03
1.940003e-02
1.754538e-02
3.047407e-02
2.116175e-02
2.301038e-02
2.822039e-02
3.287790e-03
2.214013e-02
-1.263888e-02
1.613404e-02
-3.269815e-04
3.144114e-03
8.518307e-03
1.918236e-02
1.895763e-02
8.813523e-03
-1.409978e-02
-4.537192e-03
-2.638345e-02
-2.483376e-02
-2.395380e-02
1.417797e-03
-2.687635e-02
-2.696456e-02
-1.725194e-03
1.463781e-03
1.857990e-02
-1.584798e-02
-3.136673e-03
-8.854124e-03
1.144038e-03
1.477938e-02
2.014112e-02
-1.042355e-02
9.677503e-03
1.978578e-02
-2.747876e-03
6.086088e-03
-4.095696e-03
1.611916e-02
-7.332817e-03
-1.719012e-02
-9.894293e-03
-4.609345e-03
1.466842e-02
-4.487570e-03
1.061536e-02
-6.391763e-03
-3.173116e-02
-3.002234e-02
1.453749e-03
-1.326438e-02
-1.437525e-02
-1.574989e-02
-5.594256e-03
-8.126349e-03
-9.134471e-03
1.636633e-03
-1.417952e-02
1.112408e-03
1.943307e-02
-1.517138e-02
1.036218e-02
1.993094e-02
-2.150316e-03
-8.124035e-03
-1.998737e-02
-1.354954e-02
-6.793561e-03
-1.282373e-02
-7.612861e-03
-5.834716e-03
-6.591552e-03
1.229445e-02
-1.116098e-03
-8.730542e-04
5.879809e-03
1.112020e-02
-5.633901e-04
-2.053598e-03
-3.205333e-02
5.386045e-04
7.065884e-03
-4.100210e-04
1.317756e-03
-1.574461e-02
-9.304497e-03
1.721982e-02
1.767580e-02
3.762835e-03
3.420048e-03
5.968935e-03
-1.914617e-02
-2.606725e-04
4.619606e-04
-2.890209e-02
2.300459e-02
6.277680e-03
-5.849439e-04
1.432798e-02
3.593371e-02
1.502045e-02
1.643709e-02
2.541757e-02
2.112003e-02
-3.374084e-03
-1.357217e-03
-1.382265e-03
-8.071931e-03
-7.058954e-03
3.320030e-03
-9.064190e-04
-2.232711e-03
-1.056042e-02
-9.761422e-03
-1.834332e-02
-1.442314e-02
-1.862271e-02
-2.829983e-02
-2.075204e-03
-3.552905e-02
-1.381357e-02
-6.303728e-03
-1.392415e-02
-1.324525e-02
1.416520e-02
-2.135678e-02
-1.837843e-02
-1.320193e-02
-1.436666e-02
-2.923628e-02
-4.498040e-02
9.590055e-03
1.971478e-02
1.660747e-02
2.344758e-02
4.897849e-03
3.339066e-02
5.163118e-03
4.864072e-03
7.873122e-03
2.385900e-03
-1.360720e-02
-1.800165e-02
1.813422e-02
4.467493e-03
-2.413738e-03
-9.709767e-03
1.355345e-02
7.650123e-03
-1.893171e-02
-2.537509e-02
-1.558700e-03
-1.318318e-02
-3.404653e-02
-1.009246e-02
-1.897249e-02
-1.026235e-02
-1.911639e-02
9.661784e-03
-1.826667e-02
-1.788108e-02
1.443107e-02
8.540717e-03
-1.648367e-02
2.256214e-02
2.840791e-02
-1.749882e-02
-1.550848e-02
-7.482944e-03
-1.300087e-02
-6.628467e-04
-4.852340e-03
-1.312314e-02
8.812789e-03
2.679119e-02
-4.755531e-03
-9.642905e-03
-2.566185e-03
1.724738e-02
2.044218e-02
1.282641e-02
2.277180e-02
1.228283e-02
1.603574e-02
-5.186582e-03
8.872042e-03
1.357822e-02
2.427405e-02
2.122847e-02
-8.774928e-03
-1.708804e-02
3.526824e-03
5.485314e-03
-4.086760e-02
-1.087025e-02
1.249828e-02
-1.851128e-03
1.584592e-02
1.866776e-03
1.274531e-02
1.360700e-02
-2.960601e-03
1.729583e-03
-1.055320e-02
-3.733119e-03
-1.014097e-02
-1.450624e-02
-1.545124e-02
-1.517103e-02
-1.915522e-03
-2.676278e-02
-1.698057e-04
1.079641e-02
1.293753e-04
1.531814e-03
1.503464e-02
8.814523e-03
-3.904527e-03
1.501500e-02
-7.720353e-04
-7.680055e-03
2.728901e-03
-1.086259e-02
-2.200042e-02
-1.903265e-02
-2.258696e-02
-2.606448e-02
1.109618e-03
-1.049594e-02
-2.826529e-02
-2.824877e-03
-3.759702e-03
-2.645403e-02
-2.087835e-02
-1.662926e-02
1.191501e-02
1.451284e-03
-2.485835e-03
9.093904e-03
-8.232106e-03
-2.727013e-02
-3.419399e-02
-7.439811e-03
-1.735193e-02
-7.595354e-03
-2.381397e-02
-2.654122e-02
-9.574684e-03
1.994090e-02
1.231305e-02
2.228672e-02
1.128730e-02
7.849570e-03
5.919045e-03
2.187861e-02
-1.576617e-03
-2.130883e-02
1.112020e-02
1.674532e-02
1.453897e-02
3.303085e-02
2.157066e-02
2.849667e-02
2.588830e-02
2.410888e-02
1.554222e-02
-1.029517e-02
-1.020967e-02
3.547092e-03
-9.004604e-03
-7.696599e-03
1.252659e-02
2.908261e-04
6.096963e-03
-2.085938e-02
-4.178523e-02
-4.070255e-02
-2.777165e-03
-5.024822e-02
-3.870339e-02
-8.060422e-03
-3.342640e-02
-2.823137e-02
-1.910008e-03
-3.585567e-03
7.233559e-03
1.020399e-02
-2.138333e-03
1.720485e-02
2.696504e-02
-2.104677e-03
1.194016e-05
1.193613e-02
-2.022379e-02
1.475597e-02
2.631231e-02
-6.133682e-03
1.177288e-02
9.882852e-03
3.955046e-05
-6.033033e-03
6.459536e-04
3.574872e-03
2.955344e-04
7.740481e-03
2.948924e-02
2.058356e-02
7.379515e-03
1.688674e-03
3.270135e-02
2.131533e-02
1.781401e-03
-7.549557e-03
-1.857993e-02
4.988131e-03
1.217008e-02
5.666432e-03
1.877420e-02
-9.176951e-03
-1.678861e-02
-1.377534e-02
8.591631e-03
-8.860185e-03
1.388854e-03
6.111481e-03
2.026654e-02
1.220748e-02
-7.949572e-03
3.212048e-05
9.020626e-03
1.504820e-02
4.820992e-03
1.177614e-02
2.020920e-03
1.635106e-03
2.115167e-02
9.617996e-03
-9.241381e-03
3.973564e-03
2.472589e-02
1.605828e-02
1.285080e-02
3.137192e-03
1.060812e-02
2.663962e-02
-1.632150e-02
-9.218651e-03
-1.241879e-02
2.645668e-03
-2.527083e-02
1.676895e-02
6.077525e-03
-8.967390e-03
3.214906e-03
-2.651688e-02
8.341525e-03
5.460610e-04
-4.552746e-03
-5.044071e-03
-7.011590e-04
5.596434e-03
-2.137308e-02
-7.471289e-04
-5.880401e-04
-2.895255e-02
1.205138e-02
4.181403e-03
2.566649e-03
4.544800e-03
2.655272e-02
2.529465e-03
-5.463645e-03
2.542341e-03
3.733054e-03
-3.435823e-02
-5.299361e-03
-1.392324e-02
-6.237515e-03
-1.195821e-03
-2.009694e-04
5.410531e-03
1.396327e-02
-1.028347e-02
-1.011615e-02
1.072824e-02
1.948341e-02
1.573530e-02
1.027254e-02
3.262089e-03
1.123084e-02
-1.831655e-02
-1.381250e-02
1.724346e-02
6.657472e-03
-7.237839e-03
2.792123e-02
1.964267e-02
1.864709e-02
-2.183515e-03
-3.380168e-03
-1.212268e-02
-9.724283e-03
1.291350e-02
3.424099e-02
1.245141e-02
-7.714455e-03
-8.165519e-03
-4.476042e-03
2.315523e-03
-1.089844e-02
1.645205e-02
1.660776e-02
-2.983239e-03
1.391949e-02
6.461265e-03
1.688836e-02
1.920464e-02
2.497226e-02
6.649360e-03
6.508472e-03
-6.951044e-03
6.696626e-03
4.013868e-03
-3.700516e-03
-5.203648e-03
-1.786598e-02
2.548450e-02
-1.594839e-02
-1.239490e-02
-1.901961e-02
-1.162140e-02
-5.002474e-03
-8.564855e-04
5.333833e-04
-1.633317e-02
-1.140072e-02
-7.083727e-03
-1.340871e-02
-1.638520e-02
-3.380295e-02
-9.900983e-03
-7.661467e-03
-1.376577e-02
-2.452734e-02
-2.798582e-02
-3.958188e-03
-4.199153e-03
-5.103957e-04
-6.184748e-03
9.373336e-04
-8.498477e-03
2.128440e-03
-1.472921e-02
-6.091300e-03
8.728031e-04
-1.414210e-03
-1.131616e-02
1.382540e-02
1.146991e-02
-3.412041e-03
4.208806e-03
-5.286336e-03
-1.015347e-02
-1.325387e-02
-1.181432e-02
-2.783674e-03
6.040063e-03
2.385790e-02
2.109206e-03
6.785162e-03
4.364572e-04
-2.052013e-02
-1.326285e-02
-1.134108e-02
-4.022758e-03
-5.858243e-03
-2.671215e-02
-2.353022e-02
8.887625e-03
-1.137166e-02
-1.189975e-02
7.478031e-03
-1.520922e-02
2.182559e-02
1.604784e-02
-5.705045e-03
3.852132e-03
7.070648e-03
-1.896546e-02
-1.666689e-02
2.765786e-02
-1.047552e-02
-1.793001e-02
-1.424277e-02
-1.104705e-02
-1.225635e-02
9.001893e-03
-9.002643e-03
-9.556741e-03
-1.100264e-02
5.346552e-03
8.672901e-03
5.604896e-04
-1.666811e-03
-2.705715e-03
2.112536e-02
4.617236e-03
1.590928e-04
1.668406e-02
-1.406229e-02
-3.754023e-04
1.869397e-02
-1.975734e-02
-3.183515e-02
-5.298386e-03
-2.905157e-02
-1.479068e-02
-2.465195e-03
-6.582791e-03
6.731546e-03
-3.551555e-02
1.933998e-02
1.140234e-02
-7.950163e-03
4.689368e-02
2.735790e-02
-3.400252e-02
1.967641e-02
-1.338763e-04
-1.288022e-02
1.547301e-02
-5.347340e-03
-1.700713e-02
5.326289e-03
1.102896e-02
1.918002e-02
-4.611564e-05
-1.111836e-02
6.334061e-03
-1.005557e-02
-1.407689e-02
1.384606e-02
-1.632835e-02
-4.181820e-03
-4.257655e-03
-1.184748e-02
1.418219e-02
1.941350e-02
-3.662892e-03
8.655516e-03
1.898392e-02
-1.735836e-02
-1.288519e-02
2.248708e-02
-3.123845e-02
-4.654952e-03
2.202664e-02
1.328218e-02
4.136084e-03
8.131966e-03
-3.532909e-03
-2.902272e-02
-7.763717e-03
-2.500026e-02
1.208179e-03
5.776913e-03
-8.361261e-03
1.049329e-02
1.931276e-02
-2.569082e-02
-1.529918e-02
7.526745e-03
-4.987352e-03
1.286619e-02
2.071793e-03
1.145817e-02
2.115941e-02
-3.163267e-04
-5.711291e-03
3.540804e-03
-1.840912e-02
-5.785216e-03
6.307770e-03
-1.894967e-02
-3.820052e-03
1.777871e-02
2.098714e-03
-7.868635e-03
1.757001e-02
-5.659900e-03
-2.604121e-02
-2.458281e-02
-9.202956e-03
-5.846677e-03
-3.290024e-03
1.728552e-02
-8.316963e-04
1.468320e-02
1.533218e-03
-1.701283e-02
1.853386e-02
1.745472e-02
6.192577e-03
5.394705e-03
3.568880e-02
-6.532322e-03
-1.166207e-02
-6.747252e-04
-8.070434e-03
3.396670e-03
-1.446247e-02
-1.271207e-02
9.328640e-03
1.228186e-02
-2.331643e-03
-3.908678e-03
-1.627519e-02
-9.053163e-03
1.266936e-02
1.799850e-02
-1.129217e-02
1.106464e-03
5.035851e-03
-1.374430e-02
-2.270421e-02
-5.204206e-03
-8.238200e-03
1.716678e-02
7.297288e-03
-6.143252e-03
-4.756387e-03
-3.709771e-03
3.395151e-03
9.912468e-03
-5.632004e-03
-1.578260e-03
-1.438915e-02
-1.546611e-02
1.329480e-02
3.405376e-03
2.438627e-02
-4.865703e-03
-7.770297e-03
-1.103805e-02
-1.862185e-02
4.773871e-03
-3.020063e-02
1.663784e-03
-2.479679e-02
-3.203245e-03
-9.947226e-03
3.243861e-03
1.380497e-03
-1.383030e-02
1.820875e-02
2.873568e-03
1.172149e-02
1.007941e-02
-3.748915e-02
-4.490267e-03
-7.761016e-03
-1.455098e-02
-1.645450e-02
-2.614381e-02
1.661417e-02
-1.841391e-02
1.936989e-02
-1.926353e-03
-1.962706e-02
-4.195854e-03
-1.989934e-03
-8.864086e-03
1.068074e-02
-1.210049e-02
-1.173014e-02
8.882311e-03
-1.219173e-03
3.208546e-03
1.540678e-04
-7.400810e-03
-1.975610e-02
-2.400413e-02
-1.988947e-02
-1.595211e-03
-5.117332e-03
-1.278125e-02
-1.786583e-03
2.370294e-02
1.895744e-03
6.515520e-03
8.262652e-03
1.388704e-02
2.396463e-02
2.468712e-02
1.185135e-02
1.672025e-02
1.459356e-02
1.815215e-02
9.994799e-03
8.998765e-04
-1.677763e-02
-2.240802e-03
-8.923234e-03
-2.203589e-02
2.302510e-02
6.429791e-03
-1.713200e-02
-1.805842e-02
-2.510718e-02
4.162214e-03
-9.829348e-03
-5.432891e-03
-5.389740e-04
-3.074822e-02
-9.336861e-03
-7.261480e-03
-1.043965e-02
3.976352e-03
-1.237092e-02
-1.022254e-02
-6.017193e-03
7.187053e-03
-1.340924e-02
-2.207452e-02
-4.777277e-03
-1.361416e-02
-7.550903e-03
-2.514554e-02
-8.469719e-03
-2.342377e-02
8.291280e-04
-1.297083e-02
-9.090353e-04
-1.085573e-02
3.413281e-03
3.821877e-03
-9.698798e-03
-7.705652e-03
7.051316e-03
-5.833444e-03
-1.208002e-02
-1.229431e-02
-1.225296e-02
1.358636e-02
-7.348082e-03
-2.100162e-05
-1.470307e-02
1.235334e-03
-2.802852e-04
-8.645752e-03
-1.102667e-02
-5.813524e-03
-3.631923e-02
-7.429141e-03
-1.057691e-02
-1.421641e-02
-2.334866e-03
1.484674e-02
1.617241e-02
3.736955e-03
-1.066340e-02
-1.709445e-02
4.522624e-03
-1.598259e-02
-1.621237e-02
-2.373264e-03
-3.838573e-03
-7.223174e-03
-5.584075e-03
1.572328e-02
3.680132e-02
2.855998e-02
1.090564e-02
5.783731e-03
-3.664644e-03
8.379948e-03
5.620334e-03
-5.645655e-03
-1.342990e-02
-1.195245e-02
-1.660513e-02
-2.018843e-02
-2.454206e-02
-4.188967e-02
-2.915389e-02
-1.725329e-02
-1.932298e-02
-3.452244e-02
1.028993e-02
9.892378e-03
8.824293e-03
2.035241e-02
4.033095e-03
-1.586411e-02
6.762655e-03
7.419939e-03
-2.029121e-02
-4.119374e-04
-9.631495e-04
1.615830e-02
9.707084e-03
1.327101e-02
4.731626e-03
-1.631149e-02
-5.652123e-03
-1.555140e-02
-1.772015e-02
5.531864e-03
-9.377454e-03
6.101446e-03
2.601626e-02
1.790011e-02
2.509867e-02
2.490776e-02
2.829813e-02
2.788152e-02
2.374565e-02
2.115949e-02
1.803237e-02
2.439478e-02
1.812903e-02
-2.117134e-03
-9.895306e-03
6.225751e-03
1.599932e-03
3.480519e-03
2.146675e-03
7.702837e-03
-7.980273e-03
-2.009464e-02
5.733472e-03
1.260839e-04
-3.188350e-03
6.618659e-03
1.415563e-02
8.208442e-03
9.165962e-03
3.094559e-02
1.386631e-02
7.011517e-03
1.691864e-02
9.346252e-03
-4.401020e-03
-1.589939e-02
2.597785e-03
5.563251e-03
5.370805e-04
7.336466e-04
7.027232e-03
-2.157572e-02
-1.350620e-02
1.589110e-02
1.853886e-02
2.043993e-03
2.758905e-02
1.286110e-02
1.153057e-02
8.828084e-03
2.710519e-03
4.879175e-04
5.422191e-03
-9.832080e-03
-1.269754e-02
9.801070e-03
-1.821439e-03
-6.645718e-03
-7.456400e-03
8.316488e-03
-1.378403e-02
2.057911e-03
-8.491632e-03
-9.254230e-04
4.842182e-03
-1.209676e-02
-3.165844e-02
-6.202359e-04
2.113627e-04
-1.804012e-02
-4.451826e-03
-9.543318e-03
3.371231e-03
4.595119e-03
3.175969e-02
1.449701e-02
6.360549e-03
1.477893e-02
3.313199e-02
2.690162e-03
2.027996e-02
2.375045e-02
1.710097e-03
2.224609e-02
2.719145e-03
-1.045197e-03
1.937099e-02
1.372929e-02
-1.223155e-02
-5.129284e-03
-5.287353e-04
5.838912e-03
6.650709e-03
-4.346746e-03
-8.831492e-04
-1.662817e-02
1.043933e-02
-8.020850e-03
-3.959238e-03
-1.491446e-02
-1.388136e-02
-1.129384e-02
-1.709459e-02
1.068962e-02
9.341069e-03
1.054942e-02
-8.222844e-03
3.979577e-03
-3.057038e-02
-7.127628e-03
9.587890e-05
-5.105221e-03
-5.230525e-03
1.353187e-02
6.465743e-04
3.800031e-02
2.051481e-02
6.381014e-03
-4.778883e-03
3.573005e-03
-5.440002e-03
-3.141791e-03
7.629840e-04
-8.170418e-03
-2.573533e-02
-3.119956e-02
-2.800659e-02
6.691259e-03
-1.619158e-02
-1.309242e-02
1.607191e-02
-4.202260e-03
6.396444e-03
-1.098709e-03
1.355025e-02
8.002157e-03
-1.232480e-02
-3.173109e-03
8.415462e-03
-1.544255e-03
1.157978e-02
9.084745e-03
-1.542941e-03
-9.949716e-03
-2.056851e-03
-2.233293e-03
1.823907e-02
1.329808e-02
-1.373414e-03
1.849975e-02
1.370089e-02
3.001896e-04
-8.738331e-03
-2.692834e-03
1.394812e-02
1.085382e-02
-4.598003e-04
1.506498e-02
1.482972e-02
9.972791e-03
1.378258e-02
6.946979e-03
-3.455572e-03
4.536652e-04
1.115756e-03
1.935879e-02
6.608802e-03
-4.795498e-03
2.689098e-02
-1.984867e-02
-1.811894e-02
-2.558811e-02
-1.095881e-02
1.787638e-03
-1.294746e-02
-1.612208e-02
-1.265435e-02
-2.766617e-03
-2.288057e-02
-2.206778e-03
2.863772e-02
-2.113815e-02
-8.194895e-03
9.913258e-04
-2.653589e-02
-8.181243e-03
1.152659e-02
-2.131196e-02
2.209290e-02
5.894532e-03
2.687882e-02
1.525676e-02
1.836098e-02
3.961285e-02
2.044375e-02
1.355625e-02
-5.060683e-03
-1.162455e-02
5.942574e-03
-5.412232e-03
-8.432769e-03
-2.690033e-03
9.401032e-03
-1.752505e-02
-1.169268e-02
-6.152509e-03
-2.299134e-02
-7.446683e-03
-1.613421e-02
-6.588129e-03
5.425674e-03
8.850925e-04
-9.473164e-03
1.330071e-02
-1.546171e-02
3.662589e-03
3.045718e-02
1.010158e-02
8.701087e-03
2.624041e-02
1.296950e-02
2.699343e-02
1.762525e-02
-3.760986e-03
-2.894481e-04
-1.191670e-02
-1.369656e-02
-8.808794e-03
8.361456e-03
-1.216085e-02
3.018289e-03
1.834574e-02
-2.458983e-02
6.611738e-03
-1.590309e-03
-2.539472e-02
-2.947432e-02
1.024499e-02
-2.445333e-02
-2.558591e-02
-1.103272e-02
8.889100e-03
-1.670007e-02
-5.687328e-04
2.834922e-02
-2.954902e-03
-1.112443e-02
1.215471e-02
-2.054904e-03
-9.439314e-03
3.530158e-03
-9.510461e-03
-1.149795e-03
4.154633e-03
-2.720841e-03
-9.721430e-03
2.952174e-02
7.536346e-03
1.652631e-03
-9.778539e-03
-6.431982e-03
-1.047909e-02
1.442874e-02
1.508777e-02
5.920846e-03
2.342437e-03
1.633032e-03
8.188581e-03
-1.307953e-02
-1.472703e-02
-4.967861e-03
2.249899e-03
-2.026384e-02
-7.655776e-03
-2.006308e-02
-1.268107e-03
-6.736555e-03
-7.566813e-04
1.382265e-02
2.672722e-02
-2.725674e-03
-1.560504e-04
-5.403191e-03
-5.521577e-03
-3.981703e-03
6.007445e-03
-6.851311e-03
-3.101834e-03
-1.511552e-04
1.408668e-02
7.429758e-03
1.486925e-02
5.622436e-03
1.371145e-02
-3.736498e-04
-3.673690e-03
3.681742e-02
2.749885e-02
2.647478e-04
1.812434e-02
3.627653e-02
-1.071080e-02
2.302134e-02
3.441411e-02
2.437908e-02
1.144275e-02
-6.004675e-03
2.617414e-02
2.061961e-02
1.291465e-02
2.789745e-02
1.984460e-02
1.964917e-02
2.178635e-02
1.999303e-02
2.388399e-02
1.531599e-03
-2.600059e-03
9.173733e-03
-1.930954e-02
-1.223457e-02
-6.351359e-03
-2.529848e-02
-5.883380e-03
2.628251e-02
-1.814057e-02
-1.313629e-02
2.304467e-02
9.939153e-03
-8.495132e-03
2.336686e-02
2.079162e-02
1.666757e-02
1.379132e-02
1.309663e-02
2.423974e-02
1.138076e-02
1.243720e-02
7.324783e-03
-1.154290e-02
-7.570385e-03
-2.341816e-03
2.629703e-02
-8.020284e-03
-1.277637e-02
1.606462e-02
-1.530553e-02
-5.679600e-03
5.832888e-04
-1.130214e-02
-1.508278e-02
-1.386075e-02
-1.577154e-03
-5.044642e-03
3.328618e-03
3.718470e-03
7.836230e-03
-4.909946e-03
-1.079228e-02
-1.035470e-02
1.287960e-02
-1.822515e-02
-8.636972e-03
-2.029614e-02
-3.462789e-02
-4.821723e-02
-2.664034e-02
-1.692627e-03
2.081064e-02
3.338301e-02
-1.387520e-02
-6.403312e-03
-1.575611e-03
-1.741585e-02
-5.973627e-03
-5.278436e-03
-6.650178e-03
-1.695525e-02
7.377930e-03
-5.826724e-04
-5.625828e-03
1.532311e-02
-6.651331e-03
1.373794e-02
2.087290e-02
-4.601666e-02
-1.817415e-02
-9.296656e-03
-4.736932e-03
-4.591115e-03
-4.431925e-03
1.887110e-02
-2.212760e-02
2.294926e-04
-2.334052e-02
2.476521e-02
1.261302e-02
-3.462944e-02
1.224071e-02
6.252779e-03
-2.236768e-02
3.768786e-03
2.900025e-03
-3.655394e-02
-2.966766e-02
-6.371156e-03
-4.723630e-02
-8.778797e-03
-2.020665e-02
-3.685231e-02
-2.799787e-02
-2.374761e-02
2.029976e-02
1.374775e-03
-2.526337e-02
-7.203317e-03
-3.676292e-03
-1.008868e-02
3.366573e-03
-2.536143e-02
-2.256321e-02
-1.188617e-02
1.963164e-02
7.664793e-03
-1.331739e-02
9.508332e-03
1.539994e-02
2.344585e-03
3.527986e-03
1.805437e-02
1.794818e-02
4.093629e-03
-8.234660e-03
-6.121715e-03
-6.064083e-03
5.386388e-03
-1.921520e-03
1.222580e-02
-3.843962e-04
3.220590e-03
8.891445e-03
7.977051e-03
5.243868e-03
1.704878e-02
-3.825809e-03
-1.108528e-02
1.628636e-03
1.028076e-02
3.698381e-03
2.780249e-03
-6.484241e-03
1.781946e-02
8.426126e-03
-3.979874e-03
1.341820e-02
1.810214e-03
2.052671e-02
-1.887726e-02
4.703789e-03
-7.320589e-03
-2.535959e-03
-2.912639e-03
-2.792374e-02
-1.402641e-02
-1.946204e-02
-9.925619e-03
1.515222e-03
8.334894e-03
3.035198e-03
3.853510e-03
-3.206195e-04
-1.172630e-05
9.997090e-03
1.289284e-02
3.040460e-02
-6.633439e-03
7.651351e-03
-7.228766e-03
4.530540e-03
2.067947e-02
1.331885e-02
1.028903e-02
3.534954e-02
2.061030e-02
-2.285619e-04
7.462742e-03
-2.127650e-02
2.739619e-03
1.603951e-02
-2.627257e-03
6.066116e-03
1.128215e-02
-3.214842e-03
7.756844e-03
1.083712e-02
-1.119392e-03
6.357768e-03
5.852270e-03
1.772343e-02
-8.526848e-03
-1.302400e-03
-6.300063e-03
-3.145450e-02
6.668080e-03
-3.818329e-03
8.661110e-03
-1.004557e-02
2.602991e-03
2.247990e-03
6.740498e-03
4.843955e-03
-6.371869e-04
1.293699e-02
7.118423e-03
2.212993e-02
2.390777e-02
2.240721e-02
2.660165e-02
1.731113e-03
8.542040e-03
-5.188625e-03
-2.423539e-03
1.895827e-04
-4.391761e-03
-1.190444e-02
-5.987762e-03
-8.302047e-03
2.065083e-02
-7.207189e-03
-4.905584e-03
6.352348e-03
-7.888931e-03
1.340107e-02
-9.055643e-03
1.186802e-02
1.065200e-02
-5.715326e-04
-9.218994e-03
5.020627e-03
5.245476e-03
3.638555e-03
1.699663e-03
-2.455700e-02
-2.218343e-02
2.179546e-02
5.187337e-03
-8.452537e-03
-2.406771e-02
-1.986294e-02
-2.349341e-02
-2.236889e-03
-1.866680e-02
-1.818565e-02
-1.685672e-02
-1.543109e-02
5.718080e-03
2.262057e-03
8.503416e-03
-4.203452e-03
1.972806e-03
-2.753246e-03
4.576323e-03
7.770232e-03
-8.769146e-04
-9.646800e-03
-1.395228e-02
-8.735364e-03
-9.000525e-04
1.360131e-02
-1.105916e-02
-8.366198e-03
1.846766e-02
8.377891e-03
1.308714e-02
-4.098892e-04
-3.584772e-02
-1.028782e-02
-6.229136e-03
-5.757174e-03
-2.912119e-03
-7.591741e-03
1.646808e-02
5.604772e-03
-2.380630e-03
-3.914326e-03
-1.884694e-02
-2.237785e-02
1.317383e-02
-1.472753e-02
1.826832e-03
2.381858e-02
1.178430e-02
2.562825e-02
1.367496e-02
1.346191e-02
1.252503e-03
9.530589e-03
2.624407e-03
3.388381e-03
1.125228e-02
9.061731e-03
-1.847496e-02
-1.435293e-02
-8.971500e-03
-1.237263e-02
-9.977199e-03
-8.625962e-03
9.384878e-03
-9.562045e-03
-1.205638e-02
4.098024e-03
1.049054e-02
2.192014e-02
2.011986e-02
2.488258e-02
1.591321e-02
1.995791e-02
3.548429e-02
1.745629e-02
-1.817017e-02
-1.195408e-02
-2.688251e-02
1.206671e-02
-1.758915e-02
-1.587510e-02
2.218086e-02
1.082744e-02
-1.208594e-02
-1.766757e-02
-9.819799e-03
-7.111591e-03
7.342333e-03
1.744453e-02
8.753570e-03
5.139448e-03
-3.144472e-03
-5.280938e-04
-1.059135e-02
-4.529005e-03
-9.335536e-03
-1.353194e-02
-6.282994e-03
3.291297e-04
-4.731184e-03
5.132835e-04
-7.959457e-03
-1.449205e-02
-1.235291e-02
-1.988991e-02
-2.043521e-03
-5.385102e-03
-2.569287e-02
-2.082977e-02
-8.793102e-03
2.247235e-03
-8.393916e-03
-9.564736e-04
8.474255e-03
-2.312036e-02
5.448007e-04
-4.034853e-04
-1.192077e-02
1.048190e-03
-1.770077e-02
-1.192070e-02
-2.305208e-02
-7.791693e-04
-3.540143e-03
-2.258976e-03
3.322957e-02
-1.382497e-02
-3.045266e-03
8.593935e-03
-9.938957e-03
2.773791e-03
-8.683535e-03
6.907437e-03
1.516116e-02
-1.905735e-03
6.974346e-03
2.411877e-02
2.037583e-02
-2.354571e-02
-2.346138e-02
-4.292035e-03
4.786573e-03
-9.853079e-03
-8.990158e-03
-1.679002e-03
9.714019e-03
9.519454e-03
-1.494736e-02
-2.409727e-02
-4.728010e-03
-1.215912e-02
-7.022422e-03
-2.755253e-02
-4.826210e-04
1.859042e-03
7.859734e-04
6.678591e-04
-1.286202e-02
-2.858220e-03
-1.034590e-02
5.793592e-03
3.339819e-03
-1.033254e-03
1.130795e-02
6.226917e-03
1.233244e-02
1.154982e-02
1.728376e-02
2.423610e-02
2.352696e-02
3.349269e-02
1.571158e-02
2.108823e-02
3.560045e-02
-1.612177e-02
-2.597134e-02
-2.610710e-02
7.804917e-04
-3.290429e-02
-3.281766e-03
3.551961e-03
2.201556e-03
-2.569007e-03
-5.098631e-04
-2.005477e-02
-4.314454e-02
-2.617343e-02
-4.934113e-03
-1.235097e-02
-1.917273e-02
8.184498e-03
-1.892137e-02
7.700654e-03
1.256744e-02
3.543150e-03
8.701697e-03
-1.115126e-02
-1.181702e-02
-1.297446e-03
-3.100900e-03
-3.484563e-03
5.133550e-03
-5.789461e-03
-1.610257e-02
3.947321e-04
-9.223008e-03
-2.796382e-03
-2.492236e-02
-2.295539e-02
-1.982476e-02
4.503243e-03
-3.393009e-03
9.687685e-05
4.773229e-03
9.484570e-03
2.472530e-04
9.325730e-03
-6.565360e-03
-8.382215e-04
8.595954e-03
1.373870e-02
7.658027e-03
1.800224e-02
1.296731e-02
-7.773786e-03
6.126184e-03
-2.863541e-03
-8.660153e-03
-2.077073e-02
2.412681e-02
2.920768e-02
-8.046323e-03
3.344373e-02
1.908421e-02
1.409325e-02
3.062064e-03
-2.398305e-02
5.677559e-03
1.901424e-03
1.982771e-02
2.566323e-03
4.622313e-03
-6.023335e-03
-4.604614e-03
-8.627613e-04
-9.866442e-03
1.915476e-03
-3.482971e-03
-1.196298e-03
-1.363797e-02
-3.705027e-03
-1.888588e-02
-2.030596e-02
-9.032577e-03
2.002915e-03
1.436386e-03
1.501787e-02
-1.495416e-02
-1.951600e-02
4.316708e-03
-1.277374e-02
-1.545283e-02
4.500572e-03
1.752797e-03
4.918009e-03
-1.221433e-02
-1.824353e-02
-1.663697e-03
1.039527e-04
-1.972112e-02
6.624516e-05
1.074082e-02
-6.456657e-03
-1.871794e-02
1.128970e-02
-1.469149e-02
-1.233184e-02
-4.553072e-03
2.430735e-03
-1.184911e-02
8.450706e-03
1.285167e-02
3.212034e-02
2.324852e-02
-1.652197e-03
-4.648645e-03
2.295407e-02
6.618763e-03
-1.991203e-02
-1.012667e-02
2.186415e-04
8.534699e-03
2.966804e-03
9.653841e-03
-7.523801e-03
-1.832119e-03
2.344023e-02
1.146735e-02
4.963636e-03
9.305239e-03
1.793650e-02
3.421175e-02
2.180603e-02
2.374783e-02
1.588793e-02
1.347670e-02
6.593138e-03
-9.636159e-03
-2.574659e-02
1.763307e-02
2.338108e-02
1.310755e-02
2.327352e-02
8.917503e-03
-7.522632e-03
2.436437e-02
3.375888e-04
-2.983471e-02
-2.781164e-02
-1.640660e-02
-1.145489e-02
-3.509277e-02
-7.806106e-03
2.558633e-03
4.276752e-04
2.606451e-02
3.319432e-03
1.764710e-02
-1.225221e-03
1.783238e-02
1.609118e-02
6.972517e-03
2.049722e-03
-7.956951e-03
4.568124e-03
1.400926e-02
-4.742150e-03
-1.360159e-02
-1.992309e-02
-3.530409e-03
-2.061126e-02
-1.471224e-02
2.953182e-03
-1.313962e-02
-9.873979e-03
-5.405917e-04
3.126266e-04
3.550186e-03
2.488701e-02
3.369728e-02
-3.745967e-03
1.874349e-02
2.144521e-02
8.431565e-03
1.430777e-02
1.704906e-02
-9.391645e-03
1.600652e-02
4.348323e-03
1.998649e-03
2.447747e-02
-6.835635e-03
-1.750348e-02
2.596089e-03
4.588355e-03
-1.555111e-03
9.011915e-03
-2.185978e-02
-6.648588e-03
2.071047e-02
-4.005723e-04
-4.052710e-03
-2.599395e-02
-1.294186e-02
-7.607322e-03
-1.451044e-03
-6.556637e-04
-1.746951e-02
1.018622e-02
-5.027947e-03
-8.439741e-03
-1.867814e-02
-2.488309e-02
-1.542054e-02
-1.042651e-02
2.013651e-02
-1.201641e-02
2.634860e-02
2.602851e-02
1.091468e-02
-9.556466e-03
2.298672e-03
1.224231e-03
2.063777e-03
-2.869871e-04
-2.378996e-04
1.805061e-02
1.099686e-02
3.242627e-03
7.597478e-03
1.264123e-02
-1.487515e-02
1.322477e-02
-2.285775e-03
-1.502942e-03
7.205142e-03
1.874016e-02
6.187455e-03
2.572136e-02
2.022499e-02
8.291533e-03
3.343203e-02
2.765698e-02
1.163879e-02
-1.065468e-02
9.968417e-04
1.558470e-02
2.225085e-02
1.437617e-02
6.706158e-07
1.316937e-02
6.030635e-03
-2.612269e-02
8.094826e-03
5.898065e-03
7.720606e-04
-1.116506e-02
-3.638341e-03
-2.451603e-02
-2.743703e-02
-3.870701e-02
-3.078422e-02
-3.526859e-02
-4.518555e-02
-2.693629e-02
1.816261e-03
1.081178e-02
1.667219e-02
1.154470e-02
5.179640e-03
5.561119e-04
2.492894e-02
8.860399e-03
-1.609031e-02
1.199850e-02
1.051857e-02
-4.999277e-02
-3.142052e-03
-1.190117e-02
-3.124900e-02
-5.574232e-03
-4.311071e-03
1.244936e-02
-1.244828e-02
3.982662e-03
-4.422024e-03
-4.135162e-03
-2.231940e-02
-8.373179e-03
-3.839821e-02
-1.855301e-02
-8.045655e-03
-1.230737e-02
1.718900e-02
1.491156e-02
-4.990690e-03
1.922626e-02
1.048086e-02
-1.261275e-03
3.171490e-02
-1.243304e-03
-1.748249e-02
4.882689e-03
1.566250e-02
-5.959849e-03
-7.084400e-03
-1.105282e-02
-1.850653e-03
-3.289167e-03
-1.679296e-02
7.527786e-03
4.183250e-03
8.680168e-03
-1.525080e-03
-2.316070e-03
4.658840e-03
-1.588652e-02
2.067293e-03
-1.842627e-02
-1.045711e-02
-1.146763e-02
-8.722507e-04
3.744153e-03
-5.304151e-03
-5.896870e-03
3.124009e-03
1.645968e-02
-3.767822e-03
-9.307601e-03
-3.419039e-02
-1.068174e-03
-7.751623e-03
-1.218460e-02
-2.868363e-02
1.906698e-02
-8.503976e-03
-2.033118e-02
2.269455e-02
1.110440e-02
2.474127e-02
6.275380e-03
7.726970e-03
5.119441e-03
1.771434e-02
-2.034981e-02
9.838752e-03
-2.348070e-02
1.276953e-03
-5.133113e-03
-2.904172e-02
7.588775e-03
1.132927e-02
-1.221868e-02
-5.906012e-03
-3.725399e-03
-3.247014e-03
-2.351039e-02
-2.139911e-02
1.067184e-02
3.738105e-03
9.750449e-03
1.661203e-02
4.902201e-03
-1.290115e-02
-4.336561e-03
7.371725e-03
-8.060787e-03
-2.144471e-02
-6.225992e-03
-2.237399e-02
-8.812009e-03
-2.126463e-03
3.661654e-03
1.976934e-02
6.440534e-03
-2.173657e-02
2.416103e-02
1.337849e-02
5.915097e-04
1.562934e-02
3.097121e-02
-7.214996e-03
1.582722e-02
2.249954e-02
-4.995419e-03
5.110956e-04
-3.985043e-03
3.594886e-03
-1.146694e-02
1.646271e-03
1.204587e-03
4.277578e-03
-5.782482e-03
-2.443225e-02
4.564437e-04
-2.666224e-02
-1.965105e-02
9.410540e-03
-8.189630e-03
-5.561265e-03
-2.137332e-02
-1.301621e-02
1.710909e-02
-2.004289e-02
-4.945612e-03
1.306681e-02
-2.137628e-03
1.307634e-02
1.008901e-02
-5.304384e-03
-7.688866e-03
2.357033e-02
-5.255668e-03
3.751385e-03
-3.683731e-03
6.813364e-03
-1.485313e-02
8.704876e-03
-1.249958e-02
-1.185241e-02
1.812933e-02
-4.537615e-03
-2.118517e-02
4.401452e-03
-5.108589e-03
-1.634104e-02
-5.038426e-03
-5.027967e-03
-2.645811e-02
-1.717829e-02
-7.117045e-03
-2.533863e-02
-2.715211e-02
-6.871415e-03
-8.716634e-03
-4.455048e-02
-1.234626e-02
-5.186658e-03
1.192288e-02
1.020907e-04
3.770972e-03
1.516732e-02
-1.420890e-02
1.104556e-02
9.884384e-03
-7.850367e-03
3.100168e-02
3.677978e-03
-1.678831e-02
1.664892e-02
2.232318e-02
-3.789705e-02
-4.794130e-03
4.340206e-03
4.172539e-03
-6.328883e-03
1.484031e-02
5.257084e-03
1.978086e-02
3.043194e-03
2.567947e-03
9.587125e-03
-6.942830e-03
-3.286316e-02
4.084409e-04
2.768288e-03
-1.547759e-03
3.280742e-03
-6.145457e-04
3.181998e-03
-5.129963e-03
1.059278e-02
-4.488955e-03
-8.051129e-03
-2.772527e-02
6.767717e-03
-2.500322e-02
-5.630299e-03
4.336145e-02
2.004254e-02
2.675790e-03
-9.022312e-03
-3.918154e-03
5.653993e-04
-2.813314e-03
-1.096027e-02
-1.548488e-02
-8.033012e-03
-5.525770e-03
-3.208752e-03
1.089011e-03
-5.545779e-03
-3.277133e-03
9.079462e-03
-3.536210e-03
-1.943703e-02
-4.199824e-03
-5.377326e-03
1.853082e-02
2.531811e-03
1.833959e-02
1.153034e-02
-1.227763e-03
-1.387770e-03
1.759339e-02
-2.873769e-02
5.142579e-04
7.149871e-03
-1.674037e-02
