1.145226e-01
1.018255e-01
5.085696e-02
1.183630e-01
1.037106e-01
1.116055e-01
3.127963e-02
2.181508e-02
6.284085e-02
-4.345738e-02
-8.052761e-02
-8.706418e-02
-7.106841e-02
-4.251781e-02
-6.816478e-02
-5.044228e-02
-4.776787e-03
-7.245485e-02
-3.114909e-02
-2.777082e-02
-2.503217e-02
-8.182257e-02
-7.236809e-02
-6.517906e-02
-4.842995e-02
-3.052869e-02
2.632895e-02
1.669488e-02
1.483486e-02
-3.134351e-02
7.934107e-02
5.008194e-02
1.136117e-03
1.472067e-01
1.030163e-01
3.476661e-02
-5.352251e-02
-6.060963e-02
-1.814520e-02
-8.564455e-02
-7.104166e-02
-7.510804e-02
-6.211734e-02
-6.791107e-02
-8.975938e-02
2.833174e-02
2.206325e-02
-6.631973e-03
1.052857e-01
3.439074e-02
2.465297e-02
1.295454e-01
8.644035e-02
2.859395e-02
4.994553e-03
3.550974e-02
6.128798e-02
-5.972775e-02
4.701765e-03
9.403939e-03
-5.132974e-02
-2.671252e-02
-4.680822e-02
-3.215935e-02
1.071751e-02
-2.764430e-02
-5.248985e-03
-4.213237e-02
-4.101445e-03
4.137488e-02
5.960090e-02
5.037053e-02
-6.605312e-02
-2.573575e-02
-2.292594e-02
-3.626736e-02
-2.242473e-02
-2.122810e-02
-4.704895e-02
-5.829342e-02
-6.669514e-02
-2.714641e-02
-1.668902e-02
-5.708668e-02
-2.597040e-02
2.378308e-02
-3.174713e-02
-3.860723e-02
-2.854640e-02
-4.139703e-02
-2.467052e-03
-3.529679e-03
-2.743093e-02
1.105171e-02
6.452712e-02
1.524966e-02
2.209839e-03
2.839607e-02
7.412396e-02
2.658993e-02
-6.425711e-03
6.457292e-03
-6.483815e-03
-9.357034e-03
-1.709248e-02
3.637788e-02
2.876315e-02
1.417524e-03
-1.824083e-02
2.934053e-02
3.797914e-02
1.826813e-02
2.210642e-02
1.138350e-01
6.187605e-02
1.319486e-01
1.129950e-01
-4.780345e-03
-6.790228e-03
9.017503e-03
5.013232e-02
4.320293e-02
3.409196e-02
6.728732e-02
5.738263e-02
6.944217e-02
-7.047885e-03
6.050535e-02
2.484037e-02
1.653601e-01
6.322499e-02
6.197784e-02
2.059928e-01
2.219090e-01
1.169656e-01
-4.533039e-02
-4.686397e-03
3.123448e-02
3.748500e-02
7.499871e-02
1.377257e-01
5.919692e-02
1.332730e-01
1.343308e-01
-1.483960e-01
-1.455628e-01
-8.761198e-02
-7.832085e-02
-1.325099e-01
-6.506899e-02
-7.769662e-02
-5.247264e-02
1.732104e-02
5.699770e-02
7.310942e-02
4.270460e-02
3.321715e-02
1.468357e-02
-4.023036e-02
-3.725244e-02
-4.085853e-02
-3.979058e-02
-1.068109e-02
-3.684403e-02
-4.049426e-02
-1.166604e-02
1.078910e-02
-8.268338e-03
5.548459e-02
2.971018e-02
-9.805404e-03
-6.858522e-02
-5.881884e-02
-3.125036e-02
-1.271862e-02
-5.282851e-02
-5.161481e-02
3.365626e-02
-2.008690e-02
-3.679306e-02
-8.639812e-02
-2.775401e-02
-6.143599e-03
2.063336e-03
-2.865911e-02
1.576306e-03
2.806088e-02
4.446809e-04
-5.331928e-03
-2.051600e-02
1.546069e-03
-5.140685e-02
7.326815e-02
4.242898e-02
-3.075853e-02
3.046696e-02
3.575537e-02
-1.177028e-02
2.254119e-02
4.551128e-02
2.848704e-02
-5.283511e-03
4.479515e-02
2.751356e-02
1.938375e-02
4.362476e-02
9.100392e-03
1.648313e-02
5.581905e-02
4.435935e-02
4.430415e-02
1.814897e-02
1.131868e-01
6.705803e-03
1.073744e-01
1.428114e-01
4.564839e-02
-5.335693e-03
-2.732471e-02
2.316953e-02
-1.378024e-03
-2.980553e-02
5.874443e-02
5.455993e-02
-6.119218e-03
4.487013e-02
5.461415e-02
7.547296e-02
-4.590328e-03
8.877672e-03
5.133526e-02
2.727852e-02
3.127971e-02
5.067123e-02
-3.374422e-02
-3.854537e-02
-5.209569e-02
-3.696319e-02
-1.284662e-02
-5.571171e-02
6.107036e-04
-5.374014e-02
-5.425192e-02
-3.128942e-02
-3.776718e-03
1.559397e-02
-5.389433e-02
-5.033685e-02
-7.084216e-02
-1.355839e-02
-6.778428e-02
-7.180610e-02
1.132112e-01
1.020809e-01
4.796305e-02
1.060219e-01
6.127873e-02
-6.391515e-05
5.568237e-02
4.812117e-02
-2.067776e-02
-4.198821e-02
-3.413772e-03
2.242026e-02
-1.435388e-02
-3.406549e-03
-2.612276e-02
9.457055e-03
-2.170667e-02
-1.190952e-02
-1.376909e-01
-1.316598e-01
-1.072674e-01
-1.128568e-01
-1.134266e-01
-1.528638e-01
-1.248900e-01
-1.153360e-01
-9.131998e-02
1.272088e-02
3.568331e-02
4.106139e-02
4.351461e-02
4.654254e-02
7.833950e-02
5.167570e-02
-1.873676e-03
-3.516444e-02
1.124944e-02
-4.789144e-03
-2.444246e-02
-2.515821e-02
-4.820564e-02
-5.100907e-02
2.009022e-03
-1.189462e-02
-3.127849e-02
9.105088e-02
1.060342e-01
4.966735e-02
5.771069e-02
7.185128e-02
8.659796e-02
2.096871e-02
1.149762e-02
3.643458e-02
-1.062433e-02
7.364121e-03
5.457947e-02
4.673328e-02
-6.600668e-04
-2.187351e-02
5.709041e-02
3.869969e-02
3.850241e-02
6.252596e-02
1.368329e-02
2.647037e-02
1.619410e-02
-2.801513e-02
-3.553427e-02
-4.190872e-02
-6.436988e-02
-6.159237e-02
2.677916e-02
6.943489e-02
8.924233e-02
-1.621643e-02
9.002917e-02
1.372193e-01
-2.278760e-02
4.948419e-02
5.593925e-02
-3.381224e-03
-1.036233e-02
9.758359e-03
-3.835827e-02
-3.440943e-02
-2.820594e-02
-5.233238e-02
-9.507894e-02
-6.129920e-02
-2.178012e-02
-8.894683e-02
-6.882274e-02
-6.331982e-02
-3.762424e-02
-4.064985e-02
-4.205169e-02
-5.109712e-02
-4.485781e-02
-7.182258e-02
-6.215131e-02
-8.044111e-03
-1.532292e-02
-1.841093e-02
1.167884e-02
9.782548e-02
9.610031e-02
-6.640108e-03
8.725853e-03
-1.179793e-02
3.948624e-03
-5.766850e-02
-5.703313e-02
-4.934792e-02
-5.406925e-02
-4.915406e-02
-6.918068e-02
-4.423679e-02
-5.170449e-02
-3.903114e-02
-1.722302e-01
-1.606392e-01
-1.154009e-01
-1.287093e-01
-1.993182e-01
-1.181955e-01
5.379679e-03
3.945149e-02
-8.811853e-03
-8.843362e-03
-1.656207e-02
-3.313361e-02
-3.435849e-02
-1.108000e-02
-4.664598e-02
3.850540e-02
3.287932e-02
4.889974e-02
1.559478e-02
-2.257175e-02
4.375165e-02
-1.874146e-02
-9.783219e-02
-1.383817e-02
-2.382309e-03
2.196742e-02
4.911955e-03
-3.327709e-02
4.876829e-02
6.450223e-02
2.391295e-02
7.183336e-02
1.064695e-01
-4.868022e-03
-1.991180e-02
-3.033782e-02
1.252600e-02
6.369354e-03
-1.671382e-02
6.652337e-02
3.382936e-02
2.727810e-02
-1.132735e-01
-1.593070e-01
-1.301201e-01
-9.546340e-02
-1.208241e-01
-1.387658e-01
-5.301996e-02
-5.285133e-02
-7.110909e-02
-9.358351e-03
1.408725e-02
4.671266e-02
-8.914882e-02
-4.645333e-02
-2.903643e-02
-8.292323e-02
-7.006870e-02
-5.643574e-02
-4.370864e-02
-7.174516e-02
7.045724e-03
-2.724724e-03
-3.618560e-02
-1.183222e-04
-3.087190e-02
-2.431490e-02
4.517197e-03
-5.497137e-02
-3.740120e-02
-5.888287e-03
-7.740438e-02
-5.364740e-02
-1.028046e-01
-9.787728e-02
-1.293109e-01
-9.298351e-02
-9.791379e-02
-7.620203e-02
-3.348736e-02
-1.306506e-01
-7.627106e-02
-2.441578e-02
-1.082789e-01
-5.130535e-02
-6.407240e-02
1.026288e-01
9.992055e-02
9.334023e-02
1.123623e-01
1.010483e-01
1.085301e-01
6.393977e-02
1.048565e-01
9.255105e-02
5.684704e-03
-1.812410e-02
-5.003085e-02
1.166804e-01
4.431614e-02
-3.422466e-03
9.155520e-02
1.062196e-01
4.718175e-03
-5.269276e-03
-2.238776e-02
1.704754e-02
-1.052431e-02
-1.275238e-02
-4.068716e-02
-2.219527e-02
-4.087593e-02
-4.362316e-02
6.936474e-02
7.497143e-02
7.551683e-02
1.527970e-02
2.918700e-02
8.456099e-02
2.357304e-02
8.085346e-02
1.097950e-01
2.772561e-02
1.966580e-03
6.813816e-02
-4.189245e-03
-2.253701e-02
-1.464624e-02
3.216184e-02
2.853843e-02
2.673315e-02
-6.579358e-02
-1.106237e-01
-1.302569e-01
-2.731231e-02
-3.110283e-02
-6.901219e-02
6.788167e-02
5.074533e-02
3.251351e-02
-5.387444e-02
-2.713496e-02
-1.864377e-02
-2.507219e-02
-1.346316e-02
-4.103820e-02
-1.038664e-02
-2.444979e-02
-3.541643e-02
3.626859e-02
4.006650e-02
-1.729794e-03
3.792031e-02
8.253700e-02
1.697094e-02
5.724038e-03
5.653268e-02
1.099339e-02
-6.999212e-03
-1.213715e-02
1.820055e-02
3.072668e-03
-8.627702e-03
-1.703089e-02
9.517457e-02
7.253084e-02
-1.022808e-02
-2.425674e-02
-4.738973e-02
4.719147e-03
-2.758492e-02
-3.464013e-02
7.779778e-03
2.119052e-02
1.343284e-02
7.986814e-03
-1.173551e-02
-2.961780e-03
-8.648394e-03
6.203288e-02
2.173363e-02
5.250185e-02
7.340113e-02
1.028153e-01
1.311747e-01
2.953391e-02
3.910706e-02
1.563661e-02
-6.702185e-03
-4.270934e-02
-6.440110e-02
1.407356e-02
-2.711842e-03
1.638163e-02
8.701396e-02
-2.797063e-02
4.636689e-03
4.158911e-02
2.790036e-02
1.326966e-02
9.259556e-02
2.996467e-02
8.594225e-02
-3.677407e-02
-9.940550e-02
-1.019572e-01
-7.327435e-02
-9.004054e-02
-1.142361e-01
-5.510699e-02
-7.242709e-02
-4.298211e-02
3.398120e-02
-2.554055e-02
-4.907957e-02
-3.907046e-02
-4.964190e-02
-1.132522e-01
-3.344660e-02
-9.004798e-02
-7.099313e-02
-8.293158e-02
-4.029857e-04
2.333625e-02
-8.635884e-02
1.932843e-02
3.835011e-02
-5.218561e-02
6.090836e-02
4.744597e-02
-1.490445e-02
-2.509642e-02
-2.168478e-02
6.169443e-03
-1.006723e-02
-4.912037e-02
3.420295e-02
-1.820776e-02
-6.811969e-02
-3.273440e-03
-4.266312e-02
-7.728592e-02
-9.218920e-02
-1.395928e-01
-1.324776e-01
-1.595936e-01
-1.974941e-01
-1.738325e-01
-5.499517e-02
-1.590179e-02
-3.331593e-03
8.923622e-03
9.430829e-03
5.201656e-03
2.046021e-02
1.814348e-02
5.706692e-02
-6.200769e-02
-1.245514e-01
-7.026424e-02
-1.159360e-01
-1.092924e-01
-7.907438e-02
-9.636362e-02
-1.376983e-01
-4.144968e-02
2.709493e-02
3.925977e-02
9.129766e-02
7.826106e-02
9.215982e-02
6.711223e-02
1.265678e-01
1.675836e-01
9.834652e-02
5.475413e-02
3.187030e-02
4.248143e-02
1.168205e-02
5.154537e-02
4.348091e-02
-1.681681e-02
7.202915e-03
4.000437e-02
-4.497248e-02
-4.372834e-02
-6.877874e-02
4.162255e-02
8.460643e-02
1.200317e-02
-9.006423e-03
6.199292e-02
3.428638e-02
2.578438e-03
-3.555704e-02
-5.095802e-02
-4.072084e-03
-3.371602e-02
1.060626e-02
-4.013199e-02
-3.018682e-02
-2.311501e-02
2.110702e-02
1.366081e-02
2.039314e-02
1.028054e-03
5.479711e-02
8.647472e-02
1.749182e-02
7.300461e-03
-7.491419e-03
-2.079624e-02
-4.034435e-02
-8.230140e-03
8.332988e-03
-1.249805e-02
-1.175722e-02
-5.759792e-03
-2.424810e-02
-2.310975e-02
-4.978972e-02
-4.040140e-02
-2.049622e-02
-2.776935e-03
4.375046e-02
5.753679e-02
8.955292e-02
1.453841e-01
1.284629e-01
-4.551587e-02
-2.372017e-02
-3.094770e-02
8.874860e-03
-4.247652e-02
5.059999e-02
-2.902018e-03
1.127484e-02
-9.264532e-03
2.072538e-02
1.010077e-01
9.310123e-02
1.960667e-02
6.642520e-02
1.014300e-01
-4.182492e-02
3.406486e-02
5.194819e-02
9.304021e-03
6.201999e-02
8.113125e-02
-1.482411e-02
-5.553337e-03
1.037968e-01
-4.477301e-02
2.226165e-03
3.947281e-02
1.669464e-02
4.074602e-02
1.862487e-02
2.265244e-02
2.733773e-02
3.016989e-02
9.821911e-03
7.261964e-02
4.133953e-02
1.340191e-01
1.139611e-01
-5.566646e-03
1.365678e-01
1.254540e-01
9.616691e-02
7.725835e-02
1.161133e-01
8.425016e-02
-8.203983e-02
-1.491870e-02
-2.658670e-02
-7.385975e-02
-1.175199e-02
-1.527352e-02
-5.805994e-02
-2.464474e-03
-4.487358e-03
-1.927790e-02
-4.962245e-02
-2.972943e-02
-3.764466e-02
-6.275498e-02
-1.984400e-02
5.907337e-02
-2.115023e-02
-1.296394e-02
3.013662e-02
8.281746e-02
9.175257e-02
5.583566e-02
1.114696e-01
1.229509e-01
1.804651e-02
1.406333e-01
1.095139e-01
-1.065520e-01
-1.328104e-01
-1.103149e-01
-6.282525e-02
-5.911804e-02
-8.808573e-02
-7.985561e-02
-9.097255e-02
-8.342905e-02
4.734068e-02
2.387365e-02
2.276772e-02
5.141425e-02
7.415394e-02
4.018609e-02
3.151555e-02
8.751279e-02
9.840901e-02
3.726118e-03
4.121064e-02
6.704906e-03
-4.358975e-02
1.599878e-02
5.595546e-03
-4.814187e-02
-2.505200e-03
-1.962707e-02
-2.530341e-03
6.192107e-02
1.982403e-02
1.951236e-02
1.272096e-02
-3.845984e-03
-3.800953e-02
-3.937693e-02
-4.746239e-02
6.372070e-02
7.726781e-02
4.262773e-02
5.552641e-02
7.811315e-02
2.569563e-02
9.748536e-02
4.583817e-02
2.648328e-02
-1.027954e-01
-8.354827e-02
-1.049029e-01
-1.002877e-01
-7.182339e-02
-1.213240e-01
-6.453975e-02
-6.270991e-02
-6.636526e-02
8.119534e-03
4.898341e-02
1.297901e-02
3.657266e-02
7.155826e-02
4.846454e-02
-8.791134e-03
2.174968e-02
4.689272e-02
1.234381e-01
1.273950e-01
7.380848e-02
5.759537e-02
4.807357e-02
1.612740e-02
5.168686e-02
5.535676e-02
3.526752e-02
1.933376e-02
1.458867e-02
1.685818e-02
7.536943e-02
3.085495e-02
6.238504e-03
1.371277e-02
2.987024e-02
2.375631e-02
1.237531e-02
2.449655e-02
2.235452e-02
-2.495998e-03
-2.625372e-02
4.805890e-03
-1.535174e-02
6.167357e-04
-5.966498e-03
3.950060e-02
-1.319749e-02
-1.968534e-02
1.946549e-02
-3.195614e-02
-5.553422e-02
-1.359232e-03
-3.310084e-02
-6.036690e-02
-5.964000e-02
1.446619e-02
-1.319194e-02
-2.237443e-02
7.042928e-03
5.097314e-03
4.381781e-03
-3.597778e-05
1.008759e-02
-6.960680e-02
3.995316e-03
2.521973e-02
2.462519e-02
4.761846e-02
6.672522e-02
-3.564462e-03
1.388057e-03
7.185226e-02
1.352271e-02
2.648075e-02
2.298857e-02
2.563532e-02
1.087538e-03
-4.465700e-02
-7.363833e-02
-1.048719e-01
-1.261328e-01
8.651537e-02
5.868924e-02
3.882706e-02
6.524955e-02
3.223705e-02
5.943554e-02
2.435230e-02
8.824578e-03
-1.329589e-02
-7.899047e-02
-8.134450e-02
-7.996059e-02
-4.651901e-02
-3.675554e-02
-1.809390e-02
2.023417e-02
3.639614e-02
-1.046977e-02
1.156312e-01
3.539577e-02
-6.270818e-02
9.067588e-02
-9.418629e-03
-7.811005e-02
5.272812e-02
-2.738081e-02
-6.207026e-02
2.130564e-02
-6.583209e-02
-7.809528e-02
7.214776e-02
8.459902e-02
-1.932858e-02
3.284536e-02
6.759141e-02
1.758459e-02
-1.199444e-02
-1.034239e-02
-3.175242e-02
-1.891255e-02
-7.106828e-02
9.534135e-03
-1.299058e-03
-4.238939e-02
5.965883e-02
1.654021e-01
1.244988e-01
5.980099e-02
1.484405e-01
6.353107e-02
7.639720e-02
5.189941e-02
7.824337e-02
2.557646e-02
-1.323873e-02
5.857101e-02
2.485807e-02
-1.852289e-02
3.256398e-02
4.253324e-03
-1.251556e-02
3.045599e-02
2.483735e-02
4.818909e-02
-2.789812e-02
-8.641078e-02
5.609728e-02
-2.563075e-02
-5.615805e-02
5.899292e-02
2.695734e-02
-1.796662e-02
3.005365e-02
-1.506039e-03
-4.438226e-02
-3.797379e-03
-2.310916e-02
-9.599215e-02
-8.048045e-03
-6.099663e-02
-9.775425e-02
-8.195093e-02
-5.137490e-02
2.456247e-02
-9.770411e-02
-3.092621e-02
3.131084e-02
-2.733658e-02
-8.079630e-03
3.883037e-02
-7.674056e-02
-1.098138e-01
-2.592143e-02
-1.513070e-01
-7.089864e-02
1.850171e-03
-6.754093e-02
-1.634609e-02
1.198499e-01
-4.833188e-02
-2.166694e-02
1.619831e-02
-3.428434e-02
-6.952573e-02
3.871787e-02
-6.734519e-02
-1.346938e-02
1.717372e-02
-1.194707e-01
-1.211132e-01
-3.489232e-02
-1.038159e-01
-7.438438e-02
-2.826306e-02
-2.603007e-02
-7.011231e-02
2.800269e-02
-7.776187e-02
1.004929e-01
1.028638e-01
2.470689e-02
6.531916e-02
2.037971e-01
1.595037e-02
1.484798e-01
1.281343e-01
2.993321e-02
1.318366e-01
1.203357e-01
7.915741e-02
1.162245e-01
1.009662e-01
3.622869e-02
1.416088e-01
1.044611e-01
-4.166728e-02
-2.917664e-02
-1.271441e-02
-3.250282e-02
8.798941e-03
3.089824e-02
7.051936e-03
4.870393e-02
8.459762e-02
-8.827543e-02
-1.011847e-01
-5.843148e-02
-1.248768e-01
-8.190419e-02
-1.178121e-01
-4.389720e-02
-8.290437e-02
-1.883519e-02
2.847224e-02
-7.078499e-03
-2.419195e-02
-1.397013e-02
-2.863874e-02
7.251793e-03
-7.361161e-02
-7.898379e-02
2.451151e-02
3.065012e-02
2.300855e-02
1.275439e-02
-2.730513e-03
-6.774354e-03
-5.836986e-02
-3.342865e-02
-6.163856e-02
-6.687276e-02
-3.604304e-02
-7.756578e-03
-3.346295e-02
-2.349546e-02
-5.911696e-03
-1.747836e-02
-5.790143e-02
-5.244276e-02
4.890141e-03
-2.467748e-02
1.778936e-02
-4.613114e-02
-1.021800e-01
-2.847905e-02
-9.996464e-02
-6.512400e-02
-9.608199e-02
-6.863443e-02
2.407999e-03
5.300450e-02
3.654816e-02
3.016772e-02
2.411410e-02
6.799553e-02
4.546685e-02
5.634765e-02
4.808994e-02
6.366403e-02
3.059819e-02
1.334724e-02
2.999752e-02
4.756674e-02
1.483791e-02
2.122267e-02
3.826599e-03
1.347450e-02
-1.212877e-01
-1.157965e-01
-6.780548e-02
-9.022965e-02
-2.549751e-02
-4.417927e-02
-8.303447e-02
-6.018783e-02
-4.010378e-02
6.496001e-02
5.667736e-02
-1.541716e-02
3.629684e-02
-6.168733e-03
1.523914e-03
-2.271803e-02
-1.340722e-02
2.360876e-02
-7.017966e-02
-2.244886e-03
4.782771e-02
-5.697989e-02
-4.196400e-02
-1.095975e-02
-1.968264e-03
-2.353359e-02
-1.099681e-02
1.124889e-02
6.853411e-02
2.197954e-02
1.035784e-01
2.982633e-02
4.977938e-02
2.942245e-02
7.323020e-02
-4.233460e-02
-1.573006e-02
-5.911269e-02
2.015753e-02
-3.431644e-02
-6.325741e-02
-2.622673e-02
-1.704432e-02
-1.053120e-01
-1.553390e-02
2.069115e-02
9.477328e-03
-3.194413e-02
-1.918311e-02
-6.116311e-02
-5.225061e-02
-1.338951e-02
-6.603323e-02
-8.700768e-02
8.402862e-02
-9.102724e-03
-4.002145e-02
4.565782e-02
5.220553e-03
-1.124870e-01
6.123604e-02
-2.206705e-02
-6.960159e-02
-2.890602e-02
-3.424636e-02
-1.898415e-02
-5.681585e-02
-1.772515e-02
4.613666e-02
-9.194174e-02
2.422550e-02
1.171066e-01
3.235732e-03
2.273657e-03
2.370959e-02
9.937937e-03
-1.712367e-02
-6.152650e-02
3.619891e-02
-4.423237e-02
-1.210458e-01
9.648263e-02
-1.138200e-02
-1.009149e-01
1.357888e-01
3.540415e-02
-1.472394e-01
4.562170e-02
4.407255e-02
-8.540475e-02
-6.830271e-02
-7.846416e-02
-1.811530e-02
-9.859395e-02
-7.940293e-02
-4.971740e-02
-9.524370e-02
-7.494187e-02
-3.215484e-02
2.668023e-02
6.368296e-03
-5.280803e-02
5.878842e-03
3.479269e-02
-3.234147e-02
5.069739e-02
3.318647e-03
-7.430039e-02
1.458522e-03
-5.422555e-02
-4.298995e-03
-4.016943e-02
-6.663448e-02
-4.076636e-02
7.292664e-03
-4.143233e-02
-5.500012e-02
-5.426539e-02
3.950541e-03
5.668123e-02
-1.260218e-01
-7.244374e-02
3.488311e-02
-7.433742e-02
-1.408438e-01
-7.822822e-02
-6.331542e-02
3.524619e-02
8.679220e-02
-1.033234e-01
-7.915820e-03
1.799961e-01
-1.066038e-01
-5.203941e-02
8.936103e-02
1.189709e-02
-4.977754e-02
-1.071522e-01
2.467076e-02
-1.044208e-01
-1.463023e-01
5.612009e-02
7.847843e-03
-7.073200e-02
-9.000077e-02
-6.434041e-02
5.880723e-02
-9.706405e-02
-2.792360e-02
1.206924e-01
-9.955042e-02
3.638394e-03
1.023642e-01
2.416312e-02
9.785848e-03
2.520133e-02
-2.983590e-02
1.062551e-02
1.547792e-02
-6.385982e-02
-3.918774e-02
3.063029e-02
2.599742e-02
-1.312576e-02
5.571109e-03
-2.844542e-02
1.855303e-02
-3.649905e-02
-4.497345e-03
-6.726418e-02
-8.135079e-02
1.133394e-02
-9.734835e-02
-3.771922e-02
3.564075e-02
-1.034601e-02
-4.554994e-02
6.171528e-02
-3.249666e-02
-4.557854e-02
6.099949e-02
8.228657e-03
5.011280e-03
1.980742e-02
3.773934e-02
6.158473e-02
2.160870e-03
-3.636007e-02
9.576306e-03
3.615518e-02
-1.604875e-02
-3.542079e-03
1.296248e-02
3.623319e-02
2.928282e-02
2.273956e-02
5.387423e-02
1.177398e-02
1.319190e-02
3.440546e-02
-6.938245e-02
2.302648e-02
2.382217e-02
-9.116716e-02
4.287378e-02
3.350349e-02
-3.331855e-02
-3.749217e-02
-3.748584e-03
-3.913928e-02
-4.884842e-02
-4.691447e-02
-1.234702e-02
-6.795317e-02
-6.237968e-02
-9.425390e-02
5.466630e-02
1.310891e-02
-1.738547e-02
5.848047e-02
1.260319e-02
-4.232189e-02
2.846741e-02
-8.822672e-03
-1.053279e-01
2.774360e-02
-1.111205e-01
-1.424055e-01
1.027017e-01
7.281004e-03
-1.205675e-01
1.232374e-01
3.229470e-02
-3.592527e-02
7.572006e-02
1.058315e-01
4.076793e-02
1.157847e-01
1.041212e-01
1.614070e-01
5.881196e-02
1.259967e-01
1.060908e-01
2.778044e-02
-2.791589e-02
3.225666e-02
7.029692e-03
-9.612400e-03
8.172171e-03
-3.680177e-02
-1.278348e-02
3.751887e-02
-4.076462e-02
-2.522078e-02
3.379113e-02
-1.449652e-02
-1.502256e-02
6.259371e-02
-6.693864e-02
4.262152e-03
3.319196e-02
-1.847530e-02
-4.954630e-02
-6.001526e-02
4.861455e-02
-3.650885e-02
-8.599589e-02
9.163729e-02
5.158810e-02
-3.218773e-02
2.028188e-02
1.419012e-02
-1.400282e-02
-1.277855e-03
4.971811e-02
5.843100e-02
-5.559932e-02
1.129791e-02
8.461195e-02
-5.086335e-02
-5.676974e-02
-7.439942e-02
3.052586e-03
-1.821381e-02
-5.507898e-02
8.488561e-02
-1.470140e-02
-3.921480e-02
-9.080330e-02
-1.120711e-01
7.146431e-03
-8.076501e-02
-9.306817e-02
-6.544010e-02
-5.265652e-02
-1.122843e-01
-1.104334e-01
-3.389720e-03
-3.847450e-02
-1.413953e-01
3.201196e-02
4.057290e-02
-8.021496e-02
1.846721e-02
2.046524e-02
-5.434661e-02
-8.798531e-03
-5.331076e-02
-6.800611e-02
-7.704175e-02
-1.168248e-02
-4.835500e-03
-8.731844e-02
-7.034109e-02
-7.994730e-03
-1.631473e-02
4.199122e-02
4.775293e-02
2.263880e-03
1.858962e-02
5.210152e-02
1.460904e-03
3.200965e-02
4.797731e-02
-7.572843e-02
-4.247438e-03
3.657599e-02
-1.742505e-02
3.905324e-02
8.501032e-02
-2.619057e-02
-7.257243e-03
2.095987e-02
-2.603320e-03
-6.456904e-02
2.004912e-02
-5.803143e-03
1.605262e-02
2.889320e-02
-2.349847e-02
-2.155117e-02
5.022427e-03
6.774246e-02
6.487491e-02
-9.396831e-03
4.092491e-02
4.925538e-02
4.972640e-02
7.114084e-02
1.120415e-01
4.618007e-02
-9.523865e-03
-3.890646e-02
-1.256574e-02
-6.862186e-02
-5.137802e-02
-9.372517e-03
-2.139402e-02
5.764551e-03
-6.840604e-03
7.666686e-02
8.342202e-02
3.196993e-02
5.279800e-02
9.179035e-02
4.008042e-02
4.564475e-02
5.274032e-02
4.041072e-02
1.044579e-02
-5.171963e-03
-1.236778e-02
-1.259066e-02
-2.733311e-02
-4.916641e-02
-3.957961e-02
-7.808072e-02
-3.747799e-02
-2.631766e-02
-4.654400e-02
-7.196849e-02
-6.080237e-02
-9.477262e-02
-1.035449e-01
-4.566484e-02
-7.165021e-02
-1.027763e-01
-4.162689e-02
-6.483100e-02
-7.202160e-02
-5.375950e-02
-8.419644e-03
-1.003206e-01
1.276979e-02
-1.561002e-02
-8.902787e-02
1.498147e-02
-1.382686e-02
-2.622657e-02
7.235733e-02
-2.284518e-03
-1.556754e-02
-2.921547e-02
3.697488e-02
5.332648e-02
-5.345564e-02
-3.466219e-02
-2.439485e-02
-4.203287e-02
-2.698212e-02
-5.325450e-02
-7.803219e-02
-1.068589e-01
-1.428720e-01
-6.129753e-03
-1.719308e-02
-1.377588e-02
-4.584426e-02
-3.653914e-02
-2.886813e-02
-1.460363e-02
-1.517685e-02
-2.494031e-02
6.841715e-03
1.704825e-02
7.455187e-03
3.894136e-02
4.672064e-02
6.404833e-02
4.438747e-02
2.241603e-02
1.848430e-02
-3.781311e-02
-2.761853e-02
5.901003e-02
-2.034483e-02
-3.314549e-02
5.869276e-03
-5.852620e-02
-1.134327e-02
-1.585578e-02
-3.483532e-02
3.520301e-03
1.003662e-02
-1.080276e-02
3.889655e-02
7.225236e-02
-4.511940e-02
1.567370e-02
2.947711e-02
-4.070721e-02
-5.832724e-02
-5.262757e-02
-1.037430e-02
-7.279446e-02
-6.006909e-02
5.145858e-02
3.010178e-02
8.358597e-03
-1.172895e-02
-3.283887e-02
4.844961e-04
-1.902448e-02
-3.199378e-02
5.432289e-02
4.638679e-03
1.145235e-02
4.830194e-02
-1.495381e-02
-1.357220e-02
3.605123e-02
4.712251e-02
1.294856e-02
6.817741e-02
-2.788671e-02
1.558622e-02
1.447621e-02
8.443817e-03
-5.217478e-02
-3.830580e-02
7.334896e-02
-5.509441e-02
1.096074e-02
6.078846e-02
2.492026e-02
5.650303e-02
-5.774877e-02
-1.318076e-01
-7.540900e-02
-1.190642e-01
-6.002775e-02
-8.017251e-02
-4.342381e-02
-1.093457e-01
-5.418441e-02
-3.349350e-04
5.325197e-02
-2.949179e-03
5.836327e-02
6.717611e-02
4.960195e-02
9.944900e-02
1.012068e-01
1.054401e-01
-1.405735e-02
2.834656e-02
9.393903e-03
-1.998403e-02
4.546325e-03
-6.758668e-03
-2.978016e-02
1.920283e-02
8.006710e-03
-2.325470e-02
-7.215738e-02
-7.319370e-02
-6.040475e-02
-7.395491e-02
-5.646938e-02
-4.875494e-02
-1.048760e-01
-4.299702e-02
-6.655199e-02
-1.722158e-01
-1.161658e-01
-7.292321e-02
-1.321851e-01
-1.324902e-01
-8.181372e-02
-1.150254e-01
-1.313072e-01
-6.809306e-02
-4.716238e-02
-2.049649e-02
-7.718326e-02
-7.574979e-02
-6.222437e-02
-6.280958e-02
-4.194767e-02
-2.271196e-02
1.367341e-02
2.026610e-02
-2.539859e-03
-1.289318e-02
2.358770e-02
1.704627e-02
-5.469349e-03
-1.809368e-02
-1.499454e-02
-1.004126e-01
-1.102224e-01
-9.635489e-02
-8.238333e-02
-8.813370e-02
-7.612071e-02
-5.858914e-02
-7.995302e-02
-8.183115e-02
7.549605e-02
1.433834e-01
1.201723e-01
1.190481e-01
1.662432e-01
2.428596e-01
1.271928e-01
2.030440e-01
1.574165e-01
-1.796614e-02
-2.131099e-03
2.843630e-03
4.632119e-02
2.308895e-02
2.059647e-02
4.139025e-02
8.819053e-02
5.542231e-02
9.417380e-02
8.941221e-02
9.153376e-02
4.891089e-02
-1.925792e-02
-4.576982e-03
3.693287e-02
1.609980e-02
-4.157727e-03
8.764375e-02
1.076471e-01
6.781906e-02
4.014649e-02
7.219235e-02
7.839559e-02
-4.212747e-02
4.442151e-03
-1.246060e-02
-3.998440e-02
-4.911204e-02
-2.804962e-03
-5.354206e-02
-7.467444e-02
-4.101786e-02
1.262756e-02
-2.979866e-02
-4.016035e-02
7.324017e-02
8.915810e-02
3.007822e-02
8.784593e-02
2.424638e-02
4.796441e-02
7.813893e-02
7.860775e-02
6.557696e-02
1.475696e-02
5.962839e-02
2.981482e-02
2.611087e-02
8.699495e-02
8.312576e-02
5.871275e-03
9.334038e-02
6.193198e-02
1.048970e-01
5.471919e-02
7.927233e-03
-6.358639e-04
1.928231e-02
5.503894e-02
8.501315e-04
2.355120e-02
1.847380e-02
-3.673642e-02
-6.139912e-02
-6.108631e-02
8.147842e-02
-4.070693e-02
-5.032610e-02
9.793882e-02
2.837142e-02
5.708415e-02
-4.252246e-02
6.219760e-02
8.766644e-02
-7.043462e-02
-1.583758e-02
6.114790e-02
-4.429401e-02
-6.810359e-02
1.003853e-02
-1.643883e-02
1.871275e-02
5.015931e-02
1.267642e-02
-2.262873e-02
4.173361e-02
7.935462e-03
9.266146e-03
3.132597e-02
1.137137e-02
-6.194646e-03
5.081246e-02
8.974964e-03
3.019406e-02
7.557308e-02
-6.250676e-02
-7.206617e-02
7.744566e-02
2.985040e-02
-3.297092e-02
-8.549432e-02
3.013926e-02
3.057863e-02
1.090467e-02
5.357257e-02
9.531050e-02
9.607121e-02
-9.238487e-02
1.820980e-02
7.330674e-02
-1.004415e-01
-4.066785e-02
9.738859e-02
-1.911694e-02
-1.087012e-01
1.990623e-02
-1.037050e-01
-1.393610e-01
-2.502627e-02
1.973735e-02
-1.445482e-01
-1.543612e-01
5.164611e-02
-1.040830e-02
-8.511953e-02
-1.364916e-01
-9.863798e-02
-3.060959e-02
-1.041523e-01
-1.038815e-01
-3.865948e-02
-5.439059e-02
-7.954879e-02
-3.429372e-02
4.167675e-02
-2.321891e-02
-7.516588e-03
3.496771e-02
1.573244e-02
1.358653e-02
2.510106e-02
3.349808e-02
-2.186998e-02
1.546588e-02
-1.346210e-02
-2.709693e-02
1.131411e-02
-4.496083e-02
-3.171350e-02
-8.686318e-02
-8.827367e-02
-7.659051e-02
-1.257638e-03
-1.720598e-02
-1.709588e-02
-1.047961e-02
-2.178543e-02
1.833034e-02
3.565365e-02
5.081315e-02
4.853699e-02
5.349845e-03
-2.928959e-03
1.986196e-02
-6.892705e-02
-9.530917e-04
9.397112e-03
-5.580286e-02
-5.125796e-02
-1.096630e-03
5.461391e-03
5.877488e-03
1.374191e-03
1.425839e-02
-3.139933e-02
4.227281e-03
1.694712e-02
4.650220e-02
5.346370e-02
-9.464446e-02
2.374223e-03
6.548920e-02
-3.281521e-02
-4.379928e-02
-5.820101e-02
1.236374e-02
-2.630617e-02
-1.727317e-02
-2.124092e-02
-2.198179e-02
5.825053e-03
2.083804e-04
-1.662088e-02
-7.190047e-02
-4.428832e-02
-3.577447e-02
-1.758258e-02
-1.742355e-02
-4.298311e-02
-5.491765e-02
6.049513e-02
-3.442234e-02
-8.776855e-02
1.292970e-01
9.344558e-02
5.140848e-04
6.872486e-02
1.391009e-02
-4.024922e-02
7.555095e-02
1.849965e-02
8.355979e-02
2.367434e-02
4.416280e-02
8.353642e-02
8.870934e-02
6.728904e-02
1.711296e-02
9.657496e-03
2.544258e-02
2.466573e-03
-1.302155e-02
3.483148e-02
-3.633611e-03
-4.218448e-02
-7.522453e-02
-4.328396e-02
-1.994613e-02
-5.581020e-02
-1.107326e-01
1.122239e-01
5.127154e-02
-4.134794e-02
4.576879e-02
4.823608e-03
-2.164174e-02
5.462822e-02
8.437242e-02
2.991821e-02
3.921876e-02
6.815064e-02
7.601952e-02
-8.375912e-02
5.041060e-03
7.407670e-02
-9.000966e-02
-5.760956e-02
3.727190e-02
-2.348354e-02
-1.077592e-01
-7.645863e-02
3.081280e-03
-5.838273e-02
-6.514350e-02
6.528421e-03
3.261172e-02
5.828193e-02
-5.105522e-02
2.990144e-02
4.322888e-02
-6.608279e-03
-5.449173e-02
-7.528150e-02
2.745057e-02
1.219563e-02
3.258180e-02
2.556003e-02
4.823928e-02
3.540739e-02
-6.468108e-02
-1.011469e-01
-9.972160e-02
2.948660e-02
-5.932791e-02
-2.104682e-01
1.270548e-01
3.744062e-02
-3.793707e-02
-1.305597e-02
-6.051092e-02
-1.149887e-01
3.916603e-02
-1.101371e-02
-1.280386e-01
9.699492e-02
3.567800e-02
-4.435225e-02
-1.806797e-02
1.748736e-02
-5.487334e-02
-5.737727e-03
4.967777e-02
4.078632e-02
1.394239e-01
6.727584e-02
1.549442e-02
-4.745016e-02
-1.380332e-01
-6.010199e-02
5.735556e-02
-1.301858e-01
-1.910437e-01
1.234515e-01
-2.362066e-02
-2.428602e-01
-9.008545e-03
-4.043952e-02
-7.521636e-02
-2.548858e-03
4.343085e-02
6.494235e-02
-2.729698e-02
6.655698e-02
8.095299e-02
5.070163e-03
8.902985e-02
8.814458e-02
-4.092472e-02
1.073958e-01
2.150426e-01
-1.065169e-01
2.534050e-02
1.107613e-01
-9.403204e-02
-4.824901e-02
-9.109031e-02
-5.232599e-02
3.478021e-03
-2.514682e-02
-9.010090e-02
-5.876198e-02
-1.714132e-02
-4.855247e-02
7.095376e-02
1.116390e-01
-1.506321e-01
7.522847e-02
1.963662e-01
-1.813817e-01
-5.455955e-02
1.068581e-01
1.275409e-02
-3.190648e-02
2.269730e-03
-1.672787e-02
-3.702807e-02
-5.684186e-02
-3.974636e-02
-5.786827e-02
-6.906562e-02
7.674450e-04
2.965859e-02
9.926954e-03
2.597150e-03
1.743444e-02
3.644621e-03
1.694950e-02
5.391247e-02
8.870938e-02
-5.035831e-02
-2.813793e-02
-4.171597e-02
-7.250720e-03
2.062010e-02
-1.529093e-02
5.157948e-02
4.597322e-02
-5.415098e-07
8.775670e-03
1.655752e-02
1.665480e-03
-1.247053e-02
-1.126925e-04
-1.996937e-02
-1.369236e-02
-4.512589e-04
-2.280840e-02
1.894719e-02
-8.267956e-03
-1.687244e-03
-3.685530e-02
4.364721e-04
-3.678141e-02
1.922628e-02
2.783262e-03
7.526072e-02
1.546919e-02
6.539393e-02
7.971589e-02
4.835290e-02
1.147361e-01
1.458651e-01
9.185536e-02
1.558390e-01
1.459388e-01
-9.060137e-03
-6.767261e-03
-3.974197e-02
-5.246468e-02
-1.812113e-02
-6.397360e-02
-1.916903e-02
-4.098706e-02
-2.894237e-02
-1.126127e-01
-1.603660e-01
-1.105425e-01
-1.610861e-01
-1.701434e-01
-1.382237e-01
-8.403127e-02
-1.445550e-01
-1.085825e-01
5.844478e-03
-1.470197e-02
2.930660e-02
3.597578e-02
-1.427563e-02
2.457213e-02
2.353968e-02
-5.549192e-03
2.571035e-02
-2.783899e-02
-6.505053e-02
4.658712e-03
-3.892348e-02
-1.772342e-02
-1.459985e-03
-2.526049e-02
-1.795208e-02
-5.939443e-03
5.210442e-03
1.674562e-02
-4.220868e-03
-6.776011e-03
1.804027e-02
-1.701334e-02
-2.063976e-02
-1.568014e-02
-3.200351e-02
-5.144533e-02
-6.065063e-02
-2.975427e-02
-4.115897e-02
8.276111e-03
-4.902948e-02
-1.558546e-03
2.881771e-02
-7.216996e-03
-5.170704e-03
1.545425e-02
1.167939e-02
3.456970e-02
3.591681e-02
6.063519e-02
2.825829e-02
6.548882e-02
1.107877e-01
5.033108e-02
1.057544e-01
1.163442e-01
6.050319e-02
1.133833e-01
1.098818e-01
9.987635e-02
1.272283e-01
7.146515e-02
-1.975309e-02
5.604868e-03
1.898473e-02
6.435911e-02
2.239727e-02
9.377062e-02
9.014691e-02
1.983624e-01
1.543874e-01
-1.743970e-02
-4.960066e-02
-1.718855e-02
2.741943e-02
-7.057264e-02
1.090857e-02
1.725516e-02
1.057054e-02
3.140366e-02
-4.595216e-02
-4.508293e-02
-3.975749e-02
-1.185201e-02
-4.900678e-02
1.205861e-03
2.386133e-02
4.011621e-02
5.133220e-02
-5.989252e-02
-5.297768e-02
-3.279155e-02
-1.181431e-01
-1.986330e-02
-1.055196e-02
-3.774014e-02
-3.884698e-02
6.214120e-03
-1.371915e-02
-2.821464e-02
9.315833e-03
-1.067752e-02
-1.549391e-02
4.436567e-02
-2.590120e-02
7.075722e-02
9.484704e-02
-5.740309e-02
-6.023063e-02
-2.487334e-02
-3.061029e-02
-1.905712e-02
-7.791052e-05
4.094334e-03
4.724751e-02
4.521844e-02
-4.065995e-02
-3.943952e-03
-5.556546e-03
-3.154169e-02
-1.877230e-04
-1.747779e-02
-8.282425e-02
-2.866688e-02
-5.459685e-02
9.281383e-02
4.533176e-02
2.445654e-02
5.414611e-02
3.878226e-02
-1.523759e-02
5.571274e-02
1.066261e-02
-6.150747e-03
-1.028079e-02
-2.539980e-02
-1.910587e-02
-5.422087e-02
-3.186120e-02
-2.458582e-02
-7.814445e-02
-1.118218e-01
-8.237850e-02
-1.598020e-02
1.437540e-02
1.828868e-02
2.109944e-02
-1.843805e-02
5.791996e-02
3.262922e-02
1.063994e-01
1.282829e-01
-6.474331e-03
3.189407e-02
5.771979e-02
5.840099e-04
-1.194111e-03
2.452037e-02
-1.999141e-03
4.678658e-02
9.796876e-02
7.612552e-02
1.042131e-01
6.025400e-02
3.267824e-02
4.856793e-02
3.562396e-02
-1.441178e-02
-8.913365e-03
-5.682239e-02
4.577240e-02
5.649741e-02
3.440511e-02
-1.597732e-02
-2.186693e-02
-3.349430e-02
-5.351550e-02
-5.248656e-02
-8.692597e-02
3.433900e-02
1.650991e-02
2.738212e-02
-2.390664e-02
-1.344190e-02
7.717077e-03
-1.275744e-02
-1.276842e-02
1.857045e-04
-5.695053e-02
2.802351e-03
-1.434124e-02
-2.699805e-02
5.428801e-02
-6.464339e-03
2.595862e-02
1.448603e-02
-1.597511e-03
-2.093950e-02
-2.737837e-02
-9.258548e-02
6.229762e-03
-3.357887e-02
-1.118848e-01
3.131986e-02
-3.661211e-04
-7.217568e-02
-9.751325e-02
-1.183158e-01
-4.895896e-02
-1.188077e-01
-6.416912e-02
-2.986597e-02
-3.114966e-03
-1.820344e-02
5.598539e-02
-9.408592e-02
-1.382974e-01
-6.108039e-02
-1.207955e-01
-1.278581e-01
-1.270066e-01
-5.907634e-02
-1.099847e-01
-7.414722e-02
5.220835e-02
2.734469e-02
4.311708e-02
5.594524e-02
1.826934e-02
1.374353e-02
-1.440934e-02
-9.802833e-03
4.548137e-02
3.512540e-02
2.264571e-03
-8.705654e-03
3.475276e-02
-2.532381e-04
-2.049171e-02
-1.846162e-02
-2.464801e-02
-2.657550e-02
4.544208e-02
1.309935e-01
1.123351e-01
6.582939e-02
1.000912e-01
1.170733e-01
5.264453e-02
3.245785e-02
7.615647e-02
-5.969786e-02
-7.256468e-02
-5.962507e-02
-4.195047e-02
-5.867973e-02
-5.722793e-02
1.122420e-02
1.994395e-02
2.602871e-02
3.855430e-02
3.928434e-04
-1.945774e-02
-2.807717e-02
-4.779234e-02
-3.737541e-02
-1.120287e-01
-1.327829e-01
-1.284505e-01
-7.597800e-02
-8.652356e-02
-1.144682e-01
-5.761771e-02
-2.763604e-02
-4.981505e-02
-1.606016e-02
2.427702e-02
-5.380535e-03
-8.320843e-02
-1.589096e-01
-1.177406e-01
-1.024263e-01
-1.113176e-01
-1.060563e-01
-3.458642e-02
-5.389324e-02
2.117198e-02
-1.056894e-01
-4.639511e-02
5.998534e-02
-1.104484e-01
-4.519181e-02
3.652351e-02
-1.042753e-01
-5.798491e-02
-9.137645e-03
1.221486e-01
6.031307e-02
4.001397e-02
8.533332e-02
1.909459e-02
3.310314e-02
-9.726826e-03
-4.246087e-02
-2.423058e-02
2.835151e-02
-2.414089e-02
-8.679884e-03
1.181496e-02
1.203501e-03
-3.956383e-02
-4.418482e-02
-9.343032e-02
-6.520566e-02
4.918093e-02
2.835975e-02
-3.388548e-03
1.963299e-03
-2.749505e-02
-8.123854e-03
-7.529457e-03
-4.393069e-03
-2.912303e-02
-4.912281e-02
-8.795425e-02
-2.512727e-02
-2.477484e-02
7.161672e-03
-1.952429e-02
-1.073278e-02
-8.028920e-02
-5.185766e-02
-6.433907e-02
-6.237319e-02
-4.413173e-02
-6.800225e-02
-8.726407e-02
-5.347881e-02
-4.416374e-02
-1.049072e-01
-6.299514e-02
-7.795262e-02
-1.036786e-01
-8.017321e-02
-2.178672e-02
-6.332727e-02
-7.054599e-02
5.374461e-02
1.288654e-02
-1.049821e-02
7.957510e-02
1.105454e-01
9.665821e-02
9.931777e-03
3.576179e-02
1.433530e-02
-2.120033e-02
-7.962122e-02
-1.065891e-01
8.222853e-02
8.184773e-02
6.993581e-02
1.069735e-02
9.951293e-03
1.056615e-02
-3.759765e-02
-1.126662e-01
-8.491857e-02
8.133347e-02
1.533498e-02
-4.143524e-02
1.213269e-02
-4.083550e-02
1.742005e-03
-5.545656e-02
-1.227032e-01
-1.228367e-01
4.493564e-02
2.589293e-02
-2.275655e-02
2.453827e-02
-5.108190e-02
-7.762029e-03
2.688940e-04
3.391020e-02
-2.646141e-02
9.128571e-02
5.576862e-02
3.677263e-02
7.794517e-02
6.805015e-02
8.372688e-02
2.685643e-02
6.111664e-02
3.772191e-03
4.099121e-02
4.925806e-02
1.506495e-02
5.362167e-02
6.548271e-02
1.816148e-02
6.819755e-02
4.617326e-02
4.560527e-02
-5.362409e-02
-7.482992e-02
-6.036127e-02
-9.710021e-02
-7.048826e-02
-4.687594e-02
-1.678384e-02
-1.334634e-02
-1.605308e-02
-3.745129e-02
3.392145e-02
4.476015e-02
-5.174429e-02
-5.771414e-02
-1.247603e-02
-4.581318e-02
-1.012649e-01
-6.875999e-02
1.111190e-01
9.056431e-02
3.884695e-02
1.373814e-01
1.084609e-01
8.375432e-02
9.824002e-02
1.055405e-01
7.660341e-02
-4.475226e-02
-4.932182e-02
-5.408247e-02
-4.621658e-02
-3.532438e-02
-2.068914e-03
1.637575e-02
3.891419e-02
7.213421e-02
-3.889085e-02
-4.824720e-03
4.284607e-02
-4.582201e-02
1.130533e-03
5.331318e-02
-1.732665e-02
-4.018726e-02
-2.486688e-02
5.607884e-02
2.599149e-02
1.030097e-02
6.894343e-02
5.050965e-02
3.775669e-03
-2.436753e-02
2.847376e-02
-5.603615e-03
8.416836e-02
9.017267e-02
8.243890e-02
8.487830e-02
7.755503e-02
7.923244e-02
5.546997e-02
1.608016e-02
6.405127e-03
-8.038713e-02
-8.130666e-02
-5.905561e-02
-7.726130e-02
-6.218511e-02
-4.384835e-02
-7.083598e-02
-7.082803e-02
-4.416798e-02
2.029705e-02
-1.509106e-03
1.907182e-02
-1.333982e-01
-9.361896e-02
-1.253808e-01
-7.951158e-02
-8.603051e-02
-9.504173e-02
2.639193e-03
-5.990374e-02
-5.420203e-02
3.474475e-02
-2.282747e-02
-6.237527e-02
1.876235e-02
1.239599e-02
-1.888384e-02
4.650632e-02
1.110816e-01
1.684049e-01
3.677673e-02
8.272576e-02
1.407323e-01
6.326764e-02
1.382556e-01
1.655952e-01
2.796338e-02
5.852824e-02
-3.961021e-02
5.161617e-02
-1.021280e-02
-9.857787e-02
1.550512e-02
1.546821e-02
-3.066668e-02
1.604992e-02
5.012130e-03
-1.757964e-02
-2.403745e-02
-3.251486e-02
4.831791e-03
-9.690383e-03
-1.119633e-02
2.998977e-02
8.480705e-02
1.188217e-01
1.559371e-02
1.867395e-01
8.152141e-02
4.529096e-02
1.509097e-01
7.008526e-02
-3.997603e-03
-7.385404e-02
-1.930027e-02
3.429778e-02
5.823569e-03
5.980256e-02
4.268919e-02
5.525924e-02
4.548198e-02
1.365918e-02
-4.290572e-02
1.615526e-02
-2.050294e-02
5.035792e-02
7.333744e-02
8.957830e-02
9.676667e-02
9.584575e-02
2.315737e-02
6.912714e-02
4.386200e-02
-2.414245e-02
3.735372e-02
1.814693e-02
-2.877617e-02
-4.080588e-02
-6.209940e-02
-8.233200e-02
6.099039e-02
4.981825e-02
2.475652e-02
4.267288e-02
2.325414e-02
-6.036578e-02
-9.412841e-03
-1.134293e-02
-2.376254e-02
-7.758576e-02
-5.524951e-02
-7.119589e-02
-1.714863e-01
-8.306006e-02
-1.002854e-01
-1.600748e-01
-1.161565e-01
-5.777187e-02
-1.043842e-01
-8.485621e-02
-8.175829e-02
-9.467912e-02
-5.323749e-02
2.317275e-02
6.090922e-02
1.738369e-01
2.278040e-01
4.888447e-02
1.162234e-03
-6.637418e-02
6.683945e-03
-3.742268e-02
-1.166351e-01
9.473605e-03
-2.820886e-02
-6.034163e-02
1.937120e-02
2.752366e-02
-2.850315e-02
1.023827e-02
2.215175e-02
3.831634e-03
-4.346725e-02
-2.638654e-02
1.324592e-02
-2.232376e-02
1.513505e-02
2.003779e-02
-6.398973e-03
2.674614e-02
4.477109e-03
2.824362e-02
4.174229e-02
3.498009e-02
8.928336e-02
5.618933e-02
4.676192e-02
4.572909e-02
2.578594e-02
1.732472e-02
-2.965494e-02
-1.954638e-02
-1.282226e-02
-3.978128e-02
-2.351695e-02
-6.244331e-02
2.586280e-02
2.659281e-02
-1.746305e-02
3.731657e-02
3.139299e-04
-3.087563e-02
-9.951779e-02
-9.619512e-02
-5.097308e-02
-1.003323e-01
-3.565263e-02
-3.636364e-02
3.263097e-02
5.762864e-02
5.164983e-02
2.922945e-02
-6.667633e-03
5.039589e-02
1.617210e-02
3.434535e-02
3.235625e-02
1.822541e-02
3.650536e-02
-3.034013e-02
5.811477e-02
1.128222e-01
9.230614e-02
-8.950950e-03
4.162014e-02
1.052846e-01
-8.945541e-02
-1.444555e-02
6.268869e-02
-7.587561e-02
-6.082211e-02
3.844079e-02
-8.797581e-02
-4.559206e-02
1.040945e-02
-1.189251e-01
-4.542643e-02
1.393827e-02
5.275456e-02
3.763336e-02
2.460093e-02
-1.175294e-02
3.611694e-02
3.917128e-03
-6.984942e-02
-1.045542e-01
-8.019105e-02
3.712012e-02
5.166081e-03
-4.936168e-02
-1.813344e-02
-9.773158e-03
-5.301795e-02
-7.413188e-02
-1.121497e-01
-5.452163e-02
-3.385117e-02
-5.674521e-04
1.693174e-02
5.076300e-02
3.701266e-02
6.798098e-03
9.363841e-02
4.945185e-02
-5.763704e-02
-5.166062e-02
-1.080647e-01
-1.171111e-01
5.216089e-03
-2.899600e-02
-2.351863e-02
1.410221e-01
1.775823e-01
1.375388e-01
6.996442e-02
5.342368e-02
2.236988e-02
1.384256e-02
-3.334676e-04
-1.690549e-02
-7.161245e-02
-6.288967e-02
-6.692012e-02
1.174751e-01
6.795745e-02
-4.252825e-05
2.862012e-02
-3.010969e-02
-3.616983e-02
-3.732133e-04
3.257903e-02
1.639149e-02
4.062479e-02
1.560590e-02
-2.372136e-03
2.622388e-02
8.900321e-03
-2.594613e-02
-1.215683e-02
-4.265805e-02
-1.601640e-02
3.187548e-02
4.189967e-02
3.070609e-02
5.493261e-02
5.521335e-02
5.727251e-02
5.573328e-03
-2.455182e-02
-4.275096e-02
3.844179e-02
1.180240e-01
6.145928e-02
8.168688e-02
9.971998e-02
4.933481e-02
1.898503e-02
-4.915741e-02
-7.516097e-02
-2.373524e-02
1.412330e-02
1.074319e-03
-3.255945e-02
2.320662e-03
-1.808072e-02
5.121696e-02
6.468478e-02
6.060595e-02
1.225277e-02
-3.461388e-02
-2.869628e-02
-3.751085e-02
-7.886589e-02
-7.203027e-02
5.156762e-02
1.604635e-02
-5.441200e-02
6.657763e-02
5.371055e-02
-8.863990e-03
2.477429e-02
-4.397282e-03
-4.589044e-02
-5.634978e-02
-9.084295e-02
-8.156982e-02
2.395657e-02
3.464269e-02
4.959637e-02
-5.385338e-02
-7.561805e-02
-1.026512e-01
-7.154889e-02
-1.205906e-01
-1.154184e-01
-5.293529e-02
-2.740971e-02
3.053112e-02
-3.363313e-02
-8.911454e-03
-1.122584e-02
-4.159001e-02
4.870158e-04
7.199611e-02
1.424305e-03
-2.330110e-02
-1.729077e-02
-1.343936e-02
-1.481914e-02
-2.072411e-02
8.108725e-03
3.690674e-03
1.588555e-02
-8.093619e-02
-1.610836e-01
-1.352980e-01
-1.312332e-01
-1.545638e-01
-1.894486e-01
-1.168132e-01
-1.578399e-01
-8.562736e-02
8.555111e-02
1.639556e-01
1.314490e-01
6.000988e-02
4.160326e-02
9.371459e-02
3.422148e-03
-2.502205e-02
-3.161569e-02
-3.985199e-02
-1.218692e-01
-5.833651e-02
3.512692e-04
-3.678168e-02
-3.148714e-02
5.167895e-02
4.270912e-02
5.802777e-02
4.428017e-02
-2.565262e-02
1.956668e-02
5.612722e-03
-2.564561e-02
-2.395517e-02
-4.364965e-02
-1.052197e-02
4.901883e-02
-9.966625e-02
-1.042583e-01
-8.256952e-02
1.237144e-02
-2.995606e-04
1.254436e-02
9.695785e-02
1.454725e-01
8.128461e-02
-6.957083e-02
-4.656263e-02
-5.518281e-03
-8.674822e-02
-2.462070e-02
2.535809e-02
-2.862130e-04
-3.925277e-02
-2.510425e-02
-3.895224e-02
-6.662817e-02
-3.630334e-03
-4.540836e-02
1.214792e-03
1.091798e-02
5.517081e-02
7.235736e-02
7.742023e-02
-3.793421e-05
-6.950133e-03
7.740604e-02
-4.262483e-02
3.708853e-02
4.398383e-02
1.355982e-02
-2.045447e-02
-2.952536e-02
6.129857e-02
3.423485e-02
5.300645e-02
-5.246687e-02
-2.394842e-02
1.585679e-02
-1.312796e-01
-1.411444e-01
-9.682429e-02
-2.714835e-02
-7.374705e-02
-3.452016e-02
6.238040e-02
4.261583e-02
3.630166e-02
2.226173e-02
-1.711680e-02
-1.472553e-02
-1.215920e-02
-3.567392e-02
-6.050707e-02
-4.099824e-02
-8.126472e-02
-8.064374e-02
-2.148272e-02
-3.793082e-02
-1.142242e-02
8.895530e-02
7.659788e-02
1.594672e-02
6.204611e-02
1.111124e-01
2.426757e-02
3.090832e-02
7.023589e-02
1.194223e-02
3.280960e-02
-4.668541e-03
-3.635278e-02
1.224920e-01
4.785090e-02
1.661018e-02
9.273739e-02
7.144024e-02
7.815865e-02
4.316565e-02
6.894237e-02
1.181585e-01
-3.581374e-03
2.129055e-02
5.116412e-02
-1.422302e-01
-1.932273e-01
-1.077891e-01
5.560634e-02
-2.675857e-02
7.317954e-02
4.584585e-02
-9.302826e-02
-1.202227e-02
-2.080421e-02
-4.055670e-02
-1.537400e-02
6.172866e-02
3.217692e-02
5.363444e-02
7.838932e-02
6.132840e-03
1.352461e-02
4.468459e-02
-2.582551e-02
-5.308695e-02
-1.703494e-02
-7.046293e-03
3.860159e-02
-7.233749e-02
-4.193180e-02
3.230795e-02
-3.437661e-02
-9.943151e-02
-4.961179e-02
9.021728e-02
2.413098e-01
2.169171e-01
-1.424061e-02
1.179719e-02
1.464071e-01
-1.715619e-01
-2.062798e-01
-6.821331e-02
2.252875e-03
3.665872e-02
2.072399e-02
-1.955259e-02
3.446286e-02
6.622047e-02
3.696323e-02
1.059803e-02
4.045415e-02
-4.023806e-02
-6.074942e-02
-1.413545e-02
-5.318596e-02
-8.650441e-02
-5.371356e-02
-2.993880e-03
-3.806018e-02
-1.278559e-02
-3.198417e-02
-1.113580e-02
5.159231e-02
1.311711e-02
-4.307044e-03
-2.045612e-02
2.680793e-02
2.798262e-02
-1.482297e-02
-7.863648e-04
2.126839e-03
-4.264179e-02
1.373977e-01
3.720593e-02
-2.448251e-02
3.281825e-02
-2.593738e-03
-3.789990e-02
-2.672654e-02
6.104762e-03
2.065141e-02
4.306883e-02
9.210099e-02
5.982383e-02
-3.317040e-02
9.470924e-03
3.648712e-02
8.229478e-03
7.797328e-03
2.453494e-02
-4.771092e-03
-2.630674e-02
-3.774084e-03
1.361895e-02
-4.814526e-02
-3.653866e-02
-3.846566e-02
-2.807371e-02
5.522940e-03
-6.970842e-02
-6.475594e-02
-5.767249e-02
-2.997310e-02
-3.278239e-02
-4.589839e-02
-7.195001e-03
4.604822e-02
-1.964273e-02
1.645647e-02
-1.605070e-02
-6.721196e-02
5.341410e-03
-7.603298e-03
-3.400404e-02
1.477137e-01
1.675723e-01
7.421895e-02
9.352061e-02
1.675571e-01
1.830297e-01
1.744722e-03
3.859363e-04
2.539527e-02
-7.292215e-03
-2.639037e-02
-5.293692e-02
-5.634296e-03
-1.594596e-02
-2.306481e-02
7.294694e-02
6.505778e-02
3.098023e-02
-4.854531e-02
-5.338265e-02
-1.016714e-01
-5.682840e-02
-8.875974e-02
-1.061859e-01
3.149061e-02
-1.144024e-03
-3.195530e-02
2.028229e-02
6.120727e-03
-8.703759e-03
1.662104e-02
1.421961e-02
-3.935747e-02
-4.221729e-02
-2.307197e-04
-7.079575e-02
-5.774951e-02
-2.093232e-02
-4.891685e-02
-1.827322e-02
9.531578e-03
7.618148e-03
-1.807533e-02
-2.610422e-02
-4.030378e-02
1.833447e-02
-5.252276e-02
-2.460975e-02
1.513726e-02
2.996092e-03
-4.245926e-02
-3.182181e-02
1.407351e-02
5.076028e-02
6.272860e-02
1.093305e-01
1.149640e-01
6.820071e-03
6.279744e-03
5.509325e-02
5.929544e-02
5.487972e-02
6.432132e-02
2.758848e-02
4.484611e-02
2.257812e-02
5.269933e-02
4.749420e-02
4.110267e-02
1.692246e-02
3.632847e-02
4.412986e-02
-1.316049e-02
-5.854283e-03
-3.035149e-02
-4.129485e-02
-5.723851e-02
-8.495429e-02
-3.434596e-02
-6.795898e-02
-8.735383e-02
3.130839e-02
3.851763e-02
-1.804994e-02
5.285215e-03
2.983942e-02
-1.920790e-03
2.883518e-02
3.775004e-02
3.042029e-03
-8.488920e-02
-1.031500e-01
-1.399554e-01
-9.640316e-02
-1.443906e-01
-1.466816e-01
-3.101907e-02
-1.345870e-01
-3.451878e-02
6.157035e-03
6.321979e-02
-3.380648e-02
-1.714939e-02
-1.562812e-02
-4.511734e-02
1.072006e-02
9.757790e-04
4.822839e-02
9.342902e-02
1.654362e-01
1.432534e-01
9.271616e-02
1.059674e-01
1.487029e-01
-4.296147e-02
6.753039e-02
4.411694e-02
6.322252e-02
6.373792e-02
1.576078e-02
7.380845e-02
1.376395e-01
9.383593e-02
-2.411374e-02
6.399284e-02
1.161996e-01
-2.542887e-02
-6.730305e-02
-9.412596e-02
-1.007607e-01
-1.252318e-01
-1.275327e-01
-6.368882e-02
-9.238652e-02
-7.438517e-02
-8.638727e-03
-3.871159e-02
1.782123e-02
-5.046938e-02
-3.083278e-02
-6.136756e-03
-4.058425e-02
-1.630211e-02
2.359255e-03
-1.975866e-02
-4.684579e-02
-4.028054e-02
-2.688570e-02
-7.232474e-02
-6.335951e-02
-6.630857e-02
-1.162475e-01
-9.953040e-02
-1.918811e-03
-8.904286e-03
-1.100608e-02
-8.262282e-03
3.959971e-02
-1.017035e-02
-8.382173e-03
5.304496e-03
2.375891e-02
-6.766324e-02
-9.742704e-02
-9.885744e-02
-8.246509e-02
-9.193294e-02
-1.092092e-01
-4.383613e-02
-7.098321e-02
-7.674856e-02
4.618043e-02
6.665882e-03
4.895604e-02
-1.656451e-03
-4.209749e-02
3.133455e-03
-6.319722e-02
-7.725900e-02
-5.170897e-02
1.953002e-02
-6.258120e-02
-6.541716e-03
-7.681245e-02
-6.911154e-02
-6.943472e-02
-2.373859e-02
-1.065168e-01
-3.521900e-02
-1.560315e-02
-9.498465e-02
-1.135232e-02
-5.948877e-02
-8.113822e-02
-2.543126e-02
-1.099183e-01
-8.643135e-02
-7.099777e-02
1.135300e-01
1.123320e-01
6.738906e-02
1.541966e-01
1.259413e-01
1.176514e-01
8.967843e-02
1.446658e-01
1.102991e-01
1.376853e-02
-1.441740e-02
-9.486149e-03
3.129457e-02
-6.266703e-03
1.325524e-02
6.260595e-02
4.791624e-02
5.141432e-02
-8.040158e-02
-6.493431e-02
-4.619739e-02
-8.183749e-02
-5.151012e-02
-7.449786e-02
-4.052256e-02
-8.007266e-02
-2.591360e-02
3.261154e-02
4.242201e-02
6.089639e-02
4.106134e-02
5.181456e-02
1.009663e-01
1.803377e-02
2.147148e-02
7.337552e-02
-8.368591e-02
-7.749731e-02
-5.280104e-02
-1.414009e-01
-8.138213e-02
-3.988387e-02
-3.174584e-02
-6.245795e-02
-1.107684e-02
-4.109238e-02
-1.238082e-01
-1.196299e-01
-5.247155e-02
-1.336287e-01
-1.516022e-01
2.921795e-03
-8.869134e-02
-1.685140e-01
-6.266052e-02
-3.082949e-02
3.220601e-02
-8.372804e-02
-5.555853e-02
3.314647e-02
-1.181798e-02
9.936907e-03
3.715037e-02
-2.565398e-02
-4.735658e-02
-6.254777e-02
-1.844711e-03
-1.860510e-03
7.131514e-04
2.389571e-02
-3.252369e-03
3.328114e-02
4.297217e-02
2.071542e-02
3.748743e-02
-7.802702e-03
1.197810e-02
1.377004e-02
1.560434e-02
2.168773e-02
6.174839e-02
1.194777e-01
8.638348e-02
8.010675e-02
8.547512e-02
8.242662e-02
1.016428e-01
1.172623e-01
1.111742e-01
9.817634e-02
-7.198123e-02
-8.277557e-02
-6.681283e-02
-9.036101e-02
-1.052520e-01
-7.745343e-02
-4.242194e-02
-8.505008e-02
-6.200419e-02
-5.333739e-02
-1.922444e-02
-4.588544e-02
-8.634959e-02
-4.432458e-02
-7.156021e-02
-5.740622e-02
-2.826104e-02
-1.685701e-03
-4.341190e-02
2.397473e-02
-1.351636e-02
-3.440545e-02
-1.840518e-02
-8.567134e-03
-2.936270e-02
-1.301907e-02
-9.763820e-02
-1.475526e-02
-9.977151e-03
5.410879e-02
-2.216015e-02
-3.187128e-02
-2.051009e-02
8.681449e-02
6.578406e-03
-4.549770e-02
1.947164e-02
3.286441e-02
3.573872e-02
6.878591e-02
7.071365e-02
1.099028e-01
8.445131e-02
1.247912e-01
8.124939e-02
1.145179e-01
1.287396e-01
9.799666e-02
1.612518e-01
1.532146e-01
1.531180e-01
1.219374e-01
1.556286e-01
1.442059e-01
1.921113e-02
4.002500e-02
7.523287e-02
2.998628e-02
1.599861e-02
7.467152e-02
-5.285957e-03
6.916274e-03
2.313721e-02
-1.850794e-02
1.240452e-02
7.391495e-03
-1.410182e-02
6.917087e-02
-2.695950e-02
2.196746e-02
3.103195e-03
-2.014476e-02
8.626767e-02
8.710172e-02
2.477350e-02
3.907768e-02
1.262053e-01
9.367056e-02
4.817468e-02
9.219619e-02
9.837354e-02
7.380402e-02
1.069809e-01
1.391515e-01
9.330142e-02
8.041891e-02
1.578338e-01
-3.892154e-02
1.125695e-02
6.586377e-03
-3.402364e-02
-5.769515e-02
-4.923668e-02
-1.717107e-03
1.895754e-02
-5.096997e-02
2.268998e-02
2.921394e-02
-6.095007e-02
-3.742933e-02
-3.702089e-02
-7.478757e-02
-2.228628e-02
-5.381073e-02
-4.061590e-02
9.846891e-03
3.340455e-02
4.497474e-02
4.376186e-03
1.203600e-01
7.981589e-02
8.697452e-02
6.888762e-02
8.535969e-02
1.206202e-02
5.910359e-02
1.144952e-02
-6.865125e-02
-8.509727e-02
-6.854780e-03
-1.821237e-01
-2.026276e-01
-6.676131e-02
-1.593298e-02
-8.721957e-02
-6.579982e-02
-1.076879e-02
-3.378119e-02
-6.518392e-02
5.444292e-02
2.128764e-02
-1.871746e-02
2.618197e-02
4.742482e-02
4.252368e-03
4.111792e-02
9.498483e-03
-5.123657e-02
2.794547e-02
7.021591e-03
-3.965400e-02
1.686643e-02
-2.384636e-02
-5.898496e-02
-2.898436e-02
1.745128e-02
7.743620e-03
-1.069555e-02
4.449591e-02
6.636838e-02
1.926694e-02
4.356731e-02
2.651599e-02
-4.798494e-02
-6.371970e-02
-5.917269e-02
-3.822621e-02
-4.489419e-02
-3.045222e-02
5.349879e-03
4.021074e-02
-1.148335e-02
-5.756141e-03
-5.748336e-02
-1.206673e-02
-2.872719e-02
-6.537539e-02
-8.574123e-02
1.035853e-01
3.221641e-02
-6.380212e-02
2.826740e-02
2.136259e-02
1.674544e-02
6.888273e-03
2.421611e-02
2.997960e-02
3.876734e-02
4.739352e-02
4.421930e-02
-1.229362e-02
-8.181735e-02
-1.003291e-01
-4.182617e-02
-6.590480e-03
-7.301997e-02
2.932985e-02
3.468941e-02
-1.967826e-02
-1.929270e-02
-8.421574e-02
-9.543732e-02
1.182857e-01
5.298409e-03
-3.646356e-02
2.111848e-01
1.158067e-01
-2.019149e-02
8.404169e-03
-5.811263e-02
-7.427251e-02
6.807868e-02
1.002542e-02
-4.603617e-04
1.453302e-01
1.374810e-01
1.024007e-01
2.689247e-03
-5.666786e-02
-2.930018e-02
-2.772117e-02
-4.498826e-02
2.161640e-03
-9.051087e-02
-1.440131e-02
-3.551016e-02
-2.333172e-02
-1.318770e-02
-4.758204e-04
2.509257e-02
1.714701e-02
5.429820e-02
5.000403e-02
7.013543e-02
7.698892e-02
7.010039e-02
1.096860e-01
1.009628e-01
-5.743880e-02
-6.451625e-02
-2.121778e-03
-7.395855e-02
-7.156305e-02
1.434990e-02
8.941304e-03
1.072287e-01
1.455341e-01
-6.161564e-02
-2.135919e-02
5.044795e-02
-1.177874e-01
-5.989011e-02
-3.831314e-02
-5.895752e-02
-1.683571e-02
-5.630558e-02
-3.726067e-02
2.910804e-02
-3.560176e-02
2.993271e-02
6.520955e-02
5.684047e-02
1.116817e-02
2.988001e-02
1.342672e-01
2.081141e-02
2.543978e-02
8.230793e-02
-4.592519e-03
-4.938688e-02
-2.043048e-02
-1.334312e-02
-6.431384e-02
-7.265824e-02
-9.858054e-03
-6.305414e-02
-1.268222e-01
4.026746e-02
3.245841e-03
-7.504263e-02
-6.204554e-02
1.382964e-02
6.591774e-02
-8.765342e-02
-4.936360e-02
-4.631357e-02
-4.343107e-02
-6.078797e-02
-6.029147e-02
-4.817383e-03
3.347877e-02
6.376716e-02
-3.619193e-02
2.786181e-02
8.062924e-02
-6.500661e-02
4.126641e-02
7.386491e-02
4.467272e-02
8.481158e-02
3.972708e-02
7.277249e-02
4.863948e-02
3.475403e-02
-3.725652e-03
4.495768e-03
2.592869e-02
6.116752e-02
7.870205e-02
9.990512e-02
-5.204586e-02
1.879879e-02
1.048537e-01
-1.440733e-01
-9.595690e-02
-1.031124e-02
-3.104961e-02
-6.558888e-02
-3.113866e-02
-1.577244e-02
6.061486e-03
-4.942532e-02
-1.398950e-02
-5.013624e-02
-4.433489e-02
1.477246e-02
1.629051e-03
-2.398803e-02
3.021995e-02
-6.036348e-03
5.681282e-03
1.017719e-03
1.558092e-02
4.775850e-03
-6.964830e-02
-6.638381e-02
-6.281185e-02
-7.063871e-02
2.650628e-03
-4.413019e-02
-3.512130e-02
-2.612711e-02
5.836983e-02
7.417887e-02
-4.848889e-03
-6.094041e-02
4.853508e-02
6.728829e-02
-5.186372e-02
2.235444e-02
8.421314e-03
-9.666754e-02
-2.345300e-02
-3.002033e-02
-7.279429e-04
2.573511e-02
-2.371470e-02
-1.666501e-02
1.775819e-02
-4.075861e-02
-6.603461e-02
7.197796e-02
8.283786e-02
1.922426e-02
8.576852e-02
1.370472e-01
3.554146e-02
1.052139e-02
5.264116e-02
5.044506e-02
6.833547e-03
-1.250307e-03
-2.950231e-03
-4.317473e-02
-2.274797e-02
-1.704312e-02
-2.123670e-02
-2.420699e-02
1.546357e-02
-5.349221e-02
-8.974628e-02
-7.271282e-02
6.658851e-02
-1.821771e-02
-5.421502e-02
5.121925e-02
-1.376817e-02
-1.547706e-02
2.359826e-02
-3.170548e-02
-3.271460e-02
-1.681242e-02
2.975976e-03
-3.361327e-02
-4.944102e-02
7.850288e-03
-1.437480e-02
-4.248897e-03
-3.053318e-02
-4.850407e-02
-5.533464e-02
-2.575396e-02
-5.572860e-02
-1.200030e-01
-4.766127e-02
-2.582645e-02
1.230678e-02
1.101959e-02
-2.472134e-03
5.394279e-02
3.631365e-02
-2.250328e-02
5.981608e-02
-2.346626e-02
3.612968e-02
-2.096209e-01
-1.150741e-01
-1.110548e-01
-1.775425e-01
-1.643056e-01
-1.613509e-01
-1.231134e-01
-8.560414e-02
-1.544050e-01
-3.973825e-02
-3.307439e-02
-3.194948e-02
2.725750e-02
-1.634553e-02
2.231335e-02
-5.331314e-02
-2.126199e-02
-1.097256e-03
-5.139585e-02
-5.918270e-02
1.484266e-02
-5.691735e-03
7.704579e-02
8.470913e-02
8.177659e-03
3.605777e-02
1.129807e-01
-8.922296e-02
3.091516e-04
-1.202129e-02
-2.359115e-02
-1.446701e-02
1.389061e-03
-5.690634e-02
8.047978e-03
-1.529172e-02
-1.452675e-03
-1.040370e-02
-1.251454e-02
-2.032530e-02
1.843298e-02
8.480234e-03
2.942610e-02
2.202897e-02
2.899021e-02
1.310992e-02
2.041416e-03
6.619760e-02
-8.195932e-03
-1.412250e-03
1.750038e-02
4.730329e-02
2.251777e-02
2.166790e-02
4.033575e-03
-3.930371e-02
-3.891699e-03
5.933725e-03
-4.150376e-02
-1.851936e-02
4.315558e-02
-4.033483e-03
-1.663271e-02
-4.163203e-03
-3.395529e-02
-4.384297e-02
3.866375e-02
-4.271821e-02
-7.562743e-02
4.736064e-02
-1.005402e-02
-8.202369e-02
-3.841645e-02
-3.813824e-02
-3.055293e-02
-2.108041e-04
-1.382676e-02
-5.234535e-02
2.710919e-02
3.471561e-03
-3.967986e-02
-1.245356e-01
-5.610208e-02
-2.967172e-02
-1.122366e-01
-5.531441e-02
2.488166e-02
-8.407155e-02
4.501792e-02
5.125036e-02
-6.647091e-02
4.016445e-03
5.740726e-02
-4.530910e-03
7.941941e-03
4.803028e-02
-7.110461e-02
4.112889e-03
3.480311e-02
8.143384e-03
3.988517e-02
2.998060e-02
5.734405e-02
3.901675e-02
2.114982e-02
1.131710e-01
4.341107e-02
-4.239261e-02
2.019088e-03
-4.296378e-02
-4.438496e-02
5.329868e-02
-3.109369e-03
-5.937004e-02
7.321199e-03
-5.815360e-02
-8.889355e-02
1.963587e-02
-4.991666e-02
1.610446e-03
1.647063e-02
-5.970170e-02
2.830759e-02
-1.621108e-02
1.409238e-02
3.498567e-03
2.472190e-02
3.386234e-03
5.751850e-02
3.529032e-04
3.084980e-02
1.702419e-02
1.366453e-02
-9.664742e-03
4.997393e-02
-1.762486e-02
1.193911e-02
2.287385e-02
-1.346776e-02
-2.983283e-02
3.147236e-02
-5.440841e-02
-1.707526e-02
6.353738e-02
-6.743851e-02
-4.951338e-02
1.197169e-02
-3.810011e-02
-2.288663e-02
-1.537366e-02
-4.884941e-03
5.981190e-02
2.508426e-02
4.333424e-02
-1.779348e-02
-4.163018e-02
-2.117491e-03
-1.326571e-02
-7.067777e-02
-1.054625e-01
-1.034975e-01
-2.431902e-02
3.284303e-02
4.818641e-03
-6.996313e-04
2.185442e-03
-2.421040e-02
2.028904e-02
2.626208e-02
-1.949312e-02
2.747107e-02
-4.026693e-04
2.173281e-02
2.537744e-02
1.799897e-02
-1.020654e-02
2.286529e-02
-2.425496e-02
-3.813785e-02
4.123704e-02
4.332294e-02
-4.767623e-02
-3.132479e-02
-4.063542e-02
-1.036251e-01
-3.690891e-02
-8.021859e-02
-9.534205e-02
5.863917e-03
4.696495e-02
3.135466e-02
1.564803e-02
1.799748e-02
4.569160e-02
9.835825e-02
-6.692822e-02
4.810103e-02
1.477984e-01
2.548352e-01
2.248007e-01
1.688332e-01
3.194489e-01
2.493871e-01
3.445454e-01
2.083244e-01
3.169883e-01
3.362127e-01
1.998464e-02
4.405495e-02
2.185483e-02
8.444329e-02
1.096524e-01
9.158127e-02
6.373175e-02
7.748136e-02
5.611908e-02
9.726115e-02
1.243606e-01
2.710926e-02
1.365360e-01
1.653033e-01
1.399653e-01
9.439532e-02
2.243088e-01
1.165982e-01
-1.332392e-02
3.908149e-03
-5.685272e-03
1.358213e-02
1.204576e-02
1.363258e-02
-3.951175e-02
-8.068520e-03
-3.326147e-02
-3.010355e-02
-2.741455e-02
-5.607302e-02
-4.489258e-02
-3.608453e-02
-5.274922e-02
-3.534928e-03
1.554113e-03
3.628567e-03
-4.527970e-02
-4.353884e-02
-6.013980e-02
-1.582479e-02
4.219823e-04
1.889364e-02
5.565383e-02
6.154809e-02
6.549989e-02
-3.866408e-02
-7.488126e-02
-1.022500e-01
-5.763875e-02
-4.256472e-02
-7.197006e-02
-2.435878e-02
-1.623676e-02
-2.386202e-02
-6.423686e-02
-3.423418e-02
-2.712063e-02
-2.378535e-02
1.712870e-02
-2.665483e-04
-1.366857e-02
-2.305747e-02
-1.980321e-02
-5.672058e-02
-8.190102e-02
-8.285317e-02
-3.603018e-02
-5.586154e-02
-4.764566e-02
6.203914e-03
-3.857540e-03
-8.561021e-03
-2.281673e-02
5.069707e-02
2.792930e-02
-3.156034e-02
-1.473672e-02
5.465823e-03
-4.514469e-02
-5.763404e-02
-5.994539e-02
3.700125e-02
6.077290e-02
4.984951e-02
4.051751e-02
1.422804e-02
7.586897e-02
-2.183930e-04
6.004638e-02
3.115272e-02
5.245045e-02
6.281965e-02
7.179399e-02
-7.184636e-04
1.650984e-02
7.199336e-02
-1.867473e-02
-1.716014e-03
2.296302e-02
-1.428176e-02
-2.228843e-02
3.905856e-02
-2.315414e-02
-8.723835e-03
-3.780029e-03
5.629149e-02
4.232568e-02
2.622847e-02
9.930974e-02
6.304903e-02
4.952895e-02
5.414804e-02
3.564607e-02
6.245778e-03
-1.393683e-02
-1.652898e-02
1.241933e-02
-2.630917e-02
2.137674e-02
-5.735695e-03
4.568718e-02
3.059944e-02
4.529894e-02
6.841742e-02
9.676541e-02
3.589656e-02
-6.510706e-02
-3.188283e-02
-2.455269e-02
-3.462391e-02
-2.102574e-03
-3.519111e-02
-2.287642e-02
-3.306171e-02
-4.603532e-02
9.240396e-02
1.155084e-01
5.062044e-02
8.742475e-02
9.354188e-02
1.049991e-01
1.205081e-01
1.381731e-01
1.110436e-01
3.963372e-02
-2.426496e-03
-1.460555e-02
4.277743e-02
-1.218946e-02
4.930216e-02
7.580742e-02
5.138916e-02
2.919549e-02
-6.709070e-02
-1.164712e-01
-5.067848e-02
-5.288571e-02
-1.165921e-01
-7.733472e-02
-2.771868e-02
-9.961432e-02
-2.945291e-02
-1.149849e-01
-1.460484e-01
-1.444355e-01
-9.007069e-02
-1.279290e-01
-1.076173e-01
-8.985119e-02
-1.394161e-01
-8.026525e-02
6.147406e-02
5.891145e-04
5.394375e-02
4.652728e-02
5.674373e-02
9.334891e-02
-4.094921e-02
-1.150091e-02
5.805876e-02
-3.245791e-04
-2.504167e-03
2.892018e-02
8.000141e-02
6.438573e-02
5.743879e-02
2.314305e-02
8.351086e-02
7.583062e-02
-3.542145e-02
-6.284656e-02
-1.779022e-02
-1.858724e-02
-6.411109e-02
-5.283304e-02
-3.114431e-02
-9.832769e-02
-7.828777e-02
4.428754e-02
3.161628e-02
3.813228e-02
1.091744e-01
6.285984e-02
8.865828e-02
4.941722e-02
7.847811e-02
6.375008e-02
4.027739e-02
1.929778e-02
1.344677e-02
7.333180e-02
8.917964e-02
6.051806e-02
8.225825e-02
5.167628e-02
5.401139e-02
6.501797e-03
6.129984e-03
-1.228299e-02
-4.257152e-02
-4.007723e-02
-3.912922e-02
-6.118966e-02
-6.254246e-02
-4.990447e-02
-5.300050e-02
-5.840084e-02
-3.869862e-02
-9.444767e-02
-8.410952e-02
-6.806981e-02
-1.545376e-01
-1.110372e-01
-1.186619e-01
5.938857e-04
3.254005e-02
6.348044e-02
5.789380e-02
5.861900e-02
1.286523e-01
6.818305e-02
8.256539e-02
7.800972e-02
-7.512097e-02
-8.654045e-02
-9.726852e-02
-6.736792e-02
-1.192446e-01
-1.069006e-01
-7.212175e-02
-1.118272e-01
-8.934715e-02
3.768681e-02
2.958173e-02
1.473444e-02
5.893719e-02
5.535172e-02
4.093334e-02
-5.325584e-03
6.657328e-02
3.752381e-02
1.518740e-02
3.610324e-02
4.574826e-02
-6.547870e-02
-2.285294e-02
-1.678827e-02
-8.897470e-02
-9.832723e-02
-5.000039e-02
5.482932e-03
9.042268e-02
8.550305e-03
8.459217e-02
3.564569e-02
5.057894e-02
1.259310e-01
1.054721e-01
7.399561e-02
5.677841e-03
-4.041816e-03
5.186525e-02
-4.162213e-03
-5.211914e-02
4.014515e-02
1.542767e-02
-3.802334e-02
-3.446067e-02
-9.202493e-02
-7.277491e-02
-8.602268e-02
-9.818475e-02
-8.627465e-02
-6.400920e-02
-8.647439e-02
-7.068340e-02
-2.985382e-02
5.578891e-03
-2.063230e-02
4.067589e-03
5.870716e-02
-2.457947e-02
3.801443e-02
3.391746e-02
5.232125e-02
2.027917e-02
7.698872e-03
-1.183898e-03
-1.001646e-02
4.732072e-02
1.921046e-02
3.385179e-02
3.062840e-02
2.565154e-02
2.829377e-03
-6.593040e-02
1.162222e-03
4.275342e-02
6.632074e-03
-3.368480e-02
1.123063e-02
-1.028056e-02
2.185931e-02
1.395652e-02
1.068615e-02
4.851116e-02
1.539733e-02
5.675909e-02
8.078929e-02
7.772666e-02
6.926468e-02
8.076145e-02
9.630667e-02
2.462443e-02
-8.499208e-03
-1.677791e-02
4.372611e-02
1.053364e-02
6.658580e-02
3.239097e-02
2.121377e-02
1.824767e-02
-1.101619e-01
-1.247184e-01
-1.501892e-01
-9.100647e-02
-1.574982e-01
-2.183123e-01
-1.191031e-02
-2.906741e-02
-6.468873e-02
-5.260667e-03
-1.888296e-02
9.637724e-03
-1.349423e-02
-5.146385e-02
-3.032722e-03
2.275317e-02
2.604061e-02
6.102356e-02
-5.136937e-02
-8.231328e-02
-9.907649e-02
-2.208081e-03
2.679870e-02
-5.860679e-02
6.064899e-02
6.192344e-02
4.935878e-02
3.880474e-02
-2.091180e-02
-1.890766e-02
-5.059043e-02
5.878765e-03
-3.102653e-02
-5.482345e-02
-1.206932e-01
-6.094697e-02
-7.927819e-02
-7.186926e-02
-8.468793e-02
-3.760193e-02
-3.020630e-02
-7.305674e-02
-2.759878e-02
-5.248054e-02
-1.091246e-01
1.610515e-02
1.083608e-01
1.195394e-01
-4.153441e-03
4.086116e-02
9.376651e-02
-2.993802e-02
-5.973435e-02
-2.671476e-02
-3.490535e-02
-2.813552e-02
-2.837978e-02
1.683656e-02
-3.846656e-02
1.521250e-02
5.492546e-02
8.122821e-02
6.222919e-02
-6.013589e-03
-6.786856e-02
-5.993126e-02
4.008360e-02
7.234751e-02
-3.280983e-02
4.599575e-02
1.397781e-02
5.193559e-03
6.217533e-03
-3.713195e-02
-3.792625e-02
-1.628757e-02
-4.893365e-02
-9.105854e-02
1.422148e-02
-3.479059e-02
-5.141119e-02
2.266817e-03
-2.822448e-02
2.200676e-02
9.995185e-03
-1.209236e-02
5.692964e-02
-6.408029e-02
-6.779375e-02
-5.700098e-02
-6.010883e-04
-5.983908e-02
-7.374128e-02
8.394578e-03
1.363781e-02
-1.010219e-02
9.509256e-02
9.943126e-02
3.089009e-03
2.511560e-02
1.527833e-02
-4.305958e-02
-4.521565e-02
-8.188943e-03
-8.671145e-02
-4.866204e-02
-9.702738e-02
-1.348183e-01
4.859104e-02
1.333913e-03
-4.771797e-02
-4.558634e-02
-6.168596e-02
-8.410423e-02
-6.453770e-02
-1.378027e-01
-1.492677e-01
-2.850580e-02
-2.822321e-02
-1.106414e-04
3.445798e-02
-1.598438e-03
6.091566e-02
7.698557e-02
1.002644e-01
9.636707e-02
1.590197e-02
1.745645e-02
4.801776e-02
2.616598e-02
2.197466e-02
3.146722e-02
-1.546091e-03
-5.033176e-02
-2.676244e-03
-8.727462e-03
-9.045048e-02
-8.024415e-02
-1.527915e-02
-3.922076e-02
-2.848416e-02
1.641174e-03
-3.041177e-03
-3.885668e-03
-5.909831e-02
-5.572357e-02
-6.117657e-02
-1.266109e-01
-9.496157e-02
-1.167995e-01
-6.741945e-02
-4.962840e-02
-5.963189e-02
3.445696e-02
8.595764e-02
5.552403e-02
5.534335e-03
6.391653e-02
1.206680e-01
-1.384087e-03
2.348832e-02
3.921600e-02
-9.150545e-03
7.521155e-03
4.415780e-03
6.242246e-02
4.200354e-02
1.048484e-01
7.562375e-02
1.148761e-01
8.893990e-02
1.689438e-02
1.479235e-02
3.711430e-02
4.241515e-03
1.909446e-02
2.998249e-02
5.505728e-03
-1.322531e-03
9.662649e-03
-2.808429e-02
-2.122406e-03
9.688128e-03
-4.881121e-03
-1.938784e-05
6.315945e-02
-1.071917e-01
-3.879073e-02
-3.323533e-02
5.563702e-02
8.080315e-02
6.588492e-02
1.171764e-01
1.009465e-01
1.086487e-01
1.332439e-01
9.632161e-02
8.269515e-02
-2.235355e-03
5.011795e-02
2.170553e-02
-8.325429e-02
-4.246962e-02
-3.168718e-02
-1.218470e-01
-1.520087e-01
-1.676509e-01
-6.291407e-03
2.313589e-02
3.781953e-03
-1.057595e-02
-4.297267e-02
-5.880386e-02
3.744791e-02
5.860264e-03
1.028317e-02
4.431501e-02
9.834725e-02
1.231716e-01
2.634740e-02
8.275276e-02
1.003722e-01
-5.185659e-03
4.066457e-02
2.957121e-02
-8.172184e-03
8.425986e-03
8.381647e-02
-7.964645e-03
7.094345e-03
9.725298e-03
-6.219034e-02
-7.441166e-02
-4.355782e-02
9.628952e-03
9.273724e-03
3.701815e-02
7.031706e-03
4.055569e-02
4.176963e-03
-3.497387e-02
-1.827039e-03
5.750010e-03
6.539197e-03
-1.736885e-02
-2.150022e-02
5.085756e-02
4.373724e-02
-4.828244e-02
1.575045e-02
-3.103730e-02
-5.930936e-02
1.794699e-02
5.217047e-02
-1.814183e-02
5.647033e-02
8.205926e-02
2.728904e-02
2.964891e-03
5.518979e-02
-4.113345e-02
-1.549090e-02
3.144715e-02
2.124237e-03
-2.288038e-02
8.962058e-03
8.709090e-03
-3.170959e-02
-5.771109e-03
-1.352517e-02
-2.555781e-02
-8.507976e-03
-3.241249e-02
-1.956476e-02
1.112270e-02
-4.449364e-03
-5.956131e-02
-1.732717e-02
-4.511941e-02
9.201802e-03
8.827755e-03
1.448536e-02
-2.862852e-02
-3.528333e-02
-3.114483e-02
2.584166e-03
-1.116143e-02
-1.742084e-02
1.806372e-02
-3.042202e-03
-5.388455e-03
1.494133e-02
5.711223e-03
2.442706e-02
7.995513e-02
1.748602e-02
2.666258e-02
1.846188e-02
-1.727602e-02
-3.544254e-03
-1.839655e-04
-4.414758e-03
-1.641621e-02
-2.285874e-02
-1.135915e-02
-5.185135e-03
-2.804879e-02
-6.166793e-02
-5.885043e-02
-6.086400e-02
-5.531437e-02
-6.558097e-02
-8.939634e-02
-8.018453e-02
-9.736253e-02
4.407258e-02
1.199568e-02
6.252676e-02
-1.352705e-02
-3.799153e-02
-4.490137e-03
-4.270315e-02
-5.208356e-02
1.289216e-02
1.781374e-02
2.157625e-02
-2.291486e-03
-1.843007e-02
-2.164338e-02
-3.356343e-02
4.949204e-03
1.862131e-02
2.576178e-02
6.768214e-03
9.497257e-03
-1.934822e-02
-1.440301e-02
-2.412756e-02
-2.474900e-02
-9.525358e-03
5.055794e-02
-2.204381e-02
5.514313e-03
1.314145e-02
1.253464e-02
1.145382e-03
4.890366e-02
1.175522e-03
2.007998e-02
6.435005e-03
-1.514815e-02
-3.183007e-02
-1.054014e-01
-8.093947e-02
-7.941782e-02
-1.796406e-01
-1.554920e-01
-3.255255e-02
-9.309393e-02
-1.005703e-01
-1.158868e-02
-9.278120e-03
-9.182870e-04
9.900018e-03
1.712517e-02
1.477031e-02
5.343049e-03
6.613147e-03
-7.779439e-03
-2.799202e-02
-1.623997e-02
-4.595878e-02
-6.596486e-02
-6.812472e-02
-9.357789e-02
-1.218815e-01
-1.292099e-01
-1.505027e-01
-3.931810e-02
-4.478868e-02
-6.505601e-02
-1.005867e-01
-1.063007e-01
-1.030083e-01
-8.407931e-02
-8.716939e-02
-1.197783e-01
-2.834296e-02
8.144925e-03
1.686456e-03
6.508034e-02
1.244393e-01
1.283793e-01
4.773299e-02
1.489489e-01
1.315426e-01
-4.677654e-02
-3.728236e-02
-3.571531e-02
-5.148043e-02
-2.979992e-02
-2.892109e-02
-5.224192e-02
-2.425735e-02
2.492117e-03
2.033852e-02
-1.486204e-02
6.095502e-03
-1.327401e-02
-2.525614e-02
-7.497707e-02
-2.728910e-02
-3.593499e-02
-7.393698e-02
-3.978951e-02
-9.560256e-02
-6.181953e-02
-1.240372e-01
-1.625473e-01
-1.473927e-01
-1.095658e-01
-1.536696e-01
-1.116922e-01
-4.422666e-02
-1.229408e-03
-2.011139e-02
-3.505967e-02
-9.710896e-03
-2.677368e-02
-6.008613e-02
-4.438294e-02
-6.367857e-02
2.371397e-02
-4.506873e-02
-1.152004e-02
-2.290776e-03
-7.457932e-02
-5.604129e-02
-9.970341e-03
-9.954522e-02
-1.124521e-01
-3.342785e-03
-2.733782e-02
-4.207801e-02
-3.389452e-02
-5.132792e-02
-5.438656e-02
-4.033573e-02
-2.008459e-02
-7.635463e-02
2.841167e-02
-3.849304e-02
-2.897142e-02
-2.012622e-03
-7.408427e-02
-7.550701e-02
2.347100e-03
-6.667218e-02
-9.408353e-02
1.009955e-02
-1.969009e-02
2.240054e-02
3.049153e-02
5.728816e-03
7.691500e-03
-7.713221e-03
-3.726550e-02
-3.224111e-02
-4.590828e-02
2.825147e-02
9.697571e-03
-3.284464e-03
6.730752e-02
7.367589e-02
4.082024e-02
7.787758e-02
1.019915e-01
-4.668307e-02
-2.380302e-02
-7.832547e-02
-7.598879e-02
-2.055185e-02
-7.262731e-02
-1.613205e-02
3.229239e-02
-5.079250e-03
3.835274e-03
-1.599042e-02
-2.300656e-02
1.121418e-03
-2.568151e-02
-3.467398e-02
-2.855321e-02
-4.481686e-02
-4.533865e-02
-2.779288e-03
-3.907216e-02
3.197677e-02
3.561770e-03
-3.114960e-02
5.189451e-02
1.807890e-02
-2.213036e-02
6.285760e-02
2.158449e-02
1.286616e-02
-6.905448e-03
2.007627e-02
4.762484e-02
-3.640000e-03
-2.681802e-02
-2.542291e-02
-7.536069e-02
-4.717181e-03
-1.623251e-02
-2.824886e-02
1.535355e-02
2.400375e-02
-6.778575e-03
4.480319e-02
5.768163e-02
-9.166321e-04
1.003238e-02
-2.609039e-02
-5.276172e-02
-2.259746e-02
-3.845800e-02
-5.920506e-02
-4.989250e-02
-6.707062e-02
-7.735892e-02
4.163028e-02
2.030471e-02
-1.408339e-02
1.206873e-02
-1.092318e-02
-6.406327e-02
-1.892855e-02
-7.439409e-02
-1.053045e-01
6.415158e-04
-4.262709e-03
7.701550e-03
-6.484570e-03
1.213283e-03
2.028343e-03
3.427178e-02
3.865622e-02
3.966791e-02
6.984462e-02
6.881928e-02
5.638302e-03
5.085247e-02
2.304661e-02
2.746694e-02
4.787980e-02
7.887829e-02
2.672201e-02
4.707690e-02
5.572068e-02
-3.909743e-02
7.282037e-02
8.447254e-02
1.681083e-02
1.287735e-01
1.387159e-01
6.710343e-02
-7.548969e-02
-3.640547e-03
-3.008436e-02
-2.204727e-02
1.754265e-02
-1.166908e-02
-4.195240e-02
-1.737428e-02
-1.158750e-02
1.049025e-01
1.412218e-01
1.389647e-01
2.374041e-02
3.669773e-02
7.435822e-02
-9.880973e-02
-1.854303e-02
-3.027293e-02
-3.696588e-02
-6.971343e-02
-1.798970e-02
-3.807104e-02
-4.489856e-02
-5.400955e-02
-8.220702e-02
-1.370147e-01
-1.243268e-01
-2.496287e-03
-1.633326e-02
1.405842e-02
1.299538e-02
7.732698e-03
6.329793e-02
-2.484500e-04
8.165486e-02
7.576703e-02
-2.853024e-02
-4.839452e-02
-4.044801e-02
-4.139488e-02
-1.342596e-02
-3.171298e-02
-6.116840e-02
-7.024159e-02
-3.029912e-02
-4.816033e-02
-2.207940e-02
4.073813e-03
-1.496089e-01
-1.124776e-01
-8.830114e-02
-1.429048e-01
-1.108205e-01
-1.299657e-01
3.629611e-02
7.181457e-02
5.123540e-02
3.242117e-02
-3.951802e-02
6.336433e-02
-3.848348e-03
-1.255738e-02
5.156676e-02
-4.572831e-02
-1.083534e-01
-1.343392e-01
6.096067e-02
-1.439830e-02
-9.521887e-02
1.533833e-01
1.027070e-01
5.441527e-02
1.674218e-03
2.221916e-02
4.818093e-03
-3.132090e-02
-1.960428e-02
2.926959e-02
-1.062902e-01
-1.562202e-01
-8.994906e-02
1.232485e-02
-4.762585e-02
-1.134069e-01
6.727593e-02
-8.675098e-03
-6.600103e-02
8.949091e-02
1.147703e-01
4.966609e-02
-1.989237e-02
-1.990176e-02
3.673412e-02
-4.228665e-02
-3.605376e-03
6.483471e-04
-3.770930e-02
-9.861606e-02
-5.154391e-02
-2.315086e-02
1.166870e-02
5.148681e-02
-5.052589e-02
-3.283587e-02
-2.918467e-02
-4.430018e-02
-9.672659e-02
-8.438748e-02
6.067673e-02
3.790681e-02
6.105988e-02
2.830806e-03
-3.221799e-03
2.130639e-02
-3.719114e-02
-9.468396e-02
-7.017665e-02
-2.978236e-02
-9.784480e-02
-3.230976e-02
-6.392581e-02
-1.207078e-01
-1.311673e-01
1.268694e-02
-6.146466e-02
-8.751021e-02
-6.416321e-02
-3.841032e-02
-1.430183e-02
-8.300296e-02
-5.548178e-02
-5.220236e-02
-8.607905e-02
-9.823571e-02
-1.461057e-02
-6.238465e-02
3.909577e-03
3.640776e-02
-2.675385e-02
-5.604808e-02
-8.168031e-04
-2.573914e-02
-5.559675e-02
-1.834267e-02
-1.203998e-02
-4.591164e-02
-1.191625e-02
-5.014161e-02
-7.956024e-02
-8.562374e-02
-5.421328e-02
-6.349928e-02
-1.111550e-01
-1.646163e-02
-1.855174e-02
3.988095e-02
-1.976741e-02
7.172307e-03
-4.019868e-02
1.914274e-02
1.054206e-02
1.990578e-02
-1.231994e-03
3.262015e-02
2.382293e-02
-6.139471e-03
-7.139266e-03
4.216870e-02
-2.697265e-02
-6.239558e-03
-8.896760e-03
-1.445341e-02
1.263344e-02
-1.070800e-02
-3.544259e-02
-1.872463e-02
-9.277238e-02
-3.871011e-03
-3.975651e-02
-7.314109e-02
-3.268295e-02
-1.302949e-01
-2.461396e-01
1.538947e-01
-5.139618e-02
-2.002789e-01
3.316541e-01
2.900021e-01
8.908147e-02
-3.661090e-02
-5.778963e-02
-4.743114e-02
-6.055997e-02
-9.865930e-02
-8.117817e-02
-4.744281e-03
-1.511443e-02
-2.904896e-02
1.687463e-02
6.060614e-02
4.142964e-02
1.144403e-02
2.165074e-02
-1.376412e-02
-1.649238e-02
6.519872e-03
1.728631e-02
-3.973021e-02
1.890955e-02
5.843927e-02
-3.463922e-02
4.703153e-03
6.787214e-02
-2.505079e-02
-5.288310e-02
-5.575586e-03
1.118396e-02
7.075600e-02
8.403774e-02
-9.302499e-02
-8.877346e-03
3.332581e-02
-8.984666e-02
-2.904548e-02
2.544695e-02
-3.084492e-02
1.758522e-02
4.547919e-02
2.688674e-02
4.929165e-02
-1.848132e-02
2.069329e-02
-1.730326e-03
-2.502761e-02
1.792445e-03
4.176757e-05
-1.983556e-02
2.400207e-02
8.843429e-02
-4.973256e-03
4.534485e-02
4.745331e-02
1.901416e-02
4.099058e-02
3.935441e-02
4.043325e-02
-7.953066e-03
-2.323730e-03
5.353865e-02
-2.817834e-02
-1.551298e-02
-8.152903e-03
-5.800521e-02
-8.831282e-02
-4.525701e-02
-6.814616e-02
-4.951667e-02
-6.002032e-02
-2.155794e-02
-4.817229e-02
-7.670662e-02
-4.441069e-02
-8.501415e-02
1.527482e-03
-1.711372e-02
2.924425e-02
2.216217e-02
2.282729e-02
1.736553e-02
7.395694e-03
2.837389e-03
8.748620e-03
5.690077e-03
-6.987474e-02
-6.144885e-02
-7.234866e-02
-5.871410e-02
-8.098184e-02
-6.248037e-02
5.375531e-02
-3.947464e-02
-2.382707e-02
-7.058565e-02
-1.079800e-01
-6.810559e-02
-1.358888e-02
-5.041358e-02
-4.386760e-02
3.328528e-02
1.386247e-03
3.353949e-02
-9.530279e-03
-2.732060e-02
-3.518975e-02
-1.058065e-01
-8.643453e-02
-2.484278e-02
-1.862771e-02
4.112507e-02
6.696073e-03
5.407338e-03
-3.121828e-02
2.577590e-03
3.277366e-03
-8.026987e-02
-4.348442e-02
-5.849050e-02
-9.503765e-02
-8.548933e-02
-6.446690e-02
-2.202441e-02
-2.209233e-02
-2.276443e-02
-4.670933e-03
7.329380e-02
-4.814492e-03
-5.888160e-02
8.301803e-03
-3.169795e-03
-4.248673e-03
9.499901e-03
2.663058e-03
-9.620080e-03
2.035957e-02
-1.447660e-02
2.381735e-02
2.961483e-02
4.759602e-02
5.606532e-03
-1.458052e-02
3.071521e-02
-1.283789e-02
-6.500161e-02
-1.700379e-02
-5.933195e-02
-9.665625e-02
-3.897547e-02
-4.797092e-02
-1.174106e-01
-6.643143e-03
-3.532890e-03
-3.043355e-02
-3.061590e-02
-1.340007e-01
-1.345815e-01
-1.341527e-02
-7.727230e-02
-7.838061e-02
8.224917e-02
1.352439e-01
6.834969e-02
4.209051e-02
4.045683e-02
7.071455e-02
6.907649e-02
9.475171e-02
7.582691e-02
8.436115e-02
7.014629e-02
3.301200e-02
-6.108089e-02
-9.395608e-02
-1.744507e-02
1.776617e-02
5.691582e-02
1.357419e-01
8.542752e-02
1.645674e-01
1.552847e-01
-6.618229e-02
2.553479e-03
4.540862e-02
-2.269774e-03
2.268649e-02
2.312153e-02
5.150351e-02
5.962654e-02
6.994478e-02
-4.787271e-02
-6.468266e-02
-1.006867e-01
-8.555590e-02
-9.452915e-02
-8.321457e-02
-4.109871e-02
3.117612e-02
2.099270e-02
8.682974e-02
1.152947e-01
6.722558e-02
1.277601e-02
8.031048e-03
-4.866300e-02
-6.258056e-02
-8.817981e-02
-4.572031e-02
-3.553242e-02
-1.000840e-01
-1.730897e-02
-3.163216e-02
-6.436048e-02
-6.798502e-03
5.862413e-02
2.983742e-02
1.739261e-02
-1.557503e-02
-4.891365e-02
-8.233788e-02
-1.216610e-01
-9.287554e-02
-8.888131e-02
-1.144775e-01
-1.147455e-01
-7.725367e-02
2.407005e-02
4.433787e-03
2.375659e-02
-5.030860e-02
-4.851858e-02
-1.151391e-01
-1.687591e-02
-7.482097e-02
-1.049794e-01
1.438591e-02
-8.222950e-02
-7.630510e-02
3.034659e-02
-3.068250e-02
-3.315346e-02
8.973190e-03
3.028824e-02
1.118914e-02
2.824678e-03
-2.124854e-03
-4.372245e-02
-4.486969e-02
-4.191309e-02
-7.344361e-02
-9.522054e-02
-9.841367e-02
-7.349779e-02
-3.800119e-02
2.521323e-02
2.875760e-02
2.216852e-03
9.205264e-02
6.108756e-02
-8.807319e-03
7.217365e-03
3.431658e-03
4.106415e-02
-6.222645e-03
2.549508e-02
5.050625e-02
4.349307e-02
5.090163e-02
9.630635e-02
1.134364e-01
5.874727e-02
6.259745e-02
7.770438e-02
9.959397e-02
9.082432e-02
9.251861e-02
1.033107e-01
7.937595e-02
6.912672e-02
9.079425e-02
1.468135e-02
-4.470752e-04
2.472356e-02
-1.053053e-02
-2.377931e-02
1.624832e-02
-4.169599e-03
3.959169e-02
6.767637e-02
4.582563e-02
7.785729e-02
4.644975e-02
-3.754576e-02
-3.589847e-02
-3.976081e-02
-1.648611e-01
-1.873753e-01
-9.890068e-02
3.019018e-02
4.024906e-02
6.951828e-02
8.720009e-02
3.993228e-02
5.003887e-02
1.433434e-01
1.246293e-01
4.392375e-02
1.145710e-01
1.216324e-01
5.372456e-02
1.212189e-01
1.353002e-01
1.369147e-01
8.723080e-02
1.622537e-01
1.279762e-01
9.832375e-02
4.009789e-02
-2.032190e-02
3.263760e-02
-3.160805e-02
-2.276514e-02
-6.520963e-02
-9.629878e-02
-5.988594e-02
8.157045e-02
6.457811e-02
6.737386e-02
-1.936653e-02
3.508951e-02
2.752856e-02
-4.203526e-02
-2.031975e-02
-3.904188e-02
2.715191e-02
-1.704840e-02
4.680638e-02
-6.831901e-02
-7.439432e-02
-2.618339e-02
-6.942942e-02
-5.851852e-02
3.158733e-02
6.791405e-03
2.511496e-02
9.943693e-02
-9.908108e-03
-5.881985e-03
1.843190e-02
-5.883936e-02
-7.176110e-02
-7.550304e-02
-1.563491e-02
-5.302964e-03
-1.867153e-02
-2.268535e-02
1.767593e-02
3.534734e-03
-2.221343e-02
3.340871e-02
6.037883e-02
-4.828481e-03
-3.808407e-02
-8.107922e-02
6.340279e-02
9.853317e-03
-6.226136e-02
1.079396e-01
1.018476e-01
-1.788876e-04
3.663602e-02
7.839860e-02
3.924439e-02
-7.204179e-03
-3.273106e-02
-7.376175e-02
-5.822321e-02
-5.102421e-02
-9.589288e-02
-2.120255e-02
3.022691e-02
1.045766e-01
3.127825e-02
1.248643e-02
2.101179e-02
6.156302e-02
4.895774e-03
-3.686943e-02
-5.045871e-03
1.924589e-02
4.290602e-02
-5.653916e-02
2.520884e-02
3.568254e-02
3.642436e-03
4.129186e-02
4.825090e-03
4.118986e-02
5.895356e-02
8.983195e-03
-1.505839e-02
7.041768e-02
6.159097e-02
-1.109740e-02
2.833986e-02
2.454863e-02
2.087718e-02
-3.562447e-02
-9.094124e-02
-2.250171e-02
-2.493847e-02
-9.554313e-02
1.710854e-02
-8.019787e-03
-1.244727e-02
7.273611e-02
-4.537975e-02
-8.229983e-02
6.981198e-02
7.513331e-04
-7.388927e-02
8.073778e-02
3.080645e-02
-1.255327e-02
-1.337623e-02
1.604230e-02
3.418236e-02
2.583915e-02
3.027566e-02
-1.223713e-02
8.463474e-03
1.964080e-02
5.478784e-02
4.399709e-02
-5.594059e-02
-1.108060e-01
-9.874835e-04
-1.027808e-01
-1.315418e-01
-6.597181e-02
-1.204719e-01
-1.023574e-01
5.788139e-02
-3.811019e-02
-1.466066e-01
1.229925e-01
3.384827e-02
-1.870250e-01
1.029680e-01
5.046229e-02
-2.793297e-02
-3.683874e-02
3.954574e-02
7.761294e-02
-3.155995e-02
8.660427e-03
7.547980e-02
2.626263e-02
8.265342e-02
8.851862e-02
9.113905e-02
3.396755e-02
-1.640461e-02
1.413728e-01
3.703342e-02
-4.593764e-02
1.141815e-02
-2.779823e-02
-1.001093e-01
5.869645e-02
-3.739545e-02
-1.079780e-02
4.126266e-02
-8.497207e-04
-6.486121e-02
3.556586e-02
-3.603267e-02
-3.240088e-02
9.254353e-03
2.064426e-02
-2.256768e-02
7.994322e-02
2.291784e-02
-4.343530e-02
1.948942e-02
-6.253443e-04
-3.563118e-02
-8.003715e-02
1.826429e-02
8.355247e-02
-7.363644e-02
-4.663984e-02
1.170272e-01
-6.907491e-02
-8.541084e-03
4.254400e-02
-2.131634e-02
-2.483618e-02
-5.395139e-02
5.461737e-02
-4.720610e-02
-1.061071e-01
2.991528e-02
-6.548847e-02
-9.446739e-02
5.148466e-02
-7.148303e-03
-7.944934e-03
6.936882e-02
4.505295e-02
-8.801374e-03
-1.472686e-02
2.568804e-02
-1.966585e-02
7.122896e-02
-4.778827e-03
-5.375869e-02
8.002146e-02
-3.575416e-02
-9.068784e-02
1.226126e-01
6.354138e-02
-9.455218e-05
7.623371e-02
6.308949e-02
6.014328e-02
1.745245e-01
1.204196e-01
6.735428e-02
7.467643e-02
9.351533e-02
8.747523e-02
-6.513833e-02
-7.184052e-02
-3.580103e-02
-6.490824e-02
-5.636474e-02
-4.938748e-02
-4.360483e-02
-4.558205e-02
-5.028581e-02
-2.810461e-02
-3.231824e-02
-2.867096e-02
-7.931407e-02
-8.651783e-02
-6.305426e-03
-4.061177e-02
1.017054e-02
2.653151e-02
-2.624838e-02
-4.831702e-02
-4.548505e-02
-2.496286e-02
-6.835885e-02
-6.202023e-02
-1.088222e-01
-7.343672e-02
-8.299395e-02
9.569468e-03
4.071149e-02
1.722684e-02
4.224833e-02
5.454934e-02
-3.551069e-02
9.835070e-02
1.781043e-02
-1.664832e-02
9.944682e-02
2.169925e-02
-3.229896e-02
9.656763e-02
3.640268e-02
-9.239879e-02
1.134516e-01
4.986997e-02
-3.689128e-02
6.308671e-02
3.950771e-03
6.294382e-02
7.892183e-02
3.571738e-02
6.121466e-02
8.368976e-02
1.554003e-02
5.980582e-02
-8.104297e-02
-7.385775e-02
-3.208145e-02
-1.184143e-01
-7.015892e-02
-6.823096e-02
-1.236553e-01
-5.525862e-02
-2.683570e-02
5.263604e-02
2.432953e-02
-2.314320e-02
8.597354e-02
6.150377e-02
4.448952e-02
7.710888e-02
1.228218e-01
6.992866e-02
-2.559251e-03
-1.372721e-02
6.780241e-02
-7.557850e-02
-7.768767e-02
1.017550e-02
-7.152517e-02
-4.372443e-02
8.907137e-02
-6.720223e-02
-1.261561e-02
6.044856e-02
-4.057737e-02
1.649134e-02
9.044870e-02
-3.352905e-02
8.177391e-04
-2.759309e-02
-4.718148e-02
1.915838e-02
-2.837713e-02
1.855296e-02
2.678037e-02
2.155125e-02
-4.267880e-02
1.806426e-02
-1.326387e-02
-7.938718e-02
-1.574368e-01
-8.636802e-02
-1.333612e-01
-1.156145e-01
-5.130685e-02
-1.323053e-01
-1.041978e-01
-2.648393e-02
5.375812e-02
2.292337e-02
-5.143312e-02
3.894407e-02
1.194287e-01
2.465426e-02
-1.517651e-02
7.377790e-02
5.441063e-02
1.697067e-02
4.791245e-02
-5.528199e-04
4.022818e-02
2.639798e-03
-4.100850e-02
-8.665702e-04
-1.271680e-02
-1.693296e-02
-1.747590e-02
1.627543e-02
1.933959e-03
-4.320239e-02
1.950002e-02
-1.402150e-02
-1.570450e-03
3.969028e-02
2.698989e-02
-4.371174e-03
-1.996136e-03
-4.628450e-02
1.649430e-02
-3.623486e-03
-5.503131e-02
-2.948567e-02
-4.088630e-02
-4.127945e-02
1.654223e-01
1.289805e-01
6.877799e-02
1.149523e-01
8.171325e-02
5.534143e-02
6.614279e-03
5.965301e-02
-1.378065e-02
-3.060331e-02
-5.902352e-02
-3.455835e-02
-6.905368e-02
-6.065724e-02
-5.230674e-02
-2.978220e-02
-5.080583e-02
-5.806342e-02
-4.840262e-02
-1.620288e-03
-2.252731e-02
7.978736e-04
4.816080e-02
2.728011e-02
-2.131191e-02
4.960098e-02
2.390514e-02
5.170243e-02
7.600018e-02
-6.428942e-02
1.635776e-01
1.146364e-01
1.675071e-02
1.636374e-01
2.143453e-01
7.918048e-02
-3.810063e-02
4.596116e-02
4.174559e-02
-6.149544e-02
6.537257e-02
7.340426e-02
-7.032511e-02
2.922069e-02
-2.766434e-02
-4.384627e-02
-5.587107e-02
-4.492751e-02
-1.589724e-02
-4.595144e-02
-5.349449e-02
1.150023e-02
-2.991373e-02
-2.600802e-02
-2.019786e-02
6.947218e-03
1.288130e-02
-2.641647e-02
3.738521e-02
-2.152379e-02
-9.201823e-03
-6.998832e-03
-2.397236e-02
7.083191e-02
4.675322e-02
2.389900e-02
1.128695e-02
-5.504351e-03
2.371223e-02
-3.234357e-03
-9.087894e-03
1.170862e-02
4.980631e-02
1.177861e-01
1.453209e-04
8.538528e-02
9.167203e-02
-8.435384e-03
5.958155e-02
1.659311e-02
-7.854876e-02
-2.611697e-03
6.533495e-02
1.175904e-01
-2.621899e-02
1.165753e-02
7.500497e-02
-2.149005e-02
7.962603e-03
5.529121e-02
-1.081473e-01
-1.023048e-01
1.849193e-02
-5.805672e-02
-6.397338e-02
1.751108e-02
-4.902507e-02
-2.673557e-02
-1.156331e-03
-1.057043e-01
-1.038904e-01
1.737546e-03
-1.187641e-01
-7.725375e-02
5.926916e-03
-6.937133e-02
-1.038553e-01
-1.185828e-02
-6.401333e-02
-2.085352e-02
7.040803e-02
-1.195159e-01
-8.150092e-02
4.509321e-02
-1.194042e-01
-9.256001e-02
7.176703e-03
3.274381e-03
-6.243248e-03
4.147192e-02
2.181334e-02
1.998270e-02
1.757898e-02
-4.619271e-02
-2.604042e-02
-6.014701e-03
1.947932e-02
4.188993e-02
-2.080453e-02
5.159367e-02
1.458282e-02
6.569084e-02
-8.985092e-03
6.084037e-02
5.985032e-03
-4.940845e-02
1.346245e-02
4.208627e-02
-3.743653e-02
4.959873e-02
9.076735e-02
-1.188542e-02
9.072708e-02
8.269606e-02
1.056904e-01
9.350254e-02
5.182848e-03
1.004421e-01
6.020194e-02
2.347794e-02
1.974929e-02
1.870842e-02
-6.351213e-02
-7.264253e-02
-6.971507e-02
-6.152463e-02
-4.920045e-02
-6.021270e-03
-2.465194e-02
4.817788e-02
7.001190e-02
5.458660e-02
-6.057962e-02
-5.918011e-02
-2.828235e-02
-4.926035e-03
-4.247249e-02
2.600621e-05
2.872781e-02
-1.395863e-02
1.106849e-02
3.900441e-03
1.113509e-02
-4.228690e-02
1.845734e-02
1.422071e-02
-4.590287e-02
-2.046447e-02
-1.934226e-02
-5.266992e-02
-2.165889e-02
-2.652659e-03
7.988907e-02
-7.717086e-02
-3.246858e-03
7.231881e-02
-2.322399e-02
-1.360260e-02
4.617592e-02
8.774850e-02
7.807503e-02
2.897088e-02
8.401957e-02
5.567415e-02
-1.914642e-02
9.257167e-02
9.998029e-02
-6.019062e-03
5.580416e-02
-2.504476e-02
-6.444953e-02
5.917562e-02
-3.306087e-02
-6.671580e-02
6.070251e-02
1.936569e-03
-6.647223e-02
1.343984e-03
2.094443e-03
-1.988168e-02
-3.738317e-03
7.227135e-03
8.450993e-03
-2.584688e-04
2.750384e-02
-1.920379e-02
2.513914e-02
-7.618074e-02
-1.463458e-01
5.350631e-02
-4.581134e-02
-1.486371e-01
6.495663e-02
-3.360233e-02
-1.051195e-01
-1.451046e-01
-1.401620e-01
-5.883281e-02
-1.147623e-01
-4.342473e-02
-3.343938e-02
-6.987824e-02
-5.420179e-02
-2.250974e-02
-2.776100e-02
-1.076892e-03
5.574892e-03
-2.333048e-02
-5.431570e-02
-4.898858e-02
-4.604730e-02
-8.673237e-02
-7.320448e-02
7.720023e-02
7.056357e-02
3.186314e-02
1.477616e-02
3.030360e-02
7.075146e-02
-7.605444e-02
-1.580860e-02
-3.635518e-02
4.695503e-02
-1.442933e-02
-2.770619e-02
9.845273e-03
-1.053249e-01
-1.179354e-01
-1.348964e-02
-1.173283e-01
-5.124937e-02
7.430658e-02
1.063791e-01
8.930304e-02
1.059302e-01
8.962815e-02
8.420916e-02
4.580501e-02
5.184256e-02
-6.300201e-02
2.455354e-03
4.613599e-02
-2.781343e-02
3.394255e-02
2.946596e-02
-4.937194e-02
4.802809e-02
3.949149e-02
3.674467e-02
1.285115e-02
3.956410e-02
6.982706e-02
4.824748e-02
1.040590e-01
1.112939e-01
6.590305e-02
9.536283e-02
3.818479e-02
7.479247e-04
4.794668e-02
1.507089e-02
-1.449330e-02
-1.575712e-02
1.101027e-02
1.355598e-02
1.692013e-02
7.247858e-02
7.192080e-02
4.970803e-02
-2.454032e-02
1.096155e-01
6.586116e-02
-8.245401e-02
4.560081e-02
-7.453106e-02
-1.587385e-01
-2.295881e-02
-2.322753e-02
6.187126e-03
-1.997719e-02
-2.478671e-02
1.739966e-02
-2.035807e-02
-8.979015e-03
1.677090e-03
-1.923691e-02
2.004706e-03
7.556850e-02
4.589651e-02
4.416054e-02
7.393647e-03
1.553883e-02
1.256269e-02
-4.931138e-02
1.872791e-03
-3.572213e-02
-9.506937e-03
2.735955e-02
-2.862259e-03
-5.629721e-02
2.630053e-02
-1.341916e-02
-6.564952e-02
-1.329887e-02
-1.384261e-02
-1.090843e-01
3.367293e-02
-2.086757e-02
-1.361655e-01
-2.303183e-02
-9.604029e-02
-1.645331e-01
-2.863492e-02
-5.545118e-02
2.835831e-02
-2.917324e-02
-2.693605e-02
-2.863565e-02
-4.160742e-02
-5.217071e-02
-2.949734e-02
5.979637e-02
-1.194748e-02
1.628113e-02
1.979975e-02
-1.713467e-04
-5.748416e-03
-3.022088e-02
-2.635478e-02
-1.576792e-02
4.348404e-02
1.092998e-02
1.216372e-02
1.011794e-02
-8.073254e-03
-1.202652e-01
-7.112937e-02
-8.426394e-02
-8.224510e-02
8.333018e-02
7.466552e-02
-1.536177e-02
1.023829e-01
5.814525e-02
-7.375924e-02
1.765483e-02
-5.213757e-02
-1.465786e-01
-4.392140e-02
5.487227e-02
6.411693e-02
2.166479e-03
4.991595e-02
1.693833e-01
3.177571e-02
1.318221e-01
1.762112e-01
5.352212e-02
3.000933e-02
-3.581703e-02
5.691250e-03
-5.577142e-02
-6.646917e-02
1.789638e-02
-9.971965e-02
-3.535272e-02
-3.461286e-02
7.421643e-03
-3.132417e-02
-5.682724e-02
-1.871497e-02
-3.645435e-02
-5.289533e-02
-6.746773e-02
-5.800450e-02
-4.296884e-02
-3.103336e-02
-9.931437e-03
-5.540645e-02
-6.709980e-02
5.178414e-02
-2.304051e-02
1.003212e-01
1.417271e-01
-3.027311e-02
-4.842790e-02
1.347032e-02
1.291508e-02
1.159106e-02
-1.238098e-02
4.751639e-02
1.961941e-02
2.793229e-02
-1.063965e-02
-2.160817e-02
-4.160671e-03
-6.471373e-03
-3.579916e-02
-5.866637e-02
-8.617810e-02
-1.082568e-01
-9.329973e-02
-4.104751e-05
-1.049842e-03
-3.616968e-02
1.029134e-02
-6.371657e-02
-5.867101e-02
-2.261385e-02
-2.420160e-02
2.489120e-02
-3.975048e-02
-2.228813e-02
-4.817605e-02
-1.217839e-03
1.688816e-02
7.780453e-03
-6.882741e-03
1.735033e-04
-3.096677e-02
7.277256e-02
6.812521e-02
4.011501e-02
3.429406e-02
5.450551e-02
3.385272e-02
2.480413e-02
3.301451e-02
2.482647e-02
6.232278e-02
1.384027e-02
-4.056866e-02
-2.264486e-02
-6.259063e-02
-1.361705e-01
-6.753393e-02
-1.418242e-01
-1.963441e-01
8.346984e-02
-7.642723e-03
-5.313860e-02
2.310624e-02
-3.308449e-02
-1.255125e-01
-5.499059e-02
-1.231261e-01
-1.586585e-01
-1.037946e-01
-7.278655e-02
-6.606849e-02
-5.768199e-02
-1.413627e-01
1.086537e-02
-4.596724e-02
-2.641659e-02
8.039044e-02
3.460953e-02
3.952305e-02
5.843021e-02
1.033320e-02
-6.793538e-03
4.409798e-02
-1.753367e-02
-4.008639e-02
6.529893e-02
-1.349432e-02
1.660028e-02
3.334735e-03
1.229880e-02
3.571996e-03
1.751042e-02
2.876975e-02
8.134849e-02
6.254559e-02
2.134445e-02
3.996834e-03
3.090701e-02
-2.974748e-02
-1.390151e-02
6.247082e-02
-1.039509e-01
-8.549454e-03
7.363169e-02
-2.224416e-02
4.934952e-02
1.446311e-01
1.505322e-02
2.090221e-02
1.430784e-01
-3.389579e-03
4.781661e-02
1.118740e-01
-6.643843e-02
-1.258014e-01
-8.261321e-02
-1.008412e-01
-9.011395e-02
-5.313786e-04
-2.115643e-02
2.531285e-02
9.550631e-02
-1.015838e-02
1.133738e-02
-8.031983e-03
2.598055e-02
2.939568e-02
5.261572e-02
9.544901e-03
4.215638e-02
2.497111e-02
2.086574e-02
8.996189e-03
2.522031e-02
4.280676e-03
-6.126842e-03
1.991790e-02
3.216710e-03
-1.900457e-02
-4.548254e-02
8.550351e-03
3.262626e-02
-2.482736e-02
8.646836e-03
-3.383690e-03
-3.540330e-02
2.168264e-03
1.188940e-02
-9.319219e-03
2.822324e-02
1.913699e-02
-2.218020e-02
1.608490e-02
-4.499478e-02
-1.857297e-02
-3.302143e-02
-4.667980e-02
-3.839635e-02
-2.556744e-02
3.880558e-02
8.260164e-02
4.565631e-02
9.363580e-02
1.106552e-01
7.509480e-02
1.409618e-01
1.409552e-01
1.200759e-02
2.560411e-02
4.282033e-02
-4.563151e-02
-1.896523e-02
-3.929408e-02
-1.462026e-01
-1.096428e-01
-7.293588e-02
-1.213866e-02
-5.064222e-02
-5.953596e-02
-2.846010e-02
-2.640853e-02
-1.233202e-01
-3.966246e-02
-8.537401e-02
-1.029470e-01
1.176278e-02
5.943606e-02
5.663484e-02
1.500199e-02
-7.475000e-04
-2.705804e-04
1.785944e-02
-5.030550e-03
7.734776e-03
-1.614892e-02
-2.146094e-02
-5.623734e-02
-3.485690e-02
-5.898553e-03
-2.317790e-02
-6.364683e-02
-4.530337e-02
2.803571e-03
5.379451e-02
5.419148e-02
4.008868e-02
9.578256e-02
9.259238e-02
9.291754e-02
9.409945e-02
8.028632e-02
-3.245106e-02
4.241868e-03
-2.718600e-02
-2.496681e-02
1.015210e-02
3.342981e-03
-1.877983e-02
-1.424291e-02
4.651981e-02
-1.256449e-02
1.376098e-02
1.694410e-02
-2.963054e-02
-3.719948e-02
-3.154611e-02
-4.417257e-03
3.079780e-03
-1.991075e-03
4.976938e-02
6.714796e-02
7.250013e-02
7.112534e-02
5.834803e-02
9.728549e-02
1.219286e-01
5.051336e-02
6.556568e-02
8.771324e-02
2.789720e-02
-1.078668e-02
-5.387023e-02
-5.960469e-02
-5.189211e-02
-6.758319e-02
-1.176096e-01
-1.772553e-01
-1.565228e-01
6.473161e-02
4.697224e-02
1.340226e-02
1.943036e-02
3.823142e-02
3.262072e-02
1.781430e-02
2.089674e-02
8.774624e-03
-1.363818e-02
8.491963e-02
1.052361e-01
6.243163e-02
8.012395e-02
1.589094e-01
5.637652e-02
1.013968e-01
9.943283e-02
-5.819577e-02
-3.859719e-02
2.944690e-03
-6.521878e-02
1.698944e-03
-2.899135e-02
-4.681548e-02
-3.735279e-02
-6.843863e-02
-6.734528e-02
-7.201928e-02
-6.747367e-02
-7.220722e-02
-2.611434e-02
-9.824128e-02
-2.729540e-02
-3.287851e-02
-5.427223e-02
-2.787586e-02
-9.885101e-02
-7.204676e-02
-4.186829e-02
-8.046434e-02
-5.057127e-02
-7.127076e-02
-7.155702e-02
-6.248131e-02
8.449229e-03
1.361405e-02
3.798458e-02
1.674485e-02
-1.557752e-02
2.660929e-02
3.692788e-02
9.057096e-02
8.091056e-02
-6.481755e-02
-2.017399e-02
-4.013995e-02
-9.038834e-02
-6.545868e-02
-9.230253e-02
-7.823313e-02
-5.689754e-02
-9.855556e-02
2.671980e-02
4.111622e-02
2.636025e-03
4.520468e-02
5.039960e-02
4.712015e-02
-9.096369e-03
8.502636e-03
-1.264668e-02
2.328132e-02
7.556064e-02
1.297553e-01
6.215867e-03
3.528459e-02
1.113781e-01
2.509791e-02
2.660042e-02
4.034540e-02
-1.327135e-01
-8.873904e-02
-1.014314e-01
-1.356985e-01
-7.118960e-02
-9.090755e-02
-8.903203e-02
-4.348462e-02
-4.692606e-02
4.109399e-02
2.826205e-02
-6.239528e-03
7.210448e-02
4.777593e-02
9.022255e-02
4.301644e-02
4.822208e-02
9.614400e-02
-2.921332e-02
-2.660724e-02
-7.086118e-03
-9.955240e-04
-2.304516e-03
9.256408e-02
-1.363332e-02
5.655145e-02
1.138900e-01
-8.747514e-03
-5.796520e-03
-4.281748e-02
-7.353962e-03
2.597002e-02
1.199461e-02
-1.139738e-03
-6.335616e-03
-1.430698e-02
-5.962891e-02
-5.493262e-02
-1.747145e-02
-7.020744e-02
-4.809384e-02
-6.730182e-02
-4.568883e-02
-2.894768e-02
-9.269161e-03
-5.137336e-02
-2.682168e-02
-3.746742e-02
-2.108584e-02
9.928620e-03
2.683959e-02
4.078282e-03
4.699511e-02
2.146797e-02
2.693871e-02
-5.538964e-03
-3.671192e-02
6.244178e-02
6.561318e-04
3.607906e-02
7.570364e-02
9.600829e-02
7.516306e-02
-2.547081e-02
-2.743049e-03
-2.798473e-02
-2.306620e-02
-1.665533e-02
-4.252255e-02
-1.313128e-02
-1.297132e-02
4.360676e-03
7.136985e-02
4.462677e-02
2.016409e-02
6.679549e-02
3.637177e-02
8.211979e-02
9.428841e-03
6.346824e-02
1.246634e-01
6.323695e-02
1.172287e-02
5.075142e-02
1.022756e-02
-1.790548e-02
6.744548e-02
8.158711e-03
4.487062e-02
1.156380e-01
5.351801e-02
5.308834e-02
2.696957e-02
3.038527e-02
-3.594254e-02
-1.511555e-02
-7.129820e-02
-6.165612e-02
-1.772730e-02
-3.316834e-02
-3.863586e-02
4.302908e-02
-5.968493e-02
-4.983251e-02
2.066004e-02
1.705119e-02
3.359395e-02
2.853253e-02
-7.553113e-02
-8.661735e-03
-9.612212e-03
-4.723087e-02
1.712112e-02
5.779224e-03
-3.735808e-02
2.167224e-02
1.457792e-02
9.602293e-02
9.484999e-02
4.696151e-02
6.850022e-02
5.649992e-02
6.844624e-02
8.011676e-02
7.716393e-02
9.262079e-02
1.496386e-02
3.217341e-02
8.163638e-02
-1.034071e-02
5.610648e-02
8.204796e-02
-1.367933e-02
4.569375e-02
8.237776e-02
-5.583412e-02
-4.569468e-02
-3.168911e-02
-6.038247e-02
-4.624562e-02
-7.980891e-02
-4.528939e-02
-5.367437e-02
-7.455131e-02
-1.832296e-02
7.189113e-03
5.359482e-03
-3.679050e-02
-1.686095e-02
-3.677590e-02
-5.879755e-02
-2.769368e-02
-6.978945e-02
3.907370e-02
9.261247e-03
-3.166208e-02
5.631938e-02
6.039656e-03
-1.114579e-02
2.136239e-02
-2.881369e-03
3.087417e-02
8.860432e-02
-3.816056e-02
-6.880531e-02
3.560406e-02
-8.913499e-02
-1.529257e-01
4.582394e-02
-6.566673e-02
-1.022235e-01
-2.262813e-02
2.254419e-02
1.318460e-02
-4.242742e-03
1.699656e-02
-5.952355e-03
1.411066e-02
2.062068e-02
3.354092e-02
-9.877338e-02
-9.042655e-02
-2.636380e-02
-1.207643e-01
-6.053242e-02
-7.723081e-03
-5.808309e-02
-5.119084e-02
-2.644378e-03
-5.277538e-04
8.998761e-03
1.129090e-01
2.505682e-02
2.320031e-02
7.042862e-02
3.321476e-02
3.672963e-02
4.700944e-02
5.933647e-03
6.371077e-02
5.317008e-03
-1.442116e-02
1.408315e-02
1.050701e-02
-5.325434e-02
-1.351751e-02
1.980375e-03
-8.218803e-02
-7.355770e-02
-5.991525e-02
-9.976523e-02
-2.945084e-02
-4.453497e-02
-1.107480e-01
-4.841845e-02
-3.469220e-02
5.506316e-02
3.367912e-02
2.093632e-02
1.763598e-02
2.629422e-02
4.743785e-02
1.514717e-02
4.405131e-02
-5.398481e-03
4.534790e-02
3.440215e-02
-1.672932e-02
2.285445e-02
2.462120e-02
-6.846674e-03
5.050912e-02
1.960920e-02
-5.042183e-02
5.413455e-02
8.247264e-02
-3.601521e-02
8.241151e-02
6.312718e-02
-7.408433e-03
4.095984e-02
4.829306e-02
-4.959192e-02
2.105589e-02
-1.017585e-03
-5.114616e-02
3.054591e-02
-5.420638e-03
-5.770110e-02
2.302631e-02
-6.931275e-03
-2.765132e-02
-4.898167e-02
-1.867654e-02
7.966498e-02
-7.048206e-02
-3.710650e-02
1.306953e-01
-3.878175e-02
3.332576e-02
8.794899e-02
2.799319e-04
1.377962e-02
-3.938339e-02
7.801142e-03
1.325847e-02
2.702435e-03
-1.577634e-02
5.696838e-03
-5.662948e-03
2.571701e-02
-5.070075e-02
-6.938414e-02
3.086745e-02
-4.397912e-02
-2.412531e-02
3.546797e-03
-5.036964e-02
-1.438983e-02
5.513986e-02
4.393938e-02
3.868413e-02
6.483226e-02
3.989838e-02
-6.703213e-04
7.455576e-02
4.107051e-02
-1.995036e-02
-5.445206e-02
1.989630e-02
7.354028e-02
-4.601839e-02
6.099605e-02
1.159805e-01
-2.033828e-02
5.723843e-02
1.413637e-01
-9.341568e-02
-4.847841e-02
4.814725e-02
-5.224907e-02
2.325557e-04
6.931489e-02
-3.225889e-02
-2.156482e-02
3.197489e-02
-1.131848e-01
3.495082e-02
1.639900e-01
-1.173136e-01
7.793535e-03
1.093000e-01
-1.116651e-01
2.202075e-02
8.035240e-02
-2.958906e-02
-3.985505e-02
-6.915754e-03
-7.850736e-04
-3.320850e-02
-1.771382e-02
3.481960e-02
7.914205e-03
5.234227e-03
-1.473816e-02
-1.538829e-02
-1.224351e-02
-2.791762e-02
-2.867605e-02
1.542348e-02
-1.987637e-02
-5.631129e-02
-2.100152e-02
-3.707392e-02
3.364034e-02
7.359532e-02
-3.764919e-02
-1.979353e-02
1.627296e-02
-5.054091e-02
-4.455630e-02
-2.116139e-02
-9.699855e-02
-1.426729e-01
-9.167164e-02
-1.207647e-01
-1.460554e-01
-1.033337e-01
-1.371468e-01
-1.586530e-01
-1.047955e-01
-9.407040e-03
2.617961e-02
3.990712e-02
-2.832434e-02
8.799346e-03
-9.922883e-03
-6.826656e-02
-3.797818e-02
-9.664808e-02
-1.923445e-02
-3.932777e-02
1.235975e-03
1.153645e-02
1.705960e-02
5.966309e-02
5.296233e-02
1.089683e-01
1.017711e-01
-3.153743e-02
-1.035800e-01
-2.851215e-02
-7.939943e-02
-1.058930e-01
-7.559916e-02
-8.872746e-02
-1.363748e-01
-1.242566e-01
-2.723612e-02
-4.205553e-02
-5.732813e-03
-5.375599e-02
-4.272720e-02
-8.733363e-02
-2.660639e-02
-4.500423e-02
-5.440805e-02
7.151557e-02
1.201526e-01
6.146640e-02
2.885315e-02
4.985997e-02
1.318553e-01
-8.418985e-03
1.996594e-02
6.506782e-02
4.013293e-02
4.378803e-02
8.448860e-03
4.829086e-02
3.192357e-02
4.155615e-02
6.746457e-03
6.241188e-02
2.722189e-02
8.022862e-03
1.633314e-02
5.629299e-02
2.390201e-02
1.362448e-02
-3.255554e-02
2.920042e-02
1.363789e-02
-2.047391e-02
2.206956e-02
4.793037e-02
5.692620e-02
1.653922e-01
1.280988e-01
1.132065e-01
1.948676e-01
2.307426e-01
1.650035e-01
3.202994e-02
4.486885e-02
5.939717e-02
1.156506e-02
-2.611279e-02
2.277757e-02
2.057125e-02
2.956230e-02
4.401767e-02
-1.976203e-01
-2.255187e-01
-1.548895e-01
-1.864572e-01
-1.808190e-01
-1.885756e-01
-1.185303e-01
-1.495002e-01
-1.221459e-01
-2.996094e-02
-1.816011e-02
7.602630e-03
4.568300e-02
-4.186058e-02
3.361566e-02
2.140827e-02
2.492277e-02
-3.433330e-03
5.361931e-03
6.408337e-02
6.775633e-02
-3.929042e-02
4.206413e-02
9.406891e-02
-1.028029e-01
-1.124899e-01
6.975286e-02
-1.745846e-02
1.036540e-02
1.407301e-02
2.719526e-02
2.281683e-02
3.574097e-02
9.650580e-02
9.656241e-02
1.148882e-01
3.331051e-02
6.099796e-02
2.790596e-02
-2.894937e-02
3.471859e-02
-2.421896e-03
-3.174346e-02
-6.888475e-02
-2.974123e-03
6.032409e-02
6.700002e-02
3.282377e-02
7.952540e-02
5.271377e-02
5.663322e-02
5.820104e-02
6.667648e-02
5.105246e-02
-2.474933e-02
-8.461842e-02
-2.035844e-02
-2.898579e-02
-1.065508e-01
-6.165381e-02
-2.721040e-04
-1.975610e-02
1.887954e-02
2.875589e-02
-7.396433e-03
-1.667287e-02
3.342269e-03
-3.029228e-02
-3.309442e-02
-3.696025e-02
-5.329842e-02
-1.458384e-02
-1.521942e-02
3.866897e-03
2.280079e-02
1.132129e-02
-1.456279e-02
2.390982e-02
2.205949e-02
1.218683e-02
-1.455258e-02
-1.199800e-02
-2.086531e-02
-1.484577e-02
-1.211560e-02
-3.560773e-02
-1.484698e-02
-4.785619e-04
-2.748415e-02
2.581746e-02
5.534584e-02
4.416820e-02
2.465749e-02
1.488787e-02
-2.251330e-02
6.449495e-03
-1.280934e-02
-2.793462e-02
1.506481e-02
-2.836353e-02
-3.493065e-02
-6.770476e-04
-5.456192e-02
-6.384147e-02
-3.352433e-02
-4.291176e-02
-9.039392e-02
4.844263e-04
1.692364e-02
1.447137e-02
-6.232074e-03
8.216104e-02
6.097098e-02
7.929519e-02
6.559493e-02
5.721183e-02
5.974482e-02
5.439343e-02
4.032334e-02
4.792509e-02
9.184963e-03
3.641857e-02
7.635454e-02
1.122850e-02
1.556902e-02
2.354025e-02
-1.199592e-02
-3.224377e-02
-4.012688e-02
-6.933081e-02
-3.949623e-02
-3.337403e-02
-3.424125e-02
6.780151e-03
4.842909e-02
4.089854e-03
4.960614e-02
3.280235e-02
8.844299e-02
1.180874e-01
1.393761e-01
1.815131e-02
1.160456e-01
1.064619e-01
-3.002439e-02
3.323379e-02
-2.865630e-02
2.643630e-02
4.844457e-02
-5.162234e-03
4.631398e-02
2.141481e-02
-6.722663e-03
-1.511721e-02
-7.614859e-02
-7.669936e-02
3.993733e-02
2.937661e-02
1.944408e-02
3.091816e-02
3.883111e-02
5.198038e-02
1.816515e-03
-6.955362e-03
-9.555680e-02
1.968880e-02
-2.451748e-03
-4.079430e-02
3.253318e-02
-1.717450e-02
4.148429e-03
1.092949e-02
-1.604815e-02
-5.944405e-02
1.168000e-02
2.553212e-02
-1.663115e-02
-7.292788e-02
-3.389310e-02
-5.511761e-02
-9.422863e-02
-1.067617e-01
-9.544753e-02
-5.631617e-02
-1.230558e-02
1.999260e-02
2.692606e-02
1.232590e-02
2.432566e-02
-4.513623e-02
3.640342e-02
-2.368790e-02
-4.056535e-02
4.215840e-03
-6.550740e-02
-3.354679e-02
-8.159864e-03
-6.990581e-02
-5.609483e-02
-6.138162e-02
-6.458668e-02
1.126104e-03
2.431506e-02
1.851926e-02
5.097047e-02
4.633769e-02
3.108345e-02
1.209736e-01
1.152947e-01
7.725516e-02
9.034331e-02
7.263912e-02
6.963785e-02
-1.893548e-02
-7.601832e-02
-7.444513e-02
-6.003078e-02
-1.957719e-02
-2.522243e-03
-1.003381e-03
-5.237762e-02
-7.952867e-02
-2.981158e-04
-5.392847e-02
-9.258931e-02
5.973371e-02
8.391684e-02
6.642443e-02
-3.955630e-02
-1.452822e-02
2.245781e-02
-7.586539e-02
-1.018054e-01
-4.519148e-02
4.894515e-02
6.356507e-02
6.901984e-02
4.386321e-02
1.702529e-02
3.759067e-02
3.192174e-02
1.957237e-02
-2.111577e-02
-2.834010e-02
-2.491906e-02
-2.264382e-02
3.384876e-03
-4.821683e-04
-1.644237e-02
-2.624976e-02
1.673585e-03
-5.682412e-03
-7.148618e-02
-3.887737e-02
-2.869179e-02
-4.737373e-02
-1.782098e-02
-3.340754e-02
1.506858e-02
3.209503e-02
2.409398e-02
-4.961859e-02
-1.247214e-02
-7.077882e-03
-3.274143e-02
7.670810e-04
-5.409386e-02
-1.654513e-02
1.752062e-02
-4.526133e-02
-3.086811e-02
-3.512686e-02
9.232488e-03
-1.907665e-02
-4.112830e-02
-2.487977e-02
2.512225e-02
1.801325e-02
1.517494e-02
-3.961127e-02
5.861118e-02
1.420700e-01
-2.158452e-03
1.653772e-01
2.854994e-01
1.094524e-02
1.889769e-01
2.221657e-01
1.827998e-02
2.243763e-02
-5.913005e-02
5.463416e-02
5.540984e-02
-2.379208e-02
5.877672e-02
6.587768e-02
-2.264228e-02
2.434439e-02
1.077986e-02
4.482660e-03
-2.255741e-02
-2.734579e-02
-2.081044e-02
-1.544173e-02
-7.874029e-03
-4.038696e-02
1.248912e-02
7.317727e-02
1.254744e-01
-6.126482e-03
2.378212e-02
5.979759e-02
-3.913597e-02
2.929761e-02
1.204848e-03
-6.550761e-02
-9.597156e-02
-8.382029e-02
-4.196150e-02
-2.394771e-02
-4.654676e-02
-4.105070e-02
-2.578968e-02
-7.084177e-03
3.754357e-02
8.289742e-02
-9.736368e-03
1.068447e-01
7.010730e-02
7.133729e-03
2.225563e-02
4.950178e-02
-8.598470e-03
4.448404e-02
1.215479e-01
8.074047e-02
2.155355e-02
2.337263e-02
4.664488e-02
3.020541e-02
8.163634e-02
9.808849e-02
1.874482e-02
-2.254797e-02
-8.849394e-03
-1.409733e-02
1.841196e-02
-6.958776e-03
4.587928e-02
4.682042e-02
5.186068e-02
1.061681e-02
-4.070482e-03
-1.895188e-02
2.342941e-02
5.411188e-02
4.841895e-02
-3.283643e-02
1.512733e-02
7.366386e-02
1.372900e-02
-2.169944e-02
-1.850124e-02
-2.861662e-02
-3.485918e-02
-6.929226e-02
-6.248419e-02
-1.161030e-01
-1.179955e-01
7.420718e-02
9.219690e-02
7.064898e-02
8.241280e-02
6.837650e-02
1.398198e-01
2.465197e-03
6.768987e-02
3.659897e-02
2.269755e-02
6.660646e-02
2.342032e-02
6.081474e-02
3.308630e-02
9.314708e-02
5.575945e-02
7.043521e-02
9.627835e-02
2.826212e-02
3.279525e-02
5.496109e-02
2.338763e-02
-4.181642e-03
4.433434e-02
3.222847e-02
3.159959e-02
5.908829e-02
-2.109844e-02
3.059476e-03
-6.428989e-03
-5.122310e-03
-3.484979e-02
-1.116737e-02
-2.391776e-02
-2.851513e-02
-3.937736e-02
-8.686767e-03
3.968289e-02
1.472580e-02
6.306467e-03
9.467456e-03
4.805244e-02
-3.318422e-02
-3.219363e-02
1.838738e-02
-1.123110e-02
4.088666e-02
-2.821163e-03
-4.701116e-02
1.479929e-02
1.526508e-02
-5.164558e-02
4.905321e-02
4.718371e-02
-1.049257e-01
-1.574427e-01
-1.303618e-01
-1.456370e-01
-1.619121e-01
-1.207947e-01
-1.879476e-01
-1.953476e-01
-1.373261e-01
1.091404e-01
1.144566e-01
6.489268e-02
9.000628e-02
5.102842e-02
