-9.322534e-03
9.421543e-03
-7.476414e-03
1.108899e-02
2.251608e-02
4.100874e-03
-1.653452e-02
-1.434413e-02
-2.077629e-02
2.531668e-02
3.958783e-02
3.581335e-02
4.713484e-03
9.581390e-03
1.214852e-02
2.179465e-02
2.665884e-02
2.978963e-02
-2.373423e-02
-3.147606e-02
-2.972690e-02
-1.481067e-02
-2.248596e-02
-2.057335e-02
-2.793472e-02
-4.044832e-02
-4.405933e-02
-1.571023e-02
-3.129754e-02
-7.623869e-03
-9.142203e-03
-2.153527e-02
-3.616693e-03
1.154001e-02
1.161415e-02
1.360970e-02
1.697346e-02
1.743778e-02
1.812558e-02
2.154433e-02
2.139233e-02
3.148333e-02
2.610516e-02
2.418489e-02
2.590371e-02
6.689308e-02
3.351780e-02
8.099817e-02
3.000278e-02
-1.146872e-02
3.230615e-02
7.414086e-02
3.716145e-02
7.142328e-02
-4.757446e-02
-5.153479e-02
-5.371740e-02
-7.195046e-02
-7.577740e-02
-7.496380e-02
-6.499619e-02
-6.594239e-02
-6.916706e-02
-6.975383e-02
-5.834519e-02
-5.346261e-02
-5.466789e-02
-4.558736e-02
-4.493584e-02
-4.229987e-02
-4.196445e-02
-4.434050e-02
-2.715781e-02
-1.370990e-02
-2.366612e-02
-1.728148e-02
1.793912e-03
-8.608080e-03
-2.412690e-02
-4.533377e-03
-1.453768e-02
2.854807e-02
2.427265e-02
3.168318e-02
2.637282e-02
2.702208e-02
3.301996e-02
2.454502e-02
3.292583e-02
4.255129e-02
-1.796794e-02
-1.187826e-02
-8.455548e-04
-2.315259e-03
3.482905e-03
8.958718e-03
5.597943e-03
1.232707e-02
9.680850e-03
-4.333450e-02
-5.730466e-02
-5.756317e-02
-1.570624e-02
-2.930684e-02
-3.096364e-02
-1.374179e-02
-2.898259e-02
-2.255980e-02
-5.022923e-03
6.568804e-03
3.859980e-03
-4.782064e-03
5.794666e-03
3.051298e-03
-9.471945e-03
-4.244422e-03
-7.575556e-03
1.071099e-01
9.690314e-02
1.172048e-01
6.529020e-02
4.976662e-02
7.966428e-02
1.137370e-01
1.050405e-01
1.247373e-01
1.178447e-01
8.555185e-02
1.017667e-01
5.722855e-02
2.037793e-02
5.230730e-02
6.514787e-02
4.191215e-02
7.169591e-02
-3.374430e-02
-2.839504e-02
-2.871151e-02
-3.566673e-02
-2.092026e-02
-2.540956e-02
-5.639370e-02
-4.027630e-02
-5.106645e-02
-4.558679e-02
-3.572233e-02
-3.274857e-02
-4.645259e-02
-4.125850e-02
-3.915156e-02
-5.191190e-02
-5.128435e-02
-4.311819e-02
4.355959e-03
1.505117e-02
1.283155e-02
-6.598512e-03
-3.683825e-03
-1.022656e-02
-2.056730e-03
-3.296120e-03
-7.955312e-03
8.078086e-02
8.523879e-02
9.293666e-02
4.118767e-02
3.464847e-02
4.774290e-02
5.252266e-02
5.142000e-02
6.247243e-02
-1.127984e-02
-1.407642e-02
-1.811527e-02
-2.840341e-02
-3.159261e-02
-3.657399e-02
-3.822718e-02
-4.565306e-02
-4.616861e-02
-1.726899e-02
-2.206202e-03
-1.562009e-02
-2.848383e-02
-1.547286e-02
-2.485477e-02
-4.683472e-02
-3.672026e-02
-3.956620e-02
-3.473852e-02
-3.018472e-02
-3.933055e-02
-2.284658e-02
-1.118576e-02
-2.594112e-02
-3.075894e-02
-1.564306e-02
-3.642002e-02
-1.684260e-02
8.288339e-03
-1.518273e-02
-1.484967e-02
8.621625e-03
-1.863201e-02
-3.940005e-02
-2.883823e-02
-4.257381e-02
-5.613178e-02
-4.000827e-02
-3.976055e-02
-3.715030e-02
-2.305863e-02
-2.352829e-02
-3.360880e-02
-2.482129e-02
-2.803697e-02
-6.249380e-02
-5.570885e-02
-6.360918e-02
-6.772690e-02
-6.238129e-02
-6.639113e-02
-7.695267e-02
-7.351891e-02
-6.646843e-02
4.369631e-02
6.363451e-02
5.412952e-02
4.197710e-02
4.738491e-02
4.825962e-02
2.150365e-02
1.825411e-02
1.807467e-02
-1.325669e-02
-3.971376e-02
-2.075417e-02
-1.087768e-02
-3.726494e-02
-2.260102e-02
-5.198895e-03
-1.954643e-02
-1.349637e-02
-1.043346e-02
-1.257492e-02
5.287212e-03
1.185163e-02
1.851259e-02
2.158056e-02
4.272321e-02
5.785403e-02
4.222081e-02
-2.270536e-02
-2.704965e-03
-1.477721e-02
-1.384564e-02
1.495461e-03
-1.831809e-02
-3.233025e-02
-2.971079e-02
-4.555157e-02
1.077950e-02
-1.998023e-02
-2.463442e-03
-1.149231e-02
-3.442837e-02
-2.234419e-02
-1.088840e-02
-2.512776e-02
-1.724534e-02
3.220094e-02
3.392822e-02
4.778413e-02
1.615181e-02
1.514902e-02
2.216268e-02
5.697054e-02
6.030377e-02
5.606233e-02
1.544408e-02
9.387396e-03
1.021125e-02
6.974491e-03
1.619808e-03
6.285634e-04
1.253317e-02
2.023851e-02
1.361418e-02
7.710099e-03
-1.260752e-02
9.950972e-03
2.160955e-02
7.645677e-03
2.397924e-02
3.489564e-02
2.453064e-02
3.675565e-02
1.915578e-03
-4.927156e-03
1.671296e-02
-1.969693e-02
-2.263219e-02
-6.641134e-04
-3.964020e-02
-4.634195e-02
-3.339215e-02
7.902149e-03
1.792264e-02
8.765138e-03
1.589650e-02
2.494366e-02
1.340020e-02
5.902344e-03
1.729078e-02
9.921120e-03
2.892018e-02
2.227849e-02
2.995972e-02
1.401160e-02
-1.328807e-04
1.476195e-02
4.754949e-02
3.096545e-02
4.791069e-02
6.237777e-02
4.823945e-02
5.314377e-02
5.881353e-02
3.167941e-02
4.537616e-02
6.880453e-02
4.174376e-02
5.729055e-02
-4.764501e-03
-1.501662e-02
-3.496830e-03
-1.387688e-02
-1.911955e-02
-2.215740e-03
-1.937640e-02
-2.506072e-02
-1.703103e-03
-1.747095e-02
-1.884724e-02
-1.329848e-02
-3.005798e-02
-3.311892e-02
-2.395654e-02
-5.940464e-03
-3.172989e-03
-4.998555e-03
-2.847086e-02
-3.410208e-02
-2.390772e-02
-1.961267e-02
-2.119215e-02
-7.416161e-03
3.526579e-03
-5.465756e-03
5.753217e-03
6.530592e-02
6.406003e-02
7.131434e-02
4.094958e-02
3.136013e-02
4.904858e-02
3.177625e-02
2.523627e-02
3.734451e-02
6.619049e-02
4.398418e-02
6.381518e-02
4.379367e-02
1.429699e-02
3.446321e-02
6.055482e-02
3.102469e-02
5.083584e-02
1.436271e-02
1.494978e-02
1.067153e-02
-6.792342e-03
-9.490853e-03
-1.474981e-02
2.174938e-03
6.343784e-03
-4.608572e-03
-7.818601e-02
-7.227975e-02
-6.823158e-02
-6.708624e-02
-5.761348e-02
-5.537707e-02
-8.749820e-02
-7.264520e-02
-6.971850e-02
5.398284e-02
5.148442e-02
4.619632e-02
2.827528e-02
2.463722e-02
1.894994e-02
1.445584e-02
1.096847e-02
7.457288e-03
3.712633e-02
2.303247e-03
2.333800e-02
3.163201e-02
6.282344e-03
2.633672e-02
8.133061e-02
7.729097e-02
8.497605e-02
2.971657e-02
8.824081e-04
1.600748e-02
1.164821e-02
-2.640310e-02
-4.717644e-03
2.794135e-02
-2.222621e-03
1.259775e-02
-7.024821e-03
-2.780030e-02
-2.950502e-02
-1.992436e-02
-3.582350e-02
-3.853165e-02
-3.789923e-02
-4.436424e-02
-4.603620e-02
4.104083e-02
2.049352e-02
3.203438e-02
6.889895e-04
-2.174147e-02
1.016550e-05
4.442782e-02
2.947013e-02
4.207418e-02
6.049660e-02
6.670162e-02
7.055005e-02
1.384319e-02
1.686180e-02
2.420700e-02
2.548831e-02
2.649050e-02
3.241179e-02
8.296433e-02
4.548754e-02
6.890582e-02
5.576202e-02
1.156887e-02
4.341261e-02
7.706417e-02
4.195564e-02
6.601688e-02
-1.741849e-02
-6.820730e-03
-1.552197e-02
-7.474065e-03
-2.748022e-03
-1.800441e-02
-4.122243e-02
-4.639627e-02
-6.458151e-02
3.206535e-02
1.670936e-02
1.537088e-02
2.514423e-02
1.465420e-02
1.550570e-02
4.304970e-02
4.118995e-02
3.970328e-02
-2.816833e-02
-5.631706e-02
-1.952291e-02
-3.329886e-02
-6.549181e-02
-3.642662e-02
-1.317341e-02
-3.550799e-02
-1.380751e-02
3.098374e-04
-3.397376e-03
-2.911719e-03
-1.582659e-03
-3.629703e-03
-4.400783e-03
-5.694789e-03
-5.851323e-03
-7.741606e-03
1.607290e-02
1.640943e-03
2.165049e-03
1.908395e-02
1.195013e-02
1.206888e-02
1.416819e-02
8.513729e-03
2.076128e-03
1.482174e-02
3.589386e-02
3.438519e-02
7.441743e-03
2.575625e-02
2.727894e-02
2.605370e-02
4.873507e-02
5.128009e-02
-9.050006e-03
-8.379717e-03
-3.504044e-03
-2.244677e-02
-1.226890e-02
-1.119054e-02
-4.582210e-02
-3.381974e-02
-3.644545e-02
-6.306052e-02
-7.156574e-02
-7.685595e-02
-4.261970e-02
-4.841546e-02
-5.531820e-02
-5.441024e-02
-5.636663e-02
-5.686509e-02
-5.719150e-03
-5.875376e-03
-1.901686e-03
-2.940359e-02
-3.231839e-02
-2.618801e-02
-2.258184e-02
-2.787353e-02
-2.442925e-02
-4.298382e-02
-3.597154e-02
-6.033728e-02
-2.111285e-02
-1.259928e-02
-3.435306e-02
-4.006215e-02
-4.208612e-02
-5.550287e-02
-5.682474e-03
-3.588766e-03
-4.887039e-03
5.903498e-03
9.366136e-03
9.205331e-03
-1.134868e-02
-1.536312e-02
-1.937633e-02
8.504613e-02
7.845251e-02
9.161784e-02
5.711582e-02
4.969811e-02
6.703180e-02
1.004945e-01
1.101878e-01
1.185513e-01
4.287135e-02
3.388103e-02
4.079984e-02
2.261138e-02
4.584335e-03
1.879098e-02
1.971998e-02
9.367987e-03
2.060666e-02
-2.730325e-03
9.331719e-03
2.058458e-03
-9.077645e-04
1.119133e-02
1.195096e-02
-3.762383e-02
-2.509085e-02
-1.464853e-02
1.480698e-02
1.223964e-03
-2.118334e-02
1.831601e-02
1.083204e-02
-1.587497e-03
3.250604e-02
2.697591e-02
1.847944e-02
-6.555822e-02
-6.035807e-02
-7.588228e-02
-4.888724e-02
-4.339731e-02
-5.673005e-02
-9.549932e-02
-9.210958e-02
-9.281963e-02
-3.416387e-02
-5.565261e-02
-2.736598e-02
-6.831677e-02
-9.650380e-02
-6.276292e-02
-2.740810e-02
-5.381621e-02
-2.003584e-02
2.879898e-02
4.147260e-02
4.225408e-02
1.601067e-02
2.725520e-02
2.382800e-02
2.802341e-02
4.430016e-02
3.474833e-02
-2.427155e-02
-1.303877e-02
-3.066943e-02
-2.585407e-02
-1.501109e-02
-2.763953e-02
-3.846566e-02
-3.153820e-02
-3.696017e-02
-3.710297e-02
-4.598824e-02
-3.487130e-02
-1.905435e-02
-3.136152e-02
-1.910700e-02
-1.452562e-02
-1.745509e-02
-2.929475e-03
-9.343220e-04
-1.145693e-02
-6.700084e-04
-1.838084e-02
-2.785522e-02
-1.271756e-02
1.817330e-03
-7.856633e-03
1.975475e-02
-3.192159e-02
-2.502030e-02
-4.688902e-02
-1.122491e-02
3.264386e-03
-1.418459e-02
-1.187648e-02
2.969542e-03
-6.378941e-03
-4.829001e-02
-5.806877e-02
-6.753303e-02
-2.623553e-02
-3.365100e-02
-4.676422e-02
-2.726635e-02
-3.386642e-02
-4.262868e-02
-2.764752e-02
-1.677697e-03
-2.095868e-03
-1.125875e-02
1.257681e-02
1.186502e-02
8.931679e-03
2.316180e-02
2.209513e-02
-8.383206e-02
-6.886387e-02
-9.234172e-02
-2.537703e-02
-4.818558e-03
-1.912676e-02
-3.435063e-02
-1.447539e-02
-1.668041e-02
5.369943e-02
6.184199e-02
6.289075e-02
4.327829e-02
5.173743e-02
5.619444e-02
3.166267e-02
3.831793e-02
4.773545e-02
5.749968e-02
4.613530e-02
5.346399e-02
2.510842e-02
1.068335e-02
2.404791e-02
2.291311e-02
1.132053e-02
2.795669e-02
6.524831e-03
2.028932e-02
1.006281e-02
-4.871063e-03
-2.929936e-03
-1.620338e-02
-3.039958e-02
-2.326808e-02
-3.045063e-02
2.582256e-02
1.454579e-02
2.103449e-02
-1.562049e-03
-1.482179e-02
-5.265059e-03
1.355241e-04
-1.631790e-02
-1.238130e-02
-5.382563e-02
-4.001981e-02
-4.069954e-02
-5.427521e-02
-4.666032e-02
-4.345985e-02
-5.068429e-02
-5.816059e-02
-5.603030e-02
-4.986096e-02
-5.150974e-02
-5.268877e-02
-1.309120e-02
-1.865355e-02
-1.907947e-02
2.861295e-02
2.752469e-02
2.586558e-02
-7.571142e-04
-6.092728e-03
-3.587173e-02
-8.463380e-03
-6.195046e-03
-3.172053e-02
-1.172473e-02
-9.842055e-03
-2.417630e-02
5.360329e-02
4.474596e-02
5.079161e-02
3.845117e-02
2.606373e-02
2.922348e-02
1.802257e-02
6.757483e-03
1.691378e-02
3.941810e-02
1.510311e-02
1.994840e-02
2.637663e-03
-2.796439e-02
-1.388837e-02
1.974437e-02
-1.096398e-02
-3.549034e-03
-5.711541e-04
9.814339e-03
-1.396628e-03
7.672595e-03
1.395299e-02
1.987312e-03
7.447056e-03
1.134542e-02
7.292861e-03
-3.834405e-02
-3.581701e-02
-3.933451e-02
-2.352096e-02
-1.093278e-02
-2.237648e-02
-4.176051e-02
-2.412926e-02
-3.008491e-02
2.664697e-02
3.063794e-02
1.580009e-02
1.477631e-02
1.737704e-02
1.580398e-04
-2.217463e-02
-2.665221e-02
-4.220846e-02
-4.879206e-02
-4.397286e-02
-5.326986e-02
-5.321686e-02
-4.977211e-02
-5.594846e-02
-5.987741e-02
-6.837110e-02
-7.664273e-02
-2.480153e-02
-1.534167e-02
-1.489740e-02
-3.746828e-03
-6.785489e-03
-1.091283e-02
2.068801e-02
1.929164e-02
2.968789e-03
5.305678e-02
2.646967e-02
5.356446e-02
2.121185e-02
-9.138944e-03
2.392876e-02
5.018128e-02
3.194418e-02
5.726247e-02
7.797134e-02
5.987067e-02
6.454142e-02
3.259370e-02
1.739915e-02
3.355395e-02
5.535009e-02
5.361875e-02
6.936353e-02
-2.821766e-02
-1.865468e-02
-2.493147e-02
-6.222973e-03
2.973539e-03
-1.902172e-03
-3.429344e-02
-3.037031e-02
-3.037071e-02
-1.698644e-02
3.413890e-04
-1.725965e-02
-1.369469e-02
2.238530e-03
-1.999719e-02
-3.121191e-02
-1.797401e-02
-3.292492e-02
-3.152033e-02
-2.737568e-02
-3.397867e-02
-2.173953e-02
-1.261364e-02
-2.121450e-02
-4.483259e-02
-3.360903e-02
-3.781614e-02
3.553577e-02
2.310672e-02
1.600043e-02
1.939082e-02
8.789601e-03
5.863315e-03
2.036742e-02
1.347212e-02
1.546309e-02
1.254738e-01
1.022660e-01
1.231648e-01
8.275098e-02
4.411252e-02
7.136805e-02
1.443144e-01
1.075938e-01
1.343527e-01
3.605917e-02
4.566657e-02
3.154731e-02
2.812372e-02
3.571236e-02
3.604221e-02
6.100316e-03
1.287316e-02
1.538957e-02
9.782178e-02
6.936864e-02
8.265283e-02
5.015232e-02
2.166950e-02
4.777911e-02
9.262607e-02
7.418433e-02
9.721469e-02
4.330570e-02
5.009370e-02
2.904293e-02
2.376980e-02
1.976610e-02
1.043755e-02
5.757905e-02
5.710055e-02
4.993296e-02
-2.235655e-02
-8.266527e-03
-2.630275e-02
-6.883249e-03
8.422829e-03
-1.063611e-02
1.209015e-02
2.242880e-02
1.266895e-03
-5.193891e-02
-4.227882e-02
-6.896816e-02
-5.129202e-02
-4.177152e-02
-7.169288e-02
-9.064721e-02
-8.796147e-02
-1.051619e-01
-5.399436e-02
-8.802732e-02
-5.548845e-02
-2.757606e-02
-5.585953e-02
-2.124430e-02
7.242046e-04
-1.772875e-02
1.586085e-02
1.391477e-02
3.951178e-02
2.088547e-02
1.805066e-02
2.708565e-02
1.691378e-02
2.334050e-02
2.441899e-02
2.104421e-02
4.611217e-02
3.523742e-02
5.838641e-02
1.824823e-02
2.406179e-04
3.043577e-02
6.611107e-02
5.161122e-02
6.438545e-02
2.803060e-02
1.975514e-02
4.173030e-02
2.901097e-03
-5.842207e-03
1.720463e-02
1.819721e-02
5.373047e-03
3.036160e-02
-3.791649e-02
-1.802041e-02
-2.794055e-02
-2.521316e-02
-1.056422e-02
-2.746806e-02
-4.197856e-04
1.727389e-02
-2.715814e-03
3.224580e-02
4.048431e-02
2.816227e-02
1.167866e-02
1.855338e-02
1.604746e-02
-3.043311e-03
6.701565e-03
6.073536e-03
-3.006849e-02
-3.898257e-02
-2.153758e-02
-5.937304e-02
-7.394599e-02
-5.597254e-02
-4.794055e-02
-6.573756e-02
-4.981076e-02
-1.149274e-02
-4.838444e-03
-1.938474e-02
1.920635e-03
8.321334e-03
-1.060787e-02
-2.464741e-02
-1.966786e-02
-2.912683e-02
1.473603e-02
-5.078346e-04
-3.878327e-03
-1.084510e-02
-2.968380e-02
-2.835108e-02
1.624131e-02
-5.319961e-04
-3.824025e-03
-1.096989e-02
-9.220740e-03
-1.544424e-02
-1.886479e-02
-6.621941e-03
-1.851497e-02
-4.980483e-02
-3.245705e-02
-2.894775e-02
5.791680e-03
-4.860767e-03
-8.977143e-03
-6.963540e-03
-1.929923e-02
-1.989599e-02
1.511887e-02
2.227979e-04
9.240292e-04
-1.754737e-02
-9.382361e-03
-2.932778e-02
-1.725150e-02
-1.367715e-03
-1.645666e-02
-3.368130e-02
-2.003992e-02
-3.103508e-02
-5.515059e-02
-4.563307e-02
-4.955335e-02
-3.965995e-02
-2.932358e-02
-3.821441e-02
-6.266650e-02
-4.793358e-02
-4.720169e-02
5.259741e-02
5.419266e-02
4.649098e-02
3.120747e-02
3.486550e-02
3.112562e-02
4.388934e-02
5.093480e-02
4.021279e-02
-4.948277e-02
-4.889421e-02
-5.768659e-02
-6.393343e-02
-6.557842e-02
-7.791422e-02
-8.085080e-02
-8.620326e-02
-9.442999e-02
9.574492e-02
8.668316e-02
1.155253e-01
4.490972e-02
2.583420e-02
5.696226e-02
6.643222e-02
5.087467e-02
7.863710e-02
-5.412714e-04
5.209652e-03
3.180094e-03
5.137553e-03
9.064774e-03
1.455539e-02
-1.950014e-03
-4.099903e-03
8.634005e-04
5.566626e-02
4.203511e-02
2.982724e-02
3.175054e-02
1.452125e-02
1.733787e-02
5.094580e-02
3.295874e-02
4.365471e-02
-4.305811e-02
-5.383785e-02
-4.032356e-02
-7.004561e-02
-8.694525e-02
-6.348563e-02
-4.211860e-02
-5.501006e-02
-3.450000e-02
-5.177456e-03
1.244946e-02
1.283317e-02
8.376678e-03
2.659716e-02
2.411772e-02
-9.204333e-03
-1.552330e-03
1.739744e-03
-2.017210e-02
-1.032705e-02
-7.782797e-03
-1.418100e-03
-8.060155e-05
3.427142e-03
1.068747e-02
5.867570e-03
3.605570e-03
-5.953288e-02
-5.732253e-02
-5.741953e-02
-3.131605e-02
-1.896071e-02
-1.623290e-02
-3.881242e-02
-2.763545e-02
-3.015492e-02
-4.211510e-02
-4.374599e-02
-5.773119e-02
-1.188891e-02
-2.013840e-02
-3.351901e-02
-1.399024e-02
-2.540484e-02
-3.383716e-02
-2.253505e-02
-1.100997e-02
-2.451652e-02
-1.443261e-02
-8.359998e-03
-1.784038e-02
-3.680112e-02
-2.544705e-02
-3.147569e-02
-1.459396e-02
-1.280325e-02
-6.617126e-03
5.116611e-03
9.223422e-03
1.204008e-02
2.156208e-02
2.219732e-02
2.502763e-02
2.337704e-02
1.834778e-02
5.898255e-03
-4.866125e-03
-2.918140e-03
-5.149644e-03
-2.902287e-02
-2.849886e-02
-3.051108e-02
-2.595825e-02
-3.655249e-02
-3.385948e-02
-1.386256e-02
-2.367237e-02
-1.803915e-02
-2.110388e-02
-3.376839e-02
-3.503222e-02
1.233486e-02
1.882802e-02
2.431608e-02
7.012775e-03
1.751628e-02
1.827930e-02
-2.859432e-02
-9.486619e-03
-1.475262e-02
7.540085e-03
2.409663e-02
2.138478e-02
-2.375732e-03
8.078221e-03
2.325535e-03
-7.674173e-03
2.592727e-03
-6.354911e-03
3.205847e-02
2.446317e-02
1.141184e-02
1.698807e-02
6.314187e-03
-1.402747e-03
1.769511e-03
-1.403102e-02
-1.050609e-02
-4.518454e-03
5.560300e-03
1.117666e-02
-9.274615e-03
2.676396e-03
3.874606e-03
-1.482634e-02
-7.249742e-03
-5.916057e-03
-4.680320e-02
-2.499939e-02
-4.300998e-02
-3.217867e-02
-5.660916e-03
-2.634756e-02
-3.007176e-02
-8.350964e-03
-1.924747e-02
-4.327499e-02
-5.657723e-02
-5.629531e-02
-6.666823e-02
-7.957976e-02
-7.071923e-02
-5.658749e-02
-7.379512e-02
-6.384075e-02
1.094382e-02
6.481787e-03
-6.411275e-04
2.344045e-03
-4.091847e-03
-5.007274e-03
-5.821595e-03
-9.963865e-03
-1.259316e-02
2.221128e-02
8.493789e-03
3.678363e-02
-6.140420e-04
-2.096681e-02
6.452915e-03
2.517991e-02
9.594197e-03
2.427651e-02
-8.106435e-03
-1.136041e-02
-1.521907e-02
1.778802e-02
2.124964e-02
1.320023e-02
4.091090e-02
5.404114e-02
4.356856e-02
3.333983e-02
4.828391e-02
3.241847e-02
5.062229e-02
6.330772e-02
5.715840e-02
4.528390e-02
5.312800e-02
6.046947e-02
8.808278e-03
2.026545e-03
5.479576e-03
3.998288e-02
3.486062e-02
3.515990e-02
4.810684e-02
5.296407e-02
4.988883e-02
3.177281e-02
2.289769e-02
3.550324e-02
3.739788e-02
2.818384e-02
3.926964e-02
5.143453e-02
4.592849e-02
5.169436e-02
1.294280e-02
2.768977e-02
2.742659e-02
-4.139928e-03
6.337936e-03
8.349502e-03
7.877944e-03
1.579010e-02
1.934242e-02
2.700573e-02
3.975079e-02
4.561984e-02
3.410085e-02
4.044529e-02
4.270447e-02
3.084750e-02
3.877041e-02
3.640669e-02
-1.212661e-02
-1.028755e-03
-2.590973e-03
-1.367666e-03
7.079080e-03
-7.175748e-04
-1.279088e-04
6.209717e-03
1.183706e-03
-2.435227e-02
-1.720404e-02
-1.303187e-02
-1.575856e-04
6.109019e-03
7.590428e-03
1.763413e-02
2.284079e-02
1.745453e-02
4.842886e-02
3.985934e-02
3.410332e-02
4.307353e-02
3.492485e-02
3.720934e-02
5.328995e-02
5.913242e-02
5.876064e-02
7.597192e-02
7.545777e-02
9.818632e-02
6.561182e-02
5.808208e-02
7.977315e-02
1.005304e-01
9.445167e-02
9.913941e-02
1.951134e-03
1.896718e-02
1.125807e-02
-3.772879e-03
1.116984e-02
1.237726e-02
2.699139e-02
3.202875e-02
2.705296e-02
7.280893e-02
6.260286e-02
6.498074e-02
4.395122e-02
2.555504e-02
4.629335e-02
6.953699e-02
6.042783e-02
6.589660e-02
5.885222e-02
6.893881e-02
6.513893e-02
6.239646e-02
6.688667e-02
7.051574e-02
5.328405e-02
5.992875e-02
6.751694e-02
4.822311e-03
1.530028e-02
8.525580e-03
-2.745889e-02
-1.384990e-02
-2.056029e-02
-1.232717e-02
-1.051403e-02
-2.729429e-02
-3.741862e-03
-1.432395e-02
-1.608449e-02
-2.725543e-03
-7.661290e-03
-7.504984e-03
1.262997e-02
1.318515e-02
1.319230e-02
-9.331533e-02
-9.184664e-02
-8.358711e-02
-6.992335e-02
-6.382435e-02
-6.160122e-02
-5.501071e-02
-5.016751e-02
-5.116327e-02
5.178360e-02
4.347825e-02
3.828968e-02
3.454836e-02
2.208625e-02
3.371701e-02
6.791170e-02
6.647222e-02
6.547692e-02
-6.037296e-02
-7.781255e-02
-6.488581e-02
-6.298005e-02
-8.408815e-02
-6.789040e-02
-6.243266e-02
-8.508711e-02
-6.973317e-02
-2.776919e-02
-2.789094e-02
-3.361118e-02
-3.399888e-02
-3.703054e-02
-4.190731e-02
-1.377330e-02
-2.641508e-02
-3.193683e-02
4.418920e-02
2.394139e-02
4.016060e-02
2.988576e-02
7.778743e-03
2.022570e-02
5.398301e-02
3.906600e-02
4.025475e-02
4.669815e-02
4.628648e-02
4.705500e-02
4.016714e-02
2.713487e-02
3.577905e-02
4.801311e-02
2.525220e-02
3.946811e-02
-9.753625e-03
-1.001781e-02
-7.505242e-03
-1.030318e-02
-9.153560e-03
-8.351156e-03
-1.124311e-02
-1.086787e-02
-1.273918e-02
-1.942554e-02
-6.054857e-03
-2.290486e-02
-3.930208e-02
-2.745557e-02
-4.158187e-02
-7.948173e-02
-7.802400e-02
-8.222510e-02
1.009980e-02
1.764114e-02
2.972525e-03
4.097463e-03
7.740927e-03
-4.960752e-03
-4.245614e-03
-2.635978e-03
-1.259665e-02
-2.570070e-02
-3.089936e-02
-2.249465e-02
-2.054656e-02
-2.299719e-02
-2.158811e-02
-2.999498e-02
-3.292743e-02
-3.037902e-02
7.692427e-03
9.804099e-04
5.761960e-03
2.002974e-02
9.707830e-03
6.296704e-03
2.177663e-02
1.102781e-02
5.501729e-03
-2.152139e-02
-6.705361e-03
-4.062342e-03
-2.193418e-02
-7.921619e-03
-2.704681e-03
-4.313935e-02
-2.783873e-02
-1.259191e-02
-3.849672e-02
-2.826020e-02
-3.213136e-02
-5.872090e-02
-4.529981e-02
-3.907507e-02
-5.660629e-02
-5.421014e-02
-4.292507e-02
-3.510820e-02
-3.287518e-02
-4.573170e-02
-3.054978e-02
-1.596656e-02
-2.941354e-02
-5.030204e-02
-3.338441e-02
-3.646871e-02
-6.637038e-02
-9.306882e-02
-6.993685e-02
-6.864520e-02
-9.931037e-02
-7.035535e-02
-5.257438e-02
-7.985792e-02
-5.747899e-02
-5.745837e-02
-5.531605e-02
-6.148302e-02
-6.826661e-02
-6.757267e-02
-7.164956e-02
-6.852373e-02
-6.021621e-02
-5.943742e-02
4.421022e-02
4.004932e-02
6.231446e-02
3.298154e-02
1.582770e-02
3.964787e-02
5.216561e-02
4.495487e-02
5.546043e-02
3.443438e-02
4.382815e-02
5.375069e-02
7.343660e-03
1.813713e-02
1.882463e-02
-1.534900e-02
-3.930390e-03
-1.088156e-02
8.877829e-02
7.917809e-02
1.041019e-01
6.445727e-02
3.855680e-02
7.977745e-02
9.715422e-02
6.647377e-02
1.002346e-01
-1.155078e-02
-1.580615e-03
-3.938469e-03
-2.888583e-02
-1.859478e-02
-1.099682e-02
-3.143896e-02
-2.133695e-02
-1.727472e-02
4.519609e-02
3.348032e-02
3.835361e-02
4.472411e-02
3.206640e-02
4.429070e-02
8.941543e-03
-5.762825e-03
9.404984e-03
-2.122235e-02
-7.540551e-03
-6.761733e-03
-2.025111e-02
-8.375145e-03
-6.305591e-03
-2.956912e-02
-1.552906e-02
-1.564918e-02
-3.553104e-02
-3.307845e-02
-1.330019e-02
-5.236647e-02
-5.743736e-02
-3.173221e-02
-5.018058e-02
-5.887589e-02
-3.713053e-02
3.163501e-02
2.911500e-02
3.250689e-02
2.535835e-02
2.950932e-02
2.961386e-02
1.722886e-02
2.592701e-02
2.514904e-02
1.351004e-02
1.297601e-02
1.414239e-02
-4.193728e-03
-8.765989e-03
2.657546e-03
-1.343210e-02
-1.632249e-02
5.626506e-04
-1.740036e-02
-2.366765e-02
-1.908460e-02
-1.965512e-02
-2.101585e-02
-2.194284e-02
-2.445566e-02
-2.219283e-02
-2.750647e-02
-5.845015e-02
-5.550971e-02
-5.057556e-02
-4.043359e-02
-3.837149e-02
-3.935479e-02
-3.469978e-02
-3.428641e-02
-4.228393e-02
-2.420407e-02
-2.212522e-02
-1.254004e-02
-1.569838e-02
-1.587935e-02
-1.171255e-02
7.919974e-03
9.468509e-03
1.646057e-03
-3.364813e-02
-3.142221e-02
-4.250219e-02
-3.446968e-02
-2.211113e-02
-2.957429e-02
-3.261251e-02
-1.254105e-02
-1.603733e-02
2.502522e-02
3.214436e-02
1.292539e-02
1.406991e-02
2.899651e-02
1.730906e-02
3.232066e-04
1.524993e-02
1.085646e-02
2.929234e-02
4.871986e-02
6.145416e-02
1.325488e-02
3.522260e-02
4.798242e-02
1.111354e-02
2.780278e-02
4.145790e-02
-2.532713e-02
-1.045491e-02
-1.666519e-02
-2.724445e-02
-9.870294e-03
-2.345910e-02
-5.674270e-02
-3.172019e-02
-3.886371e-02
7.969329e-02
7.684231e-02
7.092709e-02
7.853590e-02
7.536732e-02
8.128565e-02
9.391338e-02
9.898229e-02
9.587122e-02
-4.081614e-02
-4.179392e-02
-5.374059e-02
-4.483987e-02
-3.842663e-02
-4.609811e-02
-7.014278e-02
-7.139426e-02
-7.597971e-02
-1.751459e-02
-1.769006e-02
-2.590728e-02
-4.544709e-02
-4.874007e-02
-6.530866e-02
-6.435092e-02
-6.298083e-02
-7.429837e-02
2.413790e-02
1.168689e-02
1.082645e-02
2.950510e-02
2.032576e-02
1.759108e-02
5.304926e-02
5.039088e-02
4.621582e-02
1.964924e-02
1.438746e-02
3.197361e-03
9.867590e-03
2.162918e-03
-6.409980e-03
-2.014949e-02
-2.431544e-02
-2.278593e-02
-3.595678e-02
-3.448461e-02
-4.809511e-02
-4.228993e-02
-3.488932e-02
-5.451542e-02
-4.279067e-02
-3.484701e-02
-5.382478e-02
-2.314142e-02
-2.207762e-02
-1.372594e-02
-3.727860e-03
-2.429026e-03
1.591264e-03
-1.042161e-02
-4.872417e-03
4.232223e-03
8.076737e-02
5.981912e-02
7.454976e-02
5.156302e-02
3.147784e-02
4.470802e-02
3.841550e-02
3.241531e-02
4.515246e-02
-9.508965e-03
-1.570324e-04
-7.328412e-03
-5.273205e-03
-2.593292e-03
-1.447295e-02
-5.743183e-03
-1.255685e-02
-2.530110e-02
5.854514e-02
4.127878e-02
6.144319e-02
-4.777439e-03
-2.553491e-02
-1.647131e-03
-2.160759e-02
-4.404572e-02
-2.052305e-02
-5.387223e-02
-6.351589e-02
-4.448415e-02
-7.664107e-04
-1.197476e-02
1.245154e-03
2.216825e-03
-6.980852e-03
-4.122988e-03
-1.992859e-02
-1.327802e-02
-2.910286e-02
-1.042727e-02
-6.973612e-04
-2.558860e-02
-2.925825e-02
-2.418441e-02
-4.025792e-02
5.549728e-03
2.376111e-03
6.391339e-03
2.131598e-02
1.154378e-02
1.646660e-02
7.377131e-02
7.253522e-02
6.422948e-02
-2.162520e-02
-8.138007e-03
-2.420601e-02
-7.522616e-03
1.293789e-03
-1.115745e-02
-3.616900e-02
-3.800649e-02
-4.014750e-02
-5.282006e-02
-4.493793e-02
-4.584391e-02
-2.597290e-02
-1.732120e-02
-2.233925e-02
-2.068374e-02
-1.776461e-02
-2.903264e-02
4.238349e-02
4.013603e-02
4.540933e-02
4.041469e-02
3.295416e-02
4.359958e-02
2.883639e-02
1.623648e-02
2.454043e-02
3.514011e-02
4.007161e-02
3.554136e-02
1.947676e-02
1.909620e-02
1.601226e-02
2.935082e-02
3.115279e-02
2.775962e-02
5.593282e-02
5.889226e-02
7.233110e-02
3.221875e-02
2.808826e-02
4.404656e-02
4.011398e-02
3.617611e-02
4.427316e-02
-2.459623e-02
-2.677733e-02
-2.228510e-02
2.126658e-03
-3.731807e-03
-2.325878e-04
3.954940e-03
-1.084613e-02
-5.615611e-04
1.168005e-01
8.897135e-02
1.060201e-01
7.705670e-02
4.316478e-02
7.244536e-02
1.243950e-01
9.499607e-02
1.212962e-01
2.089563e-02
1.765586e-02
9.921232e-03
1.009514e-02
2.824066e-03
-3.637412e-03
2.997140e-04
-4.216465e-03
-6.210809e-03
-1.573778e-02
-2.197074e-02
-1.165152e-02
2.397565e-02
1.491304e-02
2.376916e-02
1.851987e-02
1.458090e-02
1.907877e-02
-5.634252e-02
-4.736859e-02
-5.998971e-02
-3.129805e-02
-2.581280e-02
-3.223095e-02
-2.287073e-02
-2.373708e-02
-2.789204e-02
4.426775e-03
-1.408028e-03
1.775932e-03
9.386420e-03
7.157969e-03
8.185766e-03
2.260515e-02
2.719390e-02
2.537735e-02
3.842060e-03
-9.922835e-03
1.954118e-03
1.375698e-02
-5.947445e-03
3.661489e-03
2.234238e-02
1.510030e-02
1.762499e-02
-2.979449e-02
-3.528390e-02
-2.810569e-02
-4.902726e-03
-1.588526e-02
6.193632e-04
-1.159654e-02
-2.202813e-02
-5.986314e-03
-6.015331e-02
-4.864607e-02
-5.973756e-02
-3.349350e-02
-1.423378e-02
-2.637360e-02
-4.239047e-02
-2.639930e-02
-2.366147e-02
-8.157207e-03
-3.834524e-03
-2.797459e-03
-2.812122e-02
-1.459742e-02
-1.711521e-02
-5.463326e-02
-4.714033e-02
-5.536293e-02
4.296548e-02
4.605370e-02
3.616992e-02
5.352278e-02
6.758635e-02
6.248069e-02
1.415022e-02
2.305419e-02
3.020066e-02
3.001925e-02
1.763795e-02
1.236036e-02
5.046229e-03
-7.551983e-03
-5.671159e-03
-2.238233e-02
-3.022707e-02
-1.962924e-02
6.187893e-02
5.460986e-02
6.183309e-02
6.875919e-02
6.369554e-02
6.711584e-02
1.089804e-01
1.200078e-01
1.044767e-01
-5.234789e-02
-5.510697e-02
-4.776775e-02
-8.960732e-03
-1.234849e-02
-4.861396e-03
1.885934e-03
2.693129e-03
9.811439e-03
-2.117069e-02
-1.512314e-02
-2.154505e-02
-3.622199e-02
-3.357282e-02
-3.623758e-02
-3.534030e-02
-3.668483e-02
-3.923066e-02
-2.660707e-03
-1.591422e-02
-1.170383e-02
7.948671e-03
-1.482487e-03
4.303304e-03
-1.036598e-02
-7.432589e-03
-1.504927e-02
6.974422e-02
7.372965e-02
8.726259e-02
6.956175e-02
6.776503e-02
7.921231e-02
6.267273e-02
5.567288e-02
6.421776e-02
3.370916e-03
-2.021671e-03
-1.279346e-02
-1.299514e-02
-6.723007e-03
-1.997189e-02
-2.701735e-02
-3.199922e-02
-4.316773e-02
-2.315917e-02
-2.641116e-02
-3.142133e-02
-5.332808e-03
-3.580886e-03
-1.326933e-02
-3.753318e-02
-2.564644e-02
-3.317596e-02
-2.262617e-02
-1.212947e-02
-2.411602e-02
-1.112182e-02
-5.626137e-03
-5.694313e-03
-5.324974e-03
-8.550468e-03
5.450127e-04
3.055875e-02
3.598734e-02
2.882341e-02
3.427482e-02
4.508704e-02
4.242546e-02
3.266778e-02
3.730804e-02
4.134875e-02
-4.355384e-02
-4.528634e-02
-5.189453e-02
-1.291860e-02
-1.210585e-02
-2.395613e-02
-3.850500e-03
-3.435611e-03
-2.043176e-02
1.606444e-02
2.733696e-02
4.652581e-02
5.073273e-03
5.812762e-03
4.248679e-02
2.984435e-03
-2.625880e-03
2.617770e-02
-3.482530e-02
-3.717569e-02
-3.323898e-02
-2.788765e-03
-5.064496e-04
-6.567127e-04
-1.460535e-02
-1.520962e-02
-8.927846e-03
-1.817949e-02
-1.275752e-02
-2.730268e-02
-1.464915e-02
-1.556436e-02
-2.644907e-02
-3.012628e-02
-3.494601e-02
-3.959484e-02
2.214766e-02
1.410555e-02
1.216199e-02
2.568051e-02
1.030686e-02
1.089141e-02
1.511376e-02
2.975907e-03
6.462375e-03
-2.535563e-02
-1.518464e-02
-1.213379e-02
-3.632696e-02
-2.017499e-02
-2.362846e-02
-4.375532e-02
-2.786650e-02
-2.423052e-02
-1.781004e-02
-2.161152e-02
-2.495401e-02
2.485488e-03
-7.473585e-03
-8.251804e-03
-2.492171e-03
-1.373390e-02
-6.203743e-03
-3.272970e-02
-4.130797e-02
-3.475666e-02
-3.994334e-02
-4.806947e-02
-3.712336e-02
-1.080273e-02
-1.781166e-02
-4.664250e-03
2.316261e-02
2.581103e-02
1.771699e-02
2.221793e-02
1.638502e-02
1.910321e-02
4.341022e-02
4.025333e-02
4.313244e-02
-2.364608e-02
-1.113116e-02
-2.463589e-02
-1.053575e-02
8.848174e-03
8.298892e-04
-6.396067e-03
1.001906e-02
3.659478e-03
-5.654004e-03
-6.735771e-03
-6.632324e-03
6.391129e-03
-3.513707e-03
-1.229563e-03
8.306330e-03
3.985247e-03
7.379570e-03
-7.610136e-02
-6.349115e-02
-6.956339e-02
-6.255614e-02
-4.062470e-02
-5.073486e-02
-6.789900e-02
-4.396323e-02
-5.723249e-02
-7.372445e-02
-6.573016e-02
-9.073719e-02
-5.250333e-02
-4.180497e-02
-7.372040e-02
-6.994053e-02
-7.014114e-02
-9.810466e-02
2.030591e-02
1.577834e-02
2.159858e-02
3.752722e-02
3.320426e-02
4.016582e-02
4.438376e-02
4.031679e-02
5.260830e-02
-2.540579e-02
-3.764189e-02
-2.875428e-02
-1.166196e-02
-1.879975e-02
-1.773574e-02
-1.176140e-02
-9.420801e-03
-7.556075e-03
-2.745016e-02
-2.753284e-02
-2.699410e-02
-3.210197e-02
-4.273317e-02
-4.057128e-02
-1.470620e-02
-3.715302e-02
-2.527282e-02
-1.451629e-02
-9.550329e-03
-6.542182e-03
-7.646296e-03
-9.422898e-03
-1.466212e-02
-2.176548e-02
-2.097553e-02
-2.425508e-02
2.903320e-02
3.171839e-02
3.313598e-02
8.097648e-03
1.018450e-02
1.840086e-02
1.312112e-02
1.603043e-02
2.520285e-02
-7.453054e-03
-4.075526e-03
5.093311e-03
-1.083354e-03
4.045470e-03
7.401488e-03
-1.080171e-02
1.484150e-03
-2.359959e-03
-2.107998e-03
6.326116e-03
2.011893e-03
-4.928280e-03
1.633817e-03
-8.567793e-04
-2.155220e-02
-2.915430e-02
-2.723699e-02
-6.710639e-03
-2.437650e-02
6.015298e-03
2.514109e-02
1.845261e-03
3.026051e-02
6.633720e-02
5.011071e-02
5.770785e-02
3.069806e-02
3.394460e-02
3.622585e-02
3.994251e-02
3.613100e-02
3.569395e-02
3.768409e-02
3.217124e-02
3.603422e-02
-3.154863e-02
-2.484328e-02
-4.302693e-02
-1.664166e-02
-1.351475e-03
-1.699701e-02
-3.173798e-02
-2.248303e-02
-3.677385e-02
1.324828e-01
1.363858e-01
1.401828e-01
9.125429e-02
9.119461e-02
9.890901e-02
1.371891e-01
1.493919e-01
1.477866e-01
3.720729e-02
4.275916e-02
4.012949e-02
1.650560e-02
1.145152e-02
2.323949e-02
2.605622e-02
9.177391e-03
2.088186e-02
1.841972e-02
1.884621e-02
1.850456e-02
2.688564e-02
2.859874e-02
2.593649e-02
2.736104e-02
2.468465e-02
1.832828e-02
9.856287e-03
8.374400e-03
3.785384e-03
3.730133e-02
3.475730e-02
2.650493e-02
2.574893e-02
1.753012e-02
7.443782e-03
2.925400e-02
2.995299e-02
2.426157e-02
2.089435e-02
1.149037e-02
1.293489e-02
2.830622e-02
2.167491e-02
2.717856e-02
-2.524685e-02
-1.715636e-02
-3.420164e-02
-6.013493e-03
-1.711538e-02
-2.626224e-02
5.607344e-03
-9.533462e-03
-7.786131e-03
-4.918947e-02
-4.125795e-02
-3.755468e-02
-1.149515e-04
1.001260e-02
9.804789e-03
1.111296e-02
2.119288e-02
2.104456e-02
-8.358426e-02
-7.622132e-02
-7.625859e-02
-4.379370e-02
-3.793780e-02
-4.688356e-02
-8.549259e-03
1.300226e-06
-1.476561e-02
5.293397e-03
3.227385e-03
3.445629e-03
-2.175116e-04
7.246604e-03
3.588605e-04
-2.394457e-02
-8.642943e-03
-1.521509e-02
7.032527e-02
6.604034e-02
7.398950e-02
5.172074e-02
2.875463e-02
4.834657e-02
7.770189e-02
4.769951e-02
6.909822e-02
-1.978877e-02
-1.610714e-02
-2.850533e-02
-1.493208e-02
-3.878751e-03
-1.856656e-02
-2.915750e-02
-1.757007e-02
-2.256072e-02
2.031585e-02
8.933987e-03
1.133146e-02
9.187600e-03
-3.249976e-03
8.218347e-03
9.218062e-03
8.633030e-03
1.705085e-02
4.601382e-03
-7.409021e-03
-3.793518e-03
2.704141e-02
1.473755e-02
1.445779e-02
3.792647e-02
3.211531e-02
2.747419e-02
-6.051717e-03
-1.477859e-02
-9.111580e-03
3.668386e-03
-6.222751e-03
-2.044318e-03
2.478275e-02
1.916285e-02
2.259327e-02
3.845425e-02
3.259851e-02
4.916313e-02
4.354180e-02
2.810336e-02
4.306909e-02
6.219092e-02
3.808580e-02
5.066385e-02
-3.896442e-02
-2.607630e-02
-4.041263e-02
-2.758572e-02
-1.696576e-02
-3.591032e-02
-4.498075e-02
-3.880990e-02
-5.494201e-02
1.004448e-02
3.376497e-02
1.669526e-02
-5.390591e-03
1.535959e-02
-1.350487e-03
1.339746e-02
3.276015e-02
1.505019e-02
2.266135e-02
2.891403e-02
2.438463e-02
3.872752e-02
3.850607e-02
3.665238e-02
4.757579e-02
4.548030e-02
4.571227e-02
3.116878e-03
1.435710e-03
6.922363e-03
-1.828832e-02
-2.433110e-02
-1.618910e-02
-2.131690e-02
-2.111296e-02
-9.781416e-03
-3.585898e-02
-2.982283e-02
-2.901056e-02
-1.396376e-02
-5.467639e-03
-9.250708e-03
4.192187e-03
1.852532e-02
1.717683e-02
4.011484e-02
4.798851e-02
4.656364e-02
4.018025e-02
3.145432e-02
3.554421e-02
1.871695e-02
4.316589e-03
1.149791e-02
-5.612548e-02
-5.235257e-02
-5.386461e-02
-2.402171e-02
-1.520236e-02
-2.201778e-02
-2.065586e-02
-1.028135e-02
-1.759312e-02
5.930130e-02
3.438798e-02
4.573233e-02
4.556016e-02
2.534011e-02
3.962534e-02
3.966881e-02
4.012035e-02
5.770681e-02
-5.971352e-02
-2.962073e-02
-5.413061e-02
-3.604693e-02
-1.099501e-02
-3.806293e-02
-3.274340e-02
-1.469317e-02
-3.294902e-02
6.427830e-02
4.994017e-02
5.984489e-02
1.877782e-02
-4.523706e-03
2.917633e-03
5.017003e-02
3.856880e-02
3.902926e-02
1.952965e-03
3.355026e-03
1.596701e-03
-2.217526e-03
9.304510e-04
-4.480511e-03
-1.464185e-02
-6.679656e-03
-1.628583e-02
5.122912e-03
8.753275e-03
-4.809145e-03
1.468859e-04
7.070684e-04
-9.378146e-03
-2.318058e-02
-2.241236e-02
-2.923544e-02
8.581916e-04
-4.551732e-03
-5.301388e-03
1.860785e-02
6.630735e-03
7.957465e-03
1.831923e-02
8.176432e-03
1.428920e-02
4.164995e-02
4.419621e-02
3.557023e-02
3.139726e-02
3.377951e-02
2.642988e-02
2.485956e-02
2.631919e-02
2.080392e-02
-1.944165e-02
-1.272748e-02
-2.024707e-02
-2.837962e-02
-2.225415e-02
-2.728789e-02
-6.588750e-02
-5.973967e-02
-5.887977e-02
1.773454e-02
4.149909e-02
3.825851e-02
1.460721e-02
3.424826e-02
2.881509e-02
4.582864e-02
5.887336e-02
4.419776e-02
-6.162047e-03
-2.314761e-02
-9.782881e-03
-1.997740e-02
-3.574001e-02
-1.926658e-02
-1.638192e-02
-2.317799e-02
-8.091880e-03
-5.713219e-02
-5.478347e-02
-4.740188e-02
-4.983625e-02
-3.694996e-02
-4.625749e-02
-6.550322e-02
-5.786445e-02
-7.207207e-02
1.005358e-02
-1.143602e-02
3.021455e-03
8.282668e-03
-9.441747e-03
9.889670e-03
3.025054e-02
2.033180e-02
3.872665e-02
-2.274269e-02
-1.335328e-02
-1.002558e-02
-3.441736e-02
-2.509464e-02
-2.307814e-02
-3.657151e-02
-2.838099e-02
-2.725583e-02
6.087816e-02
4.545441e-02
5.293684e-02
5.608379e-02
4.031247e-02
4.810702e-02
8.640304e-02
7.597873e-02
7.456640e-02
-4.477792e-02
-3.768912e-02
-3.845302e-02
-6.403428e-02
-6.168617e-02
-5.941847e-02
-5.581354e-02
-5.961771e-02
-5.712892e-02
-1.470701e-02
-3.578909e-03
7.181128e-03
-8.147887e-03
-1.589723e-03
1.516217e-02
7.639680e-03
6.050429e-03
2.527541e-02
-1.461696e-02
-1.230418e-02
-1.354261e-02
-7.102349e-03
-3.808708e-03
-1.657598e-03
-2.227013e-02
-1.499658e-02
-4.747013e-03
-7.708225e-02
-6.874130e-02
-8.892884e-02
-5.809330e-02
-4.670093e-02
-6.347453e-02
-8.529641e-02
-8.740259e-02
-9.607521e-02
-1.980442e-03
-3.740427e-03
2.359085e-03
7.913673e-03
7.972142e-03
1.864200e-02
-7.397905e-04
-2.354779e-03
4.299603e-03
2.265101e-02
3.193050e-02
3.459112e-02
3.162749e-02
4.011361e-02
3.676649e-02
3.633825e-02
4.845462e-02
4.000290e-02
1.721099e-02
1.278413e-02
4.308945e-02
-3.958129e-03
-1.366020e-02
1.178230e-02
2.001810e-02
1.053952e-02
2.755100e-02
1.857040e-02
9.522667e-03
3.909577e-03
1.870431e-02
2.675016e-03
6.161051e-03
3.226052e-02
1.844550e-02
2.533696e-02
-2.574149e-02
-2.279744e-02
-3.044019e-02
-3.019845e-02
-3.383909e-02
-3.657849e-02
-3.884931e-02
-4.419527e-02
-4.847037e-02
1.192871e-01
8.733298e-02
1.214575e-01
6.226924e-02
1.973620e-02
6.623527e-02
8.535760e-02
6.305574e-02
9.416550e-02
8.380219e-03
-3.340237e-03
-4.934731e-03
2.051691e-02
9.966026e-03
1.446981e-02
5.333208e-02
4.853872e-02
4.868266e-02
1.422402e-01
1.115996e-01
1.413118e-01
8.324642e-02
3.167702e-02
7.411436e-02
1.420560e-01
9.987509e-02
1.319849e-01
-2.679153e-02
-2.421230e-02
-2.540848e-02
-2.877378e-02
-3.936779e-02
-3.746965e-02
-1.028059e-02
-2.814364e-02
-2.867681e-02
9.988132e-02
9.546325e-02
1.073366e-01
8.638706e-02
7.012007e-02
9.070245e-02
8.157827e-02
7.919461e-02
9.702283e-02
-1.387032e-02
-3.565019e-03
2.527911e-03
-3.503208e-02
-3.021110e-02
-1.611181e-02
-3.210294e-02
-2.396258e-02
-7.339299e-03
2.265318e-02
2.253196e-02
2.961159e-02
9.375853e-03
7.022155e-03
1.530025e-02
9.487236e-03
1.896391e-02
2.009321e-02
-2.526824e-02
-1.866300e-02
-2.900116e-02
-2.812877e-02
-2.422351e-02
-3.668243e-02
-1.211995e-02
-1.388449e-02
-2.572943e-02
-4.671190e-02
-5.962748e-02
-4.749237e-02
-2.641843e-02
-4.294655e-02
-4.423307e-02
-2.190028e-02
-3.650554e-02
-3.393169e-02
7.042044e-03
5.368691e-03
1.980227e-02
-1.530589e-02
-2.724816e-02
-6.004261e-03
-1.694745e-02
-3.607972e-02
-2.072199e-02
-4.314082e-02
-3.353353e-02
-3.694669e-02
-3.513950e-02
-2.331959e-02
-3.944981e-02
-6.305253e-02
-5.503059e-02
-6.286380e-02
2.263486e-02
2.404242e-02
2.573461e-02
5.091516e-03
9.621136e-04
4.295051e-03
1.950639e-02
7.981322e-03
6.454102e-03
-8.876215e-02
-9.240063e-02
-1.141794e-01
-5.187878e-02
-5.422677e-02
-7.798929e-02
-6.077053e-02
-6.256615e-02
-7.746989e-02
6.692608e-03
4.064769e-03
1.472951e-03
-7.195882e-03
-1.651355e-02
-8.250523e-03
1.948857e-02
1.699169e-02
2.190625e-02
-3.583165e-02
-3.319896e-02
-4.739136e-02
-8.451562e-03
-7.600995e-03
-1.743734e-02
-1.419337e-02
-1.679815e-02
-2.055754e-02
8.727006e-04
-2.764301e-03
-2.702270e-03
5.905175e-03
4.936394e-04
2.243608e-03
2.039677e-02
1.901555e-02
1.088869e-02
1.236995e-02
8.453840e-03
7.154787e-03
3.353741e-02
2.974555e-02
3.022687e-02
5.772649e-02
5.423456e-02
5.248134e-02
8.596668e-02
6.856917e-02
7.880212e-02
6.220770e-02
3.847917e-02
5.003792e-02
9.328717e-02
7.889125e-02
8.435990e-02
-4.838467e-02
-4.230091e-02
-4.765435e-02
-1.994016e-02
-6.150792e-03
-2.294720e-02
-2.346886e-02
-1.263475e-03
-2.171881e-02
-1.590795e-02
-1.213371e-02
-8.374454e-03
-7.567817e-03
-4.843908e-03
2.289593e-03
-1.848549e-02
-1.612537e-02
-1.169799e-02
-1.040800e-01
-1.071878e-01
-1.258727e-01
-7.258950e-02
-5.874652e-02
-8.127908e-02
-1.178769e-01
-9.837058e-02
-1.142181e-01
1.412268e-02
-5.025418e-03
1.174949e-02
-6.811795e-03
-2.668256e-02
1.399959e-04
-9.704073e-03
-2.416449e-02
5.396978e-04
3.041338e-02
2.600825e-02
2.941404e-02
7.695844e-03
1.224731e-04
8.786323e-03
2.750542e-02
2.524680e-02
3.489916e-02
1.506998e-02
1.754485e-02
1.234832e-02
1.748488e-02
2.145183e-02
1.379248e-02
8.060620e-03
1.390764e-02
9.718937e-04
5.094118e-02
3.477817e-02
3.693148e-02
2.162417e-02
6.519517e-03
1.442382e-02
1.036908e-02
9.386801e-03
2.859446e-02
-1.205334e-02
-3.776111e-02
-1.175340e-02
-7.778523e-03
-3.867497e-02
-1.828231e-02
-1.459406e-02
-3.026257e-02
-4.229340e-03
-3.960207e-02
-4.728072e-02
-3.915884e-02
-3.191471e-02
-3.484602e-02
-2.257457e-02
-7.361818e-03
-8.582688e-03
-9.892604e-03
-2.584948e-02
-1.737191e-02
-2.247207e-02
-3.855635e-03
7.952289e-03
-8.015495e-04
-1.920619e-02
-6.396225e-03
-1.328466e-02
-2.404264e-02
-2.551007e-02
-3.449258e-02
-1.530896e-02
-1.633988e-02
-1.992848e-02
-2.341238e-02
-2.251492e-02
-2.065301e-02
8.824603e-03
-8.417933e-03
-1.144921e-02
-6.203718e-03
-2.417866e-02
-2.956072e-02
-1.283617e-02
-2.867354e-02
-2.619409e-02
-5.834645e-02
-6.402978e-02
-4.984370e-02
-4.788667e-02
-5.909370e-02
-4.780490e-02
-4.056402e-02
-5.110883e-02
-4.553085e-02
-9.708618e-03
-1.033065e-02
-8.450025e-04
-1.001389e-02
-1.364436e-02
-1.595688e-03
-3.260946e-02
-4.580456e-02
-3.182113e-02
-5.075923e-03
1.342816e-04
-1.571441e-02
-1.423288e-02
-1.117271e-02
-2.611315e-02
-7.483398e-03
-9.849794e-03
-2.170783e-02
-6.977113e-03
1.195143e-03
-1.915904e-02
-1.582064e-04
7.048710e-03
-5.023801e-03
-2.754816e-02
-2.793701e-02
-3.025310e-02
3.640670e-02
3.557684e-03
3.633212e-02
4.614993e-02
1.744873e-02
4.155168e-02
6.361268e-02
5.607817e-02
5.559608e-02
3.614336e-02
3.096944e-02
4.144980e-02
1.604488e-02
1.551596e-02
3.401409e-02
1.557883e-02
2.360960e-02
3.895491e-02
-7.317620e-02
-7.586218e-02
-6.815412e-02
-2.295879e-02
-2.723796e-02
-1.679915e-02
4.990856e-03
1.506662e-03
1.109248e-02
1.462191e-01
1.113980e-01
1.524347e-01
1.133812e-01
6.887960e-02
1.302683e-01
1.562722e-01
1.185517e-01
1.772763e-01
-1.786371e-02
-1.082710e-02
-1.214317e-02
-8.758840e-03
3.461126e-03
-2.017032e-03
1.185658e-02
2.253875e-02
1.188853e-02
3.582375e-02
2.382291e-02
4.053333e-02
3.032769e-02
1.606276e-02
2.733348e-02
5.087477e-02
4.218857e-02
3.878907e-02
2.474642e-02
1.359516e-02
3.231731e-02
9.752372e-03
-1.255229e-02
8.976728e-03
2.361880e-02
-2.486985e-03
1.418598e-02
-5.291841e-02
-3.856001e-02
-4.292269e-02
-3.035304e-02
-1.581031e-02
-1.252784e-02
-3.234768e-02
-2.040147e-02
-1.289082e-02
1.642594e-03
-3.325468e-03
-1.376309e-02
3.236308e-03
-4.418135e-03
-5.729278e-03
7.200564e-03
3.078777e-03
1.463800e-02
-6.320108e-02
-4.534234e-02
-5.961901e-02
-3.487777e-02
-1.849355e-02
-4.002682e-02
-4.964009e-02
-4.347460e-02
-5.204256e-02
1.203437e-02
1.143355e-02
1.235787e-02
7.400333e-04
-1.845711e-05
2.707317e-03
1.141081e-02
1.235162e-02
7.483440e-03
-4.549565e-02
-5.243488e-02
-3.829308e-02
-2.948185e-02
-3.551949e-02
-2.568894e-02
-3.976617e-02
-4.298390e-02
-3.710553e-02
-6.480803e-02
-7.065633e-02
-7.628502e-02
-4.540077e-02
-5.055357e-02
-6.751651e-02
-7.740650e-02
-8.919950e-02
-1.113235e-01
4.914543e-02
3.379554e-02
5.302090e-02
3.090915e-02
4.182378e-03
3.012866e-02
4.981578e-02
2.985922e-02
4.617989e-02
2.041199e-02
5.353400e-03
2.360020e-02
3.832410e-02
2.275603e-02
3.335243e-02
2.178425e-02
1.032125e-02
2.119705e-02
-4.251117e-02
-4.680854e-02
-5.116195e-02
-3.516854e-02
-3.050180e-02
-3.446065e-02
-3.633898e-02
-2.777195e-02
-2.969951e-02
-1.063408e-01
-1.103518e-01
-1.034549e-01
-8.193909e-02
-8.047298e-02
-7.505774e-02
-7.424068e-02
-7.563039e-02
-6.679671e-02
-9.558010e-03
-1.547919e-02
-1.258122e-02
7.998686e-03
-1.400722e-02
-6.764953e-03
-1.390218e-02
-5.173769e-02
-3.085740e-02
2.686791e-02
1.127351e-02
1.310563e-02
1.558637e-02
8.342508e-03
1.166857e-02
6.561193e-04
-4.312746e-03
-6.508917e-03
4.890472e-02
1.679844e-02
2.449218e-02
2.709153e-02
-4.113053e-03
1.221160e-02
1.580717e-02
-7.218766e-03
9.509038e-03
-3.182330e-02
-3.634508e-02
-1.882279e-02
6.913885e-03
3.977621e-03
1.355485e-02
-6.961059e-03
-1.052078e-02
-9.059832e-03
-1.027570e-02
-1.626343e-02
2.251526e-03
-3.066215e-02
-3.363498e-02
-1.106148e-02
-3.044170e-02
-3.132794e-02
-1.215952e-02
-2.589185e-02
-3.036900e-02
-2.963061e-02
-5.717174e-02
-5.799298e-02
-5.209128e-02
-6.994450e-02
-7.724958e-02
-7.138416e-02
-3.610510e-02
-3.775173e-02
-2.700704e-02
-2.127965e-02
-2.049514e-02
-6.879104e-03
-2.429427e-02
-1.841517e-02
-3.891689e-03
-3.655909e-02
-2.933728e-02
-4.427043e-02
-3.085784e-02
-1.749465e-02
-2.610420e-02
-3.317316e-02
-2.166366e-02
-3.087468e-02
3.444337e-02
2.792863e-02
2.519836e-02
2.862446e-02
1.819776e-02
2.058695e-02
8.885826e-03
3.178489e-03
7.589502e-03
3.090754e-02
2.808424e-02
3.915983e-02
2.210611e-02
1.687010e-02
4.228338e-02
1.645845e-02
1.776771e-02
4.541200e-02
-6.147554e-03
-8.434742e-04
-1.648497e-02
1.455032e-03
3.817137e-03
-1.208853e-02
-8.847605e-03
-2.364966e-03
-1.139618e-02
-1.329035e-02
-2.322955e-02
-2.483708e-02
-4.598661e-03
-1.132379e-02
-1.932456e-02
7.333552e-03
2.598747e-03
-1.023687e-02
2.732253e-02
2.650570e-02
3.732799e-02
1.222735e-02
9.583315e-03
2.574993e-02
9.823483e-03
6.254128e-03
2.300782e-02
-1.177695e-03
-2.038136e-02
2.737982e-03
4.388488e-03
-8.404496e-03
1.419015e-02
3.923415e-02
4.033590e-02
4.925207e-02
1.087283e-02
1.370572e-02
-2.131129e-04
2.498183e-02
2.975277e-02
1.903680e-02
1.111284e-02
6.664475e-03
6.530402e-03
3.647101e-02
3.243155e-02
2.352974e-02
3.192169e-02
3.608730e-02
2.771299e-02
2.409189e-02
3.099132e-02
1.846920e-02
4.479438e-04
-1.058228e-02
6.252364e-04
-2.855631e-02
-4.073497e-02
-1.688334e-02
-2.475966e-02
-4.185000e-02
-1.517018e-02
8.917001e-02
4.559750e-02
7.270526e-02
6.124899e-02
7.588445e-03
4.142382e-02
9.665042e-02
6.408948e-02
8.618529e-02
5.312344e-02
4.346887e-02
4.359297e-02
2.221343e-02
1.173595e-02
1.744081e-02
4.615248e-02
4.321443e-02
3.694627e-02
2.334383e-03
1.125285e-02
1.132343e-03
7.373895e-03
2.035887e-02
9.313758e-03
1.157187e-02
2.371901e-02
1.171383e-02
-3.772577e-02
-3.662965e-02
-4.198215e-02
-5.389914e-03
-1.358982e-02
-2.221865e-02
-1.648827e-02
-3.888474e-02
-4.421841e-02
1.991339e-02
-4.594471e-03
2.693174e-02
2.052686e-02
-9.725194e-03
2.998016e-02
6.146165e-02
3.196610e-02
6.426369e-02
-1.952174e-02
-2.082778e-02
-2.015088e-02
-1.964450e-02
-2.391989e-02
-2.714672e-02
1.462331e-02
1.116216e-02
4.336284e-03
5.478890e-02
5.460630e-02
4.945876e-02
2.804223e-02
1.353400e-02
2.352562e-02
3.066433e-02
1.746335e-02
2.836464e-02
5.082959e-02
3.166675e-02
6.191101e-02
2.191082e-02
-5.973903e-03
3.855654e-02
4.450092e-02
1.346315e-02
5.949735e-02
-4.200212e-02
-2.564733e-02
-6.094103e-02
-3.791684e-02
-1.502895e-02
-4.414632e-02
-6.966460e-02
-4.833275e-02
-6.366131e-02
-2.472010e-02
-3.153890e-02
-2.086356e-02
-1.611835e-02
-2.754330e-02
-1.361581e-02
-1.478587e-02
-1.840566e-02
-1.549291e-02
2.206494e-02
2.284816e-02
1.573513e-02
3.258403e-02
2.073873e-02
2.182149e-02
2.043256e-03
-1.023062e-02
2.827528e-04
-7.190300e-02
-7.894183e-02
-8.692824e-02
-3.189948e-02
-3.072236e-02
-4.716850e-02
-3.919714e-02
-4.393427e-02
-5.863683e-02
3.575351e-02
1.953280e-02
2.584523e-02
2.374548e-02
2.823837e-03
2.759738e-02
3.118709e-02
1.619467e-02
4.569645e-02
1.311943e-03
1.139272e-02
9.095795e-03
2.182742e-02
3.168882e-02
2.377541e-02
4.330407e-02
4.903713e-02
4.067799e-02
2.931365e-02
2.848183e-02
2.629310e-02
1.166006e-02
7.684436e-03
5.517886e-03
1.016598e-03
-2.927782e-04
-5.702559e-03
-2.028370e-02
-1.838631e-02
-1.827499e-02
6.563251e-03
4.502586e-03
-4.001934e-03
2.948698e-02
2.543643e-02
1.240023e-02
6.007216e-02
1.979265e-02
6.193901e-02
5.088179e-02
1.342538e-02
6.176000e-02
9.482390e-02
6.944600e-02
9.772693e-02
4.242427e-02
1.797210e-02
2.861709e-02
4.650716e-02
1.857857e-02
2.813515e-02
6.043826e-02
3.904828e-02
3.723026e-02
-5.471769e-02
-4.253028e-02
-4.948558e-02
-1.322720e-02
9.184046e-03
-4.145183e-03
-3.513801e-02
-1.553323e-02
-2.439325e-02
-1.727325e-02
-1.180667e-02
-1.539557e-02
1.882315e-03
4.035445e-03
-6.106021e-03
-1.902250e-02
-2.187907e-02
-3.511060e-02
3.057563e-03
3.114292e-03
-1.240959e-03
1.796238e-02
1.584210e-02
1.526245e-02
6.077502e-03
6.112345e-03
1.078632e-02
8.026275e-02
5.876682e-02
9.351701e-02
2.392163e-02
3.838581e-03
4.462913e-02
6.732538e-02
5.535707e-02
7.591374e-02
-2.164610e-02
-1.537578e-02
-3.286111e-02
-1.658617e-02
-1.389865e-02
-3.205001e-02
-4.271421e-02
-4.711153e-02
-4.816996e-02
8.962359e-02
7.970588e-02
9.011137e-02
6.201707e-02
4.063758e-02
5.118142e-02
6.272108e-02
4.770444e-02
5.325178e-02
-1.115959e-02
-5.763709e-03
-2.147273e-02
-1.355965e-03
-2.984543e-03
-1.131927e-02
-3.753719e-03
-4.845898e-03
-2.787590e-03
-6.468139e-04
-8.047875e-04
-9.922719e-04
-7.493967e-03
-6.401363e-03
-1.538947e-03
1.131131e-02
8.173078e-03
1.514439e-02
1.043983e-02
2.369786e-03
9.697687e-03
1.248408e-04
-1.534187e-02
3.544109e-04
2.588126e-02
7.974258e-03
1.677848e-02
7.561934e-02
7.448673e-02
6.987572e-02
6.790220e-02
6.676982e-02
6.000499e-02
1.146139e-01
1.213820e-01
1.037310e-01
-2.737254e-02
-4.638958e-02
-2.707366e-02
-3.377929e-02
-5.580904e-02
-2.979320e-02
-2.534573e-02
-4.113057e-02
-1.464996e-02
2.545716e-02
2.448834e-02
2.583905e-02
1.881778e-02
1.873193e-02
2.056438e-02
2.189730e-02
1.852277e-02
2.132412e-02
6.568758e-03
3.219357e-04
-8.554753e-03
6.721254e-03
1.161538e-02
5.485479e-03
-1.595163e-02
9.019651e-04
-6.487743e-03
-2.476893e-02
-9.536205e-03
-1.741200e-02
-2.466846e-02
-1.094040e-02
-1.357955e-02
-2.835700e-02
-1.892232e-02
-1.708551e-02
4.438198e-02
4.070030e-02
3.694061e-02
3.317762e-02
2.715111e-02
2.804974e-02
3.658277e-02
3.234955e-02
3.705308e-02
-1.725383e-02
-2.026371e-02
-3.176190e-02
1.664208e-02
1.420658e-02
-2.269643e-04
1.666280e-02
1.100535e-02
-3.163840e-04
-4.529240e-02
-4.206694e-02
-4.585265e-02
-2.348651e-02
-1.558694e-02
-2.576865e-02
-2.623022e-02
-1.892242e-02
-3.675540e-02
5.282130e-02
4.356713e-02
4.267198e-02
3.350895e-02
2.255603e-02
2.427287e-02
4.439077e-02
4.181270e-02
4.261231e-02
5.968883e-02
4.712281e-02
4.723105e-02
5.827492e-02
4.331064e-02
5.038732e-02
7.289296e-02
6.399865e-02
6.810327e-02
2.074372e-02
2.907771e-03
7.148495e-03
1.882479e-02
2.270546e-03
3.112395e-03
1.262638e-02
-2.156467e-03
-9.877858e-04
-4.266976e-02
-5.205932e-02
-4.541637e-02
-2.466671e-02
-2.459412e-02
-1.902609e-02
-1.199796e-02
-8.695928e-03
-6.159936e-03
2.677373e-02
2.095545e-02
2.815024e-02
2.519814e-02
2.328674e-02
3.614758e-02
4.707615e-02
5.001483e-02
5.814580e-02
-5.925514e-02
-5.304800e-02
-6.895696e-02
-3.123664e-02
-1.801227e-02
-3.493113e-02
-4.842918e-02
-3.682756e-02
-4.400123e-02
-2.284512e-02
-1.606697e-02
-2.862013e-02
-2.246585e-03
4.758514e-03
-5.317355e-03
5.182535e-03
1.536945e-02
4.807106e-03
-3.133979e-02
-3.088164e-02
-3.607546e-02
-3.509686e-02
-2.422797e-02
-2.741048e-02
-4.639265e-02
-3.632546e-02
-4.059015e-02
-2.304245e-02
-3.081757e-02
-3.196788e-02
-2.418332e-02
-3.002225e-02
-3.325795e-02
-3.465116e-02
-4.045324e-02
-4.184174e-02
4.827694e-02
4.846748e-02
5.072550e-02
3.318395e-02
3.576000e-02
3.794428e-02
8.986512e-03
1.349685e-02
1.514614e-02
-1.380936e-02
-1.955234e-02
-6.173516e-03
-2.711765e-02
-2.485302e-02
-7.786936e-03
-1.481058e-02
-1.306121e-02
-1.213033e-02
-2.920293e-02
-3.249651e-02
-4.048720e-02
-1.224941e-02
-8.672984e-03
-1.342206e-02
-2.646563e-02
-2.351899e-02
-2.539117e-02
-2.369561e-02
-1.570718e-02
-2.860136e-02
-1.139110e-02
1.876180e-04
-3.455483e-03
-2.285454e-02
-1.499609e-02
-1.152241e-02
-1.454151e-02
-5.900392e-03
-8.682868e-03
-9.164972e-03
-1.904951e-03
-7.190761e-03
-1.612450e-02
-1.374722e-02
-1.795848e-02
-9.354854e-03
-1.712395e-02
-2.871344e-02
-2.472074e-02
-2.359398e-02
-3.559520e-02
-4.402494e-02
-3.787287e-02
-4.712038e-02
1.798108e-02
1.442308e-02
2.154830e-02
-6.727621e-03
-9.291419e-03
-5.726434e-04
1.834364e-02
2.222908e-02
2.370777e-02
9.535851e-02
1.057296e-01
1.064025e-01
6.820472e-02
7.507939e-02
7.690889e-02
8.225477e-02
9.565516e-02
9.184524e-02
-2.530748e-03
-1.598528e-02
9.449444e-03
-9.027826e-03
-1.968702e-02
-6.634375e-03
-2.541934e-02
-3.952777e-02
-3.082925e-02
3.357856e-03
1.802217e-03
1.840056e-03
3.361617e-03
1.683102e-03
4.415543e-03
-7.983701e-03
-1.341799e-02
-1.180359e-02
-2.550135e-02
-2.013558e-02
-1.098576e-02
-4.106335e-02
-3.270909e-02
-2.839794e-02
-5.309055e-02
-4.903987e-02
-5.038986e-02
-1.250963e-02
-1.568584e-02
-2.530177e-02
-8.848841e-03
-1.339051e-02
-2.452863e-02
-1.202609e-02
-1.844362e-02
-2.576329e-02
-1.666311e-02
-1.912973e-02
-3.536553e-03
-3.038764e-02
-2.398417e-02
-8.484360e-03
-2.577957e-02
-1.900589e-02
-6.577136e-03
-1.639600e-02
-8.800440e-03
-2.339920e-02
-2.311222e-02
-1.577555e-02
-3.038267e-02
-6.148371e-02
-5.740220e-02
-6.512122e-02
1.333215e-02
1.201375e-02
5.277813e-03
1.431250e-02
1.127256e-02
1.027843e-02
-1.039383e-03
-2.156523e-04
5.484849e-03
-2.201765e-02
-3.122348e-02
-3.839134e-02
-2.451988e-02
-2.826069e-02
-3.599257e-02
-3.266684e-02
-3.113871e-02
-3.269087e-02
2.094255e-02
3.357650e-02
1.939257e-02
5.859086e-03
1.541251e-02
7.281875e-03
-2.160093e-02
-1.640174e-02
-2.390501e-02
1.465548e-01
1.459801e-01
1.570629e-01
1.229204e-01
1.103705e-01
1.336973e-01
1.502205e-01
1.444505e-01
1.653930e-01
-1.102485e-02
-5.239771e-03
-1.226839e-02
8.443832e-06
1.033394e-02
3.413865e-03
-8.831349e-03
1.101126e-03
-5.802081e-04
-2.916284e-02
-5.022118e-02
-2.848965e-02
-4.520769e-02
-6.460367e-02
-4.471052e-02
-4.390192e-02
-5.248454e-02
-3.829699e-02
-4.574212e-02
-4.852213e-02
-5.651565e-02
-2.904539e-02
-2.097660e-02
-2.013553e-02
-4.496638e-02
-3.285357e-02
-3.961305e-02
-2.610097e-02
-5.079822e-02
-3.960625e-02
-1.041882e-02
-3.119974e-02
-2.199415e-02
1.376498e-02
1.098035e-04
6.208157e-03
-3.538524e-02
-3.735784e-02
-3.481059e-02
-1.030621e-02
-5.807274e-03
-7.668005e-03
-1.842010e-02
-5.223262e-03
-4.268461e-03
-2.663385e-02
-2.579340e-02
-4.315489e-02
-1.749293e-02
-1.780307e-02
-3.271668e-02
-3.133159e-02
-3.374514e-02
-4.507574e-02
-9.291529e-03
-1.571037e-02
-6.205549e-03
-1.026179e-02
-1.153648e-02
-7.595277e-04
1.429712e-02
1.217606e-02
1.267858e-02
4.155526e-02
2.666983e-02
2.501471e-02
2.529075e-03
-1.752021e-02
-9.011917e-03
-8.630776e-03
-2.869887e-02
-2.378024e-02
-2.824449e-02
-8.403574e-03
-3.064365e-02
-5.421076e-03
1.867076e-02
-5.959040e-04
-4.006186e-03
2.130477e-02
2.657250e-03
-3.883476e-03
-1.107054e-02
-2.333376e-03
-2.634768e-02
-3.647595e-02
-2.521373e-02
-1.327880e-02
-2.033846e-02
-1.707055e-02
-2.420355e-02
-2.573486e-02
-2.021080e-02
-1.040186e-02
-8.508420e-03
-5.866726e-03
1.290469e-02
7.134237e-03
5.179575e-03
-1.730654e-02
-2.539211e-02
-2.197928e-02
-2.824818e-02
-3.236051e-02
-2.972002e-02
-3.090222e-02
-3.338840e-02
-3.451938e-02
-4.842655e-02
-4.962442e-02
-4.443125e-02
-3.085295e-02
-2.955063e-02
-2.929475e-02
-3.589029e-02
-2.840597e-02
-2.514311e-02
3.881553e-02
4.354541e-02
3.828530e-02
1.668269e-02
1.168993e-02
3.149316e-03
3.872881e-02
3.919502e-02
2.518601e-02
6.412592e-03
1.383941e-03
-6.446753e-03
1.633385e-02
1.572726e-02
7.495578e-03
1.588159e-02
2.327413e-02
1.499845e-02
-1.139374e-02
-1.493146e-02
-9.722613e-03
2.301742e-03
2.805937e-03
1.089998e-02
2.074486e-02
2.518031e-02
3.002441e-02
6.914933e-03
-1.328236e-02
-1.106872e-02
1.321393e-02
7.027730e-03
4.691547e-03
5.113732e-03
9.534939e-03
1.741608e-02
-1.031443e-01
-8.737285e-02
-9.507951e-02
-7.169084e-02
-6.034411e-02
-6.653801e-02
-8.155476e-02
-7.811389e-02
-7.829063e-02
2.679847e-02
2.219479e-02
1.573150e-02
2.509597e-02
2.244635e-02
2.988526e-02
5.264610e-02
5.900414e-02
6.861905e-02
-1.968584e-02
-4.297916e-02
-1.712237e-02
-4.350054e-02
-6.619561e-02
-4.479751e-02
-3.695854e-02
-5.660706e-02
-3.740085e-02
-4.086308e-02
-2.106210e-02
-3.631891e-02
-2.972772e-02
-1.318434e-02
-2.447268e-02
-3.484368e-02
-2.809102e-02
-3.407488e-02
2.456244e-02
2.425236e-02
2.622356e-02
1.608651e-03
1.514883e-03
3.956044e-03
2.954283e-02
3.807480e-02
3.553373e-02
2.534984e-02
1.342000e-02
2.079528e-02
3.204204e-02
2.141638e-02
3.556529e-02
4.766111e-02
4.529637e-02
5.525619e-02
-3.936591e-02
-3.549233e-02
-5.421600e-02
-2.781450e-02
-1.717126e-02
-2.585184e-02
-3.611134e-02
-2.661256e-02
-2.651668e-02
-6.194349e-03
2.383692e-03
-1.007094e-02
2.252795e-02
2.032193e-02
1.047381e-02
2.313661e-02
2.212228e-02
1.257566e-02
-3.753647e-02
-2.916153e-02
-3.221495e-02
-2.207142e-02
-1.199434e-02
-1.263429e-02
-1.042156e-02
-7.206591e-03
-8.986748e-03
5.334132e-03
-6.284844e-03
1.678842e-02
1.417559e-02
6.635253e-04
2.339429e-02
4.556421e-02
3.462343e-02
4.987110e-02
4.527975e-04
-1.595428e-02
4.024538e-03
1.560757e-02
1.856737e-03
1.713657e-02
3.482653e-02
1.971672e-02
2.500744e-02
-1.983735e-02
1.729842e-03
2.429332e-03
-4.395906e-02
-2.815636e-02
-2.472885e-02
-6.287578e-02
-5.290170e-02
-4.393888e-02
-7.819112e-02
-6.613153e-02
-6.470125e-02
-4.275136e-02
-2.440392e-02
-1.840676e-02
-3.745845e-02
-1.860601e-02
-1.856416e-02
3.734205e-02
4.494068e-02
4.258773e-02
4.060806e-02
4.519386e-02
4.409524e-02
3.039161e-02
3.400613e-02
2.570734e-02
-8.065390e-03
-2.778553e-02
-8.971691e-03
-8.390351e-03
-2.684105e-02
-4.603854e-03
1.630777e-02
-9.410894e-03
1.214574e-02
5.580668e-02
2.955714e-02
5.745163e-02
3.766582e-02
4.927121e-03
3.806582e-02
6.464322e-02
4.183963e-02
6.145880e-02
3.543471e-03
-9.739866e-03
6.534889e-03
-7.120964e-03
-1.802661e-02
2.904402e-03
-5.154147e-03
-1.448822e-02
9.552138e-03
7.180903e-02
6.502253e-02
7.820449e-02
4.713948e-02
3.681998e-02
5.201155e-02
5.327541e-02
4.789184e-02
6.133194e-02
-2.725859e-02
-4.185412e-02
-3.437123e-02
-4.294573e-03
-1.526130e-02
-8.819764e-03
6.134190e-03
-3.623453e-03
-3.823819e-03
-2.138926e-02
-2.150532e-02
-1.830860e-02
-1.724354e-02
-1.280223e-02
-1.298776e-02
-2.711077e-02
-2.836014e-02
-2.587136e-02
-2.170880e-02
-2.262333e-02
-3.895086e-02
-3.162917e-02
-3.265299e-02
-4.464848e-02
-6.236904e-02
-5.613832e-02
-5.882143e-02
-1.141696e-02
-7.646617e-03
-1.113344e-03
-1.814509e-02
-2.410754e-02
-2.140431e-02
-1.407895e-02
-2.790249e-02
-2.176332e-02
3.896511e-02
1.949819e-02
4.623060e-02
3.335576e-02
2.055126e-02
4.656360e-02
2.404433e-02
2.541761e-02
4.297512e-02
1.577645e-02
1.272326e-02
1.729477e-02
-1.019231e-02
-1.027431e-02
-1.941040e-04
-2.967681e-02
-2.839464e-02
-2.322789e-02
-2.958074e-02
-2.129823e-02
-3.152452e-02
-2.867676e-02
-1.543913e-02
-2.070346e-02
-2.733685e-02
-8.853760e-03
-9.310022e-03
-1.218360e-02
-5.600650e-04
-1.004663e-02
-1.394271e-02
-1.882358e-03
-1.363874e-02
-2.844367e-02
-3.073322e-02
-3.987968e-02
7.234137e-02
4.626666e-02
6.487350e-02
6.207294e-02
3.280557e-02
5.233438e-02
7.190712e-02
5.431409e-02
6.433629e-02
7.991531e-03
1.009670e-02
7.116173e-03
1.307625e-02
2.378279e-02
2.102373e-02
3.646973e-02
5.013318e-02
4.223267e-02
-3.046233e-02
-2.871974e-02
-2.797625e-02
-1.169390e-02
-9.692364e-03
-1.106567e-02
-1.271882e-02
-1.730119e-02
-2.331204e-02
-1.277261e-02
1.600996e-03
-1.669154e-02
-1.289718e-02
6.853701e-04
-1.862646e-02
-3.176966e-02
-2.168638e-02
-3.495368e-02
1.755823e-02
1.203993e-02
1.355616e-02
5.245707e-03
-9.059663e-03
-3.275149e-03
-1.626889e-02
-2.998724e-02
-1.943485e-02
-3.570316e-02
-3.901186e-02
-4.178967e-02
-5.363945e-02
-5.145594e-02
-5.065659e-02
-5.272869e-02
-5.349440e-02
-5.163799e-02
-2.927994e-02
-2.794227e-02
-3.306992e-02
-1.644088e-02
-1.077168e-02
-2.262617e-02
-2.026851e-02
-2.066099e-02
-3.160892e-02
2.310078e-02
2.026835e-02
1.470284e-02
2.681008e-02
2.413139e-02
1.886351e-02
2.839227e-02
3.245094e-02
2.198629e-02
2.579826e-02
3.464386e-02
4.125046e-02
6.513335e-03
1.572088e-02
1.755146e-02
1.719952e-02
3.269985e-02
2.635582e-02
-3.311032e-02
-2.757446e-02
-3.606130e-02
-2.852171e-02
-2.248320e-02
-2.951882e-02
-3.639641e-02
-3.167181e-02
-3.658510e-02
1.860803e-02
1.978432e-02
6.064442e-03
2.092235e-03
3.010890e-03
2.683644e-03
1.217018e-02
1.631046e-02
2.255469e-02
-7.211385e-03
-1.843278e-03
-1.218679e-02
-1.620000e-02
-2.050071e-02
-2.122786e-02
-2.599361e-02
-3.543695e-02
-3.335347e-02
2.846234e-02
3.158259e-02
2.613225e-02
2.597537e-02
3.318680e-02
2.179799e-02
4.024154e-02
5.005269e-02
2.814302e-02
-2.183361e-03
-1.410115e-02
-2.142821e-02
-5.786747e-03
-1.642793e-02
-1.635497e-02
6.552512e-03
3.104109e-03
1.885703e-03
-4.369820e-02
-2.914946e-02
-3.391251e-02
-4.218069e-02
-2.359122e-02
-2.527611e-02
-3.050192e-02
-1.748856e-02
-1.946943e-02
-2.798016e-02
-1.633096e-02
-4.044260e-02
-3.030581e-02
-1.880128e-02
-3.935880e-02
-5.603710e-02
-4.892505e-02
-5.951358e-02
4.221994e-02
2.696088e-02
4.425557e-02
2.182361e-02
1.041566e-02
3.315536e-02
2.406344e-02
1.905425e-02
3.892167e-02
1.557153e-03
2.977873e-03
-1.342893e-03
2.131550e-03
-8.491011e-05
7.013790e-05
-2.265278e-03
-5.318274e-07
-1.724631e-04
-1.715206e-02
-1.882353e-02
-1.316420e-02
-8.201512e-03
-1.709402e-02
-1.943078e-02
-1.830762e-02
-2.424509e-02
-3.294272e-02
-6.071025e-02
-4.250414e-02
-5.185474e-02
-3.560451e-02
-2.054578e-02
-3.548635e-02
-4.719086e-02
-3.583243e-02
-4.555779e-02
-2.214020e-03
1.325177e-03
-8.135984e-03
2.227595e-02
2.909992e-02
2.543037e-02
8.373457e-03
1.795469e-02
2.041924e-02
2.866554e-03
2.626838e-03
-1.326218e-03
9.792142e-03
1.122310e-02
5.383731e-03
-6.203585e-03
-5.297621e-03
-7.071013e-03
-1.044357e-02
-8.396233e-03
4.027440e-03
2.276388e-04
-1.043993e-02
2.522247e-03
1.534546e-02
9.687005e-03
1.584276e-02
-4.316549e-02
-3.096025e-02
-3.366281e-02
-3.480773e-02
-1.836903e-02
-2.213024e-02
-6.148930e-02
-5.155186e-02
-4.931763e-02
3.039764e-03
-1.244871e-02
4.400936e-03
-1.385211e-03
-2.153056e-02
-7.155081e-03
-1.204081e-02
-2.878437e-02
-1.916939e-02
4.122597e-02
2.905380e-02
4.245930e-02
2.735318e-02
9.908070e-03
2.120453e-02
2.918035e-02
2.031884e-02
2.559444e-02
1.981303e-01
1.614314e-01
2.001376e-01
1.736102e-01
1.212785e-01
1.786780e-01
1.998095e-01
1.533779e-01
1.993555e-01
-2.159148e-06
9.291395e-03
-3.081507e-03
1.151955e-02
2.042799e-02
6.976251e-03
1.169816e-02
1.360603e-02
8.174068e-03
6.357246e-03
-1.339709e-03
-8.638131e-03
1.182234e-03
-2.951805e-03
-7.216450e-03
1.043618e-02
1.462076e-02
1.195699e-02
7.550595e-03
1.949294e-03
9.731832e-03
-6.017072e-03
-6.990341e-03
1.394167e-04
-1.205430e-02
-1.104308e-02
-9.673008e-03
-2.926503e-02
-1.689295e-02
-2.344007e-02
-1.612600e-02
-1.320762e-02
-1.604013e-02
2.102363e-02
2.705686e-02
1.608340e-02
-1.449669e-03
7.516637e-03
1.325885e-02
1.818478e-02
1.705102e-02
2.447958e-02
6.595221e-03
7.168781e-05
5.162574e-03
4.052490e-02
4.419594e-02
5.603585e-02
3.492581e-02
3.626576e-02
4.678054e-02
4.080045e-02
4.121145e-02
4.951104e-02
-6.380661e-03
-9.184326e-04
-9.681352e-03
6.307334e-03
1.267982e-02
-3.772162e-06
-3.316265e-03
1.394014e-04
-9.508272e-03
-1.617590e-02
-7.199259e-03
-6.384877e-03
-1.254076e-02
-1.143565e-02
-3.462508e-03
-1.527907e-02
-2.083565e-02
-7.552288e-03
1.755278e-02
3.976309e-03
1.033705e-02
2.204041e-02
6.408447e-03
9.974643e-03
4.133202e-02
2.959410e-02
2.788085e-02
-2.089253e-02
-1.773315e-02
-2.376922e-02
-1.747201e-02
-2.026452e-02
-3.316145e-02
-1.928913e-02
-1.694439e-02
-2.404326e-02
-4.563605e-02
-3.517988e-02
-3.637420e-02
-6.059665e-02
-4.259595e-02
-4.926714e-02
-5.565003e-02
-4.095593e-02
-4.916621e-02
2.238188e-02
1.087796e-03
2.080633e-02
4.830369e-02
2.365092e-02
5.043516e-02
6.025662e-02
4.127686e-02
7.019766e-02
5.541234e-02
4.594417e-02
3.089873e-02
5.072060e-02
4.028956e-02
4.062908e-02
4.466516e-02
4.069105e-02
4.236459e-02
8.916308e-03
5.475754e-03
8.820347e-03
9.316174e-03
1.802586e-03
6.743994e-03
1.890960e-02
1.227633e-02
7.283160e-03
2.438306e-02
1.464004e-02
2.396025e-02
3.668285e-03
-7.092149e-03
6.155126e-03
-3.974364e-03
-5.871836e-03
6.401828e-03
2.272733e-02
1.167238e-02
2.255740e-02
2.522478e-02
1.033835e-02
2.728954e-02
4.914901e-02
4.201111e-02
5.394284e-02
2.649480e-02
3.779167e-03
1.895069e-02
-2.875523e-03
-1.637678e-02
1.775162e-03
-5.337338e-03
-4.096707e-03
1.013199e-02
-3.457341e-02
-2.620603e-02
-4.314493e-02
-2.907877e-02
-1.286243e-02
-3.044743e-02
-3.503514e-02
-2.078070e-02
-3.442063e-02
-6.901041e-02
-4.957346e-02
-6.004260e-02
-4.076954e-02
-1.662311e-02
-3.001576e-02
-7.085665e-02
-5.047165e-02
-6.833682e-02
-4.978480e-03
-2.698442e-03
-3.505112e-03
-4.419034e-03
-4.287925e-03
-5.705164e-03
-4.332605e-03
-6.856348e-03
-9.311410e-03
-1.957025e-02
-1.739861e-02
-2.511770e-02
-1.230006e-02
-1.455280e-02
-2.858371e-02
-3.476414e-02
-3.498451e-02
-4.582197e-02
6.051589e-02
5.170878e-02
4.589241e-02
5.891382e-02
5.319305e-02
6.117593e-02
5.891536e-02
5.234005e-02
5.904948e-02
2.794462e-02
2.729342e-02
2.120436e-02
2.467945e-02
1.938644e-02
2.043339e-02
4.830841e-02
3.712178e-02
3.558921e-02
4.081764e-02
3.495706e-02
3.123065e-02
2.200244e-02
1.396982e-02
1.453406e-02
4.921419e-02
4.856796e-02
4.285412e-02
4.310517e-02
2.017934e-02
4.286168e-02
3.323987e-02
6.679091e-03
2.909308e-02
2.935237e-02
4.062550e-03
2.128416e-02
8.757192e-04
-1.652390e-03
-6.598655e-03
-5.851529e-03
-1.009144e-02
-1.205023e-02
-1.463285e-02
-2.642560e-02
-2.710901e-02
2.433338e-02
1.595402e-02
1.911636e-02
1.186129e-02
-7.640800e-03
2.841044e-03
3.364344e-02
1.594389e-02
2.320574e-02
-3.302293e-02
-2.838344e-02
-3.549735e-02
-3.306285e-02
-2.884423e-02
-4.036387e-02
-2.909562e-02
-2.677661e-02
-4.434774e-02
3.478628e-02
3.181728e-02
2.541063e-02
4.986397e-02
4.796855e-02
4.122875e-02
3.884671e-02
2.866726e-02
1.729091e-02
4.324785e-02
3.724611e-02
4.050963e-02
4.290510e-02
2.704769e-02
3.600648e-02
4.888606e-02
2.735138e-02
3.884786e-02
2.849481e-02
2.988944e-02
3.996544e-02
-8.575762e-03
-3.778854e-03
9.682685e-03
-2.555773e-02
-2.354534e-02
-1.394637e-02
-2.537251e-02
-2.165905e-02
-3.492981e-02
-6.762349e-03
6.086833e-04
-1.771778e-02
-3.065274e-02
-3.010537e-02
-4.630056e-02
2.220154e-02
1.736318e-02
2.211170e-02
2.552541e-03
-7.319979e-04
6.842492e-03
-1.616956e-02
-2.239794e-02
-1.395522e-02
5.765075e-02
4.984629e-02
5.218161e-02
2.958145e-02
2.330272e-02
3.254491e-02
2.643573e-02
2.928787e-02
3.803184e-02
-1.299953e-02
-1.462649e-02
-2.121856e-02
-5.965355e-03
-8.854207e-03
-1.534990e-02
3.627973e-04
1.673630e-03
-5.646719e-03
-2.967511e-03
-6.871021e-03
2.066307e-03
7.221267e-03
8.482460e-03
2.681319e-02
1.300673e-02
2.018442e-02
3.713594e-02
5.972224e-04
-4.011682e-04
-4.970304e-03
2.241772e-04
6.953142e-04
-1.859566e-03
2.556164e-03
-9.747130e-04
-3.248453e-03
2.624644e-02
1.630446e-02
1.684254e-02
1.555346e-02
9.040531e-03
8.289347e-03
1.465628e-02
1.897036e-02
1.334052e-02
1.978455e-02
8.222757e-03
9.024904e-03
-8.709774e-03
-1.916467e-02
-3.539519e-03
-2.936936e-02
-4.702948e-02
-2.804687e-02
-5.701012e-03
-4.256605e-03
-7.057705e-03
2.018025e-02
2.255759e-02
2.346625e-02
1.795829e-02
2.332228e-02
2.499316e-02
4.869053e-02
4.639868e-02
4.968133e-02
5.176308e-02
5.433337e-02
5.599463e-02
6.055867e-02
6.510915e-02
5.343526e-02
-3.159996e-02
-3.990782e-02
-1.947918e-02
-3.351911e-02
-3.599891e-02
-2.536279e-02
-5.663563e-02
-5.975164e-02
-5.332228e-02
-4.472812e-02
-4.171458e-02
-5.172829e-02
-1.666263e-02
-1.488282e-02
-2.735398e-02
-2.614725e-02
-2.107670e-02
-2.686335e-02
-3.294770e-02
-3.964917e-02
-3.864931e-02
-4.662890e-03
-7.186956e-03
-3.751094e-04
-5.049192e-03
-6.973753e-03
-1.249067e-03
-2.927065e-02
-3.531728e-02
-2.447813e-02
-1.702036e-02
-2.557453e-02
-1.556607e-02
-2.976790e-02
-3.457059e-02
-2.909513e-02
-4.193674e-02
-2.231366e-02
-4.883378e-02
-3.189100e-02
-1.667323e-02
-4.162989e-02
-1.920999e-02
-1.029112e-02
-3.041624e-02
-4.704934e-02
-5.096450e-02
-5.106096e-02
-3.096485e-02
-2.649559e-02
-2.997159e-02
-2.887665e-02
-2.664619e-02
-3.321337e-02
4.553095e-02
3.588325e-02
3.883775e-02
3.181207e-02
1.809270e-02
2.266484e-02
2.688224e-02
2.082701e-02
2.599041e-02
-1.199680e-02
2.653929e-03
-9.891910e-03
-2.701681e-02
-1.762464e-02
-3.296068e-02
-4.997095e-02
-5.633364e-02
-6.199813e-02
2.397168e-02
2.645058e-02
2.656442e-02
8.667141e-03
8.494837e-03
1.095166e-02
8.202483e-03
1.455626e-02
1.325403e-02
-2.529932e-02
-7.409480e-03
-1.868350e-02
-2.147932e-02
-3.736249e-03
-1.645899e-02
-3.788827e-02
-2.582993e-02
-3.664396e-02
-2.464982e-02
-2.783100e-03
-1.593189e-02
-8.274557e-03
8.960033e-03
-1.218995e-02
-1.353106e-02
-7.375282e-03
-2.934639e-02
-1.865540e-02
-5.939921e-03
-2.126471e-02
1.722806e-02
2.918991e-02
9.659926e-03
2.820065e-02
3.103290e-02
1.552678e-02
-1.813744e-02
-1.424542e-02
-1.816732e-03
-2.023363e-02
-1.597423e-02
-8.971370e-03
2.209291e-03
3.599797e-03
4.067088e-03
-1.696618e-02
-1.515812e-02
-7.119298e-03
-4.656216e-03
-4.172717e-03
1.006565e-02
-2.874653e-04
-5.810681e-03
1.271636e-02
-3.369294e-02
-1.748725e-02
-2.367476e-02
-2.440956e-02
-1.157225e-02
-2.092742e-02
-2.008700e-02
-1.015446e-02
-2.260804e-02
4.812000e-02
3.937908e-02
4.103631e-02
3.406193e-02
1.715406e-02
1.881963e-02
1.183262e-02
-3.619283e-03
-2.044660e-03
-1.163053e-02
-1.583621e-02
-2.194509e-02
5.278407e-03
7.537953e-03
-6.798511e-04
-6.364288e-04
2.528315e-03
-3.370714e-03
2.408646e-02
2.304029e-02
3.010167e-02
2.362210e-02
2.244101e-02
2.758677e-02
3.824820e-02
3.596393e-02
3.188703e-02
9.735759e-04
-4.910229e-03
1.067980e-03
-7.794371e-03
-1.274317e-02
-1.068856e-02
1.856969e-02
1.499427e-02
1.059984e-02
-7.163007e-02
-5.564547e-02
-6.348903e-02
-4.995546e-02
-3.722243e-02
-4.510876e-02
-4.588867e-02
-4.610803e-02
-5.375876e-02
4.968285e-02
3.412102e-02
4.303880e-02
4.658137e-02
3.047561e-02
4.492349e-02
4.543605e-02
3.612576e-02
4.379538e-02
7.316017e-02
4.195224e-02
5.622990e-02
5.496032e-02
1.783534e-02
4.117883e-02
7.011311e-02
4.021557e-02
5.527902e-02
-2.636761e-02
-2.160110e-02
-3.050796e-02
-5.342238e-03
-5.075292e-04
-1.414465e-02
-1.224419e-02
-1.310539e-02
-2.739318e-02
-1.769146e-02
-1.104436e-02
-3.492435e-02
-3.582379e-02
-2.520284e-02
-3.805815e-02
-6.506500e-02
-6.123058e-02
-7.156819e-02
-1.633755e-02
-1.973130e-02
-1.218008e-02
-9.179027e-03
-1.801609e-02
-8.895879e-03
-5.391147e-03
-1.458714e-02
-2.173428e-03
-4.517854e-02
-4.225004e-02
-3.617053e-02
-2.344546e-02
-1.781020e-02
-1.093583e-02
-2.880750e-02
-2.174709e-02
-1.578788e-02
-4.485665e-02
-3.430015e-02
-2.656502e-02
-5.905874e-02
-5.893207e-02
-4.800617e-02
-3.998745e-02
-4.970454e-02
-3.522653e-02
1.330361e-02
1.994519e-02
1.074046e-02
-4.975728e-03
3.866666e-03
-4.676134e-03
-3.042800e-02
-2.407399e-02
-2.900261e-02
1.459973e-02
1.447695e-02
3.980892e-03
1.076430e-02
1.284034e-02
2.477925e-03
1.143094e-02
1.808177e-02
1.126793e-02
-2.741214e-02
-2.436155e-02
-2.339212e-02
-1.385277e-02
-6.898580e-03
-1.045661e-02
-7.446576e-03
-3.018454e-03
-1.109953e-02
-2.328236e-02
-1.962321e-02
-1.802758e-02
-4.032663e-02
-3.472752e-02
-2.918398e-02
-4.924657e-02
-4.661965e-02
-4.405845e-02
-4.811647e-02
-4.978972e-02
-6.039053e-02
-1.615286e-02
-2.078999e-02
-3.313769e-02
-7.697919e-03
-1.588584e-02
-2.163413e-02
1.889266e-02
2.107714e-02
2.867267e-03
1.298164e-02
1.930492e-02
8.265933e-03
-7.969209e-03
-1.657359e-03
-5.418380e-03
-7.591807e-02
-6.915082e-02
-7.763834e-02
-5.807213e-02
-4.621107e-02
-5.453580e-02
-5.915957e-02
-5.041231e-02
-5.585961e-02
8.834060e-02
7.738527e-02
9.041483e-02
6.418359e-02
5.369192e-02
7.418342e-02
1.068509e-01
1.111103e-01
1.257910e-01
-3.141274e-02
-7.457002e-03
-1.939438e-02
-2.247191e-02
-6.361602e-03
-2.339897e-02
-2.426656e-02
-2.182829e-02
-3.721026e-02
-2.203439e-02
-2.710625e-02
-1.857098e-02
-4.167121e-02
-4.924460e-02
-4.068955e-02
-3.407165e-02
-4.713076e-02
-3.827590e-02
7.493778e-02
7.727516e-02
7.491508e-02
2.230985e-02
1.250369e-02
1.429514e-02
1.747393e-02
8.558366e-03
6.898922e-03
-5.028936e-02
-5.744068e-02
-5.165439e-02
-3.981367e-02
-4.313884e-02
-4.020740e-02
-3.444166e-02
-3.364898e-02
-2.795311e-02
3.629293e-03
-6.008717e-03
-4.308295e-03
1.262964e-02
9.412748e-05
4.191377e-04
-5.148268e-03
-1.795560e-02
-1.659466e-02
6.776924e-03
-1.861807e-03
1.233063e-02
6.895396e-05
-1.544800e-02
7.300503e-04
-1.113441e-02
-3.214945e-02
-2.348158e-02
1.386201e-01
1.020413e-01
1.474210e-01
1.275338e-01
8.454352e-02
1.489147e-01
1.679611e-01
1.347071e-01
1.779594e-01
-1.528097e-02
-5.493253e-03
-3.038415e-03
-5.493066e-03
1.686334e-03
5.530207e-03
-2.085361e-02
-2.349847e-02
-2.461576e-02
4.781069e-03
1.087654e-02
1.104794e-02
-2.299113e-02
-2.140446e-02
-1.159854e-02
-2.442808e-02
-2.664498e-02
-1.649582e-02
-1.327235e-02
-2.167442e-02
-1.839803e-03
5.912324e-04
-2.683066e-02
-8.614835e-03
1.314568e-02
-2.356760e-03
1.478856e-02
-2.306618e-02
-3.097003e-02
-5.204907e-02
-4.822289e-03
-2.775762e-03
-1.813856e-02
-3.257971e-02
-2.601794e-02
-3.638092e-02
-1.757302e-02
-2.138703e-02
-1.908136e-02
-1.743511e-02
-2.082785e-02
-2.154003e-02
4.574535e-03
6.325148e-03
4.765353e-03
3.118506e-03
-7.637769e-04
1.227047e-02
2.007922e-02
7.021358e-03
1.731702e-02
5.475169e-02
4.401063e-02
4.456184e-02
-7.907322e-02
-6.982195e-02
-6.717301e-02
-6.715848e-02
-5.621186e-02
-5.096352e-02
-6.515720e-02
-5.621491e-02
-6.067574e-02
5.746755e-02
4.473765e-02
6.259810e-02
4.268382e-02
2.114965e-02
4.766620e-02
6.517165e-02
4.621733e-02
6.590659e-02
4.618516e-03
7.755463e-03
-1.320911e-02
-1.930074e-02
-2.061531e-02
-4.000020e-02
-4.606465e-02
-5.079326e-02
-6.826084e-02
-1.992712e-03
2.286239e-03
1.208636e-03
1.622829e-02
2.072015e-02
2.600391e-02
3.437072e-02
3.439886e-02
3.880039e-02
3.911210e-02
2.932380e-02
5.498502e-02
1.304237e-03
-1.600266e-02
1.273623e-02
-7.224072e-04
-6.457951e-03
1.043362e-02
4.969458e-03
-1.109333e-03
-8.827736e-03
-2.166394e-02
-2.131975e-02
-2.165245e-02
-2.358018e-02
-1.422917e-02
-2.037027e-02
-2.857473e-02
-1.973676e-02
-3.568667e-02
-8.922837e-04
7.289127e-04
-6.345383e-03
3.196921e-02
1.887467e-02
2.059327e-02
-1.745107e-02
-8.795368e-03
-1.055157e-02
6.255565e-03
1.039501e-03
9.424808e-03
3.629525e-02
2.156654e-02
3.295321e-02
1.637531e-02
-3.932520e-02
1.799229e-02
-9.526442e-03
-5.689285e-02
1.272313e-02
2.860713e-02
1.949741e-02
6.488241e-02
-7.141553e-02
-6.021807e-02
-6.489382e-02
-4.006423e-02
-3.464098e-02
-4.098269e-02
-2.418300e-02
-1.824120e-02
-2.697904e-02
1.083499e-01
4.250149e-02
8.767169e-02
6.221504e-02
-3.244964e-02
3.609608e-02
1.032128e-01
3.156879e-02
9.571768e-02
1.042185e-04
-6.812927e-03
-4.200187e-03
-1.381463e-02
-2.216267e-02
-1.290996e-02
2.046980e-03
-2.372787e-04
5.662395e-03
-3.170832e-02
-1.607535e-02
-2.389657e-02
-2.671543e-02
-1.185111e-02
-3.099427e-02
-4.988045e-02
-4.169229e-02
-6.307889e-02
-9.253757e-03
3.243459e-03
-1.272640e-02
2.739436e-02
3.907854e-02
1.385349e-02
3.083837e-02
3.609428e-02
2.057170e-02
-6.092868e-02
-4.984859e-02
-5.763965e-02
-4.799964e-02
-2.881357e-02
-3.950192e-02
-8.640654e-02
-6.901888e-02
-7.123595e-02
-1.141569e-02
8.906693e-03
2.258798e-03
-2.188331e-02
-1.642338e-02
-1.827528e-02
-1.494374e-02
-1.349757e-02
-1.321625e-02
3.915830e-02
3.643588e-02
4.267734e-02
3.417254e-02
2.468105e-02
2.259791e-02
1.632251e-02
5.817346e-03
3.178151e-04
-6.541270e-02
-6.544185e-02
-6.984469e-02
-6.809329e-02
-7.069621e-02
-7.644823e-02
-5.172902e-02
-6.011888e-02
-6.519557e-02
-1.433556e-02
-3.579237e-03
-9.392494e-03
1.878231e-03
-4.307028e-04
-7.204090e-04
-1.752982e-02
-3.181458e-02
-3.361221e-02
-4.539736e-02
-5.615040e-02
-4.947893e-02
-2.914928e-02
-3.606136e-02
-3.072255e-02
-4.068645e-03
-1.311721e-03
1.606471e-03
4.130938e-02
6.810071e-03
-2.539868e-03
1.900862e-02
-1.208387e-02
-1.011367e-02
1.215230e-02
-8.132078e-03
-5.664066e-04
-1.111842e-02
-8.226528e-03
-8.671205e-03
-3.124668e-02
-3.388395e-02
-2.702061e-02
-2.053382e-02
-2.701464e-02
-2.234047e-02
-2.178666e-02
-1.550492e-02
-1.093611e-02
-3.798409e-02
-3.039908e-02
-1.756034e-02
-3.580678e-02
-2.807301e-02
-2.088293e-02
1.497289e-02
2.422483e-02
3.108267e-02
-1.944410e-02
-7.999053e-03
3.497117e-03
-2.220218e-02
-7.573096e-03
1.539995e-03
-6.368026e-02
-6.241311e-02
-6.816702e-02
-1.235283e-02
-1.283632e-02
-2.818936e-02
-9.012154e-03
-7.288116e-03
-2.320361e-02
-4.286554e-02
-6.851979e-02
-5.804580e-02
-4.657167e-02
-7.847976e-02
-5.721030e-02
-1.364189e-02
-3.816452e-02
-2.138609e-02
7.459867e-02
5.542487e-02
5.688246e-02
4.976905e-02
3.261151e-02
3.655348e-02
4.558598e-02
4.412488e-02
4.670557e-02
-3.226699e-02
-1.431366e-02
-1.344675e-02
-1.850670e-02
1.728591e-03
-1.913570e-05
-2.340471e-02
-8.668447e-03
-1.013232e-02
-7.056005e-02
-4.841191e-02
-6.505406e-02
-6.203464e-02
-4.367205e-02
-5.388946e-02
-7.723431e-02
-6.262309e-02
-6.883251e-02
-3.265629e-02
-2.962464e-02
-2.993364e-02
1.769290e-02
1.795837e-02
1.563592e-02
5.236133e-02
4.908244e-02
4.631126e-02
-1.633430e-02
-3.258013e-02
-2.407949e-02
-1.384590e-02
-2.863046e-02
-1.210030e-02
-5.823636e-03
-6.330382e-03
6.088528e-03
3.582232e-02
1.423131e-02
4.781268e-02
-2.249192e-03
-3.390931e-02
2.606420e-02
1.796813e-02
-6.188773e-03
4.531718e-02
-2.845408e-02
-2.868600e-02
-3.534241e-02
1.921164e-02
1.773678e-02
1.890801e-02
5.611400e-03
-1.038836e-02
-2.866175e-03
-4.394974e-02
-7.077676e-02
-3.711453e-02
-3.182381e-02
-7.017344e-02
-3.163707e-02
3.993863e-03
-2.502398e-02
6.290186e-03
3.684421e-02
9.826060e-04
3.915400e-02
4.206309e-03
-4.381447e-02
8.664073e-03
5.235551e-02
1.963645e-02
6.378170e-02
7.840840e-02
6.079823e-02
7.212380e-02
3.832877e-02
4.868796e-04
3.419666e-02
3.413037e-02
-1.399727e-02
2.016439e-02
-6.929062e-03
-2.132922e-02
3.092269e-03
-1.792127e-02
-3.949976e-02
-6.817802e-03
-8.521309e-03
-1.890818e-02
9.623126e-03
-1.499867e-03
-1.051299e-02
1.763669e-02
-2.065121e-02
-3.951493e-02
-1.249605e-02
-2.643193e-02
-4.750687e-02
-2.977452e-02
1.969741e-03
3.389301e-03
-1.715139e-04
4.470822e-03
1.539154e-03
7.206069e-03
-9.187909e-03
-1.566250e-02
-3.688326e-03
-2.428932e-03
-9.306851e-03
-3.095303e-03
-5.733415e-02
-8.988611e-02
-6.254631e-02
-8.955147e-02
-1.204299e-01
-8.706609e-02
1.269841e-02
-3.529538e-03
7.516949e-03
-3.475715e-02
-5.626934e-02
-3.954064e-02
-3.001681e-02
-5.031860e-02
-3.696012e-02
-4.485285e-02
-3.451886e-02
-5.867199e-02
-2.714191e-02
-2.199901e-02
-4.724472e-02
-1.700747e-02
-1.527602e-02
-3.713537e-02
-8.282916e-02
-7.745835e-02
-9.066825e-02
-8.463527e-02
-7.453156e-02
-9.033400e-02
-6.980562e-02
-5.414921e-02
-6.619802e-02
1.463108e-01
9.435239e-02
1.621688e-01
1.068302e-01
4.036792e-02
1.103986e-01
1.690633e-01
1.299429e-01
1.594694e-01
-1.755724e-02
-9.389957e-03
-1.448254e-02
-2.531637e-02
-1.800330e-02
-3.253238e-02
-2.540636e-02
-2.079395e-02
-3.766201e-02
-3.310667e-02
-1.771731e-02
-2.864631e-02
-6.619039e-03
9.457021e-03
-8.904384e-03
-1.036125e-02
9.303553e-04
-1.197088e-02
3.048412e-02
1.671698e-02
1.876205e-02
1.058218e-02
-9.421880e-03
1.068566e-02
2.123772e-02
-4.764255e-06
1.501855e-02
-4.393049e-03
6.099630e-03
-4.029235e-03
-3.802659e-03
9.394492e-04
-5.498412e-03
1.005731e-02
1.017999e-02
7.091434e-03
1.412764e-01
1.469337e-01
1.506714e-01
1.086742e-01
8.913396e-02
1.278547e-01
9.540544e-02
6.875568e-02
1.209347e-01
-1.082162e-02
-1.633043e-02
-1.033996e-02
5.884335e-03
-9.783946e-03
1.100370e-04
1.802833e-02
2.488750e-03
1.748306e-02
-1.760977e-02
-1.151557e-02
-2.293501e-02
1.332414e-02
2.025869e-02
1.340656e-02
5.634733e-02
6.285363e-02
5.761167e-02
1.907407e-01
1.293040e-01
1.823720e-01
1.255750e-01
5.491362e-02
1.295203e-01
1.821969e-01
1.391824e-01
1.944364e-01
3.528167e-02
2.244942e-02
3.835938e-02
1.611530e-02
-1.145582e-02
2.604265e-03
2.858272e-02
-3.093560e-04
2.721708e-03
3.552493e-02
6.942341e-03
4.561120e-02
4.573449e-02
3.790198e-03
4.254749e-02
9.016050e-02
6.161504e-02
8.752935e-02
-4.832773e-02
-3.459875e-02
-3.844622e-02
-4.168814e-02
-2.508148e-02
-3.596859e-02
-2.785233e-02
-1.477450e-02
-2.486170e-02
1.410305e-03
-8.443872e-03
2.604178e-02
1.777564e-04
-6.444558e-03
3.188630e-02
-1.534796e-02
-8.092049e-03
1.766410e-02
1.147703e-02
5.927149e-03
2.238291e-02
-4.939687e-03
-3.930648e-02
-3.705713e-03
-3.333053e-02
-7.598019e-02
-3.247583e-02
-4.783642e-02
-2.544962e-02
-1.598483e-02
-3.260602e-02
-1.648998e-02
-1.639169e-02
-1.314441e-03
8.488452e-03
9.854343e-04
1.371642e-03
2.113656e-02
1.391919e-02
3.132926e-02
3.267335e-02
2.520452e-02
1.181945e-02
3.099674e-03
-4.360706e-03
8.046450e-04
-2.069960e-02
-1.366823e-03
1.083489e-02
-1.169416e-02
9.028860e-03
3.895567e-03
-8.323643e-03
4.347903e-03
-2.928019e-02
-2.177914e-02
-3.181554e-02
-3.364636e-03
2.132874e-03
-7.230105e-03
-9.107374e-03
-1.240144e-02
-1.828973e-02
3.331199e-02
1.386640e-02
2.739001e-02
5.332186e-02
3.602484e-02
3.898392e-02
7.697644e-02
7.444783e-02
6.012753e-02
1.873988e-02
1.759917e-02
1.517105e-02
-1.528486e-02
-1.157844e-02
-6.972582e-03
-3.162314e-02
-2.841358e-02
-2.161229e-02
6.941122e-03
6.156037e-03
4.663704e-03
5.229506e-03
3.335995e-03
1.928085e-03
-3.824586e-03
-4.755207e-03
6.725888e-04
-2.035774e-02
-3.157502e-02
-2.035077e-02
-1.448296e-02
-3.207457e-02
-1.805646e-02
-1.654191e-02
-2.677296e-02
-1.352064e-02
-8.161091e-03
-2.389023e-02
-1.415204e-02
-3.091312e-02
-5.024141e-02
-3.401737e-02
-1.258214e-02
-2.557131e-02
-1.620977e-02
2.916109e-02
4.296790e-02
3.811856e-02
2.501654e-02
3.205334e-02
2.263565e-02
2.215416e-02
3.253982e-02
1.812836e-02
1.639919e-02
2.628678e-02
1.654446e-02
1.701846e-02
1.571162e-02
1.050415e-02
1.913277e-02
1.558325e-02
7.077448e-03
9.156193e-03
1.411291e-02
1.818478e-02
1.496322e-02
1.694026e-02
2.790746e-02
-1.026237e-03
-7.102682e-03
-1.868021e-03
-1.337235e-02
-7.640162e-03
-8.146343e-03
-7.326748e-03
8.693543e-03
2.974294e-03
-2.893244e-02
-1.186633e-02
-1.722996e-02
-5.459714e-02
-5.233333e-02
-5.231626e-02
-3.289456e-02
-2.482005e-02
-2.670911e-02
-4.210161e-02
-3.365100e-02
-3.201758e-02
-1.757703e-03
7.574474e-03
-4.225287e-03
-4.860740e-03
-1.741845e-03
-1.324173e-02
-7.317648e-03
-7.654991e-03
-1.426457e-02
-9.004857e-02
-7.022262e-02
-8.832920e-02
-7.447239e-02
-4.977255e-02
-7.302421e-02
-8.097299e-02
-6.332615e-02
-8.455098e-02
-2.261057e-02
-2.011860e-02
-1.774208e-02
-3.470391e-02
-3.537710e-02
-2.943490e-02
-3.031723e-02
-3.241211e-02
-3.037020e-02
6.004651e-02
7.511628e-02
8.454283e-02
4.403134e-02
4.543906e-02
7.004510e-02
7.951990e-02
7.940514e-02
9.514700e-02
-1.006973e-02
-1.168052e-02
-5.903640e-03
-1.892356e-02
-2.153721e-02
-1.490420e-02
-2.770619e-02
-2.606504e-02
-2.262895e-02
5.297757e-02
4.627097e-02
4.939073e-02
2.635909e-02
2.509608e-02
3.042972e-02
4.882808e-02
4.695578e-02
4.388848e-02
-2.298213e-02
-4.702377e-02
-3.056550e-02
-3.003057e-02
-5.321262e-02
-3.014357e-02
-2.506843e-02
-3.808576e-02
-2.400591e-02
-3.592533e-02
-4.162975e-02
-4.645615e-02
-3.026306e-02
-3.028318e-02
-4.069453e-02
-4.643383e-02
-4.512035e-02
-5.535451e-02
1.076227e-01
9.916912e-02
1.137550e-01
8.661289e-02
7.553282e-02
9.831267e-02
1.211323e-01
1.263662e-01
1.330888e-01
-1.812290e-02
-3.684872e-03
-1.488132e-02
-5.967314e-03
6.443592e-03
6.933906e-03
4.271769e-03
9.683282e-03
1.806146e-02
4.039889e-02
3.711899e-02
3.752769e-02
4.683784e-02
4.061427e-02
4.377392e-02
5.369960e-02
4.613371e-02
4.254823e-02
4.024780e-02
2.737854e-02
3.770622e-02
5.030163e-02
3.829952e-02
4.565514e-02
5.996350e-02
4.649629e-02
5.140361e-02
6.231918e-02
4.461453e-02
7.169563e-02
2.596623e-02
1.416491e-02
4.780580e-02
3.745225e-02
3.278930e-02
4.873914e-02
-1.819715e-02
-5.620260e-03
-1.885377e-03
8.920693e-05
1.077552e-02
1.131054e-02
9.188108e-03
1.488443e-02
1.630341e-02
4.182016e-02
3.814531e-02
3.891184e-02
4.129048e-02
2.844655e-02
3.290133e-02
5.732728e-02
4.932176e-02
4.067020e-02
1.722725e-02
5.573192e-03
1.077795e-02
4.092766e-03
-1.079828e-02
-2.546161e-03
-2.797341e-03
-1.239663e-02
-5.844559e-03
-2.092250e-02
-1.202768e-02
-1.462117e-02
-2.392927e-03
1.048852e-02
3.316044e-04
-1.459402e-02
-1.868923e-03
-7.089694e-03
3.552311e-02
1.908535e-02
2.271259e-02
3.214894e-02
1.703074e-02
2.135938e-02
3.774054e-02
2.684108e-02
2.295733e-02
4.478079e-02
3.719974e-02
4.641329e-02
2.164928e-02
5.318413e-03
2.771137e-02
4.283845e-02
3.072929e-02
4.540079e-02
2.027656e-02
-8.410772e-03
3.278256e-03
1.013075e-02
-1.043260e-02
2.697860e-03
3.782048e-02
3.136403e-02
3.443932e-02
9.548645e-03
-4.316196e-03
4.853049e-03
4.954919e-03
-7.581532e-03
7.302841e-03
8.730935e-03
2.542086e-03
1.391751e-02
1.648788e-02
4.652551e-04
4.194927e-03
3.586946e-03
-5.677117e-03
1.265344e-03
4.557900e-03
-8.079514e-04
-1.866630e-03
-4.403349e-02
-3.464347e-02
-3.546992e-02
-6.436032e-02
-5.219781e-02
-4.689136e-02
-8.875480e-02
-7.639253e-02
-7.024055e-02
2.659180e-05
7.679992e-03
4.601693e-03
-3.924355e-03
1.707653e-03
9.904662e-04
-1.828279e-02
-2.273737e-02
-2.746947e-02
-1.894874e-02
-3.136847e-02
-8.048759e-03
-1.357786e-02
-1.591652e-02
-1.060291e-03
7.336777e-03
4.794728e-03
-4.139760e-03
4.167433e-03
4.928353e-03
-8.351000e-03
1.989912e-02
1.409222e-02
5.455817e-03
1.964359e-02
2.354230e-02
2.249280e-02
-1.284833e-02
-3.673089e-03
9.218249e-03
-8.520355e-03
-1.524416e-03
1.692924e-02
5.198656e-03
1.084075e-02
2.875078e-02
2.734332e-02
2.273471e-02
2.198627e-02
1.888167e-02
1.471018e-02
1.633953e-02
2.051036e-02
1.958776e-02
2.070051e-02
7.986589e-02
6.854504e-02
7.650479e-02
5.051259e-02
2.506002e-02
5.747358e-02
6.973514e-02
4.919785e-02
7.713772e-02
2.395348e-02
1.065937e-02
1.824236e-02
3.185054e-02
2.153478e-02
3.582897e-02
4.464217e-02
3.772080e-02
4.739412e-02
2.529705e-02
1.559204e-02
8.828341e-03
2.997693e-03
-3.971446e-04
-1.645655e-02
-3.223108e-02
-4.006215e-02
-5.868831e-02
-1.566109e-02
-1.886209e-02
-1.480073e-02
-1.663020e-02
-1.068448e-02
-2.617815e-03
7.409352e-03
2.117164e-02
2.104677e-02
-1.621514e-02
-1.178604e-02
-2.317476e-02
5.069868e-03
2.495378e-03
-1.116083e-02
-1.101623e-02
-2.524653e-02
-3.632677e-02
1.860628e-02
1.339705e-02
1.544289e-02
1.070969e-02
9.185555e-03
1.109027e-02
2.472363e-03
5.527180e-03
7.165535e-03
-1.330028e-02
-1.228506e-02
-1.728012e-02
1.047348e-02
9.307966e-03
2.406347e-03
2.781056e-02
2.373775e-02
2.184280e-02
-9.409396e-03
2.729592e-03
7.890665e-03
-1.245149e-02
-6.080674e-03
-3.215939e-03
1.440030e-02
9.123102e-03
7.669556e-03
-2.557638e-02
-3.372972e-02
-2.903254e-02
-1.593738e-02
-1.872684e-02
-6.661444e-03
-2.625286e-02
-2.460450e-02
-1.034871e-02
-4.351601e-02
-4.294470e-02
-4.433711e-02
-3.865895e-02
-3.801026e-02
-3.690040e-02
-3.027064e-02
-2.945207e-02
-2.374260e-02
7.302416e-02
6.542574e-02
7.592128e-02
3.225202e-02
1.920703e-02
3.400056e-02
6.198811e-02
5.993890e-02
6.735951e-02
-2.055325e-02
-2.547375e-02
-1.986480e-02
-3.816566e-03
-9.435768e-03
-6.735022e-03
1.300192e-02
1.277271e-02
1.177412e-02
-2.627681e-02
-2.756699e-02
-3.339598e-02
-4.145701e-02
-3.867466e-02
-4.017631e-02
-6.277560e-02
-5.345681e-02
-4.709847e-02
2.320932e-03
7.076542e-03
-2.358411e-03
-2.244701e-02
-1.549372e-02
-2.359723e-02
-4.349879e-02
-3.854766e-02
-4.651975e-02
3.416033e-02
1.423337e-02
3.074829e-02
2.149201e-02
1.444243e-02
2.337599e-02
-1.500835e-02
-1.575782e-02
-2.104621e-03
5.739991e-03
-5.839523e-03
-5.430273e-03
1.073819e-02
-4.330090e-04
-3.962838e-03
1.132256e-02
6.135460e-03
1.365958e-03
1.373851e-02
1.077749e-02
1.326433e-02
1.161864e-02
4.341352e-03
1.222982e-02
2.288625e-02
2.045281e-02
2.177569e-02
-1.733485e-02
-8.186181e-03
-2.115828e-02
-5.691686e-02
-4.916434e-02
-5.926454e-02
-6.616036e-02
-6.173518e-02
-7.628079e-02
2.903055e-02
3.014065e-02
3.143943e-02
7.187763e-03
1.016358e-02
2.118496e-02
-8.500578e-03
-1.490662e-03
1.439227e-02
-6.070027e-03
-8.765534e-03
-9.350871e-03
-1.834849e-02
-1.751594e-02
-1.435652e-02
-3.052492e-02
-2.356949e-02
-1.835040e-02
-2.377760e-02
-3.167393e-02
-2.134689e-02
-2.486468e-02
-2.327025e-02
-1.921943e-02
-4.242368e-02
-4.137458e-02
-5.176765e-02
-3.618321e-02
-4.542953e-02
-4.056816e-02
-4.270898e-02
-4.002003e-02
-2.669465e-02
-6.210520e-02
-5.518213e-02
-4.130753e-02
4.060150e-02
3.472023e-02
3.465140e-02
3.134109e-02
1.404030e-02
2.544893e-02
-1.339521e-03
-1.289773e-02
1.008659e-03
-1.126307e-02
-2.383306e-02
-1.092533e-03
6.191536e-03
-5.923050e-03
8.759014e-03
1.658162e-02
1.688780e-02
2.647912e-02
5.074807e-03
-2.932067e-03
-2.411962e-02
4.907030e-03
-1.432409e-03
-1.885033e-02
4.040348e-03
3.765575e-04
-1.447656e-02
-2.386121e-02
-2.603320e-02
-3.659976e-02
-2.228349e-02
-2.271039e-02
-4.148749e-02
-4.564383e-02
-4.858313e-02
-6.062347e-02
-7.216064e-02
-6.667965e-02
-6.703583e-02
-6.656319e-02
-6.024731e-02
-6.133221e-02
-7.030760e-02
-5.947429e-02
-6.586614e-02
6.193121e-02
6.922872e-02
7.534641e-02
2.921554e-02
3.036920e-02
4.475112e-02
4.175560e-02
3.575392e-02
3.347503e-02
-9.456107e-03
3.909717e-03
5.595614e-03
-3.852747e-02
-2.625078e-02
-2.485371e-02
-6.143869e-02
-5.144219e-02
-5.360264e-02
1.484558e-01
1.139810e-01
1.548444e-01
8.457736e-02
2.767861e-02
8.846204e-02
1.485979e-01
9.773212e-02
1.453017e-01
8.657208e-02
4.475507e-02
9.506146e-02
6.092037e-02
2.394036e-02
6.957760e-02
6.071009e-02
4.167838e-02
6.244645e-02
5.938619e-02
3.656336e-02
4.887088e-02
4.312964e-02
1.782542e-02
4.062087e-02
5.884513e-02
4.171645e-02
6.040213e-02
1.202200e-01
1.136351e-01
1.166499e-01
9.427026e-02
8.035811e-02
9.269543e-02
9.955534e-02
8.778556e-02
1.019518e-01
1.373828e-02
3.692851e-03
4.289763e-03
-4.734233e-03
-1.731652e-02
-1.019998e-02
-1.746807e-02
-3.641832e-02
-2.811177e-02
2.926654e-02
1.877439e-02
2.059193e-02
3.009962e-02
2.745449e-02
3.133386e-02
2.405287e-02
2.164391e-02
1.966783e-02
-1.540702e-02
-2.425858e-02
-2.063106e-02
-5.117242e-03
-1.145513e-02
-1.699329e-02
-2.569350e-02
-3.659028e-02
-4.391012e-02
-2.437003e-02
-3.452064e-02
-4.966952e-02
-3.519443e-02
-5.227414e-02
-5.867910e-02
-2.305864e-02
-4.018198e-02
-4.138935e-02
-7.847238e-04
-3.009547e-03
8.834928e-04
-2.852747e-02
-3.182616e-02
-1.623659e-02
-3.518808e-02
-4.067257e-02
-2.787583e-02
-6.744761e-02
-5.300981e-02
-5.741211e-02
-5.012218e-02
-3.193288e-02
-5.132605e-02
-6.901457e-02
-6.624476e-02
-8.992638e-02
5.484149e-02
4.366224e-02
5.706178e-02
1.266360e-02
-6.598793e-03
1.793533e-02
1.093595e-02
-8.216097e-03
1.014085e-02
-2.943907e-02
-3.735651e-02
-2.844352e-02
-2.733312e-02
-2.763408e-02
-2.353379e-02
-4.524955e-02
-4.730293e-02
-4.514551e-02
-8.539080e-03
-2.400723e-02
-1.370254e-03
-1.272760e-02
-2.643199e-02
-8.579987e-03
-2.140405e-04
-5.416489e-03
-3.251423e-03
-3.847120e-02
-5.474922e-02
-4.108652e-02
-2.592541e-02
-3.918717e-02
-3.038328e-02
-1.166101e-02
-2.321179e-02
-2.627685e-02
-2.485505e-02
4.553167e-03
1.823330e-03
-3.296840e-02
-1.186210e-02
-1.306044e-02
-4.756237e-02
-3.831103e-02
-4.609845e-02
2.263624e-03
-2.945413e-02
2.693705e-03
2.392999e-02
1.483212e-02
2.649534e-02
9.653375e-03
1.043140e-02
1.402141e-02
-6.145515e-02
-4.931313e-02
-5.741852e-02
-3.200474e-02
-2.079367e-02
-2.132453e-02
-2.009548e-02
-1.350093e-02
-1.174426e-02
6.487734e-02
3.723030e-02
6.517664e-02
2.855025e-02
-2.185445e-03
3.691609e-02
7.479886e-02
5.447679e-02
7.589898e-02
3.430772e-02
2.692498e-02
2.744358e-02
1.750746e-02
6.687774e-04
1.698421e-02
1.741583e-02
-4.949246e-04
2.256419e-02
7.541628e-02
3.932353e-02
7.202876e-02
6.257422e-02
3.073671e-02
6.520901e-02
9.972575e-02
9.084269e-02
9.860674e-02
-4.114082e-02
-4.712051e-02
-4.918790e-02
-1.032362e-02
-2.442335e-02
-2.883432e-02
2.388226e-02
1.376509e-02
5.885962e-03
-2.272192e-02
-3.583211e-02
-3.129303e-02
-3.953458e-02
-5.054592e-02
-4.850861e-02
-3.059395e-02
-3.810277e-02
-3.621218e-02
-1.962234e-02
-1.886584e-02
-2.643712e-02
-2.767194e-02
-3.329059e-02
-3.709974e-02
-2.778708e-02
-3.391865e-02
-3.577450e-02
3.430053e-03
6.462228e-03
1.769863e-02
-2.029245e-02
-1.322742e-02
-5.455221e-03
5.783828e-03
9.969725e-03
1.350165e-02
5.231498e-02
3.353671e-02
4.236346e-02
4.320564e-02
2.519967e-02
3.961645e-02
4.258585e-02
3.381838e-02
3.962090e-02
1.691418e-02
-1.296080e-02
-2.531567e-03
1.480717e-03
-9.363851e-03
-6.271220e-03
-3.237833e-02
-3.669549e-02
-3.513879e-02
-5.144559e-02
-5.862838e-02
-8.172555e-02
-3.602784e-02
-3.930864e-02
-6.451542e-02
-4.723013e-02
-4.852139e-02
-7.153795e-02
-1.482325e-02
-2.990945e-02
-1.373465e-02
7.062596e-03
-8.266872e-03
3.182889e-03
1.692026e-02
2.243638e-03
1.124329e-02
7.069000e-03
-4.378688e-03
1.546139e-02
-6.115140e-03
-1.288775e-02
-1.137164e-05
-3.611128e-02
-4.231355e-02
-3.965167e-02
-1.235507e-02
-1.138821e-02
-2.014680e-02
-3.478914e-02
-4.287302e-02
-5.139459e-02
-6.609806e-02
-6.872971e-02
-7.831769e-02
6.297715e-02
4.885831e-02
4.894900e-02
6.271675e-02
4.399461e-02
4.503540e-02
6.091492e-02
4.833856e-02
4.234271e-02
-6.483325e-02
-7.384153e-02
-6.446697e-02
-1.707849e-02
-2.314164e-02
-2.203282e-02
-6.852359e-03
-1.114780e-02
-2.092410e-02
3.380441e-02
2.924247e-02
2.793204e-02
3.435552e-02
3.193482e-02
3.100109e-02
7.078211e-02
7.705037e-02
7.163345e-02
-4.599616e-02
-5.874733e-02
-4.792500e-02
-2.951726e-02
-3.843010e-02
-3.425273e-02
-1.157921e-02
-2.240067e-02
-2.064154e-02
6.621035e-02
6.188098e-02
5.879368e-02
5.235786e-02
4.665301e-02
4.791199e-02
5.520835e-02
4.405537e-02
4.259160e-02
-6.448132e-03
-1.946990e-02
-1.089733e-02
-1.414169e-02
-1.634466e-02
-1.484871e-02
-4.112756e-02
-4.364156e-02
-3.889569e-02
1.332197e-02
2.260360e-02
2.263841e-02
-1.060314e-02
-2.587005e-03
-1.119323e-02
-2.295525e-02
-1.624187e-02
-3.677735e-02
7.527788e-02
4.635788e-02
7.161248e-02
4.432084e-02
1.804122e-02
3.971998e-02
3.429673e-02
1.666784e-02
1.622892e-02
-3.708056e-02
-1.364601e-02
-2.691128e-02
-9.374714e-03
1.651933e-02
-1.771641e-03
-3.060016e-03
1.579055e-02
3.747109e-04
4.463779e-02
3.529101e-02
1.433794e-02
4.884326e-02
2.524617e-02
1.649859e-02
5.278303e-02
1.188439e-02
1.286590e-02
4.690666e-02
2.821337e-02
5.053300e-02
2.462230e-02
9.056836e-03
4.036311e-02
3.608337e-02
3.519212e-02
5.916663e-02
-5.723604e-02
-5.860276e-02
-6.526134e-02
-4.292723e-02
-3.723651e-02
-3.968683e-02
-4.772185e-02
-4.133640e-02
-4.322386e-02
-9.953054e-03
9.292641e-03
-1.190037e-03
8.265867e-03
2.512062e-02
1.563979e-02
3.230210e-02
4.385978e-02
2.939166e-02
-3.603876e-03
-3.370474e-02
-1.071385e-02
7.978855e-04
-3.115961e-02
-1.003415e-02
2.961992e-02
4.490096e-03
1.253406e-02
-2.114434e-02
-8.873920e-03
-1.215053e-02
1.921778e-02
4.173904e-02
2.595399e-02
3.021464e-02
5.041249e-02
2.816750e-02
1.957974e-02
1.302302e-02
2.046566e-02
5.531511e-03
2.100929e-03
2.192944e-02
2.637641e-02
2.831853e-02
4.178048e-02
-1.583349e-02
-6.641777e-03
-1.315590e-02
-1.943635e-02
-7.197347e-03
-1.611432e-02
-4.661082e-02
-4.118957e-02
-5.229620e-02
9.164329e-02
4.823258e-02
8.046022e-02
3.310750e-02
-8.613693e-03
3.124664e-02
6.187285e-02
3.876752e-02
6.528327e-02
-3.111213e-02
-4.532667e-02
-4.738514e-02
-4.603563e-02
-5.251341e-02
-5.069876e-02
-5.110728e-02
-5.937850e-02
-5.491174e-02
3.098967e-03
-1.309547e-02
5.597172e-03
2.506107e-02
1.975055e-02
1.596306e-02
2.262893e-02
2.636082e-02
1.210031e-02
1.257741e-02
-2.032128e-03
-1.683123e-02
2.839709e-02
3.396142e-03
-4.865015e-03
4.852369e-02
2.925937e-02
2.436151e-02
9.388528e-02
4.763075e-02
9.229390e-02
3.715859e-02
-1.448624e-02
3.453983e-02
9.124165e-02
5.627106e-02
8.372834e-02
-5.166168e-02
-4.416103e-02
-5.411981e-02
-5.145222e-02
-3.304397e-02
-4.839466e-02
-4.512921e-02
-2.761547e-02
-4.350225e-02
-4.618380e-02
-5.386183e-02
-6.591873e-02
-2.958451e-02
-3.169512e-02
-4.654471e-02
-4.422286e-02
-4.701971e-02
-6.150813e-02
-3.520406e-02
-2.960303e-02
-3.609161e-02
-4.042171e-02
-3.221893e-02
-3.494800e-02
-4.503476e-02
-3.652345e-02
-3.733502e-02
3.949996e-02
1.367326e-02
2.977753e-02
2.327613e-02
1.575507e-02
2.806688e-02
1.864696e-02
1.853545e-02
1.400496e-02
3.797260e-02
2.354409e-02
6.277833e-02
2.106528e-02
1.523406e-02
3.978074e-02
4.018068e-02
4.536139e-02
5.396932e-02
2.431402e-02
2.642675e-03
2.134566e-02
7.271677e-03
-1.970622e-02
1.852571e-03
3.874563e-03
-3.061316e-03
3.295901e-03
3.114949e-02
1.614417e-02
1.053845e-02
2.597916e-02
1.541057e-02
8.542691e-03
3.747556e-02
3.793416e-02
2.701871e-02
-3.743152e-02
-2.968296e-02
-3.358279e-02
-4.284846e-02
-3.534312e-02
-2.870830e-02
-4.916959e-02
-3.684125e-02
-2.829266e-02
2.686593e-02
1.398928e-02
2.460718e-02
1.124735e-03
-1.711193e-02
8.282510e-03
-5.917533e-03
-1.587942e-02
7.602189e-03
-5.592826e-02
-4.965933e-02
-4.715178e-02
-6.112730e-02
-5.087216e-02
-5.471849e-02
-7.984668e-02
-6.284372e-02
-6.923117e-02
5.700280e-02
4.814072e-02
6.893853e-02
2.423824e-02
-3.180504e-03
2.930626e-02
5.828973e-02
2.800401e-02
5.579532e-02
1.860481e-02
1.294847e-02
-3.104446e-03
4.085333e-03
2.802911e-03
-1.452547e-02
2.593383e-02
2.141179e-02
8.697445e-03
-3.875145e-02
-5.328911e-02
-4.954868e-02
-2.757655e-02
-3.585940e-02
-3.343347e-02
-1.516053e-02
-1.996559e-02
-1.789708e-02
3.332352e-03
1.460249e-02
7.612382e-03
1.110941e-02
2.644913e-02
7.549700e-03
-3.018781e-02
-2.801866e-02
-4.678042e-02
1.684315e-02
1.758523e-03
9.124087e-03
-4.895629e-03
-1.682446e-02
-8.451172e-03
-2.373954e-02
-3.271766e-02
-2.084797e-02
2.476285e-02
2.426421e-02
1.815904e-02
3.642220e-02
3.938508e-02
3.417318e-02
8.735769e-03
1.037052e-02
1.346869e-02
-4.397067e-02
-4.611700e-02
-4.389988e-02
-7.327443e-02
-7.315641e-02
-7.230775e-02
-7.638302e-02
-7.303528e-02
-7.777546e-02
4.292516e-02
4.269603e-02
4.384360e-02
3.766535e-02
3.727108e-02
3.797705e-02
2.705489e-02
2.824817e-02
2.694918e-02
-5.534405e-02
-3.281040e-02
-4.756238e-02
-3.965903e-02
-2.733192e-02
-4.191567e-02
-5.672478e-02
-5.066044e-02
-6.250619e-02
-4.927586e-02
-3.689622e-02
-4.294508e-02
-5.649145e-02
-3.503675e-02
-4.441287e-02
-8.319689e-02
-6.405202e-02
-6.847571e-02
6.041028e-02
5.278779e-02
5.432464e-02
3.307230e-02
2.337444e-02
3.242880e-02
2.537911e-02
1.944920e-02
2.899667e-02
-2.496538e-02
-3.789835e-02
-2.292774e-02
-3.266749e-03
-1.484346e-02
-4.108408e-03
-5.112353e-03
-1.258460e-02
-1.230125e-02
-7.276252e-03
1.549909e-03
1.333922e-02
4.204115e-03
1.107637e-02
1.890611e-02
1.732481e-02
2.905642e-02
2.946351e-02
-2.048551e-03
-6.568975e-03
3.886994e-03
5.629747e-03
4.584235e-04
1.238621e-02
3.361991e-02
3.016646e-02
3.995507e-02
2.355641e-02
2.230315e-02
1.102078e-02
3.480079e-02
2.974876e-02
1.546190e-02
1.462394e-02
9.024173e-03
-5.384061e-03
3.333551e-02
2.471057e-02
3.079224e-02
3.682654e-02
1.873787e-02
2.630882e-02
3.706605e-02
1.901381e-02
2.615311e-02
1.042689e-01
8.379275e-02
1.261340e-01
1.168011e-01
9.447196e-02
1.317294e-01
1.110779e-01
1.017438e-01
1.314252e-01
-4.005803e-02
-4.154222e-02
-3.585548e-02
-2.180149e-02
-2.920324e-02
-3.236748e-02
-1.405016e-02
-1.450005e-02
-2.094387e-02
-2.829782e-02
-1.945342e-02
-3.013321e-02
-4.036772e-02
-2.783421e-02
-3.478927e-02
-4.334965e-02
-3.848097e-02
-4.140076e-02
-5.482703e-02
-3.383146e-02
-5.302037e-02
-3.370607e-02
-1.753457e-02
-4.026277e-02
-3.582175e-02
-3.235765e-02
-5.478461e-02
8.375361e-02
6.521296e-02
7.372990e-02
7.157199e-02
4.115671e-02
6.601381e-02
1.161423e-01
9.674774e-02
1.131582e-01
-7.151438e-02
-6.643955e-02
-6.139142e-02
-3.839029e-02
-3.500003e-02
-3.196922e-02
-3.219510e-02
-2.850540e-02
-2.649540e-02
-3.361209e-03
-1.428086e-02
-3.019622e-03
-6.649732e-03
-1.111722e-02
5.281213e-03
2.063532e-03
1.112384e-02
2.483341e-02
1.849963e-02
1.143471e-02
1.145377e-02
-2.884206e-03
-1.457815e-02
-2.183883e-03
1.078566e-02
-5.171251e-04
1.184482e-02
4.931403e-02
5.469373e-02
5.090177e-02
2.941527e-02
3.309566e-02
3.190549e-02
3.756939e-02
4.181832e-02
3.703983e-02
-2.084885e-02
-1.015263e-02
-1.994517e-02
-3.315755e-02
-2.197940e-02
-3.657454e-02
-3.162177e-02
-1.918904e-02
-3.761189e-02
-2.735200e-02
-4.436314e-02
-4.677069e-02
-1.364407e-02
-2.488775e-02
-2.298987e-02
-2.476081e-02
-2.802953e-02
-2.814845e-02
-3.781701e-02
-3.407239e-02
-2.455895e-02
5.184139e-03
3.235619e-03
-9.574952e-04
1.900668e-02
1.659955e-02
6.598334e-03
4.393058e-02
4.750035e-02
5.957549e-02
2.836737e-02
3.491665e-02
4.532908e-02
2.436432e-02
3.356154e-02
3.667934e-02
-9.848651e-03
-1.644249e-02
-9.014201e-03
2.131349e-02
7.206512e-03
3.824742e-03
2.731916e-02
1.240272e-02
2.209173e-03
-2.584381e-02
-2.245723e-02
-3.742005e-02
-2.401743e-02
-1.577865e-02
-3.563448e-02
-3.905269e-02
-3.062727e-02
-4.769617e-02
5.040252e-03
-3.977611e-03
-7.809810e-03
4.185914e-02
3.632681e-02
3.113814e-02
3.851805e-02
3.782013e-02
3.487917e-02
-3.034441e-02
-3.910546e-02
-2.714133e-02
-1.246348e-02
-1.520294e-02
-2.745350e-03
-1.832191e-02
-1.818730e-02
-1.044573e-02
3.550956e-02
3.876482e-02
2.972653e-02
1.344513e-02
2.074915e-02
6.651685e-03
-1.909081e-02
-6.829669e-03
-2.463639e-02
-4.552978e-02
-4.063994e-02
-5.759488e-02
-2.311401e-02
-2.354454e-02
-3.465092e-02
-2.547999e-02
-2.554477e-02
-2.633302e-02
-5.289996e-02
-3.311398e-02
-4.335836e-02
-3.017121e-02
-2.084462e-03
-1.724487e-02
-1.741068e-02
1.182894e-02
-6.385608e-03
5.396379e-02
4.800505e-02
4.376034e-02
2.091817e-02
1.296872e-02
1.579380e-02
2.366009e-02
2.158217e-02
2.481705e-02
5.528662e-02
5.045541e-02
6.402153e-02
3.721994e-02
3.554677e-02
4.236055e-02
2.296662e-02
2.540318e-02
1.969513e-02
-4.733429e-02
-7.328417e-02
-6.633016e-02
-3.511538e-02
-6.050744e-02
-5.612693e-02
-1.875011e-02
-3.362051e-02
-3.132633e-02
-3.790269e-02
-2.658217e-02
-4.516134e-02
-3.250802e-02
-1.198601e-02
-2.638326e-02
-2.097789e-02
-3.906609e-03
-1.771092e-02
-7.979592e-03
-2.167565e-02
-9.981863e-03
4.749446e-03
-1.701981e-02
4.548716e-03
2.595326e-02
3.804882e-03
2.156268e-02
4.688401e-02
4.951847e-02
6.451967e-02
3.705139e-02
3.394624e-02
5.718518e-02
4.283270e-02
3.686103e-02
5.714864e-02
-7.198634e-03
-1.812477e-03
-7.893673e-03
5.989713e-03
1.351529e-02
3.954721e-06
3.733409e-02
4.615968e-02
2.843905e-02
-1.907267e-02
-2.902956e-02
-1.925011e-02
-1.512363e-02
-2.248167e-02
-1.779414e-02
-3.629100e-02
-4.016888e-02
-3.366120e-02
-9.070469e-03
-1.485740e-02
5.306138e-03
-2.068277e-02
-2.994131e-02
-1.246552e-02
-7.568856e-03
-1.979217e-02
-6.162435e-03
1.709998e-02
4.226408e-03
1.671445e-02
2.796628e-02
2.395462e-02
2.614824e-02
-6.037622e-03
5.093391e-03
9.778810e-04
2.335560e-02
3.016104e-02
2.703587e-02
7.899557e-03
1.618379e-02
8.858901e-03
-1.724726e-03
5.968363e-03
-5.390959e-03
-2.056316e-02
-1.487982e-02
-6.956475e-03
-1.146631e-02
-7.810376e-03
8.233566e-03
-6.011723e-03
-4.738008e-03
1.583578e-02
2.638405e-02
2.631908e-02
4.089526e-02
1.779951e-02
1.578122e-02
3.571024e-02
2.166708e-02
1.890281e-02
3.049908e-02
-1.659886e-02
-1.055288e-02
-6.874014e-03
1.285540e-03
1.140475e-02
1.480576e-02
3.295956e-02
4.185734e-02
4.658195e-02
-9.268127e-02
-7.607631e-02
-7.990227e-02
-6.479555e-02
-3.879306e-02
-4.681590e-02
-7.957488e-02
-6.192234e-02
-6.900642e-02
-2.102687e-02
