1.014536e-03
-1.693148e-03
3.628706e-04
2.358254e-03
3.953944e-04
-1.262463e-03
2.648221e-03
3.836697e-04
1.544712e-03
-8.107838e-03
-1.428001e-01
-5.162665e-02
-1.051025e-01
-2.681529e-01
-1.988607e-01
6.463297e-02
-6.378394e-02
-4.067260e-03
-3.922593e-02
-3.313822e-02
-1.274980e-01
-1.432268e-01
-1.263014e-01
-1.302345e-01
-1.331292e-01
-7.322945e-02
-1.388837e-02
-2.527399e-01
-2.768737e-01
-2.243488e-01
-2.723649e-01
-9.216205e-02
7.310710e-02
-2.905588e-01
7.733033e-02
1.909969e-01
-6.947099e-02
1.802990e-02
6.258928e-02
1.030360e-01
7.058390e-02
-3.777618e-02
2.006928e-01
1.331960e-01
-3.973448e-02
4.422754e-02
8.600742e-02
9.917848e-02
7.198317e-02
2.409736e-02
7.420518e-02
3.949390e-02
-7.174060e-02
-1.682988e-02
1.704995e-03
-6.377534e-04
1.334776e-03
1.588628e-03
5.587928e-04
1.015183e-04
-2.294617e-03
3.393411e-03
1.264865e-03
2.519423e-03
-3.812349e-02
5.956991e-02
-4.741051e-02
-1.786169e-01
-1.723219e-01
-5.508915e-02
-1.679649e-01
-1.521889e-01
1.854526e-03
-2.079263e-03
3.352633e-03
1.603122e-04
-1.024266e-03
2.199367e-04
1.925567e-03
-1.190788e-03
-1.953221e-04
7.012213e-02
6.008201e-02
-1.350193e-03
-8.597980e-02
-7.071555e-02
-1.231365e-01
-1.736609e-01
-1.945691e-01
-2.458939e-01
-5.986205e-02
-4.420941e-03
2.894206e-02
-8.086615e-02
-1.719128e-02
6.967714e-02
-1.679035e-01
-1.835077e-01
-6.268882e-02
-9.147268e-02
-9.103615e-02
-5.817677e-02
1.246116e-01
-2.702259e-02
-1.070189e-01
1.846372e-01
-3.382485e-02
-1.474016e-01
-1.579438e-01
-1.252149e-01
-1.028378e-01
-7.888671e-02
-5.002371e-02
-1.153789e-01
-7.297006e-02
-7.441533e-02
-8.321454e-02
-9.597825e-02
-7.247748e-02
-1.982480e-02
8.818281e-04
3.122812e-02
7.294054e-02
9.386691e-02
1.688407e-01
1.119901e-01
-2.030080e-03
-2.962442e-03
1.481809e-03
-2.051903e-03
3.225301e-04
-2.601334e-03
1.117929e-03
1.611581e-03
1.594013e-03
-7.959974e-02
1.442596e-01
1.493639e-01
-1.296214e-01
-6.689613e-02
-1.487850e-01
-1.888715e-01
-2.702605e-01
-2.361273e-01
-2.805900e-03
3.078310e-04
-3.280041e-04
8.797133e-04
5.405199e-04
-1.291909e-03
1.852731e-04
2.571544e-03
-1.533884e-03
1.137917e-02
-8.123497e-02
-2.346833e-02
-2.005622e-02
-6.305116e-02
3.968176e-02
3.240356e-04
-2.967877e-03
1.634860e-02
5.415343e-02
6.395011e-02
-3.176683e-02
7.162391e-02
6.041562e-02
-9.823879e-03
5.245952e-02
5.116901e-02
1.836079e-02
-1.681369e-01
-7.363541e-02
-3.504164e-02
8.239786e-02
3.509272e-02
-3.968225e-02
4.438349e-03
-4.663339e-03
-1.159035e-02
-6.859274e-02
-1.196453e-02
-1.293295e-02
-2.868790e-02
-3.925829e-02
-2.007343e-02
3.857790e-02
3.549800e-02
3.287513e-02
-5.473098e-02
-4.697636e-02
-1.677757e-02
-7.094043e-02
-5.663083e-02
-3.554655e-03
3.349930e-02
3.749793e-02
7.216264e-02
5.351086e-04
3.060830e-03
-3.027839e-04
-7.471531e-04
-1.703823e-03
-2.205165e-03
-1.612316e-03
1.952505e-03
-4.561949e-04
2.327527e-02
1.394673e-02
2.868610e-02
-4.089469e-02
-5.159612e-02
4.279767e-03
3.032289e-03
1.545172e-02
-3.717752e-02
-2.204077e-03
5.103019e-04
-1.434663e-03
-5.048600e-03
-4.934562e-03
-6.138382e-04
8.178853e-05
-3.120193e-03
1.475851e-03
2.482723e-02
4.382702e-02
2.735581e-02
-2.394864e-02
2.040602e-02
-4.696691e-03
-3.147266e-02
1.289449e-03
-2.767229e-02
4.089870e-02
1.552139e-02
2.537339e-02
2.272971e-03
-1.145617e-01
-3.493039e-03
5.000441e-02
3.923614e-02
5.065051e-02
-1.733813e-02
2.434452e-02
9.021415e-03
-4.209020e-02
-3.277352e-02
-1.047174e-02
4.874996e-02
2.639843e-02
2.627769e-02
-1.013033e-02
-3.506325e-03
-1.165383e-02
-4.848433e-02
-2.786495e-02
-4.391164e-02
7.258366e-03
1.786116e-02
1.403310e-02
-1.729714e-02
-1.235461e-02
-6.028365e-03
-5.970794e-02
-1.246442e-01
-6.431873e-04
5.052211e-02
4.696806e-03
1.699780e-02
-2.003969e-03
5.360505e-04
1.506958e-03
1.320380e-03
-1.430750e-03
2.104570e-03
1.252562e-03
-2.164818e-03
1.400426e-04
5.938534e-02
2.989421e-02
5.568422e-02
5.046751e-02
9.122474e-02
1.501871e-02
-9.722966e-03
3.602286e-02
4.235370e-02
1.669215e-04
-3.393465e-03
1.896595e-03
-1.843431e-03
-5.046376e-03
-2.189896e-03
-2.143163e-03
4.319475e-04
-4.110583e-04
-3.076389e-02
-1.408075e-02
-5.887735e-02
-9.206086e-03
1.909350e-02
-2.116483e-02
-2.720732e-02
2.544343e-02
2.275107e-02
-6.355729e-02
-2.480755e-02
-1.614206e-02
-4.035318e-02
-1.817693e-02
-6.062370e-02
-7.314184e-02
-4.453599e-02
-7.364944e-02
3.243281e-02
-1.793815e-02
2.320038e-02
1.347948e-02
-1.623657e-02
2.950330e-02
4.321781e-02
-1.880120e-02
7.090618e-03
-9.934634e-03
3.952276e-02
-4.907842e-02
-4.359369e-03
1.191680e-02
-6.415981e-02
3.487958e-02
5.625010e-02
-7.726423e-02
8.635235e-02
1.393856e-01
-6.236520e-02
7.204601e-02
1.317443e-01
-4.520181e-02
5.410517e-02
1.261372e-01
-3.690476e-02
-1.071488e-03
3.075470e-03
1.786599e-03
-1.897434e-03
-5.507615e-05
7.184522e-04
-2.876534e-03
1.037781e-03
1.169869e-03
2.620155e-02
8.272336e-02
1.481238e-02
5.827628e-02
6.215374e-02
4.096800e-02
-1.072265e-02
1.187734e-03
-1.453778e-02
3.547513e-03
2.909741e-05
6.099680e-04
-2.395774e-03
6.329088e-04
1.168505e-03
3.012276e-03
-2.854371e-03
1.883610e-04
-1.238144e-02
-1.499041e-02
5.687234e-02
3.336049e-03
-6.954047e-03
4.709782e-02
2.047732e-02
-2.158458e-02
3.210355e-02
1.446447e-01
1.464782e-01
-1.283255e-01
1.430932e-01
1.070680e-01
-1.157386e-01
5.789927e-02
5.483653e-02
-1.849709e-01
-1.225230e-02
3.818842e-02
-1.820839e-02
-1.020214e-02
1.792850e-02
-4.025640e-02
2.703099e-02
-2.073119e-02
-5.110636e-02
-7.143706e-03
1.003333e-03
-4.831362e-03
-4.119908e-03
-6.526355e-03
-5.790779e-03
-1.132993e-02
-1.713885e-03
4.719087e-03
6.809833e-02
1.043634e-01
-5.100673e-02
3.546852e-03
6.590143e-02
-5.367644e-03
-8.013933e-03
2.363873e-02
4.807759e-03
-2.898830e-03
-2.915052e-03
2.253247e-03
2.046648e-03
3.513420e-03
-2.085890e-03
8.504413e-04
2.869260e-03
-9.422838e-04
-8.339335e-02
-5.814847e-02
3.350214e-02
-9.809473e-04
1.744551e-02
5.158748e-02
-1.676922e-02
1.586344e-02
3.478129e-02
1.254551e-03
-2.045311e-03
1.531229e-03
1.357126e-03
-1.395154e-03
-1.027211e-04
9.965777e-04
-2.886360e-03
1.687495e-03
1.303655e-01
2.445912e-01
1.158461e-01
-5.819880e-04
8.889396e-02
4.590536e-02
-1.446661e-01
-9.958814e-02
-8.747984e-02
6.502115e-02
2.481712e-02
-1.300790e-02
1.247864e-02
-4.558999e-02
-7.744195e-02
6.165051e-03
-2.087866e-02
-7.776462e-02
1.625302e-01
1.332091e-01
4.124683e-02
8.908311e-02
-5.812813e-02
-4.198316e-02
-6.039324e-02
-1.666651e-01
-1.822377e-01
-8.297709e-02
1.427068e-02
-2.427562e-04
-2.207058e-01
7.851543e-02
1.984448e-01
-2.366775e-01
-1.857360e-03
8.358907e-02
1.095404e-01
1.854811e-01
7.592227e-02
1.631101e-02
1.249014e-01
2.590517e-02
-1.083692e-01
-1.285759e-02
-8.576414e-02
2.678949e-04
-7.832908e-04
1.868012e-03
-4.603040e-03
-2.607671e-03
4.591326e-04
-6.697170e-04
9.288211e-04
9.453083e-04
-6.004148e-02
-1.276207e-01
-1.242225e-01
7.919542e-03
5.225923e-02
-3.432188e-02
-1.201505e-02
7.804658e-02
2.839304e-02
2.394295e-03
-5.623407e-04
1.111523e-03
2.769501e-03
1.242394e-03
3.763838e-03
3.304312e-03
2.252029e-03
-1.307497e-03
1.061098e-02
-1.718364e-02
5.006631e-02
-1.332504e-01
-1.892160e-01
-7.894406e-02
-2.086337e-01
-2.626850e-01
-9.936936e-02
-5.703383e-03
1.337018e-01
9.423864e-02
-1.859027e-01
2.722141e-01
1.148258e-01
-1.955818e-01
1.186111e-01
2.423499e-02
-5.360143e-02
3.793573e-03
7.009374e-02
4.010290e-02
1.464843e-01
1.380451e-01
7.275580e-03
8.086487e-02
7.695962e-02
-1.999440e-03
-2.901539e-02
-1.912271e-02
-3.263381e-02
-7.124609e-02
-2.660720e-02
-5.080669e-02
-4.894892e-02
-3.140818e-02
-2.744481e-01
-3.446186e-01
-1.880783e-01
-1.537706e-02
2.133141e-01
9.212280e-02
1.805106e-01
3.205774e-01
2.327663e-01
2.755227e-03
-7.815040e-04
-2.500545e-03
-3.298779e-03
-3.246582e-04
3.352638e-03
4.071198e-04
-1.809884e-03
1.435827e-03
1.287243e-01
4.041380e-02
3.061838e-02
2.783627e-02
-1.675539e-01
-1.403720e-01
-1.749722e-01
-2.207448e-01
-1.588615e-01
1.536735e-03
-1.216669e-03
-9.920413e-04
1.260767e-03
-7.855556e-04
1.412776e-03
6.826702e-04
7.799408e-05
-2.006051e-03
-5.441247e-03
1.541209e-01
-9.242881e-02
4.093901e-02
6.836268e-02
4.602397e-02
7.648771e-02
-1.203031e-02
-2.626908e-03
-1.926081e-02
-1.446249e-01
1.201882e-01
-2.925133e-02
-8.562879e-02
3.399826e-02
-2.653060e-02
-4.194993e-02
-2.437159e-02
4.371535e-01
-1.388684e-01
2.569801e-02
-1.286730e-01
1.637438e-02
-2.929076e-01
9.163757e-02
-1.801865e-01
-1.482961e-01
1.738425e-02
-3.764377e-04
-5.603699e-02
1.428472e-01
2.668356e-01
2.252259e-01
-1.061083e-02
2.053029e-02
5.777149e-02
-4.033009e-02
-1.125773e-02
-1.257217e-01
2.195745e-02
1.275917e-01
-7.174497e-02
-9.487279e-02
3.730471e-02
1.410801e-02
-2.993129e-03
2.860925e-03
-8.680567e-04
5.568849e-03
-1.449588e-03
-1.905438e-04
2.489070e-04
-9.100945e-04
-8.145354e-04
-1.070791e-01
-3.744903e-02
-2.429365e-01
-7.133213e-02
7.271267e-02
-2.141725e-01
-1.640493e-01
-3.079900e-01
-1.063279e-01
3.834260e-03
2.133180e-03
-1.479848e-03
-2.717342e-03
1.310981e-03
3.434742e-04
1.072868e-03
1.980213e-03
-7.203179e-04
-9.369606e-02
-2.360719e-01
-8.320997e-02
1.884173e-02
-9.955639e-02
1.354385e-02
1.203634e-02
8.247773e-03
1.514815e-01
-1.525204e-01
-1.172804e-01
-1.006885e-01
-4.206216e-02
2.949921e-01
-1.405024e-01
-1.107764e-02
-1.447904e-01
-1.329158e-01
-2.523740e-02
1.625417e-02
1.503809e-01
8.578634e-02
-2.289975e-02
1.982938e-01
-8.536425e-02
-1.041284e-01
1.642485e-02
6.389226e-02
6.890217e-03
6.234554e-02
2.253667e-02
-2.632177e-02
8.609425e-02
5.395779e-02
6.964167e-02
1.850891e-02
-9.680438e-02
-5.116196e-02
-4.312364e-02
4.440157e-02
2.882628e-01
-1.008862e-01
-4.533442e-03
2.842681e-02
3.453716e-02
-1.547927e-04
1.125121e-03
-2.336139e-03
1.347299e-03
-3.111294e-03
1.861976e-03
1.660295e-03
3.343637e-04
9.883135e-05
1.155639e-01
1.410911e-01
1.142432e-01
2.872155e-02
-2.362175e-01
7.819036e-02
-3.058499e-02
-1.234329e-01
-3.928902e-02
9.449697e-05
-4.909093e-03
1.997813e-03
3.697923e-05
1.117233e-03
-3.271599e-03
-1.553171e-03
8.736576e-04
1.756227e-03
2.969637e-02
1.015429e-01
-1.472313e-02
8.364063e-02
1.160894e-01
4.638907e-03
-8.723777e-03
-6.220866e-05
-4.054593e-02
-3.560248e-02
-8.711340e-02
-4.540753e-02
-1.489149e-02
-9.537680e-02
-1.116214e-01
6.063580e-02
-4.949220e-02
-9.069752e-02
8.731954e-02
6.360683e-03
1.085900e-01
9.807707e-02
1.099163e-01
-1.308392e-01
1.118067e-01
2.474276e-02
-1.367904e-01
-5.649418e-02
-7.957880e-02
-1.243099e-01
4.102560e-02
-3.720341e-02
-9.319297e-02
7.909232e-02
5.224345e-02
1.208476e-02
-7.200926e-02
-1.558781e-01
-1.329222e-01
-4.759211e-02
-8.729988e-02
-4.251158e-02
-1.753175e-02
4.943386e-02
2.171720e-02
-1.694692e-04
-1.776157e-04
1.243359e-03
3.049445e-03
-1.377190e-04
8.060795e-04
4.715980e-03
-4.956295e-05
-4.404654e-03
-9.222424e-02
-7.801405e-02
-1.267073e-01
6.444929e-02
2.126392e-01
9.090595e-02
1.632562e-01
1.586974e-01
8.942103e-02
-3.893758e-03
-7.200567e-04
1.456398e-04
-3.303435e-04
-1.309659e-03
-4.840937e-04
-2.092227e-03
-1.855330e-03
-1.063809e-03
1.895487e-02
-2.048566e-02
-7.446320e-02
4.327828e-04
-2.026759e-02
-5.886878e-02
-4.157089e-03
3.584832e-02
7.309955e-02
-3.016889e-03
-8.120144e-02
-2.405144e-02
7.188701e-02
9.845229e-03
5.459616e-02
1.354474e-01
1.374888e-01
1.169895e-01
-7.191533e-02
3.192191e-03
6.708080e-03
1.154787e-03
3.277257e-02
1.001864e-01
4.618782e-03
5.459416e-03
-5.482167e-02
4.794221e-02
3.346071e-02
2.607548e-02
2.815550e-02
3.140280e-02
4.011483e-02
2.650940e-02
5.620161e-02
4.562027e-02
4.209238e-02
-3.421899e-02
-9.002877e-03
4.622886e-02
2.782396e-02
1.817686e-02
-2.700303e-02
-4.035250e-02
-3.268858e-02
1.585994e-05
-5.113856e-04
1.608693e-03
-7.661169e-04
-6.834115e-04
2.318375e-03
1.433546e-03
2.273095e-03
-8.156879e-04
5.763130e-02
1.507925e-01
-1.978904e-02
1.842276e-01
2.887791e-01
1.807193e-01
7.772366e-02
5.936899e-02
8.889657e-02
1.225319e-03
1.780108e-03
-2.405216e-03
2.807132e-03
-2.830980e-03
-1.643555e-03
2.646578e-03
-1.915075e-03
1.293028e-03
6.988684e-02
-2.028138e-02
2.102414e-02
4.376528e-02
-4.630866e-02
-4.339194e-02
8.698389e-03
1.188294e-02
8.392672e-03
-1.351363e-01
-8.081915e-03
9.980284e-02
-1.381349e-01
7.215890e-02
2.083107e-01
-1.281993e-01
1.608307e-03
8.481120e-02
1.079911e-02
-1.028931e-01
-6.634726e-02
-5.971764e-02
2.144421e-01
1.466195e-01
-1.550620e-01
-6.225189e-03
-1.053087e-02
1.147020e-01
6.271137e-02
3.342243e-04
1.199374e-01
1.589096e-01
-2.335755e-02
-4.023370e-02
5.818719e-02
5.223218e-02
1.518741e-01
-3.490647e-03
-1.052091e-01
8.938139e-02
-1.087133e-01
-2.625794e-01
-2.084677e-02
-1.155626e-01
-2.285057e-01
-1.091811e-03
2.527360e-03
6.408121e-05
-1.675532e-03
-1.107213e-03
-2.094670e-04
-2.679833e-03
1.717424e-03
2.974581e-03
-6.417116e-04
-1.082423e-02
-6.901045e-02
3.754934e-02
-1.134079e-01
-2.237550e-01
8.729852e-03
-2.526738e-02
-8.215126e-02
4.043384e-04
3.633210e-04
7.026239e-04
-1.161428e-03
1.401565e-03
2.648575e-03
-3.641149e-03
-3.216697e-03
-3.363188e-04
-6.198566e-02
-1.232599e-01
-1.386334e-01
-5.729242e-02
-1.103159e-01
-9.565450e-02
-7.873336e-02
-5.789952e-02
-8.397102e-02
-7.844082e-02
2.076887e-02
-2.134938e-01
1.441606e-01
2.288693e-01
-2.472176e-01
-3.925483e-02
1.375052e-01
-1.002100e-02
2.937081e-02
1.321542e-02
1.122937e-01
2.863107e-02
2.698597e-02
4.337245e-02
-9.887367e-03
6.656948e-02
9.876003e-02
4.662384e-02
5.599102e-02
1.101656e-01
2.079651e-03
-3.513954e-02
1.995971e-02
6.114495e-02
-6.489431e-03
-3.543312e-02
-3.381368e-02
-9.703149e-02
9.392378e-02
1.299015e-02
-1.792967e-01
-3.041182e-01
1.006848e-01
6.507568e-02
-1.656546e-01
1.912694e-03
-1.751419e-03
-1.697670e-03
2.396170e-04
1.916293e-03
-2.327580e-04
2.239421e-03
7.350973e-04
-6.042651e-04
-1.903682e-02
-7.066151e-02
-2.731633e-03
-1.042306e-01
-1.328331e-01
1.482128e-01
-1.320645e-02
-1.073547e-01
8.465832e-02
-4.906835e-04
-1.298041e-04
1.601756e-04
-2.202232e-03
8.295582e-04
6.161178e-05
3.082174e-04
-9.645512e-04
-6.533947e-04
2.068982e-02
1.511253e-01
3.389751e-02
1.827209e-01
3.531800e-01
7.816514e-02
1.964377e-01
3.065957e-01
1.216508e-01
6.494139e-02
3.987231e-02
1.161497e-01
-1.049695e-01
-9.670897e-02
9.293392e-02
-7.004972e-02
-1.021321e-01
-2.311015e-02
-6.648453e-02
-7.368460e-02
-9.308899e-02
-1.021804e-02
-1.462723e-02
1.229384e-01
-1.838023e-01
-1.371742e-01
-1.145174e-01
8.827931e-02
3.871687e-02
3.524654e-02
1.186213e-02
-1.864973e-02
-4.386627e-02
-3.595475e-02
-9.049321e-02
-4.713337e-02
4.711687e-02
1.590149e-02
3.401697e-02
6.924468e-02
7.399722e-03
-4.763372e-03
-5.823280e-02
-1.277586e-01
-5.532160e-02
-3.686634e-04
-2.086555e-03
-4.249817e-04
3.643583e-04
-4.017905e-04
-8.317796e-04
1.074191e-03
-2.712785e-03
1.349503e-03
-1.348871e-01
-1.365498e-01
-9.845011e-02
-1.061704e-01
3.559344e-02
-4.161378e-02
1.422345e-02
2.702563e-01
8.144358e-02
6.568678e-05
3.531267e-03
6.135148e-04
4.925657e-03
3.244008e-04
5.457351e-04
9.240861e-04
1.667335e-03
4.980643e-04
6.462389e-02
1.056332e-01
6.799493e-02
1.028280e-01
6.895903e-02
8.609605e-02
1.372647e-01
4.613755e-02
6.925561e-02
-2.828504e-02
-5.881537e-02
-8.464173e-02
-9.657329e-02
3.465607e-02
7.111781e-02
-1.301487e-01
3.552432e-02
1.583843e-01
1.193348e-02
-9.257021e-02
-1.119909e-01
-6.971260e-02
-2.416151e-03
-1.724508e-02
-6.069978e-02
3.893387e-02
3.986632e-02
-1.355718e-01
-7.161487e-02
-7.363941e-02
-4.883846e-02
-4.663743e-02
-3.417602e-02
-2.054751e-02
-1.971030e-02
-1.553095e-02
-2.669678e-02
-3.382275e-02
2.589107e-02
-7.295686e-02
2.016415e-03
-1.089967e-01
4.202626e-02
5.311128e-02
-1.013932e-01
5.832647e-03
2.199184e-03
-2.775920e-04
-1.950648e-03
2.256089e-03
-4.851800e-04
-5.240681e-04
-2.525749e-03
-2.222842e-03
-2.414116e-02
-1.948020e-03
-2.015665e-02
7.394823e-02
2.713100e-01
1.831761e-01
9.927872e-02
4.617809e-01
2.383471e-01
2.834211e-04
-7.249976e-05
-1.096629e-03
-1.622845e-04
8.523898e-04
9.833523e-05
-2.429921e-03
-2.194800e-03
-3.903200e-03
-1.396554e-01
-1.345153e-01
6.033865e-02
-2.075908e-01
-1.152253e-01
8.446780e-02
-1.683491e-01
-1.618651e-01
-1.453116e-03
-2.663962e-02
2.501341e-03
-9.278050e-02
-4.830364e-02
1.177825e-02
-6.099900e-02
-5.836681e-02
3.665879e-02
-9.249169e-04
2.132983e-02
-9.230469e-03
-3.383201e-02
7.561694e-02
-3.520509e-02
-7.717419e-02
-4.717776e-03
-4.518530e-02
-1.766121e-01
5.744766e-02
3.286682e-02
-1.962762e-02
1.215158e-01
3.004058e-02
-6.693796e-02
1.182265e-01
4.827100e-02
-6.936770e-02
6.865215e-02
-5.020518e-02
-9.532227e-02
7.487617e-02
-7.127041e-02
-1.380130e-01
3.920399e-02
-8.241523e-02
-1.285950e-01
-1.623646e-03
-6.449587e-04
-2.523075e-03
-5.326187e-05
-1.245785e-03
8.888720e-04
2.415796e-03
1.976715e-03
2.980184e-03
2.880940e-02
-1.055291e-02
-1.293897e-01
-1.065686e-01
1.211576e-03
-9.547508e-03
-5.240212e-02
1.112990e-01
1.039120e-01
2.288728e-04
-2.576201e-04
3.056459e-03
4.362203e-03
-1.795235e-03
-4.144334e-03
2.338215e-05
-6.500066e-04
-1.608624e-03
-5.991721e-02
-2.746739e-02
-5.070393e-02
-8.735318e-02
-2.426006e-02
-5.621561e-02
-5.897501e-02
-2.183445e-02
-5.110735e-02
7.723319e-02
6.212303e-02
1.769873e-02
8.659763e-02
-4.304920e-04
-6.993078e-02
1.368192e-01
-1.070537e-02
-8.913027e-02
7.368097e-02
6.545666e-02
5.558611e-02
-2.361582e-02
-1.206326e-02
2.119122e-02
1.852280e-02
4.951005e-02
6.479990e-02
-6.877682e-02
-6.136695e-02
-5.227351e-02
-5.877857e-02
-6.668983e-02
-5.999055e-02
-1.316751e-02
-2.554845e-02
-2.029002e-03
6.615488e-02
-6.098387e-02
-6.363929e-02
7.962122e-02
-7.336342e-02
-5.585744e-02
1.089378e-01
-2.850283e-02
-5.764474e-02
-2.358204e-03
9.484693e-04
2.342008e-03
5.941356e-04
-7.097784e-04
4.342477e-04
2.553766e-03
-1.306383e-03
-2.828612e-04
8.345038e-03
2.679344e-02
4.912323e-02
-1.038096e-01
7.217764e-02
2.013582e-01
-1.000324e-01
9.250132e-02
2.285008e-01
4.632690e-04
-1.342657e-03
-1.041867e-03
2.750024e-05
-2.881614e-03
1.124342e-03
-1.711095e-03
-9.930346e-05
6.374782e-04
-1.127184e-01
-1.230224e-01
-9.424771e-02
3.473429e-02
5.697752e-02
-1.774114e-01
7.831170e-02
1.275381e-01
-2.034552e-01
-1.848345e-01
-5.517749e-02
-1.372418e-01
-2.780513e-02
4.869669e-02
-7.981031e-02
-3.797178e-02
-9.773409e-02
-1.732692e-01
9.255253e-02
5.683424e-02
-1.875501e-01
2.230558e-01
-1.426378e-01
-1.796397e-01
-5.402328e-02
-1.123749e-01
-2.145839e-01
1.451832e-01
1.398039e-01
2.320659e-01
-5.386254e-02
-1.169943e-01
5.718838e-02
-2.215361e-01
-1.433489e-01
1.095339e-02
-1.187415e-01
-7.820106e-02
1.404954e-01
-2.232247e-01
-1.615213e-01
1.747349e-02
-1.583124e-01
-1.194426e-01
-2.738813e-02
-3.062872e-03
-2.233780e-03
5.335559e-04
-2.485714e-03
-7.112302e-04
4.470597e-03
-6.690140e-04
-3.692469e-03
4.371793e-04
-2.501060e-01
-1.334216e-01
-6.042277e-02
-6.897664e-03
2.334076e-02
-8.639806e-02
1.261927e-01
1.810038e-01
-2.064454e-01
-7.050720e-04
-2.314492e-03
-8.046440e-04
-1.095678e-03
5.478032e-04
-1.944121e-04
5.757602e-04
-8.739906e-04
-7.298224e-04
-1.477037e-01
-1.194819e-01
-2.022079e-01
-2.219776e-02
-2.744760e-02
-1.445424e-01
2.324216e-02
-1.228295e-02
-1.379913e-01
-8.009351e-02
-6.722363e-02
-5.823056e-03
7.733915e-02
-8.635888e-02
1.314401e-01
9.162962e-03
1.559584e-01
1.337141e-01
4.345550e-02
1.374991e-01
1.797597e-01
-6.285138e-02
2.297045e-01
3.087401e-01
-1.053338e-01
1.388035e-01
2.876660e-01
-3.434152e-02
-2.966863e-03
-2.347792e-02
2.254068e-02
2.130517e-02
-2.682784e-02
3.866571e-03
-6.167144e-03
3.084055e-02
6.417349e-02
1.187213e-01
7.727131e-02
-5.956617e-02
-7.977139e-02
1.145011e-01
-8.710482e-02
-1.773808e-01
-9.985740e-02
1.948839e-03
-3.103340e-03
9.853612e-04
5.221590e-05
4.382668e-04
3.262582e-03
-1.495681e-03
-3.688838e-04
2.495432e-03
-3.763524e-01
-3.618765e-01
-3.083951e-01
1.839549e-02
2.057315e-01
-1.498665e-01
2.674713e-01
3.408408e-01
-3.925381e-02
1.471468e-03
1.801528e-03
2.155807e-03
-8.687723e-04
3.101037e-03
-3.562615e-03
1.622963e-03
-1.635050e-03
-2.553284e-03
-5.871319e-02
-1.124102e-02
-3.368065e-02
6.733891e-02
1.570846e-01
5.709197e-02
6.640258e-02
1.448307e-01
-3.377529e-03
-2.492010e-02
4.123090e-02
-1.319961e-01
8.433548e-02
1.686428e-01
6.547269e-03
-9.206205e-02
-7.382397e-02
-1.621114e-01
-1.002122e-01
-2.064839e-01
-1.208798e-01
2.228808e-01
8.947392e-02
3.139471e-02
7.387813e-02
1.061371e-01
2.988867e-01
-1.299243e-02
1.019708e-01
8.494271e-02
4.731118e-02
1.435618e-01
1.421216e-01
6.623559e-02
1.439098e-01
1.633502e-01
-5.720118e-02
2.200026e-02
-3.157822e-02
1.061215e-01
1.673575e-01
1.255681e-01
1.349463e-01
2.302258e-01
1.249522e-01
-5.685618e-04
-2.956605e-03
3.208756e-05
1.825185e-04
-4.571645e-04
5.674203e-04
-1.037861e-03
-4.138470e-04
1.983219e-03
-5.358439e-02
9.607742e-03
2.749623e-02
-2.076351e-02
1.584011e-02
2.764418e-02
-9.168680e-02
-7.553503e-02
-1.772210e-01
-6.970367e-04
1.094845e-03
-3.072047e-03
1.323378e-04
-3.325403e-04
-5.151929e-04
-3.514760e-03
1.019785e-03
4.863513e-04
9.270876e-02
4.513294e-02
5.756884e-02
5.977907e-02
2.394823e-02
3.965853e-02
8.035316e-02
8.955410e-03
8.671953e-03
-5.023178e-02
-3.584819e-02
-1.355246e-01
1.043018e-01
2.145303e-02
-2.361281e-02
8.054870e-02
2.061462e-01
1.025906e-01
-1.802863e-02
4.295871e-02
5.352897e-02
-4.606832e-03
-6.648179e-04
2.055055e-02
3.358916e-02
4.604574e-02
1.695020e-02
-7.343672e-02
-7.019997e-03
8.891658e-03
3.724699e-02
3.489698e-02
2.669768e-02
1.190708e-01
8.373339e-02
8.783375e-02
-9.876163e-02
-1.481903e-02
-7.741699e-02
-1.453016e-01
-1.132158e-01
-8.470345e-02
-6.120848e-02
1.055361e-02
-3.443201e-02
3.516666e-05
1.589534e-03
5.118495e-03
3.145328e-03
3.667557e-03
3.463714e-04
-7.722344e-04
2.565446e-03
3.433047e-03
-8.057948e-02
-1.181323e-01
-9.529283e-02
7.574761e-02
7.240511e-02
2.098313e-02
1.639007e-01
7.094824e-02
7.940161e-02
1.088316e-04
-4.597627e-04
2.170523e-03
4.414826e-04
-1.211142e-03
3.512555e-03
1.957064e-03
2.012809e-03
-2.760680e-03
1.876304e-01
1.829782e-01
1.228370e-01
-7.794353e-02
-6.035767e-02
-2.348774e-02
-1.273979e-01
-5.250843e-02
2.650885e-03
-4.119399e-02
3.849635e-02
7.226094e-02
8.232439e-02
2.174558e-01
2.099382e-01
1.105098e-01
1.954900e-01
1.454712e-01
-2.865357e-02
-2.452494e-02
-1.100230e-01
-3.132248e-02
-7.008267e-02
-8.183887e-02
-4.014819e-02
-5.028521e-02
-3.548708e-02
-7.131059e-02
-5.344690e-02
2.378026e-02
-8.055041e-02
-7.966869e-02
-3.342414e-02
-2.723520e-02
-9.051763e-02
-4.030881e-02
5.721539e-02
-1.153366e-02
-5.470242e-02
5.465639e-03
-5.142476e-02
-8.604128e-02
1.179741e-01
4.656887e-02
-1.831686e-02
-9.401678e-04
1.264775e-03
-2.887187e-03
2.336476e-03
1.985187e-04
-1.935795e-03
-1.667725e-03
-4.259624e-03
9.349966e-04
3.989322e-02
1.295397e-01
7.891085e-02
2.000035e-01
2.361621e-01
1.773527e-01
9.315258e-02
1.038561e-01
5.452375e-02
1.800199e-03
-1.700721e-03
-1.678573e-04
-1.353876e-03
1.189864e-03
3.356097e-04
3.543829e-03
1.634037e-03
2.165309e-04
7.226107e-02
3.360695e-02
3.945675e-02
3.482232e-02
-1.927684e-03
6.098540e-02
-1.982060e-02
2.794959e-02
6.499022e-02
-7.576968e-02
-2.390631e-02
-1.828182e-02
5.051585e-02
-7.054006e-02
-4.314116e-02
7.230394e-02
-1.949318e-02
-4.790717e-02
-6.707980e-02
2.019621e-02
8.213346e-02
-3.047298e-02
-2.625272e-02
-8.755953e-03
-4.200405e-02
-1.013293e-01
-1.057680e-01
2.217773e-02
4.385415e-02
8.056686e-02
4.600568e-02
6.807858e-02
8.813266e-02
7.714477e-02
3.667836e-02
1.546866e-02
-1.896568e-02
5.784613e-02
1.243922e-02
5.096126e-02
4.285770e-02
8.621795e-02
-1.630445e-02
-2.901261e-02
-4.228548e-02
2.019627e-03
4.171279e-03
2.437707e-03
3.693232e-03
-1.679521e-03
-4.097672e-04
5.647683e-03
1.065048e-03
1.859941e-03
-3.335693e-02
-2.222098e-02
-2.186123e-02
5.279368e-02
1.742079e-01
1.507781e-01
-3.680222e-02
1.072924e-01
1.794747e-01
-5.652925e-04
-1.321184e-03
-2.825688e-03
-1.548946e-03
-6.653311e-04
-2.013637e-03
-1.813758e-03
-1.394027e-03
1.236712e-03
9.061422e-02
1.699263e-01
-3.603951e-02
7.984067e-02
-8.316408e-03
1.110634e-01
-1.317344e-01
-1.015376e-01
-5.484996e-02
-1.124677e-01
-2.495804e-01
-7.782938e-02
2.868037e-02
3.690184e-02
-7.123521e-02
1.534934e-01
1.700877e-01
4.087381e-02
3.595606e-01
8.530676e-02
8.696302e-02
-1.898659e-01
8.425090e-02
4.310036e-02
4.177738e-01
7.330630e-02
5.710637e-02
-3.713176e-02
-1.530898e-02
-2.201209e-02
-1.966002e-01
-6.303952e-02
6.382494e-02
-4.159740e-03
-6.400588e-02
4.484982e-02
1.058660e-02
1.008492e-01
3.983598e-03
3.961596e-02
9.854177e-02
6.006265e-02
-9.389729e-02
-1.102008e-01
-6.463667e-02
1.762322e-03
-4.681661e-04
-2.823652e-03
-1.285996e-03
1.982348e-03
3.565263e-04
2.303722e-03
-1.527188e-03
-3.239998e-03
-1.212414e-01
-1.200730e-01
9.485438e-02
3.635385e-02
2.120610e-01
7.506510e-02
1.235737e-01
5.502581e-03
9.374147e-02
5.577459e-04
-2.830452e-04
1.066770e-03
6.394443e-04
2.814691e-03
-2.408745e-03
-2.069381e-03
-8.884018e-04
4.253094e-03
5.434546e-02
-4.632010e-02
6.271965e-02
8.913492e-02
4.295613e-02
7.188728e-02
-5.669952e-02
2.551499e-02
1.372981e-01
1.262649e-01
2.786038e-02
-3.504050e-02
9.900607e-02
2.760894e-01
8.393236e-02
8.525142e-02
-2.912948e-02
7.779379e-02
-1.229653e-01
-1.117315e-02
-2.795663e-02
-1.090709e-01
1.569701e-02
-2.559944e-03
-4.327838e-02
3.434697e-02
7.525422e-02
4.634509e-02
4.548892e-02
7.464589e-02
1.552505e-02
1.747485e-02
4.211623e-02
-4.087121e-02
2.056797e-02
-7.078718e-02
-9.094219e-02
5.123745e-02
3.198118e-02
9.312351e-02
3.493033e-01
-7.976843e-02
6.424916e-02
-1.309782e-01
4.758756e-02
8.709378e-04
-3.063484e-04
3.920232e-04
3.937216e-03
9.959230e-04
2.755970e-03
-2.816123e-03
4.994356e-04
1.523666e-03
4.125187e-02
5.470270e-02
1.780888e-01
1.120709e-01
-3.433081e-02
9.770827e-02
8.124658e-02
3.935565e-01
9.343870e-03
2.926196e-04
1.138535e-03
1.129979e-03
-2.731921e-03
1.468858e-03
1.619732e-03
-1.598893e-03
-9.174859e-04
6.142813e-04
7.241365e-02
1.675582e-01
1.150333e-01
7.439179e-02
1.160247e-01
1.210008e-01
-1.276765e-02
-5.711941e-02
3.496543e-03
-1.960900e-02
-2.383212e-03
7.401188e-03
3.321927e-02
4.574412e-02
4.234799e-02
-1.726044e-02
-3.979184e-04
1.335150e-02
-2.558151e-02
1.816148e-02
1.506981e-01
-4.723047e-02
-4.071642e-02
1.793598e-02
-1.975586e-02
4.835380e-02
1.323610e-01
-1.663288e-02
6.003565e-02
7.900440e-02
5.247317e-02
8.180769e-02
1.119890e-01
5.002956e-03
3.532053e-02
5.170911e-03
-5.767196e-02
4.621801e-02
4.317726e-02
1.036356e-01
1.859925e-01
2.037113e-01
-3.914639e-02
-2.943975e-02
5.796344e-03
1.217278e-03
-1.290401e-03
-1.973142e-03
-3.127785e-04
1.522589e-03
7.967430e-05
1.585001e-03
1.835406e-03
2.713821e-03
5.221238e-03
-4.676683e-02
-1.278562e-02
-4.345711e-02
-9.090368e-03
3.284182e-02
1.095912e-02
-4.455446e-02
6.549972e-03
4.768147e-04
2.161428e-03
-2.419586e-04
-2.525947e-03
-2.749989e-03
-3.367584e-03
-7.895678e-04
-1.670194e-03
-2.563211e-03
-3.297429e-02
-5.744352e-02
-1.184522e-01
-2.409878e-02
-2.123114e-02
-7.524549e-02
-2.861053e-02
-2.635661e-02
-5.625208e-02
-8.226627e-02
-8.011586e-02
7.100200e-02
-2.387404e-02
3.266928e-02
1.927960e-01
-1.103429e-01
-1.342442e-02
1.907163e-02
6.362879e-02
5.043477e-02
-2.180173e-02
6.835427e-02
4.921804e-02
1.718492e-02
5.052083e-02
-2.154041e-02
-1.027010e-01
-3.129413e-02
-8.912493e-03
-5.948907e-03
8.175316e-02
9.191503e-02
8.943361e-02
7.689651e-03
1.637925e-02
1.852565e-03
-4.981661e-02
-2.501442e-02
-2.926439e-02
-3.364917e-02
1.575977e-01
1.724809e-01
-7.359561e-02
7.422577e-02
6.738994e-02
-8.787782e-04
-1.004050e-03
1.083967e-05
-4.370435e-03
-8.219242e-04
2.198989e-03
2.655063e-03
2.280335e-03
2.997024e-03
-3.681266e-02
-8.009874e-02
-1.339775e-01
1.248828e-02
-1.097446e-03
-6.212817e-02
7.756166e-02
8.179342e-02
4.672715e-02
2.034470e-03
-1.639333e-04
5.965222e-04
-1.826044e-03
9.351855e-04
1.433348e-03
3.677074e-04
-1.057414e-03
2.810327e-03
-6.359670e-02
-2.896316e-02
2.891002e-02
-1.204597e-01
-1.307967e-01
3.471074e-02
-1.859414e-01
-1.148917e-01
-5.593142e-02
5.283087e-02
1.434110e-01
2.572240e-03
1.999130e-01
2.875077e-01
1.024066e-01
6.207291e-02
1.384925e-01
3.010400e-02
-1.270201e-01
-1.855839e-01
-5.562173e-02
8.001988e-02
2.831289e-02
1.081180e-01
5.729626e-02
8.768899e-02
1.297757e-01
-3.809848e-02
-4.772243e-02
-6.365040e-02
-4.610067e-03
-1.044512e-02
-5.074583e-02
1.729490e-02
3.944564e-02
3.371718e-02
3.909399e-02
3.779384e-02
2.418543e-02
1.452305e-02
6.989972e-03
-1.534007e-02
7.903281e-02
3.088143e-02
-1.508523e-02
-2.229640e-04
-7.683620e-04
-1.516049e-04
1.112090e-03
-2.423225e-04
2.037111e-03
2.444920e-05
4.545892e-04
2.338587e-03
-9.296239e-03
-4.275276e-02
7.257248e-03
-3.982970e-02
-7.226669e-02
5.275912e-03
-7.177746e-02
-4.901513e-02
-6.726990e-02
2.074559e-03
9.747645e-04
1.220271e-04
-6.282745e-04
-3.482843e-04
-2.184561e-03
-2.385320e-04
2.270561e-03
-1.211319e-03
1.456531e-02
9.361801e-02
1.521200e-02
-5.976690e-02
1.867905e-02
-4.645275e-02
-7.785552e-02
-2.524867e-02
-7.902692e-02
2.395950e-02
-1.456036e-01
-6.419582e-02
-4.161997e-02
-2.255148e-01
-1.218842e-01
6.839589e-03
-1.148500e-01
2.429536e-02
-1.649667e-02
1.457081e-03
-8.452179e-02
2.951242e-02
1.454040e-02
-4.008467e-02
8.758046e-02
6.625858e-02
1.742581e-02
1.856244e-02
4.881823e-02
5.926078e-02
3.928234e-02
5.068378e-02
4.370619e-02
3.535631e-02
3.177297e-02
6.252575e-02
-5.799773e-02
-7.422562e-02
3.097148e-02
-6.189749e-02
-1.694061e-01
5.485781e-02
-2.538297e-02
-1.171059e-01
1.990855e-02
-1.584644e-04
3.541640e-04
4.156826e-04
1.284863e-03
-4.417961e-04
4.611480e-04
1.335317e-03
-4.555945e-04
-2.872246e-03
-5.917175e-02
-4.526177e-02
3.792826e-02
-1.772983e-02
1.919862e-01
8.162712e-02
-8.231679e-02
8.145136e-02
7.960172e-02
5.644533e-04
-3.341777e-04
-2.747294e-03
1.741418e-03
-3.879732e-03
-7.011041e-04
1.199281e-03
4.032934e-03
-1.275615e-03
1.473910e-01
1.734932e-01
2.470385e-02
2.317720e-02
1.656326e-01
-4.316356e-02
-2.056035e-01
-9.670906e-02
-6.947073e-02
3.335216e-02
1.840154e-02
7.926144e-02
3.289715e-02
-6.610392e-02
3.030268e-02
1.704551e-02
-5.602845e-02
-4.814322e-02
1.944470e-01
1.289336e-01
-6.201681e-02
-1.911233e-01
-5.397685e-02
8.323476e-02
-1.936043e-02
1.889282e-02
-3.638436e-02
1.160018e-02
-5.470926e-02
-9.649113e-02
-5.329201e-02
4.805343e-02
7.174487e-02
8.432598e-02
2.580815e-02
9.085030e-02
-5.752783e-02
-2.639408e-02
-8.605523e-02
9.334078e-02
1.196154e-01
2.215727e-02
3.009172e-02
4.425752e-02
1.709877e-02
-4.786407e-04
2.188826e-03
1.756977e-04
-1.094232e-03
-1.980219e-03
-2.607002e-03
9.196493e-04
-7.617678e-04
-1.426286e-03
-1.557264e-01
-1.445394e-01
-1.051614e-01
1.747798e-01
3.751912e-01
1.212015e-01
1.319372e-02
1.916150e-01
6.177219e-02
1.036491e-03
4.131036e-03
-2.897888e-03
-9.216105e-04
2.340740e-03
1.736781e-05
5.719706e-05
2.306439e-03
2.171434e-03
7.010274e-02
6.066874e-03
5.496066e-02
9.478734e-02
-2.254711e-02
2.585378e-02
8.719561e-02
-1.400338e-02
1.214283e-01
6.039959e-02
-2.635456e-02
-3.979258e-02
-6.027213e-02
3.675528e-01
9.164581e-02
-5.264245e-02
-1.225391e-01
-2.054963e-01
1.761679e-03
-8.056039e-02
-1.027935e-01
6.102407e-02
1.305462e-01
-8.612537e-03
-3.016832e-02
6.173755e-02
4.823943e-02
-5.453486e-02
-3.628876e-02
-1.983852e-02
6.853171e-02
3.961926e-02
8.435214e-02
-1.759647e-02
2.667433e-02
2.549426e-02
-8.163712e-02
-7.265712e-02
7.951714e-02
1.574248e-01
4.031128e-01
1.170290e-01
6.859255e-02
1.390828e-01
7.032599e-02
1.978283e-03
-1.650926e-03
5.342077e-04
3.696389e-03
4.203897e-03
-2.144387e-03
-3.093078e-03
-7.523938e-04
2.523638e-03
1.082853e-01
2.316335e-01
1.369211e-01
-6.223585e-02
-2.223548e-02
-2.620775e-02
-1.005489e-01
4.336172e-02
-3.414882e-02
