-7.233705e-03
-5.238865e-02
-3.743729e-02
-3.598012e-02
-5.865001e-02
-3.716259e-02
1.228111e-02
-1.796204e-02
-5.266033e-02
-1.763101e-02
-1.018246e-01
-1.121288e-01
-5.035751e-02
-1.757437e-01
-1.014021e-01
-9.435858e-02
-1.841350e-01
-4.642854e-02
-1.283437e-01
-4.891770e-02
-6.600155e-02
-7.398586e-02
3.712365e-03
1.400157e-02
-4.447810e-02
-7.095357e-03
-4.796512e-02
-8.097529e-02
-9.824578e-02
-7.802097e-02
-4.244040e-02
-6.567685e-02
-3.511079e-02
-1.629912e-01
-1.235929e-01
-6.056323e-02
5.663192e-02
2.872622e-02
3.301162e-02
9.544670e-02
6.029503e-02
9.860645e-03
1.550506e-02
-7.451303e-03
-1.026032e-02
5.613880e-02
6.593925e-02
4.402895e-02
4.802383e-02
1.938670e-02
-3.716610e-02
-2.028460e-02
-8.216289e-02
-1.098254e-01
-1.920152e-02
-4.181838e-03
4.693125e-02
-1.225765e-01
-1.030274e-01
-6.985720e-02
-6.411049e-02
-1.895145e-01
-1.063100e-01
5.039901e-02
-5.538093e-02
1.068007e-02
2.306616e-02
-1.301223e-01
-1.122564e-01
-1.468327e-02
-1.860507e-01
-1.591847e-01
-1.444203e-01
1.468774e-02
-5.619102e-02
-1.316254e-01
2.517218e-02
-2.944541e-02
-5.952767e-02
-1.033204e-02
-6.085643e-02
-2.109556e-02
2.914201e-02
4.306519e-02
-8.035515e-02
-2.682061e-02
-6.132088e-02
-2.738221e-02
2.227543e-02
-1.961514e-02
1.040698e-01
3.117080e-03
-4.684321e-02
6.732085e-02
3.056174e-03
9.276775e-03
3.819307e-02
1.284869e-03
-3.004367e-02
1.209329e-02
-3.004166e-02
-6.267485e-02
-3.035088e-02
-1.027181e-01
-7.582219e-02
8.542199e-03
-1.309868e-01
-3.415684e-02
1.844843e-02
-2.936647e-02
-3.704522e-03
-2.915375e-03
-6.245120e-02
-9.055143e-02
-1.151701e-02
-3.643293e-02
-1.145871e-01
7.484824e-02
4.062459e-02
3.918346e-02
3.540325e-02
2.740107e-02
5.467603e-02
8.550064e-02
6.098077e-02
8.015716e-02
1.736760e-02
-3.776656e-02
-4.307609e-02
-3.929960e-02
-6.080196e-02
-3.429370e-02
-6.252965e-02
-9.479198e-02
-5.483009e-02
-6.866921e-02
-1.146150e-01
-9.544755e-02
8.998526e-03
-2.314466e-02
6.383441e-03
2.703428e-02
4.149890e-02
1.182085e-01
-7.349196e-02
3.793716e-02
-6.570229e-02
9.430391e-03
8.044951e-02
-2.205403e-02
3.173988e-02
5.021703e-02
-2.903260e-02
1.079353e-01
8.849066e-02
-2.438864e-02
2.069785e-02
1.137658e-01
6.031800e-02
5.694450e-02
1.009515e-01
2.363565e-02
5.423377e-02
9.340250e-03
-3.489718e-02
4.120565e-02
5.505029e-02
1.540526e-02
5.703429e-03
5.171932e-02
2.761215e-02
-3.987451e-02
4.455142e-03
1.300054e-02
-5.442270e-02
6.925120e-03
6.285505e-02
-6.630987e-02
3.246497e-02
1.210381e-01
-1.877529e-02
-3.597596e-02
-5.175470e-04
-5.148087e-02
-7.693837e-02
3.844897e-02
-4.418496e-02
-8.727159e-02
4.244466e-02
-9.055153e-03
-4.930300e-02
-3.464416e-02
2.788233e-02
-3.769767e-02
-1.997922e-02
1.397527e-03
-2.351210e-02
3.501335e-02
1.814673e-02
-1.930082e-01
-1.161814e-01
8.122110e-02
-5.863526e-02
-6.124047e-02
5.201052e-02
1.080385e-01
8.019038e-03
-1.979440e-03
2.040676e-01
-2.649533e-02
-1.722392e-02
1.788145e-01
-5.348429e-02
-6.538089e-02
2.842725e-01
-1.590597e-02
1.401078e-01
-2.102453e-02
1.036032e-01
1.441616e-01
-1.170889e-01
7.628107e-02
2.425919e-01
-1.494254e-01
1.712528e-01
-2.999428e-02
-4.705072e-02
-3.809090e-02
3.327642e-02
-1.188899e-02
-8.161074e-02
9.523335e-02
3.794153e-02
-1.269959e-02
-1.035396e-01
-6.059190e-02
-7.027549e-02
-5.893200e-02
1.869627e-02
-2.628264e-02
8.942148e-03
5.921821e-02
5.127596e-02
-1.018189e-01
-1.579884e-02
-2.254832e-01
-2.060476e-01
1.693695e-02
-1.360285e-01
-2.306152e-01
-8.036634e-03
-1.232835e-01
-3.629671e-02
1.086409e-01
-3.199632e-02
1.302244e-02
1.689672e-01
-4.010723e-03
-7.798477e-02
2.030744e-01
7.203084e-03
3.789267e-02
5.637059e-02
1.131569e-01
2.994490e-02
6.324374e-02
8.223046e-02
4.125146e-02
-1.020371e-03
2.644951e-02
1.092369e-02
-1.989483e-02
-4.059626e-02
9.222466e-03
3.792528e-02
4.260188e-02
1.466311e-02
8.370715e-02
1.893861e-02
-1.186203e-03
-3.010398e-02
-3.345418e-02
6.581561e-03
7.683962e-02
8.298607e-03
9.109194e-02
1.943441e-01
9.357684e-02
3.130264e-02
6.068829e-02
-5.812144e-02
-5.863861e-02
-5.108562e-02
-9.386509e-02
-1.303593e-01
3.875968e-03
6.094034e-02
-5.665291e-02
-3.621933e-02
-1.159287e-01
7.149257e-02
-1.574091e-02
-9.865094e-02
4.854355e-02
1.579101e-02
-1.587564e-01
-1.202813e-02
3.951981e-02
8.221737e-02
-1.907517e-04
4.044157e-03
6.267834e-02
2.109889e-02
-2.502295e-02
-6.246799e-02
1.030457e-01
8.459839e-02
9.641962e-02
1.091473e-02
-5.899132e-02
-9.393850e-02
-9.332632e-02
-1.068259e-01
-9.397769e-02
7.161939e-02
6.379097e-02
-1.044178e-01
-3.183264e-02
3.810120e-02
2.684450e-02
-8.395428e-02
4.345498e-02
4.849176e-02
-9.097255e-02
-5.958167e-02
-2.023637e-02
-8.798792e-03
6.055211e-02
3.964958e-02
1.018990e-01
1.080023e-01
9.616328e-02
-2.222138e-01
5.931747e-02
6.531117e-02
-5.262449e-02
5.982823e-02
6.473582e-02
5.443684e-02
1.110810e-01
-2.510919e-02
-1.095168e-01
-6.852657e-02
-4.355053e-02
-1.505638e-01
-1.448879e-01
-1.206278e-02
-6.664295e-02
-1.052506e-01
-3.376015e-02
3.629231e-02
6.207553e-02
3.782820e-02
-6.277501e-02
3.702866e-02
-2.501325e-02
-1.358813e-01
3.344915e-02
-1.131784e-02
-7.236677e-02
9.042665e-02
8.561552e-02
7.595708e-02
2.065082e-01
1.031858e-01
6.203409e-02
1.561481e-01
3.622729e-02
-7.240712e-02
7.771251e-02
4.894656e-02
-7.588971e-02
4.065261e-02
9.047163e-02
3.921809e-02
3.156886e-03
-4.319806e-02
-1.539907e-01
-1.763651e-01
-1.385576e-01
-7.080865e-02
-2.560338e-01
-1.294841e-01
5.139441e-03
-1.844087e-01
-8.908464e-02
-4.728262e-02
-6.071732e-02
-1.368498e-02
-9.806468e-02
-6.996237e-02
3.221012e-02
-7.382926e-02
-2.658131e-02
2.983360e-02
9.652369e-02
1.021847e-01
5.653797e-02
5.519426e-02
3.782868e-02
2.077485e-02
-8.759323e-02
-8.206998e-02
-7.868119e-02
-7.319309e-02
-5.084520e-02
-3.736954e-02
-4.444186e-02
5.920208e-02
7.087743e-02
6.183184e-03
9.227761e-02
4.324729e-02
1.710605e-03
-1.325904e-02
7.185633e-02
-9.306715e-02
-9.813460e-02
4.096066e-04
-1.250431e-01
-1.283851e-01
-4.530260e-02
2.428448e-01
6.774673e-02
-6.228990e-02
1.030780e-01
2.772219e-02
-4.788163e-02
-7.192446e-02
-9.749670e-02
-3.257222e-02
6.119378e-02
1.063467e-02
1.081723e-02
1.653985e-01
9.035069e-02
1.055214e-01
8.384963e-02
-2.068892e-02
4.956725e-03
-8.525921e-02
-7.210185e-02
-1.004776e-01
-1.843797e-02
-2.003588e-02
-6.940312e-02
7.137856e-02
5.407256e-02
7.025219e-02
-9.542181e-02
-1.003083e-01
3.697015e-02
-2.741268e-01
-1.063643e-01
6.722056e-02
2.530382e-02
9.958300e-02
9.029343e-02
-4.586395e-02
-6.618304e-02
8.967904e-02
2.485088e-02
1.073754e-01
1.338525e-01
-1.798160e-02
-1.634692e-01
-8.194146e-02
-4.854982e-02
1.094346e-02
1.983956e-02
3.117053e-02
1.102074e-01
9.445957e-02
-1.558287e-02
5.547727e-02
5.707054e-02
6.398439e-02
1.824843e-01
6.377061e-02
2.658396e-02
-4.660466e-02
-1.182183e-01
-1.866847e-01
-2.374274e-01
-2.603726e-01
-1.290837e-01
-6.720380e-02
-5.403931e-02
-2.642779e-03
1.665897e-01
5.030159e-02
1.822497e-01
1.542412e-01
7.011336e-02
-2.649973e-01
-1.023510e-01
1.620240e-02
-2.402215e-01
-7.964281e-02
2.141641e-01
-1.251875e-01
5.082415e-02
2.171867e-01
2.172431e-02
-2.912362e-02
-1.335397e-01
5.557270e-02
-1.914533e-01
-1.902082e-01
9.316587e-02
2.418107e-02
-1.369171e-02
1.583938e-01
1.250982e-01
4.348563e-02
1.275477e-01
5.186719e-02
-5.204990e-02
-1.732685e-02
-1.733448e-01
-2.912247e-01
-5.549265e-02
-2.414410e-02
-1.082806e-02
1.721717e-01
1.113257e-01
1.340101e-01
1.335281e-01
9.697320e-02
7.015672e-02
-5.731616e-02
-6.523170e-02
-7.420369e-02
-3.320690e-02
1.080776e-01
8.146777e-02
8.867697e-02
1.702683e-01
8.152869e-02
-7.882138e-02
-9.668036e-03
-1.808633e-02
-1.415915e-01
-8.715741e-02
-7.067663e-02
-4.655192e-02
-4.486439e-02
-1.464279e-02
2.954096e-02
7.994605e-02
5.196546e-02
-2.591681e-03
2.670264e-02
4.012469e-02
-7.382987e-02
-8.847289e-02
-9.919322e-02
-1.999112e-02
1.200162e-01
2.773777e-01
-8.999871e-02
7.832615e-02
1.966444e-01
-2.130184e-01
-6.826687e-02
1.742904e-02
5.699641e-02
-8.470885e-02
-4.269177e-02
2.472181e-02
-8.201203e-02
-1.088365e-02
-8.903758e-02
-6.623466e-02
-1.650016e-02
-9.181227e-02
7.087640e-02
-6.056194e-02
8.073917e-02
3.119496e-02
7.523248e-04
9.110558e-02
-3.311351e-02
-7.265704e-02
2.812258e-02
-3.176326e-03
-2.472457e-02
3.789844e-03
-4.945550e-04
-1.665694e-02
2.863525e-02
2.742066e-02
1.026683e-01
-2.196865e-02
-6.136847e-02
1.211326e-02
-5.562534e-02
8.595662e-02
6.912734e-02
1.385383e-01
1.305450e-01
1.035455e-01
-1.897114e-01
-1.555219e-01
6.783237e-02
5.947110e-02
1.891692e-01
3.354134e-02
-4.819803e-02
-2.746447e-01
-4.616829e-02
-1.792055e-03
-2.044161e-02
4.562803e-02
7.525749e-03
1.275780e-02
3.298188e-02
-2.755553e-02
-4.571714e-02
-1.762147e-02
7.153013e-02
1.512610e-01
-4.930549e-02
2.419796e-02
-2.116598e-01
-4.289457e-02
-2.698607e-02
-9.988806e-02
-6.492773e-03
4.444524e-02
-1.119329e-01
-6.694770e-02
7.132625e-04
1.305685e-01
-5.773424e-02
1.710987e-01
-8.753128e-02
-2.081278e-02
-1.877353e-03
-5.498302e-02
-6.900828e-03
-3.592202e-02
-5.527147e-02
2.466636e-01
-6.129519e-02
9.166924e-02
7.578709e-02
3.248753e-02
3.115656e-02
3.820000e-02
3.376121e-02
-8.908234e-02
8.788884e-02
1.217690e-02
9.718852e-02
2.383811e-02
3.408873e-02
-3.350000e-02
-4.123696e-02
-7.326327e-02
2.977158e-03
-1.038253e-01
1.028837e-02
-6.571452e-02
-4.110542e-02
-1.242143e-01
-4.096838e-04
9.463151e-02
-7.546897e-02
2.299653e-01
-5.851099e-02
3.671673e-02
3.501818e-03
-1.363802e-01
1.151015e-01
-1.633657e-01
1.978494e-02
7.388616e-02
-1.598126e-03
-3.393043e-02
-1.513180e-02
-9.435106e-02
-1.630440e-03
-1.254416e-01
-1.495718e-01
-1.391592e-01
-1.309249e-01
-1.313006e-01
-1.051846e-01
-5.471969e-02
-4.826224e-02
-4.008105e-02
-1.710671e-02
3.103883e-03
3.544793e-02
4.531639e-02
-2.019127e-02
1.432479e-02
-9.695546e-02
-6.850135e-02
-5.714070e-02
-9.339738e-02
-5.613025e-02
2.586606e-02
7.229603e-02
5.661069e-02
8.146574e-02
4.464981e-02
8.330726e-03
-1.995262e-03
-3.917055e-02
-5.237578e-02
-1.555712e-02
-6.780221e-02
-5.097262e-02
-5.210632e-03
-5.855958e-03
6.516735e-03
3.399646e-02
8.190678e-02
1.227122e-02
-4.468112e-02
-9.957619e-04
2.021111e-02
-1.330978e-02
2.584327e-02
5.634831e-03
4.160244e-02
2.158984e-02
1.762638e-03
1.330673e-02
1.611974e-02
-1.004248e-02
-2.878192e-02
1.552674e-02
3.499325e-03
-6.077698e-03
3.627975e-02
-2.424202e-02
-1.261723e-01
5.214988e-03
-1.015501e-02
-7.305058e-02
7.946846e-03
3.200788e-02
3.715014e-02
5.173808e-03
3.679120e-02
-3.628521e-02
6.760097e-03
4.938990e-02
5.174008e-02
2.614879e-02
1.162877e-02
-9.310165e-03
-8.411294e-03
4.331958e-02
7.410028e-02
-1.913711e-02
3.655767e-02
6.939273e-02
-2.732285e-02
-1.387812e-02
9.819708e-03
-5.017832e-02
-4.224806e-02
-5.564549e-02
-1.846592e-03
2.725597e-02
-3.385723e-02
-1.731003e-02
2.791942e-02
-2.221976e-02
4.399478e-02
2.068903e-02
1.223855e-01
-2.238955e-02
1.438030e-02
1.115657e-01
-5.168856e-02
-8.732050e-03
1.262572e-02
6.069936e-02
8.263668e-02
-9.423306e-03
-4.148509e-02
4.473948e-02
4.028041e-02
-6.589950e-02
-5.853106e-02
1.609115e-02
-4.457745e-02
-9.447502e-02
-2.967076e-02
-1.977182e-03
-7.382983e-02
-5.292821e-02
5.425600e-02
1.537695e-02
-4.224611e-03
-3.709188e-02
-1.380941e-02
-4.234260e-02
-1.835005e-02
-6.037824e-02
2.066913e-02
6.962849e-03
-2.185838e-02
1.824589e-02
1.316404e-01
-4.704056e-02
-9.833736e-02
6.048792e-02
-1.045749e-02
-9.278639e-02
1.048816e-01
2.238940e-02
-1.153570e-01
2.264894e-02
1.630631e-02
3.243622e-02
7.201310e-03
3.671670e-03
6.458811e-02
-4.598233e-02
-1.051433e-02
7.411978e-02
-9.844367e-02
-6.885206e-02
-4.939887e-02
-4.112845e-02
2.950467e-02
9.282146e-03
-6.785614e-03
1.058543e-01
9.062584e-02
9.848982e-03
-4.632838e-02
-8.255797e-02
7.417573e-03
-2.619697e-02
-7.215533e-02
5.488937e-03
2.284583e-02
-9.100027e-04
-7.865690e-02
-9.234970e-02
-7.124862e-02
-2.494827e-02
-5.563139e-02
-5.319305e-02
2.502606e-02
4.025097e-02
1.792899e-02
-6.591456e-02
-1.526030e-01
-1.108659e-01
-1.190556e-01
-1.418208e-01
-3.276356e-02
-8.670265e-02
-5.345595e-02
-1.034615e-01
-1.295524e-01
6.182614e-02
-8.275962e-02
-1.412179e-02
1.795546e-01
-1.068191e-02
2.950486e-02
1.135297e-01
-1.188815e-02
1.091925e-02
-6.549808e-02
-2.008101e-02
-1.167951e-02
-1.032492e-01
-6.853336e-02
-4.201086e-02
3.757530e-03
1.420829e-02
8.356073e-02
3.032310e-02
1.042752e-01
3.400424e-02
1.138878e-01
7.227802e-02
-1.046961e-02
-1.043767e-02
-1.115369e-01
-4.542163e-02
-5.007721e-02
8.610342e-02
2.104888e-02
-5.687078e-02
-2.074752e-01
-1.074439e-01
-1.460661e-02
2.848852e-02
2.311416e-02
-4.575932e-02
-1.468114e-03
7.006183e-02
-8.169450e-03
-7.794071e-03
-2.655747e-02
5.610331e-03
-4.781929e-02
8.526538e-02
4.444387e-02
-9.081957e-02
-8.911955e-02
-4.573437e-02
9.338453e-02
-6.481142e-02
-1.419770e-01
5.162373e-03
-8.254867e-03
-1.765850e-05
-1.220335e-01
8.502385e-02
2.347272e-01
-7.977670e-02
-3.970946e-02
1.143098e-01
-4.730484e-02
8.651681e-02
-1.604146e-01
3.326050e-02
2.486155e-01
-1.568990e-01
2.014481e-01
1.208055e-01
-1.981056e-01
6.980229e-02
4.939931e-02
7.503238e-02
1.026981e-01
-1.648348e-01
-2.176117e-02
1.467567e-01
3.736540e-02
-3.965886e-02
7.045253e-02
-4.596328e-02
-1.692262e-01
2.150209e-02
-4.308457e-02
-2.031341e-02
2.387227e-02
-8.104838e-02
4.887028e-02
2.356177e-02
-1.033071e-01
1.943209e-01
9.379449e-02
5.158769e-02
3.723765e-01
-8.265595e-05
-8.371460e-03
2.443324e-01
1.041127e-01
-2.788381e-02
1.175427e-02
-1.306285e-01
3.029851e-02
1.429733e-01
5.148399e-02
-5.524047e-02
1.243360e-01
1.680985e-01
-6.453828e-03
-8.073182e-02
-5.237795e-02
-2.150045e-02
-8.887085e-02
-8.836453e-02
-7.376437e-02
-1.064596e-01
-9.976757e-02
-1.412546e-02
4.310269e-02
2.440770e-02
4.542778e-02
-4.455206e-02
-1.445042e-02
3.640339e-03
4.387666e-02
3.799334e-02
2.681548e-02
4.989257e-02
4.442572e-02
3.720552e-02
2.438361e-02
4.697750e-02
3.672386e-02
-1.614138e-02
1.471099e-02
1.069103e-01
1.108104e-01
4.265613e-02
1.322088e-01
6.032198e-02
1.202001e-02
-2.488866e-02
-6.996164e-02
-2.674626e-02
-4.626617e-03
-7.263567e-02
-1.604145e-01
9.095638e-02
5.178613e-02
-1.373811e-01
1.041646e-01
9.191918e-02
-8.853151e-02
1.254219e-03
4.566551e-02
4.037625e-02
-2.695825e-02
1.148011e-03
1.811874e-02
-4.532591e-02
-5.093804e-02
-2.897570e-02
7.703663e-02
1.460241e-01
9.025469e-02
6.984710e-02
7.585252e-02
-6.989186e-02
4.188132e-03
-9.771428e-02
-2.056348e-01
3.055234e-02
1.446643e-02
3.878590e-02
5.141506e-02
-2.849555e-03
-4.471799e-02
-2.321876e-02
2.590394e-02
1.032105e-02
2.597427e-02
6.502578e-02
6.674714e-02
-3.621471e-02
3.064163e-02
7.621616e-02
-5.993750e-02
-1.194341e-02
1.862997e-02
3.557870e-02
5.538270e-02
2.895199e-02
6.150571e-02
6.672335e-02
7.945064e-03
1.047211e-01
-2.913564e-03
-6.268316e-02
1.479610e-01
1.319080e-03
-1.458278e-01
1.317433e-01
2.651607e-02
-9.180247e-02
7.671057e-02
2.784988e-02
1.021386e-02
5.398044e-02
7.801652e-03
6.293953e-03
1.193526e-01
5.003812e-02
2.678664e-02
-3.244374e-02
-3.792317e-02
3.559042e-02
1.733865e-02
5.990057e-02
8.575670e-02
-7.959152e-02
-1.032876e-01
2.779520e-02
-1.184393e-01
-1.617138e-01
-7.979439e-02
1.812333e-01
9.551745e-02
-5.936300e-02
1.513477e-01
7.909324e-02
-7.970019e-02
1.147175e-01
3.831240e-02
-2.332203e-02
-5.689902e-02
-3.497196e-03
-1.473268e-01
5.077397e-02
-2.082659e-02
-1.429628e-01
4.434071e-03
2.750986e-02
-2.200747e-01
5.847816e-02
-4.949147e-02
-9.747159e-02
3.109929e-02
-9.695166e-02
-7.073002e-02
7.369755e-03
-8.696760e-02
-3.262295e-02
1.332590e-01
5.766027e-02
2.076397e-02
1.083462e-01
5.041827e-02
4.874896e-02
5.868406e-02
4.645763e-02
9.660819e-02
-2.979574e-02
4.417216e-03
-6.074616e-03
1.774839e-02
4.088366e-03
-2.136925e-02
4.391108e-02
3.072357e-02
1.592673e-03
-1.726131e-02
1.863127e-02
3.724311e-02
-6.845421e-02
-5.669077e-02
-3.166373e-02
-1.032208e-01
-1.272321e-01
-1.048266e-01
1.206044e-02
-1.517282e-02
-1.995923e-02
-3.576662e-05
-2.608481e-02
-4.134964e-02
3.169672e-02
-4.431207e-02
-1.481001e-02
9.207909e-02
7.054308e-02
7.707428e-02
7.927169e-02
8.725437e-02
7.765396e-02
6.565378e-02
1.075002e-02
7.385816e-02
-4.733342e-03
4.675336e-03
-1.072116e-03
-6.674773e-04
3.966650e-03
-2.367960e-03
-8.435059e-02
-6.195870e-02
-7.985421e-02
4.537999e-02
5.702319e-02
7.044526e-02
1.058440e-01
7.282425e-02
6.404465e-02
-1.654856e-02
-1.230682e-02
-7.327464e-02
3.116888e-02
3.705794e-02
1.030928e-02
-1.481861e-02
4.523554e-02
9.025618e-02
2.486250e-02
8.244187e-02
4.456185e-02
-1.252893e-02
-5.299259e-02
-8.272910e-02
6.661325e-03
-3.222638e-02
-4.221024e-02
3.300494e-02
-1.224180e-02
-2.578269e-02
-8.227894e-02
-1.806797e-01
-1.161503e-01
-9.904489e-02
-1.245580e-01
-1.291071e-01
-3.487625e-02
-4.524228e-02
-8.644884e-02
7.640035e-02
1.347018e-02
2.638725e-02
3.722915e-02
3.629807e-02
5.665956e-02
-2.598580e-03
5.992379e-02
5.204555e-02
3.118196e-02
4.990971e-02
-7.708529e-02
1.878465e-02
4.512191e-02
-6.839696e-02
1.436297e-03
6.868745e-02
-4.705688e-02
-1.847951e-02
-1.759627e-02
6.539605e-03
-8.989730e-03
1.942455e-02
-1.165455e-02
-2.669784e-02
-1.988929e-02
-5.394068e-02
-8.360080e-03
-3.824540e-03
3.548919e-02
-4.511325e-02
-1.056449e-02
3.874786e-02
-1.034796e-01
-4.831648e-02
1.574836e-02
1.324590e-01
6.624600e-02
5.096659e-02
5.943490e-02
8.028282e-02
6.990464e-02
3.661795e-02
8.731089e-02
7.820469e-02
5.182530e-02
5.602338e-02
1.759490e-02
8.552840e-02
5.111611e-02
2.697889e-02
7.488389e-02
4.075604e-02
4.918683e-02
-3.130531e-02
-3.699666e-02
-1.635184e-02
-7.721059e-02
-5.657878e-02
-1.290596e-02
-1.105997e-01
-8.951285e-02
-3.039758e-02
-1.223508e-02
-4.076702e-02
-4.388757e-02
-3.992926e-02
-4.896347e-02
-6.802681e-02
-2.152518e-02
-3.481050e-02
-2.686067e-02
-3.173057e-02
1.487308e-02
3.075429e-02
-3.548808e-03
-4.167084e-02
-2.682177e-02
1.515144e-02
-6.380617e-02
-9.619327e-02
-1.422709e-02
-9.802449e-02
-1.489622e-01
-3.969087e-02
-1.372827e-01
-1.082470e-01
-9.283485e-02
-1.941617e-01
-1.104298e-01
-5.376141e-02
-1.521975e-01
-7.736965e-02
-6.474368e-03
-3.503590e-02
-8.744831e-02
-2.675362e-02
4.024944e-02
1.489677e-03
9.491673e-02
1.156025e-01
8.803782e-02
7.858620e-02
7.216527e-02
6.429613e-02
2.375916e-02
3.635346e-02
-8.159181e-03
-1.506863e-02
1.281264e-02
-1.120196e-02
-3.145412e-02
-9.507732e-02
-1.362448e-01
-3.526294e-02
-9.875927e-02
-1.278700e-01
-3.414433e-02
1.010438e-02
-4.411009e-02
-4.718398e-02
2.466897e-02
-1.411317e-02
6.202749e-02
4.248650e-02
-2.913196e-02
4.706160e-03
-2.215156e-02
1.851171e-02
-3.223404e-02
-2.031828e-02
-1.769099e-03
-7.097818e-03
-7.876455e-03
9.099499e-03
-4.838328e-02
-1.184115e-01
-7.037545e-02
3.228689e-02
-8.650111e-02
-1.081184e-01
1.242132e-01
-6.260033e-03
-1.420296e-01
-8.762491e-02
-1.886468e-01
-1.401491e-01
-7.712704e-02
-1.598332e-01
-7.834908e-02
-1.276111e-01
-1.419412e-02
-1.133004e-02
-4.100466e-02
-5.206345e-02
-9.667773e-02
-3.314468e-03
-1.053795e-01
-1.262494e-01
1.291074e-02
-1.040741e-01
3.959988e-02
-5.384125e-02
-3.350650e-02
-2.153797e-02
-9.388839e-02
-4.998847e-02
-8.159763e-02
-3.371682e-02
-5.203683e-02
-4.914908e-02
-2.459588e-02
2.495191e-02
5.732856e-02
-2.036140e-02
8.409751e-03
5.703178e-02
-4.235721e-02
-5.737068e-03
7.205825e-02
8.823716e-02
9.972214e-03
9.404578e-03
1.020616e-01
5.444589e-02
3.050378e-02
3.877266e-02
6.932704e-02
6.080884e-02
-1.057511e-02
-6.057061e-02
-8.581676e-02
-4.817624e-03
-8.700853e-02
-6.311126e-02
1.471211e-02
3.268383e-02
1.228300e-02
3.594982e-03
2.266678e-02
4.280214e-02
-1.710649e-02
2.747085e-02
3.674997e-02
-3.382108e-02
6.910968e-03
1.897994e-02
-8.571589e-02
-4.473371e-02
-8.140204e-03
-6.938814e-02
-6.618534e-02
-6.238880e-02
6.439212e-03
-4.873894e-02
-4.040006e-02
1.423498e-01
1.130120e-01
4.936307e-02
5.080996e-02
2.132306e-02
3.347446e-02
-8.043493e-02
-1.162714e-01
-1.068026e-01
-1.123203e-01
-1.459952e-02
-3.566909e-02
-1.397714e-02
2.884806e-02
-3.902389e-02
5.743250e-02
5.827658e-02
5.525192e-02
8.192097e-02
9.561531e-02
-1.110878e-02
1.641787e-02
7.569280e-02
-4.291403e-02
1.884465e-03
3.583692e-02
-5.796820e-02
5.006233e-03
-2.769055e-02
2.559464e-02
4.892967e-02
4.863705e-02
4.421701e-02
1.609469e-02
1.081033e-02
2.153891e-02
-2.186715e-02
-3.474497e-03
-8.939926e-02
1.248656e-01
1.081307e-01
5.130985e-02
-4.972631e-03
8.116317e-03
8.220754e-02
9.256092e-02
9.963768e-02
3.817419e-02
-2.201532e-04
-4.429720e-02
7.980667e-02
1.237905e-01
2.179083e-01
1.829748e-02
-1.919935e-02
-3.185463e-03
1.157956e-02
4.777599e-04
2.011396e-02
3.721862e-02
6.830997e-03
3.008214e-02
4.047884e-02
-7.375669e-02
-8.527128e-02
-1.877116e-01
-1.280703e-02
1.205731e-01
-3.685100e-02
-9.407291e-03
7.372137e-02
1.261300e-01
-5.719831e-02
-2.106282e-02
-1.030314e-02
-3.877185e-03
6.294237e-02
2.969438e-02
-4.063892e-02
1.161229e-01
5.175141e-02
-5.459306e-02
5.755519e-02
4.091189e-02
1.793863e-03
6.253702e-02
-6.626126e-03
1.139330e-02
6.703860e-03
2.553426e-02
-7.596958e-02
-6.180635e-02
-1.166127e-01
-6.132847e-02
1.395275e-02
-7.347390e-03
-3.834743e-02
-2.473847e-02
-1.095883e-04
-7.195216e-02
-3.821148e-02
-5.107382e-02
1.010147e-01
-2.598740e-02
-2.700633e-02
-1.101799e-02
1.201536e-01
1.788050e-02
-7.022548e-02
1.226559e-02
-4.976033e-02
-1.149168e-01
6.130999e-02
-4.837879e-02
-1.166678e-01
4.681040e-02
-7.863633e-02
-6.433105e-02
3.011398e-02
-3.989032e-03
-3.421292e-02
5.927026e-02
6.245163e-03
-4.073159e-02
5.643335e-02
-1.650574e-02
-1.512787e-02
-2.621468e-02
-3.813828e-02
2.943544e-03
-2.227986e-02
-2.023058e-02
-1.838733e-03
-3.427948e-02
-3.300894e-02
-1.198890e-02
-1.185661e-02
-2.783258e-02
1.236016e-03
3.585102e-02
1.227346e-02
5.197772e-02
6.453960e-02
5.860210e-02
5.720071e-02
2.383287e-02
9.026343e-02
8.962157e-02
6.602815e-02
6.453006e-02
2.607258e-02
6.320103e-02
8.073328e-02
-1.927149e-02
-2.156072e-02
3.683823e-02
-4.463842e-03
-7.949667e-02
-5.073753e-02
-3.265066e-03
-2.658584e-02
-6.679503e-02
-7.517594e-02
-5.761810e-02
-5.010044e-02
-7.694346e-02
-1.213665e-01
-1.010671e-01
-4.240473e-02
-8.476012e-02
-1.061888e-01
-7.049099e-02
-6.112371e-02
-2.581395e-02
-7.440370e-02
-8.307492e-02
-7.436384e-02
4.638540e-02
1.573896e-03
-2.955123e-02
3.523852e-02
2.947337e-02
3.279273e-03
2.789897e-02
1.425287e-03
-3.071644e-02
-3.272603e-03
-3.607659e-02
-6.003362e-04
-7.087912e-02
-1.011051e-01
-9.611889e-02
-9.379344e-02
-5.688963e-02
-2.052400e-03
1.720678e-02
1.718208e-03
-4.215537e-03
2.936637e-02
4.198067e-02
5.494865e-02
-1.429658e-03
-3.556516e-02
-6.841485e-02
4.282674e-02
-1.061853e-02
-3.565025e-02
1.075745e-02
-7.193477e-02
-1.184441e-01
-7.362478e-02
-6.266701e-03
7.706826e-03
-6.354380e-02
3.488720e-02
1.170690e-01
-1.097566e-01
-1.360028e-01
-6.232238e-02
-1.276855e-01
-1.210904e-01
-1.002875e-01
-1.788094e-01
-1.895868e-01
-1.066177e-01
2.747562e-03
-6.698619e-02
1.658704e-02
1.905581e-02
-3.234737e-04
-1.697897e-02
-3.748107e-02
-2.459964e-02
-4.793351e-02
-7.436939e-02
-2.165100e-02
-4.466175e-03
-2.583735e-02
1.130786e-01
1.412027e-01
1.585846e-04
7.567418e-02
6.855911e-02
2.469166e-03
-4.752529e-02
-1.260155e-01
-1.032698e-01
-7.035802e-02
-3.306691e-02
-4.330286e-02
-4.177708e-02
3.217889e-02
-2.045601e-01
-1.275526e-01
-2.210266e-01
-2.561241e-01
-3.314685e-01
-2.527343e-01
-2.671683e-01
-3.024990e-01
-2.728966e-01
-2.387479e-01
-2.064192e-01
-1.060326e-01
-3.018157e-01
-1.889174e-01
-1.838390e-01
-3.479063e-01
-1.754305e-01
-1.504530e-01
6.967177e-02
3.703501e-02
1.781627e-02
2.261767e-02
-5.396004e-02
-2.161180e-02
3.079821e-02
-1.213673e-02
-2.450226e-02
9.370728e-03
-2.784697e-03
6.018412e-03
1.145945e-02
-4.045647e-02
-8.227131e-02
2.138661e-02
-3.071008e-02
-2.588301e-02
4.433341e-02
6.718820e-02
9.947785e-02
1.383609e-02
2.557184e-02
1.080039e-01
7.450194e-02
-1.598586e-02
5.681111e-02
4.308334e-02
1.808741e-02
-1.427815e-01
-1.332787e-02
-6.734737e-02
2.737254e-02
-8.402351e-02
1.448843e-01
2.023938e-01
6.422865e-02
1.857934e-01
3.307004e-02
2.317660e-02
-4.568711e-02
3.642130e-02
-1.254162e-01
-2.162139e-01
-1.479450e-01
3.489385e-02
2.700587e-03
-2.897520e-02
-1.262955e-01
-1.399088e-01
-1.041537e-01
-6.390103e-02
-1.536380e-03
8.429801e-02
-7.461629e-03
8.498050e-03
3.095314e-02
-1.698960e-01
-8.591217e-02
-6.243559e-02
1.239858e-01
1.709639e-02
2.382705e-02
-1.797048e-01
-2.013118e-01
-1.326072e-03
1.698841e-01
3.847961e-01
-4.145797e-02
-2.058964e-01
-3.607735e-01
-1.503696e-01
-1.514389e-01
-8.046898e-02
-2.584122e-02
-1.306042e-01
-5.533740e-03
-6.380436e-02
2.163981e-02
-4.134083e-03
-2.252594e-02
-2.241253e-02
9.426307e-03
9.409068e-04
1.478653e-01
-1.482750e-01
1.182711e-01
1.711782e-01
2.763980e-01
2.099658e-02
-4.295976e-02
1.022549e-01
-2.693038e-02
-3.442214e-02
9.674951e-02
4.569636e-02
1.542296e-01
8.518388e-03
1.307279e-01
1.402143e-01
-6.626971e-03
-4.566159e-02
5.278224e-02
-5.632197e-02
-5.278727e-02
-8.135229e-02
3.833400e-02
-1.437832e-01
-1.259821e-01
-1.910971e-01
-1.442917e-01
1.604459e-01
-2.705166e-02
9.454409e-02
8.214565e-02
2.838371e-01
1.097293e-01
1.236847e-01
4.869759e-02
-3.497596e-02
-1.553265e-01
3.388729e-02
-7.731575e-02
2.502783e-01
-3.431118e-02
-7.383658e-02
2.298176e-02
6.901710e-02
-8.119678e-02
3.477448e-02
2.267374e-01
5.049274e-02
4.143038e-02
2.375172e-02
2.308104e-01
-6.463442e-02
-4.228526e-02
5.607498e-03
-5.003071e-02
1.225751e-01
1.280389e-01
8.048920e-02
3.313074e-02
8.915173e-02
8.294834e-03
-9.484745e-03
-6.508451e-02
-1.942692e-02
-5.305838e-02
-4.272495e-02
-5.771712e-02
-4.807847e-02
-3.274839e-02
8.281660e-02
5.906719e-02
4.290655e-02
1.641949e-02
-4.312650e-02
-1.792845e-02
-1.196065e-01
-5.843190e-02
-7.470538e-02
1.141643e-02
1.054637e-01
4.360700e-02
1.018121e-02
3.871267e-02
6.424909e-02
-1.102099e-01
-1.076942e-01
-6.317542e-02
-5.997344e-02
-2.419975e-02
-7.095002e-02
6.662966e-02
1.534602e-03
-1.724037e-02
4.833592e-02
1.641420e-02
-6.767888e-02
-2.120660e-02
-1.056044e-01
-3.202702e-03
7.492823e-03
-5.574965e-02
9.632153e-03
6.081411e-02
6.405068e-03
5.953100e-02
-7.120921e-02
-3.695955e-02
-1.293731e-02
6.272153e-02
6.697975e-02
1.239319e-01
-3.290916e-03
1.420607e-02
1.296921e-02
-9.726433e-02
-3.947856e-02
1.752141e-02
2.572541e-02
5.751321e-02
1.092158e-01
-1.176373e-01
-1.245624e-01
-7.298864e-02
5.029867e-02
8.933479e-02
7.624016e-02
-3.245974e-01
-3.849574e-01
-3.497028e-01
1.995235e-01
3.374568e-01
1.625183e-01
-2.359828e-02
5.653851e-02
-6.001567e-03
4.530029e-02
4.349170e-02
7.056303e-02
-3.705291e-02
3.993338e-02
7.544356e-03
-1.070382e-01
-8.772124e-02
-7.473897e-02
4.092936e-02
1.662540e-01
1.679641e-01
-3.496458e-02
-1.479244e-01
3.440956e-02
4.060194e-02
7.228755e-02
9.989560e-02
-1.318747e-01
-7.767206e-02
-3.033404e-02
-1.272423e-02
-2.722241e-02
-1.241095e-02
-7.095481e-02
1.685691e-02
4.654178e-02
-4.812608e-02
-8.448252e-03
2.734090e-02
-3.331730e-02
4.841109e-02
8.177780e-03
2.193648e-02
9.348564e-02
5.768105e-02
-1.330650e-01
-5.749473e-02
-3.425118e-02
-3.360059e-02
-2.133836e-02
-5.681983e-02
-3.574862e-02
-9.484109e-02
-1.062058e-01
1.057477e-01
1.042931e-01
5.413911e-02
-9.323846e-02
-6.207088e-03
8.450932e-03
-1.920797e-02
-1.735046e-02
-2.078715e-02
-4.361351e-03
-1.460245e-01
-5.996019e-02
3.044912e-02
-1.617467e-03
-1.358680e-01
1.243683e-02
1.495880e-02
-8.089532e-03
1.216228e-02
-8.956295e-02
-8.524106e-02
-5.135966e-02
-8.661342e-02
-5.300722e-02
3.536969e-03
1.498157e-02
-4.667323e-02
-4.084560e-02
-7.644983e-02
-9.336317e-02
5.590374e-03
-1.311333e-02
-1.137094e-02
-1.941253e-01
-1.428112e-01
-1.410405e-01
9.825008e-03
2.437646e-02
4.593162e-02
8.079144e-02
7.335985e-02
1.009948e-01
-7.349809e-02
-7.768487e-02
-3.363946e-02
-1.352528e-02
2.067317e-02
7.688568e-02
8.115271e-02
8.158684e-02
9.336320e-02
-8.850738e-02
6.838187e-02
-2.134674e-02
-1.251256e-01
1.696575e-01
-2.292381e-02
-8.634350e-02
-6.804609e-02
4.941264e-02
-2.517107e-02
5.364563e-02
4.514984e-02
-5.483154e-02
3.844100e-02
5.654417e-02
-8.697359e-02
-2.561206e-02
-1.622432e-01
-3.913941e-02
-2.170255e-02
6.645504e-02
-6.355276e-02
-1.589875e-02
1.325116e-01
3.057923e-02
7.840030e-02
7.517366e-02
5.303860e-03
5.814168e-02
-5.938364e-03
1.488117e-01
3.865171e-02
-3.694962e-02
1.467472e-01
7.003874e-02
5.760645e-02
1.474170e-02
1.254604e-01
-8.423827e-02
6.274816e-03
-1.016939e-01
4.861391e-02
5.729407e-02
1.240943e-01
5.821161e-02
-2.230130e-02
6.097439e-02
-4.534706e-02
2.676888e-02
4.401745e-02
-1.778064e-02
-4.481404e-03
5.180482e-02
3.602933e-02
-1.472270e-01
-2.828125e-01
-1.419472e-01
-8.650779e-02
2.399019e-01
-2.122476e-01
-1.180814e-02
5.718817e-02
-1.631134e-02
-4.552193e-02
-6.618511e-02
4.258798e-02
1.872251e-01
-1.944723e-01
9.484114e-02
-7.570650e-02
-5.641329e-02
1.059293e-02
-1.618855e-01
3.170998e-02
-1.824766e-01
-2.049692e-01
2.735288e-01
-3.665416e-01
-4.983644e-02
5.266703e-02
-2.420237e-01
8.123851e-02
-4.091786e-02
-1.567715e-01
7.326157e-06
2.020154e-01
-1.660013e-01
2.736654e-02
1.378607e-01
-5.716787e-03
-1.859956e-01
-5.136769e-02
-1.453692e-01
-1.344690e-02
-8.044335e-02
9.088009e-03
1.258105e-01
5.304047e-02
-3.574108e-02
-3.727859e-02
-3.035077e-02
-1.337360e-01
-1.071113e-01
-4.901138e-02
1.700010e-01
1.091759e-02
-7.556608e-02
-7.475509e-03
-7.926632e-02
-9.891839e-03
1.407026e-01
1.293414e-02
-5.124082e-02
1.544206e-01
-2.380282e-02
-1.305559e-02
1.202230e-01
1.033743e-01
1.196389e-01
1.605375e-01
1.392923e-02
9.945852e-03
3.128545e-02
4.851465e-02
3.665350e-02
1.512065e-02
2.674901e-02
-2.476429e-02
-4.956757e-02
-7.224719e-02
1.199036e-02
5.261295e-02
4.898021e-02
1.090506e-01
4.454646e-02
1.625059e-02
1.157832e-02
-9.030723e-03
-9.906942e-02
-6.336125e-02
-3.656244e-02
-1.177037e-01
-4.422027e-02
1.107066e-01
-9.888916e-02
5.106741e-02
1.389671e-01
-9.013788e-02
1.322105e-01
1.283014e-02
9.796492e-02
1.340903e-01
1.018554e-02
-1.049414e-01
-3.935349e-02
-1.817448e-02
-2.907905e-02
-7.530716e-02
-4.777116e-02
7.292472e-02
2.410952e-02
-7.299589e-02
1.070935e-02
6.575141e-03
3.368650e-02
1.488007e-02
5.538010e-02
8.706878e-02
-1.049721e-01
-1.679348e-01
-1.162513e-01
-9.488323e-02
-6.605463e-02
9.403610e-03
8.852243e-02
9.675049e-02
1.656960e-01
-1.631293e-01
-2.392261e-03
8.237384e-02
1.997622e-01
2.802168e-01
8.163376e-02
-1.805068e-01
-1.787290e-01
7.301326e-02
1.340144e-01
2.092280e-02
-3.743162e-02
1.441803e-01
6.001848e-02
-5.870588e-02
7.444050e-02
3.821926e-02
9.211683e-02
8.141487e-02
6.984070e-02
9.893703e-02
2.350340e-02
-2.202443e-01
1.691668e-02
1.955932e-01
6.035371e-02
-1.334775e-01
5.760493e-02
2.075927e-01
1.404578e-01
-1.851621e-01
-5.171695e-02
4.669852e-02
-2.695669e-02
-1.119337e-01
-5.654866e-02
5.413265e-02
1.265052e-01
4.983795e-02
3.461607e-02
-4.516188e-02
-8.656561e-02
-1.098258e-02
6.610570e-02
-1.490071e-01
-1.912406e-02
9.117290e-02
2.127512e-02
6.243043e-02
4.454339e-02
2.928738e-02
-6.489152e-02
5.105097e-02
-5.755413e-02
-3.244424e-02
-6.378828e-02
4.397296e-02
8.720402e-03
7.537504e-02
6.713706e-02
1.435577e-01
-6.543090e-02
9.753772e-02
1.509624e-01
8.644865e-02
8.022243e-02
2.717435e-02
-9.759264e-03
1.337912e-01
-6.154469e-02
-2.312900e-01
-8.479723e-02
1.456791e-01
-4.859366e-02
-1.073120e-01
-1.303876e-01
1.097686e-01
5.300936e-02
-9.756513e-03
-6.241668e-03
-5.948072e-02
2.347459e-02
1.611832e-01
7.705747e-02
6.595883e-03
9.927104e-03
-3.130968e-02
7.961868e-03
3.992484e-03
-5.519345e-02
-6.558216e-02
-9.054267e-02
-7.229563e-02
-1.047573e-02
-1.349210e-02
-6.218630e-02
-2.876175e-02
-5.786392e-03
2.954834e-03
1.172762e-01
5.331281e-02
3.987004e-02
4.316539e-02
-4.005462e-02
-3.527281e-02
1.277404e-02
-1.036758e-01
-1.070275e-01
4.438491e-02
1.145724e-01
9.625478e-03
