-6.644715e-02
-1.198814e-01
-1.576016e-01
-5.790327e-02
-1.188666e-01
-7.171720e-02
-1.297719e-01
-6.289937e-02
-4.334429e-02
8.286017e-03
-5.479646e-02
3.465125e-04
1.948492e-01
1.656640e-01
7.186753e-02
1.200889e-01
1.582049e-01
6.368356e-02
7.666809e-03
1.329828e-02
-3.708540e-03
2.886699e-03
1.523796e-02
4.960006e-03
-3.596273e-02
-2.718109e-02
-5.425541e-02
3.095725e-02
3.791274e-02
-1.009621e-02
8.077024e-02
7.710472e-02
5.716119e-02
-2.694574e-02
-1.618235e-01
-1.341916e-02
-2.116209e-01
-6.692225e-02
9.035675e-02
-1.787057e-01
1.408275e-01
3.698521e-01
6.645157e-02
3.258886e-01
3.788088e-01
-8.190586e-02
2.145248e-03
2.505920e-02
-1.346859e-01
-1.792200e-01
-1.409405e-01
-1.148724e-01
-2.329741e-01
-2.541943e-01
-1.773444e-01
4.202842e-02
2.163142e-01
-1.094047e-01
8.498006e-02
3.607233e-01
-1.324081e-01
-4.555897e-03
1.679407e-01
-1.446337e-01
-1.376643e-01
-1.396940e-01
1.251607e-01
6.540539e-02
-1.362690e-01
2.624032e-01
2.120307e-01
6.687110e-02
-4.620885e-02
-2.114901e-02
-1.849844e-02
-4.050854e-02
-4.753689e-02
-4.339632e-02
3.857667e-02
1.705991e-02
5.013253e-03
-5.259420e-02
1.563466e-02
2.400133e-02
2.453637e-02
8.195784e-02
3.863917e-02
1.108646e-02
2.759229e-02
-2.396605e-02
3.600301e-02
3.604567e-02
-5.615088e-02
7.674022e-02
-2.980396e-02
-1.887407e-01
5.771473e-02
-1.103003e-01
-1.752611e-01
-9.875581e-02
-1.246505e-01
-1.398468e-01
8.136792e-02
-1.430293e-02
-9.000357e-03
1.673864e-01
1.140249e-01
9.310923e-02
6.099730e-02
8.592562e-04
-3.304600e-02
-1.141440e-02
-1.751238e-01
-1.142817e-01
1.148192e-02
-2.044131e-01
-1.489679e-01
2.928550e-02
-1.105733e-02
2.558293e-02
-2.012406e-03
-1.980375e-01
-1.459107e-01
7.518226e-02
4.089190e-02
7.533031e-02
5.953867e-03
-4.104809e-02
-6.256521e-03
1.120807e-01
1.236642e-02
-3.786846e-02
1.260806e-01
5.266966e-02
-3.484102e-02
1.186311e-04
-5.927428e-04
1.512130e-03
7.070516e-04
-6.753051e-04
-3.825990e-03
5.247546e-04
-1.392026e-03
-1.327959e-03
9.403797e-03
-1.199946e-02
4.045462e-02
1.145779e-01
1.110983e-01
1.050792e-01
9.475090e-03
9.065080e-03
4.695019e-02
-2.134940e-02
-4.950066e-02
9.843007e-02
9.468774e-02
6.067997e-02
4.064401e-02
1.074977e-01
1.255728e-01
4.965402e-02
2.477080e-02
3.313181e-02
-9.725121e-03
-1.469127e-02
-7.573758e-03
-1.598491e-02
5.569778e-02
-5.337607e-03
-4.052625e-02
3.245169e-02
-8.995324e-02
-6.503837e-03
4.900866e-02
-3.135553e-02
-2.539101e-02
-8.734132e-02
1.700467e-02
-6.191995e-02
-6.323152e-02
6.219247e-02
-9.210157e-02
-6.589589e-02
1.470317e-01
6.791091e-02
6.866174e-02
1.206413e-01
1.125950e-01
4.982963e-02
-3.506677e-02
-7.701299e-02
3.834316e-02
5.374946e-03
-4.659082e-02
-6.969108e-02
-4.261114e-05
6.788979e-03
-3.405567e-02
4.638274e-02
1.141537e-01
3.667876e-02
7.953648e-02
9.098842e-02
1.598216e-02
-2.707679e-02
-3.129561e-02
-3.338138e-02
-3.463428e-02
-5.064020e-02
1.557053e-01
1.543123e-01
-2.145100e-01
9.417750e-02
2.839619e-02
-2.091083e-01
2.563669e-02
-3.416279e-03
-4.472892e-02
3.374961e-02
4.103610e-02
5.166458e-02
-7.020184e-02
-2.474850e-03
4.230590e-02
3.350608e-02
4.470627e-03
-4.883032e-03
-3.176856e-02
-1.322246e-01
-2.237590e-02
-1.011495e-03
-8.299737e-02
-1.862051e-01
-3.328459e-02
5.379249e-02
5.502957e-03
-1.208912e-02
6.937689e-02
-1.137608e-02
2.695310e-02
2.141199e-02
-5.023303e-03
-5.702572e-02
-8.134615e-02
-1.211082e-02
1.201703e-01
8.132102e-02
1.481622e-01
1.098686e-01
5.249510e-02
1.082639e-01
7.353883e-02
7.544518e-02
-1.136019e-01
-1.222172e-03
6.470663e-02
-3.959652e-02
-1.665081e-01
-8.744235e-02
-6.894414e-02
1.667594e-01
4.041079e-02
-4.684657e-02
2.214011e-01
2.128069e-01
-1.342290e-01
7.234251e-02
-1.024922e-01
-3.998016e-02
2.921869e-02
5.095402e-03
8.367231e-02
4.710240e-02
2.385980e-02
-2.338112e-02
-7.776212e-02
-8.798379e-02
-6.714673e-02
-1.721464e-03
2.978313e-03
3.016271e-03
9.177233e-04
-1.878125e-03
2.479331e-03
-1.799022e-03
-3.539846e-03
-3.137283e-03
-7.601471e-02
-4.954857e-02
-7.182766e-02
-9.149496e-02
-4.240080e-02
-7.153461e-02
-1.829563e-02
3.677630e-02
3.072988e-02
-4.504472e-02
-1.051726e-01
-7.202452e-02
-7.525465e-03
-4.987768e-02
-5.110925e-02
3.404227e-02
1.188807e-02
2.489408e-03
4.120712e-02
3.649791e-02
-9.077176e-03
6.706245e-02
8.123623e-02
4.966123e-02
4.849335e-03
1.903145e-02
-4.155795e-02
-7.642743e-02
-3.178542e-03
1.100826e-01
4.721903e-03
4.289431e-02
8.900116e-02
-4.155957e-02
1.145307e-02
4.050424e-02
-6.735547e-02
2.433217e-02
-7.538398e-02
-1.652668e-01
-9.312564e-02
-1.087897e-01
-6.471909e-03
-1.481597e-02
5.850513e-03
4.739948e-02
1.102534e-01
7.081235e-02
2.835095e-02
1.304902e-01
8.050290e-02
-4.117150e-02
6.767075e-02
4.718253e-02
8.267914e-02
5.419400e-02
1.615040e-01
1.072936e-02
1.417965e-02
9.239139e-02
-1.849240e-02
-2.712701e-02
4.085502e-02
-1.814318e-02
-4.578129e-02
-2.094491e-02
8.093173e-03
8.852756e-02
7.295184e-03
-1.240693e-01
-6.313835e-02
-6.393233e-02
3.119297e-02
3.158846e-02
6.119969e-03
3.468392e-02
3.732368e-02
2.863847e-02
2.148347e-02
3.668923e-02
4.350634e-03
1.122080e-02
-3.396773e-02
-1.253467e-01
1.556039e-01
1.734522e-01
1.509103e-01
2.280845e-01
2.104310e-01
1.279916e-01
-6.732248e-03
-2.586652e-02
5.203575e-02
2.338318e-02
-2.099735e-02
-3.192153e-02
1.913623e-02
-1.318750e-02
-4.697207e-02
-1.109101e-01
-7.997187e-02
-5.994023e-02
-6.240964e-02
-1.120750e-01
-5.448942e-02
-2.868168e-02
-3.772856e-02
5.743247e-03
-3.984631e-02
-3.586228e-02
2.855825e-02
8.455710e-03
-5.716129e-03
7.377937e-03
-4.064419e-02
-7.401449e-02
-1.130654e-01
-5.343715e-02
5.584676e-02
-4.398939e-02
-1.162394e-01
2.925111e-02
-7.316413e-02
-1.114399e-01
-7.439808e-02
-2.139435e-02
-5.148935e-02
5.378223e-03
8.754879e-02
-7.832256e-02
-2.258695e-02
4.541789e-02
-1.017466e-01
-6.398181e-02
-1.019114e-02
-4.256665e-04
-8.627797e-04
6.759606e-04
7.276105e-04
-6.624927e-04
1.470567e-03
1.590611e-04
-6.080134e-04
-4.624072e-03
1.485474e-02
-1.675827e-02
3.406580e-03
-5.200984e-03
-1.219067e-02
-5.104347e-03
1.382237e-02
6.273946e-03
-2.653983e-02
1.970593e-03
-4.792776e-02
-6.492008e-02
-1.278663e-02
-3.009062e-02
-7.329620e-02
2.616416e-02
1.601230e-04
-2.969976e-02
-1.033396e-01
-4.850342e-02
3.547628e-03
1.300340e-02
5.104841e-02
1.021668e-01
1.417186e-02
1.012422e-02
1.287573e-02
6.552207e-02
-8.758625e-03
7.788531e-02
-2.919484e-02
2.664925e-03
6.421494e-02
3.128231e-02
1.667917e-02
8.943584e-03
-5.260688e-02
3.167352e-02
7.105622e-02
-5.862791e-02
4.310558e-02
5.588992e-02
-4.122674e-02
3.088823e-02
4.387509e-02
4.395259e-03
-6.168503e-03
2.716139e-02
2.836529e-02
4.263869e-02
3.924538e-02
4.829057e-02
7.367176e-02
7.488843e-02
4.014660e-02
9.187424e-02
1.185375e-01
-1.977880e-02
-4.357549e-03
-3.931992e-03
-3.610817e-02
-7.958411e-02
-1.076096e-01
-9.066673e-02
4.893475e-02
5.668315e-02
-1.236469e-01
2.111394e-01
1.002946e-01
5.447442e-02
1.938023e-01
-3.595753e-03
-3.339262e-02
-1.251742e-02
1.583794e-03
8.395066e-02
9.075503e-02
1.096303e-01
-1.304686e-01
-1.642592e-01
-1.454473e-01
-6.855029e-04
-1.492148e-03
4.945338e-03
7.379349e-02
4.000356e-02
3.316522e-02
7.178161e-02
5.825157e-02
5.466490e-02
3.640176e-02
4.549556e-02
9.974916e-02
-3.759690e-02
-5.462027e-02
2.264090e-02
-1.034004e-01
-1.088863e-01
-1.624362e-02
-4.407105e-03
-5.257319e-03
2.601966e-02
-5.940776e-02
-5.842666e-02
3.170080e-02
-6.396347e-02
-3.136210e-02
2.256570e-02
3.854533e-02
-7.455125e-03
-7.841717e-03
5.777184e-02
1.047004e-01
1.563203e-01
3.682811e-02
3.495357e-02
1.146515e-01
-1.337617e-01
1.147305e-01
1.000456e-01
-1.708339e-01
1.649152e-01
6.557694e-02
-1.095173e-01
1.059065e-01
5.779715e-02
-5.621433e-02
-2.591603e-02
-1.645271e-02
4.328179e-02
6.253234e-02
2.323520e-02
7.816772e-02
5.605611e-02
3.622913e-02
-2.155528e-04
1.597623e-03
1.995167e-03
-8.962268e-04
1.352115e-03
-3.273395e-04
8.872401e-04
3.219151e-03
4.854058e-04
1.031958e-01
1.385177e-01
6.419837e-02
1.756373e-01
6.364059e-02
1.413967e-01
-4.753879e-02
1.273782e-01
6.006831e-02
-1.043939e-01
5.582497e-02
-9.971302e-02
2.459973e-01
-4.801233e-02
8.325737e-02
5.563502e-02
-1.135014e-01
-1.413361e-01
8.276328e-02
1.021019e-01
7.486577e-02
1.297546e-01
1.003972e-01
5.154743e-02
5.328829e-02
1.773259e-01
2.022963e-01
-4.892391e-02
1.680035e-01
-1.615939e-01
9.098567e-02
-1.369191e-01
3.284005e-02
2.029824e-01
2.630256e-02
2.283161e-01
-1.355337e-02
-8.562624e-02
1.262668e-02
-1.331910e-01
2.048221e-01
-1.150573e-02
-3.333210e-01
-2.913340e-01
-2.603298e-01
7.828602e-02
1.547529e-01
1.024669e-01
1.079867e-01
5.941471e-03
5.113767e-02
1.181982e-01
1.879765e-02
-6.871165e-02
-3.049751e-02
-4.965181e-02
-1.645880e-01
1.255546e-01
-6.642423e-02
8.859570e-02
1.031492e-01
3.610226e-02
1.865694e-01
6.419507e-02
1.818886e-01
-4.082087e-02
2.163749e-01
-4.492209e-01
4.077614e-01
-1.873293e-01
5.185662e-02
-1.593512e-01
3.400860e-02
1.561969e-03
3.986656e-02
-1.484598e-01
-1.298830e-01
-1.898308e-01
-8.732138e-02
-1.186933e-01
-1.377847e-01
-4.519658e-02
-1.337626e-01
1.298358e-01
-4.450990e-02
8.572417e-02
-9.042951e-03
1.570169e-01
4.691268e-02
1.978774e-01
-1.230577e-01
-2.577481e-02
-5.264589e-02
-5.111334e-02
-7.654069e-02
-8.155355e-03
-1.098416e-01
7.534023e-02
-1.176755e-01
7.934709e-03
9.654766e-02
5.843440e-02
4.038458e-02
1.139181e-01
-1.020381e-02
1.898017e-02
-8.167177e-02
-7.132088e-02
-1.539859e-01
1.252495e-02
-1.391553e-01
-3.139948e-01
-8.748378e-02
4.319778e-02
-1.631283e-01
2.199749e-02
-7.611522e-03
1.307623e-01
-3.373965e-01
7.866300e-02
9.146946e-02
-4.670878e-01
6.618766e-02
4.307221e-02
-2.017047e-01
-4.913708e-02
-7.018648e-02
-1.042893e-01
-9.684710e-02
2.776020e-02
-3.554972e-03
-6.215714e-02
5.659860e-02
6.697121e-02
-2.132484e-01
-1.090837e-04
-2.351983e-03
-3.017417e-03
1.164392e-03
-1.382363e-03
-3.862091e-03
3.423192e-03
7.773130e-04
-2.226664e-03
-7.309464e-02
-1.139910e-02
-8.467846e-02
1.155281e-02
-6.345313e-03
-6.755610e-02
4.274374e-02
9.317803e-02
1.142013e-03
-1.139815e-01
-1.779276e-01
-6.724138e-02
9.887093e-02
1.407896e-01
-3.009566e-02
2.705353e-01
4.096466e-01
4.761486e-02
-1.158025e-01
-5.808048e-02
-8.837144e-02
-1.801067e-02
-6.094397e-03
-7.961664e-02
-1.309384e-02
-2.942025e-02
-9.972998e-02
5.774861e-03
9.089424e-02
5.543367e-02
5.856120e-03
-7.487591e-02
-1.218813e-01
-3.973160e-02
-7.939982e-02
-1.280989e-01
5.592987e-02
1.085779e-01
-2.154343e-01
-2.298410e-02
3.446742e-01
2.238205e-01
-1.818219e-01
6.230747e-02
2.453760e-01
2.035997e-02
-5.549435e-02
-6.736588e-03
2.385532e-02
-8.949956e-02
-8.251830e-02
8.697701e-02
5.726797e-02
1.426116e-02
-9.609272e-02
-3.996391e-03
1.063505e-01
-2.766973e-03
-1.309005e-01
-1.364227e-01
8.674528e-02
-1.806546e-01
-2.809436e-01
9.110422e-02
1.461486e-01
4.386955e-02
-9.011555e-02
7.870424e-03
6.866042e-02
-1.539702e-01
-1.510370e-01
7.116356e-02
1.094290e-01
9.125609e-02
8.629676e-02
-2.712589e-03
1.965908e-04
9.131200e-04
-2.319824e-02
2.740343e-03
1.661506e-02
-3.692421e-02
3.420652e-02
-2.912605e-02
-6.502357e-02
1.249838e-02
9.175639e-02
-3.241063e-02
2.057022e-02
1.207541e-01
-5.758107e-02
-6.370416e-02
4.844485e-02
-2.678683e-02
1.093293e-02
1.039642e-01
7.404935e-02
7.814743e-03
-7.666777e-03
-1.033169e-01
3.377312e-02
-2.052559e-03
2.892031e-02
1.174320e-01
9.693586e-02
1.050916e-01
1.650162e-01
1.202793e-01
2.545844e-02
-6.643606e-02
-1.904546e-01
-1.554630e-01
1.369590e-02
7.822997e-04
-2.965287e-01
-1.596057e-02
2.598124e-01
4.353799e-03
-3.620280e-02
1.734783e-01
4.178326e-02
4.903836e-02
-1.039258e-01
9.855096e-02
2.953023e-02
-1.304671e-01
-1.701544e-01
-1.833592e-01
-5.877389e-02
-4.569195e-02
-8.887824e-02
-1.140990e-01
1.822855e-01
2.133962e-01
-9.654870e-02
-1.472425e-03
1.485258e-03
3.910042e-04
-2.949855e-04
-1.103436e-03
-7.496538e-04
-1.228906e-03
2.671693e-03
1.505621e-03
5.034033e-02
-7.364042e-03
-6.372372e-02
7.172123e-02
3.723042e-02
-5.524263e-02
7.682201e-02
1.142062e-01
3.899049e-03
-1.788790e-03
3.000963e-02
-2.143741e-02
5.116241e-02
1.623756e-01
9.852897e-02
5.988939e-03
1.802107e-02
2.453151e-02
7.030317e-02
7.373334e-02
7.995801e-02
7.685118e-03
-5.765560e-02
-5.336461e-02
1.432258e-03
-9.897395e-03
-4.339773e-02
-1.657596e-02
-6.176376e-02
-8.756997e-02
-1.089490e-01
1.111766e-02
1.190531e-01
7.245205e-02
-5.258130e-02
9.291093e-02
-6.733783e-02
-2.016267e-01
8.136393e-02
9.921771e-02
-2.326723e-02
8.214074e-02
-4.559344e-02
-6.415346e-02
-1.038121e-01
-5.091753e-02
-3.371602e-02
-1.768740e-03
-1.162762e-01
-3.603441e-02
1.126940e-01
-8.391065e-02
-2.017304e-02
1.542614e-01
-4.031290e-02
-4.389341e-02
-7.445937e-02
5.396066e-02
-1.400586e-02
-5.768494e-02
1.389406e-01
1.076231e-01
1.131811e-01
-3.953915e-02
-1.628775e-01
4.266984e-02
-2.427747e-01
-8.583297e-02
5.233628e-01
1.362163e-02
2.662965e-03
2.747743e-01
-2.799188e-02
8.281186e-03
6.297398e-02
5.219745e-02
7.647749e-03
-1.056674e-02
1.128688e-01
6.553308e-03
-4.994677e-02
5.470954e-02
5.047349e-02
7.995516e-02
5.496446e-02
-4.005026e-02
-8.649295e-02
-8.460757e-02
-9.646000e-02
-4.276682e-02
1.166750e-04
-7.944592e-02
-1.532753e-02
-5.546282e-03
-5.277923e-02
-1.873450e-02
4.539198e-02
2.057357e-02
-3.062157e-02
7.509251e-02
4.916924e-02
7.462732e-02
-3.755670e-02
-2.392038e-02
-3.091498e-02
-3.981540e-02
-1.431112e-02
3.223042e-02
-2.820555e-02
-8.443732e-02
4.404210e-02
-1.199883e-01
-3.646691e-02
1.264192e-01
-1.322057e-02
-1.470709e-01
-5.092071e-02
-1.799273e-01
-1.210026e-01
3.469471e-01
-1.816498e-01
-1.923238e-01
3.933533e-01
-8.647916e-02
-1.530726e-01
-6.578243e-02
-1.571952e-01
-5.791069e-02
-4.476744e-02
-8.839618e-02
5.226775e-02
5.829921e-02
-2.607227e-02
1.932528e-02
-3.081786e-02
-3.762511e-03
-3.780844e-03
3.478626e-03
-1.492027e-03
-1.394284e-03
-1.709002e-04
1.590374e-03
4.085017e-04
2.348116e-03
1.613209e-01
2.772476e-01
1.044084e-01
6.996024e-02
9.447045e-02
-9.711125e-02
1.441697e-01
2.147677e-02
-8.595013e-02
-3.382108e-03
-1.554872e-01
-7.040222e-02
-7.845789e-02
-1.794860e-01
1.566326e-01
-6.429622e-02
-1.892098e-02
3.350078e-01
-5.814595e-02
-4.239894e-03
5.799779e-02
-4.086821e-02
2.007766e-02
6.589719e-02
-1.482328e-01
-1.135816e-01
-8.983646e-02
-1.373547e-01
4.046280e-02
5.427070e-02
-8.136540e-02
1.786053e-01
8.872643e-02
2.258470e-02
-6.164704e-02
-1.178282e-01
-1.043911e-02
-2.142538e-01
-7.720904e-02
1.403122e-01
-1.477464e-01
-1.995488e-01
2.503063e-01
2.445953e-01
1.353136e-01
1.828223e-02
1.905505e-01
7.890851e-02
2.511051e-02
5.797353e-02
-5.167819e-03
-1.401359e-02
-1.369769e-01
-1.440683e-01
-1.950165e-01
9.134296e-02
2.873431e-01
-2.268805e-01
6.706008e-02
2.783199e-01
-1.720060e-01
-1.649161e-02
1.579919e-01
6.126907e-02
-7.260161e-02
-2.743550e-01
1.504588e-01
1.021857e-01
-1.498901e-01
2.066378e-02
3.384169e-02
1.714776e-01
-2.679832e-02
2.205724e-02
4.686084e-02
1.914689e-01
1.829708e-01
1.339162e-01
-2.143975e-02
-5.612454e-02
-1.251593e-01
8.149882e-02
2.336491e-01
1.704040e-01
1.490351e-01
2.547975e-01
1.485309e-01
-6.839221e-04
1.883369e-01
6.208082e-02
1.555904e-03
-1.052438e-01
-1.697913e-01
-1.110472e-01
-2.135047e-01
-3.181176e-01
-1.052668e-01
-7.988107e-02
-1.234558e-01
4.250096e-02
1.456135e-01
1.934938e-01
2.337733e-02
2.288280e-01
1.153777e-01
1.586439e-02
1.243460e-01
9.458753e-02
1.397563e-01
1.624290e-02
-8.182554e-02
2.708044e-01
-3.934960e-02
-4.095797e-01
7.515866e-02
-2.448783e-01
-5.102932e-01
-9.080787e-02
1.812028e-02
-4.767257e-03
-1.229979e-01
-1.116127e-01
1.369079e-01
-1.019152e-02
4.734529e-02
-2.930585e-02
2.922584e-02
7.081727e-02
1.255924e-01
-1.041267e-01
-2.035416e-01
9.686702e-02
-2.292077e-01
-2.703121e-01
1.114278e-01
2.720158e-03
-1.231045e-03
-3.994277e-04
2.012060e-03
2.939842e-03
-4.437122e-03
6.153786e-04
-1.585212e-03
5.762140e-04
1.356061e-02
-3.250739e-02
-1.915902e-02
7.736163e-02
-3.342872e-02
-4.206921e-02
7.475977e-02
-5.107826e-02
-5.400976e-02
-4.321847e-02
-1.246066e-01
-1.173510e-01
-5.708039e-02
-1.961500e-01
-1.284796e-01
-5.917105e-02
-1.540677e-01
-1.066310e-01
-6.231102e-02
-6.914370e-02
-6.151344e-02
-7.229912e-02
-5.767392e-02
-6.290617e-02
-3.892696e-02
-5.024171e-02
-5.587397e-02
-2.996466e-02
3.155357e-02
1.342874e-01
-2.015854e-02
1.006288e-02
1.114217e-01
2.143191e-02
1.879647e-02
8.248017e-02
1.423456e-01
5.487117e-02
-6.123734e-02
1.157016e-01
4.304868e-02
-8.775099e-02
-3.198351e-02
-5.870925e-02
-9.674596e-02
-4.398401e-02
-3.575855e-02
-2.801609e-02
-2.452751e-02
-1.582266e-04
3.387749e-03
-3.025199e-02
3.368785e-02
8.312096e-02
5.511516e-02
7.624251e-02
1.101197e-01
2.635590e-02
4.880095e-02
1.177548e-01
7.484821e-02
1.253363e-01
1.619589e-01
3.420189e-02
6.358343e-02
1.751637e-01
7.653767e-03
-2.062693e-02
1.079784e-01
-9.378383e-03
4.416922e-02
5.436888e-02
1.357829e-02
2.111725e-02
2.224807e-02
2.399454e-02
2.879664e-02
2.347214e-02
-1.574904e-02
-2.595750e-02
-3.073571e-02
-1.950850e-02
-6.919375e-02
2.131100e-03
-9.793045e-02
-1.079876e-01
-4.210693e-02
-7.377046e-02
-1.305444e-01
-1.203739e-01
-4.439957e-03
-2.242423e-02
-3.073934e-02
-3.479081e-02
3.148123e-03
1.525216e-02
-7.207861e-02
1.188738e-02
8.217227e-02
-1.274654e-01
-4.041550e-02
3.757505e-02
-3.882004e-02
2.049859e-02
-9.706632e-03
-2.357386e-02
-2.046142e-02
-8.670577e-02
2.763982e-02
8.103769e-02
5.377696e-02
1.062793e-01
1.234859e-01
5.841406e-02
4.907412e-03
1.834224e-02
-1.352908e-02
-3.933309e-02
-9.929030e-02
-1.866071e-02
-6.045134e-02
2.324472e-02
-3.515793e-02
-2.948152e-04
1.168499e-01
-2.444889e-03
7.897246e-03
-4.795188e-02
-1.060828e-01
2.194472e-02
-7.306236e-02
-9.954461e-02
-1.346883e-02
-6.342904e-02
-9.790474e-02
6.800421e-04
2.307697e-03
2.756509e-03
-1.079697e-03
-1.450969e-03
-2.282560e-03
1.922210e-03
6.777632e-04
-1.911115e-03
5.049548e-02
5.671696e-02
-1.057181e-01
-2.230765e-02
1.461527e-02
-9.484819e-02
-1.227089e-01
-6.975298e-02
-4.896832e-02
-1.910513e-01
-2.258024e-01
1.842275e-02
-1.359369e-01
-8.162716e-02
1.103919e-01
-3.466182e-02
-3.045908e-02
1.423144e-01
-5.457212e-02
-3.930004e-02
-2.138782e-02
-1.566919e-01
-1.496046e-01
-1.138263e-01
-1.494347e-01
-2.025487e-01
-1.794359e-01
-4.287256e-02
-8.663768e-02
-1.529848e-02
1.761764e-02
1.181638e-01
-6.675619e-03
-6.961291e-04
5.447057e-02
1.963762e-02
-2.782631e-02
-6.819101e-02
-2.098677e-01
3.900023e-02
-7.566575e-02
-1.871886e-01
-6.731881e-03
-1.526139e-02
-2.104777e-01
-1.298869e-01
-1.850521e-01
-1.695819e-01
-8.081832e-02
-1.002619e-01
-5.404102e-02
1.161011e-02
7.991124e-02
1.134646e-01
1.456651e-01
1.231995e-01
-4.958893e-02
8.572397e-02
1.773693e-01
8.224426e-02
-7.909542e-04
1.061342e-01
6.748971e-02
-3.335803e-02
-3.291325e-02
1.088263e-01
-9.529946e-02
1.825790e-01
-9.618449e-03
-2.104286e-01
-1.222827e-02
5.392699e-02
-1.118444e-02
1.291440e-02
-3.402832e-03
2.321142e-02
3.164655e-02
5.348850e-02
-5.925433e-02
-4.480191e-02
-1.568706e-02
5.044877e-02
6.883389e-02
2.593008e-02
1.053342e-01
2.963590e-02
-3.324477e-03
6.538778e-02
4.874162e-02
-9.921844e-04
-5.100185e-04
1.352775e-01
1.862469e-01
-2.143046e-02
1.465059e-01
1.828886e-01
-1.468130e-02
1.094387e-01
1.848509e-01
1.515575e-01
1.629046e-01
4.997115e-02
9.332466e-03
8.168776e-02
6.453044e-02
-1.358335e-01
-5.832635e-02
1.235420e-01
-4.720485e-02
-9.781045e-02
-2.176411e-01
9.454704e-02
-9.123762e-03
-2.313336e-01
-2.313417e-02
4.344913e-02
-1.203465e-01
-1.477524e-01
-1.181049e-03
-2.214376e-02
-1.373228e-02
6.737330e-02
5.778693e-02
4.036415e-02
-4.524723e-02
-7.040186e-02
-1.317821e-01
-2.734423e-02
7.772257e-02
-1.521210e-01
-1.102301e-01
7.138667e-02
-1.673630e-01
-8.228821e-02
1.225597e-01
1.139410e-04
4.042709e-05
4.055377e-04
-3.073880e-03
-1.332472e-03
-8.348321e-04
9.365774e-04
1.068321e-03
-4.711628e-03
2.539383e-02
-3.555126e-03
1.174766e-02
6.667966e-03
-3.667167e-02
-3.975203e-03
4.646824e-02
-2.831097e-02
-3.202237e-02
3.228454e-02
-1.829394e-02
-8.277648e-02
-4.168148e-02
-2.754458e-02
6.157281e-04
-8.338665e-02
-1.136316e-02
-1.552812e-02
-2.097204e-02
-2.402900e-02
-3.017531e-02
-1.024275e-01
-9.472396e-02
-9.749673e-02
-5.336849e-02
-2.229352e-02
2.920291e-02
9.471776e-02
6.031249e-02
7.186603e-04
-2.219694e-02
-1.086701e-01
-3.132308e-02
5.578974e-02
8.528779e-03
1.929389e-02
2.193746e-02
-7.034469e-02
4.076388e-02
-9.107794e-04
-7.798501e-02
-3.791399e-02
2.321030e-02
-7.730334e-02
4.355161e-02
1.574007e-01
1.273973e-01
9.780917e-02
1.478948e-01
8.143910e-03
-5.696732e-02
5.028046e-02
-6.996404e-02
-1.389904e-01
-3.425667e-02
-4.686769e-02
-2.436809e-02
-8.220335e-03
-4.126431e-03
6.256106e-02
9.627547e-03
1.511819e-02
5.246052e-02
1.261292e-01
7.597145e-02
2.107391e-02
1.580235e-02
-1.538095e-01
-2.872354e-02
-5.186696e-02
2.000851e-02
-1.523545e-01
1.323618e-01
1.180934e-01
1.264191e-01
-1.720248e-01
-1.701311e-01
-1.751749e-01
-1.839149e-01
-1.614467e-01
-1.506319e-01
9.002905e-02
6.214960e-02
6.353696e-02
-6.116268e-02
-2.417788e-02
-2.775635e-03
5.767947e-02
2.947486e-02
5.779937e-02
1.997033e-02
-8.506969e-02
-2.004750e-02
2.334893e-02
-6.085796e-02
-1.971249e-02
3.192743e-02
-2.570089e-02
3.178601e-02
-2.186699e-02
-6.426794e-03
-1.687451e-02
-4.145911e-02
-1.830547e-02
-4.596360e-02
1.015232e-02
-4.596255e-02
-7.884535e-02
3.175548e-02
-1.336956e-02
-1.098136e-02
-3.301302e-02
-1.669870e-01
-1.403928e-01
1.230170e-01
-4.195434e-02
-7.924660e-02
-8.009166e-02
-1.350515e-01
-8.208405e-02
-3.089089e-02
-7.646231e-02
-4.066790e-02
3.698761e-02
1.170572e-01
2.215239e-02
8.772623e-02
1.311842e-02
-1.241344e-02
3.610509e-02
-1.937338e-03
2.437270e-02
5.124594e-02
-1.360767e-02
-2.705741e-02
3.085685e-05
-2.765421e-03
4.579393e-04
-8.237745e-04
-2.345156e-03
1.756908e-04
-1.412301e-03
2.771923e-03
7.583190e-04
-1.042438e-04
3.084503e-02
8.481648e-03
7.910015e-02
1.313463e-01
8.676775e-02
2.252431e-02
5.614672e-02
3.394639e-02
-3.625047e-02
-5.678567e-02
-2.185616e-03
1.571579e-02
-7.007357e-02
-5.206126e-02
1.091398e-01
-5.237192e-02
-1.161785e-01
-2.937538e-02
-5.280542e-02
-4.490872e-02
-1.940720e-02
-3.844358e-02
-2.533453e-02
2.374363e-02
2.329828e-02
2.540806e-02
-1.103726e-01
-1.076416e-01
2.888133e-03
-5.714707e-02
-4.086973e-02
4.620801e-03
-2.142068e-02
-7.989392e-02
-7.965490e-02
1.608717e-02
-6.930324e-02
-1.280238e-01
1.647939e-01
1.456314e-01
6.153152e-02
3.403984e-02
7.298408e-02
8.033054e-02
-5.728677e-02
-4.797277e-02
-2.900967e-02
-1.182424e-02
7.035822e-02
1.373067e-01
3.723206e-02
1.982460e-01
2.853015e-01
3.741789e-02
1.985508e-02
8.841597e-03
4.899499e-04
-2.745427e-02
-8.965118e-02
-3.995255e-02
-6.688617e-02
-1.273024e-01
-1.062896e-01
-4.841851e-02
-1.350558e-02
-4.818510e-02
1.190399e-01
6.730755e-02
-6.442947e-02
1.054695e-02
1.253884e-02
-7.070871e-02
-3.343946e-02
-2.414428e-02
3.642778e-02
2.907857e-02
2.278367e-02
7.122464e-03
-2.422097e-02
-3.713182e-02
7.195586e-03
-4.330631e-02
-7.798497e-02
-1.233279e-01
-1.244995e-01
-1.370443e-01
-4.716907e-03
2.419057e-02
7.857877e-03
1.209372e-04
3.940456e-02
-2.387190e-03
3.575123e-02
4.185311e-02
1.394299e-02
6.526907e-03
1.122466e-02
-9.216500e-03
8.319774e-02
7.277247e-02
4.660241e-02
9.498851e-02
1.219104e-01
1.507166e-01
8.863185e-02
1.012527e-01
1.454168e-01
-3.676993e-02
-5.657670e-02
-1.066021e-01
2.738007e-02
1.079612e-01
6.211114e-02
-7.549105e-02
3.164434e-02
1.026131e-01
-6.667950e-02
-6.199117e-02
-7.558920e-02
-2.146455e-02
4.075215e-02
-1.107193e-01
-4.580216e-02
-3.776795e-02
-1.722539e-01
-1.496179e-01
-1.047167e-01
-8.708432e-02
-1.676514e-02
-2.599946e-02
-1.928479e-02
9.369291e-02
7.099012e-02
6.286906e-02
1.410781e-03
-1.342283e-03
1.854334e-03
2.295593e-03
1.513403e-03
1.796697e-03
3.159876e-03
2.036433e-03
-1.445505e-03
3.188228e-02
5.503066e-02
2.362299e-02
3.973234e-02
1.217390e-01
2.145289e-01
1.217613e-01
1.723825e-01
3.206927e-02
2.198202e-02
9.403053e-02
1.100534e-02
-2.956544e-02
-2.268659e-01
2.271756e-02
-6.103313e-02
4.232201e-02
-1.686960e-01
-1.420419e-01
-1.524919e-01
-1.227040e-01
3.825963e-02
1.058291e-01
7.415439e-02
-1.646810e-01
7.623436e-04
7.286254e-02
-8.862551e-02
3.318692e-01
-1.997377e-02
5.840953e-04
-3.327160e-01
4.296808e-02
6.328325e-02
2.381492e-01
7.916432e-02
1.658128e-02
-1.154527e-01
3.072024e-02
-1.923914e-02
3.089373e-01
-5.962795e-02
7.354259e-02
1.220744e-01
1.997520e-01
4.472749e-02
-5.478638e-03
-6.648380e-02
9.988756e-02
3.771698e-02
6.847973e-03
-2.588401e-02
8.693530e-02
2.695385e-02
1.647500e-01
1.222928e-01
5.215081e-02
-3.736976e-02
-1.960367e-04
3.739070e-02
-4.139697e-03
5.395425e-02
-1.873141e-01
7.109877e-02
3.390479e-02
4.964867e-02
-6.552770e-02
-4.554959e-01
-1.855106e-02
-1.307960e-01
7.183398e-01
1.156554e-02
1.007974e-01
1.296220e-01
1.275353e-01
-2.996437e-01
-2.794566e-01
-3.021220e-01
1.386180e-01
1.384157e-01
1.184050e-01
1.037141e-01
1.357986e-02
2.700319e-02
-1.356927e-02
1.596347e-01
-1.252269e-02
2.324131e-02
6.442183e-02
-5.517187e-02
6.633006e-02
4.477349e-02
-1.197199e-01
6.999159e-02
4.489059e-02
9.341343e-02
3.024785e-02
1.092667e-01
-1.638041e-01
-3.894015e-02
1.736815e-01
-1.330808e-02
3.090201e-02
1.262363e-01
7.821051e-02
7.954410e-02
8.961505e-02
1.831013e-01
1.325932e-01
1.457054e-01
-3.752183e-03
-2.720858e-02
-8.806085e-02
-5.990695e-02
1.734002e-01
2.970225e-01
2.193902e-01
5.612971e-02
-3.609560e-01
1.510082e-01
-7.347093e-02
2.431048e-01
-1.401662e-01
1.660079e-01
3.008346e-01
-6.743034e-03
4.073826e-02
-8.454792e-02
-1.230820e-01
-3.457394e-01
-1.041545e-01
6.908774e-02
9.458318e-02
1.076247e-01
-7.990433e-02
2.176961e-03
3.566637e-03
9.793108e-04
-3.610567e-03
2.760718e-04
7.889895e-04
4.534203e-04
-4.157051e-04
1.268546e-03
1.564460e-02
1.478204e-02
2.516630e-02
-3.339503e-02
-2.972811e-02
-3.394188e-03
-2.117843e-02
-1.406527e-02
-2.053865e-02
3.125253e-03
7.253503e-03
-4.373889e-03
-8.104350e-04
-1.171110e-02
-2.433709e-02
-4.307169e-02
-3.616713e-02
-4.086009e-02
-2.943948e-02
-1.809964e-02
-2.344023e-02
2.914575e-02
2.410229e-02
1.726852e-02
-3.420503e-02
-3.178682e-02
-2.989987e-02
2.341831e-02
6.184424e-02
7.878241e-02
-3.204787e-02
3.173855e-02
3.093019e-02
6.936934e-02
8.215302e-02
7.862785e-02
-3.515058e-02
-5.225006e-02
-6.216581e-02
-3.154458e-02
-1.772692e-02
-3.820179e-02
-3.275262e-02
2.029933e-03
-1.702286e-03
-7.099887e-02
-5.696669e-02
-5.414430e-02
-4.929447e-02
-3.178674e-02
-2.849956e-02
-5.264091e-02
-2.875494e-02
-2.167828e-02
-2.030745e-02
-1.232875e-02
-2.386840e-02
-1.692984e-02
-1.936847e-02
-4.433753e-02
3.482395e-02
-1.052840e-04
-4.638167e-02
4.906956e-02
7.289454e-02
4.420852e-02
-5.025678e-02
1.379144e-02
-4.113978e-02
-3.990254e-03
2.859351e-02
-2.275017e-02
-3.066962e-03
-3.601867e-03
-4.711976e-03
1.244303e-01
1.182961e-01
1.264503e-01
9.286128e-02
9.318738e-02
6.853189e-02
5.963148e-02
3.083673e-02
-2.963724e-02
1.111188e-01
1.015300e-01
8.487676e-02
-4.562480e-02
-2.289088e-02
-4.051885e-02
-4.161077e-02
-9.323436e-05
3.685806e-02
-4.891503e-02
-2.633447e-02
2.848126e-02
-1.520177e-02
-2.843321e-02
4.645468e-03
4.158328e-02
5.871963e-02
4.642146e-02
-5.890461e-02
-6.325577e-02
-4.785464e-02
-7.358903e-02
-6.211022e-02
-5.219688e-02
9.275603e-03
7.019048e-03
1.413160e-03
6.173021e-03
4.368584e-02
8.978819e-03
3.956629e-02
7.763055e-02
8.031603e-02
-1.255297e-02
6.681735e-02
-1.008772e-02
-3.904676e-02
3.333454e-02
-3.408382e-02
-2.725099e-02
5.416297e-02
-6.485730e-03
-1.912964e-02
-5.463233e-04
2.956634e-02
-3.418864e-02
-2.709466e-02
-2.504720e-02
6.131612e-03
-9.761750e-03
-1.265588e-02
-2.785961e-04
-2.031582e-03
-7.577223e-04
-1.975718e-04
4.701371e-04
-8.276239e-04
-1.993994e-03
5.305025e-04
5.609157e-04
2.490246e-02
6.179947e-02
8.710502e-02
1.036170e-01
1.209158e-01
9.823928e-02
3.674397e-02
3.775998e-02
3.200372e-02
2.099577e-02
-4.612849e-02
7.606989e-02
1.442522e-02
2.182901e-02
-1.819092e-02
2.687526e-02
1.245639e-01
1.061948e-01
6.468672e-02
4.533709e-02
2.514551e-02
-1.285741e-02
-5.672736e-03
-1.123551e-02
1.593478e-02
-4.001199e-02
-9.943460e-02
-3.617641e-02
-1.270244e-01
1.002346e-01
-7.454641e-02
1.399402e-01
3.594317e-02
-8.607934e-02
1.121431e-01
-3.303095e-02
-1.362344e-01
-1.544527e-02
-7.411000e-02
-3.085255e-03
-7.577308e-02
9.289405e-02
4.036299e-02
-4.093877e-03
1.333827e-01
-7.356987e-03
-7.953649e-02
-1.391347e-02
-7.310286e-03
9.431478e-02
8.185112e-02
-5.728543e-02
8.906791e-02
1.119531e-01
3.031289e-03
-3.472173e-03
1.588879e-02
3.887780e-02
7.265926e-02
2.301604e-02
4.057551e-02
6.184542e-02
2.072412e-02
-2.216288e-01
8.209626e-02
-1.249125e-01
-7.004240e-02
5.520400e-01
-2.229076e-01
-2.567968e-02
-5.896770e-02
-1.754059e-01
2.887114e-02
1.122964e-02
-3.166531e-04
5.698325e-02
3.413641e-02
5.585493e-02
5.572986e-02
9.326459e-02
1.030057e-01
1.227092e-01
1.119766e-01
1.082188e-01
9.154112e-02
6.457208e-02
4.939723e-02
-5.584308e-03
9.950870e-02
-9.862178e-02
4.766942e-03
9.476386e-03
-2.671641e-02
-3.273848e-02
1.363944e-02
-8.993157e-03
3.057427e-02
-1.108255e-01
7.271611e-03
-6.841774e-02
-2.674895e-02
4.392774e-03
-2.080229e-02
1.169752e-02
1.477717e-01
-7.796129e-02
2.956899e-03
6.424132e-02
-7.274391e-02
6.770854e-02
6.438207e-02
6.337962e-03
1.539897e-01
1.811569e-02
-5.046361e-02
4.214475e-02
1.160480e-02
-2.019871e-01
1.777396e-01
-2.720450e-01
-1.520062e-01
4.149525e-01
-1.090887e-01
-1.765951e-01
-2.233927e-01
-7.637536e-02
-2.960329e-02
7.561474e-02
4.982285e-03
5.315122e-02
8.345039e-02
-4.829833e-02
5.670413e-02
1.812067e-02
4.951173e-02
-2.964532e-03
6.082032e-04
5.276655e-05
1.595265e-04
-4.810651e-04
3.663829e-04
-2.837260e-03
-1.016119e-03
-4.697755e-03
-4.058848e-02
-3.580869e-02
-3.872641e-02
5.955710e-02
4.024701e-02
7.002025e-02
-2.500635e-02
9.559158e-04
-1.100233e-02
6.445091e-03
2.239830e-02
2.314595e-02
-7.824527e-02
-1.645254e-01
1.315205e-01
3.726469e-02
-1.016780e-01
6.346888e-02
5.122264e-03
-2.556063e-02
-1.092680e-02
-3.816753e-02
-4.179423e-02
-6.219371e-02
-1.096451e-01
-5.293590e-02
-2.246680e-02
-6.875740e-02
2.896798e-01
4.036676e-02
-1.232098e-01
-8.362414e-02
-3.253189e-03
6.339045e-03
-4.777290e-02
4.815954e-02
5.266436e-02
-1.399148e-01
-6.145832e-02
1.323284e-01
1.624832e-01
-3.827714e-02
8.379374e-02
1.672526e-01
1.710928e-01
-3.413118e-02
2.667883e-02
2.726277e-02
9.179407e-03
-2.109998e-02
-2.593881e-02
2.266720e-02
-1.171130e-02
-7.831478e-02
1.356988e-02
6.627563e-02
-3.307264e-02
6.738362e-02
1.280669e-02
2.337378e-02
6.248823e-02
3.338778e-02
-9.510910e-02
1.992353e-03
1.453099e-01
8.145557e-02
-1.116892e-02
-3.430823e-01
1.649024e-01
-1.271422e-01
-2.128039e-02
1.162429e-01
-4.927056e-02
-6.142332e-02
-5.140717e-02
1.670125e-02
8.501341e-03
-8.549430e-03
-9.574849e-02
-4.854739e-02
-7.592262e-02
4.072887e-02
-3.018888e-02
9.760982e-03
-5.793002e-02
1.062961e-01
-1.233173e-02
-1.124871e-01
-8.825318e-02
5.127792e-03
-2.917866e-02
-3.540925e-03
-7.409433e-02
2.145231e-02
1.460887e-01
1.047731e-01
2.742938e-02
1.594553e-01
8.746545e-02
6.295218e-02
4.160311e-04
-8.144185e-02
1.427591e-01
1.610784e-01
2.229215e-03
-3.215811e-02
3.850651e-02
5.774643e-02
1.244451e-01
4.091050e-02
-4.236064e-02
-4.593728e-02
-1.094130e-01
-1.032727e-01
1.242217e-01
1.339651e-01
2.671333e-02
-4.557895e-02
-6.230372e-02
-4.648828e-02
2.163165e-01
-5.476841e-03
8.271817e-03
1.910035e-01
2.075155e-01
1.853923e-02
-9.100635e-03
-2.832140e-02
-1.147600e-02
-1.607826e-01
-1.367281e-01
4.714450e-02
3.092165e-02
6.426881e-02
-6.951768e-03
2.519901e-03
8.215018e-04
-2.266832e-03
3.302740e-04
1.170886e-03
-2.977975e-03
1.013425e-04
-7.665413e-05
1.570850e-03
