-6.911731e-02
-2.821602e-02
8.681560e-02
-1.226337e-01
-4.734759e-03
1.487124e-01
-1.956774e-02
4.908864e-02
6.293546e-02
-1.193687e-02
1.290905e-01
1.849453e-03
2.682257e-02
-1.612879e-02
-1.261867e-01
8.777954e-03
-1.333347e-01
-6.469329e-02
1.966098e-01
6.387921e-02
-6.036707e-03
5.737645e-02
-1.912005e-01
-8.223455e-02
-2.672050e-02
-3.803519e-02
1.563865e-01
-8.066991e-02
1.734721e-01
1.949200e-01
1.811196e-01
1.704091e-01
-9.147854e-02
1.290006e-01
-1.322404e-01
-3.103392e-01
-2.572857e-01
-1.450208e-02
2.742799e-01
-2.100367e-01
2.984582e-01
1.560482e-01
1.417271e-01
1.219920e-01
-2.309102e-01
1.273541e-01
7.781193e-02
5.526399e-02
1.054278e-01
4.280309e-02
-6.363456e-02
-7.889546e-03
-1.097023e-01
-1.663722e-01
-2.433646e-01
-2.796175e-01
-5.110506e-02
-2.087293e-01
5.789643e-02
1.828338e-01
8.016322e-02
2.124180e-01
-9.029837e-02
-1.187469e-01
6.626697e-02
8.455856e-03
4.260046e-02
7.568838e-02
-7.912225e-02
2.310156e-02
-4.042791e-02
-3.217969e-02
2.099842e-02
-1.657133e-02
-5.027159e-02
1.302949e-02
3.421022e-02
-3.359314e-02
2.954118e-03
8.498876e-02
-8.265787e-03
2.300067e-01
1.415891e-01
4.454602e-03
1.998505e-01
-7.208570e-02
-1.545878e-01
8.737270e-02
-1.154287e-01
-6.723299e-02
9.295212e-02
9.884571e-02
5.720517e-02
5.651409e-02
-3.304100e-02
1.201567e-01
6.874502e-02
-4.824443e-03
1.186797e-01
-1.200306e-02
-6.517519e-02
1.396207e-01
-1.289527e-01
-6.710397e-02
1.307795e-01
8.313769e-02
1.276869e-01
1.659781e-01
-2.595966e-01
-4.013808e-01
2.460857e-03
-3.213437e-01
2.796309e-02
2.526908e-01
3.907375e-02
8.945954e-02
-7.729185e-02
5.200332e-02
-6.799693e-02
-1.414310e-01
-1.924742e-02
-1.449156e-01
-7.557305e-02
4.784166e-02
2.765484e-02
2.119310e-01
3.037002e-01
4.098568e-02
-1.667126e-01
9.391665e-02
-2.801791e-01
-5.080437e-02
-1.945435e-01
-1.413295e-01
1.233503e-01
-5.353969e-02
1.771989e-02
1.424008e-01
1.054319e-01
-2.704510e-02
-2.414322e-02
4.696975e-02
-8.888812e-02
7.469169e-02
-3.884417e-02
-7.399524e-02
-4.662431e-02
5.475381e-02
-3.825109e-02
-7.101776e-02
1.365209e-01
9.331167e-02
-1.182889e-02
1.741535e-03
-9.901228e-02
-1.313275e-02
2.436133e-02
-4.106801e-02
-3.715806e-02
-8.071582e-02
1.374016e-03
-1.070733e-02
6.917667e-02
6.339239e-02
8.930840e-02
1.071751e-01
5.691687e-02
3.393181e-02
-1.627714e-02
1.009679e-01
6.362837e-02
3.923158e-02
2.128641e-02
-7.852116e-02
2.961054e-02
8.414558e-02
6.306740e-03
-7.398450e-02
2.160487e-02
8.287645e-02
6.573879e-02
-9.386755e-04
-7.379549e-02
1.389491e-02
2.095025e-01
-4.488273e-02
-1.284131e-01
3.873865e-02
1.684721e-01
-2.406733e-02
5.373321e-03
-2.761263e-03
-2.343472e-02
-2.037209e-02
-3.612479e-03
-7.363149e-02
-3.938477e-02
-3.074344e-02
-2.728341e-02
1.088300e-01
-5.135336e-02
-1.340899e-01
1.393731e-01
1.658750e-01
-1.840366e-01
-2.047575e-01
5.254264e-02
6.744413e-02
4.974749e-02
-9.526783e-02
-1.194796e-02
3.504587e-02
4.878338e-02
7.223575e-03
-5.132602e-02
4.683347e-02
3.627563e-02
1.188482e-01
5.415919e-02
5.382907e-02
9.083176e-02
7.457851e-02
6.561300e-03
2.349190e-02
2.987543e-02
-5.444812e-02
-4.384710e-03
-1.126606e-02
5.098608e-03
6.080945e-03
4.432317e-03
-7.793783e-03
2.292494e-02
-4.834605e-02
-2.259319e-02
-1.687722e-02
-1.298747e-02
-8.274811e-02
-2.774954e-02
3.791782e-02
-1.189417e-02
-5.914338e-02
2.325464e-02
8.454202e-02
6.986991e-02
2.746838e-02
5.113433e-02
8.361661e-02
5.051896e-02
-1.535180e-02
-7.036877e-03
-3.342040e-02
-3.126580e-02
-1.400261e-01
-1.968144e-02
2.062766e-01
-2.543874e-03
-1.870755e-01
-7.394427e-02
2.721224e-01
-4.121947e-02
-2.463034e-02
3.381475e-03
-2.440302e-02
-4.882466e-02
-4.725456e-03
5.202998e-02
1.944211e-02
8.570218e-03
7.364334e-02
-9.183047e-02
3.055844e-02
9.612561e-02
3.299523e-02
-1.073683e-01
1.060790e-01
-1.082388e-02
-5.684287e-02
-1.542787e-01
-3.598522e-02
-8.125269e-02
-9.550656e-02
-5.503235e-02
1.588414e-01
-8.173639e-02
-1.728298e-01
-1.730444e-02
1.806675e-01
-1.512478e-01
-6.067513e-02
1.093065e-01
-3.904991e-02
-8.717664e-02
-4.746867e-02
2.312802e-01
9.231085e-02
-4.430817e-02
3.205023e-03
-6.618645e-02
-5.116887e-02
3.100712e-02
7.288305e-02
-8.992208e-02
-6.181833e-02
5.833486e-02
1.206104e-01
8.272813e-02
-1.121594e-03
1.410243e-01
2.838241e-01
1.183716e-01
2.769641e-02
8.804748e-03
1.883898e-01
2.584265e-01
9.695607e-02
8.861093e-02
1.866125e-02
7.365910e-02
1.445479e-01
2.150892e-03
-1.183730e-01
-4.673357e-02
1.061394e-01
3.336760e-01
-4.103115e-02
-1.716306e-01
-8.299343e-02
4.215814e-01
3.552571e-02
-2.573606e-02
-1.717087e-01
1.876988e-01
-6.661628e-02
-8.096187e-03
9.141924e-02
-4.751046e-02
-3.599203e-02
-7.550485e-02
-1.397577e-01
4.397361e-02
-3.045911e-03
1.814230e-02
1.111450e-01
-9.256466e-02
-2.261441e-01
1.410990e-01
2.352245e-01
-1.058698e-01
-1.740502e-01
-2.138385e-01
2.497557e-02
9.318147e-02
-9.607694e-02
-5.794877e-02
-1.492882e-02
3.468078e-02
-1.946281e-02
-1.171027e-01
-1.177336e-01
1.099254e-01
1.514926e-01
7.147223e-02
8.092280e-03
2.060577e-02
2.222572e-03
1.027470e-01
1.067215e-01
1.099893e-01
-2.172627e-02
-7.955953e-02
-5.654741e-02
9.084370e-02
4.021154e-03
3.648450e-02
-2.776752e-02
1.137761e-01
9.196290e-02
-9.282167e-02
3.667691e-02
-4.197511e-02
-1.402096e-01
-1.048883e-01
3.619628e-02
6.753267e-02
-7.709149e-02
-8.458160e-02
1.009553e-01
8.219751e-02
1.790695e-02
1.276087e-02
7.491626e-02
7.629595e-02
1.024659e-03
-6.536453e-02
-1.010959e-01
1.275394e-02
-3.753968e-01
-2.077039e-01
2.113628e-01
4.939941e-01
-5.084451e-01
-5.161539e-01
5.813880e-03
4.333163e-01
-1.404125e-01
3.095151e-02
-9.890974e-02
-1.147385e-01
-4.919038e-02
1.054307e-01
-2.392823e-02
-1.760343e-02
-8.680254e-02
-6.286290e-02
-6.658334e-02
6.045780e-02
2.148940e-01
-6.515020e-02
-7.848416e-02
3.886524e-05
1.702980e-01
-2.120029e-02
8.939905e-02
-1.807520e-01
-5.685234e-02
-1.686805e-01
4.808672e-01
-2.708646e-02
-9.355758e-02
-2.829180e-01
2.749933e-01
-5.589269e-02
-1.050306e-02
8.985928e-03
2.908524e-02
5.390197e-02
-2.505049e-03
1.272057e-02
4.950649e-02
6.294134e-02
-2.278158e-02
6.259012e-03
1.407807e-01
-3.042502e-02
4.620178e-03
2.097051e-02
-1.090439e-03
3.774057e-02
-5.864744e-02
-4.792504e-03
-4.734456e-02
-5.611213e-02
-6.615138e-03
-5.487418e-02
-6.087643e-02
-8.228537e-03
-3.580097e-02
-8.636249e-02
7.716760e-03
-1.843464e-02
-3.437276e-02
6.985860e-02
-1.458056e-02
-9.633172e-02
1.714495e-01
7.354097e-02
-1.660857e-01
-4.040915e-02
-1.333553e-01
-2.253311e-02
6.433508e-03
2.619353e-02
-8.128598e-02
-1.129883e-01
1.080349e-01
-1.166465e-02
2.836808e-02
9.128527e-02
2.663144e-02
-4.571700e-02
5.226045e-02
8.622552e-02
-3.550950e-02
4.562060e-02
1.039677e-01
1.591418e-01
-1.485390e-01
-1.422877e-01
1.178346e-01
6.264730e-03
4.387685e-03
1.137644e-01
1.397318e-01
1.026300e-01
-4.813755e-02
-2.740867e-02
3.688566e-02
-6.298296e-02
-9.817086e-02
-4.740415e-02
7.079045e-02
-1.062335e-02
-7.969432e-02
3.730626e-02
-1.585134e-02
-3.849884e-02
5.107009e-02
1.427417e-02
1.005367e-02
5.904172e-02
5.903354e-02
9.739841e-02
-3.483542e-02
5.822268e-02
2.630454e-02
-5.551562e-02
3.681259e-03
4.496613e-02
-1.331204e-02
1.070332e-02
3.842229e-02
-1.192580e-02
1.506275e-03
-3.443263e-02
-7.052290e-02
-2.360795e-02
-3.903528e-02
-2.398303e-02
-5.429790e-02
-4.292890e-02
1.969846e-02
-2.058206e-02
-8.048499e-02
2.132162e-02
1.816729e-02
-3.452194e-03
-1.290582e-03
3.684335e-02
4.186988e-02
-1.491062e-01
-1.632434e-01
1.460035e-01
-9.979020e-02
-2.191074e-01
-1.082284e-02
-2.917662e-01
-2.174885e-01
5.833344e-02
-1.558533e-01
-9.343224e-02
-1.512441e-02
-1.834808e-01
-9.748763e-02
-6.333022e-03
-1.426431e-01
-1.196589e-01
-1.156816e-01
4.381397e-03
1.803287e-01
3.053660e-02
-1.120731e-01
-1.915331e-02
6.067533e-02
-5.581124e-02
-6.150081e-02
2.168941e-02
4.905485e-02
-1.580999e-01
-3.742372e-03
-1.296180e-01
-1.009438e-01
-8.458573e-03
-2.501759e-02
-1.388620e-01
-1.741133e-01
-1.939965e-02
7.921550e-02
-6.242034e-03
-5.994004e-02
-3.245628e-03
-2.077658e-02
-5.868704e-02
-4.463914e-03
-1.784973e-02
4.153465e-02
5.758286e-02
1.687643e-01
-6.306056e-02
-5.150900e-02
6.486656e-02
-9.580992e-02
-1.149355e-01
1.634363e-02
7.002228e-02
4.450881e-02
8.908805e-02
9.179025e-02
1.415244e-01
2.278433e-01
1.564090e-02
7.722745e-02
1.092802e-01
-1.218802e-01
-2.292780e-01
-2.155429e-01
-2.237135e-02
-8.922877e-02
-6.911483e-03
3.684830e-01
3.069503e-01
1.876238e-01
1.589336e-02
1.409273e-01
-9.224421e-03
5.237401e-03
-3.118415e-01
-9.716031e-02
6.611287e-03
3.333106e-01
1.634029e-01
7.721799e-02
2.545318e-02
6.543324e-02
-3.018013e-02
-1.380257e-02
-2.388691e-02
2.275293e-02
-3.573194e-02
-8.303036e-02
-4.658845e-02
3.402667e-02
1.069680e-01
5.243117e-02
-5.839336e-02
-1.633496e-01
-6.523890e-02
-6.546637e-02
-6.501666e-02
-7.269490e-02
-1.951223e-01
-1.717887e-01
1.765712e-01
1.222325e-01
5.398046e-02
3.395654e-02
3.912130e-02
3.237700e-02
6.111873e-02
-3.504733e-02
1.099772e-01
1.359732e-01
1.364561e-01
1.120157e-01
1.647183e-01
6.261304e-02
2.685562e-02
2.274495e-02
8.075286e-03
5.247965e-02
-1.914872e-03
1.219719e-01
5.561742e-02
-2.934889e-02
-5.885744e-02
-1.793808e-02
3.748544e-02
5.345853e-02
6.106934e-02
4.916471e-02
5.220238e-02
4.621696e-02
1.147392e-02
-4.192884e-02
7.987049e-03
-7.768317e-02
1.336450e-02
3.149214e-02
-4.880887e-02
-9.846408e-02
-1.372771e-01
-4.240874e-03
7.761019e-02
4.084985e-02
9.749216e-02
2.211348e-01
-4.596603e-02
-2.448077e-01
-6.741837e-01
-3.117689e-01
-1.260809e-01
3.278622e-01
-9.532845e-02
-2.386371e-01
-1.682798e-01
-1.531027e-01
-2.748787e-02
1.488990e-01
3.652745e-02
-2.593999e-01
-2.184777e-01
-1.886835e-01
-2.643069e-02
-5.292949e-02
-2.320671e-02
-6.240494e-02
-4.477632e-02
-1.198307e-01
4.745494e-02
-3.851789e-02
2.067191e-02
-7.318732e-02
-6.735854e-02
-4.912338e-02
-2.722634e-01
-3.942688e-01
-1.784420e-01
8.585657e-02
3.989599e-01
2.233672e-01
-1.681104e-01
-1.614916e-01
-1.359707e-01
-2.935368e-04
-2.689329e-03
7.814623e-03
1.352376e-01
1.998371e-01
1.416434e-01
-6.662393e-02
-5.750788e-02
-4.502962e-02
-7.017554e-02
-8.150171e-02
-2.368636e-04
9.361304e-02
8.135962e-02
1.688680e-01
-1.282102e-02
4.259823e-02
2.069860e-02
2.629955e-02
-6.001107e-02
-1.174351e-01
1.144009e-01
4.503274e-02
3.876121e-02
1.246259e-01
1.917419e-01
2.026558e-01
7.108527e-02
1.308516e-01
2.192782e-02
-2.309527e-01
-1.889897e-01
-1.823514e-01
1.056548e-01
-2.615147e-02
-1.269378e-02
5.341216e-03
3.190033e-01
5.765533e-02
-8.151461e-02
-2.043792e-01
-1.293216e-01
-6.376291e-02
-1.121651e-02
-8.241358e-02
-4.314129e-02
-1.079883e-02
-1.685174e-02
2.950615e-02
1.445513e-03
-5.876866e-03
1.371178e-01
1.311372e-01
-1.480631e-02
-7.869580e-02
-2.087748e-02
4.502058e-02
-1.242857e-01
-6.179017e-02
5.408869e-02
5.929718e-02
1.647569e-01
1.443819e-01
-1.228102e-01
-6.730850e-03
2.893893e-02
-2.111539e-01
-1.282295e-01
-8.936685e-02
8.511839e-02
3.402726e-02
5.184406e-02
-2.770524e-02
-1.157425e-01
-2.589181e-02
1.286459e-01
1.457928e-01
2.456710e-01
1.922943e-02
9.750229e-03
5.188907e-02
1.056541e-01
-1.362780e-02
6.994803e-02
1.028551e-01
8.942767e-03
-2.985966e-02
-3.740308e-02
-1.801433e-02
-2.178055e-02
-3.981209e-02
-6.954423e-02
-7.202788e-02
1.222163e-01
9.548064e-02
9.344514e-02
-8.656599e-02
-7.039529e-02
-5.253608e-02
-1.382390e-02
7.018265e-02
1.104994e-01
2.671669e-03
6.329822e-02
1.025279e-01
-1.663495e-01
-3.177496e-01
-2.248256e-01
2.368057e-01
6.586102e-01
2.120724e-01
-1.129337e-01
-3.733947e-01
-2.589526e-01
-2.268406e-01
-7.031449e-02
-1.237362e-01
-1.689727e-01
-7.653646e-02
-1.808359e-01
-1.472787e-01
-5.374031e-03
-8.048838e-02
5.469947e-02
7.002446e-03
-9.071761e-02
-1.286907e-02
-2.237001e-03
-2.690776e-02
-8.614805e-02
7.666355e-02
-6.356842e-02
-8.124535e-02
-1.059303e-01
1.691967e-02
1.898790e-01
2.961586e-01
2.177853e-02
-1.470111e-01
-3.429900e-01
-3.516555e-01
9.031745e-02
-2.752481e-03
-8.836512e-02
7.548400e-03
-6.445257e-02
-2.482918e-02
-5.064781e-02
-4.152425e-02
3.867415e-02
-4.116701e-02
-4.552174e-02
-1.364989e-01
-4.059793e-02
-1.290484e-01
-1.374040e-02
-3.005968e-02
-5.554393e-02
1.255942e-01
-7.296045e-02
-4.496889e-02
6.334525e-02
-5.434986e-02
5.483760e-02
1.615963e-01
3.748532e-02
1.169360e-01
9.303507e-02
1.329714e-01
-2.596793e-02
-1.301205e-01
-2.439092e-04
-1.358783e-01
-1.367239e-01
-5.787702e-02
-1.244530e-01
7.380656e-02
6.202055e-02
3.503688e-02
-8.593268e-02
8.173858e-02
-3.369520e-02
-1.733613e-01
9.376761e-02
-1.355714e-01
-2.336032e-01
-4.068737e-02
-7.864898e-02
1.549727e-02
-5.697526e-02
-5.672612e-02
3.930333e-02
-3.596291e-02
-4.022653e-03
3.074310e-02
-1.718333e-01
9.816521e-02
6.552828e-02
1.314821e-01
1.360203e-01
-6.499966e-02
1.143233e-01
-9.880005e-02
-3.907796e-01
-7.986236e-02
9.048040e-02
7.027750e-02
3.987489e-02
1.913924e-01
-4.666518e-02
4.780466e-02
6.677818e-02
-1.137182e-01
-1.412503e-01
5.751166e-02
1.382143e-01
5.158768e-03
1.064217e-01
4.248170e-03
5.984014e-02
7.494422e-02
-9.333269e-02
-1.518338e-01
-7.611694e-02
8.897943e-02
-8.345670e-02
8.690435e-02
1.035351e-01
4.417308e-02
2.069120e-01
9.797862e-02
7.823963e-02
2.220792e-02
4.657311e-02
8.155226e-02
5.703127e-02
1.354871e-01
5.343424e-02
1.542954e-02
1.939807e-02
4.610965e-02
1.074021e-01
1.364085e-01
1.745691e-01
1.564503e-01
6.568372e-02
2.327659e-01
1.103762e-01
-1.202804e-01
-1.541083e-01
-1.182882e-02
1.267402e-01
-1.543887e-01
7.089017e-02
-4.329958e-03
-1.469181e-01
-5.973634e-03
-2.180189e-01
3.858780e-02
-4.534611e-02
-1.162776e-01
1.843296e-02
-2.532420e-02
-3.264238e-02
-4.074546e-03
-1.600170e-02
1.107814e-02
-1.087603e-01
-1.333077e-02
-3.154899e-02
-1.671298e-01
4.162503e-02
7.817871e-02
-8.454232e-02
1.691511e-01
1.218397e-01
-1.477073e-02
-8.243534e-03
1.176314e-01
4.221659e-02
4.558202e-03
-4.538814e-02
1.081840e-01
1.973605e-01
9.412934e-02
-6.309365e-02
-4.285002e-02
1.079987e-01
3.998367e-03
-1.080374e-01
3.162703e-02
7.023119e-02
-7.323316e-02
-1.801575e-02
-8.369695e-02
-1.294975e-01
6.237464e-02
7.080801e-02
-5.322373e-02
4.115224e-04
1.073969e-02
1.019052e-01
1.208499e-02
2.065617e-02
8.061533e-02
1.486361e-01
3.641064e-02
-7.000986e-02
3.564661e-02
-2.855235e-02
2.801360e-02
-5.713541e-02
6.390963e-02
-4.455370e-02
-1.476618e-01
1.546942e-01
1.087270e-01
-1.242418e-01
6.939910e-02
1.676777e-01
-4.334598e-02
1.386605e-01
-2.305452e-01
-7.735761e-02
2.610425e-01
2.103886e-01
-2.190561e-01
-1.349885e-01
2.863636e-01
8.524156e-02
4.235927e-02
1.031108e-01
-2.163549e-02
-5.875147e-02
7.854453e-02
4.334871e-02
-1.469300e-01
4.771728e-02
1.103134e-01
6.463429e-02
2.034019e-02
-3.305657e-01
-1.350467e-01
3.526168e-01
-1.107952e-02
-3.244897e-01
5.909296e-02
2.396793e-01
2.392947e-03
6.074880e-02
6.902230e-02
-8.981171e-02
1.471253e-02
1.037093e-01
-4.309389e-02
-8.479286e-02
1.119410e-01
8.838794e-03
1.312949e-01
7.448692e-03
-4.103634e-03
1.580080e-01
1.222427e-01
-1.538618e-02
6.283781e-02
9.720052e-02
-1.232620e-01
-1.602588e-03
5.650610e-02
-3.389749e-02
-9.693580e-02
1.072191e-02
1.137982e-01
-8.160146e-02
-7.586730e-02
-2.590964e-02
6.228372e-03
-1.099304e-02
-1.193727e-01
-4.164020e-03
3.465685e-02
-1.214269e-01
-7.776369e-02
-5.411052e-03
1.838038e-01
1.623702e-01
1.302692e-01
4.951410e-02
8.337293e-02
7.539543e-02
-6.657634e-03
-2.732116e-02
-6.762410e-03
-1.524051e-01
-1.542709e-01
3.758071e-02
1.642206e-01
-1.981529e-01
-6.597184e-02
7.000272e-02
1.749600e-01
-1.974257e-01
5.803195e-02
5.848406e-02
5.547616e-02
-6.911951e-02
4.590289e-02
7.219149e-02
-3.473859e-02
4.883506e-02
8.351590e-02
-1.884357e-01
3.459867e-02
1.346521e-01
-1.209083e-01
-1.944653e-01
2.695895e-01
4.996382e-02
-1.551006e-01
-1.496504e-01
6.632238e-02
-1.518668e-01
-2.783523e-01
1.282229e-01
1.870260e-01
-1.619101e-01
-2.684398e-01
2.427073e-01
3.525038e-03
-1.161594e-01
-8.672106e-02
3.194830e-02
-5.600797e-02
1.694115e-02
1.292236e-01
-2.711555e-02
4.010452e-02
8.582374e-02
2.342326e-02
-5.857246e-02
-3.015317e-02
3.788302e-02
-6.571021e-02
2.726658e-03
3.865572e-02
-3.865969e-02
4.333551e-02
-2.703338e-03
3.532182e-03
-2.741791e-02
-3.265811e-03
5.059835e-03
-1.697376e-02
-1.361057e-02
8.036333e-03
1.498670e-02
2.671374e-02
1.469279e-02
-1.940576e-02
5.979745e-02
4.859532e-03
-3.291837e-03
6.836431e-03
-7.549948e-02
-3.842726e-02
3.627584e-02
-1.505889e-02
-1.148379e-01
1.362330e-01
-4.804757e-03
-5.741956e-02
1.924118e-01
-1.244798e-01
-3.693071e-02
-1.496829e-02
-4.330496e-02
-4.793918e-03
1.443456e-02
-8.043503e-02
-4.814035e-02
8.533340e-03
-9.285121e-02
-5.547491e-02
-7.303260e-02
5.296721e-02
-1.363554e-01
-5.821360e-04
5.836165e-02
-1.126962e-01
8.856027e-02
6.296943e-02
-1.013698e-01
4.806634e-02
3.528598e-02
-7.879993e-02
-2.341077e-02
-5.541601e-02
-9.867230e-02
-4.389432e-02
-4.328062e-02
-2.180137e-02
-6.973742e-02
-5.329811e-02
-6.415883e-02
5.904810e-04
-1.080729e-02
-4.890072e-02
7.027593e-03
1.821120e-02
-2.196824e-02
5.714021e-02
5.267034e-02
6.448411e-02
-1.784837e-03
-5.520385e-03
1.631469e-02
-8.162821e-02
-2.388370e-02
2.068471e-02
5.711181e-02
-3.364964e-03
-6.406745e-03
5.016151e-02
6.184038e-03
1.054261e-02
6.809659e-02
2.956521e-02
-1.630954e-02
1.422013e-02
2.793001e-02
3.674255e-02
-6.763153e-03
1.138804e-02
3.409346e-02
-2.252922e-02
1.751821e-02
6.153869e-03
-8.003788e-02
4.996784e-02
-2.589255e-02
-1.157287e-01
1.115846e-01
-5.176972e-02
-1.498301e-02
7.741766e-02
2.008277e-02
-1.920910e-02
-2.314785e-02
1.755623e-02
-2.792659e-02
-3.018605e-03
4.485159e-02
-1.356786e-02
2.090541e-02
2.472161e-02
-8.950873e-02
-1.184049e-03
1.019173e-01
-9.538585e-02
9.623499e-03
1.482439e-01
-1.140741e-01
7.301101e-02
9.033781e-02
6.769119e-02
7.806844e-02
1.858916e-02
8.453602e-02
2.519581e-02
-2.889705e-02
-3.247608e-02
-4.462515e-02
-9.063483e-03
-8.030328e-02
4.996293e-03
1.131480e-02
-1.043903e-01
-5.128663e-02
-1.167371e-02
-2.480311e-02
-3.251335e-03
1.616079e-02
8.654541e-02
-2.842353e-02
8.527158e-02
2.913189e-02
-2.084862e-02
-3.298432e-02
6.279474e-02
-3.087613e-02
-1.217556e-01
2.079609e-01
9.048618e-02
-7.179190e-02
1.197550e-01
-6.225071e-02
-1.636127e-01
6.914588e-02
-1.039093e-01
-1.046197e-01
-9.628113e-02
-1.868794e-02
1.305081e-01
-1.117965e-02
9.285823e-04
6.532101e-02
8.933871e-02
3.778270e-02
-9.082869e-02
-2.106832e-01
-1.568854e-01
1.377485e-01
-1.113190e-01
-2.479884e-02
1.149460e-01
-3.327465e-02
1.279278e-01
4.154631e-02
-3.316217e-02
1.692076e-02
-6.014960e-02
-1.110333e-02
1.045610e-02
-5.679772e-02
-3.643589e-02
-3.340829e-03
1.585009e-02
-2.941176e-02
-2.209094e-01
-1.143564e-01
-1.459763e-01
-1.331608e-01
-5.855186e-02
-1.697441e-01
8.606911e-02
1.098824e-01
-9.646597e-03
-4.291657e-03
1.780498e-02
4.266507e-04
5.731820e-02
6.603181e-02
7.592572e-03
5.551906e-02
-1.632892e-02
2.469953e-02
-4.911420e-02
-4.880020e-03
-4.733847e-02
-3.009356e-02
3.661955e-02
-8.438882e-02
-2.963000e-02
3.614632e-02
-4.165726e-02
-5.826825e-02
2.049951e-02
-3.944822e-02
-5.255872e-02
7.170856e-02
6.817340e-02
1.184435e-02
1.333234e-01
9.917884e-02
8.832453e-02
3.180357e-02
2.190272e-02
-1.133704e-02
-6.174787e-02
8.804066e-04
-3.396740e-02
-9.048188e-02
6.425259e-02
-6.620102e-02
-9.712914e-02
-8.278716e-02
-1.186790e-01
-6.490158e-02
-1.098854e-01
-3.595964e-02
1.221851e-01
-6.025295e-02
-1.797041e-01
-1.331893e-01
-4.714132e-02
-1.789590e-01
-3.403990e-02
-7.574607e-02
-1.071637e-01
-1.042191e-02
4.600134e-02
7.812700e-02
2.571483e-02
-9.952124e-03
-2.584370e-02
-9.450374e-02
5.266218e-02
7.632796e-03
-8.738890e-03
9.663886e-02
6.553939e-02
-1.270523e-01
8.571523e-02
-1.116175e-02
-8.981378e-02
-6.296331e-02
-2.077639e-01
-5.971578e-02
3.410120e-03
-4.013659e-02
-6.077483e-02
6.790654e-02
-1.809915e-01
-1.356589e-01
1.641780e-02
-8.207025e-02
-1.906955e-01
-2.826343e-02
1.064208e-03
-1.163284e-02
-5.673170e-02
-6.092997e-02
-2.129922e-02
5.129185e-02
-5.726648e-04
-4.382125e-02
-3.194079e-03
-5.015632e-03
-7.204286e-02
3.090052e-02
4.585978e-02
2.573212e-03
-5.006731e-02
-9.405587e-03
4.586823e-02
-1.767245e-02
-2.329992e-02
-1.953980e-02
3.098608e-02
2.719423e-02
-6.101836e-02
-9.334308e-03
-3.059165e-02
-7.853597e-02
1.854965e-02
8.999567e-02
9.043090e-02
-9.127696e-02
2.438643e-03
8.479067e-02
-9.483819e-02
-1.117218e-01
-1.427346e-02
8.908623e-03
1.222348e-01
2.787430e-02
-7.743121e-02
-4.355117e-02
-9.559761e-03
7.588294e-03
-3.943690e-02
2.080171e-02
-6.850770e-02
-5.739584e-02
-3.075427e-02
5.231254e-02
-7.165277e-02
-6.568670e-02
1.470593e-01
1.269908e-01
3.876669e-02
4.518523e-03
-1.166420e-02
6.777734e-02
-1.279666e-01
-1.465738e-01
-2.136985e-01
-3.330779e-02
3.934336e-02
-2.592442e-02
-1.521556e-02
-1.303235e-02
-3.472221e-02
1.023698e-03
6.947386e-02
1.110106e-01
-6.661109e-03
1.268791e-02
5.475125e-02
8.497601e-02
3.557334e-02
5.696796e-02
5.255399e-02
-2.685055e-03
7.662542e-03
1.134884e-01
1.022613e-01
1.185417e-01
3.998037e-02
-9.026052e-02
-9.091204e-02
1.221619e-01
1.924477e-02
-3.119624e-02
-6.205533e-02
-1.190447e-02
-2.259740e-02
-3.296676e-02
2.661702e-02
4.011376e-02
-1.055257e-02
-3.487590e-02
-2.592877e-02
6.771366e-02
7.013382e-02
2.219512e-02
3.023494e-02
-5.284284e-03
-5.189724e-02
8.367766e-02
8.716878e-02
-2.596649e-03
-1.986575e-02
1.011456e-01
1.000573e-01
1.386517e-01
-5.088992e-02
-1.629674e-01
1.405350e-01
5.219399e-01
3.525248e-01
-2.787575e-01
-3.098508e-01
4.164509e-02
-1.979788e-01
-6.183024e-02
-1.833579e-02
-1.097113e-01
-3.173237e-02
2.230409e-03
1.008782e-01
9.004546e-02
-6.956866e-02
-7.946112e-02
-1.185129e-01
-5.902329e-02
3.098128e-02
3.422860e-02
-9.001943e-02
-9.758210e-02
1.495929e-02
2.589097e-02
1.658396e-01
1.983288e-02
-1.151972e-01
-1.641570e-01
-1.229552e-02
5.703392e-02
-1.173732e-01
-1.863641e-01
-2.348747e-01
1.444937e-01
3.141308e-01
4.826486e-02
2.156660e-01
7.152154e-02
-2.827960e-01
-2.080111e-02
-1.186787e-01
-2.265590e-01
-6.455918e-02
-6.449845e-02
-2.289571e-02
-3.123833e-02
-7.772951e-02
-3.469604e-02
-8.025255e-02
-9.009755e-02
-3.033285e-02
-4.096892e-02
-1.003517e-01
-4.167691e-02
-1.393959e-02
-1.934954e-02
-8.941488e-03
8.694547e-03
-1.645056e-03
2.490889e-02
1.293631e-01
1.766194e-02
1.081911e-02
-1.364266e-01
-1.028344e-01
1.553313e-03
-8.641480e-02
-9.170543e-02
3.800318e-02
-8.910304e-02
6.468480e-03
3.562217e-02
-3.525717e-02
6.908128e-02
-1.151343e-02
2.359621e-02
-2.117376e-02
-1.048958e-01
5.457966e-02
2.336077e-02
-8.576559e-02
-2.850407e-02
-1.248155e-01
-1.385444e-01
-8.403551e-02
-1.806881e-01
-2.437481e-02
3.182720e-02
1.345055e-01
-5.364824e-02
1.010329e-02
6.424324e-02
-3.499144e-02
4.774461e-02
-3.032238e-02
-1.135112e-01
5.623937e-02
-3.841956e-01
-1.777408e-01
-3.724144e-01
-3.031788e-01
2.418074e-01
-1.051825e-01
9.738454e-02
3.849547e-01
-2.457529e-02
-1.588700e-01
-1.918877e-02
-1.376401e-01
-1.496743e-01
1.259350e-01
-1.190901e-01
5.630009e-03
1.517493e-01
5.920044e-02
-1.813500e-01
-1.625998e-01
-2.253263e-01
-2.519917e-01
-4.311891e-03
-5.142035e-02
7.224128e-02
3.012981e-01
1.493633e-03
-3.256498e-02
9.290632e-03
-6.816963e-03
-1.914426e-02
3.006931e-02
-5.650293e-02
-1.358750e-02
3.130285e-02
1.957624e-02
8.939182e-03
3.545323e-02
4.543016e-02
-3.950071e-02
-2.905826e-02
3.368952e-02
-2.299624e-02
7.390658e-03
2.602401e-02
-8.582884e-02
-1.791115e-01
4.963200e-02
-1.390846e-01
-1.730452e-01
-7.318002e-02
1.789061e-02
-4.623672e-02
-1.309687e-01
-3.392271e-02
3.880584e-02
-1.657134e-04
1.144955e-01
9.270563e-02
1.198399e-02
4.214450e-02
7.181105e-03
-3.413710e-02
-1.704061e-02
3.131434e-02
-7.574901e-02
4.894477e-02
-1.691491e-02
-5.377354e-03
9.421190e-02
1.685789e-02
3.262217e-01
-1.247903e-01
-1.556620e-01
7.344516e-02
-1.949185e-01
-9.903063e-02
-9.305800e-02
-1.198190e-01
2.172440e-01
4.096716e-02
2.262369e-01
2.366128e-01
-1.550559e-01
1.710059e-02
2.324074e-01
-2.353093e-01
-2.676287e-01
-9.429432e-02
6.964269e-02
6.351537e-02
-1.080563e-02
9.850907e-02
3.496638e-02
1.920650e-03
-2.900669e-02
-8.174549e-02
-1.418057e-02
-1.047386e-01
-5.110283e-02
6.098548e-02
-5.668242e-02
-9.311494e-02
-8.306176e-02
8.347677e-03
-3.644584e-02
-1.299961e-01
2.402292e-02
5.766583e-02
7.249171e-02
-1.908100e-02
5.433952e-02
9.904581e-02
-1.208178e-02
-1.007063e-01
-1.363941e-01
2.462224e-02
1.283814e-01
5.110207e-02
-8.842014e-02
-2.609694e-02
1.666299e-01
-3.101997e-02
-1.055606e-01
2.241133e-02
-9.932096e-02
1.659303e-02
1.430615e-01
-1.286933e-01
-9.261303e-02
2.371908e-02
-5.281485e-02
-1.351351e-01
-1.289213e-01
-4.602615e-02
-1.559176e-01
-1.927724e-01
-2.954577e-03
-1.094040e-01
-2.499400e-01
4.543458e-02
-4.168937e-02
-1.514461e-02
-4.233773e-02
-1.703453e-01
-9.871360e-03
5.037699e-02
-3.532404e-02
-4.349738e-02
-4.211610e-02
1.752504e-02
3.024512e-02
-5.720836e-02
-8.123068e-02
-4.157891e-02
4.928999e-02
-8.670453e-02
-1.002836e-01
1.885226e-01
6.138188e-02
-1.190489e-02
5.111129e-02
-2.282460e-01
-2.326494e-01
2.969737e-01
1.031636e-01
-9.533823e-02
4.704218e-02
1.883951e-01
1.066611e-01
-6.918332e-02
-4.305207e-02
-2.431573e-02
-1.675207e-02
-8.115912e-02
-9.084240e-02
4.939102e-02
-3.491620e-02
-8.911797e-02
-5.334540e-02
-4.560422e-02
-1.739356e-02
2.453442e-02
-1.485257e-02
-6.845338e-02
4.244798e-02
9.134642e-02
7.351786e-02
1.543481e-01
9.028296e-03
-9.934571e-02
5.377498e-02
8.760334e-02
6.020653e-02
-7.549676e-02
1.150074e-01
8.361881e-02
-2.896882e-02
5.705433e-02
8.082303e-02
-9.155668e-02
2.210115e-02
8.663379e-02
-1.315660e-01
-7.302824e-02
-5.382841e-02
1.556117e-02
-3.920867e-02
-6.804376e-02
4.866220e-02
5.951234e-02
-5.410375e-02
4.824417e-02
6.622167e-02
-4.770599e-02
-5.539449e-02
-7.361109e-02
6.340483e-02
-1.570611e-01
-1.177246e-01
-2.789490e-02
-1.469235e-01
-6.394598e-02
-1.460227e-01
-9.572842e-02
-4.861039e-02
-7.130045e-02
1.777996e-02
6.786186e-02
1.427891e-02
2.950294e-02
1.187970e-02
-6.149045e-02
-6.333212e-02
-4.231712e-02
-1.021808e-01
-5.360749e-02
1.601079e-02
-4.009347e-02
-3.719121e-02
4.767843e-02
-7.891440e-03
-5.538277e-02
-6.429406e-02
-1.881853e-02
-4.233860e-02
-2.515681e-02
4.304163e-02
5.566398e-03
1.334871e-02
2.484826e-02
1.590416e-01
-1.802173e-02
-1.887282e-01
1.922583e-01
2.381459e-02
-1.626802e-01
3.567250e-02
-9.070706e-03
-1.328480e-01
8.039355e-02
1.118958e-02
-1.457206e-01
1.525351e-01
-2.653352e-03
-3.136526e-02
-4.731950e-02
-1.814210e-02
-7.192729e-02
2.825004e-02
4.129951e-02
2.850763e-02
2.053434e-02
-5.262278e-03
2.265261e-02
-2.994847e-02
-3.202610e-02
-4.849151e-02
1.743653e-01
1.967644e-01
1.045933e-01
2.170705e-01
2.124272e-01
1.681686e-01
3.463341e-02
7.101648e-02
5.401003e-02
1.338232e-01
1.299351e-02
3.346058e-02
3.056291e-02
-3.752904e-02
-1.032889e-02
-3.679681e-02
-3.075126e-02
7.725988e-03
-2.945924e-02
1.386805e-02
-1.005903e-01
7.180909e-02
8.478432e-02
1.565385e-02
-4.189426e-02
-1.417734e-02
2.625887e-02
-3.453651e-02
-1.957062e-02
-1.555955e-02
-6.269433e-02
3.365156e-02
-7.878224e-03
-3.932629e-02
2.621819e-02
-3.255735e-02
-1.129817e-01
-6.636170e-02
3.285793e-04
-8.544096e-02
-1.778390e-02
-2.189237e-02
-8.584637e-02
-6.801198e-02
-6.907950e-02
-1.944672e-03
1.008300e-01
1.225736e-01
9.138780e-02
1.672018e-01
1.487125e-01
6.296751e-02
8.161799e-02
5.338320e-02
-5.023741e-02
-1.651899e-01
-2.908592e-01
1.271762e-01
-1.789915e-01
-1.315327e-01
4.395942e-02
-7.979689e-02
-1.811883e-01
1.854660e-02
-6.196989e-02
6.506587e-03
4.679880e-02
-6.704295e-02
-8.415165e-02
3.020030e-02
-8.047152e-02
-1.093377e-01
-1.202455e-01
-9.757184e-02
-2.449204e-03
-7.259914e-02
-2.182028e-02
-9.919704e-02
7.935712e-03
-1.166707e-01
-8.855592e-02
2.654933e-02
-6.299119e-02
-1.971835e-01
9.362600e-02
-4.789789e-02
-1.623331e-01
1.258379e-01
3.018581e-02
-1.569164e-01
-3.681332e-02
2.315182e-02
-2.507577e-02
2.984394e-02
-1.976260e-02
-1.779620e-02
7.040328e-02
-3.743125e-02
1.911452e-02
2.788563e-02
-1.750205e-01
1.305071e-01
7.153860e-02
-7.190939e-02
9.114215e-02
-6.226509e-02
5.449354e-02
8.688907e-03
1.074529e-01
9.002961e-02
1.553097e-02
1.464055e-01
3.712344e-02
1.131707e-01
4.653484e-02
1.573093e-02
5.793632e-02
3.599031e-02
1.338126e-02
2.159371e-02
1.818245e-02
5.444926e-02
1.046548e-02
-2.967409e-02
3.968884e-02
-9.111349e-02
1.948117e-01
-2.884086e-01
3.495825e-01
9.177976e-02
-7.953799e-02
-6.501190e-02
-1.722880e-01
2.985381e-01
-1.479584e-01
-5.102187e-02
7.580993e-02
-5.889378e-03
-5.392859e-02
2.418113e-02
3.724775e-02
-7.440681e-02
1.852191e-02
1.307506e-01
1.649206e-02
-1.443170e-01
7.596835e-02
-1.357075e-01
1.268331e-01
-1.343720e-03
-1.712661e-01
2.070225e-01
-2.872950e-02
-5.405371e-02
-5.766701e-02
-7.998402e-02
2.833316e-04
8.817035e-02
-1.054404e-01
-3.596296e-05
-5.702932e-03
-1.493276e-01
4.448281e-02
2.025078e-01
-2.274019e-02
5.193126e-02
1.529927e-01
3.686818e-02
7.270050e-02
9.955554e-02
2.932320e-02
-3.623122e-02
1.257002e-01
-1.341831e-02
-6.828848e-02
4.687469e-02
1.777976e-03
-5.620619e-02
-2.987571e-02
9.142270e-03
-8.336589e-02
-4.328623e-02
-8.463810e-02
-3.380603e-02
8.908529e-03
1.045605e-03
5.813024e-03
4.858953e-02
4.837859e-02
1.120058e-01
1.869188e-02
-7.795882e-03
3.866369e-02
1.903082e-02
-3.035770e-03
-3.763929e-03
1.083277e-02
2.601554e-02
-6.070145e-02
-3.757606e-01
4.180586e-02
2.148025e-01
-4.595014e-01
1.792516e-01
5.523929e-02
-1.475693e-01
-3.861712e-02
-1.186767e-01
-3.869834e-02
-5.053551e-02
-9.261642e-02
-2.887569e-02
2.665700e-02
-3.407305e-02
-5.161578e-02
5.142321e-02
-2.187206e-01
3.058215e-01
-1.693954e-01
-6.851683e-02
-7.037216e-02
1.069518e-01
2.440615e-01
-1.840380e-01
2.182237e-01
1.432963e-01
-1.144239e-01
-5.433579e-02
-6.567386e-03
-5.248199e-02
2.588156e-02
-5.179425e-02
1.399114e-01
-1.301291e-01
-2.588457e-02
3.019020e-01
3.608751e-01
-3.058624e-01
-2.005377e-02
2.829884e-01
-2.240623e-01
-2.007047e-01
-3.219818e-02
-1.033855e-01
-6.785740e-02
1.813737e-02
-1.174010e-01
-9.077607e-02
-6.362181e-02
-1.736795e-01
-2.015943e-02
4.394501e-03
-4.243186e-02
-6.862986e-02
1.857808e-03
4.478138e-02
-7.996771e-02
-6.323425e-02
8.013782e-02
-2.658403e-02
-1.025399e-01
-3.311170e-02
3.143565e-02
2.900227e-02
-8.600247e-03
1.279097e-02
-6.249594e-02
-2.515374e-03
1.205034e-02
3.489931e-02
-7.147602e-02
-1.001562e-01
7.458347e-02
6.983206e-02
-5.674528e-02
-1.681648e-01
1.695365e-01
1.433328e-01
-3.764244e-02
-7.040831e-02
-1.858951e-01
-1.111122e-01
1.869607e-01
-1.894731e-02
-2.058660e-01
2.090042e-01
2.710582e-01
-6.121341e-03
2.041393e-02
-7.938784e-02
2.639325e-02
-1.624598e-02
8.982298e-02
6.140973e-02
-4.065926e-02
5.759490e-02
5.620533e-02
1.018785e-01
8.722695e-02
-2.532662e-01
-6.394549e-02
3.012700e-01
1.373031e-01
-3.666031e-01
-1.037916e-01
2.012895e-01
-6.363103e-03
-7.820576e-02
-2.701543e-02
9.867921e-02
-1.730973e-02
-1.000175e-01
1.306914e-01
1.365363e-01
8.414835e-02
1.407167e-01
6.523889e-02
-2.652658e-01
3.831700e-02
1.885069e-01
-2.513783e-02
-1.804045e-01
2.989967e-02
1.238377e-01
-2.060184e-02
1.610136e-02
1.682293e-02
-5.954833e-02
-3.630403e-02
-3.979351e-02
1.467587e-02
-1.624515e-02
-2.547248e-02
1.239867e-01
-3.789312e-02
-8.521455e-02
2.079324e-01
7.329455e-02
-6.873211e-02
8.250447e-02
7.433527e-02
-9.453999e-02
1.028973e-01
-5.268014e-02
-1.871132e-01
4.467737e-02
1.822024e-02
-7.387550e-02
-9.527130e-02
1.082639e-01
-1.476710e-02
-3.422385e-02
5.540922e-02
1.331649e-02
1.735196e-02
3.366135e-02
2.877061e-02
2.474885e-02
1.168097e-02
-5.158496e-02
-1.229530e-01
-5.798225e-03
-3.992881e-02
-4.267484e-02
-5.165171e-02
6.672046e-03
-4.407377e-02
-4.793121e-02
-5.370138e-02
-1.003924e-01
-1.120071e-01
3.515760e-02
-2.310063e-02
-4.738736e-02
-8.912363e-02
-5.887894e-03
5.157650e-02
-2.534666e-02
