3.175234e-02
4.691126e-02
6.470603e-02
-2.717745e-03
2.722622e-02
1.495549e-02
-7.071619e-02
-6.041299e-02
1.314652e-02
2.905084e-02
2.497972e-02
3.524953e-02
1.766969e-02
4.620922e-02
4.386522e-02
5.354028e-02
4.679994e-02
7.398965e-02
-8.884479e-02
-4.480623e-02
-4.174282e-02
-4.332540e-02
6.333594e-02
3.857842e-02
-3.355416e-02
2.827014e-02
9.550667e-03
4.280708e-02
1.732887e-02
7.695718e-03
-4.744415e-02
-3.895456e-02
-7.736214e-03
-5.753789e-02
-8.456823e-03
3.364252e-02
-9.417655e-02
-6.700915e-02
-4.857201e-02
-1.497931e-01
-1.281941e-01
-8.514790e-02
-9.965674e-02
-1.020476e-01
-5.373668e-02
1.049697e-01
4.579302e-02
7.133412e-02
1.857853e-03
-5.546231e-02
-3.358746e-02
7.086377e-02
-2.864619e-02
6.463535e-02
-2.945125e-02
-8.661024e-04
-1.490055e-02
2.536890e-02
-8.982698e-03
-4.280162e-02
2.207784e-02
-3.425082e-02
-5.933531e-02
-4.664934e-02
-8.164860e-02
-9.468107e-02
3.352419e-02
-1.714781e-02
-8.774657e-02
-5.853361e-02
-1.094424e-01
-1.513651e-01
3.293469e-02
1.034239e-02
1.046829e-02
-3.661655e-02
-1.899901e-02
5.000072e-02
-1.267596e-02
1.758904e-02
1.462262e-01
-1.902939e-02
6.963648e-02
1.434132e-01
7.761953e-02
9.098266e-02
9.676908e-02
4.496397e-02
7.116640e-02
1.028501e-02
-1.153786e-02
6.184165e-02
3.863627e-02
-6.940832e-03
-2.972082e-02
1.003139e-01
8.694432e-03
-1.345052e-03
1.268650e-02
5.349219e-02
2.488780e-02
-2.063278e-03
-1.321493e-02
-4.747609e-02
-5.475162e-02
-6.574412e-02
-1.027582e-01
-5.980563e-02
-2.556617e-02
-1.144637e-02
1.795500e-02
-1.406996e-02
-1.216237e-02
3.066019e-02
-3.014259e-02
-2.519931e-02
3.747103e-02
3.858595e-02
5.559351e-02
-9.485275e-03
9.488178e-02
1.098292e-01
2.279781e-02
1.129847e-02
-1.870039e-02
-8.040198e-03
-6.716736e-02
-4.713093e-02
-6.933191e-03
-1.250607e-01
-9.360052e-02
-1.141548e-02
-8.012708e-02
-8.342082e-02
-5.408281e-03
-2.161977e-02
-4.000990e-02
6.331232e-02
1.407315e-02
1.589588e-01
1.423093e-01
2.649524e-02
1.176664e-02
9.442294e-02
1.029045e-02
-1.531994e-02
-4.479760e-02
2.543704e-02
-1.888453e-02
-3.570759e-03
-1.785460e-02
-9.103617e-02
-2.618220e-03
1.158017e-01
9.397648e-02
9.176669e-02
1.052179e-01
2.322537e-02
-2.047351e-02
2.491247e-02
7.746416e-02
8.797172e-03
-1.228485e-02
-3.634440e-02
-6.341111e-02
-5.885822e-02
-1.662384e-01
-1.520123e-01
-5.745139e-02
-1.271337e-01
-9.035274e-02
-4.076670e-02
-2.248328e-02
-7.793947e-02
-9.247888e-02
-1.641625e-01
-2.065163e-01
-1.753330e-02
-1.383246e-01
-2.162261e-01
-1.137553e-01
-1.228815e-01
-5.146546e-02
-8.424181e-02
-1.037632e-01
-1.061027e-01
1.734394e-02
-3.066886e-02
-6.716234e-02
-8.816029e-03
4.459139e-02
7.446558e-04
7.967833e-02
6.136540e-02
5.829129e-02
-1.228505e-02
-5.173636e-02
-4.611576e-02
1.846971e-03
-5.341615e-04
-2.126716e-04
-2.570469e-04
-2.637239e-03
1.234227e-04
4.264026e-05
-1.285513e-03
-9.082677e-04
2.831282e-03
3.633149e-02
2.031372e-02
4.896571e-02
4.757074e-02
8.717692e-02
3.025894e-02
-1.025737e-02
-1.478446e-02
-1.032900e-01
-9.059835e-02
-2.846808e-02
-1.140966e-01
-1.732651e-01
-1.084783e-01
-4.518459e-02
-8.263574e-02
-3.063050e-02
1.733756e-02
4.543485e-03
1.383405e-02
-5.376066e-02
-1.320766e-01
-6.649466e-02
-7.101934e-02
-1.109527e-01
-8.336146e-02
3.922823e-02
5.777030e-02
7.296306e-02
1.527461e-01
1.042383e-01
2.021183e-01
1.353170e-01
1.241105e-01
1.519274e-01
-7.799599e-02
-1.153822e-01
-3.646667e-02
-4.647378e-02
-9.422678e-02
-8.943737e-02
-6.474735e-03
-4.417950e-02
-3.684887e-02
-3.772786e-02
7.113093e-02
1.402300e-02
-1.238185e-02
6.099574e-03
-1.420917e-02
-3.437401e-02
-4.109685e-02
2.321354e-02
-6.772884e-02
7.767436e-03
2.846052e-02
-4.043008e-02
5.920506e-02
-2.659412e-03
-1.772631e-03
9.813063e-03
-7.656260e-03
9.120754e-03
9.194672e-03
2.290037e-02
-2.617568e-02
2.955340e-03
2.263022e-02
1.184367e-02
2.095986e-03
-2.481535e-02
-5.329798e-03
-3.460189e-02
-6.761078e-02
9.018704e-03
-5.116819e-02
-4.103573e-02
4.121336e-02
-4.102455e-02
-5.653299e-02
-2.516122e-02
4.948624e-02
1.464532e-02
2.668088e-02
3.807767e-02
2.467830e-02
6.469288e-02
7.463738e-02
2.249678e-02
1.970160e-02
1.236732e-02
-5.702841e-03
6.264751e-02
-5.433810e-03
-2.237222e-02
2.750830e-02
5.655627e-02
5.605482e-02
5.026103e-02
7.589027e-02
2.658883e-02
7.994860e-02
1.237311e-01
6.484797e-02
9.639309e-02
1.617108e-01
1.238648e-01
4.702549e-02
-1.531171e-02
1.211507e-02
5.212232e-02
1.670146e-02
3.759645e-02
8.390660e-02
4.801616e-02
3.076016e-02
2.899654e-03
-5.856356e-03
-4.494161e-02
3.462126e-03
1.734965e-02
6.547095e-03
2.850653e-02
3.503630e-02
3.316775e-02
-6.446748e-02
1.529521e-03
-3.704970e-02
-2.295121e-02
-3.915777e-02
1.307485e-03
-4.067944e-02
1.581740e-02
1.808871e-02
3.916888e-02
3.849726e-02
-5.299663e-02
4.353438e-02
5.855951e-02
-2.785170e-02
-1.494680e-02
1.896245e-03
-2.201091e-02
2.623927e-02
-3.139856e-02
-4.688049e-02
-2.794654e-02
-6.707685e-02
-6.944069e-02
-6.422439e-02
-7.537831e-02
-6.498262e-02
-7.710434e-02
1.685535e-02
3.665330e-02
-6.060418e-02
-5.777453e-03
3.118382e-02
-2.112773e-02
-3.358801e-02
-1.031096e-02
-1.564802e-02
-2.631781e-02
6.423124e-03
4.141481e-03
7.045229e-03
5.119357e-02
2.214959e-02
1.387286e-02
3.022032e-02
-5.130702e-02
-1.080388e-01
-9.242710e-02
-2.701038e-02
-6.731705e-02
-5.535857e-02
-4.703216e-02
-2.556353e-02
-5.659533e-02
-1.093880e-02
-2.559836e-02
-2.880329e-02
-7.610698e-02
-6.559239e-02
-6.999614e-02
-4.501960e-02
-1.454763e-02
-2.218754e-02
-3.967832e-02
2.141850e-02
4.737724e-02
-3.778002e-02
3.584940e-03
6.396851e-02
-3.192962e-02
1.345232e-03
3.844826e-02
-9.461361e-03
-1.470277e-02
-2.499505e-02
1.758317e-02
-3.614077e-02
2.603221e-02
9.317399e-03
-4.783603e-02
3.692854e-03
-6.596684e-02
-9.553240e-02
-5.510395e-02
-2.401283e-02
-2.192018e-02
-1.065636e-02
2.954678e-02
1.717682e-02
1.488600e-02
-3.951235e-02
6.902081e-02
7.616337e-02
-1.366674e-02
-9.778379e-03
3.457744e-02
-8.514609e-03
3.938758e-03
-1.480922e-02
-2.727285e-02
1.347244e-02
-1.127487e-02
1.256403e-02
1.159542e-02
-3.285721e-02
3.571853e-02
3.109849e-02
-1.368865e-02
-1.451527e-02
-3.722597e-02
-4.018846e-02
-3.108118e-02
-1.299616e-02
-4.007690e-02
-3.099978e-02
3.866498e-03
3.198074e-03
1.113967e-02
2.306204e-02
1.795027e-02
-4.194471e-02
-4.767184e-02
-1.221061e-02
-2.053594e-02
-6.060264e-02
-3.347224e-02
-1.828294e-02
-8.749764e-02
-9.258422e-02
-1.222045e-02
-5.433064e-02
-4.278952e-02
-2.622486e-02
-6.345636e-02
-6.881867e-02
-6.350221e-02
-6.930555e-02
-4.724262e-02
9.638772e-03
1.882472e-02
3.633070e-02
2.767472e-02
1.747134e-02
3.300366e-02
-1.952438e-02
-4.138569e-02
-7.902108e-02
-4.238537e-02
-4.072082e-02
-2.252616e-02
-5.511116e-02
-7.451109e-03
1.476738e-03
8.518839e-04
1.415617e-03
-2.274924e-03
-1.723370e-03
3.080085e-03
5.023165e-04
-1.078313e-04
2.416782e-03
1.858918e-03
-1.343361e-03
9.844400e-03
3.603708e-03
-8.564656e-03
-1.099687e-02
1.203523e-02
-5.425183e-02
1.537955e-02
3.197634e-02
-2.665943e-02
-1.156551e-02
6.974369e-02
-3.247288e-03
3.472414e-02
8.760318e-02
6.946950e-03
4.003184e-02
5.573807e-02
-2.594864e-02
-3.416259e-02
-8.914064e-02
3.278699e-02
3.766569e-02
-8.142014e-03
3.324944e-02
9.248137e-03
-1.688980e-02
-1.002696e-02
2.081689e-03
-3.343167e-02
-1.075956e-02
-2.450200e-02
-9.401705e-03
2.494422e-02
4.334939e-02
5.785372e-02
-5.801223e-02
-1.461528e-02
-1.409732e-02
-7.266112e-02
-1.987570e-02
-1.772242e-03
-3.551125e-02
-2.120662e-02
2.532114e-02
2.212851e-02
2.330828e-03
-5.492436e-02
5.990553e-02
1.179030e-02
-6.792974e-02
4.831607e-02
-1.880034e-02
-5.957472e-03
-2.579076e-02
-9.739705e-03
1.934900e-02
-1.707909e-02
1.315858e-03
-1.753381e-03
2.829426e-02
4.125082e-02
2.515821e-02
1.327607e-02
1.839076e-02
-4.656666e-02
-2.269339e-02
-8.196619e-03
-6.426085e-02
-1.125697e-02
-9.251329e-03
-1.400372e-02
3.925978e-02
3.619874e-02
5.110684e-02
-1.767380e-02
-4.230747e-02
-4.808702e-03
-5.472866e-02
-5.023763e-02
-3.975926e-02
-2.706507e-03
7.112173e-04
-1.478544e-02
-1.627748e-02
-2.389517e-02
-1.545640e-02
-1.931797e-02
-8.905851e-03
-4.975413e-03
2.764473e-03
1.773732e-04
5.252330e-03
-2.874662e-03
5.432332e-03
3.237499e-03
-9.377622e-03
-1.546513e-02
-1.046647e-02
-2.282632e-03
-5.124544e-03
-1.467367e-02
1.969925e-03
-9.721550e-03
-1.294539e-02
1.164591e-03
-1.053018e-02
-9.493398e-03
9.562653e-03
-2.064425e-03
-7.516044e-03
8.477363e-03
4.977323e-03
-7.116657e-03
1.508330e-03
-5.529848e-03
-3.968565e-03
7.865271e-04
4.726873e-03
-4.994781e-03
-7.189543e-03
-9.672036e-03
-7.879301e-03
-8.599015e-03
-1.472967e-03
8.926532e-04
-9.731672e-03
-2.745561e-03
-2.576101e-02
-1.828932e-03
7.924227e-03
-8.699399e-03
-1.196016e-02
-9.059432e-03
-1.957829e-02
-1.420394e-02
4.895423e-03
-1.348279e-02
-3.862276e-03
2.158234e-02
-3.513686e-03
-1.196709e-02
7.624021e-03
-1.195943e-02
-1.498392e-03
2.531863e-02
-2.199884e-02
9.889014e-03
4.180561e-02
-1.121722e-02
1.466032e-03
2.152175e-02
-3.064380e-02
2.626486e-03
4.486972e-03
1.951092e-03
-5.491691e-03
-1.576420e-03
-4.164925e-03
-5.988463e-03
-2.451459e-03
-9.363594e-03
-8.490111e-03
-7.092693e-03
-4.094752e-03
7.258974e-03
1.074364e-02
-2.101442e-03
1.345302e-03
-7.966151e-03
-1.110777e-02
2.834362e-03
6.450315e-03
-2.305033e-03
-4.592869e-03
-8.826671e-03
-7.595045e-03
-3.584210e-03
-3.500525e-03
-2.927694e-04
-9.466521e-04
4.576126e-03
-1.984936e-03
8.762918e-03
1.322603e-02
-1.990162e-03
1.458713e-02
1.013012e-02
-2.656245e-03
-3.647595e-03
-1.031306e-02
-8.697632e-03
-2.445669e-03
-4.409449e-03
-6.492194e-03
-1.343342e-03
-2.664182e-03
-1.018566e-03
5.262301e-03
3.900699e-04
1.007112e-03
2.780475e-03
-1.230778e-03
6.925864e-03
1.486647e-03
-1.069793e-02
-4.053907e-03
-7.064863e-03
2.991002e-04
-2.155636e-03
-3.931888e-03
3.056434e-03
2.022662e-03
-5.018130e-04
3.363510e-03
-3.295761e-04
5.284339e-03
-2.334327e-04
-6.833009e-03
-2.764252e-03
-1.371996e-02
-1.061497e-02
3.112145e-03
-1.271968e-02
-1.374120e-02
5.328088e-03
8.580335e-03
8.467208e-03
1.132303e-02
7.619456e-03
3.577322e-03
1.616830e-02
5.186681e-03
-3.166322e-04
-1.116917e-02
-5.855309e-03
-1.886892e-02
-1.183433e-02
9.475866e-03
1.758012e-03
4.121215e-03
1.666084e-02
8.439744e-03
-5.968156e-03
-1.076851e-02
-1.011159e-02
5.909652e-03
-1.005380e-03
-2.671067e-03
-9.682070e-05
-6.429729e-03
-1.047864e-02
1.076973e-02
4.776787e-02
-1.987640e-02
1.826952e-02
5.877284e-02
-2.301464e-02
2.748376e-03
3.549140e-02
-3.187066e-02
8.767281e-05
6.809342e-03
-9.690213e-03
-1.963661e-04
8.969610e-06
-1.612109e-02
-4.633356e-03
-3.809738e-03
-1.405688e-02
-6.032958e-03
-9.366207e-04
-1.261071e-02
-4.085425e-03
-9.792304e-05
-6.999697e-03
3.883774e-03
-1.442875e-03
-2.578868e-03
-5.608351e-04
1.705444e-03
-2.022280e-03
5.682128e-05
4.846567e-04
-9.767611e-04
2.198093e-03
-9.268518e-04
-6.652446e-04
4.033202e-04
-4.747825e-03
-1.093322e-02
3.163239e-03
-4.244270e-03
-9.988364e-03
-3.234079e-03
3.744779e-04
-1.795154e-04
-7.237355e-03
-6.634343e-03
-1.628446e-02
5.260298e-04
-5.057244e-03
-9.257916e-03
-5.362842e-03
-2.436092e-03
-1.890401e-03
-5.546082e-03
1.631704e-03
-3.278121e-02
-2.153164e-03
2.363252e-05
-2.852671e-02
-2.419765e-03
-2.936489e-03
-2.311265e-02
1.839948e-03
-1.492074e-03
-4.813414e-03
2.697750e-04
-1.477557e-03
-1.172917e-03
-8.483349e-04
8.572271e-03
1.382649e-02
-6.905738e-03
1.925673e-03
1.927012e-03
1.226089e-02
6.282632e-04
6.544745e-03
1.107710e-03
-1.375214e-03
-9.281548e-03
-1.747496e-02
-1.219999e-02
-4.200703e-03
-6.253401e-03
-1.090321e-02
-1.092835e-03
6.063646e-03
9.835429e-03
3.689136e-03
7.771113e-03
9.171999e-03
-1.021335e-03
1.530648e-03
3.529683e-03
-4.336269e-03
1.969799e-03
3.451327e-04
-8.774674e-03
-9.534772e-03
-1.067619e-02
-3.613068e-03
-4.369232e-03
-9.682676e-03
-1.432223e-02
-1.005734e-02
7.452816e-04
2.506792e-03
3.044615e-03
4.122093e-03
-4.027676e-03
1.453396e-02
4.456594e-03
-3.900063e-03
1.044746e-02
1.056173e-02
-1.160322e-03
2.376767e-02
2.799680e-02
3.087392e-02
4.067660e-02
4.229580e-02
2.290859e-02
-2.974971e-03
-2.253641e-04
2.757547e-02
3.666083e-02
-7.103872e-02
-1.032309e-02
8.397060e-03
-8.917059e-02
-8.367985e-03
1.632072e-02
-3.936580e-02
-8.345821e-03
1.974879e-02
-5.689518e-02
-2.749850e-02
-3.056070e-03
-1.491015e-01
-1.240435e-01
3.949973e-02
-1.322182e-01
-1.218719e-01
-4.873763e-02
-5.336702e-02
-5.142145e-02
4.003802e-03
7.878870e-02
8.415901e-02
4.832705e-02
7.277884e-02
9.088231e-02
1.363652e-02
-1.545392e-02
2.606218e-02
2.522788e-02
-3.994996e-04
2.510702e-02
-1.819470e-02
-3.494201e-02
-1.623208e-02
-1.443925e-02
4.283343e-03
-2.291116e-02
-3.653713e-02
6.499913e-02
-3.944593e-02
8.876949e-02
9.237733e-02
2.968929e-02
2.157854e-02
-5.729156e-02
-6.221010e-02
4.943957e-02
-7.332484e-02
-5.947237e-02
9.568767e-02
2.304261e-03
-1.171566e-02
8.009075e-02
3.532571e-02
-1.780363e-02
2.700237e-02
-3.612766e-03
-1.875571e-03
-9.602589e-03
-4.484421e-02
-4.370391e-02
-4.527733e-02
-9.198019e-02
8.595161e-03
9.965313e-02
3.221080e-02
7.144908e-02
1.348883e-01
4.969870e-02
4.399055e-02
6.413240e-03
4.594996e-02
1.867976e-02
6.656939e-02
8.017154e-02
8.379109e-02
2.247811e-02
3.066057e-02
8.861256e-02
1.525426e-02
3.827416e-03
-4.349782e-02
1.154769e-02
4.478558e-02
-2.446989e-02
3.223695e-04
-1.757003e-02
6.018434e-03
-2.300974e-02
-3.549893e-02
2.028638e-03
-4.145618e-02
-8.044939e-02
-6.670903e-02
-4.281439e-02
-7.720422e-02
-8.529016e-02
-6.361123e-03
-7.381152e-03
-2.011001e-02
3.417036e-02
5.760393e-02
7.339554e-03
4.778214e-02
7.690430e-02
5.968026e-02
4.416296e-02
-9.526135e-03
8.730630e-02
2.502577e-02
4.788001e-02
2.718646e-02
4.476990e-02
6.493817e-02
1.882095e-02
-2.290275e-02
-5.411869e-02
-5.387562e-02
-2.826398e-02
-8.818468e-02
-5.179476e-02
2.455211e-02
-8.475256e-03
-4.461756e-03
4.766612e-02
4.535858e-02
4.372802e-02
1.357189e-02
-1.950492e-02
6.280082e-02
-4.151482e-02
4.068019e-02
3.412035e-02
1.139646e-01
1.437000e-02
-2.945358e-02
7.627676e-02
6.010986e-03
-4.404582e-02
3.198423e-02
4.141464e-02
-2.049028e-02
2.793789e-02
4.889044e-03
1.317049e-02
-6.041788e-03
2.109020e-02
5.747695e-03
-4.300354e-02
2.342889e-03
1.075054e-03
4.577415e-02
-9.136505e-03
-9.058437e-02
5.558988e-02
8.583172e-02
-4.601188e-02
6.268617e-02
9.715337e-02
2.543500e-02
3.042951e-03
-8.737935e-02
-1.711304e-01
-2.314475e-02
-8.188226e-02
-1.487255e-01
-1.678969e-02
-8.867002e-02
-1.770275e-01
-3.505477e-02
-7.967909e-02
-8.605751e-02
4.623155e-04
-6.030621e-02
-5.765143e-02
6.939475e-04
-4.917199e-02
-4.874299e-02
1.045516e-03
-6.501964e-02
-1.776227e-02
1.069343e-02
-3.987700e-02
-2.121212e-02
9.801921e-03
-3.072257e-02
-1.863953e-02
-1.173195e-03
-5.584187e-05
-2.298026e-03
6.056203e-04
-3.011414e-04
-5.997708e-05
2.329036e-03
-2.233639e-03
1.683173e-03
-1.704776e-03
6.771116e-03
-4.925137e-03
1.709332e-02
5.342690e-02
6.327111e-02
-1.522480e-02
6.298203e-03
4.124675e-02
-7.427596e-02
-3.489002e-02
-1.826102e-02
-2.647675e-02
-1.316144e-02
5.202789e-03
-3.776968e-02
3.728430e-03
4.691543e-02
-2.911290e-02
-1.440634e-02
1.971567e-02
-3.144171e-02
-1.964044e-02
1.923565e-02
-4.913255e-02
-1.126523e-02
-2.701622e-03
3.320236e-02
7.158062e-02
5.561357e-02
-8.080301e-03
1.684832e-02
5.164427e-02
-1.245770e-02
-5.883403e-03
5.411792e-02
-1.535345e-02
-9.614944e-02
-6.251783e-02
-1.304884e-02
-6.582309e-02
-1.187934e-01
-2.646850e-02
-8.541647e-02
-5.717973e-02
3.456608e-02
2.442704e-02
-1.384925e-03
-1.164686e-02
-4.206435e-02
-4.121328e-02
-2.299719e-02
5.425207e-02
3.398843e-02
-7.198250e-02
-6.388735e-02
1.835585e-04
-3.478891e-02
-4.656263e-02
-3.078296e-02
-6.468524e-03
-3.661191e-02
-3.743604e-02
-8.832905e-02
-8.915465e-02
-5.983092e-02
-6.501480e-02
-6.775183e-02
-5.670575e-02
-3.916131e-02
-6.437765e-02
-2.023245e-02
6.685181e-02
8.538084e-02
4.005711e-02
2.435730e-03
-2.791371e-02
-2.339555e-02
-1.055947e-01
-1.361818e-01
-7.861686e-02
7.708073e-02
5.642133e-03
-5.905187e-02
7.309563e-02
1.778798e-02
-8.018488e-02
6.482779e-02
-3.297135e-02
-1.004798e-03
4.070818e-02
2.472883e-02
1.327272e-02
-1.892190e-02
-5.998623e-02
-1.027056e-01
-4.753140e-02
-7.268026e-02
-7.843845e-02
8.151380e-02
2.833779e-02
-1.335690e-02
8.862202e-03
-5.844026e-02
-9.085800e-02
-4.127911e-02
-9.832785e-02
-1.472317e-01
-1.595213e-02
-4.945737e-02
-6.702321e-02
-3.291265e-02
-2.708784e-02
-1.628042e-02
-7.461117e-02
-6.735197e-02
-4.910861e-02
-4.733958e-02
-8.165328e-02
-9.456681e-02
-5.407423e-02
-2.288958e-02
-3.784559e-02
-4.600470e-02
-6.123646e-02
-1.979589e-02
8.322220e-02
7.610189e-02
9.526553e-02
5.553369e-03
1.048661e-01
2.246726e-01
-2.926223e-02
1.595591e-01
2.442310e-01
1.400342e-02
-1.877417e-02
-4.616389e-02
-3.413923e-02
-4.781517e-02
-3.114804e-02
-6.053754e-02
-4.277087e-02
2.206898e-02
-2.305199e-03
-1.316749e-02
-5.492575e-02
2.220955e-02
-4.130123e-02
-7.085493e-02
-2.973495e-02
-6.357138e-02
-1.341035e-01
-2.973856e-04
3.549939e-02
-4.177733e-02
-2.633033e-02
2.150870e-04
-1.341289e-01
5.252568e-03
2.241874e-02
-7.766829e-02
-3.036232e-02
-1.450394e-02
2.957212e-02
-7.378036e-02
-2.451607e-02
-3.955112e-02
-2.995686e-02
-1.523338e-02
4.802261e-02
1.722584e-02
3.622843e-02
4.906161e-02
3.750571e-02
4.688335e-02
5.479610e-02
-1.357917e-02
2.734841e-02
-1.519643e-02
-1.888511e-02
-3.544202e-03
-2.926721e-02
6.613387e-02
-6.205074e-03
-3.079569e-02
1.135972e-01
4.957186e-02
-3.079785e-02
7.791853e-02
7.071478e-02
-8.821338e-03
2.348296e-03
-2.708193e-02
-7.591567e-02
-2.606699e-02
-4.987632e-02
-8.196081e-02
8.852171e-04
1.724564e-01
1.351024e-01
3.689569e-02
2.570430e-01
1.951248e-01
-4.474919e-02
2.100536e-01
1.945878e-01
6.302668e-02
6.422805e-03
-5.480611e-02
-1.106675e-02
1.202581e-02
-8.031637e-02
-1.791600e-02
-4.585334e-02
-1.371227e-01
-5.080262e-02
-4.605025e-02
-7.246955e-02
-1.037589e-02
-5.666769e-02
2.312460e-02
-2.566674e-02
-3.920829e-02
1.292484e-02
4.174773e-02
-7.063052e-03
6.317665e-02
4.692413e-02
-8.218893e-03
3.769471e-02
4.662106e-02
-3.931918e-02
-2.469509e-03
2.163576e-02
-2.773277e-02
-3.500636e-02
7.263695e-02
2.388732e-02
-4.895578e-02
9.941004e-02
4.681045e-02
-5.863693e-02
1.109606e-02
1.867808e-02
9.714414e-03
-1.523671e-03
-3.651395e-02
-7.205882e-02
-6.800445e-02
-6.648426e-02
-7.183734e-02
-1.745604e-02
-5.240631e-02
-2.898653e-02
-4.914521e-02
-5.647364e-02
-2.717742e-02
-8.739204e-02
-1.129424e-01
-1.015322e-01
-3.529247e-02
3.565053e-02
1.108431e-01
-3.200600e-02
-8.462554e-04
8.219010e-02
-4.352908e-02
-1.285423e-03
6.476542e-02
3.290900e-02
3.452740e-02
-2.392121e-02
6.776196e-03
2.305766e-02
4.069047e-03
6.545597e-02
8.785485e-02
7.511847e-02
-1.583312e-03
2.817726e-04
2.703608e-04
-2.953077e-04
-4.508148e-04
2.294316e-03
-5.899174e-04
-8.198388e-04
-7.091643e-04
-4.410179e-02
-4.556591e-02
2.257784e-02
-5.261922e-02
-8.679909e-02
-4.906838e-02
-2.275031e-02
-5.863268e-02
-5.587034e-03
-4.274348e-02
-3.724287e-02
-3.220745e-02
-2.682823e-02
-4.587966e-02
-6.359456e-02
-4.134607e-02
-3.787372e-02
-1.836804e-02
-4.238184e-02
-3.107150e-02
1.724452e-02
-6.441952e-02
-6.467039e-02
4.749185e-03
-7.852548e-03
-8.651317e-02
4.484737e-02
-4.881912e-02
-8.801191e-02
3.810703e-02
-4.577182e-02
4.491979e-04
-1.259318e-02
3.743397e-02
-4.348697e-03
1.734087e-02
4.776257e-03
-1.225674e-02
-4.256962e-02
5.015448e-02
-4.352101e-02
-3.747666e-02
3.559396e-02
-3.060576e-02
-7.751414e-02
5.243118e-02
-3.902041e-02
-2.728755e-03
1.027040e-01
-1.767690e-02
2.018664e-01
8.773638e-02
2.851066e-01
3.112964e-01
2.300793e-02
-2.585089e-03
-2.652749e-02
6.169338e-02
2.188403e-02
-5.813349e-02
4.289518e-02
4.127779e-02
5.513982e-03
4.502782e-02
-2.512488e-02
-2.359452e-02
1.345050e-02
8.198899e-03
2.394584e-02
7.515087e-02
6.607855e-02
5.010062e-02
-6.066617e-03
-3.051773e-02
-7.928436e-02
-3.101107e-02
-6.951624e-02
-7.565905e-02
-9.804603e-02
-1.137656e-01
-1.116386e-01
-7.232507e-02
-3.697827e-02
-1.621630e-02
-2.887114e-02
1.751751e-03
2.504889e-02
2.027066e-02
3.046984e-02
4.521418e-02
-3.436062e-02
-5.024487e-02
-6.748866e-02
-7.988541e-03
4.462779e-03
-5.051417e-02
-2.909388e-03
3.828043e-02
1.071262e-02
1.278834e-02
-5.217499e-03
-5.548801e-03
2.554147e-03
3.302418e-02
3.186866e-02
-1.168494e-02
3.291276e-02
2.844834e-02
-5.725940e-03
6.612129e-03
3.498618e-02
-7.828079e-03
2.055954e-04
2.639358e-02
-3.021651e-02
-7.757722e-03
-1.212250e-02
-4.481756e-02
-3.972489e-02
-3.589717e-02
-4.140114e-02
-3.866176e-02
-4.260352e-02
-1.824263e-03
1.609174e-02
2.904510e-04
-4.084063e-03
1.469034e-02
2.301295e-02
-2.171595e-02
-2.002449e-02
-2.004511e-02
-4.661541e-02
-3.243394e-02
-3.742388e-03
2.592661e-02
-1.991667e-02
1.823198e-02
-3.552839e-03
-6.245009e-02
-4.397024e-02
-8.295830e-03
-5.001819e-02
-7.766288e-02
3.861026e-02
2.743671e-02
4.859633e-04
4.969805e-03
1.094316e-02
-2.964704e-02
1.622613e-02
1.521156e-02
-1.646041e-02
5.002304e-04
4.906644e-03
2.389938e-02
1.088245e-02
1.778148e-02
-8.607667e-03
-1.729548e-03
-2.527323e-02
-1.182930e-02
-4.244063e-02
-1.726322e-02
-1.419635e-02
-3.123320e-02
-2.233691e-02
7.518974e-03
-5.193580e-02
-1.106397e-03
6.827135e-03
-1.769731e-03
3.421322e-02
5.022533e-02
2.132523e-02
1.175172e-02
1.726079e-02
-2.256094e-02
-4.293478e-02
-2.542331e-02
-1.816115e-02
-5.078204e-02
-5.146517e-02
-2.989965e-02
-3.913896e-02
-5.038964e-02
1.651996e-02
3.299867e-02
3.497969e-02
1.326641e-02
4.583956e-03
2.186340e-02
2.171794e-03
1.515491e-02
6.533328e-02
-1.573987e-02
4.184256e-03
5.424954e-02
4.845408e-02
1.644672e-02
-1.207700e-02
1.658951e-02
7.603497e-03
-5.082463e-02
-2.963559e-02
-1.418454e-02
-2.938336e-02
-5.374650e-02
-4.573902e-02
-4.178507e-02
-2.267749e-02
-1.972612e-02
-3.656809e-02
2.349502e-02
1.180372e-02
-1.572360e-02
-4.285976e-02
-2.998582e-02
-3.535336e-02
-4.137971e-02
-3.433074e-02
-9.568702e-03
-2.787063e-02
-5.150077e-02
-3.850764e-02
5.288425e-03
2.068512e-02
-9.039985e-03
-4.330160e-02
1.026725e-02
-2.056777e-02
-2.670881e-02
2.968905e-02
3.970861e-04
5.443714e-03
4.549408e-02
3.959864e-02
6.584203e-02
4.920621e-02
2.656600e-02
-7.573639e-03
1.923639e-02
-2.555918e-03
-3.616851e-02
-5.502834e-02
-6.081558e-02
-2.957055e-02
-6.023105e-02
-2.802056e-02
-5.198484e-04
-5.476925e-04
1.380854e-02
2.406291e-02
1.714110e-02
-3.812842e-02
-6.103316e-04
-5.154072e-02
-1.068074e-01
9.597836e-04
-5.114545e-02
-8.853517e-02
1.395769e-02
2.266338e-02
2.535296e-02
5.728039e-03
-4.207105e-03
-1.166875e-02
-2.474487e-02
-4.547925e-02
-5.097747e-02
9.485235e-03
2.128167e-02
2.103165e-02
4.189352e-04
-5.522439e-03
-1.409917e-03
4.002690e-02
1.351595e-02
-5.983364e-04
8.092225e-04
-1.481100e-04
1.874372e-03
-1.833414e-04
-5.444468e-04
2.553379e-03
6.523222e-04
2.100446e-03
-1.409114e-03
-7.183332e-03
1.087049e-02
4.799302e-02
-3.276863e-02
-1.738625e-02
1.552958e-02
-4.596610e-02
-2.453196e-02
-8.878660e-03
-4.038685e-02
-4.993358e-02
-2.946064e-02
1.171361e-02
-2.078760e-02
-2.803038e-02
5.042953e-02
3.054887e-02
-3.194796e-02
-3.072369e-02
-2.839052e-02
-1.917483e-02
6.542977e-03
-2.796444e-02
-9.989822e-03
-2.768151e-02
-4.709120e-02
-3.316095e-02
3.604237e-02
4.341847e-02
8.012779e-02
7.142714e-02
7.641746e-02
9.095432e-02
2.629168e-02
4.760250e-02
4.541174e-02
-5.283819e-03
-2.150295e-02
2.677309e-04
9.151214e-04
-1.160869e-02
2.801882e-02
7.453029e-03
3.399333e-05
2.301677e-02
-4.772481e-02
-2.581616e-02
-6.779534e-03
1.030345e-02
-1.541281e-02
3.947829e-02
-9.587485e-02
-5.562344e-02
-1.919447e-03
-2.328943e-02
-3.453530e-02
-3.238670e-02
-3.364949e-02
-5.815514e-02
-3.865790e-02
-2.386261e-02
-3.050796e-02
-5.479746e-03
4.025501e-02
6.711213e-02
6.297679e-02
6.185167e-02
8.642212e-02
8.009996e-02
3.679757e-02
5.779189e-02
5.781009e-02
-9.136585e-04
-2.846340e-02
-4.169424e-03
-8.645125e-03
-1.885503e-02
-1.174047e-03
3.726207e-02
2.798221e-02
1.481919e-02
1.189208e-02
1.058057e-02
6.010784e-03
7.375951e-03
-2.103848e-02
-3.875073e-02
1.880304e-03
-2.134988e-02
7.747347e-03
-3.113423e-02
-3.307546e-02
-8.611409e-03
4.053766e-02
9.531327e-03
7.000627e-02
2.875249e-02
4.772656e-02
8.434135e-02
-3.559759e-02
-1.617921e-02
3.520969e-02
-7.429577e-02
-4.340164e-02
2.556159e-02
-5.341595e-02
-1.409633e-02
5.987617e-02
-3.540620e-02
-3.938255e-02
1.563891e-02
-9.498218e-03
2.304465e-03
2.982067e-02
-2.311462e-02
-2.151705e-02
-8.171756e-03
-1.208365e-02
6.357464e-03
-3.269833e-02
-2.597422e-02
-1.972982e-02
-1.457233e-03
-4.536340e-02
-3.974508e-02
-1.818384e-02
-2.025740e-02
-2.640591e-02
-2.905609e-02
3.217830e-02
-1.904704e-03
-6.076846e-03
-3.836910e-02
-1.811322e-02
-2.851613e-02
-2.211585e-02
-6.129050e-02
-3.605391e-02
2.267723e-02
-2.331138e-02
-2.946775e-02
-3.243424e-02
-5.992402e-02
-1.632323e-02
-5.492165e-03
-3.847869e-03
-2.464852e-02
4.170576e-02
9.507111e-03
-5.512984e-03
-1.412017e-04
1.113183e-02
-2.623747e-02
-7.655156e-02
3.570602e-02
3.821310e-02
-1.165527e-02
4.041681e-02
3.325710e-02
2.773414e-02
3.223350e-02
1.049482e-02
-5.205534e-02
-8.174206e-02
-1.031276e-01
-9.577542e-02
-8.295918e-02
-9.914646e-02
-5.160344e-02
-1.013892e-01
-1.652765e-01
6.824703e-02
2.803479e-02
3.338163e-03
2.775788e-02
1.945560e-02
-2.024018e-02
1.944700e-02
-2.344860e-03
-2.866653e-02
2.156669e-02
3.931057e-02
7.943556e-02
4.487452e-02
1.916226e-02
5.169150e-02
1.914245e-02
-5.601887e-03
6.432769e-03
-3.455972e-02
-1.288905e-02
6.527925e-03
-3.151090e-02
-3.426579e-02
-2.804344e-02
-5.069187e-02
-1.081224e-02
-8.174353e-03
-3.610157e-02
8.876715e-02
8.693735e-02
-4.319191e-02
7.274231e-02
2.229368e-02
-3.604638e-02
7.466470e-02
-1.744513e-02
-4.090479e-02
-8.839328e-02
-4.769441e-02
-6.640005e-02
-1.299264e-01
-8.726462e-02
-6.342965e-02
-7.315338e-02
-4.145486e-02
-3.986771e-02
8.687798e-03
9.144934e-02
-1.623631e-02
-1.150748e-02
3.232746e-02
-1.109973e-02
1.470395e-03
-4.286308e-02
1.571237e-02
-3.091240e-02
-1.586386e-02
4.977820e-02
-4.212632e-03
-6.616701e-03
3.145099e-02
3.067571e-02
1.146479e-02
4.134134e-03
-1.360362e-02
-1.109357e-01
-2.498662e-02
-3.284208e-03
-7.832021e-02
-3.178861e-02
-7.236436e-03
-7.105642e-03
4.052281e-02
-4.187998e-02
-5.071397e-02
-9.364012e-03
-3.943175e-02
-2.886805e-02
2.420009e-02
-3.856628e-02
5.215265e-02
-8.593246e-02
-1.168349e-01
-9.461906e-02
-4.907153e-02
-1.026387e-01
-8.484653e-02
-7.137684e-02
-7.363355e-02
-6.458264e-02
1.336246e-03
-3.933759e-02
-5.017308e-02
-1.175985e-02
-6.382155e-02
-6.351824e-02
-5.105141e-02
-6.704619e-02
-5.536534e-02
-7.984110e-04
3.893396e-02
4.398122e-02
3.938764e-02
6.678674e-02
5.717865e-02
5.171506e-02
6.503760e-02
4.780538e-02
-1.055462e-03
1.987853e-03
1.789925e-04
-2.477115e-04
-1.950121e-03
5.224501e-04
2.323492e-03
2.469545e-05
2.372145e-04
-5.342677e-02
-3.183848e-02
1.584438e-02
-2.160675e-02
1.744493e-02
-8.732562e-03
9.029805e-03
6.755418e-02
5.406864e-02
3.155717e-02
4.069906e-02
7.437530e-02
3.384059e-03
-1.011467e-02
7.941143e-02
-3.273074e-02
-3.430281e-02
2.336847e-02
1.802687e-02
-7.457084e-03
-5.252268e-02
3.076067e-02
-3.159775e-02
-9.711649e-02
-1.569199e-02
-4.140224e-02
-7.103953e-02
1.007535e-02
1.152658e-02
-7.045833e-03
-8.676677e-03
-4.513733e-03
-3.756290e-02
-1.828167e-02
-2.071752e-02
-4.067907e-02
-1.167295e-02
-5.332191e-02
-2.656218e-02
3.937941e-02
2.663138e-03
-9.538144e-03
-1.288657e-02
-6.588817e-04
2.962438e-03
3.460155e-02
-9.565615e-03
1.503576e-02
-7.458232e-02
-8.721904e-02
-4.771488e-02
-1.899719e-02
-2.847751e-02
4.247512e-02
2.083693e-02
-1.848773e-02
-4.879217e-02
3.390952e-02
2.075970e-02
-4.665279e-02
6.787363e-02
2.145896e-02
5.897201e-03
-2.699639e-02
-1.521691e-02
3.345634e-02
4.862690e-02
4.848867e-02
5.974280e-02
-1.456939e-02
-1.234150e-02
3.887932e-03
-7.837252e-02
-7.202113e-02
-2.774976e-02
-1.219738e-02
-4.230061e-02
-4.783339e-04
2.977723e-02
-5.795783e-03
2.612827e-02
7.605136e-03
-1.538300e-02
6.584485e-03
-5.025021e-02
-5.864550e-02
-5.645904e-02
-9.067100e-03
-2.835523e-03
-7.660361e-03
1.063652e-02
2.872611e-02
6.273805e-02
-1.531593e-02
1.628938e-04
4.702911e-02
3.868878e-02
4.242592e-02
1.144194e-02
4.159245e-02
6.749637e-02
7.960719e-02
5.123232e-02
6.961966e-02
6.747318e-02
1.458169e-02
5.064647e-02
4.137277e-02
2.008430e-02
4.603405e-02
5.923188e-02
3.888712e-02
7.420038e-02
5.785752e-02
3.692332e-02
7.326204e-02
2.737722e-02
-1.505529e-02
-1.651054e-02
2.255725e-03
-1.847281e-02
-1.254052e-02
1.589741e-02
-2.262239e-02
-1.385509e-02
-1.026654e-02
-6.202722e-02
-1.743253e-02
3.104936e-02
-2.804916e-02
3.610564e-02
1.653228e-02
-1.153738e-02
2.341544e-02
-2.927065e-02
1.217104e-02
-1.128114e-02
-2.310532e-02
2.510792e-02
4.909821e-02
4.585113e-02
4.176004e-02
2.932720e-02
1.574449e-02
1.163244e-02
5.514358e-02
-3.473386e-02
2.058687e-02
6.215674e-02
-2.093868e-02
-2.154969e-02
-1.594656e-03
-8.841611e-02
2.530533e-02
1.615149e-02
5.848430e-02
3.978905e-02
4.191120e-02
4.600579e-02
-8.764323e-03
7.098714e-03
-2.493001e-03
2.623183e-02
1.088336e-02
1.300624e-03
-7.838905e-03
-2.350119e-02
-1.355989e-02
3.662353e-02
1.885240e-02
3.343526e-02
1.530845e-03
7.969532e-02
8.211286e-02
5.872266e-02
9.912297e-02
5.564132e-02
9.391353e-03
4.137661e-02
2.686254e-02
-1.901555e-02
-3.802941e-02
-7.657135e-02
3.231118e-02
1.808725e-03
-2.781956e-02
2.363702e-02
-1.032175e-02
-5.634613e-02
6.058054e-03
3.097555e-03
2.764090e-02
-1.143109e-02
-2.258931e-02
-6.521727e-03
-5.825942e-03
-4.611840e-02
-3.908150e-02
9.176920e-02
8.612145e-02
9.747376e-02
1.219455e-01
7.459260e-02
8.075532e-02
8.321124e-02
1.780528e-02
1.920917e-02
9.385683e-02
6.181265e-02
3.705027e-02
8.557287e-02
1.015888e-01
6.313907e-02
3.670987e-02
8.102274e-02
6.662894e-02
-4.011191e-02
-4.296336e-02
-2.709600e-02
-3.757777e-02
-5.366305e-02
-2.438901e-02
7.459770e-03
-2.624736e-02
-1.290141e-02
3.365441e-02
6.520572e-03
-9.732413e-04
2.662277e-02
3.456914e-02
2.075568e-02
-5.042635e-03
3.830059e-02
2.931522e-02
2.936720e-02
5.036287e-02
5.525111e-02
1.904319e-02
8.773115e-03
1.146989e-02
9.246580e-02
8.446078e-02
7.228233e-02
-6.916486e-02
2.311536e-02
2.312133e-02
-1.875166e-02
1.135289e-02
-1.075047e-02
6.776904e-03
-4.664728e-03
-3.789235e-02
5.528504e-02
7.437829e-02
-9.332197e-03
6.022590e-02
3.366286e-02
-3.987195e-02
6.826472e-02
4.661593e-02
-2.038837e-02
-9.271728e-03
-1.743857e-03
5.120826e-03
-1.102093e-02
-7.525353e-03
-2.086321e-02
-2.603676e-02
-2.226613e-02
-4.441407e-02
-7.365169e-03
-2.833368e-02
-1.803242e-02
9.757709e-03
-9.989491e-03
-7.704209e-04
2.175453e-03
-1.622497e-02
-6.476356e-02
2.233512e-03
-1.125535e-03
-7.103477e-04
6.372632e-04
-9.278831e-04
1.883140e-03
-9.823286e-04
3.467943e-03
1.537716e-03
-2.334009e-02
-3.554176e-02
-2.474070e-02
-1.736893e-02
-3.599662e-02
-3.817492e-02
-6.737572e-06
-2.002967e-02
-2.839849e-02
2.738626e-02
6.782803e-02
-1.167401e-02
1.909936e-02
2.814812e-02
-1.558545e-02
-1.286717e-02
-2.337026e-03
3.137886e-02
2.004235e-02
7.169707e-03
-3.417508e-02
2.766264e-02
3.665403e-03
-3.075032e-02
-2.584691e-02
-4.162885e-02
-6.034964e-02
3.385513e-02
1.995854e-02
3.293960e-02
2.426319e-02
1.791308e-02
1.654975e-02
6.858080e-04
-2.049727e-02
-1.115952e-02
2.669144e-02
1.366623e-02
1.710008e-02
-7.776586e-03
4.739131e-03
1.781666e-02
-1.654687e-02
-2.983001e-02
-3.929191e-04
-9.852396e-02
-1.993220e-02
-2.778110e-03
-4.714272e-03
6.409292e-03
-9.148645e-04
5.553615e-02
9.996893e-02
9.174371e-02
-4.706202e-03
-8.529121e-03
-1.557078e-02
3.597371e-02
3.135642e-02
-1.283712e-02
4.744121e-02
4.594095e-02
6.243778e-03
-2.354722e-03
-5.824890e-03
2.607558e-02
6.698655e-02
6.215080e-02
5.471178e-02
3.726668e-02
3.272871e-02
9.442008e-03
-8.001499e-03
-1.307355e-02
-3.239644e-02
1.288619e-02
8.784957e-03
1.452267e-03
4.900949e-02
2.688398e-02
2.867295e-03
-7.438542e-02
-3.071512e-02
-5.702642e-02
4.834489e-02
4.175468e-02
2.798153e-03
-4.986563e-02
-3.574071e-02
-1.267853e-01
-4.019341e-02
-4.770511e-02
-4.401327e-02
5.368792e-04
1.531854e-02
1.514665e-02
-4.435128e-02
9.254534e-03
1.301990e-02
-8.161956e-03
-6.208634e-03
1.237783e-02
-2.843495e-02
2.181700e-03
-1.523101e-02
5.818450e-03
2.012622e-02
-8.558512e-03
4.800376e-03
8.343246e-02
1.954499e-02
-6.805675e-03
5.022092e-02
-1.298691e-02
-3.128533e-02
-7.981488e-03
-6.666447e-02
-1.576440e-02
1.907423e-02
2.279727e-02
-3.702393e-02
9.759830e-03
9.235352e-03
-4.452776e-02
-1.535455e-02
-2.789470e-02
4.213895e-02
8.693474e-02
5.341919e-02
8.262563e-02
9.092763e-03
5.371357e-02
5.876480e-02
1.045966e-01
5.889038e-02
-3.327657e-02
-8.233701e-03
8.214403e-02
-9.989583e-02
-6.508707e-02
5.579747e-02
-6.891926e-02
-5.290886e-02
4.298855e-02
-8.488571e-03
-4.459225e-02
-3.004801e-02
-4.436065e-02
-8.489811e-02
-7.965583e-02
-3.831542e-02
-5.214339e-02
-5.930145e-02
-3.776106e-02
-5.236069e-02
-3.821237e-02
-3.625698e-02
-4.640174e-02
-8.669793e-03
-4.248128e-02
-4.659598e-02
-3.023838e-02
-1.127578e-02
-3.322127e-02
8.062965e-03
1.606779e-02
3.305263e-02
1.180871e-02
-3.423686e-02
-5.981195e-02
-3.774038e-02
4.735728e-02
2.339683e-02
6.309059e-02
3.547370e-03
1.702927e-02
5.474550e-02
-4.788442e-02
-3.312397e-02
-4.056562e-02
-2.387204e-03
-1.781038e-02
-4.198846e-03
-2.277636e-03
7.719262e-03
9.519592e-04
-7.692894e-03
1.218703e-02
6.593328e-03
1.515456e-02
-1.379765e-02
-3.891323e-02
3.825082e-03
2.080373e-02
-3.689631e-02
-1.617565e-03
3.190192e-02
1.711219e-02
-3.344990e-02
3.890226e-02
3.724010e-03
-1.278462e-02
4.013979e-02
-3.097329e-02
-3.277571e-02
8.891979e-03
-3.576019e-02
-7.385562e-02
-4.647344e-02
-1.334279e-02
-6.199361e-02
-5.105053e-02
-2.314310e-02
3.142005e-02
-1.569294e-02
-2.815720e-02
-3.905940e-02
4.537194e-02
2.842368e-02
-2.456126e-02
2.706499e-02
4.923210e-02
2.865566e-03
5.810542e-02
1.750042e-02
1.360363e-02
-1.500532e-02
-1.081324e-02
5.317525e-02
-1.621711e-02
-2.356398e-02
7.902247e-02
-4.849317e-03
-4.615838e-02
-4.269727e-03
-5.226862e-02
-3.348830e-02
-8.277282e-02
-9.140325e-02
-5.839058e-02
-5.485718e-02
-5.383214e-02
-4.970365e-02
-4.417163e-02
-1.316747e-02
2.349744e-03
-3.392082e-02
3.342829e-02
4.266040e-02
-1.289660e-02
4.377156e-02
7.434770e-02
-3.404987e-02
-8.834500e-02
-2.482145e-03
-5.787883e-02
-7.949617e-02
2.389406e-02
-4.941254e-02
-9.567526e-02
-2.332282e-03
1.286281e-02
-4.270888e-02
4.237475e-02
3.229689e-02
-2.612814e-02
2.549093e-02
4.433019e-02
-5.133953e-03
5.471950e-02
-2.353446e-02
1.480379e-02
2.421213e-02
-4.865021e-02
3.129284e-02
1.277207e-02
2.370971e-02
4.318765e-02
2.662175e-02
-8.283142e-04
-6.534462e-04
1.983134e-03
2.410101e-03
2.284997e-03
3.840764e-04
4.870877e-04
-1.343571e-03
1.647895e-04
-1.523035e-02
-1.111808e-02
3.054641e-03
2.201393e-03
2.783690e-02
1.108347e-02
2.130545e-02
8.491471e-02
6.019066e-02
-1.341955e-02
-1.749937e-03
6.181693e-02
-1.112021e-02
3.714144e-02
4.974448e-02
-3.019941e-02
-1.573975e-03
1.259980e-02
-2.627883e-02
-6.208584e-02
2.662411e-04
-1.980264e-02
-6.449725e-02
-1.210846e-02
-1.344659e-02
-5.551415e-02
3.145307e-03
6.201636e-03
2.683095e-02
3.130062e-03
2.849026e-03
-2.795663e-03
-4.623733e-03
-2.350654e-02
-2.465983e-02
-5.783390e-02
-2.822276e-02
-3.487418e-02
-3.021165e-02
1.585644e-02
-5.161854e-02
-5.312978e-02
-1.032293e-02
-6.550856e-02
-5.262528e-02
-6.091677e-02
-4.008146e-02
-4.532329e-02
1.091351e-02
4.559948e-02
8.040027e-03
5.182337e-02
1.612417e-02
-2.650344e-02
-1.115550e-02
-1.579756e-02
-3.384152e-02
-2.418295e-02
-1.896343e-02
-3.125598e-02
2.237124e-03
3.270232e-03
-1.660539e-02
3.550811e-02
3.707670e-02
1.432255e-02
1.818588e-02
3.589282e-02
1.177744e-02
2.235020e-02
1.035758e-02
2.422387e-02
-3.645378e-02
-3.200613e-03
1.416967e-02
-1.788022e-02
3.045203e-02
4.038662e-02
-7.437111e-02
6.907977e-03
-1.095970e-02
-1.340431e-02
1.164614e-02
4.111836e-02
-1.063263e-01
-3.383873e-02
-2.014627e-02
-9.692312e-03
1.543064e-02
5.083860e-02
4.629407e-02
1.251657e-02
-8.415666e-02
-8.443756e-02
-2.650427e-02
-1.702350e-02
6.815448e-02
-2.489994e-02
-8.073552e-03
-2.753093e-03
-3.720399e-02
-2.218530e-02
-6.424332e-02
-9.695018e-02
-3.546511e-02
-5.151293e-02
-8.417357e-03
2.037257e-02
7.428210e-03
-1.404652e-01
-3.606769e-02
5.920146e-02
-7.428253e-02
-3.810056e-03
4.953512e-02
-1.018991e-01
-8.971196e-03
-7.151596e-02
-4.660087e-02
-5.118657e-02
-5.561434e-02
-4.483302e-02
-3.509787e-02
-5.145443e-02
-5.669193e-02
-8.096707e-03
-2.836570e-02
-6.499779e-02
-6.148481e-02
-1.444732e-01
-7.319600e-02
-5.983523e-02
-6.996219e-02
-1.532139e-01
-1.214871e-01
5.517861e-03
5.662848e-03
5.661940e-02
4.442912e-02
7.097356e-02
9.913427e-02
2.381214e-02
-1.509980e-02
3.236057e-02
7.694076e-03
-1.012258e-01
-4.898554e-02
3.374150e-03
-5.906045e-02
2.337022e-02
-1.372305e-03
-6.351780e-02
1.353017e-02
-6.925134e-02
2.821313e-02
-2.391432e-02
1.361422e-02
5.875177e-02
-1.287791e-02
2.257096e-03
3.191661e-02
-5.385179e-02
-4.948292e-02
3.019575e-03
3.284810e-02
4.477232e-02
4.323353e-02
4.011363e-02
-1.878626e-02
-1.476778e-02
-3.162925e-02
-3.358570e-02
-7.550763e-05
-6.461295e-02
1.213184e-02
1.611192e-02
-1.378177e-02
-1.603856e-02
-3.556992e-02
3.837710e-02
-2.616291e-02
-1.362520e-02
-2.272535e-02
-1.457854e-02
-4.807914e-02
-6.101218e-02
1.284597e-02
-1.760357e-03
-1.436291e-02
2.037814e-02
3.385190e-02
3.739343e-04
2.656788e-02
4.997797e-02
-1.822248e-02
2.426275e-02
3.838399e-02
-2.207107e-02
-1.248690e-02
-3.966473e-02
4.340100e-02
-2.292655e-02
-1.216168e-01
7.836550e-02
3.773146e-02
-5.138380e-02
8.761796e-02
-1.338761e-02
-8.975794e-02
-4.202760e-02
1.350992e-02
-6.948816e-02
-3.790579e-02
1.250113e-02
-2.649526e-02
8.035424e-03
-2.221241e-02
6.889736e-02
4.617669e-02
-2.251140e-02
-4.844154e-02
-2.401867e-02
-5.890739e-02
5.602801e-02
1.376373e-01
2.493163e-03
-4.431673e-02
1.651973e-02
-1.955787e-02
-2.287772e-02
-2.068027e-02
-4.791240e-02
-1.535365e-02
-4.356169e-02
-2.411155e-02
-6.121133e-03
8.962285e-03
1.370741e-01
1.327709e-01
1.067956e-01
-1.265979e-02
1.761946e-02
4.391883e-03
-5.110539e-04
-8.763056e-02
-6.941282e-02
8.376644e-03
-7.400984e-02
-5.431010e-02
-2.841122e-02
-9.110635e-02
-5.404198e-02
-5.934773e-02
-1.072367e-01
-1.100681e-01
-1.993261e-02
-7.584841e-02
-5.034885e-02
-6.410833e-02
-1.108210e-01
-7.602251e-02
-7.042907e-02
-5.193785e-02
-2.754625e-02
-1.682719e-02
-3.797789e-04
-3.086426e-02
-3.431220e-02
-5.613675e-02
-5.504330e-02
-5.065985e-02
-2.994701e-02
-1.011056e-02
8.401741e-02
2.203521e-02
7.044720e-05
8.796403e-02
3.878353e-02
-5.522403e-02
-2.464124e-04
2.117363e-03
-7.996609e-04
-1.179995e-03
-9.346842e-04
2.950071e-04
-1.832673e-03
1.409082e-04
1.526075e-03
-1.208387e-01
-9.340885e-02
-8.897696e-02
-9.867677e-02
-4.631029e-02
-7.740564e-02
-6.184445e-02
-1.353724e-02
1.477487e-02
-1.135140e-01
-8.249702e-02
-9.799401e-02
-5.939445e-02
-6.399357e-02
-2.369443e-02
-1.053909e-02
-8.046277e-03
2.170159e-02
-2.363109e-02
-1.495732e-02
-9.791700e-02
4.333292e-02
7.875337e-02
-2.225672e-02
2.529959e-02
5.290320e-02
-6.617417e-02
1.975460e-02
5.946470e-02
8.761130e-04
-7.676591e-03
6.197598e-02
4.694317e-02
4.349539e-02
5.302321e-02
6.538991e-02
4.710643e-02
2.499895e-02
6.098410e-02
2.575773e-02
3.493088e-02
5.666553e-02
-3.069937e-02
1.869766e-02
-4.391053e-03
-2.617586e-02
-2.725433e-02
-4.700287e-02
-1.423387e-02
1.569811e-02
-2.369431e-02
-2.687252e-02
-1.119866e-01
-3.658771e-02
4.255941e-02
2.207573e-02
-3.669741e-02
2.492891e-02
2.862807e-02
-1.065963e-02
9.763586e-03
6.898606e-02
2.700896e-03
1.149785e-02
7.559492e-02
8.910245e-02
1.962481e-03
8.987037e-02
1.509399e-01
-5.033040e-02
3.231901e-02
7.492658e-02
1.649119e-02
1.727196e-02
-2.133066e-02
-1.097497e-02
-6.033688e-02
-3.667957e-02
-5.373988e-02
-4.933263e-02
-4.056535e-02
6.654511e-02
-3.477966e-02
-1.712722e-02
8.688318e-02
1.584289e-01
1.073657e-01
1.208585e-01
1.118173e-01
5.320992e-02
-5.884158e-02
-1.102440e-02
-3.942994e-02
3.378893e-02
2.140454e-02
-1.297835e-02
-1.439430e-02
1.708724e-02
6.233507e-03
2.121083e-02
1.553729e-02
2.655277e-02
9.752173e-03
-2.133844e-02
2.151833e-02
-4.341887e-02
-5.619653e-02
-9.024973e-03
9.570639e-03
-3.387017e-02
-4.688917e-02
-1.219572e-02
-3.175873e-02
-4.466370e-02
-1.194589e-02
-1.617854e-02
2.574483e-02
9.611259e-02
9.664100e-02
5.550672e-02
4.726596e-02
1.163927e-01
2.541987e-02
2.374720e-02
7.019949e-02
6.232420e-03
-2.158557e-02
6.079795e-02
-6.064723e-02
4.012812e-02
-1.505411e-02
-5.585822e-03
-5.388789e-03
1.312659e-02
-7.007195e-02
1.113609e-02
3.219063e-03
3.280966e-02
-1.796701e-02
1.209005e-02
5.959740e-02
3.922768e-02
3.564632e-02
3.374939e-02
-1.190829e-02
-5.147021e-02
-3.000349e-02
-2.072969e-02
-6.585931e-02
-3.138744e-02
-1.241401e-02
-4.210077e-02
-1.523155e-02
-2.154693e-03
7.902883e-03
-5.756916e-02
1.935189e-02
7.104334e-02
-4.089506e-02
3.360179e-02
9.481017e-02
-6.823737e-04
2.480837e-02
1.512970e-02
-4.409175e-03
-1.357666e-02
1.161172e-02
-7.528615e-03
3.359969e-02
-2.106387e-03
-3.217630e-02
1.006929e-01
7.148815e-02
6.354420e-03
6.063425e-02
1.681875e-02
9.197003e-03
2.260832e-02
-6.556148e-02
-6.057747e-02
8.819449e-02
5.140647e-02
4.557027e-02
7.912661e-02
5.960984e-02
5.832333e-02
4.684494e-03
1.054818e-02
7.849688e-03
5.972293e-02
1.926724e-02
2.099232e-02
5.823313e-02
1.809656e-02
5.699005e-03
2.622477e-02
1.281570e-02
-1.739596e-02
-6.048067e-03
-3.423671e-03
4.176389e-02
-1.520933e-02
1.813619e-02
-2.712956e-03
2.832107e-02
9.185868e-02
3.009075e-02
8.866996e-02
8.930784e-02
-2.305212e-02
8.077860e-02
4.516111e-02
-5.328466e-02
3.778858e-02
2.884592e-02
-5.120293e-02
5.961628e-02
3.042839e-02
-1.410509e-02
5.581724e-03
-3.541936e-02
-6.794922e-03
-2.511012e-02
3.432961e-02
-8.461471e-02
5.182004e-02
5.072939e-02
1.729121e-02
5.063744e-02
1.046438e-01
8.891188e-02
2.501193e-02
1.221214e-01
1.062250e-01
3.591245e-02
5.028297e-02
3.978907e-02
9.033691e-02
5.941767e-02
1.005526e-01
3.266003e-02
1.236711e-02
7.965501e-02
-3.573666e-02
5.971972e-05
-2.996442e-02
4.238721e-03
8.147896e-03
-8.934762e-04
1.639870e-02
-3.697901e-03
-2.558490e-03
-4.243804e-04
2.881319e-03
2.569689e-02
-6.971838e-02
-2.311419e-02
-1.347050e-02
3.374659e-02
6.980105e-02
7.485900e-02
5.982386e-02
5.617544e-02
5.868090e-02
3.506412e-02
3.232091e-02
5.164172e-02
5.549075e-02
2.742359e-02
1.454195e-02
5.779343e-02
6.540450e-02
2.617515e-02
9.841864e-04
4.394547e-02
-5.932939e-03
3.803597e-02
4.955164e-02
3.995572e-03
1.243889e-03
2.644631e-03
1.802310e-03
1.108692e-03
8.609507e-05
4.811057e-04
-6.093528e-04
4.646699e-04
-1.695999e-03
-3.117525e-02
-6.760798e-03
3.213231e-03
-3.568512e-02
-6.791541e-03
-1.193492e-02
-2.193312e-02
-9.158366e-03
-2.945436e-02
7.835006e-02
7.413083e-02
2.373827e-02
-9.743182e-03
2.849027e-02
-6.865963e-03
1.577899e-02
-1.931013e-02
-1.258483e-02
1.096912e-01
1.591190e-01
1.077005e-01
1.028491e-01
1.124332e-01
7.430229e-02
8.621927e-02
1.040660e-01
6.863009e-02
9.155790e-02
8.242010e-02
1.864362e-02
-8.661890e-03
2.893152e-02
-4.353573e-02
-3.599088e-02
-5.539810e-02
-7.708706e-02
-3.413405e-03
6.455786e-02
1.466905e-02
-7.381464e-03
1.123125e-01
9.119942e-02
1.159283e-02
1.225082e-01
5.649639e-02
-2.005805e-02
9.992317e-02
1.142815e-01
1.392777e-01
1.042139e-01
-6.386887e-02
6.807496e-02
5.184257e-03
-3.368235e-02
-2.136270e-02
-2.157331e-02
-3.737881e-02
-3.852898e-02
-4.601783e-02
-1.263946e-02
-1.002414e-02
-1.169405e-02
7.267626e-02
3.175608e-02
8.232055e-03
-1.238536e-03
4.963354e-02
1.229180e-02
-2.513395e-02
8.256977e-03
-1.297828e-02
-2.217969e-02
9.206557e-02
1.547887e-02
-1.028066e-01
7.475556e-02
6.829833e-02
-2.297690e-02
-3.704555e-02
3.648873e-02
5.029274e-03
-6.369040e-02
-2.004403e-02
-3.028876e-02
1.639406e-02
7.415799e-02
-5.545475e-02
-1.390973e-01
-1.124027e-01
-5.632325e-02
2.835472e-02
-4.473662e-02
-4.031885e-02
1.221460e-02
4.840947e-02
-2.129566e-02
5.297141e-02
-4.953549e-03
-6.974746e-02
1.760732e-02
-1.191604e-02
-4.404610e-02
-6.492062e-03
-5.369766e-02
-8.275402e-02
-1.455518e-02
-5.304819e-02
-1.227761e-02
-5.594007e-02
-1.194311e-01
-7.722460e-02
6.451636e-02
-2.699486e-02
3.925316e-02
9.028837e-02
-2.672999e-02
6.328974e-03
2.018608e-02
-1.218593e-02
-2.347416e-02
3.070915e-03
-1.159767e-02
-1.380318e-02
8.908444e-02
3.975912e-02
3.321121e-02
4.289770e-02
-1.314856e-01
2.095857e-02
-1.313530e-02
1.124126e-01
6.426265e-02
-7.402462e-02
-6.616245e-02
-3.734544e-03
-3.828780e-02
-4.033301e-03
-5.103585e-02
2.654282e-02
-2.799831e-02
-7.839113e-02
3.223021e-02
-1.136177e-02
2.257877e-03
7.963803e-04
-2.877957e-03
-3.447910e-02
9.306913e-03
1.639657e-02
-2.569636e-02
-1.267172e-01
-1.258825e-01
-1.235002e-01
2.189979e-02
-1.476412e-02
6.575360e-02
-5.214796e-02
-7.200319e-03
1.246368e-03
5.231858e-03
4.286863e-02
6.574687e-02
-3.157491e-03
6.661223e-02
-5.540987e-03
-4.706541e-02
-2.448247e-02
-8.889361e-02
1.098029e-01
1.980904e-01
1.036578e-01
-1.875955e-02
5.842185e-02
8.621021e-02
-7.987244e-02
-3.152252e-02
-2.142807e-02
2.499213e-02
-2.342376e-02
4.613986e-02
7.052814e-02
4.173715e-02
-7.988211e-04
1.307008e-03
2.647890e-03
-5.312475e-02
2.873251e-02
3.697467e-02
6.114389e-02
1.765339e-02
2.807931e-02
3.904394e-02
2.678242e-02
-2.098933e-02
4.434922e-02
1.140163e-02
-3.783832e-02
-1.802249e-02
6.781956e-02
5.209769e-02
-8.656235e-03
5.333010e-02
7.809091e-02
-3.763410e-02
-3.541867e-02
-2.969576e-02
-1.419789e-01
-8.611471e-02
-3.952616e-02
-7.187899e-02
-1.798978e-01
-1.325645e-01
-1.049978e-01
-1.834345e-01
-1.081511e-01
-3.622447e-02
-1.196674e-02
2.643613e-02
4.769951e-02
-1.334411e-02
6.309350e-02
-5.525948e-02
4.818817e-02
3.392123e-02
7.704244e-03
-4.959099e-02
-5.647864e-02
1.649734e-02
-9.181555e-02
-1.008750e-01
-2.014240e-02
-7.448630e-02
-1.634634e-01
-7.973263e-02
1.693011e-02
6.951939e-03
3.051466e-02
-3.677829e-02
-7.485669e-02
-1.428236e-01
7.701399e-02
9.694573e-02
-2.485892e-02
6.756114e-02
-5.455372e-02
-7.700058e-02
9.080553e-02
-4.305327e-02
-1.048101e-01
1.232361e-01
2.675317e-02
1.787853e-02
-3.711772e-02
-6.400830e-02
2.182293e-02
-8.409563e-02
-8.727779e-02
-5.943691e-02
-1.674103e-02
-3.038139e-02
-6.259131e-02
-2.358405e-02
-2.501348e-02
-4.199173e-02
-2.724396e-02
-9.873043e-03
-6.621763e-03
-5.637009e-02
-6.044395e-02
-4.846371e-03
5.568161e-02
-4.161718e-02
-7.019749e-02
1.681079e-02
-5.644183e-02
-8.740852e-02
-1.121876e-02
-7.313590e-02
-5.523937e-02
8.289027e-04
2.910312e-03
1.826025e-03
-2.310852e-03
-1.526591e-04
6.794651e-04
2.200648e-04
-5.235348e-05
-1.958407e-04
3.452794e-02
2.873973e-02
-5.207958e-03
4.091837e-02
3.527079e-02
1.944225e-02
-2.444838e-02
-3.079021e-02
-1.237943e-02
3.757342e-02
2.197096e-02
-3.454648e-04
1.668976e-02
1.203182e-02
6.732887e-02
5.363753e-02
8.934775e-02
1.396406e-01
7.984594e-02
4.321729e-02
-1.103514e-01
5.789009e-02
3.985784e-02
-7.797170e-02
2.960911e-02
1.667392e-02
-9.075849e-02
5.102649e-02
-5.437507e-02
3.075772e-02
6.663188e-02
-6.793941e-02
2.176747e-02
4.190367e-02
-1.067768e-02
2.311650e-02
-3.260222e-02
-5.066009e-02
5.729282e-02
1.779956e-02
3.274404e-02
-6.381965e-03
-6.180039e-02
1.670691e-02
-2.697847e-02
1.184454e-01
1.372271e-01
-7.952387e-03
5.191178e-02
-2.284421e-01
3.239582e-02
-7.112577e-02
1.838418e-01
2.126860e-01
-5.837586e-02
-1.435064e-02
-2.024250e-02
-1.776743e-02
2.082752e-02
-3.046740e-02
-6.149930e-03
2.013822e-02
-4.710868e-02
4.013927e-02
9.763391e-02
8.304526e-02
4.112373e-02
4.841373e-02
2.678002e-03
-1.693895e-02
1.674952e-02
-4.804340e-03
9.542596e-03
1.752526e-02
2.763830e-02
1.007375e-01
-4.321957e-03
9.843361e-02
1.239108e-01
4.138049e-02
2.056802e-01
-6.456862e-02
6.600605e-02
3.652686e-02
1.528672e-02
-2.276503e-02
7.914180e-02
1.835535e-03
-3.295773e-02
3.030463e-02
-1.850092e-02
4.385345e-02
-4.955035e-02
-4.162788e-03
1.750587e-02
-3.344758e-02
-6.831359e-02
-9.035789e-02
-6.020420e-02
5.545392e-02
3.395758e-02
7.016613e-03
-8.260954e-02
-5.105476e-02
-6.466831e-02
-7.737147e-02
1.025572e-02
1.439515e-02
-1.412545e-03
-6.751069e-02
-1.860763e-02
-1.477593e-02
-9.617981e-02
-3.813573e-02
-1.514022e-02
-4.722035e-02
-7.976747e-02
1.555206e-02
5.944039e-03
-1.752696e-02
3.414233e-02
-6.128867e-03
7.916819e-02
2.939909e-02
-2.457787e-02
1.342528e-02
-9.055971e-02
-6.967636e-02
-2.575780e-02
2.030817e-02
-3.871417e-02
1.999185e-03
-3.560995e-02
-2.875456e-02
-3.297944e-02
-3.738292e-02
4.043771e-03
-6.347137e-02
-3.502216e-03
5.829598e-02
5.974739e-02
-1.975317e-02
6.841727e-02
8.377042e-02
1.311031e-02
-1.245873e-02
-1.605749e-03
-2.383495e-02
-7.682201e-02
-7.027771e-02
-3.572281e-02
-7.978684e-02
-5.498556e-02
-9.807505e-02
-1.620732e-02
-9.007802e-02
-8.063609e-02
3.526522e-02
-5.108576e-02
-3.228111e-02
1.109565e-01
-1.488043e-02
-7.335837e-02
-3.143559e-02
-2.476086e-02
3.670550e-02
8.987936e-02
7.869743e-02
-3.184702e-02
-2.223921e-02
-1.191294e-01
1.456896e-02
3.474665e-02
5.732273e-02
7.124684e-02
5.561652e-02
7.560582e-02
3.652139e-02
6.404313e-02
3.524868e-02
1.041421e-01
2.751732e-02
3.722103e-02
1.856382e-02
-3.828837e-02
-7.550377e-02
-6.326914e-04
-9.802679e-03
-3.441393e-02
1.730761e-03
-6.492754e-03
-6.575275e-03
-2.117751e-02
-1.531948e-02
-3.062515e-02
6.249902e-03
1.061980e-02
5.045138e-03
4.141143e-02
-9.112985e-02
-3.939709e-02
-1.439794e-02
-9.258791e-02
-2.511588e-02
-1.384880e-02
-6.913899e-02
4.904301e-03
-1.969225e-02
-2.830472e-02
1.733752e-02
-8.753084e-02
-4.860217e-02
-2.192304e-02
-1.202607e-01
-1.055748e-01
-3.698830e-02
4.965836e-02
-5.167764e-02
-7.477091e-02
4.232243e-02
3.821640e-02
-3.709278e-02
1.878265e-02
2.667046e-02
7.465658e-02
3.975097e-02
6.161189e-02
-1.101179e-02
-3.074432e-02
-1.646662e-02
-6.048390e-02
-8.768486e-03
-3.190405e-02
-3.824192e-02
7.363670e-02
-3.537006e-03
-2.316689e-02
4.986179e-02
1.206200e-01
1.073228e-01
-2.228455e-02
-4.021576e-02
-8.638476e-02
4.335434e-02
-4.053646e-02
-2.952413e-02
-7.493916e-02
-1.234671e-01
-8.136922e-02
-3.101866e-02
-5.369902e-02
-7.213454e-03
1.770603e-02
-7.507952e-02
-8.589566e-02
-4.768879e-02
-1.158669e-01
-6.607709e-02
-1.242327e-02
-8.178553e-02
-3.556373e-02
-3.143003e-02
-6.977051e-02
-8.414862e-02
-6.544358e-02
-8.664682e-02
-5.941942e-02
-3.459928e-02
-3.599703e-02
-3.318832e-02
7.355447e-02
1.529835e-02
1.782987e-03
-4.043683e-02
-6.448200e-02
-2.725740e-02
-8.398545e-03
-3.928125e-02
-4.534749e-02
1.842300e-03
1.515562e-03
-6.955934e-04
4.166304e-04
1.857782e-03
-1.684541e-04
9.818815e-04
1.930435e-04
-8.896267e-04
1.898189e-02
4.203810e-02
4.308939e-02
-1.832132e-02
2.722350e-02
-2.477573e-02
-1.060968e-02
8.455339e-03
5.160514e-03
7.469647e-03
-2.807274e-02
2.027610e-02
9.225382e-03
1.100755e-02
2.931222e-02
3.187792e-02
-3.979629e-02
3.409388e-02
-7.315870e-02
-1.948951e-01
-1.384756e-01
4.264243e-02
1.836983e-02
3.510589e-02
1.149491e-01
1.107368e-01
1.347698e-01
-7.103513e-02
-3.615347e-02
-5.984447e-02
-6.341372e-02
7.875266e-05
-6.867068e-02
-7.511361e-02
-1.192693e-02
-3.120725e-02
1.115760e-01
7.519963e-02
2.896667e-02
2.644186e-02
-2.745095e-02
-2.325968e-02
-4.700659e-02
-7.178769e-02
3.941732e-03
2.377949e-01
1.020493e-01
-1.121292e-01
-5.362489e-02
-6.836884e-02
-3.605795e-02
2.845778e-02
8.845855e-02
-8.077745e-02
3.642090e-02
6.816646e-02
8.988180e-02
8.462443e-03
4.295393e-02
3.602867e-03
-5.926332e-02
-3.103340e-02
-5.112826e-02
1.614907e-01
1.665624e-01
8.807454e-02
-1.327616e-01
-4.263760e-02
-4.064675e-02
9.328844e-02
1.084682e-01
1.287815e-01
1.831871e-01
1.195967e-01
4.186785e-02
1.434573e-01
6.328204e-02
-2.298180e-03
6.195911e-03
1.943152e-02
-2.007402e-02
-4.144421e-02
-5.084279e-02
-6.974090e-02
-2.339748e-02
-6.331123e-02
-8.859541e-02
-5.985275e-02
-9.423784e-02
-6.446368e-02
-6.038966e-02
-5.759111e-02
-7.818331e-02
-1.307648e-02
-3.612056e-02
-5.521511e-02
-2.283561e-02
-6.302229e-02
-3.584614e-02
2.606837e-03
5.388439e-02
5.142197e-02
6.779694e-02
5.404420e-02
6.944162e-02
-2.203825e-02
-1.648611e-02
-2.638337e-02
-2.425465e-02
-8.621269e-02
-7.239278e-02
-5.123988e-02
-9.631906e-02
-6.353995e-02
-3.876724e-02
-5.351518e-02
-2.926196e-02
8.027815e-02
3.674826e-02
3.997783e-02
8.056866e-02
9.186607e-03
5.889886e-02
3.103838e-02
1.846532e-02
2.606220e-02
2.715335e-03
4.125119e-02
-4.570730e-02
4.073402e-03
2.799570e-02
-2.037340e-02
-5.209315e-02
-4.114433e-02
-5.487238e-02
4.199600e-03
-2.592570e-02
-4.873302e-02
6.277443e-02
4.123397e-02
3.927290e-04
6.702693e-02
4.724996e-02
2.312298e-02
5.495084e-02
4.487323e-02
4.233922e-02
-4.632579e-03
-6.017192e-03
-2.904183e-02
-7.309029e-02
-5.032886e-02
-7.860310e-02
-9.818080e-03
-5.805634e-02
-5.417387e-02
-2.583336e-02
-6.043700e-02
-4.108560e-02
-1.274746e-02
3.451426e-02
-9.056091e-03
3.287183e-02
-1.159722e-03
1.304733e-02
2.129303e-03
2.386983e-02
4.455809e-03
5.169103e-02
1.244658e-02
-1.703090e-02
1.120832e-02
-8.856915e-03
-4.475985e-03
5.969045e-02
5.725840e-02
8.151130e-02
1.240814e-02
-1.371963e-02
5.149494e-02
-1.307166e-02
1.296425e-02
-2.097696e-02
1.014954e-01
1.252095e-01
5.358646e-02
1.559620e-01
2.036974e-01
1.250339e-01
4.605559e-03
1.755731e-02
-7.741162e-03
2.781137e-02
4.668224e-02
4.759318e-03
3.373651e-02
6.362785e-02
1.287706e-02
3.238208e-03
1.302355e-02
1.476821e-02
4.579873e-02
3.194708e-02
7.623923e-02
-1.967826e-02
3.593554e-02
9.775527e-02
-1.361245e-02
3.016352e-02
3.401356e-02
9.734716e-03
3.496553e-02
4.995502e-02
-2.466143e-02
-4.172607e-03
-1.382241e-02
-2.060490e-02
-2.187444e-02
-6.056561e-02
4.343456e-03
-3.030517e-02
-8.925341e-06
8.751587e-03
3.127294e-04
-5.324454e-03
-4.438187e-03
3.616870e-02
1.105820e-03
-2.448142e-02
2.281083e-02
-3.930570e-03
-8.920030e-03
-1.008766e-02
-2.315924e-02
-2.268496e-02
-3.543663e-02
1.761245e-02
2.633789e-02
-6.373613e-04
2.380040e-02
-9.574997e-03
3.649139e-04
-1.881450e-02
-1.014621e-01
-3.450702e-03
-3.213564e-02
3.819241e-02
7.467524e-02
2.249091e-02
3.360105e-02
3.987481e-02
6.760648e-03
-4.522086e-02
-2.942204e-02
-5.455128e-02
-6.058482e-02
-3.048742e-02
-6.519844e-02
-6.179363e-02
-5.745984e-02
-9.257720e-02
-4.201990e-03
5.704223e-02
6.440110e-04
3.745061e-02
7.464219e-02
3.831471e-03
5.305155e-02
3.850742e-02
6.557322e-03
-9.417038e-03
9.632682e-03
1.191383e-02
3.957054e-02
3.616804e-02
4.512346e-02
1.669917e-02
3.072861e-02
-3.485218e-02
3.336525e-04
4.949466e-04
-6.749037e-04
-9.048297e-04
-3.514280e-04
-4.435088e-04
6.308203e-05
3.182753e-03
-1.162831e-03
-5.583189e-02
-4.714037e-02
-3.216958e-02
-6.331743e-02
-6.272212e-02
-3.602481e-02
-6.965261e-02
-6.039835e-02
-6.212225e-02
-5.189745e-02
-1.130797e-03
2.753860e-02
-3.949570e-02
4.228962e-02
5.096529e-02
-1.518737e-02
5.826151e-02
8.726876e-02
-1.256212e-02
5.360436e-02
-8.820579e-03
1.133246e-01
1.733217e-01
1.208956e-01
7.783500e-02
1.263292e-01
1.115789e-02
3.673230e-02
-3.981305e-03
9.983179e-03
2.140603e-02
-2.614267e-02
-3.645125e-03
3.632586e-02
2.192055e-02
-2.009544e-03
-6.714078e-02
1.529566e-02
9.050450e-02
1.779914e-02
1.115214e-01
1.143350e-01
9.295651e-02
4.957163e-02
5.387270e-02
-7.599561e-02
-6.196694e-02
-5.322840e-02
-1.201718e-01
-5.110554e-02
-2.497505e-02
-6.393462e-02
4.124492e-03
1.320378e-01
1.251199e-02
6.720074e-03
-1.588398e-02
-4.866348e-03
1.116457e-02
-2.566174e-02
-1.634392e-02
-3.704032e-02
-6.860290e-02
6.926436e-02
6.373851e-02
3.723168e-02
5.230676e-02
6.320096e-02
3.074078e-02
-1.089155e-02
-1.062630e-02
-1.736782e-02
-4.645436e-03
-4.273380e-02
-4.999330e-02
6.527575e-03
-4.417970e-02
-4.684835e-02
-3.176731e-02
-6.374926e-02
-8.198135e-02
6.224453e-02
6.797764e-02
3.061240e-02
1.164817e-01
-1.075353e-01
6.085964e-02
-9.938573e-02
-3.742241e-02
3.092806e-02
4.733210e-02
1.334248e-02
4.133921e-02
-8.634317e-03
-4.981916e-02
-4.020380e-02
-4.217796e-03
-3.685563e-02
1.236880e-02
7.977678e-03
-7.419735e-03
-5.680746e-03
-3.637645e-02
-2.234008e-02
-9.227694e-03
-2.544841e-02
1.748653e-02
2.702544e-02
-2.078988e-01
-6.756894e-02
-7.497258e-02
-6.073377e-02
6.023140e-02
2.797979e-02
-1.001374e-01
3.605532e-02
3.334121e-02
-2.588459e-03
1.225122e-02
-2.047459e-02
2.878332e-02
-1.917755e-02
1.298031e-02
2.086872e-02
-3.163806e-02
-3.653406e-02
3.753213e-03
4.295612e-02
6.022627e-04
-1.848881e-02
4.040048e-02
-1.266940e-03
8.069759e-02
5.087271e-03
-1.858371e-02
-2.447719e-02
-1.319522e-01
-5.705711e-02
-1.884148e-02
-1.161736e-01
-5.990377e-02
-2.098525e-02
-5.041538e-02
2.176233e-03
-3.344352e-02
-3.718181e-02
-1.345856e-02
-3.281669e-02
-2.397795e-02
8.444329e-03
-6.193692e-02
-3.584033e-02
-6.161334e-03
-1.233329e-02
-2.553162e-02
1.515156e-02
-3.359122e-03
-8.738358e-02
-2.856284e-02
-1.446826e-02
-9.888003e-02
-7.887272e-02
-2.666269e-02
-7.965457e-03
-2.959032e-03
3.730237e-02
4.915870e-02
2.687295e-02
2.512330e-02
1.048257e-02
-8.019574e-03
-2.917084e-02
-3.036099e-02
-5.860579e-02
1.159572e-02
1.167197e-02
-2.226054e-02
2.510149e-02
-6.539288e-03
-2.053356e-02
-7.230731e-02
-1.335424e-02
7.282434e-02
-7.707335e-02
-6.844253e-02
-4.532452e-03
-5.781573e-02
-7.042256e-02
-3.024732e-03
-4.824923e-02
-2.941856e-02
4.611519e-04
-1.518421e-02
5.939417e-03
1.681388e-02
-3.979363e-02
-1.850592e-02
-3.778060e-03
-2.694636e-02
-4.698588e-02
5.725413e-02
-7.888628e-02
-1.105940e-01
2.380990e-02
3.052807e-02
-3.087230e-02
7.426430e-02
1.032802e-02
-6.561076e-02
-5.990135e-02
-8.372027e-02
-1.035037e-01
-7.604890e-02
-8.427674e-02
-1.228534e-01
-5.793295e-02
5.972867e-02
-3.474767e-03
1.224818e-01
9.122111e-02
1.543692e-03
7.173163e-02
4.456142e-02
1.033968e-02
9.110370e-02
-8.602884e-03
-1.169713e-01
-1.086189e-02
2.735380e-03
-9.117003e-02
-5.400062e-02
3.536739e-02
2.296720e-02
-2.212762e-02
-7.525425e-02
-2.602815e-02
-3.334705e-02
4.121676e-03
5.609764e-02
5.601306e-02
-4.881367e-02
-2.442707e-02
-9.019911e-02
2.360137e-03
-6.988881e-02
2.027635e-03
-6.094294e-02
-9.128042e-02
-6.457411e-02
-1.760967e-02
-4.899300e-02
-8.755412e-03
-1.753722e-02
-8.614461e-02
-5.053354e-02
-3.646352e-02
-7.740320e-02
-4.090216e-02
-4.450857e-02
-3.825837e-02
-4.167618e-02
-5.642432e-02
-1.912696e-02
-3.735287e-02
-2.014541e-02
9.778795e-03
-2.407947e-02
-5.395136e-02
1.735245e-02
-1.805612e-02
-7.421361e-02
-7.700595e-02
-1.128648e-02
-6.661131e-02
-7.759440e-02
-1.309944e-02
-7.742870e-02
-3.259525e-02
1.614144e-02
-2.751861e-04
2.006467e-03
-8.602185e-04
-6.513792e-04
-2.529901e-03
-2.949937e-03
1.126547e-03
-1.038582e-03
3.331755e-04
3.157102e-02
2.580225e-02
1.990500e-02
2.257973e-02
5.506010e-02
-4.823460e-02
-1.523904e-02
2.084262e-02
9.894066e-03
3.956131e-02
-3.832081e-02
-9.748641e-03
-1.513204e-02
2.510964e-02
8.884688e-03
-2.830936e-02
-3.515598e-02
3.516459e-03
-3.823541e-02
-6.812615e-03
3.769717e-02
-5.043917e-02
-2.976542e-02
1.639869e-02
-4.758777e-02
-4.426940e-02
-3.488559e-02
-3.670964e-02
-3.443953e-02
5.492415e-02
3.238877e-02
-3.957034e-02
3.598051e-02
-2.747604e-02
3.479670e-02
7.959515e-03
-1.090227e-02
-4.097259e-02
6.564600e-03
1.254193e-02
-8.079358e-02
-6.741681e-02
-5.664879e-02
-1.295525e-01
-1.039187e-01
4.071818e-02
1.389810e-02
-5.327456e-02
-6.443907e-02
7.892297e-03
-6.362561e-02
2.683090e-02
1.401726e-02
-9.617218e-02
-2.087252e-02
-1.492170e-02
2.407213e-03
1.768604e-02
-8.993653e-03
-1.914008e-02
-2.718332e-02
-7.657234e-02
-1.479529e-02
-1.718670e-02
-5.198259e-02
-1.758778e-03
-1.802348e-02
-5.463399e-02
-7.015172e-04
-2.531984e-02
-4.498626e-02
-2.093288e-02
-4.692758e-02
-3.860527e-02
-3.257377e-02
-5.743655e-02
-3.269004e-02
2.311919e-02
-1.693920e-02
-5.100553e-02
1.429553e-02
2.345315e-02
-3.826882e-02
-6.959530e-02
1.384375e-03
-5.509772e-03
-3.843589e-02
-2.872206e-02
-2.427392e-02
-4.762553e-02
3.546872e-02
5.984285e-04
-9.417902e-03
-2.575280e-02
-2.105895e-02
-6.940503e-03
3.549790e-02
1.594662e-02
2.937648e-02
1.995388e-02
5.314716e-03
-1.079458e-02
2.155660e-02
5.721552e-03
-2.108438e-02
2.586430e-02
1.215975e-02
-1.028821e-02
4.021582e-02
4.148993e-02
2.295377e-02
1.367442e-02
3.747427e-02
3.270355e-02
-5.535833e-03
1.924706e-02
3.099967e-02
-7.284264e-04
-3.625005e-03
1.040487e-02
1.402081e-02
2.639239e-02
1.383908e-02
2.273906e-02
1.519024e-02
2.632218e-03
-3.729646e-03
3.390532e-03
-8.281281e-02
1.591410e-02
-1.676395e-02
-5.207127e-02
2.483092e-02
1.407396e-02
3.049641e-02
1.851749e-02
-1.601559e-03
2.022698e-02
-3.805598e-03
1.099655e-02
4.579339e-02
-5.423132e-02
-2.327683e-02
2.151050e-02
1.841692e-02
-3.448543e-02
2.003410e-02
2.055395e-02
-3.489013e-02
1.809171e-02
-2.235026e-02
-5.653352e-02
-1.593383e-02
-3.289088e-03
4.892313e-03
4.093445e-02
-5.608112e-03
-1.677085e-02
6.366341e-02
-1.555765e-02
-2.689646e-02
2.816939e-02
-3.310412e-02
-2.651689e-02
-2.422476e-03
-9.534131e-03
-2.838478e-03
-1.444681e-02
-3.055152e-02
-1.941812e-02
-2.221133e-02
-4.371824e-02
-6.690750e-02
-7.596347e-02
1.923151e-02
2.359909e-02
-1.094008e-02
1.937564e-02
2.201180e-02
-1.507134e-02
2.900107e-02
1.050869e-02
-4.050611e-03
-1.261553e-02
-2.603790e-02
-1.302594e-02
-2.917587e-02
-4.401750e-02
-3.057614e-02
-2.889055e-02
9.593064e-03
1.584188e-02
-2.376270e-02
-2.729068e-03
3.284422e-02
-1.951583e-02
-2.672020e-02
1.057196e-02
-3.139152e-02
-4.778219e-02
-8.084454e-03
1.568467e-03
-4.755129e-02
-2.628074e-02
-6.124123e-03
-7.940853e-03
2.756405e-02
-1.944285e-03
1.626885e-02
2.414213e-02
1.356723e-02
7.140511e-03
1.666193e-02
1.998724e-02
7.632549e-03
5.991384e-03
6.885484e-03
2.520105e-02
2.316404e-02
-1.489122e-02
-3.351509e-02
-6.381790e-05
2.529685e-02
2.905037e-02
-2.711369e-02
3.376414e-03
-1.976456e-02
-4.616330e-02
1.130107e-02
-9.971931e-03
-1.721820e-02
1.022314e-03
5.956062e-03
1.498308e-02
-2.683970e-02
-2.814154e-02
1.546439e-02
2.185335e-02
-1.878300e-02
-3.410722e-02
-7.671183e-02
-8.806945e-02
-7.432058e-02
-4.796526e-03
-1.641706e-02
-2.442043e-02
-3.300805e-02
-3.753681e-02
-7.674191e-02
-4.902936e-03
-1.161472e-02
-3.207335e-02
-1.887408e-02
-4.722195e-02
7.227604e-03
-1.982321e-02
-4.734920e-02
5.404835e-04
-1.188159e-02
-4.634859e-02
9.238682e-03
-1.022211e-03
-9.325822e-03
4.234270e-03
1.284717e-02
-8.484861e-03
5.153969e-03
1.478530e-02
1.333863e-02
-1.167497e-04
5.852387e-03
-1.541654e-02
-7.474915e-03
-1.847626e-02
-3.624314e-02
-1.908538e-04
-3.198119e-02
-3.502445e-02
-4.285284e-03
1.153154e-03
6.126572e-04
-6.208326e-04
5.746370e-04
8.410930e-04
-8.115789e-04
7.079152e-04
1.442744e-03
-9.279625e-04
2.621180e-02
2.772407e-02
1.483637e-02
2.213018e-02
1.294000e-02
2.574010e-02
-9.879440e-03
-1.813229e-02
-1.754668e-02
-4.307889e-03
2.503622e-02
1.699094e-02
1.422503e-02
4.917119e-02
1.364692e-02
2.883881e-02
2.138825e-02
-2.610018e-02
6.494138e-03
-1.189437e-02
-2.179108e-02
3.342434e-02
-1.009827e-02
2.532839e-03
-1.339645e-02
-3.268089e-02
-5.417017e-03
-3.018387e-02
9.659030e-03
2.969277e-03
-2.255123e-02
1.525348e-02
7.478517e-03
1.553901e-03
-1.070652e-02
-3.932874e-02
2.887932e-02
1.531842e-03
-3.099159e-03
3.770844e-02
4.671752e-03
3.047964e-02
2.839796e-02
9.792545e-03
6.519036e-02
-6.720138e-02
-1.367396e-02
1.419499e-02
-1.750936e-02
5.892285e-02
-3.791647e-02
-3.359438e-03
-8.273849e-02
-9.869386e-02
1.663711e-02
9.706053e-03
2.934274e-03
1.384890e-02
8.582465e-03
2.209349e-02
1.779514e-03
1.036850e-02
5.337066e-03
1.613109e-02
1.255731e-03
-1.115234e-02
-2.332663e-02
-8.792356e-03
-1.624435e-02
-1.006932e-02
6.994694e-04
-1.240193e-02
-3.651037e-02
-7.131264e-02
-3.502999e-02
-1.403883e-02
-1.640160e-02
-2.075383e-02
3.142298e-02
4.764199e-02
2.697013e-02
1.531498e-02
-1.254217e-02
-8.846506e-02
2.565530e-02
-1.808188e-02
-1.808599e-02
-1.517681e-03
4.563864e-03
-7.321829e-02
-2.501643e-02
-9.634764e-03
-6.349718e-02
2.712376e-02
-1.076325e-02
-4.673412e-05
1.426134e-02
-1.678054e-02
-2.046872e-02
-2.939457e-02
-2.236989e-02
1.105037e-02
-3.641576e-02
-1.550002e-02
3.673247e-02
-4.660543e-02
-4.756730e-03
1.746876e-02
1.758327e-02
-3.669046e-02
2.027350e-02
-1.225181e-02
-8.885493e-03
-8.840632e-03
-4.358830e-03
1.131879e-02
2.889937e-02
6.963771e-03
1.641893e-02
-1.696237e-02
4.028672e-04
5.061732e-02
1.637278e-02
-1.355133e-02
2.332210e-02
1.589275e-04
3.528308e-02
-6.323992e-03
-1.168165e-02
2.560441e-02
4.044448e-02
-1.067919e-02
1.114391e-02
8.734077e-02
2.962484e-02
1.771524e-02
1.102621e-02
-9.140795e-04
-3.109590e-03
-2.124246e-02
-3.619524e-02
-1.200994e-02
-5.567375e-02
-9.884635e-02
2.403442e-02
-2.401539e-02
-5.839837e-02
2.931503e-02
-1.515312e-02
-6.415942e-02
1.576592e-02
-2.649037e-02
-6.675935e-02
1.467201e-02
3.260308e-02
-3.054461e-02
3.900963e-02
5.343652e-02
1.074407e-02
1.731444e-02
6.557813e-02
1.144627e-02
1.359633e-02
2.592537e-03
1.712718e-03
-3.766854e-02
-1.621376e-02
-8.572271e-03
-5.759811e-02
-7.491063e-02
-3.954242e-02
-1.043018e-02
3.084635e-02
6.420182e-02
8.670304e-02
9.350192e-02
8.139125e-02
-3.644670e-03
3.420550e-02
1.008587e-02
-4.838292e-02
-2.175362e-02
-1.298870e-02
-4.332037e-02
2.147648e-02
3.006642e-02
-1.897189e-02
4.406861e-02
8.141535e-02
2.292484e-02
-1.031922e-02
-3.913148e-02
-6.961202e-04
-1.031875e-02
-4.428431e-02
1.448046e-02
1.479059e-02
4.267162e-03
1.729770e-02
-1.598748e-02
2.720550e-02
5.856107e-04
-5.680293e-02
-1.058203e-02
5.958750e-02
-3.873677e-02
-2.589415e-02
-2.861800e-02
-5.604251e-02
-3.594500e-02
-3.473222e-03
-1.714615e-02
-2.128248e-02
2.308858e-02
1.304476e-02
7.207097e-03
2.186264e-02
-1.745366e-02
-2.410110e-02
3.277489e-02
4.259193e-02
-4.332157e-03
6.499055e-02
6.456164e-02
1.863773e-02
1.955232e-02
-1.961815e-03
-7.452478e-02
-2.072536e-02
-2.514989e-02
-9.170128e-02
-1.788977e-02
-5.124980e-03
-6.154067e-02
-1.338872e-02
-1.543425e-02
-3.354879e-02
4.890428e-02
3.407446e-02
7.592434e-02
-7.447669e-02
-9.934464e-02
-9.480706e-02
-3.628108e-04
1.587792e-02
4.823946e-02
2.273016e-02
1.789916e-02
1.280977e-02
4.291473e-02
4.356438e-02
5.359395e-03
3.608821e-02
-1.055919e-02
-9.398553e-02
3.492879e-02
-1.682823e-02
-9.499160e-02
9.801088e-03
-2.865482e-02
-1.327770e-01
3.318305e-02
4.467813e-02
3.782827e-02
-9.630132e-03
2.644942e-02
5.325144e-02
-2.540577e-02
2.099438e-02
2.206550e-02
-4.998812e-03
-1.744891e-02
1.308221e-02
-7.160858e-03
-9.276783e-03
2.715473e-03
-7.327517e-03
2.144409e-03
1.305854e-02
-1.389094e-03
1.846261e-03
2.491154e-03
3.367238e-03
1.649282e-03
-7.405645e-04
1.168684e-03
6.653782e-04
2.517479e-03
1.963517e-03
2.194429e-02
1.680500e-02
9.221939e-03
6.492256e-02
4.364291e-02
2.241499e-02
3.495100e-02
2.760603e-02
2.495396e-02
-1.498986e-02
-2.091958e-02
4.183229e-02
2.736067e-02
8.530297e-04
7.338031e-02
2.902992e-02
-8.666612e-03
-1.348058e-02
8.909454e-04
4.899036e-03
3.734311e-02
7.332197e-02
1.019775e-01
-2.519719e-02
-8.952708e-03
8.435208e-05
-5.025966e-02
-6.227039e-03
-3.386444e-02
-1.006597e-02
1.054135e-03
7.834955e-04
1.847498e-03
-2.322988e-02
-3.091371e-02
8.557484e-03
1.078645e-02
-3.154434e-03
-2.948141e-02
-1.664708e-02
3.055522e-02
-4.502576e-02
-3.424118e-02
1.205486e-02
6.049712e-02
2.430614e-02
1.060381e-02
-1.591309e-02
5.971392e-02
2.094061e-02
5.196422e-02
1.606360e-02
-4.086240e-02
-1.960232e-03
8.678816e-03
1.564052e-02
8.700678e-03
1.313547e-02
6.717069e-03
8.382028e-03
1.909222e-02
2.639698e-02
-6.977768e-03
-1.629740e-02
2.511473e-02
-9.383718e-03
9.023661e-03
4.237498e-02
-3.162650e-02
-3.616180e-02
-5.240799e-03
2.203800e-02
3.750131e-02
2.625330e-02
2.244762e-02
6.198006e-02
8.539708e-03
3.050318e-02
6.689008e-02
2.258514e-02
-1.756367e-02
1.768318e-02
3.103708e-02
-6.307197e-02
-1.526888e-02
4.810285e-02
-3.069614e-03
5.550054e-02
3.780268e-02
-3.673876e-02
3.636327e-02
4.076383e-02
-8.039115e-02
-4.100696e-02
1.889908e-02
-2.728575e-02
4.486889e-02
4.592961e-02
1.802688e-02
-3.663031e-02
-8.879954e-03
-5.360498e-02
-8.955289e-02
-4.487069e-02
-4.762385e-02
-1.259962e-01
-9.580035e-02
-4.850218e-02
-4.113530e-02
-1.989634e-02
-4.759093e-02
-1.757208e-02
-4.281967e-02
-1.385609e-02
2.139636e-02
1.228809e-02
7.444320e-02
4.302546e-02
2.805445e-02
5.514765e-02
3.360318e-02
-4.197317e-02
7.984061e-02
1.250129e-02
-2.630562e-02
2.394626e-02
4.768371e-02
1.888845e-02
-4.593118e-02
-7.597869e-02
-8.354004e-02
2.479454e-02
-3.515096e-02
3.024963e-02
-4.550022e-02
-1.764626e-02
1.924110e-02
-1.159964e-01
-1.119898e-01
-5.151964e-02
-8.345339e-02
-8.741069e-02
-9.527709e-02
7.322234e-03
-9.946835e-05
-3.806582e-02
-2.230379e-02
-8.343953e-03
-5.696250e-02
-1.151252e-02
8.449325e-03
-3.483286e-02
1.509510e-02
-1.016192e-01
8.360863e-02
5.571291e-02
-4.661873e-02
9.244841e-02
8.547469e-02
-1.827934e-02
2.288936e-02
-2.919208e-02
-4.772812e-02
5.909997e-03
-1.458580e-02
-7.616652e-02
-3.629509e-02
-4.583900e-02
-1.282607e-01
-6.659496e-02
2.303929e-03
6.328520e-04
-1.580257e-02
-4.347689e-02
-2.463115e-02
-5.711461e-02
2.035113e-03
-4.972136e-02
-6.588731e-02
-2.914924e-02
-2.040571e-02
-3.174560e-02
-1.316241e-01
-4.469523e-02
-3.917298e-02
-1.193415e-01
-4.604437e-02
-5.672627e-02
2.407735e-02
1.654353e-03
-1.664060e-02
4.382119e-02
2.445577e-02
-1.489804e-02
1.868805e-02
3.061167e-02
3.152328e-02
-6.186858e-02
-1.336933e-01
-5.263700e-02
-8.217417e-02
-1.050437e-01
-2.900438e-02
-1.146597e-01
-9.068873e-02
-5.472922e-02
-4.284710e-02
-2.646270e-02
-4.848553e-02
8.509091e-02
5.338191e-02
-1.812048e-02
4.810096e-02
3.111020e-02
-7.345638e-02
-4.952738e-02
-6.085865e-02
-9.626006e-02
-7.624788e-02
-1.241820e-01
-8.842016e-02
-7.688610e-02
-9.877510e-02
-3.272065e-02
-9.921440e-03
-1.023266e-02
-3.609830e-02
-3.393815e-02
-3.194816e-02
-1.391376e-02
-5.744483e-03
-7.334711e-02
-4.982969e-02
-1.502974e-01
-1.348407e-01
-1.236549e-01
3.264648e-03
-2.416566e-02
-3.348388e-02
-7.176533e-02
-7.127357e-02
-6.876973e-02
-7.800308e-02
-5.555389e-02
2.569808e-02
-1.218217e-01
-1.033289e-01
-7.056304e-02
-5.999867e-02
-1.077314e-01
-1.190077e-01
-1.923460e-02
-4.246849e-03
-3.050539e-02
-1.869248e-02
7.436244e-03
-4.739847e-02
4.821863e-03
-9.056495e-03
-3.772969e-02
-4.369490e-02
-5.564539e-04
-3.708002e-02
-4.242134e-02
2.859499e-02
2.808466e-02
-4.867558e-02
8.186836e-03
1.489005e-03
1.563899e-02
2.759659e-02
7.865485e-02
-8.855548e-02
-7.376765e-02
1.989281e-02
-9.043507e-02
-5.867517e-02
6.830419e-02
2.057918e-03
1.836386e-03
-7.357435e-05
-3.246130e-04
-1.829001e-03
5.649880e-04
1.951688e-04
1.606895e-04
2.420288e-03
7.129126e-02
1.403118e-02
-4.676057e-02
6.074807e-02
2.549262e-03
-5.444405e-02
1.135400e-02
-2.133568e-02
-8.608983e-02
1.649262e-02
3.368626e-02
3.932915e-02
1.364629e-01
6.115944e-02
-1.267065e-02
8.240989e-02
1.465505e-03
-7.057736e-02
-5.326380e-02
-1.993178e-02
-5.696746e-02
-1.063304e-02
1.974653e-02
4.030723e-02
3.885794e-03
3.717555e-02
-3.084414e-02
4.987724e-03
-2.658680e-02
-4.299087e-02
3.420895e-02
-6.247076e-02
-4.980633e-02
-7.153977e-02
-7.096866e-02
-3.559621e-02
4.943414e-02
6.013406e-02
1.640181e-02
-5.818127e-02
-7.624120e-03
1.997307e-02
-1.016152e-01
-5.448345e-02
-3.099885e-02
-8.861130e-02
-9.275037e-02
-5.631059e-02
1.228858e-02
-1.909374e-02
2.346652e-02
4.551786e-02
-4.163442e-02
-2.847276e-02
-2.837803e-03
5.248013e-03
3.515164e-02
-3.180224e-02
9.686205e-03
3.093596e-02
-4.200894e-02
1.558408e-02
5.605007e-02
-4.819812e-02
-1.245290e-02
5.162725e-03
-1.557185e-02
-2.508118e-02
-3.155913e-02
-4.042359e-02
-5.431692e-02
-5.113968e-02
6.965875e-03
3.258671e-03
1.026672e-02
-1.078287e-02
3.096540e-02
-6.802763e-03
2.322652e-02
1.870182e-02
7.839169e-03
6.102362e-02
-3.476005e-02
-1.287784e-01
3.147480e-02
5.644363e-03
-5.700161e-02
-1.026357e-01
1.770632e-02
-2.850686e-02
1.045629e-01
1.194405e-01
1.731299e-01
5.844137e-02
-1.451509e-01
1.756778e-02
4.408963e-02
1.226742e-01
1.809778e-01
3.291639e-02
-8.708541e-02
-9.621976e-02
5.993826e-02
-9.118720e-02
-1.530822e-01
1.965577e-01
6.348643e-02
-4.697530e-02
-1.574498e-02
-1.571400e-03
9.617578e-04
-8.076309e-02
-5.373748e-02
-4.739902e-03
-5.689877e-02
-4.211075e-02
-4.711698e-03
-1.100383e-02
-5.504152e-02
7.077687e-02
6.300688e-02
8.214659e-02
1.120564e-01
2.549399e-02
-2.909266e-02
-7.041521e-02
1.447377e-01
-1.379235e-03
4.270925e-02
3.225438e-02
1.880548e-01
3.062985e-01
-2.277588e-02
-5.539730e-02
2.584033e-01
-6.872094e-02
-9.897431e-02
-1.129415e-01
6.046217e-04
-1.597101e-01
-2.170761e-01
1.804823e-01
6.510168e-02
-6.520558e-02
3.882016e-03
4.715965e-03
2.763886e-02
7.589955e-02
6.921183e-02
4.615734e-02
-9.476505e-02
-9.743527e-02
-7.700022e-02
9.215882e-02
-1.248189e-01
3.837936e-02
5.796839e-02
1.954390e-02
2.370375e-01
2.831593e-02
-1.023907e-01
9.111032e-02
3.830846e-02
1.107007e-02
-5.874308e-02
6.553581e-02
-8.745293e-02
-1.106589e-01
7.759721e-03
3.426499e-02
2.378423e-02
1.250538e-01
1.629259e-01
1.015438e-01
-9.095261e-02
1.455058e-01
2.590756e-02
1.144319e-01
1.821067e-01
1.536667e-01
-3.434578e-02
-4.546589e-02
4.908570e-02
-3.117877e-02
-2.124265e-02
-5.794341e-02
3.682706e-02
4.179196e-03
-7.875959e-02
-7.043790e-02
-4.670397e-02
-1.292789e-01
3.569293e-02
6.150026e-02
5.032054e-02
-5.813790e-03
5.101060e-03
-4.238536e-02
-1.725874e-01
-1.501281e-01
-9.425530e-02
1.358207e-02
-5.582836e-02
-1.321451e-01
1.799383e-02
-1.242915e-02
8.247669e-04
-9.095737e-02
-1.023860e-01
-4.526331e-02
-3.654988e-02
-1.122022e-01
-6.050657e-02
5.009696e-02
-4.316460e-02
-5.514777e-04
-4.119017e-02
-5.094931e-02
-1.888388e-02
-4.366431e-02
-1.521473e-02
2.111309e-02
-1.997060e-02
3.020156e-02
1.398845e-02
-1.001353e-01
-1.179476e-01
-1.593890e-03
-7.094496e-02
-8.773372e-02
-4.160214e-02
-9.511694e-02
-1.371752e-01
-7.072505e-02
-4.802796e-02
1.170530e-02
2.475428e-02
1.001479e-01
2.764815e-02
-2.580755e-02
7.814782e-02
-3.690089e-02
-1.017192e-01
9.779827e-02
6.341518e-02
-2.183362e-02
-4.373220e-02
2.801826e-01
1.228291e-01
-1.248741e-01
1.210900e-01
1.336685e-01
-1.959778e-02
-1.011107e-01
-5.922984e-02
-5.174575e-02
-1.381395e-01
-2.410544e-01
7.216096e-02
5.309539e-02
-5.929698e-02
-8.774544e-02
-6.127219e-02
-7.608430e-03
-4.031458e-02
-1.619486e-02
-2.020494e-02
7.968832e-02
3.928269e-02
1.165771e-02
8.924448e-03
-6.572921e-02
-6.140768e-02
5.858088e-03
-6.111716e-02
-1.023024e-01
-5.325898e-03
7.018867e-03
-4.932932e-02
-3.397593e-05
1.431793e-03
-4.803263e-04
-7.324780e-04
-5.070734e-04
-5.642566e-04
-3.084605e-04
-2.011704e-03
-2.595384e-04
9.494328e-03
2.615925e-02
1.384528e-02
1.138492e-01
8.075037e-02
8.584972e-02
1.010447e-01
6.390200e-02
1.002523e-03
-1.967770e-01
-7.691172e-02
-2.215351e-02
-7.123046e-03
4.368497e-02
5.643930e-02
4.858085e-04
7.767926e-02
3.691131e-02
-4.179103e-02
-2.911289e-02
2.910751e-03
1.759421e-02
1.710331e-03
-1.279147e-02
5.960924e-02
1.001737e-01
1.169723e-01
-1.018075e-01
-9.933630e-02
-7.795110e-02
-6.811457e-02
-7.516997e-02
-2.116219e-02
7.553130e-02
1.238250e-02
5.000911e-02
2.076168e-03
-4.378242e-03
-8.418503e-02
4.227872e-02
-1.112157e-03
-5.372348e-02
2.775474e-02
9.990569e-03
-1.549158e-02
3.710136e-02
7.880260e-02
1.064971e-02
7.727416e-03
2.982390e-02
-7.092298e-02
5.859790e-02
-1.700355e-02
-1.815728e-01
9.184873e-02
4.187986e-02
2.904051e-02
8.728582e-02
3.830997e-02
5.291834e-02
9.974982e-02
6.700110e-02
1.501844e-01
-8.019397e-03
-7.920721e-02
-1.288589e-01
8.030938e-02
-3.329231e-03
-6.470275e-02
2.232108e-02
7.491833e-02
5.325530e-02
-9.098138e-02
-9.645462e-02
-9.276307e-02
-5.619419e-02
-1.244286e-01
-6.736222e-02
1.541180e-03
-5.992096e-02
2.442824e-02
6.414218e-02
7.246786e-02
6.586278e-02
7.859298e-03
-2.107954e-02
2.248295e-02
2.267797e-02
3.341671e-02
7.357215e-02
-1.178320e-02
2.170546e-02
-1.017891e-02
-1.935117e-02
1.662592e-02
-1.544945e-02
-3.278087e-02
1.124011e-03
-1.773298e-02
-6.338456e-02
-5.393422e-02
-2.213111e-02
-1.373221e-02
1.823607e-02
1.222808e-02
1.081383e-03
-9.414526e-03
-2.238733e-02
1.483171e-02
-1.606835e-02
4.156942e-03
-3.473592e-02
-9.514496e-02
-7.166570e-02
-1.323264e-02
-5.826820e-02
-3.069276e-02
-1.674530e-03
-1.331418e-02
-4.452878e-02
-2.959452e-02
-3.554661e-02
-2.968736e-02
-3.071974e-02
1.587672e-02
-8.900233e-03
4.844441e-04
9.651321e-03
-1.883936e-02
4.522862e-02
-3.473875e-02
7.948698e-03
3.350845e-02
1.121204e-02
3.379266e-02
1.352297e-02
6.996217e-03
-2.771065e-02
1.750752e-02
-4.353378e-03
-1.951834e-02
3.394391e-02
3.696920e-02
1.183342e-02
2.179140e-02
-1.355904e-02
-9.326009e-02
3.447274e-02
-5.551333e-04
-8.087363e-02
-1.665213e-02
-3.952245e-02
-1.107560e-01
2.927918e-02
-1.411240e-02
7.156370e-03
-4.061645e-02
-8.418898e-02
-2.577174e-02
-8.323579e-02
-7.283837e-02
-4.596483e-02
3.888311e-02
4.348466e-02
4.985007e-02
1.546264e-02
-8.959335e-03
5.978875e-03
-8.450200e-03
6.177283e-03
-1.562664e-02
-8.108999e-02
-7.812369e-02
-4.885812e-02
-5.719629e-02
-7.381599e-02
-6.369448e-03
-5.660754e-02
-6.587578e-02
-1.725104e-02
-5.455622e-02
-5.101547e-02
-4.771790e-02
2.990315e-03
4.280708e-02
2.362783e-02
-9.029914e-03
4.005885e-02
1.199247e-02
-1.273711e-02
-1.131931e-02
-1.264095e-02
-1.043413e-02
-2.711934e-02
8.041301e-03
1.355944e-02
-1.326098e-02
2.323728e-02
-3.338889e-02
-5.722696e-02
-9.758617e-02
4.324076e-02
-3.264825e-02
-1.437223e-02
7.576931e-02
1.530160e-02
5.851131e-02
-1.110140e-01
-8.096115e-02
-2.784835e-02
-5.730940e-02
6.862725e-03
-5.865111e-03
7.160062e-03
6.211730e-02
4.407779e-02
3.963995e-02
-5.105288e-03
5.716210e-03
5.549524e-02
-1.020667e-02
-7.929813e-03
1.911413e-02
-3.832922e-02
-8.809811e-03
2.677790e-03
1.254592e-02
2.113399e-03
3.847520e-02
5.840998e-02
3.076097e-02
2.991480e-02
1.997713e-02
2.598247e-02
4.997436e-03
-1.790172e-02
-3.092220e-02
-3.771327e-02
-2.662457e-02
3.608797e-02
-3.707739e-02
-9.555116e-02
-5.061331e-02
3.145441e-02
1.896671e-02
4.754601e-02
-1.940276e-03
-4.140990e-03
2.424988e-02
2.267445e-03
-6.431659e-02
-4.504177e-02
2.710378e-02
-4.672496e-02
-1.112776e-01
-1.080644e-02
-7.971354e-02
-1.421519e-01
2.752656e-02
-4.585060e-02
-1.049555e-01
5.624693e-03
-2.414177e-02
-2.329393e-02
-3.841356e-02
-6.694835e-02
-5.947752e-02
1.890982e-02
-5.300888e-03
-2.151150e-02
2.702589e-03
-2.912128e-02
-3.408588e-02
-3.942228e-02
-3.822248e-02
-6.253751e-02
2.592239e-03
-3.801778e-04
6.608796e-03
-2.146387e-03
-3.877814e-04
-6.753844e-04
4.919034e-04
-8.405973e-04
-1.777324e-04
-3.876122e-04
1.769701e-03
-4.554304e-04
4.185180e-04
8.294266e-03
4.510994e-02
-1.075018e-02
-2.503398e-02
-1.819242e-03
3.486126e-02
1.834586e-02
1.334647e-02
1.946706e-02
4.935043e-02
-7.635801e-04
2.564033e-02
4.238717e-02
1.355871e-02
4.039900e-02
4.058338e-02
2.014147e-02
-2.224422e-02
-7.340356e-02
-2.283917e-02
-1.255910e-02
-3.768596e-02
-2.017583e-02
1.933949e-02
1.512448e-02
1.458168e-02
1.088691e-02
1.336553e-02
3.328155e-02
2.106788e-02
1.497846e-02
1.296440e-02
-9.804017e-03
-3.149520e-02
-4.424632e-02
7.020611e-02
1.150838e-02
-3.433486e-02
1.965869e-02
-4.678537e-02
-2.868606e-02
1.402231e-02
-8.764293e-03
1.738035e-02
-6.536286e-02
-4.219678e-02
-1.121195e-02
4.643674e-03
9.749302e-02
5.665016e-02
7.254905e-02
1.151302e-02
-7.695486e-02
-4.408923e-03
-3.260009e-05
-1.090237e-02
-3.173384e-02
-3.084554e-02
-3.138850e-03
-6.246761e-02
-4.490949e-02
1.088722e-02
3.816842e-02
2.024377e-03
2.027548e-03
-3.495754e-02
-2.490418e-02
-5.333492e-03
-7.360448e-04
1.419214e-02
-2.334335e-03
2.589490e-02
3.057003e-02
2.313524e-02
4.686791e-02
7.913446e-02
5.780637e-02
6.313710e-02
9.505169e-02
5.581161e-02
1.590130e-01
2.522744e-01
3.061997e-01
2.983806e-02
-2.549114e-01
-9.603924e-03
1.373105e-01
2.106110e-01
4.133424e-01
5.388113e-02
1.404162e-01
9.266360e-02
-1.162004e-01
2.706465e-02
-7.150445e-02
5.514124e-02
1.493867e-01
1.282092e-01
-1.357385e-03
6.770369e-02
-8.072583e-02
-4.336347e-02
-7.430392e-02
-1.410759e-01
2.309654e-02
-7.534741e-03
5.885477e-02
-1.007973e-01
-4.933714e-02
-8.882790e-02
-2.510341e-02
-8.170424e-02
-8.045054e-02
-1.132593e-02
1.055435e-02
-1.379266e-01
1.306998e-02
-2.213598e-02
1.820099e-02
1.143873e-02
3.115905e-02
2.491663e-02
-2.752647e-03
4.543820e-02
4.014543e-02
-1.529305e-01
-5.267385e-02
1.524274e-01
1.927444e-01
1.279993e-01
1.673737e-01
-6.829699e-02
-1.020158e-01
4.076475e-02
-1.279703e-01
-2.577582e-02
4.832455e-02
4.450456e-02
9.037200e-02
8.773544e-02
1.209040e-02
-6.378454e-02
-5.213293e-02
6.517487e-02
7.890618e-02
4.254586e-02
-1.937292e-02
-4.260771e-02
-3.250471e-02
-9.227762e-02
-9.723157e-02
-9.162089e-02
-2.690942e-02
6.757333e-02
8.038930e-02
-6.851876e-02
-1.648645e-02
-1.440551e-01
-2.382750e-02
7.740440e-03
-1.497384e-01
-1.480935e-01
-6.818205e-02
4.679153e-02
-9.386402e-02
4.419008e-02
1.313672e-01
-2.615061e-02
5.813310e-03
4.710554e-02
2.040818e-02
-4.476839e-02
-8.185034e-02
6.885250e-02
-8.965484e-02
-5.878935e-02
4.824753e-02
2.290940e-02
-5.289476e-02
8.230774e-02
4.265546e-02
-1.604884e-02
8.160267e-03
-1.025431e-01
-7.954230e-02
-9.720039e-02
-1.260428e-01
-1.033497e-03
-3.505360e-02
-9.523206e-02
3.079776e-02
-5.713344e-02
-8.626741e-02
-1.984569e-02
-3.060049e-02
-7.798374e-02
-3.789052e-02
-2.050387e-02
6.132235e-02
8.111823e-02
-5.886379e-02
-6.370872e-02
-3.967524e-03
-6.810378e-02
-1.186780e-01
-3.662573e-02
1.068132e-01
2.405090e-03
-6.457952e-02
-4.330101e-02
-8.578769e-02
-4.694404e-02
-1.187293e-01
-1.416223e-01
-9.174874e-02
-9.065537e-02
-6.949850e-02
4.814265e-02
1.803433e-02
1.805633e-01
7.690903e-02
2.869063e-01
-2.185582e-01
2.081171e-01
3.693287e-02
1.875616e-02
4.080693e-02
-9.296455e-02
-7.706410e-02
-2.682256e-02
-1.463870e-01
-4.246568e-02
-3.878840e-02
3.514740e-02
3.235596e-02
-2.831009e-02
-7.258128e-02
-1.977683e-02
-1.187384e-01
-5.184826e-02
-4.157308e-02
-5.516512e-02
1.149569e-01
1.112091e-01
8.189777e-03
1.194900e-01
-4.940262e-02
-6.521496e-02
-1.585561e-02
-1.801869e-01
-2.744100e-02
1.847932e-02
5.510001e-02
-9.265941e-02
8.624917e-02
-5.054272e-02
-9.427947e-02
-6.443725e-02
-1.622211e-01
-1.740834e-01
-2.879924e-02
-6.011602e-02
-4.530688e-02
-3.528846e-03
-2.637549e-02
3.599942e-02
-1.019201e-01
-4.634396e-02
5.131227e-02
-1.356845e-01
9.046062e-02
-1.659598e-01
1.582659e-01
6.168072e-02
-1.735434e-02
-5.503811e-02
-2.904140e-02
-2.785514e-02
-7.624233e-05
1.243685e-04
2.317837e-03
6.244630e-04
-1.710338e-03
7.414930e-04
1.147193e-03
-1.822605e-03
-5.436924e-04
-8.690834e-02
-6.480309e-02
-2.960324e-02
1.125456e-02
6.039506e-02
-4.152147e-02
-2.420013e-02
1.709554e-02
-2.475909e-02
-1.066746e-02
-7.765327e-02
-2.800840e-02
-2.810589e-02
-1.330515e-01
-4.802276e-02
8.821320e-02
5.062863e-02
2.569928e-02
1.019693e-01
1.003888e-01
-2.389313e-02
-4.121854e-02
-4.509110e-02
-6.503413e-02
2.145245e-02
-1.455915e-02
6.757464e-02
-4.248466e-02
-1.162651e-01
-6.977567e-02
1.589084e-02
3.098869e-02
-5.623445e-02
1.123086e-01
1.247036e-02
-7.250547e-02
-4.326469e-03
5.218858e-02
4.321075e-02
-3.438027e-02
5.803176e-03
2.546645e-02
-8.877012e-02
-1.996627e-02
-3.945435e-02
-4.078043e-02
-1.885152e-02
7.032956e-03
4.744825e-04
1.125641e-02
1.332154e-01
-3.768557e-02
-1.597743e-01
8.773036e-02
2.859702e-02
-9.029791e-03
-6.755501e-02
1.317224e-01
1.007576e-01
7.389650e-02
9.325741e-02
5.113924e-02
1.985218e-02
-1.720901e-02
2.628384e-02
8.415542e-02
-2.316904e-02
-6.350252e-02
9.422597e-02
-4.812736e-02
-9.451864e-03
8.439448e-02
-6.122936e-02
1.028738e-02
1.087263e-01
-1.814038e-01
-1.491992e-01
2.717029e-02
-1.091411e-01
-3.693594e-02
9.511086e-03
-9.753595e-02
-7.315039e-03
-1.795007e-02
6.061782e-02
1.336224e-02
2.682580e-02
-5.086485e-02
5.213565e-02
1.084376e-01
2.598096e-02
5.726476e-02
5.338894e-02
-8.445928e-02
-2.565158e-02
-5.586988e-02
-2.667208e-02
-3.767577e-03
3.835361e-03
-4.365724e-02
3.752580e-03
-1.913755e-02
-1.425294e-02
1.979447e-02
-1.032186e-02
-8.058555e-02
-4.343048e-02
-1.603311e-02
6.975501e-02
4.154340e-02
-1.182718e-03
1.301235e-01
8.903674e-02
4.100037e-02
6.878920e-02
1.891559e-02
5.613476e-03
-5.244526e-02
-3.384386e-02
1.146397e-03
6.657488e-02
3.891573e-02
7.941862e-02
9.002219e-02
4.432281e-02
7.740551e-02
2.080364e-02
-2.514359e-03
-6.398156e-02
6.024357e-02
1.535655e-02
4.236835e-02
6.888788e-02
-1.508273e-04
5.419906e-02
-7.915292e-03
1.427856e-05
-6.471372e-02
-5.211239e-02
-6.135323e-02
-8.458375e-02
-2.479462e-02
3.893504e-02
4.091088e-02
-9.825677e-02
-6.212601e-02
-4.629445e-02
-7.307093e-02
-4.664705e-02
-5.364785e-02
-8.794577e-02
-5.627626e-02
-7.208189e-02
6.276181e-02
2.535966e-02
-1.868717e-02
3.061330e-02
-3.422408e-02
1.290442e-02
7.169615e-02
-1.528070e-02
1.187177e-02
-9.589614e-02
-5.960506e-02
-3.736107e-02
-2.719642e-02
-6.262472e-02
-3.756315e-02
-1.119517e-01
-7.411382e-02
-1.254646e-01
7.199376e-02
5.719820e-02
9.020470e-02
4.651531e-02
3.042644e-02
9.372413e-02
1.337334e-01
1.855773e-01
1.602678e-01
-6.161665e-02
-3.744119e-02
-1.583434e-02
-4.824158e-02
-2.368075e-04
3.148642e-02
-5.541047e-02
-5.039109e-03
-4.115672e-02
4.366273e-02
5.460618e-02
2.916509e-02
2.882190e-02
5.544430e-02
1.001375e-01
2.042579e-02
-4.553088e-02
-3.703394e-02
-1.099330e-01
-9.735399e-02
-1.545798e-01
-3.129596e-02
-4.498466e-02
-2.838576e-02
3.487627e-02
2.815096e-02
4.080399e-02
6.263818e-02
4.699746e-02
-1.704944e-02
-1.277176e-02
-1.509189e-02
-1.350236e-02
-1.638204e-03
3.905809e-02
1.271188e-01
-5.714997e-02
-8.466300e-02
-9.642930e-02
-4.809460e-02
1.609953e-03
-1.083579e-01
3.315565e-02
2.124407e-02
1.786785e-02
-1.259835e-01
-7.624040e-02
-6.813421e-02
-1.964897e-02
-2.425501e-02
-2.107994e-02
3.912463e-02
5.925042e-04
7.830609e-02
1.675643e-01
1.476890e-01
1.812199e-01
-1.620649e-01
-1.199122e-01
-9.761782e-02
3.019919e-01
3.594042e-01
3.088012e-01
6.248176e-02
-6.537005e-03
2.744976e-02
6.760732e-02
1.776222e-02
8.658701e-02
7.466171e-03
4.809605e-02
3.127303e-02
2.257171e-02
2.839880e-03
4.855927e-02
-1.011050e-02
-4.557451e-02
-5.518862e-02
4.624381e-02
6.713680e-02
-5.611917e-03
-2.034227e-02
-7.647786e-02
-7.283043e-02
-9.240417e-03
-6.505372e-02
-7.023664e-02
2.898382e-02
4.197590e-02
-1.941027e-02
5.183562e-02
3.570319e-02
-1.025601e-01
5.707506e-02
4.128871e-02
-1.377257e-02
-5.163490e-02
-3.509780e-02
-5.464086e-02
2.402373e-03
1.059390e-03
-3.112949e-04
1.104950e-03
7.406743e-04
-1.849968e-03
2.544692e-04
1.777019e-03
1.806092e-03
5.771125e-02
4.110981e-02
-2.465867e-03
4.372397e-02
4.573903e-02
4.945092e-02
4.148642e-02
-4.249758e-02
-6.827787e-02
-1.960002e-02
-6.105801e-02
3.665997e-03
-4.293939e-02
-6.245356e-02
-1.004895e-02
-3.955543e-02
-9.017640e-02
-4.311393e-02
5.316014e-02
-5.940799e-02
4.440669e-02
-4.640649e-02
-1.554581e-01
-6.225786e-02
8.381037e-02
1.230513e-03
5.704635e-02
-2.760409e-02
-1.159920e-01
4.874677e-03
-1.489717e-02
-5.123750e-02
1.764378e-02
-2.902612e-02
-5.974295e-02
1.211070e-02
-7.282364e-02
-7.207611e-02
-3.630374e-02
-2.014088e-02
-4.377995e-02
-8.558332e-03
1.786236e-02
2.277249e-02
1.038377e-01
6.890037e-02
3.050975e-02
-2.397148e-02
-1.615817e-02
-5.988573e-02
-9.126702e-02
-3.175636e-02
-6.436273e-02
-1.540163e-02
-7.060902e-02
-2.739079e-02
-2.031368e-02
-2.093355e-02
4.663232e-03
-6.570437e-02
-2.177099e-02
-5.115936e-02
-7.620835e-02
5.180247e-02
1.217237e-01
1.264860e-01
-1.085058e-04
6.506684e-02
1.968807e-02
-8.039983e-02
-3.714834e-03
8.327459e-03
-6.662551e-02
-6.160815e-02
1.792507e-02
-7.855257e-02
-8.639420e-02
-2.190850e-02
-2.404946e-02
-4.602598e-02
-4.807407e-02
-4.723703e-02
-8.037784e-03
2.863496e-04
-3.907395e-02
-9.823364e-02
-6.302493e-02
-9.326717e-02
-5.288991e-02
-2.426357e-02
1.252196e-01
7.555662e-02
1.288552e-01
4.719874e-03
-7.584477e-02
2.218343e-02
1.090646e-01
6.141688e-02
1.390299e-01
-4.859333e-02
-3.603392e-02
-2.101111e-02
-2.522255e-03
-1.482392e-02
-1.287922e-02
3.487349e-02
4.175770e-03
1.725678e-02
-1.103873e-02
-1.286926e-02
-9.607538e-03
-6.661378e-02
-7.516892e-02
-2.029650e-02
-6.551182e-02
-3.416261e-02
2.746202e-02
-8.852022e-02
-5.282895e-02
-1.588665e-02
-5.050882e-02
-7.983343e-02
-6.331009e-03
-8.745280e-03
-2.975465e-02
-7.215380e-03
4.750063e-02
3.401781e-02
-5.318154e-03
3.189616e-02
1.257528e-02
1.436077e-02
6.344043e-02
4.654528e-02
2.552024e-02
6.528281e-02
3.324363e-02
2.167870e-02
-1.361922e-02
-3.417161e-02
-3.738835e-02
-3.549819e-02
-4.665352e-02
-1.590265e-02
4.271089e-02
2.736291e-03
-4.717657e-03
-1.488703e-02
-4.724288e-02
-5.015343e-02
-3.803236e-02
-6.309806e-02
-4.009258e-02
4.844416e-02
-3.976183e-02
6.435907e-02
6.417919e-02
-1.727086e-02
7.974532e-02
1.902587e-02
-5.509279e-02
2.283008e-02
5.495001e-02
6.258996e-02
8.433700e-02
1.216675e-02
8.013260e-02
9.997071e-02
4.480697e-03
3.026039e-02
7.802791e-02
3.438571e-02
8.302890e-03
-7.395791e-02
1.691682e-02
3.705369e-02
1.986193e-02
2.465340e-02
8.332239e-02
9.206200e-02
-8.543001e-03
-1.464970e-02
-2.854985e-02
3.068016e-04
-1.669068e-02
-4.280926e-02
-6.239973e-03
-5.632554e-03
-3.031358e-02
-3.493026e-03
-1.653473e-02
-1.385807e-02
3.275409e-02
1.326617e-02
7.991515e-03
-8.651548e-03
6.184323e-03
-6.014189e-03
6.354993e-02
-5.223370e-02
-3.878481e-02
3.332118e-02
-5.214327e-02
-1.115085e-01
-2.858791e-03
-6.824795e-02
-1.246889e-01
-1.692821e-03
-4.521373e-02
-6.956736e-02
-1.822862e-02
-5.946613e-02
-4.143525e-02
2.649116e-02
-4.783399e-04
8.245388e-03
2.525181e-02
3.795162e-02
7.290413e-02
-4.287926e-02
5.585746e-02
2.220096e-02
2.270467e-02
-3.797339e-02
2.019740e-02
-4.760192e-03
-6.322046e-02
-6.754482e-02
-9.647532e-03
-6.004924e-02
-5.984177e-02
-4.007709e-02
-2.801896e-02
-6.570804e-02
-3.884298e-02
-7.080259e-02
-8.607104e-02
-2.854875e-04
4.518980e-02
1.685733e-02
3.901088e-02
5.545099e-02
3.434389e-02
1.148813e-02
3.375150e-02
-6.756824e-02
1.254928e-02
9.856245e-02
5.531580e-03
-3.688678e-02
3.270515e-02
-7.864303e-03
4.093601e-02
-1.643931e-02
-8.031360e-02
1.345904e-03
-3.953199e-02
-5.789158e-02
-2.294669e-02
-2.629557e-02
-1.267980e-02
8.335989e-02
6.049654e-02
2.493797e-02
4.323208e-02
3.993775e-02
-5.148679e-03
-2.672567e-02
-3.984138e-02
-7.819580e-02
7.544141e-03
3.074166e-02
-2.403402e-02
1.872592e-02
1.554028e-02
-2.803052e-02
-2.389847e-02
9.200693e-03
-1.274294e-02
3.611896e-04
2.303806e-03
1.238816e-03
-4.347515e-04
8.295443e-04
-1.927517e-05
-6.959125e-04
-2.702725e-03
-1.921018e-03
-4.341871e-02
-2.171087e-02
2.060194e-02
-3.144844e-02
3.123671e-03
1.286086e-01
6.710489e-03
-1.979107e-02
3.502702e-02
-2.578288e-02
6.346468e-02
2.178174e-02
-6.800168e-02
5.874954e-02
2.446006e-02
-3.791913e-02
-2.523501e-03
-3.638668e-02
1.375037e-02
3.446730e-03
-8.673103e-03
-6.448484e-02
-8.548348e-02
-7.386072e-02
-7.393198e-02
-6.859171e-02
-6.458166e-02
-4.028190e-02
-6.529269e-02
-6.364610e-02
-6.070120e-02
-2.789512e-02
-1.836828e-02
-7.478946e-02
-4.360447e-02
-1.118711e-02
-3.722623e-02
1.128787e-02
2.117465e-02
3.464207e-03
5.144992e-02
-3.179996e-02
6.841610e-03
-2.675146e-02
-3.954301e-02
-5.184876e-02
3.623215e-02
8.238226e-02
5.520190e-02
8.386593e-02
5.372851e-02
2.690125e-02
-1.482735e-02
1.217187e-02
-1.515907e-02
-2.624688e-02
-5.487553e-02
1.835866e-02
-1.035855e-02
-4.233783e-02
2.994559e-02
1.136787e-02
-3.682712e-02
-1.336994e-02
-2.997579e-02
-1.438410e-02
-1.771094e-02
-4.696180e-02
-2.857185e-02
1.067152e-03
-2.244866e-02
-1.803364e-02
6.742400e-04
-2.488734e-02
3.625030e-02
1.132029e-02
-1.348179e-02
1.342496e-02
-2.756986e-02
3.293423e-03
-1.457891e-02
-1.855305e-02
-3.865716e-02
-1.006286e-01
-2.433766e-02
-5.579020e-02
-4.637669e-02
-3.033670e-02
-4.288150e-02
-3.576729e-03
-2.879512e-02
-1.215602e-02
-1.220922e-02
-3.364120e-02
-5.836652e-02
-3.385257e-02
9.076466e-02
-6.092731e-03
3.536362e-02
6.793071e-02
1.101958e-01
8.974202e-02
1.100666e-02
3.774968e-02
3.660699e-02
-3.092660e-02
1.881561e-03
3.551468e-02
1.089953e-02
-7.358278e-02
-4.526554e-02
4.831934e-02
-4.507924e-02
9.015933e-03
8.874743e-02
1.510606e-02
2.380111e-02
-8.334659e-02
-6.827956e-02
1.531957e-02
-4.725258e-02
-6.098021e-03
1.615771e-02
2.019956e-02
8.254462e-02
5.182218e-02
4.548226e-02
2.739325e-02
8.204195e-02
-8.752027e-02
1.790410e-02
7.400037e-02
8.263423e-02
-3.804929e-02
-8.185257e-03
8.536728e-02
5.233789e-02
4.484289e-02
-2.693278e-03
7.279709e-03
1.614447e-02
-1.668367e-02
-2.889422e-02
-4.776734e-02
-2.643765e-03
-4.476693e-02
-6.037728e-02
4.778628e-03
3.939268e-02
-1.423738e-02
-2.822335e-02
5.082301e-03
-3.252452e-02
3.348536e-02
-3.670412e-02
6.476572e-04
9.061138e-02
1.315655e-02
-9.184382e-03
7.896820e-02
1.016812e-01
1.765613e-02
-1.012053e-01
-8.723701e-02
-9.511395e-02
-4.704332e-02
-3.979563e-02
-1.701336e-03
3.217008e-02
7.855146e-03
-2.549941e-02
-2.052512e-02
6.328137e-02
1.026129e-01
-2.369413e-02
2.919313e-03
6.314187e-03
3.597195e-02
8.801416e-03
-7.260670e-02
-8.925496e-02
-1.271254e-01
-1.437459e-01
-4.459753e-02
-1.046164e-01
-8.144937e-02
6.341213e-02
-1.454299e-02
-5.456462e-02
1.094899e-01
1.117254e-01
1.344296e-02
1.109220e-01
9.643565e-02
-8.996964e-03
4.274691e-02
1.273409e-01
6.376018e-02
-2.124613e-02
-2.064426e-02
5.563017e-02
-1.831700e-02
-4.594707e-02
3.630276e-02
6.422491e-02
3.200646e-03
-4.413040e-02
-2.487916e-02
-5.146954e-02
-2.519098e-02
-1.344704e-02
-4.906488e-04
-4.663286e-02
1.226094e-02
-2.327300e-03
-3.320965e-03
6.109192e-04
-5.454351e-02
-2.112309e-02
-6.546859e-03
7.088146e-02
1.979450e-02
-4.930201e-02
7.540003e-02
4.952891e-02
9.143874e-02
8.582439e-02
1.179009e-01
1.828239e-02
-4.040617e-02
2.390889e-02
-5.461573e-02
-9.361265e-02
-6.790654e-02
-6.842671e-02
1.115071e-02
-2.497303e-03
-3.215091e-02
5.555709e-03
-4.659582e-02
-3.301940e-03
-4.945182e-02
-1.634460e-02
-8.535791e-03
7.552496e-03
4.336743e-03
-5.289254e-03
-1.026978e-02
7.649781e-02
-4.649863e-02
-8.690409e-02
-4.496714e-02
-3.122330e-02
2.611137e-02
-4.373103e-02
-6.045220e-02
1.095834e-02
-5.001673e-02
-8.317810e-02
-5.232404e-02
-7.426536e-02
4.057403e-02
4.860723e-02
-1.720586e-02
6.637485e-02
1.044936e-01
8.867633e-02
-9.930492e-03
-2.458221e-02
2.827686e-02
-9.158117e-02
-2.956296e-02
-3.601914e-02
-4.713549e-02
-3.373583e-02
2.063509e-02
1.110808e-02
-1.713069e-02
1.698416e-03
-2.794083e-04
-8.339280e-04
4.136814e-04
-3.431465e-04
-4.322363e-04
9.494670e-04
1.484112e-03
1.066209e-04
1.116749e-03
6.782074e-02
3.123920e-02
-7.811573e-02
2.449202e-01
1.244675e-01
2.200110e-02
1.893885e-02
1.254906e-01
1.087524e-01
-5.929606e-03
1.696313e-02
1.210896e-02
-1.321348e-02
7.124440e-03
-3.880080e-02
-5.121606e-02
-3.547093e-02
-4.914171e-02
-6.519229e-02
-5.826937e-02
2.982252e-02
-2.576669e-02
-2.993029e-02
3.151820e-02
-6.668813e-03
2.133708e-02
-1.680847e-02
-1.919260e-02
-3.463614e-02
-2.307143e-02
-3.005903e-02
-5.566753e-02
-5.346759e-02
-1.908431e-03
1.139073e-02
-1.342489e-02
2.721720e-01
2.439923e-01
2.257699e-02
3.606281e-01
5.032061e-01
1.790104e-01
1.882055e-01
3.982589e-01
2.003415e-01
-7.889657e-03
3.481528e-02
1.053615e-01
-3.242997e-02
-1.269298e-02
-1.186513e-01
5.858295e-03
-1.008243e-01
-7.002113e-02
-3.389298e-02
-2.756505e-02
-3.097671e-02
5.350420e-03
-3.349439e-02
-6.907967e-02
1.186765e-01
1.744090e-02
-4.688898e-02
-4.723296e-03
2.269400e-02
5.954993e-03
-3.281623e-02
-5.649048e-03
-4.630611e-02
-9.878933e-02
-7.769569e-02
-7.210612e-02
-2.521943e-02
-1.356513e-02
1.256181e-02
1.671705e-02
-2.416075e-02
-1.823862e-02
-6.188582e-02
-1.483058e-02
7.516276e-04
-2.831195e-02
4.363851e-03
1.601906e-02
-2.829571e-02
-1.190039e-02
5.454359e-03
3.029147e-02
5.140452e-02
4.437652e-02
3.029202e-02
3.507632e-03
-1.268714e-02
-1.190285e-02
-1.124943e-02
-9.204864e-03
-2.546382e-02
-1.121826e-02
-7.233934e-03
2.175853e-02
6.115455e-04
4.013939e-03
1.644683e-02
-1.929000e-02
-2.621008e-02
8.689069e-03
-3.077140e-02
-4.188259e-02
-4.674773e-02
-6.153837e-02
-4.133129e-02
-3.963984e-02
-4.626667e-02
-2.974642e-02
-4.666032e-02
-3.747385e-02
-1.293486e-02
-4.465281e-02
-1.371706e-02
2.043131e-02
-4.238055e-02
-2.357570e-02
-1.245793e-02
-2.103957e-02
-3.034729e-02
6.299316e-03
9.675422e-03
-3.653502e-02
-2.508878e-02
6.236716e-03
-4.248205e-02
-7.911443e-02
-4.670524e-02
-8.275774e-02
-4.872721e-02
1.239084e-02
5.359275e-03
-3.848541e-04
-2.502962e-02
-4.396443e-02
-4.725949e-02
-3.143569e-02
-4.386312e-02
-5.608256e-02
-3.744184e-03
-4.022378e-02
-3.250483e-02
2.932823e-02
-9.970030e-03
-1.852928e-02
-3.307839e-04
-5.208937e-02
-4.792908e-02
1.626696e-02
-2.372652e-02
3.102592e-03
-8.975393e-03
-1.771589e-02
1.319695e-02
-9.247297e-03
-2.288504e-02
-4.996526e-03
-8.403136e-03
1.182319e-02
-9.249111e-04
2.510803e-02
3.424575e-02
-1.675008e-03
5.396049e-02
4.791267e-02
2.708742e-02
-4.021678e-02
-2.276927e-02
-6.195848e-03
-4.009657e-02
1.314561e-02
5.314389e-02
-1.496120e-02
-4.503848e-03
3.738697e-03
8.990067e-04
2.031299e-02
-1.466029e-02
-2.984821e-02
6.418223e-03
-1.336526e-02
-1.907082e-02
3.054495e-03
4.159101e-03
3.385652e-04
-5.863205e-04
-1.029437e-02
2.218587e-03
2.928390e-02
2.495442e-02
6.369859e-03
-8.823305e-05
2.744762e-02
-3.904820e-02
-5.364268e-02
-2.977185e-02
-9.207472e-03
-3.705957e-02
-3.042756e-02
1.601008e-02
2.311100e-02
-3.146197e-02
2.882997e-03
3.720613e-02
1.872791e-02
1.249955e-03
7.868345e-03
-2.967689e-02
-2.467060e-02
-3.533068e-02
-7.674336e-02
-6.898654e-02
-8.688865e-02
-3.583623e-02
-1.065992e-02
-2.059533e-02
-9.867520e-03
-1.761532e-02
-2.097381e-02
-4.003105e-02
-9.306142e-03
-3.915782e-02
-2.638139e-03
3.582893e-02
-2.471223e-02
-1.916066e-02
4.315063e-02
-3.593326e-02
-2.564669e-02
1.004183e-03
-5.953507e-03
1.536066e-02
-1.689471e-02
9.566733e-03
2.634815e-02
4.983260e-02
2.006635e-02
-1.178219e-02
-1.453100e-02
-3.911758e-02
-8.783802e-03
-2.517629e-02
-6.244088e-02
-2.553423e-02
-2.544565e-02
-4.869070e-02
-2.720069e-02
-7.354253e-03
-6.056803e-02
-1.453014e-02
-2.138097e-02
-7.853462e-02
-6.632719e-02
4.437447e-03
-7.711903e-02
-6.923100e-02
-1.597810e-02
-4.836262e-03
-3.000859e-02
-1.421672e-02
-1.088725e-02
-4.152413e-02
3.194319e-02
2.000944e-02
-3.083630e-03
1.007928e-02
-3.127189e-02
-1.117711e-02
-2.761486e-02
-5.897512e-02
-4.185607e-02
-1.552243e-02
-4.198518e-02
-9.874738e-03
2.454231e-03
1.063194e-03
-7.903085e-04
-7.476598e-04
-3.150983e-04
-1.441669e-04
-6.106011e-04
-1.159183e-03
-6.333086e-04
-1.268890e-02
-1.538088e-02
-2.079546e-02
-7.705400e-03
-1.354509e-02
-2.436031e-03
-1.643445e-02
-1.836970e-02
-8.157568e-03
2.132123e-02
4.877119e-02
1.320493e-02
-8.747968e-03
3.198208e-02
-2.251899e-02
-1.896840e-03
5.184864e-03
-2.726196e-02
-2.495896e-02
-3.053652e-02
-2.914921e-02
-2.365820e-02
-4.332880e-02
-3.615699e-02
-2.824210e-02
-3.699396e-02
-4.084849e-02
1.568922e-02
1.995309e-03
5.868810e-03
1.390899e-02
-1.414197e-02
-1.841757e-02
1.291963e-02
-1.454787e-02
-3.057953e-03
1.778607e-02
6.893642e-02
5.186732e-02
-1.332683e-02
2.126812e-02
5.467173e-02
1.748086e-02
1.556826e-02
4.934807e-02
-5.428399e-02
-6.973545e-03
3.525927e-02
-6.605096e-03
2.734266e-02
3.206515e-02
1.939634e-02
-1.307363e-02
-3.979209e-02
-5.397730e-02
-6.836636e-02
-3.620232e-02
-5.126802e-02
-5.205245e-02
-2.734379e-02
-3.315201e-02
-4.488127e-02
-2.172367e-02
-2.619299e-02
-2.009813e-02
-2.590702e-02
3.791729e-02
3.150818e-02
5.586788e-03
3.103393e-02
4.723027e-02
2.105381e-02
-8.568672e-03
1.796697e-02
-1.553733e-03
-2.991993e-02
4.245489e-03
-7.503625e-03
-3.466668e-02
-1.353413e-02
-1.128885e-02
-6.691846e-03
-1.103492e-02
1.031338e-02
-5.754001e-02
-1.379902e-02
-2.687458e-02
4.998503e-02
4.843554e-03
-1.993529e-02
-2.333852e-02
3.538583e-02
1.696527e-02
8.576191e-05
2.281391e-02
1.085495e-03
2.775402e-02
1.561840e-02
-1.980717e-02
-1.807287e-02
-3.132523e-02
-4.900089e-02
1.754753e-02
1.477153e-03
1.155786e-02
2.312447e-02
2.307773e-02
3.452371e-02
1.560170e-02
1.163604e-02
-1.020556e-02
5.377818e-02
2.460164e-02
1.948564e-02
3.129047e-02
-5.337416e-03
6.778010e-03
-3.595859e-03
3.275789e-02
1.746593e-02
1.525119e-02
3.936541e-02
4.824478e-03
1.614089e-02
-1.683225e-02
-4.300485e-02
-4.269024e-02
-3.651888e-02
-5.869373e-02
-2.979970e-02
-3.445189e-02
-9.460669e-02
-2.191864e-02
-5.070221e-02
-6.553877e-02
-3.877624e-02
-3.617267e-02
-2.208835e-02
-3.139087e-02
1.287260e-02
5.840525e-02
-4.860235e-02
-3.114864e-04
5.196345e-02
-5.880852e-03
-2.692286e-02
3.537866e-02
8.707962e-03
-3.216375e-02
5.232777e-02
-2.800562e-02
-6.359332e-02
4.771777e-02
-2.358200e-02
-3.147724e-02
-6.675223e-03
-3.044411e-02
-2.779575e-02
3.390346e-03
-5.247576e-02
-2.879389e-02
-1.847283e-02
-6.105492e-02
-1.534387e-02
5.386813e-03
-2.827713e-02
-2.604268e-02
-3.338879e-02
-5.220556e-03
-2.112574e-02
-2.152156e-02
-1.055002e-02
-4.042792e-02
-1.457883e-02
-8.454186e-03
-3.955940e-02
-3.806231e-02
-1.604510e-03
-1.334703e-02
-4.732446e-02
-4.450593e-03
-4.975455e-03
-7.424343e-03
-5.513193e-03
-5.901596e-03
2.298375e-02
-2.635466e-02
-2.077015e-02
2.284596e-02
6.808574e-03
-1.036239e-02
5.256166e-03
-7.290626e-03
-2.810726e-02
-2.282459e-02
-2.677685e-02
-1.799956e-02
-1.742170e-02
-1.202765e-02
2.763669e-02
5.975369e-02
-5.759288e-02
-3.669881e-03
1.169562e-02
-3.291037e-02
2.256430e-02
6.635541e-03
-3.218671e-02
-6.485698e-02
-5.435356e-02
-1.488546e-02
-3.791212e-02
8.099161e-03
2.783890e-03
3.080529e-02
3.584356e-02
3.086548e-02
2.353477e-02
4.722299e-02
4.990258e-02
4.668289e-02
6.551979e-02
4.347975e-02
4.915325e-02
-3.326722e-03
-5.753076e-02
-4.604502e-02
-1.066133e-02
-3.406308e-02
-3.401838e-02
4.809082e-03
-1.990553e-02
-3.228001e-02
3.208914e-03
-3.222346e-02
-3.339695e-02
-2.567437e-02
1.003064e-02
-6.275255e-03
-2.390319e-02
-3.026679e-02
-5.788623e-02
-4.369970e-02
3.380891e-02
5.867113e-03
-1.245863e-02
1.436481e-02
-1.306939e-02
-8.521561e-03
3.017708e-02
3.586273e-02
4.615509e-02
-1.364980e-02
-7.898353e-03
5.877044e-02
-2.644597e-03
-9.418939e-03
1.053130e-01
