1.083869e-01
2.221764e-02
1.858063e-02
3.487912e-02
4.902795e-02
4.436293e-02
-2.972854e-02
-1.671188e-02
5.813396e-03
9.237630e-02
1.296118e-01
7.329131e-02
-5.129163e-02
1.286761e-02
-3.077998e-02
-1.269320e-01
-1.665824e-01
-1.212684e-01
1.881173e-02
5.690174e-03
7.877616e-03
1.909165e-02
-1.438626e-03
-3.816951e-03
-1.974778e-03
-1.700245e-02
-2.512157e-02
-2.540540e-02
1.129353e-01
1.735281e-01
1.974326e-02
9.592620e-02
1.257393e-01
1.044572e-01
8.153699e-02
1.463460e-02
3.091801e-03
1.666618e-01
-2.102715e-01
2.964653e-01
4.344915e-01
1.604124e-01
7.251323e-02
1.908129e-01
-8.079710e-03
8.455671e-02
6.348494e-02
-1.595974e-01
-7.587755e-02
2.820793e-02
-2.968767e-02
-1.225638e-01
-9.557371e-02
-8.587690e-02
1.931171e-01
6.278995e-02
2.651352e-03
1.586870e-01
-5.423517e-03
-8.028581e-02
9.277434e-02
9.269464e-02
6.085824e-02
-1.756081e-01
-3.491768e-02
8.931171e-02
-1.253508e-01
-7.158119e-02
7.207862e-02
4.726285e-02
1.212078e-01
1.637051e-01
3.196349e-02
7.599673e-02
4.292150e-02
-1.800713e-02
9.651949e-02
9.880279e-02
-1.174748e-02
8.313066e-02
1.120322e-01
-8.224893e-02
-3.469805e-02
9.389476e-03
3.680697e-03
-1.575713e-02
-2.909861e-02
9.452204e-02
7.836984e-02
8.078749e-02
-1.650344e-02
9.019990e-03
-7.584167e-02
-6.054583e-02
2.984100e-03
-4.463005e-02
-7.109012e-02
-1.540186e-02
-4.858093e-02
-2.480830e-03
3.499135e-02
-1.270819e-02
-5.213830e-02
-3.835769e-02
-3.369158e-02
-8.945909e-02
-1.028153e-01
-8.765791e-02
-1.981468e-02
1.068094e-03
-2.262033e-02
-4.566834e-02
-1.358062e-01
3.167357e-02
-1.343545e-02
-5.311546e-02
-4.402269e-02
-3.571300e-02
-1.475147e-02
-3.369410e-02
5.140606e-02
1.008041e-01
1.160094e-01
-1.574270e-02
9.937752e-03
-2.124139e-03
-8.846289e-03
-2.456546e-03
-1.942145e-04
-5.652715e-02
-5.270511e-02
-6.106432e-02
-1.358654e-02
-1.619394e-02
-4.344056e-02
-5.974632e-02
-2.500220e-02
6.505971e-02
7.108754e-02
3.424805e-02
1.931141e-01
4.952461e-03
-2.216774e-02
-4.072751e-02
5.099874e-02
8.026298e-03
5.868402e-02
-1.358221e-01
-1.445590e-01
-8.490776e-02
-8.153075e-02
-4.940555e-02
-1.445934e-02
-9.929017e-02
-4.929342e-02
-1.786401e-01
-1.928957e-01
-3.582672e-02
-9.317268e-02
-1.118463e-01
1.378069e-01
1.185821e-01
-8.691655e-02
-3.822460e-02
-3.724991e-02
-7.044403e-02
-3.518938e-02
-5.171006e-02
-3.150969e-02
-5.240635e-03
-3.384527e-02
9.822154e-02
1.391418e-01
9.690794e-02
3.006204e-02
-8.261921e-03
5.118549e-04
-4.757207e-02
-8.899961e-02
-1.780488e-02
2.739281e-02
9.458695e-03
-9.581421e-02
-6.269112e-02
-2.653715e-01
-5.750543e-02
7.075315e-02
-7.475728e-02
1.083568e-01
-1.414389e-01
-1.380895e-01
-9.267146e-02
-5.967130e-02
-6.396260e-02
-4.906666e-02
-1.119932e-01
-9.582343e-02
-9.806634e-02
-1.133401e-01
8.336151e-04
-6.112750e-04
7.589028e-02
-2.984540e-02
1.921186e-02
9.317993e-02
7.989350e-02
-1.934196e-03
6.013262e-02
5.949353e-02
7.848712e-02
1.231823e-01
3.922534e-02
4.046964e-03
-1.058692e-01
-2.386710e-01
-2.965621e-01
4.872249e-02
3.984703e-02
6.430660e-02
5.195182e-02
4.997269e-02
1.689607e-03
4.449981e-02
1.066977e-01
4.614103e-02
-4.104759e-02
8.906352e-03
5.334412e-02
8.108303e-02
1.887696e-01
1.252367e-01
1.034614e-01
1.798513e-01
6.866986e-02
-1.145243e-01
-1.787087e-01
-1.216465e-01
-8.903146e-03
1.161323e-02
2.674039e-02
5.010422e-02
5.901802e-02
5.284609e-02
-1.896191e-02
3.480674e-02
5.981461e-02
5.830916e-02
9.378940e-02
1.015165e-01
1.340931e-02
8.063240e-02
5.436758e-02
-1.055069e-01
7.597704e-02
-6.179720e-02
-4.507958e-02
1.090525e-01
9.827374e-02
-2.291248e-02
-4.985665e-02
1.655498e-03
8.480989e-02
8.755048e-02
2.404184e-02
5.012121e-02
4.365886e-02
3.707911e-02
-2.605233e-02
-1.899353e-02
2.786162e-02
-3.347285e-02
-5.998082e-02
-1.008429e-02
-4.310977e-02
8.949412e-02
-3.004382e-02
-5.312188e-03
1.153076e-01
4.261715e-02
-2.610580e-02
-3.129390e-02
-1.279023e-02
-7.214928e-02
-6.714301e-02
-8.867048e-02
-9.387482e-02
-6.608469e-02
-7.357620e-02
9.503076e-04
5.564678e-02
1.836883e-02
2.863014e-02
2.734360e-02
-2.029044e-02
-9.683398e-03
-6.252076e-02
-9.689071e-02
4.365437e-02
5.213926e-02
-3.944912e-02
8.018243e-02
2.679513e-02
-3.281774e-03
5.414056e-02
-3.049340e-02
-5.256755e-02
-3.982072e-02
-2.324146e-02
-3.209852e-03
-3.663207e-02
-1.041613e-02
2.153678e-02
-2.960003e-02
-1.589451e-02
1.233575e-02
4.062781e-02
1.847183e-01
1.340985e-01
5.212491e-02
1.825875e-01
1.115690e-01
2.554826e-02
1.320389e-01
1.972481e-02
-1.341465e-01
-1.448417e-01
1.189533e-01
-1.009127e-01
-9.630316e-02
1.827387e-01
-1.516506e-01
1.170811e-02
1.408273e-01
-7.170750e-02
-4.387117e-02
9.151272e-03
-3.096373e-02
-1.930961e-02
-1.318185e-02
4.395014e-02
7.792719e-02
5.216197e-02
3.137466e-03
-9.580909e-02
7.001727e-02
-4.827981e-02
-4.739188e-02
2.459642e-02
-8.193399e-02
-4.261260e-02
3.405093e-02
-2.011267e-02
-7.316965e-02
-6.436819e-02
1.014719e-02
-4.749454e-02
-6.692398e-02
-1.637152e-02
-5.139886e-02
-6.136557e-02
-6.489981e-03
-4.568687e-02
-7.439798e-02
-7.853044e-03
-1.708119e-02
-3.902955e-02
-2.015909e-03
-7.435049e-03
-4.472446e-02
1.066302e-01
9.712477e-02
-1.413390e-02
3.188935e-02
7.756700e-02
-4.313878e-02
5.956294e-02
8.311543e-02
-1.840991e-02
-9.791034e-02
-1.504942e-02
2.673702e-02
-1.021639e-01
-1.689909e-02
8.285588e-03
-1.063684e-01
-3.919987e-02
-3.067210e-02
-2.104902e-02
4.339980e-03
3.840563e-02
-2.749874e-02
5.241318e-02
1.228859e-01
-8.579753e-03
1.023737e-01
1.638083e-01
-5.742251e-02
-2.190669e-02
1.268664e-02
-4.069292e-02
-2.348343e-02
6.571800e-02
-1.006325e-01
-4.112442e-03
2.826009e-02
1.997624e-02
9.976635e-02
4.787506e-02
2.496072e-02
7.337717e-02
1.682526e-02
2.255728e-02
2.076785e-02
3.525710e-03
-2.605976e-02
9.534170e-02
1.054126e-02
-1.458720e-03
7.098864e-02
3.967237e-02
-2.497073e-02
2.170498e-02
3.105022e-02
4.402159e-02
5.287751e-02
1.615873e-01
-4.805899e-02
-2.467935e-02
2.454623e-02
-7.632484e-02
4.422941e-02
-1.851198e-02
-3.101801e-02
-3.148429e-02
-1.011387e-02
-1.597776e-02
2.951035e-02
5.960683e-02
3.860535e-02
5.792945e-02
6.796622e-02
-1.168840e-01
-1.451547e-01
5.044234e-02
-9.819569e-02
-7.338845e-02
1.132445e-01
-3.752132e-02
4.433444e-02
8.785588e-02
6.060185e-03
1.610711e-02
3.685436e-03
1.696390e-02
-1.042096e-02
-2.340967e-02
2.326107e-02
-3.221650e-03
-1.903991e-02
-5.450482e-02
-9.720390e-03
2.692381e-02
-7.547753e-02
-1.522793e-02
5.734892e-02
-3.229777e-02
-5.454346e-02
2.198315e-03
1.116481e-02
1.076892e-01
1.346052e-01
-1.248901e-01
7.310977e-03
9.466404e-02
-7.615817e-02
-7.641114e-02
4.545095e-02
-1.400004e-01
-1.329494e-01
-7.878789e-02
-4.962634e-02
-4.500949e-02
-5.017213e-02
8.852448e-02
3.795085e-02
-1.767400e-02
1.674833e-01
7.144617e-02
-2.569989e-02
8.221077e-02
-2.340976e-02
-1.445177e-01
-2.254930e-02
-1.341251e-01
-2.637847e-01
-3.650663e-02
-8.075058e-03
-4.253797e-02
9.985472e-02
-1.421918e-02
-1.581321e-01
2.641672e-02
-7.661872e-02
-1.611364e-01
-7.820819e-02
-3.666648e-02
-7.933963e-02
-5.651682e-02
-1.053410e-01
-9.076384e-02
-5.467746e-02
-1.089726e-01
-5.886458e-02
1.916044e-02
-1.464581e-02
-1.132142e-02
9.554914e-02
1.375517e-02
-4.885795e-02
-9.912617e-03
-5.792441e-02
-1.086352e-01
-5.014560e-02
3.343225e-02
3.914778e-02
-2.202651e-02
2.427357e-02
2.809582e-02
-1.230346e-02
1.745090e-02
2.195162e-02
-1.288611e-01
-1.073058e-01
-7.769686e-02
-7.037570e-02
-6.257892e-02
-4.913960e-02
-1.588638e-02
-2.343461e-02
-5.518759e-02
-2.918182e-02
-4.955299e-02
-1.682482e-01
-2.332023e-02
-1.213303e-02
-1.222583e-01
-1.200580e-01
-1.117501e-01
-8.209338e-02
-3.111591e-02
-5.846299e-02
-3.905554e-02
-5.551887e-02
-8.178754e-02
-4.931907e-02
-6.123786e-02
-7.217965e-02
-2.199335e-02
-3.745181e-02
-3.871931e-02
-1.863738e-02
-2.327487e-02
-7.190359e-02
-5.060808e-02
-1.026248e-02
-7.351396e-02
-4.689750e-02
-1.098776e-01
-3.908049e-02
-4.925482e-02
-8.684186e-02
-9.016533e-02
-8.600093e-02
3.743862e-04
-7.483282e-02
-1.260120e-01
-2.213496e-01
-2.769856e-01
-2.515334e-01
-4.961480e-02
-2.674383e-02
-4.736458e-02
2.546367e-01
2.848283e-01
1.388793e-01
-6.863431e-02
6.066167e-02
3.574619e-02
3.526671e-02
-3.582330e-02
3.799029e-02
-6.657489e-02
-1.169747e-02
5.812387e-02
-5.318180e-03
-5.845737e-04
-1.280451e-02
5.471256e-02
3.416671e-02
-3.326238e-03
1.844894e-02
2.062911e-02
-8.528841e-03
3.508551e-02
-4.753282e-02
1.099977e-02
1.285581e-01
1.582174e-02
-4.153859e-03
8.829130e-02
-7.724774e-02
-1.086792e-02
3.833151e-02
3.341574e-01
3.881730e-01
-3.411264e-02
2.401371e-01
2.186064e-01
-1.863519e-01
-3.783453e-01
-1.220570e-01
-1.893828e-01
-3.074917e-02
4.816567e-03
-1.539872e-01
-1.656021e-01
-1.069036e-01
-2.360452e-01
-2.912752e-01
-3.040275e-01
1.128175e-01
4.327917e-02
-1.644128e-02
-9.827115e-02
-6.340025e-03
-4.601831e-02
-1.688437e-02
1.977380e-02
-5.742370e-02
-2.000294e-01
-3.121400e-01
-1.912982e-01
-6.689705e-02
-1.291907e-01
-2.967345e-02
1.282386e-01
1.996687e-01
1.901291e-01
5.623513e-02
9.342239e-02
7.410048e-02
5.180031e-02
1.453243e-02
9.602396e-02
1.874200e-02
-4.166957e-02
2.864468e-02
-2.819979e-02
-1.091930e-01
-5.807090e-02
-1.991070e-02
-1.320932e-01
-8.301657e-02
1.109423e-01
1.491703e-01
1.640824e-01
-8.707850e-02
-7.048424e-02
-1.083444e-01
-5.736763e-02
-4.330584e-02
-4.146668e-02
-1.238725e-01
-6.244159e-02
-9.876259e-02
-4.970488e-02
1.718466e-02
2.118601e-02
-5.797311e-02
-1.007067e-01
-1.150235e-01
-1.141025e-01
-1.604735e-01
-1.958616e-01
-8.703031e-02
-2.279675e-01
-1.570450e-01
6.117022e-02
-2.428343e-02
-2.906633e-01
1.250272e-01
2.024872e-01
2.210731e-02
-7.333045e-02
-3.423850e-02
-3.334488e-02
1.282496e-02
3.976120e-02
2.743554e-02
-3.374097e-02
-7.385460e-02
-5.128342e-02
-7.799538e-02
-7.055485e-02
-4.411001e-02
-6.607234e-02
-4.387072e-02
1.142715e-02
-7.242507e-02
4.523852e-02
3.715702e-02
1.950606e-03
-1.584912e-01
4.901046e-02
-2.297208e-02
-5.699927e-02
-6.198921e-02
-4.992684e-02
-1.344900e-01
-1.779529e-01
1.627825e-01
1.361901e-01
9.475035e-02
1.149145e-01
1.068278e-01
8.989482e-02
9.907673e-02
7.245070e-02
1.511361e-01
-2.820539e-02
8.274731e-02
-3.554079e-02
-1.540111e-01
1.838698e-02
-6.593323e-02
-8.334133e-02
7.197218e-03
-3.163054e-02
2.595770e-02
1.254763e-01
5.687336e-04
3.623588e-02
1.306388e-01
1.839231e-02
5.605300e-02
1.463113e-01
4.012723e-02
3.141932e-02
2.041704e-02
-1.218747e-01
1.204467e-01
1.532789e-01
6.500320e-02
4.541523e-02
7.670301e-02
-4.290677e-02
-1.702494e-01
5.363635e-03
-1.459534e-01
3.604617e-02
1.463397e-01
2.442913e-03
-1.174104e-01
-1.994486e-03
-1.708328e-01
3.330333e-02
-1.505476e-02
6.186050e-03
7.359897e-03
-5.155366e-02
-4.029272e-02
2.535523e-02
-3.672202e-02
-4.077030e-02
-6.255484e-02
5.198394e-02
3.083730e-02
3.178425e-02
1.859559e-02
-1.019855e-01
7.674625e-03
1.109276e-01
-7.457864e-02
2.968950e-02
5.356138e-02
-7.028890e-02
5.210076e-02
1.909986e-01
7.422744e-02
-8.642760e-02
1.610731e-01
-1.137058e-02
-2.298751e-02
-5.549245e-02
4.918295e-02
-2.212057e-02
-4.785480e-02
2.819380e-02
4.216209e-02
8.749416e-04
4.779077e-02
8.716131e-04
-5.671065e-03
1.897369e-03
2.509546e-02
5.917234e-02
4.978693e-02
-6.960562e-02
-2.923589e-02
-6.377612e-03
-4.340291e-02
2.035689e-02
-4.706688e-02
2.102681e-02
8.529525e-02
-8.411824e-03
-5.231895e-02
-5.632380e-03
-9.884727e-02
-1.624554e-02
4.931846e-02
-2.610886e-03
-1.599710e-02
2.831705e-02
-3.358018e-02
2.807054e-02
7.264259e-02
3.123362e-02
3.516107e-02
1.668763e-01
-2.681275e-02
8.118577e-02
1.704309e-01
9.455007e-02
-1.162497e-01
-7.286213e-02
2.767168e-02
1.158518e-01
1.494259e-02
1.340739e-02
3.976544e-01
2.856969e-01
2.958513e-01
1.836156e-01
7.724460e-02
5.991124e-02
-7.660078e-03
3.959768e-02
2.261210e-02
1.316453e-02
2.975299e-02
2.082145e-02
9.940982e-02
3.511401e-02
9.421168e-02
-3.791149e-02
1.144313e-01
-1.192255e-01
2.071718e-01
3.254699e-01
2.014088e-01
-3.872817e-02
1.803750e-01
-1.207012e-01
-3.943905e-03
2.925744e-03
-5.543009e-04
1.966378e-03
2.111374e-03
3.693974e-04
-2.189113e-03
2.080475e-03
5.146761e-05
5.102548e-04
4.160898e-03
-1.257818e-03
-1.841051e-03
2.101656e-03
1.223239e-03
1.359967e-03
6.163275e-04
3.619789e-04
-1.665541e-04
-7.472048e-04
7.794850e-04
-3.205032e-03
-1.675199e-04
-7.467254e-04
1.688694e-03
-8.132103e-04
-6.688032e-04
-3.652725e-04
2.241033e-03
-3.522078e-04
-2.353934e-03
-7.271135e-04
-1.331502e-04
2.475762e-04
6.297118e-04
-5.138167e-04
2.386269e-03
-1.256340e-03
2.252128e-03
2.695466e-03
-8.228076e-04
1.443084e-03
-2.697266e-03
3.289122e-03
-2.441860e-03
-3.112068e-04
3.692162e-03
-9.010680e-05
-8.804491e-04
8.309777e-04
4.419268e-04
-2.567237e-03
4.560432e-03
-1.137925e-04
-1.690749e-03
9.114077e-04
7.366381e-04
3.073329e-04
1.206825e-03
2.177048e-04
2.756201e-03
1.205702e-03
-2.263388e-03
-2.080934e-03
2.080787e-03
2.155240e-05
1.942213e-03
1.274814e-03
-1.252360e-04
-2.628654e-03
-1.390699e-03
-1.439469e-04
1.369258e-04
1.955660e-03
-1.298899e-03
4.467139e-03
2.252023e-03
1.045035e-03
-3.177308e-03
-1.566578e-03
-1.193982e-03
-3.079813e-03
-1.878617e-05
-2.709692e-03
-1.759646e-04
-9.973927e-04
2.539595e-03
-9.086502e-04
-6.895934e-04
-8.043558e-04
9.616296e-04
-2.653172e-03
-1.597823e-03
-1.607045e-03
-2.163689e-03
1.948871e-03
2.093911e-03
-3.522743e-03
-3.338968e-03
3.005525e-03
8.180242e-04
2.777551e-03
-2.836507e-04
1.872010e-03
6.598940e-04
-7.421418e-04
2.464567e-03
-1.727069e-03
5.448995e-04
-1.970833e-03
1.096122e-03
-1.115839e-03
-5.148088e-05
-7.360526e-04
-5.302054e-04
3.716007e-04
1.569286e-03
4.167753e-04
1.499590e-03
5.884391e-04
-8.143149e-04
-8.751533e-04
-1.215299e-03
1.271692e-03
-1.533957e-03
1.652939e-03
4.438748e-03
-3.552878e-04
5.153495e-04
-7.787289e-04
-5.954581e-04
3.691042e-03
3.865793e-04
-1.119523e-03
-2.271124e-03
-1.127401e-03
-2.413987e-03
-3.743158e-05
-1.532957e-03
-2.013359e-03
-5.060001e-03
1.832594e-03
2.837386e-04
-2.003724e-03
3.418015e-04
-1.336352e-02
2.617425e-02
4.371095e-03
-8.006198e-03
5.818735e-03
-1.132495e-01
-8.845068e-02
-6.830113e-02
4.371813e-02
-5.817890e-03
2.000346e-01
1.751720e-02
-2.669647e-02
-8.933874e-03
-2.233935e-02
-1.201876e-01
-1.357339e-01
3.945196e-02
5.601695e-02
8.759985e-02
-2.405027e-03
3.380592e-02
5.137390e-02
-3.329584e-02
-4.091529e-02
-3.164874e-02
-3.769769e-02
-9.321563e-02
-2.236609e-02
-5.899793e-03
1.704295e-02
6.515580e-02
-1.396627e-02
-1.649204e-02
1.236826e-02
1.535213e-01
2.118959e-02
-1.131675e-01
-5.849729e-02
-3.220224e-02
-5.533675e-02
-1.007943e-01
-1.902134e-02
2.712182e-01
1.040151e-01
5.139862e-02
8.212771e-02
-3.063954e-02
1.249447e-02
-3.993121e-03
-1.086733e-01
-6.698361e-02
-1.036075e-01
9.728745e-02
1.596339e-01
-5.932177e-02
-6.960309e-02
-4.176642e-02
-1.372545e-02
-5.353038e-02
-1.595779e-01
1.284258e-02
1.100807e-01
6.548586e-02
-9.959728e-02
-1.346007e-02
1.047962e-01
1.141826e-01
-6.086544e-02
-3.821273e-02
-4.081680e-02
-1.992669e-02
2.895975e-03
1.061720e-01
-1.654190e-02
7.123726e-03
-4.145049e-03
-4.044260e-03
-1.641184e-02
-6.223317e-02
5.384902e-02
1.761933e-02
-4.800883e-03
-4.053385e-02
-8.890860e-02
-1.006790e-01
3.970417e-02
-2.517220e-02
-2.974297e-02
4.579620e-02
1.598227e-01
1.949197e-01
-1.082035e-01
-7.856697e-02
2.649884e-02
3.506256e-03
-1.337175e-01
-1.510267e-01
-6.198033e-02
-5.437386e-02
-5.773228e-02
-8.430080e-02
-7.693503e-02
-8.000832e-02
-2.677364e-02
-7.483797e-02
-1.051441e-01
-1.944312e-02
-1.823871e-01
-2.015721e-01
-4.321460e-02
-2.679062e-01
-3.470234e-01
-5.129981e-02
2.585912e-01
3.691622e-01
-1.460743e-02
1.030249e-02
5.523271e-03
4.247314e-02
6.136407e-02
6.635729e-02
3.773426e-03
2.237262e-02
6.405022e-02
-1.453062e-02
-1.787730e-03
1.199027e-01
-4.526103e-02
-5.819777e-02
-5.170031e-02
1.424339e-02
-9.808617e-02
-1.218178e-01
9.921913e-02
-4.799211e-02
-9.102355e-02
9.552464e-02
1.464645e-01
7.880910e-02
-1.548647e-02
9.952253e-02
1.496807e-01
3.111560e-03
-1.775452e-04
3.851092e-04
-2.141100e-03
2.079460e-03
2.064436e-03
-1.437130e-04
2.754853e-03
1.847041e-03
-1.935632e-03
1.903142e-03
2.702354e-03
2.605052e-03
-1.683105e-03
-1.607817e-03
1.396261e-03
1.351304e-03
1.676564e-03
2.089357e-05
-1.002687e-03
-3.269124e-03
-1.179266e-03
-1.471697e-03
1.337200e-03
-1.578701e-03
-2.054205e-06
2.526112e-04
-1.883630e-04
-3.593880e-04
-2.313744e-03
-3.631509e-03
2.684749e-03
-1.640379e-04
-1.481888e-04
-1.769186e-05
-2.585242e-03
4.647440e-04
4.711149e-05
1.344911e-03
-3.462277e-04
1.929277e-04
1.572436e-03
1.580524e-03
1.022130e-03
-1.990414e-03
-1.850270e-03
-3.029140e-03
9.364501e-04
-1.178859e-03
1.621133e-03
6.040749e-04
-7.366973e-04
2.323734e-03
-2.166139e-03
-3.719491e-04
4.164505e-03
6.614229e-04
8.141554e-04
4.516466e-03
4.961768e-04
-2.833646e-03
-1.277781e-03
8.162358e-04
-1.241753e-03
1.973774e-03
-2.156772e-04
7.988528e-04
6.089168e-04
-1.570794e-03
2.992749e-03
7.369347e-04
1.049223e-03
2.193654e-03
-4.400414e-03
2.095047e-04
3.661652e-04
3.098924e-03
-8.178163e-04
-4.624971e-04
2.142017e-03
-2.120148e-03
-6.021417e-04
4.893591e-03
-1.146631e-03
-2.298081e-04
2.749005e-03
-2.555421e-03
-1.394797e-03
-3.604306e-03
-6.477216e-04
2.716447e-03
2.252622e-03
2.693769e-03
-1.426176e-05
1.695723e-03
5.988824e-04
-1.338122e-03
4.135808e-03
-4.217295e-04
-1.417654e-05
-2.686986e-03
5.415885e-04
-3.566702e-03
4.034027e-04
-3.492280e-05
7.455869e-04
4.599242e-04
-2.208826e-03
-2.597415e-03
5.663777e-05
1.217331e-03
-8.699059e-04
1.756663e-03
-2.573434e-03
1.327960e-03
-2.916032e-03
2.048265e-04
-9.235055e-04
-1.397692e-03
-9.542053e-05
1.289877e-03
-4.476014e-04
-6.995667e-04
3.381390e-03
-2.679436e-04
-2.843455e-03
-2.976695e-03
6.844943e-04
1.069870e-03
-2.881668e-04
4.828644e-05
3.168168e-04
3.354300e-03
2.532890e-04
-2.768333e-04
6.808938e-04
7.447780e-04
-1.336519e-03
-1.710463e-03
-6.794586e-04
-9.215947e-04
3.031060e-03
-8.487528e-04
-1.144112e-03
-6.204402e-02
-2.100259e-01
-2.079818e-01
8.996605e-02
4.451312e-02
-7.749754e-03
8.699704e-02
2.005492e-01
1.733646e-01
1.440607e-02
-1.005230e-02
-1.413470e-01
5.944932e-02
8.890276e-02
5.326224e-02
-7.467537e-02
1.032257e-01
1.458021e-01
-5.006054e-02
-5.788798e-03
-3.717795e-02
-3.614955e-02
7.606603e-03
-2.725777e-02
-4.193648e-02
6.656128e-03
-4.219614e-02
2.236217e-01
3.208462e-01
2.267445e-01
1.168821e-01
1.438349e-01
7.751548e-02
-1.034844e-01
-1.560399e-01
-1.507363e-01
-3.721500e-02
-5.517321e-02
-4.218512e-02
1.942012e-02
6.083606e-02
-3.194354e-03
1.483956e-03
-7.465577e-02
-1.207491e-01
-1.900473e-02
3.746683e-02
-4.715157e-02
4.883693e-02
9.238945e-02
-4.152505e-02
6.285473e-02
6.641203e-02
-8.256367e-03
-8.351547e-02
-3.794453e-02
1.614266e-01
-5.340599e-02
-1.047114e-02
7.119702e-02
7.390375e-02
9.745365e-02
-1.372638e-02
-1.470288e-01
-9.726302e-02
-1.447525e-01
-5.782830e-02
-1.093016e-01
-1.475762e-01
8.076134e-02
3.418170e-02
2.726960e-02
7.341819e-02
8.416297e-02
-9.667297e-03
2.807075e-02
7.073047e-02
6.340355e-03
-2.870632e-02
1.599123e-02
6.102963e-03
-8.253288e-02
-6.968007e-03
4.622676e-02
-7.849109e-02
-5.832204e-02
1.556067e-03
-8.077012e-03
-1.271105e-02
1.255285e-02
-1.364910e-01
-1.179821e-01
-8.702311e-02
-4.092602e-02
-4.029633e-02
-2.178591e-02
-1.662315e-01
-1.414349e-01
-1.342959e-01
4.393839e-03
1.063152e-01
1.044135e-01
3.915266e-02
1.268240e-01
1.162001e-01
-5.996425e-02
-1.681661e-02
4.647258e-03
-1.400050e-01
-4.112830e-02
3.986071e-02
-4.065447e-02
1.793748e-01
1.789041e-01
8.198971e-02
1.264287e-01
6.361334e-02
1.219377e-01
1.486432e-01
7.670993e-02
1.658525e-01
2.067110e-01
1.627399e-01
8.885457e-02
1.042188e-01
1.100829e-01
2.900529e-02
3.015724e-02
3.379262e-02
6.151015e-03
2.413877e-04
4.131802e-02
-1.030806e-01
-4.406258e-02
-2.465731e-02
-1.978600e-02
8.674810e-02
8.324341e-02
-1.710255e-01
-5.591600e-02
-8.806274e-02
-8.197961e-02
-3.385881e-02
-7.547965e-02
3.891999e-03
-3.873133e-02
-9.392362e-02
4.911611e-02
3.694593e-02
-2.791238e-02
-2.712807e-04
2.272865e-04
-5.131142e-02
-2.208232e-03
6.188370e-02
-5.417247e-02
-9.736487e-02
1.532823e-02
-5.053559e-02
-8.746022e-02
2.497881e-02
-2.634528e-02
1.068452e-02
2.303934e-03
1.907879e-02
-7.431235e-04
-5.524485e-03
1.448952e-02
2.829483e-02
3.483149e-02
5.170416e-02
-3.011971e-02
7.352244e-02
7.833003e-02
-1.359718e-02
6.772880e-02
6.696504e-02
-7.146349e-02
-1.105622e-02
-3.757620e-02
-1.277987e-02
-5.284780e-02
5.559511e-02
-9.656301e-03
-3.142897e-02
4.154746e-02
1.880480e-03
-8.817056e-04
1.414893e-02
4.500127e-02
8.028028e-03
-1.731774e-02
6.796019e-03
-1.627254e-02
-4.528443e-02
5.102712e-02
6.270526e-02
2.511734e-02
-3.028606e-02
-2.667556e-02
1.344511e-02
1.637712e-02
-1.943978e-02
-2.658519e-02
-1.882310e-03
9.226135e-03
8.749490e-02
-9.241013e-02
-3.937346e-02
-1.131771e-03
1.179652e-02
7.345225e-02
8.399185e-02
6.162070e-04
4.609435e-02
7.059607e-02
-3.840523e-02
-3.037791e-03
-1.439186e-03
1.342086e-02
5.470018e-02
3.057967e-02
2.695382e-02
3.434540e-02
-5.046146e-03
4.688705e-02
6.805876e-02
3.018095e-02
1.120311e-01
9.962644e-02
6.043077e-02
1.023438e-01
8.134557e-02
4.815459e-02
4.679930e-02
1.745858e-02
-9.368637e-04
6.445966e-02
5.445578e-02
5.520081e-02
1.018381e-02
-1.666994e-03
2.806482e-02
5.024537e-02
5.597671e-02
5.417979e-02
3.931572e-02
5.156959e-02
4.771661e-02
1.093799e-01
1.010532e-01
1.021396e-01
6.848842e-02
7.781216e-02
2.801824e-02
8.699900e-02
1.652450e-01
2.342802e-01
7.096867e-02
1.583522e-01
3.556843e-02
2.156826e-02
2.376597e-02
-1.204065e-02
1.884181e-01
2.090139e-01
1.989484e-01
1.837500e-01
1.747955e-01
1.375270e-01
1.586880e-02
3.254578e-02
-1.842486e-03
1.248805e-02
2.915706e-02
-4.385286e-03
3.441364e-02
2.953022e-02
5.598890e-02
-7.167403e-02
-8.668351e-02
-2.724795e-02
4.889969e-02
6.451208e-02
1.021220e-01
1.178788e-01
1.366534e-01
9.539484e-02
-2.653757e-02
-5.507377e-02
-9.033198e-03
-4.235875e-02
4.462320e-03
3.490674e-02
-5.656695e-02
1.150084e-02
-1.700224e-02
-1.206644e-01
-6.001407e-03
-1.566201e-01
-9.954470e-03
3.590089e-01
9.790891e-02
5.011550e-02
-8.779857e-02
5.387109e-02
6.091100e-02
3.918549e-02
1.057006e-02
4.786722e-02
7.566595e-02
2.179455e-02
4.767852e-02
2.424881e-02
4.305291e-02
2.149962e-01
1.601880e-01
1.302692e-01
-1.470047e-01
-1.484771e-01
-1.534113e-02
-7.501729e-02
2.576543e-02
-5.410697e-02
-1.898238e-02
2.298441e-01
2.193098e-01
2.771004e-01
-4.056356e-01
1.372018e-01
-1.917510e-01
2.181682e-01
-2.369051e-01
-5.613708e-02
1.882468e-02
1.898825e-03
1.220683e-03
-9.719335e-03
8.748444e-03
-3.545347e-02
4.824675e-02
-6.737914e-02
-1.820678e-01
-1.550316e-01
7.227173e-02
1.648719e-01
3.431834e-02
-3.876104e-02
-4.320772e-02
1.957567e-01
2.220309e-02
-2.522786e-02
-1.737017e-02
-2.587679e-02
7.262585e-02
1.492361e-01
-5.666216e-02
-1.086376e-01
7.930374e-02
-2.453147e-02
5.148834e-02
-5.444976e-02
-1.395789e-02
-4.276752e-02
-9.610493e-03
2.949067e-02
3.302193e-02
5.168894e-02
1.087170e-01
-1.083402e-01
-1.381201e-01
-1.454270e-01
-4.630773e-02
1.518445e-01
-4.726111e-02
2.157793e-03
-5.420477e-02
-2.782641e-02
-1.287362e-01
-1.882415e-01
-2.126917e-01
6.556271e-02
1.409798e-01
-7.790571e-03
4.893411e-02
1.934949e-02
2.657349e-03
-2.727797e-02
1.749315e-02
3.761611e-02
1.405928e-01
9.566061e-02
2.496398e-02
5.645543e-02
-2.985227e-02
-5.390677e-02
-1.695947e-02
5.955506e-01
-7.712636e-02
-1.542398e-01
-4.948230e-01
-1.174435e-01
1.870342e-02
1.123603e-01
6.078552e-02
-8.523023e-02
-5.084320e-02
-5.097152e-02
-1.293472e-01
-7.431004e-02
1.645867e-02
-9.634888e-03
4.269008e-03
-6.498923e-03
-6.122802e-02
-9.148185e-03
-1.047501e-01
-2.815830e-03
1.679585e-01
-3.481356e-02
6.283679e-02
5.612953e-03
1.196771e-01
1.534833e-01
1.196553e-01
6.051261e-02
-1.330452e-01
-4.402188e-01
-1.647422e-01
1.104539e-01
2.550222e-01
1.038647e-02
-1.798844e-01
-1.911142e-01
-8.027624e-02
-5.824545e-02
-4.983041e-02
1.966191e-02
4.186923e-02
1.165519e-01
1.416359e-01
-1.141889e-01
-5.073816e-02
-3.902514e-02
1.555324e-01
2.792707e-02
-1.050962e-01
-9.477670e-02
-5.361836e-02
4.674202e-02
4.323665e-02
6.066342e-02
4.250828e-02
6.042046e-02
8.300804e-02
6.418467e-02
1.157491e-02
5.910635e-02
2.888507e-02
1.247669e-02
-2.711777e-03
5.006798e-02
5.747002e-03
8.721436e-02
4.024552e-02
-2.989794e-02
-1.338613e-01
-1.185028e-01
2.396354e-01
-2.109780e-01
-2.835738e-02
-1.811707e-01
1.546907e-01
1.155695e-01
-6.155180e-02
7.450971e-03
-7.900512e-02
-1.158689e-01
-9.197730e-02
3.547364e-02
-1.617155e-02
3.873798e-02
7.298689e-02
-5.588684e-02
-1.174240e-02
-1.178106e-02
2.363602e-02
-3.986161e-02
-3.894491e-02
-1.259397e-01
-1.184519e-01
6.335103e-02
-9.049488e-02
2.762937e-03
-1.020672e-01
-6.875138e-03
9.789429e-02
2.511285e-02
5.227369e-02
6.541713e-02
1.105775e-02
4.052785e-02
-1.005675e-01
-1.851844e-01
1.273548e-01
1.083947e-01
7.366439e-02
1.416761e-01
4.381847e-02
-4.058520e-02
5.755798e-02
-1.631856e-02
-8.598433e-02
-7.741299e-02
-6.784179e-03
-1.591380e-02
1.187465e-01
-3.451375e-02
-4.985752e-02
-9.458605e-03
-1.317900e-01
-8.876397e-02
2.202941e-02
6.061335e-02
2.421755e-02
-2.581929e-02
-1.011572e-01
-1.823631e-02
-8.058738e-03
-6.613853e-02
2.487589e-02
2.352564e-03
1.689255e-02
6.823393e-03
4.678215e-02
4.323447e-02
4.970165e-02
-5.496588e-02
-2.414526e-02
-1.646028e-02
-8.106466e-02
-4.113520e-01
-1.454888e-01
-2.069907e-01
-8.278443e-02
1.213073e-01
-7.107548e-02
1.823889e-01
1.555915e-02
3.725580e-02
-5.282577e-03
-1.298197e-02
-5.130234e-03
-3.668157e-02
-2.134146e-02
-2.475566e-02
-4.483195e-02
-2.278701e-02
-2.243730e-02
7.248177e-02
2.416153e-02
1.060467e-01
-2.590468e-02
2.157316e-02
-1.031371e-02
-3.193345e-02
6.536517e-02
4.624289e-02
-7.466780e-02
1.684277e-02
-1.056300e-01
1.310954e-01
3.139567e-02
7.657656e-02
-1.167922e-01
-8.021216e-02
-2.061544e-02
6.071584e-02
7.492151e-02
-1.747184e-02
9.483962e-02
8.883620e-02
-2.505880e-02
-9.189595e-02
-1.424066e-01
-1.060815e-01
-9.446993e-02
-5.335264e-02
-1.148638e-01
-7.550951e-02
1.275871e-02
2.299928e-02
1.599596e-02
8.023894e-02
-6.532273e-02
-5.437303e-02
-4.343493e-02
-6.978599e-02
-5.955307e-02
-7.191073e-02
-3.450584e-02
-5.150466e-02
-6.323308e-02
1.189259e-01
3.539415e-02
9.738020e-03
7.334413e-02
-6.266841e-02
-1.213649e-01
-9.373040e-02
-1.198904e-01
-1.458858e-01
-3.348539e-02
-1.358951e-01
-8.527995e-04
-3.775369e-02
-2.382996e-01
-7.684480e-02
-5.990981e-02
5.527917e-02
-2.082383e-02
-8.313591e-02
-1.106779e-02
6.612775e-02
-2.141414e-02
-3.955361e-02
8.250209e-03
6.005701e-02
1.129824e-01
3.089203e-02
1.083499e-03
1.853564e-02
4.690092e-02
5.120245e-02
7.658492e-02
8.083465e-02
2.081672e-02
-1.255336e-02
5.104502e-02
2.050235e-02
-1.131829e-01
-4.154085e-02
1.604994e-02
7.155578e-02
9.238880e-03
-8.850706e-02
9.639887e-03
5.830503e-02
-1.154349e-01
-1.237688e-01
-3.559436e-02
-1.032166e-01
-1.341197e-01
-6.166128e-02
-5.844708e-02
-7.929728e-02
-9.926172e-03
-1.139142e-02
-2.873915e-02
-5.838992e-02
-4.600355e-02
7.758091e-03
-7.465827e-02
-2.650902e-02
-2.659110e-02
-1.083316e-02
-1.299125e-01
-1.611034e-01
-1.569036e-01
-3.397753e-02
-1.750268e-02
-2.404031e-02
8.106581e-02
4.115625e-02
3.459068e-02
-5.051255e-03
-2.293053e-02
-2.997706e-02
1.258011e-02
-3.572790e-02
-6.159114e-02
6.350121e-02
4.313779e-02
-5.244483e-03
-1.886350e-02
-7.322894e-02
-8.716233e-02
8.117856e-02
-1.164066e-01
-1.968316e-02
3.962292e-02
2.380133e-01
2.436532e-02
-3.259170e-02
-4.366456e-02
-2.585082e-02
-5.464733e-02
-1.045450e-01
-8.590005e-02
-6.103049e-02
-8.045957e-02
-4.911193e-02
-1.044362e-01
-5.963056e-02
-8.840101e-02
-6.667717e-02
-3.018380e-02
-6.689521e-02
-1.503444e-02
-6.596410e-02
-5.723127e-02
-4.099733e-02
-1.079426e-01
-2.261883e-02
2.682189e-03
-1.579293e-01
-1.780038e-01
-1.151232e-01
-6.028489e-02
-1.367270e-01
-1.830603e-03
1.141851e-02
2.005494e-01
-2.130745e-02
2.739462e-02
9.631997e-02
8.793504e-02
8.326802e-02
-3.587572e-02
1.884454e-01
-2.448418e-01
-2.628390e-02
2.631293e-01
-1.448282e-01
-1.423681e-01
-4.473723e-02
7.036441e-02
-1.734351e-01
-4.181984e-02
-2.558505e-02
4.548644e-02
4.547755e-03
-2.838793e-02
2.069292e-02
-4.426575e-02
-6.405151e-02
-6.716915e-02
1.110078e-02
7.754922e-03
-1.861920e-01
2.858462e-02
1.221611e-01
-6.398264e-02
-5.379773e-02
-6.156747e-02
-1.408368e-02
7.000253e-02
4.177888e-02
-1.534408e-01
-2.382364e-01
4.928519e-01
-1.573088e-01
-1.916087e-02
4.174206e-02
1.040504e-01
9.474939e-02
1.234788e-02
1.007646e-01
-2.152548e-02
3.028844e-02
-4.019827e-02
-1.646658e-02
1.542277e-02
5.178645e-02
-2.542689e-01
2.561393e-02
6.957352e-02
-2.795485e-01
-1.279322e-02
1.335013e-01
-1.315162e-01
-6.439960e-02
-2.088599e-02
-8.544796e-02
3.579654e-02
-2.204725e-01
-1.111651e-01
6.326160e-02
8.098392e-02
-2.051033e-02
2.130533e-02
8.742460e-02
-3.043289e-02
2.856621e-02
4.677480e-03
1.038586e-01
2.011361e-02
-4.324360e-02
1.014867e-01
-2.804136e-02
-2.821846e-02
8.774512e-03
-2.653502e-02
2.552210e-04
1.044713e-01
-1.100576e-01
7.648069e-02
3.209627e-02
-4.866891e-02
8.131856e-02
1.106030e-02
-6.084577e-02
3.763487e-02
9.132843e-02
-6.742554e-02
1.660047e-03
4.096313e-02
-6.780558e-02
-7.576361e-02
1.448218e-02
2.683631e-02
3.595603e-02
4.603444e-03
4.549311e-02
-1.396130e-02
-3.680259e-02
-1.119991e-02
-6.706065e-02
8.691663e-02
-1.169743e-01
-3.177521e-02
-4.163803e-02
2.959303e-01
-9.863185e-02
4.749988e-02
-3.414763e-02
2.266103e-02
1.306507e-01
9.109991e-02
4.345725e-02
1.604455e-01
1.013384e-01
2.723843e-02
6.333254e-02
6.581914e-02
9.429822e-02
6.496103e-02
-1.366794e-01
1.369251e-01
1.645799e-01
-1.324235e-01
1.698225e-01
-8.616840e-03
5.608041e-03
5.394282e-02
-1.625479e-01
7.652398e-02
-1.482099e-01
-2.853168e-01
2.611585e-01
-8.441325e-02
-1.451114e-02
-8.943529e-02
8.649606e-04
-8.221408e-03
-4.900764e-02
-3.806547e-02
5.198770e-02
5.807922e-03
-1.927906e-02
9.669521e-02
5.265541e-02
-1.937431e-02
1.701018e-02
-2.532603e-02
-7.079607e-02
-2.888870e-02
6.300602e-02
-7.591113e-02
7.229795e-02
1.612767e-01
-1.521056e-01
-3.778534e-02
-4.258705e-02
-2.571709e-02
-1.932251e-02
-4.304426e-02
-3.404513e-02
1.002388e-02
1.201289e-02
-2.065789e-02
4.596661e-02
2.552710e-02
-4.127460e-02
2.053098e-02
4.247195e-02
3.138166e-02
-1.139287e-01
5.383954e-04
9.086531e-02
4.917907e-02
-4.299203e-02
2.022982e-01
4.562251e-03
3.078940e-01
8.854924e-02
7.552912e-02
-1.163632e-01
2.710567e-01
6.140848e-02
1.475147e-02
-8.521015e-03
1.238812e-02
4.690189e-02
2.156088e-02
-2.418422e-02
2.877033e-02
5.944081e-02
-6.312948e-02
3.291847e-03
8.841106e-02
-6.187575e-02
-3.568846e-02
5.624720e-02
-9.225649e-02
-1.740444e-01
-4.171002e-02
5.086520e-02
-1.947856e-02
-2.205583e-02
7.857807e-02
-5.135348e-02
4.823355e-02
9.739067e-02
3.000566e-02
1.378362e-01
5.370397e-02
3.856377e-02
1.033669e-01
3.448389e-02
-4.852528e-03
8.612265e-02
-5.083814e-02
-3.306275e-02
7.832713e-03
4.737076e-02
2.375691e-03
-1.363231e-01
1.454407e-01
-4.770160e-02
-1.115561e-01
1.519480e-01
1.233262e-01
-4.581038e-02
5.058079e-02
2.170048e-02
-5.993595e-02
-3.518984e-03
-3.666464e-02
-5.901358e-02
1.397037e-02
-2.233914e-02
-8.933816e-02
-2.222223e-02
6.150395e-02
8.431109e-02
7.294329e-02
7.930476e-02
4.683892e-02
5.194960e-02
-4.700564e-03
-1.880713e-02
-4.222933e-02
-1.485846e-01
1.475225e-02
1.262530e-01
1.719403e-01
-2.589982e-01
6.416863e-02
-2.341422e-03
5.655321e-02
2.835143e-02
3.502013e-02
4.848750e-03
1.617309e-02
4.764660e-02
7.082977e-03
-6.746095e-02
6.206682e-02
7.112859e-02
3.948293e-02
5.679179e-02
4.357311e-02
2.127990e-02
1.437666e-02
5.928068e-02
2.296331e-04
1.140157e-01
8.642731e-03
4.998898e-02
-1.307775e-02
-1.331367e-03
-3.951906e-02
-7.373705e-02
-1.030140e-01
-1.441176e-01
-1.794006e-01
2.175107e-02
