-1.547717e-02
-8.791440e-03
-1.273517e-02
-1.410730e-02
-2.117595e-02
-2.739907e-03
-1.820310e-02
-3.524047e-02
-1.751716e-02
-2.104941e-02
-5.711232e-03
-3.632533e-03
-2.444500e-02
1.473155e-02
1.399228e-02
-3.896927e-02
-1.647160e-02
7.421011e-03
-2.350804e-02
-1.601581e-02
1.418271e-03
-7.841141e-04
-1.697932e-02
-1.147001e-04
-5.399607e-03
1.021979e-02
-2.703455e-02
-9.307030e-04
1.381325e-02
4.125161e-03
6.395518e-05
-3.892042e-03
-2.032860e-02
3.944451e-03
9.214836e-03
-3.693206e-03
-7.905831e-03
-4.735529e-03
-7.553539e-03
-4.517061e-02
3.002179e-03
7.207260e-03
-3.029328e-02
-1.232715e-02
1.282533e-02
1.141780e-02
2.038138e-02
1.401005e-02
7.634803e-03
9.918812e-03
1.064868e-02
-1.303827e-02
4.787960e-03
3.984108e-04
2.612253e-03
1.266160e-02
1.274873e-02
1.403438e-03
6.686678e-03
-3.591517e-02
1.814643e-03
-2.551438e-03
-3.455042e-02
-9.152969e-03
5.277576e-04
-3.707434e-03
1.641655e-02
2.696404e-03
1.746102e-02
-8.670568e-03
-1.259997e-03
-9.357444e-03
3.161590e-02
1.980315e-03
-7.070205e-04
2.310505e-02
9.501587e-03
2.060000e-02
7.051329e-03
-1.478864e-03
-4.916651e-03
4.981373e-02
2.217971e-02
1.870851e-02
1.763865e-02
2.534025e-02
3.499186e-02
-1.105632e-02
2.182647e-03
1.311356e-02
4.973985e-02
2.711216e-03
-2.092414e-02
4.293394e-02
1.225986e-02
-3.041508e-03
-7.688730e-03
-1.951958e-04
-1.653726e-02
-4.270715e-04
-3.513794e-03
-1.210611e-02
-7.716787e-03
-1.096445e-02
7.335797e-03
-1.295346e-02
2.217068e-02
2.015743e-02
8.480037e-03
1.876715e-03
4.291635e-03
-1.430785e-02
9.623409e-03
1.949890e-02
-1.589988e-02
1.118300e-02
3.565282e-02
2.315404e-02
-2.607846e-02
-3.057765e-02
2.936703e-02
6.754688e-03
-1.658092e-02
9.130303e-04
-1.810006e-02
-1.877941e-03
1.031015e-03
2.373444e-02
3.100904e-02
3.995688e-03
-1.360186e-02
2.873430e-02
3.071783e-02
1.269449e-02
1.707635e-02
1.886616e-02
3.000154e-02
1.458100e-02
1.366021e-02
1.249964e-02
1.040545e-02
9.936199e-03
1.239996e-02
-9.732694e-03
1.980516e-02
1.794107e-03
1.556359e-02
1.388772e-02
1.583836e-02
-3.137156e-04
3.048677e-02
1.974774e-02
1.010419e-02
-2.194388e-03
-3.800773e-03
-1.986203e-03
7.816852e-03
1.418945e-02
-2.061914e-02
-1.336763e-02
-1.751135e-02
-2.030301e-02
6.156529e-03
2.454065e-02
1.388825e-02
2.608193e-02
1.999444e-02
5.350875e-02
-1.622235e-02
-3.973880e-03
-1.021171e-02
6.721159e-03
2.122577e-02
1.147295e-02
-1.483469e-03
2.313807e-02
1.054725e-02
-1.806190e-02
8.181515e-05
-2.357920e-02
1.170702e-02
-1.498214e-02
-1.206235e-02
2.200093e-02
1.528056e-02
-3.216291e-02
1.953507e-02
2.371042e-02
-3.286541e-02
2.704075e-02
2.852527e-02
-1.175433e-02
1.431214e-02
1.729444e-02
-1.611189e-02
-2.725081e-02
-1.127132e-02
-1.663067e-02
6.815221e-03
-1.512041e-02
-1.345714e-02
1.216529e-03
5.813715e-03
9.540583e-03
1.224804e-02
1.535981e-02
5.419225e-03
-3.756123e-02
-1.016136e-02
-5.471409e-03
-2.457089e-02
1.389547e-02
1.856707e-02
-2.482625e-02
6.825876e-03
1.836110e-02
1.554023e-02
4.469716e-03
7.147172e-03
-6.342529e-03
3.391550e-02
-2.452442e-02
-1.618413e-02
-7.291794e-03
-8.498929e-03
2.138876e-03
-1.454440e-02
-1.100960e-02
-9.747949e-03
5.612614e-03
1.343721e-02
5.687757e-03
8.106207e-03
-2.980738e-02
-1.685084e-02
1.390973e-02
-3.534297e-03
-9.207507e-04
1.281671e-02
-6.285203e-04
2.952630e-03
7.073472e-03
9.092182e-03
2.297250e-02
-1.218905e-02
-2.688055e-02
2.497965e-03
-1.438775e-02
-1.683595e-02
1.060201e-03
1.253044e-02
-3.727199e-02
5.177951e-03
8.092633e-03
8.106680e-03
-3.715169e-03
9.396622e-03
1.025014e-03
-2.429585e-02
-1.531201e-03
1.441382e-02
2.967408e-02
-4.462498e-03
-7.623083e-03
1.552153e-02
-1.616358e-02
-1.186881e-02
2.458758e-02
-9.777487e-03
6.209974e-03
8.762662e-03
2.803845e-02
8.465232e-03
1.208992e-02
4.800594e-03
9.531999e-03
1.041555e-02
2.624946e-02
-2.419246e-02
-1.340516e-02
-3.094288e-02
4.857617e-03
1.646782e-02
-1.445507e-02
-9.858091e-03
-6.513902e-03
1.269750e-03
-1.214089e-02
-1.974291e-02
-2.602947e-03
-3.688052e-03
-1.443622e-02
-1.040351e-02
-1.694463e-02
-3.429669e-02
9.821048e-04
-1.260642e-03
-1.784301e-02
1.148567e-03
9.935870e-03
-1.892185e-02
-2.066415e-02
9.141755e-03
1.230724e-02
6.768927e-03
4.808756e-03
8.121359e-03
7.421386e-03
-1.203486e-02
1.666862e-03
5.124637e-03
4.388555e-03
1.293509e-02
-8.594829e-03
1.937154e-02
-1.835920e-02
-1.578389e-02
3.708508e-03
1.535104e-02
-2.198295e-02
-1.737371e-02
7.455417e-03
-1.404030e-02
1.855832e-02
3.742674e-02
-1.384014e-03
5.242477e-03
-1.034381e-03
-1.868535e-02
1.373052e-02
1.699374e-02
6.493929e-04
5.353386e-03
-1.232327e-02
1.608380e-03
-2.267367e-02
2.205109e-02
-1.670252e-03
-8.612429e-03
3.431859e-02
1.733992e-02
-1.092219e-02
-1.925768e-02
5.388769e-04
-5.838758e-03
2.625700e-02
-9.187433e-03
5.118712e-03
1.566229e-02
8.318066e-03
-7.288392e-03
-2.231373e-02
-1.844135e-02
-1.075603e-02
-3.012418e-02
3.239321e-03
4.779993e-03
-5.263198e-04
2.907098e-03
-5.844416e-03
-1.701055e-02
2.194359e-03
4.719948e-03
-1.925365e-02
1.023302e-02
-2.832812e-02
3.152015e-02
3.175418e-02
1.854318e-02
7.401787e-04
3.272672e-04
-3.757240e-03
2.778568e-02
-1.226805e-03
2.042622e-03
-1.358557e-02
-1.709595e-02
-9.100500e-03
2.112456e-02
7.245733e-03
-9.924402e-03
9.852117e-04
-1.758278e-02
-3.092078e-02
-1.300251e-02
-5.605084e-03
-2.504602e-02
-1.055615e-02
2.458392e-02
-1.436837e-02
-1.356124e-03
3.409457e-02
4.754286e-04
-3.241411e-04
4.678050e-02
2.809926e-02
1.357658e-02
-1.999887e-02
1.237547e-02
-9.862994e-04
-9.211484e-03
2.651335e-03
-1.449339e-02
-3.558112e-02
8.270017e-03
8.030212e-03
-1.205811e-02
-3.034287e-03
1.392799e-02
2.170394e-02
4.108420e-03
1.410620e-03
-1.487023e-03
-1.812342e-02
-1.685192e-02
-1.324827e-02
-2.265132e-02
-8.233047e-03
6.748787e-03
-2.023851e-02
-6.647003e-03
1.551864e-02
-6.554573e-03
1.789380e-02
-4.101800e-03
-1.015388e-02
3.455172e-02
2.683253e-02
1.290835e-02
3.600981e-02
1.479900e-02
-5.234300e-03
-7.695198e-03
-9.217773e-03
-4.645439e-03
-1.860127e-02
5.679116e-03
-1.410941e-02
-1.445552e-03
1.915381e-02
2.650246e-03
1.605090e-02
3.283368e-02
1.883475e-02
-4.060090e-03
2.741246e-02
3.085022e-02
8.199071e-03
2.242805e-02
-6.752002e-03
1.463223e-03
3.907138e-02
9.009299e-03
-6.091836e-03
1.653755e-02
-6.823526e-03
-1.386689e-02
-1.610036e-02
-3.509578e-02
2.624627e-02
-6.963772e-03
-3.367005e-02
2.874340e-02
2.026159e-02
-2.811724e-02
4.367920e-02
2.627886e-02
-1.705766e-02
-2.150348e-02
-3.152087e-03
2.000709e-02
-6.264347e-03
-1.440082e-02
-2.156800e-02
9.376341e-03
-2.803986e-03
-7.627083e-04
-4.373310e-03
2.881303e-02
1.648962e-02
6.579011e-03
1.949524e-02
6.133228e-03
-1.953470e-02
2.562264e-02
1.005390e-02
-7.858467e-03
-1.902955e-03
7.782921e-03
3.344184e-03
-6.017977e-03
1.183951e-02
-5.480187e-03
-1.799762e-02
6.359383e-03
-2.911701e-02
7.110950e-03
-1.350451e-02
-2.309132e-02
4.866011e-03
9.100153e-04
8.864799e-03
1.808807e-02
4.627175e-02
-1.651728e-02
3.223764e-02
1.974999e-04
8.786425e-03
2.401501e-03
2.596700e-02
-6.117406e-03
9.905287e-06
5.607312e-04
5.606690e-03
-2.546644e-02
-1.702771e-02
-1.498194e-02
-1.348718e-02
-2.552589e-02
3.980152e-02
-7.615813e-03
-5.242657e-04
2.577392e-02
2.847456e-02
-2.124666e-02
1.596919e-02
1.734904e-02
-1.393379e-02
-6.689826e-03
1.918177e-03
-5.539592e-03
-1.573502e-02
-6.296901e-03
-3.097945e-02
-1.812954e-03
-3.297983e-03
-2.264914e-02
1.769938e-02
-1.138550e-02
6.912079e-03
1.355897e-03
-1.151689e-02
-2.632213e-02
4.350864e-04
6.369995e-03
-8.178228e-03
1.413117e-02
1.486491e-02
-1.130784e-03
-1.892026e-02
-3.227130e-03
-4.534179e-03
1.605251e-02
1.491935e-02
-8.744599e-04
1.587013e-02
2.300157e-02
-1.812996e-02
3.901165e-03
-2.012801e-02
-3.177076e-02
9.776088e-03
-1.374039e-02
-3.862013e-02
2.121760e-02
-6.938423e-03
-3.763409e-02
1.713800e-02
1.087850e-02
1.372853e-02
9.676256e-04
5.970317e-03
-5.602003e-03
7.446856e-03
1.427822e-02
-1.836302e-02
4.869201e-03
7.969887e-03
-2.176699e-03
-1.838877e-02
-2.734856e-02
-1.233073e-02
8.577646e-03
-1.067313e-02
-2.095942e-02
3.547390e-03
-1.624262e-03
-2.138768e-02
-7.597371e-03
1.792713e-02
-9.920178e-03
-8.735809e-03
-1.397136e-03
1.029001e-02
7.229821e-04
-9.779588e-03
-6.956931e-03
-1.362242e-02
-1.183528e-02
-6.023968e-03
-1.478077e-02
-1.501839e-02
9.733600e-03
5.876541e-03
4.853791e-03
-9.221348e-03
-1.049696e-02
-1.042737e-02
8.233021e-03
2.729345e-02
2.780743e-03
-2.904077e-02
-8.055639e-03
-1.212412e-02
-2.428031e-02
-1.852521e-02
1.098923e-02
7.077069e-03
-6.495311e-03
-5.836044e-03
-6.927686e-03
-8.467098e-03
9.177788e-03
-6.650465e-03
-2.440337e-02
5.378214e-04
-2.593025e-02
1.126089e-02
6.803907e-03
2.314712e-03
1.353098e-02
2.275889e-03
1.977782e-02
1.574499e-02
3.167011e-03
-9.446449e-03
-2.578412e-03
1.499774e-02
5.322905e-03
4.839470e-03
1.133814e-03
1.049386e-02
-3.892104e-03
-1.216862e-02
-1.111597e-02
-1.439481e-02
-1.603322e-02
-6.894022e-03
-1.747798e-02
-1.805776e-02
-2.248170e-02
-1.903185e-02
-2.317342e-02
-1.602105e-02
-7.850148e-03
-7.907614e-03
-1.313518e-02
-1.802569e-03
1.828406e-02
1.825315e-02
2.912178e-02
2.977348e-02
2.078272e-02
-1.291426e-02
-6.837489e-03
1.207879e-02
-9.267737e-03
2.363584e-02
-1.631329e-03
7.325401e-03
6.995155e-03
7.590570e-03
-2.107313e-02
-2.143998e-03
-7.786804e-03
-1.465960e-02
5.972481e-03
-6.997836e-03
-1.592757e-03
2.997462e-03
-1.780582e-02
1.967835e-03
-2.927987e-02
-1.072974e-02
-2.478803e-02
-1.007261e-02
-1.541440e-02
-1.266402e-02
-1.960894e-02
-1.209075e-02
2.891533e-02
2.011252e-02
-6.444292e-03
6.021328e-03
3.806621e-03
-3.194316e-02
-1.912004e-03
-1.065767e-03
-3.975785e-03
-1.671652e-02
-1.124775e-02
-1.559021e-03
2.806456e-02
-9.696716e-03
3.991963e-02
-9.185334e-03
-9.571806e-03
6.196197e-03
-1.771135e-02
-1.739712e-02
-9.018412e-03
3.196887e-03
-1.823700e-02
2.647794e-03
-2.060069e-04
-4.433158e-03
-4.951987e-03
1.306987e-02
-9.934313e-04
1.363621e-02
-2.215679e-02
-1.839332e-02
-1.387247e-02
-7.835276e-04
-3.813557e-03
-2.057010e-02
-1.244528e-05
-6.098660e-03
-2.078663e-02
4.979915e-03
-1.093643e-02
-5.336202e-03
1.473492e-02
-2.369012e-02
1.061444e-03
-1.770476e-03
5.645390e-03
-3.278240e-02
-6.819749e-04
7.833621e-03
-1.677450e-02
3.660083e-03
-3.472157e-03
-4.724815e-03
-1.216559e-02
2.230835e-02
3.899212e-02
-1.262843e-02
-1.850943e-02
-9.262531e-03
1.339949e-02
-8.064533e-03
4.181258e-03
-1.002623e-03
6.025000e-03
9.131123e-03
-1.383886e-03
-1.123071e-02
-9.184033e-03
-1.385252e-03
-2.063243e-02
-7.749982e-03
-1.019865e-02
-2.052637e-02
-1.410431e-02
-1.590523e-02
-1.605455e-02
-9.782336e-03
4.087667e-03
-9.041844e-03
2.266391e-02
-1.221533e-02
5.181554e-03
-1.033188e-02
-2.185476e-03
5.755413e-05
5.569105e-04
-1.477103e-02
2.640144e-03
6.859189e-03
2.333528e-04
4.515839e-03
1.423600e-02
1.677194e-03
-1.276048e-02
2.484131e-03
-1.854456e-03
7.894664e-03
1.948637e-02
9.027109e-03
2.153234e-02
4.481988e-03
-7.148447e-03
-4.425448e-03
-1.253594e-03
-2.518426e-02
5.039452e-03
7.334845e-03
-1.668890e-02
-2.717111e-02
-4.688729e-03
-1.943390e-02
-9.026634e-03
-2.822217e-03
-9.138247e-04
1.497448e-02
1.881780e-02
3.616935e-03
8.640068e-03
7.554233e-03
-1.886510e-02
-1.781842e-02
-1.530289e-02
-2.787692e-03
6.162105e-04
-1.901351e-02
-5.480893e-04
-9.856910e-03
1.286360e-03
4.738544e-03
-1.791993e-02
-1.136298e-02
-1.124439e-02
-1.905606e-02
-1.601305e-03
-9.129845e-03
-1.673909e-02
-6.298457e-03
7.236347e-03
8.779653e-03
8.702903e-03
-1.687215e-02
-1.297299e-03
-9.144947e-03
3.599146e-04
-1.203831e-02
3.200002e-03
-2.421541e-03
1.183828e-02
8.097107e-03
-9.691210e-03
-1.073538e-02
5.604829e-03
5.813951e-03
6.720808e-03
-7.350489e-03
4.185360e-03
1.300589e-03
-1.145381e-02
9.612237e-03
-2.048166e-04
-1.234037e-02
-4.767841e-03
-7.928382e-03
2.123794e-02
-1.827298e-03
2.140996e-03
-1.230400e-02
1.253596e-04
1.287407e-02
1.621833e-02
1.379825e-02
-9.515451e-03
-4.071233e-03
-1.227322e-02
4.943899e-03
8.031880e-03
-1.128469e-02
-1.472296e-02
-8.691262e-05
2.246179e-02
-2.204695e-03
-5.345768e-03
1.181539e-02
9.556785e-03
1.926331e-02
-1.305908e-03
2.291023e-02
1.546179e-02
-3.231076e-02
-1.407680e-02
-1.753063e-02
-2.089951e-02
-1.302294e-04
1.560972e-02
5.538520e-03
9.470082e-03
-3.347654e-04
-3.204405e-02
-1.924550e-02
-1.828793e-02
1.322763e-02
-1.146355e-02
-1.062611e-02
8.690462e-03
-3.469351e-03
-3.346143e-02
2.485374e-04
-1.825516e-02
-3.803645e-02
2.963894e-02
1.517758e-02
2.334595e-03
-1.649344e-02
1.675442e-03
-1.218044e-02
-1.595515e-02
-3.456419e-02
-1.270427e-02
-7.918473e-03
-1.791132e-02
9.764355e-03
1.852792e-02
7.142975e-04
4.699246e-03
1.241315e-02
2.046503e-03
-1.595825e-02
-7.171526e-03
7.754984e-03
6.566584e-03
-1.441545e-02
1.943962e-02
1.288945e-02
-4.592758e-03
2.542360e-03
8.895028e-03
-4.019415e-03
-2.933912e-02
-3.767310e-04
1.222346e-03
3.985702e-03
-3.422605e-03
1.802270e-02
1.694187e-02
2.449606e-02
-1.155471e-02
-1.843948e-02
1.005015e-03
1.191825e-03
-2.047456e-02
1.343558e-02
-5.941800e-03
-5.845790e-04
-1.157082e-02
3.078245e-02
-1.232626e-03
-3.068068e-02
-8.501053e-04
-1.704767e-02
1.333898e-02
1.342300e-02
4.031137e-03
6.446154e-03
-1.679985e-02
5.057225e-03
1.806428e-02
4.090889e-03
1.542429e-02
1.771470e-02
-1.843849e-02
1.425668e-02
-1.371689e-02
-1.026063e-02
1.374481e-02
4.557949e-02
2.616702e-02
1.799462e-03
2.579598e-02
2.054764e-03
-6.731709e-03
-2.432283e-02
6.699729e-03
5.025207e-03
2.675300e-03
1.619871e-02
2.773826e-02
-5.648637e-03
1.596227e-02
1.062213e-02
-1.413622e-02
-6.826074e-04
-9.667044e-03
8.058770e-03
-1.530096e-02
-5.035880e-03
1.561762e-02
-2.205193e-02
1.901474e-02
1.636140e-02
2.757397e-02
1.786284e-02
7.185721e-03
2.383481e-02
1.757130e-02
1.254718e-02
1.837001e-02
7.974451e-03
8.877713e-03
-1.578923e-02
8.290146e-03
2.203743e-02
1.357186e-04
4.064051e-03
-3.518025e-03
8.508620e-03
-1.633787e-02
-5.722428e-03
6.661869e-03
2.383003e-03
-1.357311e-03
-4.143442e-03
-5.599166e-04
-1.184862e-02
4.639221e-03
5.009003e-03
-1.428964e-02
1.480040e-03
1.240807e-02
-1.556535e-02
-1.786709e-02
8.014938e-03
6.030250e-03
-3.771777e-03
3.079850e-03
-1.022577e-03
8.368648e-03
2.434625e-02
3.923139e-03
8.458562e-03
-3.681512e-04
8.478142e-03
-2.717936e-02
7.289296e-03
-2.837290e-02
1.541251e-02
1.480839e-02
8.587136e-03
2.330358e-02
2.195833e-02
8.395225e-03
-3.682965e-02
3.943938e-03
-1.748413e-02
-3.385122e-02
-2.564919e-02
-2.420722e-02
3.207572e-03
-7.238312e-03
6.520155e-03
2.345386e-03
2.141564e-02
2.700447e-02
2.412132e-02
1.239713e-02
1.685503e-02
1.670569e-02
1.262430e-02
1.284529e-02
2.395057e-02
2.927682e-02
1.660097e-02
-1.570228e-03
-1.279356e-02
-1.935716e-02
-1.448310e-02
-1.399680e-02
-9.730890e-03
-1.420175e-02
2.231239e-03
1.693556e-02
5.135904e-03
-1.142365e-02
-1.133898e-02
2.044176e-03
-2.206959e-02
-3.025619e-02
-4.000762e-03
-2.007298e-02
-4.498848e-03
2.122642e-03
2.139112e-03
-4.780614e-02
5.623153e-03
-1.329844e-04
9.327229e-03
-2.021879e-02
-2.563317e-02
5.458144e-03
-3.407844e-02
1.697594e-02
5.532339e-03
-2.391389e-02
8.855955e-03
3.795251e-03
-7.046960e-03
1.363818e-02
8.463768e-04
2.780647e-03
-2.966105e-02
1.782575e-02
-3.470128e-02
-3.555657e-02
-3.265502e-02
4.963449e-03
3.567863e-03
-1.904652e-02
-3.083323e-03
-1.265453e-02
-6.484703e-03
-1.209879e-02
9.955600e-04
-1.061508e-02
-2.425147e-02
-6.643819e-03
-1.631876e-02
-1.245264e-02
8.345751e-03
-7.924772e-03
-1.064347e-02
-1.431396e-03
1.944402e-03
5.080853e-03
3.671474e-03
5.086762e-03
-2.168638e-02
6.135047e-03
3.333558e-02
4.899529e-03
-6.264718e-03
1.824337e-02
-2.133010e-02
-7.023418e-03
-3.224865e-02
1.307529e-02
1.129976e-02
-6.249729e-03
8.700352e-03
2.450347e-02
-9.511024e-04
-7.140411e-03
1.414280e-02
-4.634629e-03
-2.053330e-02
-5.586190e-04
4.033227e-03
-1.397878e-02
-1.497699e-02
2.857344e-02
-1.834526e-02
1.398571e-02
1.457344e-02
-1.446163e-04
3.561888e-03
1.282269e-02
5.515549e-03
-6.807372e-03
1.066219e-02
-1.426489e-02
-2.108617e-03
-1.298191e-02
9.957783e-03
2.742991e-02
2.444739e-02
2.513045e-02
3.356503e-03
4.346478e-02
3.698508e-02
-1.138622e-02
1.607265e-02
-1.194221e-02
-1.789041e-03
-1.223232e-02
-2.539678e-03
7.442189e-03
-3.067928e-02
6.398491e-03
-5.728567e-03
-3.369586e-02
-1.614835e-02
2.220558e-03
-1.763251e-03
-9.220480e-03
-5.777339e-03
7.921366e-03
-3.759198e-02
4.891711e-03
7.084740e-03
5.807601e-04
1.496155e-02
1.079554e-02
2.751961e-03
1.156118e-02
1.907523e-02
3.485350e-03
9.407275e-04
-6.415547e-03
4.641048e-03
-5.707176e-03
4.711505e-03
5.551978e-03
-3.242421e-03
9.060939e-03
1.645773e-03
6.138289e-03
5.227427e-03
-1.717610e-02
-8.554256e-03
1.354911e-02
2.496907e-03
-4.623308e-03
2.146440e-02
2.426432e-03
-1.357428e-02
4.330252e-03
1.483598e-02
1.639131e-02
-8.257613e-03
6.083007e-03
1.664755e-02
-1.313688e-02
2.416070e-03
6.375034e-03
7.913449e-03
1.045239e-02
1.702408e-02
1.223035e-02
1.603870e-02
2.088914e-02
2.175742e-02
2.152478e-04
-4.557980e-03
1.782900e-02
-6.513728e-03
3.641348e-03
2.219086e-03
-2.530649e-02
6.552907e-03
1.265634e-02
-3.734601e-02
9.438682e-03
-1.328608e-02
6.596670e-03
-1.773715e-02
-4.529387e-03
9.302816e-03
1.420197e-02
-1.495713e-04
3.188983e-02
-5.100953e-03
2.047208e-02
2.220546e-02
-8.756179e-03
-1.578402e-02
-9.651463e-03
-2.473094e-02
-1.216226e-02
-2.399301e-02
-4.407282e-02
-3.380419e-02
-2.183621e-02
-1.430011e-02
-3.838815e-03
2.166531e-02
-1.391874e-02
-1.638428e-02
1.549709e-02
-2.690293e-02
-2.368439e-02
-1.861219e-02
-1.962252e-02
-2.843232e-02
-6.868611e-03
-1.699534e-02
-7.463053e-03
-1.726156e-02
-4.544868e-03
8.298267e-03
6.970460e-04
2.381562e-03
1.576176e-02
-9.824437e-03
3.056857e-02
1.414643e-02
-1.947228e-02
4.804893e-02
2.664785e-02
-2.492607e-03
1.102206e-02
-1.537605e-03
6.414233e-03
5.519943e-03
-3.787988e-03
-9.860948e-03
-7.717324e-03
1.695477e-03
-1.405162e-02
7.281337e-03
5.350665e-03
-1.800339e-02
-2.199367e-02
-1.417387e-02
-2.489729e-03
-7.157743e-03
6.527356e-03
-2.643543e-02
2.348250e-03
1.522530e-02
-1.520900e-02
7.169840e-03
6.706852e-03
-1.886333e-02
1.138960e-02
5.948788e-03
8.422861e-03
-5.119633e-03
1.397041e-02
2.506562e-02
-1.997321e-02
-1.171249e-02
6.124031e-03
-1.854575e-02
-1.810686e-02
-2.624313e-02
7.245854e-03
1.394135e-02
-1.780212e-02
1.229858e-02
5.360814e-03
-1.532139e-02
1.478978e-02
-1.310130e-02
-3.341626e-02
-1.973359e-04
-1.158362e-03
-3.021057e-02
1.482150e-02
-8.820655e-03
-9.916149e-03
1.964798e-03
-4.148640e-02
9.644674e-03
1.580045e-02
1.246180e-02
3.940314e-02
4.568155e-02
-2.129818e-02
1.893578e-02
3.759440e-02
-7.602930e-03
-2.548026e-02
3.221427e-02
-5.108044e-03
-6.816420e-03
1.287779e-02
2.590315e-02
-3.261649e-02
-7.464849e-03
1.990523e-02
-3.250350e-03
-4.828471e-03
-1.660217e-02
-1.196069e-02
1.271530e-02
-2.299818e-04
-1.800666e-02
-3.640414e-02
-2.705061e-03
-6.639636e-03
-4.918752e-03
-1.197901e-02
-7.396568e-03
3.297780e-04
2.889857e-03
-1.527136e-02
-7.284967e-03
1.645225e-02
-4.181220e-03
1.503997e-02
-2.644707e-02
-2.303971e-02
-2.005341e-03
1.168334e-02
-1.353876e-02
-2.631163e-03
-1.744093e-02
9.305194e-03
1.559509e-02
2.881217e-02
1.179290e-02
7.418505e-03
1.863626e-02
-3.271392e-03
2.186430e-02
-2.923533e-04
-8.496972e-03
1.523813e-02
-2.563924e-04
5.375209e-02
1.279936e-02
1.857570e-02
3.302394e-02
1.249762e-02
-3.004558e-03
-1.158799e-02
2.070820e-02
-1.094819e-02
1.938988e-02
-1.498604e-03
8.265936e-05
-1.830095e-03
-5.930446e-03
1.664235e-03
3.517838e-03
-1.581628e-02
2.260977e-03
5.957615e-04
-2.916213e-04
-4.910129e-04
-1.966447e-02
-2.445818e-02
-2.343886e-02
2.323271e-02
8.056701e-03
-3.646714e-03
1.576068e-03
7.721107e-03
1.546821e-02
-3.377260e-03
-7.041431e-03
5.853503e-03
1.785538e-02
1.295079e-02
1.823290e-02
1.926802e-02
3.350829e-02
1.225580e-02
2.345465e-02
1.655859e-02
-8.092626e-03
7.843566e-03
9.669875e-05
1.079567e-02
-2.482309e-03
-1.507686e-02
-1.535532e-02
-1.673165e-02
-4.718699e-04
-3.593825e-03
-2.603656e-02
-1.066557e-02
3.638514e-03
1.188012e-02
-3.229382e-02
3.495179e-02
7.113332e-03
-1.065264e-02
1.857916e-02
1.096314e-03
3.225809e-02
6.161988e-03
4.288927e-03
5.741388e-02
2.225809e-02
-5.495891e-03
8.655965e-03
-2.264428e-05
-1.094601e-02
1.526270e-02
-1.118919e-02
-2.322132e-02
4.607005e-03
-1.033119e-02
-1.506341e-02
-7.787442e-03
4.233881e-03
1.348423e-02
7.002250e-03
-3.593194e-03
1.767510e-03
-6.304149e-03
1.712692e-02
-8.191145e-03
-4.923222e-03
5.828908e-03
-8.693384e-03
-1.840636e-03
-1.666126e-02
7.627025e-03
1.872796e-03
-1.412641e-03
5.957545e-03
-1.800322e-03
1.016455e-02
5.141654e-02
1.647864e-02
-7.709906e-03
4.041708e-02
1.054201e-02
-5.181888e-03
3.219878e-02
1.974272e-02
2.947763e-02
-4.742474e-03
2.695941e-02
-1.417136e-02
-1.356376e-02
-1.414092e-02
-5.716005e-04
1.720421e-02
7.170347e-03
-3.707743e-03
3.103953e-02
3.176555e-02
2.741747e-02
1.128231e-02
-1.477046e-02
3.464226e-02
-3.925402e-04
3.915141e-03
1.459741e-02
-7.823989e-03
1.437161e-02
-1.290499e-02
2.005666e-02
4.541030e-03
1.771287e-03
1.674887e-03
-2.660482e-02
-1.604741e-02
8.140015e-03
-9.405524e-03
3.751513e-02
-1.342108e-02
1.644636e-02
1.368937e-02
2.339816e-02
-6.359953e-03
8.164325e-03
1.425274e-02
-1.142029e-02
-1.987009e-03
2.809682e-02
1.268991e-02
-1.806874e-02
3.050236e-02
-1.990950e-03
7.502232e-03
1.016949e-02
-8.666619e-03
1.341462e-03
1.176255e-02
3.159880e-03
4.681043e-03
1.995678e-02
-1.850231e-02
-1.021895e-02
1.208059e-03
-1.171559e-02
-2.628857e-02
1.023431e-02
-9.477718e-03
1.108167e-02
1.956934e-02
2.565307e-03
7.381050e-03
4.247974e-02
2.519905e-02
-1.527595e-02
1.731372e-02
-2.001657e-02
-1.816289e-02
7.257855e-03
-1.404003e-02
-2.325493e-02
-3.893550e-02
-1.286190e-02
6.428497e-04
1.076046e-02
5.164910e-03
1.337658e-02
3.234088e-02
2.892681e-02
2.408767e-02
2.116348e-02
2.478852e-03
1.049354e-02
5.577395e-03
-1.840998e-02
3.882679e-03
6.085553e-03
-2.095696e-02
-4.754842e-03
2.533650e-02
1.562314e-02
-5.329533e-03
1.273060e-02
1.004424e-02
-1.863438e-02
1.203547e-02
1.731622e-02
-6.174553e-03
1.089460e-02
-2.601431e-03
1.413216e-02
-2.886916e-03
5.260936e-03
-2.291683e-02
-5.907171e-04
-1.446591e-02
2.034433e-02
7.218671e-03
2.333464e-02
1.888036e-02
-1.982681e-02
1.191668e-02
-1.066038e-02
-2.095367e-02
-5.893272e-03
-3.663643e-02
2.962881e-02
-1.042484e-02
1.008206e-02
1.548077e-04
-5.278888e-03
-1.141260e-02
4.185324e-02
2.841388e-02
-2.208105e-03
1.992050e-03
-2.266065e-02
-2.442803e-02
-1.663886e-02
-3.558273e-02
-1.395973e-02
1.077453e-02
8.995791e-04
-5.685160e-03
2.194427e-02
-8.448132e-03
-4.686581e-03
3.850611e-03
3.725486e-03
1.235816e-02
1.856628e-02
9.244292e-03
3.805057e-03
1.871064e-02
9.087643e-03
1.935245e-02
1.264500e-02
3.704863e-02
-4.936660e-04
1.274515e-03
8.285210e-03
1.496075e-02
1.110317e-02
-2.435409e-02
-1.122970e-02
1.486525e-02
-3.535410e-03
-1.300147e-03
9.237145e-03
-1.064780e-02
-2.591492e-02
-5.230729e-03
-9.334654e-03
1.116560e-02
-1.651013e-02
3.229035e-03
-1.989604e-02
-2.687324e-03
2.119481e-03
7.108832e-03
-2.318078e-02
-4.509327e-02
1.272557e-02
-4.365110e-02
-2.975980e-02
-1.089792e-02
1.744951e-03
9.286592e-03
2.101288e-02
-8.872073e-03
1.543887e-02
-4.785119e-03
-2.886464e-02
2.985351e-02
4.211370e-03
4.555197e-03
2.235726e-02
1.486103e-02
2.829149e-02
2.431642e-02
1.775928e-03
-1.675043e-03
1.026922e-02
-2.840077e-02
-7.940207e-03
-1.079221e-02
-2.358359e-02
-1.402787e-03
-4.777845e-03
7.788492e-03
-1.544896e-02
-1.623574e-03
-2.020552e-02
-2.929098e-03
-2.026346e-02
9.019933e-03
8.732145e-03
-5.115922e-03
-9.457634e-03
-1.796736e-02
-2.125591e-02
6.549030e-03
-1.175993e-02
-6.807785e-03
-1.333282e-03
-8.240241e-03
5.823046e-03
-7.138429e-04
-5.172216e-03
-2.380010e-02
-2.393462e-02
-1.604153e-02
-9.317572e-03
-1.327900e-02
-2.464868e-02
4.579170e-03
6.177448e-06
-1.601201e-02
-3.028056e-03
-1.728652e-03
1.158394e-03
5.094701e-03
-3.310122e-03
2.016405e-03
1.517390e-02
2.607931e-02
-3.773620e-03
-5.526105e-05
-1.529913e-02
-2.363018e-02
-3.218521e-02
-8.019572e-03
1.015491e-02
-1.541089e-02
-1.425949e-02
7.042938e-03
-3.007844e-02
8.652253e-04
1.623422e-02
-2.351133e-02
-1.212252e-02
-1.721757e-02
1.286871e-02
3.380975e-02
-1.785442e-02
7.816540e-03
2.809804e-02
-2.309450e-02
2.928313e-03
-8.438682e-03
2.359073e-02
9.877540e-03
-6.008050e-03
1.119705e-02
6.637057e-03
2.561355e-02
1.020332e-02
1.121635e-02
1.602555e-02
-1.257516e-02
-2.389102e-03
-1.642005e-02
-1.208256e-02
-6.394212e-03
-1.236265e-02
-2.479477e-03
-1.414708e-02
-5.237219e-03
1.212197e-02
3.408664e-02
2.525095e-02
4.793676e-03
3.941918e-02
3.159445e-02
-1.718820e-02
1.041798e-02
2.112073e-02
-2.561317e-02
-5.534858e-03
-2.165268e-02
-1.055598e-02
-3.668629e-03
-1.665456e-02
-2.511612e-03
1.816195e-02
-5.571678e-02
2.094415e-02
1.820433e-02
9.960975e-03
9.627185e-03
4.242227e-04
9.181816e-03
-2.217520e-02
-1.406133e-02
5.371214e-03
-1.215464e-02
-1.115041e-02
-7.029393e-03
8.335754e-04
-2.479509e-02
-2.400440e-03
-3.361194e-03
-5.497121e-03
-1.334146e-03
-1.246219e-03
-9.496422e-03
-7.978478e-03
-1.423475e-02
-3.221381e-03
1.196101e-02
-1.706447e-02
6.557494e-03
1.900095e-02
8.270053e-03
2.869688e-02
2.888957e-02
-1.376594e-02
-1.074781e-03
-3.868508e-03
-3.006947e-02
-9.423230e-03
-1.937527e-02
-2.851266e-02
-1.990579e-02
1.972518e-02
-7.248310e-03
-2.699326e-02
-9.688804e-03
1.354473e-02
-5.514398e-03
-2.071344e-02
-4.702237e-03
9.334162e-03
1.817426e-02
-1.260910e-02
1.678375e-03
-5.523422e-03
-1.765606e-03
-8.670297e-03
-2.349746e-02
-1.549330e-02
-9.939339e-03
2.421786e-03
-1.054406e-02
-8.983526e-03
3.577424e-03
-1.685071e-02
-1.383720e-03
-8.203533e-03
9.746627e-03
2.500779e-02
1.442902e-02
2.538345e-02
8.108173e-03
2.012417e-02
2.212232e-02
-1.755863e-03
-6.441026e-03
-1.056332e-02
-4.207503e-03
4.871846e-02
6.986315e-03
7.235650e-03
2.572814e-03
2.624379e-02
-2.023162e-02
-5.447520e-03
3.031377e-03
-1.048188e-02
1.273969e-02
5.927004e-03
-3.360291e-02
5.633100e-03
-2.602524e-03
-1.235249e-02
-2.082571e-02
-1.646076e-02
-7.678146e-03
5.383156e-05
-1.041820e-02
4.977467e-03
-1.277504e-02
-5.552739e-03
7.692024e-04
2.340491e-03
8.213547e-03
3.141631e-02
-1.586706e-02
9.729174e-03
1.519247e-02
3.746712e-03
-9.527076e-03
1.623627e-02
-1.330930e-03
-4.518872e-03
-2.463036e-02
9.613903e-03
-1.442540e-02
9.748778e-03
2.946053e-02
4.722369e-03
-3.306024e-03
1.554199e-02
-2.481333e-02
-1.447826e-02
1.207009e-03
-2.080506e-02
-3.948783e-03
-1.939642e-03
-2.027735e-02
-3.766583e-02
-1.155970e-02
1.356486e-02
2.251142e-02
-3.134571e-02
1.692310e-02
1.861013e-02
-1.511021e-02
6.071441e-03
2.841793e-02
-8.731746e-03
-1.457723e-02
-2.869424e-02
-2.896577e-02
-7.018975e-03
4.958187e-03
-2.940316e-02
1.083268e-02
-1.135980e-03
-2.331211e-02
6.775815e-03
1.661741e-02
-6.571359e-03
-2.604695e-02
1.251624e-05
-2.182722e-02
-1.247332e-02
-1.424978e-02
8.915734e-03
5.454807e-03
-7.745492e-03
-3.875661e-02
1.135440e-02
-4.282753e-03
-2.925187e-02
1.037010e-02
-2.904229e-03
1.244542e-02
-3.563130e-02
1.613071e-02
2.432985e-02
-6.647069e-03
6.906512e-03
-1.077972e-02
-2.925094e-02
-5.096086e-03
-1.129284e-02
-1.215903e-02
-9.494385e-03
2.598844e-03
-1.369501e-02
-2.487192e-02
-2.195408e-02
-2.095524e-02
-2.986918e-02
-2.702856e-02
-3.231225e-04
-1.522123e-02
1.210894e-02
-2.800337e-03
-2.284846e-02
-1.920064e-02
3.621962e-02
7.269438e-03
6.250743e-04
3.053516e-02
7.133466e-03
-1.086049e-02
1.831636e-02
-4.808063e-03
-1.163841e-02
-1.711110e-03
-6.988511e-03
-5.103000e-03
2.397627e-02
-1.516563e-02
-1.434892e-02
3.421241e-03
-3.135296e-03
1.151007e-02
-2.870845e-02
-4.934717e-03
-1.524699e-02
-1.589452e-02
-2.942367e-02
-1.364639e-02
-7.884121e-03
-4.025995e-02
1.863109e-03
4.136699e-03
-7.877560e-03
-1.491848e-02
-1.488464e-02
-1.380838e-02
-2.005830e-02
-8.289425e-03
1.229071e-02
-9.634814e-03
6.475550e-03
-1.694861e-02
-3.502368e-02
-1.665837e-03
7.926950e-03
3.414338e-02
-1.536769e-02
6.598067e-03
8.781460e-03
3.258946e-03
-5.248676e-03
1.241715e-02
2.365750e-03
-1.666545e-03
2.146247e-03
4.790493e-04
-1.197319e-03
-2.109033e-02
-1.019000e-02
-5.693958e-03
7.635050e-03
1.218535e-02
-2.264177e-03
-1.531956e-02
3.708267e-02
5.583484e-03
-2.337340e-02
8.583427e-03
1.407415e-02
-2.333269e-02
5.765263e-03
-1.149625e-02
-6.918540e-03
1.489520e-02
1.293829e-02
-2.266793e-03
3.987287e-03
-6.819677e-03
-2.675372e-02
2.636661e-02
8.142353e-03
4.749807e-03
-4.902891e-03
-3.475437e-03
6.776918e-03
1.507802e-02
5.720915e-03
-5.590933e-03
-1.925354e-02
-2.053481e-02
-5.933502e-03
-4.039128e-03
-1.381625e-02
-1.302663e-02
-6.995229e-03
-3.393539e-03
1.689402e-03
2.693536e-03
-2.050758e-03
-4.534733e-03
-5.699475e-03
-1.678957e-04
-6.631915e-03
-3.089584e-02
-4.145479e-02
-3.272898e-02
-3.433446e-02
-1.457310e-02
-1.838006e-02
-2.282177e-02
1.842546e-02
-6.386159e-03
-1.890974e-02
2.365920e-02
7.441662e-03
-1.231966e-02
-1.465929e-02
8.192796e-03
1.630054e-02
1.732400e-02
1.763574e-03
-7.415771e-03
1.633573e-02
3.196799e-02
1.289738e-02
-1.167716e-02
-8.023421e-04
3.099534e-03
-4.658333e-03
2.648342e-02
-1.485912e-03
1.074384e-03
2.956061e-02
7.245422e-03
3.052618e-02
2.654738e-03
2.994178e-02
3.610748e-02
-5.995146e-05
-4.494295e-03
1.840586e-02
-1.178674e-03
-6.520073e-03
-1.378838e-02
-4.034856e-02
4.700327e-03
-1.392197e-02
-2.765203e-02
-3.721836e-02
-2.434564e-03
-1.028103e-02
1.102930e-02
1.401883e-02
-1.148326e-03
3.893445e-02
2.367579e-02
-1.224467e-02
-1.145728e-03
-9.833057e-04
-3.632348e-02
2.986347e-02
3.609462e-03
1.104066e-03
-8.030939e-03
1.141566e-02
-5.780116e-03
1.111760e-02
4.207648e-03
1.689429e-02
-1.143992e-02
-3.640355e-03
1.242797e-02
-7.559711e-04
-5.638710e-03
-4.084898e-03
-1.750663e-02
-8.711614e-03
3.211496e-03
-3.293808e-03
-5.330783e-04
1.863434e-02
8.543549e-03
7.653631e-03
1.440778e-02
-1.018182e-02
1.487452e-02
4.530251e-02
-2.824344e-02
-3.979942e-02
-2.391579e-02
3.239881e-02
6.443526e-03
1.749751e-02
-2.032954e-02
-7.159514e-03
2.818811e-02
-2.169780e-02
-1.262580e-02
-2.242530e-02
-1.109813e-02
-3.749267e-03
-9.233486e-03
-2.308701e-02
-1.082156e-02
-2.190477e-03
-8.458363e-03
3.762666e-02
1.318946e-02
2.248973e-02
2.044408e-02
-1.505440e-03
2.094187e-02
1.219975e-02
5.541667e-03
-2.704143e-02
-6.822551e-03
1.503650e-02
3.461859e-04
1.444283e-02
3.275126e-02
-1.198299e-02
1.583500e-02
-2.539388e-02
2.136528e-03
1.638477e-02
5.319552e-04
-8.807417e-03
-2.109272e-02
1.588720e-02
-2.136518e-02
9.202028e-03
3.348627e-02
-8.465583e-03
-2.412515e-03
1.205236e-02
-8.592445e-03
4.155929e-04
-2.636355e-02
-1.211306e-02
-9.226742e-03
-1.947780e-03
6.736772e-03
-1.705080e-02
-6.231960e-03
-3.212488e-03
-1.611793e-02
-9.362071e-03
7.293527e-03
1.230858e-02
4.730216e-03
-9.299748e-03
-2.170920e-02
-3.021209e-02
3.106734e-02
-2.218796e-02
1.616434e-02
1.745163e-02
7.262242e-03
3.720895e-02
-1.336853e-02
2.102364e-02
2.755854e-02
-5.975325e-03
2.265105e-02
7.143113e-03
2.390395e-03
1.443810e-02
8.354845e-03
1.654308e-02
-1.276610e-02
-3.133936e-03
-5.376467e-03
-6.869722e-03
-2.595653e-02
1.568617e-02
6.937616e-03
-1.259283e-03
3.629943e-02
-1.208675e-02
-2.843229e-02
3.808808e-03
-1.654307e-02
-1.073837e-02
-3.315132e-02
-3.220058e-02
-3.770464e-03
1.390226e-02
5.168952e-03
1.892868e-02
-4.252981e-04
1.716358e-02
2.409679e-02
-3.121935e-03
1.328048e-02
8.783351e-03
-1.336044e-02
1.996895e-02
-1.834236e-02
-3.350145e-03
-2.749442e-03
-1.214379e-03
-2.212333e-02
-1.144667e-04
-1.871081e-02
3.542645e-02
1.622795e-02
-6.740199e-03
5.790576e-03
-2.867555e-02
7.271234e-03
-4.259459e-04
-2.467599e-02
-7.372236e-03
-3.990145e-02
-2.587775e-02
6.325084e-03
-1.268685e-02
-1.337154e-02
7.357129e-03
2.343053e-02
1.745322e-03
7.087909e-03
4.537469e-03
2.083886e-02
1.990480e-02
3.871505e-02
3.883126e-03
1.077536e-02
3.138338e-02
2.771819e-02
2.313898e-03
9.930818e-03
1.174436e-02
2.049769e-02
-7.781076e-03
-8.244031e-03
-2.231360e-03
-8.892029e-04
-1.882825e-02
2.542406e-03
4.432597e-02
1.168326e-02
8.752795e-03
4.601647e-02
-3.635583e-04
1.162241e-02
-1.633151e-03
-1.200760e-02
9.568271e-03
8.000544e-03
-1.313423e-02
-1.801885e-02
-1.134520e-02
-2.088679e-02
-3.509011e-02
-1.226100e-02
-1.526011e-03
-1.169281e-02
2.726378e-03
-5.515023e-03
-1.750166e-03
-1.522208e-02
1.258747e-03
-3.179231e-03
2.847281e-03
1.720903e-02
8.085750e-03
-2.867547e-03
2.226640e-03
4.842350e-03
9.878659e-03
2.465673e-02
1.215034e-02
2.352334e-02
1.126920e-02
1.236871e-02
-6.230593e-03
-1.140036e-02
2.148256e-02
1.441254e-02
6.074975e-03
1.445139e-02
7.674277e-03
2.012441e-02
3.534795e-02
6.865747e-03
9.238425e-03
-1.610371e-02
2.169887e-03
6.241038e-03
1.005831e-02
2.733731e-02
2.341268e-02
-3.472616e-04
-9.112062e-05
1.000695e-02
3.011477e-02
1.488113e-03
1.563016e-02
2.641199e-02
-2.318403e-02
-1.050601e-02
-1.455495e-03
-1.315348e-03
1.278158e-02
5.253267e-03
6.095348e-03
1.427412e-02
-9.576894e-03
6.126051e-03
1.465061e-02
1.212945e-02
-4.190245e-03
-1.490090e-02
8.233814e-03
3.324256e-02
-2.436447e-02
1.500616e-02
-1.401079e-02
-3.310496e-02
-5.062086e-04
-1.073381e-02
-9.772935e-03
-2.098850e-03
8.067690e-03
1.356885e-02
-2.497303e-02
2.126835e-02
-6.527812e-03
-2.312589e-02
1.268112e-02
1.635557e-02
8.630641e-03
-5.648620e-03
-2.669408e-03
-2.051490e-02
-7.765316e-04
-1.544137e-02
-2.158376e-02
-2.996018e-02
4.297379e-03
2.625302e-03
-2.929616e-02
-2.425860e-02
1.239015e-02
-2.629480e-02
-2.464011e-02
1.633866e-03
1.980875e-02
4.457662e-05
5.986346e-04
1.631438e-02
-1.808454e-03
4.736520e-03
2.156506e-02
4.110335e-03
-1.997845e-03
-3.960831e-03
-1.449707e-02
-3.855593e-03
-9.654654e-03
-1.033947e-02
-4.595343e-04
1.977609e-04
-2.456961e-03
3.168245e-03
-7.613355e-03
-1.959775e-04
1.137315e-03
-7.984516e-03
-1.477372e-02
1.213387e-02
-1.036639e-02
-3.695841e-02
-2.559646e-04
-3.847467e-02
-3.148545e-02
-6.654833e-03
-2.067498e-02
-1.962995e-02
1.511368e-02
-4.329455e-02
8.797143e-03
2.337922e-03
1.314258e-02
-1.330537e-02
-2.033762e-02
3.555018e-03
-6.340574e-04
-3.104384e-02
-2.801768e-03
-1.397252e-02
-8.662459e-04
9.092247e-03
2.056628e-02
-1.797591e-02
2.372202e-02
-7.413982e-03
-7.309843e-03
2.911009e-02
1.451141e-02
-1.418298e-02
1.934288e-02
3.028847e-02
2.157407e-02
-7.788882e-03
2.188533e-02
-1.169539e-02
1.463580e-02
2.720331e-02
-5.195015e-03
3.364627e-03
5.509341e-03
5.324161e-03
-1.796938e-02
-2.791574e-02
-6.326555e-03
-3.779153e-02
-1.354535e-02
9.316353e-03
6.424972e-04
-3.443135e-02
-3.042221e-02
-5.280571e-03
-1.872082e-02
-9.193612e-03
-1.231745e-02
-1.513862e-02
-6.337868e-04
2.006039e-02
8.097194e-03
-1.036675e-02
1.252076e-02
-2.007001e-02
-1.706081e-02
-8.526761e-03
-6.834579e-03
-1.206249e-03
-1.346317e-02
-1.766650e-02
3.322092e-02
-1.032683e-02
-1.614705e-02
1.852814e-02
-2.193363e-02
-1.415685e-02
-3.998158e-03
7.227543e-03
-3.313736e-04
-2.380651e-02
-1.281280e-02
-7.681197e-03
-1.982667e-02
-1.723811e-03
-1.682088e-02
-1.710320e-02
-1.457183e-02
-3.365134e-02
-1.353966e-02
-9.307940e-03
-4.541606e-03
1.481871e-02
-1.089505e-02
-2.572195e-02
-1.028165e-02
-3.330483e-02
-3.428234e-02
-2.962678e-03
1.294093e-02
-1.552834e-02
1.790322e-02
2.996921e-02
1.799004e-02
3.076364e-02
6.550462e-03
2.430660e-02
-1.013238e-02
7.988353e-03
-2.813005e-02
-1.188106e-02
2.628889e-02
-1.305669e-02
1.965997e-02
7.437390e-03
9.276847e-04
-2.003304e-02
6.630460e-03
-1.568830e-02
-2.304538e-03
2.247620e-02
-5.286617e-03
7.129806e-03
9.871975e-03
7.823264e-03
-1.448172e-03
2.338028e-03
6.266372e-03
-1.385135e-02
-1.711129e-02
-2.214963e-02
3.387253e-03
-8.439071e-03
-1.271939e-03
-3.573498e-03
7.613443e-04
9.258108e-03
-4.600395e-03
-2.863535e-02
2.636278e-03
6.026644e-03
1.217406e-03
-1.181405e-02
-2.337345e-02
2.993299e-03
-6.277971e-03
-6.529762e-03
-3.700040e-03
-4.147257e-03
-4.634498e-03
3.261174e-02
2.021756e-02
-4.723768e-03
2.712839e-02
1.152792e-02
-2.787187e-03
6.455758e-03
3.077191e-03
-1.773921e-02
1.839349e-02
4.306293e-03
2.779418e-02
2.719264e-02
-4.390311e-03
7.555676e-03
1.619031e-02
-1.008194e-02
-1.783104e-02
-4.595685e-03
-6.791681e-03
2.540742e-02
1.157699e-02
3.269462e-02
1.698465e-02
2.061343e-02
1.317484e-02
1.190063e-03
-2.004617e-03
-3.048174e-02
-2.458230e-02
3.102545e-02
5.735973e-03
-1.776286e-03
-3.426469e-03
9.040288e-03
-7.882828e-03
-9.400921e-03
-7.919449e-03
-1.163718e-02
1.505884e-02
1.574933e-02
2.314103e-03
1.070263e-02
-8.928913e-03
1.123144e-02
1.252579e-02
-4.406711e-03
5.310716e-04
1.194628e-02
5.925470e-03
3.276155e-03
1.213496e-02
-1.648572e-02
-5.006398e-03
-3.147178e-03
5.490221e-03
9.744419e-03
-2.233430e-03
3.166045e-02
-1.771099e-02
-1.310851e-02
-1.898670e-02
-2.223315e-02
1.908095e-02
7.106280e-03
-6.619570e-03
2.994116e-02
1.508590e-02
-2.148602e-02
-2.061964e-02
8.973575e-03
-4.045948e-03
2.670271e-02
-3.468695e-03
2.257992e-02
2.239858e-02
1.755460e-02
3.104980e-02
-1.129984e-02
-8.484196e-03
-8.239010e-03
1.448580e-02
1.549911e-02
1.574067e-02
-1.080716e-02
-2.991525e-03
2.435799e-02
-7.389796e-03
-7.665041e-04
7.746925e-03
6.365562e-03
-1.813717e-03
-2.440889e-02
-1.375931e-02
8.964652e-03
6.641340e-03
-3.067083e-02
3.160406e-03
1.759781e-02
-1.487125e-02
4.556744e-04
-6.117377e-03
1.684985e-02
3.255913e-02
2.345690e-02
-1.700216e-02
2.073180e-02
1.245863e-02
2.606313e-02
3.264803e-02
3.057658e-02
2.080289e-02
1.422464e-02
3.877467e-03
3.941002e-03
-3.140975e-02
-4.340098e-02
-1.188494e-02
4.512888e-03
2.593486e-02
1.821702e-02
-1.850448e-03
3.795375e-02
-6.542658e-03
1.710311e-02
1.806431e-02
-2.831861e-03
-4.847832e-03
3.659572e-04
1.104428e-02
2.216316e-02
2.767146e-02
-1.017733e-02
6.975467e-03
-2.140532e-03
-1.031189e-02
-4.625069e-02
-1.655948e-02
-2.767237e-03
-1.571273e-02
5.972580e-03
1.013119e-02
-9.351511e-03
4.624492e-03
2.196877e-03
-4.477949e-03
-2.317723e-02
-3.321803e-02
-8.781981e-03
2.854297e-02
-3.893840e-02
-2.301478e-02
1.001643e-03
1.433023e-02
-3.144317e-03
-1.503703e-02
1.084166e-02
1.161527e-02
-1.713156e-02
4.338931e-02
2.655114e-02
1.669949e-02
-1.355384e-02
1.348105e-03
3.727124e-03
-6.653860e-03
1.883048e-02
2.937597e-02
-6.059626e-03
5.902428e-03
3.405943e-03
-1.216633e-02
7.759471e-03
-4.746985e-03
1.314613e-02
-4.231312e-04
-1.545172e-02
-9.495535e-03
-3.606187e-02
-2.048976e-02
-3.002073e-02
3.254922e-03
2.019705e-02
-8.684872e-03
9.728241e-03
-6.260467e-03
-1.298163e-03
1.914302e-02
-2.527148e-02
3.642488e-02
2.454446e-02
1.925267e-02
7.952421e-03
1.887672e-02
-5.885438e-03
3.155199e-03
-1.144427e-02
-4.945071e-03
1.883766e-02
-2.119664e-03
-2.634101e-03
7.157804e-03
3.208224e-02
8.247879e-04
-2.833211e-03
-2.350457e-03
3.452564e-02
-1.420923e-03
-1.830759e-02
-7.546587e-03
-1.201861e-02
4.395717e-03
4.575454e-03
-2.696012e-02
-8.706812e-03
1.093943e-02
-1.053178e-02
-2.224975e-03
-2.108635e-02
7.647316e-03
2.193751e-02
9.186313e-03
-5.217692e-03
9.503182e-04
-5.661579e-04
3.724894e-03
9.985548e-03
-6.675024e-03
-2.475829e-02
5.898719e-03
7.478484e-03
-4.611849e-03
1.536776e-02
1.568184e-02
1.635265e-02
3.378343e-03
1.171843e-02
1.630259e-02
1.192436e-02
-7.281139e-03
2.399345e-02
-2.585895e-02
-7.454515e-03
2.393358e-02
6.671461e-03
1.872835e-03
1.882314e-03
-5.333029e-03
-5.235306e-03
-8.902118e-03
1.188007e-02
1.974583e-02
-1.851736e-02
8.011617e-03
-3.487309e-02
-2.493011e-02
-1.370130e-02
-2.570973e-02
-1.663727e-02
-5.051031e-03
-1.986835e-02
-1.931336e-02
-2.621562e-02
6.046819e-03
-1.781155e-02
1.054596e-02
-5.343477e-03
5.680846e-03
2.196798e-02
-3.701632e-03
-2.594268e-02
2.806014e-03
-3.219707e-02
-1.204403e-02
3.814492e-03
-1.007603e-02
1.138605e-02
9.886511e-03
7.459065e-03
1.390688e-04
-7.075239e-03
-8.443999e-03
-1.001595e-02
-3.777060e-03
-5.160611e-03
-1.965006e-03
9.248643e-03
-1.323859e-02
-3.767113e-03
-1.239498e-02
-1.830963e-02
-7.822324e-03
-2.758452e-02
2.552153e-03
-1.010573e-02
-2.045247e-03
9.355834e-03
-1.184191e-02
-1.048712e-02
-1.726931e-02
-3.850405e-03
-2.319538e-03
7.542097e-03
-3.000912e-02
-2.997102e-02
1.164792e-02
-6.895374e-04
-8.681393e-03
-2.537421e-02
-6.089695e-03
-1.527824e-02
-1.727357e-02
7.108982e-04
2.276752e-03
2.736723e-04
-1.387015e-02
5.505641e-03
1.230874e-03
-4.534143e-03
-1.947605e-03
6.960905e-04
-7.649761e-03
6.085231e-03
1.283874e-02
-6.736209e-03
1.327549e-02
5.111167e-03
-2.417275e-02
3.083723e-03
-2.159069e-03
-7.094709e-03
1.955982e-04
2.398678e-02
-2.684790e-02
-1.789179e-02
1.413356e-02
-2.180281e-02
2.319510e-04
1.181985e-02
1.629535e-02
-9.138531e-03
-1.496750e-02
-5.210480e-04
-1.851119e-02
-1.491744e-02
-1.239717e-02
-1.722416e-02
1.613142e-02
1.536949e-02
2.010971e-03
1.245218e-02
2.286751e-02
3.580070e-02
1.957719e-02
6.726972e-03
1.747442e-02
1.095005e-02
1.562623e-03
-1.461646e-02
-3.694086e-02
-3.266079e-03
1.328770e-02
1.155997e-02
-1.317034e-03
2.592529e-03
2.966213e-02
-1.843839e-02
-1.366684e-02
-9.192948e-03
-8.452818e-03
8.789731e-03
5.270878e-03
-1.791912e-03
3.755230e-03
4.248092e-03
-9.675693e-03
-9.260952e-03
-2.992910e-02
2.192416e-02
-1.171890e-02
1.121522e-02
-9.712676e-03
-3.086097e-02
-2.694858e-02
-3.929798e-03
-3.440282e-02
-2.224139e-02
-3.182248e-02
-2.218910e-03
-3.311387e-03
-4.111811e-03
1.040615e-02
3.631454e-02
1.415182e-02
4.536640e-02
2.469638e-02
-4.823492e-03
-1.298477e-02
-7.518016e-03
3.458146e-03
6.545808e-03
8.071523e-03
-5.752967e-03
-1.129057e-02
2.491846e-02
3.050294e-02
-2.029208e-03
1.484076e-03
-4.424464e-02
-1.507246e-02
-1.155181e-02
-1.491856e-02
-2.450892e-02
-1.848775e-02
-3.904029e-03
-5.311903e-03
-5.771886e-03
-1.674025e-02
-1.002935e-02
-1.732958e-02
-1.487279e-02
8.128327e-03
-3.471148e-02
1.443699e-02
1.443634e-02
1.348030e-02
-9.826771e-03
-7.815801e-03
5.123368e-03
2.697191e-02
1.576454e-03
-1.285102e-02
-2.184586e-02
-7.949691e-03
2.522679e-03
-4.408189e-02
5.996397e-03
-2.392947e-02
-3.674361e-02
-6.305817e-03
-1.647728e-02
-1.496646e-02
9.672834e-03
2.147578e-02
8.545448e-03
2.486851e-02
2.624144e-02
1.842172e-02
1.410831e-02
1.177057e-02
1.052364e-03
-1.962229e-02
-1.751024e-02
-1.444157e-02
7.867971e-03
-1.482500e-02
1.093594e-02
-5.217557e-03
9.737134e-03
6.719964e-03
4.931145e-03
5.584224e-04
-8.823886e-03
-5.214248e-03
-1.571921e-02
-9.351555e-03
-2.436231e-02
7.492506e-03
-1.883324e-02
1.542506e-02
-1.403756e-02
-2.348166e-04
3.495130e-02
2.752423e-03
-1.667544e-02
1.813079e-02
6.861434e-03
1.483969e-02
-9.945196e-03
7.060646e-03
1.256716e-02
-1.652395e-02
-1.445642e-02
4.275855e-03
-2.598632e-02
3.722314e-03
-1.456571e-03
2.265531e-02
-2.506512e-03
-4.998757e-03
5.960253e-03
-4.572369e-03
-3.102450e-04
2.222751e-02
-7.347593e-04
1.466310e-02
1.301269e-02
2.281720e-02
-6.134253e-03
1.807537e-02
1.378898e-02
5.935019e-03
-4.008923e-03
-1.357051e-02
-4.411371e-03
-2.878387e-02
2.256023e-02
8.002914e-03
-2.060522e-02
1.556197e-03
-1.943788e-02
-1.762112e-02
4.285797e-03
-1.937041e-02
9.820675e-04
-2.662521e-03
3.093508e-02
4.545146e-04
-2.451790e-03
-7.358135e-03
6.248996e-03
-8.027134e-03
-4.148679e-02
-3.598912e-02
1.822536e-03
-6.796729e-03
-1.724501e-02
-1.084998e-02
-1.015291e-02
-3.897884e-03
-5.679679e-03
-2.450218e-02
2.366542e-03
9.012314e-03
1.177369e-02
2.290931e-02
6.812166e-03
-5.480397e-03
1.451180e-02
2.248519e-02
1.948261e-02
5.660146e-03
-1.776364e-02
1.339312e-02
-5.633714e-03
-6.238181e-03
6.932053e-03
3.236712e-03
4.636503e-03
2.759181e-02
1.632294e-02
4.953570e-03
1.977181e-02
8.612796e-03
1.894247e-02
-5.936152e-03
-4.631913e-03
1.137205e-02
1.115832e-02
3.216390e-02
4.090877e-02
2.438358e-03
-1.339759e-03
-1.801913e-02
-3.237241e-03
-7.388693e-03
-1.174319e-02
2.852585e-03
2.113680e-02
6.187513e-03
-1.247096e-02
-1.213540e-02
-1.195180e-02
-3.171994e-03
-1.115479e-02
-2.723852e-02
1.082401e-02
-2.037692e-02
6.182572e-03
-2.960161e-02
-5.438305e-03
-1.377054e-02
-1.482977e-02
3.790689e-04
-2.615958e-02
1.346475e-02
4.210104e-04
1.712911e-02
1.899342e-02
1.693672e-02
-1.179050e-03
1.231716e-02
8.788533e-03
-6.956928e-03
3.485331e-02
1.526464e-02
1.716943e-02
1.742540e-02
1.157325e-02
1.815462e-02
-2.283182e-02
-2.618032e-02
-2.830123e-02
2.155485e-02
3.075532e-03
5.510834e-04
7.144503e-03
2.104620e-03
5.416508e-03
-1.391690e-02
2.969040e-02
2.550796e-02
-1.256184e-02
8.681549e-03
-1.716627e-03
-2.733333e-02
-2.504975e-02
-4.100227e-03
-2.768225e-02
-7.745033e-03
3.948939e-03
-2.407506e-02
-1.223942e-02
-2.283339e-02
-2.291983e-02
7.128919e-03
-1.798470e-02
3.107067e-04
4.513697e-03
-1.593720e-02
-2.509174e-02
-5.886312e-03
-1.510659e-02
-8.132416e-03
-1.947493e-02
7.572506e-03
6.417123e-04
7.378629e-03
-3.190216e-02
-6.700014e-03
-5.110172e-03
-1.283969e-02
-1.577766e-02
5.664504e-03
3.201687e-03
1.172360e-02
8.031176e-03
-1.475501e-02
-9.652878e-03
-1.694986e-03
-6.326913e-03
1.070767e-02
-1.132471e-02
-2.423658e-02
-3.640268e-03
1.225123e-02
1.801572e-02
-7.900952e-03
-1.685131e-03
-2.418069e-02
-1.496554e-02
4.124734e-03
-1.281562e-02
-6.245804e-03
-1.247019e-02
-2.001927e-02
1.472895e-02
-7.685326e-03
-7.862376e-03
3.472036e-02
-5.342353e-03
1.484734e-02
-1.517401e-02
-4.220881e-03
-4.563575e-03
1.034447e-02
4.785986e-03
-4.603933e-03
2.352059e-02
3.545841e-03
3.901968e-02
7.460917e-04
2.318277e-02
2.074451e-02
8.554250e-04
-2.001787e-02
-7.794057e-03
-2.524164e-02
-1.168552e-02
1.016281e-02
1.017214e-02
3.459802e-02
1.156099e-02
8.910391e-03
1.084425e-02
-3.148073e-03
-2.368407e-03
-2.011420e-03
1.516367e-03
-4.171582e-02
-3.519176e-02
-1.896075e-02
1.101381e-02
1.566588e-03
2.684218e-02
1.874272e-02
2.132389e-02
2.766339e-02
-1.651679e-02
1.356650e-02
2.271971e-02
-5.995629e-03
9.203960e-03
-2.114655e-02
-1.792952e-02
-1.559071e-02
-7.746586e-03
1.100510e-02
3.235571e-03
-2.069556e-02
4.088015e-03
-1.291593e-02
-2.445222e-02
8.598466e-03
-3.491839e-03
-2.664801e-03
-9.160484e-03
-7.176544e-03
-1.306243e-02
1.175470e-02
-8.237976e-03
-2.043717e-02
4.078389e-02
2.708285e-02
1.760880e-02
6.588177e-03
-1.397419e-02
7.656443e-04
1.289024e-02
-1.376619e-02
5.301826e-03
2.212024e-02
4.792453e-03
-3.892469e-03
-1.110291e-03
-2.885299e-03
4.698827e-05
-6.329739e-03
-9.615153e-03
-1.388003e-03
1.553855e-02
1.353216e-02
5.343406e-03
1.208840e-02
9.820575e-03
2.606991e-03
1.108169e-03
-8.570886e-03
-1.572040e-02
4.669034e-03
1.635808e-02
-3.236747e-03
3.568383e-02
2.582002e-02
1.627921e-03
-1.392407e-02
9.949116e-03
-1.813981e-03
5.923055e-03
2.370373e-02
1.806431e-02
-1.059605e-03
4.436808e-03
-2.905732e-02
-2.074092e-02
1.353936e-02
1.203636e-02
-2.857972e-02
-1.729344e-02
1.775313e-02
-1.674385e-02
2.503383e-03
1.576798e-02
-1.762988e-02
-1.599337e-02
-9.869182e-03
-9.582923e-03
2.889203e-02
7.892819e-03
-5.575433e-03
2.656348e-02
8.269076e-03
2.939903e-02
-5.815024e-03
2.869197e-02
1.571874e-02
-1.179623e-02
8.036580e-03
8.858149e-03
-1.019311e-02
-2.665992e-03
-2.505868e-02
-1.131631e-02
-2.733244e-02
-3.391271e-02
-1.939267e-02
-3.226773e-02
-1.320138e-02
-1.739918e-02
-2.212174e-02
1.290082e-02
4.882685e-03
9.832829e-03
-1.051196e-02
-1.370340e-02
-6.677825e-03
-1.357691e-02
1.139106e-02
2.229337e-03
1.595447e-02
2.097737e-02
1.733021e-02
-2.577459e-03
1.065602e-02
2.494909e-02
8.270864e-03
-1.170552e-02
1.011756e-02
-2.200718e-02
-1.853058e-03
-9.754305e-04
-1.370150e-02
-1.087431e-02
-7.093959e-03
1.166933e-02
-6.680950e-03
-1.173226e-02
5.415851e-03
-8.097968e-03
-1.575977e-02
1.448246e-02
-2.120641e-02
-1.998752e-02
2.853428e-02
-7.714973e-03
-2.890953e-02
3.529424e-03
-9.672101e-03
-1.245887e-02
8.180570e-03
6.172131e-03
-9.948929e-03
-3.520411e-03
-1.865124e-02
-1.434722e-02
2.946697e-03
3.589869e-02
1.677050e-02
2.068163e-02
-1.200730e-02
7.556404e-03
1.123657e-03
-1.655587e-02
-3.090106e-02
-3.074681e-02
-1.716893e-02
2.782977e-02
-4.358390e-03
-5.567834e-03
3.501034e-02
-3.210590e-03
7.972830e-03
1.343368e-02
-2.523370e-02
3.813508e-03
-2.664881e-02
1.982074e-03
1.398421e-02
-8.962926e-03
1.145350e-02
1.506210e-02
1.411790e-02
1.479524e-03
1.416624e-02
3.024289e-02
-3.648821e-03
1.018938e-02
4.177810e-03
5.837226e-03
-4.008605e-03
1.785202e-02
-4.519893e-03
-8.383610e-04
-2.360500e-02
-1.699371e-02
-1.246436e-02
-7.187984e-03
-2.182265e-02
-2.248980e-02
-1.155391e-05
4.511139e-03
9.600268e-03
1.649721e-03
-7.700393e-03
-8.263416e-03
-5.410586e-03
6.295001e-03
-5.334533e-03
1.021096e-03
-4.110561e-03
-1.259137e-03
-1.559536e-02
-2.967696e-02
-1.052371e-02
-2.397983e-02
6.117786e-03
7.279382e-03
-3.815199e-02
-4.665974e-03
-6.754582e-03
-9.510136e-03
-1.756272e-02
2.668103e-02
2.496405e-02
-4.005959e-02
-2.731759e-02
2.000092e-02
7.101587e-03
-1.781987e-02
1.531707e-02
8.470635e-03
1.615734e-02
6.742988e-03
1.734838e-02
-7.355557e-03
-1.376782e-02
-6.048371e-03
1.576622e-02
9.496355e-03
-1.115802e-02
1.938329e-02
1.332542e-02
-3.300607e-03
1.578715e-02
9.489900e-03
-1.652494e-02
1.163782e-02
3.706826e-02
-4.003384e-03
3.200955e-02
1.767037e-02
-2.456806e-02
-3.619468e-03
-1.536891e-02
-7.750054e-04
-1.141230e-02
-5.377317e-03
2.021983e-02
-7.245867e-04
7.249912e-03
6.777809e-03
7.640747e-04
9.095850e-03
1.869247e-03
1.711796e-02
1.111612e-02
-2.964179e-02
2.622252e-03
-8.353222e-03
-2.531590e-02
2.076274e-03
-1.723039e-02
-5.312432e-02
-4.008261e-02
-9.067410e-03
-3.673930e-02
-7.623120e-03
1.754946e-02
2.979882e-03
8.123860e-03
1.060998e-02
1.152404e-02
1.748816e-02
7.307748e-03
-4.269814e-02
-2.161520e-03
6.132023e-03
-2.264985e-02
-1.075485e-03
-6.038764e-03
-8.226008e-03
-4.256541e-03
-8.364574e-03
-1.879401e-02
-1.785342e-02
-2.312987e-02
2.697370e-03
-8.598040e-04
-8.837392e-03
-1.771691e-02
1.874422e-02
2.681093e-03
2.011146e-02
5.573608e-03
1.298064e-02
2.139106e-02
1.819393e-02
2.007747e-02
9.418065e-03
1.198328e-02
2.425382e-02
-3.008197e-03
7.739029e-03
2.238541e-03
-3.463278e-02
-2.759598e-02
-4.311705e-03
-9.531903e-03
3.089293e-03
2.706966e-02
1.232929e-02
2.057368e-02
5.215630e-03
1.973094e-02
1.142559e-02
-4.475012e-03
1.180840e-02
1.089458e-02
-5.448303e-03
1.268549e-02
-3.023065e-03
-3.264171e-02
-1.118031e-02
-2.689151e-02
-3.884904e-02
-6.798783e-03
6.455655e-03
-1.514124e-02
3.289234e-02
-7.032890e-03
1.129145e-03
1.577272e-02
1.245654e-02
1.233942e-02
1.236040e-03
1.586539e-02
-1.413085e-02
2.460629e-02
3.973732e-02
-2.705450e-02
7.906125e-03
-2.765258e-03
-1.290368e-02
5.218383e-03
4.018287e-03
-3.926167e-03
8.933124e-04
-2.395901e-02
-2.472172e-02
2.144909e-02
-2.595039e-02
-1.734277e-02
-2.471731e-03
7.567467e-03
-2.072326e-02
-2.531373e-03
1.424878e-02
-8.586864e-03
-2.118308e-02
-1.561897e-02
-1.185759e-02
8.715103e-03
1.686390e-02
-7.762183e-03
2.415913e-02
2.110763e-02
-9.079338e-03
2.217197e-03
-8.824290e-03
-1.137329e-02
4.304388e-03
9.675981e-03
2.283265e-02
-9.067724e-05
1.367589e-02
-2.898376e-04
6.083876e-03
1.112192e-02
2.914898e-03
-7.019838e-04
-2.465525e-02
1.646844e-02
-1.095987e-03
1.299115e-03
5.560454e-03
-1.266275e-02
-2.869758e-02
3.562435e-04
-1.106421e-02
1.182746e-03
-8.152360e-03
5.755712e-03
9.479046e-03
1.698580e-02
1.470948e-03
1.734108e-02
-8.141297e-03
1.276621e-02
-3.056223e-03
8.416877e-03
-2.282396e-02
5.027199e-03
1.382101e-03
-8.800047e-03
-7.782066e-04
-1.643907e-02
-5.836478e-03
-1.635655e-02
-9.309679e-03
5.123804e-04
-2.463731e-02
-2.787785e-03
8.275396e-03
-2.547511e-02
-4.301165e-02
-2.916579e-02
3.750268e-02
2.543304e-02
3.625514e-03
2.285779e-02
2.111181e-02
-2.492106e-03
-2.665780e-02
-3.463074e-03
-1.410256e-02
-7.310344e-03
7.757341e-04
-3.977898e-02
-3.009505e-02
-1.951835e-02
-1.648459e-02
-2.895110e-02
4.833700e-03
1.312518e-02
-7.158909e-03
-7.756659e-03
5.307771e-03
1.383179e-02
1.751437e-02
6.720679e-03
3.730609e-02
2.133887e-02
3.443337e-03
7.217570e-03
-2.189058e-02
2.335801e-02
-8.189907e-03
-1.498809e-02
-7.633321e-03
-2.914189e-02
-2.150850e-02
-7.186065e-03
-2.304336e-02
8.015024e-03
-1.255315e-02
-2.517079e-03
-3.251012e-03
-2.742303e-02
-1.451287e-02
-9.789221e-03
2.368972e-02
3.602807e-03
2.984740e-02
2.188005e-02
8.988548e-03
2.488403e-02
3.388489e-02
4.718475e-02
4.095617e-02
-1.368745e-02
-1.278244e-02
-8.826499e-03
-7.731202e-03
-3.091131e-02
-8.671205e-03
-2.023249e-03
4.293153e-03
2.308840e-02
-2.409857e-02
-1.437860e-02
4.241585e-03
-3.307930e-02
-1.152490e-02
1.450931e-02
-1.384349e-02
-1.348526e-02
-9.206857e-03
-1.769120e-02
-2.875747e-03
-1.030035e-02
-2.229105e-02
1.371678e-02
-3.565590e-03
-9.730096e-03
-1.282776e-03
8.760382e-03
-1.851204e-02
-1.929692e-02
-8.657737e-03
6.367196e-03
-8.486123e-03
5.308340e-03
-1.239926e-02
-2.842559e-02
-7.170099e-03
1.633881e-02
6.264247e-03
-2.510546e-02
2.026071e-02
2.799306e-02
1.728853e-02
1.317433e-02
1.861196e-02
3.217525e-04
-4.160478e-02
7.642098e-03
2.070214e-02
-9.142421e-03
5.033426e-03
4.289425e-03
-1.571341e-02
-2.086228e-02
9.618357e-03
2.650856e-03
1.379149e-02
-2.699120e-03
8.373717e-03
-1.140113e-03
-5.336127e-03
4.704450e-03
2.653193e-02
1.824442e-02
-1.129532e-02
-1.799391e-02
-1.372011e-02
1.757194e-02
1.413519e-02
3.147270e-03
1.298621e-02
1.897845e-02
-1.144401e-03
1.492288e-02
1.717052e-02
-4.245592e-03
4.683468e-03
1.000565e-02
-4.725125e-03
-1.510014e-02
3.842815e-02
-1.651167e-02
2.618819e-02
1.040497e-02
3.058687e-02
1.206038e-02
1.137140e-02
1.239585e-03
-3.517427e-03
-1.663898e-02
-3.040929e-02
-1.744657e-02
-2.874468e-02
-4.364816e-02
-2.042064e-03
-3.536288e-02
-4.041251e-02
-7.090602e-04
-2.914660e-02
-4.244210e-02
-7.891121e-03
-2.123352e-02
-1.574580e-03
-1.082686e-02
3.017111e-03
2.455511e-02
7.496138e-04
6.815806e-03
1.258737e-02
-9.301728e-03
-1.057942e-02
-1.744423e-02
2.481752e-02
-1.214581e-02
-8.594230e-03
3.796531e-02
1.803683e-02
-1.859798e-02
-1.430213e-02
-5.463690e-03
7.219621e-03
8.027336e-04
-7.224248e-03
1.889262e-02
2.283330e-02
7.600547e-03
3.119149e-04
6.911817e-03
1.755377e-02
3.114998e-02
-2.769224e-03
2.182687e-02
-3.109044e-03
-2.796625e-02
2.012616e-02
1.975369e-03
1.419720e-02
1.817848e-02
1.582103e-02
-5.240592e-03
7.592177e-03
1.296101e-02
-1.937006e-02
1.219350e-02
-2.436217e-02
-1.409825e-02
4.068250e-03
4.453906e-02
-6.131402e-03
-1.467744e-02
3.438782e-02
1.041231e-02
1.353203e-02
1.197514e-02
-1.298367e-04
2.194647e-03
-1.202131e-02
1.525425e-02
-3.969358e-03
1.404104e-02
-2.152713e-02
-1.813095e-02
-7.102802e-03
-2.924028e-02
-2.840313e-02
-2.088758e-04
-1.642385e-03
1.942090e-02
1.373338e-03
-8.350668e-03
1.606871e-02
2.518807e-02
-2.998878e-02
-2.034013e-02
-2.462831e-02
-1.614155e-02
1.173427e-02
-1.188688e-02
1.791889e-03
1.608102e-02
3.912119e-03
9.123482e-03
1.760567e-02
-1.184357e-03
-5.234680e-04
-2.169409e-05
-4.598882e-03
2.151673e-02
2.766491e-03
-1.286374e-02
3.268259e-02
1.478364e-02
5.866904e-03
2.419011e-02
-4.017172e-03
2.992215e-02
7.386787e-03
1.767317e-02
2.296070e-02
-1.432167e-02
-4.620983e-04
-8.061145e-03
-1.104777e-02
1.032798e-03
5.064847e-03
-1.338347e-02
5.913581e-03
1.918701e-02
6.437617e-03
1.440936e-02
1.580812e-02
2.091726e-02
-5.258161e-03
3.750196e-03
1.557171e-02
-2.205236e-02
-5.468385e-03
-5.000570e-03
-1.220514e-02
-2.223246e-04
-1.585088e-02
1.152392e-02
1.587937e-02
5.810455e-03
2.812808e-02
2.708406e-02
2.360019e-03
-1.947681e-02
-4.601162e-03
-2.484802e-03
-1.889458e-02
-1.713450e-02
1.196416e-02
-2.468396e-03
4.433140e-03
-7.133737e-03
-1.293733e-02
-3.689614e-02
-1.870986e-02
5.807356e-03
-2.366818e-02
-1.089019e-02
3.758159e-03
-1.701636e-03
-5.512206e-03
2.112480e-02
4.015683e-02
-5.862753e-04
-1.242595e-03
8.433210e-03
2.107367e-03
-2.105792e-02
2.013835e-02
1.146423e-02
-8.435744e-03
-1.393871e-02
-1.173052e-02
-1.251150e-03
2.328546e-03
-8.906383e-03
1.219271e-02
2.322480e-02
1.388642e-02
-1.623170e-02
1.224435e-02
1.207366e-02
-9.085600e-03
-1.948437e-02
1.003744e-02
-9.052384e-03
-1.126416e-02
8.392570e-03
-5.014855e-04
-4.360544e-03
2.903377e-04
2.151701e-02
-1.840084e-02
1.669988e-02
9.963837e-03
4.296456e-04
8.488909e-03
4.369790e-03
2.443235e-02
-5.892286e-03
9.236527e-03
2.038553e-02
8.065349e-03
5.975098e-03
1.551083e-02
-3.307678e-02
-2.520039e-02
1.610043e-02
-2.192166e-03
-1.645532e-02
5.699274e-03
1.019528e-03
-9.763204e-03
2.343116e-02
9.496082e-03
3.464205e-02
-1.421841e-02
-3.550429e-03
1.389012e-02
-1.082011e-02
1.557399e-02
-9.508265e-03
-2.400635e-02
7.671946e-04
-1.654340e-02
-1.150652e-02
2.001931e-02
3.043421e-02
-1.631154e-02
-2.034149e-02
5.221786e-03
-2.292022e-02
-1.818358e-02
-1.489115e-02
-2.026585e-02
2.658158e-02
2.356819e-02
3.909898e-03
4.503695e-03
1.076818e-02
1.236355e-02
1.326452e-02
4.886490e-03
-3.691308e-02
-4.572826e-03
7.883746e-03
-3.512777e-02
-5.196077e-05
1.245280e-02
-1.533924e-03
-2.116271e-02
-1.768359e-02
-4.592387e-03
-1.872677e-02
1.329025e-02
-1.199963e-02
1.255780e-02
5.775142e-03
2.124696e-02
2.586731e-02
1.848911e-02
2.532304e-02
-1.536003e-02
2.212742e-02
6.179250e-03
-2.657598e-03
-4.336813e-03
-1.248372e-03
5.378849e-02
2.229834e-03
-2.116263e-02
-1.850846e-02
-2.281807e-03
-9.558172e-03
-2.387228e-02
-1.823900e-02
-6.025111e-03
-4.556169e-02
-2.474097e-02
1.822226e-02
-2.617031e-02
1.579617e-02
3.461822e-03
-1.055823e-02
6.041332e-03
2.721466e-02
-3.007738e-02
3.207336e-03
6.145940e-03
5.658917e-03
-1.099660e-03
4.574795e-03
6.506816e-03
2.643369e-02
-1.178968e-02
-2.565353e-02
-2.007774e-02
-5.120525e-03
4.731622e-03
2.492160e-03
-7.632813e-03
3.219245e-02
1.439038e-02
-9.553989e-03
-1.614726e-02
-1.853951e-03
-2.146590e-02
1.720498e-02
1.429286e-02
-2.796105e-02
1.380773e-02
-1.291813e-02
-1.519518e-02
-1.141512e-02
1.369751e-02
-6.307952e-03
1.691657e-02
9.129848e-03
-1.219331e-02
-2.112062e-02
-5.703695e-03
-1.772583e-02
-1.540421e-02
2.457668e-02
2.183190e-03
-2.748614e-03
2.092629e-02
-1.255214e-02
1.080378e-02
-6.253494e-03
-1.314497e-02
2.346855e-02
-4.631155e-03
-3.035536e-02
1.135000e-02
-5.515145e-03
8.101285e-03
-2.615790e-02
3.241016e-02
1.532566e-02
-6.381396e-04
7.789465e-03
-8.222671e-03
-1.597436e-02
-2.000863e-02
1.687533e-03
-4.031533e-02
-1.825415e-02
1.132877e-02
-1.610436e-02
1.285488e-02
3.859435e-03
9.400904e-03
3.647766e-02
1.971070e-02
-2.355696e-02
6.369536e-03
-8.034694e-03
-3.671569e-02
1.176076e-02
3.531978e-02
-6.654647e-03
3.736028e-02
3.307833e-02
-1.300609e-02
9.819184e-03
7.086787e-04
6.286513e-03
-1.740042e-04
-1.901944e-02
-5.428710e-03
1.156507e-02
7.132703e-03
2.709845e-02
2.208353e-02
1.612805e-03
-3.554610e-02
-6.140522e-03
-1.220148e-02
4.455148e-03
2.621683e-02
4.170124e-03
9.191481e-03
4.040073e-02
-3.067592e-03
-4.578537e-03
-1.903823e-03
1.980615e-02
8.929904e-03
5.402038e-03
1.686818e-02
8.774521e-05
2.240789e-03
-4.103924e-02
3.733980e-04
-8.845919e-03
1.981577e-03
3.266706e-02
1.337923e-02
-1.908698e-02
3.001632e-02
1.216972e-02
-2.680396e-03
4.525988e-03
6.653314e-03
3.647647e-02
-2.619027e-02
3.115821e-02
9.732048e-03
-2.766885e-02
-1.716684e-02
5.403607e-03
-5.803025e-03
1.610582e-03
1.950749e-03
8.070826e-03
5.895138e-03
1.628551e-02
-3.807322e-03
1.444549e-02
2.465184e-03
-2.382494e-02
-6.174288e-03
-3.616136e-02
-1.334836e-02
-3.470317e-03
-5.659664e-03
3.510368e-03
8.789401e-03
2.564244e-02
-6.376119e-03
-2.720656e-02
-7.943384e-03
-1.997517e-02
-2.578669e-02
-8.753248e-03
-1.630834e-02
-1.200196e-02
-2.312037e-02
-1.175068e-02
-1.165238e-02
-1.910623e-02
-1.319042e-02
5.244325e-03
-1.280431e-02
1.174332e-02
-4.149504e-02
-3.439699e-02
-7.690300e-03
-3.214453e-03
4.908464e-03
5.975208e-03
1.021536e-02
1.654314e-02
1.098223e-02
5.597691e-03
3.166070e-02
9.080152e-03
-6.688918e-03
-3.671291e-03
-1.261041e-03
-1.710368e-03
2.888957e-02
-1.999130e-04
3.460167e-02
1.429533e-02
-2.712456e-03
1.426240e-02
4.389107e-02
-1.665131e-02
-3.730791e-03
1.090804e-03
-1.314857e-02
-3.027020e-03
-2.893000e-02
-3.057450e-02
-3.738116e-05
-2.903707e-02
-3.973348e-02
-2.238794e-02
-1.616903e-02
-1.593268e-02
-2.489609e-02
-2.046837e-02
-1.637381e-02
3.550861e-03
4.816683e-03
-1.240327e-02
-1.287679e-03
3.919582e-02
-7.406712e-03
-4.033108e-02
-2.345294e-02
-3.640756e-02
-1.880682e-02
-2.645156e-02
-8.262956e-03
2.709824e-03
-2.532854e-02
2.967937e-02
9.938719e-04
-6.034902e-03
2.518192e-02
4.904334e-03
7.193720e-03
4.636186e-03
-1.657692e-02
-8.048749e-03
-4.964043e-04
-3.327560e-03
-1.987560e-02
-1.914097e-03
2.994571e-03
-2.093699e-02
7.657108e-03
1.400186e-02
1.869082e-02
6.640783e-03
9.071276e-04
2.652253e-02
1.613230e-02
-2.636158e-02
6.075802e-03
6.784634e-03
-2.569875e-03
3.055688e-02
1.366253e-03
3.161703e-03
1.420579e-02
-1.954601e-02
1.739889e-04
1.804261e-02
-1.376802e-02
-1.612693e-02
-2.291652e-02
-3.440840e-02
-4.696504e-02
-4.345551e-02
-3.409083e-04
-1.047283e-02
-1.024862e-02
-1.754715e-02
1.456897e-02
1.078854e-02
-8.448642e-03
1.897506e-03
2.128173e-02
7.676923e-03
-1.018741e-02
1.945629e-02
7.694324e-03
1.756142e-02
2.266748e-02
-6.260944e-03
4.353559e-03
1.481886e-02
9.627204e-03
2.103874e-02
-9.861550e-04
-1.763695e-02
-1.966104e-02
-1.428927e-02
-6.657910e-03
-1.180752e-02
-2.642204e-02
1.041331e-03
1.611789e-02
3.082847e-03
7.347187e-03
2.082046e-02
1.173094e-02
-3.100279e-03
6.582300e-04
1.086452e-02
4.993640e-03
1.970322e-02
5.246032e-03
1.825021e-02
8.530612e-03
1.103131e-02
5.539247e-03
4.714526e-03
1.222624e-03
-5.438352e-03
3.784096e-03
1.715372e-02
2.298622e-02
5.035643e-02
3.245905e-02
1.745235e-02
4.983871e-02
2.356146e-02
7.234177e-03
2.936932e-02
3.769713e-03
9.504362e-03
1.791015e-02
-3.294228e-03
2.271608e-03
-8.267981e-04
2.204121e-03
-2.843040e-02
2.631517e-02
2.652381e-02
1.471655e-02
6.141295e-03
1.887676e-02
1.399607e-02
-1.391783e-02
-2.255169e-03
1.252322e-02
2.667214e-02
8.821266e-03
-8.994886e-03
4.395903e-03
-6.225165e-03
-2.754398e-02
-3.147847e-02
-5.322484e-03
1.236780e-04
4.804513e-03
2.285703e-02
4.048648e-02
1.536762e-02
8.165925e-03
2.356643e-02
1.089606e-02
-1.875669e-02
1.019254e-02
-3.818230e-02
1.146822e-02
1.355313e-02
2.578665e-02
-3.532357e-04
-6.638054e-03
-1.773857e-02
5.469528e-04
-2.326288e-03
1.080735e-02
-7.643795e-03
1.501496e-02
-3.720289e-03
-1.713691e-02
2.210914e-02
5.052574e-03
-1.648883e-02
-1.533710e-02
-7.122069e-03
-9.953129e-05
-6.246201e-03
1.336516e-02
-1.552547e-02
1.753264e-02
1.112083e-02
-9.987639e-03
-1.511575e-02
-8.788211e-04
4.637754e-03
5.502442e-02
3.349775e-02
1.008762e-02
6.592329e-03
-1.100732e-02
-3.112424e-02
2.298793e-02
-3.414344e-02
8.238320e-05
2.285999e-02
5.064277e-03
1.485910e-03
1.348261e-02
-2.637428e-03
-1.424426e-03
1.941153e-03
-2.152055e-05
-1.263221e-02
-2.554102e-02
1.140734e-02
1.208666e-02
-1.361606e-02
-1.470036e-02
3.587230e-03
-1.205879e-02
-6.047130e-04
6.713180e-03
-1.597388e-02
-1.108876e-02
-8.949517e-03
6.468097e-03
-2.626003e-02
-2.698542e-03
2.519117e-02
9.439577e-03
3.715551e-03
1.213580e-02
2.850650e-02
1.058684e-02
1.332700e-02
1.159419e-02
-1.415880e-02
1.939747e-02
2.399886e-04
-5.183947e-03
-1.201072e-03
-1.109010e-02
-6.215340e-03
-1.569675e-02
3.617988e-04
-1.397423e-02
-2.003604e-03
7.752352e-03
-1.679684e-02
1.319851e-02
1.598157e-02
8.622652e-03
1.282608e-02
8.493210e-03
8.619610e-03
2.307650e-02
2.707945e-02
1.172079e-02
4.353494e-03
-6.976580e-04
8.460711e-03
1.980093e-02
-1.190054e-02
-8.881003e-03
1.575670e-02
-1.123441e-02
-9.692081e-03
-1.846569e-02
-1.416878e-02
-1.566747e-02
-1.578173e-03
-3.162635e-04
3.543010e-03
-1.734920e-02
-1.191426e-02
1.850321e-02
-3.704412e-03
9.220555e-03
1.168671e-03
-5.372032e-03
6.921203e-03
-2.500061e-02
-1.317677e-03
-4.100283e-03
1.335800e-02
-1.355426e-02
-4.975113e-03
-1.318635e-03
7.287022e-03
6.696890e-03
-4.182224e-03
2.194345e-03
-2.324788e-03
-2.933831e-02
-9.996834e-03
-9.476693e-03
-7.354563e-03
-7.805755e-03
6.387840e-03
3.939216e-04
4.676959e-03
-6.409660e-03
3.737174e-03
-7.561994e-03
2.062940e-02
2.315650e-02
-1.283986e-02
3.403357e-03
-2.466740e-05
-2.837973e-03
7.545543e-03
-8.401450e-03
-7.935432e-03
1.132444e-02
5.928956e-03
-2.000317e-03
-1.314466e-02
-1.091838e-02
-1.872741e-02
-9.277604e-03
-4.610104e-03
-3.077224e-03
7.156522e-03
-9.388606e-03
2.224024e-03
-3.741741e-02
-2.992341e-02
1.258859e-02
-1.113596e-02
-1.236673e-02
1.093289e-02
5.382436e-03
1.115339e-03
8.942436e-04
4.607791e-04
-1.151637e-02
5.071961e-03
1.407825e-03
2.130454e-02
-1.880088e-02
-8.879631e-03
8.924329e-03
9.769750e-03
-2.543102e-02
-1.465134e-02
-9.449160e-04
4.615854e-03
2.381989e-02
-1.772576e-02
-1.572256e-02
-7.587963e-03
1.021510e-02
1.102177e-02
4.184054e-03
2.652172e-02
-1.697470e-02
-1.459804e-02
1.033309e-02
-2.275823e-02
-9.464269e-03
-5.253077e-03
-8.058667e-03
-2.482961e-02
-1.661808e-02
1.427078e-04
9.108633e-03
-1.557059e-02
-3.170047e-02
-9.204585e-03
-1.437688e-02
-5.678721e-03
2.214217e-03
5.853252e-03
-1.359116e-03
8.828260e-03
-8.933122e-03
-5.555251e-03
-1.032005e-03
-5.998062e-03
-2.112782e-02
-9.248016e-04
-2.963690e-02
-3.594641e-03
-7.786385e-03
-2.388877e-02
-1.388260e-02
9.982700e-03
5.290119e-03
2.523379e-02
1.187568e-02
-1.121875e-02
-3.364288e-02
-1.280444e-02
-5.295500e-03
-7.075249e-03
-5.475230e-03
8.114564e-03
1.359801e-02
2.896594e-02
-1.867670e-02
-3.703642e-02
-1.635276e-02
-1.395691e-02
-2.254792e-02
-1.396765e-02
-9.969615e-03
2.421580e-03
-2.270597e-02
9.541428e-03
-3.160300e-02
3.657193e-03
-3.717198e-02
-2.280746e-02
-1.044363e-02
-2.807799e-02
-8.815725e-03
1.247700e-02
1.875924e-02
5.532100e-03
-3.619585e-02
-7.344075e-03
5.512352e-03
-2.205100e-02
3.497075e-02
2.296231e-02
4.212611e-02
-2.450453e-02
-2.276467e-02
-2.542726e-02
1.202917e-02
2.687831e-02
-1.573781e-02
8.551009e-03
1.308586e-02
2.229226e-02
1.035801e-02
-1.715541e-02
-2.270125e-03
4.080199e-03
-1.657134e-02
-2.553925e-04
3.525073e-02
-2.071040e-02
-3.275516e-02
1.157947e-02
-5.175345e-03
-3.790379e-02
2.736771e-02
-1.140384e-02
-1.327507e-02
-2.021159e-02
-2.295013e-02
-8.590555e-03
1.842243e-02
1.933294e-03
3.417305e-02
1.143449e-02
2.234118e-03
1.918128e-02
1.019788e-02
-1.215727e-02
1.082988e-02
3.140944e-02
2.581442e-02
-2.137872e-02
2.791149e-02
2.252260e-02
-9.643640e-03
-1.740761e-02
-2.706051e-03
-2.353417e-02
2.363767e-03
2.630796e-02
3.372390e-03
1.833026e-02
-2.036650e-02
1.184622e-02
-1.023046e-02
-1.806312e-02
3.461370e-03
1.537234e-02
-1.625205e-02
-4.357275e-03
2.890171e-02
2.300525e-02
-2.452586e-02
1.505893e-02
1.196157e-02
-1.963763e-03
4.227641e-03
8.431952e-03
-3.441789e-03
-7.689117e-03
-1.771980e-02
-1.812492e-02
-1.234261e-02
-8.114049e-03
-2.134647e-02
1.716118e-02
2.197848e-02
-2.372506e-03
5.728611e-03
-2.420192e-03
1.911983e-02
5.135607e-02
1.566721e-02
4.040028e-03
1.434714e-02
-6.828249e-03
-2.886453e-02
1.506339e-02
-2.027321e-02
-2.837751e-02
-2.219805e-02
4.328514e-03
-4.690055e-03
1.842505e-02
1.679493e-02
1.247426e-02
-9.078530e-03
6.990616e-03
2.806367e-02
1.977992e-02
2.095079e-03
2.624327e-02
-7.177147e-04
1.365583e-02
1.159558e-02
1.881136e-04
1.145824e-02
3.405273e-02
7.005006e-03
-7.542975e-03
5.218549e-03
-1.080267e-02
5.797593e-03
1.877789e-02
-1.109698e-02
-4.847974e-04
6.074831e-03
3.451255e-03
-4.254408e-03
3.321619e-03
3.375598e-03
1.453997e-02
6.847081e-03
-1.378445e-02
-8.565641e-03
9.880829e-03
-3.071632e-03
8.267784e-03
-1.194039e-02
3.945634e-03
9.843708e-03
-1.084572e-02
3.119329e-03
7.653912e-03
-3.709448e-04
-2.709617e-02
-4.007432e-02
-2.572961e-02
1.360993e-02
2.008623e-03
-2.108808e-02
1.544826e-02
-1.269071e-02
-1.983165e-02
4.893281e-02
-1.397837e-02
-1.689594e-02
2.059191e-03
6.599458e-03
6.015400e-03
-5.237230e-03
-1.468898e-03
-2.143162e-02
1.843333e-02
1.055759e-02
1.244046e-04
-6.523025e-03
-4.797280e-03
-1.993831e-02
8.734287e-03
-5.080228e-03
4.354879e-03
-1.271253e-02
4.584161e-03
-4.098754e-03
1.543916e-02
-8.997167e-03
1.429875e-02
-3.935173e-03
-7.284504e-03
-9.142581e-03
-6.365506e-03
1.948502e-03
-2.161311e-03
5.911438e-03
3.029763e-03
4.777941e-03
1.328686e-02
5.459914e-03
8.319099e-03
-3.043023e-02
1.181412e-03
-1.093138e-03
1.808145e-02
-6.254308e-03
-6.817271e-03
5.708857e-02
1.651882e-02
-9.544848e-03
1.794553e-02
-1.657930e-03
-1.132144e-02
-2.119473e-03
4.608145e-03
-1.096511e-02
-1.380487e-02
-3.725833e-02
-8.837684e-03
-4.220940e-02
-2.071610e-02
-8.464954e-04
1.002390e-02
5.674932e-03
-1.106773e-02
-1.720454e-02
1.334029e-02
-8.565384e-03
-1.886433e-02
-1.987537e-02
-3.779797e-02
-6.376876e-03
1.422930e-02
2.410701e-02
-3.621010e-03
1.413860e-02
2.169091e-02
7.206945e-04
4.165760e-02
3.678050e-02
-7.242893e-03
-1.192089e-02
-3.624411e-03
-1.483111e-02
8.188182e-03
1.419798e-02
1.061344e-03
2.100115e-02
-1.501837e-02
-5.122798e-03
-2.990036e-03
6.938514e-03
1.122165e-02
1.503738e-02
1.722158e-02
1.451883e-03
1.361248e-02
2.331756e-02
4.248279e-02
1.333193e-02
2.260819e-02
8.830287e-03
-9.882482e-03
1.894348e-02
3.220352e-02
-2.988088e-02
1.829975e-02
1.277722e-02
-3.043749e-03
3.054711e-03
9.507799e-03
-2.620009e-02
3.181853e-03
1.334045e-02
-2.048510e-02
-4.197704e-03
-1.624761e-02
-1.691332e-02
4.454799e-03
9.852464e-04
-5.176710e-03
3.187811e-02
-1.373155e-02
-1.042049e-02
-7.636919e-03
4.838252e-02
1.263482e-02
1.074254e-02
1.370465e-02
2.358477e-02
3.338144e-02
-2.419404e-02
-2.140130e-03
2.854048e-02
-2.266287e-02
-1.514824e-02
-2.857855e-02
-8.052866e-03
-4.961764e-03
-8.146486e-05
-9.490419e-03
-1.702081e-02
-7.376058e-03
-1.099346e-02
-8.874269e-04
-1.376560e-02
9.979438e-03
1.929396e-02
2.240607e-03
2.608258e-02
-6.758490e-03
7.452316e-04
1.212111e-02
-1.078033e-02
-5.740933e-03
-8.025517e-03
-4.741939e-02
-7.505303e-03
5.663123e-04
-3.691633e-02
-8.649157e-03
-3.818049e-03
-1.364709e-03
3.902015e-03
-8.774497e-03
-6.603364e-03
-7.603614e-03
-1.454801e-02
-1.127505e-02
-2.062145e-02
9.635415e-03
-6.388261e-04
3.864132e-02
1.414958e-02
6.846764e-03
-8.609450e-03
-5.283749e-03
5.695153e-04
-6.842546e-03
-7.171921e-03
-7.095417e-03
9.623000e-03
-6.187288e-03
-5.299662e-03
1.160758e-02
-3.806404e-03
6.883248e-03
7.157749e-03
-4.663021e-02
-5.476864e-03
-3.274755e-02
-2.702970e-02
-2.352739e-02
-3.600499e-02
-2.853359e-02
-6.494409e-03
-2.012110e-02
2.237815e-04
-8.933755e-03
-2.880767e-02
9.591242e-03
1.375319e-02
-1.440051e-02
-1.391381e-03
2.578987e-02
2.760742e-02
-6.034510e-03
-1.663616e-03
8.458931e-03
2.151529e-03
2.116628e-02
6.723730e-03
-1.431724e-02
-2.972158e-03
-1.576943e-02
-9.929401e-03
6.995722e-03
2.276414e-02
1.615885e-02
-1.563725e-03
-1.013682e-02
2.305849e-02
-1.664408e-02
-3.444122e-03
-2.359753e-02
-1.241147e-02
-2.069572e-02
-2.022249e-02
-2.680593e-02
-3.602196e-02
-2.089880e-02
-1.877422e-02
-5.210122e-03
-8.153071e-03
-2.997132e-02
-2.738977e-02
-1.829853e-03
-2.187788e-02
-2.220312e-02
-4.514874e-03
-2.236665e-02
-7.240884e-03
1.814754e-02
3.088803e-02
3.315046e-02
1.609833e-02
9.669359e-03
5.053340e-04
2.948428e-02
5.319542e-03
3.603619e-04
1.699831e-02
1.941266e-02
-2.472268e-02
-1.126663e-02
8.943741e-03
-1.561320e-02
-1.096950e-02
-4.570203e-03
-1.082084e-02
7.561297e-03
-1.129425e-03
-1.462030e-03
9.773037e-03
1.701827e-04
-3.156620e-02
1.408757e-04
-9.392427e-03
-2.551349e-02
4.712509e-03
-1.958960e-02
-3.219759e-02
1.272699e-02
-1.208751e-02
-2.997468e-02
6.963533e-03
-2.814785e-02
-2.710537e-02
-1.964890e-02
-3.666271e-03
-2.124500e-03
-2.880839e-02
-5.019104e-03
6.746845e-04
5.700008e-03
1.054280e-02
-1.365605e-02
2.060582e-03
-3.237020e-03
-1.380024e-02
2.021258e-02
8.590688e-03
5.929634e-03
-4.886321e-03
-4.783255e-04
-4.564527e-03
1.394841e-02
-9.829257e-03
1.107135e-02
2.164190e-02
4.299164e-03
1.427425e-02
-9.300984e-03
8.068607e-03
2.807700e-02
-1.435721e-02
1.204088e-02
3.296298e-02
1.456238e-02
3.171201e-02
3.580918e-02
-1.873511e-02
3.397921e-03
-5.633124e-03
-2.625559e-02
-1.350936e-02
-2.340495e-02
-1.342175e-02
3.572309e-03
-2.129533e-02
-1.762417e-02
-4.015995e-02
6.494668e-03
-6.147000e-03
4.079297e-03
2.294894e-02
3.748347e-03
1.842654e-02
-6.301352e-03
1.224006e-02
-5.245425e-03
-1.743295e-02
-5.767872e-03
-6.093824e-03
-7.451052e-03
2.301476e-02
1.029467e-02
-1.627023e-02
1.656944e-02
1.912444e-03
-3.306402e-03
-2.368974e-03
2.239790e-02
1.032076e-02
-5.991414e-03
-1.368935e-02
1.762286e-02
-2.657451e-02
2.398971e-02
8.017694e-03
-5.593273e-03
1.231619e-02
-8.967766e-03
-1.658994e-02
-2.640335e-03
-1.122564e-02
-5.653508e-03
-1.343989e-02
-6.611081e-03
-1.513763e-02
-1.048763e-02
-1.550521e-02
1.974218e-04
-3.659875e-03
1.282909e-02
-9.929876e-03
-9.841534e-03
1.422023e-02
-9.961233e-03
1.453453e-02
1.313975e-02
-1.908772e-02
-5.341904e-03
8.958753e-03
5.189850e-03
1.569281e-02
2.353518e-02
2.598349e-03
-2.064785e-02
6.514688e-03
-1.901846e-03
-1.125673e-02
-6.074805e-03
-8.852585e-03
1.182535e-02
2.368642e-02
-3.440021e-03
-1.457952e-02
-3.365321e-02
-3.309187e-03
-1.484952e-02
1.392410e-03
4.136880e-02
1.718266e-02
4.304414e-02
1.652075e-02
-3.406506e-03
-3.918454e-02
-1.482223e-02
-4.853665e-02
-3.311972e-02
1.216605e-02
-7.165720e-03
8.987615e-03
-1.377029e-02
-4.016272e-03
-1.550389e-02
-6.899539e-03
-1.477994e-02
1.042979e-03
-1.606954e-02
-2.393675e-02
-7.873806e-03
-1.041466e-03
1.761824e-03
-1.793865e-03
-5.794862e-03
4.398933e-04
-9.351057e-03
-9.901971e-03
-1.919178e-02
-5.859195e-03
-7.286519e-03
-1.784763e-02
-1.791338e-02
-1.731708e-02
-2.938884e-02
-1.858252e-02
-4.718489e-02
-4.788639e-03
2.060725e-02
1.122642e-02
-1.298692e-02
-2.217121e-02
1.117910e-02
8.570559e-03
1.902733e-02
1.422770e-02
1.870381e-02
2.392927e-02
2.173413e-02
5.230415e-03
-4.782896e-03
2.536915e-02
3.250027e-02
2.309067e-02
-2.703460e-02
-1.959998e-03
2.546941e-02
1.552242e-02
2.383145e-02
2.082962e-02
1.902905e-02
1.439122e-02
1.350698e-02
-3.999516e-02
-1.603988e-02
-2.600262e-02
-2.343828e-02
-4.322157e-02
-1.034482e-02
1.675737e-02
3.022078e-02
1.467974e-02
4.611783e-02
6.242447e-03
-1.764505e-03
3.323794e-02
2.084407e-02
-1.044223e-02
2.185723e-02
-1.138365e-02
-2.589269e-02
3.510534e-02
-7.236116e-03
-2.917821e-02
-2.444515e-02
-1.996956e-02
2.381410e-02
2.978126e-02
4.232097e-02
3.291966e-02
4.540524e-02
8.674259e-03
-5.723999e-03
-1.215753e-02
7.315037e-03
9.761607e-03
-1.750214e-02
-1.247740e-02
8.543156e-03
-2.034458e-03
-1.690620e-03
-5.581524e-03
8.155578e-03
-2.331651e-02
1.298137e-02
5.692882e-03
3.816428e-02
3.483600e-02
1.149064e-02
8.507679e-03
1.296990e-02
-5.601656e-03
7.914672e-03
3.241438e-02
-1.746038e-02
-6.782134e-03
-5.354512e-03
-9.837246e-03
-5.736190e-03
-2.981499e-03
1.255862e-02
1.151968e-02
1.786719e-02
1.040236e-02
-4.898292e-03
3.442935e-03
-1.241192e-03
-2.604344e-02
-2.683146e-02
9.693352e-03
-2.697063e-02
-1.151645e-02
4.976729e-03
-7.604001e-03
2.842826e-03
-1.951337e-02
5.255619e-03
-5.020463e-03
-9.164098e-03
-4.188563e-03
-9.599674e-03
5.814682e-03
4.100749e-03
-5.602011e-03
-4.929049e-03
9.249088e-03
-2.630198e-02
2.357814e-03
2.171337e-02
2.710840e-02
4.299770e-03
1.721110e-02
-2.786392e-03
8.999404e-03
4.341836e-04
-2.048985e-02
6.765866e-03
7.962905e-03
1.521176e-02
9.863608e-03
1.380403e-02
-2.987747e-02
6.292702e-03
-1.333737e-02
-1.302619e-02
-3.176000e-02
-2.840520e-02
-2.680549e-02
4.293791e-03
-2.717867e-02
-7.920465e-03
-4.152533e-03
-7.448531e-03
-1.345629e-02
9.179633e-03
-9.549658e-03
1.388356e-02
1.050618e-02
-2.022933e-02
-3.519922e-03
-1.161884e-02
-6.010127e-03
-1.212193e-02
-3.424490e-02
-1.829819e-02
-1.361885e-02
-1.550355e-02
-9.686614e-03
-1.469425e-02
-1.352590e-02
-1.591590e-03
-2.687967e-03
1.705750e-02
1.272415e-03
-4.554853e-03
5.309896e-03
-1.552032e-02
4.774856e-03
9.791768e-03
1.887289e-02
-9.619772e-03
1.139915e-03
5.922284e-03
-3.559556e-03
-3.644718e-03
-7.786169e-03
-1.075094e-02
-1.290953e-02
-1.142311e-02
-3.088322e-03
7.779609e-03
1.183061e-03
2.066471e-02
-1.116951e-02
1.026462e-03
-4.000045e-03
-1.923029e-02
-1.778993e-03
1.049425e-02
3.136036e-03
8.550570e-03
-2.167131e-02
-1.050321e-02
-8.015729e-03
-4.543455e-03
-1.761314e-02
3.249900e-03
6.312521e-03
-2.115585e-02
-2.072310e-02
9.722276e-03
-2.747325e-02
-2.871292e-02
1.168367e-03
-1.481009e-02
-1.330388e-02
2.163227e-02
-1.157295e-02
1.727171e-02
1.531296e-02
-1.516207e-02
-7.811501e-03
-3.093982e-03
1.425881e-02
-7.068267e-04
-1.201407e-02
1.831246e-02
-1.545198e-03
2.929414e-03
-1.118427e-02
1.278254e-02
-3.411290e-02
1.498840e-02
-5.358655e-03
-2.302430e-02
8.706800e-03
1.022304e-02
1.895260e-02
1.202899e-02
1.419168e-02
2.917907e-02
-1.690377e-02
-7.161922e-03
7.402493e-03
-3.142363e-02
-1.182333e-02
-2.693151e-02
-1.812905e-02
-2.808474e-02
-1.794627e-02
-4.103174e-03
-5.438243e-03
-3.337887e-03
-2.546446e-02
9.784210e-03
2.378717e-03
-4.966761e-03
2.700732e-02
6.751562e-03
-3.441472e-02
-3.657783e-03
9.996559e-03
2.011170e-02
1.920274e-02
-4.100720e-03
-2.339890e-02
9.124613e-03
1.618103e-02
-8.819169e-04
6.351547e-03
1.654717e-02
2.092404e-02
-3.148615e-02
-3.407302e-02
-3.989195e-03
-2.734331e-02
-1.709422e-03
1.152691e-02
-9.043748e-03
-1.708938e-02
1.191804e-02
-2.460610e-03
-4.766678e-02
4.596666e-03
1.900097e-03
-4.071745e-02
-8.882069e-03
1.689740e-02
1.793189e-04
2.214914e-02
-1.853057e-03
9.171988e-03
3.374240e-03
-6.851663e-03
6.950502e-03
6.952303e-03
-5.503595e-03
-2.125309e-02
1.153066e-02
2.539569e-02
-1.485008e-02
-1.917094e-02
-1.565763e-02
-4.977330e-02
-1.604055e-02
-7.911925e-03
-4.126887e-02
2.575932e-02
2.459118e-02
4.202542e-02
1.798688e-02
2.208524e-02
1.636352e-02
-7.916679e-03
1.874689e-02
1.674773e-02
-5.172893e-03
-2.354730e-02
-3.099236e-03
5.493290e-06
-1.548299e-02
-1.557417e-02
1.566640e-02
2.685648e-03
1.721218e-02
1.737219e-02
-6.400085e-03
-5.196119e-03
3.497332e-02
-1.010842e-03
3.473042e-02
-2.017267e-02
-2.677747e-02
-6.580045e-03
-1.468342e-02
5.937586e-03
-2.386272e-03
-8.839763e-03
-5.780447e-03
-5.557737e-03
-4.369752e-03
-1.280197e-02
1.919134e-02
-1.086693e-02
-1.637483e-02
-3.266743e-02
3.176695e-03
-5.640379e-03
-1.734862e-02
-1.382394e-02
-3.251328e-02
-2.833550e-02
-6.311468e-03
2.405492e-03
-2.741906e-02
-1.559301e-02
4.151408e-03
-1.051035e-02
-5.449426e-03
1.151236e-02
-8.066054e-03
-4.104903e-03
-1.768492e-03
2.918044e-02
-9.044394e-03
4.853015e-03
8.773300e-03
-2.014484e-02
-7.515341e-04
-9.097448e-03
-1.274261e-02
-2.057682e-03
-1.305051e-02
-4.133633e-02
9.320256e-04
-9.408436e-03
-2.863291e-02
-1.649279e-02
-2.739267e-02
-1.723078e-02
5.351282e-03
-5.231658e-03
7.230439e-03
2.821826e-02
-8.717697e-03
1.135707e-02
3.856677e-02
-1.621871e-03
-1.253573e-02
-1.087386e-02
-7.038783e-03
-3.940107e-03
-2.786645e-02
-5.734972e-03
-7.028806e-03
1.148594e-03
4.824317e-03
-1.756451e-02
-2.460390e-02
-8.202188e-03
-3.420476e-03
-2.356866e-02
-1.050685e-02
-8.351368e-03
-1.214902e-02
-1.382539e-02
1.144654e-03
-1.330744e-02
-3.334981e-03
-4.562507e-03
-8.889589e-03
-2.080010e-02
2.067269e-02
3.557574e-03
-9.583600e-03
-6.429647e-03
1.253939e-02
8.955012e-04
7.882174e-03
2.434116e-02
9.289818e-03
2.094632e-02
2.851635e-03
-8.030607e-03
1.762380e-03
1.292204e-02
-1.216984e-02
-3.157413e-03
-9.737634e-03
4.803950e-03
-3.448382e-02
-2.215751e-02
-3.454737e-03
3.899733e-03
4.080288e-03
1.027306e-02
1.518752e-02
-1.260969e-02
3.583521e-05
2.208593e-03
-2.091029e-02
-2.025872e-02
-1.858485e-02
3.108976e-02
-8.843053e-03
-9.797767e-03
2.251260e-04
-1.081542e-02
-3.639758e-03
4.366548e-03
1.656894e-03
1.707487e-02
1.717323e-02
1.311160e-02
4.036286e-03
6.177012e-03
1.688104e-02
3.432396e-02
3.109496e-02
6.126357e-03
3.138379e-02
2.795009e-02
1.406526e-02
1.929827e-02
2.907252e-02
5.430117e-03
1.325181e-02
1.538024e-02
6.759632e-03
-2.174721e-02
-1.830001e-02
1.232191e-02
-9.608342e-03
6.966403e-03
9.854486e-03
1.702064e-02
-1.139800e-03
1.709257e-02
-2.628513e-02
-1.491186e-02
-2.847336e-02
-4.078270e-02
8.116418e-03
2.556637e-02
1.782377e-02
2.925324e-02
3.788594e-02
-2.380106e-02
-1.430318e-02
8.952144e-03
-4.415372e-02
-3.616213e-02
-2.177596e-02
-1.546631e-02
-2.442327e-02
1.232752e-03
2.442762e-02
2.931111e-02
1.860648e-02
-1.761054e-03
-1.988374e-03
-1.151354e-03
-1.232824e-02
5.717478e-03
-1.927859e-02
-8.865901e-03
-5.079890e-03
-2.557844e-02
-1.618255e-02
-1.259358e-02
-2.334643e-02
-8.792982e-03
1.348483e-02
1.802384e-02
1.627576e-02
2.360581e-03
1.598976e-02
2.266692e-02
7.710845e-03
2.649950e-02
2.761721e-02
1.811392e-02
1.795397e-02
-7.076516e-03
-3.468551e-02
-3.176839e-02
8.976207e-03
-1.759240e-02
-7.552677e-03
-1.105170e-02
5.736848e-03
8.348937e-03
-1.336174e-02
-2.450510e-02
-3.188943e-02
4.651953e-03
-9.243478e-04
-1.514243e-02
1.554559e-02
9.071362e-03
2.725093e-02
-1.775616e-02
6.057911e-03
-7.454623e-03
-1.015603e-02
-1.695389e-02
-2.819145e-02
-4.271115e-04
-1.257475e-02
-1.296809e-02
8.997370e-03
1.472073e-03
2.580447e-03
2.921935e-03
2.199586e-03
1.897146e-02
2.209295e-02
-1.084103e-02
1.472611e-03
8.359461e-03
4.400001e-03
1.372155e-02
-1.436927e-02
-5.819261e-03
-4.263299e-04
-2.458615e-02
-3.450348e-02
-1.611919e-02
1.567231e-02
1.266973e-02
7.692391e-03
1.609216e-02
1.099104e-02
-1.880673e-02
2.987949e-02
1.207510e-02
-2.574832e-03
1.016424e-02
-2.798535e-03
-3.264922e-02
-2.292374e-02
-1.006576e-02
-1.444845e-02
1.479354e-02
1.218507e-02
4.844240e-03
7.623314e-03
-8.146544e-03
-1.669603e-02
9.032345e-04
-1.044158e-02
-1.584319e-02
-3.123602e-02
-1.627533e-02
-1.365138e-02
-1.039814e-02
1.141703e-02
-1.629599e-02
-1.508744e-02
-1.978282e-02
-1.686843e-02
-1.150609e-02
-1.217416e-02
-1.205800e-02
-4.615284e-03
5.337655e-03
-5.370819e-03
1.395656e-02
2.370587e-02
1.669238e-02
2.871534e-02
4.857994e-02
2.257988e-02
6.859180e-03
-1.795337e-02
5.907323e-03
-3.781773e-03
1.360020e-03
-4.169537e-03
2.684608e-02
-2.025471e-03
-2.262585e-02
-3.655832e-02
-3.819105e-02
-3.341114e-02
6.901034e-03
1.072605e-02
-1.257531e-02
1.885430e-02
6.136627e-03
3.676127e-02
-1.764502e-03
2.734863e-02
2.953654e-02
-2.798639e-03
1.496660e-02
3.545221e-02
-2.560806e-02
1.618252e-03
1.458624e-02
-2.000065e-02
-3.617945e-02
-2.317226e-02
-1.280461e-02
-5.866825e-04
-1.030226e-02
1.690491e-03
3.311392e-02
2.316361e-02
2.066582e-02
-1.152949e-02
-6.545304e-03
1.553171e-02
-4.632725e-03
-3.607650e-02
2.620796e-02
-2.640008e-02
-1.374027e-02
-2.597342e-02
-2.587399e-02
9.182155e-03
-9.298570e-03
9.130413e-03
3.116396e-03
6.258145e-03
-1.069882e-02
7.183523e-03
-3.062464e-02
1.811839e-02
-8.043489e-03
5.683353e-03
1.656440e-02
-4.884422e-03
9.248593e-03
1.221315e-02
6.933275e-03
-9.759522e-03
-2.057913e-02
-1.508559e-02
1.399245e-02
-2.097161e-02
-2.946021e-03
-1.068436e-02
-2.058271e-02
2.280973e-03
-1.569851e-02
1.132707e-02
4.328808e-02
4.973924e-04
4.558444e-03
3.408590e-02
4.395179e-03
-8.955666e-03
1.670060e-02
-2.406850e-02
-3.300108e-02
-3.566121e-02
-3.364536e-02
-1.745406e-02
-1.719293e-02
-1.489920e-02
-4.885281e-03
1.364617e-02
3.987458e-03
-9.541935e-04
1.218827e-02
-1.784986e-02
-2.873473e-02
-1.035840e-02
-3.782285e-02
-1.439758e-02
-1.056156e-02
-1.779746e-03
5.988755e-03
6.053507e-03
-2.080343e-02
6.996199e-03
-1.038908e-02
-3.326549e-03
-1.176636e-02
-3.560630e-02
-2.281127e-02
-2.052958e-02
-8.095356e-04
-5.371218e-04
1.402312e-02
6.317483e-03
9.592623e-03
-6.600291e-03
-2.077820e-04
5.088879e-03
-1.517535e-02
-2.349618e-02
1.879510e-02
-1.866565e-02
-2.512365e-02
6.183182e-03
-1.959617e-02
-1.387432e-02
-1.807970e-02
-2.933200e-03
-3.912829e-02
2.507477e-02
-2.824685e-05
-4.132654e-03
2.821157e-02
3.618232e-02
8.361353e-03
-1.390157e-02
-6.178794e-03
7.432026e-03
-2.547956e-02
-1.367873e-02
1.513831e-03
-1.210065e-02
-4.272366e-03
3.070625e-02
1.116509e-02
3.200666e-02
-7.498447e-03
4.735098e-03
2.169147e-02
2.432751e-03
4.944232e-03
2.420336e-02
-5.784072e-03
-2.176523e-03
-2.281455e-02
-7.485156e-03
-1.426732e-02
1.204378e-03
-3.878976e-03
-1.425537e-02
1.296300e-02
-9.428223e-03
-2.816690e-02
-1.643407e-02
-3.161419e-04
-1.340282e-02
-6.770445e-03
5.129473e-03
-1.308842e-02
-2.955950e-02
1.270129e-02
8.550198e-03
-9.355069e-03
-4.803255e-03
1.558045e-02
-4.693765e-03
1.667312e-02
-2.851335e-03
-9.716577e-04
1.592901e-02
1.433306e-02
-9.459140e-03
1.299987e-03
-3.312903e-02
-2.554635e-02
-1.953777e-02
-2.282714e-02
-4.101029e-02
-6.641133e-04
-9.099747e-03
-2.698515e-02
-1.886823e-02
4.173735e-03
5.780381e-03
-1.859169e-02
6.358075e-05
4.746864e-03
-2.944920e-03
-1.049297e-02
6.974075e-03
-1.892115e-03
-4.985784e-05
9.246279e-03
-8.696627e-03
-4.000711e-02
8.970406e-03
1.304718e-02
3.086554e-02
-1.806270e-02
-2.182996e-02
-1.806800e-02
2.399688e-03
1.080444e-02
-1.864233e-02
-1.981972e-02
8.273434e-03
-6.957923e-03
-5.689774e-03
1.830410e-03
-2.066487e-02
-2.896336e-03
-2.645302e-03
-2.900587e-02
-2.073447e-02
-3.069632e-02
-1.743091e-04
-4.441096e-03
-2.591277e-02
3.819973e-02
1.269893e-02
-9.256067e-03
2.815658e-02
2.252706e-02
1.703491e-02
2.441166e-02
2.462039e-02
2.208988e-02
3.237208e-02
4.047963e-03
6.194980e-03
2.756150e-02
-6.805845e-03
-4.913191e-04
-3.239523e-02
1.578834e-03
1.559862e-02
-5.984014e-03
-1.045766e-02
-6.981657e-03
-1.962869e-03
-1.958848e-02
-1.064413e-02
1.080640e-02
2.015107e-02
-1.943739e-02
-2.993152e-03
-9.726636e-03
-1.400346e-02
-2.676254e-02
1.041125e-02
-6.819755e-03
-1.597377e-02
-6.453087e-03
2.166670e-02
-8.042465e-03
8.430788e-03
1.914979e-02
-1.351171e-02
3.517234e-03
-1.795593e-02
7.972300e-03
1.649904e-02
-9.369723e-03
7.627829e-03
5.432738e-03
-5.818210e-03
-5.996826e-03
9.622939e-03
1.978409e-02
-2.515463e-03
-3.621951e-03
1.117078e-02
-1.133476e-02
-2.396631e-02
1.652460e-03
-1.228423e-02
-2.648346e-02
-9.807919e-03
-3.314789e-03
-1.075537e-02
1.638424e-02
-2.568360e-02
5.928525e-03
1.070749e-02
-8.669600e-03
-9.204261e-03
6.611777e-03
7.816618e-03
3.693072e-02
1.326036e-02
-1.773491e-03
-1.759967e-02
1.839720e-02
1.565926e-02
6.262993e-04
3.666774e-02
-2.140603e-02
-2.232179e-02
-4.168279e-03
-1.599852e-02
-7.947453e-03
-1.110908e-02
-1.374266e-02
-1.385254e-02
4.188540e-03
9.666162e-03
2.077304e-02
-6.704154e-03
-1.456393e-02
-1.308208e-02
-1.562096e-02
-2.424139e-03
-1.981774e-02
6.101948e-03
-1.026273e-02
6.531056e-03
2.599097e-02
-2.027738e-02
1.338586e-02
3.124148e-02
2.661832e-03
2.471490e-02
2.247519e-02
8.563584e-03
2.295205e-02
4.149807e-03
9.818185e-03
1.032531e-02
1.648704e-02
1.242430e-02
-3.716464e-03
-2.829841e-03
-5.385108e-03
-1.419333e-02
-9.498238e-03
2.171492e-04
-3.220748e-03
-1.838541e-03
-1.380697e-02
-8.459755e-03
-1.458440e-02
-1.678408e-02
1.427988e-02
-1.514939e-02
-1.050568e-02
-2.593480e-02
-9.608495e-03
-8.899490e-03
-3.047473e-02
-1.148533e-02
9.172956e-03
-1.601413e-02
1.262700e-02
1.070861e-03
-1.774856e-02
4.598265e-03
-1.445099e-03
-2.569931e-03
6.904543e-03
-3.774151e-02
-3.665536e-03
-1.994082e-02
-1.773470e-02
-9.425990e-03
1.000601e-02
-1.425373e-02
6.388281e-03
1.988768e-02
1.651632e-02
4.717178e-03
2.730823e-03
2.491709e-02
1.568264e-02
-6.977492e-03
3.465529e-02
2.617841e-02
1.628775e-02
4.069487e-03
-4.199492e-03
7.407412e-03
-3.058973e-02
-1.057931e-02
-1.490181e-02
-2.925205e-03
-7.308766e-03
-2.036310e-02
3.968010e-02
2.067349e-02
1.175741e-02
-1.533589e-03
1.519102e-02
1.418299e-02
-2.724286e-03
-2.351331e-03
-2.123944e-02
1.789122e-03
-7.123464e-03
-1.763171e-02
-2.569301e-02
-6.538864e-03
-1.660163e-02
-2.079200e-03
1.067743e-03
4.461779e-03
7.418473e-03
-1.302845e-04
-1.311091e-02
7.076836e-03
-7.950213e-03
-2.177512e-02
1.485343e-02
-3.905523e-03
-1.947306e-03
-8.362839e-03
-5.620576e-03
-4.251529e-02
1.549248e-03
2.907122e-03
-8.316249e-03
-1.970275e-02
4.061992e-03
-2.393253e-02
-1.791431e-02
-1.470058e-02
-8.834337e-03
-8.500114e-03
2.826006e-03
1.222684e-02
-1.757491e-02
-1.074127e-02
4.854291e-03
6.852315e-03
-2.644423e-04
-1.219517e-02
-4.397645e-02
-1.826930e-02
2.166835e-03
-1.102728e-02
-8.910765e-03
-8.414125e-03
1.905362e-02
-2.545769e-02
1.150349e-02
1.356193e-02
1.762493e-02
1.368445e-02
-3.450750e-03
-2.497362e-03
-2.825020e-02
-1.450776e-02
-5.142565e-03
2.692975e-02
-3.462052e-03
2.133482e-02
3.115816e-02
-2.660556e-02
-1.508187e-02
4.578860e-03
-9.880973e-03
-1.536234e-02
-3.986251e-02
4.555504e-04
-1.078731e-02
-7.505614e-03
-1.087495e-02
6.166656e-04
-1.545581e-02
-1.895120e-03
2.942794e-02
-1.132258e-02
-2.293330e-02
1.024862e-02
2.487012e-02
-1.087970e-02
2.440222e-02
-8.495234e-03
3.379955e-02
4.517256e-03
1.307630e-03
2.536770e-03
1.583280e-02
6.496499e-03
1.773659e-02
2.201959e-02
3.456482e-02
-2.808555e-02
-5.135083e-02
-5.063054e-02
-9.605841e-03
-2.949468e-02
-2.407404e-02
-8.775628e-03
-1.741643e-02
-1.883592e-02
-2.621151e-02
-2.764391e-02
-5.320106e-03
-2.417276e-02
2.832719e-03
-1.551004e-02
2.179889e-03
1.845332e-02
1.083168e-02
-6.270402e-03
-1.267916e-02
-2.160069e-02
9.235266e-03
-5.324643e-03
-1.707643e-02
3.658473e-03
2.001723e-02
1.291597e-03
3.794405e-02
-4.881907e-03
-2.346447e-02
3.401805e-02
-1.100200e-02
-3.361899e-02
4.404139e-03
-1.793206e-02
-3.413444e-02
-1.299892e-02
1.954802e-02
-3.493415e-02
1.696587e-03
4.203032e-02
-1.104716e-02
-1.853939e-02
-6.626371e-04
-2.082959e-02
-1.824358e-02
2.193813e-03
-1.884530e-02
-5.856280e-03
1.595956e-03
-1.140402e-02
-6.934910e-03
1.258716e-02
-1.761115e-02
3.577230e-03
-3.112177e-03
-1.801552e-02
1.751088e-02
3.190449e-03
2.818026e-02
2.103968e-02
4.413141e-02
1.614887e-02
1.241800e-02
8.979503e-03
-1.301200e-03
-2.170839e-02
-9.467415e-03
-1.864878e-02
-1.399106e-02
-1.347138e-02
6.561865e-03
4.544034e-03
2.349075e-02
-3.928430e-02
3.401329e-02
1.764449e-02
-1.018801e-02
-1.686243e-02
-7.780357e-03
-1.082863e-02
-6.224074e-03
-2.066694e-02
6.656828e-03
-1.917648e-02
-2.436562e-03
2.762264e-02
-2.041394e-02
-9.568266e-03
2.334239e-02
3.503254e-02
2.832345e-02
1.847778e-02
1.026519e-02
-7.051510e-03
-2.788265e-03
-1.677924e-02
-2.516646e-02
-5.312292e-03
2.674170e-02
5.585309e-03
-6.810966e-03
2.614114e-02
1.568614e-02
-2.026398e-02
1.233926e-02
-4.449580e-03
-2.987904e-02
-3.856250e-02
-1.524965e-03
1.374426e-02
1.917315e-02
6.313813e-03
1.742074e-02
5.019016e-03
1.890537e-02
1.708506e-02
-4.536893e-03
-1.791160e-03
5.824486e-03
1.545571e-02
-1.207673e-02
-1.724896e-02
1.462888e-02
-6.637687e-03
-3.608191e-02
1.503380e-02
1.075950e-02
3.458237e-02
7.554592e-03
2.204520e-02
1.803114e-03
4.719726e-03
8.027592e-03
2.910044e-02
7.546219e-03
-1.341174e-02
-5.905557e-04
-1.148024e-02
1.268762e-03
-8.841796e-03
2.050172e-03
-8.927085e-03
-1.476366e-02
4.377169e-03
-5.357058e-03
-2.313267e-03
9.122695e-03
9.488744e-03
4.211098e-03
2.575270e-02
4.751381e-02
1.708502e-03
-3.717458e-02
-2.421014e-02
8.911620e-04
-4.037543e-03
-1.039737e-02
3.975109e-03
-1.429036e-03
-4.764326e-03
-1.030186e-02
4.592310e-03
-1.025124e-02
1.307625e-02
-1.404669e-05
2.973631e-03
-8.029552e-03
-1.482081e-02
-1.401438e-02
-1.157247e-02
2.628426e-02
7.764742e-03
1.356315e-02
9.155652e-03
1.981245e-02
7.047874e-03
1.094394e-02
4.064176e-05
1.178640e-02
-9.579498e-03
4.447871e-04
-1.133619e-02
-1.599915e-04
3.744430e-03
4.962871e-03
-1.510277e-02
-3.870735e-02
-2.745455e-02
3.604330e-03
-1.950690e-02
-1.611610e-02
2.188933e-02
-2.154490e-02
-6.761535e-03
-6.026438e-04
1.783389e-03
-1.478871e-02
-5.480162e-03
-7.774726e-03
8.550027e-03
7.079309e-03
-1.457434e-02
-1.337960e-02
-1.238418e-02
1.164122e-02
2.764738e-02
-1.601632e-02
-2.932830e-03
-1.939020e-02
-7.246814e-03
3.154939e-02
-2.540168e-04
-2.117727e-03
3.676765e-02
1.359278e-02
3.026423e-02
-1.373764e-03
-6.411356e-03
-1.502086e-02
-1.342563e-02
-3.186371e-02
8.830077e-03
4.102210e-03
-2.059624e-02
-9.110548e-03
2.176531e-02
3.894223e-03
-2.998514e-02
-4.640211e-03
5.870107e-03
-2.290924e-02
-2.077654e-02
-8.773480e-03
9.457002e-04
2.318040e-02
-7.215313e-03
-3.035154e-02
1.308978e-02
2.359072e-03
-2.936779e-02
-2.205145e-03
-3.951062e-03
-1.410043e-02
-2.590025e-02
-2.350584e-02
-4.765090e-04
-1.319077e-02
-1.747391e-02
-2.907197e-02
-8.516760e-03
-2.702277e-03
2.595616e-03
-8.002575e-03
2.670521e-02
-3.805868e-03
1.670842e-02
1.114986e-02
-2.959399e-02
-2.258680e-02
5.196971e-03
2.733902e-02
-1.433825e-02
-2.534681e-02
5.912031e-03
-1.731135e-02
-1.358982e-03
-5.124016e-03
-5.145504e-03
-1.879406e-02
-1.934432e-03
-6.007436e-04
-2.674029e-02
-1.497981e-02
-2.011624e-02
-1.577215e-02
2.793096e-02
-1.261053e-02
-2.213429e-02
-6.451551e-03
-1.689772e-02
-2.347227e-02
-1.058704e-02
1.542178e-03
7.893359e-03
-1.195723e-02
-1.557074e-03
4.953121e-03
-2.071027e-02
-5.034088e-04
1.844570e-02
-1.139703e-02
1.148176e-02
-5.854678e-03
3.281260e-02
2.504728e-02
2.433081e-02
1.034527e-02
-1.549998e-02
-4.682310e-03
-5.832481e-03
-3.644822e-02
-4.963201e-03
-1.382500e-02
-2.802671e-02
-3.477787e-02
2.579214e-03
-1.611631e-02
2.385759e-03
-1.090517e-02
9.623850e-03
-4.823118e-03
-3.269998e-02
5.649365e-03
-1.988529e-02
7.956130e-03
3.102137e-02
8.159851e-03
2.000382e-04
1.479169e-02
4.579281e-03
-3.191446e-02
1.346784e-02
2.303103e-02
2.306222e-02
-1.904231e-02
-2.505753e-02
6.159019e-03
-1.448650e-02
-4.067640e-02
4.716498e-03
1.199092e-03
3.146153e-04
2.901945e-02
8.963859e-03
-1.899445e-02
-2.867707e-03
1.674194e-03
-1.260402e-02
-2.041975e-02
-2.201017e-02
-1.263286e-02
-1.356634e-02
-2.132105e-02
-2.469043e-02
-1.999661e-02
-1.882159e-02
-8.766710e-03
1.230112e-03
-1.240442e-02
-2.405936e-03
1.870163e-02
-2.148195e-02
1.188017e-02
-2.709530e-02
4.148844e-04
7.118503e-03
3.766452e-03
-5.294173e-03
6.238610e-03
-1.766516e-02
-2.614714e-02
5.341802e-03
-1.602925e-02
4.119352e-03
3.079465e-02
-1.531068e-03
4.811695e-03
3.978438e-02
2.745181e-02
2.307649e-02
-2.674366e-03
2.421427e-02
2.672206e-02
2.731126e-02
-1.414316e-02
3.308434e-03
2.424409e-02
2.053994e-02
1.459667e-02
-4.696051e-03
-1.500086e-03
3.410383e-02
-2.029418e-02
-1.620012e-02
1.884809e-02
1.159474e-02
-1.260689e-02
2.184017e-02
5.582176e-03
-2.423617e-03
1.671959e-02
1.229189e-03
-3.916684e-03
1.435006e-02
-2.623639e-03
-3.954922e-03
-1.163687e-03
1.257715e-02
-1.605312e-02
1.394255e-03
1.486985e-02
-1.420926e-02
-1.925723e-02
1.500175e-02
3.830677e-02
4.246971e-02
7.541618e-03
1.142632e-02
-1.813096e-04
1.688102e-02
-8.477747e-03
-1.767380e-03
1.548644e-02
2.982526e-02
-1.095472e-02
2.120539e-03
1.456961e-03
3.099080e-03
-1.020211e-02
-1.776405e-02
-2.333058e-02
-2.042063e-02
-1.054979e-02
-1.112633e-02
-1.675573e-02
3.065225e-03
-3.692248e-03
-3.034649e-02
-2.268297e-03
-8.840629e-03
-5.650756e-03
3.628827e-03
-3.237982e-04
-2.479693e-03
-1.351006e-02
1.238808e-03
2.582465e-02
-4.554120e-04
-1.463932e-02
-5.433052e-03
1.433657e-02
-1.247425e-02
-1.594926e-02
6.805299e-03
4.099298e-04
-1.345028e-02
-1.284301e-03
-2.070370e-02
-1.396656e-02
-1.762733e-02
-2.288991e-02
-3.590473e-03
-1.862940e-02
-2.370613e-03
8.339699e-03
-2.704672e-02
1.424694e-02
2.982085e-03
4.950173e-03
-6.732228e-03
-9.150679e-03
9.436691e-03
-5.014519e-03
-1.420737e-02
3.204804e-03
-1.615862e-02
5.165020e-03
-4.259628e-03
-1.387879e-02
-3.722248e-04
4.471820e-05
-1.111357e-02
-2.756166e-02
9.411136e-03
-1.171378e-02
-9.555596e-03
-1.785948e-03
2.538337e-02
5.130028e-03
-4.418504e-03
4.137109e-03
5.077587e-03
-4.504443e-03
1.410467e-03
-1.917779e-02
-3.398713e-02
-1.044729e-03
8.697640e-04
-1.389607e-02
-1.414960e-02
-2.947414e-02
2.346757e-02
-1.929095e-03
-2.925201e-02
5.347291e-04
1.124103e-03
-8.300294e-03
-1.680270e-02
-2.027308e-02
-1.469270e-02
-2.989967e-02
-2.093660e-02
-3.961933e-04
1.537712e-02
-1.104993e-02
-1.433421e-02
-9.400126e-03
-2.519433e-02
-2.493493e-02
-3.574548e-02
-7.869682e-02
-3.624168e-02
2.637637e-02
7.308636e-04
2.360829e-04
1.421030e-02
-1.414048e-03
-5.245553e-03
1.640407e-02
-1.064000e-02
-1.351280e-02
1.630987e-02
1.085300e-02
8.717442e-03
3.275416e-03
5.995096e-04
1.081687e-02
-1.533917e-02
-2.527897e-03
-5.311767e-03
1.000540e-02
3.964910e-03
2.032955e-02
9.467486e-03
5.350828e-03
-2.770742e-03
-8.374930e-03
-2.488771e-02
-7.073813e-03
-2.874123e-03
-7.305752e-03
1.283084e-03
-7.561749e-03
-2.142086e-02
-2.490147e-02
-9.310871e-03
-1.249126e-02
-2.061338e-02
1.235801e-02
1.427596e-02
1.777349e-02
1.460674e-03
-5.022305e-03
-3.656273e-03
-4.472536e-03
-1.967501e-02
-4.714536e-03
2.522191e-02
2.029224e-02
-3.228148e-03
-3.422948e-03
-1.474959e-02
-4.722816e-03
-2.889001e-02
-2.735003e-02
-2.703323e-02
1.981475e-02
1.397971e-02
2.301897e-03
-2.206495e-03
-5.883643e-03
-1.649326e-02
-1.157446e-02
-1.483915e-02
-1.813255e-02
8.418295e-03
-2.553468e-02
-6.823311e-03
3.954783e-02
1.029739e-02
2.908642e-02
3.006638e-02
3.382599e-02
2.971069e-02
-1.794370e-02
-1.509308e-02
-1.005257e-02
-9.983546e-03
-5.565185e-04
1.747809e-03
2.835706e-02
1.742341e-02
1.969780e-02
-2.013177e-02
-6.791269e-03
7.980792e-03
-2.569913e-02
-7.401249e-03
-7.692117e-03
-7.339736e-03
6.943190e-03
-2.105975e-02
-2.628999e-02
-2.183787e-02
-3.607435e-03
1.164708e-02
1.358893e-03
2.283028e-02
2.128922e-02
3.331571e-03
2.083282e-02
-5.112566e-03
3.557664e-02
1.844650e-02
2.235400e-02
4.909073e-03
5.343797e-02
-1.824899e-02
1.721879e-02
8.827369e-03
-1.515282e-02
3.803599e-03
-2.459577e-02
3.982474e-02
1.878563e-02
1.078733e-02
2.742242e-02
9.745128e-03
1.006272e-02
-2.777720e-02
5.035776e-04
-2.212577e-02
-1.362688e-02
-6.253170e-03
-1.996863e-02
6.163100e-03
8.888475e-03
2.559582e-03
-1.211839e-03
5.188603e-03
-2.965404e-02
4.290276e-03
5.247659e-03
-1.012297e-02
-1.313683e-02
9.869514e-03
-3.036779e-02
3.896186e-03
2.685198e-03
2.049170e-02
-2.478794e-03
1.709149e-02
3.724150e-02
-4.299536e-02
-1.677297e-02
-1.271467e-02
-1.080773e-02
-9.272412e-03
2.841747e-03
-1.526498e-02
-3.677319e-02
-6.127327e-03
-5.107020e-03
-1.717439e-02
-9.793117e-03
-1.616294e-03
1.169709e-02
2.337363e-03
-7.552727e-03
1.796838e-02
-8.684082e-03
-1.000305e-02
-1.933966e-02
1.681708e-03
3.276228e-03
2.297303e-03
1.306192e-02
-1.280190e-02
-1.370449e-03
-3.862492e-03
-1.613937e-02
-2.292358e-02
1.577396e-03
2.856341e-02
2.135536e-02
1.515292e-02
2.243511e-02
7.193908e-03
8.493439e-03
4.128864e-03
-1.195173e-02
-2.714044e-02
-1.934959e-02
-6.183540e-03
1.699993e-03
-3.220616e-02
-2.149995e-02
-5.454355e-03
-1.541721e-02
-2.746668e-02
-2.135687e-03
-6.648274e-04
-1.088531e-02
-2.334233e-03
-1.204766e-03
9.258846e-03
-4.814255e-03
3.606383e-03
-3.902978e-03
9.294957e-03
-1.075066e-03
-1.347057e-02
6.186950e-03
2.445645e-02
1.616299e-02
2.126453e-02
1.928525e-02
-1.151058e-02
1.316116e-02
3.511899e-02
-5.121844e-03
-1.130443e-02
5.026090e-03
1.226615e-02
-2.686089e-04
4.381850e-03
1.191898e-03
-4.949922e-03
-1.823951e-04
-4.448222e-04
-3.160401e-02
-3.276511e-03
1.617605e-03
-2.364389e-02
1.579569e-02
8.120682e-03
-2.103233e-02
1.291037e-02
2.934646e-02
1.121842e-02
-1.350896e-02
3.484600e-03
2.868007e-03
-4.365766e-02
3.160971e-03
1.645019e-02
3.737904e-03
-1.638854e-02
-1.592552e-02
1.109216e-02
-3.182057e-02
-1.368059e-02
2.773791e-03
-7.317296e-03
1.252264e-02
-1.000909e-02
1.291598e-02
1.440333e-02
1.718513e-02
2.067556e-02
1.637666e-02
2.069078e-02
-1.122624e-02
-2.267798e-03
-2.658137e-03
2.866370e-02
3.479775e-02
7.968151e-04
2.359350e-02
9.879586e-03
1.899347e-02
8.533563e-03
1.816992e-02
2.753712e-03
4.238878e-03
-1.865380e-02
-3.289079e-02
-2.111997e-02
2.839018e-04
-2.620305e-02
-3.879056e-03
1.478048e-02
1.513640e-02
1.370445e-02
-5.931097e-03
1.818162e-02
1.273208e-02
4.372061e-03
1.686746e-02
8.790549e-03
-8.754632e-03
4.486411e-02
2.445259e-02
-7.875284e-03
1.043497e-02
1.529530e-02
-2.466111e-02
-5.510700e-03
-1.007651e-02
-1.771422e-02
-5.177625e-02
-1.364089e-02
-1.888826e-02
1.014112e-02
2.064426e-02
1.301806e-02
2.925104e-02
3.258103e-02
2.109922e-02
2.354298e-02
3.892507e-03
-2.196200e-03
-1.606821e-02
1.177585e-02
9.683107e-03
-2.933572e-03
5.441596e-03
-8.277409e-04
-2.101674e-02
5.607799e-03
1.501615e-02
1.214739e-02
4.452912e-03
1.740140e-02
1.763318e-02
2.476681e-02
7.164805e-03
-1.994160e-02
4.038785e-04
-1.593140e-02
-1.589092e-02
1.322005e-03
7.767445e-03
-1.757500e-03
-1.471704e-02
2.170658e-02
9.544712e-03
1.656398e-03
-5.483994e-03
6.699591e-03
1.418715e-02
-2.560935e-03
-3.123769e-03
-5.552120e-03
6.504701e-03
8.160330e-03
9.160198e-03
-1.407984e-02
6.059595e-03
1.447176e-02
-3.590359e-02
1.534809e-02
1.559521e-04
-3.032403e-02
8.722410e-03
1.445716e-02
-3.085627e-03
8.410543e-03
5.382779e-03
-1.497480e-02
2.197066e-03
1.216946e-02
-2.616819e-02
4.032176e-03
-3.206370e-02
-2.195060e-02
1.221639e-02
-2.849627e-02
-1.443005e-02
-2.152985e-02
-2.686185e-02
-4.549482e-03
-1.749182e-02
1.848844e-03
-1.664459e-02
-3.367698e-03
7.922758e-03
3.494343e-03
-1.981501e-02
-8.896500e-03
-1.155045e-02
3.947102e-02
3.510728e-02
2.435117e-03
2.146733e-02
2.737382e-02
-1.459524e-02
-9.990627e-03
-1.830512e-02
-2.544421e-02
1.517824e-02
1.820417e-02
9.299600e-03
2.066365e-02
1.217921e-02
1.201247e-02
1.493684e-02
-1.472876e-02
-2.645032e-03
-3.354705e-02
-1.247504e-02
-2.434979e-02
-1.249020e-02
2.051551e-02
9.598411e-03
-8.248255e-03
-4.299799e-03
-1.109261e-02
-2.017241e-02
-1.846774e-02
-3.465667e-02
-2.343645e-02
-3.319144e-02
-3.372360e-02
-3.003733e-02
-2.290704e-02
-1.096429e-02
3.960158e-02
2.534944e-03
3.669079e-03
3.537141e-04
5.749643e-03
-9.707796e-03
1.398912e-03
-1.775442e-03
-1.266363e-02
-2.621379e-02
-8.368397e-03
-1.338816e-02
-2.341299e-02
-4.863636e-03
8.809869e-03
1.086097e-02
-8.523745e-03
9.100235e-03
-1.436065e-02
-1.939046e-02
-7.326976e-03
-1.671999e-02
-1.888783e-02
-6.891983e-03
-1.671719e-02
-7.437719e-03
-3.018445e-03
8.662285e-03
-2.499009e-03
-3.584501e-02
-2.470956e-03
-7.514992e-03
-7.729919e-03
-3.942694e-02
-1.278787e-02
-1.584929e-02
-2.656440e-03
-3.464997e-02
-3.002342e-02
5.830387e-03
3.289925e-02
1.230073e-02
4.370241e-03
2.981582e-02
8.050232e-03
1.743556e-02
-1.522063e-02
-1.015039e-02
-7.990867e-03
-9.104821e-03
-1.722038e-02
1.008444e-02
1.262385e-02
1.437121e-02
-1.464027e-02
-1.552525e-02
-1.342349e-02
1.302307e-02
1.449054e-02
-2.621116e-02
2.627300e-02
-3.822192e-03
1.596126e-02
-1.391045e-02
-4.481755e-03
-1.328875e-02
1.150520e-02
