-9.828179e-02
-1.404907e-01
3.925768e-01
-8.798108e-03
1.990231e-01
-2.474318e-02
-1.545963e-01
-5.599869e-02
2.719658e-01
-1.329541e-01
-1.332702e-01
-7.982279e-02
5.242176e-02
-1.003036e-01
-6.926579e-02
5.921245e-02
1.888133e-01
-4.967043e-02
3.327281e-01
3.322513e-02
6.889708e-02
1.090572e-01
-1.403841e-01
-3.974746e-02
4.505503e-01
-4.502483e-02
-8.501389e-02
1.058829e-01
1.548532e-01
-1.199842e-01
-8.529928e-02
-1.407299e-02
-1.658243e-01
-2.137737e-01
-1.846376e-01
4.481182e-01
6.901751e-02
-3.675247e-02
-1.698510e-01
-9.790422e-02
-2.133622e-01
2.829430e-01
-7.546101e-02
-1.519320e-01
-1.120980e-01
-1.254790e-01
1.497964e-01
8.193082e-02
-1.509115e-01
3.375627e-01
-1.356550e-01
-1.109149e-01
-7.527510e-02
-5.520357e-02
-1.570725e-01
-4.627830e-02
-9.088101e-02
-1.955337e-01
-3.828907e-02
2.836966e-01
9.354629e-02
2.440352e-03
1.077194e-03
-1.128614e-01
-5.340010e-02
-1.136891e-01
3.077284e-01
-5.625524e-02
1.258400e-01
-8.281570e-02
4.382131e-02
-8.210130e-02
-1.771734e-01
-1.508257e-01
-6.322299e-02
4.514708e-02
1.439948e-01
1.329474e-01
1.108991e-01
-1.553251e-01
1.843758e-02
9.658053e-03
-1.128147e-01
4.320665e-01
-4.232881e-03
-8.372517e-02
3.837021e-01
2.567741e-01
-9.971008e-02
-1.158587e-01
-2.172420e-01
-8.568836e-02
-2.016289e-01
-1.682149e-01
4.047628e-02
-1.590495e-01
-1.278543e-01
1.856398e-01
-1.570299e-01
-1.719467e-01
1.776551e-01
-6.025869e-02
3.316806e-01
-1.673300e-01
1.660555e-02
1.687866e-02
-1.137495e-01
-1.913798e-02
2.140388e-01
-1.683576e-01
-2.369718e-01
3.244573e-01
4.364216e-02
-7.776394e-02
-1.627343e-01
-1.038509e-01
-8.640892e-02
-1.007922e-01
-3.743248e-02
3.792442e-01
-1.318485e-01
2.128090e-01
-3.327681e-02
-1.777072e-01
1.731501e-01
-4.184537e-02
-7.206583e-02
-6.640417e-02
9.808483e-02
-1.331373e-01
-9.806318e-02
-9.513026e-02
1.580553e-01
-9.664100e-02
-9.956526e-02
2.029472e-01
1.637024e-01
-2.269848e-02
-6.544735e-02
-1.376870e-01
2.223431e-01
-7.673130e-03
-9.702958e-02
-1.244438e-01
-1.310418e-01
2.080001e-01
1.835359e-01
-2.476985e-02
-4.253332e-02
-1.213137e-01
-1.321470e-01
-8.504976e-02
-1.235231e-01
-8.583740e-02
-1.214906e-01
2.799248e-02
3.353902e-01
-8.525795e-02
-1.258417e-01
6.412537e-01
1.940036e-01
-6.606459e-02
1.649087e-02
-4.404787e-02
-1.802924e-01
-1.785215e-01
-2.164805e-01
1.519829e-01
3.741470e-01
9.472493e-02
-1.250579e-01
-4.876152e-02
1.065346e-01
4.066257e-01
2.644566e-02
-1.734862e-01
-1.294360e-01
-5.354729e-02
-1.286271e-01
-1.187150e-01
-1.125895e-01
1.087679e-01
8.005808e-02
-6.525169e-02
1.169599e-02
6.452939e-02
-8.939988e-03
-2.015175e-01
-6.014754e-02
2.064161e-01
3.513019e-01
-1.799807e-01
2.007059e-01
1.172324e-01
-5.751996e-02
2.615011e-01
3.187431e-02
8.386716e-02
8.304463e-02
-1.970007e-01
-4.939734e-02
-1.258533e-02
2.050017e-01
-9.244253e-02
-6.524973e-02
-9.617156e-02
-1.160314e-01
-9.272698e-02
-1.257118e-01
7.030571e-02
-1.694113e-01
-1.514449e-02
-1.293354e-01
-4.149019e-02
-4.584561e-02
-1.150380e-01
1.409267e-01
4.530203e-01
9.404678e-02
5.171620e-01
-2.596915e-02
-7.194722e-02
1.273224e-01
-1.018550e-01
-1.226045e-01
1.958214e-01
5.673503e-01
-1.870041e-01
-1.841888e-01
2.739258e-02
-5.344757e-02
-7.986796e-02
2.336044e-01
-1.310829e-01
8.291312e-02
-1.173662e-01
-1.259300e-01
-1.499656e-01
1.503510e-01
7.455077e-02
-4.242548e-02
-6.225822e-02
1.340525e-01
1.283813e-01
-9.458949e-02
-1.364591e-01
-1.289374e-01
-1.357120e-01
-9.897361e-03
5.071017e-03
-1.044041e-01
-1.655363e-02
-1.100065e-01
-4.662955e-03
3.380778e-02
1.517008e-02
-6.548683e-02
2.011763e-01
1.482647e-03
-7.312164e-02
-1.376269e-02
-4.704318e-02
-8.921418e-02
1.976324e-02
-7.347719e-02
2.869072e-01
-5.584465e-02
-2.084332e-02
-1.403760e-01
1.669988e-01
2.507316e-01
-1.457911e-01
-6.550988e-02
4.934386e-01
-9.882705e-04
-1.942439e-01
3.295844e-01
1.358260e-01
-1.664086e-01
-9.856284e-02
-1.399601e-01
-1.252031e-01
-9.309489e-03
-1.314592e-01
-1.757865e-01
-1.485795e-01
-1.180211e-01
-7.337562e-02
-5.493682e-02
-2.006900e-01
2.396394e-01
2.153636e-01
-2.464052e-01
-1.289823e-01
-3.276333e-02
1.939159e-01
-7.103011e-05
-4.734959e-02
-2.026817e-02
3.316345e-01
-1.628393e-01
-1.319217e-01
-1.651736e-01
1.557011e-01
-1.584121e-01
-1.601895e-01
2.786549e-01
-6.750246e-02
-1.083176e-01
2.813579e-01
2.092665e-01
-5.517050e-02
-7.053494e-02
-7.966927e-02
3.822846e-01
8.118038e-02
-6.742308e-02
-1.447515e-01
2.540802e-04
2.853911e-01
-9.444828e-02
1.775918e-03
-2.460862e-02
2.826207e-01
-1.308789e-01
4.698243e-01
-6.160080e-02
-7.975766e-03
-5.766499e-02
6.983800e-02
5.020194e-01
-5.576119e-02
-3.524493e-02
-6.363524e-02
-1.205472e-01
-7.099029e-02
-1.514059e-01
-1.865881e-01
-1.827133e-01
-3.013355e-02
1.133752e-01
-1.393855e-01
-9.344657e-02
-1.532619e-01
4.838404e-02
6.330526e-02
1.009335e-01
1.863683e-02
-1.581674e-01
4.983176e-01
-9.614200e-02
2.346854e-02
2.700289e-01
-1.021738e-01
7.596267e-02
-7.598957e-02
-2.134897e-01
-3.545423e-02
8.185930e-02
1.367789e-01
-1.126940e-01
-1.474854e-01
6.379301e-02
-1.931219e-01
6.183535e-02
2.441247e-01
-2.311817e-01
2.822879e-01
1.979630e-01
1.059510e-01
-7.773219e-02
-1.654549e-01
3.528500e-02
-1.264923e-01
-1.289728e-01
-2.901871e-02
1.638748e-01
2.289087e-02
1.507539e-01
-8.866962e-02
-9.526800e-02
-7.175662e-02
4.807670e-02
2.075558e-01
3.556677e-01
-1.075915e-01
-9.045667e-02
-1.005040e-01
-9.487391e-02
-7.941881e-02
-6.079789e-02
-8.588031e-02
-6.257055e-02
1.503914e-02
-1.584828e-01
2.091118e-01
9.575521e-03
-9.353013e-03
-1.407264e-01
-9.258353e-02
-8.825356e-02
-1.494552e-01
-7.452067e-02
7.262146e-02
-1.228105e-01
3.700031e-01
-9.519514e-02
-1.606123e-01
-1.615289e-01
1.770827e-01
-1.982152e-01
-9.658832e-02
2.391658e-01
4.173441e-01
-8.465867e-02
-2.361401e-03
-9.278408e-02
1.320328e-01
-4.884682e-02
-8.426470e-02
2.421576e-01
-1.430252e-01
-1.986356e-01
-1.697918e-01
-1.786503e-01
6.210556e-03
-2.643064e-02
2.829576e-01
2.104888e-01
-7.260351e-02
-1.450106e-01
-2.035001e-01
-1.536178e-02
-1.052128e-01
-8.864231e-02
5.460759e-01
-9.791160e-02
1.315981e-01
2.237210e-01
-5.876168e-02
3.324059e-01
-6.290197e-02
-1.143641e-02
-7.077851e-02
-1.164346e-01
-8.114672e-02
-1.305955e-01
4.804760e-02
-5.355261e-02
3.814933e-01
-1.453917e-01
-7.892904e-02
-1.164503e-01
-7.779034e-03
-9.007971e-02
1.398389e-01
-8.563941e-02
2.314850e-01
-3.094976e-02
-9.318173e-02
-1.384075e-01
-3.188499e-02
1.804279e-01
3.353358e-01
-9.717952e-02
-1.226381e-01
-1.447778e-01
-1.458647e-01
-3.946541e-02
-1.073233e-01
-8.880844e-02
-9.881338e-02
7.087330e-02
-1.562294e-01
-5.770205e-02
-9.527349e-02
8.272599e-02
-1.054450e-01
-1.298185e-03
2.121244e-02
-5.209085e-02
1.768436e-01
-1.808063e-01
-2.239414e-01
1.432972e-01
1.398337e-01
4.410038e-01
3.567676e-01
7.956300e-03
-2.143341e-01
5.142243e-01
-1.969929e-01
-1.381744e-01
6.831814e-02
-1.078988e-01
-1.548036e-01
-1.307381e-01
1.644730e-01
2.326706e-02
-7.489347e-02
-2.702073e-02
-8.109372e-02
-6.245467e-04
-1.161470e-01
-1.254972e-01
-1.142830e-01
-1.270483e-01
2.321695e-01
3.001205e-01
2.551440e-01
-7.522263e-02
8.286434e-03
-8.567832e-02
-9.323537e-02
-1.484795e-01
-1.149672e-01
-1.462203e-02
-2.231780e-02
-1.915205e-02
-1.032802e-01
-7.706825e-02
-9.402357e-02
-5.994940e-02
-1.045338e-01
5.150127e-02
-9.601571e-02
1.270444e-03
2.976763e-01
2.577534e-01
-1.438365e-01
2.004535e-01
-2.774677e-01
-5.072467e-02
-6.593134e-02
-4.514940e-02
3.258832e-03
-4.487177e-02
-1.251000e-01
-1.230538e-01
-6.766965e-02
-2.583999e-01
-1.726294e-01
5.671252e-01
-1.366159e-01
1.731537e-01
-6.714042e-02
-1.669916e-01
2.455607e-01
1.211590e-02
2.424593e-01
-1.074707e-01
-1.374728e-01
-1.022407e-01
-1.048591e-01
-1.284142e-01
2.555788e-01
8.171116e-03
-9.198255e-02
3.643728e-01
-1.463956e-01
1.085682e-01
-1.106153e-01
-1.060663e-01
-1.448951e-02
3.889335e-01
-9.051849e-02
2.153924e-02
2.437453e-01
2.122914e-02
3.354005e-01
-4.696547e-02
-1.479087e-01
-6.026872e-02
-9.695017e-02
-1.739994e-02
-1.056348e-01
-9.018764e-02
-5.965503e-02
-3.858375e-02
-7.146309e-03
-9.064128e-02
-6.955124e-02
3.652473e-01
2.161136e-01
1.746729e-01
-7.547897e-02
-1.142731e-01
3.657900e-01
-1.269055e-01
7.564098e-02
2.179888e-02
-2.758063e-02
1.807555e-01
-9.003549e-02
-1.257695e-01
1.190991e-01
-1.360499e-01
-1.263103e-01
3.615558e-01
3.816093e-01
-1.208002e-01
-9.585547e-02
5.105852e-01
-1.165231e-01
-8.382434e-02
-1.528586e-01
-1.532046e-01
-1.306054e-01
1.865406e-02
-1.419794e-01
-1.316198e-01
-7.962847e-02
1.805219e-01
1.280072e-01
-1.082464e-01
-1.447282e-01
-9.620886e-02
2.185870e-01
-1.206274e-01
-1.753062e-01
-9.618857e-02
8.474911e-02
4.978494e-02
-2.322995e-01
2.490650e-01
-5.651312e-03
3.021567e-01
4.259503e-02
1.172563e-01
-3.129825e-02
-5.938989e-02
-1.263602e-01
-1.031183e-01
-1.127381e-01
-7.632779e-02
9.915075e-02
-1.329757e-01
-1.382977e-02
-1.324975e-01
-8.318764e-02
